0
-0.02593226
0.057905994
-0.044874698
0.026259854
0.088067226
-0.048097234
0.081080265
0.080670096
0.08250534
0.03342335
0.07332424
-0.02531559
0.055492558
0.032235987
-0.04158445
-0.064117536
0.024930306
-0.013837241
0.041177504
-0.0035152808
0.03775572
-0.082709156
-0.051000964
0.07628509
-0.06497527
0.020387031
-0.044003807
-0.04680654
-0.070921466
-0.08182011
-0.03378891
-0.031108808
-0.0145313665
0.019615836
0.082648404
0.01624883
-0.046826728
0.020311885
-0.005253665
-0.051718924
0.05028657
0.08684025
0.0051903874
0.058328502
0.0030893981
-0.024746396
-0.0011258051
0.009364478
-0.047634102
0.08670295
0.08593247
0.0027630404
0.06318163
0.07252786
-0.06703557
0.07918876
0.057799973
0.0104535
0.010251462
0.0395497
0.046691246
-0.047801692
-0.020405889
0.023940086
-0.04909879
-0.06800175
-0.05143295
0.053654917
0.058328204
-0.02987044
-0.06336427
0.03325384
0.068420835
0.04692488
-0.082588986
-0.07589699
0.021242328
0.02862797
0.009312801
-0.036767025
0.007774368
0.005740799
-0.00920409
0.038676776
0.034853064
-0.08796635
-0.07959338
0.027289718
0.010102041
-0.023183197
0.034215942
0.022671655
-0.039866302
-0.030939296
0.04653891
-0.038810387
0.031942382
-0.06915085
0.0503347
0.049681164
0.013126902
-0.027583458
-0.068892255
-0.02113673
0.040651
0.03966648
-0.015383527
0.049802564
-0.058378242
0.024514124
0.06734041
-0.06515654
-0.057832174
-0.054809224
-0.062384196
-0.030804109
0.08209633
-0.05958946
0.071146734
0.052856453
-0.015741229
0.017883562
0.047776587
0.040136226
0.027513504
-0.07875912
-0.032302104
0.03939692
