0,1,2,3,4,5,6,7,8,9,10,11,12,13,14,15,16,17,18,19,20,21,22,23,24,25,26,27,28,29,30,31,32,33,34,35,36,37,38,39,40,41,42,43,44,45,46,47,48,49,50,51,52,53,54,55,56,57,58,59,60,61,62,63,64,65,66,67,68,69,70,71,72,73,74,75,76,77,78,79,80,81,82,83,84,85,86,87,88,89,90,91,92,93,94,95,96,97,98,99,100,101,102,103,104,105,106,107,108,109,110,111,112,113,114,115,116,117,118,119,120,121,122,123,124,125,126,127
0.041662622,0.006330835,0.14528598,0.25920808,0.10151512,0.06353457,-0.0048335535,-1.6240532,-1.128427,0.51386744,-1.1452317,-0.7458802,1.0188279,-0.009406384,0.0013691657,-0.65460783,0.6514705,-0.92493844,-0.0023831762,0.21649414,0.6015857,0.61540467,-0.1907357,-2.438256,-0.044251654,-0.19644046,-0.013476998,-0.09831322,-0.15139082,0.3615539,-0.20522745,0.03334181,0.31616378,0.8598722,-0.51158977,0.044921353,-0.49850574,1.3220426,-1.8088609,0.42755142,-1.2888457,1.2579217,0.010036297,1.387083,0.9896218,-0.011938029,0.43046322,0.057046298,-0.6334807,0.089179166,0.033541188,1.836547,-0.020084972,0.321176,0.05134217,-0.0043104,-0.8136675,1.0106541,-0.09414266,-0.03514916,-0.4571499,0.8635058,-0.9977655,-0.43336096,-1.4253169,0.41274554,-0.19170134,-1.3547528,-0.047599494,-0.7961683,1.1379843,0.059953205,-0.18152767,-0.09340221,0.31946123,-0.2990374,0.47924173,-0.70270175,-0.023813054,0.0017029815,-0.06870975,-0.38295922,-0.13971847,0.074249186,0.8939044,-0.26050752,1.5070118,0.38582733,-0.23087445,0.08565655,-0.07109486,-0.83641714,-0.26072785,-1.342581,0.13411716,-0.14729883,-0.21201955,0.11065896,-1.316725,-0.08931453,0.91528666,-0.9177711,0.015820011,1.611265,0.068029195,-0.15961868,-0.13100567,0.14610857,1.4924699,1.1709727,0.27406913,0.47741053,-0.12804985,0.33070862,-1.1788301,-1.0654663,-0.31053677,2.461799,-0.026614103,-0.8369276,-0.6066795,-0.5247211,0.08622399,-0.0120878015,-0.026337793,1.7609527,-0.37577274,-0.13175365
