0
-0.0035945922
-0.07899816
-0.036716025
-0.062205806
0.033905454
-0.03570507
-0.0005570948
0.06821487
-0.05690993
0.05888153
-0.015237294
-0.061311904
0.008620009
0.047331326
0.019368477
-0.018699639
0.053044282
-0.016169637
0.0013207942
0.03989009
-0.0765938
0.0701699
-0.03755865
0.037833907
0.035938405
0.021227963
-0.038059406
-0.019213066
-0.050514948
0.0627195
0.052909143
0.0018063113
0.024973221
0.041157357
0.030803137
-0.007936187
-0.031830963
0.008006908
0.059683718
-0.052588847
-0.08736735
0.068835236
-0.011836447
-0.0009808615
0.068379946
-0.02233494
0.01165849
-0.04270388
-0.02972535
0.07552449
-0.06313579
0.015327789
-0.05720656
-0.02643814
0.015806079
-0.02719792
-0.03633482
0.0072628483
-0.0035834834
0.07206073
0.0034490004
0.045984693
-0.019735686
-0.034455806
-0.022106022
-0.07051951
-0.057553228
0.0529185
-0.06496933
-0.022335477
-0.04554378
0.011437476
-0.0039307326
0.032560274
0.051577948
0.070364915
0.016409665
-0.039342374
-0.060844485
-0.0018380955
0.009784728
-0.04702802
-0.02401729
-0.003955759
-0.0014706105
0.03727884
-0.009856038
0.0026194975
0.048131816
-0.051985912
0.016387224
-0.04466158
0.02637615
-0.038121074
0.00886523
0.0736806
-0.024099596
0.041524284
0.002754867
0.051284738
0.08082364
0.078783505
0.019385397
0.00047837943
0.053895943
0.065596215
-0.06854965
0.05358807
-0.049394682
-0.05905433
-0.022128254
0.049768947
-0.0011027381
-0.018114336
-0.02017168
-0.04832015
0.0030889288
-0.05023094
-0.004111856
0.0504949
-0.07907617
0.08190464
0.030423515
-0.016278438
0.039289035
0.04311619
0.038328864
-0.02201254
