0
0.082290895
0.07473799
0.00872229
0.057339437
-0.04326526
-0.058682192
0.015671909
0.05904401
0.011844002
0.06738555
0.04520697
-0.014900342
0.053869374
0.026295356
-0.001871571
0.04723426
-0.0045583025
-0.09300102
0.033416875
0.058276124
-0.026174448
-0.022146188
-0.069219686
-0.011807978
0.051582046
0.06763845
-0.07973039
-0.07329063
0.095643096
-0.0744792
0.0033649206
0.05590742
-0.06821258
0.06321973
0.08178743
0.069760345
-0.030157268
-0.02885691
-0.0655667
-0.06409405
0.026048847
0.0701902
-0.009057149
0.025343262
0.09119021
0.013894394
0.0068121925
-0.094159834
-0.087336205
0.007281162
0.07172478
0.06596104
0.027332075
-0.050823092
-0.05698341
-0.045072496
-0.06007495
-0.04646913
0.071200214
-0.047462214
0.03773629
-0.026058495
-0.099064946
0.06974054
-0.011130117
0.09539973
0.022195563
-0.022284485
-0.046788562
-0.07319262
-0.080451906
0.032217942
0.06669674
-0.082196355
0.05084548
-0.016596869
0.08667833
0.048779093
-0.015986562
0.09703886
0.013100386
0.07841658
0.04274776
-0.03891244
-0.075530745
0.030421562
-0.06998179
0.0073613524
-0.024808273
-0.07990952
0.075374134
-0.03139472
0.043830194
-0.01638224
-0.07098468
0.008475974
-0.0690812
-0.0674209
-0.029520236
0.070627965
0.06527441
-0.03372141
-0.027141869
-0.07668555
-0.064319566
0.024074472
0.058973797
0.092551626
0.002978012
0.0026581064
0.01180245
0.072317116
0.025347777
-0.082421206
0.033251114
0.09020261
0.0009885579
-0.008381046
0.067730136
-0.0106515065
0.043435745
0.08957546
-0.08235256
-0.083169565
0.060998358
0.081402
0.033668168
-0.09006303
