0
-0.024877053
0.060742132
-0.045500573
0.025520187
0.08842834
-0.048820164
0.08395612
0.080780804
0.08048403
0.033987187
0.071838506
-0.022463722
0.05384116
0.039043255
-0.04232803
-0.06445558
0.026457842
-0.008309325
0.0411679
0.00012453528
0.040619217
-0.085506156
-0.051412463
0.076116934
-0.063546814
0.0246349
-0.04479897
-0.046854116
-0.0700297
-0.08439868
-0.03432001
-0.032971498
-0.015221005
0.019045368
0.0893935
0.016969329
-0.039521597
0.022815654
-0.005126451
-0.047907025
0.058605336
0.08726786
0.015955687
0.057370175
0.0034529998
-0.018322544
-0.0015660002
0.010402653
-0.047201157
0.08597278
0.09332551
0.007291189
0.06235293
0.07156092
-0.0654129
0.08301048
0.05974119
0.014667072
0.016284507
0.039259106
0.045061186
-0.04579484
-0.021135602
0.021855643
-0.049781676
-0.057446707
-0.051935762
0.057755277
0.059107065
-0.029395727
-0.0633013
0.033388633
0.06772376
0.04494248
-0.08067876
-0.07023141
0.022757998
0.030714953
0.015947672
-0.037144385
0.007441965
0.004453409
-0.011602938
0.041849814
0.03505619
-0.08729427
-0.073597565
0.025649512
0.008124519
-0.020245163
0.041495055
0.023507494
-0.041201413
-0.029524151
0.04501527
-0.036340933
0.03271423
-0.06924516
0.05003239
0.05175615
0.016259424
-0.02454018
-0.070316285
-0.018578272
0.04277954
0.037960257
-0.017056515
0.04979192
-0.058478367
0.024874303
0.06796402
-0.06522521
-0.05211361
-0.055884365
-0.05947425
-0.03007424
0.08448954
-0.05891705
0.071131386
0.062594146
-0.014934595
0.013893415
0.046213683
0.039214335
0.026728302
-0.07191139
-0.030393675
0.036590405
