0,1,2,3,4,5,6,7,8,9,10,11,12,13,14,15,16,17,18,19,20,21,22,23,24,25,26,27,28,29,30,31,32,33,34,35,36,37,38,39,40,41,42,43,44,45,46,47,48,49,50,51,52,53,54,55,56,57,58,59,60,61,62,63,64,65,66,67,68,69,70,71,72,73,74,75,76,77,78,79,80,81,82,83,84,85,86,87,88,89,90,91,92,93,94,95,96,97,98,99,100,101,102,103,104,105,106,107,108,109,110,111,112,113,114,115,116,117,118,119,120,121,122,123,124,125,126,127
-0.009170614,-0.028235573,-0.03589406,0.06190417,-0.072537705,-0.019405179,0.087372266,-0.04997398,-0.017266795,-0.086278014,0.07241533,0.012339458,-0.05425961,0.06942289,-0.02189675,0.0852916,-0.08374759,-0.046190575,0.07366233,-0.0074102506,-0.041775007,0.048264854,0.038601585,-0.049352746,0.02202554,0.027218811,0.033836573,0.081429265,-0.06939516,-0.0030519366,-0.055223666,-0.01594054,-0.0051061735,0.07312255,0.012527116,0.078063406,-0.053533576,0.0044842064,0.02994714,0.07119211,-0.021314196,0.059422188,-0.07930039,0.026432335,-0.027518477,-0.0054644123,-0.022277221,-0.020988278,-0.08618975,0.0026565492,0.04056654,0.08016258,-0.014535308,-0.08814943,0.019412436,0.037962638,0.0733232,0.039227568,-0.07226587,-0.06511793,0.060835354,0.038987868,-0.08039136,0.027178504,-0.06746168,0.060020857,0.00082843006,-0.04641233,0.071989246,0.051615782,0.06411757,0.08131982,0.022065908,-0.024505071,0.04513111,-0.059456147,-0.031973664,-0.08768156,-0.08209381,0.070826046,0.023186542,0.01336433,-3.9868057e-05,0.06532582,0.04550495,0.008943506,-0.060873717,-0.035603486,0.023001276,0.017440021,0.006108299,0.015567616,0.078345515,-0.07402386,0.0019240528,0.0022441521,-0.037450626,0.040346734,-0.07332999,0.06978353,0.026919603,0.05444113,-0.0053615123,-0.02421482,0.05406203,-0.0070008785,0.020433784,-0.0323425,0.063094415,-0.067813374,0.029166296,-0.014024489,0.004336983,0.06332254,0.053531833,0.031339735,-0.018241115,0.02127099,-0.010663331,0.030128144,-0.036288276,0.027166918,-0.037202276,-0.026120055,0.06731152,0.06601588,-0.013989128,0.036575563
