0
-0.02540661
-0.024686737
0.03329174
-0.019345054
0.0261573
0.019129794
0.03806134
-0.0013533421
0.028980758
0.020658035
0.009717379
-0.0128516145
-0.011413131
-0.0151627045
0.027190749
0.013626605
0.026135799
-0.020545086
0.035106238
-0.03192077
0.028479692
0.039499786
-0.032669373
0.038662743
0.034507792
-0.015848026
0.005333904
0.023612838
0.020133253
-0.04451112
-0.027695464
0.0254152
-0.013912529
-0.009113811
-0.032013275
-0.0018326752
-0.029100507
-0.030620161
-0.03371669
0.0034040026
-0.0399891
-0.023483763
0.0037074387
-0.017871376
-0.026150163
-0.023979692
-0.033134814
0.025340755
-0.02655535
0.01623562
0.042607415
-0.043386653
-0.04132578
0.040393326
-0.033545338
-0.04333624
0.016939327
0.0009781308
-0.010645438
0.001712665
-0.033709172
0.010437753
0.0035490654
-0.010330189
-0.027446877
-0.01598988
-0.03862785
0.04279546
0.036527153
0.03907263
0.036784027
0.016904242
0.018462654
-0.03283549
-0.0017295368
0.036364485
-0.024231778
0.029560912
0.0019742437
-0.006412562
0.0070964843
-0.025081528
0.011970766
0.02811427
-0.01740825
-0.009273544
0.036092784
0.00988223
0.03813724
-0.02434432
-0.041322485
0.026091564
-0.015018906
0.013485998
0.008609697
0.0047615133
-0.034382552
0.025490653
0.02643307
-0.022155594
0.029048365
0.014199235
0.044695016
0.0025070235
-0.017120007
0.040495772
-0.042029914
-0.020372527
0.020856049
-0.040585
0.01433463
-0.013458401
0.036443
-0.020020133
0.03133784
0.027523477
0.0061215647
0.012196701
-0.04046722
-0.037677802
0.016098842
0.042443518
0.015371416
0.0331179
0.039010603
-0.025134051
0.004160285
0.009057291
-0.012173414
0.030174997
0.010965526
0.03170636
-0.038776588
-0.03206513
0.012310088
-0.025787806
0.017853145
-0.04436446
0.042473454
-0.04139581
-0.013283458
-0.012001347
0.038620416
0.033573303
-0.033527493
0.0429284
-0.033253595
0.0430048
0.03474083
0.00066560507
0.0353028
0.026226494
-0.03905309
0.020217467
0.03937665
-0.042619742
0.028324772
0.039954413
-0.039741848
0.014826063
0.0075331517
-0.039328255
0.032338034
-0.030457145
0.03138804
0.0002385974
-0.033857685
0.0047159903
0.037617568
0.014651418
-0.042236626
-0.013951115
-0.04036165
-0.04389472
-0.017219622
0.01720415
0.04007225
-0.03262173
0.03996389
-0.039005198
-0.026823014
-0.03323809
0.0155564025
-0.028308254
-0.035370708
-0.038330562
0.020777058
-0.042912662
-0.0023965389
-0.0050292015
-0.0050943047
0.019313063
-0.030081678
0.0010795891
-0.042953737
-0.03110665
0.018842604
-0.021658583
-0.007275194
-0.011665076
0.03767019
-0.040578
0.03205156
-0.027300317
0.027205508
-0.0275942
-0.041391257
-0.03954866
0.030373562
0.0050645284
-0.043640956
-0.0074400865
0.019260164
0.011628117
-0.03497284
0.012826387
-0.043391477
0.0011860207
0.013687901
-0.0041245855
0.02338906
0.007190671
-0.023386404
0.04067639
0.0099726245
0.035075348
-0.038125392
0.029155571
-0.03451599
0.02537756
0.0030962713
0.031238686
0.011014476
-0.0024670176
0.03278062
0.016708232
0.03774828
0.031922247
0.0031032749
0.020533275
-0.013751548
0.009354375
-0.017135587
0.015783083
-0.03704435
0.021396335
0.007730007
-0.040311683
0.0062962286
-0.043471776
0.042320203
0.0036006197
0.017322958
-0.014748802
0.026058767
0.016665138
