0
-0.039451584
-0.0019435585
-0.031769533
0.031943683
-0.030307364
0.03954732
0.016322989
0.038424227
0.02853616
0.032058027
0.017739914
-0.031801805
-0.04123146
0.036036562
0.013041571
-0.00092251226
-0.0153135415
-0.017128943
0.028334986
0.013502654
0.042693358
0.01154336
-0.039675154
0.018705148
0.033580292
0.01536281
0.032655288
-0.013921101
-0.028912418
-0.0141733885
-0.023704309
0.013881255
0.023467284
0.01305915
0.007917933
-0.01130373
0.022163596
-0.036010683
-0.007393621
-0.042672817
-0.022199668
0.013523415
0.009988315
-0.010127086
0.0012190863
0.043722335
0.03786416
-0.037735734
-0.04255375
0.0009328872
0.038519267
0.024789605
0.02726562
-0.0017225184
-0.041101456
-0.024935763
0.011268534
0.018683027
0.03670932
-0.00931146
-0.04237724
-0.011368271
0.011117518
-0.03423988
-0.04058833
0.029242512
0.022966888
-0.02983375
-0.0028280169
-0.03154175
-0.03274149
-0.0018865466
0.033745017
0.029667784
-0.029851088
0.034829278
0.025084991
-0.0012332499
0.036489736
0.0043803826
-0.02414708
0.042896304
0.03738055
0.024668563
0.006664563
0.010944419
-0.042913333
0.012386158
0.006914489
-0.0144423265
0.020894732
-0.034139086
0.005394932
0.03108285
-0.03590601
-0.035310425
-0.0016780272
-0.010247733
0.04031795
0.017036717
0.0037546903
0.017068092
0.029121514
-0.013067342
0.01617736
0.03536051
0.0152919665
0.022868637
-0.03341823
0.029444229
0.035715137
-0.020089984
0.031475578
0.0349901
0.02843995
-0.0075194463
0.006144654
0.0012014881
0.038472172
0.012121163
-0.04255391
0.015938539
0.025845867
0.033461075
0.030824777
-0.00694355
0.039764594
0.013857152
