0
-1.0898668
-0.88403547
-3.5241861
0.84047604
-2.0543091
-3.3492734
0.30802062
-2.247737
0.5215078
0.72215074
2.1958897
-2.718142
0.4796913
-2.7866366
3.1811156
1.8678486
-3.7924745
-8.56519
4.9395103
-1.1700556
-1.253777
3.685217
-4.9792805
-3.6520317
-9.36589
-4.577284
5.709229
3.0229385
-5.052937
-2.8016434
-7.109698
0.048364267
-2.8759673
-1.2298006
2.521527
-1.2818846
2.9455066
-4.4050746
4.9418507
-4.3220744
-0.20712832
-2.7971318
2.4314818
3.98723
1.6613917
-8.699631
-0.9681953
1.6454221
2.588608
0.882706
-0.6543475
-3.11105
-5.221736
4.7327676
3.5967166
5.7547283
2.687609
1.9364415
-1.7906624
1.6632987
1.8163991
-1.1361238
2.94657
0.6529148
2.6785824
-1.2641585
-0.5763222
-0.7849486
0.36409965
-0.55783224
0.3562817
-1.6725838
3.1822007
-1.8407923
3.3095236
-5.122987
0.71405935
1.4793981
-0.74901
2.8228168
0.64688313
-1.9412231
-0.5740157
-0.86670625
-3.8071425
-4.623761
-2.0225666
1.1816548
2.228636
-1.3791726
-3.7016332
4.64374
4.377757
-4.6939454
-4.334563
-1.7774284
-2.37561
2.46866
-3.7207642
-5.4033213
-3.5787532
-2.1936245
1.732375
-7.4503016
-0.86819947
-2.8487854
9.629899
0.081280984
-0.9972631
-2.3497348
-1.6839061
-0.27821922
0.34336632
-5.901312
4.1625953
6.3310623
-6.137318
-1.0845945
-0.0534573
-0.21963538
4.7249413
0.017442914
-1.6133342
7.767815
-2.948908
-4.9145517
0.8171082
-0.056276776
