0,1,2,3,4,5,6,7,8,9,10,11,12,13,14,15,16,17,18,19,20,21,22,23,24,25,26,27,28,29,30,31,32,33,34,35,36,37,38,39,40,41,42,43,44,45,46,47,48,49,50,51,52,53,54,55,56,57,58,59,60,61,62,63,64,65,66,67,68,69,70,71,72,73,74,75,76,77,78,79,80,81,82,83,84,85,86,87,88,89,90,91,92,93,94,95,96,97,98,99,100,101,102,103,104,105,106,107,108,109,110,111,112,113,114,115,116,117,118,119,120,121,122,123,124,125,126,127,128,129,130,131,132,133,134,135,136,137,138,139,140,141,142,143,144,145,146,147,148,149,150,151,152,153,154,155,156,157,158,159,160,161,162,163,164,165,166,167,168,169,170,171,172,173,174,175,176,177,178,179,180,181,182,183,184,185,186,187,188,189,190,191,192,193,194,195,196,197,198,199,200,201,202,203,204,205,206,207,208,209,210,211,212,213,214,215,216,217,218,219,220,221,222,223,224,225,226,227,228,229,230,231,232,233,234,235,236,237,238,239,240,241,242,243,244,245,246,247,248,249,250,251,252,253,254,255
-0.24030314,0.20220734,0.032415003,-0.08234235,-0.25543082,0.10527441,-0.023973454,0.119036585,0.28635415,-0.34050366,-0.09891368,0.0029469347,-0.15839547,-0.045277815,-0.324132,-0.38146287,-0.288734,-0.32834506,0.0013238753,0.07910943,0.037633315,-0.45296305,0.068858124,0.21819508,0.01330961,0.05821269,0.18183358,0.1838284,-0.06494913,0.09148925,-0.10809648,0.06384891,0.16571583,-0.29240036,0.18881617,0.3978329,-0.18993385,0.25663242,0.1730618,-0.10295841,-0.082792886,-0.07040093,-0.15514956,0.08142296,0.26322502,0.12574764,0.13728045,-0.04292923,-0.01074598,0.20850955,-0.007402759,0.1275339,-0.050644614,0.22927348,0.15225872,-0.13302186,-0.1394781,0.12429933,0.052361682,0.112015836,0.17550522,-0.039653182,-0.008676678,0.014810761,-0.16529447,-0.36039454,0.101156294,-0.14628807,0.35270342,0.06944237,0.10290069,-0.25347373,0.13026085,-0.03618026,0.05447428,-0.073931284,-0.032243356,-0.44443485,-0.20939086,0.299524,0.16946658,-0.08652078,-0.16223758,0.28844368,-0.11441991,-0.19561158,-0.08832059,-0.2548947,0.21505143,-0.13905169,0.19841287,-0.2416112,0.31577662,0.13219802,0.18452965,-0.2463048,0.14925908,0.11809893,0.21124183,-0.13767199,0.23376814,0.04242451,0.054675724,0.41138878,-0.45849034,0.24461485,0.16370991,0.13002688,0.014220577,-0.17633021,0.07532184,0.23325792,0.016345568,0.14321868,-0.15554535,-0.33830267,-0.023034068,0.29700795,-0.04476934,0.105029106,-0.2818214,-0.16940151,-0.071163006,-0.2365357,0.085154325,0.0025192504,-0.34970865,-0.12826838,0.1961201,-0.07944988,-0.34550416,0.024028651,0.12599353,-0.282881,0.029769469,0.085787095,-0.107175134,-0.32460076,0.0017827044,-0.055934817,0.15190887,-0.024302557,0.1652993,0.02377815,0.15601684,-0.23879822,-0.13161826,0.027233103,0.1392986,0.069865316,-0.08712397,0.15659957,0.20622201,0.24633436,0.34493423,-0.07303654,0.01960858,-0.10165358,0.063306995,0.19875324,-0.25396422,0.12744656,0.065875076,-0.16016439,-0.32646987,0.054896034,-0.28012797,-0.0063839904,-0.13868001,-0.13607617,-0.15197138,0.1618497,0.2617787,-0.13582145,-0.34283105,-0.093625054,0.2987367,-0.015142642,0.25757197,-0.11685449,-0.02924153,0.2153191,-0.09086694,0.028033039,0.14084587,-0.049211133,0.040534217,-0.0615371,0.052172564,0.12880343,-0.05251406,-0.22872463,0.26630396,-0.1630726,-0.22046335,0.107418984,-0.1306673,-0.25557938,-0.084323324,-0.07850452,0.08146049,0.19205783,0.11397399,0.084367365,0.23460935,-0.3435207,-0.118136026,0.2882961,-0.016834624,0.10664665,-0.012873979,-0.26680496,-0.0365953,0.15375257,-0.08318823,0.098731846,-0.117381416,0.08809084,-0.30431402,0.14585298,0.14948288,-0.11894341,-0.11482458,0.35026842,0.0042740814,0.3092744,-0.1949593,-0.020387018,0.0094099315,0.041358013,0.26731157,0.14460836,0.24597819,0.14182366,-0.24743763,0.06473819,0.021553736,-0.18381922,-0.0018914205,-0.12012797,0.12050669,-0.19295293,-0.08176643,-0.07070427,-0.2103486,-0.062865645,0.18972288,-0.07225147,0.050538857,-0.1317029,-0.1769871,0.25709805,0.009307494,0.16890042,0.27579668,0.10755196
