0,1,2,3,4,5,6,7,8,9,10,11,12,13,14,15,16,17,18,19,20,21,22,23,24,25,26,27,28,29,30,31,32,33,34,35,36,37,38,39,40,41,42,43,44,45,46,47,48,49,50,51,52,53,54,55,56,57,58,59,60,61,62,63,64,65,66,67,68,69,70,71,72,73,74,75,76,77,78,79,80,81,82,83,84,85,86,87,88,89,90,91,92,93,94,95,96,97,98,99,100,101,102,103,104,105,106,107,108,109,110,111,112,113,114,115,116,117,118,119,120,121,122,123,124,125,126,127
0.038676925,0.06250595,0.08157391,-0.013454244,-0.021588445,0.04930415,0.035318628,0.002695702,0.008439675,-0.021583349,0.037440337,-0.066049494,0.014885001,-0.044582903,-0.008049697,-0.03283606,-0.059091788,-0.0054890066,-0.085983366,0.084675916,0.046477087,-0.08282059,-0.06512809,0.06962464,0.07874306,-0.019011691,0.052508064,-0.019260116,-0.033363234,-0.074898265,0.072973706,0.015175529,-0.06861648,0.07010845,-0.011695623,0.05608689,-0.02341602,0.032161504,-0.059970215,-0.058680415,-0.0074780285,-0.0030139312,-0.0022981837,0.021838032,-0.086569056,0.047670342,-0.021163195,-0.04639854,0.05825027,0.07815231,0.075540654,-0.011324197,0.06331339,-0.064678155,-0.016608126,0.011895895,-0.023453169,-0.07591455,0.06697751,0.00020065904,0.0607431,-0.001162529,-0.040188305,0.014971897,0.070663564,0.0034778714,-0.06335715,-0.035644136,0.07161089,-0.0012783334,-0.017415658,-0.020780437,-0.085098766,-0.033179916,-0.06640967,0.04202486,0.04292854,-0.066670455,-0.029240713,0.08113108,0.059494562,0.027855515,-0.033882514,-0.055897277,0.05891385,-0.051063024,0.014184929,-0.00140962,0.032335885,0.06554618,0.049426235,0.061506055,0.06192314,-0.044060253,-0.05525274,-0.06743935,0.07537254,-0.07682334,-0.024967171,-0.027897008,-0.05875203,-0.06301155,-0.08473756,-0.05391332,-0.009882741,0.021183357,-0.03029152,0.06936138,0.043772317,0.052479945,0.05354119,0.04696121,0.02383107,-0.0602493,-0.07452483,0.07263873,0.08192661,0.055423252,-0.03363429,-0.05149449,-0.07726749,-0.010698125,-0.081287265,0.023034886,0.07164604,-0.035043914,0.018234275,-0.0471864
