0,1,2,3,4,5,6,7,8,9,10,11,12,13,14,15,16,17,18,19,20,21,22,23,24,25,26,27,28,29,30,31,32,33,34,35,36,37,38,39,40,41,42,43,44,45,46,47,48,49,50,51,52,53,54,55,56,57,58,59,60,61,62,63,64,65,66,67,68,69,70,71,72,73,74,75,76,77,78,79,80,81,82,83,84,85,86,87,88,89,90,91,92,93,94,95,96,97,98,99,100,101,102,103,104,105,106,107,108,109,110,111,112,113,114,115,116,117,118,119,120,121,122,123,124,125,126,127,128,129,130,131,132,133,134,135,136,137,138,139,140,141,142,143,144,145,146,147,148,149,150,151,152,153,154,155,156,157,158,159,160,161,162,163,164,165,166,167,168,169,170,171,172,173,174,175,176,177,178,179,180,181,182,183,184,185,186,187,188,189,190,191,192,193,194,195,196,197,198,199,200,201,202,203,204,205,206,207,208,209,210,211,212,213,214,215,216,217,218,219,220,221,222,223,224,225,226,227,228,229,230,231,232,233,234,235,236,237,238,239,240,241,242,243,244,245,246,247,248,249,250,251,252,253,254,255,256,257,258,259,260,261,262,263,264,265,266,267,268,269,270,271,272,273,274,275,276,277,278,279,280,281,282,283,284,285,286,287,288,289,290,291,292,293,294,295,296,297,298,299
0.58865005,-1.2925624,0.2745353,0.23458478,1.2615755,-0.32753882,0.065742925,-1.2019713,1.6365718,1.0550215,-2.3336384,0.8811202,0.6432306,-2.2886002,-1.2071726,-0.069001146,0.41036168,-0.7123435,-1.37418,0.49425745,1.2812115,1.4794111,1.0993309,1.4528084,-0.01543278,1.8690616,2.2737386,-1.9638287,2.3566723,2.4547842,2.5006473,1.9076308,1.0177072,-0.28613088,-1.6910151,1.3792038,-1.3589727,1.4233279,-1.0044522,0.4698086,1.7265234,0.31881753,0.257954,-1.7437223,-0.22282463,0.5056818,0.4208583,0.8287023,-0.6505094,1.6563839,1.5283544,-0.16291007,2.3604743,0.8976845,-1.5648177,-0.5173388,-0.4915735,0.45678404,1.1989776,-0.24917737,-1.4300256,-1.2972571,1.0693982,-1.3450677,-1.3671494,-0.42488185,0.67810696,-1.1392634,1.0345427,-0.9230973,-0.5051566,1.069966,-0.8229323,0.5928803,0.5495283,1.5476336,1.6503236,0.15078048,0.5179728,-0.6714167,-0.3519216,1.4174938,-2.0863144,0.5978033,1.4474597,3.280535,1.775604,-0.7942424,1.6373914,-0.08072474,1.6348338,0.24823675,0.84043354,1.9966062,4.3949447,-3.8554268,0.023742272,1.3103783,-0.20926388,1.2560862,1.3185728,-1.8270694,-1.2545327,-1.7235588,0.3477355,0.6484205,-0.037050743,-1.5576811,-1.2888576,0.15417612,-0.239429,-0.2123543,0.18061963,-1.419215,-0.39995107,-0.83427745,-0.57978755,1.2164265,0.7387339,1.6987941,-1.2858073,-0.87768763,-0.16771679,1.9565775,-0.75887716,-0.41805547,0.40221727,-0.030924072,0.028867064,1.7385135,-1.3717864,0.9222549,1.3189375,3.415427,2.625122,0.91062814,-1.1499857,1.6712693,1.393695,-3.204059,-0.0044290693,-0.6994332,0.11160045,-0.63949746,-2.00956,-0.03904161,-0.06710424,1.2082003,-0.3872964,-1.8139533,0.4741397,1.7068975,0.5525218,-0.8648193,0.17876478,-0.6546113,-2.116823,0.1458502,0.87034017,-1.363318,-0.11600547,-0.5579994,0.23241252,4.3697085,0.2608048,-0.14573371,-0.36481634,-1.1436517,-2.216869,-0.8053859,-1.3423622,-0.34734696,0.606927,0.39357597,-0.5691818,-2.2170172,2.2721775,2.2956593,-0.45978126,0.73386616,-0.32574147,0.64369315,-0.20729895,1.1090919,0.39706486,-1.2080762,-0.6212429,-1.546851,-0.8431666,0.29139528,-1.055546,-1.2302169,-1.9721968,-0.42590946,-1.7670261,-0.45223668,-2.058938,0.167381,-1.0724777,0.32768658,-1.8474947,-0.81576097,-1.7255784,-2.37071,-0.82107955,-1.0641901,-1.0136119,-0.96144664,-1.6476878,0.9883556,1.4627064,-1.3765069,-0.8346613,0.40673313,1.1299567,0.5279895,0.33028293,-0.55151904,1.7877077,0.5585517,1.3461317,0.44230893,0.858789,-0.39951023,1.0984945,-1.2828342,1.5155813,-0.3199404,1.1977617,0.110469796,-0.034433194,-1.0854645,0.38100743,-0.97058594,-0.2765848,2.2793286,-1.0896279,1.650312,1.0156826,-0.71478325,2.0395133,0.850706,-1.3050488,0.0022769682,1.2351199,0.565123,-2.5671704,-0.34124675,1.767621,-3.0910113,1.4833186,-0.027539156,1.5925933,-0.45687854,-1.4709826,-0.032363884,-2.8511827,0.49442688,-0.8804772,-0.5634189,-0.72839564,-2.450589,-0.84754527,0.740748,0.8658563,0.8426311,-1.3177234,0.5210398,-0.25221452,-1.1813307,2.5686986,1.1867964,1.0700103,-0.88103783,-1.5126088,2.1993628,-0.6042045,0.16668673,-0.61744446,1.0441493,0.52450734,-1.5396332,1.2143743,-0.18193589,-0.30598387,-0.9745337,0.22107734,-0.13878047,-0.8664518,0.097855486,0.30887967,-0.6793091,3.2368867,-0.8959533,-1.5107116,0.3145259,2.5622132,-0.37105256,0.91990685,0.2699573
0.45874047,1.0200222,0.0055635176,-0.81807995,1.2227417,-0.63957626,1.7647072,2.516519,0.75740135,1.448569,-0.26701057,-2.793718,1.5595539,-0.2970748,1.9922874,1.6047568,-2.7195232,-0.50755596,-0.32403782,0.8962241,-0.29113045,-0.5664955,-0.103688456,1.6122963,0.44903186,1.146202,1.3015331,-1.2555896,-1.7300596,1.5100486,3.078177,1.6120512,-0.88530946,0.4792618,-1.2617358,0.58600867,-0.72910804,4.263634,-0.248241,1.8049515,0.30977032,-1.0671498,1.9385228,-0.7965096,0.8803958,0.7007179,-2.1396933,-0.76485795,-0.68487054,-1.895842,0.5548127,0.02689776,0.4230229,0.17964281,-0.35659248,0.19724885,-0.301592,-2.7803452,0.5311609,2.2947185,-0.5678094,-1.9218575,-1.5994664,-0.48397794,2.2130616,-0.21401265,-1.1688864,1.2122847,0.98931783,0.18207201,-0.68777543,-2.379421,0.9833795,4.553086,0.3878948,2.765846,1.2608823,-0.056667596,-0.26215068,3.2484918,-0.64373624,-0.4530918,-0.9689092,1.5189502,1.5582324,2.5010443,0.47372875,-1.268056,1.62359,0.5529846,0.56029224,-0.67760503,0.1133105,-3.0077322,3.6545937,4.0188384,1.51337,3.5017877,-2.1350431,1.2579138,1.6891863,2.8791895,-3.239792,1.4035591,-1.1710569,1.1199436,-2.7569613,-0.10511122,0.4382681,0.044415608,0.622934,1.0912334,1.157795,-1.1853964,1.2217786,1.211161,-0.5184192,0.34493503,-0.344032,1.2565713,-0.37851745,-1.1767846,0.20664869,0.6421966,1.3746241,-0.29797682,-1.3213013,2.7636986,-0.50813365,-2.7232533,0.26520774,0.76319134,-0.7261986,0.3596531,-1.9865702,-1.3922458,1.5104418,0.68456936,0.9809155,-0.14521897,0.26389968,-0.9358552,-0.14317103,-0.12154853,-2.6145194,0.7749343,0.36750996,-0.4616362,-0.9254415,-1.0264829,0.32450655,5.25543,1.455005,0.414529,-0.5916782,-2.0820618,-0.8585238,-1.0469078,0.5967874,-3.4382904,0.8424028,0.994396,-0.73258334,3.8805077,0.8551559,0.6206507,-1.7840701,-0.6258637,0.8999262,0.72676224,0.49754873,-4.476267,-0.81104046,2.1257684,-0.085555024,-0.15468608,3.0475392,-0.043650724,0.9642218,1.1120198,-1.1710498,-0.27664384,0.11493718,2.5550783,0.0028335082,2.171258,-0.1442126,-1.8384012,1.1565385,1.3355628,-1.1606442,0.15465377,-2.4302213,0.6357348,1.6221455,-1.2647154,2.629469,-0.35816592,-0.81942594,-3.3370123,0.65291584,3.6542344,1.2627829,-1.5552531,-2.2391903,1.301578,-1.8998934,1.5079257,0.75797236,-0.41371182,-1.5776962,0.5644345,-0.107167065,0.11404629,-1.9869629,1.2529824,-1.2985648,0.8243076,0.79854536,0.08870697,3.0324347,2.2866228,-1.4721954,1.0998173,1.0075442,-1.6809441,2.8712935,1.0173475,-1.937915,1.0276005,-0.7238542,-0.8036037,0.71068573,1.2066469,1.0176977,-5.3178287,-2.609083,-1.4004835,1.962553,-0.1098835,1.961189,-0.98675966,1.187453,1.8166612,1.9266616,-0.9858839,0.06228451,0.207528,2.222694,0.8878267,-2.890693,1.5345081,0.3651911,-4.1104126,0.20560662,-1.7672281,-0.658123,1.1886493,-0.13617834,1.4369498,-0.24911954,1.1918967,-0.13437764,-1.4576449,-0.89726955,-0.8011817,0.7876066,2.212483,-0.700563,-0.021885388,-1.3116297,-0.9774842,2.517893,0.65672773,-0.061270952,-1.894816,0.7154806,1.1692474,-2.884224,-3.5814943,0.7489114,-1.5304221,-0.9322868,0.6909107,-0.534685,-1.9176251,0.36890152,-0.5662598,2.056088,-1.6942749,0.20106907,0.5787913,5.216018,0.6690388,-0.014648206,1.8845212,3.583671,-2.5727339,-2.3753262,0.05781702
2.0791183,2.626008,0.5416625,3.3555791,0.06498221,-0.19710226,2.1785965,-1.7321224,0.63940454,-3.4359415,1.1376014,1.289714,-0.87658733,2.0674477,1.5618231,-0.16281182,0.08005054,1.3001069,-0.76376635,-0.5437439,-1.1582843,1.2193733,1.4019076,-1.8504559,-0.66327363,0.22742298,2.0876665,-0.1269008,1.8801199,3.094991,-0.86455566,-0.05116421,0.30136508,1.0496774,-1.874446,-0.94963604,-1.018521,-1.8205247,1.9105859,1.5925703,-1.558915,-0.1989486,0.34857982,-1.8243383,-0.17381522,-0.30740622,1.008535,0.7562594,-1.2337083,-0.6839915,-0.7087724,1.6446105,-1.4906566,1.3910608,-0.43991172,1.1520154,0.6426055,-0.5778578,0.45774126,-1.3982961,-1.2486113,2.303803,-1.3171484,1.241606,0.57790333,0.6582124,-0.8243978,-1.0744926,-1.8428121,2.8648922,-1.0805136,0.33845058,0.29784432,-2.623861,0.065586366,-1.3021114,-1.4549602,0.3441674,-0.24355777,3.3053515,-0.7401197,-2.0784323,-1.4515725,-0.14210317,-0.91025776,3.677633,0.56129676,0.73141605,1.8561132,1.8004787,1.8121727,-0.96433616,3.1837022,-2.1273932,3.4087133,-0.46978056,-2.9171991,3.726999,-1.2393951,1.8182695,-1.4354967,-1.4683853,1.0774063,-0.25529107,0.21852486,-0.28258404,2.010418,-4.669865,2.0971441,-1.4724004,1.2367154,-0.8280125,-1.0123341,-1.5039818,1.9016045,2.523737,-1.7514883,-0.6924796,-0.75543696,-1.0062195,-3.4695313,0.7339665,1.9503877,4.5803,-0.7180211,1.7909467,-0.7034673,0.32744753,-1.529971,-0.36796412,1.5530449,-0.7815555,2.0709743,1.0497453,-2.3689733,-0.8841304,-1.9159187,-0.75215304,-2.07308,-0.6088874,0.94035846,-1.8307389,-1.5708437,0.32430786,-1.9522126,1.7199222,0.046528585,-0.7315751,-2.7823472,-2.9354916,3.0060349,1.938323,-0.64364135,0.16477092,-2.7485754,-0.4345286,-0.16339262,-0.77308017,-0.10974473,0.44981304,-1.5436437,0.05479425,-0.9490141,4.980758,0.92717296,-0.0077553894,-0.5494677,-2.9754467,0.20417872,-2.5084996,-1.0164039,3.2053769,0.05567782,2.2171533,1.5728103,-0.012387132,0.8983357,-1.8740646,1.5750327,-2.2677124,0.55061346,-0.09650437,1.392896,3.7818623,0.4540614,-0.84954333,-0.18823466,2.5819411,1.8023174,1.2108694,3.0453475,-2.3077374,-0.6401194,1.989162,-2.8473454,0.8177156,1.1932434,-1.7743571,-1.0847522,0.7622004,-1.0296757,-0.2991552,0.90118027,2.8153377,1.2470281,-0.3190262,-0.98948604,1.5061561,-1.6571962,-0.47337818,2.9781172,-0.12190432,-0.23052195,-1.1273685,1.782262,-0.34255457,0.7318415,-1.4475619,-0.78084695,-0.80030495,1.8334905,-0.33143798,1.6941139,-0.8814255,1.23551,2.1622915,-0.122209005,-0.3577006,0.7952428,-1.4142531,1.9903349,0.37135038,-0.9858921,-2.241699,-1.7173299,-1.1806269,-0.64162153,-1.4553512,-0.83925366,-0.60511285,2.075042,0.10434403,-2.792803,0.33245957,-4.012207,1.7354789,-2.3580842,-0.8914788,0.1728152,0.54642725,0.119563624,3.0154116,1.6615813,-0.6189424,-0.84896207,-2.371686,-0.77160054,0.69286263,-1.2998221,-1.3266034,-0.5085297,1.0298507,-2.656844,-0.990191,0.3129204,-1.5259987,0.4275326,0.291311,2.2662432,-0.64191246,1.8472465,-0.7576971,-1.1812408,0.6684179,0.50383556,0.9897494,1.3617269,-1.3743838,3.1152744,-0.4659764,0.7339357,0.6230425,0.39096653,-0.98058563,-0.520897,1.7773896,-3.0116057,-1.5161117,-0.4346247,0.26369897,0.18830448,-0.08222515,6.900523,-0.14942071,-1.8296703,2.5024881,2.021059,-1.2885817,-0.9536402,-1.6763124
1.745668,-1.2640158,0.24835446,1.8040733,0.7252707,1.20953,0.9336884,-1.3544645,0.9223264,0.1179128,1.6105118,-1.7316333,0.49685943,-0.45834082,-1.7224466,-0.76347595,-1.6887376,1.3899888,-0.95528454,-0.51968455,0.80642194,0.9666253,0.27450657,-0.038358413,1.6622452,2.4259017,4.861675,1.2489015,-2.51628,3.0699115,0.6256709,0.7815221,-0.392225,1.2009,-1.1942875,0.23625778,-0.1853721,-0.49643874,-0.010395467,1.4005635,0.89054793,-0.13546991,0.2897372,0.23100592,-1.1201372,-0.7744275,0.33180493,0.2660687,-0.19801143,-1.1448729,1.4243346,0.12199664,-0.64674586,-0.60935545,1.034397,0.6131923,-1.0969847,-0.7561035,-0.07255658,-0.36238486,0.30681998,1.2745543,0.43590832,0.5108189,-1.6374424,-2.493155,4.396332,-1.8588717,-0.044318605,1.2372408,-1.5643716,0.9511178,-0.7882137,1.9913278,-0.646521,2.0868227,0.9174418,2.7174227,-0.03243297,2.1083448,1.4039781,-0.8087847,0.6594755,-0.42837778,1.7414768,4.638444,1.2407644,-2.0508504,1.2100294,1.1537957,-1.7348515,0.68443483,-0.605347,-0.092239976,4.154321,-1.5577562,-2.399063,1.023252,-0.68436885,2.906305,1.7692703,0.92305154,0.09224751,-1.3725952,1.1794252,0.71522516,1.3005123,1.4640923,0.47913224,-0.582525,-1.7248992,-0.12980117,0.21967621,-0.9751542,-0.98102534,2.643551,0.19955002,-0.10907154,0.3078344,0.552633,-1.14384,0.15103607,0.24105278,3.755874,-0.60483253,0.8518148,-1.2906626,2.9287305,1.8652371,-1.1725082,-0.68755096,1.29301,0.9246139,1.5866939,-0.65864897,0.64927405,0.019133883,0.7151753,2.4115968,-3.3715837,0.18637043,1.7654699,-1.1140682,-0.623349,-0.45208764,0.7557924,-0.42609984,-1.9884362,0.5863168,-3.5660217,2.849134,2.801068,-0.31652918,-1.378376,-0.80572206,-0.57431424,-1.0305773,-0.9574769,1.0474981,1.8106424,0.52277344,0.084150456,1.0130876,5.011547,-0.17246927,-2.3356307,0.4989139,0.89533526,-1.6182466,1.4352858,-0.35334855,-1.2600332,0.1986071,-0.9409711,2.224019,0.805851,-1.2709407,-0.41112033,1.2476265,0.32499814,-4.918015,-0.5560132,-2.126921,1.2890832,-1.3817396,0.13778685,0.7232905,-3.1604972,-0.35914406,1.5072522,1.2196763,3.5668569,2.0151157,-0.05343838,1.175009,-2.9112527,-1.0300627,-1.7327287,-0.94367635,-2.1124876,0.57910806,0.7242502,-0.74496424,0.15694867,0.40912828,3.0172274,-1.4685856,-1.9764285,0.8236304,-0.3725915,-0.3010817,1.8753015,-1.0300012,-1.4388642,-0.441017,0.7996243,2.8715315,-1.0135746,-1.0370125,-0.815884,-0.14664286,-0.36256224,0.30981535,1.1509569,1.1213216,-0.5267149,-2.1258287,1.7093558,-0.5502986,0.017123787,-1.3204288,-0.13368869,1.4575777,-0.15611798,0.89003295,-0.9000418,1.445911,-0.57433957,1.9056762,1.6579621,-1.5051548,-0.9139004,1.705915,-0.7285666,1.2983778,0.12953523,1.2981123,-0.24288389,-0.5211763,1.4314567,-2.4552813,-0.4210731,3.3433607,1.0093571,0.1197793,0.29705313,-0.20133592,-1.2439641,0.014807435,0.48400354,1.3353596,0.20731953,0.39986002,1.3288913,1.0535082,1.777015,0.29597095,1.0832777,3.699789,0.75398606,1.1955153,1.9588258,-4.239213,-0.09087233,0.5352173,-1.0774901,-1.1064372,0.42175552,2.685836,0.23897389,-0.852829,4.44085,1.195076,2.5857403,-0.58235365,0.4035586,0.69967216,1.0225908,0.5882513,2.1638694,-0.36525932,0.0031922911,2.770299,0.6224236,-0.41120726,-1.32682,2.2038772,-1.7412894,-0.11646437,0.23033716
-2.668716,0.141087,-2.6922827,-3.2426887,-0.20189086,0.85315096,-1.9192094,2.1292412,1.5785136,-0.7087281,0.8445807,1.9023356,0.027622884,2.1565456,-1.8805921,-1.8551055,0.35061008,-0.64646333,-2.3047135,-0.83901346,-0.9016217,0.9701533,2.2836003,0.3419863,2.5497627,-4.8095455,-4.7013874,-0.22706887,2.9824352,-1.1944366,-1.7513855,-3.218979,0.34268832,-1.0663716,0.23282877,3.6950169,0.08369601,1.856914,-2.90086,-1.7628671,0.30458346,1.5109097,0.57184726,-0.97521526,-2.3297234,-1.4988116,-0.93279094,-2.2745993,0.123602144,1.0006895,1.0718068,1.9211476,1.5497566,1.5429082,0.3457889,-0.82823944,-0.064871706,1.7813939,1.3699155,-0.012554544,1.2191732,1.066861,2.535491,-0.5255308,-0.8949513,-0.33965266,-0.07204442,-0.36532852,2.5699327,2.5386505,-1.774445,-0.46554214,-1.3498261,1.6922638,0.62301993,0.9780786,2.2364795,-1.5509288,-1.2090865,1.8587941,-0.4085542,-1.3099085,0.93667656,-0.98612714,-1.9301406,-2.7015324,-2.201582,-0.55846524,-0.00036693228,1.9435933,-1.5118896,0.065491706,1.473301,-0.54839635,-2.7338018,-0.1625967,3.2578301,-2.0379257,2.0915406,-0.64428633,-0.23136334,-0.24807893,-0.89600253,1.7335712,-2.4219518,0.6466952,-2.8717804,-0.68629605,-1.8942597,0.8971381,-1.4924598,-0.093993105,1.9729594,0.9468699,1.8915257,-3.4565036,0.81198156,0.3812551,-0.34558362,-2.2161558,-0.103551425,-0.27509454,3.1242535,-7.1694093,-0.4617975,0.18555772,0.82037413,-1.2089875,-0.5402928,0.24897493,0.73961616,1.5314662,-1.9427091,-4.739034,2.3819017,-0.26872963,1.2564349,1.2012788,0.5929203,3.5162165,0.88519084,0.993807,0.04746665,2.757852,-0.69175035,0.6252006,-2.2163956,1.5315168,0.06354929,0.14289808,2.0851722,0.87613016,1.5964282,0.84845334,2.5024712,-0.62092364,1.7238946,-0.3525081,-2.4216805,-1.7905537,-1.2843513,-0.8479972,0.15267262,-2.4818876,-1.9993924,-0.30523577,-0.3471814,0.07501533,-0.63236284,0.12554994,1.1681576,-2.2125673,-1.3002589,-3.0558383,1.5826156,0.9142117,-1.5407228,-0.2787823,1.1677437,-1.405117,1.5675099,1.0997784,-1.5140901,-5.840886,0.7514205,0.08405768,-0.16128068,-0.6693616,1.8495648,0.052914172,0.9811228,-1.7531774,0.133088,-1.1317918,0.26390627,-0.041816104,0.21271175,2.188213,-2.0206437,-2.5969708,-1.0029225,-1.6074913,1.7531931,0.19267088,-0.61643416,-0.6106289,-1.5437838,-0.5725747,-2.0164423,-2.3836405,-0.08273938,-2.1153376,2.3183336,3.5058663,-0.13360898,0.39977136,0.18843491,-0.78367764,2.0366294,-0.97243625,-1.3930522,1.5079648,1.5205141,0.8270596,2.2103732,0.5946883,2.1253762,0.19182113,-1.7539469,-0.41899246,2.446961,0.89393836,-0.13813089,0.6114938,0.56615,1.187379,1.3833656,-0.24705718,-1.3531386,-0.62888885,0.80841595,-0.6691925,-0.5547024,-2.999747,1.2807509,-0.95012665,-0.28082573,2.3284583,-1.6407177,-1.0554713,-4.589762,-1.0869967,-2.4222395,1.7035185,-0.09571469,-0.8393212,-0.55527097,1.3770374,-0.34017226,2.7484014,-2.0474212,0.7364818,-0.16657712,0.94350547,1.392368,3.1456773,-2.8435059,-2.7985551,-1.5103664,-0.7134438,-2.1105888,1.5023996,3.993342,-1.6697351,4.8541408,0.54324746,-2.506201,1.8553528,0.22543614,2.1734006,1.174117,-2.511619,-2.9964545,-0.043728992,-1.3607348,0.72975385,-1.0466198,0.87342405,0.044566106,0.7176348,2.6773162,1.2379211,-6.7594175,-0.9907349,-0.2394876,-1.3524462,-0.2451964,-0.3444617,0.1687938,-1.3006632
0.8093827,2.2797158,-0.24094734,0.22435713,2.8763344,0.38072714,-2.7206538,-3.7204692,-0.19094464,1.7770092,1.8492929,1.011744,1.0935391,2.8854327,0.05597691,-1.6532806,1.7603585,1.3177254,2.2662416,-2.7093701,0.24482134,0.087304756,-0.83964986,1.2313435,2.2521582,-5.8378525,-5.2612705,1.4209526,2.774414,-0.27375922,-2.587177,-0.56653655,2.3470933,-0.70299774,-0.6365466,-0.2870624,-2.27711,-0.35962027,2.5045915,-0.82024753,-1.7520026,0.67263323,3.1462889,-0.63696,0.22672345,1.7454429,1.5947247,2.2634597,0.21218325,0.0054628514,0.39024368,-0.30782154,3.3343132,3.4250376,0.5465022,-0.42122206,-4.950462,-2.531514,-0.83040464,-0.6962936,0.37805492,3.694179,0.5701415,0.55769956,-1.2301112,-1.4027427,-2.0121994,-3.8226252,0.4370021,0.08473678,0.55884326,1.5691016,-2.010843,-1.8437186,0.2591963,-0.050969027,2.2574124,0.18182063,1.2885274,-0.38284642,0.41764578,1.9112332,0.31424722,-1.395404,1.1364115,-2.3666065,-2.1334522,-0.91946983,1.693607,0.6565237,1.3183186,-0.09359315,1.0216268,-0.9052154,-2.7039773,0.09053407,-1.6823815,-2.0731292,-2.777408,1.6238364,2.5298707,-2.2793725,1.7501295,-1.1658125,0.38681802,2.864735,1.9939048,-1.3352294,-1.263819,0.545585,-2.0346148,-0.21307807,1.3838847,-0.3976632,-2.24126,-1.1031855,3.1118002,-1.0460504,1.0396233,0.80506045,-1.8557676,-0.6066921,-1.9239113,-4.352868,0.71680003,-0.23235968,1.1834267,-1.951809,-1.5940496,0.9018874,0.4074887,1.5264752,0.74842155,1.9585687,0.4188631,0.11084354,-1.1497532,1.7607067,-1.0819918,1.1644858,1.0691305,-1.0423709,-1.2647638,-2.3459842,0.531812,0.00766815,-1.1169201,0.90961415,-0.61161244,0.5813937,-0.7978641,-1.4931824,-2.5161633,0.94368184,1.2527567,-0.7537563,1.1137662,-1.5347543,-0.74853283,1.0073593,-2.6320946,-0.2194689,-0.189997,-2.517246,1.3864212,0.30011758,2.1866026,0.40377295,-1.6119685,-0.40210462,-2.593034,0.12508063,0.34497046,2.2635229,1.077198,-1.4056894,-1.0819858,1.7281845,-1.8214409,-0.0073514236,0.6891408,-0.19529234,0.8469424,-6.718077,1.2673554,0.5267406,0.12762731,3.04525,1.8862388,0.78264076,1.6414858,1.8885581,1.0424231,3.6410716,-2.1404316,0.33410996,-0.6379005,0.7584539,-1.638148,-3.221651,-1.034481,-2.6604922,0.2829474,-1.4507864,-2.290778,-1.2721269,1.038829,1.7895283,-1.4618982,0.7129984,1.4015018,-2.309233,0.4599283,2.5116873,-1.6889164,1.755564,-0.23900664,-1.2994987,-2.8125358,1.4913818,-2.2486436,2.0212004,-0.4438389,-1.1177722,0.6197143,1.6331805,-1.5066208,-1.2644571,1.0378883,3.5397487,-0.9374934,-1.2654493,-1.6751763,1.5242028,0.64984936,-0.7386219,0.29288197,-1.099644,0.6936328,0.8134095,0.9608393,-1.4911851,0.9782475,1.8309203,-3.4212568,1.8497685,-0.027465332,-0.7284151,0.8022773,-0.99571836,-0.86477435,-0.26878893,-3.7605877,0.81693876,0.20106575,-1.9883933,2.9788034,-2.2412732,-0.96359694,-1.0830091,-0.89886117,1.5477811,2.3337088,-0.9409534,1.5170116,0.003298624,1.880236,-1.0973591,-3.1593008,-0.7818835,1.0841421,0.051846422,-2.4541976,3.3745635,-0.79488814,2.8546305,0.5384471,-1.0159899,-4.2161045,-1.9650987,1.9553092,-0.55938876,-4.371854,-1.7981073,-5.3390765,0.8263377,1.0248989,0.46731386,-1.2514361,-0.38703734,2.071924,-1.2951541,-2.5814228,1.2629683,0.8665728,-0.044409215,-1.6973007,0.015096824,-0.29533798,-0.9586188
-0.93925154,1.4384112,1.2539598,2.1235964,-0.5372358,-0.7287526,-2.7632933,-1.70489,-0.2565411,-0.344709,-0.346317,1.9795245,-1.2581856,-0.59455186,0.9224805,0.7820122,-3.1923249,-2.6940575,2.6557417,2.8095431,-0.6480123,-0.524308,0.9627563,-1.3510334,-2.3969536,1.2084318,3.6747572,-2.6198213,-1.3707798,2.7371447,-0.94899803,5.817555,0.69279987,-0.8209541,-4.166182,1.0345085,-1.7353892,-0.7572892,2.0331671,-1.4383229,-0.6271815,0.43553177,2.8524332,2.0124514,-1.1567067,-1.7792752,-0.35485762,-1.1097591,0.3829954,-0.49233672,-1.0123358,3.305306,2.4660945,2.0379426,0.06594063,-2.3755245,-0.17171282,1.4239659,0.35594347,0.5657025,-1.7592219,-0.44787285,-0.23726788,1.0588784,3.3163264,-0.8858439,2.3447235,-1.5104253,0.7018267,0.29775172,0.87948024,-1.0110631,2.3727524,-0.43560433,1.9712507,1.3876032,-1.4796103,0.4715028,0.30188718,0.76669896,0.18379419,-1.052916,1.7886202,-0.55163133,-2.3482754,4.1256094,1.5634627,2.3975742,0.095425665,0.97080547,1.9662253,-1.1636404,-0.74610096,1.6002394,3.4566896,1.0320729,-1.2779148,2.7614787,-0.0713368,2.84698,-1.5609235,2.4143832,2.7916076,2.1719778,-0.8894516,0.11707745,-1.3642454,1.9422429,1.7521905,-0.028946579,1.7401003,-1.021205,0.27045068,0.12759832,-2.194963,-2.4516563,1.0131783,0.532406,1.786088,-1.6326027,-0.15430582,-0.1117638,-1.425076,2.3643649,-4.3374314,1.8849728,-1.2094243,1.9708654,0.36812562,1.9281276,0.94354516,-0.071468204,-0.2355273,-0.89323306,0.12520133,-0.2623277,-1.3003461,0.45988688,1.2000046,-2.3987122,0.5763585,4.1151056,-0.5093681,-0.97921044,-1.836407,0.017961573,1.9490589,-1.0306256,0.36710235,1.6328866,1.692729,1.8624691,-0.1040662,-3.4965432,-2.5680108,-0.42857498,-1.0751781,-0.3034817,-2.2896037,0.9594283,-1.4378104,2.5249753,-0.34369048,4.1490407,-2.6470668,-0.31915224,0.24606164,-1.4407446,-2.7927642,0.95211893,-0.8846945,-1.0229459,-0.683786,-0.15662116,-1.4734049,-1.5476387,2.6599896,-1.3736578,-0.22912298,0.6009604,2.2477038,-0.7942401,-0.0679158,5.6955404,0.74345815,0.48370415,1.1156622,2.454777,0.23613371,0.035701893,1.1385208,0.7642209,-0.45412046,-0.26847437,0.4679889,-0.6941474,-0.25316814,-1.2840654,0.74025714,-0.9551495,-1.4966773,-1.8394402,-2.4376314,3.1156802,0.4783679,1.4655222,-2.6308243,1.7329044,-0.42405266,-1.0832672,2.04913,0.27421647,1.1521796,0.9836305,-0.2785371,0.6475696,-1.662431,2.9492998,0.745192,2.2608078,1.4471391,1.21625,0.19012116,-0.073184244,-0.2882164,-1.2600021,-0.51199895,1.6138206,-0.6486591,1.8034834,1.527582,0.87352484,-1.1526933,1.4675566,0.8898418,0.90459555,-0.1253584,0.4350626,-0.32737955,-0.7353293,1.3249983,0.0029484907,-0.9382832,-1.9695989,-0.8435352,-4.5522375,0.45714146,-1.9817866,-1.8255433,0.28219217,3.2847085,0.9794144,-1.21652,0.7171402,-0.8021416,-1.149507,1.9741169,1.6437336,1.6896696,0.81012356,-2.5923417,-2.8845294,-2.4294884,-1.4977132,-1.5805198,0.72133315,-1.6012577,0.84581494,-0.18955912,-1.9930437,-0.8230332,-1.2700281,-0.33568084,0.96228826,-0.15591404,2.0014606,-0.66974837,1.3496802,1.3761547,0.24210562,0.83370537,2.1254425,-0.23228098,-1.5393032,-0.8700111,3.4053044,1.1867709,0.5610743,-1.608837,-0.6619307,1.2498941,0.5601651,4.641577,-2.3653088,0.38006192,0.9401039,1.0518708,-1.447186,2.30263,-1.9500337
-1.2572138,-0.08514742,-1.2701823,-1.1467915,1.1086386,-0.7062602,0.4792219,0.7681666,1.5639611,-0.76265955,-3.6869268,2.8043725,-0.34638965,2.0140803,-1.1862164,-0.050649613,-0.19400756,-0.06618729,1.3696593,0.53361624,-0.020430885,1.9250089,-4.019105,-0.8320467,1.2917824,1.2117972,2.0185485,-0.8181872,2.6142335,2.6794431,-0.924701,0.21122834,1.0213494,-1.8667662,1.4429615,0.678547,0.23110142,-0.92513615,1.0071095,-2.5642762,0.7583735,-1.9519236,0.21638165,-0.47102824,-0.80293757,-0.88632584,1.0624747,0.005713585,-1.7062299,-0.42328253,-0.031176597,-1.2002532,0.9649977,0.6492724,0.43369776,1.7336539,-1.1466175,-2.0305333,0.0014062135,0.6293917,-0.7819027,1.040359,-1.9266915,1.9907278,0.7094867,2.5066738,2.8108237,-2.9423554,0.19875905,0.7317714,-1.6085131,0.7301523,0.45856076,-1.424477,-1.1131963,-0.8825226,1.9380981,0.051915456,0.99516237,1.6978172,2.7373996,1.4845291,-2.2646143,-1.6503322,1.6847342,2.275098,0.54263324,0.50191563,-1.3246111,0.11618184,2.5335603,3.5973659,-2.2117167,-0.0917238,4.247856,0.6341611,0.85930616,-0.9555868,0.64507437,1.6044424,-1.4314594,0.50782484,0.96996087,-1.3215051,0.018080026,-2.0582047,1.5172857,-0.65973455,-1.1881331,-1.246789,0.46784717,0.081423976,-1.2208008,-0.93199587,-1.5915905,-3.5476532,-1.1917884,-2.8375173,0.6634852,-0.070133545,1.878625,1.5692894,-0.7188354,2.990335,0.93548566,-0.5278768,0.032225475,-1.2002304,3.142562,1.8182273,-1.5104533,1.260698,-0.36968935,0.21394172,-0.4723759,-0.3506739,-0.60113597,1.4135373,-0.107784316,-0.02914871,1.3454187,1.5289782,-2.4430063,-0.22548565,-0.19440225,-1.5171547,0.77724695,-0.6006137,-0.55479145,0.07234704,-1.7619224,2.6271777,2.5950625,-2.6918948,-0.7234156,-1.4099165,1.4941478,-1.0520302,1.0605273,0.968151,-1.8832377,2.2758226,1.2295891,4.1638575,1.4990394,-2.7877696,0.94164747,-0.21690409,-3.6381626,0.8677461,-2.7922368,1.6661017,-1.5471209,-1.6522148,1.3281534,1.0831367,2.322634,1.8118374,2.246054,0.57524496,1.1322968,-0.51369363,-1.02096,4.6514153,-0.54415214,-0.39803085,-2.6507587,-0.068325706,-0.40466866,3.7415082,-0.32003447,0.45136604,-0.59282553,1.0087922,0.5121945,1.8389242,2.6549087,-0.91749585,3.6138628,-0.21260461,-0.3568732,0.39698398,1.9092894,1.6055875,-0.4253262,0.9087442,0.3751485,0.74980867,-0.59779376,0.114365056,-2.3352532,-3.7441115,1.174069,-0.6505243,0.54803675,-2.8221452,0.9942503,2.4627721,0.026393205,-0.07086616,1.084279,-0.7623802,-0.07837894,0.930839,0.8618603,0.08661153,-0.81091046,0.017329538,0.12021033,-0.16870052,-0.8349982,1.0496571,-0.07504379,-2.0620635,0.009492323,0.35466892,-0.08023081,1.8904676,0.51519734,-1.7966332,-0.31571007,0.9854733,-0.73795605,1.3770097,-1.4425446,-0.6085441,3.8435326,0.2692487,-3.0286293,2.4974403,-1.3129046,0.08737368,2.670839,-0.78279537,-0.72561175,1.3879236,-1.4766325,1.5321761,0.8717072,1.9741561,1.7485158,-2.8389106,-0.04066935,-0.12014147,0.95279974,1.4125987,0.7354475,1.8612413,2.011489,-0.8112261,0.44085357,1.8419261,-2.7217963,-3.145306,1.7145057,1.2440165,-1.1729155,-0.24082324,0.7695574,-0.9098632,-3.643049,-0.74858606,-0.5164394,-0.26303867,2.0535693,-2.2476451,-0.015858065,0.44178134,1.293857,-0.40228322,1.6095154,0.22291206,6.9420843,-0.6127784,3.0662098,0.86837083,2.451793,-0.52320385,1.6292113,1.4593189
-1.968644,2.71983,1.4864348,2.7526245,0.49399486,-1.4161297,-0.17652187,0.8943004,-0.9260148,-0.65753233,1.9254594,0.28324077,0.6885553,-1.5468398,0.36158487,-1.6160091,1.4548249,-1.998201,-0.7415,-2.5831347,1.7182579,-0.8697478,-0.14916514,-0.83992285,0.58630717,2.4333546,5.2982626,0.40675238,0.64685297,1.0154376,-0.95651454,3.219678,1.8073951,1.0871214,-0.8653999,1.3690459,1.824855,-1.4750828,0.75374925,0.49167705,1.5910565,1.5494145,0.53166825,1.1586233,0.9697258,-1.6632497,1.4972761,-1.093388,-1.4934608,0.114010714,0.4822237,0.8236518,-1.5164107,0.48138854,0.60380185,0.79183024,0.20565724,-3.1730814,1.8702205,-0.1690845,2.164108,-2.3065,-1.1540853,0.4989183,-3.5454752,1.3284905,0.9064048,-2.969732,-1.1386696,1.233759,-1.5957211,-0.53836316,-2.5964339,0.22394118,1.642614,1.4758734,1.7247185,0.12770872,1.1502234,-0.23069535,-1.3391818,-3.5268617,-1.1742952,1.0127363,-1.950758,0.6272946,-0.93458223,-3.4526129,2.216029,-0.5735378,-0.47174367,0.05137798,0.35746235,-1.1461565,2.7179213,-1.5385326,0.05948344,0.14790054,-0.21707962,1.2990285,-1.0949126,0.616329,-0.1535412,2.018864,-0.42849767,0.8675445,-0.1270071,0.6808482,-1.0866485,-0.67422634,0.41683713,0.99303776,-1.437956,0.24542007,0.42634365,-0.05830124,-0.20367646,0.14713447,2.7100127,-0.17342198,-1.6444764,-0.15865292,-2.5155306,-0.06937688,1.7932225,-0.038103405,0.33993238,-0.6847588,1.5655175,-0.35528407,-0.18886997,-0.43286967,-0.08524429,-1.5295249,-0.4165408,0.027969927,0.69495475,-1.1601899,0.11196562,-0.4284634,-1.0056942,2.9855604,1.0232033,-1.6844904,1.3901272,-2.554009,1.276221,-1.9568151,0.76185423,1.6913302,-1.7689726,4.3131266,0.38343218,-0.75147575,0.55223715,-0.47246778,0.82896185,0.81704676,0.13923138,0.9641563,-0.86891,-1.7045457,0.07484206,2.6451283,-1.8319429,-0.41855115,1.7331381,0.46326345,0.55169326,1.7427365,-0.19438021,1.0531245,-1.7736979,-1.5416783,-0.0014577016,1.1265287,-0.4604077,1.0251197,-2.4988897,-1.2862834,-2.0404487,-0.34509134,-0.68788403,4.3426456,0.39016908,-0.096185766,-0.3011643,-0.95014733,2.2314155,0.34005943,1.7424612,1.9074038,-2.9464734,1.3254828,0.23190887,-0.9686856,-0.82412165,-0.93663275,0.49714956,-1.4480715,0.4103973,-1.6089503,0.3509865,0.0031480829,-0.27942055,1.456136,-1.1045054,1.3328122,-2.4162853,-0.3745411,2.0397446,1.2879715,0.22898664,0.44072786,-0.89139736,0.72141445,0.99984366,-1.3505085,-2.216147,-1.0322082,2.3661385,1.7317232,0.83566976,0.8549284,3.1348512,-0.15532227,0.7416995,-0.11826301,-3.3434103,-1.514791,-1.0833794,1.6176281,-1.1667541,-0.2883928,-0.66852325,0.5521621,3.4647143,0.23787974,1.9815327,1.9076338,1.3317156,0.42177325,0.124119624,-0.7261186,1.7944263,-0.6398218,-1.1594383,2.602391,-0.7212139,-0.9747096,0.38544288,2.9725852,2.2145152,2.019593,0.94321704,-2.242985,0.8761207,-0.82434225,1.0811074,0.8419806,1.8002847,-2.4019957,-0.7793368,-0.26634353,-0.5593315,-3.3330476,-0.24904665,0.4743952,1.1120244,-0.6620198,0.6413311,-0.78489274,-1.3503289,-0.19575171,0.48657048,0.72726804,0.025046209,-1.3651804,-0.64879996,0.8265378,-2.9615228,-1.4356005,-1.6189086,-1.4411935,-0.29405165,-1.0917859,0.7901531,0.5177057,-2.1268737,1.8562256,-0.47084042,0.34938,5.0559,-2.1735373,0.048844505,-0.06661772,3.0343308,-0.32957646,-0.29503363,-0.7299489
-1.0999209,0.07856264,-1.1790355,-3.8077443,-2.8898747,0.6859427,-1.3045878,-0.915487,-1.7946545,-0.50299287,0.3333885,-0.80696666,0.36254242,-0.43202585,2.007688,-1.8118587,-1.7774072,0.3032214,0.83933955,-0.062735386,-0.8689644,-2.3362594,0.44292566,-1.2905434,-0.1515969,-5.969743,-0.38129982,3.0147598,-0.71089196,-0.48101392,-3.6372297,-2.63358,-0.45650753,2.4935768,-0.7542851,3.1968305,0.22634028,-0.80282074,-2.4553099,-0.22902791,-2.033495,0.17728893,-0.16720217,1.0910664,2.4387016,-0.07985371,0.8588457,-0.2544492,-1.6554904,1.4654472,1.2796003,-2.0738401,-1.0040376,0.08869828,2.806682,0.18476662,-0.7664907,0.41849533,-0.5257527,-1.1707034,0.0474261,1.4974158,-0.3451132,2.8605561,-2.544288,-1.4423842,-0.6414453,-1.6229222,-0.37851092,-1.7443831,1.067833,0.70514315,0.3576991,-0.68224955,2.0312006,1.7286702,1.3807733,-2.7802794,0.07175306,1.4787194,-0.25750586,-0.39960322,-1.9897181,-0.39893973,-0.25608993,-3.019754,1.6955264,-0.4622842,0.2954397,-1.7636676,-0.24718638,-0.3876765,1.7103158,0.41185567,-1.2006361,2.0488963,-2.255952,-1.7210793,0.96063775,0.83478534,-1.867383,-0.94429773,1.3168023,1.4829987,-1.3339269,0.018341776,-1.2966717,-0.27870196,-0.9307474,0.28566316,-0.234602,2.655886,1.0937295,-2.5592005,-0.051674265,-0.952429,0.038011752,-0.17928489,0.33229223,-2.3901572,0.44005966,0.11302457,-1.2092806,-2.6476789,2.8368201,1.7753266,0.8416472,2.7576022,-1.3424827,0.40249875,1.8176073,1.2748253,0.41070706,-0.041255612,-1.4304419,-1.0425262,-2.0775604,-1.2730231,-2.2519484,0.30776218,2.1070302,0.27477467,-0.8296106,-0.0047851205,-0.4526027,-0.89223397,-1.3394954,-0.03356254,-2.125465,0.36150852,1.3868388,-4.6218286,-1.8102514,0.6988562,1.2854177,2.6879337,-0.04469836,-0.33747193,2.7317443,-1.084619,-2.524831,-1.0182079,0.5315088,-2.1890974,-0.9395636,1.486208,1.7092685,-0.36464036,-1.3011291,0.9463859,1.3270929,1.7743069,0.35418776,-0.8410779,-0.06701628,0.74420804,1.1801554,-0.19571726,-1.5822973,1.3577012,0.82991755,-0.8746375,1.2811464,-4.704133,-0.9470742,0.23925275,-0.6632634,-2.7167277,-0.6706206,-0.91465145,-1.0062991,1.2147528,2.636099,1.0741763,0.93436193,0.51274765,-1.2668808,-1.2615083,2.5767303,-0.34885857,-1.839414,-0.038702857,-1.4605939,0.72532535,-0.4838228,2.5432327,-1.3528476,-0.70751995,-0.43705198,2.4119356,0.03258956,1.1544995,-1.009753,1.9847014,3.9081051,0.6419631,0.87772965,-0.45885286,-0.2579613,0.4435841,-1.3861083,-1.5252706,1.9601967,-0.25768113,-1.7945329,-0.9869009,1.1708016,1.4345523,2.8062406,3.7774913,0.8865482,2.3782213,-0.9358963,0.7838966,3.4660795,-0.8538538,1.1822594,1.8328441,-2.1767914,-0.11059039,-0.5863869,0.087696485,1.7401024,0.85653496,-2.4580498,1.6290678,1.3618393,1.3345492,1.2442564,0.029860748,3.6669266,0.19257276,-2.7502563,1.6973467,-1.5762045,-0.78951347,1.6742456,0.4856137,0.28849548,2.1229625,-1.9555818,-2.5039072,1.8324447,-1.9623649,-0.5926818,-1.3760172,0.44810387,1.4876206,-2.1166158,1.1904848,0.7397839,0.03761241,-0.8431229,-0.70433486,-2.4624982,0.7562674,-0.6175194,0.38160023,-1.1992388,-2.192351,1.3982075,-0.06144903,-0.82656485,-0.29218566,0.7525751,-0.25569564,2.7849271,-0.6005078,0.6323564,0.5992294,0.22174188,-1.5990382,-3.3253105,0.06508822,-1.0362262,0.65304303,-1.6000576,-0.77234066,0.47287843,-1.5485994
0.7815581,-0.13831934,2.4503262,2.3325365,0.5996015,2.1196144,0.91298985,-1.4096209,0.5023982,1.2321175,-0.6493281,-0.6171667,0.28103852,-1.2593251,3.0680852,-0.34369415,0.80883574,0.6573052,-0.36597157,1.9745455,2.8741763,1.5536338,-1.8216853,0.59625924,2.562458,4.212339,3.5611186,1.6566571,2.8086803,5.079534,0.13554008,1.2900847,3.4899454,-0.95002204,-1.2946829,2.6775894,0.14751643,0.48735753,2.200945,2.0882046,0.10338908,2.4355109,1.395411,-0.6716976,-2.0601177,0.77976376,1.1949017,2.6326182,0.5243648,1.5858797,1.0523405,2.007462,1.8355932,0.39018255,-1.5834311,1.513341,-0.6656171,0.7893639,1.0355012,1.8763552,-0.9045614,1.134264,1.7855841,2.7963765,-0.39580485,-1.6849931,1.1755356,-0.69579285,0.5149468,2.029781,-1.0997983,0.15016572,0.47887722,-2.5961378,0.15353768,-0.712196,0.30545393,-0.13179608,1.5731081,2.266404,-0.31327972,-2.4101996,0.02211601,-1.3380592,-0.8549744,-0.06639243,1.0501508,1.2168434,1.2428068,0.41176194,0.00812203,0.4206513,0.17277306,0.3747816,4.185153,-1.9640759,-2.4945192,5.1923437,-0.00022959193,-1.3072407,1.0137233,2.102841,-0.442492,-0.07644921,1.3885087,-0.89018947,0.0204809,0.876556,0.89808017,2.1882856,-2.0705433,1.9459745,-3.4916096,0.5856734,-1.6440347,-1.1518636,-0.21373971,0.6085985,0.8196142,-0.7088672,0.17567942,-1.2405952,1.8715223,5.4730506,0.6598241,-2.2148192,0.7961434,-0.42933685,0.10640451,-0.36922386,0.8946086,0.65594405,1.8974385,-0.10611975,1.3706377,0.2142534,0.50320035,-0.5857034,2.21251,2.0590916,0.39821762,0.92373556,-0.762948,-0.7540692,-3.1468565,1.0929819,0.40603906,-4.371984,-0.6781982,-0.16147114,-1.1634092,0.04731844,0.8797063,-0.5946931,-3.0216386,1.1534374,-2.2000818,-2.0637548,-1.9885164,0.1340169,0.3970944,-1.6732442,-1.3356202,2.4608881,-0.2650804,1.4063914,-0.51828116,0.07506656,-4.0606594,3.4582918,-1.2742652,-0.6681841,1.1234725,-1.6184975,-2.1320524,-0.72294736,-1.9901859,2.811614,-0.5101707,4.0368047,2.1986837,-2.965378,-0.30563906,4.307512,-1.0011585,-0.536989,-1.3859911,-0.77271444,-0.23618223,0.24313372,-0.62127644,0.21290226,3.5285428,-0.5939617,-1.3922689,0.31667995,1.1158028,0.24770871,-0.018073346,-1.8386616,0.07202284,0.7452094,0.45388955,-1.4353234,1.2828873,0.5156205,-0.44309112,-0.63689524,1.4879063,0.97753125,1.4062881,0.5364325,-0.8967462,-0.50990283,1.0606624,1.0223657,-0.9091528,-0.94820863,0.87120545,2.287166,-1.9753084,0.76002145,-2.0784664,-1.1813815,1.5085686,-0.35791248,1.821315,-0.261957,-1.7172589,0.5648693,0.97212666,1.0612559,1.3781998,1.6096373,2.0982845,0.5116204,2.0477002,-0.058017567,-1.7833313,0.39010164,0.6658541,-2.838867,1.4859533,3.237766,0.3865098,-1.3057748,-0.11380874,-0.83189,0.096633,0.43050483,-0.40319738,0.95373577,2.0127628,-2.3167675,-1.6369344,-2.186575,-1.4585066,-0.9037964,-1.5568717,4.0271854,1.5201803,-0.42874637,1.1050301,2.62613,0.1632256,0.114365555,1.2189094,-1.3397564,3.689094,0.07066777,0.049585298,-3.2118537,2.3267052,1.6887892,0.19474639,-0.06234286,1.0523317,-0.44043317,-2.0069766,0.857846,2.4645724,-0.9554109,-1.2755034,0.9013036,2.0665002,-0.7922613,-1.0112718,0.9968788,0.3077579,1.4981722,0.5088075,-0.49291387,4.8020644,-0.70589715,-1.5527927,1.5895928,1.0589564,0.8838895,0.054292187,-0.76318395
2.2357733,-0.7923446,-1.2786682,-3.273812,0.0044418885,-1.4884242,0.79340005,-0.73076284,1.4652067,0.23850979,-0.91083324,-0.5801132,0.107337445,-1.4393742,-1.3810378,1.7069606,2.2967205,0.43925527,1.6253943,-0.30078214,0.8273558,0.7282832,0.07698388,-0.62093115,-0.02422624,-1.4841298,-4.9974875,1.0574279,0.24368045,-4.276315,-0.63356483,-1.1640048,0.06502565,-0.005237685,1.4203671,2.0663147,-1.9941691,0.42527172,1.9333771,0.71080303,-2.499855,1.5548928,1.5326276,1.2713672,0.22331694,0.52365506,0.07472964,1.2118645,1.2538458,-1.0732276,-1.7897625,-2.1708372,-0.3683891,-2.1420588,0.59131616,-0.36890334,3.2234087,-1.7795409,-2.0077598,0.24750483,-0.9150256,-0.21217592,-1.6112193,-0.0025003771,0.9806792,0.47056258,0.9110378,0.08679982,-0.28007352,1.2030553,-2.1471975,-0.6611158,-1.2519349,-0.53594774,-2.0084438,-1.4256747,1.2042158,0.37561807,-1.4054228,1.6521269,-2.4158492,0.18434373,-0.43804255,-1.6275867,-0.974524,-1.7001162,1.5280777,1.7351123,-0.94191706,-0.8767756,-2.9221637,1.7834314,-0.90129626,0.0020357398,-5.0006666,-1.0965072,0.74269533,-2.0844123,0.50023687,-0.27671093,-0.6814638,1.0849689,-1.9596653,-0.6857805,0.1779694,2.326834,0.058016334,3.1423743,-2.3177562,-0.13294022,-2.0889885,2.621782,-2.3630188,-0.361846,-0.2804013,-1.5402889,-1.0459585,-0.81030476,-2.992173,-2.6431682,-0.7200954,-3.6078956,2.583946,-2.1042435,-0.7553,0.0394143,-0.09040203,1.2496811,-0.47044283,1.7586863,0.41293198,-1.2048616,-0.52177453,1.5664928,-2.6552901,-0.6074617,-1.3723785,-1.1353952,0.9518235,-0.6320727,0.3833247,0.5237181,-0.11609797,-1.934698,-1.6058788,1.4644117,-0.95561033,-3.2093353,-0.5388903,-1.9897208,0.98383224,-2.4037147,0.95525044,-0.14442089,0.29317385,0.21500991,-1.873042,-1.66765,-0.29659194,0.90815413,-1.0573585,1.1073878,-2.7054267,-6.2193203,-2.8116496,-2.4471264,-1.7762707,-0.14786103,-2.327852,-1.7221727,-0.13394651,0.07241304,0.35751927,0.9935126,0.09302519,-1.2919666,-2.0385735,1.1049368,-1.3119397,1.0920005,-0.27102855,0.1432475,1.5265089,-3.149385,0.94214153,-1.618301,-1.3537529,-1.781995,2.3140044,-1.8341757,0.33168408,-2.1888957,1.4636443,-4.056897,1.9366121,0.59652346,1.0060946,1.786019,1.5331627,-0.8554207,-2.4942405,0.693348,-0.81383145,-0.66630447,-0.6504854,1.9559695,1.4477618,-0.2229103,-2.1868246,2.3872662,0.8976555,1.2522466,0.37890604,0.1369009,0.9940014,-0.8862411,0.8682988,3.1599057,0.5221137,2.7010376,-2.5484564,-0.65520066,-1.1764593,0.9877107,-0.7510759,-0.5447304,0.76825863,0.6639299,-0.46172875,1.5173606,-0.5928807,1.7117473,-2.4390697,0.41472828,-3.249179,0.39775813,-2.1125374,1.3622445,1.8900845,0.3471562,-1.5177929,0.90647596,4.7485156,0.65232605,0.51086396,0.52914083,0.28101632,0.8298767,-1.1613276,1.6420878,-1.1651988,0.4413779,-1.1296614,-0.8893588,-1.6788732,0.9108413,0.4507007,-0.01694228,-1.0498489,0.7202762,1.2587105,0.07834027,-1.9400486,1.5726418,-0.79261136,0.23639248,0.7266586,-0.3065657,-2.3458538,-1.742372,-0.027280387,-1.6584177,0.32020083,0.6546057,-1.9191827,-2.3204687,-1.7747804,1.3455478,-1.204004,-2.8980584,0.12107903,-1.4813906,-0.38973677,1.3382745,0.095943786,-0.7593293,-1.14513,-0.19135997,1.8585343,-0.78032595,-0.6576825,1.5399145,-2.2983093,-1.9500732,1.8456098,-1.5763854,-0.8125864,0.59184617,2.0530517,-0.4856526
2.8317854,-1.4682211,0.29624137,-0.72221607,3.137459,-1.6087433,0.021172388,-0.4562499,-0.31480747,0.93076867,-5.019527,-0.45017013,-1.1514761,-2.1185555,0.99337494,0.8659716,-0.64332426,1.4737115,-1.2421178,1.0321276,-0.87323904,-0.79693687,-0.46062946,-1.8036679,-0.3676142,-3.0901303,-4.3075614,-0.18482469,-0.379971,0.81895983,-1.2077063,-2.2971423,2.1289837,-1.7422307,-1.9582412,1.4824613,-2.9910333,-2.1230526,-0.7218048,0.6570152,2.3935492,0.6690454,1.6158152,-0.92959297,0.9489547,0.52469665,0.19540296,-2.1411474,0.54677486,0.6645087,0.6603757,0.9474394,-0.8544678,-1.2012885,0.6845645,1.0090994,-1.6390806,-0.5987882,-1.1872143,-1.0095719,3.7345436,-0.763196,2.074229,2.3386242,-0.18668844,-2.0776641,2.5604823,1.9170024,-0.033661153,-1.2798591,0.62770444,-0.39785057,0.025237147,-2.4986377,0.8365279,3.5485082,1.5260202,1.0522238,-1.9883417,1.3426521,1.4237254,-2.0194151,-1.1366069,0.71949625,1.3994013,-5.4589415,-1.6054455,-2.5448906,0.7779457,-1.3725752,-0.6778992,1.2648859,-1.657655,-1.1786548,-4.052174,1.2164226,-0.16973528,-1.1553062,-0.63106775,0.8498505,1.5677844,-0.80400467,2.0684638,-0.12477089,-0.7215992,-2.8839731,-0.5849535,-0.7355665,-1.1604701,0.5380094,1.2767049,2.6965055,1.5734377,1.5961349,0.53595555,-0.20425735,0.73081964,0.7574418,3.6311717,0.66951996,0.35625848,-0.77924275,-1.3387071,-6.7729173,-3.04762,2.3042037,2.1940653,0.42063287,-0.9091147,0.95777875,-0.6738518,-0.95156944,0.98328,0.7600821,-1.0908123,-1.2497971,1.9779888,-1.5792207,0.7139824,-2.5548148,-1.1694672,-0.20912366,-1.6052202,-0.4281633,-0.06638074,0.85036844,0.035958774,0.27273965,-2.5934072,-0.27592787,0.93816334,-2.6193085,2.2329984,1.536069,-1.6429843,-0.7564144,-1.0876547,0.52291673,-0.13343091,1.825923,2.7183957,-2.9302425,0.66200525,-1.1562743,-0.46827066,-3.137642,1.6997002,-0.42241228,-0.3913027,1.8225288,-1.9695181,-0.77703226,-1.1430603,3.4764857,-0.8285602,-3.4317641,0.03374213,2.2453802,-2.0706003,0.67697704,-0.6614632,-0.752048,-1.1752446,-2.7770588,-1.2970694,0.96284944,1.0274005,1.2232158,0.43710586,-1.769643,0.3553088,1.9195442,3.3710833,1.2687292,0.78198403,-0.47044215,1.0302775,0.50899947,-1.3474886,-0.26308063,1.2214242,-0.9338147,-0.11742942,5.2094936,1.4210043,-2.1082509,0.14437895,2.6689925,-1.4516224,1.699721,3.8340538,-1.9863144,0.2514977,0.17128588,1.482496,1.9684803,-0.4819287,0.023075338,1.1964653,-2.167032,-4.4585567,1.4718138,0.3330715,0.9567999,-4.503715,2.983424,-0.5936674,2.6802917,0.6175912,-0.97237134,-2.0938604,0.28875235,1.0941172,0.18796001,-4.1774073,-0.7794901,-0.42743108,-0.3999008,0.030544918,1.6949965,-0.8354528,-3.6496956,-1.3097727,-2.5523217,1.7305402,-1.8634747,0.21879241,-2.6816227,-1.3855186,-1.3018825,0.1853316,-1.3043975,0.33453774,0.36905038,-1.384409,0.07650723,0.68127364,2.032891,-0.6137753,1.8300157,-0.8603392,-0.47942618,0.37711647,1.4870862,-3.74594,0.20316795,-0.96122146,1.4849373,-2.772008,-0.12676443,-2.1589932,1.0432659,-0.65111476,-0.469536,-1.4976416,-0.8245946,-0.5407216,0.33694077,3.6666193,1.7540509,-1.4668193,0.90119576,3.3460732,-1.2247975,-1.1360093,-0.115992,1.5304384,0.88126343,0.26335126,-1.3225836,2.9859912,-0.47781345,-4.272043,1.5818489,1.8767532,-1.1816369,-3.9797065,-1.5968525,1.2860472,1.428396
1.1156217,0.35972574,-1.0819287,1.3444245,-1.6640311,-2.1466033,2.7976558,-1.4793195,3.3731637,-0.48606393,-2.3560922,3.050708,1.4216591,-0.47358876,-1.2653719,-4.5011673,-0.25116226,-3.220886,0.69450665,0.7229186,0.13946648,-0.75481653,1.3667837,-0.11972276,-0.23789679,-3.6709263,-5.6060524,1.2485102,0.3547486,-2.1764615,-2.697608,-1.6021401,-0.15512203,0.9520253,-1.1813675,2.5598977,-1.9986287,-3.3810477,-1.6645089,-0.20309378,1.4006131,0.2621213,-1.7189528,1.1038153,-2.1913536,1.0212646,0.13926718,0.25167018,-0.45771265,0.3232723,3.6838796,-0.4303838,-0.60807866,-1.0088705,-2.1191962,2.4598742,-0.55311495,1.2657894,2.7810779,1.228853,-0.37032953,0.8381497,-1.1537398,-0.86875385,-0.09849258,-0.5843245,1.6159703,-1.1417645,3.1879969,-0.32978404,-0.9253999,-1.1448088,-1.3683275,-2.2775843,1.7225261,0.56656826,0.1475637,-2.6379864,-2.173045,0.37138727,2.0992513,-0.50139254,-0.70091015,-0.44402102,-0.5901106,-0.40967587,0.01543458,1.5620291,1.7809876,-0.58900285,0.019706141,-1.0953687,-0.45180672,1.1979837,-4.2388244,2.6117494,-2.7631683,-2.3268788,1.5518869,-1.0390896,0.67768174,-2.4185905,-2.4211369,-2.5021453,1.9336616,-0.04400728,0.20424077,0.44366753,-1.4836017,2.0669005,-0.48942447,-0.24884903,1.3929274,1.2581174,2.1698873,0.33667102,-0.53609514,-0.47620344,0.90458935,0.13426629,1.2011079,2.421776,1.946606,-3.521572,-0.57233137,-0.919028,-1.06344,-1.0545708,-1.3669953,-0.41864523,2.7299473,-1.1955347,-2.2046974,-1.4609005,-2.1688352,-0.393153,-2.1914647,2.500551,0.3241969,1.5520756,-0.8340451,-0.46089748,-0.33881897,0.42270106,2.4264562,-0.02838057,-0.23219545,-0.75297666,-1.5872275,-1.4555198,0.19050771,-0.7204483,-0.89343846,0.74862266,1.7801493,-0.69032925,0.66273147,-0.9861836,2.2453449,-0.441961,-0.15023121,0.21251434,2.1590176,-3.2843292,1.3456519,-0.95184195,-0.62451196,1.1887449,-0.16536771,-0.12424731,-0.5480358,0.4749824,-0.7022015,1.4530708,0.7560741,-1.4133122,-1.9450116,-0.13857512,1.3518152,0.3255544,-1.7727743,-1.3644944,-0.45872486,-5.875147,0.42853206,-1.0782818,-0.40677902,-2.4361985,-1.8921652,0.104778334,2.1960394,1.8014262,-3.102006,-2.5134087,-0.33432508,1.1401513,1.7740911,-0.28233686,-1.0471398,-1.3001243,1.6889023,1.0530303,0.6232636,-1.3398385,-0.40457413,0.0179637,1.1539022,0.15571973,-2.1077516,-0.30510318,0.7755886,1.6045111,1.3967879,-1.7003176,-0.98221177,-0.545716,-1.5594947,-0.13651788,-0.8265469,-2.6879845,-0.12904583,-1.3834319,-1.993866,0.80387455,1.3125983,-0.7233937,-0.15575466,-1.0483857,-1.3378811,-0.22402464,-0.26656297,-0.0039515398,-0.20646457,-0.8445348,0.20852204,0.19537002,-1.6780242,2.6083803,-0.64469296,-0.4690081,-0.9513413,-0.63204736,-0.49139595,0.4268072,1.5200775,1.093698,3.8249462,-0.1712396,1.9810601,0.38888055,-0.049152166,-0.48065367,-3.2010944,0.74724185,-2.0422947,1.5347075,-0.0843407,-1.3003029,2.7132812,-2.8546038,0.20639327,2.561954,0.97056043,-1.3958654,0.1384651,-1.2102828,-0.33605596,-1.5234269,0.6909013,1.2860637,1.0356094,0.2523081,0.08257168,1.1266513,-0.13865562,0.010731869,0.767295,0.14478336,-0.8851174,-0.09053031,1.2912529,-0.5033687,-0.85291636,-0.08818267,1.3170917,0.08245072,2.361225,0.53449225,0.42613548,-0.6139172,2.123912,-0.6575973,-3.1746674,-0.5662273,2.794114,0.53898865,-0.93449074,1.3281678,1.316055,2.3526082
1.6156992,2.0214925,1.7533587,-0.3679276,-0.47847417,1.2564657,-0.65028197,1.0645576,1.290611,0.045505468,-0.018137217,-1.9464579,-1.5246255,1.1532351,0.38106447,1.6982055,0.6460532,2.3600178,0.050060075,0.9163861,-2.2031968,-1.6438178,1.6857182,-2.6445224,1.4098172,-4.2363296,-6.6091747,1.5555815,1.131862,-1.3672341,3.2251153,-2.4780395,-1.1198137,1.3293186,-0.31693617,-0.6664431,-1.2333664,1.600091,-0.5628918,2.327679,-1.4111339,-0.49537632,-1.0282621,-0.22115181,-0.71419436,-1.9196086,0.79395,1.134952,1.1450794,3.2662823,0.2658783,1.2837806,-0.40272734,-2.3330884,-0.5759677,2.602673,-0.6385218,0.2678978,-0.4072789,-1.0937645,0.21576212,0.52504563,-0.54730135,1.3419734,-1.9976964,-0.7244922,1.3145331,-2.5335834,-2.062874,-0.15420972,1.035902,-0.3362885,-0.8610141,0.09070755,1.5973457,-0.29390967,0.7737976,0.049753044,-0.9555731,0.38600764,-2.3274848,-0.4805302,-0.23746534,-0.19469036,1.9344581,-0.035953335,1.1946189,0.28396106,-2.4578898,-1.3320118,1.0598323,-0.078739874,-0.9858935,-1.1533605,-1.515632,-2.8359582,1.7246077,-1.2964846,0.7331291,-1.1329618,0.021207303,-0.94048053,-0.04966441,-1.1260539,-1.1358484,2.1870081,-0.25407365,1.8948143,1.1001993,-0.6643632,-2.5317543,-1.1835,-2.808609,2.5291517,-0.9737042,2.7366076,-1.4831839,1.283706,-1.567325,-0.8487669,1.3482623,0.4478039,-0.14393212,-5.0680966,-1.9755139,-3.302191,0.39239055,-0.17104363,1.6636599,0.7069998,0.9595826,0.39842466,-1.2589979,1.2502934,0.27107725,-2.325991,0.005813291,-0.0020636779,1.236299,-0.96563447,0.56460124,0.9397625,1.867876,-0.3352622,-0.41072908,-0.77550215,0.55867094,-1.0845257,-0.13567191,-2.1201577,-1.4767479,-3.9977264,-0.48039055,2.2963805,-0.86013955,0.5087118,1.6143953,1.7249384,-1.3923469,0.8191074,-0.4681259,0.87617636,3.1449575,-2.1527793,-0.45151058,-0.054424487,-0.780074,0.7580392,-0.3816781,0.95762914,0.05100044,0.123244375,-1.1313214,-1.4633857,-0.6395981,1.0336123,-0.6406878,1.1176515,2.3284614,0.3525311,0.27757564,-0.108141296,-1.0153278,-7.1152964,1.1850812,2.203483,1.678247,-1.3489027,-0.8649747,3.3443134,1.8059506,0.15512751,1.0149666,1.9058253,2.1960375,2.1695657,-0.78432965,1.9133533,0.75723296,-0.05581431,0.6843339,-1.355086,-4.135204,1.0742408,-0.39704528,1.5871855,-0.01734021,0.78462213,0.9362967,-1.6108778,-0.31276017,0.44383815,-1.3564707,-0.89562416,-1.3588963,-3.2589505,-1.0615774,0.65983325,-0.8216115,-1.9315869,1.2155014,1.7150748,-0.2569087,-1.9445415,0.75023997,2.4986634,0.11844024,0.67748713,1.2336339,2.623208,-0.89497626,-4.2949533,-2.6072512,-0.74680823,1.8810635,1.6952311,-1.5921757,1.1614771,2.8484972,-0.8543084,0.9457456,-2.6973681,-3.3104665,2.104842,-1.8472738,-1.4174368,-0.014466945,-1.721306,-0.4897954,-1.7763401,-3.8535175,1.7774785,-2.3290932,-2.3914697,-1.0790503,1.295213,0.021976257,-0.078169286,-0.37388134,1.6450866,1.7297297,-2.0717494,-0.9869184,1.5511836,0.7543704,1.0772113,-3.5904922,-0.18340428,0.4574358,-0.89433783,-0.08169806,1.0035642,0.9551093,-0.51139706,-1.0591083,2.092911,-0.72952425,-0.16563767,3.3795068,-0.26728427,-0.968482,2.3268492,2.576557,0.1882657,-3.5726323,-3.025676,1.11739,0.2912236,-1.9714907,1.4958605,1.8032844,0.8666855,-3.7209253,-0.070553854,-0.62082255,-0.11044953,-2.6819832,-0.3492066,-2.6305459,-0.5337274
0.12214387,-0.17778045,0.24044733,0.5792928,-2.6930897,0.8576016,-2.7640948,1.1226588,-2.8572078,-3.3350585,-1.1562891,0.7909635,-1.4498129,1.4045577,3.6014762,0.8690431,-0.16619322,0.47339985,-1.9440991,-2.276537,-1.7071073,-0.7206375,1.4784368,-0.2789189,-0.41187635,-5.266965,-4.459915,-0.9386712,-2.658455,-6.1901174,-0.7925811,-3.850777,0.9938851,2.1320195,-2.9135184,-0.94526005,1.782543,1.2624266,-1.3459742,1.639519,0.35152462,-1.7305804,-0.7043583,-1.3005227,-1.4322034,-0.1095614,-0.26890415,0.6623293,-1.5450743,1.0282387,0.26031947,1.0531727,-0.6365903,1.9243267,0.061455835,-1.6785592,0.35974303,-0.715625,0.38813174,0.89422715,1.4178474,0.025175394,1.8338459,0.4506085,2.810496,-2.3394156,0.17915368,-0.7029183,-3.4880166,-1.8602921,2.9940724,0.47604194,1.5978823,0.665182,-3.143514,0.69238454,-1.740111,-0.033727895,3.598262,2.1043203,-1.2084134,1.633349,-1.6731955,-1.1052563,0.7086433,-3.8754497,-0.65509754,-0.4565509,-1.4124308,0.7257016,-0.5869978,-0.9241134,1.0771738,-1.4659201,-3.4111903,1.7282914,-1.7661743,-1.8280478,-0.23961176,-0.595938,-3.5843508,-1.8373607,1.3742054,2.5689619,0.17678007,0.15124157,0.34334236,-2.132505,-0.9355342,1.1601821,-2.0322819,-1.584341,-0.29020727,-1.447564,1.2677164,-0.42872104,-0.48904163,-3.5223365,0.5448976,-0.61084276,-1.6557012,1.0436857,-1.4721401,-4.854452,0.6436223,-0.72079897,-0.09230554,-1.0844997,5.3640337,1.9828752,2.0772328,1.0443268,-3.1394804,1.6581299,1.7352957,-0.22818679,0.35042545,-1.2871835,0.25065055,-1.2274053,2.4004207,-0.45479086,-0.8385321,1.3355137,-1.6718786,1.2071979,1.4860818,-0.52075285,-1.1714934,-2.1873996,-2.255313,-0.931321,-1.7704885,-1.7639008,3.3765426,1.7665771,1.880215,-1.3179685,-0.83508396,-2.9372168,0.5664274,1.0704618,-1.8204011,-4.794246,-0.70190644,0.9459076,-0.06830543,-1.9400059,-0.075894386,3.6219049,0.99335974,0.7801972,0.037440564,0.33962616,0.32894963,0.5807284,-1.0452346,0.5646888,-0.8223875,-1.6949766,1.7328199,-1.1901921,0.45759457,-2.7255409,-0.4951587,3.4819503,1.617995,-0.66877466,1.6781838,0.06538641,0.2778353,1.2449502,1.6080065,3.2499535,-1.9797118,1.8321157,-1.5211884,-0.92682403,1.6308018,-1.1395447,0.14625464,0.09364899,2.715465,2.07138,-1.9715791,-2.2988782,1.5800352,4.012881,-1.1956385,-0.40256518,1.7953757,-1.5028698,-1.8323411,-0.83761895,0.37827218,1.2053647,1.1062245,1.4272394,-0.76046985,2.260451,-4.105668,-0.006250216,-0.050500497,-0.40993816,0.4076537,0.20753041,-2.2906723,-0.58234346,-2.1445618,-1.0797441,-0.048901994,1.2082429,0.92851156,-1.0256653,0.34689033,-0.8141368,-0.10112979,1.5214769,-2.4177096,2.142895,1.7240561,1.584192,1.3476547,2.1672173,0.75138545,0.88457257,4.1164246,-2.0591123,-0.6112716,-1.085609,-2.5310192,3.6974597,-2.9440703,-0.44617182,-2.6457422,2.2217145,0.10302816,0.6733211,-1.6385548,-3.4840417,1.6677783,-0.091404036,-1.3646015,-1.3920941,0.5626353,-0.26371416,-1.2973148,-0.85724753,1.7862017,-1.077648,1.2205244,2.1727014,-0.3272443,1.7234653,-0.6280002,-2.5951798,-1.9109787,0.4933321,-1.2422376,-0.015308331,3.204129,1.978229,0.21979944,-0.8107801,1.990283,-2.9305458,4.272762,1.5679408,1.0997548,-3.1555507,0.06087238,0.4227609,-1.7893776,0.9275827,2.4164877,1.3822986,-2.3242524,-0.95022154,0.3954079,1.8521532
-2.6457481,0.9200056,-4.328686,1.5860903,-2.728891,-0.2935381,1.7285237,-1.4518174,0.36454824,0.69914323,-3.555105,-0.9892204,-2.3583333,-0.2924762,-2.1731489,0.99381715,-0.6344132,0.35630283,-0.4994881,-1.8573704,0.85720706,2.5018277,-0.5244852,-0.13933441,-1.2631856,4.230342,5.5131917,0.8455934,-0.10897397,1.8523421,0.99188304,1.9202944,0.5320581,-2.8252451,0.19892949,1.0636716,-0.5231302,-1.3817925,0.09095208,0.4222436,-1.1768373,-0.28238994,-0.020129027,-0.008968479,1.1656164,-1.7025669,-0.9061266,-0.26564774,-0.35039398,-0.8861812,1.1023712,2.502022,-0.7689473,-1.1691157,0.2013032,1.7155846,1.7879696,-0.14399107,0.3408982,1.043652,2.3699512,-1.4093232,-1.6880534,4.090639,-3.1537385,-0.98821217,-0.80412996,-0.51474965,2.297385,0.34350812,0.5896402,-0.66262066,0.31501013,-0.8251354,1.8352476,-0.42174363,1.6071018,1.307088,-0.9655477,-0.30477825,1.1861416,0.6129304,1.8508986,1.3830172,2.0077846,4.6408763,2.7721899,0.4024743,0.56055033,0.32618818,-2.2652636,-0.6418091,0.9873904,0.20469552,0.8702502,1.2780708,-0.9636355,0.929903,0.2792443,-0.6826862,-1.7258407,-0.12969482,1.0985137,-0.5868209,2.5619445,-0.07262398,-0.038771536,-0.7129868,-0.6816097,0.021300187,-0.4127398,1.7711061,0.5074974,0.27975422,4.1094155,0.9432621,1.1465143,-0.41682756,0.45321473,-1.113116,3.0880148,-2.3739526,0.35486394,2.585846,-0.35155976,1.6473526,0.9298917,0.37064543,0.43227884,3.7406824,0.32807443,0.9868219,-0.06444879,0.054756314,0.8287656,0.047417056,-1.7844553,-0.5272297,0.21182673,-1.0420511,0.43959257,0.21552275,-0.6172318,-0.065142795,0.82841635,1.9767647,-1.1524351,0.4333602,1.9477857,0.26237282,-0.3961416,3.5924585,1.852886,-2.4328933,1.5016226,-0.123250864,0.36042348,3.2004783,-0.86663294,2.8781846,-0.58465284,0.08296291,0.061499655,3.454589,-0.3962803,-0.818717,-2.435926,1.5620165,-1.1401998,-1.9252175,-0.827152,2.0213675,1.6938901,-0.9760153,-1.7092179,-2.0570471,-0.2451932,0.9983725,-2.3355947,-1.7337048,0.3732021,0.6365212,-1.8902619,4.819023,-1.6629157,-2.2214367,-2.016403,1.4988831,0.88769984,-0.23563482,0.6687042,-0.46653515,0.13858686,0.05751137,0.11693815,-0.8486822,2.2731547,-0.5478247,-1.3504118,0.17766249,1.2642121,0.49760285,0.1755565,-0.82058316,-0.6977192,-0.15998456,-0.68069655,0.34623724,-0.14306217,-0.49903464,-0.083217345,0.34720662,-0.96504295,-1.4779711,-1.6935673,-1.5207138,-2.047891,-1.1634854,-1.5461279,-2.2227771,-0.412294,-1.8847039,0.86238056,-0.8969069,0.6258323,-1.9713706,0.2696456,-2.610004,1.7567464,-0.070066236,0.6875189,1.8523766,-0.40045762,0.29155198,-0.6470418,-1.1339294,1.2081671,-1.6726847,2.1586907,-1.0604379,0.87640333,1.2463746,-0.9101717,1.0770401,0.7582702,-0.7064773,0.1794678,-0.55663174,-2.6447334,-0.55961555,-0.5428559,0.29690233,2.3469758,-0.2186411,-1.0958629,-0.4350589,-3.39522,1.8203568,0.5957172,-1.153859,-0.5570053,1.4238098,0.76202863,1.1473475,-0.43665007,0.26389518,-0.95235676,1.1534027,0.63015395,2.8439581,2.974897,-0.57083833,1.7452642,0.60012347,3.9928503,-2.7290566,-0.12274689,-0.18305135,-1.81141,-0.97045165,0.86848074,0.21931233,-0.11991075,-1.4611546,1.9962162,-0.21267706,2.1638172,-0.493754,-0.37337643,1.9202714,-1.2466577,-0.43309546,2.1067975,-0.51115644,0.7014627,-1.9824183,2.949222,-0.40624577,-2.1191378,-0.054519042
1.9180149,0.14064391,-2.2988415,1.4597167,0.65982246,-1.8337221,1.1345357,0.3973178,-0.11064549,1.1211325,-0.37214473,-1.0906423,-0.3710674,2.6010566,-0.51899344,1.6122894,-0.9126126,0.39383683,-1.3636842,0.89031464,-0.7351735,1.9032859,1.232003,-0.76553833,-0.9416393,1.1871723,2.8598676,-0.3993046,-0.2131042,3.8085582,-0.9010702,1.1421003,-1.5129653,0.64161944,-0.6871246,-0.14128542,-1.5286694,1.9202014,-1.4107863,-1.1193236,-2.2338417,1.6939114,-0.3046823,0.76296556,0.011091948,-0.7723755,0.2288124,-0.71038646,0.84237814,-2.910626,-0.5127924,-0.0021250295,-2.4254377,0.9214187,-1.5732092,1.8236308,1.2812413,1.68489,0.32008964,-0.16999517,0.14102112,-0.7416827,-1.8399768,-1.4992163,1.6063892,1.8837202,1.0626187,1.5830581,-0.5004955,1.1951739,-0.20551193,0.5300821,-0.012782703,-2.814225,-0.7607533,0.07545276,-0.31804335,-0.4583457,0.19267194,0.73299325,-0.77574927,1.7453426,0.75539255,2.6826582,-1.0417966,4.010196,1.7287235,2.3750722,0.14740789,0.25246093,-1.0589919,-1.9414712,-0.07790859,1.0083518,0.5329145,0.07133172,1.3287858,1.7128773,0.0467823,3.112369,-1.510977,0.23745593,1.0355548,-0.2269147,2.6960614,-0.12721373,3.347649,0.79573524,-0.52601117,-0.72489035,-0.376235,0.26618117,-0.6196005,0.9623695,-2.4260721,0.5187558,0.33006907,-1.7254359,0.46271798,0.58157223,1.2456626,-1.3201199,-1.5076702,0.7574417,-0.23250796,1.9847376,0.8851117,-1.47827,-0.37116757,-0.1732946,0.26637873,-1.848853,-3.238755,2.469963,-1.3012124,1.165045,0.56605506,0.93695694,-0.5380055,-1.2287598,0.43994418,1.6269455,1.5415076,1.5623634,0.43007618,0.37939078,-0.7720262,-1.9836893,-0.76329803,-1.4346669,0.29685372,5.446345,-0.42328033,3.3522692,1.9782771,-0.17989668,-1.4362599,0.32173732,0.7974539,-0.43921882,-1.9333807,1.7461718,0.9198932,4.3296757,-0.65175086,-0.62890327,-1.5350959,-1.6879188,-0.9281977,-0.31441888,0.26704967,0.9043448,0.8259391,1.21849,1.3631389,0.22420257,-1.6705467,-1.0676416,-0.08009182,-0.42227158,0.70322114,-1.9031389,0.84508395,3.4108212,-0.8146505,-0.827004,-0.7141232,-0.0981719,1.7016091,0.2599407,1.1993436,0.38843778,0.18567613,-2.1969726,0.14232674,0.21012348,-0.4511344,-0.51230955,0.11697195,1.9717869,0.3172907,-0.49734977,-0.865189,2.1745164,0.90188223,-3.1929684,0.21149242,1.8068324,-2.311768,0.61641204,-0.6156444,0.17279191,-0.3043935,0.8221198,-1.7652358,0.95007735,-0.78950065,-0.71296144,-1.9297541,0.16532749,3.0733244,0.9634015,-1.0315044,1.5141144,0.5168603,0.36506778,-0.78452015,0.38902053,-0.15309462,-0.122652195,-0.11599757,0.52369237,-3.3298044,-1.1898404,1.0599248,-0.27994373,-0.65951127,0.43310463,0.15800537,-0.12474154,-1.9634976,-0.84098,1.1653727,-1.1218909,-0.97695404,1.0628836,0.13023132,2.1334236,-0.049131215,1.274864,-1.3493993,-0.83786905,-0.29957572,-0.562476,0.6610258,-0.15019965,-0.8842071,-0.813446,0.78898615,1.6972878,0.48169008,1.2420584,0.76704943,-0.8313398,1.1037368,-2.6610608,0.80051386,0.956666,1.5589631,-1.4814309,3.6408932,0.08535858,-1.3225602,-1.4442548,-1.4581851,1.3673167,-2.5140812,1.6019576,0.049233675,0.022332182,2.8555424,0.28156808,-1.3645178,-0.013886514,1.846163,0.5296306,0.965533,2.1885152,1.3181866,1.3663843,0.7168421,0.7819727,3.9880717,0.73737246,0.03720377,0.32125637,-0.34673908,-0.82121456,-1.5668399,-3.320987
0.93766886,-1.6736622,0.64708275,1.0112259,0.43848208,2.397195,-1.7756952,-0.3288945,-0.0080524925,0.8717566,0.32359314,1.6281201,2.092416,0.65403545,0.16918829,-0.6815114,0.2445991,-0.9423169,0.10646015,-1.4694993,-3.19807,-2.5070748,-1.6967608,0.8376512,2.6155467,-3.1268117,-1.2364681,0.14617561,1.0216346,-0.42396417,-1.1598909,-4.5667415,0.7467599,0.48124003,-1.343728,0.9107181,-0.12509166,-1.4717375,0.7204156,0.08266756,2.0387871,-2.1126497,-0.45504984,-2.1080146,1.4139302,1.410405,-0.34958035,0.4384849,-0.2516377,3.1197848,1.0844266,-1.5075624,-1.5709423,-2.1608734,-2.1781073,-0.276795,2.6731582,-1.3258562,1.0485913,0.5988279,-1.4087164,0.5837139,-1.2646978,1.2823209,0.42900738,1.8832089,-0.088647954,1.5103358,1.2106608,-0.5063335,2.1269274,-1.7085004,-1.0809196,0.48639262,-1.1694194,-0.18236682,3.6286037,0.41073492,-0.09465329,-0.5633808,0.66768026,-1.2044109,-5.4471836,1.9440653,-1.1982242,-4.8005304,2.2551267,-3.0657926,-0.103459105,-2.5688906,-1.7066804,-1.1792092,-0.35837412,2.1425996,-1.2692432,-1.3948616,1.0490638,-1.2082332,-3.0000117,-0.0914793,-1.7373481,1.4226472,-2.0961967,-0.72042215,-2.068269,-4.459129,1.6554956,-0.0067427065,0.99124545,1.5791647,0.062759,-0.73055154,-1.1821189,-2.4680824,-2.3457406,0.21714167,4.128851,-0.8136627,-1.1567898,1.9365153,-0.33758536,0.16042858,0.4615389,-6.0636687,0.47783285,-0.18059044,0.5779093,-0.3337453,1.516749,-3.0409796,1.5756243,-0.41214314,-0.6451191,2.517338,-1.8173982,1.8429074,-0.38565734,-2.4645555,-1.1139822,-0.38139212,0.6575222,-3.825682,-0.6073294,-1.9572601,1.0573719,2.994845,-1.7326504,1.5050606,0.14829352,1.409926,-0.16368371,-2.0319343,0.53145605,-1.4851453,-0.3878871,-0.093373515,0.99346215,2.6974154,0.10414548,-2.4076393,-1.2035799,0.8147121,0.10438325,-5.6538157,-2.4841018,-2.8324933,0.25574586,1.0934063,-0.90985215,0.6396275,-1.9355217,1.4460729,0.33543837,-1.1022437,1.0611854,-1.2840476,-0.865121,-0.8763246,-0.332762,1.3490752,-0.38024533,1.1646645,1.2758764,-4.078404,1.8055046,2.4074097,-4.03932,-0.07551428,-3.1943896,0.6391081,0.023094198,0.7370687,1.1203898,1.4155061,2.2331831,-1.1152552,-1.1849806,0.016939433,0.7902162,-0.18433034,1.1717008,0.95323604,-0.6994942,0.6658002,-1.0436276,0.16649051,0.09458803,0.81858087,-0.8108821,0.6190855,-0.13675073,-0.9476261,2.657519,0.4212383,-0.7694947,1.1056077,-0.33274326,-1.2430353,1.923854,0.28371757,-1.9104977,0.25459868,-0.30490497,0.29150018,-1.2254847,2.5128403,2.0547762,0.42607704,0.8501498,-1.172553,1.4897822,1.5445356,-1.658066,-1.5428685,-0.13378707,-0.6929349,1.2714494,-1.9819022,0.008998779,0.7527441,0.75362587,1.2736343,2.4585571,-0.70725536,-0.25954428,2.0140634,-2.1748734,1.5858037,-0.9175875,-1.6488838,-3.0156171,-2.5958977,-4.84516,-0.62922853,-1.3062179,-1.3451707,0.3946839,0.084638916,1.6208427,0.06054125,-0.41762802,0.90229666,-1.065468,0.6616576,-2.1375306,1.1898156,3.8454785,2.3984878,-0.62226236,-0.58887595,-1.8397508,-1.1189226,-3.272698,0.2195146,-0.2083396,1.4848437,-2.3395329,0.25062665,1.2096475,0.58199424,0.44217342,0.08098404,-2.8813298,4.7656384,-2.073625,2.6801462,0.15539838,0.4594423,-0.52556145,-1.7882159,1.1393198,0.6230938,-3.0874872,-1.0258653,-1.3222197,0.7415385,-4.763026,0.6284306,0.96699584,-2.532659
-0.9076644,1.5130908,-0.08442881,2.6853533,1.4051309,0.9470064,-0.004336317,-1.9768388,1.2812486,-2.2133532,-0.64917946,-2.7168875,0.40900385,-1.5611454,2.0830789,0.71214235,0.22878754,2.8904333,-2.0773666,1.0383456,2.8067455,-0.43108818,2.4001372,-1.3539672,-0.72045773,3.275395,3.992318,1.1324551,1.3621672,4.4392443,1.6186246,1.9808933,-1.5153404,0.46263823,-1.5562888,0.63296986,-0.03045613,-0.57064587,-2.8076322,-1.537909,-0.046516493,0.75937843,-0.903781,-2.2219102,-0.07553184,0.48198423,-2.4538639,-0.17108577,0.33938786,2.9014218,0.41475287,-0.06714807,0.2843127,0.6950308,0.6072487,-1.6444237,0.9508743,0.2580562,-0.7673793,-1.1879197,3.141275,-1.0662004,-0.66330636,1.4236704,-0.5010631,1.1592408,0.24889785,3.0119467,1.9574727,-2.2137873,1.993659,3.524906,2.3302076,-2.0087874,-0.05829774,0.033332963,-1.9392278,0.89773744,-0.72804123,0.70346814,0.77859867,0.0016476413,-2.897184,1.7800101,-1.4414985,2.501957,0.3446337,-2.591779,-1.727367,-0.042595986,0.19600423,1.9691734,-1.8356229,-0.9370039,-0.56740266,0.40052572,-1.3823059,1.3067309,-0.27631235,0.11794669,1.8858792,-4.375246,-0.6346766,2.36512,-2.9786897,0.538922,-0.28941607,-2.0203285,0.9665149,1.9011848,-2.8864775,-0.2723053,1.5196875,-0.60587376,0.6968277,-1.7399448,-1.400287,1.2347155,-0.12771775,-2.3619373,0.463728,-0.8104008,-0.6656211,3.0165114,-1.1610477,0.17238586,-0.24084006,-1.548493,2.157073,-0.47562683,-2.7408237,2.6506603,0.99743205,-0.27095783,-0.35537034,0.52423793,-4.9633703,1.4820476,1.2577823,1.6194482,-0.15192682,-0.86125207,0.40462896,1.531792,-1.0276537,1.0857143,1.9406501,-0.84490365,-0.25790372,1.5305116,1.7601619,3.2247076,0.80109435,2.4214098,-0.09818278,0.66522354,-1.3843126,-1.3473701,-0.38702524,2.3858721,-1.4328809,4.018577,-2.162909,3.912555,2.7103004,0.0884049,1.9882796,-2.0101721,-1.5812559,1.3649095,0.9479528,-1.9995083,-0.66221505,1.8154926,1.4925661,-2.2346673,0.6890836,1.7305956,-1.111965,-1.3275175,-0.7232273,-1.7762964,-0.24037382,4.5137525,-0.3058862,-0.34660423,1.0080557,2.9626274,1.4206628,-0.8721913,-0.90782076,1.652863,0.25488406,0.598132,-0.83975244,0.57074654,-0.78059435,-0.66951877,-0.703423,-0.5653851,0.9723785,-0.78737664,1.08255,0.63837713,-0.5593934,-0.033977132,0.74839437,-1.6659006,0.28856337,1.1010209,-0.70774585,-0.089128554,2.6533277,-3.0870183,-1.4164815,2.3006146,-0.44408557,0.8163065,-0.6007712,1.0640671,1.6938182,1.7693508,-0.71573645,-1.6222433,-3.5006256,2.1551018,-0.42005342,0.7076204,2.1154616,-3.057448,0.803835,-1.2316314,-1.7235283,-2.409847,1.2807312,-0.9453391,-0.023032496,0.58149153,-0.63801074,-2.601635,-0.49752417,-1.2727687,-0.21410954,0.49518317,-1.0390024,-0.03763152,0.94410264,2.5317602,1.4909512,0.40829,0.59328425,0.73547053,2.9988935,-1.0034437,-0.3157607,-0.3755731,0.8843117,-1.9753374,0.67515194,2.6130173,1.1851534,0.073903844,-0.40108332,1.3699267,0.78668857,0.22759897,-0.780505,2.1532242,1.9478594,0.48646933,-1.1994711,1.0583234,-1.1342943,-2.5390449,1.1586082,1.7640948,0.6301129,-0.29668945,-1.8629738,0.2587924,-0.25185648,1.6069396,-1.3053839,3.0813344,1.8707124,-3.4703023,0.46914303,-1.0289018,1.1829493,0.7249649,0.5180874,-0.046575442,5.0910068,-0.82970154,-0.33949336,-0.58204055,3.1156526,0.21192466,-2.1917024,4.0708165
1.2131401,-0.42221543,1.4702989,-0.28331214,0.65609974,1.8312219,0.15504718,3.9818542,1.0151484,4.340412,-0.25956568,-0.65211946,0.91663295,1.5693089,-1.0370291,-0.89273006,4.5748034,0.3772842,-1.0406574,1.102441,0.39330524,1.0512434,-0.81554776,1.7534024,0.6535665,1.7782127,4.559177,-3.3058295,2.2455955,0.24534726,0.6376725,2.7576911,1.8276622,0.89061165,2.3225758,-1.6698238,-0.21332861,1.225801,0.2929623,1.3249646,0.9315949,-2.2816038,0.11201811,2.809894,-0.19751453,-2.5362527,-0.8368368,-2.5028958,-0.44597572,-2.4046512,0.47469172,-1.9446568,-4.7111764,1.1567557,0.20311266,-0.9640206,-1.5562074,0.3866301,-2.2391715,-1.280136,-0.22713014,-0.32179567,0.9465573,-0.5294592,-1.381205,0.21114528,0.6590629,-1.02179,-2.4816031,-0.7970479,0.36030903,2.6108534,0.44944975,-1.2690952,-0.5765,0.9065176,-0.03376543,0.4383338,-0.9372547,-2.0097873,-0.46452048,0.06661705,0.33337447,-1.4419918,-0.19717866,2.7792428,1.5632846,-0.5104098,0.1833115,-1.2278192,1.3266366,2.3877459,-0.45397073,-3.1225111,3.5987504,0.21622463,3.5119073,3.8619077,0.7575959,0.80681545,-0.6161635,-0.06622309,0.18156715,3.0759068,-2.0818052,0.25503156,-0.7895568,0.31387284,2.8725402,-0.24428093,0.79579794,-0.6105239,-1.2898431,1.6258171,-0.6709662,0.02263994,0.6324713,0.5996778,-0.6615919,1.8341713,1.2313046,-1.7504832,-1.5626799,2.1028914,1.510512,2.1295276,-0.057484332,0.47429153,1.0092436,0.6269227,-1.968677,-0.46487752,0.11813324,1.3649759,0.93859947,-0.22043423,2.5967007,-0.25489032,2.0062652,1.8827688,-0.56372863,-0.64404625,-0.99114263,2.220437,0.9552849,1.2613882,-0.38657975,-1.0795332,-1.5170901,-0.89529216,-1.6769174,1.74169,1.2587229,-0.8668524,-1.2330918,-1.573668,-1.1550522,0.75430596,-1.2125555,-1.5942067,-1.3128567,-1.2464554,-2.0709977,3.8838894,-0.09152452,-0.6038322,-1.2507553,0.04904883,1.2311071,-0.2201232,1.7180151,-3.6699092,-2.5879045,0.83646554,-1.0617827,-3.4515054,-0.17608154,-0.18858099,-4.606794,2.7763023,-0.3936421,-1.5620886,0.97463435,5.5079494,0.62383336,-1.2570318,-0.4418758,2.429185,-0.06831161,1.5009712,-1.9810435,0.27264154,2.176898,2.0778403,-1.9409615,-1.7259179,3.1152182,0.8123784,0.5263394,-0.5549196,-1.563095,0.5590219,0.525804,0.25112638,2.2993796,-4.709146,0.6377767,-1.2817591,0.59462047,0.16513199,-0.62916344,-0.6948465,1.169136,1.8261149,3.020191,-2.890881,-0.34104037,-0.8473739,1.2280262,-2.8527393,0.5922158,1.3067485,-2.928131,-0.6811127,-1.4798653,1.5105972,-0.09917273,0.36407936,-0.5301869,-1.5933416,0.9551373,-2.4536316,0.5386881,-0.4114189,0.96156716,-0.06506892,-2.9654582,-0.23650128,-2.487791,1.6881807,-0.16702841,0.117550805,1.6292753,-0.4337969,1.1016223,1.6086609,-0.05954367,-1.3843124,-0.27606884,1.8243228,-2.6120734,-0.2099532,-0.19881335,1.3298194,2.0067272,-0.3195692,2.1106997,3.3032625,0.2801743,1.8585726,0.7550504,1.2622558,-1.64353,-3.2261155,-1.7199391,-1.7322489,1.9441059,-2.6599028,-0.44245234,-0.9886236,-2.1407497,-0.09086263,0.9252398,0.8975176,-2.3844197,0.3637189,1.2183429,-2.565029,-0.54048914,-1.0257921,-1.4800248,1.215832,2.107326,0.50811034,-0.20096406,0.08214689,0.3880433,1.3525102,-2.720305,-0.93375295,0.6799133,1.327375,4.417267,-0.16788289,-1.3513428,2.3577561,2.4358532,-1.1901636,2.1273057,-1.2407467
-0.0052932883,-2.4715836,3.5378246,-1.9571553,4.354237,-0.303512,0.97215927,1.5599735,-2.0566065,3.005238,3.2275205,-0.21426661,-1.3692385,2.415595,0.3294742,-0.8382601,0.6274934,1.7719499,1.0017648,-0.73179233,-1.2275383,1.6944149,-3.5911689,-0.24854629,-1.3523568,-3.9711967,-5.588533,2.3286052,-0.8730715,-2.751331,-2.3640788,-6.010822,1.4621786,1.1377902,1.2220341,-1.3947054,0.12586996,0.9133751,1.5624262,-2.6195242,-0.11362552,0.6419235,-0.4754039,-0.27623653,0.46336302,0.97830486,0.7052193,-0.4345828,2.767549,0.4451229,-1.3601943,2.9031415,-2.2844799,3.934863,-0.1346258,-1.7906009,-0.3633248,-0.6334019,-1.3188057,2.473907,-3.1394215,0.49600992,-1.573738,0.47509086,0.6566748,-1.0364559,-0.8224515,-3.0150588,-1.7114376,-0.27699134,0.8532538,-2.452113,-2.8633034,0.9804548,-0.9918484,1.2723149,0.246441,3.0437634,0.92051876,-2.3883579,-1.1251833,1.3772192,1.4321429,1.4585757,1.509042,-3.9440925,-0.7956633,-0.36213967,1.1465374,-0.6341765,-0.11767977,0.500642,1.4484724,1.0614873,-4.46287,0.12732928,-0.9622467,-0.60344136,-1.4905508,-0.8326035,-1.696357,0.96860015,-1.6508622,0.89943504,-0.34891498,0.7512889,-2.301849,2.6229303,-2.3451068,0.07402793,-2.5155354,0.8305545,1.8065108,-2.3387294,-0.58915246,-1.6490633,-0.4765828,-0.12717056,2.8907049,-0.7972886,1.3148392,0.70002794,-2.394854,-2.8340838,-4.377278,0.7477955,1.2712404,-0.62330204,0.482479,1.1488087,0.78613126,-1.8448019,-0.21462673,-1.8575101,0.06669115,-0.2911328,0.7092531,-0.41572922,-0.76631916,-0.62735415,0.25577393,-2.440613,-1.942257,-0.77442104,0.5929607,-0.36144853,-0.22495845,3.4724092,-0.41065285,-0.557723,1.0949018,-2.5438623,-2.6805933,1.056783,-4.6966987,-1.3480926,3.1103854,-0.7547082,-1.5242779,1.039653,0.93538994,0.73538953,-3.350459,-7.279713,-3.3084073,2.0061133,-1.0617481,-2.7046962,-0.6126437,-0.7933535,2.414229,-1.3503898,0.51856035,0.9355242,-1.2581483,-0.9489195,-2.5131063,-3.8971937,0.10832252,3.7164683,1.5271472,2.9843585,0.87401783,-6.28937,0.850563,-0.26079217,4.3169174,-3.2611303,-0.05456678,-1.0909923,1.8078555,0.16020705,0.089002244,-1.4288375,-0.7865935,1.3449024,-0.48384508,0.4670806,0.9089938,1.3956983,0.7015798,-0.5755786,2.6989179,1.8955249,2.831755,-1.1244115,-2.9267547,-1.2536752,0.28279287,-2.7622695,1.1012561,-2.1871836,-1.7785314,1.3205168,-2.8736312,-2.9445264,0.12118666,-3.7938712,0.9707309,-2.4882767,-0.970165,0.1772669,0.11872224,-1.136007,1.9545841,-4.8675165,2.2462924,-1.3260854,-0.049686726,-3.2121816,2.3093758,-0.15233897,-1.5667831,0.4351094,-0.04669407,0.5458484,1.8838159,-0.48709124,-0.2609508,1.0475757,0.80271506,-2.3074737,4.1457124,0.30212346,0.9353674,0.10680817,1.1764072,-1.5931773,1.3331661,-0.532494,-1.0122968,0.43011504,-0.734125,-0.25875252,0.8048172,-2.655974,0.51732194,-2.0421271,1.4159778,0.19349484,0.24270296,-5.0594625,-1.757986,1.6363432,2.1859276,0.26969084,-1.2986917,3.9594667,-0.3107755,-3.0903394,2.5659423,-1.068182,0.49440733,-1.256238,0.7243434,1.1091416,-0.7709036,1.157602,-1.6598616,-1.1442244,-0.49599797,-0.88544494,1.0956572,-0.30929425,1.6682584,-0.6917179,0.7929771,-1.299046,-1.1081994,-1.8868711,3.9341857,-0.03538485,-4.4272346,-2.159692,1.3863711,-1.0847936,-1.4261353,-3.2120204,1.0732822,0.83510274
0.6289791,-0.55417156,1.4024092,-0.5478971,-1.0683949,-0.52825284,1.0996552,-1.0541936,-1.046142,0.65461236,-0.98006344,-0.050544944,0.14088137,-2.0466316,-3.8346627,0.2533491,1.0817595,-0.47620013,-1.5045897,1.4582237,-1.0633532,-0.4690694,-1.1546373,1.5292562,0.67744666,-5.2890425,-3.1509507,2.9673011,-1.9915713,-1.0420058,-0.37015554,-1.2652074,-1.6690644,0.11403555,1.1225256,2.0380075,-1.1252326,0.48730597,0.57922655,-0.31972274,1.1309777,-0.08550229,1.6025482,-0.783494,-0.5954685,3.3085492,0.32816616,-0.68249947,1.5187109,0.8800966,-0.8644599,3.2826219,2.4119785,-2.7515903,-0.67528075,-1.7347761,-0.26927897,-0.87750846,-1.4915003,1.7746365,-1.7204376,0.41957605,1.3375858,-0.57985485,-0.4767622,-0.9042998,1.1661112,2.0126774,1.860167,-3.4825962,-0.6605248,-1.5820837,1.5010747,0.16626413,1.3963914,-0.117397696,-0.89588845,0.035347905,0.06079454,1.4377863,-1.1523476,-0.50135684,0.6487767,2.0994945,0.09737263,-3.8622777,1.4574677,-3.0989358,0.97247946,0.95283777,1.7531031,3.2377977,2.0264184,2.3228862,-0.56718117,-0.2659188,-3.268471,-0.7087759,0.33083284,-0.4814503,-1.717961,-2.6632416,0.04530048,-0.55268824,-2.5934205,-1.421856,-0.3370876,2.428953,-0.31492597,1.0915965,0.88899034,0.69597524,-1.2581019,0.9385597,0.0117701255,1.2148142,1.8940403,2.1569693,-0.49492174,-0.008069236,1.6349708,1.9863435,-1.9022088,-5.8298383,-3.086052,0.5387137,3.0941222,1.0819306,-0.12485228,-1.0942109,2.3210459,3.2431703,-0.79303545,-1.448983,-2.666817,-2.6673853,0.7234139,0.84059167,-2.0539398,-1.3273454,-0.5428962,2.5049322,0.5845601,0.81237924,2.6659918,-0.13122003,-1.6204878,-1.8107785,0.27891916,-1.7027798,-0.22155379,-4.2082314,0.060299,-0.1488169,-1.9998701,-2.2850559,-0.4309961,0.9077198,-0.14602461,-1.2498684,0.5990585,1.7133689,-1.3205187,-5.7243433,1.1551303,-1.1375082,0.57862234,-2.2299252,-1.9389799,-1.4397627,0.67299426,-1.5671169,0.31021467,0.62746096,-0.122127555,3.5267613,0.64434665,0.10929891,0.11223191,-0.55877596,-0.4951872,-3.6810613,-0.50087273,-3.7737565,-1.3542533,-1.295927,0.70578754,3.2945454,-0.51085573,2.005249,0.49765104,1.5079371,-1.516513,0.2208661,3.6082528,2.424244,0.5959712,-2.8927417,2.9491198,-0.44795728,0.8427977,0.40780306,-1.3385475,-0.6540556,-0.39084336,-0.96631056,1.3710539,0.8153085,0.28976452,0.03984961,3.0247781,-2.92009,2.0782154,1.3562342,0.18720768,-1.5217694,0.3720043,0.85128224,0.53244793,-2.1537752,-3.8029492,5.2034426,0.6803151,0.6767459,-0.0928344,2.2126935,-1.2584283,-0.77480567,-0.37942073,0.7872817,-1.7709985,-0.79877585,-3.1193597,-1.4249606,2.1414514,-1.3232014,0.32958594,3.2921414,2.8232498,-1.9369382,-0.3655708,-0.59213644,-0.74250644,0.31596482,-1.0721797,-2.3697426,0.75919914,0.7291186,0.36999363,-1.530416,0.7680986,2.6497915,-0.5719897,0.16972092,1.9130136,-2.7795446,-2.7007785,1.4575909,-0.6309665,-0.4422161,2.288538,0.47063592,-1.3961275,-0.7838748,0.3275322,-2.1268005,0.44585022,0.13141778,-1.3302206,0.12351996,-1.1782984,-0.5713564,1.6286284,-0.056314763,-1.0413048,1.0989202,-1.6414036,-0.72185713,2.0417225,0.21527468,-1.259792,1.1628776,0.45018947,-0.57870764,1.7723358,-0.2286595,-2.7850208,1.9830191,-0.76108176,-0.27232516,0.76369107,-0.20459512,-5.396189,3.8185077,0.9814271,0.39880136,-2.4690166,-0.60941595,1.9297116,0.90277797
-1.4189483,-1.8581369,2.090271,-1.1168636,0.75711375,0.69759256,0.73394567,2.6311765,0.4883119,-1.170581,1.2968932,-0.18527779,-0.99920976,1.3796145,1.3654469,-4.3801003,-1.5845906,0.4175447,0.85807896,1.6217109,-2.9354968,1.2212917,3.2194302,1.5306046,-0.20414698,1.579769,4.474939,1.4435451,-2.4335093,3.5205114,2.8982441,2.2476814,1.2662637,-0.010706926,2.8313932,2.645604,-0.48263386,-0.14446002,-0.29595408,-1.0191463,-0.08844465,0.7923571,-0.21712928,-0.072134204,-1.644382,-0.08319266,0.87923074,1.2411166,0.2708524,0.93737763,-0.16390389,-1.0491143,1.5948938,-2.521048,0.21918584,1.6652442,-1.4159385,-1.35018,0.06688232,2.0323372,-0.059220634,-2.134914,1.5622362,1.1463462,1.0226834,2.4794397,0.5177989,0.6253662,2.1675382,0.617418,0.029301787,0.29649767,2.933274,-0.37361366,0.8201032,-2.1490004,2.18341,1.7011191,0.9449056,0.43610594,-1.5932119,-0.043117613,0.34068832,1.2478348,-0.4134969,4.000478,1.2401314,-1.8710741,1.4731762,-0.4910784,0.016547076,-2.957239,0.53715,-0.39211956,2.7173634,1.55173,-1.0483959,4.4494576,1.6489574,0.35495296,-0.36915368,2.6763523,1.7641788,0.63815385,0.518503,-0.53458273,-0.23545021,-1.8218284,3.0665703,-0.2970764,1.0320827,-0.030024583,-0.74064755,-0.6500136,-0.2923532,0.32902035,-0.24212177,2.2654948,-0.5084665,1.6956289,-3.21129,-0.96358824,0.4077158,2.0742598,-1.0676591,0.7665545,0.8394545,0.7539019,-2.1159594,1.553681,-1.136134,1.1836025,1.7937461,1.0149338,-0.12622711,2.2294388,0.71537113,0.9409129,-0.865546,-0.43125305,0.7707863,0.40437314,-0.6146013,2.420555,1.3506366,2.200891,1.1437405,-2.1904094,-1.5527809,-0.86808157,-1.6116424,2.7293599,-1.2726669,1.6052054,2.7579262,2.2015517,0.5101174,0.24587974,1.3066784,1.1771146,0.20677438,-0.29995885,0.02991365,1.961151,-0.59035647,0.04256332,4.862021,3.6975143,-3.8859465,0.11288758,0.99500877,0.6829299,-1.8723599,-0.9859761,0.35627246,-1.8942993,-0.9593333,-0.18135083,-2.4444284,-1.0169932,0.3760315,1.9078225,-1.3836259,5.877589,0.80290204,3.5292938,-0.28496188,-1.3198293,1.1836281,3.1623263,-1.766038,0.28881368,-0.8015863,1.2042962,-0.06768292,-1.0132713,3.3404496,-0.9927031,0.064621136,1.4715222,-1.8253009,3.0349672,-1.1791748,-0.35991725,0.43654677,-1.6502048,1.1983856,0.4604315,-0.61981505,-0.18488806,2.752654,1.3210167,-1.7352412,-0.15913662,-1.5431798,-4.5780525,-0.26006678,-2.4938731,1.1961712,2.9555264,1.8850049,1.4464202,1.8575604,-0.54868096,0.8599568,-0.7970943,-1.5734092,0.6852637,-0.10749042,-1.1778725,1.7204167,-1.5465744,-1.6903483,-1.3733096,-0.58248377,-0.41151318,-1.8976175,-2.3467057,-0.04973754,-0.7968496,1.1752932,-2.3175175,-1.0998956,0.24428046,-0.7570518,-0.28829253,2.130373,-2.371126,-2.2763107,-1.2917055,-3.2592878,0.20531476,2.5410588,-0.36132777,2.3399885,0.6510917,-0.63371086,3.9895756,1.4024112,-1.2256429,-2.6690125,-0.27709144,2.323779,-0.47985807,-1.0682719,-1.6669258,1.1458186,0.71353364,1.5759681,2.2156014,0.3545425,-2.1942003,0.8798396,0.36207712,-2.310388,0.13136071,-2.7498412,0.0949427,-0.5514343,-0.89640325,0.32832,1.2353144,1.5314335,0.037785057,-0.76596826,-2.2633586,0.8536158,-0.038735114,0.058137022,-1.2169174,1.9908779,-1.2867519,2.4122806,-1.7561119,-1.6495093,-0.04401994,2.2350454,-0.87489206,-0.41286147,1.1400492
0.42251724,1.2940104,0.7312463,0.10835636,-0.53724647,-0.1537374,-0.6960445,-1.355733,-0.21121418,1.1384609,2.8467162,0.08197331,0.7170279,-1.0222785,0.027764585,1.252464,-0.43207797,-2.218687,-3.38989,0.29932794,1.7904586,1.7360619,0.22394809,0.3643577,-0.59339124,3.1895537,1.7188182,1.2224308,-0.05279339,2.4795702,-2.9769533,3.5165167,0.46192774,-0.0605627,-2.210548,0.8629153,2.436635,1.9391114,1.0687721,0.32217124,1.9542817,-2.1013258,-0.8945051,2.928224,0.4709514,-0.49164858,1.0592824,0.89093786,0.054734528,-1.2102617,1.4358435,-1.3459277,0.21712743,-0.9639318,-1.707042,2.4048462,-0.33263344,-0.44927752,0.22145525,0.82408077,1.1698095,-0.6263953,-2.010888,-0.051247075,-2.0689123,-0.39917254,-1.2695646,1.5830067,-0.045728996,2.528627,-1.2333903,1.0372841,-0.3008453,0.21283284,0.55871683,-0.19569594,-1.2767521,-1.4546982,0.8556017,-0.019298503,1.6703677,-1.3898236,-1.3963836,3.7749062,1.4644736,4.5310597,2.7592905,1.16222,-0.00547319,-2.2585418,-0.29145023,-0.0054460764,-0.094884835,2.0132043,2.3799884,0.41232702,1.2472901,0.04729302,-1.7579494,1.8256727,0.18662494,-0.27795464,-2.8336098,-0.626819,0.17542458,2.8634372,2.5578935,0.1009574,-0.054148022,-1.9097979,-2.1271005,1.0300893,-0.95362306,-0.81461865,-0.45066088,-0.4164851,0.716936,0.27459136,0.37116694,-0.7039951,-1.6350666,1.4544579,1.938844,1.8526481,1.0499203,0.116641395,-0.060067248,-0.4310882,-0.21811135,0.5014847,1.4314531,2.4764552,-1.562618,-0.42045328,0.95788985,-2.7051857,-1.1202562,-0.98048025,-1.7456088,0.95952827,3.4379857,0.86631465,-1.5784329,0.7375789,-0.47407663,-2.0274518,0.5479149,-1.9538414,-2.7123127,1.9511325,1.0439348,1.8033507,1.7730681,-0.0867116,-0.040990777,0.16797714,1.3311751,1.9003495,1.6834437,-0.20868136,-2.010376,1.9941834,2.1943276,3.337037,-2.7604694,1.9502,0.8332335,-0.311833,1.9644907,0.11037196,-1.5223716,2.259965,4.273193,-0.76077175,3.6198752,0.29526854,1.1131306,1.7460548,1.4017655,-0.3251379,-0.21896477,2.5361164,2.626649,4.435773,1.0892634,0.34225863,-2.83888,-1.4713559,-0.51732457,0.71618086,-0.862801,0.91405034,0.19699278,-1.698925,-0.01779237,-1.969199,-0.065793,0.785828,-0.28061828,-3.9349117,-2.315417,-0.7729207,-1.2580786,0.5866758,-3.624387,1.8864942,1.5191121,-0.8063759,-2.172022,-1.1868682,-1.2762944,0.5746584,-0.97105235,-2.9546266,1.9168315,-0.9166446,-0.5534634,-0.5863521,0.05237297,3.0766158,2.8064072,1.3424493,-1.3682777,-2.173396,1.276106,-2.6173093,-1.3740121,-0.71175796,0.2879208,0.7885176,-1.9687842,-2.50575,0.38644356,-2.277894,-1.9122062,-1.6228606,-3.2147806,0.643495,-2.122242,1.0650553,3.1069458,0.7980482,1.5133481,0.6081447,-1.7306262,3.6291645,-2.2290912,-1.4995643,-3.4110835,-0.5084356,-0.6231828,-0.28224042,2.0109959,1.7569162,-0.5192652,-0.37541354,0.312263,-0.89397126,3.5105562,-1.0057439,-0.29757836,0.13445586,0.2546565,4.157331,-0.73124534,-0.4542253,1.3539355,-2.3265846,1.9359734,-0.33287185,0.5609823,1.143222,1.0655065,-1.3630017,0.2867383,0.68730456,-0.36673632,-0.92981106,1.170879,0.47865146,0.05434663,-1.1241422,-0.9032748,0.83596724,1.713155,1.9154738,0.3558613,1.0260742,-0.49262977,-0.6111757,-1.3066792,0.05837649,5.397589,0.66122925,-0.6403439,0.22981225,2.0911922,0.62151,-0.27462026,0.3362057
0.88489693,-0.38262364,4.535892,0.53899944,-1.539083,-1.627237,-2.5051548,1.9139922,-0.7388152,-1.0130208,0.3577657,2.1910658,-1.5292635,-1.5501976,1.3691292,-0.66088533,2.3389506,0.96586484,1.027115,1.243101,3.2812116,-0.2114243,-0.50816464,-0.5086089,-0.301733,3.6977072,4.916764,0.40488422,0.55421597,2.3670886,0.8520925,2.3172944,0.261616,1.7353644,2.0773096,-0.6477254,1.4455479,-2.7977881,1.2791767,-0.2969283,-0.3708866,-2.8681793,-1.3828303,3.7158442,1.1378748,0.46607143,-1.9527843,-0.3564944,1.0811768,-0.7788213,0.38874546,-0.5786058,-1.1748079,-0.2497456,-1.656532,2.185235,-1.3454742,0.44192111,-3.8389213,-0.20064202,-1.5150896,2.9987988,1.918658,-1.2925116,-0.77108854,-1.0743346,0.13166144,1.1831111,0.33291107,0.42731637,1.1887693,0.7104974,-0.045176838,0.7601553,0.6979186,-1.9967855,0.27185488,-0.17123361,-0.4303825,-0.2724132,-1.7405318,-0.3094172,-0.432767,1.6354616,1.5231067,3.5923188,-0.6547895,-1.939319,-0.47913897,-0.573812,-0.4639256,0.07077688,-0.6762879,-0.54528105,1.128454,-0.7084925,-0.88771474,3.9097283,-0.33686957,1.8175386,-1.1243846,-0.9371963,0.28417718,-1.0280169,0.8108834,2.358291,-0.60812527,-1.0208169,2.8342464,1.2027152,0.5053699,-0.9800186,0.40873438,-0.6050855,-0.1620051,-0.10757545,1.9299613,0.111560926,-0.35622343,0.4216679,0.017661752,-0.15190613,0.44355586,2.1508377,-2.3688064,0.7645652,-0.77333724,0.77365345,-1.5309706,-1.1324768,-0.5973426,-2.2923656,-2.321723,1.09163,0.20909683,-0.673133,-1.8673928,0.8333499,-0.34935492,-0.31832406,-0.051040683,0.46585125,2.6587982,-0.79996485,-0.3076886,-0.118101515,0.07854846,-1.7606933,-1.3639493,-0.35469964,0.9669184,4.4088798,-0.4741474,0.3063548,0.8605471,-0.40242034,2.0076923,2.254559,0.7089067,1.0038868,0.8870021,-1.39085,-2.7738779,0.8291063,-0.3396475,-0.94497263,0.3473199,0.6145349,1.7025982,-0.61721486,0.20390601,0.6848715,-0.7588919,1.0046337,1.4554858,-0.7533447,3.6262596,-0.61489326,2.1582263,-1.0769985,2.1791563,-0.12544788,1.3211259,4.377279,1.0529919,1.632266,0.9199739,1.1903868,0.96855384,-0.797855,2.4411864,0.26095408,0.6448835,-1.6647379,1.138919,0.16881539,-1.8518131,-0.40847257,-0.5020214,1.1681956,0.49036375,0.53046566,-3.0559967,0.28236657,-2.4501827,1.4792101,-0.84102046,-1.9996147,0.31836644,2.9205246,0.8643729,-2.5034208,1.1781278,-1.4776111,0.26982802,0.94239026,0.8524159,2.1993062,1.5242031,-2.2439797,1.5109543,0.76196015,0.5403951,-0.09841443,-1.0996994,-0.60797507,-0.52530545,-0.92965037,1.8952914,1.7287903,-1.0002129,-2.4105945,-2.018029,1.3055884,0.08949546,1.5389636,0.43897414,-1.1673094,-1.2848848,0.34828508,1.0528619,-0.70647705,-1.6906115,0.3292147,0.7215161,3.653562,-0.43031347,-0.7085,1.7851138,-0.028433321,-0.90050846,2.6703303,3.8953993,0.064755484,-2.8746815,-2.117561,2.1210902,0.45516285,-1.8755317,-1.0546247,-1.6198734,-2.2754328,-0.80023456,0.93624747,-1.1418408,0.0023224107,-0.77957803,0.7482423,-0.15918615,0.8458303,1.4646808,-0.29790094,-0.17006251,0.06853699,0.16231482,1.8878604,0.5770655,0.84156793,3.4462295,0.2976784,-0.43030247,1.1134304,0.33436543,-0.20591508,1.3391668,1.4236563,1.0780451,-2.4421651,-0.11515769,-1.7728202,-1.2827303,-3.0859451,2.0247507,0.9374833,0.7698595,0.07161994,0.88231134,1.8108956,-1.3903828,0.35356838
-1.8393453,0.2846822,-0.16521053,-0.5366012,-0.4884678,0.79975647,-0.97335,0.06260971,2.7927015,-0.66425186,-0.6869236,1.0443679,1.8382982,1.2759389,-1.3618633,-1.5170696,0.5500858,-1.250932,-0.24365047,-0.66435856,1.6450517,2.0062191,0.43078575,0.5230802,-1.869932,1.8942636,2.5797007,0.2315218,-0.6831014,0.6275245,3.1245658,3.6046455,-0.044218305,-0.35164383,0.5674229,2.130275,-1.0634862,0.9407194,-1.8847821,0.20560193,0.92310345,-1.8968973,1.0863658,-0.9161615,-0.58445936,-0.47390038,0.91256326,-0.24805106,-0.057274822,0.49276313,0.8732645,-1.3744524,-1.5594953,0.21021734,-0.96432394,0.8557074,-0.18490851,1.1346321,1.8344424,-0.09644614,-0.15231462,-0.18594228,-0.12837562,-0.9849337,-1.5411258,1.5964848,-1.1949756,0.4794322,-0.9292494,0.39501035,-1.8830909,3.4104276,-0.9487334,2.4296548,-0.020767681,-1.8649735,0.55676335,-0.14529707,2.3837008,-0.59386146,0.8677361,-1.7239188,-2.4782257,0.09476287,-0.6533008,2.9750133,2.0778432,1.9668784,-0.8397563,-0.10774331,0.82374537,0.4993926,0.8305457,-0.9566351,2.663039,-0.23689915,0.07245384,3.3524294,-1.6352675,1.5853884,0.9978295,-0.43160048,1.7463368,-1.71934,1.4047102,0.30721346,-0.79215556,0.6015075,-0.8393756,0.7798752,1.1874322,0.43089208,-2.5117128,-0.7008452,-0.529257,0.21498178,-1.4254881,-0.025742639,-0.93177927,-0.024743816,-0.14586729,0.7323835,1.1635302,0.12171927,-1.3446664,1.9984016,-1.1254278,1.0363173,1.1912874,-0.8720122,1.1486025,-2.1155143,-0.33319736,0.69154507,-1.146157,2.458631,-1.02949,1.4186215,-1.7113069,4.1427393,-0.4436299,-2.9691947,0.10417337,0.9487675,2.1506977,0.075805485,1.5635685,2.0443485,-0.40786856,0.5583416,-2.580792,0.8948433,0.5667654,0.38388073,-0.2533478,-1.9650196,-0.14433275,0.5806574,-0.8713444,1.2354487,0.36136642,-3.0766747,-1.0611537,3.3357642,-3.798249,0.3901054,0.92457914,0.4425952,2.1591985,0.9941622,-2.2696571,0.35905692,-0.93112516,1.1258919,-0.2489007,0.20152427,-0.5483558,1.1362782,1.4667681,0.40498447,1.2022477,1.2554123,-2.8594322,4.1389294,-0.39723694,-0.05991537,0.3967062,0.46364152,-0.6296145,-0.5617237,0.62196463,2.964598,0.23675033,-1.3247936,-2.156633,-0.27840638,0.94504696,1.5412402,-0.32368442,-0.12948844,-0.45713973,-1.4629635,-0.09588403,-1.0850911,-0.84279895,-1.3060765,0.17554396,0.065821745,-0.23151009,3.1045942,0.8463071,-0.0950469,0.7267987,2.2565112,-0.8393987,-1.753682,-0.48534012,0.11791249,-0.06842239,-0.824044,0.8519431,-0.5235871,-0.6545248,-1.2574459,1.1291643,0.45554918,-0.61219203,0.011701595,1.2464597,-0.73351043,-1.4592011,-1.7552321,-0.68702203,2.1152048,0.23350106,-0.4132166,1.1349066,1.7249775,-0.08701861,0.06263887,-1.1041769,-0.5479701,0.3458589,-1.3708771,-0.76378304,-0.14290488,1.5971636,-1.7990644,1.7267965,-1.5462329,-3.2920468,0.09493649,4.1613884,-1.1665604,0.79941845,-0.7156683,-0.6321341,-0.99751544,-1.0927023,1.2022831,-0.37373537,-2.723112,-2.648919,-1.9495134,-1.3157176,1.6009399,1.1493499,0.072009385,0.874309,1.0601053,0.6911575,0.9340137,-0.20121728,-0.111211605,0.9475433,-3.199559,1.233698,-0.4601622,-2.0883806,-0.63545716,0.686962,0.46264702,-0.8646299,-0.13730057,0.43550164,-3.0985,1.7878067,-0.05264318,1.4523257,2.2176483,0.5984342,-1.564102,-0.23087618,-0.38731998,-0.8745595,-0.8277265,2.803669,0.82344776,-0.31144994,-0.68326116
0.1634785,-0.40228686,-0.59654725,-1.0582094,1.1678572,-0.7179911,0.88833123,-1.3723766,-0.9158725,0.03530318,-0.05517663,1.1382858,0.14156942,-1.638547,1.735533,-3.3696048,-1.4776579,-0.42666638,-1.5925144,1.15839,-0.12536392,-1.2628577,2.0199664,-1.9026194,-0.17187275,-3.9402704,-2.6670833,0.33149862,1.3989112,-1.7139736,1.4969333,-3.842237,1.9764946,-0.43596202,0.89258987,-1.9110698,-0.057426065,-0.121946424,-0.47833455,1.2606612,0.515047,2.5563192,-0.95715135,-1.798658,0.12256655,-0.64749783,1.338436,1.0803733,-0.28956833,-0.67722476,0.8416456,-2.061602,0.7161987,0.38383257,0.38514045,-0.48289046,0.81589335,1.0524898,-1.5654604,-1.5587971,-1.5653893,1.5087303,-1.177217,2.1535528,-2.8978193,-0.8907371,1.6232382,0.42721987,-0.3897757,-1.1832038,1.3919183,-1.50851,-0.63371336,-1.2491555,0.48516548,1.5076689,0.0084816255,-2.019831,-0.7451555,1.0885812,0.71828806,1.0491979,0.93015486,-2.687237,0.8512379,-3.5086212,-1.3561335,-4.2707744,-1.6343505,0.5275525,-2.2171876,0.3962427,-1.085194,2.6497073,-2.2236042,0.94893336,0.17247467,-0.22130182,2.6205835,-2.7520206,-1.2116183,-1.0341614,-2.301464,0.7379622,-0.47633523,-0.7585028,-0.51751924,0.046851095,1.1159754,-0.61447024,0.8130768,0.6154143,2.144094,-0.08629385,-0.18296976,-1.5606962,-1.3421892,0.41085106,-0.43400258,-0.4949745,-0.6560556,0.5346126,-1.0121576,-2.4641356,-0.7877981,0.7532851,0.80297285,1.4024835,0.25495923,0.50593126,-0.31428885,-0.4379293,0.20051208,-0.014993886,-0.78195447,1.2748436,-0.34972247,0.7395856,-0.97544247,-0.018324656,-1.9139041,0.48442242,0.9755661,-0.2880327,1.4615462,0.46127892,-0.06935958,-0.07343967,0.33278528,0.055909507,-1.0119761,-0.80610776,-1.6126299,-1.9064631,1.2264135,-1.1211926,-1.0092489,0.944826,-0.5887722,-0.025100742,-1.2423072,1.7286648,0.2689092,-6.1705384,0.9491475,-3.855537,-1.0193427,-1.1623034,2.566283,0.77055675,-2.3897572,-3.3842165,-1.0271468,-0.41046536,0.83592474,-0.9549383,-1.302671,-1.6984555,-0.34456792,-0.45234162,-2.034754,1.3220143,2.4272778,-3.443691,-1.7207205,-3.176328,0.55361694,-2.9463098,1.9675635,1.1496742,-0.22149925,1.0344169,1.495078,-0.9758481,0.40468213,2.847396,0.9278308,-0.2506543,1.4761004,0.47373226,0.20624217,1.2040353,-0.548227,-2.5166278,-1.7765502,2.5623784,2.0863883,1.29975,-1.5784831,-2.1983354,-1.465,-1.6050103,-0.8085821,-0.3675477,-3.5104444,0.24363798,1.2487289,1.4243636,1.2019235,3.2185202,-2.8535712,-0.63019025,0.28900057,2.183254,-0.6792277,-0.8082896,-0.8195729,2.1065924,-1.6778797,1.0927746,1.162851,0.00026404916,-0.4738533,1.2071295,1.6253062,-0.7392564,1.7892846,2.3969123,0.38539925,-0.9803017,-1.7959428,-0.4101571,3.3109405,0.38151923,-0.064305335,0.4237916,-0.29514924,-0.8547341,-0.5431437,-1.3496649,-0.69027495,2.2426443,-2.15551,3.8825662,1.1107371,0.21626711,-2.342767,-1.7843122,-0.66484654,-2.6761026,-0.7207971,-1.0225827,-0.49601188,2.234801,1.8319548,-0.5044662,0.19479153,1.2904161,0.38516623,0.30648464,1.1337801,1.764636,1.0499347,-0.68429506,-0.86968267,0.40057456,-1.5326288,-0.16746132,-2.465075,-0.5787026,-2.22944,1.1090802,-0.45121723,2.1405754,0.7230983,1.734773,-1.9405802,-0.6272838,-1.2824545,1.9374145,-0.67300206,0.21584651,-1.9451885,-1.4947428,-2.4188457,1.2479594,-3.727123,0.35984075,0.16505319,-0.87650025
0.1590945,0.7863747,-0.93167174,-0.44084984,-0.051326804,1.5448929,-3.1883187,0.18729553,-1.3953614,0.42183325,1.4702976,-0.4196466,-0.14292136,0.973701,1.6417139,-0.8567524,0.4738241,0.8592222,0.91210514,-0.5231474,1.2408439,-2.2570677,0.6340952,0.28248918,0.33932555,4.3676243,3.4581394,-0.12308817,0.6878765,2.4267573,0.25901386,2.238685,-0.82871723,2.2200298,-0.38575318,0.023874791,-1.4238752,1.3642675,-0.80966914,-0.9740423,1.4773223,-1.5009415,0.45978186,0.5725267,0.15838279,-0.59729356,0.9405567,-1.5741426,0.9245954,-1.3968818,1.501523,0.5884515,0.8272809,-1.2679533,-0.5050006,0.5638708,-2.366174,-0.7364782,-0.5102201,-0.98205954,-0.26211917,0.10954826,-0.9703176,-0.424689,3.429851,0.12938619,0.90864414,-1.168193,-1.3193579,0.68164223,-1.5948734,-1.0981996,1.544297,1.2639602,-0.11983852,-0.26388398,2.3470778,0.42577252,1.0435828,-0.8271092,-1.462408,-0.6265367,1.6280807,0.25286463,0.24283558,2.1452973,-0.70636857,2.189541,2.2305145,-1.0834951,1.956931,-1.9681656,-0.9694646,-0.70145524,3.4527326,-0.84178406,-0.40149263,1.6790704,-1.2460899,-0.1205847,-0.259303,0.21371719,-0.41250452,2.1798072,0.40390313,1.9781172,-0.28539273,-0.16974947,-1.90404,-1.2112414,-1.1017121,-0.09854361,-0.6031726,-0.53688127,1.5120695,-0.07632602,1.1440718,-0.06636572,-1.4220395,1.030431,-0.5263307,0.25286764,0.26783428,0.89634675,1.356016,2.0324192,0.45416006,1.1434783,1.0963039,0.82419944,-0.78872824,0.81620353,0.050811846,-1.3539599,-1.5165623,1.7314551,-0.61970395,-0.3713834,1.771762,0.7909978,1.4599497,0.058540627,-0.8583828,0.8921921,1.4036393,1.0727293,1.2430019,-0.13470593,1.6944128,1.1789485,-1.527085,2.538155,0.8536227,1.7673519,1.2618483,-1.3574011,0.1918516,-0.38898307,-0.29591805,-0.24410115,-0.6641787,0.8178576,0.6002915,3.4658575,-0.52550936,1.1101907,0.070858814,-1.6231762,0.0023843106,2.5060704,-0.089466855,-0.37425247,1.0790316,-0.29440618,1.2061789,-0.72364205,-1.0774425,1.1106496,-2.1872997,-0.04072343,1.3541809,-1.2052765,0.31120828,5.258952,1.0910711,1.8340629,1.0643215,0.97810596,-0.17591886,1.6732103,0.7518849,-0.4978941,-0.8492589,1.4428351,0.7485276,0.20685892,0.97910446,0.35335523,0.5146075,2.805768,-0.5898161,0.4405324,1.1673024,0.2551868,0.70444864,0.24210879,0.70821005,0.17909007,-0.16998792,-0.21235698,0.38729042,1.4257262,2.1206155,0.6277176,-0.9609454,-1.1608796,-0.1521671,-1.119873,0.12486774,-0.09717043,2.0375588,0.8368778,-0.5060953,0.5573878,0.13398817,-1.8950908,-3.045979,-1.7138206,0.7050258,2.3468533,-0.42053452,-2.4435213,-0.84976506,0.64491713,-0.54709435,0.84703475,-0.99849546,-0.750738,-1.9022999,-0.8742492,-0.308922,2.0621698,-0.4313659,0.7884796,-0.9907056,-1.730892,3.7323508,-1.6763155,0.41502935,-0.25100702,0.13329837,0.67202026,3.1893938,0.044207096,0.8889458,0.75211173,0.965821,-0.54365176,0.70205146,-2.0408864,-1.5830673,-0.7184524,-3.7087982,0.7700007,0.94841355,0.85880685,-1.2838484,-0.16973807,0.5763702,0.25338906,0.6450943,0.34364843,0.6963853,1.3627647,-1.7342992,1.2782549,-2.337394,-0.9311408,0.5154811,-0.9761527,-1.89047,0.5140233,3.2243145,0.91428876,1.048714,-0.47716525,-1.3264499,0.18970148,-0.7328797,0.33344334,-1.0428982,0.12410631,1.6465063,1.6572045,-1.384115,-1.1726631,0.6673425,1.3535944,1.6421205,-1.4923459
0.94986504,1.27903,-4.77668,-0.5705798,-0.25106212,-0.54743356,2.0916262,2.7799692,-0.30719075,-3.0071275,-1.0712663,0.18655488,0.73083365,-2.7131915,0.65443736,2.6188073,0.74746865,1.9001645,-0.9010666,-2.1705117,0.5222964,-1.7602408,-0.9436876,1.832564,-1.4826112,-2.9624124,-3.7035177,0.1899983,-0.03329115,-1.220644,0.7867713,-3.4878829,-1.8767626,0.99169236,1.2101268,1.3523027,1.0461518,-1.750792,0.81527185,-1.156285,-0.5738085,1.3251663,-0.0036539584,2.2451625,-3.3499086,5.055291,0.48693654,-0.026080051,-3.1175084,0.07776605,1.5269297,0.18656178,-1.9982346,-0.3834781,-0.112754695,-1.2103179,1.3619939,-0.6881686,-1.0607158,-0.85180104,1.8078004,-4.065111,-0.87121534,3.3871744,2.1357605,-1.7543038,-2.2174797,-0.65811646,-0.7235053,1.7269195,0.5920893,1.7146151,-1.8720448,0.3851669,-0.28598246,-1.9610659,-0.6289387,0.38408983,-2.5444083,-1.967725,1.7202456,0.67792094,-2.787627,1.1291225,1.0390313,-6.301694,-0.08258995,1.2182306,-0.8081086,2.2622588,-1.6458106,-1.7460676,-0.08420459,-1.728313,-3.4934027,-0.2835465,-0.8400961,-3.0216973,2.356468,-2.6218567,1.0339322,-0.67814755,-0.9404882,0.5429518,0.9028853,2.820855,-2.4341204,1.9022545,3.8386352,0.26096112,0.17427917,-0.28635544,-1.039623,-2.8183587,-0.13344237,1.0607964,1.1210855,-2.0160213,-0.47508726,5.2926707,1.8358365,-1.1363416,1.240178,-5.367396,-0.6191014,-0.677795,-1.6937829,0.6401549,3.3974333,1.6287028,-3.7357066,-3.2698684,1.1952262,2.4261773,-0.42446446,-1.3047775,-1.0229236,-0.7069506,2.6538973,0.01563046,-1.6877384,0.17228888,0.15693128,1.9831408,-3.640072,0.20644085,0.021308469,-1.2795157,-0.09164126,2.3929176,0.3378516,1.1203293,-0.06647485,0.6795709,-0.071980275,3.496635,2.2786865,1.9070864,-0.830849,-0.5923059,0.118134014,-0.12494696,-4.297261,-4.8740544,0.2633212,-0.104096316,0.044081923,-2.300764,-1.0052296,-0.112109475,-1.0059253,-0.97406924,-1.3220055,1.311683,-0.5138131,1.9589812,-2.2357144,0.78504646,0.6322824,0.25890034,1.2199945,-1.3058492,0.25302505,-3.8419437,-0.8284063,1.5167245,-0.3311294,-0.4293243,3.754438,3.824688,0.82254523,-2.7075367,-0.80616754,1.2194742,0.82371074,0.5116269,0.64729303,-1.6345549,-0.23165648,-0.69529086,1.1369592,2.2212584,-2.0763166,1.8522121,0.61429834,-0.7695664,0.4711759,0.92234033,0.5539861,0.8872178,-0.7630399,0.19837885,-1.7077069,4.1944485,0.9676292,0.3856295,4.1736255,-2.7816145,-1.5467215,1.0619923,-1.1578162,0.2670878,0.49042845,-2.096329,2.7007768,0.98167324,-0.041713458,-2.2301667,-2.8670576,2.0373406,0.20109928,0.74529755,0.026867565,0.6582171,-0.04864552,0.06739865,0.11714719,0.20642109,0.27123904,0.31548178,0.5747943,1.674649,0.15866406,-1.3913943,0.26378497,0.59579074,0.50717777,0.6875483,-1.3524159,-0.2176876,-0.41813722,1.1230772,-3.3871481,4.1087155,-1.2038639,-1.0286214,0.7678738,0.91112447,-0.11289649,-2.947099,1.0075536,0.55963206,0.67390764,1.4436213,1.7868598,0.17190368,-1.2693456,-1.4018888,-2.9152975,-0.04953624,-0.9256752,0.20828277,0.38394487,-2.3499143,-0.6285129,0.25086585,-1.7241403,0.26500523,2.8560183,-4.3600254,0.5437677,-1.5606878,1.5232509,-0.8856518,-1.1628159,1.8138986,0.19177146,2.713512,1.8959695,-1.089525,-2.3602707,-1.960786,-3.3146644,-2.321553,-1.2535981,1.4411161,-4.0683093,1.2379943,2.1546519,1.1537614
