0
0.04114899
-0.026945967
0.004944071
0.037266575
0.018082209
-0.017336749
0.03635192
0.05740475
-0.049378514
-0.027389217
-0.052326918
0.05354265
-0.009997126
0.0030677468
0.04246466
0.042011805
0.022159629
-0.020801686
-0.01254224
-0.039226744
0.04680994
0.041410267
-0.037558455
0.047051154
0.020412512
-0.04116615
-0.0037356615
0.03878092
-0.013915032
0.023647241
-0.010627016
0.0081768185
-0.05190056
0.053764477
0.015907615
-0.005671568
-0.03881073
-0.010466207
0.03548252
0.03760338
0.044440314
-0.016200095
-0.04706902
-0.01753813
-0.011123113
-0.0011647977
-0.0323241
-0.018177953
0.044511847
-0.028506909
0.025198974
-0.019975118
0.043473274
-0.025415178
0.045777574
-0.02221378
-0.003941808
0.038904995
-0.02124215
-0.056315605
0.028124586
0.027584061
0.022808403
0.041942738
-0.04568406
0.022360347
0.017565936
0.015166193
0.024968155
0.0031357184
-0.033602282
0.00045980886
-0.0061287954
-0.0023182482
0.017486043
0.017539628
-0.02265535
-0.012313601
-0.022575691
0.0054939687
0.03911704
-0.03834005
-0.021390446
-0.049438573
-0.020525873
-0.043035906
-0.03324668
0.013200134
0.034988225
0.042866215
-0.04440686
0.0024235174
0.010178633
0.010172218
0.04902438
0.024907544
-0.05557836
0.014906816
0.031199515
0.0013721883
0.052555785
0.047936678
0.02946873
-0.0009837635
0.027056903
-0.047008123
-0.03822881
-0.031615064
-0.03388437
0.01359158
-0.055728547
0.0029113553
-0.013230439
-0.014784593
0.028211974
0.034145795
0.0013879575
0.02370368
0.011453964
0.049470708
-0.055116415
-0.044848178
-0.045850795
-0.026462365
0.0006349571
0.02678226
-0.0012880489
-0.03276831
