0
0.5310262
0.05209945
-0.13287403
0.5067355
0.91616935
0.6028783
-0.024966374
0.024973527
0.98253256
0.53592885
0.90947723
-0.48889935
0.0624533
0.64666414
0.10502435
-0.60414374
0.83457446
-0.40511298
0.09953417
-0.5629128
-0.31163073
-0.2027367
-0.015056878
-0.14633194
0.44284517
-0.1002188
-0.7529144
0.59687907
-0.38574564
-0.30618057
-0.6474222
0.75338876
-0.44939625
-0.5918158
-0.31044617
0.0845208
-0.1734253
0.8718448
-0.015898123
-0.8766391
0.19472517
-0.5716574
-0.116754994
0.01889944
0.8667711
0.762625
0.20014092
0.046101958
0.62817043
-0.8321842
-0.680315
-0.8648362
-0.9920024
0.87882155
-0.39169312
0.054037943
-0.43172848
0.612286
0.77879363
-0.6676192
-0.30654097
-0.80429566
-0.6531617
-0.8609986
0.0393603
-0.30726627
0.7360194
-0.13119578
-0.33306226
-0.09954333
0.87804383
-0.52996993
-0.25435343
0.9367096
-0.94904244
-0.2781625
0.4680305
0.5528066
-0.40490818
-0.5944779
0.73532575
-0.5110426
-0.027390346
-0.5534018
-0.09695552
0.1616855
-0.019077286
0.23567632
0.7253299
-0.7129302
0.6464606
-0.16231239
0.3594705
-0.38743436
-0.55728495
-0.76309144
0.16447343
-0.59977436
-0.43580306
0.006760508
0.16739786
0.74782544
0.48785084
-0.5958284
-0.20764731
0.04082814
-0.7317395
-0.5394982
-0.531343
-0.28199816
-0.9758338
-0.4366788
-0.016704574
-0.2915486
-0.35993114
-0.46190774
0.8568358
0.6413185
-0.82881963
-0.90027165
0.5581463
-0.67144966
0.70412165
-0.21328852
-0.10029875
0.3890618
-0.55896246
0.99013233
