0,1,2,3,4,5,6,7,8,9,10,11,12,13,14,15,16,17,18,19,20,21,22,23,24,25,26,27,28,29,30,31,32,33,34,35,36,37,38,39,40,41,42,43,44,45,46,47,48,49,50,51,52,53,54,55,56,57,58,59,60,61,62,63,64,65,66,67,68,69,70,71,72,73,74,75,76,77,78,79,80,81,82,83,84,85,86,87,88,89,90,91,92,93,94,95,96,97,98,99,100,101,102,103,104,105,106,107,108,109,110,111,112,113,114,115,116,117,118,119,120,121,122,123,124,125,126,127
-0.3731894,-0.124434754,-0.3858866,0.81360674,-0.342138,-0.66965747,0.10395639,-0.20050675,-0.6539513,0.19033425,-0.7306329,-0.038726926,0.6534917,-0.44752628,-0.4508306,0.43321335,0.49667484,0.8488711,-0.6096962,0.39362615,-0.79926944,0.85771793,0.67055947,-0.22603527,-0.5382887,-0.4336388,0.8070036,-0.7672955,0.039849654,-0.03493406,-0.5930617,-0.51549524,-0.69422156,-0.67563283,0.47831947,-0.5598508,-0.64074993,-0.746583,-0.50355947,0.715315,0.5742749,0.7347157,0.056829005,0.5922741,0.056763887,-0.29832226,-0.6408076,0.5584731,0.8529428,-0.56507796,0.2623044,-0.7902947,-0.40308297,0.7143069,0.8140672,-0.58680403,0.13115108,0.81964576,0.26883364,0.31283036,0.22929646,0.827496,-0.33785146,-0.07228345,-0.78910196,-0.6402716,-0.39452705,0.48028147,0.4463867,-0.33229786,0.5308456,-0.0010874867,0.31089604,0.13559379,-0.044902116,-0.42988542,-0.8328083,-0.29157853,0.31884605,-0.72580814,-0.2429381,0.6272405,-0.80712795,-0.63373685,0.8668565,-0.8470483,0.4510587,0.56864464,-0.62775517,-0.7795768,-0.25243104,0.3237997,0.861552,-0.023578405,-0.7000215,-0.7901561,0.56772536,-0.46354496,0.101855546,-0.32737225,0.366297,-0.8740491,-0.252791,0.1317764,-0.69138056,-0.7579022,0.0711301,0.8678437,-0.117751956,0.8550227,0.31929567,-0.038812533,0.079877526,0.40633553,0.6652764,0.091907755,0.066285804,-0.7849462,-0.54619783,-0.12157805,0.6421032,0.20556018,0.8728311,-0.33673412,-0.6178942,-0.35302913,0.54735756,0.2040229
