0,1,2,3,4,5,6,7,8,9,10,11,12,13,14,15,16,17,18,19,20,21,22,23,24,25,26,27,28,29,30,31,32,33,34,35,36,37,38,39,40,41,42,43,44,45,46,47,48,49,50,51,52,53,54,55,56,57,58,59,60,61,62,63,64,65,66,67,68,69,70,71,72,73,74,75,76,77,78,79,80,81,82,83,84,85,86,87,88,89,90,91,92,93,94,95,96,97,98,99,100,101,102,103,104,105,106,107,108,109,110,111,112,113,114,115,116,117,118,119,120,121,122,123,124,125,126,127
-0.34913456,0.19404426,-0.8582752,0.06599173,-0.3797567,0.08213073,-0.6880375,-0.78223526,-0.214483,-0.3490958,-0.82465804,-0.108542815,0.2101852,0.72917944,-0.4560468,0.20549506,0.025412738,-0.83202606,-0.4273213,-0.7375318,-0.46064764,-0.6347977,0.7807127,-0.8138785,-0.04788369,0.31976938,-0.7823651,0.27171642,0.049232468,-0.19245654,0.10600388,-0.53259003,0.7324883,-0.5932419,-0.22516206,-0.39210898,0.43233132,0.87224907,0.07527903,0.051878467,0.86977535,-0.5493025,0.88080204,-0.11488505,0.7353712,-0.6012345,0.45152122,-0.77697647,0.44176245,-0.79366326,0.6090871,0.5316826,-0.17467037,-0.30046034,0.6737217,-0.7653717,0.6140801,0.8696345,-0.86747634,-0.57607365,0.04568331,0.61265254,-0.41270152,-0.057287887,-0.2627715,0.20443834,-0.08287229,-0.52966386,0.20646885,0.18203877,-0.4609175,-0.008620471,-0.39313728,0.45317835,0.29609942,0.54339385,-0.16159862,-0.8667557,0.17327957,0.08480802,-0.16920842,-0.10582343,0.16135655,0.6646999,0.502983,-0.36532044,-0.2626838,-0.68278205,0.45118624,-0.6122446,-0.0077008456,-0.7494703,-0.6802964,-0.2502598,0.8090281,0.18110551,-0.17641157,-0.28613093,-0.57293093,-0.18648833,-0.26332918,-0.25040096,0.19628547,0.48010164,-0.83887184,0.48358613,0.54422385,0.40556306,-0.8517567,0.3950063,0.72127753,0.5151815,-0.8731115,0.18506892,0.45370436,-0.29308465,-0.5152763,-0.76418096,-0.28484643,-0.2467122,-0.8706483,-0.31339997,0.852749,-0.68776155,0.6095693,0.42894042,-0.66529405,-0.020641088
0.49852586,-0.072797015,0.61702275,-0.30197564,-0.15982419,-0.7529188,0.46684855,0.24950251,0.30910397,-0.78825915,-0.788435,0.38351887,-0.6751143,-0.6958195,0.16864717,-0.533084,-0.13016991,0.8058227,0.18347807,-0.5936097,0.5522195,-0.76030636,-0.6173016,0.34622037,0.73308253,-0.41652295,0.7209649,-0.08685559,-0.26038754,-0.32696313,0.8149501,0.38432622,0.6996775,-0.06223753,-0.77523553,-0.75602067,-0.6154317,0.76800054,0.63702935,-0.35075587,-0.17710514,0.74142075,-0.3809509,0.21030754,-0.1257433,-0.067152604,0.15513182,-0.1070036,0.08844577,0.3975221,0.17183863,0.47591442,-0.31107008,0.6070637,-0.10643862,-0.82161844,-0.5404599,-0.32368,-0.12483366,0.7430252,-0.32249704,0.65807873,-0.08583151,-0.84686697,-0.55664146,-0.27791348,0.72616273,-0.19803002,0.63781774,-0.23015395,-0.676156,0.51456773,-0.33820137,-0.881313,-0.30536824,-0.6628276,-0.010953546,-0.1286947,0.40756398,-0.15519649,0.5713498,0.25607958,-0.8155136,0.6158147,-0.5422995,-0.39456332,0.35312885,-0.6531795,0.4896871,-0.33465838,0.8147081,0.18059,0.68001753,-0.7176071,0.6542503,0.8225789,-0.8412618,-0.63554436,0.5347911,0.84434396,-0.18131666,0.49715543,0.051180422,0.12709737,-0.37737,0.61359996,-0.38090256,-0.8265332,-0.30596316,0.73727524,-0.67537713,0.26547933,0.30808717,0.6286665,-0.11706561,-0.067998916,-0.6590407,-0.021512285,0.28867042,-0.110601634,0.38914645,-0.25919616,-0.81087756,0.6639994,-0.7468143,0.31627238,0.7599088,-0.6160568
0.64108646,0.6297114,0.5725298,-0.4923755,-0.06999791,-0.51668483,-0.055114627,0.4598751,0.7195982,-0.36808488,0.15361115,-0.6710334,0.13666876,0.29204488,-0.6965992,0.16353272,-0.84574115,-0.13525881,0.19233398,0.2499152,-0.39477277,-0.07651515,-0.42875534,-0.6181431,0.34396583,0.46339506,-0.03048271,-0.16906478,0.7952895,0.4626357,-0.7053281,0.0033859909,-0.11817083,0.17820865,0.1187478,-0.63547206,-0.014717355,0.26864374,0.60999894,0.6147408,-0.040540025,-0.72800165,-0.69721043,-0.39389896,0.41445965,0.70546055,0.5361464,-0.41862243,0.18462814,0.21674618,-0.73442674,0.5268609,0.28226978,-0.13711311,0.5771298,0.4646232,-0.39614126,0.70470846,0.20751834,-0.56501085,0.8586919,4.775822e-05,0.50776905,0.7891587,-0.49990368,0.6566941,0.5917772,-0.17172016,0.86052036,-0.19410476,-0.16149014,0.798148,0.22633329,0.5883402,-0.2363833,0.44761294,-0.31235155,-0.2904591,0.7125708,-0.72925323,0.12364812,0.6081579,-0.813938,0.34239173,0.18060379,0.40245748,0.47447628,0.8037794,-0.8719185,0.6704881,-0.1608216,-0.31954223,0.058265254,-0.4912841,-0.7684624,-0.1750303,0.5503515,0.16105473,-0.012841597,0.025449917,0.16861215,0.3468681,-0.49566612,-0.37028491,-0.52745444,-0.84960926,-0.7415581,0.325367,-0.4960415,-0.6272333,0.4372943,-0.2102989,-0.01417838,0.6755624,0.25695896,0.06207332,0.82159615,0.42265886,0.16859643,-0.5583166,0.77460253,0.8333638,-0.8736318,-0.69158304,0.56658185,-0.7039997,0.60045636,0.42592978
0.74517167,0.8096597,-0.8300305,-0.041791126,0.47742552,-0.08452214,0.286009,-0.12678511,0.4518413,0.6416789,0.6972841,-0.86473,-0.32037792,0.41586077,0.37149495,-0.64358145,0.1324211,0.8133575,-0.23002937,-0.35187602,-0.29410893,0.19915946,0.5755175,-0.310097,-0.12706675,-0.10278173,-0.6527246,-0.025174096,-0.3401846,0.18200189,-0.35203975,0.8181346,0.6782245,-0.87194794,-0.27042165,-0.13455711,0.5561092,0.6186951,0.87624526,0.6173337,0.7672017,0.87088144,-0.09897575,-0.04078351,0.25181845,0.22963576,0.22474572,0.551241,-0.6136321,0.8074049,-0.77245164,0.5780593,-0.728889,0.37151033,0.283081,-0.6015046,0.6827951,-0.84945,0.48831707,-0.38282233,-0.78063655,-0.79800284,0.64755476,0.48749977,-0.7680103,-0.08287735,0.75598544,-0.60870016,0.31449074,-0.23582608,-0.5358767,0.10119267,-0.02843678,0.3667537,0.3966022,0.04245609,-0.44923124,-0.21413095,0.017030463,-0.71241844,-0.45410478,0.74699914,0.36309943,0.035388395,0.35602903,0.22572786,-0.6344813,0.6894115,0.14997832,-0.33603522,-0.058596358,-0.22900552,0.0025628507,0.76125586,-0.31621665,-0.10315947,0.6289139,0.005377084,-0.4205761,0.5905289,0.72215056,-0.67859244,-0.7842657,0.38536614,0.7619495,-0.58492506,-0.5038961,-0.25779754,-0.087097436,0.46571052,0.45452482,0.39500618,-0.8315842,-0.044458807,0.70308214,-0.75460917,0.8801631,-0.5502937,0.7032248,-0.2814873,0.6796109,-0.5949423,0.21778487,0.25158152,-0.25367922,0.3395409,0.24979182,-0.7761637
0.266902,0.46825492,-0.87179554,0.712189,0.04502356,0.84266925,-0.046366975,-0.21663666,-0.3366156,0.3147713,-0.111361,0.087886006,-0.22846773,-0.8599347,0.046042874,-0.2584315,0.3039314,0.18457942,0.446795,-0.11972442,0.070559904,0.59240794,0.39968586,0.27280056,-0.4489836,-0.47757983,-0.02921991,-0.5872406,0.6767606,0.6392791,0.14671989,-0.19069992,-0.0061671436,-0.24329647,0.85228497,0.22619121,0.20337194,0.53289956,0.42597836,-0.7051021,-0.8600115,0.08013584,0.3887453,0.53333694,0.8498665,-0.42092848,-0.52855384,0.13960302,-0.64675385,0.12634285,0.08965783,0.119543225,0.79703414,0.7117686,-0.7384467,-0.27911425,0.2897504,-0.40931565,-0.38297954,-0.5360154,0.5687312,-0.22884734,0.7277223,0.17979488,-0.66740286,-0.112336874,0.5445122,-0.7967735,0.5999938,0.5536384,0.7563188,0.6206816,-0.86092347,-0.44885698,-0.7578933,0.8158026,0.06751917,-0.72831714,-0.25832498,0.7179656,0.7295328,-0.64961016,0.69215393,0.21219656,-0.18787034,-0.4970129,0.76550895,0.25281414,0.51756257,0.18736929,0.14618173,0.53018326,0.8309149,-0.37876856,0.06973632,-0.7872885,-0.759145,0.5975369,0.38510168,0.4441867,0.14633976,0.5317608,-0.6943831,-0.52379775,-0.30907106,-0.30202475,0.74033314,-0.871946,0.7531711,-0.5387799,-0.7983893,-0.0133327395,0.7269686,-0.22885695,-0.063868165,0.32219386,0.6881026,0.20204365,-0.4991643,-0.45918673,-0.7145608,0.47187114,-0.09304799,0.76948696,0.15148632,-0.63622206,-0.22445284,-0.22415452
0.54533577,-0.04725702,0.8122494,0.02115056,-0.7355348,0.19219048,0.44595575,-0.29498336,0.8535612,0.15067391,0.57735974,-0.053064376,-0.69238734,0.29326028,0.0013627857,-0.6612932,-0.47150522,0.2724666,0.80405647,-0.7798627,-0.77425313,-0.76172084,0.6949634,-0.5953901,0.87092245,0.43491936,-0.38631892,-0.13135716,0.60692304,-0.32930356,-0.11102304,-0.13599232,0.3473348,0.087023005,-0.33669645,0.20159058,0.075563714,0.3143388,0.7230226,0.072503015,-0.2472309,0.56060815,0.49862558,0.76318806,0.20680174,0.09884983,0.7061181,-0.75770164,0.47385657,-0.115250275,-0.0075044483,-0.40920302,0.25306457,-0.33277348,-0.8091721,0.22391766,0.3842551,0.25790983,-0.38334167,0.7865348,0.7891082,0.73770916,0.8216462,0.7984651,0.76109105,0.85399514,0.46122813,0.08143574,0.7670426,-0.4412071,0.4976564,0.05455233,-0.10485284,-0.8719307,-0.573465,-0.80394477,0.33511266,0.8238054,-0.37371096,-0.4404288,0.11134103,-0.11170715,0.26040554,-0.30618146,0.87714934,-0.1877714,-0.68001693,-0.19986562,0.1120507,0.064111054,0.4467172,0.008060783,-0.79053134,-0.60534406,0.46273643,0.83153075,-0.85403633,-0.5180577,-0.12681752,-0.8664371,-0.22639625,0.0062969327,0.8679128,0.5660573,0.36891901,0.09870857,-0.6215522,-0.6202921,0.35571277,0.5938926,0.19225508,0.38062698,-0.14123343,-0.71571565,-0.52054083,-0.08365139,0.28446817,-0.7895217,-0.28890315,-0.24226427,0.6110945,0.324779,-0.48878837,-0.5414282,0.6032581,0.024517104,-0.4350154,0.5355949
0.45614696,0.69501364,0.3396541,0.4275123,0.4877121,0.64030117,0.86033577,0.35106993,-0.07658534,-0.5913347,0.6198823,-0.6904136,0.8656133,-0.8832879,0.015464202,-0.12114234,-0.74791425,-0.4341015,-0.42607242,0.5275417,0.7384517,-0.5105002,-0.8018351,-0.06907776,-0.5745301,-0.14382824,-0.70059526,0.8353645,0.7402667,-0.29397798,0.32903582,0.037649274,0.32108262,0.7626889,0.29938602,-0.04008755,0.7874686,-0.8100542,0.036057457,0.5483804,0.38492864,0.50573164,-0.6571785,0.15096456,0.8574199,0.36199725,0.16832724,0.64479417,-0.0799904,-0.85512155,0.07987283,-0.6257088,0.04958868,-0.5522724,-0.068189725,-0.82007873,0.7155531,-0.18093958,0.8676118,-0.57957476,-0.47852543,0.7694361,0.37108368,-0.8487996,0.43370134,-0.28590873,-0.10705404,-0.046276376,0.18102102,-0.49797553,-0.3710475,-0.08871414,-0.046154186,-0.65785164,0.04356593,-0.47042656,-0.15896276,0.6364217,-0.30550238,0.07158451,-0.03656648,-0.2203238,-0.8724764,-0.5486258,0.3842672,0.744518,-0.6121566,-0.3810857,0.2598472,0.6544828,0.2887492,0.81286335,0.757258,-0.8193124,-0.7240039,0.3134887,-0.33208978,-0.072444305,0.4967695,0.07818781,-0.20750917,0.38773632,-0.15618339,0.72964764,0.04180923,-0.5663342,-0.41063306,0.83679295,0.6195926,0.29508263,-0.54887795,0.103403926,-0.07548876,0.030449852,-0.03640592,-0.78094864,0.15914604,-0.755844,0.33533072,-0.58829856,-0.2762648,0.7271051,0.79896784,-0.546472,0.19242235,0.3164991,-0.7970282,-0.4788448
-0.8330209,0.074056685,0.07576384,-0.24824694,0.61521435,0.11030428,-0.015259162,0.023512691,0.64563984,0.35532808,-0.8060568,0.15123956,0.4473307,-0.3167011,0.8287489,0.81630373,-0.5924085,0.7281863,-0.682064,-0.3487382,0.35543174,-0.43018255,0.42313778,0.049720854,-0.37320656,-0.41875625,0.29210454,-0.034615323,0.22762217,-0.42974678,0.26513994,-0.060919896,-0.20884573,0.2344288,-0.1126425,-0.008894131,0.80555266,-0.64487576,-0.06322913,0.3569346,0.2620402,0.42145348,-0.38369048,0.57592535,-0.16078614,0.8459652,-0.7902814,-0.6931892,-0.6115339,-0.55264264,-0.14566295,0.7847061,0.4937986,-0.39034662,-0.6357685,-0.63625336,-0.6100271,-0.75083745,-0.40216768,0.22643752,0.2672977,-0.17980382,-0.004595518,-0.66525763,0.05097136,0.83104277,0.2629955,-0.09703234,0.7202726,-0.46027887,0.025274381,-0.7859028,-0.0719811,-0.37647682,0.55013305,-0.31707013,0.4120978,-0.23987122,0.05550511,-0.6838617,0.85663146,0.6831879,0.7815287,-0.48900995,0.8803553,-0.5227805,0.14133811,-0.04933372,0.021220967,0.63320184,0.7516814,-0.26093638,0.78379595,-0.47802863,0.35614297,-0.42858046,0.15080139,-0.2947405,-0.67888427,0.81969386,-0.17443433,0.54224825,-0.49541417,-0.4862128,0.7431773,0.38170373,-0.13238311,-0.7364995,0.13866968,0.7628689,0.17104402,0.32709718,-0.47130492,0.77025,0.2867517,0.66498226,-0.3163865,-0.38569444,0.75544304,-0.6911784,-0.4286283,-0.6280855,-0.68091744,0.41507578,0.261176,0.714457,-0.04232332,0.48746967
0.3366924,-0.1195848,-0.37981656,-0.4007202,-0.17989106,-0.55935514,0.83392406,0.17072678,0.11932723,0.8534571,-0.10793261,0.08846916,0.8199588,-0.8319307,0.02961725,-0.54260623,0.028899908,0.84734684,0.3550812,0.26729003,0.39336866,-0.69693655,0.015237555,0.3770677,-0.35677475,-0.5523351,0.13325892,-0.30655056,-0.11832982,0.5092659,-0.29970917,-0.2877793,-0.026924238,0.6513781,-0.35830122,-0.31305477,0.22490956,0.82833135,-0.45204043,-0.84985113,-0.27550265,-0.018722191,-0.60365194,-0.3830467,-0.42983517,0.34110463,0.13598807,0.48969322,0.05140491,-0.22539996,0.8488249,0.081407875,-0.22542968,-0.20579189,0.8492944,-0.4296854,-0.42837614,0.121453926,0.67208225,-0.79761684,0.10231674,-0.6606519,0.7317304,0.37834024,0.7127667,-0.16307376,-0.57665277,0.5452696,-0.30645207,0.1997301,-0.8604156,0.40646964,0.3783303,-0.08674696,0.7433275,0.43031967,-0.0064667314,-0.8763278,0.7784683,-0.49250436,-0.41896582,0.34713387,-0.58350986,0.38405633,0.5443374,0.67603534,0.22847995,-0.06984986,-0.827218,0.46398097,-0.17997712,-0.59186524,0.43965405,-0.5530229,0.41808403,-0.549265,0.37293756,-0.63816905,0.63273823,0.47246462,0.053501725,-0.06354883,-0.38790283,-0.5481928,-0.25685006,0.04808031,-0.6273851,0.10781303,0.7968802,0.5892668,0.5222901,-0.24597004,-0.71878445,-0.47743243,-0.6779459,-0.45747128,0.43643928,-0.40078974,0.18058725,0.13337992,0.8499048,0.41011608,-0.6051674,0.71830267,-0.06367758,-0.10433793,0.6390751,0.7697418
-0.75415695,0.726302,-0.6295418,-0.833282,-0.62237674,0.8478067,-0.5186433,0.29894435,0.6222049,-0.7096714,-0.7457051,-0.5166885,-0.78871584,0.3284666,0.13452977,0.49299634,0.28485453,-0.43063077,-0.12126282,0.748978,-0.34445047,-0.86137927,0.5247965,0.74643916,0.2294384,-0.5402971,0.069509,0.7617187,-0.6785362,-0.36043954,0.56883925,-0.5985393,0.27464896,0.47092056,-0.21541908,-0.124254525,-0.1235611,0.5024711,-0.5691088,-0.16113512,0.61741805,0.5877488,0.5701158,-0.66223073,0.79872704,-0.41211587,0.10075159,0.6835816,-0.8724123,-0.21706715,-0.31074765,-0.6531639,-0.4443404,-0.66515124,-0.72489846,0.6021243,-0.7351151,0.104450956,0.7027512,-0.21707334,-0.71154386,0.79029655,0.35706177,0.39647198,-0.82931185,-0.59789854,0.31368858,0.30254558,0.035810173,-0.23767315,0.44021076,0.6182697,-0.18915318,0.75053847,-0.10943189,-0.7860916,0.55167264,-0.15110828,0.12301937,-0.43639994,-0.65117174,-0.21875575,0.20304456,-0.24653606,-0.4074322,-0.43116277,-0.5834227,-0.60011697,0.67924374,-0.114435405,0.7700986,-0.70948195,-0.7007552,0.5984778,0.4952765,-0.49546483,0.079422966,-0.85647535,0.0093357265,-0.27703673,0.5705727,0.40031338,0.7271015,-0.17245203,0.60068095,0.8167284,-0.4878071,-0.23184478,-0.80922836,-0.15983477,0.64861363,0.15291952,-0.09269722,-0.39407367,-0.31617302,0.45254046,-0.34221816,-0.41961455,-0.16265608,0.7250183,-0.5632532,-0.258097,-0.53660786,-0.074380636,0.07833041,0.36948836,0.87249213,-0.70389175
0.66859657,-0.6797591,0.8058671,-0.7697898,-0.056540966,0.7246002,-0.340175,-0.11264779,0.47039932,-0.5796386,-0.51754045,0.10618195,-0.45085672,-0.64343125,-0.6874753,-0.83976656,0.65026647,-0.12834601,-0.112921,-0.41634038,-0.24665631,-0.3541784,0.5600738,-0.51148164,0.7751488,0.6522375,-0.38573384,-0.69626045,-0.020935908,-0.17334901,-0.59457886,0.62118226,-0.44316822,0.45428956,0.5527573,0.31931406,0.59660906,0.29704815,-0.31996098,0.5912722,-0.5038566,0.1950404,0.67611134,0.872081,-0.7895703,-0.76009184,0.097069144,0.022421926,0.120235234,-0.5378688,0.24541192,-0.5165332,-0.6390976,-0.097808614,-0.289927,-0.27777904,-0.48525363,0.24364732,0.17566182,-0.05574584,0.09025708,-0.62721664,-0.15804067,-0.116028264,0.6164903,0.4749543,-0.40988177,0.25730953,-0.5990634,0.18593356,0.058967844,-0.8279582,0.17331406,-0.3730973,0.12824453,-0.05751297,-0.4649322,0.43599987,0.21818288,-0.3865438,0.51535153,0.5919201,0.79310423,-0.7750361,-0.7822077,0.23872346,0.021288022,-0.18421821,-0.7430286,0.3530512,0.79633856,0.30277818,-0.23602329,0.107559785,0.14085189,-0.38770896,-0.3445332,0.87888324,0.75724626,0.40696716,-0.82732356,-0.7257949,-0.44136253,0.8566558,-0.38558528,-0.31430656,0.44586772,-0.28030837,0.23834348,-0.027520284,0.5951602,-0.103604645,-0.8426616,-0.548103,-0.1447288,-0.34069553,0.6599411,0.52495086,-0.2636593,0.6075963,-0.6398182,-0.7545075,0.7629431,-0.7464056,-0.65257937,0.53660804,-0.31417978,-0.6129291
-0.14568672,-0.59759027,0.095115304,0.32531476,-0.015011206,-0.09153634,-0.23623087,0.09079687,-0.7325494,-0.3007324,-0.10656111,-0.4732463,-0.2500549,-0.26563376,0.32584095,-0.65467274,0.10031633,0.35216546,0.40783966,-0.49443185,-0.32366145,0.3144083,-0.5312255,-0.7579081,0.83186215,0.15137494,-0.7719731,0.111233965,0.7659381,0.26684016,0.67983234,0.27896369,0.7032103,-0.2913047,-0.14345542,-0.10429062,0.32727793,0.1130528,0.18520698,0.028552264,0.12803726,0.22675075,-0.70636326,0.77240413,0.15078597,0.18139727,0.023793131,0.19550867,-0.5920129,-0.30270815,-0.79642177,0.452565,0.61839557,-0.8050757,0.22421926,-0.7942808,0.8403746,-0.09629965,-0.33534276,-0.73176956,-0.20960584,0.38658237,0.7647973,-0.33602324,0.8283443,-0.373971,-0.7573694,-0.07295333,-0.20141482,0.6135162,0.85405564,-0.8286816,0.6045986,-0.6523469,-0.055609047,0.6271791,-0.73206514,-0.8219819,-0.23342803,0.78945017,-0.6128282,-0.64382446,-0.35839054,0.60765827,0.82078403,-0.2545987,-0.7578709,0.052503347,0.876419,-0.4576936,0.8241203,0.45656317,0.23113027,0.41587734,-0.08452594,0.016420186,-0.051463693,0.41025126,-0.23748308,0.105850846,0.7111331,0.6622303,0.18688515,0.10700308,0.09549864,0.6378948,-0.6626015,0.53238636,-0.014187023,0.027493984,-0.5127141,0.42626226,-0.57276225,-0.016332045,-0.2468539,-0.8011682,-0.019862577,0.3249164,-0.077311024,-0.58635443,-0.43188268,-0.76614845,0.43484426,0.043166056,0.69677687,0.40896034,-0.75463927,0.18990368
0.74527746,0.7628781,-0.44875845,-0.5555098,0.31037688,0.014522746,0.43927914,0.13872974,0.108894184,0.39710528,0.50101185,0.79016006,0.86067027,-0.7804042,0.559321,0.82032704,-0.10810606,-0.32910872,0.8144531,0.49502975,-0.64822376,-0.51841927,-0.046011508,0.3673076,-0.8670377,0.30284703,0.4035986,0.18731326,-0.5514638,-0.8345378,-0.8651629,0.0638061,0.07427178,-0.15975803,-0.5298096,-0.2264756,-0.59176725,0.37515604,-0.8401382,0.22049099,0.7021857,0.35655403,-0.7042153,0.060282722,-0.14090598,-0.7744718,-0.601216,0.2897715,-0.8322031,0.57068175,0.21727331,0.33447272,-0.54182786,0.74898237,-0.7543185,0.61900383,-0.6983507,0.57348794,0.23335859,-0.3633289,0.7098713,0.35396314,0.7472744,0.27092054,0.40628022,0.51611954,-0.81836057,-0.7690277,0.24329804,-0.1970879,0.81233346,0.5364021,-0.24645746,-0.3886892,-0.39609325,0.48543757,0.08223079,0.2258347,0.07760234,0.4640358,0.8019241,0.8391338,-0.87771684,0.33035845,0.29508546,0.35926655,-0.74063456,0.08340843,0.2950791,0.33049577,0.2584359,0.43762153,0.19082658,0.43699598,-0.6828958,-0.07712357,-0.8158911,-0.39320025,-0.49098295,0.039290115,-0.64999676,0.32811508,-0.04818231,-0.020095855,0.12686394,0.45631206,-0.8292431,-0.41709986,0.393134,-0.73015034,0.623968,-0.0029985607,-0.6114945,0.012378842,-0.4131445,0.041855946,-0.44002712,-0.21430314,-0.711068,0.84699726,-0.0051160157,-0.55632216,0.29662117,-0.1350715,-0.67353976,-0.6130792,0.48723364,0.7353979
0.30087477,-0.3892726,-0.55324996,-0.46249643,0.8372372,-0.41074392,-0.74996203,-0.20251118,-0.087509826,0.17358296,0.8527612,0.5553537,0.43188745,-0.4845722,-0.59243894,-0.29366332,-0.40100682,0.8216963,0.69181865,-0.43160406,-0.41178924,-0.32930794,-0.39237958,0.75177944,0.034905896,-0.047244504,-0.8273457,-0.48962668,0.07064663,-0.8472233,0.014871731,-0.85464704,0.8581489,-0.41008,0.5811659,0.8382758,-0.878145,-0.8396908,-0.06808974,-0.745872,0.7836064,-0.06276213,0.46126163,0.061874017,0.5014608,-0.15431881,0.7718796,0.39829278,0.47862285,-0.67038774,0.38989222,-0.124943405,-0.7519716,-0.023046881,-0.66426665,0.18657558,0.64057744,-0.58589154,0.63545084,-0.24941072,-0.62202257,0.08343287,0.31272477,-0.5432693,0.39426053,0.5577535,-0.73101103,0.30984318,-0.7139324,-0.32475096,-0.46298638,-0.16278476,-0.3642079,0.3840891,0.65290606,-0.669331,-0.24975672,-0.3597404,-0.77459383,0.56602454,-0.80055326,0.7097375,-0.6240381,-0.19070119,-0.5377708,-0.7964843,-0.18832952,0.44137114,0.6050592,0.16375631,-0.71767366,-0.83603144,-0.6524254,0.041010678,-0.66286373,-0.42425638,0.43818706,-0.19612618,-0.7780881,-0.6568718,-0.5519356,-0.41319978,0.07417962,-0.60953164,0.50593024,0.14829107,0.599828,0.03695786,-0.7641035,-0.34368363,0.2186162,-0.87878615,-0.87724215,-0.64994895,0.25154695,-0.46618682,-0.23797534,0.13965897,0.45436615,0.4670521,-0.71846837,-0.8217094,-0.069357455,-0.24192937,-0.026560426,0.6205461,-0.19329138,-0.5483121
-0.71011233,-0.3087261,-0.38872796,0.61199003,-0.76353073,0.10661341,-0.18664993,-0.8781206,-0.080181435,-0.8674968,-0.32426268,-0.22418857,-0.61003125,-0.16666561,0.28629288,-0.060692504,-0.6077767,0.5582527,-0.7928487,0.65174407,0.11235677,-0.12617789,0.21095254,0.2425196,0.038172007,0.552113,-0.17723508,0.7364976,0.25331026,0.14855422,-0.35704184,0.4909342,-0.5311055,0.122718886,0.27950063,-0.8266367,0.74239737,0.38026863,-0.30113482,0.32740206,0.46271467,0.48214608,0.30791506,0.4797774,-0.10854676,0.17235205,0.5688628,-0.33712167,0.4694355,0.089232996,0.017416254,-0.7439187,-0.67042834,-0.463146,0.58485264,-0.07288106,0.029848814,-0.22482648,0.43237603,-0.16833387,0.63903606,-0.694963,-0.32504112,0.44131434,-0.3445664,0.2467379,-0.30632856,0.29678166,-0.49665087,0.45955724,-0.76479745,0.6030003,-0.4035253,-0.8393937,0.76658255,0.3286845,0.3149031,-0.36283696,0.2524776,-0.43073732,0.12389116,-0.30749518,0.85761106,-0.41532114,0.32862425,-0.077628046,-0.37146586,0.6430114,-0.72784215,0.5504242,0.38233316,-0.8053222,-0.33327454,0.49696976,0.6689898,0.33632374,0.6932115,0.78081185,0.16307227,0.36219382,-0.75965166,0.87511235,-0.3590291,0.51768833,-0.3096612,0.52766794,0.4605257,0.49382782,-0.33463818,-0.18472224,-0.0841292,0.5433131,-0.031782612,-0.02173163,-0.31141135,0.17674498,-0.6073031,0.5260501,0.5493582,0.27761167,0.55428094,-0.32676208,-0.41150045,0.37485355,-0.8707191,0.7432819,0.16794294,-0.8053154
-0.23956902,0.69504446,0.19763164,-0.7604057,-0.70974416,0.66086346,0.3158546,-0.094445944,-0.15543349,-0.74447364,0.72040254,-0.6925734,-0.32806307,-0.27310944,0.17043099,0.099411756,0.08569896,-0.66596925,-0.405844,0.5010947,0.112498775,-0.14887586,-0.36696923,-0.8779452,-0.053902045,0.7694098,0.5588033,0.8722452,-0.65094244,-0.67635864,0.6593325,0.69698,0.44138974,-0.051210225,-0.8374729,0.34503096,0.15099294,0.8735215,-0.39350435,0.179317,0.61005616,-0.6771008,0.54782784,-0.2572357,-0.6552163,0.84973985,0.4084941,0.55112934,0.7680901,0.33791423,0.05328439,-0.21134213,-0.67017436,0.73211527,0.5440832,0.5798677,0.5258941,0.21328405,0.48608506,-0.24737038,-0.5456115,-0.81347895,0.6861266,0.21645494,0.88036114,0.882281,-0.24842702,-0.8514143,0.64375633,-0.41134807,-0.28050572,-0.85120624,0.39988673,-0.16512617,-0.17815739,0.78923637,0.66668624,0.29813007,-0.35776383,-0.29542062,0.6394411,0.016709194,0.774815,0.48424757,-0.81722176,0.26348168,0.36427215,0.82798654,-0.2747141,-0.46342376,-0.8368237,0.5500535,-0.7776627,0.6465485,0.43394035,-0.28848213,-0.74402267,-0.8438038,0.20449154,0.54464257,-0.12040816,-0.7371079,-0.2267921,-0.57676834,0.69623345,-0.10926552,0.5615651,0.6892324,0.8781626,0.7715034,-0.5899104,-0.8406165,0.55582935,-0.56290555,-0.22850662,0.30998677,0.1234255,-0.386565,0.4029203,-0.11802949,-0.32004017,0.3793522,-0.1452937,0.2493041,-0.4589699,0.12521997,0.8390909,0.02581589
0.035843924,-0.48272923,0.25426275,0.6133235,0.0148601085,-0.7119793,-0.7760307,-0.15356116,0.032617003,-0.14899783,0.58292454,-0.0832624,-0.4896117,0.30294806,0.56365335,-0.35103646,-0.81107545,0.60053265,-0.38863346,-0.16875304,0.008198619,0.6860622,0.15532799,0.32486296,-0.82904214,0.7518301,0.79442674,-0.3532022,-0.8683659,-0.40367723,0.87225384,-0.0714875,0.6584608,0.86329037,0.23270823,0.45789266,-0.6956285,0.058917254,0.8778498,0.34493878,-0.2540145,-0.51690525,-0.07510431,-0.013140142,-0.42492074,0.44696814,0.49396062,-0.51792705,0.3647045,-0.28213426,0.25157988,0.85423106,-0.050835013,0.31190276,0.8467368,0.75644696,0.10779381,0.10040283,-0.6027982,0.5423918,0.3970068,-0.7600331,-0.08947104,0.69973415,-0.677346,0.37756616,-0.16347341,0.46872014,-0.14949076,0.6601321,0.4132157,-0.18591247,-0.4746403,0.84708536,-0.1325076,0.7057979,-0.32578576,0.5560354,0.48531687,-0.62779987,0.5895928,0.24817444,-0.6489836,-0.14116846,-0.39662892,0.7718376,0.6450421,0.73235726,0.803419,-0.0030963123,-0.5560855,0.018872097,-0.4386964,-0.7830686,-0.56867665,-0.75821805,-0.17391086,-0.6436522,0.2817812,0.11344954,-0.3888862,0.6727672,-0.31574395,-0.07250048,-0.5088455,0.024595857,-0.6950134,-0.83678174,0.4475329,-0.012500882,0.01772441,0.30811882,-0.009230897,0.63453966,-0.16602874,-0.06475188,0.38928306,0.23348562,0.275585,0.56914234,0.16259052,0.4526868,-0.475058,-0.015086383,-0.055835098,0.78563666,0.3474859,0.5245844
-0.6535522,-0.34333265,-0.3198598,-0.11299424,0.7124222,-0.4658841,0.41269356,-0.721383,0.6765977,-0.18298127,0.37827736,-0.53985465,0.20911083,-0.8788625,-0.0148730725,0.4732021,0.043085366,0.52135116,0.14142878,-0.19758865,0.34049213,0.62956864,-0.47779593,-0.6561143,0.43351418,0.68226373,0.73072517,-0.1519882,0.78024393,-0.2792336,0.87765,-0.32814842,-0.6548954,0.76456034,0.8067339,-0.5461415,-0.37554824,-0.29735413,-0.0820034,0.74871415,0.240499,0.8637955,-0.28803155,-0.694229,0.28988993,0.3808049,0.5034614,-0.64643496,-0.042592734,-0.45759612,0.5017329,-0.078404695,-0.6662732,0.58038735,-0.43379897,0.4722392,-0.6054277,-0.21933623,0.5145768,-0.54293674,0.6683395,0.73443407,0.87731504,-0.45825845,-0.5959028,0.031005666,0.602709,0.6314727,0.83576834,-0.13462402,-0.59704983,0.105059,-0.5970715,-0.11916116,0.7176652,0.68755114,0.33309907,0.7503923,0.73687816,-0.36165506,-0.6504998,0.56872284,-0.23868889,-0.53081465,-0.23217574,-0.4927744,0.21906286,0.09546317,-0.68080425,-0.42915046,-0.31876102,0.755083,0.26988193,0.79513484,0.30203813,0.5758638,-0.5720032,-0.09803228,0.38501227,-0.050627813,0.2903603,-0.45235002,0.24733067,-0.776785,0.1418414,-0.46511668,-0.03469251,0.6761312,0.26594168,-0.83423793,0.36300376,-0.40950668,0.47535056,-0.3772932,0.46608472,0.0036581606,-0.62196696,0.110140964,-0.4627645,-0.69443667,0.25568748,0.6916905,-0.8219626,0.8167515,-0.3494904,0.5708992,0.1368168,-0.09070404
-0.6125089,-0.49690112,-0.74247783,-0.74611557,-0.3241433,0.025877953,0.38545692,-0.58801997,-0.2908595,0.7268768,-0.071772486,-0.38376495,-0.5795691,-0.23071304,0.5807269,-0.5155336,0.5789778,0.4300233,-0.30818838,-0.43158117,0.8666452,-0.20784043,0.19404285,-0.605442,0.12193069,0.6279459,0.18882766,0.8825406,-0.77020156,0.61830527,0.7380732,-0.6978141,0.4965704,0.59474236,-0.6658925,-0.20442948,0.09066112,-0.56862473,0.16823106,0.25578773,-0.05266778,-0.39276603,-0.64694554,0.34260207,-0.58070886,-0.7488991,0.27394682,-0.1107651,0.73653585,0.03568068,0.70647216,0.7515884,0.52288646,-0.37639263,0.8386835,0.7046575,-0.369752,-0.21462113,-0.4937695,-0.8533082,0.7786042,0.17037034,0.8196523,-0.5638863,-0.10698125,-0.3604275,-0.28052795,-0.8222086,0.821575,-0.27978435,-0.6998608,-0.026096776,0.53272134,-0.11742368,0.06393865,0.544006,-0.23053907,-0.77889335,0.10586277,-0.39315,0.83152735,0.8644948,-0.25560707,0.6909382,-0.647292,0.09310365,-0.5614333,-0.03170289,-0.53069586,0.20254217,-0.61295414,-0.0005506724,0.46483582,0.38001037,-0.23280822,-0.6267022,-0.07358,-0.7904806,-0.0072876364,0.83578163,-0.3506111,-0.40780413,0.15083231,-0.29746476,-0.4769348,-0.015918538,0.13310246,0.34729674,-0.433307,-0.7919708,-0.37316418,-0.24048008,-0.58792543,-0.14994629,-0.2369833,-0.2688952,0.65185434,0.50211275,0.8425403,0.3083773,-0.12560807,-0.45054105,-0.8460878,-0.60799664,-0.77060527,0.11399962,-0.6243248,-0.47640112
0.43301904,0.34432435,0.6806823,-0.12546614,0.0071098655,0.47563648,-0.507708,-0.814386,0.10142639,0.7500824,0.10869376,0.6121957,0.28308922,-0.7875752,0.6162915,0.3605172,-0.6100731,0.7052124,0.8233046,-0.15448123,0.031828657,0.30216932,0.29636317,-0.020290762,0.2601022,-0.64464056,0.30321822,-0.0002296269,0.7803578,-0.62518513,-0.21333069,-0.5398482,0.81914747,-0.19583903,-0.5619711,-0.65708756,-0.6650187,-0.35865206,-0.29551092,-0.64946353,-0.62411666,0.4927435,-0.43090683,0.26012644,-0.11787765,0.56859994,-0.756354,0.58925784,-0.75593245,-0.72238594,0.6468632,-0.020976365,0.6366565,-0.10485463,-0.45849827,-0.34851596,0.1887118,-0.8503418,-0.22510685,-0.7494755,0.44394588,-0.19529216,-0.2889019,-0.027776659,0.43333763,0.7667697,0.43901795,-0.43708855,-0.36078018,0.87268865,0.7625226,0.6659257,0.5007813,0.32887226,-0.04988119,-0.2848208,-0.51966715,0.053745583,-0.396412,-0.54593897,-0.83700144,-0.58124673,-0.2441375,-0.5493894,0.6763395,0.038083345,-0.07962696,0.29908255,0.04920125,-0.36538988,-0.49718288,-0.70953715,0.1099287,0.44031167,-0.8290522,-0.044822097,0.07127404,-0.21734752,0.69008404,-0.10555111,0.11171296,-0.3622809,0.092911646,0.25938004,0.51195735,0.46680874,-0.7263371,0.1590281,0.22701912,-0.37256372,-0.71192634,0.63122445,-0.6177031,0.72850263,-0.7258799,0.8426923,0.07604599,-0.6887139,-0.2611072,-0.010440648,0.37394887,-0.6783038,-0.20504422,0.0577458,0.30965924,0.42477304,0.87415195,0.07194236
0.84213084,-0.50669956,-0.06947465,0.16557723,-0.16942382,-0.23980051,0.103057176,0.5848942,-0.79352355,0.18470518,0.77799076,-0.2457077,-0.82798934,0.70485896,0.84142035,0.16995154,-0.56757295,-0.47869122,0.09754591,-0.33756113,-0.12007035,0.5753743,0.31523103,-0.60962176,-0.5042708,0.88325864,-0.60591227,0.033224374,0.3754664,0.032749996,-0.1136262,0.47694528,-0.72954345,-0.15480593,0.6051957,0.1337403,0.8782164,0.097111836,0.515225,0.71444863,-0.7042979,-0.67932606,0.41540527,-0.32725406,-0.021487549,0.39329076,-0.38214388,0.30096114,0.24606995,0.63426024,0.583755,-0.48190284,-0.35180375,-0.37521422,0.28259808,0.42765194,0.7269252,-0.23070961,-0.4709218,-0.48504952,0.22699177,0.8298307,0.7462791,0.6366653,0.69431686,0.22924311,-0.2423662,-0.59809697,0.1405631,-0.19555338,0.6589269,0.51926607,0.5696624,-0.15742667,0.44870502,0.028886944,0.39573467,-0.0028575212,0.3830976,-0.75038165,0.27193063,-0.3305835,0.6507591,-0.8711976,0.46765262,0.34130937,-0.15784964,0.35517767,-0.87087655,-0.5845387,0.09668961,-0.77745605,0.5697138,-0.408167,-0.039577782,0.58744127,-0.78954375,-0.25994796,-0.5859518,0.81892365,-0.1259099,0.17659865,0.769333,0.8330742,0.72748625,0.8364677,-0.3628068,-0.17169856,-0.8617649,-0.373852,-0.47763497,-0.17015703,-0.1057481,0.43669367,0.34150496,0.7664385,0.7859064,0.4690895,0.4062227,0.6513896,-0.36988053,-0.8323843,0.81931347,0.22468708,-0.40084866,0.1695124,-0.5552115,-0.3487168
-0.5681114,0.6547999,-0.8736241,-0.096232444,-0.73261666,0.55649304,-0.8192601,0.57611203,-0.6362457,-0.827472,0.00027239323,-0.0014478713,-0.48167673,-0.32222742,-0.054793954,-0.5604441,0.33699453,0.39097613,0.32007003,-0.08444913,0.47704005,-0.34121466,0.331489,-0.25565833,0.678077,-0.8194054,0.035233796,0.018276945,-0.25482422,0.38613832,-0.7949087,-0.25775737,-0.31204307,0.8557778,0.7459215,-0.42578316,0.62447375,0.84621733,-0.8715764,-0.8381505,-0.52376026,0.7437656,-0.6355392,0.81597155,-0.16440369,0.5114248,-0.8091048,-0.7648205,0.5047714,0.7075154,-0.11504337,-0.82424134,0.7407335,0.7813988,0.85849965,-0.13576657,0.60977376,0.24448037,0.74301565,-0.46719286,0.43784416,-0.40716088,0.44461614,0.019617602,-0.8528186,0.7389817,0.6664107,-0.22392705,-0.82671547,-0.79281455,-0.7302091,-0.50062287,0.618686,-0.20062745,-0.20523272,-0.27851626,-0.6903851,0.24119504,-0.67357093,0.022722706,0.74939215,0.047259554,-0.4026012,-0.23003742,0.4771849,-0.75547945,0.6820435,0.29508555,0.07441856,0.7176379,0.71085626,-0.38774848,0.2111321,-0.6986337,0.0026420504,0.4870149,-0.2586645,0.29643804,-0.55352217,-0.2912475,0.76359475,-0.3837049,-0.17257437,0.46553665,0.2912026,-0.60691905,0.2931919,0.4842087,0.5975192,0.7362571,-0.7335509,0.35819232,0.5003109,-0.45470968,-0.67606914,-0.11409752,0.46332127,-0.4733859,-0.42876834,-0.57719505,0.62178755,-0.5385085,-0.7905389,0.34002656,-0.045217276,-0.2297318,-0.29371536,0.12839288
-0.6347141,0.32119334,-0.2425661,0.80922717,-0.1170674,0.13638943,0.06264299,-0.69774556,0.0026628375,0.21440007,0.09610683,-0.42997256,0.5190999,-0.8073491,0.27390182,0.72105443,0.30834728,0.8024838,0.52802956,0.56739366,-0.7831633,-0.12391299,0.86064184,-0.022523254,-0.4249145,-0.6005485,0.86775696,-0.1337178,0.008892342,-0.50725573,0.4999053,-0.16942151,0.506947,-0.8057889,0.020477548,0.6782583,0.38205838,-0.38464433,0.069712326,-0.057759285,0.24561465,0.8023455,0.17993502,-0.72137105,0.14663383,-0.8782791,-0.18165037,0.6271174,0.7222956,0.26766366,0.16318694,-0.85902864,-0.10484196,-0.3332996,-0.6405076,-0.4918459,0.11395611,-0.74816763,-0.7955996,-0.8034316,0.24522565,-0.18816903,0.4245361,0.7283988,0.1286558,-0.66690236,0.7909011,0.34291416,0.82574373,0.39587295,0.5581785,-0.6428019,0.23781903,-0.48510674,-0.64582896,0.41376555,0.39861912,-0.6724124,0.1418259,0.20382509,0.80990916,0.05967751,-0.047182962,-0.11506416,0.39678133,0.28428704,-0.38651347,0.29032594,-0.19154921,-0.52102137,-0.5079228,0.3662849,0.50822294,-0.6410137,-0.78391564,-0.10702632,-0.6927675,0.6839972,0.80813074,-0.7952046,0.3364637,0.3581267,-0.5701673,0.058860406,0.07702164,0.7594591,0.10994069,-0.33421272,-0.82202876,0.62019026,0.18199012,0.86822027,0.025938675,0.7011526,-0.0047530234,0.20711876,0.35758436,-0.30676985,0.6268803,-0.27250552,0.8052588,0.7061482,-0.39905834,0.44661397,-0.41169852,-0.7398876,0.6903986,0.47390378
0.6569075,0.46891814,0.48078632,0.38480198,0.5720171,-0.080063716,-0.8694842,-0.31125796,-0.41878867,-0.6235445,-0.100996196,-0.8465973,0.49520677,-0.6117516,0.5831156,0.17069474,0.59920394,0.3124237,0.008868575,0.2841205,0.87706304,0.27463675,0.27455613,-0.06094843,0.5218437,0.53072757,0.11623271,-0.74000305,0.6302836,-0.24038136,0.058251023,0.47174954,0.056743324,0.3829149,-0.6073661,0.3420353,0.6418011,-0.31217694,-0.61647624,-0.82714605,-0.20701766,0.3140486,0.5357396,-0.10179706,0.6874234,0.60163164,0.59466773,-0.7110951,0.8548165,0.69127613,0.7211161,0.41618282,0.6805297,0.51300144,-0.73895925,0.76770806,-0.37605557,0.24670795,0.62711483,-0.1452566,-0.033256486,0.6159518,-0.30418727,0.78875756,-0.34391406,0.4716519,-0.62280154,0.8275073,0.37877434,0.108773634,0.2683478,0.5333141,0.6841839,0.75574213,-0.12061879,0.78744555,0.711442,-0.038619563,-0.31584743,-0.22536382,0.41948444,0.51528865,0.43512875,-0.45947093,-0.124121085,-0.41984856,-0.43937898,0.7343308,-0.5619321,0.5889543,-0.04225105,-0.3739771,0.675103,0.027002022,-0.09425163,-0.18253021,0.2567827,0.04643634,-0.3112803,0.6333808,0.4122973,0.6474819,0.44113463,0.114895776,-0.48421323,0.22087686,0.7804089,0.21289386,-0.06783843,0.69382256,-0.053855553,-0.78839093,-0.5807955,0.15333258,-0.6128527,0.7660655,0.18234044,0.7809309,0.49692637,-0.6871975,-0.8764592,0.6206652,-0.00026986003,0.20178713,-0.5933771,0.4697553,-0.16124226,-0.60227
-0.0617449,-0.8306464,-0.57290465,-0.1608964,-0.74131954,-0.5363379,-0.47766688,0.44677413,-0.33057332,-0.07010318,-0.6783192,-0.019857287,-0.35237586,-0.30662155,0.85154825,0.12705155,-0.82816356,-0.37401438,0.31010225,-0.6116224,-0.7760844,0.080952495,-0.47833985,0.29956728,-0.44802773,0.13575561,0.043778345,0.27285382,-0.30287504,-0.09840794,-0.5087442,-0.4329361,-0.19662514,-0.83848804,-0.6753005,0.3765362,0.094620064,0.12713909,-0.05388446,0.72453594,-0.6872518,-0.38721383,-0.88335526,0.8108505,-0.2785972,0.1755058,-0.5216738,-0.1423923,0.26523516,0.18581554,-0.46002072,-0.089590624,0.7525929,0.09680338,0.3732341,0.2966024,-0.8148595,0.25975928,0.20983018,0.83281046,0.31522268,0.67181206,0.13551258,-0.15253566,-0.09735912,0.013180897,0.13238885,0.5770535,-0.40090442,0.33448383,-0.7222409,-0.67674494,-0.017769635,-0.45217857,-0.35100442,-0.7605128,0.14510304,0.5202169,-0.20670868,-0.4149903,-0.22535026,0.08384451,0.08304253,0.39217508,0.75185126,-0.7654113,0.19568488,-0.8542274,0.1465135,0.19489057,-0.64276445,0.6830191,-0.8657637,-0.514008,-0.6350476,0.089836866,0.7901988,0.4716516,0.16775392,-0.107587725,-0.5880883,-0.7024629,0.58173543,-0.79552245,-0.58222824,-0.25231287,-0.21808162,0.6900176,0.79059386,-0.71449757,-0.42834592,-0.33909446,0.2801992,-0.5780596,-0.22407643,-0.63344586,-0.82624125,-0.5617175,0.51644677,0.24063513,-0.803131,-0.044516623,-0.59287834,-0.02321288,-0.7743777,0.62295055,0.59278035,0.36998904
0.21446645,-0.62082356,-0.80527335,-0.007992834,0.4350183,-0.6898988,-0.05181469,0.30904174,0.2406311,-0.22545189,-0.09900622,0.11452481,-0.5593149,-0.55131763,-0.0783506,-0.2348648,-0.2213452,0.5783055,-0.8066049,0.8211497,0.80309415,-0.43822712,-0.43181175,0.3032332,0.8258336,-0.67805946,0.27735835,0.5413207,0.74253464,-0.25910723,0.108760595,-0.31562942,-0.50367475,0.30925006,-0.52582514,0.57470375,0.56846225,-0.66376185,0.8464933,-0.5281958,0.7773232,-0.0029893965,-0.6978288,-0.3424126,0.7975098,0.4763288,-0.35161555,0.52313334,-0.48616326,0.04884608,0.0589253,0.74758613,-0.08486003,-0.49047384,0.021758974,-0.7534698,0.46883845,0.1317089,-0.33177567,0.8466449,-0.4675335,-0.6386272,-0.352353,0.3608734,-0.4384354,-0.1944492,-0.3062668,0.52798784,-0.39115942,-0.6669538,0.7653811,0.13720915,-0.5667667,0.15338756,-0.65045047,0.62717015,0.7252958,-0.41620898,-0.810543,-0.31991944,-0.3575255,-0.28336674,0.43095893,-0.27687076,0.067384616,0.1253181,-0.10431215,0.30481464,-0.7939463,0.09922929,0.04178673,-0.22335246,-0.12500301,0.35647923,0.5247063,0.12827203,0.82049155,-0.6944924,0.47539377,0.2283293,-0.5259522,0.055364072,0.37378544,-0.8266317,-0.045161918,-0.6342703,-0.79771745,-0.7177785,0.15900679,0.43427283,0.65054363,-0.386626,-0.21133602,-0.23534529,0.45991385,-0.563267,-0.35062996,-0.41932732,-0.3840092,0.07832602,-0.28009203,0.51845914,-0.6781595,0.29916078,0.2566982,0.40521705,0.051353723,0.033544376
0.44831222,-0.5746106,0.8250744,0.078131184,0.24933338,0.31754017,0.021672547,-0.32194647,0.8493606,0.73421127,-0.7942642,-0.7428409,-0.16398035,-0.8014314,0.045780465,0.8184811,-0.08485049,0.72519475,-0.8394685,0.44129854,0.1631926,0.16230002,-0.4673332,0.23619592,0.68999714,0.68489456,0.32791936,-0.5912014,0.568059,-0.19990735,-0.59515166,0.19380406,0.03661856,-0.7831269,0.36017412,0.05186893,0.79629,-0.2653338,-0.025315806,-0.7854081,0.49436188,0.110642016,-0.56852156,0.6074012,0.19702144,-0.29236004,0.13939582,0.10452554,0.6711584,0.644111,0.11950493,-0.80487657,-0.13718307,-0.19491076,-0.10164596,0.3584271,0.18194295,-0.57756543,-0.16023062,-0.024159104,0.54140484,-0.6369435,-0.7758233,-0.83233774,0.13425909,0.4818737,-0.35113943,-0.18090099,-0.67331123,0.7185232,0.019798502,-0.14165968,-0.7440237,0.48153704,-0.46024683,0.016825125,-0.8631278,0.4537856,0.17770492,0.13492145,-0.43408018,0.35984015,0.3728608,-0.7032503,-0.19121446,0.637865,-0.44348505,-0.21052137,-0.77179676,-0.8761788,0.8248707,0.56442416,0.569055,-0.39498392,0.587487,-0.45649934,0.24890445,-0.6873113,-0.85099465,0.23023792,0.20999163,0.4033106,0.16061626,-0.6949645,0.39993083,0.68519956,-0.32112223,-0.1110857,0.12736462,-0.35738504,0.8780486,0.35951167,-0.12194909,-0.44499728,0.11034183,0.08690186,-0.691316,0.031012595,0.46689814,-0.7582725,0.04953511,0.36040103,-0.11771828,0.48243797,-0.7772291,-0.09248145,-0.60843676,0.64821714
0.49367303,0.8835945,-0.6464596,-0.24812989,0.6586375,-0.38730982,0.095546395,-0.60846686,-0.7276794,-0.00077582896,0.23000464,0.66620404,-0.33087707,-0.27955395,-0.0782454,-0.43793535,-0.27940914,-0.46971273,0.41079378,-0.14060453,0.67436165,-0.35304043,0.5930483,-0.6824721,0.070642084,-0.8629987,0.06911524,-0.059910715,0.22023834,0.73877954,0.8194209,-0.20020649,-0.16019955,0.72945005,-0.8001381,-0.2317334,-0.108084455,0.049177557,-0.25361454,-0.3053911,-0.61267984,0.24778113,-0.66071796,0.7757547,0.64050233,-0.37162542,-0.27538243,-0.6870711,0.5547351,0.4212237,-0.21324143,0.40985757,-0.6253355,0.46125913,-0.86804336,0.73229396,0.5673098,-0.75249636,0.45352125,-0.5880242,-0.36250934,0.65748596,0.7678283,0.12409158,0.2361609,-0.8069359,-0.17376311,0.3707015,0.6725698,-0.7518614,-0.43754172,-0.09033553,-0.55318916,-0.43718386,0.7736006,0.33463985,-0.09958744,0.52451515,0.44084334,0.111362115,0.008162037,0.87112105,0.86899644,-0.22419259,-0.27337605,0.49908364,-0.018634722,-0.11617586,0.046407282,-0.86231554,0.4500804,0.24316318,0.33509508,0.012530014,0.65468854,0.085227564,-0.24609491,0.40108287,-0.19579604,0.28351194,-0.085080564,0.4284134,-0.19494623,-0.67169034,0.8811205,0.5487091,-0.38341376,-0.57532036,0.32766724,-0.02756223,-0.10097362,0.6275576,-0.5758902,0.28791422,0.16216442,0.07091299,0.8444368,0.46424395,0.589694,0.30120856,-0.7338413,0.70584154,0.20863526,-0.11590153,0.35617217,0.8224761,0.42304122,0.22646941
-0.069646165,-0.28552425,-0.035395846,0.5867571,-0.4927938,-0.7095448,0.034910962,0.8056668,-0.6928044,0.22989124,0.6252495,0.34025902,0.24168625,0.4789626,-0.1285325,-0.14547788,0.7207256,0.4278829,0.5468092,0.18615976,-0.24792999,-0.18989153,-0.60149074,-0.08873932,-0.855345,0.77130145,-0.40363646,-0.57630515,-0.083459094,-0.6820375,0.80268556,-0.26639432,0.73960906,0.07813014,-0.59931016,-0.4745969,-0.58368737,0.4184646,0.34949577,-0.09938151,-0.49294722,0.2168937,-0.80227566,0.07981919,-0.07977605,-0.5536824,0.5486602,0.7580826,0.15535086,0.77142054,0.18714972,0.6338263,-0.19488998,-0.18061347,-0.6881311,0.52123034,-0.79300946,-0.28867587,-0.6631316,-0.4785079,-0.32885385,-0.5617808,-0.82747626,0.32163537,-0.008881837,0.47849572,0.7652492,0.8265904,-0.17250188,0.6431795,0.15826993,-0.37954164,0.05603127,0.047599673,0.35935467,0.08504689,0.6271795,-0.07026799,0.25652722,-0.37550294,0.63478196,0.11688046,-0.71959984,0.7225711,-0.7892925,-0.5109515,-0.34863335,0.7461586,-0.7845683,-0.81802934,-0.53683484,0.5068309,-0.7164035,0.047130212,0.17991804,-0.70580816,0.7157337,-0.45219955,-0.7507095,-0.06840572,0.3524595,-0.6394837,-0.6988143,0.7676584,-0.07356666,-0.48201936,0.85162497,0.06345786,-0.61913955,-0.6783986,-0.48143017,0.004160106,-0.1605966,-0.64946115,0.10628089,0.5941152,0.16287282,-0.7803902,0.6960281,0.6524872,0.5656237,-0.31316298,-0.52544487,0.82371897,0.4159006,0.8811244,0.85944,-0.0017304718
-0.845297,0.58387244,0.5304661,0.14814071,-0.5806315,0.35160273,-0.30174497,-0.65395296,-0.769656,-0.62597525,0.7436428,0.8490866,0.4740154,0.8006147,-0.13837673,0.6254857,0.27833408,0.48901147,-0.36144167,-0.34188795,-0.4942641,0.5660433,-0.4971282,0.85049844,0.17168984,0.20153455,-0.04995495,0.086891726,0.3972667,0.8142177,-0.17582767,0.28243566,0.059457794,-0.3140938,0.05148828,-0.20726494,0.3828541,-0.668504,-0.071996525,0.18296525,0.29878742,-0.1208923,0.3947351,-0.49965468,-0.24152346,0.80713147,0.7758585,-0.36189014,0.86803263,0.52436197,-0.6190962,0.7783929,-0.66055894,-0.43551928,-0.32108143,-0.21782763,0.8628324,0.044893995,0.5025887,-0.82615113,0.21748975,0.48811817,0.6730884,-0.17405272,-0.803023,-0.7750613,-0.3795079,0.5190965,-0.046906173,0.8182684,-0.09650752,-0.8687428,-0.064169616,0.3529864,-0.7237067,0.6529281,-0.5531602,-0.23719162,0.33490545,-0.5031506,-0.15676998,0.12523085,0.5869522,-0.7714404,0.37155336,-0.6627929,0.57749724,-0.79905504,-0.555011,0.5241511,0.15009217,0.1573252,-0.31113595,-0.69990385,0.26714504,-0.07099092,0.41190183,0.11493623,-0.18611878,0.3789016,0.021573156,-0.49868488,0.62337315,0.38893735,-0.35727483,-0.31303224,0.78158075,-0.5020759,-0.17687164,-0.69765246,0.7451787,-0.46426177,-0.45747104,0.8240173,0.52667075,-0.2662506,-0.027009249,0.72512037,0.064934045,0.3344719,0.23239613,0.047317445,0.11017397,-0.7781087,-0.5861268,-0.31719074,-0.47991213,0.5825668
-0.2477815,0.75539255,0.20280518,-0.1530546,-0.039778277,-0.86098194,-0.5579262,0.3787374,-0.6494335,0.017921552,0.5871189,0.757421,-0.5411176,0.64397836,0.5573294,-0.5598187,-0.5266193,-0.44597244,0.8637377,-0.7919479,-0.8125769,0.09314768,0.22482231,-0.60509354,-0.6920607,-0.47394043,-0.23387887,0.68155533,0.80214596,0.59605503,0.74351406,-0.07437162,0.7904714,-0.3671826,0.024390072,0.59365594,0.4274968,-0.38243353,0.40202028,0.65635616,-0.50797826,-0.3927572,-0.8029104,0.29260492,0.27328104,0.6981472,-0.5759938,0.4689079,0.24904028,0.34829542,-0.23727812,0.86615944,0.12857236,-0.26809272,-0.7482132,0.53852046,-0.4314261,-0.8658231,0.6026977,0.5659396,0.15820548,0.30280864,-0.36064056,0.016702786,-0.505231,0.5203221,0.61220104,-0.4643902,-0.5741699,0.08806154,-0.5820041,-0.13811544,-0.7950082,0.15969418,-0.64484406,-0.38897726,0.092316866,-0.13414808,0.27911395,-0.7875149,0.6398598,0.7596234,-0.14329739,-0.23517981,0.33197755,-0.65897894,-0.121914074,0.55487925,0.09219125,0.5485285,0.39239877,-0.2029854,0.46232098,0.607355,0.38697654,-0.5045683,-0.17997392,-0.3347624,-0.18585727,-0.7616054,0.51851714,-0.61129135,-0.25617874,0.62197423,-0.17646156,-0.23167424,-0.37480718,-0.6248916,0.23528501,0.48649514,0.112921745,0.04180208,-0.7052234,-0.65913975,-0.51648235,0.30550614,0.072557256,0.8091006,0.019754544,-0.5388008,0.51263446,0.22718318,0.036283582,-0.17713554,-0.7279992,-0.6293244,-0.5993044,-0.78924847
0.6560019,-0.5871919,0.41333967,-0.1253879,0.07098846,-0.88273,0.61984384,-0.783519,0.41645432,-0.31442475,0.69887495,0.50957656,0.17826937,-0.6452206,0.7106572,-0.59893906,0.5132734,0.8307985,0.047568604,0.5043722,-0.8538016,0.7804116,-0.4821846,-0.38264468,0.79139984,-0.12514159,-0.29703194,-0.15404642,-0.76505935,0.4723283,-0.69667494,0.38934493,-0.087064356,0.23866713,-0.6543397,-0.50578535,0.6984761,-0.26334614,0.7455837,-0.14804661,0.8767236,-0.007628277,0.25662088,-0.38661462,-0.20599611,0.42657518,-0.3770217,0.22826888,0.7084558,-0.7919944,-0.5961696,0.6466577,-0.7832699,-0.75362116,-0.2090545,0.08463338,-0.32110748,-0.74339485,0.5472637,0.09538114,0.12672357,-0.40185228,0.46913153,0.38577056,0.8480162,-0.47460362,0.81212664,-0.046720505,0.7999394,-0.63236684,0.28517783,0.14709398,0.88032657,-0.46854544,-0.5489901,-0.6336579,0.39992547,0.18078133,0.42879546,0.82955056,-0.24763152,0.23935072,0.105915666,-0.75781,-0.63860303,0.41694665,-0.31225368,-0.79889286,0.35729766,-0.692583,0.3634271,0.08241981,0.62863284,-0.51957417,0.031462908,0.01519464,-0.6594336,0.37346667,-0.19349948,0.5707272,-0.8206724,-0.42469692,0.30754262,-0.2266375,0.85885906,-0.10104552,0.0327006,0.5908275,-0.80119634,-0.69824517,-0.6644831,0.22143804,0.42472684,-0.15855938,-0.2974559,-0.102948025,0.6399188,-0.6327322,0.081759915,-0.014298409,-0.23963161,0.6217628,-0.3811512,0.0929182,0.6070254,0.005458221,0.29005334,-0.32601738
-0.49962085,-0.82449436,-0.3884518,-0.09104222,-0.7276517,-0.6255046,-0.8830387,0.52210534,-0.39585584,0.6032882,0.25932515,-0.8068962,-0.31717736,0.0112481415,0.81141645,0.2826263,-0.5281191,0.78455365,0.19542344,-0.14338695,-0.79401255,0.67669874,0.07564135,0.21777824,0.7471379,-0.58392256,-0.09370364,-0.02307415,0.3173901,0.16360909,0.17439969,0.6048206,0.16774952,0.7072323,0.14943041,-0.32250357,0.5009479,0.74015,-0.5382451,-0.11109866,0.69000936,-0.32780704,0.7541532,0.35584643,-0.39854383,-0.82740176,0.74650234,-0.52304304,0.4076683,0.569663,-0.72446036,-0.78279203,0.5908462,-0.610187,0.41378862,-0.0019078702,0.6315514,-0.19990891,0.73285574,-0.46957576,0.7801434,0.17820992,-0.7052406,0.71330225,-0.0045276433,-0.60749584,-0.2601646,-0.25634706,0.7167468,-0.5857903,0.1495421,-0.31972325,0.20906724,-0.4445368,0.78833526,0.59472865,0.7886993,0.6291551,0.56081957,0.7840415,0.37982768,0.26903397,0.46329463,-0.8692857,0.58129346,-0.029966906,0.32715702,-0.73125565,-0.48743188,0.09095259,-0.016545877,0.43342942,0.7153038,0.3122204,-0.68917584,-0.33768383,-0.32218757,0.19209318,0.187065,-0.7243046,-0.7623837,0.08809194,0.3860075,0.5533845,0.16512588,0.21148004,0.2765563,-0.18729806,-0.09907156,-0.80321586,0.2929678,-0.33551168,0.080879554,-0.40056345,-0.28354767,-0.35703912,0.55634314,-0.47369686,-0.028453544,0.6610825,-0.65465343,0.8025134,-0.36081475,0.45845115,-0.30092123,0.53694224,-0.5384379,-0.03160663
-0.0592871,-0.13295658,-0.6536782,0.18781625,-0.16168773,-0.11067696,0.08347392,-0.21738261,0.18918939,0.4818151,0.7701517,0.7069949,0.2332019,-0.14472112,-0.25595134,0.3475603,0.052201822,-0.33363563,-0.55155176,0.2826867,-0.23484416,-0.7665667,-0.85012543,-0.45030978,-0.732739,0.22486605,0.78143126,0.16358055,0.11819273,0.2251076,-0.2347967,0.44203573,0.6061915,-0.21464474,0.32329917,-0.3047669,-0.59245414,-0.8829939,-0.59831536,-0.10145433,0.24162173,-0.18177554,0.6221592,-0.6754947,-0.12372747,-0.3138075,-0.65381414,-0.44367775,-0.2532953,0.46988523,-0.6500211,0.5784505,0.05111046,0.6251583,-0.023889467,-0.76922446,-0.7866032,-0.5572109,-0.685325,-0.1594621,0.054563805,0.49364084,0.09117976,-0.5424502,-0.31248125,-0.3878647,-0.5172188,-0.63114274,-0.12036055,0.44633842,0.699847,-0.6764405,-0.7037213,0.041057542,0.14546402,-0.36927792,-0.075524524,-0.3040461,0.8347269,0.6655977,0.19011557,0.32594615,0.7603002,-0.19572765,0.2434893,0.58308864,-0.045069605,-0.7715633,0.13025135,-0.3583506,-0.84539056,-0.50908244,0.032869577,0.5357856,0.36372626,0.768156,0.5062843,-0.60899264,0.21050803,-0.17712206,-0.42647153,-0.36602885,0.60149395,-0.66739154,-0.052370504,0.45316285,0.7224906,-0.2434989,0.29358357,-0.55751914,-0.42791936,0.3806818,0.1751779,0.70505714,-0.19215569,-0.6386881,0.8705717,0.46234524,0.46611315,0.5495853,-0.46890515,-0.6218834,0.5240425,-0.15639082,-0.73768383,-0.21279514,-0.12345359,-0.7955146
0.23977228,-0.4248737,0.34693643,-0.43070263,-0.13701834,-0.49736565,0.4500506,0.5446271,0.6682954,-0.28364512,0.88113135,-0.3496587,0.13679296,0.66957587,0.5372519,-0.40870357,0.14690243,0.28835,0.677995,-0.07938482,-0.19321054,0.08606911,0.5089346,-0.000615865,0.68221366,0.32745546,0.6937525,0.80032116,0.31647846,0.06530799,0.54735965,0.029860064,-0.5421896,-0.46626565,-0.6731314,0.16949639,-0.7035155,0.84560746,0.15085518,-0.012652278,0.8405972,0.3743083,-0.58528376,0.4658953,-0.82174057,0.6905452,0.28606564,0.13986833,0.85574365,0.09417154,-0.7114397,-0.6226456,-0.37738234,-0.79672205,-0.22229694,0.045739785,0.82729197,0.85360384,-0.6625337,0.42311823,0.43933296,0.6206622,0.44323617,0.6719565,-0.8542943,-0.04888244,-0.826335,-0.23944438,-0.45830566,-0.7015897,-0.7933814,-0.72546494,0.8059492,0.52931243,0.6368744,0.022098422,-0.8802939,-0.48107064,-0.1504673,-0.70105684,0.6575308,0.35115087,0.024366155,0.08831501,-0.01924321,-0.62906945,-0.19551836,0.55340225,0.13113536,0.71877754,-0.11413105,0.12246281,0.30589446,-0.13079643,-0.5461496,-0.47192362,-0.49108413,0.08722566,-0.42080086,-0.62492037,-0.68549365,-0.53729475,0.575766,0.13661996,0.33543086,0.07686898,0.3475897,0.50717944,0.631328,-0.6414126,-0.6361463,0.098660514,-0.11913985,-0.23185559,-0.022261217,0.35303974,-0.8104285,-0.61064327,0.05337268,0.7336313,-0.71131706,0.4310537,0.3145147,0.8789783,0.5132658,0.18666819,0.41080958,-0.47812176
0.0149564445,0.82206494,0.6774578,-0.5487505,0.28541452,0.6177408,0.8826625,0.317181,0.642365,0.08521974,0.32790816,-0.19856021,-0.67346144,0.3415759,-0.24310373,-0.7243509,0.4905433,0.60711616,0.0061605126,-0.13903067,0.48676348,-0.7574565,0.27429765,0.10078646,0.70013785,-0.81142926,-0.8741201,-0.4407726,0.29910898,0.046717897,-0.23587294,0.7791454,-0.4004705,0.36889917,-0.5783248,-0.534291,0.37170804,-0.56201065,-0.868518,-0.3607531,-0.21493733,-0.013378859,0.038663074,0.7792669,0.16193375,-0.7337346,-0.49423754,-0.31047243,-0.6836745,-0.0630445,0.68782365,-0.41194338,0.82829005,-0.7439563,0.6705981,0.21141112,0.6090062,0.30181372,-0.21947749,0.40128893,-0.4298319,-0.24015918,0.0438831,0.49138123,0.34210473,0.15554748,-0.46699372,-0.25037155,0.32602638,0.430009,-0.054879487,0.5843633,-0.3668764,0.40995395,-0.4632281,-0.87330395,0.25976956,-0.4573542,0.17592892,-0.06245397,0.056955963,-0.80722183,-0.60356474,0.4398119,0.34957647,0.80683506,0.79080576,-0.19099273,0.6551608,-0.8039522,-0.7558824,0.019768849,0.40200973,0.65294707,-0.6505991,-0.24957344,-0.7865772,-0.54162705,0.26203042,0.6288832,-0.8408085,0.26948318,-0.88304967,-0.46647248,-0.7941692,-0.12396611,-0.44000983,0.24928883,0.69228107,-0.19842967,-0.509108,-0.40420735,0.15670955,0.4985615,-0.22472836,-0.8634752,-0.43085995,-0.6799188,-0.08514412,-0.026098192,0.27541608,-0.5427972,-0.05998969,-0.30985224,-0.54887104,-0.03863573,-0.48551935,0.53874546
0.54720336,-0.5631213,-0.642525,-0.7789587,-0.6379643,0.22191867,-0.5235921,-0.13963684,-0.5167976,-0.49880898,0.448462,-0.5922874,-0.06328024,0.2964814,-0.79685515,-0.83951735,0.1364594,0.5906304,-0.6686521,-0.0828591,0.52225715,-0.57160115,0.4633003,0.8229927,0.14626727,-0.50953066,0.8184975,-0.036772788,0.016166195,0.57963663,0.17603487,-0.0053147227,0.16502932,0.293647,-0.75455016,0.069628805,-0.7476476,0.45795566,-0.43846714,-0.84499705,0.058237016,0.7793262,0.49575245,-0.20948552,-0.52225417,0.30364826,0.87671214,-0.23220666,-0.6421634,-0.10327481,0.8832645,0.5738061,-0.32634354,0.21927185,-0.58200586,-0.5354995,0.31746194,0.68827236,0.08938111,0.8675038,-0.16533263,0.29768974,-0.21226525,0.12674578,0.14785409,0.6596472,0.3823704,0.21640144,-0.46291324,-0.3066279,0.30740416,-0.45363128,-0.20011723,0.77783054,0.3185588,0.5047017,0.08989103,-0.64658016,-0.34026447,0.2004093,0.5460819,0.27381128,0.28432876,0.38728648,-0.051490664,-0.38612622,-0.4357064,0.73661333,-0.049408153,0.8366162,0.15906207,-0.2980389,0.8307507,-0.4583146,-0.26606935,0.8505767,-0.017544776,0.087335855,-0.4159933,-0.27799785,0.0692223,0.58101004,-0.5437496,0.36315894,0.39870715,0.39586627,-0.54040617,0.21387272,0.33167624,0.16958341,-0.8171706,-0.6652968,0.56142753,0.5385623,0.14717102,0.4883302,0.6837323,0.39556468,-0.82809955,-0.19796722,-0.48187998,0.287973,0.562604,0.63236886,-0.06113127,-0.6694473,-0.29899323,-0.42891616
-0.6812508,-0.5701123,-0.7260942,-0.17119825,0.48179752,0.31937957,0.28084183,-0.17200932,0.6000384,-0.42122906,0.23489162,-0.51553553,-0.8472529,-0.17763898,0.46441203,-0.69128716,0.37539577,0.7121884,-0.7901219,-0.4985301,-0.6323614,0.49201572,0.25483757,0.52021897,-0.39506286,-0.63462234,-0.7970517,0.7544317,-0.5981736,0.37827128,0.7668731,-0.60306334,-0.019733608,-0.5850389,-0.8110578,0.8112469,-0.2886233,-0.26932743,0.015977249,0.7857237,0.5126386,-0.024823993,-0.811748,-0.12262143,-0.4864508,-0.3957004,0.4108491,-0.5784471,-0.2287738,0.0512705,0.8356043,-0.1270739,0.4335854,-0.43642122,0.4840923,0.54812735,0.6601808,0.3836062,-0.8111202,0.44625157,-0.82733935,0.7915416,0.3865189,0.36826575,-0.86380094,0.6972352,0.3611046,-0.78728867,-0.57431316,-0.6821379,-0.7849652,-0.5473994,0.21134928,-0.4395795,-0.8384473,-0.2665982,-0.7039415,0.25542343,-0.3483302,0.25417075,-0.26889604,-0.564568,-0.7497901,-0.7022336,-0.3899395,0.25778657,0.84615165,0.27865922,-0.017860904,0.5148583,0.63549525,0.24345219,-0.7689505,0.7169091,-0.5487375,0.5108509,-0.7806406,-0.08234732,0.5001324,0.103280246,0.6133563,-0.46418843,0.6298507,-0.64404243,-0.87739825,0.14122166,-0.48325196,0.26620686,-0.15242092,-0.7749689,-0.019874126,-0.35883668,-0.527581,0.00052027404,-0.015860274,-0.6902525,-0.075780675,-0.8392583,0.30901724,0.3059942,0.50019526,0.13886884,0.054661483,-0.044277906,-0.59327453,0.11333741,-0.7855706,-0.43725318
0.2578263,0.11548385,-0.49090204,-0.6807148,-0.0819315,-0.70081145,0.03672026,0.42860323,-0.8822011,0.0096826255,0.106955245,-0.49687678,0.38511223,-0.5551606,-0.490664,-0.50443435,-0.40814334,-0.16518973,0.15719637,0.10230459,-0.53373873,0.2730392,-0.5375094,-0.2131331,0.41186965,-0.8712777,0.50217754,-0.3572056,0.16370445,0.6811414,-0.7898114,-0.81806576,-0.449248,-0.33740595,-0.18938199,-0.6778687,0.47296965,0.26208007,0.6481037,0.38827604,0.8469122,0.5314624,-0.16983181,-0.82721925,0.38088417,-0.51693606,0.7126791,0.2641588,-0.7704827,-0.37487167,0.09814106,-0.18342137,0.63510144,0.07140078,0.6717131,0.39849722,-0.22368446,0.3395155,-0.64665526,-0.24437293,0.58380747,-0.37527058,-0.15979491,0.8172762,-0.4698326,-0.61529857,-0.8423289,0.5169093,-0.3001566,0.06336734,-0.29236153,0.4200446,0.03214374,0.5816131,-0.58518857,-0.015526488,-0.8651152,0.057986975,-0.8234113,-0.37798262,0.52451736,0.04959628,-0.765735,-0.76761234,-0.44209883,0.15304014,-0.6976526,0.7844513,0.5361932,-0.50911057,-0.08591212,-0.8125674,0.31577474,-0.3340084,-0.48280892,-0.096158534,-0.81461585,0.40502882,0.23467965,0.5679765,-0.88366485,-0.8798587,0.71619606,-0.620649,0.14722094,-0.28019458,0.16440317,0.23452863,0.6773344,0.4705947,-0.3010164,0.8475021,0.119979754,0.42715913,-0.17197028,-0.7151917,-0.36962005,0.4165957,-0.5087994,-0.7654196,0.30199444,-0.56775177,-0.81319517,0.52392447,0.24184391,-0.469885,-0.6979519,-0.18054307
-0.30936587,0.15603133,0.03526397,-0.6774514,0.6848917,-0.44838145,0.5510882,0.78278506,0.37530786,0.2373895,-0.70372844,0.049419254,-0.5968767,-0.30417925,0.6965578,0.09325698,0.68690455,-0.17127983,-0.2817422,-0.72144383,-0.6677068,-0.166559,-0.09992972,0.601461,0.2639334,-0.20878598,-0.13994336,-0.36779436,0.39818293,-0.18871158,-0.03740661,-0.19538,-0.6480166,-0.5379082,0.75202996,-0.19698016,0.23043543,-0.5221004,-0.58782625,-0.43972936,-0.012874678,-0.66664404,0.5160072,0.27958736,-0.2476766,-0.056212917,0.038082972,-0.49310708,0.22286601,-0.3322103,0.2031482,-0.7235542,-0.6101531,0.5006266,0.86989915,0.49063736,-0.43319997,-0.22392713,-0.39799345,-0.62962174,0.6301192,-0.3905131,-0.5716289,0.34956998,-0.31734732,-0.4796856,-0.23838088,-0.7817107,0.5214911,0.48655027,-0.8329499,0.012413263,-0.7676965,-0.76460576,0.8759997,0.87983435,-0.3471717,-0.42466742,0.47815508,0.434067,0.7319925,0.66671515,0.05058773,-0.13623074,0.38645035,0.04444614,-0.26718184,0.42630637,0.850172,0.8573977,0.695538,0.37701392,0.23185164,0.106202066,0.08174099,-0.21146193,0.78542477,0.2605632,-0.7162565,-0.47489342,-0.44315115,-0.29090807,0.3939461,0.7260475,0.460869,-0.31089824,0.60710245,-0.09664975,0.47304815,0.18045165,0.75197154,-0.8240907,0.30571118,0.120878816,-0.25337577,0.39929396,0.78179157,-0.6855304,-0.43229663,0.5281115,-0.519595,0.61163163,0.06175168,0.4627394,0.8666236,0.34703672,-0.8307059,0.5739849
-0.5373462,-0.55449975,-0.3702358,0.430718,-0.82822585,0.41832274,-0.17842703,0.5709472,-0.3170565,-0.4401073,-0.7752332,-0.31966025,0.62540627,-0.36365795,0.022648647,0.29547483,-0.2505139,0.83110994,0.4434129,0.11831336,-0.43092906,0.28798246,0.75241333,0.32338262,-0.703814,-0.83103067,0.1048705,-0.5550762,0.57918304,-0.036025867,-0.6864398,0.31146282,0.52047753,0.61961716,0.27995175,-0.42215514,-0.58985186,-0.13779469,-0.11630863,-0.54980564,-0.8482876,0.7275724,-0.52284765,0.6501285,-0.38793656,-0.55806005,0.05123496,-0.38374072,0.066003576,0.6643299,-0.6384387,-0.7172189,0.525791,-0.69758004,-0.8643245,0.61776525,-0.6588474,-0.4836104,-0.8156145,-0.86520493,0.18897846,0.84610456,-0.78426594,0.12949452,0.8208961,-0.42577904,0.15649714,-0.17300196,-0.7435859,0.41287518,0.26788905,-0.03755197,-0.73191357,0.3444245,-0.7680925,0.3731262,-0.09869203,0.44206464,-0.034323037,-0.49361017,-0.2524726,0.060789734,0.58018243,0.0009620935,0.6530472,0.49054658,-0.1684419,-0.48991358,-0.26030052,-0.10617383,0.4212389,-0.078948215,-0.18150434,-0.3688296,-0.7915584,0.80500567,-0.8643408,-0.61847275,0.081790686,-0.22458583,0.6146181,-0.7891503,-0.29627442,-0.030499026,-0.00699766,0.6070054,-0.41801655,-0.4273485,-0.75617254,0.8332462,-0.74778825,-0.006773323,0.5455112,0.41571295,0.19651927,-0.56449485,0.7777617,0.0076106936,-0.6038128,0.8195346,0.026307032,-0.85927516,-0.7950537,-0.32427984,0.087703094,-0.7708174,0.31145954,0.5491107
-0.82561064,-0.78839654,0.26075596,0.22465348,-0.63063574,0.8644218,-0.51511085,-0.3690061,-0.42954773,0.09902947,0.47218525,-0.42060816,0.21985956,0.7656413,0.6298279,-0.57028466,-0.8567873,-0.33760458,0.09269163,0.35706705,-0.41181093,0.39191896,0.2235584,0.70594543,0.67351365,-0.0398916,0.3995856,-0.30532673,0.7357892,-0.5233767,0.4698884,0.06506875,-0.11859894,-0.8612262,-0.4953512,-0.75381565,0.52668935,-0.54471266,-0.014163777,0.80772793,0.028108805,-0.075028166,0.6082391,-0.76859593,0.553774,-0.47798392,0.078815,-0.47323135,-0.6888821,0.5452638,-0.5770701,-0.41090268,0.6549906,0.44758356,-0.15132464,0.47025657,0.6353212,0.01605913,0.81622666,-0.55296034,0.8816355,-0.46023864,0.64532286,0.2836845,0.83504415,-0.3082533,-0.25119334,0.36458194,-0.13049677,-0.69022465,0.54919785,0.17989308,0.71232146,-0.5069775,0.8558508,0.7035347,0.46157354,-0.23795456,-0.79430115,-0.751431,0.13872392,-0.6691133,0.8689765,0.76324636,-0.8260927,0.458493,0.028558,0.8307251,0.8663466,0.3757664,0.3065399,-0.850553,-0.032682866,-0.677843,-0.69915926,0.3398113,0.5512104,-0.24837814,-0.21327339,0.7073375,-0.7097759,0.16247451,0.6562329,0.8580803,-0.7694619,-0.7297757,0.7760466,-0.5728509,-0.6742078,-0.16367957,0.8553324,0.81502074,0.14517136,-0.054668114,0.18209912,0.119117126,0.60250604,-0.3240569,0.11154108,0.17101198,0.43434376,0.37989593,0.39879805,0.6099873,-0.35678422,-0.80925536,-0.041631162,-0.6152501
-0.035191327,0.66546404,-0.86324394,-0.85682243,-0.31933004,-0.20154074,-0.30700725,0.4659077,0.46052194,0.3114082,0.7215875,-0.55877256,-0.2787212,-0.15263237,0.75190103,0.31123215,0.05616218,0.5773946,-0.8137276,-0.8731479,0.7955607,-0.641485,0.28769398,-0.68737507,-0.32336012,0.3868335,-0.4060827,-0.34516257,-0.15563205,-0.41710544,0.24891563,-0.16065136,0.34233302,-0.678218,-0.23009345,0.054334253,0.7303355,0.41429782,-0.37839347,-0.36640015,0.12133762,0.47122097,-0.4413209,0.11693299,0.6638322,-0.8595458,0.81435835,-0.08452073,-0.8311406,0.30746853,0.7293894,0.27181506,-0.1769191,0.16665399,-0.4450445,-0.1362335,-0.68346035,0.42370087,-0.023712367,0.8124775,0.32505184,-0.13870426,0.20234227,0.41643387,-0.513026,-0.20135097,-0.24019897,-0.0005275756,0.855296,0.39124584,-0.74013835,0.22996023,0.25611156,0.8285388,0.742437,-0.8146595,-0.5287612,-0.26138157,-0.6346041,0.4251004,-0.12732036,0.31807616,0.10942839,-0.06681971,0.86040235,-0.05834423,0.4870423,0.67552173,-0.45428842,-0.33469296,0.46381706,-0.7979609,-0.65128875,0.29294997,-0.10906309,0.8387915,0.11350244,-0.11362888,-0.08594014,0.68836415,-0.4876151,0.72626954,0.05592279,-0.17933063,0.08262202,0.689184,0.5790288,0.18005714,0.2685833,-0.21477588,-0.07785693,0.61002696,-0.076974034,0.084235,-0.840311,-0.43702406,0.41346306,0.26377314,0.33163583,0.36520267,0.2577474,0.015332699,0.010174438,0.0696595,-0.37031138,-0.6670594,-0.5355423,0.78166837
0.39424652,0.2845279,0.7962031,-0.2458781,0.861009,-0.2919489,-0.8810924,0.61998224,-0.7280856,0.76787716,-0.34702018,-0.49159217,0.53620213,-0.41070953,0.31890795,0.5630464,-0.82655,-0.16826868,-0.35460418,-0.53583026,-0.51053,-0.27971432,0.13655283,0.56200063,-0.80045533,0.035498887,-0.41593152,0.108537376,0.084012896,0.5516728,-0.09243108,-0.14131293,0.48515207,-0.32478496,-0.5957613,0.40397203,0.36705768,0.5035978,0.27365178,-0.41038364,0.39603674,0.74759984,0.77334857,0.507547,-0.6115634,0.5441185,-0.09306468,-0.084076524,-0.6467389,-0.06992549,0.05327575,0.8577826,-0.54229075,0.19472212,0.07888816,-0.2233094,0.2708754,0.16878411,0.0904116,-0.690109,0.42123222,0.18557444,0.6111767,-0.47060612,-0.061803907,0.56321824,-0.059920773,0.18162265,0.67202324,0.17436475,-0.06142944,-0.5098208,0.7796746,-0.028181672,0.8620632,-0.7528639,0.22012554,-0.7342354,-0.43390498,0.68138784,0.57898706,-0.71467054,-0.44751185,-0.13224363,-0.8782222,-0.76684403,-0.5318141,-0.14453113,0.095982775,0.53478265,-0.10963604,0.85282737,0.34512913,0.53920454,-0.53291225,0.65150297,0.3526458,0.04605964,-0.71046257,-0.42837572,-0.64071345,0.8557733,-0.4969735,-0.27138674,-0.80215037,-0.7867379,-0.8373604,0.8336621,-0.054452047,0.6534857,0.17207049,0.8035972,0.65199906,0.30005598,-0.53449696,0.71149135,0.8230657,0.022338182,0.7047618,0.865792,-0.8063257,-0.39766723,-0.09186067,0.70295537,-0.76000524,-0.22466399,-0.83256376,-0.3488563
-0.7668158,-0.31131864,0.40691966,-0.39707989,0.6358024,0.52762264,-0.6035931,0.096162036,-0.2856198,0.49308056,-0.5515847,0.009707138,-0.12170568,0.16148984,-0.58655,-0.43122503,-0.30655766,-0.060715675,-0.8348423,0.7918621,0.36390126,-0.6290375,-0.55120325,-0.21814115,-0.8749136,0.21414742,-0.79910517,0.039843917,0.30363053,-0.3964376,-0.6980124,0.14761947,-0.7515378,-0.85309976,-0.47819263,0.015156716,-0.16638108,-0.2256754,-0.88081664,-0.016790777,-0.49027827,-0.7861934,-0.10730885,-0.14956027,0.35873765,-0.33824235,0.407669,-0.20964041,0.7595607,0.52242213,-0.165729,0.17386176,-0.8358955,-0.7486698,-0.28011397,0.1284644,-0.32214478,0.38247997,-0.740522,0.034275502,-0.43674618,0.7960161,-0.4666415,0.8214986,0.82687145,0.43619698,0.11066079,0.6681681,-0.31847265,0.07471457,-0.7175371,-0.53653157,-0.651173,0.19433893,-0.27717602,0.48989064,-0.0097459555,-0.3643061,0.55032796,-0.12412056,-0.528763,0.3497313,0.09390004,-0.43914622,-0.518729,-0.60081005,0.23852326,0.7779846,0.3770315,-0.78402424,0.37386978,-0.66843814,-0.26717362,0.3547811,0.42410886,-0.7687682,0.71236366,-0.160136,0.4014268,-0.1635573,0.11902414,0.3181324,-0.7933903,0.12005024,-0.6210314,-0.33824408,0.65794414,-0.83543575,0.3844083,0.758548,-0.43422252,0.47018343,-0.33914998,0.43921435,-0.62931216,0.24593025,-0.06157875,-0.29173225,0.39442623,-0.15966564,-0.7521257,0.022097826,0.62655276,-0.56312597,-0.5559785,-0.0781367,-0.5988202,-0.75188094
-0.8052566,-0.17339431,-0.53354335,-0.2501837,-0.80897355,-0.0852932,-0.8576851,-0.051790252,-0.8115863,-0.12854293,0.7107732,0.3476484,0.0038096309,0.3688476,0.51655716,0.70868784,0.8720919,-0.8019544,-0.6405953,0.8072042,0.4835636,-0.60012424,-0.36542192,-0.028503686,0.63854927,-0.8024565,0.11987999,-0.32976937,-0.29896158,-0.000577718,0.79320157,0.6035339,-0.7107457,-0.14817029,0.042090714,0.37528312,-0.62397355,0.43886715,-0.6009344,-0.34508246,-0.6683111,-0.41269633,-0.038538948,0.5743081,-0.83514106,0.20555228,-0.43320036,0.010954887,0.7093536,0.15800938,0.38164353,0.52113974,-0.46088505,-0.5649632,-0.8220314,0.22880957,-0.2221927,0.34617358,-0.2965447,-0.060082674,0.7767039,0.43037468,-0.15645571,0.55490935,0.5438333,-0.6977611,0.87214404,0.70807123,0.25237226,0.096537545,0.36683118,0.86485916,-0.21494843,0.7772865,-0.13192564,-0.0044353306,0.58585787,-0.5569949,0.11106886,0.45194215,0.10798909,-0.6801386,0.3597247,-0.6443706,0.82096523,-0.32503915,0.30317134,0.11033706,0.27191356,-0.16461484,-0.60828066,-0.5884232,0.7746031,-0.034150854,-0.81598157,0.68456626,-0.26093787,0.55251056,0.71378714,-0.65572083,0.80665493,0.2514302,0.3710904,-0.42021272,-0.42019385,0.298504,-0.6707318,-0.28943723,0.5176548,-0.39560318,-0.47191173,-0.27170146,0.15684299,-0.055438057,-0.28122497,0.3965155,-0.3963952,0.87595916,0.43682748,-0.20851292,-0.4615417,-0.7508365,-0.43300462,0.2999772,0.51631564,0.30707425,0.4922492,0.8521178
-0.79648304,0.72666293,0.13086818,-0.7769215,0.22399545,0.5780166,-0.3392774,0.5990166,0.12640402,0.4905895,-0.6131692,-0.82395256,-0.06413318,-0.29683328,0.16272202,-0.8686307,0.66664124,-0.65358466,0.664463,0.4596091,-0.7911662,-0.472281,-0.19862764,-0.46238273,-0.52423334,0.38952893,-0.39189267,0.65637416,0.82315916,0.20522207,-0.82570505,-0.572794,0.7288549,0.2039706,0.8440968,0.062613636,-0.08791916,0.20088397,0.066937506,0.59323245,-0.7884971,-0.6278067,-0.36748868,-0.6309894,0.049337223,-0.77909166,0.5247074,-0.24295926,0.083663166,0.583545,-0.19586556,0.68857217,0.7431104,-0.8569275,0.24597406,-0.0057459623,-0.4101238,-0.73214006,-0.0009776652,0.28172314,0.43834215,-0.28956044,-0.78745973,-0.7572386,-0.16604327,-0.45418844,0.4926989,-0.41277665,-0.39729917,0.4853853,0.31715328,0.20546712,0.27639925,0.03127791,0.48195666,0.36846542,-0.38516068,0.35755372,0.13773873,-0.8236715,0.104408935,-0.5591845,0.37623024,0.4584115,-0.38035792,0.008185431,0.29423818,-0.2246894,0.25091535,-0.1123599,0.54434323,0.87765837,-0.66826594,0.7566022,0.37527376,0.21954685,-0.8202353,-0.09252958,0.51582927,-0.08191511,0.75278765,-0.7465362,-0.5983412,0.4936502,0.8061791,0.20035356,-0.48865393,-0.46483096,0.51259184,0.66615814,-0.38038972,0.81461763,-0.73097,0.26276565,0.42064643,0.22609606,0.14018357,0.119140744,-0.59396183,-0.06042607,-0.14910035,0.68776035,-0.4140168,-0.14655188,0.20912401,0.16468912,-0.19472383,0.3471215
-0.87039405,0.7230819,-0.6586093,-0.16502924,0.725391,0.1676397,-0.19414596,-0.13205893,-0.8258749,0.43651438,0.88283026,-0.4570003,-0.4166743,0.3368865,-0.13943516,-0.65767896,-0.4594103,-0.5548567,0.08173317,-0.060498044,0.64753747,0.56814873,0.26025927,-0.76740897,-0.656991,0.27338868,0.39618844,0.68375057,-0.084595755,-0.80327696,-0.37762058,0.16355328,0.037019998,0.3852346,-0.39130715,0.3232929,-0.17855786,0.37681305,0.657342,0.5085755,0.66032654,0.3991511,0.12858763,-0.59873694,-0.40519252,-0.6152363,-0.84023386,0.015937164,-0.64248645,-0.042743236,-0.49947175,0.5246478,0.2524886,0.63193446,-0.66496384,-0.19026078,0.38817233,0.26481032,0.4107172,0.2587133,0.40558064,0.07957071,-0.87270606,0.44818246,-0.8766815,-0.7038038,0.19117102,-0.47018337,-0.15016124,0.014833808,0.61384416,0.78379416,-0.648287,0.21031857,0.64223623,-0.25793985,0.6543454,-0.3481439,-0.011333376,-0.64613056,0.71955746,0.56663924,0.79902655,-0.7403797,-0.25484383,-0.54161596,-0.45741257,-0.60424083,0.4159907,0.22018328,0.14536344,-0.26437327,-0.11551134,-0.24536103,-0.33001232,-0.2701416,0.7072777,-0.62447584,-0.36367768,-0.73183787,-0.6533799,0.6936649,0.058135465,-0.22700727,-0.81561273,0.66524065,0.6603766,0.7090781,-0.62815136,0.17503977,0.04765533,0.09517588,0.8198693,0.3246596,-0.7068502,0.10912344,-0.33118698,-0.30126452,-0.43063426,-0.665181,0.48466748,-0.50874555,-0.8729327,0.61990297,-0.8063198,0.46595937,0.32199562,0.65581626
0.17944545,-0.04368387,-0.40510422,-0.57507837,-0.7125212,-0.8596307,-0.50650024,-0.75304323,-0.5498339,-0.7130598,-0.3163552,-0.39610747,-0.4731732,-0.4907523,-0.19564271,0.507038,0.7297001,-0.5354202,0.83032465,-0.4291551,-0.65389186,0.8741694,-0.5788737,-0.25892872,0.85274076,-0.27548465,-0.15592732,0.4486596,0.6268647,-0.57474643,0.42408967,-0.26072398,0.41466033,0.5184967,-0.08206226,-0.30580837,0.5974511,-0.48801368,-0.3703295,-0.5092407,0.35224563,0.5384066,-0.3366722,0.7229089,0.7535297,0.18888734,-0.33851388,-0.5600037,0.10450594,0.54507697,0.4187954,-0.46686885,0.48552597,-0.7062917,-0.055665523,0.08562669,-0.7752993,-0.53802973,-0.6137331,0.18499516,-0.7513081,0.39761776,0.67088896,-0.73857343,-0.7078249,0.44579452,0.6263501,0.43187463,0.1102709,-0.8021567,0.38140035,-0.12758464,-0.084553435,-0.6842622,-0.8810807,-0.619964,-0.46178806,-0.4612792,0.016587302,0.73171085,-0.055218786,0.10337144,-0.71507984,0.3902862,0.11935569,0.26039815,0.2727797,0.07151395,-0.03421977,0.27776843,-0.36017075,-0.55849564,0.4777282,0.61755633,-0.8032881,0.19198492,0.6418938,0.4830634,-0.7061707,0.17431997,-0.2984702,0.59706205,0.44638848,0.023279488,-0.62503344,-0.26498175,-0.22589773,-0.35978973,0.11513509,0.6457096,-0.79991186,-0.872435,-0.07095039,-0.51371443,0.6403389,0.82780427,0.39650208,0.3320329,0.1563102,-0.011364669,0.4704433,-0.32651183,0.39168453,-0.08344516,0.4463979,-0.24102896,-0.42038172,-0.101862326
-0.023282692,0.22201024,-0.4683152,0.4021179,0.2493731,0.6911025,-0.87758684,-0.7947478,-0.55131555,-0.4140027,-0.8357764,-0.37828577,-0.41654077,0.86316085,-0.03503993,-0.8690602,0.30614913,-0.29397434,-0.7887396,0.50207967,0.62118775,-0.2627074,-0.69651574,-0.41828123,0.053372458,0.1526174,0.5901387,0.7482893,-0.3776175,-0.2934174,-0.83505756,-0.112559274,0.18030137,0.27958483,0.60078627,-0.5988676,0.48272377,0.635398,0.80404854,-0.3248677,0.16692132,0.33781135,-0.67818046,-0.5061301,0.46819365,0.030541271,-0.82369745,0.16391635,-0.758927,-0.5022801,-0.6158979,0.1281336,0.84893906,-0.045356527,0.63081825,-0.2910654,0.60483253,-0.32774684,-0.18951438,-0.31423342,-0.5270359,-0.679841,-0.09305157,-0.118532404,0.12153193,-0.6298201,0.045325235,0.53288007,0.60868627,-0.1858285,0.35231584,0.5149179,0.49820924,-0.45769823,-0.350219,0.05386159,-0.40374205,0.11048637,-0.34003,-0.34916207,-0.27042332,-0.6570178,-0.7308887,-0.13991639,0.033059046,0.55157846,-0.1650735,-0.5692997,-0.79395354,-0.84481597,-0.19714318,-0.7608249,-0.69863844,0.13823166,0.83540225,-0.6860185,-0.7764071,-0.796033,-0.76335317,0.63011146,0.29613778,-0.37639052,-0.34130275,0.23751631,-0.6923315,0.8615371,-0.866571,0.6331796,-0.107978135,-0.6191764,-0.77336156,0.009571686,0.4969656,-0.49898434,-0.78697616,-0.066882074,-0.33665237,0.25280744,-0.03932491,0.58028287,0.46012348,0.07519618,0.0048089772,-0.8589312,0.6602969,-0.27114606,0.28328085,0.3768217
-0.74399424,0.319427,-0.27115133,-0.5435624,-0.47691044,0.17514952,0.47551596,0.4942394,0.49154586,-0.6905543,-0.26780117,0.4703582,-0.8269266,-0.55561733,-0.17946236,-0.4188699,-0.7585479,-0.3459449,-0.41013035,-0.84713244,-0.4074728,-0.29279226,-0.7729754,0.039087757,-0.49314424,-0.7027281,-0.03180936,-0.49219403,-0.629117,-0.7750045,-0.38677424,0.31763747,-0.11068091,-0.4756062,-0.289768,-0.036233515,0.3164734,-0.22087291,0.43993825,0.5934886,0.46469653,-0.74604124,-0.5488448,-0.22011667,-0.083626956,0.60133034,-0.22182494,0.8348865,-0.76797426,-0.7152846,-0.68370974,0.756864,-0.14863409,0.33053643,-0.72421885,0.08531712,0.79275036,0.40804243,0.1876162,0.46518928,-0.16882941,0.43793058,-0.5312072,0.7186911,-0.28412494,-0.16781628,-0.19005783,0.58370376,0.2655241,0.5730879,0.18892221,-0.16636275,0.6587941,0.34938455,0.13035871,-0.11830181,0.7032213,-0.88246584,-0.17803378,0.8748936,0.7569944,0.36628163,0.85473305,0.30227923,-0.7800783,0.15879951,-0.8497033,-0.8494737,-0.07256657,-0.81480056,0.052095428,-0.26375118,-0.65420336,-0.7683228,-0.31793338,-0.33995226,-0.6334001,0.20268306,-0.21927454,-0.23472548,0.5662074,0.5769629,0.83466077,0.85634255,0.064000934,-0.33250955,0.08447684,-0.39988118,0.12944527,0.8522857,-0.702759,-0.8046943,0.40521914,-0.7597084,0.8122546,-0.13822235,-0.6983311,-0.23660861,-0.09127766,-0.60304797,-0.027785078,-0.7547713,-0.121234134,0.19534886,-0.27809167,0.6006473,0.22297189,-0.24509236
-0.41044414,0.12961179,0.81858927,-0.40902093,-0.044194534,0.12014739,-0.75525767,-0.1599972,-0.5835878,0.6413963,-0.52574265,0.53050274,0.8733106,0.46277052,-0.8531892,0.3767658,0.302391,0.34919024,0.4520688,0.3371024,0.67168766,-0.19805141,0.10528535,-0.51929235,0.49734956,0.50461805,0.3760088,-0.7703305,-0.76292086,0.35455102,0.19479111,0.40104842,-0.22452891,0.64022744,0.43912446,0.21794356,-0.8674742,0.5840579,0.4662525,-0.13219863,-0.40104592,-0.42875135,-0.25533676,-0.60978514,0.6631031,-0.71691287,-0.0295306,0.47259593,-0.8687756,0.46941972,0.39358997,0.43209904,-0.7054651,-0.21872379,-0.4187191,-0.32750058,-0.18829621,-0.0976222,-0.30610487,0.5029171,-0.14678366,0.8829195,0.8153006,0.65493757,0.8067954,0.06833047,-0.021894872,-0.42301592,-0.30896324,-0.536249,-0.7917475,-0.11675425,-0.10496169,-0.6709984,-0.7658751,-0.24030678,0.63080525,-0.52783036,-0.21817066,-0.76074356,-0.80583096,-0.35652366,-0.38218814,-0.6444157,0.34077674,0.05822599,-0.039488226,-0.5134343,-0.44911206,0.0007972121,-0.4012872,0.3340822,0.36917007,-0.5252983,-0.028479025,0.5745583,-0.16295761,-0.0351429,-0.089499876,0.0403215,-0.40214974,0.6075513,-0.17138287,0.78800315,-0.29150128,0.4908439,-0.419125,0.3347604,0.15938789,-0.329538,-0.5414462,-0.0949838,-0.65485096,0.5258068,-0.5045118,0.7353913,0.14867932,0.79103583,0.05243838,-0.66936207,0.25476977,0.10818347,-0.4374921,-0.67814296,-0.27245313,0.169212,0.62138253,-0.18021561
0.37825012,-0.72975814,0.2591222,0.46961868,-0.24175256,-0.7106319,-0.099325255,-0.77108026,-0.09084992,-0.78131014,-0.861012,-0.39455897,-0.71170557,-0.21037817,0.5508151,-0.31617984,0.73569125,-0.5678127,0.8478621,0.8488723,0.7749357,-0.18187046,-0.30302626,-0.14672309,-0.3705828,0.62925154,-0.7781244,0.5460549,-0.21555185,-0.05056344,-0.10669857,-0.29777095,-0.3887036,-0.86225814,-0.24147592,0.6250236,-0.48544192,-0.82673544,0.17188802,0.64934975,-0.54202205,0.0777106,0.81442153,0.19639179,-0.5474696,0.1808656,2.6747584e-05,0.27488822,0.6587582,0.44316912,0.347561,0.30566856,-0.5161046,-0.7862228,-0.37433738,-0.30814573,0.67919636,-0.65367985,-0.066651255,0.87121344,-0.17412655,-0.8488781,-0.14622681,0.47860867,-0.102417246,-0.347788,-0.423208,-0.13785541,0.040896237,-0.6425727,-0.5115024,-0.11231452,-0.3601661,-0.015433431,-0.5324436,0.48677748,-0.04512772,0.086490065,0.65578854,0.71384484,-0.197085,-0.5072844,-0.5976751,-0.07802628,-0.72938347,-0.72523427,0.5793371,0.6159676,-0.33666712,-0.12991808,0.8803203,-0.6438947,0.44022554,-0.002016127,0.6873145,0.12567997,0.2063284,0.7242835,-0.5751994,0.7950956,0.7724642,-0.81709653,0.016128868,-0.044046268,-0.16794473,-0.35840574,-0.23786888,0.50639206,0.75940466,-0.5504114,-0.5610887,0.15304185,0.024841577,0.46231037,-0.69783217,-0.87023824,-0.1906985,-0.7416097,-0.8436939,-0.25298113,-0.5944261,0.61916804,-0.47448605,-0.14411397,0.4075759,-0.8047457,-0.7052951,0.7054392
-0.19134976,-0.5947157,-0.85265493,0.8362957,0.46521032,-0.73875177,0.45033628,0.16558208,0.81859,-0.810774,0.1965294,-0.47295612,0.08026421,-0.38951275,0.34972823,-0.65280807,0.5547402,0.17027192,0.20643108,-0.5634946,-0.72517085,0.7096425,0.62884533,-0.0050368905,0.584183,0.60224736,0.04832253,0.106935725,0.3555047,0.728162,-0.2802325,0.13220847,-0.7817633,0.33034796,-0.098323,0.85718805,0.2792567,-0.74808365,-0.82060957,-0.6780028,-0.81244147,-0.8796006,-0.25213227,0.63240343,-0.2688465,-0.061633512,0.39414012,0.6993925,0.5589875,-0.72605574,0.00034697354,-0.553098,-0.25544262,0.30125087,-0.5717947,-0.075245574,0.1722683,0.5550418,0.43757862,-0.855622,-0.74875057,0.115082785,0.8080589,0.31852394,0.3317669,0.05618006,-0.10293029,-0.75858945,0.5448761,0.5993915,0.14357544,0.019686371,0.6118945,0.46118772,0.52932674,-0.68757546,-0.038712844,-0.7743319,-0.6301801,-0.38012528,0.8580453,-0.5571819,-0.64148545,0.54082817,0.36718732,-0.7495853,0.044695288,0.020479187,0.09479806,0.76534593,0.0049772114,0.82664335,0.023735315,0.62393165,0.06763093,-0.36197442,0.04910454,0.2141042,0.026605725,0.05339533,0.5725097,-0.76303476,-0.2712902,-0.7241804,-0.28106004,-0.37422207,0.41205996,0.34424567,0.85966164,0.52025044,0.16831279,-0.0026529282,0.39755487,-0.20182438,0.03126487,0.62938595,-0.15610687,0.37437463,0.031831414,0.21015503,-0.8220053,-0.5695802,0.62991375,0.30891603,0.56885815,0.54526246,-0.6504217,0.35324907
0.30349874,0.6955535,-0.738013,-0.311771,-0.82792455,-0.8367944,0.5335761,0.27416006,0.41520768,-0.8754128,-0.44551852,0.73483086,-0.5788884,-0.33939824,-0.46156424,-0.82723176,0.8442318,0.22027336,-0.6573398,0.77891046,-0.28772756,-0.042516142,-0.43199402,0.2822953,-0.4191348,0.6228683,0.87193257,-0.7239685,-0.022738352,0.5000741,0.30092216,-0.6668898,-0.18495016,0.03296852,-0.48399425,-0.51876765,0.8542087,0.5196381,0.15945964,-0.13040118,-0.8507646,-0.09189449,0.47164595,-0.7225995,-0.38821566,-0.07463977,-0.5220925,0.68768585,-0.76262826,0.33496678,0.65649694,0.1432854,0.7313398,0.05186051,0.118379146,0.83605224,-0.13517603,0.6945657,-0.54009134,-0.48490262,0.3005165,-0.017725602,-0.28963104,0.81890786,-0.2732024,0.8266372,0.19525073,-0.7673169,-0.44952986,0.67889637,-0.6825989,-0.2270513,-0.121058375,-0.779795,-0.6257274,0.28138304,0.22675939,0.088180155,0.54574883,-0.37552473,-0.37696707,-0.6384203,-0.5016949,-0.51381814,-0.27737853,-0.7283584,-0.78013635,0.38508916,0.76572365,0.62587535,-0.46313798,-0.4859148,0.5078682,0.6204522,-0.569451,0.3211315,-0.2704266,-0.5239081,-0.69907933,0.56997126,-0.31276092,-0.5109143,-0.5496259,0.23956753,-0.26319262,0.4204827,-0.6269027,-0.28997508,0.24212785,0.10659054,-0.86967343,0.12513153,-0.61184573,0.77867573,0.28952652,0.1199121,-0.042586625,-0.057889298,0.76997095,0.37426746,-0.06115511,-0.23640871,-0.14646068,-0.706305,-0.36355036,-0.363419,0.8117207,0.22836596
0.7973766,0.12084611,0.46369827,-0.7900201,-0.42514947,-0.58784693,-0.20762466,0.64284885,-0.861313,0.63139194,0.42202032,0.28650278,0.10192007,0.085056946,0.022844747,-0.50065386,-0.3384357,-0.75272036,-0.49017662,0.17743126,0.49214667,0.0038764626,0.052409694,-0.563903,0.036752596,-0.3361895,0.24238102,0.27942434,0.25805628,0.31108892,0.043849796,0.6306028,-0.18687993,0.767309,-0.13234533,-0.27235568,-0.2135744,0.61734134,-0.88356465,0.15707277,-0.81182635,0.48388994,0.39372736,-0.4551278,-0.4216042,-0.60331076,0.39598012,0.5184925,0.7364494,-0.77885103,-0.20479858,-0.21956958,-0.53385323,-0.036082044,-0.06991319,0.06765686,0.44018263,-0.7996459,0.27425134,-0.50392604,-0.55338705,0.4088152,0.78661704,-0.5641305,-0.34798408,-0.6827429,-0.49617672,-0.18877365,0.07391885,0.6582043,0.49929297,0.39086902,0.5322879,-0.12972273,0.8283224,0.60603464,-0.52606,0.4086781,0.44697428,-0.21199472,-0.3859329,-0.39995757,-0.5347908,0.15717424,-0.78157556,0.7251459,-0.74238783,-0.19487403,-0.4227881,-0.2725056,0.3471082,-0.37355098,0.09502292,0.3353625,0.12081139,-0.48760834,-0.72237766,-0.47931072,-0.8277917,0.5767927,0.24836369,0.7858742,0.16110495,-0.7287094,-0.15860237,0.43549663,-0.0707975,-0.6428448,0.41162366,0.20926893,0.07875107,-0.5900972,0.3679284,0.46927774,-0.19824982,0.78143454,0.2198521,0.8105553,0.5540333,-0.3442207,-0.27895933,-0.03685996,0.48765385,0.39460576,0.84942377,0.47882313,0.88017964,0.5028399
0.5419528,-0.35376844,-0.16494788,-0.73501956,0.14807492,0.22275999,-0.063571036,0.10185152,-0.80568516,-0.7455409,0.7323491,-0.32462472,0.7281119,0.40524745,0.40702635,-0.836926,0.7978859,0.5637627,0.52533036,0.48026776,-0.08976057,-0.759778,-0.077599436,-0.66457224,-0.7259112,-0.4520234,-0.38716748,0.024843141,0.84680045,-0.16953938,0.37884945,-0.070758834,-0.041885227,0.7375792,0.032201335,0.54770565,0.2947183,-0.66761166,-0.42113572,-0.23521155,0.7585334,-0.4427877,0.122791156,0.73976284,-0.56194097,0.2801554,-0.4736531,-0.7887702,-0.08418128,-0.68233836,0.18972896,-0.27893555,0.33783555,0.56142026,-0.29193854,-0.40590882,0.7579989,0.40101266,-0.7987399,-0.052353665,-0.60263735,-0.67077905,0.62318736,0.7835389,-0.33621532,0.15369967,0.508078,-0.6311324,-0.85322493,0.72819316,-0.6262893,-0.75688666,0.11486955,0.31594658,0.55067545,0.3461606,0.5285611,0.5350351,0.71855193,-0.79799783,-0.0064269453,-0.04143864,-0.2065678,0.53783363,0.6461748,-0.6408129,-0.54429555,0.32183617,0.43115044,0.7577533,0.05792059,0.78450733,-0.6108875,-0.36734784,0.0848677,0.15783355,0.80216134,0.13543382,-0.83389705,0.2231463,0.10896996,0.051516816,-0.4977997,-0.69446445,0.11462994,-0.6432373,0.4965443,0.49533075,-0.012118146,0.15332349,-0.62294984,0.16410694,-0.09648971,-0.41256127,0.55853015,-0.5246586,0.21508053,0.3992247,-0.5964312,-0.42452306,0.7394633,-0.45414376,-0.7311324,0.7217557,0.054871812,0.43898427,-0.006994158,-0.1627139
0.064650625,-0.3964789,-0.7953019,0.41298693,-0.73780596,-0.77152073,0.4567855,-0.50886536,-0.20667173,-0.1505582,-0.85898226,0.5342793,0.077921376,0.061266944,-0.27500355,0.28802013,0.4691335,0.22874199,0.17161772,-0.6047285,-0.56049514,-0.039201006,-0.099972636,0.7043744,-0.45065022,-0.24907261,0.253084,0.8056041,0.30066884,-0.6423737,0.8182811,-0.88242984,0.66901034,-0.7245261,0.74286854,0.55964416,0.8630798,0.8786852,-0.19319884,0.29882893,0.53579265,-0.50133574,0.3250347,0.22794418,-0.7684532,-0.72368973,0.32753265,0.3223306,0.41452175,-0.5535904,0.7216563,-0.38037634,-0.5273566,0.49059832,-0.045416206,0.2644165,-0.37053022,0.38404977,-0.7355553,-0.13687454,0.53570545,0.023906454,-0.25931966,0.2998466,0.2310814,0.8674506,-0.112100914,-0.16268462,0.30983135,-0.4179101,-0.7378116,0.06706789,-0.80112153,0.7414239,-0.45449612,0.7704421,-0.51241505,0.87360835,0.37408882,-0.41494846,-0.6472838,-0.2518258,-0.17094351,0.13332419,-0.009927452,0.15464857,-0.77493,-0.20964295,-0.5586467,-0.06580591,0.3122052,-0.5206716,0.16230248,-0.8664943,0.002064705,0.52074796,0.10770962,0.61054045,-0.69905865,0.83164936,-0.6361696,0.68687207,-0.46055895,-0.2132088,0.33763766,-0.27164772,0.54081315,0.84770703,-0.6630286,-0.63074553,0.40633357,0.29600525,0.06493166,-0.25463492,0.5456888,0.026172325,0.22819556,0.49790853,-0.31425637,0.23319401,-0.6323372,-0.7049562,0.13838403,0.52623713,0.21545544,0.43347114,-0.07532261,0.11344433
-0.52719605,0.31293437,0.5284325,-0.7622175,-0.7739434,0.31881875,-0.819503,0.3634671,-0.27574944,0.8016012,0.15871383,0.77693665,0.6154951,-0.1480154,-0.6551662,-0.36085075,0.106524676,0.33097476,-0.507669,0.57945156,0.37517214,0.79302186,0.024988055,-0.1430726,0.29206365,0.57069963,-0.3206177,-0.41833758,0.6039863,0.18820636,0.14486797,0.8105526,0.41333532,0.092343315,-0.6299484,0.44144624,-0.47394985,-0.041332915,-0.5162791,0.54094666,0.46098357,-0.48343676,0.45340562,0.072480366,-0.17050736,-0.58323514,0.41012233,-0.6845938,-0.24353735,0.14754839,0.57371116,0.32652915,0.58302456,-0.5250681,-0.6739081,0.36028758,-0.25100613,-0.035758093,-0.44680697,0.12868889,0.36989892,-0.5481086,-0.83749956,-0.1829952,-0.2972549,-0.6682013,0.60202354,-0.021010935,0.7755346,0.31717485,0.7120755,-0.77362406,0.21247268,0.4734338,0.34524047,0.42548114,-0.38866413,-0.4393869,0.010093451,-0.67576504,0.61908567,-0.3724754,-0.5971381,-0.49227867,-0.69240916,0.86634135,0.4637555,-0.69646055,0.038976222,-0.18673562,0.5986717,-0.2061981,-0.21480039,-0.33805028,0.5301506,0.25863045,0.4203785,-0.32791185,-0.87673557,0.645886,0.51449066,0.46673065,0.51972336,0.08553527,-0.7075995,0.48527664,0.4773066,0.22638053,-0.46271676,0.7241931,0.6244842,-0.69668746,0.34333318,-0.8448285,-0.34828448,0.26680773,0.250228,-0.25997522,0.21129027,-0.7224066,0.44873202,-0.13556637,0.34580404,-0.68177396,0.5054515,-0.46563384,0.05246386,-0.6890846
-0.83431804,0.49787796,0.60508454,-0.11325151,0.18103115,0.0041250885,0.44093883,0.8291038,-0.70930594,0.20512775,-0.8051035,0.44254088,-0.54745775,-0.6913005,-0.6727263,0.6519202,-0.44024155,-0.7348796,-0.30512685,0.2000913,-0.47719643,0.366553,-0.4272548,-0.17185248,0.8491883,-0.5207882,-0.26579446,-0.4497648,0.56127256,0.5741062,0.04167691,0.6985923,-0.3961674,-0.56376106,-0.28255677,0.81609344,0.23066498,-0.5574902,-0.8156609,0.3847996,0.065097585,0.6114855,0.05488865,0.5912023,-0.45770583,-0.8475094,-0.4779698,0.36371782,0.4118464,0.085935965,0.24261042,-0.16449302,-0.5729174,0.28865203,-0.008664578,0.23675412,0.845877,0.525066,0.86301124,0.82171625,-0.20160839,0.61548465,-0.63410014,0.017452165,0.78589416,0.1610925,0.8523744,-0.6453197,-0.6263074,-0.32202688,0.15788034,-0.60788715,-0.4581046,-0.50845754,0.32997116,-0.04408203,0.69560593,-0.72195923,-0.56296694,-0.7942092,-0.81213206,-0.5029375,0.6951236,0.48152363,-0.6381213,-0.8127183,-0.74473405,0.75144327,0.7017913,0.8300567,-0.3012368,-0.06775513,0.70161664,0.63761955,0.18141471,0.43821537,-0.2652711,0.7363493,-0.2785657,0.04321821,-0.3577769,-0.50588286,-0.23466334,0.2145791,-0.40909493,0.8370519,0.27213597,-0.104996115,0.5763426,0.14655523,0.10867208,-0.02482988,-0.8230767,0.11724442,0.6889633,0.4386074,0.7464721,0.2172219,-0.5620261,-0.5551805,-0.23208983,-0.28402424,0.1524701,0.23603775,0.51236933,0.5675415,-0.30294058,-0.5942487
-0.47224396,0.72024816,0.3462153,0.53113556,-0.458018,0.7835143,0.24889357,0.86407,-0.42386147,0.8568097,-0.37175682,-0.4930808,-0.8148456,0.7113913,0.045172572,-0.39079967,-0.016157702,0.7545847,0.15801214,-0.16058072,-0.6108842,-0.54565436,0.0017634034,-0.18503264,-0.8617164,-0.14724255,0.6058181,0.7687234,-0.32586986,-0.717707,0.8471424,-0.3195655,0.055481866,0.326078,0.3827334,0.28734744,-0.5518708,-0.24103016,-0.7625293,-0.022283345,0.30093446,0.41070426,-0.18905357,0.03198564,0.881317,-0.01673311,-0.15892029,-0.7459199,-0.2713826,0.8752095,0.17366111,0.48693275,0.51345384,-0.6978858,0.2646394,-0.82158476,0.8564752,-0.41618612,0.7895065,-0.79354584,0.31906828,-0.4332068,0.70431805,0.6191934,-0.21023557,0.84047294,-0.769082,0.14380082,-0.053863227,-0.11203319,-0.7983352,0.82207465,0.8300138,-0.1337333,0.112119764,-0.03794357,0.19930542,-0.589646,-0.5902345,-0.009516776,0.18958203,-0.25987685,0.5846695,-0.48784536,-0.79697096,-0.33894286,0.7769627,-0.12711018,0.72493786,0.5416759,0.05601093,-0.6009809,-0.2979028,-0.75115854,0.6493593,0.56664354,0.48084682,-0.44806617,-0.72492653,0.7363,-0.3527141,-0.3279575,0.71013665,-0.5957694,0.5711224,-0.07945791,-0.11046447,-0.47583604,0.4191751,-0.73412484,0.12674883,0.7912081,0.50417864,0.55501485,-0.70402396,0.4071859,0.878622,0.13091087,-0.3730804,0.28944558,-0.81953174,0.6348381,-0.10275476,0.22497468,0.4140123,-0.76764816,0.232177,-0.5896944
0.56515104,0.53656125,0.53792185,0.57206625,-0.42092,-0.21154322,0.37940508,-0.84850836,-0.8731725,-0.39889538,-0.19548446,-0.2701168,-0.3702037,-0.4782245,-0.5759928,0.18159665,0.11256337,0.29631996,-0.21858186,0.32861,-0.8349646,-0.24518594,0.603553,-0.8627672,0.04879214,-0.49765027,-0.49101797,-0.57707036,-0.7203236,-0.24077095,-0.5877569,0.12367189,0.6366592,-0.19559078,0.6555655,0.86854017,-0.65136087,-0.1317928,0.6553713,0.048835948,0.7460862,-0.43582928,0.36790794,0.29044703,0.3903123,0.78358984,0.7896068,0.51965064,-0.8389132,-0.238996,-0.10738045,-0.56536084,0.22382602,-0.66502243,0.16148575,0.779301,-0.28402162,0.7633645,0.06255321,-0.08474983,-0.6291028,-0.010136515,-0.73924696,-0.8668841,-0.7898343,0.7188094,0.4693643,0.8637347,0.78979874,0.2115716,-0.39305982,0.45479113,-0.15254073,-0.7642603,0.08807652,-0.7035606,0.4646876,0.11971526,-0.15574217,-0.18774427,0.8669751,-0.36092377,0.86412436,-0.68613183,0.3611417,0.55896485,0.6530761,0.8731154,0.5246011,-0.09588815,-0.5064946,-0.26848608,-0.65335304,-0.56243587,0.25157237,-0.18653013,0.2976268,0.43490505,0.095190555,0.12797438,-0.15918873,0.3708517,0.34455204,0.77678555,-0.38246125,-0.03561884,0.2981434,-0.5855644,0.44310683,0.104573816,-0.84291685,-0.30585453,-0.50584686,-0.67761844,0.56746954,0.26840448,-0.20438112,-0.005978197,-0.09572655,-0.5381352,-0.05159162,0.3605798,0.68244404,0.8746115,-0.84153855,0.08213356,0.74949867,-0.06379239
0.7814216,-0.04235357,-0.31648636,-0.7487195,-0.6794666,-0.8452668,-0.86458445,0.28131112,0.24674334,0.25753707,0.096495524,-0.803326,-0.031311512,0.11941224,-0.49813002,-0.40736374,-0.08856557,0.8793994,-0.6563233,0.69133645,0.63494956,0.7900954,-0.72598326,0.6390696,-0.08003831,-0.27971715,-0.12966558,0.17355949,0.17124109,-0.7344652,-0.24320267,-0.15446208,-0.7823987,0.09414993,-0.12844592,0.25961316,0.6541819,-0.041406676,0.43393606,0.3174913,-0.87954754,0.7810587,0.5414293,-0.389836,-0.24658307,-0.7635295,0.81722236,-0.81468284,0.57564056,0.54084456,-0.5392365,-0.121282265,-0.715714,-0.42294258,0.26689047,0.3573928,-0.35089517,-0.061153248,-0.8173701,-0.08476697,-0.66224486,-0.25958148,-0.26116,-0.6000146,0.28526926,0.09000637,0.8052855,-0.42272878,-0.14838085,0.70337677,-0.14443621,-0.66091967,-0.22049047,0.2544035,-0.56555307,0.11336394,-0.87893987,-0.11129506,-0.70812416,-0.6437164,0.27438843,0.5549797,0.3751043,-0.1330325,0.7691541,-0.87665653,0.8415502,-0.5833782,0.6565443,0.5059519,-0.076085255,0.35710916,0.0058033317,-0.24015434,0.6733877,0.47478026,-0.80336416,-0.6751622,-0.07821642,-0.042405427,0.47299737,0.4071424,-0.4653443,-0.38746154,0.4285041,0.10065749,-0.5314709,0.85783935,-0.31963515,0.5439434,0.6089213,-0.51671636,0.7519778,0.41160917,0.74075973,0.5516208,-0.0059595704,-0.2433797,-0.5018207,0.76547915,-0.0064375997,0.7706279,0.6105635,-0.25712645,-0.008508638,-0.15709363,0.44904435,-0.3889644
0.23398034,-0.25147444,0.1624003,0.8416545,-0.36992237,-0.76788473,0.7383347,-0.037448406,0.53253317,-0.33587214,0.574084,-0.78328705,0.56128883,0.7059174,0.5047428,-0.3708953,-0.021944717,-0.61915416,-0.27911973,0.32522345,0.09728663,-0.21310866,-0.3670692,0.024842098,-0.6093898,0.36591792,-0.23119621,0.075026676,0.12376949,0.769768,-0.4606901,0.43207788,0.59549594,-0.68385065,-0.31134087,0.4992851,0.23306437,-0.64326334,0.4802004,-0.20327143,0.75607365,0.85803235,-0.055151284,-0.5606714,-0.36166134,-0.6265192,-0.8172519,-0.3346367,-0.6301472,-0.48916265,0.36199665,-0.8427967,-0.357355,0.56260073,0.41328156,0.57977194,0.6199763,0.028008148,-0.5642884,-0.7385808,-0.78065276,0.51318145,0.6212094,-0.33163193,0.022290498,0.6704382,0.5760459,0.42959893,-0.18379427,0.14103651,-0.32000214,0.051786453,0.79035306,-0.015641302,-0.8234724,0.13213977,-0.3959232,0.5668401,0.66906506,0.69706255,-0.1587563,-0.23503117,0.10259293,0.53211844,-0.50069475,-0.10260284,-0.097046494,-0.848922,-0.5068249,-0.3369708,-0.17398328,-0.6876338,0.70959055,0.35232037,0.60285515,0.21083362,-0.529787,-0.35696906,0.24491407,0.3166893,-0.48372644,-0.3634608,0.37207478,0.57349885,-0.44931364,-0.29580954,-0.667523,0.12293294,-0.51207715,-0.6481952,0.14540464,-0.63347906,-0.012720749,-0.25388515,0.027206764,-0.6533858,-0.41439432,0.67882127,-0.7693184,0.7582989,0.35360163,0.31779146,-0.15094765,-0.75156933,-0.65471923,0.8814331,-0.6385359,-0.7632822
-0.6956618,-0.74491405,0.7919636,-0.7243902,0.74740106,0.56974703,-0.75344676,0.4102736,-0.81013036,0.5405856,-0.48076564,-0.09906471,-0.17874837,-0.7746115,-0.19412257,-0.87834466,0.20588532,-0.7199515,0.008014888,-0.17934762,-0.46006364,-0.65300393,-0.0979694,-0.83471483,-0.23037843,-0.31369627,-0.35578525,-0.7903036,-0.3920877,0.0036780536,0.5403233,0.36417818,0.15356734,0.32344198,-0.74951476,0.32597995,0.0129288435,-0.8511034,-0.4536125,-0.86921823,0.15583627,-0.2935764,-0.63714397,0.17481372,-0.14960758,0.2634061,-0.18902831,-0.30714527,-0.7463724,0.8370232,-0.550863,0.7427201,0.3428994,-0.7146302,-0.8521772,0.34386054,-0.16182534,0.49525553,-0.5672282,-0.45203,-0.71622884,-0.12249179,-0.08510515,0.2675362,-0.14012583,0.5068406,-0.55561125,-0.72440714,0.15716895,-0.76596206,0.27647018,0.44287378,-0.23129888,0.51370436,-0.08371964,0.10990314,-0.34230196,-0.39117637,0.21187335,0.7875096,-0.26160243,0.84459686,-0.18030852,0.0056689978,0.64387316,-0.14262915,-0.7505045,-0.38177964,0.73318714,0.5223409,0.58043337,0.17461807,-0.83597887,0.07857956,0.24495356,-0.04283607,-0.30626523,-0.82537127,-0.48779443,0.20834908,-0.044703707,0.76114184,0.0512632,0.66430026,0.36783314,0.21936052,-0.38628188,0.16872719,0.1525595,-0.23358159,0.023976713,0.20283304,0.008307993,-0.5841942,0.6647506,0.61800057,0.19409835,0.25266165,0.41507298,-0.5184058,-0.008910075,0.8815003,0.08921325,0.5522781,-0.5766916,-0.6838751,-0.021435544,-0.20318173
-0.48226014,0.1181446,-0.25149405,0.1450824,0.70054793,0.075932816,-0.010758936,-0.03942877,-0.2183333,0.23882732,0.4220847,-0.48465437,-0.12217432,0.66249603,-0.14705479,-0.62666005,-0.8443726,-0.37348115,-0.6941087,0.42786515,-0.089190304,0.86000645,0.53829575,0.84312403,0.7844555,0.49764013,0.036123767,0.1168599,-0.26137263,0.08406967,0.31979257,0.85658556,0.19872345,-0.12717463,0.3640513,0.6175258,-0.008940846,0.66216314,0.38605535,-0.6571156,-0.4513467,0.140642,-0.1495871,-0.826081,-0.30543628,0.6975234,-0.040178373,0.8650545,-0.46256566,-0.81536806,-0.5641495,0.13401896,-0.19822992,0.3368553,-0.31759843,-0.5083325,-0.39510107,-0.38630727,-0.33220822,-0.5592246,-0.13936654,0.28983378,-0.21781027,-0.32527864,-0.55302954,0.17949939,0.2149073,0.2621857,-0.86808556,0.32749557,-0.25050372,-0.1822263,-0.022431165,-0.38609746,-0.077269524,0.39284998,-0.802697,0.73673004,0.44031686,-0.824778,-0.49327943,0.043414384,-0.85332745,-0.024564415,0.11773512,0.24141796,-0.6527346,-0.75457966,-0.6494303,-0.07800095,-0.15990712,0.7700845,-0.17125338,-0.031398907,0.59626794,0.56419796,-0.24889432,0.22360891,-0.21742329,-0.48240945,-0.6053338,0.4035691,0.32717234,0.67152506,0.6828224,-0.819203,0.38580084,-0.71118903,-0.84777826,-0.032230094,-0.22290677,0.80526227,-0.024683923,0.545105,-0.878849,0.390391,-0.102076605,-0.019393563,0.45318013,0.5568438,0.057585016,-0.7159609,-0.68362534,0.47500676,-0.38552386,0.87066406,0.8714727,0.4291073
-0.3630051,-0.31903678,0.72483486,0.6421661,-0.32809195,0.49458688,-0.35777617,0.7685775,-0.056950375,-0.2892279,0.56577617,-0.48959982,0.39820945,0.38107538,-0.1813066,0.09950653,0.24801649,0.34525537,-0.8747297,-0.6725318,0.06833702,0.23114555,0.24113663,-0.8452139,-0.059395954,-0.18142775,0.21802947,0.6568629,-0.40429193,-0.7124898,-0.36775696,0.1811064,-0.2758585,-0.3204742,0.30614132,-0.6617286,-0.7584609,0.7513908,0.36797976,0.336105,-0.29938656,0.2362848,-0.6904373,0.6457352,0.6804835,0.29773837,-0.1532653,0.36901897,0.62777394,0.54239774,0.25629416,-0.73783934,-0.6214089,0.46795553,-0.21268271,0.2996172,-0.51625454,-0.75617623,0.051073655,0.20513743,0.14272988,0.4155848,-0.8179637,0.019956306,-0.4688446,-0.2678367,-0.020709187,-0.6360483,-0.7036294,0.4146319,0.17089725,0.77677584,-0.05413361,0.21249063,0.84345365,-0.21208674,0.3939467,0.7302261,0.38928205,-0.7343645,-0.18024057,-0.26472688,0.55528915,0.039498582,-0.7342815,-0.13328373,-0.83692616,-0.67950356,0.2836071,0.41644388,-0.47482607,-0.24458922,-0.4599827,-0.032014772,-0.39531296,-0.686923,0.5705414,0.146133,-0.3541349,-0.08177951,0.39547408,0.29882833,-0.87578243,0.7203097,0.66523814,-0.20923108,-0.18968873,-0.07516287,0.88016593,0.40256584,-0.23777694,0.32248378,0.5610564,-0.534482,0.7501591,-0.18756837,0.8385969,-0.7453073,0.6613434,0.34729838,-0.6950097,-0.8459865,0.26973486,0.7791891,0.37141317,0.74833506,0.57080483,-0.14284313
0.5989162,-0.7457575,-0.7741407,-0.44947988,0.31385705,0.2744707,-0.8152806,-0.6903565,0.63627774,0.74033475,-0.7767376,0.121935606,0.3578598,0.718689,-0.83536196,0.53208923,-0.6440126,-0.87755835,0.03465101,0.09354897,-0.4254301,0.09269029,-0.2532122,0.06852046,-0.43509004,0.29117787,-0.86127585,0.051427484,0.05337417,0.27630016,-0.25621414,-0.40116054,0.54449314,0.79267555,0.72014636,0.14692873,-0.36823246,-0.87655574,0.114602745,0.7655168,-0.59514165,-0.7019144,0.62041974,-0.14485344,-0.5780875,-0.65209985,-0.32549238,-0.57480466,-0.04363656,0.5162572,-0.14213793,0.4890645,0.40161675,0.31921506,0.04437886,-0.39719927,-0.41003856,-0.8530108,-0.82054186,0.79383457,-0.78738594,0.57160145,0.86226696,-0.28824228,0.2096121,0.6425989,-0.103107765,-0.66132843,0.1374922,0.26280075,-0.8201837,-0.6815735,-0.7782444,-0.4104373,-0.35117123,0.41156316,0.65478885,-0.51013154,-0.6675473,0.03252864,0.77633584,-0.28787392,-0.059627593,0.12280956,-0.1383765,0.17267384,-0.021570548,-0.15028827,-0.6950593,-0.3233521,0.83170867,-0.12969904,0.25155455,0.17204322,-0.4526779,-0.078444555,0.44256932,0.206412,-0.35618606,-0.81271344,0.77582145,0.2011472,0.8513718,-0.12462139,-0.50347084,0.08452043,-0.49792454,-0.59532917,-0.3258045,0.35373783,-0.8257444,-0.4031736,0.18693283,0.18637367,0.40562326,0.49558306,-0.6909883,-0.51530033,-0.6223823,-0.27030882,0.2951554,-0.23475297,0.29550806,-0.2484779,-0.19613765,0.44159347,-0.13906382,-0.43863076
0.46439224,0.23445152,0.69403386,-0.85828656,-0.13442598,0.28330648,-0.8609675,0.28529346,0.47668046,-0.8345526,0.854092,-0.07919185,-0.8090785,-0.715788,0.12650236,-0.701823,-0.17094612,0.6442896,0.20183757,-0.10422617,-0.27171683,0.2205851,0.67696327,0.34332967,0.6828565,0.41809744,-0.033643693,0.28875476,-0.45657173,0.41894352,0.8289037,-0.7309457,0.80926484,-0.45696414,-0.40036494,-0.19811518,-0.7819803,0.576135,0.09447381,-0.42664108,0.14176399,0.24479598,0.58751965,0.19568615,-0.048079118,-0.71960336,-0.7036707,-0.6774879,0.8691067,-0.13730317,0.65182424,-0.2624358,-0.75664055,-0.59052896,-0.5605347,0.23546875,-0.24100281,0.23084268,-0.1608716,-0.48445696,-0.10689624,-0.7888659,-0.7677356,-0.7674215,-0.112274066,0.16006604,0.2602361,0.7936662,0.8612192,0.6268012,0.19275278,0.848993,0.4489336,-0.21176986,0.34480506,0.72524154,-0.61999327,-0.10782756,-0.7748122,0.81112885,0.5299664,0.35096183,0.28587186,-0.7320258,-0.25539094,-0.109858066,0.1926624,0.3311085,0.47782576,-0.5411167,-0.87664735,-0.36763683,-0.7279818,0.7561911,0.19629136,0.4574651,0.44498837,-0.57540834,-0.66787434,-0.8201941,0.10827422,-0.4109266,-0.093394816,0.8218833,0.29582715,0.883547,-0.47502637,-0.1439514,-0.37374792,-0.24217412,-0.172754,0.41105992,0.20319283,-0.6655992,-0.48436946,0.37830764,-0.36730883,-0.15484765,-0.27013347,0.7504293,-0.5266175,-0.5614784,-0.13024785,0.3226378,0.86282885,-0.39841595,0.866757,0.10589197
