0,1,2,3,4,5,6,7,8,9,10,11,12,13,14,15,16,17,18,19,20,21,22,23,24,25,26,27,28,29,30,31,32,33,34,35,36,37,38,39,40,41,42,43,44,45,46,47,48,49,50,51,52,53,54,55,56,57,58,59,60,61,62,63,64,65,66,67,68,69,70,71,72,73,74,75,76,77,78,79,80,81,82,83,84,85,86,87,88,89,90,91,92,93,94,95,96,97,98,99,100,101,102,103,104,105,106,107,108,109,110,111,112,113,114,115,116,117,118,119,120,121,122,123,124,125,126,127
-0.35164565,0.1898375,-0.8627759,0.06969363,-0.3826708,0.08466319,-0.6914304,-0.7863473,-0.20555234,-0.34704098,-0.82043505,-0.108855195,0.21344718,0.74103117,-0.4507943,0.2068857,0.023772467,-0.8347991,-0.42431825,-0.7324904,-0.46420118,-0.63533634,0.7761252,-0.8165614,-0.055588786,0.30892697,-0.784468,0.27239528,0.043141875,-0.19961633,0.10398313,-0.5263951,0.7196086,-0.59719074,-0.2305696,-0.39654225,0.4194651,0.8731843,0.07242807,0.045116186,0.87576646,-0.5492032,0.88558686,-0.108410366,0.7377522,-0.59836096,0.46718207,-0.7658842,0.4424183,-0.79989946,0.60173607,0.52206796,-0.17488746,-0.29644102,0.6652552,-0.7708086,0.61738616,0.8703629,-0.8703316,-0.5737284,0.04546008,0.62149495,-0.41742042,-0.047287047,-0.2606199,0.21556954,-0.08510152,-0.5266677,0.20575564,0.18672618,-0.4589842,-0.011221816,-0.40266746,0.44553545,0.2864048,0.5258247,-0.15909623,-0.87294924,0.16896848,0.07979668,-0.15946457,-0.11123999,0.14796731,0.6579053,0.48765582,-0.37093055,-0.26243544,-0.6781826,0.45978498,-0.6113736,-0.010427517,-0.74719435,-0.67613775,-0.24758743,0.80541384,0.17425534,-0.17473322,-0.28476933,-0.5814045,-0.18818505,-0.26524618,-0.24417652,0.19612333,0.4746638,-0.8411231,0.4818845,0.5384427,0.42462426,-0.8547496,0.39769024,0.7265121,0.5127979,-0.87626594,0.19078171,0.45722193,-0.29511523,-0.5119149,-0.76311266,-0.27811202,-0.24324368,-0.8737197,-0.3093478,0.8641847,-0.68504965,0.6061488,0.4264241,-0.66537946,-0.033572447
0.49791333,-0.0735005,0.61892414,-0.3037401,-0.15895344,-0.75757706,0.46944347,0.2507065,0.3046379,-0.7871019,-0.793584,0.3825511,-0.6759647,-0.6996141,0.16371234,-0.5304946,-0.1299066,0.8049631,0.18250646,-0.5944669,0.55331933,-0.761151,-0.6167167,0.34579346,0.73444414,-0.4087428,0.7240789,-0.08524978,-0.25873864,-0.3255627,0.81800604,0.38147485,0.70729154,-0.06176563,-0.77351356,-0.7578016,-0.6103573,0.7687799,0.63953114,-0.34930772,-0.18052281,0.7422932,-0.38114884,0.20828697,-0.12768912,-0.06542956,0.15040138,-0.108805,0.08535048,0.40314648,0.1746957,0.47819623,-0.30824667,0.60821825,-0.104179144,-0.8149673,-0.543013,-0.32184747,-0.12515852,0.7395936,-0.3234326,0.6557692,-0.08434235,-0.85041535,-0.5559459,-0.28185222,0.72505707,-0.203457,0.6356299,-0.23205416,-0.6758997,0.5162478,-0.33518365,-0.8804752,-0.30118668,-0.65787643,-0.010014369,-0.123806275,0.41008404,-0.15340829,0.5657446,0.2582553,-0.81026375,0.6188906,-0.538326,-0.39464417,0.35136503,-0.65384036,0.48875687,-0.33743045,0.8151932,0.17976321,0.68080515,-0.71874475,0.6516518,0.8277478,-0.84218645,-0.6372185,0.5396903,0.8468396,-0.18313305,0.4956065,0.04957617,0.1252863,-0.37667608,0.6105515,-0.3785909,-0.8309385,-0.3071288,0.73500973,-0.67611784,0.2668672,0.30981433,0.6292889,-0.11653224,-0.07031156,-0.6614062,-0.020110741,0.28618562,-0.1145423,0.38906562,-0.26275018,-0.81444556,0.6629871,-0.7462132,0.31407824,0.76036304,-0.61417496
0.64074296,0.6358871,0.56165636,-0.47247502,-0.07613421,-0.50266236,-0.07826405,0.43561357,0.7570607,-0.36744338,0.2089862,-0.6860271,0.14564969,0.31927288,-0.66570157,0.15965734,-0.8591024,-0.15700126,0.21370456,0.2676734,-0.4211446,-0.072827876,-0.43247584,-0.61920434,0.31859517,0.4056621,-0.056754418,-0.1803858,0.78379816,0.42576817,-0.7167516,0.03773458,-0.16987771,0.16460173,0.0986378,-0.62297714,-0.06273003,0.2723659,0.58672136,0.6015211,-0.015967209,-0.7247338,-0.68437535,-0.3346767,0.43676096,0.67794424,0.6049218,-0.37423775,0.19200638,0.18471587,-0.76182514,0.5188066,0.26220316,-0.1419728,0.53781325,0.42326123,-0.3741374,0.6860927,0.20074442,-0.5348188,0.8632521,0.03948087,0.48335207,0.8386272,-0.50550646,0.70878583,0.58913946,-0.12693892,0.8740477,-0.1803747,-0.15363425,0.7926822,0.19052672,0.5804579,-0.2729531,0.3832165,-0.31031567,-0.32419345,0.67831415,-0.7357173,0.17297633,0.5917756,-0.84722537,0.33122125,0.14937444,0.39798835,0.46909088,0.8013132,-0.8488309,0.6767829,-0.16713934,-0.30931377,0.07037667,-0.4685309,-0.77003676,-0.2255875,0.56169575,0.1825375,-0.043327533,0.008916,0.18037541,0.3674603,-0.48532727,-0.36014062,-0.54931134,-0.8502593,-0.7448315,0.3861319,-0.49310097,-0.6118445,0.45313004,-0.22919458,-0.026092961,0.6897156,0.2664416,0.07482755,0.8391015,0.4162803,0.19302222,-0.5355634,0.7877125,0.8834944,-0.8380936,-0.685935,0.57317173,-0.7043225,0.594811,0.3897924
0.750639,0.8055365,-0.8143505,-0.07194712,0.49637577,-0.118829764,0.3185629,-0.07610821,0.39109996,0.64964116,0.5879906,-0.83027965,-0.32946932,0.37247148,0.3071511,-0.62056804,0.15441503,0.8556096,-0.280486,-0.37823206,-0.21463883,0.19328313,0.59672517,-0.31910658,-0.07638205,0.01555728,-0.5825923,-0.0039925477,-0.3072613,0.2585143,-0.33511803,0.7769359,0.8045365,-0.84850717,-0.22696392,-0.14005813,0.6614556,0.6104997,0.9126925,0.65423673,0.7346595,0.8777419,-0.12152058,-0.14693178,0.22416104,0.287855,0.106265426,0.47896782,-0.6099925,0.87940496,-0.70579284,0.6029055,-0.67258805,0.39468294,0.3517238,-0.5149568,0.6461513,-0.8205196,0.5004779,-0.42655262,-0.8012405,-0.8541193,0.69459635,0.3953633,-0.76725197,-0.16505136,0.77242005,-0.68633187,0.30525345,-0.23949826,-0.5468918,0.12674558,0.046071425,0.3986782,0.47471485,0.15555114,-0.45299774,-0.13025497,0.078748405,-0.67556214,-0.5486977,0.7901379,0.4559717,0.07064819,0.43021214,0.24275964,-0.6176964,0.6907503,0.09566822,-0.36678067,-0.048659068,-0.24204798,-0.010601112,0.71655583,-0.31039813,0.009677177,0.6015484,-0.038096476,-0.3598146,0.6334875,0.7051242,-0.7111187,-0.8046402,0.36285853,0.8012178,-0.595044,-0.47157457,-0.36537266,-0.08974469,0.4298605,0.436625,0.42161357,-0.7953016,-0.04659873,0.6981523,-0.7847189,0.8362357,-0.52304703,0.65837127,-0.32349613,0.66067713,-0.6751699,0.14529563,0.24651559,-0.25055146,0.34021136,0.26482105,-0.7214529
0.27198684,0.48030365,-0.8756015,0.72666204,0.040781267,0.86839336,-0.058336157,-0.23211338,-0.29868972,0.3129054,-0.055333845,0.07602207,-0.22055508,-0.8243589,0.0799684,-0.2634232,0.2931178,0.17275183,0.47130883,-0.10294222,0.042890113,0.59544975,0.39951244,0.27461204,-0.4712771,-0.5252778,-0.050762225,-0.596078,0.6739373,0.61158675,0.13457587,-0.16891268,-0.05963336,-0.25403854,0.83401585,0.23710828,0.15628615,0.5463199,0.4051862,-0.7157794,-0.8379969,0.08493972,0.40075886,0.5895412,0.879361,-0.4404423,-0.4709257,0.17850274,-0.6425205,0.10042388,0.059627213,0.111882195,0.7755578,0.7052474,-0.7674333,-0.31399834,0.32061774,-0.43085635,-0.38658115,-0.5105964,0.57301337,-0.1936501,0.70668346,0.23058642,-0.6675014,-0.060113367,0.543393,-0.74903375,0.6102046,0.56767756,0.76681924,0.6160955,-0.8889187,-0.45567858,-0.7761186,0.756333,0.07091673,-0.75298876,-0.28478062,0.7117245,0.7823225,-0.6589619,0.6540016,0.19217937,-0.21360873,-0.50121415,0.7619874,0.26021546,0.54357517,0.19360158,0.14537296,0.53500473,0.8439909,-0.35435686,0.07194318,-0.8299894,-0.7451235,0.61953264,0.35426304,0.4293422,0.157759,0.5516996,-0.683519,-0.5110593,-0.32523796,-0.29545248,0.7334159,-0.81578034,0.758624,-0.5164778,-0.78973126,-0.02445349,0.71410847,-0.2154409,-0.061583776,0.34400532,0.71113455,0.19533047,-0.47193545,-0.43292993,-0.69874495,0.5233337,-0.055541553,0.78067183,0.15692078,-0.6315444,-0.22810088,-0.2488463
0.55807287,-0.010975853,0.8095933,0.11802209,-0.7108486,0.28367537,0.4134634,-0.31052098,0.9905282,0.17523476,0.7685809,-0.05363444,-0.61967385,0.39981627,0.13655022,-0.64134586,-0.44844618,0.263724,0.9017805,-0.7146972,-0.8043633,-0.71605253,0.70765764,-0.5606535,0.8323065,0.29417083,-0.40706518,-0.13029045,0.61349064,-0.39159817,-0.12660965,-0.023945644,0.22917128,0.08526218,-0.3440107,0.25119877,-0.03229782,0.3491157,0.6909735,0.054203838,-0.16710614,0.5821693,0.5459207,0.94496715,0.31540316,0.07934767,0.92025274,-0.6052167,0.53162235,-0.17120445,-0.062086508,-0.39619845,0.24103263,-0.299782,-0.86739933,0.112347335,0.4635884,0.23814496,-0.3762117,0.9005047,0.83087987,0.8618346,0.76222926,0.9634558,0.7682964,1.0125889,0.48197526,0.26759565,0.8504145,-0.37197667,0.53319997,0.061804563,-0.16163778,-0.8748631,-0.63882387,-0.9344345,0.35530406,0.73372,-0.3938774,-0.43131343,0.2727484,-0.11670414,0.17433204,-0.31104973,0.8169203,-0.18458515,-0.6241082,-0.18058637,0.21814641,0.14703028,0.4514317,0.07416005,-0.6996039,-0.5054244,0.49968457,0.73744094,-0.77082807,-0.44207692,-0.17833063,-0.87185824,-0.15415265,0.11209437,0.91502804,0.6267896,0.3400633,0.15025671,-0.6215011,-0.4291782,0.39889538,0.6799627,0.26589873,0.36136422,-0.12944527,-0.62809014,-0.47447264,-0.03350462,0.3780049,-0.7578699,-0.1888637,-0.1391732,0.6737157,0.48485458,-0.3669461,-0.49459147,0.63600665,0.07522008,-0.4179295,0.46945724
0.45795405,0.69959396,0.34097913,0.43471432,0.48971254,0.6506553,0.85589784,0.3455993,-0.06657565,-0.5916788,0.64076614,-0.6890288,0.86939687,-0.87536633,0.028940873,-0.12160401,-0.7473974,-0.43303636,-0.41773823,0.53137535,0.7334546,-0.50753456,-0.7982181,-0.067059256,-0.5746998,-0.15628195,-0.70209944,0.83424026,0.7399707,-0.29927266,0.32947126,0.05068165,0.3107571,0.7632338,0.29620296,-0.035687823,0.7719944,-0.80552703,0.0319355,0.54495734,0.39214247,0.5049314,-0.65487355,0.16752504,0.86875623,0.36002696,0.19096236,0.6571837,-0.075202875,-0.8582937,0.076384604,-0.6287558,0.04664352,-0.5525202,-0.07362127,-0.8305003,0.7248679,-0.18424974,0.86873347,-0.5683035,-0.4748814,0.77911305,0.3681781,-0.8333831,0.43638918,-0.2740611,-0.10221553,-0.02913932,0.19312693,-0.49276868,-0.36804712,-0.087277986,-0.051961195,-0.6565514,0.036615938,-0.48204178,-0.15802191,0.6261046,-0.30533105,0.06982319,-0.02141852,-0.21670146,-0.8777536,-0.5474122,0.37784028,0.7443232,-0.6067264,-0.3814545,0.2670154,0.66079915,0.28813702,0.8196233,0.7640422,-0.80981636,-0.7176283,0.30388165,-0.32877603,-0.06562305,0.4933661,0.07518806,-0.20241633,0.3960884,-0.15122646,0.7365883,0.04191471,-0.56099516,-0.41148716,0.8566177,0.62285197,0.30296275,-0.5430695,0.098929204,-0.07897028,0.031489395,-0.036429826,-0.7740834,0.16752677,-0.75216836,0.34553072,-0.577719,-0.26906908,0.7399018,0.8078437,-0.5436974,0.1972354,0.32176426,-0.7969473,-0.48377284
-0.83354723,0.07250858,0.072447106,-0.24661162,0.6117196,0.11323441,-0.019185355,0.016022665,0.6520579,0.35481575,-0.797325,0.14665462,0.44599852,-0.31183353,0.8359955,0.8125417,-0.59691083,0.7230007,-0.6800089,-0.345681,0.34427106,-0.43103382,0.4203959,0.049282603,-0.38183767,-0.4339482,0.28452912,-0.03763428,0.22450413,-0.43912986,0.2618302,-0.056857497,-0.22307937,0.23092127,-0.11720889,-0.008457182,0.7929158,-0.64469445,-0.06926809,0.35299045,0.26595622,0.41902614,-0.3825404,0.5872992,-0.15808691,0.8376274,-0.7805219,-0.68904954,-0.6132234,-0.55963194,-0.1545523,0.78121984,0.48749328,-0.39166397,-0.64513654,-0.6450184,-0.6072928,-0.7562427,-0.40593016,0.2312405,0.26842657,-0.17380936,-0.010735502,-0.6583778,0.04922291,0.83994234,0.25962985,-0.08747894,0.719311,-0.45926443,0.024320113,-0.79036266,-0.08144174,-0.37902462,0.5422706,-0.33187485,0.41138452,-0.24823909,0.045281574,-0.6866815,0.8650431,0.67745465,0.77065676,-0.49524802,0.8737624,-0.5247226,0.13803528,-0.049770005,0.024979562,0.6330678,0.75137466,-0.25933275,0.78336936,-0.4767368,0.35349226,-0.44168922,0.15354171,-0.29237264,-0.68607134,0.81326205,-0.17387019,0.5465623,-0.49628025,-0.486375,0.7355859,0.3795853,-0.13515595,-0.72792125,0.13702556,0.76602745,0.17158328,0.32265967,-0.47597954,0.76991653,0.28452918,0.6678053,-0.31377098,-0.39028826,0.7591003,-0.68969345,-0.42651558,-0.6192774,-0.6762206,0.41548488,0.2596072,0.71298915,-0.04612849,0.4790676
0.32165027,-0.13087845,-0.39814523,-0.4034445,-0.18970753,-0.55960286,0.80291396,0.14913486,0.12131783,0.84539926,-0.08767596,0.06187333,0.8102654,-0.8295502,0.041587185,-0.5645841,0.005725379,0.8249536,0.35906357,0.2664949,0.34967738,-0.7144752,-0.004491837,0.3651045,-0.39253744,-0.6166305,0.09756572,-0.3251256,-0.13452168,0.46952048,-0.31513837,-0.2808493,-0.079466596,0.6319367,-0.38446933,-0.3147789,0.17742217,0.82441145,-0.4785759,-0.8681482,-0.2671072,-0.029530061,-0.612894,-0.36330906,-0.4278029,0.3048499,0.16436112,0.49943998,0.031348556,-0.25817603,0.805826,0.053640544,-0.25232488,-0.2210425,0.8062319,-0.47290897,-0.42713732,0.094516814,0.65547633,-0.7893986,0.08774687,-0.6506822,0.6944125,0.40220916,0.69248307,-0.14000468,-0.5841016,0.56686705,-0.32258624,0.19886157,-0.8694138,0.38121793,0.3405607,-0.10642782,0.70799476,0.3631101,-0.023200477,-0.90836513,0.73015106,-0.51007295,-0.39874855,0.3227527,-0.62029517,0.3548768,0.51552725,0.66501373,0.20131677,-0.07153765,-0.82347757,0.45336232,-0.1905441,-0.60081065,0.42757237,-0.55909514,0.4035041,-0.5954638,0.36238453,-0.63685626,0.5933651,0.44837213,0.055488482,-0.062227756,-0.39729106,-0.55502886,-0.28523675,0.034270927,-0.6409105,0.13521528,0.78948903,0.5887993,0.5194995,-0.26870796,-0.7417552,-0.48855144,-0.68745214,-0.46598205,0.4373013,-0.4235118,0.18637279,0.13776341,0.8488906,0.41813734,-0.5960628,0.7133714,-0.0703817,-0.12245951,0.6217084,0.72741157
-0.75490856,0.7225923,-0.6311526,-0.8361686,-0.62365294,0.84152806,-0.5194002,0.2995594,0.61538535,-0.71109265,-0.7520119,-0.51662177,-0.7904163,0.32335937,0.12549959,0.49097374,0.28561425,-0.43076998,-0.12565887,0.7436278,-0.34295192,-0.863345,0.5237688,0.74443024,0.2310224,-0.5385929,0.06995813,0.761508,-0.6796756,-0.35886452,0.56735235,-0.6027859,0.27776393,0.46988094,-0.21556741,-0.12678213,-0.12067538,0.49872303,-0.5693101,-0.1606381,0.6106622,0.58587736,0.5665206,-0.6691266,0.7930196,-0.41153407,0.09461737,0.6771583,-0.8773954,-0.21660261,-0.31078392,-0.6534366,-0.44477478,-0.6658197,-0.7239686,0.60418016,-0.73830545,0.10543937,0.7006656,-0.22166914,-0.71471494,0.7836811,0.35760748,0.3887966,-0.8305971,-0.60456246,0.31123152,0.295422,0.032735437,-0.24144326,0.43705305,0.6185518,-0.18798591,0.74896765,-0.10945057,-0.78431046,0.5502974,-0.14877684,0.12432616,-0.43701294,-0.65735245,-0.2201705,0.20554613,-0.2464824,-0.4068147,-0.4331418,-0.5848282,-0.60248095,0.6742838,-0.11856006,0.7683185,-0.71143275,-0.7044045,0.5969687,0.49387002,-0.49375343,0.0767707,-0.86076033,0.010201539,-0.27726,0.56623054,0.3925781,0.7226466,-0.1769823,0.60328466,0.81444514,-0.4884444,-0.24010243,-0.80990475,-0.16315705,0.6444824,0.15371817,-0.0938291,-0.39936644,-0.31773332,0.44979617,-0.34557652,-0.42093855,-0.16537255,0.7206135,-0.56618613,-0.26496395,-0.5412897,-0.07572012,0.0733033,0.36689073,0.8709173,-0.70281166
0.67680377,-0.67843854,0.798307,-0.7610414,-0.06274804,0.73025525,-0.35475034,-0.116087556,0.48231444,-0.57133764,-0.49170402,0.10341168,-0.44674733,-0.6312339,-0.6813078,-0.84174716,0.6393314,-0.13726549,-0.09477347,-0.41035464,-0.2646869,-0.35518038,0.5586623,-0.5114644,0.74983716,0.6047665,-0.39506698,-0.6982442,-0.022486912,-0.18881012,-0.6016122,0.63480276,-0.46736887,0.44633445,0.52779037,0.33568934,0.5686146,0.29646388,-0.32986924,0.58002555,-0.4933234,0.179751,0.6876155,0.90368724,-0.77258676,-0.75539315,0.13889673,0.034562707,0.13458632,-0.5444288,0.23016645,-0.5149628,-0.64847237,-0.10426276,-0.31657743,-0.3013248,-0.4824069,0.22447728,0.17781466,-0.044684496,0.09520786,-0.61861396,-0.17535584,-0.100807846,0.6139733,0.4975247,-0.411368,0.27944586,-0.6040848,0.188493,0.054360256,-0.83691597,0.1519355,-0.37511694,0.113203935,-0.0937668,-0.46394077,0.41773674,0.19527991,-0.39067173,0.53957903,0.57802045,0.7768185,-0.7824753,-0.79524845,0.24390267,0.021494841,-0.18311177,-0.73525804,0.35142106,0.7856266,0.30963093,-0.22172152,0.13539875,0.13700914,-0.4116305,-0.34170562,0.89621073,0.7251667,0.4010321,-0.82803494,-0.7092775,-0.44088778,0.86626023,-0.39817274,-0.3109162,0.445666,-0.25843266,0.23502855,-0.017508576,0.60420346,-0.10886448,-0.8418923,-0.5515633,-0.14915617,-0.3428527,0.6704237,0.51868695,-0.24671479,0.62435746,-0.62771535,-0.73198926,0.7831877,-0.747536,-0.6569315,0.53478813,-0.31279984,-0.630677
-0.14568816,-0.5973716,0.09529016,0.3252881,-0.015083374,-0.091641605,-0.23574671,0.090860434,-0.7324947,-0.3002875,-0.106707044,-0.47345033,-0.24978954,-0.26542622,0.32552743,-0.65442157,0.09988611,0.35211614,0.40778387,-0.4940014,-0.32356519,0.31430846,-0.53113556,-0.7577384,0.8314567,0.15186256,-0.77200216,0.1114705,0.7661985,0.2667629,0.6799284,0.27867165,0.70357174,-0.29131463,-0.14358145,-0.103925824,0.32767195,0.11327604,0.1853085,0.029112699,0.12816435,0.22718775,-0.70621246,0.7731997,0.15082437,0.18145935,0.024162348,0.19582713,-0.59211814,-0.3023964,-0.7962797,0.45282927,0.618788,-0.8048792,0.22427247,-0.7934078,0.8404993,-0.09621076,-0.3352677,-0.7316244,-0.20965268,0.3869799,0.76482,-0.33599925,0.8283332,-0.3739818,-0.75733775,-0.07307615,-0.20173451,0.61361235,0.854385,-0.8286229,0.6046067,-0.65204495,-0.05497019,0.62715316,-0.7317512,-0.82144207,-0.23374425,0.7901473,-0.61290574,-0.6434552,-0.35802883,0.6082429,0.82144123,-0.25435787,-0.75838226,0.053123187,0.8770167,-0.4580584,0.82468694,0.45664898,0.23128077,0.41542104,-0.08481798,0.016673893,-0.051310644,0.41065577,-0.23716155,0.10619823,0.71110564,0.6626667,0.18678185,0.10697295,0.09526493,0.63726825,-0.66213804,0.53234076,-0.014536663,0.027308472,-0.51267236,0.42640868,-0.5725393,-0.015990566,-0.2462209,-0.80124795,-0.020194815,0.3247823,-0.07764294,-0.5864829,-0.43177494,-0.76582336,0.43471876,0.043403696,0.69717,0.40865636,-0.7545914,0.18999454
0.7455171,0.74804217,-0.44711423,-0.568907,0.30836466,-0.0080499,0.46648237,0.14975455,0.06963766,0.39482632,0.424994,0.81350267,0.8467017,-0.81061774,0.51296425,0.826818,-0.10512827,-0.31988424,0.784764,0.46986762,-0.6303964,-0.5221763,-0.03950765,0.34823778,-0.8443052,0.35898426,0.43304762,0.20292847,-0.5443708,-0.81588435,-0.84678686,0.032078013,0.12855849,-0.1470515,-0.50881135,-0.24335293,-0.5485637,0.3587165,-0.82291025,0.22465152,0.67360544,0.346828,-0.7208344,-0.013280365,-0.17501147,-0.75359726,-0.6583516,0.23270908,-0.85106117,0.5972418,0.23745272,0.33881104,-0.5365138,0.75105697,-0.7266918,0.6635534,-0.71600336,0.5947641,0.23192874,-0.39640978,0.69537014,0.3029418,0.76261955,0.21077858,0.41295174,0.46511057,-0.8159306,-0.8207252,0.22681656,-0.2128759,0.79947937,0.5411165,-0.22857514,-0.3731058,-0.37035674,0.5430076,0.0787574,0.26010883,0.1073402,0.46688098,0.7348766,0.8526673,-0.85044456,0.34595674,0.31549785,0.3641906,-0.7347006,0.08653538,0.2681528,0.3111973,0.26659954,0.426821,0.17122738,0.4073806,-0.67970246,-0.032915737,-0.83177507,-0.41374314,-0.47299895,0.054030772,-0.6706285,0.29855534,-0.05634883,-0.036599927,0.14680408,0.44525784,-0.82952636,-0.46790951,0.39488193,-0.7543632,0.59786946,0.0005998443,-0.60109943,-0.0051083067,-0.42547876,0.03905065,-0.4646868,-0.22146912,-0.7380037,0.818048,-0.02839228,-0.6137873,0.2531283,-0.14569402,-0.6990637,-0.6286225,0.48398882,0.7762599
0.3041351,-0.3841167,-0.5497503,-0.4568618,0.83979875,-0.4087711,-0.7474256,-0.20101239,-0.08296148,0.17810342,0.8684273,0.5586363,0.43696943,-0.48215842,-0.5902378,-0.29030302,-0.4013252,0.8280278,0.69625366,-0.42823178,-0.40833664,-0.3257882,-0.39095083,0.7584144,0.037212312,-0.04804963,-0.82700896,-0.48462042,0.07374125,-0.8484075,0.017839912,-0.84967726,0.8556681,-0.40680438,0.58248186,0.8400414,-0.87778646,-0.8364386,-0.06520827,-0.7445669,0.7916124,-0.061611265,0.46906593,0.07215989,0.51188415,-0.14665094,0.7814323,0.40574464,0.48643687,-0.6699322,0.3961192,-0.12407942,-0.7506798,-0.020923873,-0.6620632,0.19025987,0.6435655,-0.5849995,0.6396229,-0.24462913,-0.61793983,0.089949034,0.31818542,-0.53700364,0.4020352,0.5695398,-0.72984314,0.31503847,-0.7105067,-0.32127738,-0.45736957,-0.1625083,-0.3635707,0.38923627,0.6557849,-0.6681205,-0.24424437,-0.3602227,-0.7728222,0.5701803,-0.79466283,0.71292084,-0.6242946,-0.18279639,-0.5365719,-0.7962199,-0.18348746,0.4446559,0.61140263,0.17005236,-0.7141772,-0.830457,-0.64690036,0.044933673,-0.6595983,-0.42563137,0.44066945,-0.18877381,-0.7755045,-0.65439963,-0.5475164,-0.4056483,0.07901902,-0.6038215,0.50887156,0.14957087,0.6001789,0.04833538,-0.76425177,-0.34215602,0.2241802,-0.876321,-0.87453264,-0.64950126,0.25617278,-0.46518648,-0.23429932,0.14233123,0.45996064,0.47777352,-0.7168629,-0.81767505,-0.06441271,-0.2417632,-0.021230273,0.6248874,-0.18983054,-0.5482365
-0.7066435,-0.301577,-0.3911897,0.63334626,-0.7534385,0.14424974,-0.20272352,-0.8991942,-0.0179385,-0.86379474,-0.25482434,-0.23694001,-0.5927166,-0.12646182,0.33704004,-0.06258026,-0.61098886,0.5459204,-0.7676861,0.6802573,0.08149625,-0.11410913,0.21044691,0.25133732,0.014300414,0.47778097,-0.18767305,0.7302911,0.24658778,0.10692685,-0.36098957,0.53250724,-0.5908865,0.11313461,0.26101354,-0.7999573,0.679307,0.38901678,-0.32307187,0.30939,0.49959514,0.48471618,0.3308108,0.5518046,-0.06624067,0.15143296,0.6648779,-0.27985108,0.4896486,0.053770386,-0.014951251,-0.7536138,-0.6863937,-0.46024916,0.53965724,-0.12605307,0.059754748,-0.23717801,0.43355778,-0.12522091,0.6527594,-0.6494011,-0.3523994,0.5112559,-0.34246382,0.31612563,-0.29518682,0.36082062,-0.46950197,0.48129997,-0.74819195,0.59939724,-0.43686515,-0.8451459,0.71834034,0.25154388,0.31493315,-0.4075937,0.2193881,-0.44003657,0.19281101,-0.31584796,0.8154544,-0.42809013,0.29093692,-0.075899296,-0.3612339,0.64942443,-0.6916123,0.57035947,0.3922216,-0.78881323,-0.31384847,0.53289974,0.67958343,0.27691835,0.7103977,0.8207303,0.12807967,0.34986225,-0.7412292,0.91380244,-0.33940643,0.5346785,-0.32268456,0.54280627,0.44779325,0.5890457,-0.3219008,-0.15638499,-0.06171979,0.52050537,-0.040936947,0.00811392,-0.29619896,0.20316081,-0.5907935,0.5262843,0.5891635,0.31982738,0.5770273,-0.26467672,-0.36353368,0.3951965,-0.86061335,0.7539931,0.17257038,-0.83815277
-0.22349444,0.6898134,0.22104715,-0.7654581,-0.7055227,0.65042335,0.3594371,-0.06522381,-0.19409202,-0.73400503,0.6397797,-0.6642609,-0.31976756,-0.29178634,0.13471386,0.12218068,0.10839037,-0.64082354,-0.43251693,0.48668003,0.17029028,-0.15143132,-0.34587285,-0.87066996,-0.01561698,0.8708495,0.59990424,0.8924202,-0.6270517,-0.61933684,0.67713165,0.6593422,0.5393408,-0.037229285,-0.80252564,0.34310746,0.22169673,0.8746648,-0.36463532,0.20815393,0.59135824,-0.6683587,0.5377045,-0.30848524,-0.6786594,0.89187884,0.32173195,0.5062729,0.76750803,0.38890445,0.11002996,-0.18975838,-0.6270323,0.7483287,0.6036686,0.6556339,0.49390373,0.24169049,0.49732056,-0.28508264,-0.5454798,-0.8563505,0.7344666,0.1596933,0.8877015,0.8121343,-0.2376337,-0.9139949,0.65100724,-0.41405073,-0.28056046,-0.84233016,0.45667222,-0.14278847,-0.13474554,0.8729923,0.6767852,0.35464376,-0.30179533,-0.2808996,0.56722736,0.042427015,0.83975726,0.5189579,-0.7645148,0.2926598,0.38423005,0.8395019,-0.29827848,-0.46590063,-0.8114515,0.5362967,-0.7853833,0.6199106,0.4395493,-0.20584375,-0.74168867,-0.8571136,0.25886446,0.586035,-0.11586783,-0.7608239,-0.23568909,-0.58407426,0.725841,-0.10441749,0.57270515,0.5943733,0.8880988,0.7487177,-0.59610045,-0.8057642,0.5750823,-0.5608429,-0.23335962,0.29780358,0.11079709,-0.37279677,0.36993134,-0.1455448,-0.3271963,0.32326385,-0.18719986,0.25122106,-0.45513594,0.13760157,0.84859914,0.08761068
0.04589486,-0.4924676,0.2707776,0.59096926,0.023361225,-0.74464685,-0.7293954,-0.12819196,-0.02043804,-0.1470363,0.5032409,-0.05985919,-0.4984983,0.25831828,0.50705683,-0.33608353,-0.79197407,0.6260123,-0.42322105,-0.19561572,0.065308005,0.6829048,0.17489758,0.32412055,-0.791567,0.84883046,0.8335343,-0.3364624,-0.8561985,-0.35022327,0.88907886,-0.10467818,0.7545883,0.87900347,0.26655096,0.43944618,-0.6212323,0.053832628,0.90538746,0.3641629,-0.28568876,-0.5064211,-0.09364246,-0.09134181,-0.46110004,0.4943097,0.4047374,-0.5670563,0.3504332,-0.23617958,0.30481628,0.8746121,-0.016040418,0.32384992,0.9072346,0.824252,0.09424881,0.132204,-0.59271157,0.4885313,0.39009294,-0.80490994,-0.042037863,0.62785524,-0.6701023,0.30330822,-0.16775589,0.39255616,-0.16706997,0.6358426,0.39777428,-0.17086886,-0.42095855,0.86580604,-0.07078364,0.8016545,-0.3221597,0.6199108,0.5318517,-0.6158699,0.5148717,0.27504522,-0.58940643,-0.108911514,-0.34905618,0.7803531,0.64997435,0.7361431,0.7641937,-0.018723097,-0.5438661,0.0037320354,-0.44663128,-0.81255275,-0.5730942,-0.6866826,-0.18627045,-0.67499256,0.33663508,0.14781512,-0.4110333,0.6442388,-0.3336103,-0.08531547,-0.473457,0.020324249,-0.6790463,-0.91974694,0.4392588,-0.037426885,-0.0013084442,0.33847854,0.017940445,0.6303872,-0.1669042,-0.08088388,0.36096057,0.24564905,0.23421033,0.53224415,0.14935,0.3877023,-0.5167923,-0.029014727,-0.055154018,0.7794773,0.35226724,0.58246964
-0.5924657,-0.31535634,-0.26662165,-0.10863506,0.73431355,-0.49698496,0.5450165,-0.59487104,0.5948577,-0.1436915,0.20733012,-0.4482582,0.23483542,-0.8793396,-0.11969761,0.52469635,0.11552245,0.6020837,0.090013996,-0.18348871,0.5008647,0.6348923,-0.39602268,-0.59922844,0.5725355,0.96110636,0.8502122,-0.07479378,0.8501688,-0.09533947,0.9332363,-0.3879488,-0.38905552,0.83128417,0.9152779,-0.5285629,-0.13594456,-0.27033004,0.026890254,0.8392457,0.192773,0.918774,-0.27735782,-0.8046377,0.24225119,0.5142091,0.29218158,-0.70829594,-0.034094963,-0.29296225,0.6722798,0.017705865,-0.55187815,0.6465886,-0.26907498,0.6851518,-0.6222592,-0.09758103,0.5599958,-0.60245705,0.6989846,0.6315717,1.0357579,-0.5877035,-0.54043746,-0.11511105,0.6481535,0.44951743,0.83861405,-0.11735268,-0.5593646,0.1870565,-0.44568795,-0.041711837,0.8841133,0.9510688,0.37641394,0.9262248,0.8983943,-0.27474114,-0.7903749,0.6754212,-0.07788866,-0.40827775,-0.0763569,-0.40696466,0.27059802,0.1558056,-0.65950745,-0.42099127,-0.24210954,0.75997746,0.28579518,0.7470631,0.34325406,0.8256263,-0.54117924,-0.108243935,0.54210365,0.07768881,0.28954613,-0.4938961,0.25312456,-0.7755086,0.24732138,-0.4384538,0.029781885,0.47853038,0.27164105,-0.86752456,0.35700583,-0.28916523,0.56464255,-0.31711444,0.5151659,-0.021366362,-0.6477841,0.1835404,-0.5166844,-0.74241287,0.2539193,0.57481945,-0.8854696,0.8427408,-0.31309608,0.6012447,0.18118583,0.06732401
-0.6243066,-0.50980777,-0.75973934,-0.7535704,-0.3425237,0.016245764,0.35780618,-0.598963,-0.30454314,0.70875543,-0.07043856,-0.40128046,-0.59472734,-0.24090517,0.5725982,-0.53198284,0.55188614,0.4040573,-0.31007725,-0.4413199,0.8236186,-0.22202559,0.16387662,-0.6179847,0.091483995,0.586659,0.15755764,0.8627667,-0.7848222,0.59091926,0.71623975,-0.70544976,0.45315555,0.5719655,-0.68973225,-0.21844351,0.05986683,-0.5823419,0.14766723,0.23736879,-0.059927348,-0.4136964,-0.6587267,0.33669466,-0.58814013,-0.7752926,0.27398866,-0.11908528,0.71313596,0.009765384,0.66897684,0.72114575,0.49585703,-0.3949093,0.809442,0.6657353,-0.37968928,-0.23823383,-0.51111263,-0.8597825,0.7591144,0.16750604,0.7803916,-0.570116,-0.1252888,-0.3606078,-0.29938287,-0.82655567,0.7906596,-0.29768473,-0.710278,-0.050110605,0.50112945,-0.13205798,0.0360547,0.4940244,-0.24499623,-0.79788756,0.07616627,-0.40896025,0.8367451,0.83592534,-0.2849599,0.6585644,-0.6677877,0.08089324,-0.5824066,-0.044134945,-0.5445585,0.17851463,-0.62647766,-0.0143126575,0.4442008,0.36741,-0.2514388,-0.6549081,-0.08878104,-0.7983125,-0.039060213,0.80818135,-0.36400995,-0.42535505,0.13887265,-0.3084796,-0.49566796,-0.041634325,0.12018221,0.35399824,-0.44726887,-0.803079,-0.38281626,-0.2571928,-0.6086822,-0.16731487,-0.25299564,-0.27755496,0.63835394,0.4784976,0.83326155,0.2949656,-0.13139671,-0.4558896,-0.8504391,-0.624996,-0.7813676,0.095017456,-0.6362582,-0.5045975
0.43188912,0.3426247,0.6888488,-0.13245526,0.0041650548,0.462427,-0.49084666,-0.79708093,0.07975229,0.74919903,0.07156439,0.6178068,0.28615835,-0.7913812,0.5892499,0.36412334,-0.60088813,0.71328235,0.80708736,-0.16219513,0.05342019,0.30409247,0.3004981,-0.021276621,0.2791689,-0.61265284,0.3183042,0.0060187234,0.7754108,-0.60574985,-0.20558287,-0.551229,0.86167264,-0.18594675,-0.5530681,-0.6588569,-0.64236593,-0.36341733,-0.28405052,-0.64372003,-0.63682294,0.49720404,-0.43216917,0.22703893,-0.1351714,0.5884065,-0.7802326,0.5749865,-0.7585922,-0.7152602,0.66649777,-0.012052566,0.65302527,-0.100088745,-0.44277757,-0.32841483,0.1790061,-0.83186275,-0.22131094,-0.7592028,0.44648874,-0.21531904,-0.2710851,-0.0555521,0.4360004,0.7441474,0.44751602,-0.46823448,-0.3684395,0.865585,0.7640069,0.6731435,0.5161538,0.33646446,-0.036759023,-0.2556376,-0.52602834,0.079269916,-0.38227868,-0.54193807,-0.85890585,-0.5722254,-0.2216062,-0.5320549,0.69492793,0.04282998,-0.07884922,0.30233198,0.0312861,-0.36630213,-0.5016811,-0.7142312,0.09767338,0.4200912,-0.82628196,-0.017134916,0.0731235,-0.23154336,0.70881,-0.08998926,0.09953327,-0.3795839,0.08785426,0.25028014,0.5242326,0.47188663,-0.72301185,0.12850647,0.22919904,-0.38046354,-0.71459246,0.6388719,-0.61056995,0.7359098,-0.72268426,0.8322265,0.057012744,-0.6790623,-0.26804504,-0.022885155,0.3648486,-0.7030429,-0.21877672,0.05836345,0.30850384,0.41736832,0.87704754,0.09671349
0.8310078,-0.5027855,-0.0963121,0.1876224,-0.18133776,-0.20526512,0.059735376,0.53702587,-0.72469544,0.18506306,0.8803487,-0.26743704,-0.817082,0.76105773,0.89964664,0.14758968,-0.5952432,-0.5207721,0.14116262,-0.30530098,-0.1846953,0.57672364,0.30264074,-0.6153268,-0.5605381,0.76441747,-0.6502711,0.009916711,0.35325035,-0.03688525,-0.1370933,0.5318037,-0.8326014,-0.18692334,0.5673973,0.14014126,0.78232056,0.09723752,0.4725256,0.68715304,-0.6768623,-0.68691665,0.43981597,-0.23304574,0.020301552,0.33642715,-0.27525133,0.38056758,0.26112986,0.5777817,0.5281813,-0.5046732,-0.38807252,-0.3854598,0.21075334,0.34442067,0.7651546,-0.26489863,-0.48709425,-0.43878204,0.22704251,0.89622414,0.69984984,0.7250768,0.6822257,0.31069317,-0.24868602,-0.5228395,0.1509626,-0.17812768,0.66836745,0.50279665,0.50394577,-0.17542613,0.38336384,-0.08902929,0.39397722,-0.0739641,0.31053668,-0.76624995,0.36048865,-0.3585775,0.58227897,-0.89474756,0.40047243,0.32693726,-0.17454618,0.35557,-0.82033587,-0.5758546,0.09140894,-0.7596477,0.58606416,-0.3679338,-0.053593464,0.4842483,-0.7894993,-0.22728924,-0.6415239,0.7799842,-0.109840125,0.2176884,0.7920587,0.84558046,0.6918821,0.8409681,-0.38227636,-0.050331406,-0.86411244,-0.34002545,-0.4612239,-0.20763339,-0.13542281,0.44951388,0.34858614,0.78736305,0.82640225,0.45242694,0.45550144,0.68963844,-0.37360123,-0.75451577,0.8805096,0.2383724,-0.4073066,0.16438158,-0.5629622,-0.41491342
-0.53808546,0.6684061,-0.83956045,-0.07184393,-0.7017165,0.5627374,-0.7537345,0.6267581,-0.65440863,-0.7979767,-0.053955503,0.04700949,-0.45274222,-0.33183426,-0.080102906,-0.5149427,0.39876953,0.42590708,0.3073506,-0.0717116,0.551752,-0.32897952,0.3563507,-0.22708192,0.7388192,-0.7154235,0.10882653,0.059967455,-0.2135686,0.46828642,-0.7704582,-0.26514378,-0.2129802,0.893073,0.8073065,-0.39374578,0.7486663,0.8550975,-0.80219615,-0.78923786,-0.52416176,0.7680273,-0.63018674,0.7761995,-0.16871336,0.6043809,-0.8625371,-0.7742333,0.54692084,0.7832479,-0.04285387,-0.7861306,0.79594266,0.81384736,0.94460744,-0.037166584,0.6077648,0.31362143,0.77799714,-0.47590524,0.4725111,-0.437447,0.5100559,-0.034808524,-0.8443899,0.6924059,0.6872104,-0.26489186,-0.81121236,-0.77658665,-0.7113489,-0.46919033,0.7057193,-0.17386653,-0.13798198,-0.1536924,-0.6705024,0.33108804,-0.6073227,0.05636644,0.6787647,0.11199099,-0.32781553,-0.16701776,0.5434965,-0.72691786,0.715274,0.332914,0.05712974,0.72277796,0.7557931,-0.36097795,0.22337888,-0.70293105,0.038743496,0.63195556,-0.23125686,0.2900392,-0.48948824,-0.22853471,0.77327526,-0.3881643,-0.17227457,0.49091223,0.34726518,-0.5922502,0.33133763,0.416758,0.5945514,0.7065119,-0.7098596,0.41406596,0.55765194,-0.40561846,-0.6323757,-0.11748068,0.4617035,-0.44116068,-0.45618528,-0.5758377,0.6202363,-0.5559928,-0.7927209,0.3502945,-0.0065983683,-0.2050826,-0.2612936,0.19695179
-0.6370744,0.30669454,-0.24651998,0.781157,-0.11710627,0.10357486,0.07843039,-0.6853294,-0.05721927,0.20670274,0.026346495,-0.42785984,0.4938536,-0.854236,0.22255445,0.7152224,0.31183127,0.80425507,0.4985268,0.5314645,-0.7566027,-0.1341801,0.8618638,-0.03318752,-0.39907005,-0.5637939,0.88733566,-0.1371818,0.0011059708,-0.48254114,0.5048836,-0.2081606,0.5663959,-0.8030736,0.033239428,0.6523298,0.4197557,-0.4039374,0.089271,-0.063274086,0.22016726,0.7933497,0.157754,-0.79897606,0.11726367,-0.8717936,-0.25320992,0.569472,0.7010279,0.29662672,0.18853424,-0.85774475,-0.09488654,-0.3390529,-0.61217225,-0.4648814,0.08249628,-0.74294627,-0.80064464,-0.8454404,0.22849418,-0.2359405,0.44072315,0.6653372,0.11908503,-0.7227592,0.79461044,0.2763797,0.806051,0.37621087,0.5405379,-0.6503735,0.26858065,-0.47350043,-0.6250393,0.465961,0.38609135,-0.6509628,0.1676615,0.20469402,0.74824554,0.06300916,-0.010341768,-0.10778815,0.4152537,0.28688064,-0.394026,0.27603406,-0.22915344,-0.5420593,-0.51152164,0.3435786,0.4865144,-0.68175316,-0.7889587,-0.05799223,-0.70931953,0.65227824,0.8363401,-0.77971244,0.31320316,0.3185504,-0.5888324,0.032887153,0.08701549,0.74845576,0.10409752,-0.40664497,-0.827567,0.5933137,0.15684776,0.8739487,0.035581168,0.6801284,-0.021311995,0.17824282,0.32726547,-0.30809724,0.5915239,-0.3087308,0.7803189,0.6377955,-0.4399748,0.4277248,-0.4306297,-0.7650005,0.6821254,0.4944767
0.6536054,0.47612944,0.46934405,0.40625936,0.56901723,-0.04522767,-0.8976197,-0.33862755,-0.36280844,-0.6240081,-0.012539878,-0.855816,0.5095773,-0.5677011,0.64063317,0.16501288,0.5908624,0.29066077,0.043977685,0.30476198,0.83083326,0.2842585,0.26430875,-0.058887176,0.4917157,0.44368726,0.0835825,-0.7482227,0.6188397,-0.28695962,0.04990832,0.5184316,-0.024813524,0.37246257,-0.6325081,0.35452464,0.56872916,-0.30634263,-0.63896084,-0.8475134,-0.1748104,0.30802998,0.55483663,-0.030246837,0.7237261,0.5670741,0.6913057,-0.6490142,0.8746284,0.64634097,0.67551655,0.40117934,0.65387446,0.5048468,-0.78466344,0.69722223,-0.343678,0.21991734,0.6183745,-0.09835218,-0.020804865,0.6664236,-0.33831513,0.8580665,-0.34261253,0.5440754,-0.6267417,0.9049216,0.40228394,0.13052446,0.2815454,0.523793,0.6365794,0.7405152,-0.1727102,0.70450133,0.7125542,-0.0905732,-0.35083488,-0.24021912,0.49278992,0.49353313,0.37994364,-0.48236752,-0.1683111,-0.4330783,-0.4334809,0.7315764,-0.5322513,0.6109632,-0.050416093,-0.356381,0.69484913,0.067820795,-0.088452406,-0.25425124,0.27181843,0.07711317,-0.35475856,0.6063882,0.42603955,0.6847576,0.4614048,0.13389923,-0.50732553,0.23390143,0.7670683,0.3027029,-0.060250144,0.7279961,-0.03365945,-0.81233627,-0.5980732,0.1646985,-0.61134684,0.79061925,0.21227781,0.7774732,0.54033625,-0.6438497,-0.856841,0.6890084,0.050940234,0.20910674,-0.5899192,0.48026347,-0.16612716,-0.6461092
-0.061439924,-0.831123,-0.57318956,-0.15819167,-0.7407087,-0.5362713,-0.48018855,0.44344342,-0.32866022,-0.07402581,-0.67448246,-0.020307941,-0.34899408,-0.3034849,0.85495305,0.12784818,-0.8278533,-0.37590852,0.30847985,-0.6119228,-0.7768834,0.0827468,-0.47781384,0.3003609,-0.44694963,0.13510646,0.042487714,0.27020434,-0.30658126,-0.10406763,-0.5124023,-0.4307255,-0.20138206,-0.83795035,-0.67706555,0.38170716,0.08911438,0.12989514,-0.051959436,0.7256693,-0.687298,-0.38453996,-0.884956,0.8136749,-0.27587277,0.17382368,-0.5167245,-0.1394478,0.2621367,0.18243632,-0.4629602,-0.09003842,0.7551,0.09837503,0.3713636,0.29150775,-0.8136798,0.25379804,0.21210255,0.83607835,0.3138948,0.6756599,0.13114613,-0.14991844,-0.09988467,0.020518435,0.1317256,0.58798754,-0.39620572,0.3352284,-0.71913326,-0.6772003,-0.018346008,-0.4516945,-0.35297075,-0.76431847,0.14334355,0.5168542,-0.20608751,-0.41532192,-0.22231823,0.08437815,0.08134351,0.38649055,0.7463626,-0.76791996,0.19104682,-0.85434884,0.14306042,0.19877027,-0.6397181,0.6850407,-0.8626532,-0.5141985,-0.6333896,0.08381298,0.7943963,0.47324058,0.16591552,-0.107749276,-0.5874118,-0.6999904,0.5826854,-0.7935588,-0.58264655,-0.24945621,-0.2193165,0.6885651,0.7933379,-0.71380264,-0.42741925,-0.34373832,0.27957755,-0.57787114,-0.2222094,-0.63223904,-0.82697934,-0.5622456,0.51996297,0.24029875,-0.8020858,-0.041498706,-0.59138274,-0.023883974,-0.77547073,0.6216597,0.5913426,0.3682124
0.2094305,-0.6264476,-0.81086004,-0.010703632,0.42942148,-0.69273907,-0.057306558,0.29432222,0.24184036,-0.22794276,-0.09032071,0.11244971,-0.56736475,-0.54537576,-0.06962608,-0.24110782,-0.22500977,0.56395566,-0.80634916,0.81961757,0.7825932,-0.43784004,-0.440375,0.2973458,0.81179744,-0.7038665,0.26529506,0.53458595,0.7332696,-0.27202532,0.10247978,-0.31040788,-0.5233511,0.29282627,-0.53790045,0.5676121,0.5445185,-0.668423,0.83280313,-0.53546774,0.7795803,-0.0139923915,-0.6991915,-0.32823694,0.7952128,0.4572671,-0.33608332,0.5309857,-0.48299664,0.033656444,0.035250995,0.73682684,-0.0958302,-0.49426442,0.009100994,-0.76613915,0.4648986,0.12398821,-0.3381065,0.8629832,-0.46561292,-0.6388771,-0.36540338,0.3645052,-0.4372717,-0.18401472,-0.3138427,0.5380156,-0.39278013,-0.6682284,0.7640451,0.12707634,-0.58417064,0.14988248,-0.664052,0.5972382,0.7222091,-0.42949826,-0.82225394,-0.32396567,-0.34745485,-0.28747752,0.41188836,-0.28509146,0.05441465,0.119524896,-0.106428154,0.29782498,-0.79250306,0.100904696,0.035362594,-0.2207432,-0.12811992,0.3536051,0.521484,0.109209575,0.8247948,-0.68731546,0.46207756,0.21621667,-0.53327954,0.048915662,0.37463802,-0.8308235,-0.061606683,-0.63934463,-0.80758274,-0.7103763,0.15894856,0.43999523,0.6517498,-0.39463213,-0.22177792,-0.2366378,0.45076638,-0.5650857,-0.3512145,-0.4274769,-0.37283778,0.08142786,-0.2788786,0.5311762,-0.6692707,0.29945216,0.25491986,0.40027508,0.044122305,0.020465652
0.47264218,-0.55450034,0.84967333,0.09356621,0.2574158,0.31310335,0.0840796,-0.26273263,0.80968595,0.7591351,-0.8426839,-0.70024866,-0.1510164,-0.81392765,0.0074960934,0.8608243,-0.057235476,0.7707617,-0.85079336,0.42929646,0.23594087,0.17824289,-0.42797053,0.25813577,0.7700207,0.82843524,0.39883775,-0.5608457,0.6039162,-0.13401024,-0.55631995,0.17157471,0.16524091,-0.7328142,0.41036803,0.050256457,0.9127466,-0.254301,0.020199837,-0.74219173,0.46634465,0.15367699,-0.56622493,0.5568318,0.20151629,-0.21814275,0.065863565,0.076994926,0.6578908,0.7337998,0.20242015,-0.7687326,-0.08551455,-0.17025302,-0.038736075,0.4471677,0.19709511,-0.52189904,-0.13868262,-0.055553723,0.5504638,-0.66131777,-0.7077403,-0.87368125,0.1691158,0.44077334,-0.30931187,-0.24340606,-0.6535609,0.7230997,0.022417461,-0.097056106,-0.67330253,0.5287562,-0.38312143,0.13178723,-0.8398527,0.5319095,0.27179986,0.1721561,-0.469651,0.39322615,0.45027417,-0.6427878,-0.12791409,0.6610792,-0.40764546,-0.1743116,-0.7637815,-0.8558634,0.863343,0.5725376,0.595398,-0.41136107,0.6025742,-0.36424226,0.24796493,-0.6973232,-0.77741796,0.29871464,0.21571636,0.37823442,0.16702682,-0.6810375,0.4531325,0.6948956,-0.2800668,-0.18041474,0.1448994,-0.3628138,0.8774981,0.39889142,-0.06750571,-0.43849415,0.13193415,0.0736826,-0.70388526,0.07483625,0.4368834,-0.7783025,0.07844426,0.30218965,-0.13977882,0.49789387,-0.76685536,-0.08925614,-0.5623796,0.7221593
0.49071795,0.9035517,-0.65534097,-0.22246659,0.6557155,-0.3391846,0.06843124,-0.6462368,-0.6546986,-0.0034811927,0.34420437,0.6454544,-0.31842756,-0.23163457,-0.006375,-0.44738021,-0.29701936,-0.4995688,0.45590025,-0.10618757,0.61773723,-0.34076375,0.579738,-0.6799223,0.026154082,-0.9719956,0.0193298,-0.07308447,0.2103409,0.67264986,0.80077255,-0.14837189,-0.26691294,0.7041038,-0.82927686,-0.20307408,-0.20695545,0.053417098,-0.282224,-0.33773336,-0.5717033,0.24374935,-0.64089626,0.88689464,0.6942463,-0.42024484,-0.15646416,-0.61299455,0.56795025,0.36994067,-0.27189034,0.39026225,-0.6520188,0.45361546,-0.92964894,0.64805865,0.61313665,-0.7848473,0.4375087,-0.52837515,-0.35808316,0.7253421,0.7150722,0.20753872,0.23618884,-0.72767013,-0.18023208,0.4671839,0.68271273,-0.7354159,-0.41199893,-0.11764993,-0.60747933,-0.44897714,0.7038102,0.22651428,-0.097402036,0.44837236,0.3822166,0.08973937,0.087977156,0.84863347,0.7951991,-0.2548042,-0.3265376,0.48417634,-0.017573925,-0.11636027,0.08879145,-0.84466904,0.44353104,0.2584605,0.35999477,0.05221767,0.65513474,-0.013484487,-0.22188829,0.4438665,-0.24404481,0.24852224,-0.06043085,0.4756447,-0.1810547,-0.64695114,0.84833753,0.55909884,-0.39318764,-0.47501028,0.33134606,0.0057798433,-0.08213376,0.60139537,-0.60311645,0.30510038,0.16673802,0.09775447,0.8854027,0.44592234,0.62271446,0.34660906,-0.70561314,0.80725074,0.27025628,-0.10683001,0.35673583,0.82783467,0.4152685,0.16951206
-0.06911987,-0.2810998,-0.034816954,0.5913339,-0.49188572,-0.7026959,0.031430874,0.8033133,-0.68775845,0.23167416,0.6399545,0.34058866,0.24553642,0.4834936,-0.12075474,-0.1448127,0.72073996,0.42575306,0.55403113,0.18733308,-0.25076103,-0.18656823,-0.5988979,-0.088254154,-0.85546035,0.76422507,-0.40360793,-0.57728565,-0.08310603,-0.6868075,0.80248135,-0.2601753,0.7290112,0.07896461,-0.5992504,-0.4705227,-0.5886869,0.4194119,0.3489668,-0.10003795,-0.48879802,0.22064354,-0.79956853,0.08908667,-0.07294029,-0.55374306,0.56235814,0.7683082,0.15964642,0.76766986,0.18268265,0.63334507,-0.19611362,-0.17948723,-0.68927526,0.51277864,-0.7876013,-0.28858265,-0.6603307,-0.47078413,-0.32610872,-0.556655,-0.8294642,0.33058587,-0.006959277,0.4899036,0.7685235,0.8402503,-0.16526538,0.647851,0.15939902,-0.37901953,0.05378835,0.04629745,0.35214248,0.078349546,0.62941515,-0.07516883,0.25474524,-0.37644845,0.6465087,0.115562096,-0.7240754,0.72041637,-0.7918732,-0.51190245,-0.34705365,0.7475223,-0.77833855,-0.8154773,-0.535846,0.5106443,-0.71035945,0.05523751,0.18390001,-0.7142741,0.7177379,-0.44475755,-0.75295544,-0.07002058,0.35540557,-0.6336273,-0.6974791,0.7712511,-0.0731839,-0.47953674,0.85240906,0.075352326,-0.61332667,-0.6745357,-0.47877094,0.0023207583,-0.16072331,-0.6498649,0.107669316,0.59759676,0.16825968,-0.7788946,0.7033726,0.6622398,0.56910586,-0.30144942,-0.51788384,0.8262889,0.41764802,0.8836726,0.86139786,-0.0043133944
-0.84552044,0.5839131,0.53231925,0.14537011,-0.580888,0.34707892,-0.29695925,-0.65043944,-0.7755038,-0.62528884,0.7347338,0.85010594,0.4705178,0.79581356,-0.14422771,0.6254645,0.2786634,0.49220574,-0.36608475,-0.3433924,-0.4901617,0.56472516,-0.49590752,0.85153705,0.17419997,0.21301238,-0.047610052,0.08807717,0.39942694,0.8209003,-0.17482314,0.27609673,0.070435934,-0.31189808,0.055424977,-0.2076706,0.39302236,-0.6679102,-0.068592854,0.18561038,0.29439867,-0.11706144,0.39222905,-0.5075388,-0.24579433,0.81320924,0.76340723,-0.36773923,0.86547035,0.5300215,-0.61209637,0.7807295,-0.6566993,-0.43280113,-0.31355667,-0.20844828,0.8615423,0.051031366,0.50303835,-0.83279335,0.21669553,0.4824121,0.6789607,-0.18171185,-0.80348796,-0.7824628,-0.3780891,0.5111819,-0.049701627,0.8161707,-0.09627834,-0.8672814,-0.057117064,0.354559,-0.7169759,0.66484356,-0.5532361,-0.2299644,0.33847556,-0.5010579,-0.16496442,0.12895606,0.59388345,-0.7682362,0.37919718,-0.6608396,0.57743865,-0.79559004,-0.5588988,0.5201053,0.15248351,0.15491867,-0.3136601,-0.7053561,0.2663248,-0.06302358,0.41016912,0.111308396,-0.17984223,0.3817249,0.018790677,-0.50256085,0.6201593,0.38691327,-0.3532357,-0.31491762,0.7842503,-0.51178735,-0.17920819,-0.70071995,0.74258786,-0.4603341,-0.45416644,0.82524717,0.5263679,-0.2694822,-0.031052193,0.72743493,0.059317693,0.32881746,0.22967185,0.03910947,0.104915515,-0.77842414,-0.585922,-0.31812155,-0.4793888,0.58962905
-0.24396442,0.7774015,0.20714039,-0.13296194,-0.0338472,-0.831585,-0.5460971,0.37628672,-0.6127314,0.025111174,0.6430646,0.77094036,-0.5205662,0.685633,0.5981603,-0.5491034,-0.5065164,-0.44102633,0.90532064,-0.7711084,-0.81757873,0.107159935,0.24336864,-0.59454834,-0.70040286,-0.48674524,-0.23326401,0.6878142,0.8205843,0.5775246,0.74530715,-0.050559532,0.75805503,-0.3593051,0.031742178,0.6046761,0.3910062,-0.37218422,0.3979148,0.65521806,-0.4916636,-0.37963435,-0.7863745,0.33905464,0.30043942,0.68421924,-0.52613956,0.5147605,0.2615966,0.34366745,-0.2496244,0.8808939,0.12803264,-0.25469172,-0.758542,0.5138758,-0.39345437,-0.8713464,0.6115569,0.609781,0.16917166,0.3410164,-0.35321158,0.056201134,-0.4939711,0.57190615,0.616388,-0.41209355,-0.5587216,0.10518309,-0.56427604,-0.122622654,-0.7942607,0.17071773,-0.65200126,-0.41324452,0.112950556,-0.14135294,0.27443835,-0.7839727,0.68777937,0.7569673,-0.15274331,-0.24287178,0.31289703,-0.65645874,-0.115963496,0.56415874,0.1242545,0.57907546,0.38994262,-0.17652838,0.4848686,0.6363879,0.3985139,-0.51760757,-0.14591888,-0.30328327,-0.1907897,-0.7598783,0.54180163,-0.59144425,-0.23433292,0.65645117,-0.18189748,-0.21787296,-0.3669771,-0.57499236,0.25881702,0.5220494,0.1189862,0.040361285,-0.7031997,-0.63628143,-0.4995057,0.32808477,0.09842151,0.79994494,0.048767403,-0.4992177,0.53618485,0.28648505,0.07205175,-0.16492124,-0.71561944,-0.6270956,-0.59787023,-0.79820263
0.6579488,-0.5764148,0.41433504,-0.10112471,0.07988086,-0.8590081,0.6017445,-0.79818964,0.46248567,-0.30401003,0.7686232,0.5028518,0.20061968,-0.6207907,0.7476187,-0.5906069,0.5105476,0.82328033,0.07207473,0.5242893,-0.86291516,0.7801948,-0.47286376,-0.37593144,0.7737441,-0.16962358,-0.30760515,-0.15306948,-0.7618982,0.44007546,-0.6948595,0.4357517,-0.12135838,0.23361313,-0.6546403,-0.48702744,0.6585963,-0.25008556,0.7410916,-0.1520999,0.9065089,0.0007165301,0.27352372,-0.32933733,-0.17264624,0.41395554,-0.31089702,0.27767417,0.72768986,-0.80085605,-0.61097705,0.64269286,-0.7939994,-0.75879776,-0.23670977,0.04863458,-0.29347154,-0.7535031,0.5414653,0.13862173,0.13089,-0.3732804,0.44745573,0.4302954,0.8466563,-0.4335184,0.81924057,0.008889398,0.81056505,-0.61163425,0.2987501,0.15154181,0.85708916,-0.47194058,-0.5633416,-0.6754385,0.4057941,0.15276466,0.40966445,0.8235923,-0.19859323,0.2364591,0.07818593,-0.75778836,-0.65315497,0.42092186,-0.3109816,-0.7904189,0.38034612,-0.6867464,0.36592835,0.10644167,0.64674896,-0.49257904,0.043775965,-0.016937746,-0.6421687,0.40310857,-0.21162787,0.56595325,-0.8052679,-0.38508117,0.3230382,-0.19325253,0.8462816,-0.09405683,0.029512307,0.65318817,-0.79045826,-0.6818012,-0.64393204,0.20407984,0.4208972,-0.13954534,-0.27860394,-0.0879974,0.66880035,-0.63150895,0.11124656,0.019644365,-0.22210562,0.6799316,-0.35330188,0.10060998,0.6330282,0.016265346,0.294819,-0.3463488
-0.48887303,-0.7816332,-0.3688562,-0.049534135,-0.70545375,-0.54935294,-0.8866143,0.5005408,-0.29106796,0.6122479,0.38392553,-0.7996354,-0.2688281,0.071160495,0.9018226,0.30571884,-0.517222,0.7813267,0.26217717,-0.09848896,-0.8102355,0.70567006,0.08235003,0.23482327,0.72324777,-0.6381067,-0.103991225,-0.0140236,0.3185518,0.11295401,0.19161166,0.6774655,0.10097524,0.7190671,0.14565453,-0.2722271,0.42747778,0.76526755,-0.5511493,-0.120890364,0.751849,-0.29659516,0.801461,0.47520778,-0.3030454,-0.83528936,0.88672566,-0.42646798,0.43860087,0.5376832,-0.75203824,-0.78489625,0.57615346,-0.60072035,0.35857472,-0.05503465,0.7038878,-0.20765279,0.7304696,-0.3946344,0.8018136,0.27361345,-0.7235087,0.82590115,0.009718844,-0.5079063,-0.23276854,-0.14243108,0.74709105,-0.55011106,0.1898594,-0.31941006,0.17254427,-0.43577906,0.73267925,0.5185528,0.7954418,0.5810159,0.522321,0.7742333,0.50087124,0.2632139,0.4248646,-0.8802561,0.5472042,-0.021145811,0.34188426,-0.71292645,-0.43568376,0.13407832,-0.014671443,0.47669917,0.75046456,0.372342,-0.67012346,-0.38518745,-0.28052375,0.25335965,0.15578043,-0.7342321,-0.6949206,0.16420057,0.4252027,0.6075764,0.15562059,0.23819837,0.27583978,-0.047496576,-0.057527464,-0.75250715,0.33794838,-0.36170113,0.0989828,-0.34525,-0.26376405,-0.30298156,0.6117816,-0.4637413,0.032358103,0.727656,-0.6053512,0.9019793,-0.28574297,0.48577175,-0.26009563,0.55494785,-0.52209634,-0.07025333
-0.067699224,-0.12795061,-0.6573777,0.17849661,-0.1736071,-0.11427054,0.06707895,-0.24141222,0.1970104,0.48587137,0.78905123,0.69057643,0.22469455,-0.13994074,-0.24390559,0.33417645,0.031884786,-0.33367017,-0.5506936,0.281446,-0.25300035,-0.7680624,-0.8576765,-0.45676163,-0.74186504,0.19173665,0.75836414,0.14793003,0.11111007,0.20081331,-0.2462571,0.44221914,0.5658837,-0.23110521,0.30021077,-0.30787224,-0.6203822,-0.8850733,-0.61139315,-0.10789448,0.245713,-0.1903272,0.6211592,-0.66490066,-0.114524506,-0.3209299,-0.64636916,-0.44032463,-0.2591969,0.4450306,-0.6620216,0.5728816,0.033862866,0.62061054,-0.040981196,-0.7772195,-0.7868285,-0.5690897,-0.68419504,-0.15809022,0.04780103,0.49505818,0.07242609,-0.5339784,-0.316098,-0.36977315,-0.5219769,-0.61875856,-0.13019347,0.44498283,0.69657123,-0.6880062,-0.7203455,0.030695947,0.12865415,-0.3952469,-0.08525983,-0.3230838,0.7974333,0.6531659,0.20538804,0.3160873,0.74158126,-0.21759778,0.2250812,0.57229006,-0.05379958,-0.772098,0.12646134,-0.35720405,-0.8511744,-0.52508557,0.027910037,0.5387233,0.35544324,0.72342205,0.4992749,-0.6122751,0.19086957,-0.19445425,-0.42576042,-0.36533847,0.61083525,-0.66502196,-0.071808115,0.44324955,0.7119125,-0.2382552,0.2858372,-0.55784005,-0.4309579,0.3719698,0.15252173,0.69567937,-0.2021607,-0.6340954,0.8757465,0.44539043,0.46315527,0.5604231,-0.48005033,-0.61114043,0.5391451,-0.1636613,-0.7462511,-0.22483979,-0.13241628,-0.8076679
0.23903677,-0.42960942,0.3435626,-0.43922567,-0.13800773,-0.5042448,0.44553527,0.5476829,0.6553029,-0.28859216,0.86875993,-0.3468806,0.13064061,0.65638226,0.52890325,-0.4145108,0.1501861,0.28982523,0.6706075,-0.090961,-0.18887584,0.0809933,0.5079883,-0.004674233,0.68980855,0.33459792,0.6977872,0.7961189,0.3120835,0.07038714,0.5460363,0.02447975,-0.53676087,-0.46498334,-0.67229164,0.16329966,-0.70199025,0.8407786,0.15061077,-0.017925626,0.8342202,0.36796844,-0.5913746,0.4423074,-0.83086157,0.68988323,0.26756206,0.12341451,0.8514173,0.09525796,-0.7109701,-0.625353,-0.37851554,-0.8008042,-0.21777801,0.042338226,0.81847924,0.8521371,-0.66151917,0.41402173,0.43402797,0.6056331,0.443974,0.6572508,-0.8543833,-0.062367614,-0.8250171,-0.25175503,-0.46014953,-0.7062853,-0.80148107,-0.7268075,0.8089508,0.52601755,0.6352973,0.03288386,-0.88645947,-0.4814756,-0.14186245,-0.70950335,0.6452893,0.34953144,0.028188404,0.08399754,-0.02188791,-0.6333146,-0.19347812,0.5454142,0.119817205,0.7186666,-0.11934709,0.1158966,0.29922447,-0.13406546,-0.5454663,-0.46563202,-0.49890268,0.0755357,-0.41951904,-0.6261593,-0.6899062,-0.5461996,0.5711272,0.13149787,0.34113777,0.07964548,0.34341285,0.49149138,0.6330107,-0.6476202,-0.6425487,0.09894146,-0.1213894,-0.24138695,-0.030845687,0.34862012,-0.81420684,-0.611273,0.05040908,0.72725487,-0.7179811,0.4125117,0.30626002,0.87604785,0.5061635,0.18598059,0.40861243,-0.4762812
0.017008053,0.83756906,0.67574453,-0.52421594,0.29385692,0.63699216,0.8670191,0.31925887,0.6700054,0.08000064,0.38725254,-0.19538742,-0.6561964,0.36972275,-0.21320853,-0.71970195,0.5001035,0.61177987,0.025900783,-0.11992505,0.48472252,-0.7359483,0.2731027,0.10294605,0.6988193,-0.83842665,-0.88183236,-0.4399822,0.30244425,0.029038293,-0.24310699,0.80221796,-0.4308786,0.3784685,-0.5876233,-0.5194309,0.34319162,-0.55001026,-0.8716884,-0.3588038,-0.19611703,0.001652434,0.04874422,0.84026444,0.19543907,-0.7358227,-0.44137016,-0.26392782,-0.67208177,-0.07566048,0.6767517,-0.41128108,0.82883227,-0.7385708,0.6458613,0.17900959,0.6370766,0.30085835,-0.20929211,0.4371928,-0.42670703,-0.20000912,0.047185265,0.53714544,0.34032613,0.20161887,-0.45821387,-0.21644133,0.3498823,0.4517207,-0.03277799,0.5882909,-0.37771764,0.41299507,-0.4738122,-0.90245545,0.26246646,-0.46338752,0.16517253,-0.05681342,0.10341063,-0.8096522,-0.62056977,0.43486044,0.33893427,0.80307096,0.80061716,-0.18494593,0.6900347,-0.77074546,-0.75477505,0.030676747,0.41915327,0.6796774,-0.63963515,-0.27875745,-0.7782791,-0.51520705,0.24664913,0.62945276,-0.8135839,0.2919365,-0.8735365,-0.45048636,-0.7912497,-0.107153095,-0.44391474,0.3025558,0.7015103,-0.17622225,-0.49338123,-0.40333307,0.15965098,0.5182571,-0.21732841,-0.85570455,-0.40875953,-0.67702204,-0.057944912,0.00011048843,0.29987308,-0.50349206,-0.026108034,-0.29971763,-0.52676535,-0.020639583,-0.48779646,0.52145636
0.5587002,-0.51210326,-0.63006896,-0.70959777,-0.6225034,0.30395165,-0.5250819,-0.16399293,-0.40875843,-0.48450202,0.59428185,-0.57542056,-0.026540343,0.39227337,-0.68838817,-0.83886313,0.14539199,0.57727754,-0.5967845,-0.030612707,0.46681154,-0.52971613,0.4692415,0.83473605,0.12315444,-0.5851026,0.7950989,-0.027246013,0.022891747,0.5280443,0.18346056,0.084305555,0.059756078,0.29437268,-0.7735848,0.114542775,-0.80697864,0.48958206,-0.45208722,-0.84000856,0.119826116,0.7854223,0.5449519,-0.06957179,-0.4383567,0.2873045,1.0379813,-0.11518603,-0.5822035,-0.12741633,0.8264176,0.5627153,-0.3480712,0.22780706,-0.6234882,-0.609774,0.39356768,0.6873036,0.09624217,0.95478123,-0.11998873,0.38181862,-0.22365578,0.2567441,0.17898472,0.79407096,0.3972461,0.34749553,-0.37905684,-0.26911506,0.3329988,-0.42640057,-0.24959564,0.7741375,0.27489164,0.41264236,0.124749504,-0.6938594,-0.34941924,0.19987367,0.67453855,0.26490372,0.21568058,0.37425423,-0.09376159,-0.3733852,-0.3971915,0.74842936,0.018815653,0.90092146,0.18441316,-0.24909379,0.8924307,-0.38282433,-0.23199823,0.7594991,0.028319601,0.17357893,-0.44697645,-0.28581023,0.10853213,0.6542927,-0.4898447,0.41031975,0.38863295,0.44053304,-0.5282094,0.3650746,0.35644737,0.23322222,-0.775274,-0.6708231,0.5551054,0.560228,0.16801473,0.55536187,0.7473335,0.40613458,-0.7409677,-0.12321028,-0.42881158,0.42134777,0.65786546,0.6685716,-0.04722026,-0.605112,-0.27474043,-0.46382815
-0.6764708,-0.5537089,-0.720102,-0.15890516,0.4812154,0.33638504,0.29017273,-0.16449787,0.61132246,-0.41929278,0.25833482,-0.50685245,-0.835096,-0.16709827,0.48422736,-0.6859039,0.3851797,0.7156576,-0.78214043,-0.49036703,-0.62567955,0.50698817,0.25582504,0.5318442,-0.38882375,-0.63973254,-0.79458874,0.7628308,-0.59399235,0.36434546,0.77505285,-0.5861759,-0.02798801,-0.5764886,-0.8140874,0.8180504,-0.29894894,-0.27066457,0.009181666,0.79776317,0.52498907,-0.021774175,-0.8040656,-0.10111812,-0.4702656,-0.40275085,0.44234806,-0.5669988,-0.22200172,0.056977395,0.8324129,-0.12246683,0.43389687,-0.43739903,0.4769299,0.53475344,0.6786361,0.38082635,-0.8042817,0.45730364,-0.81188655,0.81379133,0.38832363,0.38915437,-0.8595665,0.72039676,0.36245134,-0.7704278,-0.5690395,-0.6728027,-0.7812035,-0.54595095,0.2082703,-0.4391295,-0.8371943,-0.27515632,-0.7050297,0.2569965,-0.34339106,0.25327775,-0.24520423,-0.5740162,-0.75143677,-0.69701016,-0.39196151,0.2616438,0.8578107,0.27394658,-0.002253762,0.5366706,0.6406516,0.25635284,-0.75847846,0.7252122,-0.54129165,0.50224173,-0.7826269,-0.06965793,0.48867,0.106740154,0.62626576,-0.45826966,0.6414744,-0.63215137,-0.88547426,0.14899825,-0.48371392,0.2857916,-0.14711499,-0.76410806,-0.016084637,-0.35440794,-0.5238892,0.010604414,-0.0069852774,-0.67496705,-0.07515127,-0.8360173,0.31905445,0.32056695,0.51568633,0.16686766,0.06693427,-0.04081503,-0.5885305,0.11502524,-0.782507,-0.44494307
0.2607418,0.11528221,-0.49020177,-0.67237455,-0.08436455,-0.7008393,0.037734907,0.4248667,-0.87727034,0.0068859328,0.11138771,-0.49955785,0.38759893,-0.55035305,-0.48863775,-0.50421166,-0.41005576,-0.16771872,0.15741773,0.10172826,-0.5365788,0.2741647,-0.5413047,-0.2159153,0.41113433,-0.87410456,0.5030946,-0.36287844,0.16396318,0.6729397,-0.7898848,-0.82022303,-0.4526921,-0.33638772,-0.19469875,-0.67584366,0.4669617,0.2657276,0.64032555,0.38599867,0.8522891,0.5320206,-0.1682219,-0.82159144,0.3838721,-0.51874167,0.7204539,0.27127677,-0.77030516,-0.3835342,0.09432515,-0.18423507,0.636893,0.0714189,0.67016715,0.39135823,-0.22313923,0.34573248,-0.6459915,-0.2414949,0.5833312,-0.36985493,-0.16102412,0.829121,-0.4678714,-0.61316675,-0.8434101,0.51649684,-0.2993963,0.066377945,-0.2951161,0.42362964,0.029903777,0.5799946,-0.5899733,-0.022660224,-0.86427546,0.054150064,-0.82551813,-0.37766242,0.53603315,0.04477004,-0.76637137,-0.7660851,-0.44753578,0.15493791,-0.69328135,0.78395855,0.5481479,-0.5065647,-0.089369506,-0.8123516,0.3246432,-0.33044106,-0.47947457,-0.10664962,-0.81170326,0.4116045,0.23019992,0.5654287,-0.88624024,-0.8773259,0.7157839,-0.6138436,0.14677505,-0.27725884,0.16076522,0.24747011,0.6811313,0.47697443,-0.30167496,0.85047245,0.11698891,0.42256802,-0.17227365,-0.71300024,-0.36938587,0.41526863,-0.5052465,-0.7624312,0.3052863,-0.56347805,-0.8107281,0.5243983,0.2422622,-0.46522808,-0.6974092,-0.18199623
-0.29815137,0.14905024,0.046056356,-0.67949635,0.70183986,-0.47738865,0.5888651,0.82549816,0.30461517,0.23483768,-0.7780276,0.08134765,-0.6061741,-0.34420344,0.6313127,0.112758316,0.713939,-0.15323655,-0.31355718,-0.7402198,-0.62019134,-0.1673724,-0.08721863,0.60634696,0.31218636,-0.102632046,-0.09439461,-0.35936496,0.42985752,-0.12328188,-0.027522834,-0.24105941,-0.5429851,-0.5080749,0.7954596,-0.22542745,0.33466718,-0.53533894,-0.55660063,-0.4055277,-0.043583397,-0.65016574,0.48785138,0.19017716,-0.28902742,-0.02168784,-0.070116565,-0.54010516,0.21491629,-0.28344673,0.2757423,-0.70192206,-0.5848667,0.51181984,0.9517564,0.57579994,-0.45425278,-0.18124935,-0.37850934,-0.6680358,0.6284066,-0.43954432,-0.5130009,0.25632218,-0.3074579,-0.5524209,-0.2239175,-0.85827255,0.5261508,0.46540937,-0.83266354,0.028570466,-0.6959934,-0.73647815,0.9456391,1.0033805,-0.3403336,-0.35827747,0.5514007,0.46644193,0.64476424,0.7098196,0.1291487,-0.08183657,0.44594005,0.062550046,-0.23884995,0.43195626,0.81332433,0.8402563,0.71022964,0.36406127,0.22439809,0.0640962,0.08871814,-0.107005775,0.7697764,0.22695467,-0.6423353,-0.44762114,-0.46041715,-0.32769504,0.37791264,0.7055486,0.4951821,-0.3216426,0.62918377,-0.19865106,0.4749243,0.15063423,0.719762,-0.7915168,0.34559682,0.10963141,-0.2514545,0.3738891,0.752747,-0.6646915,-0.47663286,0.47846133,-0.529021,0.53869677,0.005916829,0.45913243,0.8740302,0.35713914,-0.818103,0.64624166
-0.5286171,-0.5425752,-0.35798243,0.43588677,-0.8144073,0.4274972,-0.15379167,0.6027722,-0.3148033,-0.4348938,-0.7749462,-0.3097514,0.6367731,-0.36382756,0.022048008,0.30987108,-0.23462938,0.8508316,0.4464741,0.12973648,-0.4134087,0.2929268,0.7617929,0.34208214,-0.682674,-0.8035601,0.121162556,-0.5391051,0.60087776,-0.013396618,-0.6702181,0.3223987,0.5540514,0.6328175,0.2935725,-0.4158656,-0.580922,-0.12888505,-0.101836324,-0.5427557,-0.843784,0.7448884,-0.52063715,0.6547015,-0.3798759,-0.5476413,0.058565445,-0.3793642,0.07271745,0.6941742,-0.61706126,-0.702536,0.5425001,-0.68777025,-0.8525726,0.6444702,-0.6495802,-0.4704595,-0.8130217,-0.8562548,0.20207381,0.85094494,-0.7716047,0.12657195,0.83347785,-0.4245745,0.1781993,-0.17228414,-0.7335262,0.42779636,0.28192037,-0.0228456,-0.71699667,0.35982648,-0.75553644,0.4037724,-0.093574904,0.46431813,-0.02451138,-0.48849845,-0.25428516,0.0833158,0.6132569,0.023862483,0.6748966,0.5066826,-0.16048695,-0.4804534,-0.249222,-0.096367344,0.43101063,-0.06830755,-0.17909257,-0.35971242,-0.7819891,0.85025376,-0.85388607,-0.6084951,0.09976385,-0.20701209,0.6196937,-0.79005283,-0.29064518,-0.020183379,0.010184422,0.6195678,-0.4028542,-0.43077445,-0.74778545,0.8390121,-0.7423938,0.008167712,0.55726117,0.44866464,0.21251135,-0.5608943,0.77910966,0.019135822,-0.5980677,0.82027745,0.035506718,-0.85400635,-0.79305977,-0.3121028,0.10439094,-0.76758754,0.3184743,0.564011
-0.82218844,-0.7997253,0.28457817,0.20068362,-0.6234855,0.822992,-0.47611594,-0.32976335,-0.5028224,0.10514934,0.37143087,-0.4038131,0.21073624,0.7184776,0.56927913,-0.5505027,-0.8289908,-0.30036855,0.043213505,0.32958034,-0.34398854,0.3848337,0.24405792,0.707177,0.71791816,0.059934482,0.4431337,-0.29152152,0.75600576,-0.47134948,0.49265447,0.019218946,-0.019689957,-0.8434901,-0.45982948,-0.782283,0.6027096,-0.5451401,0.016799957,0.834251,-0.007311594,-0.08439409,0.58921474,-0.8580022,0.5066491,-0.44548663,-0.02779452,-0.55131775,-0.6918472,0.59849405,-0.5134898,-0.38304138,0.6965923,0.46049783,-0.091579184,0.5543954,0.59337115,0.058004055,0.8217592,-0.5976012,0.87321913,-0.5151557,0.68250686,0.20286004,0.8444892,-0.39641178,-0.24749278,0.2796167,-0.14602101,-0.70126784,0.52501595,0.21188289,0.77953273,-0.49554452,0.9145254,0.8101646,0.46063855,-0.18003917,-0.74990666,-0.74432343,0.04467825,-0.6449139,0.9444818,0.8042152,-0.7676342,0.47650927,0.03627682,0.825287,0.8150487,0.35333905,0.3099534,-0.8676691,-0.04650072,-0.7143744,-0.7136808,0.4195053,0.5357587,-0.29320836,-0.15099667,0.73903185,-0.72688967,0.12492113,0.6369716,0.8397312,-0.746132,-0.7203482,0.79677963,-0.67260766,-0.68952936,-0.19388823,0.83223623,0.8468965,0.15833087,-0.06825626,0.17245965,0.09202282,0.57090646,-0.31136855,0.06514127,0.11464837,0.41448697,0.29475218,0.32822397,0.6003725,-0.35834232,-0.80930495,-0.03577446,-0.55885446
-0.036243603,0.6647799,-0.8612154,-0.86037064,-0.3189665,-0.20611404,-0.30121997,0.47270745,0.45084593,0.31270695,0.70597714,-0.5559981,-0.27893224,-0.15753797,0.7414692,0.31572086,0.05901731,0.58112806,-0.81725925,-0.87615484,0.80620795,-0.6426873,0.29305,-0.6867068,-0.31924206,0.40284213,-0.3977815,-0.3413978,-0.15072091,-0.40667737,0.25206056,-0.16833341,0.36005226,-0.67739576,-0.22356695,0.05232086,0.7454846,0.41450354,-0.37080547,-0.3618805,0.11731126,0.47443607,-0.44466832,0.103927806,0.65531325,-0.8533781,0.7984799,-0.093417436,-0.83247024,0.31742242,0.7381485,0.27810118,-0.17171614,0.16785084,-0.43512684,-0.12279828,-0.68620807,0.42666116,-0.022936974,0.80526286,0.32278222,-0.14755298,0.20958376,0.4030044,-0.5141684,-0.2150764,-0.23938203,-0.013271319,0.8523129,0.38576356,-0.7415088,0.23367861,0.26520526,0.83294594,0.7539347,-0.80033195,-0.526183,-0.24999687,-0.62676924,0.43232164,-0.14100693,0.32389447,0.12206796,-0.061224956,0.8719102,-0.05513866,0.48644525,0.678045,-0.45825166,-0.3393685,0.4628817,-0.79838204,-0.65394896,0.28722998,-0.10905245,0.8561016,0.11192213,-0.1158446,-0.075870894,0.6958562,-0.48890495,0.7197166,0.054703865,-0.18162015,0.08739099,0.6874057,0.5823097,0.16449381,0.26808345,-0.22016566,-0.080444105,0.61509573,-0.0718197,0.08617934,-0.83762914,-0.4423194,0.40964323,0.2659763,0.32397914,0.3599561,0.2542984,0.0023984392,0.0027232491,0.06685688,-0.36832887,-0.667455,-0.5323866,0.79122496
0.39045772,0.2659554,0.78450364,-0.2642352,0.8556784,-0.31962022,-0.8841407,0.62427217,-0.77245337,0.7592327,-0.3934858,-0.49098232,0.5209689,-0.43574286,0.28896433,0.56139255,-0.8222782,-0.16697222,-0.38099894,-0.55927765,-0.49398464,-0.28687018,0.13349831,0.5554446,-0.7946759,0.054059267,-0.40966335,0.102198325,0.0738649,0.5654852,-0.091811925,-0.17064582,0.52171814,-0.33085036,-0.59246016,0.38602304,0.39116374,0.4839777,0.27119476,-0.41235763,0.37211064,0.7376683,0.7516411,0.4546527,-0.6491005,0.5522095,-0.14600624,-0.12188636,-0.65841764,-0.06255547,0.069726184,0.85856235,-0.5378519,0.18787435,0.0990517,-0.20551716,0.24119227,0.1686259,0.09383746,-0.7156656,0.40179023,0.15563929,0.62146753,-0.5145219,-0.07342285,0.5093678,-0.063598335,0.12934344,0.65520185,0.15703788,-0.07928992,-0.5192496,0.79381317,-0.025868138,0.871298,-0.7291327,0.20862272,-0.7203504,-0.42393574,0.68373364,0.5347129,-0.71949875,-0.42994025,-0.13178085,-0.8693389,-0.7703118,-0.540123,-0.15484318,0.07510518,0.5191973,-0.11836141,0.83739805,0.32668442,0.51085764,-0.5422596,0.679909,0.33622348,0.021909487,-0.69665253,-0.42532644,-0.6588548,0.83049524,-0.512547,-0.29377022,-0.7931144,-0.79461014,-0.84456015,0.77547574,-0.06436723,0.63546634,0.15193027,0.8083649,0.6586402,0.28294677,-0.5474581,0.68637407,0.8076495,0.018330505,0.6805633,0.8331855,-0.8212003,-0.43646652,-0.123380356,0.689774,-0.7724665,-0.23549193,-0.8311398,-0.32939675
-0.7669207,-0.3114346,0.40671054,-0.39725435,0.63566613,0.52733827,-0.6037621,0.09607759,-0.28591394,0.49290887,-0.5516988,0.009644368,-0.12178191,0.16118412,-0.5865833,-0.43130943,-0.3066794,-0.060783,-0.8349302,0.79138374,0.36375624,-0.6291074,-0.5512584,-0.21831258,-0.8749424,0.2140488,-0.7991544,0.039638013,0.30334464,-0.39655647,-0.69811356,0.1474164,-0.75156206,-0.8531652,-0.47825092,0.01485273,-0.16649118,-0.22584571,-0.88089556,-0.016951798,-0.49039495,-0.7863756,-0.107434295,-0.15011092,0.3585241,-0.33836696,0.40731063,-0.20984587,0.75925964,0.5221116,-0.16582592,0.17366894,-0.8359912,-0.74877375,-0.28018707,0.1281118,-0.32227492,0.3823551,-0.7405847,0.03407089,-0.4369157,0.795514,-0.4667454,0.82105047,0.82683396,0.43585917,0.11067243,0.6677736,-0.31857365,0.07464109,-0.71764934,-0.53665674,-0.6512711,0.19414365,-0.27740029,0.489862,-0.009930961,-0.36436445,0.5503227,-0.12428395,-0.5288555,0.34945437,0.09384691,-0.43928605,-0.5188505,-0.60095894,0.23837644,0.77774984,0.37676218,-0.78419405,0.37370506,-0.6685982,-0.26742464,0.35462415,0.4239713,-0.7688861,0.7120414,-0.16027665,0.4013652,-0.16365477,0.11885784,0.3178876,-0.7934724,0.11984354,-0.6209759,-0.3383167,0.6578316,-0.83564544,0.3844089,0.7584022,-0.43431094,0.47004694,-0.33930972,0.4388687,-0.62950295,0.24575002,-0.06159413,-0.29179454,0.3943892,-0.15981488,-0.75222194,0.021669874,0.6262797,-0.5632525,-0.5561209,-0.07834954,-0.59883237,-0.7519696
-0.7990527,-0.15861224,-0.5272649,-0.22236407,-0.80205923,-0.05347644,-0.8610101,-0.05907087,-0.77358836,-0.12853281,0.7622636,0.34719098,0.020352779,0.40255207,0.554789,0.7185922,0.87719965,-0.80743843,-0.62250173,0.82855195,0.4656425,-0.5851728,-0.362983,-0.0145275565,0.62717456,-0.83125097,0.11538137,-0.32698247,-0.29575333,-0.022969456,0.7869973,0.6297826,-0.74886656,-0.14294189,0.037068374,0.38785732,-0.6602987,0.45087102,-0.6023752,-0.349539,-0.6466906,-0.40358394,-0.021759344,0.6208401,-0.81089556,0.19245785,-0.38165703,0.057789605,0.7271552,0.13976592,0.3559324,0.51265013,-0.4604098,-0.5589134,-0.837739,0.19958025,-0.20072356,0.34065872,-0.2966473,-0.026927432,0.7852381,0.46354493,-0.15983117,0.598348,0.5498673,-0.6522142,0.8708129,0.7524269,0.27401575,0.11629076,0.3768225,0.8689518,-0.22761929,0.7727996,-0.15040584,-0.033570416,0.59412307,-0.572588,0.10422532,0.44884205,0.15524898,-0.6766421,0.33366925,-0.65127724,0.80081457,-0.32513693,0.31585643,0.116653115,0.29453477,-0.14581628,-0.6053584,-0.57886285,0.7914053,-0.00813548,-0.80954,0.65438724,-0.24393992,0.5745247,0.6973177,-0.66206163,0.8218679,0.28119358,0.3835774,-0.40603015,-0.42087564,0.31431472,-0.6694808,-0.23877747,0.5311579,-0.37307566,-0.45410597,-0.2729208,0.14841212,-0.03879349,-0.26751363,0.42040855,-0.37099883,0.87751746,0.4611749,-0.18267642,-0.4443911,-0.7091422,-0.4026484,0.3112535,0.5285738,0.32430503,0.49382922,0.834518
-0.8071559,0.7102033,0.11338978,-0.7874091,0.21436356,0.5757597,-0.36815277,0.56059456,0.14595735,0.48168796,-0.59499687,-0.8392242,-0.07421833,-0.29825288,0.17512085,-0.8804652,0.64253795,-0.68220985,0.6742098,0.45834336,-0.82398,-0.47254178,-0.21766761,-0.4732197,-0.55788153,0.33574143,-0.42251936,0.63715816,0.7961205,0.17113286,-0.8431078,-0.57692146,0.67950946,0.18471022,0.8106709,0.05457091,-0.1261882,0.18839481,0.042291604,0.56788456,-0.7903939,-0.6365701,-0.37546548,-0.6133395,0.043128617,-0.80254114,0.5460216,-0.23605677,0.075594656,0.5495265,-0.23595701,0.66868037,0.7175112,-0.8738515,0.20867325,-0.04171481,-0.415966,-0.7614309,-0.01600526,0.28306663,0.43249065,-0.2790491,-0.8144838,-0.75027275,-0.18151625,-0.44438145,0.47078475,-0.39465085,-0.41325587,0.47070244,0.3053797,0.17906493,0.23910512,0.016708015,0.44276756,0.31084263,-0.39652407,0.32040167,0.107637756,-0.8394037,0.121310726,-0.5828523,0.3356568,0.42791444,-0.40832904,-0.010856562,0.27634516,-0.23694493,0.25346816,-0.12752405,0.53079194,0.8624153,-0.6788637,0.7570252,0.35373184,0.15811138,-0.83142936,-0.09284583,0.4871153,-0.11186674,0.7440649,-0.74569774,-0.60728633,0.48267874,0.7787569,0.1805279,-0.51167494,-0.4467555,0.5071458,0.67176366,-0.38078922,0.7901419,-0.7486543,0.24787538,0.41243672,0.23321846,0.14575753,0.09169751,-0.5937271,-0.05549938,-0.16404738,0.70987123,-0.40645993,-0.15812585,0.18566388,0.14715497,-0.21296424,0.31178725
-0.8705782,0.7129449,-0.6571405,-0.16824695,0.7255641,0.15633601,-0.20064163,-0.12396458,-0.85587376,0.43598473,0.85393083,-0.45485967,-0.42206606,0.31527138,-0.16764128,-0.65540516,-0.45829234,-0.5442837,0.06623036,-0.07371991,0.66176516,0.56131464,0.26445833,-0.7766079,-0.65470827,0.3018307,0.41291055,0.68376184,-0.07522536,-0.7923367,-0.3768486,0.15320164,0.06263823,0.383552,-0.38144743,0.30521467,-0.16119118,0.37565097,0.6594209,0.51710993,0.6399794,0.3974883,0.117437765,-0.6209224,-0.42425352,-0.5994872,-0.8673394,-0.0098968735,-0.650063,-0.028509429,-0.4787858,0.52591705,0.26472524,0.63049144,-0.65339005,-0.18563308,0.37197375,0.26206163,0.41227084,0.23847076,0.3902219,0.059832577,-0.8674977,0.42323914,-0.8790965,-0.7321378,0.18892209,-0.49373642,-0.16684288,0.0077439183,0.604176,0.78738856,-0.6414077,0.20892909,0.6590624,-0.23895466,0.6553037,-0.3351292,0.000401185,-0.6416805,0.6822507,0.57525945,0.8225875,-0.73952776,-0.25159764,-0.5372303,-0.46636128,-0.6087325,0.39727828,0.20196043,0.13525732,-0.272609,-0.11970562,-0.25867987,-0.3331193,-0.24990717,0.68849736,-0.6387199,-0.35052592,-0.7257212,-0.6585293,0.6775499,0.052606188,-0.22577254,-0.81038976,0.65842974,0.6724987,0.66768557,-0.6320322,0.15228955,0.04037602,0.09789553,0.82220614,0.3106474,-0.7111499,0.0919329,-0.33612797,-0.3123869,-0.44475213,-0.67614895,0.47924736,-0.53455263,-0.89332247,0.5995983,-0.8064172,0.46157748,0.31831342,0.6659199
0.16857474,-0.0610084,-0.4170499,-0.591183,-0.71447664,-0.87672955,-0.5111637,-0.759032,-0.57567215,-0.71068126,-0.35057,-0.4027284,-0.49527633,-0.52193797,-0.21716003,0.49813637,0.7145035,-0.5333124,0.8019603,-0.45556912,-0.6571603,0.8443193,-0.57870406,-0.26962978,0.8442467,-0.26828837,-0.14210393,0.4427825,0.60753167,-0.56618315,0.4268654,-0.28399053,0.43627006,0.52471405,-0.0719341,-0.31722933,0.6240479,-0.501342,-0.37044293,-0.5103761,0.332296,0.5263485,-0.34248286,0.6646678,0.7175213,0.19395106,-0.37602448,-0.58821505,0.082371704,0.5468325,0.42149633,-0.4786665,0.48271057,-0.70853364,-0.047908973,0.09134241,-0.8022625,-0.5336396,-0.6193494,0.1552299,-0.7667628,0.3553259,0.6694678,-0.7764338,-0.7208441,0.40563092,0.634805,0.38773307,0.10226204,-0.819514,0.36537617,-0.13178393,-0.073963754,-0.69905746,-0.87692374,-0.61496603,-0.46852744,-0.45579785,0.02632752,0.7284495,-0.08852745,0.101473145,-0.7005375,0.40406436,0.118595034,0.25401798,0.25075305,0.06599217,-0.057850648,0.24685112,-0.36326385,-0.5683008,0.45863292,0.58797574,-0.8087011,0.21349074,0.62074906,0.4486537,-0.7036582,0.18578404,-0.310894,0.58199906,0.41922328,0.009851075,-0.62163746,-0.27405477,-0.22654861,-0.38644412,0.10495029,0.6296924,-0.8075355,-0.882912,-0.08218519,-0.52388316,0.64096653,0.8047777,0.3749882,0.33827794,0.13813336,-0.022066742,0.43982786,-0.35609517,0.36338514,-0.08956892,0.42029205,-0.2642612,-0.41567948,-0.08859588
-0.027384773,0.21636386,-0.46694604,0.3945256,0.24247688,0.68502796,-0.8807437,-0.8027398,-0.55379677,-0.41731563,-0.83811224,-0.38392287,-0.4246179,0.8579091,-0.03022537,-0.87921554,0.2936621,-0.30265427,-0.7858953,0.50067323,0.6103257,-0.26446718,-0.7035434,-0.42185318,0.04275777,0.13904068,0.5736626,0.7384921,-0.38272986,-0.29917374,-0.83303976,-0.117405094,0.17347224,0.2730857,0.5887479,-0.60869706,0.47058454,0.627932,0.79414636,-0.33650303,0.16127715,0.334492,-0.67847943,-0.50448614,0.4633195,0.017607536,-0.8220616,0.1602191,-0.75846326,-0.5126459,-0.6215051,0.12626413,0.83451957,-0.053916905,0.6202164,-0.29796797,0.5974678,-0.3361478,-0.19424875,-0.31486505,-0.5316281,-0.68106306,-0.10117758,-0.122031845,0.118008666,-0.62923604,0.04005681,0.531738,0.5998743,-0.19187611,0.34832507,0.50452334,0.485691,-0.4591185,-0.35905388,0.03965685,-0.4056485,0.098340355,-0.34939858,-0.35422084,-0.2740383,-0.6678107,-0.73406357,-0.14761043,0.029080724,0.5462028,-0.16961761,-0.5695755,-0.7974833,-0.84760976,-0.20451604,-0.7622793,-0.70149374,0.13428055,0.8270231,-0.70213157,-0.7798478,-0.7931379,-0.76865554,0.6243552,0.29118195,-0.37856328,-0.34460327,0.23004353,-0.69872195,0.85059386,-0.87065214,0.63337404,-0.11424087,-0.62103564,-0.7787073,0.003920868,0.4872237,-0.50635844,-0.7909633,-0.06701415,-0.34211916,0.24885915,-0.04091321,0.5760076,0.45159253,0.07706328,0.0029990778,-0.8589684,0.6484912,-0.27914405,0.27711824,0.36986235
-0.74727976,0.31401023,-0.27186662,-0.5475063,-0.47802904,0.17023543,0.4694912,0.49294913,0.4873212,-0.6948123,-0.27625853,0.46490228,-0.83267576,-0.5599398,-0.18701293,-0.42113528,-0.75916076,-0.34794477,-0.4126217,-0.84841794,-0.40801787,-0.29627052,-0.77351266,0.038196146,-0.4980654,-0.7026259,-0.033507712,-0.49407813,-0.6315566,-0.7744308,-0.38899484,0.31060675,-0.11006965,-0.4780781,-0.2916345,-0.03975582,0.3155583,-0.22287974,0.43820772,0.59296036,0.46082485,-0.7502724,-0.5533616,-0.22951812,-0.08944987,0.59617484,-0.23110713,0.8236423,-0.7724481,-0.71596014,-0.6850808,0.7523415,-0.14924754,0.32745552,-0.7239968,0.08306582,0.7855764,0.40447316,0.1858481,0.4606034,-0.17280523,0.43283218,-0.5343291,0.7082392,-0.28864938,-0.17557299,-0.19237539,0.5772727,0.2606151,0.567176,0.18553571,-0.16889799,0.65943986,0.346991,0.1264994,-0.11833641,0.6994305,-0.88321924,-0.18090226,0.8704775,0.7487682,0.364292,0.8577119,0.2975458,-0.7805022,0.15585396,-0.8513828,-0.851251,-0.07669352,-0.81776077,0.049117915,-0.2700034,-0.6576843,-0.7712701,-0.32021794,-0.3397264,-0.63536763,0.19557573,-0.22146164,-0.2370445,0.56433934,0.5705345,0.8287675,0.85042775,0.061156467,-0.3367409,0.080537945,-0.40767092,0.12698025,0.849163,-0.7069872,-0.8053496,0.3998384,-0.76222634,0.80711085,-0.14241911,-0.7016531,-0.23965086,-0.095548764,-0.60782385,-0.032353897,-0.7617176,-0.12917793,0.19215998,-0.28276974,0.5973689,0.21989888,-0.2438903
-0.41456476,0.1484667,0.8108416,-0.37737316,-0.04884045,0.14671227,-0.7699663,-0.16165143,-0.5471876,0.64835083,-0.4801091,0.5270845,0.87874234,0.51019675,-0.8032493,0.3869472,0.30723852,0.34363115,0.49509084,0.36570206,0.6524205,-0.17869174,0.10191124,-0.50429803,0.48398268,0.44728002,0.35467595,-0.7834279,-0.7535383,0.3387741,0.18180415,0.43802828,-0.2644752,0.63563794,0.4238213,0.24645829,-0.89917195,0.5867381,0.45040402,-0.13647822,-0.37776598,-0.4252487,-0.23693174,-0.5549687,0.692555,-0.70776576,0.03585055,0.52528214,-0.83995134,0.43616417,0.38469973,0.4348811,-0.7119779,-0.21977717,-0.43378216,-0.35560754,-0.16878626,-0.099804655,-0.28993902,0.54118276,-0.1338751,0.9332057,0.80034214,0.71180534,0.81790036,0.11353279,-0.025629269,-0.37533203,-0.28315005,-0.52032644,-0.79161644,-0.13107367,-0.12088364,-0.6714208,-0.7878344,-0.2858374,0.6425156,-0.55426013,-0.22777306,-0.7636163,-0.7643508,-0.35884342,-0.40155804,-0.6507079,0.32700053,0.06076386,-0.04099333,-0.50695056,-0.42756256,0.022488637,-0.40552503,0.35128987,0.39003912,-0.49054477,-0.02582711,0.5285487,-0.15670045,-0.011439412,-0.11529773,0.015928145,-0.39183584,0.6394291,-0.15609698,0.80694044,-0.2930819,0.49194697,-0.41331264,0.39772463,0.16268016,-0.2944177,-0.51863825,-0.101086184,-0.652172,0.5479919,-0.4865916,0.75393176,0.17459756,0.78016883,0.077144355,-0.640911,0.2761635,0.16860728,-0.39202803,-0.6688475,-0.260559,0.1692166,0.6279782,-0.19567274
0.37753883,-0.72759545,0.25782704,0.47755438,-0.23927422,-0.6962262,-0.09918865,-0.77850276,-0.072567835,-0.7797855,-0.8467545,-0.3957226,-0.70533234,-0.19253907,0.56131744,-0.3116799,0.74862206,-0.57017845,0.8644466,0.8547272,0.7622498,-0.1667464,-0.2949168,-0.14500815,-0.37167948,0.6085476,-0.7839918,0.5470099,-0.21428138,-0.06073423,-0.104322985,-0.29296538,-0.40102562,-0.8635014,-0.24477817,0.63537097,-0.49472284,-0.8236551,0.17463663,0.6500651,-0.53840435,0.081608176,0.81317765,0.2210556,-0.5452314,0.17741491,0.02903789,0.29126033,0.66935414,0.4381978,0.33734268,0.3134109,-0.51407534,-0.78299874,-0.38299093,-0.32508895,0.6932372,-0.65314513,-0.06683129,0.88363403,-0.17214656,-0.8398844,-0.1550461,0.49210718,-0.09789165,-0.33527657,-0.42098328,-0.11935581,0.043831006,-0.6390989,-0.5091372,-0.10899243,-0.36143532,-0.018298063,-0.5414347,0.4752878,-0.039879758,0.07503881,0.6534107,0.70767206,-0.18227458,-0.5124634,-0.6044075,-0.072759084,-0.7351349,-0.7225753,0.57911944,0.6189059,-0.32150367,-0.1268826,0.88083035,-0.6347389,0.44716728,0.015678464,0.69717336,0.11248189,0.21381843,0.7438841,-0.58142775,0.7958628,0.76768684,-0.8103115,0.021255242,-0.030500196,-0.17151469,-0.35322142,-0.24117728,0.5258023,0.7657141,-0.5414778,-0.55607665,0.15247646,0.022006026,0.46964425,-0.6868498,-0.85757256,-0.18047802,-0.7420857,-0.8296101,-0.24453865,-0.59413815,0.6432234,-0.46170014,-0.13983521,0.40812257,-0.8028376,-0.7064035,0.70130324
-0.19706555,-0.62015617,-0.85722595,0.7963943,0.46025905,-0.7747633,0.44816425,0.16134952,0.76845473,-0.8225423,0.122620635,-0.4741223,0.05348604,-0.44021645,0.30501112,-0.66942906,0.55857366,0.17274523,0.17328334,-0.59681547,-0.71155614,0.69242823,0.6151573,-0.019705635,0.5958471,0.6447316,0.052928954,0.09417702,0.3441636,0.75900364,-0.28302914,0.08402755,-0.74792117,0.32654622,-0.089148164,0.83534503,0.3124337,-0.76784444,-0.823201,-0.6874222,-0.8470092,-0.8994412,-0.28111684,0.5511763,-0.32169452,-0.054448172,0.29692087,0.6286623,0.5355585,-0.72659695,0.018384844,-0.5669358,-0.25240391,0.2880594,-0.54648834,-0.04702795,0.12252527,0.55461913,0.44478166,-0.90498346,-0.7736263,0.06386724,0.8243058,0.24650057,0.3178665,-0.018709648,-0.10878438,-0.8285674,0.50882584,0.5671254,0.117391795,0.0024183744,0.6407554,0.46021497,0.5467356,-0.637328,-0.052011695,-0.75758916,-0.6170346,-0.3822494,0.7870285,-0.54878324,-0.61793476,0.5367809,0.37768734,-0.7578555,0.0341523,-0.0015209498,0.0440357,0.73647493,-0.0087218005,0.7980416,-0.014159632,0.58067393,0.051111184,-0.3297093,0.01687503,0.16749023,0.048909884,0.050985742,0.55416,-0.81215656,-0.2997685,-0.746226,-0.26952365,-0.39144343,0.40620923,0.25352958,0.8458957,0.48822838,0.14011449,0.007123332,0.39695576,-0.23032312,0.009325013,0.60225236,-0.17945154,0.36184034,-0.0075094923,0.17225519,-0.85750633,-0.6334702,0.57868737,0.2902945,0.5447765,0.5356231,-0.6586533,0.37167
0.33196047,0.7270508,-0.68211687,-0.29288772,-0.7903509,-0.8148633,0.60872954,0.33141243,0.4276564,-0.8512623,-0.45802814,0.785928,-0.54947466,-0.35099313,-0.47314617,-0.79739255,0.8932378,0.27762097,-0.6532324,0.78206664,-0.20618623,-0.013971544,-0.40570745,0.31561077,-0.36243463,0.7535046,0.9276315,-0.68408024,0.018609,0.56465673,0.34451,-0.657803,-0.09536655,0.08203898,-0.43611214,-0.50879824,0.9304116,0.5314399,0.20209461,-0.09495421,-0.8488536,-0.05326624,0.48263046,-0.7317724,-0.36483973,-0.00097261777,-0.55380046,0.6723185,-0.7431138,0.3872194,0.7233124,0.1711046,0.7831325,0.07836495,0.19248393,0.930587,-0.128814,0.74438655,-0.5115251,-0.49922788,0.33919725,-0.021117793,-0.23120895,0.7857269,-0.23314768,0.7983785,0.23021752,-0.77417415,-0.43359143,0.6784477,-0.6609895,-0.19715312,-0.050258826,-0.7369579,-0.56987476,0.39517537,0.24377322,0.15979514,0.6393088,-0.3470514,-0.4123022,-0.58543277,-0.43443948,-0.4704963,-0.2329649,-0.7044595,-0.74103343,0.40340197,0.7370359,0.651304,-0.42778265,-0.46808034,0.5395141,0.6129719,-0.5360906,0.41419423,-0.23896323,-0.5378957,-0.63005096,0.61326396,-0.28603825,-0.49859482,-0.5378766,0.2618591,-0.21501267,0.43206713,-0.60220057,-0.32643178,0.26407635,0.103263356,-0.85847586,0.17201813,-0.5646796,0.813868,0.31877697,0.1373803,-0.03812987,-0.023599487,0.753829,0.3753851,-0.04847722,-0.2381433,-0.16247097,-0.6930225,-0.3444344,-0.3382122,0.84167,0.29730117
0.79000306,0.12374619,0.45317236,-0.7845221,-0.4280035,-0.5727577,-0.2231998,0.61713386,-0.8394334,0.6260046,0.4699963,0.2711844,0.09856158,0.105079144,0.05532671,-0.5070373,-0.34845892,-0.77505475,-0.47937566,0.19603138,0.44643775,0.0022474313,0.04107396,-0.5553478,0.012792745,-0.3906974,0.21176496,0.25920552,0.24029772,0.28000164,0.03047914,0.6545343,-0.24116723,0.75328195,-0.15397961,-0.27218136,-0.25479645,0.6205792,-0.8975437,0.14330474,-0.7925404,0.47611478,0.4018742,-0.41049477,-0.4099422,-0.63127965,0.44126663,0.557325,0.740308,-0.80063564,-0.23138393,-0.23719832,-0.5439918,-0.041500818,-0.09910409,0.03756802,0.44915566,-0.81653535,0.26548943,-0.47818455,-0.5515973,0.44065613,0.76345456,-0.5278194,-0.35276848,-0.63903755,-0.5011267,-0.15052962,0.08232358,0.67227256,0.5098398,0.37413573,0.5021885,-0.13929251,0.7843206,0.5475405,-0.5315008,0.35603917,0.40815002,-0.22309583,-0.35427395,-0.4020049,-0.57126886,0.14094165,-0.8033951,0.7165747,-0.7470731,-0.20102155,-0.41034055,-0.2714759,0.33969474,-0.37400562,0.09659137,0.34953523,0.11624116,-0.539737,-0.7263428,-0.4678053,-0.8436124,0.55917996,0.24265493,0.80510026,0.16553208,-0.7309464,-0.17742309,0.43124267,-0.082737826,-0.596524,0.40664765,0.21782495,0.08639456,-0.6054403,0.34582216,0.46918726,-0.20409892,0.78719443,0.22688267,0.8038787,0.57243234,-0.33250272,-0.27231988,-0.003482431,0.5141899,0.40236282,0.84683675,0.47983927,0.8695451,0.46987712
0.5434671,-0.35261452,-0.1588943,-0.7360173,0.15178487,0.21958679,-0.05975309,0.109117664,-0.8100791,-0.7453544,0.7202223,-0.31952623,0.7272694,0.4003292,0.39845344,-0.8355378,0.8021672,0.5687985,0.52019024,0.47879028,-0.081390955,-0.7624137,-0.079616085,-0.66451764,-0.72189474,-0.43562374,-0.3802815,0.030973308,0.85168606,-0.15987773,0.38220596,-0.07396647,-0.026832763,0.74314165,0.038835585,0.5470576,0.30622834,-0.66780204,-0.41632953,-0.23052958,0.7559022,-0.43910903,0.122074865,0.72717464,-0.5636366,0.28714243,-0.48851502,-0.7963954,-0.08188664,-0.67536885,0.19908932,-0.27543855,0.34316835,0.5620178,-0.28386816,-0.39038295,0.7528349,0.40493366,-0.7980683,-0.05873473,-0.6061581,-0.6763302,0.63074654,0.77005255,-0.3381328,0.14148247,0.5111229,-0.6409871,-0.85792345,0.7295994,-0.6240618,-0.7551977,0.12330742,0.31964204,0.5617778,0.3635293,0.5281831,0.54641914,0.7235956,-0.7934427,-0.018728312,-0.035917714,-0.19494565,0.5433587,0.6541867,-0.6387623,-0.54300195,0.32339427,0.4217125,0.75342244,0.060017772,0.7825784,-0.613451,-0.3695305,0.08483006,0.1785472,0.8006614,0.13065735,-0.82881385,0.22766975,0.11019823,0.047874648,-0.5021213,-0.6943797,0.12261664,-0.6457146,0.5000726,0.48126101,-0.0131141925,0.1456078,-0.62661123,0.16847645,-0.089550346,-0.40900174,0.5577676,-0.52806103,0.21049616,0.40189058,-0.6021936,-0.42913866,0.7347848,-0.46112475,-0.7371741,0.72180814,0.05608225,0.43818793,-0.006142173,-0.15449685
0.08642718,-0.36519343,-0.7524508,0.4075348,-0.6922685,-0.77058136,0.52400583,-0.43065485,-0.23711768,-0.11614811,-0.90231997,0.5889541,0.11094052,0.03363173,-0.3055202,0.33901623,0.5228358,0.2989027,0.17198877,-0.59599125,-0.46614173,-0.021266216,-0.051757075,0.7297774,-0.37213463,-0.10162332,0.31736848,0.86188245,0.3591668,-0.55308104,0.8743833,-0.9023438,0.8329645,-0.656396,0.80130297,0.5665816,0.9968854,0.9011318,-0.13951871,0.3364497,0.5216833,-0.44919512,0.32534432,0.18546055,-0.761344,-0.6438209,0.2319385,0.27022362,0.4188985,-0.46744034,0.8154519,-0.32651067,-0.48208737,0.5283349,0.051167082,0.38738355,-0.35073572,0.43284702,-0.6924702,-0.16790774,0.5603646,-0.0054652966,-0.16412856,0.22124009,0.26358634,0.80798644,-0.077026546,-0.20765567,0.33013895,-0.40488002,-0.72733915,0.108386345,-0.71772593,0.7867903,-0.34592244,0.9092769,-0.48120883,0.98681813,0.47079095,-0.3652382,-0.6921782,-0.1806319,-0.07642683,0.20271079,0.084624596,0.203098,-0.7348671,-0.17817718,-0.5724241,-0.05016732,0.35264325,-0.5010825,0.16798033,-0.851059,0.018553333,0.6606254,0.12134844,0.60606766,-0.61774117,0.89368486,-0.6082342,0.6813344,-0.45264488,-0.20816462,0.39780182,-0.26271367,0.590866,0.7418039,-0.627164,-0.6410865,0.39187568,0.35191214,0.1361414,-0.2109584,0.56141233,0.025751773,0.22376993,0.5259856,-0.33326432,0.22758432,-0.6025011,-0.7252799,0.10145716,0.5447737,0.2526133,0.46136606,-0.047272764,0.22127324
-0.52593166,0.3066473,0.53005713,-0.7704047,-0.77060354,0.30810145,-0.8186875,0.37330583,-0.29784498,0.8005444,0.12993553,0.7789826,0.6134344,-0.16215852,-0.67556447,-0.36137345,0.10617255,0.33805522,-0.5234766,0.5716484,0.3929599,0.78347385,0.028275762,-0.14780901,0.30173826,0.60096514,-0.3057931,-0.422024,0.60327566,0.2041834,0.14977945,0.79727787,0.44299775,0.09439898,-0.6236739,0.43709418,-0.45020616,-0.0380654,-0.50723106,0.54792714,0.44777986,-0.4821602,0.44364122,0.038516745,-0.18418379,-0.573347,0.3768718,-0.7023871,-0.25287753,0.16060652,0.59264815,0.3289077,0.59292495,-0.5220736,-0.663342,0.38046563,-0.25783026,-0.028656065,-0.44727156,0.10862656,0.35978073,-0.5652172,-0.83031195,-0.20878756,-0.2960816,-0.6924097,0.6104562,-0.044888213,0.7694154,0.31202853,0.708647,-0.7679134,0.21995841,0.47603935,0.363164,0.4554077,-0.3885732,-0.42548525,0.02273641,-0.6715371,0.5910919,-0.3640142,-0.579665,-0.48510402,-0.6818269,0.8705725,0.4604941,-0.69132113,0.028732117,-0.19789407,0.5987587,-0.21510306,-0.22006266,-0.34817162,0.5327247,0.2818447,0.41180182,-0.33784768,-0.8653758,0.6571772,0.51275533,0.45594275,0.51050603,0.07923124,-0.6947948,0.48455068,0.47856605,0.19944379,-0.46162963,0.71113026,0.6193448,-0.6916617,0.34843862,-0.8457879,-0.3497991,0.25457227,0.23710467,-0.26041907,0.20089692,-0.7370778,0.44239753,-0.1677279,0.32869908,-0.68541634,0.502596,-0.4695344,0.057052042,-0.67869043
-0.8325626,0.4933844,0.6073784,-0.12573896,0.18231724,-0.00395143,0.44652137,0.8409979,-0.72757304,0.20374414,-0.82640266,0.4437627,-0.5496424,-0.7065679,-0.6858061,0.6483262,-0.44022858,-0.729602,-0.31213704,0.1869941,-0.46370986,0.35960248,-0.4261436,-0.17249125,0.86088645,-0.5020247,-0.25986397,-0.4488217,0.56412286,0.58853424,0.047590345,0.6885305,-0.36947972,-0.5593848,-0.27596223,0.80569273,0.25131816,-0.56152594,-0.81294674,0.3868389,0.05590048,0.60919946,0.045802396,0.56153554,-0.46804038,-0.84203506,-0.51089346,0.3406856,0.40169773,0.09596082,0.25756055,-0.16202472,-0.56938255,0.28311604,0.0038507793,0.25010943,0.8305563,0.5285245,0.86717904,0.8052817,-0.20398673,0.59983236,-0.62834984,-0.009772003,0.7848319,0.136538,0.8584093,-0.66436666,-0.63413244,-0.3255329,0.15611929,-0.60827845,-0.4477565,-0.5090156,0.33996314,-0.020650152,0.68831396,-0.710382,-0.55581003,-0.79147154,-0.8339374,-0.4999704,0.7140266,0.48407114,-0.62829506,-0.8091275,-0.7480928,0.75032836,0.6871994,0.8232043,-0.2980276,-0.0719699,0.6945603,0.6243812,0.17539278,0.46026564,-0.27597746,0.7251484,-0.26994285,0.046458382,-0.35771117,-0.51751304,-0.2370994,0.20597057,-0.4029426,0.83329266,0.2751292,-0.13328208,0.5752038,0.13344692,0.098543115,-0.025631834,-0.82113117,0.11174761,0.6836576,0.42924014,0.73560244,0.21529284,-0.57538223,-0.57120925,-0.24031639,-0.30771244,0.13405488,0.23199308,0.50819784,0.5653575,-0.2992072,-0.5855655
-0.46790114,0.7164409,0.3527324,0.5229861,-0.4544363,0.77145934,0.26014715,0.87892544,-0.4473705,0.8582573,-0.39681262,-0.48336902,-0.8160131,0.69977236,0.025704555,-0.38387233,-0.008087007,0.76570576,0.14378788,-0.16838302,-0.59410894,-0.5481598,0.008088128,-0.18374236,-0.85055,-0.115076326,0.6210914,0.77429384,-0.31944817,-0.70051163,0.8510571,-0.32990578,0.08323912,0.3350964,0.39510882,0.2805368,-0.52732897,-0.24285547,-0.7545285,-0.014641467,0.28956345,0.41054583,-0.19334097,0.0029758874,0.86727816,-0.003990291,-0.19161813,-0.7614471,-0.2718303,0.8911982,0.19379465,0.49295014,0.52412546,-0.6944599,0.2865947,-0.79727393,0.84612435,-0.406804,0.79334897,-0.804541,0.31626856,-0.45109653,0.7197496,0.5897646,-0.20918666,0.8134376,-0.76889277,0.116783395,-0.057220194,-0.11719861,-0.80096346,0.8312571,0.8543696,-0.12823318,0.12907462,-0.008400212,0.20072828,-0.5680148,-0.58187217,-0.0050736805,0.16299732,-0.2520278,0.6089811,-0.4767046,-0.7845832,-0.33800504,0.78192925,-0.12522942,0.7093657,0.53535557,0.0557607,-0.6041427,-0.30294046,-0.7580097,0.6482998,0.59772575,0.47777024,-0.4588035,-0.71256775,0.74625504,-0.35738122,-0.34125078,0.70238364,-0.60137224,0.5838587,-0.08165969,-0.1055229,-0.50187427,0.4190998,-0.74269974,0.121995814,0.80277556,0.5098506,0.55493355,-0.7040601,0.3993344,0.8643421,0.13592213,-0.38518938,0.274905,-0.8226361,0.61243415,-0.120409034,0.2245932,0.4145398,-0.7661843,0.23503315,-0.56899536
0.55636555,0.5242582,0.5410032,0.5156167,-0.41987258,-0.2297295,0.3864121,-0.8518585,-0.90840435,-0.3974418,-0.2637945,-0.27295768,-0.4017158,-0.5265338,-0.60712546,0.18268903,0.10464442,0.31721616,-0.24893723,0.29565158,-0.8183952,-0.2608652,0.60009634,-0.8729836,0.051541515,-0.46488354,-0.47900656,-0.5807392,-0.72111464,-0.21746999,-0.58704436,0.08954963,0.6915162,-0.19504511,0.67526656,0.8413055,-0.6067859,-0.14816055,0.6534647,0.04067759,0.71991205,-0.45431936,0.35498816,0.21086979,0.35190287,0.80754143,0.70035,0.4470147,-0.8645013,-0.20924991,-0.0868132,-0.57257247,0.23490457,-0.67367196,0.19188526,0.80916363,-0.32821247,0.77533317,0.05827972,-0.13200785,-0.6469351,-0.053160336,-0.72781444,-0.9319668,-0.80637467,0.64421624,0.4682777,0.78799975,0.7501569,0.1619013,-0.41400626,0.44715783,-0.12664239,-0.7601131,0.10370597,-0.66869086,0.44897273,0.14499469,-0.14387557,-0.2009487,0.79955196,-0.3603172,0.9002251,-0.680963,0.38570386,0.56320935,0.6458433,0.859098,0.47505063,-0.13599059,-0.51246446,-0.29890856,-0.6923146,-0.59023815,0.244319,-0.14294691,0.2593242,0.39157078,0.11440082,0.14244483,-0.18062966,0.33657992,0.3177965,0.7649873,-0.37114125,-0.06271279,0.2875914,-0.65148276,0.4358244,0.080664836,-0.85883987,-0.30572465,-0.50656056,-0.69069844,0.5394165,0.24531123,-0.24019037,0.0017480307,-0.13920192,-0.56007695,-0.08516006,0.29419866,0.6281617,0.85760725,-0.86553496,0.06721514,0.7455375,-0.029450301
0.780747,-0.030756494,-0.31643587,-0.7318554,-0.6742567,-0.82669216,-0.8653611,0.26759547,0.28604865,0.26740283,0.14215145,-0.8018522,-0.021638645,0.14282346,-0.4694436,-0.40731478,-0.08597173,0.87239677,-0.6366701,0.71369684,0.62023324,0.80610865,-0.7179279,0.6377901,-0.08516883,-0.30714795,-0.1313339,0.17483419,0.16869721,-0.7516398,-0.23635204,-0.12750974,-0.8052439,0.09515907,-0.13084465,0.2683742,0.6274983,-0.038218394,0.42883998,0.31961447,-0.86463845,0.7816449,0.55880785,-0.35844183,-0.22157572,-0.7713794,0.86291605,-0.7894646,0.59667134,0.5323739,-0.5520943,-0.121306024,-0.7259948,-0.4237584,0.2499141,0.33660975,-0.3288528,-0.06389011,-0.8137976,-0.05842906,-0.64414775,-0.23940893,-0.26857865,-0.57166886,0.2948549,0.12884799,0.8096098,-0.38901603,-0.1270552,0.71570516,-0.1368331,-0.6522919,-0.23811902,0.2535137,-0.57496315,0.074765824,-0.8726423,-0.13015942,-0.7120921,-0.6428726,0.31125817,0.5515697,0.3580572,-0.13850069,0.75022626,-0.87740016,0.84867966,-0.5811914,0.6696913,0.52221274,-0.07258305,0.37298965,0.015207213,-0.21971907,0.6894487,0.44785002,-0.79054356,-0.6573147,-0.08347942,-0.04333602,0.47987562,0.43184286,-0.4513198,-0.36883193,0.41380414,0.116384685,-0.52529013,0.9028004,-0.31415462,0.5638864,0.6216845,-0.52565545,0.74695766,0.424267,0.7491896,0.5730053,0.006429539,-0.23839778,-0.4723642,0.7963671,0.0024780768,0.80737025,0.6366916,-0.24263923,-0.013828237,-0.1450311,0.45157126,-0.39672634
0.23350003,-0.2515005,0.16241571,0.84234583,-0.37034962,-0.76809597,0.7375764,-0.038344994,0.533292,-0.33566585,0.5758387,-0.78400844,0.5613465,0.7069124,0.5053476,-0.37131202,-0.023012172,-0.6198448,-0.27867737,0.3259945,0.0962244,-0.21338083,-0.36766523,0.024660133,-0.6109474,0.3635723,-0.23209943,0.07444782,0.12385432,0.76805156,-0.4610601,0.43213084,0.59345275,-0.68454814,-0.31252146,0.49876994,0.23111346,-0.6429495,0.47913972,-0.20345762,0.7568517,0.85780966,-0.055110645,-0.5587568,-0.36108923,-0.6275011,-0.81516445,-0.33319837,-0.63013256,-0.490495,0.36083782,-0.84323066,-0.35799575,0.56261563,0.41202864,0.5792169,0.62051946,0.026828764,-0.564639,-0.73784477,-0.78068733,0.51492965,0.6201355,-0.33049485,0.021927575,0.6720059,0.5755044,0.43099535,-0.18396947,0.14137961,-0.3192278,0.05129507,0.78888077,-0.016170025,-0.8240348,0.12941332,-0.39576656,0.56626624,0.66669095,0.6971378,-0.15750968,-0.23585768,0.101658374,0.5318428,-0.50143915,-0.102712765,-0.09775729,-0.8488065,-0.5063554,-0.33727375,-0.17398609,-0.6876367,0.7097033,0.35276064,0.6015925,0.2094606,-0.52992254,-0.3567598,0.24366,0.3160285,-0.48373774,-0.36308336,0.3722726,0.57337177,-0.4504652,-0.29674128,-0.667544,0.12460184,-0.51296306,-0.64814055,0.14532974,-0.6338646,-0.013696545,-0.25364456,0.02704468,-0.6534761,-0.41431785,0.6776194,-0.7691821,0.7586974,0.35368976,0.31941658,-0.15008153,-0.7517031,-0.65464145,0.88091797,-0.6389462,-0.7646753
-0.6974753,-0.74540114,0.7911599,-0.72812474,0.73427963,0.5797502,-0.7581735,0.4026899,-0.80163276,0.5479269,-0.47479272,-0.11128016,-0.18602136,-0.7658635,-0.18759061,-0.87935734,0.21051644,-0.72470444,0.020581448,-0.1761599,-0.4645322,-0.6417726,-0.102001674,-0.8375753,-0.23581243,-0.33020386,-0.36773968,-0.79174066,-0.39874944,-0.009703309,0.5266441,0.36784118,0.13098378,0.31848916,-0.7489362,0.32641882,-0.011880793,-0.8476083,-0.4573641,-0.8737451,0.15870993,-0.3012758,-0.6333644,0.19014521,-0.1481245,0.26071972,-0.16642387,-0.2978359,-0.748002,0.81703347,-0.56257594,0.74034584,0.33420548,-0.71188205,-0.85679466,0.31850898,-0.15005957,0.48969632,-0.57025915,-0.4498528,-0.71364707,-0.109717704,-0.08905123,0.2822311,-0.13646343,0.5240979,-0.5700095,-0.707939,0.14567646,-0.7721082,0.2752525,0.43951637,-0.23405659,0.51169837,-0.09712127,0.092078775,-0.3426426,-0.39746487,0.1994501,0.7784179,-0.24676855,0.8327483,-0.19397426,-0.005471044,0.6335959,-0.13801952,-0.75155586,-0.3929694,0.7244108,0.5240378,0.56477016,0.1678589,-0.84231746,0.084616184,0.2479419,-0.07276007,-0.3038679,-0.82708865,-0.5027541,0.1970013,-0.050858825,0.7536566,0.049187347,0.6734421,0.35921064,0.2122268,-0.39282894,0.17883609,0.15213054,-0.22913535,0.01639856,0.19718638,0.013342089,-0.5882184,0.669224,0.6279457,0.20299214,0.2445032,0.41476664,-0.50948787,-0.006655864,0.8955378,0.10292254,0.547756,-0.57882494,-0.682526,-0.028593073,-0.2147382
-0.4944754,0.10770761,-0.26749286,0.14408654,0.6949594,0.08108563,-0.034940444,-0.06800065,-0.20231515,0.2399498,0.44783357,-0.5024219,-0.13165973,0.67353326,-0.12898946,-0.6408992,-0.86750853,-0.39884487,-0.6930723,0.42860112,-0.12837677,0.8509216,0.51868075,0.8404774,0.754261,0.44304872,0.012702248,0.09088113,-0.27945927,0.044728495,0.30986172,0.8716965,0.14300197,-0.14869227,0.3433906,0.60945886,-0.05043815,0.6588094,0.36720377,-0.68137676,-0.4403749,0.13123484,-0.14439444,-0.80703914,-0.29945573,0.6695959,-0.014708008,0.8789807,-0.46747002,-0.8431672,-0.58110166,0.11308722,-0.22543529,0.31958303,-0.34358552,-0.5315304,-0.40553236,-0.41468856,-0.3421797,-0.5466641,-0.14726159,0.30739662,-0.24109375,-0.29027715,-0.5606053,0.204518,0.20371129,0.29078966,-0.86467445,0.32704717,-0.2527798,-0.20266993,-0.054017156,-0.39667082,-0.10832415,0.33438602,-0.8055931,0.69137007,0.39961305,-0.8347951,-0.46672922,0.028678756,-0.87992924,-0.04029228,0.08003157,0.23517022,-0.6638019,-0.7580318,-0.6435345,-0.08560278,-0.16607144,0.7660354,-0.17858511,-0.030397642,0.5905438,0.517683,-0.25396264,0.22456445,-0.24532078,-0.50757337,-0.6088686,0.40836358,0.3273087,0.67227083,0.6534372,-0.8221939,0.36993232,-0.6790443,-0.85932744,-0.022228967,-0.21859679,0.7784318,-0.041798193,0.5315724,-0.8887983,0.38835332,-0.09233315,-0.034860354,0.46217424,0.5575633,0.05055395,-0.6913348,-0.67214024,0.47191674,-0.4000848,0.8576773,0.8604941,0.40405673
-0.35987747,-0.30303034,0.72869545,0.66777116,-0.31944367,0.53021,-0.36697197,0.74610466,-0.009524393,-0.28226972,0.6382327,-0.49261478,0.41864192,0.41951114,-0.133163,0.09373013,0.25249112,0.33610657,-0.84608215,-0.6482671,0.040951822,0.2435718,0.24577174,-0.82779497,-0.07155981,-0.22821745,0.2038038,0.650412,-0.40434584,-0.7282831,-0.36297515,0.21461901,-0.31683734,-0.31692567,0.29525018,-0.6425252,-0.79269874,0.76102567,0.3622238,0.328959,-0.2706675,0.2418199,-0.6760501,0.7151827,0.71759456,0.28152227,-0.07892863,0.41900578,0.6558798,0.5264556,0.22787137,-0.7374377,-0.62873733,0.46065587,-0.23272797,0.26519796,-0.48890737,-0.763409,0.05425973,0.24311793,0.15792763,0.45933923,-0.83772653,0.08553083,-0.45494172,-0.21338283,-0.007647651,-0.5727904,-0.6800349,0.43866265,0.19289297,0.77942514,-0.074110575,0.21205133,0.80611867,-0.25288913,0.40064278,0.68771577,0.37681463,-0.72425514,-0.12057426,-0.26030105,0.5195193,0.038200807,-0.74596626,-0.13068777,-0.82216364,-0.6707546,0.32774103,0.4303949,-0.47044536,-0.227794,-0.43521005,0.0012600168,-0.37889904,-0.7235501,0.5890406,0.1890597,-0.3716005,-0.09657856,0.4162472,0.33149433,-0.8532182,0.740852,0.6558696,-0.18881191,-0.19057655,0.004778828,0.8934222,0.42808715,-0.21643066,0.30775023,0.5581958,-0.51733536,0.7610734,-0.16518418,0.8647664,-0.74106526,0.6938506,0.38412803,-0.6782492,-0.79340315,0.3088989,0.7926508,0.38477233,0.76728475,0.5760238,-0.16716301
0.59591645,-0.7452762,-0.7740469,-0.4542219,0.3134337,0.26850122,-0.8122673,-0.6892347,0.61639905,0.74118465,-0.78174484,0.12282907,0.35672823,0.70859593,-0.84116024,0.52811384,-0.6439471,-0.87918645,0.02516155,0.08067684,-0.42172378,0.0874605,-0.25627437,0.0639556,-0.4342426,0.29427826,-0.85945874,0.052791912,0.05308793,0.27898705,-0.25725257,-0.4034068,0.55203545,0.78880274,0.71546197,0.14421482,-0.3588506,-0.8798605,0.11502705,0.7702648,-0.598064,-0.7085967,0.613432,-0.15548138,-0.5833989,-0.6533498,-0.33517686,-0.5795856,-0.045190297,0.5199314,-0.14579286,0.48632145,0.40119955,0.31483346,0.051042363,-0.39416564,-0.41782317,-0.8512453,-0.8207018,0.7864119,-0.79131204,0.5632455,0.86800236,-0.29359418,0.21111946,0.6305233,-0.10595868,-0.66961515,0.13246799,0.26001173,-0.82418174,-0.67988104,-0.77674353,-0.41483748,-0.3480324,0.41967508,0.6539764,-0.5061974,-0.66804814,0.032333776,0.76833415,-0.29111755,-0.053974062,0.12709317,-0.1347715,0.17697453,-0.024199376,-0.15517211,-0.70113885,-0.33032212,0.82948846,-0.13312326,0.24616893,0.16817838,-0.45566833,-0.074135564,0.43518925,0.20458575,-0.35372686,-0.8137784,0.76931924,0.19554369,0.8457867,-0.13258983,-0.50246257,0.08388108,-0.49740148,-0.5983045,-0.33131182,0.34740162,-0.8301092,-0.40230024,0.18468249,0.17463522,0.4029946,0.49199235,-0.6965376,-0.5163403,-0.631142,-0.27210248,0.2944472,-0.24323253,0.28286558,-0.2538527,-0.19672665,0.4396776,-0.13861825,-0.43760222
0.47057867,0.22707511,0.7128269,-0.8581517,-0.13230933,0.27557665,-0.82345176,0.31519824,0.4366247,-0.83791494,0.7921852,-0.060822666,-0.8048833,-0.72574663,0.09036957,-0.69253564,-0.15931009,0.65940535,0.1812941,-0.11108199,-0.2284625,0.22037247,0.69967514,0.34429145,0.71064883,0.48055312,-0.0016112915,0.29624322,-0.43953818,0.45609924,0.8367817,-0.7381507,0.8739434,-0.4471709,-0.38495657,-0.19807531,-0.7515839,0.58085394,0.11168676,-0.40094078,0.1295695,0.24632941,0.57902545,0.15025887,-0.066734076,-0.6962381,-0.73804414,-0.698452,0.8619715,-0.11108583,0.6989973,-0.23811996,-0.7383641,-0.5825394,-0.5294484,0.28491822,-0.2460494,0.25584322,-0.15695508,-0.50287646,-0.10545801,-0.8086777,-0.7369837,-0.80956346,-0.1049163,0.11673972,0.27289426,0.7456018,0.8524346,0.6209363,0.19252865,0.8665965,0.48695785,-0.19396691,0.38391927,0.7937896,-0.6164225,-0.07221266,-0.7518255,0.83575505,0.48122823,0.38638154,0.33336207,-0.698927,-0.21948554,-0.09914088,0.20826264,0.3489796,0.47129118,-0.5405502,-0.86479825,-0.37488872,-0.7314384,0.7318156,0.21015942,0.5240513,0.44160354,-0.57910323,-0.6413642,-0.79588085,0.09758824,-0.4319885,-0.10075296,0.8132303,0.3210573,0.88004434,-0.46705362,-0.18838938,-0.37773383,-0.25074512,-0.17757334,0.43494576,0.21678647,-0.6601086,-0.47621953,0.36932945,-0.38764063,-0.13403793,-0.2900778,0.7284094,-0.5320069,-0.5973504,-0.16019896,0.32297793,0.8701239,-0.4048738,0.8714454,0.14079645
