0
0.1939483
0.30266613
-0.7697722
0.16625702
-0.7531892
-0.51149344
0.5729132
-0.109970495
-0.74764943
-0.43398663
-0.47227663
-0.85503966
-0.2425135
0.02541922
-0.57390964
-0.0688488
-0.6996048
0.2725081
-0.56351686
-0.020667687
0.74122494
-0.70549524
-0.7418721
0.11056371
-0.5533656
0.8164937
0.42427933
-0.51500416
-0.85438824
0.60725814
0.1724916
-0.024163127
-0.18101335
-0.06968528
-0.08274272
0.8550417
-0.34088624
-0.06438181
0.3836221
-0.05624473
-0.16150787
-0.6046294
-0.08321926
0.54242784
-0.52210724
0.644375
-0.4611903
-0.39376324
0.2935739
0.81766164
0.8736331
0.2484665
-0.59563076
0.25581503
0.07246241
0.3402639
0.20497635
0.21855772
0.49751157
0.34032667
0.5433527
-0.13421655
0.6674183
-0.35893512
-0.12859628
0.86792713
-0.2673481
-0.04360944
0.8169872
0.119820535
-0.6929374
0.11125147
-0.86216533
0.5295139
0.57959294
0.6960257
-0.5613353
0.18849924
0.79190636
0.6124368
-0.37175608
-0.46006328
0.8159909
0.20979472
0.144431
-0.15717216
0.4972785
-0.7624469
0.27965373
-0.7964761
-0.34473625
0.43901706
0.01851447
0.53646857
0.06846301
0.13249084
0.53220457
-0.59239626
-0.5933303
0.58040076
-0.036296546
0.23215577
-0.22698872
-0.006933287
-0.3979266
0.653424
0.7973943
0.7336322
-0.16332418
0.6975263
-0.23805097
-0.38877115
0.35017684
-0.47735226
0.7123696
-0.6442063
0.14108323
0.7438781
0.60078615
-0.30449095
0.412345
-0.19374713
0.31460756
0.76245344
0.6019843
-0.79506576
0.09170219
0.711262
