0,1,2,3,4,5,6,7,8,9,10,11,12,13,14,15,16,17,18,19,20,21,22,23,24,25,26,27,28,29,30,31,32,33,34,35,36,37,38,39,40,41,42,43,44,45,46,47,48,49,50,51,52,53,54,55,56,57,58,59,60,61,62,63,64,65,66,67,68,69,70,71,72,73,74,75,76,77,78,79,80,81,82,83,84,85,86,87,88,89,90,91,92,93,94,95,96,97,98,99,100,101,102,103,104,105,106,107,108,109,110,111,112,113,114,115,116,117,118,119,120,121,122,123,124,125,126,127
0.2525881,0.86549914,0.6731143,-0.662212,0.5529273,-0.26167932,0.28264666,-0.5639324,-0.3699468,-0.8761907,-0.2218534,-0.5416422,-0.53970075,0.5237874,-0.6347066,0.2505958,-0.7684958,-0.75751597,-0.38432732,0.38984215,0.5836982,-0.41188598,0.20090267,0.45787448,-0.4013576,0.7624397,-0.08110352,-0.66439855,0.48176712,-0.37381577,0.04967943,0.2887039,0.51738983,0.5311974,0.63549733,-0.0749702,0.5738562,-0.6291069,0.62652415,0.48129374,-0.53472763,0.403252,0.34062558,0.6800402,-0.16849734,-0.123925656,0.8534818,-0.21412186,0.5418355,-0.095675886,0.11479266,-0.7575781,0.57618594,0.3124956,0.26966587,0.67122406,-0.37558037,0.61907643,-0.020827278,-0.7577464,-0.39093232,0.7637208,0.22306211,-0.12361884,0.11868246,0.599503,-0.01083374,0.1870355,-0.6619173,0.7475486,0.5659231,-0.09941079,0.09018816,0.79703367,-0.40394276,-0.001437217,0.28867042,-0.14377214,0.6968888,-0.7117206,0.78750247,-0.5606502,0.3133367,0.07005498,0.15169859,0.76189286,0.74815536,-0.3779328,-0.7235335,0.3162772,0.71847296,0.8703,-0.86501724,0.54618263,-0.71741873,-0.67276865,-0.4712538,0.2870583,0.76015675,0.48528975,0.15887678,0.6663159,-0.48337147,-0.4441473,0.29540068,0.28351432,0.12739338,0.27295113,0.14955543,0.14371134,-0.80966383,0.14802828,-0.2312924,-0.59463835,-0.2437976,0.18331431,-0.20772442,-0.67527163,0.5688476,0.66921,0.1595623,-0.7968303,-0.5967551,0.84574527,0.2558056,-0.3456068,-0.06732829,0.73267853
