0,1,2,3,4,5,6,7,8,9,10,11,12,13,14,15,16,17,18,19,20,21,22,23,24,25,26,27,28,29,30,31,32,33,34,35,36,37,38,39,40,41,42,43,44,45,46,47,48,49,50,51,52,53,54,55,56,57,58,59,60,61,62,63,64,65,66,67,68,69,70,71,72,73,74,75,76,77,78,79,80,81,82,83,84,85,86,87,88,89,90,91,92,93,94,95,96,97,98,99,100,101,102,103,104,105,106,107,108,109,110,111,112,113,114,115,116,117,118,119,120,121,122,123,124,125,126,127
-0.21394573,0.88039523,-0.0998915,0.8631647,0.44354147,0.25770813,0.5353367,0.16737893,0.74426466,0.6261804,0.76483333,-0.0928399,0.8288195,0.5593183,0.25252536,0.8610802,-0.561264,0.24790168,-0.6773572,-0.49769813,0.46189642,-0.184289,0.30761266,-0.77580154,-0.32379746,0.27224863,0.8170664,0.1755064,0.85792357,0.57427996,-0.4832176,0.30344993,-0.019670874,0.3648539,0.32902256,0.42089427,-0.31581792,0.1949165,0.38736856,-0.42965087,0.43459737,0.18030755,-0.092109516,0.1826258,-0.6143877,-0.36860526,0.2571354,-0.37602988,0.7319292,-0.06660037,0.80035067,0.08623317,0.05761355,0.7407477,0.30291572,-0.10846943,0.15051052,0.5962423,0.46130145,0.67035115,-0.8446436,-0.8354176,0.28394395,0.76224023,0.54142004,0.58016354,-0.63279617,-0.044018626,-0.76820326,0.62172675,-0.006640628,0.74820465,-0.028564781,0.2013988,0.014842153,-0.31761262,0.2846752,0.58733976,0.32537794,-0.6331154,-0.7708882,0.6568172,0.34596756,-0.57992643,0.5651265,-0.81881344,-0.3143981,0.38815552,0.029795319,-0.3977147,-0.6695516,-0.5605304,-0.42484212,0.8400608,0.46638632,-0.24356417,0.051605105,-0.7346698,-0.6347115,-0.8758857,0.60793096,0.71874624,-0.2127067,0.5631315,-0.32028878,0.879553,-0.3716645,0.19994602,-0.39905414,-0.18113397,0.74402595,0.7869006,-0.80448896,0.73887473,-0.68612486,0.0033979118,0.74255025,-0.8567708,0.70536965,0.06753199,-0.39083004,0.43538713,0.41373557,0.048019364,-0.16953073,-0.29269996,0.011874363,0.24838641
0.7089216,0.015541762,0.56532675,-0.66300815,0.33552074,0.525701,0.01594603,0.6796289,0.6810277,0.27034736,-0.16327754,-0.47054154,-0.5548704,0.725795,0.5933904,-0.60067886,0.5500626,-0.054024234,0.26118612,0.6653655,-0.35298678,0.21309689,0.20799808,-0.34628767,0.57567245,-0.6881124,-0.8562441,0.008755177,0.047038645,0.27494037,-0.7722396,-0.6760522,0.47506386,-0.1891011,0.15512422,-0.24491183,0.67787623,0.32645994,0.114444196,-0.23640111,0.39718604,0.2910108,0.07922597,0.40340298,0.79103076,0.33523732,-0.14916167,0.8041132,0.20473666,-0.15756167,-0.8560348,0.33298695,0.4409727,0.06578572,0.33757284,0.008395463,-0.7345092,0.27587914,-0.27578506,0.11387341,0.4027822,-0.16057529,-0.87072206,0.66814953,0.52906716,0.34528792,0.45847887,-0.080212206,-0.88169503,-0.60327387,0.21713316,-0.7359762,-0.4531783,-0.7861246,-0.6708914,0.2610246,-0.6751667,-0.48849407,-0.06817825,-0.7583498,0.5206633,0.52868104,0.32010204,-0.3058426,-0.67528373,-0.13887137,-0.8292533,0.8407029,-0.53862524,0.6168338,0.4409545,-0.38318914,0.29103047,-0.47169095,-0.8084073,0.49373144,-0.42668205,0.83481723,-0.2301941,0.077053085,-0.16829833,-0.72895056,0.3734737,-0.83161175,0.067565516,0.81486946,0.62148905,0.036163032,0.31423533,0.24492607,0.070927665,-0.5979234,-0.11569455,0.5377906,-0.04756853,0.28781712,0.40508503,0.55509335,-0.7103689,0.38458908,0.4280252,-0.40690008,-0.6014019,-0.4484449,0.6964102,-0.3236312,0.21441147,-0.07064104
0.28336877,0.23887694,-0.18967412,0.54643893,-0.7131164,0.09301126,0.52121556,0.30660883,-0.70278394,-0.75992703,0.2242674,-0.48653468,-0.6979471,-0.31628552,-0.39004862,0.2800321,-0.65729904,0.23244113,-0.6844368,-0.13607182,-0.7669817,-0.45153224,0.4247933,-0.6084851,0.35053396,0.65197295,0.34040198,0.14153384,0.842096,0.33714414,0.5982777,-0.43595183,0.24997704,0.7692135,0.010460615,-0.2581215,0.42606568,-0.1991649,-0.48857543,0.123788565,0.5681092,0.34334064,0.09787001,-0.73250055,0.5414855,0.42044467,-0.21811582,0.5631452,0.86365646,-0.88090724,-0.024032518,0.038003996,0.3519594,-0.10693498,-0.51329225,-0.69887614,-0.7568413,0.55276924,0.56697214,-0.6542667,-0.6517372,0.37672943,-0.72017753,0.08821353,-0.646669,-0.49183074,0.5718284,0.249096,-0.5702914,-0.66974586,-0.09104721,-0.22401787,0.83437824,0.60847646,0.43052143,0.02457112,0.11499897,0.035308525,-0.59687746,-0.7653736,0.26882336,0.5025285,-0.26238006,0.6287941,-0.86078334,0.5826076,0.77638054,0.4691037,0.02175033,0.25658107,-0.8213743,0.805318,-0.363576,-0.25789148,0.48070854,0.66726947,0.3690421,-0.46501145,0.71035707,0.6100852,0.49984062,0.16750246,-0.2664806,0.67035997,0.5682728,-0.64620566,0.10984331,-0.1984974,0.005202219,-0.31390995,-0.47037748,0.652171,-0.39427713,-0.4110146,0.22162296,-0.8522981,-0.8030966,0.81687355,-0.8526855,-0.84653485,-0.53414917,-0.058473498,0.63098943,-0.3357734,0.14939822,0.46196765,0.28612053,-0.43325472
-0.08169167,-0.4872401,-0.21604493,0.8567596,0.7682515,-0.6410439,-0.27895576,0.44474685,-0.6558095,-0.68855274,-0.60155743,-0.5667654,-0.6627017,0.58153594,-0.03520839,0.8753345,0.03836751,0.6347,-0.6580648,0.06185524,-0.14603071,0.68203056,0.24548344,0.17112084,-0.38183475,-0.008474812,-0.38130486,0.76291317,-0.0110360235,0.26230484,-0.14724642,-0.42525357,0.88342214,-0.8080458,0.7783648,0.81367844,0.5737234,-0.43137753,-0.6602451,0.124973804,0.7680156,0.022207946,0.43677783,0.48610842,-0.66217095,-0.46469733,-0.25455296,0.2842301,-0.69117546,0.23425311,-0.5703615,0.5382014,-0.08337103,0.34598583,-0.32478687,0.28161153,0.08683629,0.2403783,-0.86689955,0.12097739,-0.31145993,0.16842239,0.08328661,0.60972965,0.8415503,-0.6516543,-0.5167128,0.6137476,-0.25996196,0.34658366,0.19063607,-0.2603532,0.51483357,0.075173825,0.58160865,-0.59762114,0.6660328,0.637733,0.7987929,-0.44018883,-0.2683261,0.26680037,0.40898657,-0.8192351,0.08130863,-0.32870516,-0.36379948,-0.21642573,0.23371786,-0.3667671,-0.3494097,0.30119354,0.23622826,-0.30148968,0.69589084,-0.7516742,0.16659945,0.3880056,-0.6478485,0.7598948,0.8692151,-0.00028438866,0.417558,0.2150727,-0.044457242,0.5293617,-0.6594912,-0.836529,0.5960431,-0.3899122,-0.5289936,0.2166079,0.6425547,-0.63762873,-0.08064754,-0.14648251,-0.7597545,-0.47328994,0.006748587,0.15696079,0.82171744,0.77951247,0.8019302,0.5161328,-0.87424207,0.30407465,0.52540684,0.040517673
0.1606255,-0.18475175,0.76080805,-0.3728621,-0.19050576,-0.8205818,0.5578523,-0.4288134,-0.11236675,-0.3289552,-0.81708366,-0.33934388,0.42119437,-0.013109148,0.23455173,-0.482059,-0.5554957,0.0010500103,-0.20722277,0.8564135,-0.6970876,-0.52282083,-0.512282,-0.5524627,-0.5275739,-0.63180125,-0.04993677,0.69830275,-0.22599474,-0.08518405,0.23463339,-0.18111132,-0.6607379,-0.33090198,-0.87316847,-0.6946107,0.6362092,-0.5905527,0.2769357,0.31507194,0.45270032,-0.2805272,-0.6799191,-0.7145133,0.45959717,-0.650311,-0.59934115,-0.5539509,-0.08029699,0.7308602,0.37905568,-0.28763592,0.067019835,-0.42601043,0.569633,-0.15013479,0.40829504,0.109316185,-0.7853645,-0.82055676,-0.7380975,0.68318075,-0.5577816,-0.49742365,0.37805802,-0.6981182,-0.7366309,0.64199156,0.44750476,-0.8631765,0.7367352,0.67338014,0.1291769,0.045823306,0.29803908,-0.14553308,0.54949397,0.2811107,0.28863484,-0.78565204,0.48670685,0.37273413,-0.01784131,-0.29353803,-0.4694319,-0.82234114,0.34910455,-0.57321125,0.75465286,0.14586844,0.61196154,0.67064977,0.053458437,-0.11553779,0.03557481,0.48516923,0.42141312,-0.18068552,0.53587073,-0.6726008,-0.24175473,-0.28953716,-0.41027692,0.8305099,0.44453108,0.8442748,0.34085894,-0.8441367,-0.5627369,0.039061904,0.3280738,0.14719039,-0.4572674,0.27506942,-0.6410364,0.2960884,0.3617785,0.1082658,0.6333283,0.25730252,-0.27339447,-0.24381459,0.8497047,-0.03051877,-0.64604616,-0.86105037,0.27459925,0.15046015
-0.79339755,-0.6565515,0.776347,0.6352026,0.8090749,-0.0713411,0.10185145,-0.53614014,0.6774608,0.78425026,0.62352484,0.59216,-0.19744724,-0.50490177,-0.6088278,-0.53162324,0.6842112,-0.50019795,0.5623636,-0.42530423,0.07538512,0.8575175,0.48875278,-0.8581904,-0.63749045,-0.58284223,-0.76914006,-0.61081254,0.6359055,0.80451095,0.7959855,-0.81356144,0.22012413,-0.51348335,-0.60204464,0.6162504,0.042149797,-0.6376635,-0.07582694,0.5993084,0.5111999,0.414797,0.21898344,-0.8037597,-0.08663453,-0.71505475,-0.23457885,0.72198635,0.29159242,-0.4129492,0.07894002,0.7377658,-0.5860496,0.789144,-0.3408544,-0.48309833,0.513624,-0.73764294,0.6144733,0.8366802,0.8016428,0.72498,0.85304105,0.32886133,-0.7020198,0.29410416,0.12191415,0.54289573,-0.682274,0.42277402,0.30483603,-0.48608485,-0.48157558,-0.6462455,0.36894196,0.37061805,-0.22453688,-0.7055521,0.23051374,0.033097193,-0.7317344,0.47276223,-0.6215262,-0.5881881,-0.8576924,0.83479965,-0.44087562,0.5253876,0.61592764,0.36540926,-0.65844506,0.17273366,0.83558136,0.7459953,0.20424865,-0.08666627,0.07061601,0.066174865,-0.1411973,0.7827083,0.44378066,-0.47593147,-0.39261833,-0.77446496,0.070087984,-0.62438595,0.51411605,-0.6285658,0.134025,0.24788707,-0.42592442,-0.47732517,-0.8394107,-0.16397662,0.6369189,-0.6646538,0.30091658,0.65740114,-0.62582564,-0.45916137,0.13310313,0.043517277,-0.83289266,0.83338237,-0.7351078,0.64731485,0.24085082,-0.74413365
-0.687133,-0.3284765,-0.75717616,-0.5868136,-0.4500804,-0.7049987,0.52444375,-0.6765503,-0.8730983,-0.003421083,0.51374876,-0.101809725,-0.6797084,-0.14510289,0.59929496,-0.4029602,-0.8823122,0.41849905,-0.0041256845,0.8586841,0.76887554,0.44051433,0.16017854,0.35617203,0.40869588,0.5665841,-0.523502,-0.43383193,0.6110377,-0.809319,0.055807978,-0.030428842,-0.56757456,-0.6323432,0.40043974,0.7981717,-0.74150133,-0.7850375,-0.32287416,-0.47211015,0.3816446,0.8032071,0.62854683,-0.6703669,-0.03250502,0.7246364,0.6602677,0.34240022,-0.58072037,-0.7380712,0.13006158,-0.7298195,-0.05321175,-0.7026304,0.74339235,-0.46513557,-0.4155241,0.5766132,0.10436453,-0.8714524,-0.23276977,-0.4790491,-0.7525648,0.32612547,0.049413368,-0.64915526,-0.64146125,-0.8028508,-0.564462,0.081954524,0.15380882,0.4549501,0.35742715,-0.76364124,0.51590866,0.2654565,0.08449674,-0.11914365,0.4935918,0.23681343,-0.22648044,0.15463836,0.45088416,-0.28076595,-0.23712702,0.10605231,0.6808745,0.7750741,-0.54521614,-0.29312176,0.12431748,-0.7236811,0.8836948,0.8195103,0.3466539,-0.74340457,-0.37371707,-0.024647713,-0.881665,-0.024925247,0.85791713,-0.21927327,0.6637197,0.39684868,-0.52578247,-0.45787537,-0.18716484,-0.7720506,0.5910393,0.29618943,0.7810476,0.388624,-0.104196146,-0.027587637,-0.5343349,0.4477846,-0.31599778,-0.45574313,0.13229787,0.59562767,-0.1504457,-0.041879416,0.867931,0.5286249,-0.45063502,0.5202755,0.25934502,-0.047305077
0.3238231,0.84109074,-0.12184441,-0.41770834,0.76472694,-0.22522941,-0.4709989,-0.4691782,0.38585687,-0.7735808,0.087693036,-0.86820257,0.83140576,0.26935294,-0.50873446,0.4677931,-0.25399125,-0.058095977,-0.5183886,-0.29919922,0.70708716,0.56068563,0.7699496,-0.11643015,-0.2525708,-0.37063864,-0.23944601,-0.13796769,0.13286307,-0.37981096,-0.779945,-0.347496,0.27865648,0.08048393,-0.81031096,-0.8038679,-0.6070573,-0.38212356,0.51868117,0.7452313,-0.68393767,-0.4297216,0.82685405,0.24692804,-0.6705254,-0.44405,-0.29190686,-0.7565761,-0.72275645,0.3816167,-0.054475144,-0.2421289,0.17630145,-0.5398788,0.013813451,0.38389212,-0.6131451,0.31069434,-0.3455815,0.42337036,-0.30887783,0.31631738,-0.45684463,0.6407764,0.40892816,-0.39837453,0.08520648,-0.30079353,-0.8582247,0.5869568,-0.64436865,0.0952556,0.042829514,0.47021294,0.6079125,-0.25403917,0.77187604,0.39137655,-0.027089864,0.6127507,-0.8589515,-0.65222573,-0.21028355,0.094083995,-0.47285032,0.4357857,-0.12807935,-0.4557423,0.19734494,-0.32388443,0.76418275,0.8551306,0.61217165,-0.72365946,0.66712224,-0.42908904,0.0066921115,-0.20810224,-0.56273246,0.22860922,-0.24678119,0.26426798,0.6408513,-0.044439733,-0.33954027,-0.8672542,0.7007449,-0.47079906,-0.39207295,-0.5534326,0.50641066,0.75722003,-0.092767105,0.38455105,0.2394034,-0.85198945,-0.08653253,-0.6390219,0.49230582,0.86337185,-0.5746829,0.21486893,-0.1987543,0.1054848,0.3448066,-0.7320733,-0.14685445,-0.74738383
-0.6131063,-0.7445651,-0.08726053,-0.13547093,-0.18985152,0.7901267,-0.070805624,0.7618553,0.7038737,-0.21722876,-0.52680755,-0.017016754,-0.7866062,-0.07035017,0.14585368,0.7929268,0.8137075,0.79228556,0.2719522,0.11625826,-0.8239819,-0.5242554,0.5964661,0.078203455,-0.87873524,0.30559435,0.41647202,-0.5072181,0.83629304,0.74059224,0.5599127,0.4103377,0.5921402,0.8689287,-0.61212367,-0.86072713,-0.4919611,0.012604445,0.877685,0.7724639,-0.38735807,-0.840269,-0.32752421,-0.3979768,0.61820143,0.21112464,-0.77191305,0.34280843,-0.19265637,0.57325757,-0.6825656,0.86681,0.5126091,0.832077,-0.8284459,0.8278274,-0.15800051,-0.22756085,0.26725724,-0.26332211,0.3860224,-0.30505225,-0.63502496,0.042123273,-0.0077155977,-0.15669167,0.2985564,0.02345547,0.1931332,-0.7192501,-0.400675,-0.72417176,0.77153975,0.683138,0.49055016,0.29607737,-0.36592788,0.37713802,-0.66007054,0.69123244,-0.7857251,0.64972943,-0.73274314,-0.51718587,0.30559248,0.57496035,0.07875964,0.38864857,-0.32492188,-0.2629236,-0.11919804,-0.39668077,0.6343424,-0.6472825,0.49499774,0.8730904,-0.0077001005,0.04173152,0.21708146,0.5217325,0.60689783,0.1268842,0.112584904,-0.33146736,-0.06506696,-0.23605272,-0.74159205,0.85878885,0.5641956,0.12077823,-0.74090654,-0.5524795,0.47499532,0.42176014,0.24407469,0.4713472,0.12680501,-0.1407846,-0.33811128,-0.44385785,-0.05226314,-0.6491853,-0.25221497,0.3104108,-0.22039063,0.6193086,0.7220792,0.41170156
-0.59644514,0.5031932,-0.011783317,-0.5745334,0.5380129,-0.2549246,-0.86481977,-0.8658941,-0.6015589,0.3365088,-0.18327914,0.81702447,0.12622602,0.5154442,0.31641686,0.79895145,-0.80378187,-0.1251243,0.8178342,0.08139029,0.83422476,-0.40660444,0.12830779,-0.46323958,-0.7347388,0.46574318,0.4546175,-0.23616925,0.2155982,-0.71911806,0.42289966,0.43092406,0.3671118,0.56176907,-0.69852763,0.22573851,-0.78379345,0.092473775,-0.16390994,0.5002818,0.12325585,0.3124629,-0.64336056,0.23469009,0.38343304,0.5156111,0.30340946,0.124607086,0.80345666,0.3214933,0.104423985,0.6035823,-0.34919947,0.23431614,-0.5536328,-0.49425778,-0.07322729,0.3130164,0.51833963,-0.21591485,-0.19546025,-0.11734463,0.8724228,0.19204855,-0.3000232,0.73821014,-0.40788707,-0.3362565,0.81289655,0.5549381,0.08686878,-0.35168383,0.1301264,-0.5644641,-0.0013385713,-0.37969065,-0.5137255,-0.19517183,-0.003988147,-0.4761483,0.010746792,-0.06531,0.28502867,-0.7821658,-0.25870323,0.7880885,0.6249166,-0.38438168,0.73629475,0.0854405,0.35540724,0.3561017,0.33126795,-0.8080458,0.7097382,0.3537169,-0.11916302,-0.6547458,0.14804989,-0.41562828,0.8380937,0.27604336,0.48947865,0.67728424,-0.012895986,0.41660184,-0.19262508,0.53053105,-0.42960072,-0.5837934,-0.86859375,-0.10137737,0.39738274,0.6136578,-0.50375795,-0.16602486,0.5999824,-0.38938463,0.8172768,0.5812111,0.108936206,0.74280614,0.43425226,0.677462,-0.03487535,-0.37294355,0.7603923,-0.8490003
0.74600315,-0.5605204,0.17172195,-0.4280496,0.07928915,0.27660942,0.77892816,-0.84713966,-0.5144926,-0.8283298,-0.72830564,0.052443445,0.69787985,-0.19658849,-0.48772025,0.51239336,-0.49198532,-0.74319935,-0.28708872,-0.49544853,0.42992973,-0.33614534,-0.6120788,0.777458,0.14570631,-0.1833336,0.20477965,-0.19263767,0.63637817,-0.0965026,0.38079166,-0.36884728,0.50116265,-0.28104615,0.37527078,0.6093853,-0.20516738,-0.8349419,0.42605633,-0.05439222,-0.25174573,-0.2579017,0.56238955,0.11215076,0.40580606,0.23951888,-0.52276295,0.23039594,-0.50769925,-0.7903212,0.74553764,-0.34624994,0.32640094,-0.7497213,0.2372811,0.27871823,-0.37927297,0.032668263,0.57511306,0.26824206,-0.6528529,0.35655028,0.3648837,-0.59747213,-0.22060163,0.3974005,0.7473042,-0.2674441,-0.2528344,-0.05316943,-0.77370656,0.011392161,-0.6568606,0.1266969,0.2007483,-0.45402944,0.013747364,-0.66890824,-0.6814581,-0.6770774,-0.6107334,0.63815767,-0.3160177,0.19538797,0.48679823,0.7901577,-0.18090218,0.7653507,-0.5443876,-0.36306536,-0.6430161,0.1942297,-0.20276904,-0.8095701,-0.2794119,0.07257484,-0.017455444,-0.4521753,-0.7644231,0.86402094,0.5738487,0.19823857,-0.53937006,0.20346403,-0.2551561,-0.24555355,0.2501214,-0.34534156,0.032404065,-0.48496902,-0.257418,0.79058355,-0.41649136,0.10246508,-0.42745945,-0.8048637,-0.6661737,-0.31347424,0.5546514,-0.823951,0.36519825,-0.6413352,-0.022421256,0.82488513,0.814816,0.010133386,0.2380532,-0.545655
-0.1720982,-0.43477845,-0.05989194,0.6886553,0.84890866,0.29311866,-0.345675,-0.86905473,0.41340226,0.1533094,-0.7010485,-0.25353163,0.34078553,0.39947665,-0.5182197,-0.46121272,0.27117485,0.36228395,-0.7717823,0.68023556,0.32146865,-0.019532219,-0.2202025,0.47966862,0.0060325116,-0.21921448,-0.55737805,0.7981285,-0.8414105,-0.73534817,0.10437921,0.07174939,0.2970469,-0.22947915,-0.8603552,0.75693583,0.18102713,-0.8193445,-0.79516864,0.8819043,-0.8144793,-0.46819416,-0.7070989,0.78929806,-0.3680129,-0.12039803,0.18991329,0.7000778,0.31573847,-0.8377111,-0.8221605,-0.5832603,-0.044943616,-0.5775145,-0.44364363,-0.7050511,-0.5615764,0.47399706,0.0416027,0.069959536,-0.25198177,-0.061790124,-0.34806755,-0.6653111,-0.5554998,0.022805482,-0.09689346,-0.5238728,-0.20659722,0.3414122,0.851182,-0.2070336,0.60855156,0.50500506,-0.08226894,-0.41052127,0.10933377,-0.37620002,-0.24969824,0.4999202,0.2002605,0.4770512,0.22657819,-0.06383538,-0.7037716,0.789777,0.3967572,0.3977973,0.032649487,-0.015612245,-0.4022415,0.5708519,-0.6796179,-0.54014546,-0.37143007,0.77219224,0.24036527,0.40253198,-0.043398738,0.3497979,-0.08939147,0.43305928,-0.32578284,0.8038115,-0.7619315,0.09164497,0.56932515,0.044133514,-0.8233008,-0.53982127,0.8461774,-0.26832557,0.32318354,0.7815998,0.17506622,-0.08526929,0.87532395,0.19055791,0.76082593,-0.308392,0.22847354,0.7188714,-0.3231636,0.52615994,-0.8055642,0.837402,-0.13984174,0.40687776
0.5340365,-0.38265938,-0.35183892,-0.709283,-0.10425806,0.05837463,-0.86042905,0.019214079,-0.6112385,-0.4805864,0.12485027,0.5161747,0.1676771,0.34139976,0.77236,0.36774778,-0.1695954,0.6543123,0.29262924,0.14827326,0.6645974,0.17751761,-0.08075081,0.11158757,-0.8141321,0.117736384,-0.47699317,-0.35950512,-0.64241344,-0.15309528,-0.35399812,-0.6568059,-0.52515376,-0.34981912,-0.25676543,-0.6499839,0.40533954,-0.3398388,0.1507847,-0.4287486,-0.3498354,-0.7576531,0.7993052,0.16010366,-0.03447883,0.051247403,-0.70847523,-0.7283869,0.26053846,-0.2094198,-0.6989241,0.7525852,0.32341933,0.66669977,-0.406564,0.68838304,-0.3397271,-0.5396478,0.27877897,-0.077640414,-0.26399732,-0.3233441,-0.67945457,-0.054708794,-0.53939927,0.78498596,0.2659504,0.580054,-0.3945554,-0.6945527,-0.807468,-0.8055272,0.8153909,0.07018335,0.11789419,-0.41781288,0.35184598,-0.013279319,-0.13730407,0.46137,0.62872314,-0.88014007,0.30534893,0.41632092,0.529772,-0.21352217,-0.75858545,-0.61097145,0.4191118,-0.7745588,-0.54800916,-0.22235833,0.050292015,0.19528612,-0.28107828,-0.68647087,-0.72595924,0.69804645,-0.43032956,-0.3736574,0.4320004,-0.27999878,-0.14517017,0.6416532,-0.6314495,0.86841995,0.38136208,0.06250143,0.3073369,0.2147878,0.40046042,-0.5544294,0.54626936,-0.4413053,-0.4184782,-0.014947876,-0.6951672,-0.42584324,-0.17309174,-0.6645843,-0.515665,-0.5038265,0.22133596,0.38061744,-0.1330924,-0.7542211,-0.86527056,-0.79771984
0.046873614,-0.0013004243,-0.0960277,-0.64708555,-0.2780239,0.34238225,0.6338141,-0.6422063,0.7390385,-0.79231405,0.1584214,-0.55575013,0.23114562,-0.48504975,-0.8785777,0.74244267,-0.5670557,0.6077602,0.603419,-0.39968932,0.74325407,-0.60090005,0.6435757,-0.07319108,-0.5717501,0.64990276,0.703604,0.8726192,0.79415554,-0.8178585,-0.7207275,-0.8582561,0.76336765,0.09609848,-0.121023506,0.6380611,0.008688495,0.083883926,-0.33926243,-0.73289144,-0.09524323,0.6804603,0.2578026,0.768761,-0.682237,-0.63882,0.3305158,0.03537476,-0.3542664,0.006563291,-0.13012975,-0.14990665,0.38694793,0.5184833,0.53109205,0.8144074,0.31012958,-0.1129055,-0.6171454,0.05065754,-0.8756783,0.57127887,-0.53800786,-0.035753176,-0.5720332,-0.38428116,0.29716268,0.24501577,0.31991148,-0.78192925,0.59953266,0.46837753,0.28319,-0.78407913,0.36790526,-0.17259747,0.2671829,-0.32246524,-0.35465267,-0.43602082,-0.6717702,0.15938051,-0.4107303,0.44512784,0.68246776,0.8336639,-0.23909777,0.3928346,0.8265514,0.43841952,0.45211112,0.14231041,0.26752198,-0.033161044,0.47895646,0.39111757,-0.42150903,0.56199855,-0.01582548,-0.21676555,-0.28275606,0.17582789,-0.5014579,0.78328437,0.051156804,0.12592405,-0.488613,0.7830054,0.78821456,0.24808131,0.08588746,0.07740103,0.836019,-0.70364225,0.029276758,-0.68056035,0.7519599,0.5274143,0.8013678,-0.7241124,0.46527588,0.17994478,-0.7173717,-0.2529148,0.20724975,0.7562118,0.73479766,-0.8678049
-0.6078512,0.66240066,0.0698407,-0.061898977,-0.3910258,-0.5436368,0.40103072,-0.6494061,0.46438986,-0.33076867,-0.047559217,-0.6779054,0.6751635,0.33725873,0.2614765,-0.8060491,-0.31523335,0.3753469,0.70817745,-0.34737557,-0.5707602,0.46032065,-0.25144225,0.084519684,-0.3001471,0.78797156,0.19216754,-0.4767022,-0.87888306,0.5811011,0.5000233,-0.42392132,-0.24065912,0.18121563,-0.24951585,0.02673924,0.67662185,0.05522661,0.03308505,0.033613816,0.5498024,-0.7007379,0.33960497,-0.34288317,-0.7272029,0.6324152,0.46397245,-0.52236664,-0.0012179464,0.82579887,-0.29844669,0.6821645,0.26970506,0.49190605,-0.09749085,0.0012481958,0.484376,0.8464336,0.008852854,0.6352765,0.35952628,0.30857816,0.67608243,0.14962025,-0.17509595,-0.16999833,-0.3628736,0.44885242,-0.41666523,-0.52615017,0.098427236,0.50903773,0.8121831,-0.67058504,0.31354958,0.29327714,-0.3130649,0.47746634,-0.85861397,-0.24508528,-0.6000357,-0.8346223,-0.20440891,0.3670389,-0.7022799,-0.22070058,0.34290993,0.873737,-0.16398095,0.07910967,-0.48197472,-0.44838166,-0.5146811,-0.5085736,0.020287484,-0.6591293,-0.5422861,0.43251926,0.19139998,0.79269403,-0.19103356,0.103227645,0.5196551,-0.23301221,0.57049775,0.1426635,0.37064737,0.6836081,-0.25600702,-0.325661,-0.31697688,0.8314475,0.3586395,-0.64409304,-0.10806091,0.09998359,0.77933156,0.34149534,-0.5471826,-0.8102808,-0.59090376,0.008923039,0.22618718,0.1322522,-0.1719106,-0.84641045,-0.7877803,-0.11936702
0.13825007,0.28374627,-0.7136583,0.19027054,0.19668363,0.69625103,0.16333662,-0.43996102,0.3415729,-0.6739312,0.14555559,0.28348917,0.32168573,-0.277694,-0.70391864,0.76544815,0.012330487,0.35912,0.01688309,0.7864413,0.7327714,0.7025749,0.120144784,0.2200827,-0.23169674,-0.26524696,0.30129427,-0.19881889,-0.72585785,-0.7381892,0.22382386,-0.73783165,0.07932983,-0.5489274,0.5616737,0.05621977,0.313291,-0.7896595,-0.18689841,0.11298135,0.0059451163,0.10917939,0.07916182,-0.50018954,0.09352796,-0.7809865,-0.28142786,0.14422789,-0.6829169,-0.30799073,0.17630145,-0.6779575,-0.14451109,0.07538669,-0.27385893,-0.1682876,0.40662223,0.12984864,-0.078192204,-0.08481629,0.05758837,0.73060894,-0.47121936,-0.56389546,-0.143357,0.35038,0.74662393,-0.6028914,0.15042663,-0.2081424,0.73130643,0.6483186,-0.79169345,-0.39698157,-0.8588259,-0.22370368,-0.3811959,-0.2987569,-0.07527493,0.19247092,0.7366582,-0.013730153,-0.52802974,-0.7188367,-0.61255324,0.4164166,-0.46353704,0.3190639,0.6340101,-0.7180613,0.7365685,-0.069214925,-0.09070024,-0.4649201,-0.8444662,0.11520535,0.32455778,-0.5090473,-0.56319886,0.16069464,0.6038689,-0.20616785,-0.7053931,0.30341768,-0.02991043,-0.3959161,0.5645267,-0.20101391,-0.6903786,0.5136659,0.31147593,-0.10837726,0.1250536,0.37091845,0.2386947,0.3870558,-0.7142932,0.20931125,-0.87038386,0.51892257,0.8386416,0.64913625,0.033939257,-0.5926826,-0.074686185,0.87751216,0.062265098,0.18412136
0.49816167,0.10850176,-0.72307694,0.19518055,0.43009216,0.6269816,-0.09786971,0.035991296,-0.50417984,0.6735236,-0.22764921,-0.5279004,-0.59572387,-0.54464346,-0.79363614,0.40707594,-0.25960666,-0.7794397,0.2652292,-0.33821738,0.65304244,-0.012399256,0.59095806,0.5114078,0.2609133,0.40729916,0.6534106,0.8122063,-0.2633667,0.36939955,0.06440252,0.12253858,0.3351485,-0.1452513,-0.69675744,0.10129765,0.33528492,0.09581201,-0.43890738,-0.7915746,-0.056400895,-0.25941646,-0.3816867,0.5672451,0.03223926,0.7510746,0.79828566,-0.21853141,-0.19535266,-0.7140658,0.31076,0.6408667,0.7528124,0.04865825,-0.68873096,-0.6008947,0.024491027,-0.833011,0.7509413,-0.7969521,-0.77264494,-0.8450741,0.37418777,-0.3705985,0.34032345,-0.13026968,0.7696805,0.44001675,-0.8822063,-0.3192869,0.7422551,-0.5645206,0.2761419,-0.11771679,0.51909065,0.24306022,0.11948809,0.572997,-0.42771494,0.13600901,-0.22631928,0.83669716,-0.48373136,-0.36613536,0.3973428,-0.10715395,-0.48838493,0.49137765,0.42799568,0.563735,0.035360977,-0.3318984,0.45631474,0.5894009,0.3062067,0.045145825,-0.40988356,0.1956895,0.5888072,-0.47819868,-0.0022011995,-0.026225448,0.47105008,0.7040212,-0.42736822,0.5306614,-0.20205408,-0.76595193,-0.15794456,-0.60447407,0.37258244,-0.24322607,-0.38688257,-0.27934268,0.2060549,0.8412746,-0.72403514,-0.88007957,-0.19865066,-0.19914746,-0.0465025,0.25226846,0.07104315,0.56027466,-0.056754425,0.17584972,-0.8409902,0.26864514
-0.28257397,0.6406606,-0.88221043,-0.54928946,-0.8056545,-0.27343062,0.8727255,0.7190404,0.77217555,-0.74496776,0.29433295,-0.047142208,0.055423304,0.7908883,-0.79458946,-0.078675225,0.710961,0.62359536,0.72236246,-0.26095957,-0.8338184,0.8263642,0.7931101,-0.34189746,-0.77223516,-0.59682435,0.33004457,-0.52979374,-0.59981817,-0.4170453,0.5494622,-0.09142704,0.10211177,-0.36666113,0.011898503,-0.10685071,-0.59183466,0.70446724,0.07290676,-0.14295325,-0.43308818,0.012726486,-0.3675297,0.4558938,0.024961159,0.32329774,-0.35415846,0.17251231,-0.6026352,0.20139344,-0.39799944,-0.83540606,-0.12919329,-0.8101625,0.07219352,-0.46470082,0.3165759,0.10625519,0.47815555,0.8650189,-0.5790295,0.71416044,0.8225567,-0.18213749,0.6654275,0.36101118,-0.18121414,-0.56940067,0.41448927,0.40636873,-0.38178688,-0.2607691,-0.73112607,-0.16051225,-0.051619112,-0.27999973,0.7801268,-0.8043618,-0.77138907,-0.49539226,0.474293,-0.25270522,0.27961567,0.64699465,-0.5138902,0.8653409,-0.2006001,-0.8588758,0.0990165,0.49417382,0.30540705,-0.32983217,0.1229278,-0.8285064,0.6405314,0.028686225,-0.38004518,-0.74286354,0.30502284,-0.5076723,0.26905155,0.56933886,0.124087185,-0.82767916,0.0014466047,-0.6194205,0.16668074,0.22322938,-0.3169546,0.526486,0.13800964,-0.003374666,0.085149705,0.39920276,0.13584435,-0.62886655,0.11132099,-0.70661914,-0.17181359,-0.61545134,0.83787,0.7772223,0.8612189,0.845597,0.17976359,-0.7224545,-0.51445735,-0.13757132
-0.5369614,0.84325886,-0.29868755,-0.31324044,0.77702904,0.26940033,0.7130364,0.6452847,-0.6880108,-0.26655608,0.11505075,0.7942196,-0.29450858,-0.13248928,0.74125445,0.54457253,-0.45682925,-0.13415128,-0.3935308,0.69778675,-0.18188,-0.6643159,-0.065316334,0.019927323,-0.7183727,0.63534,0.5267953,0.41072494,0.49393064,0.3000453,-0.18184997,-0.60195374,0.40006334,0.1596418,0.42705154,-0.0158865,0.8409604,0.56588954,-0.18593833,-0.62923664,0.36960745,-0.55918795,0.79589164,0.032142997,0.50366247,-0.10641478,0.86028105,0.14224291,0.50123835,-0.10237478,0.78806883,0.6613249,-0.49402836,0.76847726,0.3558967,0.8795688,0.6321221,0.27257547,-0.8673883,0.650124,0.07234454,-0.2333057,-0.35956097,-0.8531674,-0.54430336,-0.5096553,0.00037267804,-0.3944748,-0.851618,-0.87038743,-0.11541374,-0.1443889,0.4846657,0.79210335,0.84184414,0.77341354,0.3418914,-0.46461463,0.61351055,-0.69470775,-0.55843866,0.4368844,-0.58055234,-0.30686128,-0.35220718,-0.11860162,-0.4122283,0.33258474,0.17582871,-0.84498644,0.4411074,0.7926226,-0.6329655,-0.047345906,0.68092906,-0.065960065,-0.7356251,0.2667308,0.6864702,0.41935855,0.5404002,-0.75384194,-0.6588832,0.5149075,-0.31222534,0.42764926,-0.4594977,0.16707681,0.4151141,0.8268582,0.60213155,0.47934943,0.61732924,0.38501388,-0.18349737,-0.05917661,0.19021392,0.478229,-0.18710956,0.20692162,-0.67841715,-0.57127565,0.31234002,-0.3699641,-0.4266146,0.77935463,0.63022727,-0.3596245
0.2026388,0.29750502,-0.6695967,-0.23158722,-0.39881337,-0.5631199,0.7406666,-0.5765503,0.16666643,0.8247868,-0.6462752,-0.2420675,-0.18087924,-0.6108743,-0.25254816,0.1918196,0.4797625,-0.13672814,-0.16395375,0.031317547,0.14927983,-0.035002008,-0.3819298,0.20044096,0.24735056,-0.22430502,-0.3694779,-0.6672869,0.01454711,-0.094643384,-0.20198181,0.72263515,-0.8794308,0.21766432,0.26715294,-0.23085386,-0.3849988,0.36758476,-0.5745311,0.69644964,-0.6145222,-0.39847136,-0.001764074,-0.8636049,-0.17100021,0.505785,-0.19368425,-0.8238498,0.11359796,0.4367242,0.14819697,-0.6013638,-0.20892099,0.2303695,0.030962005,0.38061267,-0.53309333,-0.71198475,-0.86501825,-0.2629308,0.5075603,0.5983319,-0.32114592,0.6922161,0.72628015,0.21072142,-0.5849682,0.72774225,-0.6312767,-0.8475107,0.821253,0.29230273,-0.36073235,-0.6134443,0.46330786,0.4995296,0.6128872,-0.26348627,0.53618675,-0.009955838,-0.5997274,-0.2978012,-0.040403754,0.3812856,-0.38883448,0.14495723,0.65613514,0.6829479,-0.83918357,-0.8296964,-0.7264589,0.23222543,-0.041671097,-0.47826588,-0.22381924,-0.88005275,-0.15188418,-0.38873735,-0.87571317,0.8753129,0.10611847,-0.8377528,0.6558692,0.37422454,0.5992404,0.86643374,0.29413536,-0.77865314,0.27421182,0.32783264,0.04904583,-0.88203084,-0.7196995,-0.86949635,-0.59712636,0.50696903,0.5189627,0.6262722,0.27717257,-0.79098517,0.010961443,-0.08583434,0.49546355,-0.25195175,-0.8682095,0.8675272,0.80715096,-0.44808495
-0.527208,-0.29014933,-0.15305594,0.5840803,0.53235984,0.5933153,-0.75293124,-0.44998872,-0.6763046,-0.6351048,-0.48506197,-0.06902687,-0.06295927,-0.45876232,-0.21425202,0.174729,0.2535391,-0.6223846,0.10180287,-0.14852226,-0.62962234,0.8180124,0.3646992,-0.5197675,-0.11387311,0.51801884,-0.3439989,-0.4968775,0.8216185,-0.643478,-0.6739905,-0.7900561,0.011551306,0.016532615,0.0888899,0.14395349,-0.26693082,0.42065507,0.5960471,0.6163328,-0.2911946,0.030164272,0.5500985,0.16181946,0.7315647,0.1565338,0.78898525,-0.16191468,0.039504543,-0.020296425,0.36202043,-0.76916623,-0.30953425,0.2786894,-0.8217606,0.33698893,-0.36802346,-0.21424465,-0.43208778,0.5116064,-0.15979506,0.58012015,0.3661216,-0.55525047,0.20890109,0.029183924,-0.3035261,0.85396564,0.8769149,-0.006064698,0.132735,0.544594,-0.21539725,-0.5266931,-0.77828497,0.4283958,0.65646595,-0.008758083,-0.5334362,0.12413964,0.23919888,-0.22428311,-0.85980344,-0.29384774,-0.0913509,0.33604115,-0.07409237,0.10094538,-0.39641953,-0.71297115,0.26225156,-0.5333063,-0.6253778,0.5703824,0.70016956,0.40567422,0.22544883,0.7984734,-0.8350325,-0.8046221,-0.10998145,-0.7620543,-0.3958802,-0.7726325,0.18345445,0.32543635,0.26637733,0.21281295,-0.34027773,0.8393467,0.17207958,-0.63732505,0.8323228,-0.6201107,-0.1867488,-0.086314455,0.49870408,0.08277714,0.58868414,0.0936877,-0.8006131,0.44305646,-0.046514645,-0.6783632,-0.27917397,0.36813462,0.5914498,-0.8680781
-0.59876645,-0.3374362,0.3818714,0.51128083,-0.58239186,0.34884334,0.72677755,0.5255365,0.41657412,0.066973045,0.5711191,0.77039176,0.7565486,-0.37323508,-0.036111325,-0.80101424,0.66037124,0.63511425,-0.33331627,-0.048971996,-0.8352791,0.63599163,-0.4073003,0.5841548,0.08439697,-0.5695529,-0.6523827,0.2684533,-0.58782643,-0.6568183,0.79804724,0.4515875,-0.5055527,0.1538609,-0.50422096,0.10253087,0.76252335,0.8271652,-0.48468158,0.18917046,0.1396311,-0.799022,0.8159303,-0.50101715,-0.70940465,-0.5695683,-0.88161176,0.86471653,-0.021410808,0.33652574,0.32968804,0.40333188,0.23685053,0.20397745,-0.5534034,0.2739811,-0.70322466,0.5737161,0.45089132,-0.20522773,-0.30003235,0.2936989,0.017882362,-0.6026821,-0.48215783,-0.14654681,-0.49485382,0.45321488,0.12805782,-0.3107426,0.55765367,0.835587,-0.8538362,0.8085936,0.5170626,0.0019193441,-0.63117015,0.48275506,-0.7926429,-0.46517372,-0.84388185,-0.66553545,0.16724229,0.48453444,-0.39527592,-0.0576099,-0.20536639,-0.098973215,0.5506522,-0.45559707,0.4399312,0.4248523,0.5814708,-0.54121894,0.3212831,-0.17808676,-0.4671586,0.093376115,-0.06890401,0.22083431,-0.088987276,-0.23504466,-0.7180137,-0.16799293,-0.06956093,0.22919677,0.77650195,-0.49500105,-0.519731,0.2888062,-0.43620712,-0.20343259,-0.22159316,-0.6922254,-0.02544932,0.25492355,0.7025156,0.15926458,0.85560864,-0.31885368,-0.18180013,-0.5056472,-0.6187861,0.056546032,-0.65912676,0.29170787,-0.28155264,0.1951097
-0.26369333,-0.5383811,0.058363453,0.28438175,-0.46237496,0.51766926,-0.5667955,0.50265366,-0.7285236,-0.63874054,0.6702397,-0.06741859,-0.23590043,-0.28446257,0.29273504,0.86623675,0.4478345,-0.81348944,-0.05575426,-0.8151898,0.36392108,-0.15937634,-0.41195497,-0.5964288,0.121704936,-0.028142259,-0.46058568,-0.8629776,-0.48120037,0.78677243,-0.84629065,-0.09493366,-0.58635813,0.1537124,0.18181473,-0.61352736,0.18653318,0.19695178,-0.36372077,-0.24893098,0.75982,0.5197004,-0.34384167,0.5524712,0.17136954,0.23589261,0.43847895,0.36187893,-0.034163296,0.2143345,-0.44539326,0.6636623,0.08888066,0.33789867,-0.17560676,0.25667265,0.03812328,0.56083924,-0.16657501,-0.76597404,-0.55223656,0.77999467,0.5766087,-0.76800114,-0.8199458,-0.31030363,-0.8758366,-0.82584625,0.081386864,0.786893,0.8517886,0.56273097,0.7244796,0.46200538,0.78804916,-0.7160148,0.22669666,0.11941433,0.07371232,0.18057942,-0.553019,0.63950485,0.38411295,-0.79538614,-0.516038,0.18600427,0.6177757,-0.60473496,-0.4039591,0.4867617,0.36073452,-0.29491636,0.2759336,0.8467355,-0.09883657,0.7811647,0.3027916,-0.45999852,-0.29894295,0.20904675,0.39810306,0.026591718,0.7203931,-0.30779484,0.4324848,-0.86869,-0.7642016,-0.68347025,0.8706746,0.6786906,-0.24820693,0.6040341,-0.7802944,0.6251735,0.19174106,-0.78721404,-0.21881305,-0.37514687,-0.36226806,0.0714308,0.27591413,0.39794093,0.55283016,-0.632847,0.2913694,-0.24918489,0.4764288,0.72160727
-0.41140717,0.058007017,-0.773657,-0.6121317,-0.7651379,-0.27247566,-0.8143004,-0.004216507,0.2182442,0.7311744,-0.53179324,0.19760698,0.76245433,-0.5993736,0.0469815,-0.35113436,-0.14847778,-0.3584193,0.52061135,0.80734706,-0.79049206,0.10027565,-0.3132711,0.22844642,-0.036449358,0.0029815733,-0.27518752,0.20555861,-0.28731275,0.14515363,0.46760702,0.34036332,-0.34311634,0.26893616,0.24422936,0.7002652,-0.6803864,-0.67208195,-0.38517267,0.702031,0.15623227,0.7238316,0.7571765,0.5211595,0.8806557,-0.8413994,0.46731883,0.09864576,0.6856989,0.7257665,0.60731465,-0.74979544,0.88212603,0.40016258,-0.06850578,-0.22479653,0.24292834,0.61461633,0.47747248,0.14384434,-0.19253597,-0.1507084,0.5495686,-0.41740775,0.5583752,0.36832476,-0.84168506,0.5742807,-0.3062219,0.39451712,-0.53970826,-0.2347491,0.6180301,0.32747373,-0.10218389,-0.42867792,0.050811693,-0.5635254,-0.31189427,-0.50554264,0.08776955,0.21118507,-0.4759498,-0.4350051,0.24595961,-0.28870338,0.59207475,0.11170834,-0.76032525,0.66710657,0.76496637,0.4547817,0.11086993,0.248148,0.12746565,-0.42408526,-0.563029,0.37692374,0.019845665,0.84909654,-0.3175056,0.32250643,0.1190076,0.7151059,0.22790141,-0.16623795,-0.69364834,0.27978897,-0.20975605,-0.5257182,0.8589127,-0.27952328,-0.24658464,-0.12416817,-0.73157346,-0.551831,-0.67842364,-0.47713506,-0.25129944,-0.799364,0.24973251,0.3932544,-0.19401483,0.5811218,-0.3660459,0.69196784,-0.71804225,0.20758882
-0.8076846,0.8463276,-0.40915537,0.43939537,0.6745619,0.34055367,-0.30379322,-0.353081,0.7697507,-0.3537056,0.14988787,-0.5235414,-0.5832783,-0.5577918,-0.17253995,-0.1197999,0.7390412,-0.11227533,-0.19952886,0.087200105,0.47603106,0.6018632,0.34865683,0.7190061,-0.5647855,0.81183696,0.4134161,-0.8614954,-0.42678866,0.43573534,-0.27382904,0.56894636,-0.55120325,0.7482699,0.6406226,0.35906494,-0.29666716,-0.12939535,-0.22248603,0.5635924,0.56128895,-0.48162287,-0.4144074,0.5122345,-0.8092042,-0.43737805,-0.30029935,0.09012774,0.46867377,0.8283884,0.46255434,-0.6668167,-0.34613317,-0.19681089,-0.59130365,-0.03273852,0.20637907,-0.29535246,-0.80064446,0.66074663,-0.14752232,-0.6772889,0.43706304,0.21750942,0.65017754,-0.24335422,-0.5141275,0.118749365,0.25422478,-0.5860259,-0.8629471,0.69114184,-0.51642793,-0.88322645,0.28486037,-0.4776184,-0.15552357,-0.7688824,0.1930584,-0.7328275,0.4096555,-0.31567472,-0.41328377,-0.034011155,0.55089855,-0.6763933,-0.2786302,0.3584901,0.46995646,0.65482014,0.53126657,0.044021457,-0.63845277,-0.55848736,-0.020348951,-0.64536285,-0.5920995,0.3833955,-0.7206602,0.81238276,-0.8062842,0.005521849,0.100737885,-0.52857167,0.35961956,0.09785257,-0.6682384,-0.73086226,-0.4247478,-0.24763621,-0.1271785,-0.7547109,-0.48473752,0.20717554,0.082220584,-0.31867528,-0.34148797,-0.520599,0.23289189,-0.84933525,0.48845464,0.6135624,0.22019729,0.48022264,-0.5507853,-0.60056716,-0.7623453,0.3123787
-0.5172021,-0.251343,-0.4457733,0.52301234,0.1996471,-0.3315758,0.61816955,0.68382716,-0.03524393,0.72626674,0.436087,-0.6142794,0.3950619,-0.81238604,-0.8732026,0.0032779574,-0.0044006854,0.575389,0.72186595,-0.10615967,0.7583996,0.409629,0.42457527,-0.2947018,0.33673847,-0.36412138,-0.7470983,0.74232227,0.12542099,0.04172802,0.67065364,0.8599097,-0.17186634,0.058959648,0.33537805,-0.6848213,-0.7096473,-0.09752907,0.11661664,0.5744564,-0.6101218,0.31043088,0.4223383,0.17306119,0.55586064,-0.06016761,0.063089505,-0.28573707,0.43640995,-0.81496865,-0.5312741,0.25494426,-0.69104934,-0.7171366,-0.5236257,-0.7904338,-0.17308295,-0.68099177,0.3146632,0.56238884,-0.7419086,-0.21883644,0.45245832,-0.56004876,0.85568285,0.5852792,0.8791723,0.73790187,-0.067514926,-0.6418221,-0.7989231,0.43811345,0.8261449,0.5467939,0.8783626,0.4379233,-0.075456575,-0.396748,0.7857006,0.7849384,-0.2924809,-0.62251997,0.35918683,0.2617761,-0.5542908,0.18806152,-0.70981,-0.4170103,-0.33882347,0.032454357,0.30719107,0.12684107,-0.1808922,0.31868452,0.13616316,-0.35811037,-0.20331629,-0.4501074,0.8266475,0.8392314,0.068994686,0.16389541,0.47324127,-0.8027336,-0.55937684,-0.343793,-0.80242366,-0.04400067,0.26333416,-0.5739347,0.58644897,-0.57537794,0.27785137,-0.36322668,0.635679,0.2545377,-0.3356987,-0.66730744,0.6352111,0.43558067,-0.37470603,0.4335401,-0.40606442,-0.7008612,-0.8417756,0.61996126,-0.2995166,-0.048389137
-0.69280314,-0.6664412,-0.6018455,-0.25681496,0.40267712,-0.27701217,0.0038855523,-0.011038035,0.48207128,0.79257673,0.4850278,-0.03770657,0.79588836,-0.6414068,0.035494044,-0.74363947,0.4123742,0.3785861,-0.4152494,0.671004,-0.7742264,-0.4698303,0.66557044,0.54488623,0.26538974,0.12201026,-0.19014053,0.81233656,-0.48355225,0.3843621,0.27967042,0.8611145,-0.21702662,0.783711,-0.8191713,0.27724057,-0.4633773,-0.7811323,-0.33448043,-0.121152624,0.54631615,-0.70421726,-0.1250346,0.2887041,0.5308085,0.2512362,-0.1734975,0.16434692,0.29031917,0.11355817,0.49958265,-0.14053509,0.029424727,0.584377,0.63252056,-0.28936982,-0.12899116,0.722718,0.5652302,-0.09792723,-0.74387515,-0.27542415,0.003561899,0.20305254,0.19600496,-0.49390554,0.44208533,0.25607264,-0.15331939,-0.86653817,0.09513989,-0.43188626,0.24305083,-0.074631944,0.84801054,0.18415667,0.2117569,0.47259098,-0.5656475,0.15407339,-0.6230479,0.39843535,0.34536922,-0.055415332,0.25822544,0.72849894,0.15470713,0.16458839,0.50539845,0.31244123,-0.63667846,0.12722857,-0.4269363,0.21907151,0.6859342,-0.47025767,0.10775074,-0.7610022,-0.32362953,0.8304507,-0.4493268,-0.4342982,-0.48830852,0.64583385,-0.62369084,0.85474795,0.75252837,-0.6940287,-0.620101,0.21918647,0.21995723,-0.42274213,0.46787328,-0.13819002,-0.72482896,0.09351857,0.008128434,-0.3718983,0.23832716,0.40695643,0.07474266,-0.70492685,0.31123698,0.71857476,0.7094515,-0.031038523,0.24118185,-0.74194646
0.48659897,-0.27720875,0.6459475,-0.2939376,-0.8746964,-0.87755215,-0.201829,0.80603933,0.24059758,-0.076772794,-0.037844405,-0.6610754,0.18527366,0.78803635,-0.5079479,-0.17181754,0.65860534,-0.878804,-0.3786204,-0.75492233,-0.5130849,-0.50030804,-0.16348287,-0.8660657,-0.31634128,0.2357196,0.1695785,-0.075359195,0.6641924,-0.5432679,-0.4110581,-0.22241928,0.613594,-0.0041931868,-0.1963947,0.56149566,0.69971716,-0.4891253,0.01214169,-0.2887882,0.5091486,-0.0016443431,0.58870023,0.4601621,-0.29901683,0.62265927,0.33866638,0.43897128,0.5960917,-0.69838876,-0.68976074,-0.2255632,-0.49553788,-0.6713439,-0.86576986,-0.16129449,0.49599344,-0.16954258,0.5028265,-0.77411884,-0.08115463,0.036436245,-0.75006217,0.60049677,0.82881784,0.5442315,-0.20170256,-0.093578994,-0.5626798,0.33524394,-0.30991408,-0.4397832,0.36368206,-0.86059093,0.6201544,0.27343646,-0.71492124,-0.18170685,-0.43811733,0.7192781,-0.8393041,-0.1567515,-0.8501687,-0.15808217,0.16779251,0.3555876,-0.28843227,0.68411255,0.74410164,0.48438466,-0.7570754,-0.16744763,-0.5730116,0.34523422,-0.71055484,-0.0640066,-0.17933607,0.1172892,-0.65859544,0.82189405,-0.30916557,-0.018799528,-0.67697704,0.31386757,0.51960224,0.78574395,-0.4191606,0.055319294,0.76552874,0.056709126,-0.6837192,0.44699645,-0.2532729,0.13646916,0.5887052,-0.06666385,-0.75960183,0.76400304,-0.23832463,0.76493466,0.25291473,0.4621238,-0.58471584,-0.46106923,-0.022179708,-0.67733884,0.6168798,-0.123488456
-0.40124518,-0.598153,0.5073828,0.66763824,-0.7830703,-0.81729543,0.52289194,0.8346679,0.8188372,0.60033745,0.65242434,0.42497998,-0.5626645,0.14669202,-0.35117152,-0.41503543,-0.18263221,0.8464978,0.49531066,0.1763282,-0.2901194,-0.38205928,0.50565964,-0.54482394,-0.7180028,-0.35279512,0.26318237,-0.8105821,-0.14126875,-0.7225138,0.018577203,0.58005804,0.33816165,0.5610261,-0.42490378,-0.53310263,-0.11254601,-0.33768475,0.4892599,0.6957629,-0.31723365,0.60118383,0.17034724,-0.62789273,0.6105829,0.20553693,-0.31364292,0.3590703,0.4293794,0.018708706,0.650079,0.8188883,0.7273587,-0.017433092,0.40548557,-0.5417601,-0.7142994,0.4524032,0.6122234,0.75097257,0.24343155,0.079679266,-0.7103664,-0.03125675,-0.21287106,0.5816842,-0.4598359,0.33678353,-0.79768926,0.07281721,0.576751,0.1957754,0.22216827,-0.10812312,-0.40898815,0.5618352,-0.7035297,-0.7422192,-0.63103604,0.43139464,0.06818086,0.52811676,-0.80543965,-0.4286999,-0.2895013,-0.03782697,-0.5267853,0.21634705,-0.6379399,0.06794654,0.20471506,-0.47840044,0.09595215,0.25767797,0.51337236,0.077445135,-0.4387179,0.044379234,-0.08485541,0.79597676,-0.6501938,0.8794055,-0.28816956,0.33014154,-0.13144515,0.055089593,-0.41538152,-0.45276377,0.061521456,0.4159289,0.10524802,-0.70450985,-0.22590697,-0.06810628,-0.6049725,-0.56385654,0.78913474,-0.3248582,-0.034199655,0.3205613,0.81319785,0.745677,0.34262902,-0.071222484,0.03643647,-0.87552404,0.34730667,-0.01782231
-0.34393787,0.06699607,0.5629399,-0.7644521,0.7578727,0.16922519,-0.6305541,0.24865732,0.7501676,-0.21285988,-0.29508483,0.7872931,0.32319432,0.8649153,0.35559142,-0.05608894,0.18897392,0.45023197,-0.45410487,-0.71804255,0.8773392,0.8595961,-0.67446876,-0.38760835,0.64508355,0.7065519,0.32845026,0.21233656,0.75441563,0.19355394,0.40759706,0.12370318,0.76733106,-0.5093291,-0.69420904,-0.21712884,0.78903264,-0.0063388795,0.83427286,0.5284286,-0.67093074,0.80201334,-0.22158116,0.7856298,-0.43194836,-0.64367974,-0.7201098,-0.44462427,0.2947481,-0.21147035,0.46383762,-0.111419335,0.49988157,0.46220368,-0.16040698,0.80632293,0.5151499,-0.81532234,-0.05186431,0.09037241,-0.035857484,0.30683398,0.82875663,0.7137158,-0.7977002,-0.028604716,0.13175115,-0.39359194,-0.17732814,0.39907968,-0.7841476,0.20583265,0.566555,-0.5842928,0.007875115,-0.70068944,-0.79571116,0.015138164,-0.39815128,0.36380917,-0.2164539,-0.41098896,-0.74506056,-0.3926843,-0.559358,0.05369678,-0.15093505,-0.51235366,-0.61889327,-0.2577968,-0.7263769,0.20070054,-0.82827693,0.72294897,0.05052015,-0.6561628,-0.34685844,-0.3290497,-0.077230856,0.14757171,-0.49318555,0.71815795,-0.18862948,-0.08872293,0.26234055,0.17301142,-0.23934111,0.23905553,-0.5640369,-0.36955345,-0.15209019,0.13828918,-0.062405393,-0.53117996,-0.830138,-0.3217228,0.72295135,0.56301093,-0.23129314,0.4399178,-0.84780335,-0.65101296,0.1322709,0.014878288,-0.07181704,0.31097472,-0.46691173,0.722523
-0.52237636,0.06504215,0.19158281,-0.5249577,0.39774293,-0.72788113,-0.11016227,-0.2722705,-0.7569695,0.8412295,-0.62131876,-0.8110115,-0.5004156,0.53083116,-0.2743906,-0.34469303,0.21564476,-0.4473987,0.73945487,-0.8718142,0.3298331,0.23421422,0.520694,-0.794741,0.64001226,0.16971163,0.5372337,0.15067823,-0.13929568,-0.5174983,-0.3545534,-0.5292698,0.6646081,-0.7961177,0.41394705,0.13355285,0.43957376,-0.65107554,-0.16736068,0.74845827,-0.43619448,-0.7299983,-0.62689,0.88280225,-0.41332182,0.0394696,-0.31563383,-0.19411616,0.13888605,0.18182792,0.6361375,-0.77456343,-0.825928,0.040179566,0.076060444,-0.78289384,0.7252375,-0.47156897,-0.40493026,0.7088617,0.2650336,-0.7145974,0.592683,0.1423186,0.60134107,-0.66463083,-0.5947925,-0.497831,0.49451685,0.47003025,0.34595436,0.6562815,0.19187383,0.7835513,0.57800555,0.87791765,-0.6749958,0.71271783,-0.24417251,-0.4988326,0.28466687,-0.6219746,0.3869391,-0.60602987,0.71975416,0.5431623,0.3846783,0.820637,0.39097404,-0.7922987,0.18903539,0.55149055,0.38810527,-0.14307119,0.6990827,-0.8226072,-0.59575117,0.06463587,0.5579033,-0.81795543,-0.6149205,-0.84397626,-0.43324324,0.16545497,0.67806923,-0.09910546,0.58545494,0.42051023,-0.024295002,0.57856596,0.13818741,0.6627461,-0.7593104,0.68792576,-0.788753,-0.11990875,-0.43405426,0.60223037,0.038101822,-0.2977951,0.44435358,-0.8106112,0.3916744,-0.5646152,-0.27382112,0.8673834,0.7996339,-0.6799868
0.57402486,0.8814222,0.819202,0.69997436,0.5991992,0.5480317,-0.29053307,0.62558955,0.7521955,0.03073141,0.8265621,0.009347945,-0.73092216,0.56464994,0.4540419,0.84939444,0.7904831,-0.7726078,-0.069612786,0.013757125,-0.6263995,0.5175873,0.5837717,0.2599051,0.17026,-0.36699727,-0.8619113,-0.3118028,-0.36717597,-0.35392448,0.2373489,-0.52089506,0.050610155,0.5370659,0.5177573,0.108566135,0.18364444,-0.6383205,-0.85216165,-0.5462075,0.83532715,-0.32495862,0.084294826,-0.85616994,0.50467885,-0.094726086,-0.52088964,0.55361724,0.1951281,-0.14112152,0.26160643,-0.10173246,-0.81101006,-0.56015193,-0.32037792,0.67224914,-0.54179245,-0.3615325,0.7173828,0.71894413,-0.61531997,-0.62052244,0.85877335,0.12164727,-0.6391351,0.214139,0.59174633,-0.6567231,-0.7200217,0.27938104,0.43648398,0.41868204,-0.6457318,0.14480688,0.6324663,0.53264326,-0.33745053,0.68375164,-0.250062,-0.28374016,0.66817725,-0.08308239,0.7081518,-0.04020132,-0.35150808,0.30936763,-0.33883607,0.28530008,0.3057383,0.09440862,-0.21467611,0.39288348,0.39614642,-0.64075285,0.27007878,0.5784703,-0.55947655,-0.08564398,-0.58527285,0.7001046,-0.38149294,-0.8754773,-0.62346524,-0.22855222,0.08963212,0.10025598,0.61921364,0.6077585,-0.75369954,-0.4729693,-0.285392,-0.4748048,0.26297912,-0.5013997,0.7224023,0.5572643,-0.48775882,0.8321593,-0.76780367,-0.67382216,0.76955134,0.07845871,-0.8734906,-0.70930076,0.05333431,0.47214037,0.0019831955,0.75287753
-0.026788935,-0.364815,-0.18501326,-0.46150124,0.8430206,0.8609196,0.7638017,0.5687872,0.24832942,0.12569226,-0.45739308,-0.38059044,-0.14433064,-0.53257674,0.7286223,-0.049769506,0.8710379,0.19163392,-0.2748555,-0.8369819,0.22914715,0.25335997,-0.16747922,0.15391052,-0.8652154,0.3560648,-0.84537977,0.3657727,0.62441224,0.15002191,0.48097485,-0.7745176,-0.0033453107,-0.17095216,0.5638125,0.8820828,0.80920374,-0.028125346,0.12891233,-0.63669395,0.3410524,-0.29088742,0.7299805,-0.6006414,0.4726779,0.65414214,0.7115703,-0.8208426,-0.80189717,-0.10287225,0.07545009,-0.2655514,-0.78267646,0.088240355,0.45926458,0.60272074,-0.06884664,-0.7421818,-0.20074435,-0.62923455,0.15510015,0.40635264,-0.38867402,-0.22191107,-0.3015292,-0.58160925,-0.13108008,0.420155,0.6973339,-0.16253054,0.81470364,-0.35821038,-0.7088945,0.56112075,-0.45579457,-0.7503515,0.070282295,0.38891977,-0.67295873,-0.38813287,0.055761263,-0.7123402,0.43406314,0.14425337,0.30965418,0.4687392,0.68970793,-0.75953615,-0.034122393,0.5759805,0.37067062,-0.21820635,0.12156002,-0.37892208,-0.11860512,0.85262114,-0.27011126,0.22462435,-0.1743,0.42544848,-0.23242056,-0.24656169,-0.39587766,-0.20924553,0.42394185,0.41223073,-0.53982157,-0.6570267,-0.51481223,0.44501996,-0.08090779,-0.8252274,0.30755663,-0.360961,0.54286534,0.19073978,0.21750912,-0.12947574,-0.74031043,-0.62184596,0.69713587,0.61105514,0.57478136,0.6187708,0.8444571,-0.70355624,0.20419821,-0.6077423
-0.709199,0.719252,0.05050458,-0.8070179,-0.31481642,0.122733116,-0.032424703,0.70429033,0.58031774,-0.70868945,0.82307583,0.8311,-0.49483287,0.6477562,0.43536192,0.5176478,0.22103123,0.4355622,0.38985723,-0.3360505,-0.6878834,0.37215644,0.87386644,-0.37104928,-0.5518903,0.34225613,0.73034114,-0.11325188,-0.7897649,0.7235507,0.6156794,-0.6456166,-0.2743153,0.25950348,-0.52502817,-0.27335984,0.85294986,0.51250035,-0.6920533,-0.4872421,0.4292894,-0.62283707,0.008087978,0.11455506,0.77571726,-0.5814562,0.47160202,0.5226729,-0.82345045,-0.7091028,0.8101753,-0.8708939,-0.32235298,0.054455325,0.397704,-0.5650883,-0.69468826,-0.7433278,0.82064176,0.018808693,-0.3409615,-0.16181745,-0.6190158,0.5185286,0.46923107,0.49205446,0.8332095,-0.28108186,0.809075,-0.7657614,-0.3237808,-0.78911775,0.7359669,0.5833476,0.11500232,-0.42193115,0.71069115,0.83409154,0.2101557,0.07086426,0.28148487,0.62929624,0.2692698,0.32859966,-0.45975626,-0.69715476,0.33583796,0.41512543,-0.21722749,0.059469715,0.51985866,-0.4412913,-0.34364927,0.47502285,0.83582944,-0.0062321126,-0.25600314,0.61951107,0.21932662,0.58468664,0.87539816,-0.66413516,-0.729125,-0.33720523,0.08571461,0.18142492,0.23890458,0.7585504,-0.7541801,0.33741325,0.8682046,0.6861249,-0.16857125,-0.70957553,-0.8830499,-0.7895354,0.38674003,0.27991986,-0.52073526,0.25240391,0.5965305,-0.24272434,-0.29285106,-0.75575113,0.13242193,0.5164536,0.21952532,0.7965354
0.55848175,-0.70936143,0.2518502,0.18362589,0.23791961,0.39195603,-0.4953399,-0.7708284,0.14066815,-0.287455,0.5626851,-0.64511037,0.8252505,-0.49821758,-0.36236596,0.88001704,-0.12678243,-0.78431404,-0.2653061,0.060476065,-0.52422154,0.1288709,0.09137489,0.27904183,0.27364188,0.20461284,0.812616,0.076974556,0.36328977,-0.48330855,0.67092323,0.24415731,0.8214774,0.5176919,0.30543023,0.65481937,0.06542288,0.09796858,-0.8215337,-0.46543732,-0.5292543,0.58106357,-0.6007533,0.1329121,0.30702645,0.42737,-0.80743915,-0.03796622,-0.4600457,0.5268294,-0.6998074,-0.77670836,-0.49581003,-0.2659092,0.17302237,-0.79125416,0.5007694,0.357465,-0.7046162,-0.14785916,0.5566943,-0.43136686,0.284179,-0.50187045,-0.15919447,-0.41034287,-0.24756014,0.6966526,-0.2015324,0.06548785,-0.09700857,0.3267976,0.87179965,-0.0658869,0.05083166,0.7069033,-0.064525455,0.6530375,-0.4988861,0.8825725,0.44993377,0.28896183,0.7928991,0.47173923,-0.4386488,-0.33102894,-0.48561502,0.8705675,-0.736373,-0.5135721,0.31347328,0.37283415,-0.40848494,0.052024275,-0.1597412,0.28425455,0.32299414,-0.13411179,-0.6496179,0.45701063,0.517653,-0.54350984,-0.8557497,0.15157953,0.44531488,-0.09309925,0.09833239,-0.8159453,-0.7286202,0.7566876,-0.26761407,0.092343464,0.28420344,-0.6209261,0.40616387,-0.65318966,-0.6719888,0.5627108,-0.40446982,0.39282882,-0.1629617,-0.33032656,0.39612257,-0.29148728,-0.62017524,-0.8427927,-0.1651597,-0.49774605
-0.07102691,-0.6455681,-0.6888075,-0.6874517,0.5857634,0.30707732,-0.15420258,0.8008084,0.14137372,0.097596794,0.082326084,-0.088358,0.2482462,0.3913296,0.8815243,-0.34595692,0.6744405,-0.4375866,-0.66073275,-0.02090618,-0.5840523,-0.82011455,0.45491523,0.68682337,0.6899015,-0.81678164,0.44910735,-0.70751095,0.06762385,0.6605623,-0.6109392,0.07884562,-0.31894964,-0.2772621,-0.53614235,0.5403515,-0.48594072,-0.08623317,-0.31103793,-0.52965367,0.23760177,-0.53276795,0.2767157,0.86341107,-0.33004028,0.0826738,-0.5161289,0.7249383,-0.4611,-0.81561923,-0.8249993,-0.78031766,0.6712339,0.5105973,-0.11525571,0.7287041,0.54419196,-0.73067427,0.13861738,0.4756769,0.18537372,0.7603415,-0.80143476,0.35201743,-0.6834216,-0.84777945,0.014748946,0.28989947,0.3992114,-0.7329542,-0.41090792,0.79637116,-0.44026628,-0.4637466,0.21949582,-0.19710734,-0.4321565,-0.18513918,0.47670388,-0.14366314,-0.3859095,-0.7599046,-0.31758565,-0.61339206,-0.51368874,0.8468967,0.3481646,-0.6924382,0.69858676,-0.6833211,0.6471526,-0.53067374,-0.22199295,-0.65047705,-0.39918807,0.27849132,0.5785152,0.64090693,-0.32314304,0.6520296,-0.35715818,0.0070061535,0.7178018,0.41290635,-0.44051138,0.3302124,-0.24029426,-0.7954215,0.506702,0.5374872,-0.44609582,0.5118636,-0.5583705,-0.7560274,-0.05322978,0.8604049,-0.6717623,0.30044138,-0.8805928,-0.047646612,-0.30544704,0.84555244,0.08086853,0.80338454,0.016153604,-0.24593003,0.43608838,0.54111356
-0.7336403,-0.48831907,0.5477259,-0.382309,0.82457864,-0.51362324,0.82378143,0.650051,-0.52734697,-0.57655936,0.1511582,-0.7502857,-0.028536916,0.045212805,-0.36039442,-0.62467676,0.3051185,-0.74580216,0.6176814,0.13691626,-0.48482633,-0.85451967,-0.57682747,-0.29945418,-0.81802595,0.7544389,-0.16106807,0.34879857,-0.40697142,-0.41229057,0.80951774,-0.066383705,-0.62641346,0.567022,-0.21800943,0.6454658,0.7093439,-0.26738015,-0.77011317,0.41915482,0.36944324,-0.6315538,0.88378793,-0.34442753,0.7474091,0.82958364,0.35489872,0.3704471,-0.1229807,-0.6783006,-0.51659536,-0.5028431,-0.76621354,0.028660893,0.38281465,0.7367786,0.38790292,-0.16901739,-0.4974918,-0.8316331,0.676386,0.16362987,0.09336084,-0.80260926,-0.52975637,0.41004902,-0.15637606,-0.17632194,-0.014713854,-0.22648834,0.68860763,0.66921806,-0.77810854,-0.68199384,0.6893622,-0.8236616,-0.71792734,0.6198787,-0.7565895,0.7511053,0.69872504,0.6432531,0.73516005,-0.3083495,0.86267614,-0.5973886,-0.29678178,0.18455945,-0.1290533,0.816636,0.26259348,0.30751586,0.4067006,-0.18848553,0.12485273,-0.36962733,-0.3659711,0.028104782,0.7200805,-0.009716004,0.34606352,0.46650982,0.46332425,-0.30445608,0.461128,0.2288875,0.5392439,-0.052100345,-0.30925944,-0.6977266,-0.6941111,0.48130566,-0.09440996,0.4803837,0.3305234,-0.49648795,-0.58084714,0.1906947,0.68275356,0.07414602,0.007748902,0.27205274,-0.0267981,-0.70806414,0.0119146705,-0.74417824,0.8087701,-0.5098896
-0.44246954,-0.21435611,-0.6300138,-0.06831221,0.21981172,0.29478103,-0.08351922,0.6717735,0.70366734,0.4556548,-0.21454535,0.19632019,-0.51574636,-0.090724155,0.5695746,0.8764628,-0.5294797,0.29126018,-0.6136373,-0.6123629,0.7137284,0.14578901,0.758942,0.20217665,0.63242936,-0.08724332,0.15593417,-0.85101515,0.5491846,0.7049877,-0.48463956,-0.12609012,0.40780222,-0.7186815,-0.6472224,0.22897549,0.39193594,-0.014218986,0.28848505,-0.05497679,-0.054499432,-0.5159618,-0.7283752,-0.3254819,0.27675882,0.05575098,0.40450507,0.3150562,0.3177246,0.33026063,-0.724766,0.277712,-0.5944464,-0.74414563,0.23277692,-0.5813669,0.17769799,0.46644247,0.7567834,-0.8212391,-0.8773502,-0.5684484,-0.81102043,-0.05712807,0.59724355,0.44942015,0.08263953,0.47870213,-0.7424756,0.022928193,-0.8090336,0.28996027,0.8542999,0.09857103,0.31346565,-0.7175043,0.50645286,-0.0018190593,-0.46012968,0.5279145,-0.13565406,0.026775971,-0.21089599,-0.67349166,-0.8472463,-0.42108136,-0.34438884,-0.25553495,-0.72439164,-0.3480923,0.4867267,0.5877569,-0.21278024,0.81390196,0.44204688,-0.66634893,-0.36344406,0.21490708,-0.14665656,-0.40955377,0.31756794,0.32520497,-0.019557476,0.045629963,0.41934544,-0.1644516,-0.5133643,0.5508364,0.30733183,0.12308158,0.36554658,0.23282498,0.35389936,0.19247435,0.21475017,-0.44048283,-0.85261476,0.42362654,0.55067396,0.2949273,0.65907085,0.13254791,-0.14328502,0.44023818,0.8704599,-0.6618489,-0.21001093,0.21967009
-0.8435548,-0.6035179,0.5057725,-0.34087843,-0.11919424,-0.35285962,0.5885536,0.30845934,0.20056218,-0.23959629,-0.3088736,0.7428273,-0.38434196,0.48005438,-0.5536729,0.1593186,0.6014255,-0.3062074,0.8698773,-0.010606274,0.88084215,-0.16089983,-0.66351974,0.81908935,-0.23221456,-0.3030879,-0.08825287,0.26678437,0.2897267,0.41836745,-0.20157158,0.81255907,-0.7851117,-0.012600347,0.62166566,-0.87110454,-0.52709335,-0.41757518,-0.37611067,-0.63836217,-0.35690394,0.21570124,-0.1225432,-0.7973019,0.17507903,0.8490602,0.0786639,0.74465877,-0.83119786,-0.65520406,-0.26743597,0.083554015,0.5221323,0.69419974,-0.2634823,-0.6755183,-0.4626021,-0.4876685,-0.5952305,-0.5123704,0.51168776,0.21221139,-0.09785473,-0.66499877,0.674353,0.42387807,0.8398231,0.05932063,0.70479566,0.05161695,-0.2042377,0.47853804,-0.10468505,-0.37775293,-0.061450228,0.2746833,-0.335724,0.64684534,0.29311523,-0.29717195,-0.47114477,0.60618705,0.5984097,-0.17502546,-0.5535499,-0.4167217,-0.68637013,-0.75228363,-0.4644018,-0.4258527,-0.010293722,0.5793912,-0.58679867,0.40525252,0.60983783,0.09555489,0.42725468,-0.8174514,-0.6625807,-0.14122419,-0.8301035,-0.717678,0.61239487,-0.4176603,0.23224145,-0.33842233,-0.0067914277,-0.040675327,-0.12476161,0.6916922,0.8529956,-0.822562,-0.2574808,0.33209985,0.5804721,0.09256564,0.1381734,0.094821975,0.52427524,0.39636546,-0.68470293,-0.33287108,0.49583846,-0.80739486,-0.88164675,-0.3227204,-0.8596332,-0.31049994
0.1479727,0.2566895,0.87819195,0.12731753,0.41422033,0.2591993,0.5756084,-0.42071038,-0.31872752,0.28707588,-0.23593634,0.37939483,0.3547024,-0.6766698,0.5103997,0.5928079,-0.6087791,0.11173919,0.7769137,-0.47966346,0.7040129,0.040894672,-0.09552434,-0.76192904,-0.10318518,0.40559942,0.25278127,0.13732433,-0.2329006,0.22425488,-0.01332745,-0.78796536,-0.21207154,0.6918075,-0.26799136,-0.52460045,-0.39186147,0.70476437,-0.09051792,-0.6759935,-0.6960365,0.1525268,-0.056898147,0.65732574,0.76794094,-0.8488213,-0.2519177,0.14560185,0.6845874,-0.6903288,0.75546706,-0.67172235,0.32269502,0.8498541,-0.044041052,0.25035346,0.8590684,0.025411248,-0.37342697,0.36037967,-0.5055915,-0.7102351,-0.83756614,0.2050028,-0.08159503,-0.44980928,0.5334619,-0.22363983,0.09778246,-0.58820784,-0.8568636,-0.4346578,0.56505406,0.22050127,0.66457325,-0.20634189,0.77891266,0.50106907,0.31362042,-0.63519365,-0.84269464,-0.045588315,-0.23778223,-0.7229739,0.73757553,-0.3475294,0.11049271,-0.34237212,0.73371226,-0.42756796,0.0915394,-0.66699535,-0.021280572,0.67531145,0.05386956,0.6221538,-0.33381,0.27154213,-0.73428386,-0.005582124,0.3485492,0.4697683,0.8149483,-0.110114515,-0.5802063,-0.51983786,0.6555333,0.06094426,-0.26538563,0.87945247,0.10991648,0.25635278,-0.46288598,-0.13037421,0.57485783,-0.116326064,0.8353784,-0.6571108,-0.28733298,0.2877527,0.35353714,-0.40836006,-0.8020893,0.24174735,0.19727536,-0.8029045,-0.22463113,0.4255187
-0.49434376,0.70942944,0.51642275,0.4432813,0.75673664,0.7303124,0.5531841,-0.036449954,-0.43041235,0.45453632,-0.72791827,0.82475984,-0.2952965,0.7256969,-0.40201098,0.04772909,0.5814364,-0.53284836,-0.72558665,0.03626302,-0.7462781,0.040549263,-0.42697337,-0.041638017,0.26943132,-0.33768612,0.107166246,-0.06205462,0.4462338,0.032958314,-0.09033047,0.10844469,0.40575588,-0.73485625,-0.22829726,0.5001187,-0.5537447,-0.14173038,-0.2315262,0.41064674,-0.35096988,-0.095441416,0.07755406,-0.019300729,-0.82354695,-0.02143912,-0.6076437,0.19270308,0.26887858,0.7812632,0.7573289,0.7267585,-0.076429695,0.33579603,-0.17570652,-0.8069327,-0.0077243894,0.4135961,-0.7228798,-0.6316197,-0.06484479,0.6504893,0.78776234,-0.3894748,0.1943881,-0.16237274,-0.5210681,-0.82208085,-0.8336612,-0.0766211,-0.7533279,-0.5285399,-0.50443953,-0.53395355,0.34501135,0.63727206,-0.018422157,0.02059713,0.49696916,0.32419115,-0.13352543,0.094570816,-0.722106,0.3828979,-0.23618326,-0.5032862,-0.86122566,-0.0782378,0.8260145,0.11379905,-0.16932085,-0.18728949,-0.7911986,-0.13939112,0.5276132,0.44106716,0.18321328,-0.2566424,0.0048215687,0.008734614,-0.46548718,-0.6475737,0.75168705,0.12714736,-0.14829844,0.5118508,-0.381514,0.38439637,-0.46491966,-0.19691594,-0.13541691,0.0680206,0.36078513,-0.5575094,0.38798994,-0.32223225,0.81175977,0.6622424,-0.2504407,0.10363206,0.38852924,-0.12458965,0.6516757,-0.39140177,-0.85928035,0.39965636,-0.17403454,0.020240098
-0.3566525,0.55320346,-0.32844278,0.88141525,-0.23597896,0.82507783,-0.85081273,-0.8094204,0.1417955,-0.09269148,-0.3357829,-0.08197375,-0.49506152,-0.42088297,0.8220247,0.8835768,-0.8798575,-0.45577866,0.80973005,0.64194673,0.20871833,-0.68035114,0.5535152,-0.1599633,-0.60499537,-0.025382191,0.00092089176,0.83302385,0.0012843311,0.8351973,0.33559477,-0.43390527,-0.5132699,0.5717563,0.29971316,0.68895334,0.35446966,0.46149468,0.25355792,0.5763126,-0.35653022,-0.050476864,-0.033831522,-0.29314417,0.03812954,0.56923085,0.6842449,0.5782827,0.3902412,0.8794441,0.5432796,0.8328224,-0.52098477,-0.21717228,0.21207064,0.73473,0.73045695,-0.2502879,0.8636146,-0.4177919,0.6718498,-0.6881019,0.37617123,0.4448638,-0.8833846,-0.5843118,-0.5437823,0.6710764,0.8703155,-0.34286094,0.58367795,0.28284788,-0.5878258,0.045293868,-0.5046674,-0.040031523,-0.4102047,0.87531304,0.57243025,-0.85817033,0.06831594,-0.49571764,-0.02681449,-0.4184324,0.6901554,0.8419449,0.49739504,0.10897577,0.28275722,0.29569978,-0.6794557,0.44978327,0.4095205,0.21606848,0.755466,-0.32888997,0.09933412,0.114959404,-0.6732637,-0.3412721,0.62788314,0.65523946,-0.28972808,0.65117025,-0.4353471,-0.7589588,0.09613633,-0.042645782,0.38266605,-0.74245274,0.5001507,-0.29513058,0.118526295,0.42031044,0.83694434,-0.6370684,-0.50806445,-0.23961253,-0.26480824,0.688786,0.13262197,-0.684795,0.22926874,-0.7432583,-0.8090829,-0.021125823,0.08018151,0.030357987
0.8452753,-0.22008233,0.25590762,-0.79361534,0.7774269,-0.70354545,0.1283104,0.5661256,0.08763321,0.4171511,0.057623312,-0.7261634,0.7745964,0.311409,0.6428755,-0.12639366,-0.44908088,-0.21820337,-0.14320813,0.2967834,0.054721013,0.61126566,0.21724306,0.54426885,0.8173078,-0.56565064,-0.5442881,-0.6615012,-0.6183595,-0.20769075,-0.7737441,0.5718834,0.87756956,0.61964893,-0.090065524,-0.61559784,0.2639015,-0.7243768,0.69767827,0.019821152,0.49686158,0.07873908,0.43238288,0.02772145,0.69799984,-0.31990123,-0.6420151,0.39119565,0.4097501,0.86180574,-0.5991639,-0.3483047,0.2313646,-0.40811256,0.31935835,-0.09298056,-0.4656663,0.45665807,-0.1361715,-0.6548573,0.78239536,-0.5760355,-0.022635609,-0.8533847,0.27516806,-0.36825967,0.4051178,-0.10572903,0.07784337,-0.823066,0.74346447,-0.846226,-0.7222853,-0.71144235,-0.19817859,0.27053967,-0.048785806,0.7890081,-0.47947192,-0.21640867,0.041858777,-0.835073,0.49308097,0.7575577,0.62398994,-0.71470827,-0.8267256,-0.5717372,0.58121943,-0.83092463,0.8813625,-0.8803842,0.16309895,-0.40741566,0.66756034,-0.44508335,0.7453067,-0.5551526,0.5402992,-0.50462884,-0.37164763,-0.2628072,0.74497217,-0.8381742,-0.053428262,0.23346066,-0.60917497,-0.1701545,0.3433399,-0.25913715,-0.8577036,0.14408693,-0.67414546,-0.38674295,0.5704486,-0.10468915,0.4649567,-0.14087625,-0.022116154,0.037724152,-0.23121834,-0.010492429,-0.021424368,0.10893434,0.1325924,0.68756527,-0.5370067,0.4318645
0.8799923,0.034046844,-0.55336916,-0.84781337,-0.87987626,0.15995659,0.6157634,-0.7963273,-0.6336188,-0.854458,-0.15822127,0.5207985,-0.8270687,-0.8800319,0.5436606,-0.7888966,0.7679013,0.5634638,-0.41015238,-0.26295292,0.37135726,-0.3571039,0.109804794,-0.74577975,0.5731187,0.5466721,-0.5353654,-0.7840577,-0.7047883,-0.60190195,-0.46677116,-0.5200053,-0.054919347,-0.052641407,-0.06556921,0.64964914,0.15488662,0.4986679,-0.5215479,-0.444629,-0.5420406,-0.5932523,-0.5925459,0.71245635,-0.39148688,-0.44895294,0.14374435,-0.6097223,-0.15298761,-0.32696724,0.71088886,0.5346564,-0.37966743,-0.05051531,-0.15319861,0.5300916,0.3414694,-0.73018736,0.6980062,0.55965656,-0.77864885,-0.31461948,0.863638,-0.116217956,-0.54640657,-0.10556318,-0.61566544,0.6753638,0.67240274,0.5455143,-0.114408284,-0.6904718,-0.7648439,0.7994217,-0.17074846,-0.6990509,0.43222958,-0.2085185,-0.057447404,-0.22483908,0.047800243,0.29942596,-0.31494147,0.3738386,0.18202499,-0.83034873,0.6590686,0.56603557,0.024318695,0.21639101,-0.2022212,0.033905953,0.4745314,0.5704778,0.24682768,-0.76364267,0.18474288,-0.28846788,0.79385585,0.0600148,-0.0041837245,0.13591282,0.0140515715,0.26762545,-0.42259887,-0.048122033,0.18539533,0.27283365,-0.5283125,-0.31293318,0.09380698,0.4689715,0.7307342,-0.15047602,-0.0380297,-0.017243326,-0.7167017,-0.7494285,0.86151665,0.1204814,0.4266327,0.4790411,0.63761896,-0.6466415,-0.14670812,-0.7217915,0.18911935,0.11155814
0.6862066,0.4035976,-0.6599834,-0.4868312,0.23437575,-0.590514,-0.8622229,0.114608854,0.2014745,-0.6343473,0.037173405,-0.12329504,0.011745766,-0.82133436,0.17283238,0.7557058,-0.25827885,0.11958212,0.008344576,-0.73114103,-0.5674275,-0.6822778,0.53374594,0.4796692,0.74856824,-0.7924788,-0.67883945,-0.82052505,-0.54521036,-0.41698363,-0.040140525,0.3696891,0.058625415,0.29876396,0.15717909,-0.39458796,-0.02507031,0.205504,0.79190606,-0.4971875,0.5563497,0.3081628,0.46191907,-0.84571475,-0.29579353,-0.20028874,-0.56422526,0.5977943,0.34098908,0.44095403,-0.2988673,-0.44746074,0.33398205,-0.7000439,-0.19818984,-0.7557151,-0.3186132,0.8428096,-0.42347583,0.60132587,-0.18043362,-0.77150583,0.6796297,-0.678151,0.4476645,-0.17294243,0.124601126,0.015473068,0.7243145,0.31815916,-0.7601929,0.8156615,0.8185271,0.039463043,0.6535289,0.7674646,-0.07410884,-0.3708363,0.5680699,0.2710948,0.40257984,-0.06830223,0.24097875,0.39192015,-0.4411694,0.86099243,0.49481088,-0.06907351,-0.14066212,0.29173458,0.85386837,0.35872257,0.183369,0.47550732,-0.34533355,-0.5656954,0.8065159,0.7772363,-0.41777566,-0.08546218,-0.12180671,-0.17005347,0.17724752,0.80122596,0.48635268,-0.20989709,0.23792602,0.4651881,0.47576344,0.77758646,0.12429729,0.7093168,0.10833971,0.2142778,0.6492195,-0.124042705,-0.5007125,-0.55283713,-0.2927915,-0.6613475,0.8079692,-0.1008331,0.65875506,0.1719831,0.39139056,-0.8663454,0.34168184,0.39321727
-0.18191136,-0.4710657,-0.70848393,0.80876774,0.47090226,-0.53897655,0.019684136,0.48411065,-0.08177951,-0.1812084,0.8563807,0.061860383,0.41327006,-0.039353073,0.60021573,0.80222034,0.30032074,-0.124477446,0.32987386,-0.6872777,0.6420142,0.6601796,-0.46168458,0.17309375,0.7359367,0.68162,0.11848509,-0.56886244,0.67295974,0.22661567,-0.3312108,0.32942757,-0.7364407,0.08768737,-0.04469976,-0.3859961,0.67440605,0.6109748,-0.20350672,0.57370013,-0.79679406,-0.35987115,-0.5059738,-0.35942978,0.12785845,0.5532787,-0.8750593,0.20784803,-0.71257126,-0.09082697,-0.17215997,-0.61141104,-0.3715629,0.29833847,-0.833228,-0.56638825,0.64511234,0.8285565,-0.69334614,-0.86884946,-0.0034059584,0.24684153,-0.45432332,0.020115823,-0.24614751,0.74051344,0.6973525,-0.2841276,0.2436766,0.8044166,-0.21983564,0.47124034,0.5423122,0.84942615,0.23901016,0.37697905,-0.16068697,-0.7012186,0.8220077,0.32378197,-0.15264347,-0.22370756,0.17138824,0.5723897,-0.37637386,0.55673814,-0.46114898,0.086524114,-0.47118574,0.3931939,0.08576684,0.65118814,0.47955698,-0.5682837,0.856748,-0.86357105,-0.45820472,0.25258964,0.6808207,-0.5923183,-0.06803088,0.8614301,0.04129328,-0.07464513,0.2791587,0.67291504,-0.71309674,-0.35050932,0.1577922,-0.43411538,-0.17548822,-0.31966594,-0.51679707,-0.44313973,0.21495357,-0.6182776,-0.38910958,0.72043484,-0.10991447,-0.17302409,0.2612914,-0.059843883,0.0382524,0.30673325,0.1256039,0.29681617,0.35840982,0.25392628
0.65774775,-0.4097071,0.0437928,-0.73601234,-0.6146831,-0.69687164,-0.6128513,-0.26890236,-0.6549433,-0.7426656,-0.30410868,-0.6053769,-0.011184812,0.36772376,-0.0525482,-0.8738777,0.84226364,-0.0961674,0.83088374,-0.7610841,-0.6020747,0.31318873,0.5108941,-0.2645169,0.28211132,0.82410043,0.6458268,0.117357075,0.4506213,-0.640629,0.025332347,-0.7390005,-0.7986388,0.46333903,0.7902699,-0.25041342,-0.68421626,0.5415884,-0.86552674,-0.44952974,-0.81972414,-0.6441727,-0.3377958,-0.6815183,0.27169436,0.17833531,-0.5278527,-0.7701827,-0.35784626,-0.008885413,-0.5478224,0.6274635,-0.36408406,0.045610815,-0.58118194,-0.8005876,-0.18239163,0.004807785,-0.6526992,-0.36931956,0.1729969,-0.30639127,-0.01654379,0.13608553,0.39903873,-0.033573583,0.88037825,0.84102607,-0.3246203,-0.55359596,-0.19173466,0.20252824,0.6066721,0.487377,-0.49765712,0.39883727,0.8226895,-0.38501588,-0.3935817,-0.67222023,0.3656368,0.484213,-0.0989081,-0.86322457,0.106881484,-0.7983592,-0.71446013,0.6113505,0.045067072,-0.67242026,0.8408498,0.0062903017,-0.46731466,-0.8267752,0.76552206,0.8479821,-0.6915735,0.8138373,-0.06672375,0.22792406,-0.5749539,0.66034293,0.70966864,0.81865513,0.4085461,0.49640244,0.55538034,-0.7910388,-0.05396515,-0.103821084,0.82633144,0.051951036,-0.16300008,0.18782541,-0.44431123,0.87422556,0.13950303,-0.7319076,-0.6970178,0.13697676,0.71087384,-0.56179976,0.53923434,-0.43294612,-0.6521095,0.516445,-0.10958947,-0.66554916
-0.84718823,-0.7872027,-0.7577714,0.76418364,0.45175588,-0.3738481,-0.05276151,-0.1240094,-0.8397989,0.5224938,0.32579386,0.33599004,0.71823573,0.06277144,0.14257021,0.17486155,-0.37075296,-0.39828107,-0.4278891,0.1590012,0.1965627,-0.6414274,0.34778416,-0.789817,-0.21560125,0.37859863,0.07584229,0.13810962,-0.27369654,0.8585582,0.20584449,-0.4241286,0.030248389,-0.604481,0.038594678,0.4458555,-0.23395307,-0.8501295,-0.27577135,-0.4515556,0.027282909,0.824298,-0.616952,-0.33281985,-0.41539058,0.3415122,0.21782115,0.19261397,-0.2584318,-0.74747056,0.0075990707,0.30936962,0.4380622,-0.33025995,0.6875465,-0.38169953,-0.3133637,-0.58575153,-0.5774692,-0.36671853,-0.24548717,0.089061335,-0.8814865,0.88061935,0.540426,-0.32188833,0.18091969,0.18013321,0.17790303,0.08928917,0.85108393,-0.6869948,-0.09657852,-0.43605876,-0.7973753,0.2489686,-0.7631552,-0.756395,0.13483822,-0.7176092,-0.15379377,-0.88361174,0.86480236,-0.81926215,0.24548873,0.05493261,-0.5610187,-0.6642519,-0.6115162,-0.06215267,0.38789397,0.106818676,-0.43308046,-0.38117588,0.419124,-0.29075438,0.84303385,-0.804006,-0.011801124,0.696392,0.052443445,-0.009334609,0.40102994,-0.061410293,0.5688462,0.6844691,0.2476646,0.48142666,-0.16756766,-0.5472765,0.15322044,0.28960407,0.0942982,0.27087823,-0.5362689,-0.5706361,-0.79148245,0.7931421,0.0666254,0.0050880015,-0.4235853,-0.757969,0.6372773,-0.36524954,-0.86371374,0.80614173,0.76894486,0.575572
0.82141227,0.18875726,-0.4262861,-0.3489911,-0.8318938,-0.102419555,-0.48816934,-0.8811481,0.44987702,-0.13947003,0.75631464,-0.09552479,-0.19671433,-0.6792183,0.21794796,0.6543332,0.6869433,-0.09482607,0.22020273,-0.26236653,0.34346446,0.50272906,0.02837807,-0.59481686,-0.024270564,-0.29607487,-0.3895532,-0.27903405,0.11529595,-0.23633927,0.46448147,0.7500524,-0.11184007,-0.7037462,0.27169847,0.10862559,-0.33228952,0.27329588,0.08820735,0.4856435,-0.7058151,0.34352267,0.7628956,-0.21565236,-0.30830008,-0.27509344,0.4310798,0.058024302,0.1429262,-0.21072917,-0.39812344,-0.28031993,-0.29777706,0.8037523,0.15746765,-0.6550746,0.5256278,-0.29492813,-0.8514836,-0.031243116,-0.4887398,0.81613326,-0.3015353,0.4415583,-0.85052073,0.5587054,-0.18981874,0.64586514,0.06127,-0.85420716,-0.36427867,-0.11809565,-0.8022627,-0.45651877,0.32023162,-0.15655763,0.4388464,-0.76624364,-0.78136677,0.035006106,0.09255655,0.036694556,-0.13854437,0.8036039,-0.47181267,0.29238477,0.38209206,-0.6996026,0.5473531,-0.0029421598,-0.8560544,0.3954723,0.01626134,0.19320063,-0.88042766,-0.375538,-0.70339024,-0.06996028,0.37867284,-0.17371528,0.5409276,-0.8312431,-0.6778617,-0.84624124,-0.5162723,0.6235316,0.26063323,-0.0599169,-0.60203874,0.1847107,-0.004063174,-0.19482508,-0.17343216,0.43841684,0.16223818,-0.7034687,-0.8700483,0.7776082,0.35345793,0.75233245,-0.12228191,0.16529702,0.84160006,-0.044524893,-0.76716745,0.36739266,0.07305369,-0.8383253
-0.824256,0.15871309,0.6784811,-0.41300094,-0.2801242,0.6766168,-0.74890804,0.101878196,0.6789101,-0.80690336,0.3367046,-0.74952096,-0.36146444,-0.39548874,-0.46046495,0.5131561,0.1417467,-0.30345118,0.28623298,-0.0555069,-0.2363848,0.52241004,0.5793288,-0.84356016,0.016295835,-0.63828945,-0.35356295,-0.7012383,0.5434803,-0.4282316,-0.34103364,0.00080935657,0.7569834,0.46041167,0.27684724,-0.16925246,-0.7097665,-0.39646897,0.76526785,-0.87113345,-0.5839251,-0.062309876,-0.54218686,-0.24961755,-0.44573182,0.5250954,-0.8454263,0.570663,-0.6379661,0.26965573,0.83828473,0.41938668,-0.3510276,0.60483956,0.07660337,0.54042274,0.75482094,0.6197631,0.587681,0.054403543,0.5798661,0.13832353,0.57907546,-0.606289,-0.049050897,-0.72289294,0.8048219,-0.5280838,-0.40258962,0.1938697,-0.30734,-0.11638135,0.81791466,-0.018317103,-0.25884783,-0.46558335,-0.29204118,-0.3417095,0.039548278,0.17921992,0.5052897,-0.091204494,0.5648253,0.11805192,0.8171893,-0.10168798,0.70327276,0.25517082,0.87027377,-0.4902078,-0.8002982,-0.596478,0.3042814,0.48648423,-0.4659061,0.27612805,-0.7915949,-0.34835255,0.37865782,0.68524027,0.5670666,-0.3344071,0.41388237,0.046827048,0.19493602,-0.22896253,0.7670205,-0.7775221,0.37346816,0.76304936,-0.4861288,-0.5872253,-0.58522594,0.7810772,-0.5062952,-0.74809337,-0.82518786,-0.5781456,0.672226,0.13955928,0.20640999,-0.6521429,-0.14542803,-0.17569505,0.8603812,-0.6886828,0.17691553,0.032937154
-0.30211747,-0.6881876,0.16352996,-0.7842824,0.57755524,0.84304965,0.04421249,0.7430374,0.5333462,-0.4735956,0.48967832,-0.82137537,-0.36808056,-0.64224124,-0.8483548,-0.27692902,0.4937536,0.26419288,-0.49023557,0.6331537,0.28565383,-0.73635036,0.7000094,-0.6891451,-0.66693157,-0.0541161,-0.79592645,0.15037313,0.5642628,-0.34297037,0.7137736,-0.2698712,-0.6477315,-0.73840404,0.6427043,-0.8294937,-0.59915376,-0.07698879,-0.55455065,-0.8795863,0.44789457,-0.10369845,0.028359741,0.31333858,-0.26152056,-0.8391051,0.44084483,0.008827522,-0.64423347,0.4795391,-0.11538848,-0.05665593,-0.80006903,-0.44559038,-0.1338195,-0.17000057,-0.43370727,0.8657149,-0.74701977,-0.74241704,-0.44671562,-0.17530128,-0.089274645,0.23646034,0.1889617,0.60161704,-0.39817348,0.810143,0.5309183,-0.5140858,0.782839,0.35320574,0.31269148,-0.8389429,-0.10797545,0.73130035,-0.79685056,-0.17541401,0.35977924,-0.7319954,-0.50639,0.18245362,-0.5065128,-0.29602313,-0.56739306,0.19221999,-0.41141897,0.58702105,0.62277293,-0.19408256,-0.4066097,0.7998482,-0.44447762,0.21317706,-0.4822746,-0.8503984,-0.45096654,0.16095534,0.81019646,-0.4237128,-0.33891743,0.36635107,0.5909976,0.66406095,0.74791664,0.3598328,-0.26760972,0.27232414,0.8589611,0.40645236,0.56102043,-0.73227596,-0.57960725,-0.116529614,0.2844829,-0.71915114,-0.36736256,0.061329752,-0.5580936,-0.56258035,-0.7751422,0.41051155,-0.4728288,-0.1770109,-0.2182369,-0.75035036,-0.47456172,-0.18572249
-0.86241996,-0.79541755,-0.32101506,0.50253326,0.7384986,-0.43820962,0.3001657,0.013664737,0.78203404,-0.40134147,-0.18426135,0.0463406,-0.17987527,-0.14047131,0.441665,0.631819,-0.6340143,-0.118188635,0.1458089,0.430434,0.68128055,0.70428526,0.65438086,0.4031477,-0.36216122,0.22834331,0.04833661,0.6912065,-0.577731,-0.44432092,-0.03480658,0.8482354,-0.16309261,-0.6091554,0.76455957,-0.107125044,-0.69332725,-0.25789803,0.0002258271,0.50944036,0.47501093,0.86412454,-0.04947558,-0.10779858,-0.56763244,-0.8688721,-0.053438693,-0.6129894,0.6554014,0.5271458,-0.8315059,-0.5469323,0.8474306,-0.87763673,0.008121803,0.83359873,0.28699875,0.12080349,0.14427215,-0.22059195,0.36945468,0.83787376,0.46685004,-0.5338252,-0.5659618,0.41292274,0.78147596,-0.7453712,-0.36431122,0.8189445,0.3027667,0.6963482,-0.1692862,0.8480058,0.4230916,-0.6273621,-0.7138262,-0.07334478,-0.49259856,0.10921523,0.8080352,-0.048781186,0.32213503,-0.8432329,0.79743826,-0.39910662,0.26808187,0.7140983,-0.67443556,-0.16629368,-0.64247096,-0.41475132,-0.6687083,0.8714854,-0.6530775,0.6180153,-0.45712137,-0.21723546,0.39926463,-0.10393083,-0.010571778,-0.17545186,-0.65673465,-0.3297836,-0.8638898,0.36811614,0.11146605,-0.06979309,0.6658169,-0.8199731,-0.2916211,-0.06426118,-0.25171494,-0.2836429,0.055311173,0.85813487,0.010250136,0.77692723,-0.44606075,0.77696,-0.5854554,-0.4265237,-0.26175722,0.64161247,0.46726578,0.56578493,0.6882096,-0.40590197
0.37387586,-0.4130708,0.2585593,-0.22344865,0.1660753,-0.06554864,-0.6102756,-0.6298533,-0.03505312,0.70641094,-0.6623005,-0.71688294,0.008853376,-0.77140164,0.5376718,0.10030024,0.76093054,0.5993312,0.7506359,0.3695377,-0.65360963,-0.66777146,0.52121377,0.83408064,0.6342623,0.21831982,-0.4362969,0.40641284,-0.60912406,-0.28512216,-0.40869725,0.69704956,0.6700709,-0.44465864,0.18195957,0.009511188,0.13691373,0.5447123,0.14391728,-0.756692,0.08353934,-0.43920997,0.24849877,-0.14420941,0.43652034,0.824342,-0.52732325,-0.86447597,0.012321398,0.35575992,0.082381144,0.7925289,0.4980361,0.41273528,0.090634674,0.38510883,0.2897115,-0.61978066,-0.7887008,-0.6770766,-0.3704474,-0.12403615,0.6763402,-0.37658155,-0.3827056,0.06375849,0.8586734,-0.86094385,-0.3636564,0.33514097,0.3894871,-0.051727593,0.14089614,0.5397079,-0.15347101,-0.6116849,-0.6201366,-0.064258054,0.5100959,0.7745951,-0.856077,-0.450006,-0.4214924,-0.23430221,-0.4747304,0.34915596,0.54872507,0.2500161,-0.2811611,0.7858536,-0.3760013,0.5850289,0.761021,-0.58895004,-0.23433015,-0.31512722,-0.12575269,0.26789844,-0.21862194,-0.5625632,-0.39510846,-0.40172803,0.128581,-0.5440725,-0.5673815,0.054988116,0.72899437,0.31337708,0.7844517,-0.28608173,-0.6480551,-0.036509633,0.7795527,0.58334833,-0.8311797,-0.43190193,-0.78747004,0.27828217,0.35805917,0.6566668,-0.35421643,0.50113136,-0.01334168,0.35845274,0.5851144,-0.2542591,0.8817663,-0.6732838
-0.85966325,0.39250946,-0.5984019,0.25707036,0.41026378,-0.33073768,-0.09828158,-0.14230587,0.48969215,0.2314274,-0.078773275,-0.03716193,-0.8497194,-0.664247,-0.6042284,-0.011475608,0.14816664,0.11890553,0.011435673,0.09347327,-0.61132014,0.6308114,0.15851475,0.33212304,0.6357699,-0.83765364,0.5381539,-0.23650251,0.04629761,-0.80792135,-0.5054269,-0.72805536,-0.34310284,-0.6202591,-0.6112392,0.24761677,0.8647085,0.7826545,-0.68939626,0.18630624,-0.5158831,-0.29520297,0.7342855,0.07864654,-0.84696853,0.34783676,-0.67408645,-0.8202385,0.38851315,0.16505271,0.23392007,-0.5725254,-0.6360316,-0.7291507,0.3601195,0.10141447,0.5975828,0.7830327,0.7077906,0.5138076,-0.14342509,0.83333856,0.6226053,-0.54257554,0.63816404,-0.8037276,0.16372584,0.24042629,-0.7150474,0.68905824,0.42671925,-0.376773,0.16987316,-0.3776793,-0.038462505,0.3154184,-0.22158444,-0.1600869,-0.6337087,0.65032816,-0.641137,0.73022074,0.5872596,0.7431897,0.26437664,-0.44527626,0.6731158,0.166936,0.53478086,0.5611625,-0.7083333,0.14594674,0.8761179,-0.22103317,0.8682642,0.78874433,-0.55933607,-0.08467078,-0.7248766,0.31395173,-0.28659162,0.49980277,0.33308297,0.88063514,0.073346496,0.2791742,-0.45765218,0.6290165,-0.3888328,0.079823285,0.56561196,0.20947918,-0.7659256,0.45940244,-0.12783267,0.31972557,-0.32343078,0.5242414,0.3808967,-0.5695223,0.73201036,0.85479,-0.042436942,-0.79445666,-0.52767086,-0.25685892,-0.6317128,-0.24129473
0.16404852,0.30136436,-0.36794928,-0.7388985,0.793907,0.8084673,-0.7356272,-0.54797184,0.48950678,0.04948251,0.4547978,-0.7811749,-0.62181896,0.6409296,-0.8627889,0.557855,-0.121915564,0.61138844,0.33910185,-0.653627,0.16862571,-0.87577075,0.30976468,0.390149,-0.81416357,-0.13170436,0.4434123,-0.6637669,0.37705398,0.6601689,0.2804239,-0.50463116,-0.11164807,0.29935086,0.22396341,-0.6369082,0.28702497,0.07335514,-0.42384684,0.43071514,-0.6203091,0.87984467,0.23788407,0.7174153,-0.50208706,-0.48513794,-0.18430203,0.83979154,-0.076730624,0.020401701,0.29876426,-0.46687242,0.15214309,0.004404485,-0.65292126,0.2283004,0.424793,-0.5109594,-0.47514543,0.119736865,-0.421783,0.8371394,0.71511424,-0.17813846,0.25931314,-0.029833466,0.7990038,-0.2843788,-0.7578968,-0.28331733,0.2991202,0.4053756,0.3966018,0.5957133,0.44079626,-0.82404846,-0.36375827,-0.33514553,0.5282364,0.41454053,-0.53047127,-0.39698336,0.6632119,0.14646843,0.5661822,0.5983516,0.5684363,-0.781897,0.06828204,-0.69344294,-0.81367284,0.6755426,-0.3347267,-0.47435248,-0.16055949,0.45812362,0.27144194,0.642206,-0.52309847,0.057104155,-0.12599558,-0.5191835,-0.055929273,-0.6566798,0.20228408,0.31690702,0.59399986,0.5702231,0.7401138,0.41759664,0.7495347,-0.82453215,0.45594907,0.2968593,0.30623838,0.73229545,0.676733,0.6108984,-0.21817751,0.5567605,0.09564616,0.3281249,-0.3252644,-0.67898405,0.12137145,-0.024525374,0.21626264,0.5893854
-0.28042352,0.6319689,0.19165806,-0.8364698,-0.005164072,-0.19378744,-0.20849593,0.24775147,-0.62910795,-0.6848253,-0.4852469,0.76958233,0.23903124,0.57637,-0.10921426,0.64394647,-0.07140696,0.80143744,0.20174548,0.06726161,-0.4510157,0.2143649,-0.23345686,-0.35982376,0.098086745,-0.19269325,0.8177117,0.6511072,-0.5863977,0.25918072,-0.1724153,0.6811377,-0.032770634,-0.27292508,-0.76909375,0.6911901,-0.014179498,-0.28687412,-0.77072316,-0.40253234,-0.15427023,0.53294206,0.5758471,0.6023725,-0.055454597,0.7684004,0.7433715,-0.028600022,0.5693021,0.09671599,-0.4501437,-0.8596543,-0.70318115,-0.47729588,0.29386795,-0.05549833,0.45993572,0.5008706,-0.06451756,-0.7904203,-0.7616315,0.23498304,0.35436898,-0.75434804,-0.7687494,0.7094095,-0.5946348,-0.3095785,-0.25716946,0.18312566,0.1630278,-0.24606183,-0.63862115,-0.32590103,0.067855194,0.7510502,0.0030399114,-0.20984389,-0.7416654,-0.5459356,0.11342451,0.26201114,-0.78967404,0.7969535,-0.6469898,-0.5173082,-0.46805117,-0.08036971,0.64592564,0.8786479,-0.68293035,0.79249865,0.80253935,0.18925525,0.7559011,0.79291904,0.0965853,-0.47298604,0.6817115,0.13024367,-0.05487688,-0.08115731,-0.016122311,-0.05728081,0.5165922,-0.6018138,-0.67470044,0.37902856,0.19363955,-0.47377145,-0.5547811,0.727235,-0.5079366,0.7621426,0.7842093,-0.70776033,0.6319458,-0.767425,-0.6544685,0.6047285,0.86851513,-0.5982983,0.69842345,0.4940734,0.49446666,-0.41187197,0.7475721,-0.20952493
-0.71733487,-0.67052895,-0.71201515,0.051870346,0.6404268,-0.7781359,-0.78357863,-0.5745027,0.619194,0.27691945,0.3387499,-0.7746054,0.3678509,0.7183551,0.56016153,0.4583543,-0.83772624,0.7821975,0.5391025,-0.42956445,0.05975254,0.28802335,0.37469184,0.45570576,-0.31416363,-0.8516462,-0.54437566,0.84420615,0.4605881,0.7016351,0.8784086,-0.4784587,-0.022604167,-0.36174417,-0.6235831,0.62497026,0.50747687,-0.7219516,-0.5065669,0.5634666,0.35901076,-0.43043405,0.11242896,0.62456584,-0.678326,0.16852796,-0.545725,0.07683717,-0.86337566,0.25953925,-0.667609,-0.8190241,0.4242795,0.088050365,0.6606228,0.6108952,-0.531443,-0.25384092,-0.7956048,-0.78653574,0.20906389,-0.62542784,-0.1914683,0.24583772,-0.41899648,0.07738635,0.34225166,0.463785,0.7391677,-0.04922688,0.72988665,-0.8133865,-0.7284014,-0.02457574,-0.06722093,-0.59573346,-0.060477257,-0.12174435,-0.11840828,0.30732736,0.8567905,-0.14700137,0.5587784,0.58173186,-0.80545217,-0.85887265,0.21688096,0.6021314,-0.5764357,0.7363588,-0.36984998,-0.8019341,0.52178854,-0.3590332,0.3209144,0.29496744,0.40041828,0.8611866,-0.018651858,0.108648986,-0.2096302,-0.08212723,0.23870133,-0.48485774,0.13659574,0.37238234,0.022274107,0.7302282,-0.59487,-0.04610434,-0.11051081,-0.16479596,0.19790746,0.5478167,0.36528796,-0.7343436,0.32384688,0.81358397,0.3308648,0.5965895,-0.8592421,0.5549226,0.18003099,-0.07294081,0.40466124,0.23926973,-0.0073113292,-0.87401617
-0.31008154,0.81788784,-0.6284689,0.099031106,-0.26481307,-0.37557238,0.5821278,-0.8611616,0.84968084,-0.6138455,-0.15029937,0.42454994,0.83915913,-0.6240438,-0.45781043,-0.87640953,0.73579586,0.14586337,0.57093865,0.024603456,0.05292751,-0.0013596565,-0.35349026,-0.6888828,-0.27343428,0.74090445,0.5276183,0.7223701,0.7442162,0.49333596,0.12159631,0.046243593,-0.17124541,0.29499537,-0.13944179,0.6972062,-0.43840015,0.21757215,-0.50246274,0.47067946,0.14526725,-0.66027594,0.53356075,0.05570717,0.63371456,-0.08584879,0.26641452,0.51965857,0.8128176,-0.5199759,-0.3856032,0.7483941,-0.76817393,0.26203632,0.17832682,-0.42068088,0.47360265,-0.3238355,0.37867063,0.25839776,-0.5910826,0.27313516,0.23662396,-0.37709713,-0.31417453,0.51713353,0.04148081,0.18171631,-0.27271688,0.8508927,-0.29392305,0.85559285,0.48520422,0.35542554,-0.09031616,-0.65777534,-0.6272486,-0.15784271,-0.49621877,0.57362086,-0.33538657,-0.6719028,-0.33224487,-0.8724346,-0.3310046,0.7722136,0.7462985,-0.19736908,-0.31112623,0.39509678,-0.19764371,0.73481166,0.018098205,-0.5591794,-0.62497264,0.6283035,0.09717785,-0.29239652,-0.3169701,-0.04908979,-0.48799214,-0.45993316,-0.62183523,-0.86464703,-0.17405383,-0.7659899,0.5731999,-0.44045386,-0.8664718,-0.027476251,-0.6381821,0.41889006,-0.28261274,-0.12786135,-0.19374587,0.22742316,-0.36913818,-0.5573082,-0.68342507,0.21715343,-0.6246703,0.07614173,-0.15890971,0.35864025,-0.21897838,0.33483982,0.3447765,0.5703447
-0.73104644,-0.4599576,-0.5490946,0.5266938,0.66186106,-0.240945,0.37266725,0.38241124,-0.3553836,0.11259854,-0.3188603,0.8779154,-0.4532454,0.8053466,0.35773045,-0.6018456,0.3786319,0.14993928,-0.6798713,0.0647448,0.3322883,-0.3211689,0.8490587,-0.2304846,0.5995289,0.81812716,0.83829916,0.7068136,-0.67979753,-0.3910549,-0.6093078,0.0089253485,0.004239306,0.006216988,0.13650022,0.8399775,0.8533781,-0.36932284,-0.6940484,-0.8409044,-0.2630387,0.39566898,0.07172711,0.42653316,0.80941164,0.016921088,0.7486913,0.48673606,0.27476764,0.16989261,-0.0072430074,-0.49084723,-0.0063493103,-0.20058356,0.12419641,-0.15395097,0.24464816,0.09461559,0.3277195,-0.024844855,-0.1717858,0.44111246,-0.021618456,-0.3872505,-0.20691082,0.2690887,0.28019494,-0.15194677,0.21896712,0.79760635,0.5653086,-0.7215435,0.4248256,0.46042436,-0.7512331,0.032727793,-0.07783435,0.5195018,-0.2845598,0.08433893,0.80566967,0.36263093,0.0028505921,0.8491654,0.30828416,0.21333121,0.36962605,-0.6736577,0.20732298,-0.6511193,0.7951478,0.28003708,0.5066117,-0.4084042,0.7120096,0.5909487,0.7615849,-0.5876906,0.37754977,0.34849918,0.011462346,0.83538675,-0.11175066,0.5967086,-0.4280042,0.6437793,-0.17855734,0.8711835,0.86512184,0.61076856,-0.7812408,-0.07422246,-0.5679892,-0.5158442,-0.22513181,-0.11646658,0.23655444,-0.09666316,0.19441158,-0.7703146,0.2446343,-0.79233694,0.7113192,0.7748028,-0.6848505,0.48248714,-0.6938219,-0.8107449
0.50478125,-0.2880394,-0.10024473,-0.08974016,0.45687014,0.64379746,0.148331,0.79325026,0.41653907,-0.20534985,-0.62402433,-0.6202069,-0.60366744,0.26490703,0.8384379,-0.0339102,-0.85960096,0.6979429,0.028092489,-0.7015651,-0.16573921,-0.18266104,-0.4096274,0.6145733,0.08376077,-0.043111295,-0.8645272,-0.6306439,-0.47832045,-0.16723596,0.23729011,0.80901974,-0.23827352,0.06427497,-0.6874039,0.14960133,0.33608183,-0.655977,0.18869251,-0.84373057,-0.570799,0.32485104,0.8542717,0.10007486,-0.8078393,0.44735038,-0.38825804,-0.38233942,-0.01017563,0.0016781688,-0.6566399,0.7049841,-0.8590192,-0.8335172,0.22814818,-0.72342545,-0.7281175,0.8791908,0.049113333,-0.105467886,-0.50507736,0.27340776,-0.8799236,0.7373909,-0.124214366,0.4624262,-0.7435769,0.4977978,-0.41271245,-0.5817877,0.86699927,0.75173104,-0.012946278,-0.470074,-0.8272679,-0.3114024,0.3731743,-0.1400625,0.116260424,-0.7248176,-0.7317329,0.37359214,-0.020088851,-0.16079262,0.18535353,-0.39917624,-0.5759423,0.17456517,-0.13403982,-0.6905941,-0.61888254,-0.006444752,-0.15653707,-0.74223167,0.800404,-0.09008825,0.19325718,0.7290155,-0.8608853,-0.4170927,0.29204354,0.73872215,0.660454,0.37412578,-0.73405385,0.079581365,0.86134696,0.70986205,-0.7199471,-0.40300173,0.34214854,-0.8029244,-0.34089446,-0.29599217,-0.78444934,0.09047158,-0.65379107,-0.35174936,-0.40269375,0.74803805,0.57887787,-0.30351883,-0.8484966,-0.53149676,0.104837865,-0.30438316,0.42241967,-0.27084765
-0.45766282,-0.31580043,0.63657975,-0.45972708,0.07201441,0.5993826,0.56997126,0.46026444,-0.3989685,0.84551907,0.6401252,0.5851514,0.825158,-0.037712604,0.34322187,0.4844097,0.3090422,-0.82157737,0.56612307,-0.18662699,0.3965255,0.055292472,0.3265874,-0.32376692,-0.5912619,-0.8430171,0.2740779,0.4101423,0.42605197,-0.63848305,-0.47795737,-0.17197661,-0.2337563,0.7044243,0.0887724,-0.37433332,0.008326769,-0.10537997,-0.45289803,0.1799009,-0.28691328,-0.05465381,-0.09272508,0.3848716,0.33224678,0.66219544,-0.5403498,-0.50388336,0.31163305,0.83297485,0.5847985,-0.6075973,0.23096055,-0.41638407,0.7530639,0.36220223,-0.109257475,-0.7074207,-0.6763394,-0.5931295,-0.060113445,-0.5492927,-0.8411484,-0.091713145,0.6067207,-0.052706003,0.22268653,0.54153687,0.28837597,0.49088305,-0.69521606,-0.005491525,-0.3883046,-0.33271617,-0.8335155,0.40882015,-0.8063003,-0.7290225,-0.3973395,0.0729426,-0.019706711,-0.18628843,-0.23547783,-0.07530682,-0.34152088,0.109905824,0.6079111,0.25316888,-0.26093495,0.40630525,0.14933795,-0.80362016,0.8745613,-0.75822204,-0.18166281,-0.36557585,-0.51573,0.035811886,0.017030388,0.27953357,-0.0095606595,0.4924574,0.0034672022,-0.23441389,-0.4048049,-0.3244616,0.51566666,-0.53053653,-0.10601848,-0.7850369,-0.6777534,0.22093982,-0.18695354,-0.14109984,0.6725281,-0.4551734,-0.06486863,-0.40029263,-0.4267062,-0.53822494,0.028260425,0.2884443,0.2916509,-0.54641956,-0.231748,-0.16492471,0.5612675,0.09011388
0.373038,0.29054955,-0.08827679,-0.11431426,-0.09709366,-0.08729361,-0.00052146614,0.5084398,-0.8498441,0.62279826,-0.51923895,0.43173528,-0.29448706,0.8365118,-0.57135016,-0.29054075,-0.59268224,0.011870116,-0.53765935,0.8696339,-0.39118218,0.8637745,0.799746,0.513077,-0.18904306,-0.19928873,0.778817,0.84109163,0.5311673,0.44048107,-0.00980936,0.12475543,-0.6648375,-0.35153043,-0.76905084,0.089549795,0.66446954,0.027297363,-0.5874497,0.6573606,0.36575264,-0.81991744,0.71577185,0.30451292,-0.009976402,0.79441494,0.8742625,0.22510856,-0.2587314,-0.58080524,-0.57105345,-0.6115539,0.19307874,-0.82820624,0.25475675,0.61984026,-0.7383656,-0.12338966,0.6553543,-0.17630003,0.07828608,0.3558731,0.6824303,-0.8801988,0.5928596,-0.20786606,0.4418763,-0.7837656,-0.06780878,0.27932182,0.3556553,-0.42469916,-0.538432,0.38762474,0.36375874,-0.57173425,-0.6691441,0.324763,0.043102503,0.29435152,0.6138483,-0.6714151,-0.23208573,0.29800093,0.8392825,-0.3073206,-0.2228821,0.12754679,-0.70673996,0.8417567,-0.46062803,-0.041735917,0.317121,0.2907706,-0.60568064,0.6189773,0.067728534,-0.1184573,-0.44790044,0.5096858,0.47626817,0.21916792,-0.22442773,0.82421905,-0.17615415,0.19436754,0.12847751,0.49676722,0.16276926,0.5584862,-0.6674549,0.87708807,0.31884676,0.3682477,-0.7354609,0.06836429,-0.55973345,0.70663846,-0.4006827,-0.6682719,0.3670987,-0.102144256,-0.34474206,0.5691337,0.19690499,-0.019560382,-0.7658738,0.37471628
-0.78063774,0.12634516,0.74865764,-0.16503997,0.33766055,0.81432587,-0.31911063,0.66624784,-0.58335507,-0.73709416,-0.8312169,0.1436612,-0.51658577,0.35355085,-0.2443546,-0.072792545,0.21612935,-0.8262506,0.23906305,0.3839367,0.8721935,-0.59111375,-0.6378147,-0.11282846,-0.47481436,0.39907134,-0.65155077,0.5225996,0.29812908,-0.30880487,-0.20191535,-0.63588226,-0.42691964,-0.13733,-0.01987964,0.443443,-0.46057877,0.3058152,-0.64666003,-0.7905041,-0.65073514,0.011837557,-0.5975951,0.28362012,0.06651692,0.28272003,-0.1516056,0.4665149,-0.6964259,-0.3200737,-0.33676416,-0.41146797,0.19068234,-0.71448755,-0.17949492,0.31014508,-0.63891387,-0.8254218,-0.45476174,0.28246826,-0.50130546,-0.2091863,0.3713796,-0.25874674,0.29732496,-0.6817987,-0.38707972,0.87730014,-0.08236103,-0.50916415,0.33664212,-0.062680915,-0.27802843,0.043434948,-0.44227028,0.497948,0.05204521,0.42751795,-0.22527777,0.24398021,0.47900254,-0.30617702,-0.80947256,0.19866444,0.6185245,0.055617318,-0.34189942,0.70425355,-0.395294,0.54630554,-0.64950764,0.5005356,0.8779473,0.25286794,0.27849838,0.676162,0.069953576,-0.6230137,0.49522722,0.06792046,0.47356212,0.34539276,-0.55392253,0.41711724,-0.23049027,-0.031116456,-0.6171609,-0.44047967,0.33649445,0.6545215,0.7794764,0.37144744,-0.16033307,0.018311441,-0.73557997,0.23226209,0.6227907,-0.6694016,-0.36670667,0.59775865,0.7642021,0.49711293,-0.44212192,0.19864038,0.39274848,-0.14398523,-0.6839931,0.6630731
-0.748724,-0.32383677,-0.48154384,0.8352763,0.0058773905,0.74223214,0.7342825,0.26051834,0.6032092,0.03528215,0.10765739,0.18150084,-0.61105466,-0.6439538,-0.875073,-0.13344966,0.71139836,-0.7901375,0.04608482,-0.12880363,0.35723776,-0.653103,-0.29096898,-0.56167436,0.7580388,-0.08725293,-0.8540619,-0.09165518,0.19823074,0.16235672,0.8447642,-0.2520287,0.82135105,-0.3772205,0.63256556,0.3717994,0.61373556,-0.6031372,-0.042808205,0.38660163,0.28390354,-0.7717222,-0.40270355,0.13208948,-0.80450207,0.109623745,0.6197759,-0.004030913,0.6724366,0.52545017,-0.51369315,0.1987271,0.56366706,-0.6823048,-0.7801069,0.65318936,-0.054152384,0.34788424,0.07753521,0.76115704,-0.62655187,0.3062048,0.61467236,-0.50832987,-0.87983704,0.15786164,-0.20846948,0.4857328,-0.79762495,-0.4972642,0.6851295,-0.4243916,0.73401386,0.48310494,0.14133707,0.30555183,0.075329915,0.44865334,0.70767826,0.6050303,-0.57740057,0.44950986,-0.480431,0.8241933,0.72721756,-0.2801123,0.22220448,-0.45094207,-0.021181181,0.3133829,0.8037946,-0.85699844,-0.20526312,-0.20785034,0.4245106,0.31894878,0.4073226,-0.6409454,0.2222088,-0.8581114,0.46040064,0.52048707,0.8088332,-0.0009460002,-0.13158411,-0.45647502,-0.45590594,0.29422387,0.13496213,-0.7785683,-0.48176026,-0.37210578,0.61064714,0.426997,0.047497004,0.72863376,0.21807604,-0.851075,0.12501039,-0.18850692,-0.7745838,-0.16223952,0.73629135,0.12915194,-0.6223584,0.32601947,0.64562076,-0.8387274
-0.60058284,0.51340854,0.81934565,0.1605881,-0.059705302,0.22477515,-0.4389808,0.4694665,-0.8092276,0.5655459,-0.42778566,-0.86351305,0.6657081,0.62263125,0.60231394,0.38827592,0.6062668,-0.11527091,-0.04134588,-0.6512836,-0.48581448,-0.6652607,-0.15207276,-0.31350288,-0.8799332,0.20807579,0.27022398,0.36321163,0.30211344,0.04690163,-0.6609288,-0.6135178,-0.008080527,-0.7408042,-0.8489704,0.23986422,-0.44600025,-0.88064194,-0.6270606,-0.34961358,-0.223182,-0.07209018,-0.16179793,-0.7023262,-0.8568141,0.65364504,0.45410937,-0.13288006,-0.5011122,0.73876226,-0.8596369,-0.4117119,0.7929317,0.59305584,0.59504473,0.20276934,-0.59129983,-0.6393255,0.81934696,-0.18625475,0.69303566,0.7664245,-0.723068,0.85360414,0.8644157,0.65248543,-0.66462886,0.0530795,-0.17880924,0.5677826,-0.7255543,0.8118936,-0.09578273,-0.51548094,0.4054079,0.43438113,-0.28550667,-0.04296325,-0.5162264,0.20014986,0.22961952,0.24111442,-0.5394787,0.5727813,0.23692548,0.8394649,0.80243254,-0.013909638,-0.65173954,0.19129,-0.3985603,-0.8270856,-0.25091356,0.57010895,-0.10027118,0.0013424456,-0.023272112,0.61385816,-0.2520982,0.008406639,-0.20354822,-0.80510616,0.054505244,-0.111648664,-0.20562813,0.049096197,0.53066736,0.88025236,-0.47883695,-0.20546705,0.00011540949,0.61648464,0.32212391,0.28558218,0.7587067,0.32341564,-0.14551312,-0.09310946,0.81924206,-0.10202803,0.54861224,0.5632835,0.21428198,-0.117594674,-0.5139709,0.2670315,-0.04797414,0.36149248
0.46818906,0.5023018,-0.34361756,0.6457726,-0.24396747,-0.71004534,-0.7980273,0.8440494,-0.023529232,0.5796579,-0.18560015,-0.5685585,-0.51486725,-0.8223363,0.60311353,0.39655185,0.7750634,0.3694964,-0.18981174,0.7582622,0.053757653,0.33267304,0.17869174,-0.07439233,-0.22829346,0.26049986,0.37466908,-0.21779187,-0.13064943,0.6799627,-0.6067394,-0.44475704,0.15286453,0.16356915,0.53865826,-0.41326398,0.7062351,0.8369548,0.8681827,0.77318674,0.019767582,-0.15763335,0.37725425,-0.5363088,-0.37355363,-0.35913244,-0.57864755,0.77024394,-0.043075234,-0.31551448,-0.33480182,0.28857583,0.166791,-0.038101897,0.49919778,-0.4474142,-0.02354987,-0.381678,-0.74486923,0.35121536,0.25749445,-0.5532913,0.81176335,-0.34465206,0.28831795,0.6455458,-0.3432041,0.63671356,0.58388704,0.3256844,0.25067762,0.36037177,-0.34845445,0.53922886,0.43790454,-0.5120056,-0.22573411,0.70983684,-0.40520158,0.79382145,0.81897223,-0.082577914,0.68439966,0.7660589,-0.11224352,0.06451242,0.26281998,-0.6642565,-0.7381183,0.4074008,0.66886866,0.44935143,0.33874696,0.21163166,0.18233314,0.6172726,-0.60016596,0.16422436,-0.5379566,-0.5646666,0.4853248,-0.45690683,-0.840096,-0.7262755,0.07448964,-0.56480694,-0.29802328,-0.7196014,-0.67654693,0.21712579,-0.7935207,0.36458528,0.7422007,0.30983433,0.0178653,0.4530316,0.48370397,0.44554347,0.38508826,-0.42447808,0.5215942,0.7008619,-0.5653988,-0.78528726,-0.5059846,0.6064921,-0.004815832,-0.50458574
0.12846328,-0.6591164,-0.3509583,0.73442435,-0.54587513,0.120918974,0.6977015,-0.14872104,0.23433313,0.8377808,0.08526996,0.21516599,-0.10384731,-0.015160516,0.06308876,0.33677334,0.15984952,0.5014735,0.8281278,-0.27233428,0.24527445,-0.6370444,-0.18097341,0.6291991,-0.7561454,0.24037868,0.74164635,-0.7492614,0.64776725,0.43543017,-0.59713376,-0.8071896,0.5726916,0.717785,-0.7156186,0.37860298,0.21674104,0.6221742,-0.44294208,0.8833212,-0.38249665,-0.25305396,0.18958539,0.77014095,0.2884896,0.5159917,-0.2579487,-0.46122107,-0.06914951,0.7735487,0.60324824,0.09816736,0.7005539,0.8523438,0.19401975,0.83262706,-0.38017184,0.76947904,0.2878716,-0.7960281,0.28422326,0.7868553,0.09962559,-0.2090583,-0.06355628,-0.8475796,0.24645835,-0.08033171,0.18430255,-0.6010643,0.3412503,-0.06303504,0.514017,-0.794075,0.13406552,0.73472285,-0.09459451,-0.27885514,0.037192702,0.53871894,-0.1539886,-0.17162576,0.18690452,-0.37103683,0.27717412,0.21372579,0.23409247,-0.5418759,-0.44878352,0.21939911,0.15740491,0.559937,-0.83815193,0.44058287,-0.119307935,0.019901916,0.5664039,-0.5830875,-0.71510565,0.83813584,-0.3483202,-0.4993901,-0.7218429,0.29023513,-0.13001986,0.33088624,-0.16568966,-0.3454556,0.28724098,-0.5176834,0.64163005,-0.5969358,-0.77670395,-0.80115247,-0.63985497,0.7407645,-0.4874339,-0.0067102164,-0.76721954,0.054798797,0.6201712,-0.32540095,0.8020904,0.4975373,-0.6418247,0.18919647,-0.20595185,-0.5264156
-0.5623893,-0.53498924,0.54331475,-0.08855671,-0.31301558,0.042394027,-0.112896636,0.61698234,-0.33214527,-0.75645393,0.71045125,-0.5974716,-0.37115675,0.3457626,-0.321656,0.5435336,0.1294554,0.05220011,0.14010042,-0.16833901,0.41435337,-0.5541933,0.60655886,-0.7581862,-0.4184492,0.03144376,-0.7822645,-0.83380574,0.13735794,-0.32117754,0.03823951,-0.7191485,-0.54894274,0.29029197,-0.5877653,0.7182651,0.41281378,0.64180994,-0.530079,-0.48710543,-0.45336068,-0.5774346,-0.7202864,0.69611216,-0.49197638,0.21512881,-0.7197556,-0.4227215,0.5416239,-0.71131057,-0.08451529,0.24146512,-0.35907722,-0.6471952,-0.82525074,0.49352086,-0.25902075,0.25359505,-0.07616006,0.28854564,-0.8162217,0.2008973,0.19132175,0.23194715,0.03349729,0.29346958,0.1907447,0.07533394,-0.121913254,-0.382268,-0.10589026,0.618776,0.6682589,-0.4843344,0.4129576,-0.33846352,-0.871948,-0.38373643,-0.21643713,-0.13969488,0.44460827,0.65393233,-0.48104084,-0.55665493,-0.5207446,-0.08671798,0.5324065,0.65334195,-0.7257044,-0.8696451,0.633254,0.73101646,0.5086497,0.4299832,-0.31385,0.1982595,-0.2581402,-0.37177366,-0.403492,0.6706535,-0.8237237,-0.5461883,-0.64781356,0.39669907,0.6479997,-0.09442642,0.044732466,0.8810582,0.80472136,0.6893266,-0.09891108,0.84692395,-0.5387994,0.42569077,-0.74367595,0.50848776,0.7686836,-0.30899867,0.7579672,0.51723546,0.35437956,0.7341162,-0.15070997,0.14725305,0.60824966,-0.21009497,-0.5494189,-0.53690004
-0.28165925,0.14883168,0.6823713,-0.0012893975,0.22445515,-0.20829625,-0.7542963,0.7243318,-0.47600177,-0.5226402,0.43164068,0.258689,-0.4152339,-0.39766365,-0.15729465,-0.33041927,-0.85009223,0.19135617,-0.13211004,0.2085349,-0.066252425,0.6564402,0.6076748,0.35245776,0.66531754,0.7365408,0.02127096,-0.16063578,-0.63507605,-0.37971044,-0.23752436,0.6812065,0.514529,0.4706999,0.6751823,0.57274276,-0.038158372,0.6194734,-0.24794243,0.6690892,0.19627474,-0.18385097,0.083195865,-0.8667408,-0.07497199,-0.02293095,-0.52109575,0.0033584982,0.7926715,-0.34010285,-0.63499916,0.84717417,-0.7719403,0.8815474,0.38059628,0.56137,0.7042169,-0.1708804,0.54330176,0.288146,-0.42719486,-0.6728363,0.3626812,0.32509953,-0.55882114,-0.6536745,0.24399094,0.22381596,0.6638994,0.7377031,-0.49645972,-0.7950598,-0.7370411,0.055624023,0.254497,-0.2586556,-0.34137365,-0.3315078,-0.1441221,0.63867265,0.5617914,0.31614906,-0.63333124,-0.62944025,0.39521164,-0.59121776,0.8341556,0.64320886,-0.21814384,0.17832555,0.39698964,0.6843767,0.7510858,0.37478095,-0.41914207,-0.71627605,0.8717001,0.13009943,-0.14155157,0.5452647,-0.8164669,-0.14798857,0.13879828,0.5561339,0.65423226,-0.86363703,-0.7153672,-0.3314662,-0.6213656,-0.53120327,-0.42083028,-0.7443109,0.07378079,-0.3587783,-0.18248208,-0.0048225373,-0.4262197,0.15548244,-0.2746096,-0.7220721,0.85452354,0.20880267,-0.4772396,0.5581539,-0.875786,0.79877967,0.11683151,0.53520507
