0,1,2,3,4,5,6,7,8,9,10,11,12,13,14,15,16,17,18,19,20,21,22,23,24,25,26,27,28,29,30,31,32,33,34,35,36,37,38,39,40,41,42,43,44,45,46,47,48,49,50,51,52,53,54,55,56,57,58,59,60,61,62,63,64,65,66,67,68,69,70,71,72,73,74,75,76,77,78,79,80,81,82,83,84,85,86,87,88,89,90,91,92,93,94,95,96,97,98,99,100,101,102,103,104,105,106,107,108,109,110,111,112,113,114,115,116,117,118,119,120,121,122,123,124,125,126,127
-0.21700643,0.8796261,-0.09290014,0.8597393,0.44188797,0.26191548,0.5330215,0.15930049,0.7406419,0.6289124,0.760213,-0.09330317,0.83597213,0.5604073,0.25326177,0.85783213,-0.5555869,0.24216111,-0.6809314,-0.50005496,0.45923898,-0.18591593,0.3071371,-0.7766685,-0.3149942,0.27197817,0.8164873,0.17491673,0.85155994,0.570139,-0.49116045,0.29845464,-0.02708442,0.36905375,0.32709056,0.4217305,-0.31833917,0.18909238,0.38256356,-0.4266481,0.43819574,0.18273155,-0.09858525,0.18315245,-0.62290746,-0.3739567,0.25428325,-0.37000337,0.730396,-0.06691546,0.7948277,0.08402379,0.05833085,0.7307592,0.29974425,-0.11267123,0.15133075,0.59557235,0.44935226,0.6651533,-0.84845936,-0.83618605,0.27873394,0.7626443,0.5376678,0.5789205,-0.6438434,-0.04667663,-0.7664313,0.61378205,-0.0057902904,0.74818933,-0.0313889,0.20472589,0.017160889,-0.3196425,0.27783647,0.5823557,0.3246865,-0.6358001,-0.77430606,0.6515942,0.3486925,-0.58095205,0.56331676,-0.8229203,-0.31382924,0.38728768,0.032961883,-0.39506468,-0.6682192,-0.56028,-0.43164742,0.8508129,0.46917123,-0.24838983,0.053303342,-0.7305216,-0.6388809,-0.8707238,0.610257,0.72851676,-0.2130477,0.5618537,-0.31937623,0.88438654,-0.37062827,0.19609384,-0.39149114,-0.18611133,0.7436017,0.78558785,-0.8089917,0.7309661,-0.6895803,0.00097143557,0.7442928,-0.84952337,0.6969967,0.06749418,-0.3999357,0.43194193,0.4105303,0.049271863,-0.17742442,-0.28764176,0.010453998,0.24037533
0.69236964,0.07818126,0.69385946,-0.7175491,0.35731256,0.61314565,-0.019551968,0.6007901,0.71858174,0.38763177,-0.18178141,-0.4208212,-0.4240599,0.7553128,0.62249917,-0.61395836,0.68663687,-0.08821863,0.23433575,0.67873317,-0.36076227,0.2116352,0.24528831,-0.32972088,0.74715656,-0.6586344,-0.82368046,0.02859339,-0.017957408,0.25142407,-0.8499035,-0.6848159,0.4058292,-0.116155915,0.19153804,-0.19293188,0.6575558,0.30277646,0.058800705,-0.16971269,0.48449025,0.33428568,0.034711316,0.45523316,0.7656192,0.31478253,-0.16070035,0.91185224,0.22781442,-0.17676099,-0.8618305,0.33806908,0.4737359,0.016273474,0.33578056,0.0060718143,-0.71291,0.28429556,-0.34311178,0.056237254,0.35989138,-0.14527151,-0.8967726,0.6769167,0.49009603,0.40557173,0.35149884,-0.06480148,-0.7932963,-0.6932839,0.26351324,-0.71809536,-0.46417582,-0.65245205,-0.61424255,0.2696109,-0.7335712,-0.50246394,-0.07349692,-0.76028425,0.4922493,0.48307168,0.39720944,-0.29519182,-0.6315033,-0.13498926,-0.76650214,0.85716337,-0.46512356,0.69683343,0.48703712,-0.35961008,0.26668334,-0.26932624,-0.74683833,0.47130287,-0.36677238,0.9674112,-0.22399162,0.18144296,-0.071007624,-0.5273819,0.42569032,-0.8182341,0.13341723,0.9415275,0.6842524,0.034321792,0.4720785,0.2334448,0.101443,-0.57012504,-0.10075373,0.46470794,-0.036041096,0.29125813,0.43314788,0.6996222,-0.7759816,0.4558309,0.33742896,-0.41757786,-0.59771097,-0.42521083,0.655415,-0.214716,0.23161308,-0.12164349
0.2915025,0.27671626,-0.13100342,0.52428794,-0.713583,0.1370574,0.51705843,0.2737106,-0.69081086,-0.7085436,0.21268725,-0.45538983,-0.64223224,-0.29247966,-0.3832371,0.2687341,-0.58176214,0.22420526,-0.68362784,-0.12400856,-0.7676217,-0.45548493,0.43331504,-0.5976996,0.43747264,0.66905344,0.34559852,0.15097499,0.80281585,0.3175176,0.564709,-0.44547704,0.23301508,0.80809265,0.030646939,-0.23361978,0.4193392,-0.21684101,-0.5012958,0.15590595,0.6166429,0.36841828,0.07623187,-0.6951841,0.53460205,0.3982855,-0.22760496,0.6253724,0.87595993,-0.874102,-0.024870662,0.051072158,0.37302753,-0.13691394,-0.5116782,-0.69880027,-0.7389265,0.56222355,0.5271098,-0.6720289,-0.66639596,0.37653437,-0.7307621,0.09108253,-0.6558246,-0.46223703,0.521129,0.24741678,-0.5304409,-0.7150659,-0.06379198,-0.21254985,0.8233229,0.6824345,0.4753899,0.033543874,0.097175255,0.044558585,-0.59223163,-0.768259,0.2637393,0.5006657,-0.22801642,0.6408285,-0.84743613,0.5638113,0.8142444,0.47652644,0.05425795,0.30825505,-0.8019203,0.81609666,-0.3677289,-0.16241531,0.51628554,0.6499658,0.40946978,-0.40134513,0.7169964,0.6661206,0.57182336,0.27254727,-0.24249928,0.6847581,0.59789014,-0.5800717,0.1434511,-0.20421213,0.06479671,-0.31779048,-0.4573056,0.67750186,-0.3823191,-0.43159243,0.23196636,-0.8372422,-0.78155625,0.88631487,-0.8695199,-0.80800223,-0.5574493,-0.050303306,0.63790417,-0.3131748,0.14168552,0.5217686,0.29518193,-0.44554242
-0.0586172,-0.49687558,-0.26964378,0.9022076,0.77685094,-0.6767904,-0.235054,0.51934963,-0.641117,-0.73914737,-0.5655138,-0.56407523,-0.73541164,0.57050955,-0.029707158,0.896381,-0.040213585,0.6683768,-0.6260496,0.0724834,-0.12605695,0.6997901,0.23287709,0.17357652,-0.46991807,0.007863515,-0.3831159,0.77790153,0.04989438,0.29245907,-0.07020302,-0.38038185,0.94630235,-0.8362472,0.77893925,0.8088274,0.6093282,-0.38327244,-0.59900576,0.08566777,0.7137984,0.015931783,0.4827923,0.48203644,-0.62008655,-0.43376887,-0.22313657,0.2230425,-0.6945723,0.25515622,-0.5455647,0.54055256,-0.10145973,0.41875347,-0.31629604,0.31581753,0.07145285,0.24713543,-0.79265755,0.17460485,-0.26039505,0.18092597,0.1337015,0.61517125,0.8841099,-0.6540493,-0.43079147,0.6289026,-0.2887137,0.43843797,0.18872084,-0.26572898,0.53718555,0.026748039,0.5587998,-0.57078546,0.734131,0.67726976,0.8064132,-0.41037276,-0.23353167,0.31354526,0.36889428,-0.8093808,0.09183642,-0.29232123,-0.38744184,-0.20373552,0.19857194,-0.4002514,-0.33800265,0.29945406,0.28671467,-0.3994706,0.6763311,-0.72590995,0.14986588,0.31637135,-0.6272714,0.7205009,0.823126,-0.12223853,0.40068376,0.22746862,-0.06860098,0.4606013,-0.6809708,-0.8053314,0.49545023,-0.35285854,-0.53810066,0.22274132,0.64640576,-0.5743432,-0.05952448,-0.1369393,-0.7471877,-0.53750825,0.08441733,0.13478649,0.90803283,0.7961265,0.8286326,0.52060395,-0.834348,0.25911522,0.52763546,0.11022396
0.16689521,-0.17412798,0.78801984,-0.36704823,-0.1849797,-0.7998386,0.55590844,-0.42867976,-0.10300284,-0.3131586,-0.8148627,-0.3291015,0.45791817,0.0036718752,0.24903224,-0.4854661,-0.52659684,0.0069126566,-0.20149924,0.8643961,-0.69711995,-0.51757705,-0.5059082,-0.5449193,-0.50366366,-0.62894034,-0.042002026,0.70996624,-0.22467332,-0.08524751,0.23353848,-0.17408714,-0.65965354,-0.3131153,-0.8708558,-0.6853077,0.6352728,-0.58167744,0.26720378,0.32690713,0.47209987,-0.27070534,-0.6748894,-0.7080844,0.4583759,-0.64646137,-0.5980504,-0.53399134,-0.08339517,0.73356444,0.38061354,-0.27558914,0.07941984,-0.42030352,0.57697237,-0.14356247,0.4094142,0.1168098,-0.7848909,-0.8195029,-0.74025637,0.69463,-0.55556065,-0.49227422,0.379946,-0.6908765,-0.7423738,0.64531815,0.46281007,-0.8688678,0.7519443,0.68704504,0.13964346,0.07269467,0.3084288,-0.14241727,0.54313374,0.29233465,0.30436993,-0.7808793,0.5002531,0.36801207,-0.001895309,-0.28061044,-0.4648634,-0.8171366,0.36796987,-0.56674397,0.7767671,0.16604342,0.6333453,0.6832394,0.05291066,-0.090562746,0.046383824,0.48838946,0.43733844,-0.16236265,0.54005307,-0.65305823,-0.21991266,-0.2546266,-0.39179465,0.8313904,0.45840448,0.880156,0.35401788,-0.8388504,-0.5490717,0.04439136,0.33808163,0.15987597,-0.45041335,0.2706856,-0.6365861,0.30110085,0.3693433,0.12936799,0.6238985,0.27046072,-0.28375098,-0.23686814,0.85588217,-0.018752456,-0.6449358,-0.8459926,0.285336,0.15076135
-0.79495585,-0.66212094,0.75671756,0.64476013,0.8076003,-0.084948525,0.10932766,-0.5235365,0.6788677,0.77278787,0.6310743,0.5864725,-0.21754989,-0.5096359,-0.6123936,-0.52846676,0.6643021,-0.49219313,0.5644095,-0.42268342,0.07894374,0.8595672,0.48647842,-0.8590471,-0.65877134,-0.58327353,-0.7692578,-0.6140337,0.64999384,0.80935884,0.8116213,-0.8076756,0.2340042,-0.5245788,-0.60615754,0.6150312,0.046470467,-0.62979496,-0.066083215,0.5893833,0.49929333,0.40860763,0.22683042,-0.8067479,-0.07979713,-0.7080223,-0.23319082,0.7055232,0.2898339,-0.41564175,0.08510565,0.738396,-0.5903302,0.8034954,-0.33998823,-0.47503364,0.50691414,-0.7384776,0.63140386,0.8464281,0.81148416,0.72690725,0.8575923,0.32773188,-0.69917464,0.2852682,0.13653311,0.54472387,-0.69280636,0.43759602,0.2986054,-0.48823074,-0.47777483,-0.6634262,0.36160082,0.37188926,-0.21350275,-0.70469975,0.23353668,0.03954635,-0.7276139,0.4808037,-0.62577796,-0.58905506,-0.85945386,0.8407541,-0.44665635,0.52659976,0.6076662,0.35280627,-0.66377157,0.16961795,0.8446169,0.71332884,0.19549376,-0.081172176,0.06202198,0.050330684,-0.1375605,0.7658456,0.43382525,-0.5030197,-0.39556465,-0.77328247,0.063854106,-0.6393908,0.50898993,-0.6258982,0.11082344,0.25350007,-0.42775452,-0.47870392,-0.83360577,-0.15247044,0.64113957,-0.6660338,0.29498366,0.63455105,-0.60887784,-0.46386865,0.14960817,0.043948025,-0.82686394,0.82895505,-0.7289697,0.6322819,0.23984073,-0.737122
-0.6875033,-0.32456106,-0.74874216,-0.59220695,-0.44592,-0.6975463,0.522287,-0.68762565,-0.87332624,0.011456989,0.50226814,-0.10148777,-0.66699755,-0.1340404,0.5942889,-0.4030841,-0.87244874,0.4148527,-0.006275828,0.8567708,0.76686597,0.43786502,0.17215596,0.35344872,0.43211076,0.566329,-0.52207386,-0.43355832,0.59761673,-0.81470364,0.0439393,-0.03900199,-0.5729588,-0.6275729,0.4036662,0.7983831,-0.73903775,-0.7840165,-0.33249295,-0.46535003,0.39524183,0.81031144,0.6265134,-0.6661786,-0.039835896,0.7168664,0.65685713,0.35704952,-0.5736969,-0.74257106,0.12401475,-0.7292195,-0.046307404,-0.711329,0.7406508,-0.46658206,-0.41003427,0.5780254,0.09368757,-0.8760842,-0.24034487,-0.47840628,-0.75648755,0.32857826,0.047036793,-0.6461483,-0.65336454,-0.79762745,-0.5563122,0.074126825,0.16113685,0.45981878,0.35675383,-0.7482234,0.52275795,0.26551938,0.08190164,-0.12133343,0.49637035,0.22855423,-0.23169982,0.14942683,0.46113238,-0.27739957,-0.23240128,0.094851755,0.6872401,0.77781135,-0.5366926,-0.28273293,0.12631235,-0.7192248,0.8775262,0.8474575,0.35406443,-0.74704164,-0.36620826,-0.0068450645,-0.88426864,-0.010995503,0.8732225,-0.19388995,0.6726265,0.39641187,-0.5202434,-0.44682148,-0.17834668,-0.77238053,0.6189013,0.2958722,0.78520024,0.39145052,-0.102112755,-0.03799842,-0.53536844,0.45444047,-0.31199664,-0.43412644,0.116513856,0.6034492,-0.16134642,-0.03720313,0.8647822,0.53085154,-0.45069838,0.53776765,0.25660697,-0.058168348
0.3537472,0.8517038,-0.12658428,-0.40398648,0.77777356,-0.22740942,-0.45314458,-0.44353467,0.3947826,-0.7781979,0.11156256,-0.86788106,0.8053962,0.27702722,-0.49302813,0.48945525,-0.2640357,-0.043863703,-0.5016054,-0.2899111,0.72403127,0.57170194,0.7783799,-0.10787838,-0.26526284,-0.35609105,-0.23576042,-0.12575148,0.16003034,-0.366159,-0.7646878,-0.3245752,0.3017781,0.07588672,-0.8027791,-0.79934597,-0.5947575,-0.37316835,0.5387475,0.731265,-0.6885605,-0.4300607,0.8461203,0.2511059,-0.655068,-0.42551434,-0.27661407,-0.7681829,-0.7142587,0.3962333,-0.046103444,-0.23571849,0.17982063,-0.51631874,0.019700633,0.39860258,-0.60662913,0.31711772,-0.32143363,0.44219548,-0.29663646,0.32511443,-0.44484624,0.65432084,0.43042865,-0.3985926,0.114469044,-0.28947666,-0.85854036,0.62037945,-0.6399661,0.09811223,0.06279661,0.4578575,0.60071445,-0.2403428,0.79852194,0.4057576,-0.019489935,0.62957186,-0.846577,-0.6309962,-0.20823386,0.10557264,-0.46042144,0.45738986,-0.13121487,-0.4488334,0.1955239,-0.3267158,0.7719128,0.8597692,0.628553,-0.73229873,0.6691707,-0.4103722,0.0069858143,-0.21509643,-0.552061,0.22409207,-0.25738484,0.23867492,0.63440156,-0.037504565,-0.34331763,-0.8761064,0.70321006,-0.45454618,-0.41350138,-0.53869075,0.5055622,0.77325714,-0.07895272,0.41237587,0.25349718,-0.83853793,-0.07824259,-0.6450814,0.51403004,0.86818326,-0.5536619,0.22327001,-0.19440863,0.11218618,0.3719358,-0.73533654,-0.13783038,-0.7328273
-0.5580878,-0.7457648,-0.16674285,-0.037045557,-0.16751257,0.7685103,0.0025499489,0.8760023,0.7173338,-0.28443944,-0.42585084,-0.02264769,-0.84840465,-0.046461325,0.16658457,0.8364682,0.7395512,0.849935,0.3285934,0.15542711,-0.7645916,-0.4809482,0.5997109,0.09749689,-0.99057746,0.35571697,0.41929325,-0.4708454,0.93328685,0.7962347,0.6688331,0.5028152,0.69171906,0.8317405,-0.61477584,-0.8208184,-0.4496243,0.07187741,0.9716572,0.73691565,-0.4166155,-0.82587016,-0.25270972,-0.39951348,0.67582905,0.28289974,-0.7195321,0.27526987,-0.1710643,0.6229204,-0.63670117,0.88809687,0.52109426,0.93936354,-0.7831186,0.87445974,-0.14426424,-0.19660032,0.3840816,-0.17883307,0.46972942,-0.28175035,-0.56563187,0.06801593,0.06296498,-0.18134145,0.43722847,0.061260123,0.14461355,-0.5901131,-0.37878665,-0.6977373,0.8241944,0.58313,0.46071914,0.33742657,-0.2608361,0.4346729,-0.60584074,0.7500599,-0.7160896,0.7200587,-0.7525663,-0.4931119,0.32691494,0.64445263,0.04191918,0.40716255,-0.32797095,-0.30971342,-0.083676174,-0.39945242,0.7088669,-0.78866684,0.46947768,0.9251695,-0.012310098,-0.046903256,0.26452366,0.4592364,0.55127317,-0.020444144,0.10244562,-0.29383555,-0.088009514,-0.31386504,-0.76075953,0.89345175,0.45556086,0.17976008,-0.7283144,-0.52622104,0.50174475,0.51795626,0.2877258,0.50160074,0.150789,-0.20964678,-0.22874343,-0.4793269,0.07624871,-0.61764127,-0.20556363,0.33334178,-0.16121644,0.57833064,0.7444217,0.5286981
-0.5376899,0.47800624,-0.12160847,-0.45992732,0.5675467,-0.31484354,-0.7492684,-0.70524585,-0.5763637,0.242969,-0.06530113,0.81312436,-0.01076015,0.5349596,0.334783,0.8613704,-0.9227053,-0.042157184,0.8840776,0.11658653,0.89142144,-0.36453062,0.14956021,-0.43550658,-0.8933452,0.50921375,0.46127632,-0.19592677,0.3520259,-0.6417417,0.57700384,0.5398266,0.49868557,0.51746374,-0.68866134,0.23110126,-0.7076467,0.18499987,-0.034104247,0.43982542,0.046770006,0.3088958,-0.52383274,0.23752508,0.47843176,0.6130565,0.35942098,0.010435876,0.8270153,0.37503824,0.17335777,0.62832445,-0.35272297,0.399145,-0.50008386,-0.41804275,-0.06233806,0.34663272,0.68612087,-0.1021017,-0.09564755,-0.07720142,0.9642072,0.21965513,-0.19491683,0.69981915,-0.20929313,-0.29412043,0.73615086,0.7491629,0.0978239,-0.32563025,0.19503541,-0.67338413,-0.044838645,-0.31534734,-0.3736812,-0.11761179,0.047451783,-0.39530358,0.08672697,0.043446846,0.22571751,-0.7509197,-0.22563805,0.8673942,0.562531,-0.3399684,0.68506086,0.016683683,0.36827624,0.3579066,0.4316543,-0.995814,0.6527894,0.42970437,-0.15610881,-0.7785155,0.20527664,-0.4952846,0.7511633,0.050459366,0.45333782,0.7223253,-0.049907573,0.28089598,-0.24239142,0.59828126,-0.58290315,-0.4830595,-0.8737513,-0.075720534,0.43142247,0.7555196,-0.44107977,-0.11058123,0.6291295,-0.5065091,0.9711821,0.55038106,0.2868907,0.779324,0.49469543,0.68785554,0.05867033,-0.44834965,0.7736192,-0.6887746
0.75801104,-0.5569168,0.1696111,-0.42208362,0.084392,0.27605578,0.7909983,-0.8414551,-0.5123032,-0.8289932,-0.7185741,0.058258165,0.6952299,-0.19282907,-0.48442572,0.5182186,-0.4936867,-0.73797417,-0.28506544,-0.4933593,0.4413062,-0.3320202,-0.6080572,0.7823154,0.14269467,-0.17951582,0.20889461,-0.18667142,0.64264137,-0.091939755,0.38619563,-0.36052278,0.5078585,-0.27948272,0.37780237,0.6126299,-0.19864573,-0.83121693,0.43495104,-0.056756604,-0.25045317,-0.2565337,0.5701865,0.113932714,0.4087533,0.24625061,-0.5184434,0.23072182,-0.5019632,-0.78787875,0.74886817,-0.3439729,0.3257608,-0.7407673,0.24091211,0.2869646,-0.37360236,0.035177246,0.58199275,0.27489325,-0.651259,0.3622327,0.37053022,-0.5939401,-0.21530718,0.39701813,0.7544479,-0.26424646,-0.2535366,-0.048087638,-0.77320606,0.017913766,-0.6520583,0.1236881,0.2035048,-0.44553393,0.018189242,-0.6678803,-0.67869806,-0.67306495,-0.6050294,0.6456538,-0.31379923,0.19684264,0.48998424,0.79652214,-0.18079045,0.7701332,-0.5412706,-0.3633737,-0.6428135,0.19694154,-0.19739065,-0.81220394,-0.277088,0.07383045,-0.017309258,-0.44948477,-0.76121104,0.86637527,0.57645017,0.1943566,-0.53665084,0.20850793,-0.25526792,-0.2480733,0.2530693,-0.34131843,0.029920904,-0.480697,-0.25435373,0.7939922,-0.41353607,0.10868173,-0.42391515,-0.8027866,-0.6609908,-0.3109088,0.5645,-0.822861,0.37465277,-0.63920677,-0.018390093,0.8279845,0.8240473,0.01182774,0.24364148,-0.54030603
-0.17880139,-0.4509277,-0.09341785,0.6885974,0.8407676,0.2607037,-0.34584504,-0.8575705,0.40882084,0.12493929,-0.700128,-0.26253015,0.2957432,0.3825142,-0.53557897,-0.4603034,0.23022541,0.36728546,-0.7667673,0.67380995,0.31879306,-0.0224703,-0.23718874,0.4702145,-0.039337844,-0.2249045,-0.5688134,0.7836121,-0.8384273,-0.7376461,0.120771326,0.07135611,0.30865833,-0.25864184,-0.8704074,0.7365032,0.17329115,-0.820734,-0.79221267,0.85482883,-0.8340102,-0.48102897,-0.7008474,0.77630013,-0.36894777,-0.118705116,0.19008899,0.6689384,0.30804464,-0.8501587,-0.8240021,-0.5889872,-0.06505309,-0.5682133,-0.44847298,-0.7070074,-0.57105875,0.46052974,0.05177587,0.07906407,-0.24512221,-0.06962972,-0.34680057,-0.6760612,-0.55095905,0.008351468,-0.07956373,-0.5265496,-0.23342462,0.35899156,0.83382946,-0.21942495,0.61236376,0.47142193,-0.10381843,-0.4130108,0.11719004,-0.37858927,-0.2596487,0.5013888,0.19258597,0.48680487,0.20311894,-0.07167968,-0.70969963,0.7946925,0.37496972,0.39648008,0.006486601,-0.04067784,-0.41959265,0.55162585,-0.68272763,-0.57634574,-0.39037266,0.7695286,0.21842451,0.37043098,-0.046682503,0.31212226,-0.11812229,0.3709327,-0.34501252,0.7972346,-0.7754467,0.056564912,0.552689,0.041293535,-0.8544375,-0.5379807,0.8362843,-0.27904317,0.31507006,0.792556,0.17249416,-0.090741746,0.8546246,0.14948097,0.7821819,-0.31916976,0.24464394,0.7089813,-0.32966396,0.51243246,-0.80406636,0.8003397,-0.14579016,0.41530123
0.53146327,-0.3829044,-0.35214397,-0.7091356,-0.10288853,0.05307294,-0.8578533,0.01858263,-0.6104816,-0.4875612,0.12578827,0.5168457,0.16448905,0.34187186,0.76962775,0.3657366,-0.17246933,0.65645146,0.29295507,0.14553377,0.6639791,0.1776542,-0.08123005,0.10857057,-0.81663555,0.11743958,-0.47679996,-0.3581115,-0.6411759,-0.15249977,-0.35240307,-0.66197157,-0.52405214,-0.35095,-0.2570805,-0.65174305,0.40669438,-0.3397501,0.15210508,-0.4319323,-0.3527091,-0.759326,0.79875314,0.16085479,-0.032706253,0.051846754,-0.7093825,-0.732077,0.25938138,-0.20973626,-0.7001269,0.75141543,0.31836262,0.66933,-0.40625793,0.6933981,-0.34163526,-0.53953475,0.28212878,-0.0737849,-0.26563373,-0.32550606,-0.67700386,-0.05588904,-0.54225475,0.7809002,0.2719586,0.5788478,-0.3967116,-0.6919888,-0.80817896,-0.8080778,0.8150875,0.0707754,0.11707305,-0.41729894,0.35132828,-0.013822791,-0.14050676,0.46010104,0.62679887,-0.87895644,0.30137694,0.41732404,0.52903223,-0.21164092,-0.75764555,-0.61359525,0.41847637,-0.7735137,-0.5471527,-0.22610362,0.052868605,0.1905959,-0.28265205,-0.6852502,-0.72436184,0.6916005,-0.43073422,-0.3762488,0.42861465,-0.2853393,-0.14445078,0.63879716,-0.63317746,0.860644,0.38139114,0.063063,0.30379954,0.2170121,0.3982356,-0.55250347,0.5434683,-0.43962607,-0.41649714,-0.015050532,-0.69585127,-0.42936862,-0.16837767,-0.6664861,-0.51062775,-0.5014275,0.21927911,0.38212785,-0.1327311,-0.7574592,-0.8644604,-0.7959423
0.044711974,0.024100183,-0.019355373,-0.66935176,-0.26787308,0.40168804,0.6084118,-0.690998,0.7503786,-0.7229795,0.13641179,-0.53031754,0.3271283,-0.4723862,-0.8632778,0.73250407,-0.47079894,0.58713233,0.59561265,-0.39533135,0.7205618,-0.60089254,0.67232496,-0.07308687,-0.467826,0.65416783,0.72090745,0.87217784,0.7419304,-0.82230073,-0.7616057,-0.8763156,0.7123195,0.15152113,-0.09789485,0.66621935,-0.007384184,0.08379974,-0.37982795,-0.682742,-0.03904088,0.71153647,0.22723246,0.7983199,-0.67594415,-0.6607093,0.33431992,0.109702885,-0.33579952,0.00045372188,-0.14371231,-0.14017525,0.42425165,0.4760893,0.53394324,0.78617555,0.3401049,-0.095911466,-0.64915913,0.027848069,-0.89499533,0.5753533,-0.555553,-0.012202957,-0.57790893,-0.34944102,0.24275078,0.24664891,0.38435876,-0.82625824,0.638749,0.4774156,0.27752298,-0.69083154,0.40685287,-0.17529483,0.23924989,-0.32524422,-0.34444928,-0.45130822,-0.6796977,0.13371255,-0.36690316,0.46734866,0.69145757,0.8078272,-0.20220807,0.40212503,0.8689014,0.49791846,0.48090732,0.16875009,0.24130239,0.104450725,0.5145996,0.37098148,-0.38565326,0.64370364,-0.021121847,-0.14608398,-0.22097631,0.308368,-0.47009477,0.7790397,0.08964147,0.21416458,-0.4555068,0.7724349,0.89372045,0.23401481,0.107013926,0.090017736,0.8401781,-0.73552126,0.02356694,-0.6683126,0.77305657,0.6254757,0.73652154,-0.6753539,0.40935132,0.1860826,-0.7150839,-0.2406523,0.19263436,0.8220271,0.7353604,-0.90539914
-0.5898948,0.644395,0.028188046,-0.040104166,-0.38196647,-0.5596111,0.43044746,-0.6058884,0.46372244,-0.36496797,-0.024740959,-0.68219835,0.6293075,0.33915582,0.2539544,-0.79228306,-0.35983145,0.3919637,0.71544313,-0.34168038,-0.5619685,0.47827545,-0.26141796,0.08923517,-0.35599524,0.79900336,0.19421896,-0.47538802,-0.85447985,0.59277475,0.5463846,-0.39036438,-0.21214171,0.15990333,-0.2639594,0.015777431,0.69339156,0.07575551,0.06661394,0.010031888,0.52277917,-0.7142161,0.3682051,-0.35228094,-0.7118145,0.6476512,0.48047808,-0.5652722,0.0012560453,0.830271,-0.28199154,0.6870892,0.25842124,0.5315321,-0.0850519,0.013796453,0.48121023,0.8425654,0.04082121,0.6579611,0.38621238,0.3162259,0.70664173,0.14275226,-0.14974631,-0.17697372,-0.31806403,0.45666572,-0.44137305,-0.48460728,0.09472964,0.4953203,0.8306775,-0.7030446,0.2961775,0.317589,-0.27596745,0.48558548,-0.84467566,-0.22822717,-0.5828278,-0.8197028,-0.23264723,0.36765042,-0.6941201,-0.1983521,0.32093808,0.8856339,-0.19024551,0.05392982,-0.489253,-0.4471296,-0.5121117,-0.562198,0.0007943207,-0.64478254,-0.55231947,0.38010764,0.20592898,0.76889855,-0.22597133,0.024188282,0.49246672,-0.22998191,0.5473012,0.10629356,0.35111454,0.69688886,-0.30505675,-0.30707848,-0.32522196,0.828943,0.35803965,-0.6090706,-0.102604814,0.103374094,0.7814071,0.30163467,-0.51589674,-0.83260643,-0.54819006,0.008638762,0.24322535,0.12680158,-0.14632241,-0.8592353,-0.79469717,-0.09669372
0.13052069,0.28496465,-0.71112716,0.18185152,0.18971038,0.7042317,0.15708967,-0.4526106,0.3308005,-0.6708492,0.13928315,0.28157443,0.33039457,-0.27632037,-0.7078247,0.75792426,0.022010533,0.34715664,0.013773307,0.7842625,0.72716975,0.6991187,0.11880854,0.21597779,-0.22518735,-0.26909438,0.29546437,-0.2026579,-0.73659176,-0.7422229,0.20855203,-0.7485203,0.06791038,-0.5479362,0.5601438,0.055163685,0.30537584,-0.79668117,-0.20000698,0.115360804,0.01161023,0.108221054,0.064634345,-0.5000362,0.08452332,-0.7904789,-0.28705212,0.15026385,-0.6866694,-0.31235588,0.16957784,-0.6817916,-0.14320838,0.06329761,-0.27686048,-0.17572486,0.40353915,0.12336921,-0.09234132,-0.09656893,0.047140185,0.7261854,-0.48036754,-0.56671655,-0.15265442,0.34881347,0.7251667,-0.6055795,0.15264702,-0.22124745,0.7318101,0.6456747,-0.796076,-0.39341998,-0.8589015,-0.23074572,-0.38996568,-0.30771425,-0.07646287,0.18785766,0.7335212,-0.02203576,-0.5294105,-0.72145736,-0.61404747,0.40975407,-0.4620946,0.31635088,0.6345671,-0.71799505,0.73549587,-0.07079071,-0.09577892,-0.45424178,-0.84409946,0.10772442,0.32851568,-0.5058022,-0.56633425,0.16593438,0.6110469,-0.19288951,-0.7050924,0.29845625,-0.029484546,-0.38764864,0.5677854,-0.2060318,-0.6825396,0.507664,0.31101984,-0.11194707,0.11940355,0.35752556,0.2340967,0.3802634,-0.7158032,0.21766008,-0.88072336,0.5183151,0.8204366,0.64329857,0.030476516,-0.59463304,-0.08026587,0.88581353,0.05793353,0.16964644
0.552551,0.11622705,-0.75192475,0.30193675,0.47452232,0.60397214,-0.018955661,0.17050967,-0.45541915,0.607787,-0.13518895,-0.5116315,-0.6541936,-0.5139517,-0.7700837,0.45160744,-0.33333585,-0.71536714,0.33473027,-0.31032753,0.7214273,0.042233452,0.59285593,0.54340935,0.15604438,0.4526627,0.668357,0.86329865,-0.14090116,0.4434768,0.17528683,0.2190475,0.4541895,-0.1562163,-0.68571997,0.116597705,0.39532128,0.17963786,-0.35025394,-0.80827004,-0.092271976,-0.2666387,-0.29450956,0.56724674,0.10918109,0.8341688,0.85240316,-0.2675871,-0.170155,-0.6404636,0.36496636,0.67992485,0.7429339,0.19133008,-0.63876075,-0.54035133,0.03622871,-0.78711396,0.89897066,-0.6962588,-0.6847656,-0.79946214,0.44917902,-0.3435855,0.42859197,-0.1496528,0.9354013,0.48415324,-0.9086219,-0.16922165,0.7560168,-0.52367294,0.33039713,-0.18479143,0.5000095,0.29937252,0.2372239,0.65700203,-0.38410452,0.18908626,-0.1642649,0.9064502,-0.51149446,-0.32902676,0.41974258,-0.031364214,-0.5017124,0.5281013,0.4173739,0.5168752,0.0734585,-0.31866443,0.5475692,0.44304758,0.29604578,0.11602053,-0.41317615,0.115266226,0.64867806,-0.518585,-0.024944691,-0.15845539,0.4695408,0.7268895,-0.42013144,0.43593517,-0.2074814,-0.70127726,-0.26261246,-0.52727634,0.37574115,-0.22425793,-0.3651553,-0.17137551,0.24870907,0.8678337,-0.6701697,-0.93536395,-0.072728135,-0.22112913,0.09828405,0.28141195,0.13489501,0.58355665,0.010317179,0.12669533,-0.8133208,0.4179292
-0.16037613,0.6583806,-0.8873611,-0.4178141,-0.7201811,-0.2682266,0.97693175,0.88864964,0.8662942,-0.7445931,0.4351675,0.005366768,0.007374719,0.8539221,-0.7087919,0.0070869466,0.67353106,0.7045137,0.8089513,-0.18842994,-0.74707925,0.9010523,0.8348873,-0.26996735,-0.79463154,-0.5196097,0.3712809,-0.43646827,-0.45662248,-0.3258075,0.6960787,0.059717987,0.22634366,-0.33752736,0.054836534,-0.050005592,-0.48806736,0.8154493,0.20469938,-0.1351196,-0.44249737,0.052412614,-0.24147753,0.49043325,0.12480414,0.45834097,-0.26402068,0.14987272,-0.5220317,0.29057175,-0.31469306,-0.75682116,-0.10346252,-0.65299314,0.13734578,-0.3573049,0.37147728,0.16862118,0.6487684,0.99298036,-0.45411912,0.7873249,0.9264786,-0.12239996,0.78703505,0.37158695,0.0035467069,-0.4809959,0.3981538,0.57485145,-0.31763107,-0.2182203,-0.642793,-0.19218169,-0.05742588,-0.19503334,0.93577707,-0.6994581,-0.683983,-0.4000269,0.58925635,-0.12866503,0.29503524,0.7008668,-0.4414734,0.9683402,-0.18953836,-0.76786906,0.13761719,0.47995013,0.35954425,-0.28675267,0.23369989,-0.90191555,0.65388304,0.11120528,-0.35542506,-0.7695077,0.39036644,-0.50982934,0.26021692,0.48725948,0.16721395,-0.7382897,0.015351836,-0.6353528,0.16949113,0.30729714,-0.35148573,0.6312855,0.15464258,0.058583096,0.15995198,0.54161924,0.22392365,-0.5379213,0.18119076,-0.71179193,-0.030323341,-0.57831436,1.000713,0.8430341,0.9606613,0.88475925,0.28868765,-0.72146964,-0.45788097,0.029693259
-0.5141645,0.82907444,-0.35947877,-0.2537663,0.78731745,0.23317666,0.7531814,0.73029286,-0.67834175,-0.32880163,0.1689458,0.77866024,-0.37092882,-0.1279057,0.7380624,0.57483613,-0.5245158,-0.0986726,-0.35573512,0.7073644,-0.14785242,-0.6327792,-0.075474836,0.03518395,-0.81945395,0.6520191,0.52023953,0.43005174,0.56584966,0.3403009,-0.10649723,-0.55172193,0.47153845,0.12506063,0.41868502,-0.015521213,0.87041575,0.6024506,-0.13025123,-0.65802,0.3345934,-0.56968796,0.8469432,0.01686682,0.55186146,-0.06089368,0.88826996,0.081910945,0.50096726,-0.075421445,0.820805,0.67201006,-0.49913877,0.84030324,0.37443897,0.91382664,0.622577,0.2869007,-0.7883682,0.70997787,0.13461323,-0.22085322,-0.31305113,-0.84141654,-0.49713296,-0.52757984,0.09500144,-0.37542564,-0.8941011,-0.7802175,-0.11666636,-0.13775003,0.5193893,0.7135389,0.81703573,0.79217,0.41403452,-0.43201235,0.63904065,-0.65595365,-0.51980895,0.47940218,-0.6110202,-0.302011,-0.348056,-0.074603476,-0.43596718,0.33968544,0.15124208,-0.8813608,0.44079944,0.7812506,-0.5888799,-0.17949943,0.65170294,-0.029417481,-0.7512651,0.18727337,0.7117378,0.35571942,0.4887952,-0.8684396,-0.66986895,0.52945,-0.32633802,0.36848858,-0.48878238,0.2004344,0.323862,0.8626539,0.60126567,0.49052873,0.6291659,0.44868657,-0.16689947,-0.048180975,0.20710269,0.40426728,-0.10764065,0.17614283,-0.593527,-0.5508439,0.34036404,-0.35821715,-0.38613084,0.7259788,0.63719314,-0.27692497
0.20893604,0.3159842,-0.65587515,-0.24145764,-0.38781857,-0.5460333,0.7345231,-0.5800508,0.17385212,0.8455106,-0.6501827,-0.23654693,-0.15985987,-0.6021774,-0.24540439,0.19519174,0.5006382,-0.13911328,-0.16480672,0.03734963,0.1507759,-0.03524068,-0.36837342,0.20347288,0.28187233,-0.22031412,-0.36646944,-0.66568184,0.008697166,-0.095573574,-0.21069609,0.7291953,-0.8840271,0.23432444,0.28000304,-0.2244695,-0.3860789,0.3628198,-0.57861346,0.7140873,-0.5934099,-0.38688868,-0.0061960532,-0.85512245,-0.17298062,0.50152105,-0.18675591,-0.8055355,0.12484441,0.43653643,0.14375955,-0.5984263,-0.19832641,0.22444813,0.028758496,0.37653565,-0.5249357,-0.705496,-0.8764904,-0.26994258,0.5063364,0.602443,-0.31573644,0.69678926,0.72464925,0.22223502,-0.5930631,0.73949385,-0.6155225,-0.8585241,0.82888097,0.29594126,-0.36142218,-0.59852135,0.47727275,0.50059676,0.61171293,-0.25314113,0.54236114,-0.0030580475,-0.6016215,-0.29797283,-0.030041518,0.38764486,-0.3750507,0.14756493,0.6735524,0.68370336,-0.8296497,-0.8150834,-0.7114464,0.24431723,-0.0399467,-0.44666287,-0.2088443,-0.8789254,-0.1453109,-0.36360204,-0.8718289,0.9041149,0.12473853,-0.8074865,0.6764533,0.3891187,0.60286534,0.8930317,0.30504483,-0.7755487,0.30956247,0.32808942,0.053988326,-0.87752813,-0.7134607,-0.87219024,-0.5903645,0.5128662,0.52528495,0.65775394,0.26431033,-0.77969974,0.0011821787,-0.07673646,0.49314764,-0.25276086,-0.87085557,0.8929795,0.81090873,-0.44734862
-0.5293116,-0.2800901,-0.13271959,0.55658,0.52310044,0.6082226,-0.75947857,-0.47036937,-0.6720156,-0.6212433,-0.49315295,-0.06126338,-0.039222866,-0.45542654,-0.20870127,0.16288233,0.28282008,-0.6188088,0.089027144,-0.1546372,-0.6369716,0.8151046,0.37919322,-0.5139627,-0.07385981,0.5222159,-0.34100163,-0.4979757,0.79782236,-0.6496488,-0.6909206,-0.7913921,-0.011532394,0.032094184,0.09485964,0.1441641,-0.27609652,0.399951,0.5766711,0.6268413,-0.2821374,0.040002983,0.53614974,0.17835169,0.7209817,0.13848586,0.7845314,-0.13869788,0.038953833,-0.024627341,0.3561356,-0.77485013,-0.3079172,0.25829387,-0.8244101,0.32606584,-0.369249,-0.22147615,-0.453355,0.49567008,-0.17705813,0.57749885,0.35873246,-0.5504383,0.1992295,0.039012935,-0.32450143,0.84487057,0.8991268,-0.029643144,0.14336444,0.5379165,-0.23156774,-0.5063842,-0.76200885,0.4225652,0.6386214,-0.015794175,-0.54610276,0.120832875,0.2164403,-0.23768266,-0.858039,-0.29333836,-0.08679858,0.32028767,-0.060688015,0.09647442,-0.38650027,-0.69114757,0.265774,-0.5381334,-0.63001347,0.62928975,0.7117277,0.38939384,0.23404048,0.8376399,-0.83538383,-0.7852821,-0.094805315,-0.73025674,-0.38598442,-0.77911776,0.18404101,0.360797,0.2763038,0.20794684,-0.3085247,0.82563573,0.17387253,-0.6305444,0.827373,-0.63758045,-0.18335548,-0.08548365,0.49676323,0.12011085,0.56816864,0.10379135,-0.82318974,0.4362437,-0.047804125,-0.6764594,-0.29195443,0.3860949,0.59176666,-0.8832236
-0.6003648,-0.3529492,0.3497066,0.5117086,-0.5915347,0.32564893,0.7275508,0.5384615,0.40242648,0.047853537,0.57348335,0.7579155,0.7165909,-0.38881403,-0.050146785,-0.8018165,0.6326046,0.64238286,-0.33328772,-0.05023554,-0.831734,0.6356681,-0.4202331,0.58158827,0.051467065,-0.57570696,-0.65656614,0.26124868,-0.5792165,-0.65780777,0.81053185,0.45752895,-0.50028634,0.13279928,-0.5134299,0.093439616,0.7643334,0.8291268,-0.48242402,0.17174107,0.12089286,-0.8083057,0.82201403,-0.5124951,-0.7075539,-0.5696037,-0.8868499,0.8333112,-0.032466043,0.33129808,0.32884198,0.40425918,0.22740221,0.21332788,-0.55861366,0.27447265,-0.7138349,0.56217253,0.46795225,-0.19867657,-0.2969868,0.2877744,0.018625915,-0.6087512,-0.4816761,-0.1581702,-0.4868858,0.45102987,0.106733754,-0.3003435,0.5467611,0.82106346,-0.84975594,0.7800747,0.5016482,0.0011811983,-0.6264151,0.47580805,-0.7969883,-0.46549946,-0.8481109,-0.6627741,0.14590532,0.4794717,-0.39658663,-0.0590613,-0.22103806,-0.10136752,0.53165996,-0.46984398,0.4286764,0.41005623,0.582802,-0.5738919,0.3077228,-0.17628966,-0.48132396,0.065095365,-0.06651597,0.1979425,-0.10566867,-0.27198517,-0.7339303,-0.17294097,-0.0843199,0.20338698,0.7624649,-0.49130455,-0.5468387,0.28985482,-0.44866502,-0.21058199,-0.22716767,-0.6921133,-0.029981662,0.25776103,0.69244206,0.13434668,0.8704579,-0.32569367,-0.16889206,-0.51361877,-0.61931545,0.04884919,-0.6546548,0.27116632,-0.28855616,0.20346518
-0.25228977,-0.518821,0.10166823,0.27437264,-0.4554192,0.54522526,-0.56148565,0.47984776,-0.71182173,-0.60790694,0.66806674,-0.0480855,-0.19315423,-0.26827037,0.3046443,0.8629013,0.4900956,-0.810322,-0.058385536,-0.80904,0.36130032,-0.15677351,-0.39444953,-0.5863457,0.17121536,-0.0274639,-0.45040292,-0.85149133,-0.4867954,0.7821463,-0.8603712,-0.10273296,-0.5956413,0.18054652,0.19440335,-0.5995564,0.18194738,0.20001152,-0.37017357,-0.22725396,0.7879905,0.53231585,-0.3562889,0.5716537,0.16783074,0.2317982,0.43772593,0.40307406,-0.025950843,0.21443984,-0.44440854,0.67410135,0.10277497,0.32482323,-0.17298643,0.26227164,0.050678715,0.5699239,-0.17871743,-0.77426493,-0.5569648,0.78423685,0.5719065,-0.7622753,-0.8267631,-0.2884953,-0.8991553,-0.8216485,0.10726907,0.7600276,0.8633349,0.57252055,0.7225846,0.49600226,0.8104994,-0.70569855,0.211887,0.1283908,0.07728658,0.17804924,-0.55480134,0.63358444,0.4085526,-0.78981876,-0.5106541,0.18894121,0.63898796,-0.5937843,-0.38131088,0.5177962,0.37717003,-0.28703868,0.27338514,0.9109225,-0.077265285,0.77927095,0.32281744,-0.4244833,-0.30185348,0.24075611,0.43489632,0.08791107,0.7403368,-0.30638698,0.45544592,-0.8333482,-0.7415099,-0.68098044,0.91800696,0.6778747,-0.2310004,0.61369085,-0.76820064,0.61133236,0.20002395,-0.78417736,-0.20295042,-0.3311295,-0.3770016,0.09303359,0.25942558,0.39849597,0.55811644,-0.62443143,0.28411114,-0.21660396,0.48134544,0.7056051
-0.38101286,0.094487995,-0.70037735,-0.6215379,-0.7379781,-0.21916257,-0.8068988,-0.043121908,0.25297496,0.80005336,-0.5290683,0.24074116,0.8511677,-0.55740976,0.075878054,-0.34899697,-0.05955678,-0.3522442,0.5242371,0.82213384,-0.77746105,0.11791897,-0.28193396,0.24931993,0.0588234,0.014961786,-0.2464053,0.22945975,-0.28674707,0.1434879,0.4324614,0.33050087,-0.36766133,0.32756853,0.27234322,0.7353213,-0.6719228,-0.6725921,-0.40068704,0.74196535,0.2053628,0.7544577,0.74444747,0.5471321,0.87728214,-0.831592,0.4772347,0.16495597,0.7062935,0.73453736,0.6164704,-0.7397085,0.9055309,0.3722194,-0.056743193,-0.21352816,0.27631804,0.626762,0.45363927,0.1317553,-0.21085845,-0.13297486,0.54432464,-0.4017628,0.55488497,0.41052628,-0.86774915,0.5912522,-0.24842228,0.3480392,-0.49920526,-0.2127798,0.608007,0.40667722,-0.060264055,-0.40804103,0.024628177,-0.548891,-0.30783007,-0.50703865,0.09597208,0.20219594,-0.42607367,-0.399288,0.26885733,-0.27666909,0.63725364,0.13252398,-0.71245533,0.7183524,0.79380995,0.48590204,0.101084076,0.36991483,0.16847663,-0.42058405,-0.5206409,0.45202595,0.017618809,0.92608553,-0.27055266,0.44837815,0.15986028,0.7272613,0.25733176,-0.092977874,-0.64464396,0.27879363,-0.12371538,-0.5194813,0.89247376,-0.26470605,-0.23238389,-0.14521126,-0.7193988,-0.53659165,-0.6382889,-0.38573468,-0.2798231,-0.76753265,0.21806395,0.4066706,-0.1861785,0.6104455,-0.36576128,0.76048195,-0.6992816,0.18335868
-0.80933934,0.8398347,-0.4148065,0.43811026,0.6675016,0.3261634,-0.306326,-0.3510163,0.7712342,-0.36260906,0.14694542,-0.5275311,-0.59589857,-0.56143993,-0.18265982,-0.12072662,0.7245115,-0.117345974,-0.20028211,0.08398357,0.47150946,0.5977418,0.3405028,0.71286964,-0.57662463,0.810941,0.41019666,-0.86457944,-0.4257341,0.43514535,-0.27156162,0.56612206,-0.55212635,0.7388797,0.6369778,0.3493268,-0.29859447,-0.13138507,-0.21748278,0.550848,0.5528657,-0.48853606,-0.41230962,0.5100483,-0.80838346,-0.4374584,-0.30144584,0.07853255,0.46201277,0.8281927,0.46131212,-0.6679898,-0.3523991,-0.19515385,-0.5913673,-0.03390774,0.20030756,-0.29963624,-0.8014588,0.6622535,-0.14974901,-0.6837279,0.43487298,0.21439925,0.64771634,-0.24751021,-0.511013,0.1115607,0.24523045,-0.58555806,-0.8663394,0.6860814,-0.5146193,-0.887551,0.27764127,-0.4760217,-0.1546523,-0.77273405,0.1872414,-0.73389214,0.40430707,-0.31452802,-0.41898075,-0.03775148,0.5479168,-0.67499715,-0.28761053,0.35803765,0.4579648,0.6449684,0.5220277,0.037345886,-0.63904124,-0.56915575,-0.028978182,-0.6464642,-0.59863704,0.36959746,-0.7231994,0.8014178,-0.8099081,-0.01000646,0.091850355,-0.5345833,0.35571665,0.083211355,-0.67287815,-0.73273396,-0.43491527,-0.2475584,-0.1277917,-0.7563768,-0.48902622,0.2077298,0.0827431,-0.32173648,-0.34520534,-0.5327552,0.23517065,-0.85135484,0.4902311,0.6063721,0.21865848,0.47415453,-0.55191815,-0.608846,-0.7637541,0.3126027
-0.5343572,-0.24387208,-0.40209174,0.47216696,0.1980598,-0.3000974,0.5934224,0.6222468,-0.041700404,0.77786756,0.3988439,-0.6076136,0.45060265,-0.8061281,-0.882545,-0.015080191,0.067517884,0.5436168,0.6921492,-0.11905673,0.7289662,0.40240708,0.4369528,-0.30700347,0.40994292,-0.3742222,-0.7438016,0.7188812,0.07191554,0.019528054,0.60779905,0.8158208,-0.21064702,0.1004925,0.33521473,-0.6844899,-0.7260957,-0.1217693,0.07266162,0.60101765,-0.58975106,0.31844962,0.3798377,0.19084471,0.51777273,-0.10678135,0.040741954,-0.24651074,0.4357436,-0.8180714,-0.5497752,0.23862982,-0.6782655,-0.7866775,-0.54209596,-0.81393856,-0.16044594,-0.6937633,0.2381128,0.5093344,-0.781911,-0.23292068,0.4249071,-0.55846566,0.82191515,0.60733074,0.7934726,0.7294945,-0.035874046,-0.7079619,-0.79218864,0.43933323,0.80155903,0.6061931,0.90966547,0.41908202,-0.11864088,-0.43478018,0.77780193,0.765445,-0.32258725,-0.64452904,0.3886364,0.26206604,-0.55427617,0.14817958,-0.6889477,-0.41751593,-0.3231414,0.061260734,0.2992744,0.1387871,-0.21114019,0.41403058,0.16514787,-0.38529932,-0.18927066,-0.39601654,0.80275035,0.8876918,0.108206615,0.263717,0.48119769,-0.8071645,-0.5531773,-0.29291007,-0.78570336,-0.05581618,0.33382818,-0.5926843,0.6002314,-0.58478624,0.26789978,-0.41438234,0.6182885,0.24085371,-0.31910473,-0.6303825,0.568479,0.459004,-0.4464768,0.4203894,-0.4159727,-0.68289614,-0.8654794,0.6697604,-0.30823758,-0.10747809
-0.69256127,-0.6647827,-0.6035663,-0.25767642,0.40374696,-0.2778256,0.0028910364,-0.008989908,0.48449832,0.79395884,0.4854298,-0.03713797,0.7952364,-0.64213985,0.034314577,-0.7426334,0.41256604,0.38047153,-0.4145599,0.6720447,-0.7738811,-0.46989864,0.666387,0.5449833,0.26409063,0.12094879,-0.1896,0.81185126,-0.48245224,0.38529974,0.28155357,0.8618068,-0.21509974,0.7826585,-0.8177317,0.27700093,-0.4632537,-0.7789106,-0.3343168,-0.121785924,0.5459917,-0.7054151,-0.123227514,0.28911623,0.53475344,0.25274244,-0.17298685,0.16293204,0.2916343,0.11213091,0.5021163,-0.13951257,0.029453164,0.5880672,0.63402176,-0.28812224,-0.12970902,0.72229755,0.56995404,-0.09724741,-0.74417007,-0.27582827,0.0051488285,0.20192045,0.19597991,-0.49188748,0.44475096,0.2574717,-0.15216346,-0.86591804,0.09473455,-0.43241942,0.24372892,-0.07275615,0.8477944,0.18419796,0.21313545,0.47419435,-0.56602615,0.15370278,-0.6222327,0.39953527,0.34508407,-0.05518673,0.25940496,0.72935694,0.15606329,0.16458751,0.5045276,0.31296453,-0.6379536,0.12737285,-0.42460045,0.21809673,0.6852403,-0.46885464,0.10765121,-0.7601153,-0.3217415,0.8296934,-0.4480003,-0.4345319,-0.4869037,0.646067,-0.62333935,0.85490394,0.7534939,-0.69259834,-0.62051016,0.22046253,0.22064488,-0.42239526,0.47101974,-0.13616818,-0.72340274,0.09462998,0.0060390625,-0.37333345,0.24019083,0.40864405,0.07673142,-0.703151,0.3120776,0.71735466,0.7131151,-0.031955373,0.24200994,-0.7407961
0.47743902,-0.28509063,0.60481024,-0.28877845,-0.8875613,-0.88859534,-0.20019247,0.81465137,0.224496,-0.10369913,-0.03625866,-0.66822356,0.16505328,0.77680653,-0.52185845,-0.17671773,0.6157253,-0.8766348,-0.38085017,-0.75561273,-0.518949,-0.50129485,-0.1774039,-0.8781714,-0.36705527,0.22542028,0.15782866,-0.08725181,0.6755815,-0.5435524,-0.40348166,-0.23030837,0.62124735,-0.034781404,-0.21001798,0.5481389,0.6946009,-0.49274316,0.012010499,-0.29954824,0.48482755,-0.016981972,0.58803475,0.4421811,-0.30424124,0.61908454,0.34095055,0.40461916,0.58627254,-0.71099466,-0.69109505,-0.23677689,-0.50807303,-0.6676579,-0.8678663,-0.16221745,0.48429167,-0.18056282,0.5119643,-0.77138346,-0.08333302,0.032538813,-0.74579686,0.5895239,0.82492286,0.5302364,-0.19232686,-0.10835412,-0.57729053,0.35647982,-0.33154282,-0.44796118,0.34814593,-0.8953623,0.60615766,0.27494544,-0.7171234,-0.17696077,-0.44550744,0.724813,-0.8431071,-0.1616647,-0.87131023,-0.1599575,0.15290137,0.358758,-0.30082574,0.6668001,0.72613645,0.4636605,-0.7596757,-0.17398435,-0.574833,0.28681853,-0.7247414,-0.06527023,-0.19282997,0.088393666,-0.6604463,0.8060817,-0.33615446,-0.074153535,-0.68702126,0.3018069,0.49796677,0.75226593,-0.43029162,0.060150668,0.7143703,0.055481873,-0.69106925,0.43952882,-0.26389664,0.14490016,0.58039933,-0.08567011,-0.77358395,0.72124946,-0.2259716,0.7297787,0.27476764,0.452393,-0.58444786,-0.47191826,-0.025012879,-0.7008325,0.6081144,-0.119664684
-0.41563737,-0.6031381,0.5286307,0.6417966,-0.7863336,-0.814708,0.5062733,0.8053644,0.8082626,0.6142735,0.62830025,0.4216946,-0.54469055,0.14206238,-0.35429114,-0.42392284,-0.16502865,0.82757914,0.48185447,0.16351394,-0.30033782,-0.39362222,0.50572455,-0.55319124,-0.6914153,-0.3608484,0.25739858,-0.82082903,-0.16321307,-0.7358523,-0.015275113,0.5536043,0.3121238,0.5740558,-0.42778233,-0.53839165,-0.12254295,-0.36153013,0.4645732,0.7012915,-0.30579925,0.6043924,0.15420969,-0.6322316,0.58349425,0.17757015,-0.32805616,0.38200647,0.41402963,0.009921459,0.63129663,0.80880743,0.72564024,-0.055091906,0.39307007,-0.5610976,-0.7163244,0.44376773,0.5690806,0.72314405,0.22536418,0.06835693,-0.7301945,-0.037279736,-0.23005596,0.580786,-0.49666998,0.32970613,-0.7923244,0.040023707,0.5792381,0.19272248,0.21030433,-0.09400232,-0.40691927,0.5521064,-0.72921455,-0.7593566,-0.64541775,0.41738605,0.04268378,0.50804585,-0.80251205,-0.43365604,-0.29349798,-0.05409519,-0.5249049,0.20782644,-0.63957566,0.074886516,0.1966417,-0.4795217,0.07154157,0.29881507,0.5171284,0.061647054,-0.43714747,0.057705298,-0.10006863,0.8109626,-0.64373255,0.9175994,-0.28954095,0.3217107,-0.13327447,0.06916339,-0.41275918,-0.46910068,0.08544281,0.3994038,0.10087347,-0.71393406,-0.2370578,-0.094613865,-0.6140228,-0.5750378,0.78265935,-0.30287215,-0.062228397,0.3216556,0.772212,0.7359924,0.31889343,-0.07771744,0.015787918,-0.8734553,0.33888435,-0.048782613
-0.3431141,0.0628309,0.5375764,-0.7585906,0.7515894,0.15239914,-0.6193452,0.26594046,0.74863714,-0.2330134,-0.28537735,0.7835233,0.29866382,0.8597748,0.34264827,-0.05597236,0.1612616,0.4582118,-0.45086575,-0.71825427,0.8796991,0.86028737,-0.67549235,-0.3936633,0.60943955,0.703929,0.32310745,0.21131833,0.77337974,0.19396259,0.4241529,0.13201386,0.78200847,-0.52689373,-0.701547,-0.2236984,0.7914131,-0.003333967,0.8438205,0.5114873,-0.6817456,0.7942895,-0.21607643,0.7809559,-0.4321996,-0.6406971,-0.72036964,-0.4659543,0.28817636,-0.21761392,0.47191462,-0.112052694,0.4912929,0.4763225,-0.15768556,0.8173712,0.5016797,-0.8135843,-0.040329345,0.101071194,-0.030506294,0.30649537,0.8376688,0.70982236,-0.7933261,-0.041623134,0.14919509,-0.399744,-0.1922716,0.41732833,-0.7928164,0.20827396,0.57019705,-0.60533005,-0.0011642072,-0.6977811,-0.78738683,0.01717503,-0.3926319,0.37077534,-0.21563123,-0.40357935,-0.7563035,-0.39549682,-0.5626642,0.061542038,-0.16408612,-0.5086618,-0.626639,-0.27099138,-0.7310225,0.19228509,-0.8245869,0.68020594,0.037552845,-0.6524396,-0.35372913,-0.34810567,-0.071911454,0.12488833,-0.5097413,0.67630243,-0.1949293,-0.087491184,0.2512675,0.1495522,-0.24727066,0.24831553,-0.5899372,-0.3651322,-0.15355553,0.13413209,-0.06380052,-0.52037334,-0.82701916,-0.32377103,0.71660054,0.53452486,-0.21563789,0.42620274,-0.8327513,-0.6506756,0.13443081,0.010639077,-0.06109035,0.29316625,-0.47172362,0.73300195
-0.521708,0.07059056,0.19951595,-0.5285681,0.39953408,-0.7220578,-0.111130565,-0.27808797,-0.7562559,0.8503624,-0.623414,-0.80757874,-0.49033028,0.5311536,-0.27282155,-0.34575912,0.22677039,-0.44746506,0.7372766,-0.87019634,0.3262683,0.2319808,0.52441156,-0.7946185,0.65427494,0.16796236,0.5391414,0.15100287,-0.14341886,-0.51734895,-0.35932845,-0.5305532,0.6600463,-0.79199183,0.41683146,0.13600866,0.43908617,-0.6508667,-0.16893388,0.7531665,-0.4326309,-0.72673553,-0.6276332,0.88790995,-0.41555396,0.0369766,-0.3160525,-0.18633354,0.14084357,0.18066448,0.63650906,-0.7732112,-0.82455647,0.03553397,0.07598506,-0.7848713,0.72769094,-0.46961996,-0.4058666,0.70344806,0.26114023,-0.7139474,0.5915822,0.14377213,0.5961245,-0.6603896,-0.6001608,-0.49628168,0.5026494,0.4643494,0.34888712,0.6567016,0.18884102,0.7929882,0.5825777,0.8776234,-0.67951965,0.71245974,-0.24470174,-0.5014242,0.28275418,-0.62522256,0.39377946,-0.60478354,0.7208678,0.5411939,0.38925546,0.8214634,0.39782068,-0.7877163,0.19100785,0.5533772,0.3854882,-0.13097139,0.7036689,-0.82378036,-0.59354657,0.07428336,0.5597578,-0.8085942,-0.6079506,-0.831705,-0.4291164,0.16349794,0.6828919,-0.09028064,0.59212404,0.4214097,-0.013018771,0.57797444,0.140897,0.66362786,-0.75892496,0.6815289,-0.78544927,-0.11977822,-0.43408284,0.61298984,0.03008127,-0.29258618,0.43833786,-0.8097237,0.38953635,-0.56323606,-0.27459815,0.8750674,0.8007553,-0.6823207
0.5654984,0.8864487,0.8370521,0.6868955,0.5964847,0.5578548,-0.30033296,0.60649985,0.74774253,0.04378726,0.81365377,0.012159857,-0.7097329,0.563684,0.45291132,0.84083223,0.80988413,-0.7836673,-0.07759888,0.009554284,-0.6379719,0.5126747,0.5832363,0.25692096,0.19495867,-0.3702622,-0.86339796,-0.31686527,-0.3849561,-0.36462384,0.2187487,-0.5326795,0.033461675,0.5455874,0.5185492,0.11070152,0.17482254,-0.6502471,-0.866625,-0.5383832,0.84583735,-0.3224313,0.0691622,-0.8521223,0.49242815,-0.109468065,-0.5285877,0.57031494,0.19518213,-0.14808175,0.25347114,-0.10594451,-0.80852103,-0.57793355,-0.32483137,0.6611737,-0.5433042,-0.36286148,0.6931924,0.70289856,-0.6270608,-0.62247574,0.8477338,0.120183274,-0.65073687,0.2178819,0.5687679,-0.6638514,-0.7092667,0.25593787,0.44043562,0.41902512,-0.65438133,0.16213314,0.6374608,0.52498496,-0.35469258,0.67387706,-0.25475365,-0.29164377,0.65905654,-0.09554978,0.7157232,-0.045301612,-0.35333675,0.30175486,-0.33173198,0.28118473,0.3144186,0.104343705,-0.21494281,0.3934264,0.38349333,-0.6122066,0.27659157,0.5668201,-0.55510825,-0.0667191,-0.5902778,0.71352005,-0.37038383,-0.84844595,-0.62017757,-0.23328234,0.09615977,0.11926121,0.6256054,0.59865904,-0.7347025,-0.48473832,-0.28478763,-0.47601694,0.25737482,-0.5175478,0.71724904,0.5527316,-0.49111754,0.8516417,-0.78694946,-0.6708915,0.74661046,0.074383095,-0.88013554,-0.7099302,0.041021463,0.48509425,0.001765587,0.73356295
-0.040775258,-0.36607653,-0.16178863,-0.48143438,0.8356092,0.87684894,0.7416825,0.53163457,0.2300035,0.14451435,-0.4852651,-0.3822829,-0.11827247,-0.53655064,0.7253599,-0.07260092,0.89809716,0.17088978,-0.29415235,-0.84144086,0.20794527,0.24150111,-0.17137215,0.14767763,-0.8335322,0.34786177,-0.84809893,0.35583696,0.589587,0.13209035,0.44286162,-0.7966803,-0.03179951,-0.15893021,0.55631644,0.88414466,0.7905359,-0.055852953,0.099395655,-0.6253023,0.34753463,-0.28846276,0.69533116,-0.5983124,0.44993848,0.6238176,0.69559866,-0.8040248,-0.8118682,-0.110512905,0.05604477,-0.2778533,-0.77897334,0.054934602,0.4482617,0.58304256,-0.07793808,-0.7535882,-0.24650694,-0.64941853,0.13107522,0.39494935,-0.41060475,-0.22360067,-0.32445157,-0.5795719,-0.17579025,0.40790415,0.7118039,-0.20262092,0.81381595,-0.3663401,-0.7224724,0.5861355,-0.4544988,-0.76480734,0.036673967,0.3693111,-0.685594,-0.40606955,0.04584031,-0.7367386,0.44006056,0.13394244,0.30315545,0.45346507,0.69741887,-0.76923543,-0.024762606,0.59191865,0.37630674,-0.22396499,0.09760352,-0.33395702,-0.114086024,0.8312847,-0.26702583,0.2466888,-0.19131956,0.4469898,-0.22087224,-0.2050958,-0.39894706,-0.22583503,0.4303906,0.4379838,-0.5317113,-0.67141336,-0.49361455,0.42557892,-0.081300154,-0.8274329,0.29035836,-0.3943559,0.53060776,0.1829196,0.21188015,-0.10692975,-0.7706126,-0.6238961,0.6582559,0.5938361,0.5605254,0.62202746,0.81541747,-0.68818504,0.19288069,-0.63934964
-0.71555775,0.74060565,0.11043272,-0.83510286,-0.312319,0.15193178,-0.050987177,0.6553296,0.585141,-0.6626874,0.7927513,0.84335494,-0.43617293,0.65630096,0.43713203,0.5053612,0.28100967,0.4188381,0.37563565,-0.34455654,-0.6996314,0.36195025,0.88984066,-0.37156326,-0.46818396,0.3373212,0.73538333,-0.10685521,-0.81997836,0.7047475,0.567197,-0.68003637,-0.31054226,0.29714465,-0.5123825,-0.2605023,0.8347995,0.49808937,-0.7196956,-0.46104664,0.46448904,-0.6069958,-0.018747373,0.1319323,0.756549,-0.5947523,0.45463005,0.57289124,-0.8148112,-0.71252227,0.7972211,-0.8713438,-0.3083598,0.020867761,0.39366436,-0.57811546,-0.67983764,-0.74113053,0.7715491,-0.01089781,-0.3757234,-0.1645695,-0.63719136,0.52174693,0.44267154,0.5181026,0.7766974,-0.28249088,0.85107267,-0.81511617,-0.30672747,-0.78348947,0.71938497,0.6417104,0.14007518,-0.4333592,0.6639014,0.81568986,0.19911197,0.058456045,0.2711501,0.60786045,0.30641085,0.33025563,-0.46178365,-0.70648134,0.36405405,0.4084992,-0.1906125,0.09501978,0.5318407,-0.4362356,-0.36352354,0.57427925,0.86176056,-0.023893839,-0.2318833,0.6766854,0.20714663,0.6343751,0.9153142,-0.57299,-0.7098531,-0.3471903,0.11188038,0.2382792,0.2706981,0.7480758,-0.6920192,0.31891498,0.8762613,0.6837752,-0.16410533,-0.7507171,-0.8836074,-0.79313546,0.3928538,0.3423337,-0.5646409,0.27929932,0.5411295,-0.24869676,-0.3015967,-0.74778306,0.11207804,0.56311953,0.22462773,0.74396986
0.5518716,-0.69725806,0.30589792,0.15996815,0.24635303,0.4288284,-0.5063195,-0.7861672,0.14595178,-0.24102247,0.54972297,-0.6284345,0.8962134,-0.47313282,-0.3477845,0.85943264,-0.073786,-0.78993046,-0.28635648,0.060005814,-0.5268457,0.11922198,0.097700424,0.28855923,0.34864783,0.19915758,0.8298058,0.07915831,0.32933626,-0.49912384,0.6322953,0.24044575,0.7917118,0.56012166,0.31367067,0.67176706,0.06515595,0.088483505,-0.83489627,-0.43976933,-0.49897698,0.60719216,-0.6023048,0.15999752,0.2852179,0.40833682,-0.81442493,0.010378003,-0.44716567,0.52825284,-0.6967911,-0.7745041,-0.47124153,-0.27861443,0.17431843,-0.78875583,0.50312513,0.36254355,-0.7327164,-0.18353742,0.53585047,-0.42978576,0.27138975,-0.49161065,-0.16877133,-0.39125526,-0.28110814,0.6880966,-0.15467718,0.009475216,-0.082075275,0.33484435,0.86606973,-0.0038059778,0.07326121,0.7032812,-0.085743465,0.6366876,-0.5005112,0.8757339,0.4341247,0.27115127,0.8242092,0.47151294,-0.42725933,-0.34949926,-0.47492978,0.8730508,-0.7115381,-0.49155158,0.3353553,0.3817289,-0.42045814,0.13630156,-0.14036399,0.26457018,0.34956482,-0.08559677,-0.64862055,0.50820315,0.56682986,-0.46360758,-0.8423649,0.15507053,0.47047523,-0.0410226,0.12037548,-0.812674,-0.6723641,0.7522756,-0.25542757,0.10398371,0.27388626,-0.64275396,0.419538,-0.65196013,-0.6746096,0.6196858,-0.43874374,0.42299104,-0.20243104,-0.33569834,0.38926983,-0.27723962,-0.6313294,-0.8087225,-0.15246768,-0.50961304
-0.06565573,-0.6410345,-0.67948925,-0.68631476,0.59200484,0.3153355,-0.15351729,0.79910153,0.1477934,0.108037286,0.08441433,-0.08522752,0.25889483,0.39845195,0.8836871,-0.34339717,0.68504894,-0.43602896,-0.65913683,-0.017906701,-0.5820974,-0.8167705,0.46135804,0.68936276,0.70356184,-0.81435955,0.453984,-0.70280844,0.0674555,0.66266084,-0.60978276,0.0808838,-0.31754693,-0.27147803,-0.53005964,0.5464176,-0.48326412,-0.08224964,-0.31167278,-0.5231844,0.24402964,-0.52986944,0.27679276,0.8673939,-0.32757095,0.084915414,-0.51398623,0.7329639,-0.45619065,-0.811552,-0.8226211,-0.77767235,0.67486507,0.5121578,-0.11207532,0.73139757,0.548313,-0.7266408,0.13868397,0.47668278,0.18574843,0.7622598,-0.79953355,0.35382646,-0.68114835,-0.84261644,0.012262692,0.2959256,0.4069863,-0.7341872,-0.40420154,0.8000921,-0.43815657,-0.45344615,0.22405277,-0.1953717,-0.43105286,-0.18009719,0.48039237,-0.14405693,-0.38066316,-0.7602992,-0.31178793,-0.6102558,-0.5090491,0.8473551,0.3563702,-0.6874151,0.70482135,-0.67617965,0.65117836,-0.52512425,-0.22067456,-0.6397353,-0.39576134,0.28082585,0.58388543,0.6513672,-0.32030573,0.66281,-0.34999558,0.021998353,0.72505116,0.4159611,-0.43504784,0.34187526,-0.23396191,-0.7934107,0.51999116,0.542233,-0.4410339,0.51543725,-0.55415803,-0.75524455,-0.050812617,0.8640226,-0.6678783,0.30958,-0.8807082,-0.04115311,-0.30664873,0.8492824,0.08557421,0.807362,0.019598408,-0.23796035,0.43888697,0.54112333
-0.73158514,-0.47727126,0.58061856,-0.39493015,0.82239324,-0.48954937,0.80327386,0.60937375,-0.529881,-0.54928684,0.12598778,-0.74111485,0.010505182,0.048885554,-0.35949767,-0.6268654,0.34449577,-0.76379466,0.59906167,0.13551968,-0.49620575,-0.8599185,-0.57924694,-0.30315876,-0.7701719,0.74796057,-0.15582372,0.3399319,-0.4360061,-0.4261576,0.76777846,-0.08491849,-0.64746433,0.5833576,-0.2187211,0.65315396,0.69751924,-0.27862984,-0.7916069,0.433764,0.38738018,-0.6301888,0.85472006,-0.34368002,0.7211013,0.8013178,0.34261438,0.40266687,-0.1194152,-0.6879714,-0.5304807,-0.49308342,-0.7531743,-0.0077108215,0.37609392,0.72176474,0.3863099,-0.1742109,-0.52271324,-0.85040724,0.652567,0.15974762,0.07149416,-0.8004507,-0.5527572,0.4178426,-0.20451537,-0.17316528,-0.0007824476,-0.2701575,0.6957652,0.6785818,-0.7822846,-0.6523537,0.70172805,-0.8273961,-0.74065775,0.61281055,-0.7600549,0.7366824,0.69672036,0.61756235,0.76063657,-0.30627355,0.85929143,-0.61048746,-0.28512383,0.1839524,-0.11356129,0.8399523,0.27043548,0.31113878,0.38878694,-0.13105918,0.13962018,-0.37374824,-0.35728598,0.06105381,0.7081973,0.01761593,0.36827204,0.52704006,0.47188938,-0.31448776,0.47306588,0.2604699,0.5629227,-0.057903577,-0.27403954,-0.7181554,-0.68783677,0.48715279,-0.09185416,0.4498094,0.32647225,-0.50166726,-0.5765976,0.22166486,0.6375015,0.08903395,-0.03108638,0.26317754,-0.04136412,-0.71108085,1.46275315e-05,-0.7215312,0.8073031,-0.53912604
-0.40888628,-0.20905082,-0.68261075,-0.0003576646,0.23851593,0.26966047,-0.039649513,0.7533397,0.7244559,0.41649073,-0.14939745,0.19970927,-0.56447244,-0.07885002,0.5752806,0.9068065,-0.5840026,0.3328302,-0.5727206,-0.5807714,0.7489154,0.16768159,0.75635356,0.21405533,0.5443154,-0.06186232,0.1435835,-0.8324395,0.6335314,0.7563965,-0.41316146,-0.07677593,0.47632346,-0.7414618,-0.62990814,0.24290176,0.42600742,0.02528672,0.35169792,-0.08526146,-0.085262924,-0.51651466,-0.678417,-0.3232115,0.33443922,0.10199198,0.4449332,0.26950213,0.33753318,0.35817936,-0.6909479,0.294746,-0.5880108,-0.668145,0.25558573,-0.5417575,0.18177064,0.49363118,0.84396064,-0.76237404,-0.8325958,-0.54236245,-0.76195693,-0.03662167,0.640212,0.43423456,0.1842375,0.5036258,-0.7650465,0.11859052,-0.8037921,0.30436954,0.89570683,0.04444857,0.2925534,-0.68540096,0.57905173,0.041308917,-0.42546862,0.5607354,-0.07669582,0.087158486,-0.21999289,-0.6488039,-0.82618845,-0.37012807,-0.35123596,-0.242496,-0.7291879,-0.37302783,0.5080792,0.58520234,-0.1466787,0.70103216,0.41445547,-0.625131,-0.36337158,0.14932641,-0.110948846,-0.43356222,0.28781047,0.21868806,-0.020755375,0.064179964,0.42348424,-0.22314106,-0.5201942,0.58364904,0.23024762,0.16582635,0.3748983,0.24964109,0.37003717,0.27667636,0.25123775,-0.41672555,-0.8376683,0.37401697,0.6348748,0.26668686,0.7543346,0.1614281,-0.11661383,0.44826245,0.9155511,-0.68496406,-0.18819986,0.30414003
-0.8651961,-0.6074756,0.50948864,-0.36336488,-0.13987446,-0.36154106,0.5756009,0.27478373,0.18415907,-0.23376705,-0.33980432,0.74312294,-0.3756287,0.4647493,-0.563618,0.14252275,0.6145338,-0.3175292,0.8475385,-0.017987533,0.8625362,-0.17832434,-0.66786206,0.806834,-0.21951799,-0.31584725,-0.09958251,0.24267685,0.25992924,0.40052924,-0.2249663,0.7839387,-0.7994647,-0.0070851166,0.61179733,-0.8784524,-0.54057443,-0.43083468,-0.38488212,-0.644318,-0.35724244,0.21695368,-0.14638264,-0.8001766,0.14577724,0.80490834,0.054910097,0.75719804,-0.8386805,-0.65999746,-0.2844245,0.08170398,0.5196388,0.6588384,-0.27648288,-0.6888202,-0.46320206,-0.49601987,-0.623572,-0.52452374,0.48606592,0.19815354,-0.118537486,-0.66747326,0.6526392,0.41944835,0.797114,0.04846628,0.71028095,0.025493382,-0.21261303,0.47660172,-0.119096234,-0.36663827,-0.06110049,0.26312205,-0.35915065,0.626925,0.28128132,-0.30368236,-0.4821238,0.58938754,0.598446,-0.17600597,-0.5558856,-0.4437511,-0.6890911,-0.7640726,-0.47029215,-0.4232607,-0.02511551,0.57172006,-0.5999899,0.43498036,0.6145875,0.08084102,0.4156642,-0.80684197,-0.67928517,-0.13645197,-0.8232636,-0.7024428,0.60229665,-0.42660826,0.23018168,-0.33296108,-0.010948622,-0.05275772,-0.11703691,0.6766399,0.8409556,-0.82784295,-0.27102664,0.30500057,0.5709106,0.07235919,0.12639494,0.099893734,0.49080214,0.39863643,-0.7118494,-0.34725124,0.47152713,-0.8105932,-0.89509046,-0.32598227,-0.8700569,-0.33642673
0.14066441,0.2685007,0.9314258,0.09937212,0.41449457,0.2914995,0.5528358,-0.45719504,-0.30338562,0.3375275,-0.2513655,0.39099386,0.41562945,-0.6656576,0.5199752,0.5741451,-0.55390376,0.09858067,0.7623116,-0.48568195,0.6939642,0.038317222,-0.080545984,-0.75322384,-0.026707336,0.40613455,0.26288652,0.1325013,-0.25734937,0.20755352,-0.04542168,-0.8081281,-0.24793729,0.73839146,-0.25746995,-0.511502,-0.3959274,0.70208025,-0.11826307,-0.645957,-0.66598666,0.16775943,-0.07872565,0.67144686,0.7498538,-0.8581806,-0.26127198,0.19742262,0.6874683,-0.6964212,0.73824036,-0.6679275,0.3397087,0.8220314,-0.050733317,0.24393043,0.8765683,0.02654711,-0.40902594,0.33301443,-0.52503353,-0.70497036,-0.8509754,0.20803176,-0.09016115,-0.42545652,0.4793104,-0.220113,0.13351,-0.6253652,-0.8426225,-0.4329698,0.55722415,0.28714907,0.69280314,-0.21042421,0.7357717,0.47968096,0.30868927,-0.6458405,-0.84864825,-0.07343755,-0.20658703,-0.7177867,0.73894835,-0.36295438,0.13743456,-0.33245134,0.75482595,-0.39359155,0.10988336,-0.6549188,-0.040774066,0.7728335,0.08774971,0.60650796,-0.31211746,0.32221058,-0.7462287,0.039388247,0.39330378,0.56509495,0.83661366,-0.10995308,-0.56076515,-0.46988633,0.6777237,0.06343035,-0.20177682,0.8610999,0.124355115,0.2541705,-0.46465844,-0.16539544,0.5674766,-0.116459034,0.8418131,-0.60566413,-0.3209464,0.30591923,0.31580564,-0.4092169,-0.8032979,0.24465533,0.17501938,-0.7610848,-0.22128078,0.38221028
-0.4946146,0.69404495,0.4840165,0.4516418,0.74160445,0.704751,0.5562229,-0.019720353,-0.43423358,0.4309717,-0.72955036,0.8093817,-0.32953832,0.7180282,-0.4171326,0.04609054,0.54564875,-0.528816,-0.7263032,0.03069758,-0.7458973,0.037077766,-0.43906122,-0.04405834,0.21886751,-0.34546393,0.10140686,-0.07069147,0.47155833,0.034887858,-0.07963426,0.109128326,0.42369145,-0.7571617,-0.23989451,0.4850043,-0.5448713,-0.13618723,-0.22161417,0.3838707,-0.37576613,-0.10612768,0.088369116,-0.030886522,-0.82544625,-0.024127532,-0.6085102,0.16281605,0.25748256,0.7757401,0.76373017,0.7254898,-0.08970987,0.35409898,-0.17773233,-0.7991277,-0.01965436,0.4016916,-0.7101597,-0.6246513,-0.06142241,0.6437224,0.7960985,-0.39391738,0.19594896,-0.17289734,-0.4998802,-0.82127446,-0.8565011,-0.05396556,-0.7655998,-0.5369096,-0.49979976,-0.56302273,0.32959226,0.6433461,-0.0051474986,0.01709399,0.49099463,0.33045536,-0.13433841,0.10056767,-0.73949325,0.37386763,-0.24235888,-0.49956292,-0.87996656,-0.07818953,0.802175,0.08605989,-0.18479395,-0.20251486,-0.7865343,-0.17859605,0.5052958,0.44537675,0.17004813,-0.28601247,0.005328531,-0.023686983,-0.4932191,-0.6902558,0.73103976,0.121102095,-0.16226017,0.47198328,-0.3966015,0.3949294,-0.50822425,-0.19048706,-0.14311545,0.062310062,0.35047355,-0.5470084,0.38938442,-0.32548526,0.815052,0.6126458,-0.23642264,0.09333453,0.4084014,-0.12834948,0.65247047,-0.3926139,-0.848789,0.37372687,-0.18548304,0.036968198
-0.36333725,0.5689136,-0.2684091,0.8405669,-0.22932944,0.87492377,-0.8759486,-0.85344845,0.14756069,-0.032442853,-0.36969048,-0.066749446,-0.42294714,-0.41326284,0.83279175,0.8668139,-0.81295407,-0.4769843,0.7929553,0.63922393,0.19034511,-0.6863646,0.56060225,-0.15688318,-0.5175771,-0.03131826,0.005542481,0.828492,-0.050277367,0.81125283,0.2839487,-0.45540863,-0.5552901,0.61131614,0.30983213,0.70001644,0.34116808,0.4379849,0.20691931,0.6124836,-0.31551993,-0.035343587,-0.070661545,-0.27243587,0.0123032825,0.54207,0.66809255,0.63550615,0.3967921,0.8664441,0.5298612,0.8374211,-0.5073338,-0.2639427,0.20468079,0.7137703,0.7443976,-0.2509135,0.8075297,-0.45325628,0.6417893,-0.6915619,0.3457615,0.44805962,-0.9043722,-0.56081295,-0.61020124,0.6653728,0.9138104,-0.40718386,0.5999192,0.28995815,-0.6046321,0.11620164,-0.4690976,-0.05095744,-0.4454382,0.86189544,0.56599516,-0.8761887,0.044627823,-0.5252121,0.0039888835,-0.41391185,0.6948708,0.8163205,0.532039,0.114618614,0.31626692,0.33615,-0.67163557,0.46140927,0.3841599,0.32558188,0.78241575,-0.348186,0.12307139,0.1800223,-0.68210906,-0.2854662,0.67857873,0.7671951,-0.26556954,0.6453249,-0.4159034,-0.70139444,0.124788776,-0.051263493,0.46718413,-0.76000166,0.51171046,-0.29302263,0.11565402,0.3756647,0.82375115,-0.64334774,-0.5012798,-0.1717311,-0.3170816,0.717012,0.069594525,-0.68969953,0.21878596,-0.7370791,-0.8294588,0.027810121,0.08254177,-0.0156925
0.84919006,-0.20631093,0.29523006,-0.80049133,0.7890372,-0.684949,0.12450739,0.5401089,0.09840569,0.44730747,0.052255698,-0.72264576,0.8273618,0.31339902,0.64891136,-0.13059647,-0.4177731,-0.22876185,-0.15169007,0.29361126,0.05043762,0.6133442,0.22839981,0.54684484,0.87954,-0.5676964,-0.5352047,-0.65411294,-0.6304871,-0.21509615,-0.7870345,0.56193906,0.8616315,0.64921206,-0.07197437,-0.61199737,0.26470613,-0.7258631,0.681669,0.038487032,0.5228585,0.08966934,0.41842207,0.034895893,0.68624806,-0.32951197,-0.64068335,0.42351508,0.42288193,0.859524,-0.6014691,-0.34372327,0.23675491,-0.4285752,0.31210703,-0.09590066,-0.45503536,0.46151987,-0.15404543,-0.66770124,0.76683325,-0.5724358,-0.0324954,-0.846619,0.26037732,-0.359821,0.36698708,-0.094406776,0.10097786,-0.8369606,0.7546624,-0.84293634,-0.72356945,-0.6773698,-0.17994417,0.26954162,-0.073777206,0.7787878,-0.479699,-0.22506432,0.044078786,-0.84257406,0.51108044,0.7585824,0.63020766,-0.7173447,-0.8147071,-0.57092243,0.5893345,-0.8101282,0.89017844,-0.8633756,0.15841639,-0.3568811,0.6778427,-0.44484407,0.7562594,-0.51700366,0.5328695,-0.47004107,-0.350591,-0.20506094,0.7613561,-0.8311517,-0.03607192,0.28027287,-0.58847487,-0.17107402,0.39222336,-0.2648321,-0.8512938,0.14901035,-0.6703638,-0.4067358,0.57008934,-0.108621195,0.47234723,-0.1066314,-0.04374205,0.06057302,-0.25503144,-0.0021451018,-0.030278979,0.114865504,0.122027,0.7133468,-0.53687656,0.4032399
0.8704543,0.051897585,-0.5287938,-0.8640335,-0.88147956,0.17990246,0.59838504,-0.82259613,-0.6306365,-0.84807307,-0.16580002,0.5248856,-0.8069698,-0.8798279,0.54713356,-0.791017,0.805114,0.55088735,-0.4158569,-0.26670557,0.36629725,-0.3654406,0.11816124,-0.7448689,0.61087483,0.5501465,-0.52476645,-0.7775723,-0.7212937,-0.60763574,-0.48566765,-0.53400326,-0.08908956,-0.033197664,-0.062674396,0.66901994,0.14894229,0.4972303,-0.5331663,-0.42837393,-0.5239169,-0.5888202,-0.60188824,0.71806216,-0.39144132,-0.44400924,0.14301866,-0.5955574,-0.14617248,-0.33693516,0.70108354,0.5277688,-0.3761151,-0.066424586,-0.15566316,0.5171721,0.33922476,-0.7278121,0.6776602,0.5427611,-0.7910244,-0.31731823,0.8430944,-0.121838324,-0.55401933,-0.09852435,-0.63104904,0.6625325,0.6938765,0.5133466,-0.11210473,-0.6892443,-0.7678975,0.8260249,-0.15914932,-0.7035295,0.40677375,-0.21718778,-0.05787665,-0.23080868,0.03377819,0.29075888,-0.29384094,0.38119125,0.18089662,-0.8326576,0.67122257,0.56268394,0.044926923,0.22950645,-0.19401368,0.039817955,0.4531752,0.63093776,0.26598808,-0.76669747,0.19937386,-0.2653972,0.7985838,0.08183933,0.009018861,0.17307451,0.01897642,0.2602911,-0.41343558,-0.024530632,0.19413182,0.26942113,-0.50824606,-0.32166505,0.10279351,0.46009937,0.7335482,-0.16182584,-0.04107702,-0.0217652,-0.7201928,-0.7184111,0.8318333,0.13031922,0.3937067,0.47456083,0.646208,-0.647987,-0.16153705,-0.7002435,0.18923306,0.07736901
0.6945576,0.39510316,-0.6883831,-0.46593502,0.23465702,-0.60748667,-0.8501724,0.14238374,0.20214288,-0.6627531,0.052637313,-0.13013288,-0.026412632,-0.8273128,0.16952167,0.7662091,-0.29047614,0.13597152,0.019741092,-0.72626364,-0.55803853,-0.67819166,0.5299869,0.48019308,0.70187265,-0.78900427,-0.6835866,-0.81654054,-0.5231192,-0.40390414,-0.013732364,0.39068064,0.08319139,0.2759693,0.15091948,-0.40102807,-0.014165412,0.21744362,0.8183538,-0.5162026,0.5338323,0.30150205,0.4817291,-0.85296965,-0.2812061,-0.18529049,-0.5579339,0.56808347,0.33715585,0.4470884,-0.28913534,-0.44958177,0.32837948,-0.67439216,-0.19534728,-0.7451957,-0.32072568,0.8422522,-0.39199424,0.62327164,-0.16569509,-0.7676888,0.6959047,-0.6794086,0.46226293,-0.18497181,0.16361737,0.014895412,0.7016914,0.35441962,-0.7681731,0.8137306,0.8279784,0.006236571,0.6387555,0.77439874,-0.050016116,-0.36218086,0.5735298,0.28514028,0.4166466,-0.05129638,0.22564733,0.38864487,-0.44110414,0.8743201,0.478989,-0.0660189,-0.15376218,0.2713459,0.85115385,0.352924,0.19597307,0.4222881,-0.36019576,-0.55629194,0.7970557,0.7413268,-0.40753168,-0.1104315,-0.14285663,-0.22236097,0.16560654,0.8031289,0.4773436,-0.23937733,0.22512206,0.47299427,0.4316744,0.788644,0.118495665,0.7107825,0.110433064,0.2374727,0.65665185,-0.12081073,-0.5006183,-0.586668,-0.26872525,-0.67241037,0.84496963,-0.09917676,0.6678963,0.16915436,0.40286815,-0.88403213,0.33996117,0.42162755
-0.18124197,-0.47184154,-0.71340156,0.8100444,0.4709311,-0.5425255,0.02038396,0.48852813,-0.080632076,-0.18347293,0.85850984,0.061286356,0.40834722,-0.040529877,0.59914744,0.8033705,0.29582775,-0.12214439,0.331565,-0.68651515,0.64313513,0.6604012,-0.46241844,0.1726767,0.7298074,0.68119967,0.118563674,-0.5698123,0.6761625,0.22868775,-0.32714912,0.3315817,-0.7332517,0.08466488,-0.04402402,-0.3871632,0.6754691,0.61387616,-0.20165522,0.5709583,-0.79939497,-0.36197734,-0.50274444,-0.36059508,0.13232008,0.556184,-0.87395066,0.20315032,-0.71235687,-0.09187576,-0.16997236,-0.61105776,-0.3726191,0.30316567,-0.83197004,-0.56440073,0.64399993,0.8284483,-0.6877965,-0.86710125,-0.0022921416,0.24699375,-0.45176333,0.019395318,-0.24505754,0.74089175,0.70326537,-0.28317535,0.2417863,0.8089285,-0.22099239,0.47063777,0.5435252,0.8472332,0.23685342,0.37750936,-0.15776306,-0.69925904,0.82205355,0.3248097,-0.15152267,-0.22134514,0.16937727,0.5728276,-0.37579718,0.55893093,-0.46221817,0.08612753,-0.4737064,0.39082828,0.083793975,0.65061927,0.48284745,-0.57497215,0.8545042,-0.8611961,-0.46031252,0.24949609,0.6827946,-0.595718,-0.07025465,0.8541333,0.04059488,-0.07453179,0.27795228,0.66882336,-0.7142064,-0.3486405,0.15257041,-0.43197128,-0.1755507,-0.31964636,-0.5151509,-0.43970472,0.21648438,-0.6179096,-0.39126533,0.71484035,-0.105641276,-0.17419723,0.2658685,-0.058258057,0.038757924,0.30512738,0.12950343,0.2927618,0.35904378,0.25750795
0.6729433,-0.38378316,0.09186812,-0.7413295,-0.6050106,-0.676095,-0.60897905,-0.28027543,-0.63025767,-0.7052895,-0.29852086,-0.588163,0.033049863,0.37260562,-0.033865035,-0.8753286,0.90680987,-0.08985721,0.83170724,-0.74814004,-0.59683883,0.32072607,0.53691757,-0.24609952,0.3566183,0.83863705,0.6683539,0.14182685,0.44632548,-0.6360351,0.01013861,-0.73473364,-0.80439615,0.49601603,0.811111,-0.2398544,-0.6759338,0.5568713,-0.86636126,-0.42289352,-0.79440534,-0.60902363,-0.33274943,-0.64823455,0.27130005,0.18609594,-0.52667725,-0.72761846,-0.3296763,-0.0029698925,-0.53535044,0.63245344,-0.36166105,0.043885015,-0.5792041,-0.77779067,-0.16577768,0.012882585,-0.660378,-0.38327157,0.16417708,-0.28815556,-0.017413773,0.15197583,0.3964038,-0.011250145,0.86490715,0.8511369,-0.28888178,-0.561654,-0.17984022,0.2143483,0.6181381,0.53017646,-0.46181276,0.40290532,0.8197684,-0.38421968,-0.38714796,-0.6567936,0.35576984,0.5076518,-0.06622451,-0.858934,0.12646542,-0.79840016,-0.68995744,0.62950987,0.08414481,-0.6526647,0.868138,0.020366956,-0.45664078,-0.77557653,0.79647183,0.8448051,-0.6722677,0.89137834,-0.05191803,0.27929088,-0.5345386,0.7430312,0.7444055,0.83680695,0.43527973,0.55643976,0.58811694,-0.76984066,-0.005080798,-0.10453847,0.8445299,0.06604244,-0.15156935,0.17536755,-0.4256595,0.90136355,0.15307388,-0.6872296,-0.7086484,0.16947122,0.6963387,-0.5448784,0.54695463,-0.41636226,-0.6421236,0.55588967,-0.09659964,-0.66758376
-0.85044456,-0.79113334,-0.761145,0.76200616,0.4488318,-0.37808204,-0.055093087,-0.12171561,-0.84323424,0.5164793,0.3263212,0.33470842,0.71094155,0.056657102,0.14155608,0.17245246,-0.37820452,-0.39951128,-0.42956644,0.15501493,0.19517674,-0.6423425,0.34557787,-0.79015243,-0.2208332,0.37561193,0.07463275,0.13440277,-0.2741995,0.8583222,0.20761085,-0.42536986,0.032004558,-0.60857576,0.03642947,0.44056532,-0.23614745,-0.8507157,-0.27606803,-0.4534344,0.022026123,0.8195317,-0.61748755,-0.33668044,-0.41578433,0.34111094,0.2177252,0.18778683,-0.26165608,-0.74912,0.0068407273,0.30622897,0.43231672,-0.3306793,0.6838215,-0.3834053,-0.31725305,-0.58907896,-0.5772734,-0.36712736,-0.24622717,0.086619556,-0.88463384,0.8792458,0.54304373,-0.32443318,0.18330957,0.17641312,0.17296039,0.091262124,0.8432052,-0.6888566,-0.09879165,-0.44313383,-0.7985769,0.24731717,-0.76325214,-0.75632256,0.13304937,-0.717581,-0.15823959,-0.88414925,0.8605454,-0.8223558,0.24100651,0.052861143,-0.5632074,-0.666067,-0.6161756,-0.06777686,0.38306043,0.10300078,-0.4336787,-0.38864273,0.41716382,-0.28990448,0.8390367,-0.8077093,-0.013105756,0.688638,0.0464052,-0.018299451,0.39636555,-0.06398273,0.5645435,0.676044,0.24257888,0.48021716,-0.1749897,-0.5500602,0.14963374,0.28539488,0.09201661,0.27282465,-0.5384664,-0.57261634,-0.794592,0.78559244,0.069238506,0.0005776754,-0.42303276,-0.75907564,0.6348987,-0.36861166,-0.86312085,0.7985778,0.76700455,0.57539755
0.8238481,0.1977563,-0.41738656,-0.35740197,-0.82475686,-0.09347099,-0.5044516,-0.8868785,0.44875842,-0.13084066,0.74812466,-0.085172586,-0.182482,-0.6776222,0.22390886,0.6469441,0.7018799,-0.09845548,0.21891831,-0.26036447,0.33883113,0.506422,0.030051913,-0.5943313,0.0010245134,-0.29279646,-0.3858447,-0.28017718,0.10403258,-0.2416132,0.44020125,0.7459894,-0.12029022,-0.6880571,0.26577574,0.116336316,-0.34205297,0.26989073,0.07423102,0.4923207,-0.6964028,0.34964806,0.7498663,-0.20750196,-0.31313753,-0.28135896,0.43090203,0.06696127,0.14778635,-0.2064222,-0.39981258,-0.27410775,-0.28991205,0.7914959,0.15451466,-0.6619902,0.5299617,-0.2989329,-0.86147696,-0.035523932,-0.4961715,0.81802535,-0.29680818,0.44591716,-0.85567784,0.56870276,-0.20522995,0.6446897,0.07328773,-0.8618156,-0.35774878,-0.11827455,-0.8095239,-0.44321993,0.32662567,-0.15810896,0.4268446,-0.770656,-0.7846409,0.034415886,0.09346904,0.025064519,-0.12886617,0.80814534,-0.4675274,0.2852776,0.3886201,-0.6962706,0.5581453,0.006996659,-0.8437165,0.4030491,0.011440886,0.22335356,-0.87758535,-0.3802035,-0.6965506,-0.04954765,0.37896243,-0.16000709,0.5546518,-0.80814016,-0.6782128,-0.8502555,-0.513052,0.64784,0.26966307,-0.0600012,-0.588187,0.18490134,-0.008894107,-0.19520998,-0.17709991,0.42311308,0.15881728,-0.70018214,-0.8665451,0.8006087,0.34387317,0.7577886,-0.13345711,0.16228183,0.84136295,-0.044528767,-0.7746996,0.38914755,0.07461565,-0.846946
-0.80883116,0.16066742,0.6651393,-0.38688278,-0.2600105,0.675003,-0.7284216,0.13485798,0.68758076,-0.8131947,0.3642983,-0.7461096,-0.38356605,-0.3873727,-0.44570524,0.53052974,0.12921192,-0.28321406,0.29984573,-0.046758175,-0.2139721,0.5375096,0.5852249,-0.8356304,-0.0048856814,-0.62315667,-0.34732717,-0.6907866,0.5730144,-0.41074708,-0.30886212,0.026617812,0.7876207,0.46028945,0.28185835,-0.15519737,-0.6952041,-0.38067672,0.78932893,-0.87048346,-0.58947337,-0.055612903,-0.51911825,-0.24727732,-0.42455465,0.55029225,-0.8305392,0.5550808,-0.630546,0.28625765,0.8586492,0.42812663,-0.34554103,0.6378778,0.08725554,0.56054145,0.7677302,0.6334346,0.62283075,0.08167108,0.6085282,0.15172759,0.5991162,-0.5963231,-0.030589134,-0.7190449,0.84725475,-0.5131232,-0.41134495,0.22423483,-0.30321065,-0.11124703,0.8342372,-0.028131345,-0.25988206,-0.45435575,-0.26220953,-0.32343796,0.05217367,0.20026699,0.52851987,-0.06495749,0.5613226,0.12892593,0.82363814,-0.08049765,0.6996505,0.26524118,0.8691957,-0.493263,-0.78917813,-0.59139764,0.33550298,0.45656046,-0.46463928,0.29282832,-0.78928167,-0.36232996,0.39181733,0.6716025,0.5581171,-0.3608908,0.4226709,0.065616146,0.19300157,-0.24106528,0.7608458,-0.76414734,0.3492065,0.78547484,-0.47914284,-0.5724795,-0.5705692,0.8053396,-0.49156824,-0.7321402,-0.81392723,-0.58676445,0.7061264,0.13529982,0.23981225,-0.63639057,-0.12712008,-0.16142434,0.8785488,-0.6945364,0.18557467,0.06750024
-0.2979158,-0.6855366,0.16868939,-0.78277564,0.57995445,0.8480451,0.045976855,0.7423517,0.53365886,-0.46869075,0.492846,-0.8199037,-0.36159304,-0.6381543,-0.84618914,-0.27571604,0.5005845,0.2665097,-0.49028072,0.6361074,0.2887693,-0.73582006,0.707064,-0.68722767,-0.6620161,-0.052735083,-0.7945585,0.1543141,0.5634097,-0.3417834,0.7125948,-0.26703617,-0.6482038,-0.7359539,0.64480114,-0.825973,-0.5986677,-0.0777608,-0.5549273,-0.8761355,0.45178217,-0.100741275,0.028362552,0.31676075,-0.26043946,-0.8393958,0.4426734,0.0143790655,-0.64280355,0.4822899,-0.11324703,-0.05468902,-0.796873,-0.44631702,-0.13215798,-0.16909231,-0.4317545,0.8688048,-0.74635696,-0.74209875,-0.44679448,-0.17266247,-0.08777793,0.23930237,0.19012478,0.603941,-0.39893138,0.8123153,0.5343295,-0.5140523,0.7871865,0.3574564,0.31327096,-0.8359745,-0.105953716,0.7351455,-0.79609996,-0.1734741,0.3626012,-0.7311749,-0.5070516,0.18193467,-0.50439054,-0.29436678,-0.56530756,0.1931753,-0.40964922,0.5888988,0.6270635,-0.19088735,-0.4031762,0.8000779,-0.4426074,0.21870147,-0.4803828,-0.84988916,-0.44862455,0.16724719,0.8132739,-0.4195237,-0.33543113,0.3733695,0.5943217,0.6661086,0.7518673,0.36403447,-0.26587996,0.2727312,0.86930627,0.40954944,0.5616096,-0.73010683,-0.5777769,-0.116896726,0.2869543,-0.717193,-0.36535418,0.07002884,-0.55795044,-0.56001735,-0.775418,0.41143593,-0.4717358,-0.17376278,-0.2171959,-0.74610454,-0.47342566,-0.18233411
-0.8605818,-0.8103613,-0.37908307,0.5376881,0.72061044,-0.48065618,0.3144374,0.056368984,0.7720247,-0.45020992,-0.17066966,0.032595687,-0.25054273,-0.1559675,0.4240246,0.63215065,-0.70256937,-0.097675905,0.15455306,0.4305395,0.6897891,0.7022371,0.63361275,0.39290416,-0.44612378,0.22737941,0.040023737,0.677007,-0.54317033,-0.42962518,0.012350381,0.8766075,-0.12576579,-0.6470069,0.7432226,-0.130109,-0.6958472,-0.22865486,0.02963442,0.47459298,0.4309388,0.84327805,-0.02886376,-0.13601758,-0.54979646,-0.8598605,-0.055133432,-0.6658672,0.640323,0.52775306,-0.8231862,-0.5563588,0.82447803,-0.84081113,0.013603534,0.85637647,0.261224,0.12533809,0.18428797,-0.18325828,0.40157527,0.8402352,0.48205775,-0.5380189,-0.55232155,0.38904557,0.8463006,-0.75581574,-0.39963967,0.87616765,0.2822736,0.69390833,-0.16566819,0.7895459,0.39463818,-0.6222049,-0.69007087,-0.052213788,-0.48004162,0.12465134,0.8278219,-0.031173397,0.30222842,-0.8468338,0.78825545,-0.38015994,0.24374248,0.7157238,-0.70178914,-0.20438966,-0.65016097,-0.43027893,-0.64995694,0.7527299,-0.68373364,0.63113576,-0.4867748,-0.27969337,0.4041623,-0.1573872,-0.043828525,-0.27295116,-0.67061746,-0.32930076,-0.8872453,0.30034497,0.08820349,-0.06077975,0.57818776,-0.80762804,-0.3029245,-0.07858965,-0.25278497,-0.24082653,0.056620665,0.8572176,0.0058895834,0.70276487,-0.39692244,0.7428717,-0.5414988,-0.42214003,-0.24623765,0.6264394,0.49082848,0.51592284,0.6864755,-0.37208453
0.37454128,-0.40120602,0.30785605,-0.24230021,0.17009167,-0.04112004,-0.62603813,-0.65925694,-0.036655646,0.7493178,-0.67413247,-0.7016847,0.053183064,-0.76644856,0.5440159,0.09555574,0.81608075,0.58397007,0.7273562,0.36927345,-0.66244847,-0.6656722,0.5278404,0.83144563,0.6982492,0.21551365,-0.41991583,0.40655327,-0.63908094,-0.30381882,-0.44310585,0.6746926,0.6368636,-0.4332591,0.1958096,0.018817866,0.13197897,0.53044224,0.12457973,-0.7364079,0.10515807,-0.43261066,0.22370826,-0.12946211,0.41123682,0.8099862,-0.53139424,-0.82889223,0.015237816,0.35171464,0.072913036,0.7911932,0.50951344,0.3813403,0.08432082,0.37410712,0.28653193,-0.61334586,-0.8203963,-0.7088392,-0.389493,-0.13147077,0.65571654,-0.37398303,-0.3945239,0.07840981,0.8101442,-0.8550984,-0.33375853,0.28561112,0.39303526,-0.04694333,0.13104855,0.58178383,-0.12872021,-0.62180763,-0.64007884,-0.07092686,0.50356245,0.7524965,-0.86495394,-0.47095004,-0.39953047,-0.23761365,-0.47817704,0.3271254,0.5682032,0.24880911,-0.25550404,0.81219065,-0.37454867,0.5869412,0.74047434,-0.52115697,-0.21199436,-0.3264552,-0.11424581,0.31221396,-0.22992823,-0.53327155,-0.37352484,-0.33150542,0.13989118,-0.54011875,-0.55414563,0.09408675,0.7515784,0.30211467,0.8533017,-0.30586928,-0.63330233,-0.03370215,0.7855916,0.55322635,-0.8374493,-0.42975143,-0.7846588,0.3235817,0.3232854,0.67882305,-0.3931229,0.4974986,-0.01991531,0.3669143,0.56408685,-0.22687884,0.8886572,-0.6986758
-0.8680309,0.3916998,-0.59025264,0.2472509,0.4039047,-0.3292235,-0.103542544,-0.15460415,0.48260927,0.2335856,-0.090241924,-0.039444044,-0.8434652,-0.6678228,-0.60697746,-0.018123101,0.15575773,0.110711135,0.003266775,0.08883249,-0.6169068,0.6253733,0.1589853,0.33100614,0.64897877,-0.8400043,0.53598,-0.24258353,0.03448191,-0.8146638,-0.5179568,-0.73648673,-0.35360852,-0.6192331,-0.6145329,0.24478431,0.855523,0.7737952,-0.6990634,0.19050546,-0.5137941,-0.29400483,0.72223324,0.07844239,-0.85645545,0.33607015,-0.68012166,-0.8151172,0.3854191,0.1624705,0.22666213,-0.57734215,-0.637342,-0.7430963,0.35622662,0.09377313,0.5934184,0.7794194,0.6899133,0.5045621,-0.15090927,0.82848847,0.61380756,-0.54415405,0.63132334,-0.80455464,0.1458506,0.2335548,-0.7126345,0.6742221,0.42590836,-0.37846756,0.16250545,-0.37414065,-0.03705541,0.30997357,-0.2331287,-0.16729715,-0.63764095,0.6447463,-0.6509316,0.720568,0.5880519,0.73948926,0.26167125,-0.4556899,0.67430896,0.16299099,0.5374661,0.5632687,-0.7094723,0.14175768,0.86489767,-0.20734197,0.8717386,0.77932787,-0.5588837,-0.07677288,-0.72891974,0.3206521,-0.28512454,0.51326454,0.3305843,0.8763748,0.073607914,0.28572252,-0.45723844,0.6232401,-0.3803843,0.07034578,0.56453586,0.2068128,-0.7726582,0.44755518,-0.13491094,0.31610897,-0.3257042,0.5324438,0.36713588,-0.5693612,0.7156352,0.84884965,-0.051071566,-0.79512817,-0.5384057,-0.25386754,-0.63595015,-0.2528425
0.15779889,0.31244057,-0.3364924,-0.75909084,0.79438305,0.82586503,-0.7472991,-0.57464105,0.49654514,0.08180752,0.44642285,-0.7744817,-0.5791864,0.6480601,-0.86500835,0.5485615,-0.07965613,0.596056,0.33159712,-0.6517221,0.15768962,-0.8760768,0.3193037,0.3911901,-0.76565295,-0.12682071,0.45068642,-0.6651712,0.3503794,0.6479523,0.25300175,-0.52064794,-0.12947917,0.32147616,0.23471728,-0.62912035,0.27621087,0.069741726,-0.44204274,0.45381466,-0.59793776,0.88858277,0.21832496,0.73244435,-0.5107068,-0.4982045,-0.18914331,0.8731736,-0.0707117,0.01414255,0.2937864,-0.46622884,0.16626754,-0.015959326,-0.6541275,0.21665405,0.4287788,-0.5132143,-0.4997466,0.10352143,-0.43731597,0.8294747,0.7031072,-0.17200813,0.24737607,-0.016041834,0.7536898,-0.28145263,-0.73478246,-0.31512544,0.31032795,0.40396577,0.39169222,0.63570315,0.45706695,-0.82844126,-0.38493648,-0.34566176,0.52245444,0.4042549,-0.5383456,-0.41194656,0.6838801,0.14564878,0.5697292,0.5865522,0.5860982,-0.7806675,0.08546118,-0.6725002,-0.80345553,0.6823034,-0.3467901,-0.41334996,-0.14601192,0.44913968,0.28423503,0.6792173,-0.52949774,0.087593116,-0.09621297,-0.45932978,-0.04218335,-0.6598397,0.21900544,0.35140604,0.61145777,0.5608679,0.790033,0.4062817,0.75556403,-0.82510066,0.45399207,0.27137694,0.3017583,0.7304713,0.6802318,0.64980423,-0.243338,0.5780792,0.062331628,0.31925824,-0.3295377,-0.6739056,0.103882946,0.0020034066,0.21945763,0.5631346
-0.28471795,0.6522689,0.25820273,-0.8680935,-0.004564948,-0.14219932,-0.23349893,0.19676572,-0.625369,-0.6439217,-0.49308887,0.7826147,0.30457535,0.5746157,-0.0973138,0.6264925,-0.005111115,0.7795243,0.17917131,0.06850504,-0.44988585,0.21843733,-0.21488217,-0.3595735,0.18329582,-0.19430661,0.83747554,0.65395135,-0.6260102,0.23640291,-0.21119827,0.6440682,-0.069634035,-0.24230675,-0.75400054,0.717589,-0.032128982,-0.29202265,-0.8042566,-0.35824502,-0.11101651,0.55328923,0.52979577,0.62126285,-0.070118904,0.75381166,0.72783285,0.032360356,0.5724372,0.09576757,-0.46695104,-0.8648417,-0.6823885,-0.52130234,0.28636074,-0.07029697,0.47506103,0.51122546,-0.110092394,-0.81234473,-0.77912354,0.2318713,0.34296563,-0.7525152,-0.77849036,0.7351655,-0.6591866,-0.30633578,-0.21684608,0.11843704,0.1728893,-0.24440832,-0.6525192,-0.25465375,0.10360474,0.744695,-0.036371343,-0.22855552,-0.7425779,-0.56105417,0.09630657,0.23066372,-0.7588802,0.7956551,-0.6509322,-0.5307769,-0.43835902,-0.08267705,0.6707888,0.9307024,-0.6708887,0.8030882,0.77983266,0.29989198,0.7995879,0.7788028,0.124873735,-0.41288546,0.67536706,0.17836028,-0.012834228,0.015572991,0.0036495703,-0.06287388,0.547435,-0.5384404,-0.64787644,0.36714643,0.27356583,-0.49474335,-0.5385462,0.73015094,-0.50432485,0.71990645,0.7734714,-0.7180614,0.6394965,-0.6946764,-0.7016934,0.6391555,0.80988216,-0.60959744,0.6832056,0.5005627,0.45538697,-0.3579194,0.75246227,-0.25323054
-0.72402865,-0.68187886,-0.7413376,0.057479266,0.6385078,-0.79948324,-0.77473676,-0.55797786,0.6230687,0.25174722,0.34938478,-0.77756685,0.33035034,0.7110657,0.5500877,0.46145725,-0.87000436,0.79218215,0.5499491,-0.4302081,0.06015581,0.28895855,0.36839598,0.45281902,-0.35497552,-0.8501133,-0.55222905,0.8391245,0.4845082,0.7114086,0.903883,-0.47101644,-0.0067093023,-0.3830866,-0.6276078,0.61253905,0.5078908,-0.7103918,-0.49156818,0.54289675,0.3399061,-0.44017857,0.123601474,0.6153696,-0.6672431,0.1736637,-0.5422482,0.05144688,-0.8620716,0.26457584,-0.65862685,-0.8227832,0.4095702,0.10456355,0.6614061,0.62008446,-0.54286844,-0.26290932,-0.78167135,-0.78014714,0.21668379,-0.62864447,-0.18204474,0.23602124,-0.40878305,0.06554926,0.37158474,0.46085158,0.7141089,-0.022563841,0.7163368,-0.82044137,-0.7250672,-0.05415809,-0.082657926,-0.59454864,-0.04879879,-0.11465698,-0.120515235,0.31387436,0.85638803,-0.13249218,0.5422133,0.5749269,-0.8023529,-0.85348785,0.20353255,0.60241914,-0.5933428,0.7134751,-0.3861496,-0.8049641,0.5356982,-0.40692186,0.3103361,0.2984788,0.38927168,0.8287513,-0.015476466,0.08041687,-0.23728323,-0.13956085,0.22807404,-0.4801097,0.12213806,0.3393318,0.0049798517,0.7340523,-0.6296712,-0.04155023,-0.11639671,-0.16969717,0.19375795,0.57056844,0.3666643,-0.7367223,0.30931538,0.77853054,0.35659268,0.5802813,-0.8384673,0.55947876,0.17894264,-0.08252237,0.4175341,0.21231756,-0.009608914,-0.86688393
-0.3291118,0.81721413,-0.60987025,0.07312176,-0.2785932,-0.37050018,0.5599929,-0.89090735,0.8451987,-0.6077261,-0.1695034,0.42584297,0.86342263,-0.6258279,-0.4648762,-0.8968156,0.75562185,0.11970761,0.55780756,0.016500423,0.030187609,-0.007054488,-0.36130682,-0.70016426,-0.2441773,0.7323389,0.5227724,0.7022465,0.70516336,0.46811897,0.08652287,0.0145913055,-0.20390302,0.30111724,-0.13958165,0.69323015,-0.45716998,0.17779732,-0.5245663,0.47181928,0.15366818,-0.6679599,0.49962112,0.05279459,0.60703003,-0.11181143,0.24906085,0.53981245,0.8067421,-0.5305648,-0.39855132,0.7376991,-0.77046573,0.22599103,0.17287531,-0.43346924,0.46655625,-0.33674127,0.32906,0.23555164,-0.6207434,0.26449284,0.21545409,-0.3864652,-0.3372515,0.52276933,0.005014517,0.16537742,-0.26425976,0.8019738,-0.29756153,0.8487932,0.4630813,0.37058005,-0.08308492,-0.6715814,-0.6541788,-0.17172885,-0.5154035,0.546972,-0.35599333,-0.69388753,-0.32229215,-0.87699544,-0.3377396,0.74703735,0.75325364,-0.2118938,-0.31027955,0.40639538,-0.20790607,0.73501754,-0.012169773,-0.52203137,-0.6204715,0.5993434,0.097918615,-0.27926105,-0.33075577,-0.038460225,-0.47905716,-0.43143585,-0.6234313,-0.87721413,-0.17329712,-0.75576687,0.57942605,-0.45936406,-0.84328336,-0.046801116,-0.6347601,0.40602073,-0.2906836,-0.1563686,-0.20826939,0.22396907,-0.37622,-0.54111105,-0.7104207,0.21124788,-0.6545436,0.0668768,-0.17988166,0.35454425,-0.24503224,0.3511587,0.33859482,0.53699684
-0.73376083,-0.45094562,-0.53207064,0.51301974,0.66344047,-0.22952165,0.36290056,0.36478686,-0.3494573,0.13238971,-0.32808265,0.8827779,-0.43008438,0.8070617,0.35739273,-0.60612315,0.40175492,0.14475444,-0.6855565,0.064802945,0.3264599,-0.32523808,0.85437346,-0.23115662,0.627479,0.815123,0.8408841,0.7044495,-0.6926506,-0.39842743,-0.6238996,-0.0006894252,-0.007201153,0.01767958,0.14316045,0.84323794,0.8467854,-0.3753144,-0.7074243,-0.8305494,-0.2503426,0.39946407,0.063047305,0.4330284,0.80750936,0.009933058,0.74472135,0.5028337,0.2769052,0.16450404,-0.009721552,-0.4917669,-0.0012495847,-0.21242194,0.12311729,-0.15855896,0.24676794,0.09331051,0.31485888,-0.036512315,-0.18419741,0.43802324,-0.028695423,-0.38927573,-0.21756728,0.2811113,0.2620911,-0.15090552,0.23571351,0.7773975,0.56941295,-0.72113395,0.4194277,0.48492384,-0.7426692,0.027940858,-0.09137868,0.51616603,-0.28840882,0.07600265,0.8000942,0.3552133,0.012062416,0.8505345,0.31104192,0.20717269,0.381079,-0.67519236,0.21527825,-0.63602304,0.79571426,0.28444028,0.501346,-0.37431222,0.71966743,0.5857073,0.76896256,-0.5637669,0.37492537,0.36546993,0.028605128,0.8699423,-0.1034133,0.5956314,-0.42019176,0.66547215,-0.16775788,0.8681643,0.89152586,0.6062991,-0.7746199,-0.07283644,-0.5642465,-0.52721596,-0.22602198,-0.11705221,0.23422372,-0.07596528,0.17892721,-0.7596847,0.22619332,-0.7904992,0.70710826,0.7741416,-0.687508,0.49681577,-0.6938353,-0.825932
0.51757306,-0.28474298,-0.10724073,-0.089189544,0.4550399,0.6489761,0.15950193,0.8025498,0.41779646,-0.21590333,-0.6185125,-0.6176475,-0.61229295,0.2731844,0.83103275,-0.026762946,-0.86110437,0.70705914,0.028730603,-0.7007583,-0.16941795,-0.17287208,-0.41527584,0.61528146,0.062355116,-0.036780372,-0.86110514,-0.62614393,-0.47622427,-0.1620821,0.25158283,0.813031,-0.22994564,0.06026373,-0.6891231,0.14811045,0.33687767,-0.6496608,0.1940721,-0.8515635,-0.58182853,0.32392773,0.85855496,0.10321282,-0.80236393,0.45280945,-0.3867871,-0.39406663,-0.009423108,0.0062076766,-0.656627,0.7043296,-0.8638153,-0.82275766,0.23655675,-0.7175708,-0.7329539,0.8830215,0.06754358,-0.09482687,-0.50770265,0.27956113,-0.87648016,0.7322284,-0.11402351,0.46919534,-0.73139757,0.49426946,-0.40813318,-0.56767356,0.8733813,0.75132185,-0.0102149,-0.47541988,-0.82423526,-0.30721852,0.38806835,-0.13576414,0.11847437,-0.72307044,-0.7357317,0.38141808,-0.027218431,-0.15421805,0.18603885,-0.39201182,-0.5800331,0.17860627,-0.13906288,-0.69166535,-0.6160651,-0.0034794628,-0.14364152,-0.75710684,0.79930884,-0.08632952,0.19288136,0.71183634,-0.8571969,-0.4213472,0.27881798,0.7092004,0.65586734,0.3644554,-0.7359666,0.06024404,0.85024333,0.7198465,-0.73021483,-0.3973273,0.3479955,-0.8030209,-0.3430079,-0.29185656,-0.78438276,0.09180351,-0.65101075,-0.35807198,-0.39400074,0.73763835,0.5953434,-0.30727217,-0.8419066,-0.5286206,0.11711274,-0.31058896,0.4216341,-0.25946766
-0.45405957,-0.31915423,0.61403257,-0.45702463,0.06535195,0.57897264,0.5752519,0.47076857,-0.39970264,0.8272932,0.6513872,0.5831027,0.7974766,-0.03817965,0.33551466,0.48788145,0.2900159,-0.81578743,0.571272,-0.18644953,0.40291935,0.05135276,0.32176974,-0.3257479,-0.6111475,-0.8423625,0.2670139,0.41071135,0.44136065,-0.6335366,-0.46911362,-0.17223082,-0.22577263,0.6882258,0.08437721,-0.37468135,0.007935914,-0.10471941,-0.444532,0.16851832,-0.29725823,-0.0584287,-0.08538823,0.38233715,0.34034756,0.6663758,-0.53615636,-0.5246176,0.3092731,0.8357195,0.5914389,-0.6091951,0.22870934,-0.4074424,0.75227046,0.36298206,-0.1160309,-0.70977485,-0.6615081,-0.5893511,-0.057005886,-0.55046046,-0.83394927,-0.09239238,0.6075513,-0.05951222,0.23871905,0.53865296,0.27719098,0.5046772,-0.69658214,-0.0060113687,-0.38642353,-0.3558359,-0.83940077,0.4113925,-0.8034634,-0.7245628,-0.39701182,0.077534474,-0.020682268,-0.178415,-0.24698286,-0.07615138,-0.3394455,0.11597915,0.59844846,0.24840377,-0.2688787,0.3915272,0.14631045,-0.81145746,0.88615376,-0.7839676,-0.18980879,-0.3613482,-0.52318734,0.017637515,0.018286398,0.25870162,-0.019975325,0.46051848,-0.0017385292,-0.2297132,-0.40881562,-0.3391374,0.50961137,-0.531987,-0.12908469,-0.77847993,-0.6821146,0.22060211,-0.1854564,-0.13308828,0.6809,-0.4531899,-0.075165756,-0.41394186,-0.40868503,-0.5446145,0.039480705,0.289804,0.29169112,-0.5481942,-0.22811495,-0.18072914,0.56243354,0.10332966
0.35875875,0.32505536,-0.007864353,-0.15422747,-0.09213234,-0.020990541,-0.023671579,0.4251586,-0.84086376,0.70871264,-0.5603956,0.45070738,-0.19352172,0.8466953,-0.5560372,-0.30463746,-0.49516997,-0.025801107,-0.56367207,0.86975557,-0.4090487,0.8490535,0.8250164,0.50464416,-0.06903502,-0.2045945,0.7899736,0.83350694,0.46180543,0.40810934,-0.077241585,0.08362854,-0.7093619,-0.30029497,-0.7373617,0.108908944,0.6376495,-0.014540573,-0.630777,0.702018,0.42197272,-0.79072773,0.6703736,0.33266237,-0.041902434,0.7612969,0.8538002,0.29979602,-0.25205278,-0.5915634,-0.5900085,-0.63099825,0.21704173,-0.8938182,0.24411233,0.59205747,-0.7248058,-0.118730076,0.5702157,-0.22510119,0.038340673,0.3425187,0.6523536,-0.8745849,0.5432206,-0.1708642,0.34401077,-0.7773874,-0.0033728178,0.18779257,0.38113934,-0.41925767,-0.54896295,0.4792426,0.39997935,-0.5826963,-0.7079155,0.2995411,0.032586053,0.26310763,0.5879755,-0.69936943,-0.19726157,0.30035245,0.8425624,-0.33239716,-0.18407257,0.123345055,-0.66476643,0.90882546,-0.44807005,-0.02213808,0.28436366,0.44013855,-0.5749756,0.59560543,0.104927786,-0.025877586,-0.47061917,0.5881179,0.53704077,0.36376402,-0.19120024,0.8245199,-0.13482767,0.2876326,0.1627261,0.47242785,0.28095293,0.524366,-0.63896716,0.8884598,0.3204233,0.3064091,-0.73826855,0.06920742,-0.5473143,0.80962354,-0.47247446,-0.6297834,0.27914706,-0.10504076,-0.36349708,0.5912776,0.1671179,0.052336507,-0.76251954,0.30887046
-0.7813169,0.12806925,0.7578518,-0.1718438,0.33237687,0.8213685,-0.319325,0.65560514,-0.58527607,-0.72840303,-0.83528084,0.14502615,-0.508767,0.35313216,-0.24284627,-0.07644854,0.22562735,-0.8254251,0.23403929,0.38298276,0.8690117,-0.5964473,-0.6344686,-0.11028974,-0.46433464,0.39504552,-0.65261114,0.52157086,0.2889128,-0.31006393,-0.2080494,-0.6400329,-0.43618724,-0.13460167,-0.017243221,0.44673762,-0.46249747,0.2991354,-0.6521599,-0.78758794,-0.64598674,0.017142171,-0.6015446,0.2834057,0.063737884,0.27721763,-0.1530379,0.47337696,-0.7000041,-0.32158527,-0.34029195,-0.41418788,0.1922904,-0.7236603,-0.18278329,0.30500984,-0.63627297,-0.8242501,-0.46451834,0.27783492,-0.5067156,-0.2082364,0.36349714,-0.25818723,0.2932781,-0.67876357,-0.39628994,0.8741176,-0.07545887,-0.51852673,0.3387673,-0.06560703,-0.28204006,0.05028695,-0.4397167,0.49603018,0.042685285,0.42597413,-0.22846189,0.24274637,0.47418636,-0.3106714,-0.80701137,0.19795598,0.618466,0.051875465,-0.33798116,0.7040327,-0.39136067,0.5528928,-0.6481605,0.502942,0.8696539,0.27103093,0.2813784,0.66972345,0.07407079,-0.6170525,0.49037126,0.07620926,0.47904003,0.36041203,-0.5533969,0.4158391,-0.22723691,-0.0221795,-0.616348,-0.44302586,0.3467775,0.64861524,0.78018063,0.3734967,-0.16458794,0.01171195,-0.73652047,0.23098755,0.6201678,-0.65710723,-0.3766643,0.6029007,0.7532525,0.4939119,-0.4472843,0.19985083,0.39042896,-0.13621332,-0.68415856,0.65251833
-0.74585336,-0.32474747,-0.49082384,0.8430002,0.0068097515,0.73461217,0.7394516,0.27174965,0.60647666,0.026722858,0.11446511,0.17859167,-0.6232796,-0.6451751,-0.87529033,-0.12948494,0.69852436,-0.7854462,0.050497565,-0.12760113,0.36192092,-0.6483336,-0.29198778,-0.56127465,0.7426754,-0.08519756,-0.85332054,-0.09080661,0.20867577,0.16541666,0.8552387,-0.2468855,0.832847,-0.38475266,0.632227,0.36955908,0.6180077,-0.5956637,-0.034945782,0.379157,0.2779417,-0.7731345,-0.39659205,0.12882206,-0.7989926,0.1165215,0.6230905,-0.014210405,0.67317,0.52925277,-0.50918865,0.20078696,0.5609307,-0.6712295,-0.7784796,0.65880257,-0.054712545,0.34855008,0.0880883,0.7688675,-0.62006557,0.30744082,0.62209135,-0.5081753,-0.87492967,0.15542495,-0.19575301,0.48927352,-0.8021226,-0.4834792,0.68229294,-0.4261935,0.7382416,0.47445402,0.13740593,0.3092596,0.08472557,0.4540244,0.70821875,0.60957694,-0.57190484,0.45724747,-0.48676375,0.82388645,0.7284322,-0.2751506,0.2176573,-0.4493284,-0.026554365,0.30669048,0.8026482,-0.8590526,-0.19919269,-0.226587,0.419789,0.3252833,0.40301922,-0.65046954,0.22503006,-0.86698776,0.45059487,0.5014387,0.80486006,0.00047126552,-0.13458127,-0.46910146,-0.45878503,0.2990952,0.12081029,-0.7724227,-0.48326787,-0.37228003,0.6132823,0.43627813,0.050549034,0.7306262,0.21930511,-0.8620589,0.13709858,-0.19200887,-0.76144415,-0.15852629,0.7385145,0.13035797,-0.61408156,0.31650275,0.6466401,-0.8274703
-0.60167205,0.5124277,0.82036686,0.16048421,-0.060697928,0.22549966,-0.43887824,0.4677416,-0.8106998,0.56536394,-0.42882103,-0.8640829,0.6665689,0.6227151,0.60248476,0.38773626,0.60635316,-0.11673341,-0.042161167,-0.6519012,-0.48608324,-0.6654857,-0.15255746,-0.31369463,-0.8793305,0.20793352,0.26981282,0.36319178,0.30083075,0.04617902,-0.6621946,-0.61449325,-0.0097984,-0.74041235,-0.84984785,0.23968267,-0.44632262,-0.8816279,-0.62791234,-0.3494225,-0.22295982,-0.071753055,-0.1631607,-0.70257753,-0.8588883,0.65223616,0.4533748,-0.1321101,-0.5015982,0.7387148,-0.8607741,-0.41242522,0.79298806,0.5906155,0.59408784,0.20184715,-0.59124005,-0.6393728,0.81635976,-0.18719704,0.69273967,0.76648796,-0.7239372,0.8538772,0.86380976,0.6512817,-0.6667759,0.052117564,-0.17924365,0.5661397,-0.7259258,0.81198364,-0.09662149,-0.51601315,0.4054356,0.43398535,-0.2868411,-0.044579722,-0.516146,0.19976577,0.22875673,0.23970577,-0.5393913,0.5722656,0.2359605,0.8383137,0.80145603,-0.014380141,-0.6514857,0.1910964,-0.39839664,-0.8273795,-0.25268126,0.5709932,-0.09994149,7.172625e-05,-0.02333254,0.61362624,-0.25327522,0.009114984,-0.20392168,-0.8044422,0.05372854,-0.11199421,-0.2058477,0.049200065,0.5301584,0.87907803,-0.47848737,-0.20673059,-0.00039788394,0.6159212,0.3203031,0.28361177,0.75744873,0.32253787,-0.14499155,-0.09229438,0.81733555,-0.1027859,0.5468538,0.5620354,0.21362002,-0.117134854,-0.51623344,0.26788872,-0.04853881,0.35992336
0.45780018,0.5270542,-0.2791581,0.61514866,-0.2379195,-0.67066574,-0.8195201,0.796843,-0.01366016,0.6350904,-0.21463004,-0.5497516,-0.4485474,-0.8025894,0.60660887,0.38633397,0.8438391,0.3456901,-0.20391619,0.75239253,0.041175637,0.3269028,0.18897174,-0.06997142,-0.13986066,0.25849035,0.38445944,-0.21579954,-0.17276312,0.66065466,-0.6491887,-0.462675,0.111263335,0.20321743,0.5463663,-0.4012389,0.68759346,0.81551516,0.82477176,0.80797565,0.063941844,-0.14347403,0.34372658,-0.5124378,-0.3997312,-0.38027093,-0.59088665,0.8301393,-0.0337205,-0.327076,-0.34459534,0.28316087,0.18099168,-0.080396086,0.4958365,-0.456275,-0.01599653,-0.38581416,-0.7982473,0.31567726,0.22694024,-0.5506963,0.78911376,-0.3423163,0.25587082,0.6734068,-0.4079736,0.6329987,0.62697124,0.26237032,0.26851988,0.36407617,-0.364998,0.60353863,0.46754017,-0.52234524,-0.26560065,0.6890469,-0.41010135,0.7696525,0.79265964,-0.10856701,0.71780926,0.76392114,-0.11206851,0.049861807,0.29248813,-0.66106343,-0.70897114,0.4467383,0.6784811,0.4621139,0.31123206,0.3146006,0.21311352,0.59538263,-0.57511896,0.23256199,-0.54915565,-0.5181901,0.5253122,-0.3586071,-0.8158792,-0.72850966,0.1022444,-0.4997767,-0.27370873,-0.7222656,-0.60082006,0.20254657,-0.7781296,0.3656114,0.7375912,0.2658848,0.00577056,0.4498558,0.4920933,0.5136316,0.33740464,-0.39782897,0.4631922,0.69539297,-0.5646285,-0.77476656,-0.5293545,0.6565058,-0.002679505,-0.5516945
0.13011505,-0.661033,-0.35536027,0.7380041,-0.54628533,0.11799403,0.7004146,-0.14397924,0.23372993,0.8324358,0.089349635,0.2140682,-0.11004093,-0.016382433,0.06364981,0.3383569,0.15335923,0.50292355,0.8294858,-0.2716094,0.24773256,-0.6357109,-0.18107,0.62870806,-0.76266265,0.2412525,0.7418386,-0.7489572,0.6519037,0.43753606,-0.59311014,-0.80364305,0.5768575,0.7147768,-0.7171483,0.37734792,0.21869828,0.6242823,-0.43966922,0.8803751,-0.3842807,-0.2539977,0.19206464,0.76826423,0.29012927,0.51868933,-0.25713715,-0.46516225,-0.06927576,0.7748754,0.6045123,0.098381735,0.69920856,0.85603184,0.19448265,0.8346633,-0.38071764,0.7700926,0.2925769,-0.79272777,0.28805143,0.78801954,0.10213866,-0.20872954,-0.061199404,-0.84912366,0.25242493,-0.078862876,0.1803405,-0.59490395,0.34006456,-0.06346098,0.5148544,-0.8002411,0.13209517,0.73621076,-0.09073491,-0.27763602,0.03838993,0.5413583,-0.15176871,-0.16958697,0.18460523,-0.37154663,0.27696392,0.21637757,0.23148923,-0.54091454,-0.4511335,0.21603192,0.15713863,0.5589329,-0.8368532,0.43086588,-0.12065087,0.022108598,0.56430256,-0.587134,-0.7141869,0.833863,-0.3531629,-0.50852144,-0.7228616,0.2916897,-0.13167149,0.3254258,-0.16713089,-0.34438214,0.28113517,-0.516313,0.6402089,-0.5968507,-0.7763481,-0.79755497,-0.63923335,0.74132264,-0.4857407,-0.011938444,-0.7631313,0.052075956,0.62530863,-0.32455105,0.80362856,0.49661356,-0.64,0.18573886,-0.20603089,-0.52178967
-0.56497306,-0.5357908,0.5474899,-0.09246642,-0.31680584,0.042666078,-0.11554012,0.6102609,-0.33546314,-0.75671834,0.70606345,-0.59849846,-0.36790693,0.34293818,-0.3224864,0.54040843,0.13226381,0.049105477,0.13626951,-0.17065252,0.41055375,-0.5577318,0.60693806,-0.75941724,-0.4147076,0.029818565,-0.78306484,-0.8370655,0.1322809,-0.32428804,0.03261396,-0.72266555,-0.553857,0.2910842,-0.588791,0.71784717,0.40862405,0.6356977,-0.5338274,-0.48739892,-0.4530625,-0.57790905,-0.7234626,0.6966989,-0.4966877,0.21048924,-0.72200096,-0.42079064,0.5382177,-0.7136875,-0.08871523,0.23821923,-0.36091632,-0.65282273,-0.8272735,0.48904416,-0.2601507,0.25182435,-0.08374002,0.28438756,-0.818157,0.19889921,0.18685333,0.23067574,0.030152334,0.29301685,0.18557416,0.071527705,-0.12153456,-0.38910246,-0.10564842,0.6171669,0.66386116,-0.4831164,0.41279876,-0.34157747,-0.8762281,-0.38687694,-0.21934305,-0.1425567,0.43918,0.64926475,-0.48068428,-0.55855155,-0.5218825,-0.09150377,0.5332096,0.6509252,-0.725059,-0.8687011,0.63270736,0.7300329,0.5025666,0.43649915,-0.31247053,0.19352281,-0.25814673,-0.36905733,-0.40572602,0.6722558,-0.8226939,-0.54190904,-0.64912003,0.39279822,0.6476266,-0.09262553,0.044458274,0.87658995,0.8082179,0.68449146,-0.100115806,0.84545493,-0.54191756,0.42073682,-0.7447002,0.5067635,0.76667166,-0.30577517,0.75158244,0.5173682,0.34677783,0.72980666,-0.15507516,0.14629923,0.60265887,-0.20830436,-0.5513306,-0.5408899
-0.2490048,0.1416528,0.60805315,0.0915142,0.24870308,-0.2302781,-0.6930728,0.8449281,-0.45593184,-0.56815964,0.50665253,0.25123918,-0.49745923,-0.3871426,-0.14089827,-0.2812516,-0.90718645,0.2538879,-0.08359064,0.23959303,-0.008606762,0.6795425,0.61636496,0.37157702,0.5364582,0.76132303,0.027195886,-0.1256842,-0.54439235,-0.32161444,-0.12876676,0.7724514,0.6161798,0.43341622,0.66193306,0.58411443,0.020657595,0.68529075,-0.15316397,0.6388463,0.14963564,-0.19339833,0.167202,-0.8626926,-0.0083118575,0.04712393,-0.47871017,-0.05770604,0.7933907,-0.29333532,-0.5859613,0.880674,-0.75203276,0.9831164,0.4062177,0.60896236,0.71049833,-0.13544437,0.6728121,0.36166707,-0.34663552,-0.6400397,0.4312263,0.34318,-0.49116507,-0.66308373,0.37563393,0.2598892,0.6133015,0.87054735,-0.483749,-0.7767165,-0.6627912,-0.027452432,0.22990766,-0.20630458,-0.23981638,-0.27236953,-0.097573966,0.70029855,0.6186452,0.38383803,-0.6533229,-0.6173527,0.41760427,-0.51744443,0.80169415,0.67362124,-0.24193572,0.14287013,0.41986343,0.68570143,0.8269113,0.2152985,-0.44826564,-0.6680477,0.8489786,0.048819616,-0.10499413,0.4859347,-0.8422846,-0.2651033,0.1378776,0.596376,0.64548904,-0.93584234,-0.73264086,-0.2761178,-0.71028703,-0.47277758,-0.4314688,-0.7091734,0.11569032,-0.2772057,-0.13581434,0.032302134,-0.40060508,0.08182229,-0.16335785,-0.73385715,0.9903899,0.23304138,-0.41204926,0.56803954,-0.8098877,0.7504189,0.12956345,0.65352887
