0
-0.84107196
0.54494
-0.4696162
0.82196885
-0.15353493
-0.36177054
-0.7792193
-0.12218058
-0.5257954
0.45423055
-0.66660637
-0.2508475
0.3674454
0.4626789
-0.054487437
-0.67060006
-0.68816334
0.5513861
0.827328
0.48163122
0.66380775
0.56136197
0.07986076
-0.7951416
0.01271382
0.33102
0.20113498
0.3258726
0.13440914
-0.5949343
-0.57165885
-0.54529244
-0.8720511
-0.74220824
0.0053063035
0.7861457
0.591233
0.4483909
-0.26073897
0.4442131
-0.4497583
0.8591769
0.55150265
-0.0012809783
0.8433371
-0.32145813
0.29110873
0.30993992
0.65034384
-0.23170628
0.06386183
-0.074706
-0.7588622
-0.6601289
0.33214256
-0.63002646
-0.8376471
-0.32510352
-0.8744676
0.49599135
0.24193354
0.8821761
-0.69862735
-0.56914735
-0.027986988
0.18294811
-0.8387028
-0.50277954
0.7529805
-0.52706194
0.058066547
0.36080644
-0.7634059
0.08346364
0.058217794
0.46443617
-0.49074823
0.7640832
0.37341112
0.82895374
0.55921143
0.6481143
0.6816205
-0.35434943
0.6991423
-0.23688994
-0.2696293
-0.49347553
0.24701118
-0.16763106
0.017961115
-0.37791792
-0.825265
0.17171815
0.79371667
0.40619725
0.42749172
0.48190212
-0.81880355
-0.7385932
0.35362005
0.68149155
-0.64980507
0.54479086
0.36795056
-0.6802103
-0.7497827
-0.5979146
0.43461597
-0.4157659
0.45849717
-0.6108037
0.59831744
-0.31203154
-0.15945189
0.046593472
-0.24482079
-0.65294117
0.4483583
-0.21089554
-0.81242085
-0.6194248
0.17559655
-0.51962036
-0.26167154
0.6233027
0.01381509
-0.15947156
