0
-0.84941864
-0.010878295
-0.44277218
0.42030638
-0.7987416
0.9023184
0.5947552
-0.86803925
0.89473003
-0.90135217
0.47429258
-0.114206225
0.43996668
-0.54610515
-0.5922295
0.055363774
0.06773636
0.6534839
-0.810799
0.025258288
0.6388468
-0.797395
0.53752863
-0.49824727
0.68517154
0.7171037
0.24768233
-0.5468818
0.46440625
-0.37594783
-0.35975635
-0.06866768
0.014440641
0.4475177
-0.28377438
0.5743995
-0.3154719
-0.49981928
-0.33913052
-0.24992429
-0.9933171
0.5350805
-0.8827776
0.9756375
0.7296919
0.8906043
-0.12842514
0.28156823
0.7179553
-0.14424883
0.8159738
-0.09516895
-0.9458399
-0.5245404
-0.9222046
0.10413587
0.26871318
0.07197797
-0.90972364
-0.73666215
0.6153113
-0.34048414
0.64235294
0.074798465
-0.9887434
0.19067645
-0.5913359
0.5732309
0.8780978
-0.09984873
-0.41348588
0.2808025
-0.20846106
-0.6371976
0.8631939
0.6702507
-0.5868763
-0.7370738
0.12219533
-0.5895395
-0.8733391
0.38720167
-0.8647568
0.46969092
-0.35392022
-0.48881269
0.13812006
0.031789765
0.3279304
0.8937148
-0.32625332
0.19706085
0.5882514
-0.2303876
0.89757466
0.3248232
0.46411312
0.59972084
0.0019615889
0.6460861
0.14775142
0.9674532
-0.1421772
0.33799583
-0.3272444
-0.00076808035
-0.7763002
-0.43544364
-0.9556284
-0.8165617
-0.75254285
-0.43047106
0.37984514
0.73281014
0.61410195
-0.17495468
-0.5834265
-0.7411119
-0.10415867
0.518857
0.21618009
0.6630594
-0.6312002
-0.22331849
0.22019312
0.15070044
-0.34109092
0.20364627
