0
0.5442348
0.06546371
-0.15225561
0.5134214
0.90922385
0.6160037
-0.025661133
0.10517915
0.9676905
0.56970316
0.8972423
-0.4994634
0.08088899
0.6490993
0.095444426
-0.5389263
0.8673081
-0.39962572
0.11287084
-0.5553233
-0.32116878
-0.20443296
0.013313322
-0.15155858
0.48146072
-0.08343306
-0.7370559
0.600917
-0.36578855
-0.31057113
-0.60460424
0.8044668
-0.36748746
-0.55763906
-0.29809308
0.06236356
-0.19023108
0.8789837
0.015909562
-0.89973456
0.19874178
-0.5688188
-0.15566458
0.02493922
0.8698821
0.78691363
0.21781619
0.12373501
0.6288365
-0.8317355
-0.67969894
-0.8687656
-0.9704374
0.8919475
-0.4017137
0.032948952
-0.42967573
0.63979495
0.8069745
-0.5832558
-0.3311442
-0.80762583
-0.6324237
-0.873521
0.063697726
-0.3168141
0.72536117
-0.11764006
-0.31746745
-0.06073281
0.87749577
-0.5420812
-0.23316897
1.0241008
-0.9628311
-0.28760114
0.4935607
0.5399006
-0.4128218
-0.59140265
0.75620836
-0.45684993
-0.0007886815
-0.5526143
-0.10119517
0.18521863
-0.020052778
0.23170331
0.7058655
-0.68419397
0.6563674
-0.14789344
0.41254076
-0.35166588
-0.5520427
-0.79734147
0.17579246
-0.5172386
-0.39531052
0.02435937
0.2007587
0.85360384
0.5081713
-0.5881675
-0.19363345
0.070475474
-0.7205503
-0.5651196
-0.49025682
-0.30453888
-0.97188205
-0.4353657
-0.010766361
-0.24321343
-0.38254747
-0.44933376
0.8516546
0.66485846
-0.81567794
-0.9095126
0.6259534
-0.6687593
0.74358255
-0.17532995
-0.13194837
0.3721385
-0.5547364
0.9541509
