0,1,2,3,4,5,6,7,8,9,10,11,12,13,14,15,16,17,18,19,20,21,22,23,24,25,26,27,28,29,30,31,32,33,34,35,36,37,38,39,40,41,42,43,44,45,46,47,48,49,50,51,52,53,54,55,56,57,58,59,60,61,62,63,64,65,66,67,68,69,70,71,72,73,74,75,76,77,78,79,80,81,82,83,84,85,86,87,88,89,90,91,92,93,94,95,96,97,98,99,100,101,102,103,104,105,106,107,108,109,110,111,112,113,114,115,116,117,118,119,120,121,122,123,124,125,126,127,128,129,130,131,132,133,134,135,136,137,138,139,140,141,142,143,144,145,146,147,148,149,150,151,152,153,154,155,156,157,158,159,160,161,162,163,164,165,166,167,168,169,170,171,172,173,174,175,176,177,178,179,180,181,182,183,184,185,186,187,188,189,190,191,192,193,194,195,196,197,198,199,200,201,202,203,204,205,206,207,208,209,210,211,212,213,214,215,216,217,218,219,220,221,222,223,224,225,226,227,228,229,230,231,232,233,234,235,236,237,238,239,240,241,242,243,244,245,246,247,248,249,250,251,252,253,254,255,256,257,258,259,260,261,262,263,264,265,266,267,268,269,270,271,272,273,274,275,276,277,278,279,280,281,282,283,284,285,286,287,288,289,290,291,292,293,294,295,296,297,298,299,300,301,302,303,304,305,306,307,308,309,310,311,312,313,314,315,316,317,318,319,320,321,322,323,324,325,326,327,328,329,330,331,332,333,334,335,336,337,338,339,340,341,342,343,344,345,346,347,348,349,350,351,352,353,354,355,356,357,358,359,360,361,362,363,364,365,366,367,368,369,370,371,372,373,374,375,376,377,378,379,380,381,382,383,384,385,386,387,388,389,390,391,392,393,394,395,396,397,398,399,400,401,402,403,404,405,406,407,408,409,410,411,412,413,414,415,416,417,418,419,420,421,422,423,424,425,426,427,428,429,430,431,432,433,434,435,436,437,438,439,440,441,442,443,444,445,446,447,448,449,450,451,452,453,454,455,456,457,458,459,460,461,462,463,464,465,466,467,468,469,470,471,472,473,474,475,476,477,478,479,480,481,482,483,484,485,486,487,488,489,490,491,492,493,494,495,496,497,498,499,500,501,502,503,504,505,506,507,508,509,510,511
-0.025637168,0.0009871125,-0.017373737,0.03750935,0.036068548,-0.0418761,0.021468211,0.03869271,0.040518735,0.03578471,0.025384877,-0.011496123,0.013083681,0.043020207,-0.0013111942,-0.024554063,0.003709644,0.03529359,0.0051547587,0.017059188,-0.042912133,-0.0012508929,-0.002029311,0.016542807,0.009594493,-0.03578648,0.0131297745,-0.03345038,0.04172052,-0.00017454103,-0.0014073737,-0.0351087,-0.003171172,0.0038059652,-0.015474131,0.038211014,0.04344308,-0.024490517,-0.02647716,0.00828309,-0.024987407,0.0002805516,-0.039017417,-0.016431328,-0.03946606,-0.04028147,-0.00059557334,0.020949487,-0.0049186796,-0.0030976608,0.0181005,-0.011775687,-0.012171835,-0.02657913,0.0023254901,0.029434364,0.022385795,0.004715383,-0.01324638,-0.007607937,0.023652714,0.021686759,-0.037440736,-0.023498142,-0.013785191,0.0097903125,-0.02697001,-0.01623281,-0.043640267,-0.027628954,0.036380943,0.01563304,0.018399294,0.018230233,-0.0063311085,-0.01320692,0.00037065148,-0.025826197,-0.04290967,0.018015813,-0.013406428,-0.037250333,-0.03243085,-0.019493533,0.013896529,-0.0332281,-0.016772285,0.036347624,-0.037285373,0.000373438,0.021131206,0.043266404,0.007869452,0.025340613,-0.042622656,0.013857942,0.0015986152,0.014634993,0.030201454,0.012664322,-0.0075420365,0.028197039,0.0008760914,0.017109714,-0.03929044,0.027913485,0.01871134,-0.026140423,-0.039520103,0.0005855262,-0.01255592,0.018876571,-0.027203515,-0.008919191,-0.0073376335,0.024665605,-0.02467365,-0.0029141083,0.032481235,-0.025805794,-0.003488142,0.008140881,-0.011033993,-0.042833053,0.013405643,-0.041964013,0.031804223,0.0397599,-0.0010609142,-0.04346572,-0.005789835,0.023165148,-0.03683494,0.04128932,0.023384463,0.028835561,0.01702502,0.020580512,0.0017371029,-0.014885813,0.0066527575,0.019060273,0.008819059,0.0044470616,-0.031616986,0.0340632,-0.027336424,0.03960434,-0.0013038293,-0.043655682,-0.02280331,-0.016202888,0.018144947,0.04270884,-0.0239766,-0.0416467,-0.017697051,-0.0240897,0.032046605,-0.016399048,-0.023607835,-0.022951113,-3.349036e-05,0.03512377,-0.031353943,0.004291378,-0.015793283,-0.011786155,0.03420083,-0.015833464,0.033864636,-0.018106818,-0.03302172,-0.0034081414,-0.0064951666,-0.0061443187,0.0028328039,0.004553087,-0.041138157,-0.009038359,-0.03685999,0.038342465,-0.039400592,-0.02872847,-0.01130791,-0.011751272,-0.023013348,0.03983259,-0.029894184,-0.03013093,-0.0009993277,-0.015296314,-0.042918414,-0.03336463,0.034657557,0.033844274,-0.030967724,-0.017877396,-0.034027062,0.0138330795,-0.035200078,-0.014526138,0.00394924,0.015874133,-0.017759064,-0.03379871,-0.04253841,-0.014390988,-0.042650398,0.032170165,-0.019994069,0.0069506094,0.03142033,-0.019448109,0.03994729,-0.032385506,0.008149281,-0.021949777,-0.029021699,0.029542048,-0.03706701,-0.02641974,-0.01497368,-0.008882724,-0.029497104,0.010314625,0.044117484,0.009289183,-0.02714403,0.008802459,-0.006435264,0.014362805,-0.040901847,-0.026545607,0.015430141,0.018251166,0.011950355,-0.005654238,0.0016460121,0.032755937,-0.03653732,-0.027355248,-0.0418845,-0.020263847,-0.036191523,0.021404807,-0.007531062,0.0154009275,-0.030658228,-0.028588412,0.043717805,-0.014374815,0.010205306,-0.03317282,0.032371502,0.01180806,0.033366088,0.022077907,0.010029759,0.017075315,-0.03509526,-0.017120145,0.020283636,-0.002120424,-0.011572361,0.043002617,0.041820806,0.024845462,-0.04269086,-0.006576661,0.024523523,0.023188222,-0.032340903,0.008246973,0.0031262785,-0.01689646,-0.040670354,0.03441077,0.041602682,-0.04403078,0.02939945,-0.031272255,0.0069074407,-0.039656706,0.028442819,0.019133043,0.0049033538,0.0042778514,0.0116424225,-0.0063611455,-0.02184555,0.007941619,-0.018443191,-0.015434429,0.042117763,-0.024627114,0.024809156,0.016281623,0.0028451644,-0.0036537275,-0.023572337,0.035021078,0.03093635,0.00795576,-0.0052032806,0.02361973,0.028964866,-0.01535153,0.036030684,-0.038736556,-0.009402208,0.034706224,0.004929479,0.0007820092,-0.00625943,0.020558473,0.037185017,0.042013396,0.043722164,-0.020891445,-0.038552094,0.041850794,-0.014787806,0.026653443,0.028710995,-0.0064947978,0.039415356,-0.006716974,0.0056462176,-0.043931536,0.041414592,0.02616356,-0.0223087,0.024597514,-0.006392114,0.0027347654,-0.036932662,-0.040259592,-0.0114508085,0.00023195893,0.0019621141,0.043689903,-0.026965527,-0.01622602,-0.03442027,0.017660394,-0.04417056,0.034375552,-0.041850492,-0.009201072,0.004823476,0.025367413,0.005517911,0.008818302,-0.034148842,0.0011342093,-0.018314766,-0.009876691,-0.025319904,0.022235114,0.0017955154,-0.014056111,-0.017819319,0.015377816,0.036689688,-0.026804868,0.014112599,-0.028842842,-0.038814045,-0.036964744,-0.003917124,0.011288058,-0.026288917,-0.020006545,0.014900804,0.032830153,0.04404367,0.022013139,0.031033907,0.008793287,0.0317807,0.023169812,0.02237231,-0.041580975,-0.0024011321,-0.009289712,0.023855355,0.03749953,-0.03102871,0.013980467,-0.015405826,0.016632404,-0.005500365,-0.04048113,-0.01408693,-0.019998785,-0.0042428225,-0.029644117,0.00932923,0.018788759,-0.023019977,-0.022329854,0.026469778,-0.008164771,0.0006803721,0.0054316,-0.029937133,-0.030049007,0.04364657,0.008087002,0.039003436,-0.0023932606,0.002497822,-0.0014218539,0.020226378,-0.0017591268,-0.041091196,-0.024276774,-0.028610608,-0.012827184,-0.03246477,-0.0073095635,0.010071043,-0.043201406,-0.001083374,0.030772503,-0.009079181,0.04413226,-0.03218093,-0.007041659,0.00304804,-0.028875016,0.043001447,-0.023560705,-0.0055000074,0.030648727,-0.019980477,-0.0052092187,0.014162108,-0.008508205,0.037394855,-0.032037567,-0.03788437,-0.03708946,-0.0028658323,0.023447748,0.034415785,0.032205846,-0.017452093,-0.018443761,0.019334767,-0.023964807,0.02422348,-0.014973968,-0.0382601,0.0028926171,-0.010661729,0.042104308,0.013072956,-0.010057066,-0.032128476,-0.005424045,0.034356024,0.018727068,-0.0031521842,-0.019011047,-0.035529807,0.0038678683,-0.017341463,-0.043563657,0.003851369,-0.024191063,0.04184119,0.010075498,-0.016244333,-0.00012889504,-0.029672444,0.020918865,0.035834428,0.004299879,-0.026578598,-0.024805268,-0.016667081,0.013833653,-0.017295618,-0.023842856,-0.03836638,0.032187317,0.007544376,-0.024536503,0.042466465,-0.014858492,-0.01524462,0.0426133,0.026645508,-0.024433892,0.04124583,-0.0015613288,0.015108231,0.037527155,-0.0041751973,-0.011285972,-0.043547165,0.04361112,0.006116025,-0.009377416,0.034873877,-0.040891342,-0.042754214,0.016511321,0.037753213,-0.013877219
0.003021665,-0.02015478,0.040807586,0.018410083,-0.021955837,0.01022283,0.020082649,0.037827905,-8.4836036e-05,0.031745102,0.033126492,-0.025197593,-0.016053697,-0.020733962,0.041570175,0.01975206,0.043053124,-0.035842285,-0.032230143,0.029828977,0.035168733,0.0021274798,-0.021328095,-0.016561747,0.0400764,0.040715497,-0.0133943,-0.04062801,0.042305086,0.020117845,0.034915525,-0.025063777,-0.01614433,0.0058505237,0.016974494,0.03217714,0.0439441,0.029556017,-0.03149105,0.013200313,0.010466028,0.013139728,0.009310007,0.013694316,0.039548453,0.006691888,0.018021043,0.015037343,-0.009403288,0.008659143,0.02611949,0.021813799,0.011731375,0.027446944,0.02888773,0.02256148,-0.016131958,0.039801124,-0.0070044436,-0.028682567,0.011394002,0.022607032,-0.019269185,0.0028315,-0.0072258078,0.017336372,0.03275199,0.039888646,-0.031891458,-0.01092843,-0.028507732,-0.03838842,-0.010783076,-0.031813733,-0.014260249,0.0018058568,-0.01383739,0.009015009,-0.038349543,0.011166297,0.026547607,0.03572162,0.032377895,-0.02842809,-0.0049395114,0.023559686,0.02870531,0.008054607,-0.042747583,0.00735138,-0.039290644,0.013236195,-0.021703772,-0.0053190067,0.02615619,0.04147585,-0.0075805113,-0.028731085,0.008293621,0.0065298267,-0.026124276,0.0077269413,0.022079695,-0.008201141,0.029973444,-0.037479628,0.01336015,0.036528464,-0.013151597,0.005304076,-0.02790665,0.03257272,0.0026432276,-0.025864271,-0.023602651,0.03580763,-0.0072253197,0.041027833,-0.029499575,0.029294077,0.011089828,0.018644933,-0.0014624149,0.037273746,-0.0017633624,0.032137517,-0.0012716241,0.016641926,0.0371566,0.032635983,0.0003566034,0.027824577,0.034395237,0.0031192824,0.02506018,-0.008051835,-0.016118841,-0.021772545,-0.025385957,0.015008882,-0.001663737,-0.013911795,0.011084922,0.003717605,-0.016216211,-0.03724095,-0.034875333,0.037462283,0.04288887,0.007538121,0.025693532,0.034650955,0.0006144531,0.043091808,-0.017304732,-0.004929427,0.039629404,0.032432254,-0.0056934506,-0.017722633,0.03550707,0.030497361,0.042343576,0.015191603,0.027112786,0.004196249,-0.038981974,-0.023481494,0.0058568045,-0.037149865,-0.03161204,-0.0069491193,-0.024818962,0.031191114,-0.008075379,0.0100480765,0.03313608,-0.03919345,-0.04242737,-0.04144468,-0.018632768,0.0327189,-0.0060655735,-0.029745797,0.006170474,-0.019073129,-0.016629787,-0.00822768,-0.037012644,-0.03941049,0.023154695,-0.017773189,-0.033506516,-0.02795585,-0.018782116,-0.012485772,0.0045908615,0.040663745,0.023926888,0.037779044,0.018572744,-0.035479948,0.011968993,0.040889513,0.026061896,0.0027381927,-0.041669805,0.016767543,0.024857622,0.04386766,-0.043408196,0.03930716,-0.009698585,-0.019224532,0.026759248,-0.004787229,-0.0242458,-0.024363723,-0.021477912,0.022249285,0.012065351,0.0013644882,0.0021520704,-0.035285324,-0.003188014,-0.03782107,0.006992299,-0.011710286,-0.03293512,0.029727329,0.004414104,0.020575006,-0.012213133,0.030962732,0.0059977844,-0.005642295,-0.021015998,-0.0023135282,0.0064568818,0.0046087056,0.021244045,0.022066895,0.014957607,0.00018851086,0.003573425,-0.006483007,0.032519367,0.039247926,0.04019991,-0.024800949,0.006236743,0.017557893,0.03055131,-0.021177826,0.01003005,-0.0033602268,-0.025564898,0.034055,-0.0024512783,0.009449042,-0.03155972,0.009724278,0.033351008,0.02330916,0.043753076,0.03455251,-0.013480052,-0.022377443,-0.009613898,-0.010634709,0.026881266,0.008363582,-0.04066973,0.02093849,-0.008125819,0.039770234,0.019475091,0.030613434,0.037714425,-0.040074043,0.015574466,-0.028249593,0.029252876,-0.00717292,0.03529601,-0.040957633,0.007440664,0.034561213,0.03591061,0.024607617,-0.019945728,0.028042119,0.018571276,0.04089081,-0.035146408,0.033328887,-0.03907162,0.010846872,0.028673094,0.0057559274,-0.01422346,-0.0148304645,0.0062232986,0.017208848,0.015987068,0.02124789,-0.0021760538,-0.039956346,-0.020138733,-0.025837198,0.011454716,-0.04014006,0.027922418,0.0028018057,-0.041811645,0.0028264,0.033279005,-0.037634738,0.034507494,-0.00475822,-0.017174713,0.0031371638,0.005755678,-0.012536913,-0.03347189,0.022491958,-0.030541006,0.029053573,-0.031829815,-0.04328581,0.040052656,0.03743433,0.025643032,0.009001557,-0.015234964,0.0064464696,0.013844591,0.022223044,-0.031137485,0.035298813,-0.026598966,0.017747167,0.040352117,0.011929061,0.012632724,-0.012672197,-0.02451001,-0.03602494,0.010339234,0.041460607,-0.030622773,-0.037880883,-0.043863278,-0.018049471,-0.043456852,-0.03133495,0.025448259,0.00039484352,-0.013548752,0.026579019,0.03165314,-0.0067485906,-0.0064964145,0.0056326054,0.03828017,-0.03709444,-0.030888377,0.024854053,0.026574064,0.025828931,0.04275052,0.0071410835,-0.038087815,-0.026024451,0.018119961,-0.03696753,-0.016151978,0.04353871,-0.039567046,-0.041241832,0.041624483,0.0041444935,0.02385239,-0.032537326,0.035727102,-0.03466792,-0.03566311,-0.028830988,0.02090929,0.019578148,0.0423699,0.010600418,0.03233138,0.011938907,-0.0029322878,0.0037705936,-0.027253537,-0.017230712,-0.02512147,0.022067945,0.043500487,-0.0011943318,0.0095443055,-0.013996547,-0.029967327,0.010737047,-0.014280032,-0.024797698,0.03764042,-0.018673925,0.008590613,0.0046453625,-0.01414551,-0.04285345,0.024912428,0.0020903721,0.03107569,-0.004358791,0.012103267,-0.012232412,0.040725995,-0.025342884,0.019010905,0.003628064,-0.011920635,0.035157252,-0.019180235,-0.00088145956,0.006078493,0.0427923,0.0175765,-0.0006054342,0.012097616,-0.02241559,-0.01676796,0.038281117,0.042624276,0.022822294,-0.006068524,0.036134403,-0.008058645,-0.022421602,0.008360222,-0.021739818,-0.007001847,-0.029929299,0.008798301,0.02357119,0.042262007,0.043014612,-0.018838208,0.025570054,0.03646289,0.007143207,-0.027019033,0.036726896,0.013968889,0.04097518,-0.042427767,0.030202892,-0.018248437,0.020962823,-0.0041266456,-0.010668717,0.025313865,0.005249705,-0.026941435,-0.021936702,-0.03237684,-0.029581076,-0.008511294,0.010034405,0.016826846,0.03611465,0.0046163276,0.016763378,-0.03147957,0.003220655,0.015550364,0.008247696,-0.017500252,-0.024089105,0.026456352,-0.017778646,-0.0415963,-0.0226221,0.032677513,-0.03255253,-0.034125965,-0.012199886,-0.010576487,-0.0041808523,-0.042925104,0.008491941,-0.0024460703,0.027775805,0.023360644,0.021388311,0.017249666,0.040520657,0.01994634,0.026769418,0.034834135,0.03273939,0.025898334,0.027432296,0.0062269717,0.024176154,0.0012605973,0.028577182,0.032292973,-0.022257054
-0.04405091,-0.033114262,0.019415643,-0.0036011115,-0.030681098,0.013662681,0.0432099,0.029765401,-0.010285217,0.03377891,0.020503562,0.01718403,0.013675094,0.03392155,-0.009377625,-0.030843485,0.008283503,-0.009004813,-0.019325051,-0.036573038,0.03476004,0.009007752,0.0037999824,0.024515908,-0.0028725825,-0.009738386,0.00034043193,-0.014366591,-0.0045361035,0.0056015328,-0.020122059,0.030277688,0.015322961,-0.03178259,0.035498586,-0.03713554,0.002007164,-0.022023436,-0.002577059,0.021396998,-0.0019549355,0.017878573,-0.003504064,-0.036600523,0.02287167,0.005718857,-0.006909203,-0.019899987,-0.033198386,-0.041961107,-0.037508514,-0.006428428,-0.018922165,-0.0008086972,0.0037554577,0.030698534,0.0075787976,-0.006868787,-0.01374582,0.0197406,0.025600668,-0.020659896,0.041542288,-0.040480062,0.016704481,-0.019365197,-0.0077034123,-0.014674785,0.025281537,0.037747372,-0.0009767674,-0.040532164,-0.043837126,0.0143117905,0.03615575,0.02619658,-0.038685855,0.025591735,0.031721298,0.026081618,0.031598616,-0.022501802,-0.0014107972,0.036647793,-0.009616304,0.026196208,-0.022196505,0.029108275,-0.015998,-0.015737975,0.003600791,0.024395611,-0.027401857,-0.034105223,0.030357275,0.008284405,0.043963563,0.025669698,0.020928483,0.00309439,-0.0089196,-0.020771964,0.02010033,0.010062255,-0.031413607,0.028932843,0.0050685965,0.01464067,0.008042157,0.033635747,-0.020646445,0.043594066,0.014690638,0.014452834,0.038125392,0.020063963,-0.019500993,-0.015836678,-0.028997352,-0.021347536,0.03159349,-0.0028520934,-0.030444264,-0.027073782,0.009087842,-0.041721284,-0.0289124,-0.042995792,0.035906132,0.012222797,-0.040200558,0.026470449,0.023731392,-0.038362972,0.029980425,-0.016076056,0.023028139,-0.029424332,-0.03208641,-0.03974915,-0.03857688,0.002617646,0.042411175,-0.023789767,-0.009731263,0.03190461,0.037952323,-0.014971919,0.019501943,-0.0069946237,-0.027020307,-0.041465838,-0.038662042,0.030143011,-0.040546518,0.014974706,0.027949195,0.034001153,0.040631395,0.018555868,0.028942268,-0.012511786,0.037820872,-0.0009660311,-0.036481827,0.014681306,-0.00028815866,0.029700626,-0.014522154,0.039032567,0.018711675,0.034643624,-0.00980204,-0.023124037,-0.0415483,0.04395226,-1.1406839e-05,0.006119199,0.01260341,-0.028502775,-0.005539667,0.0119814165,-0.00887211,0.020375337,-0.00055309385,0.010615662,0.017549865,-0.01184953,-0.038912036,-0.03458921,-0.035347793,0.012486685,-0.041705392,0.043026242,0.036836784,-0.029234497,0.025273588,0.03367121,-0.031656213,-0.034092333,-0.018812789,0.025370676,-0.0021030977,-0.031069819,-0.038816456,-0.019984638,0.022899318,0.023456205,-0.008097064,-0.003433723,0.043589216,0.02912848,-0.026047606,-0.0012072809,-0.04251215,-0.001390826,-0.00096739084,0.016318254,0.022860516,-0.015987232,0.04057352,-0.0076410435,-0.03915163,0.021817531,-0.019307867,0.008564979,0.041306283,0.029096875,-0.011258241,-0.02860218,0.037860278,-0.008314457,-0.036646098,0.037626054,0.030965287,0.0142466575,-0.02812418,0.017685361,0.011026215,0.0058863238,0.007290356,0.019983273,0.0113327615,0.006646596,0.0027759336,0.037884187,-0.0052505694,0.012819491,0.03717986,0.034076106,-0.04053397,0.023846742,-0.026247077,0.040336046,-0.008608304,-0.019126292,-0.041892074,-0.038034227,0.0013767257,0.006978575,0.015476055,-0.03810216,0.011806391,0.0019192584,-0.014592603,-0.036589198,-0.027126886,0.0072992556,0.02071071,-0.04417986,0.015702307,-0.010446016,-0.0030860193,-0.041779455,0.037709173,0.037621554,-0.022296626,-0.013253819,0.0250456,0.026568595,0.009335801,0.033842217,-0.017023854,-0.038277995,-0.0020307414,-0.039303184,0.032252114,-0.03292771,-0.03556565,0.011270277,-0.039713115,0.009910546,0.0033234805,0.036586467,-0.02209027,-0.03966342,-0.024527991,-0.009996373,0.0017827526,0.0026403405,-0.04074068,0.038403805,-0.0046627335,-0.040148776,-0.042301267,-0.0062691644,-0.030977575,0.021774467,0.037787568,0.0387919,-0.014996713,0.0018456541,0.004485015,0.026679229,0.029418316,-0.028187433,0.029923674,-0.028119534,-0.007484585,0.029254463,-0.042144086,0.03596131,-0.0028988011,0.012417551,0.022430066,-0.042012006,0.0033829287,0.022142317,-0.022968773,-0.0015190765,0.028585296,0.004014209,0.0065310486,0.008236844,-0.039387178,-0.006409634,-0.040799703,-0.018844392,0.013909966,-0.035770074,0.03126618,0.028586518,-0.014047403,0.025220688,0.002872441,0.014704671,-0.016212054,0.041903425,0.041913595,-0.007364668,-0.0104342215,-0.0027830899,0.012761012,-0.023847014,0.021995056,-0.019632855,0.03962699,0.0012738183,0.015179623,0.04040808,0.043165434,-0.02746522,0.0081763975,0.01959714,0.022292417,0.020847235,0.04046176,0.040482786,-0.0065375604,0.020506572,-0.010992251,-0.013150079,0.01226202,0.00062892213,-0.013552461,0.026293617,0.004325416,0.039213333,0.04373317,0.025016781,0.004399456,-0.004672628,0.0130095,0.030129973,0.025634315,-0.012476377,0.03570697,0.0437893,0.0029247105,0.0069251917,0.015890483,-0.037233528,0.039269585,0.03924538,-0.015274955,0.021167506,-0.024690319,-0.036631763,-0.011945877,-0.014973406,0.0038494654,0.026665207,-0.004470017,0.0030525029,0.04120348,-0.041241933,0.039709765,0.0014476068,0.0084063485,-0.031459797,-0.02762679,-0.012269191,-0.034721326,-0.012306426,-0.0003470853,0.039193716,0.0031668842,0.015379038,-0.0047813877,0.018684175,0.033364538,-0.030356167,0.007989105,0.0028655343,0.003570877,0.04401465,-0.0028792992,-0.02808684,0.0048116595,0.042110864,-0.021897152,-0.008097623,-0.014931681,-0.03450935,-0.04047875,0.019398842,-0.04232114,0.011256389,-0.04217362,-0.0028615408,0.0026685894,-0.013213817,-0.019978538,0.042641122,-0.039784335,-0.018091967,0.0017499514,0.025086451,0.0011320375,0.02745862,0.040554587,-0.026441699,-0.041997984,-0.026671326,-0.033997793,0.02099071,0.0035546534,-0.042485114,0.013722844,0.006463293,0.004393857,0.0045425557,-0.0027271174,-0.032889374,-0.009152092,-0.04115143,0.0040716603,0.031305563,-0.027132792,-0.01823493,-0.011183966,-0.014124509,0.0132772885,0.026316043,0.0048287436,0.030040141,0.006862387,-0.011306256,-0.020365957,0.03946043,-0.02463461,-0.018735223,0.04354598,0.025578063,-0.032175764,-0.0076341964,-0.013358185,0.007800728,0.006861903,-0.022931889,-0.027918525,-0.011289533,-0.034061518,-0.022674087,0.018626343,-0.016373081,-0.03157936,-0.029881114,-0.035564974,-0.015006242,0.024013955,0.019116048,0.024950925,-0.005472943,-0.010793239,0.012086272,0.011079494,-0.043730386,0.024546009,0.009211015,-0.036265418,-0.026146915
0.03602628,0.036901537,0.015837502,0.010242768,0.026982773,0.030532058,-0.038314056,0.038716946,0.032526497,-0.032602552,-0.03542756,0.0017196424,-0.03329117,0.030021746,-0.038301226,0.03448089,-0.025797322,0.0014661141,0.006347336,0.04317038,-0.031171856,0.03439417,-0.03749287,0.024472114,0.03592768,-0.014352988,0.029473726,0.01715741,0.0014879145,0.012755353,-0.010914728,-0.007589463,0.03183667,-0.00802201,0.035003323,0.03041095,0.030251581,0.03804892,0.03465878,-0.03898059,0.008627512,-0.008074515,0.017402962,0.019144867,0.006143283,0.04298358,-0.040885486,-0.009273313,-0.023672994,0.039843705,-0.011973456,0.02587201,-0.003640771,-0.035195056,0.010722201,0.0035638846,-0.019683225,-0.04329465,-0.014117697,0.017284308,0.043900233,-0.036197394,-0.008234218,-0.019175477,-0.013217863,-0.030457247,0.004925769,-0.0155084655,0.0285112,-0.014613625,-0.011556651,0.031145822,0.0266583,0.02077933,0.023444261,0.012501139,-0.026617378,0.03600465,0.026455779,0.02087136,0.0026155226,-0.027139178,-0.008965362,0.02623592,0.012235448,0.010332074,-0.03911755,-0.00067236274,-0.016408542,-0.02912138,0.013867825,-0.024115684,0.028460827,-0.025475705,0.008921254,0.013272028,0.030922402,0.0055009127,-0.026643714,-0.022745853,-0.027351534,0.014404792,0.0023656934,0.011500247,0.040015828,0.024532158,-0.020915063,-0.024487872,0.029744808,0.01855338,-0.010134801,-0.03530624,-0.00012467429,-0.005270779,0.030123625,-0.0020394921,0.016598683,0.024839532,0.01792575,0.03731024,0.024656225,-0.0012163483,-0.0013444051,0.028387237,0.041589256,-0.025390368,-0.0023337193,-0.005444888,-0.030368969,0.03248125,0.014624797,0.020337213,-0.040340766,0.04105189,0.0157484,0.041046117,-0.036949184,0.01758074,0.019385379,-0.014081035,-0.036573637,0.032326255,0.043760393,0.030977953,0.011889715,0.0073105395,0.029015627,-0.035868596,-0.038444072,-0.027712686,0.036708217,-0.010765854,0.028376807,-0.04369366,-0.0256737,-0.020406302,0.03723784,0.04154611,-0.016636714,0.01849946,0.040284533,-0.017490156,0.02184103,-0.0062869564,-0.011595208,0.03324053,0.03694157,0.019647289,0.016128667,0.01433922,-0.027699983,-0.03914608,-0.04336692,0.03369009,-0.00490769,0.036730047,0.038251314,0.004181199,-0.0012829751,0.033209037,0.01567781,0.022467364,-0.01952988,0.011485454,-0.012222208,0.018344108,0.042376723,0.03490405,0.02939492,0.00402271,-0.029394055,-0.008854914,-0.022163453,-0.025103094,0.0058020204,-0.023953581,-0.013224922,-0.041099947,-0.03504824,0.038184304,0.0029453635,0.011134222,0.040154886,-0.035697795,0.02223375,-0.021243813,0.012165725,0.024688277,-0.0034483597,-0.02516015,0.018414903,-0.031408396,0.011014283,0.033821303,-0.042730715,0.038201887,0.027064051,-0.026588043,0.0069775805,0.027161028,0.012769483,-0.007877909,-0.024067758,-0.031701088,0.0012227856,-0.0210391,-0.012159899,-0.03116091,-0.005834151,0.017952781,-0.012047939,-0.011503488,0.03664924,-0.03972558,0.027075145,0.014408715,0.008355197,-0.017553335,0.009723667,0.017320696,0.010789223,-0.026934233,-0.022352006,0.036716457,-0.01768044,-0.0036654845,0.016062833,-0.013060365,-0.024151234,0.016531605,0.019518372,0.022292782,-0.010152727,-0.005673196,0.03603113,-0.039148286,-0.017484846,0.0043209307,0.0035999082,0.043260876,-0.030292368,-0.037906162,-0.0034981444,-0.0125646815,-0.031566124,0.025859479,0.03540269,0.04173601,0.005755678,-0.002453085,0.028586958,-0.029799055,0.041179407,-0.02616096,-0.0136129465,0.015133288,-0.01717815,0.020695966,-0.008449148,-0.009322915,-0.028799357,-0.036736235,-0.04347371,-0.03404301,0.026031453,0.024889503,0.03222661,-0.0075705387,0.024297994,0.003649205,-0.032248594,-0.016846353,-0.03244518,0.031277258,-0.03911704,-0.025800383,0.018096339,0.016237285,0.03882179,0.0044060424,-0.042020544,-0.020033339,-0.019204896,-0.02186669,0.043743547,-0.04353331,0.0009005256,-0.037846472,0.01228027,0.00994302,0.01102522,-0.02153765,0.0016894937,-0.035243664,-0.04146657,0.033388454,-0.03917697,-0.02318733,0.0143659,-0.034350127,0.02170619,-0.032039255,-0.027055832,0.021244224,-0.030095521,0.0069775954,0.028349359,-0.00030000135,0.020646866,-0.00091707706,-0.016733747,0.04142427,-0.0027830452,-0.0047812276,-0.035376105,-0.022600815,-0.028256627,-0.017813176,0.026443321,-0.03250487,0.018382106,0.0013274737,0.024638537,-0.018423963,-0.013073867,0.016731028,0.02122527,0.037089918,-0.02010855,0.01617723,-0.005402092,0.01928934,-0.007526595,-0.030939527,-0.008915823,-0.0019413009,-0.024046978,-0.025961142,-0.010119949,-0.041407514,-0.026105326,-0.00862414,0.03236879,-0.028466092,0.0135736875,0.014004756,-0.017376356,-0.010358103,-0.027749622,0.0064373054,0.0067871697,-0.03964766,0.0040330254,-0.031290717,0.00026952848,0.004754223,0.0020331703,-0.004959084,0.036186833,0.024624806,-0.026946418,0.022141363,-0.03837178,0.018157601,-0.020491255,0.034132812,0.023525987,-0.02807459,0.02246632,-0.025236443,0.04035295,-0.0138705745,0.0074787624,-0.021968255,-0.030961618,-0.011780243,-0.032147266,0.02725907,-0.031027824,0.019162003,0.015080158,-0.041442536,-0.032687142,0.018431995,-0.02109366,0.005007725,-0.011391401,0.04091342,0.007876925,0.003018815,-0.04105916,-0.030885585,-0.014694398,-0.025904922,-0.006649319,0.024763461,0.0072900243,0.020317148,0.007970966,-0.010131698,-0.02186276,-0.024519024,-0.0034307465,0.03463273,0.0030466318,-0.012076583,-0.037274323,0.038349714,0.03059223,-0.02898192,0.036038842,-0.012542121,0.03141189,0.02692673,0.027387615,0.038569022,0.03605095,0.0317822,0.015512247,-0.03540601,0.010309726,0.023328159,0.00029613823,0.03123622,-0.015743524,-0.009659119,-0.012333669,-0.003999606,0.04144263,0.029328797,0.027362432,0.008160505,0.030379672,-0.027021704,-0.021855012,0.04024336,-0.0029508732,-0.021400968,0.00020777434,0.0073607527,-0.03155575,0.0020404272,0.043396425,0.037410323,0.028729465,0.013443153,-0.021861074,-0.031467587,0.01807858,-0.0017346367,-0.038525164,-0.002784256,-0.0017941333,-0.039627045,0.019972246,0.034865204,0.035611365,-0.008329008,0.021414716,0.0076130554,0.040120084,-0.0060016997,0.013145659,0.012417074,0.033991788,-0.011580225,-0.02304145,0.027661245,0.005942069,-0.021469425,0.019295756,-0.032150026,0.03999668,0.032672625,-0.014008516,-0.017426694,0.03163309,-0.016589431,0.038418654,-0.024354598,-0.017052388,0.03895503,-0.01902583,-0.004866548,0.032335844,0.0035882145,0.0038530156,0.023208383,0.008175187,0.01783808,0.015453052,0.028251227
-0.034356307,0.010710474,0.0041602515,0.0017585494,0.034380827,0.011638321,-0.016697586,-0.013236085,0.025304828,0.034888122,0.02131107,-0.016151119,0.01617217,0.02602372,0.009421043,-0.007901311,0.010678668,-0.008204643,-0.009488992,0.010628492,-0.035126474,0.03255843,0.036518697,-0.027561283,0.009261742,0.0037996955,-0.019875538,-0.027687376,0.042039793,-0.007146083,0.030826349,0.008732513,-0.017691461,-0.022436243,-0.002331715,-0.036086116,-0.011674587,0.024072547,0.010230288,-0.010337837,0.037467536,0.012273148,0.031399865,0.0070091896,0.025384773,0.034093585,-0.038132764,0.03514583,-0.036373552,-0.007759515,-0.017807312,0.016358592,-0.011692535,-0.025215058,-0.024051404,0.03775773,-0.041465953,0.0005177483,-0.0019053891,0.030229446,-0.016799202,-0.035461456,-0.008772392,-0.034292977,-0.03095115,-0.01197039,0.0051446743,0.040907506,-0.02397703,0.026331756,0.008236226,0.044190045,-0.0017057024,0.036140244,-0.04022625,-0.028477166,0.038829576,-0.035866145,-0.017447162,-0.035174046,-0.020513318,0.02866536,0.03241686,-0.03185889,0.00023611635,0.024943847,-0.010497965,0.006583158,0.039673667,-0.029474413,-0.0050885193,0.03330637,-0.0066593327,-0.021884909,-0.0070235766,0.025008138,0.022717398,-0.0283472,0.039295796,-0.012748435,0.017172515,-0.025927203,-0.0064814948,0.032526787,-0.026247181,0.025167454,-0.012021098,0.043766987,0.000969436,0.014662467,-0.008948255,0.03796031,-0.03886269,-0.039304707,0.02346946,0.019900706,0.0024141297,-0.024356905,-0.024721893,0.038317505,0.04210489,0.008874591,0.023326132,0.005211778,0.02866247,-0.018242257,-0.021648517,-0.0036359467,0.0047844276,-0.022912629,-0.020735558,0.030586254,0.02224375,0.023904141,0.031726155,-0.0014528073,0.036673967,0.0323754,0.029838394,0.04185557,-0.0021333583,-0.029174112,-0.037460275,0.009488922,0.006934602,-0.009137288,0.013326816,-0.025593832,-0.0322584,-0.01641959,-0.026466787,0.007417273,-0.031535752,0.03519838,0.02677456,-0.010957494,0.010473128,0.009401839,0.029247116,0.012238033,-0.0011310354,0.015977707,-0.017704884,-0.0035837367,0.0023304746,0.033730928,0.031132814,0.029702108,0.009050988,-0.008767761,0.03908393,-0.03265768,0.025076214,-0.03827984,0.019174602,0.02909651,-0.03579966,-0.004670508,0.021902654,-0.007752482,0.03388096,-0.0058215447,-0.003014464,0.039471213,-0.01529224,0.005795393,0.019459639,0.033441577,0.02416784,-0.011378236,-0.02743233,-0.016207939,0.022380386,0.029148351,0.027648482,-0.026825337,0.026843254,0.015120156,0.038695324,-0.001375258,-0.028506452,0.037183348,0.0129310675,0.01785599,0.022671547,-0.010792602,0.0374724,0.024605516,0.016413126,0.04171444,0.021928016,-0.016155224,-0.030729387,-0.003676854,0.01870833,0.0041163415,0.036693256,-0.028648103,-0.0059188604,-0.0019715093,-0.007074192,-0.03721906,-0.03904192,0.018095039,-0.034625676,0.010492373,-0.0052073,-0.02269777,-0.028854448,0.03307156,0.037946504,-0.037563283,-0.034896098,0.04417247,-0.02579868,0.01594859,-0.023394387,0.013520956,-0.0031577535,0.031673584,0.03305262,-0.009508058,0.011938795,0.03821407,-0.0049364083,-0.016232306,-0.020053413,-0.0033171624,-0.025967931,-0.000799641,0.038272638,0.0046523437,-0.041002475,0.021040764,0.00092498586,0.00043560192,0.0043376833,0.042732533,0.0020911843,-0.0014166199,0.04237018,0.024774212,0.04246674,-0.02123933,0.019851696,0.041524585,0.03495043,0.039038274,-0.024744209,0.024260025,0.009400092,-0.02679282,-0.040516872,0.017228995,-0.043169234,-0.012963848,0.008478962,0.042677168,0.028495315,0.011149354,0.010606412,-0.0025546402,-0.002339691,0.025460098,-0.004143905,0.010292929,-0.044098325,0.009628642,0.012389883,0.034586806,-0.03131957,0.014473859,0.042897407,-0.02738265,-0.015582269,-0.0040655807,0.038392145,0.006801896,0.026563536,0.008393485,0.039004486,0.029114928,0.023157615,-0.018247556,0.042705823,0.011023093,-0.03205443,-0.03352247,0.041861948,0.018404435,0.010955855,-0.0018191412,-0.014315736,-0.02956774,-0.033436563,-0.026274165,-0.022027265,0.02407768,0.013040774,0.018244222,-0.014645988,-0.022333467,-0.005477052,-0.012250245,-0.001489237,-0.025212876,0.036094885,-0.0388525,0.009894878,-0.033187207,0.001361806,-0.014423326,-0.008414764,-0.0061303154,0.025117513,0.044152524,0.03370207,-0.0059351623,-0.016731035,-0.006181024,0.01854932,0.03346135,0.001795318,-0.028118791,0.006519869,0.03158916,-0.027788691,-0.0044326894,0.033781696,0.016934909,0.043526087,-0.031721517,0.04305802,-0.027412495,-0.0126121715,0.011937574,0.013603326,-0.03165038,-0.020941278,0.0035675764,0.018170733,0.039867472,0.0013920963,0.033934187,-0.039034124,-0.005462583,0.016757522,-0.027766844,0.027966883,0.02126265,0.006471064,-0.01042977,-0.042591553,-0.031438526,0.0031328313,-0.01130617,0.036602985,0.020866644,-0.006869752,-0.008517679,-0.022007436,-0.0029274449,-0.017913012,0.0033663064,-0.009597033,0.018307034,-0.037570458,-0.037496965,0.03898002,0.017976843,-0.027750216,-0.012736093,-0.02637131,-0.016261239,-0.0124675855,-0.02333261,0.022688422,0.008115403,-0.008297566,-0.041314926,0.0020648055,0.0061214045,0.036348928,0.036828022,-0.012503415,0.04292721,0.03761064,0.0032795891,-0.02164984,-0.011967756,0.015196908,0.0048734397,-0.03968969,0.016960643,0.043580364,0.042147804,-0.011882987,0.021363404,-0.015426189,0.014502235,-0.043458026,0.03727093,0.00908177,0.037088495,0.0018885992,0.03014296,0.02568173,0.026891936,0.04186489,0.014805086,0.0032533668,-0.030401643,0.033803973,0.043817338,-0.015904013,0.041120324,0.027707819,-0.040442515,-0.03936406,0.04013488,-0.021988943,0.023670342,0.011846289,-0.03798658,-0.01179558,0.020765428,0.03253716,0.027814347,0.03205641,-0.004451718,0.0018315539,-0.041459158,-0.033143487,0.038596716,0.024075937,-0.008980986,-0.010216042,-0.023118842,0.001296401,0.014336683,-0.018964564,-0.007349968,-0.042291492,0.019341182,0.025007311,-0.019345218,-0.030837726,-0.014189394,-0.029229201,-0.019311965,-0.0020859838,0.015388615,0.010291439,-0.03738874,-0.0017618537,-0.018426819,0.003098812,-0.020889105,0.030094896,0.008267615,0.03775646,0.0019721203,0.02474719,-0.0019239597,0.0006448142,-0.011898529,0.01481317,-0.0441246,-0.00429412,-0.0433185,0.0033765472,0.009955853,-0.034328286,0.014444668,0.021740396,-0.00087793544,-0.035373338,-0.044139076,0.02045073,-0.01744624,0.027402107,0.0385745,0.0013177842,-0.03075858,0.01213729,-0.021930665,-0.03039323,-0.014710356,0.042875778,0.011034783,-0.029541854,0.0034460537
0.030865762,0.023289446,-0.027902473,-0.020678023,0.023273032,-0.0028610453,-0.01526776,0.024260145,-0.028615808,-0.030452978,0.03485896,0.011256527,-0.03126759,0.015334003,-0.016634475,0.038954068,-0.04339587,0.0060156547,-0.015624827,-0.04054123,0.011828255,0.010823742,0.01183198,-0.017005673,-0.004466202,-0.0039587803,0.02743766,0.04310639,-0.01615054,-0.027142871,-0.012578391,-0.04149505,-0.038589727,0.015757084,-0.024156371,-0.02958596,-0.008214954,0.001289282,0.017671846,0.013722971,-0.007096164,-0.015409883,0.03615048,-0.016332304,-0.008254308,-0.041136168,-0.0029610991,-0.024575738,-0.0021286905,-0.013910703,0.024213452,0.025067758,-0.022797842,0.034746263,-0.004708275,-0.01742939,0.04312552,0.019934233,-0.025772396,0.041789357,0.04006977,-0.00959143,0.026325282,-0.031229038,0.0036692508,0.01400682,-0.0075242035,0.01352144,-0.00045410544,-0.0061712936,-0.035775587,-0.028005257,-0.023179717,0.017352164,0.04191224,0.005749885,-0.028718546,-0.006033838,0.0081112385,0.0058723874,0.038185712,0.012420766,0.029936697,0.021791797,-0.009057067,0.036467258,-0.0029803514,0.004116386,-0.0048258863,-0.004742522,0.007581696,-0.012357812,0.03186525,0.027122896,-0.022017356,0.0235839,-0.012926344,-0.036866568,-0.009681515,0.037650142,-0.015872281,-0.027362403,-0.030417912,-0.004164066,-0.03270468,0.027393382,0.03290682,0.04369696,0.03576045,-0.027400466,-0.021142308,0.022745956,0.033743236,0.038411047,-0.031255987,-0.006890863,-0.02372562,-0.024847843,0.017681178,0.03585859,0.03697673,-0.011730168,0.036353197,0.02772599,0.029542912,-0.04047205,-0.0038472973,-0.037098482,0.023288395,-0.035021733,-0.0003169328,-0.015362984,0.03132109,0.017435968,-0.0010793135,0.029719774,0.017533526,0.0364856,0.0118232705,-0.03902985,0.005075928,-0.0077701136,-0.0032264479,-0.0052085407,-0.015108533,0.0024273954,-0.008089233,-0.029547162,0.043993022,0.023827564,-0.0092481,0.036024842,-0.0068434514,0.0068151467,-0.041632693,-0.018027546,0.039060306,0.03443775,0.015892327,0.023212824,-0.03272675,0.020249318,-0.039649148,-0.012150694,0.019809533,-0.031792253,0.02467173,-0.007478364,-0.018313665,0.0009536743,0.033171047,-0.041657563,0.020319995,-0.013301551,-0.039096527,-0.021807954,-0.013286009,-0.032557264,-0.027147079,-0.007554155,0.006753307,-0.03091133,0.035831314,0.036906827,0.0045861267,0.0061618686,-0.0024873652,0.022711921,0.02706838,-0.0058132447,-0.03054645,0.037115175,0.0101275705,0.017407306,0.0404558,0.039876167,0.037674267,0.0024454333,0.03400295,0.040634077,0.025199275,-0.019372072,-0.03885991,-0.013616899,0.03961936,-0.013563588,0.032024432,-0.02926509,0.0059018284,0.01127471,-0.01867355,0.02040622,0.008251522,0.012452956,-0.00021508709,-0.0017084628,0.018567588,0.030828875,-0.0010584965,-0.026861265,-0.001717452,0.009603459,0.021754425,0.03496967,-0.03485555,-0.00439097,0.001191508,0.020807397,0.034907762,0.014423784,-0.03663982,0.02551135,0.02671567,-0.034623787,-0.021883523,0.033166286,0.015618648,0.039323274,0.0027575307,-0.02223556,0.036688227,-0.027587313,-0.025249913,0.019842234,-0.0049308687,-0.02654575,0.011528321,-0.0018044747,-0.03427181,0.033618193,-0.0107208565,-0.015841873,-0.03993347,-0.024126653,0.025745552,0.026272092,-0.026753781,-0.03595155,-0.008341234,0.008052383,-0.03330627,0.012213666,-0.03785237,0.0023462214,0.02429511,0.040002387,-0.01241409,0.019813787,0.005624812,-0.04298721,0.017821264,0.025990758,-0.0329894,0.042270925,0.02921402,0.0106921345,0.019636404,-0.034789234,0.019745227,0.02795444,0.033148687,0.010070842,-0.031393208,0.02682395,0.025199402,-0.016277382,0.03741132,0.0024058372,-0.02917761,0.010207355,0.021860953,0.0085243955,-0.03932975,-0.012685385,-0.032676425,-0.0044946074,-0.0068526454,-0.018226346,-0.037191942,0.019616958,-0.0014779791,-0.01180011,-0.020298839,0.0005875677,-0.008978378,0.029493835,-0.0013692938,-0.03321495,-0.001396168,-0.018637141,0.01407418,0.0401724,0.00016532466,-0.019801205,-0.026061276,0.0008762218,-0.01358385,-0.018800223,0.02698085,0.02498531,0.026522528,-0.005477246,-0.0070699193,0.02980351,-0.014330249,-0.0049509704,-0.0108924955,0.04184698,-0.038179528,0.013821188,-0.00782067,-0.030948177,0.024452593,0.038547162,0.005366523,-0.028211113,-0.03914108,-0.005108852,0.037751187,-0.04291784,0.033453304,0.024086762,-0.033492904,0.02169114,-0.043278463,-0.002206903,0.008615769,-0.032085147,0.027969081,0.01682233,0.017499633,-0.012021281,0.026694667,-0.03767119,0.0016114861,0.03555909,0.020828139,-0.029081356,-0.006123446,-0.011004765,-0.041473582,-0.028900241,-0.021876631,-0.020638727,-0.016989848,0.018034738,0.017276157,-0.0066271536,-0.022763444,0.018217038,-0.041064892,-0.0053552985,0.023667444,0.022561658,0.019405123,0.036533702,-0.024404563,-0.021155773,-0.0063435994,0.02952623,-0.016244639,-0.0016860254,0.01727124,-0.0058303103,0.023803484,0.024458792,-0.0031856522,-0.033369623,-0.009316456,0.034830693,-0.0021393113,0.043509137,0.035488036,0.0057541914,-0.037293695,-0.041505773,-0.018619439,-0.0014532283,0.016994648,-0.037063528,-0.041836537,0.020147014,-0.013068315,-0.041227292,0.024938066,0.0437663,-0.022619102,0.039111454,-0.022063,-0.01815722,-0.021002617,0.022354383,-0.033571925,0.033265907,0.019472558,0.03454503,0.037122432,-0.008183468,0.036619652,0.03636286,-0.022041338,-0.037801493,-0.024600398,0.020168047,0.024260353,-0.036356967,0.01745987,-0.013104109,0.010996107,-0.02522797,-0.012821604,0.037739817,-0.023819607,0.0076927803,-0.041663002,0.041701283,-0.032161824,0.04103102,-0.015124559,0.0074357092,0.04264408,-0.031397942,0.03679912,-0.022300672,-0.037532493,-0.03364408,0.024146426,-0.012319509,-0.009888668,-0.010832705,0.02109709,-0.006252099,-0.040372945,0.011292614,0.02566531,-0.031538192,-0.016238159,-0.03362266,-0.01920005,0.016125314,-0.02980517,-0.004899867,0.013964359,-0.032432385,-0.0063525625,-0.012599796,-0.0046758763,-0.004143551,-0.044114757,0.032945503,0.029603917,0.015581135,-0.035282258,0.033931468,0.035424907,-0.041582234,0.039792303,-0.027967932,-0.028380191,-0.00080415606,0.039041635,-0.043252382,0.021806825,0.015037831,-0.0029892065,-0.023120817,-0.03536265,-0.036852118,0.041213494,0.0055756383,0.033081304,0.039959494,-0.029819254,-0.011943173,-0.018383449,-0.012976093,0.025280561,-0.038355738,-0.03775974,-0.0004510656,0.03850573,0.006997276,-0.041951366,-0.018096877,-0.028511068,-0.02207751,-0.01740394,0.032802064,-0.0045142286,-0.016109722,0.0114347525,0.023132864
-0.015084183,-0.03347781,0.0017464608,0.014737003,-0.009202633,0.036337566,-0.011586167,0.0075719394,0.031580467,-0.0414523,-0.0006540343,0.029642645,-0.0015032627,-0.0022207424,-0.013069838,-0.029906917,-0.035141073,0.039656322,-0.004449647,0.0052509345,-0.037679397,0.007704187,-0.042491514,-0.022291094,0.0126525685,0.026802938,-0.042563464,-0.030339234,0.008011464,-0.017954553,-0.015445497,-0.0021912828,-0.009108093,0.015194878,0.011452142,-0.025278257,0.0098779835,-0.04025256,-0.021507278,-0.028138695,0.016417518,-0.020799818,0.009552669,-0.039712667,-0.017484767,-0.0024186745,0.037762668,0.037104454,0.04107547,0.036533114,-0.041881654,0.042665374,-0.011817746,0.025705468,-0.023847092,-0.041292287,-0.021972073,-0.014294757,0.03312662,0.031098608,0.007576242,-0.036669113,0.04034048,-0.009091534,-0.00528403,-0.03978391,-0.02936655,0.034848217,0.0046292506,0.019428957,0.031444196,0.01203699,-0.024932727,-0.020780224,0.033749323,0.0068462826,-0.0077153593,0.015623111,-0.043892886,0.019353952,0.03168418,-0.03822744,-0.04041642,-0.043172877,0.020692226,0.0046326704,-0.030054765,0.019938912,0.00939792,-0.0027103424,0.013616271,0.028741512,0.019476157,0.030996133,0.0064037144,-0.02781772,0.014812693,-0.04143605,-0.043075264,0.030753028,0.0037487037,0.0007645227,0.01757776,0.03357212,0.03813712,-0.014598414,-0.025107626,-0.00614129,0.0112522505,0.0105444975,0.01908547,-0.012197208,0.009462584,0.04123993,-0.029072732,0.03433619,0.027239982,-0.00011987239,0.014192957,0.012757003,-0.03549843,0.021491196,-0.0069656745,0.020972777,-0.037529904,0.0073907934,-0.013211146,0.0026130937,-0.012178291,-0.032257855,-0.009787943,0.024841603,0.006418243,0.028004546,0.029207963,-0.024370246,-0.00029300526,-0.03871195,0.0041669533,-0.00745517,0.03721754,-0.015277453,-0.032855358,0.04322895,0.014232922,-0.012696631,-0.0065133125,0.008012533,-0.037180293,0.0007032566,-0.026649868,-0.039171297,0.02140062,0.01703937,0.0108939335,-0.038934655,0.04094057,-0.04216536,-0.0069192573,0.043613877,-0.0029671863,-0.029183932,-0.040963534,0.0108894855,0.0075704902,0.031121526,-0.0053347014,0.019790832,-0.013921693,0.028645147,0.043631967,0.013220202,0.038856234,-0.0043993555,-0.022160718,0.031876523,-0.029180933,-0.019492755,-0.036511973,-0.04180757,-0.0030807704,0.0024786666,0.02795178,0.003300503,0.03150868,0.04170515,-0.00058589876,0.040535156,-0.016636277,-0.014271744,0.023808282,0.0073668323,-0.0031536222,-0.0075496696,0.041507084,-0.040429316,-0.0036942177,-0.031954966,-0.012699336,-0.02935902,-0.0012064688,-0.008485861,0.04371694,-0.0015488826,0.018834893,-0.032751814,-0.027758135,0.020192403,-0.034643423,-0.022803236,-0.007071335,-0.034053124,-0.031876873,0.027282614,0.022853594,-0.025336977,-0.0037705004,0.044168394,-0.036275662,0.004201431,-0.011465248,-0.00430933,-0.013960617,-0.033929534,-0.04096426,-0.015486265,0.0035616755,-0.03535957,-0.01723992,-0.0126177445,-0.030084737,-0.023375485,-0.00020864233,0.042268228,0.03237689,-0.0012948923,-0.036896262,0.01642353,0.021747071,-0.00033485517,0.021860104,-0.009305324,0.021332998,0.032662693,-0.024841605,0.011936858,-0.00040236488,-0.043109354,0.0073521137,0.043045323,-0.01752017,0.024773497,-0.007655684,0.009062283,0.043718997,0.023601074,0.043064225,0.026634488,-0.021160895,0.01771148,0.008651774,-0.020631362,0.028341245,-0.028731817,0.026360083,0.029772405,0.018343937,0.021153305,0.009321675,-0.0046257526,-0.01381884,0.041637834,-0.032531366,-0.010173064,-0.015414067,0.03361867,-0.020711677,-0.006814655,0.015680265,0.015142214,0.032938328,0.02944607,-0.037162118,0.025319684,-0.008323472,0.01165149,-0.0021644793,-0.02020394,0.02967221,0.043318834,0.030476157,0.04105554,-0.008422393,-0.0031250268,0.020094302,-0.028186938,0.03522161,-0.01529046,0.0087508485,0.026287075,0.019152258,-0.010551974,0.013606142,0.038901236,0.024954852,-0.030681694,-0.018538302,-0.02104261,0.01315834,0.01935723,-0.01261289,-0.0061855987,-0.0038223825,-0.033048436,0.01599523,0.018209808,-0.036441278,-0.013995392,0.031058785,-0.005675599,-0.024986465,0.016133208,-0.023929989,0.0130000785,0.0005143434,-0.04323599,0.021578182,-0.007816106,-0.014623191,0.024521973,-0.030726027,-0.00059613585,0.03544649,-0.0037346594,0.014261302,-0.0025021732,-9.274483e-05,-0.03134427,-0.01865165,-0.026823018,0.001642812,-0.004554592,-0.027290516,-0.0019126981,0.03200276,0.012733065,-0.017617293,0.040264126,0.002765514,0.040444408,0.032152932,0.0060403645,-0.006008964,0.00822822,-0.029554117,0.0072802417,-0.041029025,-0.034425236,-0.037263267,-0.005237408,-0.013667254,-0.0385274,-0.0157838,0.034644414,-0.034369174,0.002093438,-0.00811322,-0.005774375,0.031534355,-0.037579536,0.026274342,-0.008651476,-0.014701942,-0.025868317,0.020513859,-0.020864207,0.00028649345,0.01793683,-0.035497535,-0.009039529,0.020297881,-0.037670072,-0.0072925054,-0.03446362,-0.021197382,-0.037820637,0.030646402,-0.019799877,-0.024596395,0.01509922,0.003487885,0.030592892,-0.011338804,-0.012552321,0.043506023,0.018114068,-0.002379153,-0.010998201,-0.02715886,0.015855629,-0.019507358,0.029935237,0.029135149,0.03247529,-0.009925835,0.019320767,-0.011506353,-0.016119726,-0.027931364,-0.023229256,-0.023083566,0.0025210753,0.037303757,0.0060017444,0.016416125,0.0167223,-0.014722973,-0.011616372,0.018516686,-0.016810201,-0.035206415,0.02552871,-0.014616927,-0.04128586,-0.015140818,-0.031745642,0.0037685446,-0.0051044747,-0.007665783,0.029006463,0.029982585,-0.033001762,0.033588078,-0.0074804425,0.04127727,0.025005233,0.003100723,-0.018992119,0.020905685,-0.0024778359,-0.034196123,-0.0071117952,-0.029149693,0.00292195,-0.040333543,0.015465084,0.031318355,0.011980683,0.023884546,-0.018959139,0.016707696,-0.010839954,0.03238376,-0.042005647,-0.005446121,-0.002754677,-0.001384683,-0.036084894,0.021662984,0.03977796,-0.039764218,-0.012533899,0.043448757,-0.011478551,0.01946627,0.032830995,-0.031817805,0.044147585,0.034271736,-0.020604482,0.019485217,-0.0048012733,0.044045586,-0.02205495,-0.02153629,0.015276719,0.023524884,-0.011206087,0.024732593,0.0059548505,-0.034396723,-0.036579877,0.041886915,0.038231928,0.043788422,0.030357461,0.038557295,0.034475703,0.042414833,-0.033449154,-0.021690685,-0.014434179,0.03431977,0.00941344,-0.037291072,0.026617099,-0.04268739,-0.027549455,0.035304595,-0.037443638,0.02747168,0.008860372,-0.015352342,-0.015512211,0.025303427,-0.039174743,-0.037723564,0.00024087355,-0.01913312,-0.0143059045,-0.043110173,-0.0033211596
0.021170657,0.024557922,-0.0020270646,0.03617877,-0.016880097,0.028346162,-0.039501023,-0.041229922,-0.030555934,-0.027650472,-0.02994974,-0.042990528,-0.012663025,-0.043656204,-0.028235728,0.042669687,0.04238205,-0.03627304,0.018152922,0.0043293014,0.042466212,0.0119682625,-0.021316253,0.019865658,-0.035231065,0.025380302,0.0017380267,0.018393625,0.027416226,-0.038537107,0.036514428,0.028324496,0.043009628,-0.013666099,-0.043084953,0.022354562,0.010815907,-0.03461492,0.0011976361,-0.03678328,-0.03685982,-0.016049536,-0.04094159,-0.041363165,0.00757106,-0.028715312,0.033475105,-0.027089197,-0.0023135245,-0.03600993,-0.023455985,0.011418298,-0.020520499,0.013136998,0.004125502,-0.0013537668,-0.01672192,-0.04295198,0.00035858527,-0.030817397,-0.02780976,0.008667421,0.0003403686,0.03317337,0.01444345,-0.011905029,-0.019644963,-0.034318734,0.022089403,-0.04266176,-0.012655448,0.022474114,-0.036992833,0.026212689,0.011419218,-0.01874527,-0.018397989,0.006153766,0.009007376,-0.0034463443,-0.037286542,-0.003294889,-0.014844894,-0.022257634,0.01006012,-0.0009362623,-0.026277337,-0.005882181,0.007857125,-0.0065385215,0.020785596,-0.0051744804,0.026480947,-0.02396455,-0.0031201318,0.008422442,8.1948936e-05,-0.019842852,0.0107412785,0.0074582472,0.0031980202,0.031155292,-0.012201365,0.01120808,0.008769631,0.014835332,-0.031146947,0.00824552,0.03202861,-0.009320427,-0.022979125,-0.006941166,0.007727504,-0.01959526,0.002832953,0.043721896,0.0036581308,0.021500837,-0.02477327,0.04075587,0.040667113,0.0037254244,-0.0009065643,-0.03909145,-0.038944058,-0.013142152,0.040246796,-0.027045548,0.014811318,-0.0336359,-0.030704984,-0.027413048,-0.016347224,0.026289541,0.03835587,0.03720123,0.03856981,-0.018659258,0.025648039,0.0118170865,-0.0054068416,-0.013706628,0.030150909,-0.030723935,-0.023498807,0.004999444,0.030815687,-0.02093131,0.005677033,-0.0045053773,-0.010014508,0.035393436,-0.037820373,-0.04226989,0.04087576,0.022470247,0.013666101,-0.023624714,-0.004948076,-0.024790097,-0.0076173097,0.03928231,-0.01564244,-0.022842154,-0.010067672,-0.028399969,-0.011601169,-0.0034749173,0.0030503795,0.014349718,0.017184224,-0.014429469,0.042835552,-0.0015206933,0.02221169,0.017803904,-0.011109676,0.015330438,-0.032455634,0.043141086,0.00897222,0.023572389,0.0007610284,-0.0039732717,-0.011938315,0.039326604,-0.010911871,-0.031254448,0.020555679,0.030059893,-0.006043788,0.015860975,0.03044517,0.006431505,-0.000241898,-0.03514079,-0.019005394,0.0006932467,-0.027745724,0.0026164018,0.033876177,0.04349516,-0.014127949,-0.03465227,-0.0012832545,-0.042358935,0.001287248,0.011904705,0.029066805,-0.017546665,0.012346141,-0.018709818,0.026959237,-0.016210763,0.039812084,-0.029019821,0.033422578,0.014069404,-0.021310057,-0.014167221,0.02541243,0.030728828,0.030539293,-0.014175918,-0.04007647,0.012469858,-0.025537413,0.03852054,0.0361599,-0.009231482,-0.015779965,-0.04235816,-0.027068654,-0.008042652,-0.04347456,-0.013487244,-0.011092097,-0.024246154,-0.03866172,-0.025485257,0.02500708,-0.005243294,0.039699707,0.027770545,-0.034604475,-0.02509986,-0.033900138,0.001931265,0.018824521,0.040354166,-0.042546127,-0.0019491538,0.040719148,-0.04372355,-0.043524608,0.019253884,0.022780601,0.00081267953,-0.013269013,0.012477104,-0.0026633665,-0.03897135,0.011996422,0.0224665,-0.03905987,-0.04176241,0.008652296,-0.00024116412,0.01949614,-0.04020658,0.008076973,0.036517676,-0.019430697,-0.0326112,0.005086355,-0.013254778,0.012572922,-0.018586233,0.010996208,0.032619704,-0.001349546,0.025827397,0.014278039,-0.025125848,-0.021656068,0.0012912862,-0.009054482,-0.009604409,0.037176605,0.029371973,0.00903818,-5.4448843e-05,0.039451,0.042376336,-0.042595826,-0.004926212,-0.041664813,0.015050963,-0.025247237,-0.023220163,0.02531116,-0.03451404,0.005085297,0.015673507,0.0147834085,-0.026813034,-0.030563924,0.03289404,0.01167015,-0.013896959,0.007846836,-0.014914004,0.029688101,0.0012515038,0.026886519,-0.03008905,0.0017323345,0.020539429,0.007421322,0.019511443,0.024298426,0.0012434945,-0.041372515,0.031129014,0.016659327,-0.038551033,-0.023211475,-0.029394086,-0.037679467,0.044009585,0.011352528,0.03631976,0.041328553,-0.029028025,0.023148205,0.030629683,-0.017844243,-0.0033410229,0.037092637,-0.02404012,-0.0130166635,0.041729007,-0.042654358,0.03696012,-0.011511359,0.040138777,-0.03257055,0.016448967,-0.029254418,0.015547536,-0.008188486,-0.0012770668,0.03262419,0.00413128,-0.029360533,-0.021423439,0.031462636,0.014097199,-0.025781432,-0.0066783316,-0.032513097,-0.023872996,0.021406133,-0.02067304,0.017009921,0.020440776,-0.024331624,0.0017810054,-0.013604861,0.037488524,-0.019693578,-0.021144025,-0.0320468,-0.025471617,-0.042946704,-0.013213463,0.004486311,0.009504672,0.01198161,0.03873905,-0.011431713,-0.023696786,0.0045288056,0.04094017,0.021684933,0.042357143,0.029022578,-0.015356621,-0.023822099,0.008801322,0.037040766,-0.0120921135,-0.012338173,-0.0130311735,0.009262353,0.0014270358,0.015882064,0.003623981,0.018792924,-0.040258307,0.026169818,-0.011626802,-0.01524128,-0.00051592663,-0.015368663,0.03828146,-0.010859903,0.0068397634,0.0015168376,-0.03689963,0.03400607,-0.009050809,-0.042725876,0.021335203,0.016103867,0.024578031,-0.024722725,-0.021496827,0.013162892,0.03838252,0.007103894,0.033703674,-0.0023058578,0.0256675,-0.034517553,-0.002682753,0.016071178,-0.011408851,0.020403836,0.014007751,-0.0134441815,-0.004362546,-0.04370453,-0.0046291314,0.018206269,0.014423817,0.005535908,0.008155953,-0.03262719,-0.027337778,-0.0001934506,-0.03729676,0.013398699,-0.025109205,0.035667006,0.017261717,4.3787062e-05,0.02076694,0.04195744,-0.01635686,-0.038602676,0.013742961,-0.03737835,0.026224356,0.04270084,-0.020497972,-0.0090753585,-0.03453054,-0.020954933,0.01642391,0.0011577122,-0.037026238,-0.039026074,-0.01444931,0.013983492,-0.022536851,-0.014351107,0.021182988,0.023545835,0.03359354,0.018204369,0.04186802,-0.032487895,-0.036235407,0.025450755,0.04235318,0.009694219,0.037021782,0.03619961,-0.014320323,0.01981448,0.03904083,-0.03205379,0.020849597,-0.032186743,0.017027322,0.021417845,0.0031590238,0.0076127797,-0.03489288,-0.0077598393,-0.023713904,0.0029337592,0.02039178,0.010659948,-0.015729556,0.0046784915,0.00010731071,0.013000958,-0.042359542,0.009301484,0.018285658,0.016330909,0.028094713,-0.040910948,-0.029947806,-0.023625795,-0.007277675,0.032486904,0.020887781,0.00045198202,0.0044096597
-0.022806786,0.019570608,-0.011890285,0.0322912,0.014149655,0.016064525,0.0014998168,0.015522208,0.01552346,-0.04239659,0.0154318325,-0.023658616,-0.023743132,0.025738087,-0.033417277,-0.02455202,-0.030363306,-0.032819476,0.028209034,-0.015804846,-0.031059103,-0.0330229,0.03915753,0.034225892,0.021734085,-0.023251968,0.015460767,0.034937974,0.0076803677,0.039806705,-0.032538712,-0.0396251,-0.043885574,0.0121973865,0.03900231,-0.005996622,0.007573843,-0.032119576,0.0019627884,-0.043007113,0.025188211,-0.037843224,0.036486212,-0.019422963,-0.022495827,-0.0274328,0.0016200244,-0.016363325,0.016562652,-0.0053593926,0.035547476,-0.022731101,-0.04099077,-0.03238675,0.038271543,0.0320562,0.008429535,-0.0081319325,0.021812249,0.01934797,-0.040636893,0.040351573,0.005576469,0.026480194,0.02857313,-0.02783814,-0.0068049207,-0.028014872,0.035256732,0.028366756,0.017947476,-0.012712002,0.03920019,0.04240414,0.032190252,-0.031478696,-0.0068391263,-0.0018315427,0.00074762106,-0.02930562,0.019741733,0.04311448,0.03528608,-0.029162694,0.03173097,0.014834795,-0.026570896,-0.017471043,-0.039103318,-0.035205994,-0.016343553,-0.023957327,0.013126742,-0.013628721,-0.032265976,-0.023345582,0.013176855,-0.034229174,-0.008278377,-0.02276965,0.0051635057,-0.008880805,-0.0076204985,0.03507777,0.012032546,0.008768193,-0.03572173,0.02576619,-0.0047785267,-0.031936154,-0.0055936836,0.020789567,0.037131924,0.004660081,0.0037669651,0.030312251,0.014551345,-0.012898214,0.008145142,0.042885635,0.04300833,0.020977896,0.03192899,-0.033181112,0.0074247792,-0.036422517,0.0017361604,-0.022966418,0.029561061,0.038859095,-0.020615978,-0.016701136,0.042015832,-0.023550574,0.014670111,0.010514997,-0.038875353,-0.015083304,-0.022961725,-0.0023188256,-0.040054932,0.021330137,-0.032729592,0.03560445,-0.029634777,0.022530738,-0.038887817,0.03790572,0.027178284,0.018635672,0.015262481,0.008289799,-0.03503368,0.03809016,-0.0030966885,0.024600152,0.020064306,-0.023099344,-0.02036521,-0.02933509,0.016056802,-0.005900927,0.03762242,0.028232228,0.028823037,-0.027615668,-0.043511294,-0.029047154,0.027761046,0.0071384124,0.03505457,0.04106844,0.008830424,0.04075251,0.043375637,-0.043805,0.03313281,0.019446712,0.029402856,-0.02303617,0.036437307,-0.042164437,0.02947085,-0.02166171,-0.015564442,0.01607199,-0.027470404,0.021375675,-0.035259906,-0.0012738146,0.030186456,0.02718633,0.03782734,-0.009822812,0.034061942,-0.022485096,0.0420547,0.0040769763,-0.021826334,0.029644806,0.0055676736,-0.020830942,-0.015635537,0.010262266,-0.017801423,-0.018719254,-0.040366203,-0.041462243,0.029725488,-0.03821367,0.0023585372,0.013497986,0.01667501,-0.0042108037,-0.025091615,0.024641763,0.013349172,-0.00039818138,-0.003070671,0.0010100082,-0.011644196,0.000609491,-0.04044069,-0.036753636,-0.01977824,-0.020361474,0.0125656985,0.028379168,-0.022525672,-0.014235882,0.028633665,0.02530292,0.01979639,-0.0393257,-0.021310221,-0.025879465,0.011903491,0.011155669,-0.04178673,-0.006398067,0.006802749,0.005878683,0.0016989596,-0.0371656,-0.03094873,-0.0020377226,-0.0017555282,0.041599225,0.015768934,-0.043960948,0.038962256,-0.0055727772,0.01426452,-0.007133808,0.033812713,0.026536074,-0.017046392,0.028174777,0.022924837,-0.01360438,-0.005553279,-0.01255196,-0.015648756,-0.018622464,-0.02799285,-0.008607931,0.021606032,0.010355312,-0.006870225,0.027507845,0.003007315,-0.038521793,-0.029907582,0.0075691156,-0.03419508,0.042982053,-0.01626588,0.012619134,-0.043547254,-0.036367267,0.0008062646,-0.02952295,0.00041126832,-0.03878118,-0.043150064,-0.01400936,0.0255193,0.04003674,0.030462388,0.03641594,-0.02918167,-0.008529279,-0.027013617,0.0062101744,-0.012611691,-0.016111866,0.031203073,0.023848813,0.013892543,-0.026867647,-0.04415181,-0.023105986,0.013626214,-0.03543874,0.0049428865,-0.015948046,-0.023561547,0.0073267333,-0.008364283,-0.0021818057,0.017177437,0.030739333,0.040110003,-2.9988587e-06,0.020291585,-0.032738946,-0.007578347,-0.025786558,-0.036863286,0.038001884,0.037477564,0.02425177,-0.03422857,0.0011277869,0.03412394,-0.034799732,-0.02758418,0.030816834,-0.0031037629,0.038818587,0.041095268,-0.019689796,0.017964028,0.003756363,0.040554952,0.015289374,-0.03911437,-0.025915707,0.008246109,0.00913436,0.009156428,-0.039884884,0.0023015179,-0.008010447,-0.042218957,0.0140034,-0.039793953,0.011533599,-0.005837254,-0.021053331,-0.012411702,-0.03869159,0.0022927374,-0.031169022,0.009212431,-0.025379626,0.023120489,-0.03866201,0.038227294,0.03090531,-0.03940902,0.0052505285,-0.029697975,-0.0144294165,0.016263828,-0.03686003,-0.041683234,-0.038955256,-0.014687523,-0.035168204,-0.0062320083,0.028246153,-0.0317384,-0.043169394,-0.017349087,-0.01580696,-0.0069510303,0.033719625,0.039745826,0.017073762,-0.018824257,0.03624947,-0.015192185,0.030328501,-0.0075476244,0.010613531,0.042744745,-0.025268104,0.012160856,-0.037999544,-0.0190324,-0.014770132,-0.023628175,-0.006758172,-0.011083089,0.0041326843,-0.032475058,0.0004095845,-0.02463185,-0.021260455,0.011680946,-0.014436159,0.04269905,0.041619983,0.03268573,-0.023251783,-0.014374118,-0.008266572,0.01633142,0.010445349,-0.009628728,-0.011651434,0.020764519,-0.028843148,-0.026961518,-0.036579266,0.007880069,0.037642818,0.029305357,-0.03368917,0.021573018,-0.028350605,0.034143526,-0.016237121,-0.033655364,-0.031961378,0.01732885,-0.040385574,0.026450854,0.0041133016,-0.038634077,0.038403038,-0.016254,-0.032909323,0.004468579,0.0062018335,0.027582813,0.003583748,-0.032474447,-0.040398024,-0.02590586,-0.006882407,-0.020556478,-0.018864471,-0.030459885,0.036360625,-0.018756127,-0.00415254,0.0056238137,0.02095149,0.032058645,-0.00257444,-0.021336552,0.0142699,0.009282663,-0.0037931912,-0.016547527,-0.039708246,0.038702566,0.031990867,0.015123274,0.023561332,-0.020447306,0.013795227,-0.0255716,0.0063314214,-0.031192418,-0.020397088,0.0087981075,0.01702144,0.03859276,-0.020576192,-0.016943691,-0.014297275,0.012642272,0.024737988,0.02893306,-0.03746685,-0.040452644,0.0049295686,-0.0025438033,-0.020226983,0.0074216127,-0.016690077,-0.008344039,0.024711747,-0.011816364,0.010844432,-0.03954347,0.016077373,-0.02821427,0.019336265,-0.043255694,0.0019561462,0.022407364,0.024097089,-0.018819122,0.024171818,-0.03826469,0.0041477755,-0.033101358,0.042608503,0.021271225,0.0029926747,0.040540103,0.043930683,-0.0005456954,0.036568854,0.015318166,-0.018777668,-0.02169392,0.027579356
-0.020193182,0.0076649375,-0.008745462,0.008083459,0.03780273,-0.0054377243,0.014597751,-0.029112525,0.018998872,-0.020111043,-0.029037446,-0.0016316734,0.04254226,0.01227187,-0.0358855,0.035953525,0.016639028,-0.022239417,-0.015661974,0.02252287,0.0021496043,-0.04305344,-0.04164559,-0.023836644,-0.03516753,-0.008270562,-0.029472928,-0.0037134811,-0.036983654,0.0070086084,0.0301623,0.02708437,0.020842936,0.017996415,0.029567402,0.014597025,-0.00014934316,0.034975674,-0.018530447,0.020719636,0.0271759,0.033553552,-0.04385339,0.01667098,-0.009785444,-0.00083781034,-0.031679757,-0.031760536,-0.0009146072,0.03508867,-0.02411728,0.004991874,0.014981076,0.036879797,0.021839399,0.033385936,-0.0319249,0.022422481,-0.018977989,0.035593282,0.018969756,-0.023315804,-0.022813773,0.011448301,0.026993815,-0.00874136,-0.028618837,-0.022755094,-0.03411089,0.037826356,0.027578901,-0.022505516,0.043842044,-0.0019845963,-0.007877063,-0.02777168,-0.0005957931,-0.029449653,-0.028576199,-0.028973944,0.01713238,-0.02965486,-0.008310951,-0.016556941,0.008769378,0.033727903,-0.037249885,0.042681176,0.00702725,-0.022648994,-0.03735532,-0.0074488297,0.023281436,0.03294033,-0.032374017,-0.0078053735,-0.026494883,-0.0417981,0.0346512,0.015196409,0.0037333295,-0.039236482,-0.014127396,-0.0029669255,0.0024796613,0.0022069998,-0.014143102,-0.017655604,-0.030662727,0.014037382,-0.040074013,0.017796066,-0.0027853288,0.007880524,0.016463477,-0.008602846,0.032021414,0.020274874,0.011808131,0.011504885,-0.030003209,-0.030301608,0.027317453,0.02908748,-0.03442364,-0.0035779774,0.035939906,0.042026427,-0.028103698,0.035396304,0.0415839,0.0131598525,-0.018393122,-0.014547849,-0.039707735,0.033726294,-0.0053712837,-0.043650884,0.024872731,0.013827257,-0.017609602,-0.036922045,0.008419786,0.03004105,-0.0041880533,0.00015603378,0.041771237,0.023147557,0.03557772,0.013034638,-0.0010686591,0.01606889,-0.0180074,-0.030480769,-0.010225501,0.012179855,-0.0346065,0.0030436292,0.037624445,-0.020292137,-0.0104004815,-0.034516234,-0.03944494,0.008328486,0.012144756,-0.04126735,0.029944684,0.017343465,0.04378018,0.03281073,0.007245127,0.0032136068,-0.042115696,-0.032567307,-0.0016565286,-0.031683378,0.0046584904,0.0069028065,-0.03152085,0.006509319,-0.037785225,0.043995533,-0.0067236125,0.04173984,0.006371539,-0.0012532696,-0.017616414,-0.038856722,-0.0060768947,-0.0036279522,0.02979936,0.028060753,-0.03339124,-0.0072106197,0.011677992,0.014084037,-0.03615785,-0.012799066,-0.025047233,0.011692077,-0.030870426,0.026778098,0.0067522563,-0.020303158,-0.043454774,0.00044617057,-0.002238661,0.023071129,0.017013919,0.0019066036,-0.0026340038,-0.033675574,-0.0051084124,-0.033532858,0.040283505,-0.0030952767,-0.0053057782,0.032049526,0.028441135,0.036119614,-0.037853148,-0.024974372,-0.005135052,0.0035483688,0.002862852,0.029045407,0.013958916,0.02636185,-0.00097509846,0.032480042,-0.008605849,0.031779375,-0.028652139,-0.016918704,0.028059658,0.024724413,0.016754571,-0.015532447,-0.022016633,0.006874256,-0.026890896,-0.03621106,-0.002698373,0.020464499,0.006353654,-0.040818512,0.012283288,-0.03814168,-0.029001456,-0.014692523,-0.03408375,-0.020611426,-0.031326875,-0.036431976,-0.003200557,0.03839312,0.034886774,-0.023521718,0.038526256,0.03469984,0.043744463,-0.026844196,0.0033032708,0.0035425164,-0.043276746,-0.032832667,-0.007062517,-0.016755158,-0.015024882,0.016195565,-0.003978703,0.0054191835,0.027797986,0.039811585,-0.025755117,0.0070955157,-0.018341655,0.04249994,0.020429302,0.021954391,0.008171864,0.04177065,0.0016730502,-0.031987585,0.021047723,0.024435375,0.0031325556,0.03905284,0.013222136,-0.03640161,-0.031698376,0.028657611,-0.007193513,0.031970594,-0.0397985,0.023204569,0.024535608,0.042226512,0.038457673,0.0021803044,0.038615804,-0.030347142,-0.021061538,-0.041336,-0.003183458,0.006724987,0.012763694,0.0050111488,0.014911775,0.039207865,-0.040351022,0.005888235,-0.034519065,-0.003444355,-0.031002995,0.012514096,-0.035515793,0.023885641,0.010219719,0.025552552,0.011097934,-0.014162384,-0.018670352,-0.040961005,0.0027437694,-0.007415585,0.015028454,0.03582262,0.035569575,0.040352505,-0.03926945,-0.029954934,-0.018267823,-0.020105653,0.0059043765,0.033790726,0.008851901,-0.036844254,0.0028643832,0.007430896,0.028810244,0.027259935,-0.013572592,0.012705099,-0.008214477,0.0021533892,-0.04400729,-0.012950994,0.018240787,-0.029769868,0.029723283,-0.024093436,0.0048977956,0.021790307,0.016451512,0.026033904,0.03927869,0.032501724,0.02759054,0.02993616,-0.021721864,-0.017526709,0.021329831,0.03209323,-0.028158182,0.0042587593,-0.0050547384,0.013505455,-0.040690705,0.0019170716,-0.016116738,0.038887065,0.027795564,-0.032329973,-0.0044208355,0.043135468,-0.006116133,0.015226949,-0.027168484,-0.023556005,0.039090227,0.004903782,-0.028946836,-0.03311065,-0.021602942,0.011675302,-0.014137806,0.03810231,-0.023012025,0.010084264,-0.026562983,0.02090476,-0.022672376,-0.035168182,0.007953748,-0.011334851,0.02474675,0.042682525,0.0062117614,-0.01464114,-0.020903587,0.021080602,0.006414946,0.013238128,0.03650179,-0.03077724,-0.002109006,-0.015219653,-0.0139593575,-0.026524803,-0.0065736137,-0.036682036,-0.003558889,0.03707991,0.0030090734,0.019302879,0.040670846,0.040462274,-0.0072030276,0.03569517,0.02306683,-0.012693815,0.04273135,-0.016175633,0.028825913,0.0028714165,-0.0066843443,-0.028599761,0.022358183,-0.009419937,0.011801302,-0.035372075,-0.041421723,0.020092066,-0.036585435,-0.025942964,0.0026490353,0.027872112,-0.018269047,0.0132160485,-0.037040167,-0.030833881,-0.033516068,0.023120876,0.03965937,-0.011448611,0.009949252,-0.039837033,-0.010536797,-0.0038412064,-0.037852105,0.009885248,-0.04309486,-0.01966337,-0.025222924,-0.0063698962,0.034737762,-0.025155287,-0.014581472,-0.011287805,0.0053852275,-0.01426488,0.04152893,0.021696586,0.03508996,0.013694234,0.0056985915,-0.02895824,0.03324129,-0.03622197,0.03445958,-0.026659025,0.0069974996,-0.016820006,0.001800172,0.031302143,0.03843857,0.009846751,-0.042334132,0.009028889,-0.031698056,0.035413217,0.03487209,0.01047207,-0.041554824,0.029820148,-0.014925152,-0.017317254,-0.03438973,-0.020302353,0.01957697,0.0415844,0.013776276,0.03533799,0.044171784,-0.0015512295,-0.03948852,-0.016795307,-0.022968367,0.025876392,0.0037451424,-0.017367663,-0.043608278,-0.025048852,0.03714807,0.018784482,0.0291663,0.036318194,0.014329787,0.009435646,-0.006320551,-0.030665288
0.04338869,0.039645266,-0.028159436,-0.043632083,-0.016464893,-0.02587326,0.018677589,0.026763815,0.0058692284,-0.0038808994,0.004057266,0.021223444,0.008146364,0.012541927,-0.034316838,-0.02418778,-0.002035275,-0.043870717,-0.0010396987,-0.011715148,0.031951312,-0.011243366,0.030125286,-0.026964368,0.004873283,-0.013609022,-0.014988299,0.034193065,-0.001177147,-0.029330317,0.027492318,-0.018715356,-0.04058886,-0.04298337,-0.012361016,0.023344692,0.02835941,-0.027756386,0.025142524,-0.015333645,-0.041684486,-0.0055033714,-0.011148542,-0.019962328,-0.029408958,-0.017374653,0.005854912,-0.01976027,-0.03229745,-0.023294847,0.033462014,0.035049055,-0.012200192,0.031379554,-0.02596111,0.028836887,0.013824467,0.012391616,-0.018547231,-0.037373953,-0.01155588,0.004157938,0.029774133,0.023624528,0.01763675,0.042465348,-0.02217118,-0.021818854,0.0011880919,-0.03691511,0.04360265,-0.010808058,0.014685769,-0.012230165,-0.035388358,0.033713836,-0.03397704,0.040153567,-0.039581317,0.014016598,-0.032649267,0.027893942,0.02137937,-0.02589547,-0.023786627,0.039075997,-0.0062142797,-0.018802041,-0.00890689,-0.012290731,0.01667104,-0.038543813,0.043379117,0.020817619,0.035613727,-0.014895223,-0.03491368,0.031621423,-0.034961715,0.01137054,0.013075668,0.024532992,0.004335724,-0.0022152178,-0.0054459423,0.022130106,0.023376051,-0.027823685,-0.023154093,0.032967415,0.037275244,-0.0024056993,0.014158618,0.023202669,-0.015123043,-0.009602971,0.0023456179,-0.03770983,-0.036257096,0.0008899681,-0.033724897,0.0020971969,-0.037710972,0.0013444386,0.014756091,0.033810828,0.022524264,0.014107663,-0.03371348,0.021792922,0.0052878633,-0.007725343,-0.00010728836,0.030118246,0.027301941,0.03490151,0.006651975,0.00013167784,0.0021488294,0.0051007792,0.0057281926,0.03835916,-0.029596724,0.021538328,0.0046917982,0.01622456,-0.021632807,0.037160303,0.038741443,0.044017795,0.03679843,0.029750925,0.017070916,0.03318448,-0.01294671,-0.040271066,-0.015984014,0.018965956,-0.015739914,0.012319997,-0.024488598,0.014630862,0.020564605,0.030269433,-0.03490051,0.039368767,-0.020550735,0.044167433,0.014649395,-0.019135026,-0.0015112422,0.02660608,0.03400522,0.000969097,-0.0016971789,0.012388475,0.023877937,0.033599507,0.002019897,-0.02096646,0.004028648,0.010236718,-0.024778364,-0.033950377,-0.027965402,-0.005151756,-0.035712183,0.012751613,0.024478916,0.011260878,0.04007328,-0.03602544,0.022749517,-0.037266895,0.013285544,-0.0007308684,0.039891127,0.0254247,-0.02013888,-0.015744492,-0.029522255,-0.007850967,-0.01306783,-0.020258667,0.042139504,0.037550885,-0.0108534545,-0.018251788,-0.013743013,-0.024882488,-0.019678721,-0.043731406,-0.024687938,-0.0070067123,-0.0104097165,0.017354228,-0.029593695,-0.0070028678,-0.019089757,0.017558381,0.025114391,0.03368928,-0.028076833,0.03101718,0.020144347,0.02044804,-0.04390721,0.0017884746,-0.008748051,0.0210138,0.007942446,-0.007686969,-0.035358343,0.041458074,0.021608379,-0.019368125,-0.02419093,0.003238678,-0.011711381,-0.022118106,-0.024876138,-0.02334577,0.022588197,0.042329628,-0.037344106,0.025013003,-0.035012614,-0.025831314,-0.04207253,0.040155318,-0.013702942,0.03490519,-0.020804264,0.03140949,-0.025505703,-0.031268135,-0.021071605,0.036986623,-0.037126694,0.044049416,-0.02505973,0.03967822,-0.01801448,-0.016564291,0.009592041,0.0221118,0.021421459,0.043848258,0.011524472,-0.035006855,0.016793516,-0.0021722317,-0.013573486,-0.0027134195,0.01026053,0.0068587996,0.030275594,0.015836332,0.038266685,-0.041050203,0.020428393,-0.013291173,-0.022166219,0.013582867,-0.026833117,-0.00652517,0.022942398,-0.014378408,0.0061646886,0.0027177148,0.025916059,0.04391813,-0.016030764,0.015586153,-0.0019388832,0.012598932,0.015999924,-0.031184621,-0.008779384,0.026163425,0.02997956,0.02377892,0.026276331,-0.020103531,-0.010556269,0.032133814,0.041599367,-0.017349707,0.009901371,0.01774003,-0.022991031,-0.014125537,0.0062002763,0.037154514,0.007585209,0.007903341,0.002536554,0.012380119,0.044043694,0.042413328,0.029956687,-0.027016388,-0.0015869774,0.029589515,-0.021299146,-0.04126622,-0.011472918,0.0065408796,0.0061620325,-0.017343601,0.025337283,0.015542965,-0.038664296,-0.031986333,0.0107767545,0.017814644,0.023062784,-0.00084221363,-0.018846316,0.0008931719,0.017895631,-0.04118813,0.016112957,0.029023502,0.018800307,-0.039638456,0.025460202,0.04000852,0.032245193,0.03239884,0.030955177,0.04183081,-0.0309391,0.024455246,-0.009536535,0.0047299787,0.0018371753,-0.038218193,0.009443991,-0.042219404,0.0061299913,-0.04273604,0.041359942,-0.011317816,-0.007052209,0.032009546,0.043585245,0.011119172,0.022243444,0.039026495,0.04128353,-0.021636507,-0.0025289431,0.0022355206,-0.043637376,0.014149249,-0.0095542,0.040154744,0.0032113045,0.0075613335,-0.0036848448,-0.019980282,-0.041983835,-0.017230827,-0.024977244,0.024475615,-0.03503057,-0.0046605915,0.02632733,-0.0017438307,-0.024667107,-0.04084299,-0.0009802021,-0.0038437545,0.0013499595,0.016153835,0.019641478,0.0041680075,0.03647097,0.032572668,-0.010313235,0.01952264,-0.024026955,0.009578101,-0.0015786998,-0.038748547,-0.021244302,-0.023019755,0.006793931,0.008501288,0.03896117,-0.0121589005,0.013816226,-0.040173702,-0.0019550808,0.04216979,-0.02535716,-0.037628897,-0.018386293,-0.030967617,-0.01810529,0.014840759,-0.02251503,-0.032659307,9.309873e-05,0.019743156,-0.03272593,0.03324068,0.025668379,-0.028488455,-0.033152267,-0.015701272,0.0070805214,-0.02317173,-0.03316294,0.037437577,0.044028837,0.0365603,0.0067742206,-0.036781717,0.041144002,-0.017105462,0.0031520836,0.004709862,-0.03998637,-0.04019589,0.016315535,0.0036586672,-0.02679714,-0.03210767,0.016161002,0.04187965,-0.020917423,0.034658838,-0.04400764,0.019879516,-0.009415954,0.005167365,-0.018778766,0.019848075,-0.00024092197,0.015404366,-0.035017364,-0.0014476813,0.030480396,0.014134228,-0.022900542,-0.042175513,-0.02130099,-0.027047038,-0.016750922,0.025689345,0.026010308,0.036702756,0.00906691,0.023064416,-0.033569906,0.0035194308,-0.034013897,-0.0038290657,0.0044276156,0.014355484,-0.014954392,0.027698886,-0.022586212,0.023550939,0.030214552,-0.009531636,0.017480362,0.026892852,0.024876717,0.00861847,0.014403243,0.040810656,0.026633244,0.027718704,0.019616585,-0.0074348673,-0.011298843,0.021240193,0.03867953,-0.025596783,-0.014715783,-0.0020169653,0.01692219,-0.02566958,-0.043150924,0.020306055,0.01663959,0.016967226,0.010763098,-0.036374897
-0.025332905,0.012691863,0.023728896,-0.015587874,0.030523825,-0.028165875,-0.023982864,-0.041139897,-0.04190001,0.022990223,-0.016406545,0.023259457,0.016575787,-0.00381428,0.008488148,-0.036522433,0.04008827,-0.018202217,0.030658457,0.023827057,-0.020007277,0.020275746,-0.026709665,0.005316049,-0.010513283,-0.0019861497,0.042444598,-0.0049926005,-0.04342768,-0.024512444,-0.0065230057,-0.04348958,-0.021802323,-0.024094246,-0.01062873,-0.037148267,-0.020063596,0.04259595,-0.034490895,0.025242355,0.022247147,0.044026386,0.035269182,0.0077923797,0.022999663,-0.010166917,0.041010592,-0.036795948,0.031856555,-0.04058749,-0.04056026,-0.019529274,0.009300534,-0.021526365,0.013798639,-0.039615963,0.042088803,-0.018064413,-0.034885004,0.010474589,-0.00023876876,-0.022810617,-0.00787358,0.026963186,-0.04366671,-0.031343915,-0.0057187565,-0.015428128,-0.018076003,0.0031755455,-0.013402993,-0.001200173,-0.0031488761,0.016167268,-0.0019270815,0.039922398,0.0055317096,-0.036140405,0.031219225,-0.005612321,0.0048174113,-0.0034963824,0.033272345,-0.029938187,-0.01811558,-0.03569042,-0.027015703,-0.012656521,0.022238199,-0.016357124,0.011145316,0.034133505,-0.0397101,0.040475387,0.030407358,0.003301952,0.016681876,-0.011433676,0.034338843,-0.0015596449,-0.037285995,-0.011743914,-0.02248645,-0.0029156655,-0.021605512,0.030424085,-0.042297617,0.02858309,-0.005342439,0.02791885,-0.022449302,-0.0056034774,-0.010425866,0.040264655,-0.016507883,0.02430753,-0.003265839,0.04362264,-0.016919704,0.018951904,0.013923127,0.041366737,0.0034753382,0.012117125,0.020753805,0.035274323,-0.032968417,-0.028035508,-0.042522244,-0.03163448,-0.020243678,-0.014798453,-0.0064598955,-0.039655052,-0.033865508,-0.032958504,0.0322774,-0.0386229,-0.009427853,-0.027837688,-0.036353573,0.02648573,-0.0076106973,-0.002151981,-0.03350391,-0.0039820224,0.028595295,-0.028820619,0.0015634783,0.034325417,-0.03561529,0.010287292,-0.034381624,0.0037579872,-0.027943965,0.043638516,-0.04048733,0.03301697,-0.022757655,-0.002493035,-0.0370488,-0.015975188,-0.035657354,-0.035606027,-0.022562668,0.01093746,-0.016447587,-0.008700784,-0.036866263,0.0025780797,0.040390078,0.009596501,-0.023608362,0.020691555,0.008919027,-0.022415722,-0.041073047,-0.01645845,-0.014316479,-0.010524478,-0.0009555742,0.043441746,0.03960797,0.005516354,-0.009317394,-0.011800479,-0.02280697,0.014518149,-0.0005013384,0.0051985867,0.005673997,-0.040123425,-0.016448723,0.0016255453,-0.028348738,-0.007431697,0.0062285364,-0.029317241,-0.030716844,-0.035074428,0.019723121,-0.04210337,-0.017395316,0.008228082,0.031203214,0.0058134682,0.005309481,0.0015386343,-0.0429307,-0.033744365,-0.008549515,0.0032520965,0.008090347,0.0067979395,0.038373854,0.03517447,-0.018206501,0.020767298,0.012035865,-0.04049394,0.016408704,0.0021945275,-0.0015965924,-0.0056978054,-0.023415456,0.021420214,0.0054187626,-0.018190784,0.02394386,-0.012402844,0.025970858,0.0033219457,0.01342513,-0.03839224,-0.02634768,-0.011175852,0.043104213,-0.028299458,0.015485294,-0.022469295,-0.0345505,0.022868756,0.023157757,0.033422764,0.021912966,0.0016147979,0.0015181452,-0.02476571,-0.04235771,-0.024291884,0.011826612,0.041894954,0.04060586,-0.02000233,0.036115278,0.030799042,0.0076747984,0.003892824,0.024813492,-0.0025956444,-0.04314595,0.011216257,0.0021248423,-0.014582241,-0.013249077,-0.01671802,0.040614527,-0.036435127,0.0053850487,-0.04029043,-0.038209178,0.008855421,0.028427456,0.024682377,-0.02861418,-0.0025876649,-0.008594915,-0.04218234,0.035540972,0.032241393,0.009357959,0.0015767962,0.033473466,0.016290069,0.033477005,0.016890887,0.044077996,0.013635885,-0.007795155,0.04002616,-0.03572955,-0.025575329,-0.025961136,0.008505598,-0.033419177,-0.04208149,0.01598572,-0.02587571,0.0016579404,0.011995915,0.036241498,0.027276758,0.030026164,0.0151095465,-0.03488035,-0.0032629333,0.0036164373,0.03460222,0.017216593,-0.010335233,-0.021077296,0.035015356,-0.0029433742,0.014466278,-0.025539361,0.0031853467,-0.009704426,-0.0030014701,-0.007070925,-0.0043595545,0.03390913,-0.0073526427,0.026986282,0.031275537,0.029658716,-0.010207597,0.038223412,-0.043950234,-0.031108547,-0.0056898817,0.008457091,0.0052520446,-0.036185667,0.03578945,0.030129787,-0.0059481747,0.01965518,-0.026767205,-0.007870849,-0.029168205,-0.037118293,0.00875685,0.019878615,-0.0033431984,0.01230786,-0.0048793927,0.044160273,-0.038529295,-0.031031907,-8.2504004e-05,0.008142859,-0.042050082,-0.026439803,-0.02277694,0.02470519,0.00031138584,-0.014062606,0.03106213,-0.002128169,-0.024828881,-0.025171189,-0.034260646,-0.026345663,-0.033491496,-0.008835487,0.012617122,-0.026720326,-0.028316285,0.039320428,0.037594464,-0.032737505,-0.025316827,-0.036647376,-0.0030223764,0.028409798,-0.017209865,0.019512054,0.013963498,0.016116112,0.031526584,-0.01312398,-0.0052367076,0.030408274,-0.038196854,0.04280882,-0.03388607,-0.01632073,-0.034027014,0.015344992,0.006047651,0.03749654,0.0052254386,0.03298417,0.02708127,-0.0019644126,0.043699186,0.030445252,0.043645408,0.031502176,0.010175962,-0.014389619,0.0012557507,-0.039556928,-0.041949518,-0.038761314,-0.023179123,-0.009809073,-0.042878676,-0.005843427,-0.029164195,0.03990488,0.014865335,0.0069489703,0.008947495,-0.011523563,0.026844341,0.0032609105,-0.02728392,0.02943791,-0.018105907,0.039461363,-0.04039527,-0.0047906227,-0.024135297,0.016814712,-0.014147196,-0.014385905,-0.035188414,-0.043704227,-0.021419344,-0.03624344,0.033695314,0.041260224,-0.015593091,-0.0058258995,-0.00601732,-0.02341594,0.011403572,-0.017326226,-0.03375394,-0.037341427,0.0018553846,-0.023268327,-0.0026176125,-0.042729076,0.043442603,0.018484924,-0.03649741,0.022884507,0.014004596,-0.017636796,0.011119697,0.04365855,-0.027281174,-0.03099104,-0.016524658,-0.029681822,-0.032326143,0.0048680417,0.039530385,-0.026567565,-0.04062414,0.02796254,-0.029657867,0.0416394,-0.013956349,-0.030959256,-0.03395221,0.036243375,-0.0066249,0.038480926,0.02627882,0.020068604,0.016380262,0.022612493,-0.037689667,-0.042885687,-0.0056178235,-0.006772466,0.005839769,-0.006528858,0.02894741,-0.004679028,-0.033697274,-0.040580764,-0.028435634,0.028888125,0.0046802275,-0.039122563,0.024594996,0.009268884,-0.039468374,0.029816803,-0.03171917,0.032400977,0.030518752,-0.0441436,0.006967768,0.017265514,-0.00279174,-0.014432045,0.013232604,0.00058471784,0.009195838,0.03189722,-0.0032843724,-0.011628374,0.036790166,0.01878016,0.007995889,-0.036529895,-0.04074945
-0.0136718955,-0.014216669,-0.03748651,-0.0017064065,0.009049393,0.0051620565,0.021357108,0.031336736,-0.0034175366,0.00024532527,0.022500265,0.00095932186,0.036914762,-0.008143589,0.038868863,0.040056515,-0.0025655665,0.040641185,-0.018689588,-0.0076217838,-0.023431282,0.036367144,0.018075671,0.0001895465,0.01297811,0.042012792,0.04328442,-0.014981704,0.019499589,0.035172764,-0.0054657497,-0.034626987,0.029152285,-0.00087829307,0.027264673,-0.008568659,0.022986952,-0.03711166,0.0425041,-0.013036072,-0.028547304,-0.0063802153,0.025162544,0.010777775,-0.024394896,-0.041607648,0.018326845,-0.014629493,-0.030421142,-0.0026943162,-0.029507998,-0.0017870888,-0.033865064,-0.027733294,-0.009234618,0.0349092,-0.016190311,0.005096093,0.0259923,0.009787116,0.017657302,0.004683327,-0.018484095,0.019825261,0.005179379,0.00038766488,-0.01160337,-0.03336638,-0.025126707,-0.041412096,-0.023486467,-0.043923233,0.007854786,-0.0045978613,0.0077863336,-0.026477125,-0.03996655,-0.014670895,0.040073257,0.03395621,0.03168508,-0.036909476,-0.028103724,-0.017450165,0.015528802,0.038372543,0.005942732,-0.0027264953,-0.0067487992,0.0427084,0.0014066212,-0.04097294,0.005269509,-0.025271967,-0.025100503,0.010854911,-0.026276737,-0.008539759,0.042205226,0.030015077,0.037397344,0.043953914,0.0025730953,0.036415596,0.0130950585,0.01724495,-0.03201429,-0.004405208,0.0022150315,-0.04329496,0.032309126,0.030525152,-0.0028735995,-0.013602389,0.03263204,0.026346024,-0.0026375242,0.034712475,0.03660764,-0.027545847,0.025600884,0.03823283,-3.1020492e-05,0.016062547,-0.015374128,0.029021759,-0.030899946,0.03982174,-0.03294698,-0.022997607,0.02788679,-0.029078485,0.03022955,0.016071144,-0.0004156381,-0.043559395,0.042828504,-0.0032206252,-0.0036854222,0.024729151,-0.008410189,-0.026966792,-0.03399379,-0.0068334267,0.026351307,0.028563272,0.041045014,-0.037429124,-0.0018756278,0.017726,-0.038698837,0.011882879,-0.030393869,0.01989973,-0.027583811,-0.020249236,-0.040150177,0.03727364,-0.012759786,0.010954302,-0.020979857,0.0045006573,0.030939158,0.0057639144,0.03802086,0.026507076,0.015407566,-0.022416048,-0.022011064,-0.016361464,0.04127844,0.0026425906,0.007048674,-0.009197976,0.01234258,-0.016129194,0.019889597,-0.022240717,0.0061190426,0.021541435,-0.022928733,0.030535225,-0.021005884,0.04373576,-0.03840605,-0.03839789,0.009500485,-0.011841785,0.035762835,0.043153565,-0.034530323,0.0021940656,0.0030451417,0.014029309,0.040482085,0.015113622,-0.021274,0.03038532,0.01274655,0.039974857,-0.04282799,0.0070298202,0.01735615,0.031107727,-0.0429953,0.040707696,-0.029984616,0.0028319098,-0.013932999,-0.009151552,-0.029322257,0.033487517,-0.02755348,-0.038852207,0.0011557229,-0.022475533,-0.037574798,-0.013263872,-0.007625032,-0.03284919,0.04110006,0.020811137,0.041477267,-0.0326886,-0.004298903,0.004689507,-0.039534815,0.008580357,-0.012440275,0.041034933,-0.031073902,-0.04292917,0.04047179,0.031073477,0.033055868,0.039378103,0.027906459,0.041272398,0.03268243,0.043885466,-0.028233282,-0.019357262,0.036327165,-0.016063202,0.027453106,0.040364835,0.014301479,0.02944171,0.02351993,0.028468747,0.008772127,0.008472398,0.011102498,0.04126207,0.034442265,-0.03230626,-0.025876174,0.02903651,0.032708433,-0.04006166,0.033437382,-0.0063291974,-0.0043295883,0.021551799,-0.026373358,-0.031105096,-0.019227829,0.0300867,0.014225382,-0.023841286,-0.03765183,0.0039889254,0.016599342,0.015828248,0.041860078,0.015116677,0.0011522733,0.031008441,0.0034810565,-0.033061046,-0.0150350705,0.028748985,-0.013268419,0.010163434,-0.023093337,0.00819353,-0.03796972,-0.005069807,0.0033357926,0.02292693,0.028290417,0.04283504,0.0035602823,-0.03516773,0.021209743,0.029658828,-0.019206112,-0.027856331,0.040313687,0.025345828,-0.0039802305,0.036416043,-0.044171575,0.03543892,-0.029191308,-0.008809738,0.03290386,-0.007955667,0.04414184,-0.010300662,-0.02043816,-0.0328078,0.027186874,-0.035677996,-0.043324426,0.023637656,0.018807273,0.04384386,0.034484465,0.028338034,0.037532974,0.034921516,0.018817011,0.040381234,0.035042,0.0072085448,-0.015860122,0.04008289,0.03143278,-0.041091412,0.023006853,0.0310225,0.043570418,-0.028436463,-0.031096714,-0.015037721,0.0133471675,0.03544643,0.021268424,-0.03594475,-0.025614768,0.012617249,0.015008055,0.042529207,0.029650819,-0.01959849,0.0050462633,0.039684776,-0.041304715,0.0057014413,-0.04210547,0.0372012,-0.023238376,0.03885627,-0.009845611,-0.017395595,-0.009584963,0.041621555,0.018738624,0.03767558,0.04299741,0.03276814,-0.015339313,0.032165308,-0.03924475,0.025654372,-0.021666372,-0.043028936,-0.022070339,-0.018094948,-0.006700944,0.00727465,-0.0051658824,-0.00980166,0.02030148,0.02764899,0.008195043,0.0060722716,0.020269495,0.033621784,-0.024008393,-0.02019,0.0143614635,-0.01448614,-0.040153112,-0.0080391355,0.031643603,-0.00035587326,0.023654226,-0.007792972,-0.024008572,0.0057163388,0.020927865,0.02103981,-0.009418223,-0.013746558,-0.012712989,0.022940036,0.015692875,0.017866366,0.027458016,0.028373744,-0.03289518,-0.020903893,-0.023484133,0.023457203,0.02691352,-0.018126817,0.010199189,0.034259196,0.031949457,-0.0032613277,0.035322364,0.01617039,0.034328293,0.020837326,-0.043622613,0.017279468,0.0045652427,-0.017808923,-0.020057363,0.025699545,-0.035462137,0.0061439835,0.04125114,0.009820405,-0.04040727,-0.014570788,0.03776231,-0.040604822,0.001307305,-0.04338449,-0.032149978,0.03772096,0.021955255,0.01755489,0.003925372,0.030948158,0.0082766935,0.0072560236,-0.0012363046,-0.018449847,0.021726076,0.024942655,-0.021071238,-0.004496198,0.0020705126,0.04204754,-0.02488972,-0.015723934,0.03738701,-0.02877263,-0.028207727,-0.007864103,-0.007887207,0.02553035,0.0007853657,0.015041757,-0.03412547,0.011825949,-0.03932128,-0.0402484,0.014361419,0.013132062,0.02899767,-0.007861741,-0.027825475,0.0008562282,0.0073961653,-0.0096417405,-0.017083567,0.026456628,0.008572679,0.040365163,0.035182793,-0.041082434,0.016509652,0.03065889,-0.02593903,-0.038435943,-0.0046588667,0.003743142,0.01745795,-0.02706237,0.009174854,0.015467197,0.041618418,0.037451047,-0.0279253,-0.01438218,-0.040654637,0.035958167,0.02480423,0.020783816,0.017095715,-0.011832185,-0.03398032,0.009101097,0.016955752,0.0040063597,0.038535807,0.024412658,-0.0030058809,-0.024205372,0.04279882,0.020004552,-0.037650183,0.019628163,-0.013262708,-0.017860718,0.010433216,0.037379462
-0.001047045,0.0146204345,-0.00059007853,0.03388126,0.013336442,0.00059614703,0.0056259297,0.03907315,-0.03079067,-0.03346749,-0.024304174,0.04241236,0.029449802,0.024419595,0.038025584,-0.033610992,-0.02551626,-0.007934935,0.019542415,0.0173084,0.043048482,-0.005246371,0.040387098,0.041197207,0.032583173,-0.04157837,0.020776872,-0.028600339,0.0064305775,-0.035733268,-0.042476606,0.031139117,-0.004056271,-0.011653941,0.00072617456,0.006988816,0.0017570443,-0.01895163,0.044085573,-0.013092376,0.006434303,0.013663117,-0.031266704,-0.036072154,-0.011689376,0.031826954,0.0044921227,0.034472715,-0.02900907,-0.027025323,-0.0034104772,-0.04003863,0.01874299,0.009443365,0.016402256,0.02120578,-0.04385833,-0.0065380186,-0.0010236725,0.011145402,0.016126107,0.032436755,0.0209595,0.018264748,0.02605601,0.0032149889,-0.026430579,-0.017204965,-0.014407873,0.019080866,0.01779978,0.03992727,0.013299286,-0.037259568,-0.015233709,-0.033823647,0.033408996,0.017467007,-0.0294769,0.04411799,0.012430303,-0.039453726,-0.02534103,-0.015183454,-0.023956984,0.0046896264,-0.016907055,0.028795723,0.04190808,-0.0068307407,-0.038971342,0.002780337,0.0014025457,-0.028760783,0.006343849,0.01020018,0.035411414,-0.024139417,-0.010500591,-0.024031548,0.029853057,0.03145236,-0.004244752,0.038953062,0.041124288,-0.016746102,0.03448915,-0.043407798,-0.00828439,-0.011360988,0.009513155,-0.018979406,6.6787004e-05,-0.008640658,0.0027000308,-0.0130649805,0.0012275204,-0.0063861534,-0.014248669,-0.032766867,0.027911078,-0.036825754,0.028363582,0.01674167,-0.035212133,-0.039541215,-0.034749247,-0.00015874952,-0.03366689,-0.014499143,0.012236685,-0.0023172721,-0.024107933,-0.016808774,-0.014357366,-0.03273019,0.020093549,0.008989617,0.0014589801,0.015320759,-0.014154898,-0.037506644,0.013030026,0.016384777,-0.01598425,-0.032961227,-0.030944511,0.029938046,0.0059016794,0.037748475,0.020063255,-0.00363582,-0.0002322942,-0.007170949,0.0039072186,-0.010054272,0.008690454,0.03490154,-0.039472766,-0.035351012,-0.03466264,0.03248709,-0.039840113,0.004066743,-0.043397512,0.016979448,-0.00795627,0.021666493,-0.029443007,-0.01688881,0.031698566,0.026513364,0.043149065,-0.03365366,0.03591114,0.035585646,-0.013056714,0.00043275207,-0.03474994,0.035957027,0.019150753,-0.039157223,-0.028070416,0.031989586,0.04249927,0.00728447,-0.042317886,0.03960095,-0.014681032,-0.014415154,0.009739373,0.026013035,-0.032985065,0.028418642,-0.013524817,-0.012233358,2.445653e-05,-0.0036202334,0.023510832,-0.017698737,0.02931479,0.029984701,0.0374397,-0.019731795,0.027765129,0.02992976,0.01944406,-0.032025576,-0.01355627,-0.038122468,0.025976669,-0.032163836,-0.043419767,0.0063099936,0.014268689,-0.017959172,-0.03239404,-0.034419846,0.01934876,0.010538973,-0.008700367,0.0025979616,0.008880425,0.02044842,-0.03641846,0.02470057,-0.014737789,0.021711733,-0.037075385,-0.018028298,-0.009637084,-0.029685844,-0.018063318,0.041761566,0.036554042,-0.013442405,-0.03130885,-0.012647305,0.00957251,0.019552957,-0.016609557,0.03869721,0.019592192,-0.03979464,-0.01806004,-0.039143167,0.021830175,0.014594711,-0.021346873,-0.013704758,-0.008903522,-0.016699914,-0.024400817,0.03991693,0.0077777915,0.0022564158,-0.031966455,0.018364381,-0.03147694,0.025051888,0.004394766,0.039731663,0.016700052,0.03854732,0.014198009,-0.027073428,0.041218866,0.028744768,0.017753858,0.034362864,-0.032008745,0.034526896,-0.008063056,-0.03761623,0.026358124,-0.030909624,0.031302016,-0.0016904399,0.036154706,-0.03574601,-0.03351055,0.019993912,0.028901476,0.0211558,0.036999118,-0.0306896,-0.022515299,0.028169554,-0.042620927,-0.03321439,0.036105853,-0.020770704,-0.024125097,-0.04001432,-0.0016404092,0.020352986,0.042390216,0.043526623,-0.04273933,0.011456076,0.029075991,-0.022522127,-0.015944805,0.018673752,0.023964595,-0.04006497,-0.029064445,0.021030094,-0.009312339,-0.029054778,-0.025331225,-0.015045118,0.03397761,0.035242464,0.031660136,-0.021841945,-0.019542176,-0.010498945,0.0032064468,0.04005209,-0.024130724,-0.0065222085,0.0010752045,0.025059316,0.038413662,-0.017305585,-0.038957566,0.043205958,0.037342597,0.0059717856,-0.00060423836,-0.022070587,0.006694641,0.032871272,0.040612232,0.014660943,0.01955526,-0.008342415,-0.022125741,0.03915589,-0.03485701,-0.0273168,0.011892203,-0.01628214,-0.021988643,0.01648273,0.03193864,-0.034839578,-0.026134312,-0.034801863,-0.033192113,0.027833369,-0.033882186,0.026565064,0.012495667,0.03133494,0.014730815,0.010226309,-0.0012327954,-0.016692027,-0.024873853,-0.0140588395,0.03888176,-0.011087894,0.015540052,-0.0001790598,-0.012183707,-0.032889202,-0.036221374,-0.0058374815,0.021620277,-0.012393903,-0.036293134,-0.02154804,-0.01892296,-0.0050520115,-0.027288372,0.043129746,-0.03393742,-0.0016200878,-0.041219417,0.032914143,0.03880923,0.011195004,-0.0047886446,-0.010565218,-0.00326569,-0.0036816895,-0.030161886,-0.030640744,-0.00038700923,-0.002943609,0.016910248,0.010131206,0.030191515,-0.024510594,0.03793064,0.00026462972,0.004886821,0.018371906,-0.028298527,-0.027912129,-0.031640444,0.009252273,0.02491143,-0.020233385,0.0013414435,-0.03370881,-0.027701547,0.021481898,0.032239843,-0.034264572,0.025066208,0.016804345,0.0062794164,-0.03386566,-0.01635707,-0.039331403,-0.018322114,0.028030176,-0.013219764,0.024064805,0.039250102,-0.014140926,-0.022878673,-0.020234311,0.015150681,0.004401285,0.0059568137,-0.011309415,0.0246527,-0.001640629,0.02463207,0.034631867,0.027047556,-0.021325372,0.02450389,0.007651508,0.01095102,0.0053288825,-0.022994515,0.028503496,0.026494864,0.009957939,-0.02509821,-0.004275061,0.018155128,-0.036222383,0.034851868,0.01886231,-0.028701697,-0.02635042,-0.034004014,0.029810194,-0.04004395,0.042507466,-0.0029222034,0.042751547,0.031561386,0.041070085,-0.032681897,-0.04016275,-0.033678994,-0.008268096,-0.0051941946,0.014096145,0.0033935793,0.021098267,-0.0063189305,-0.016105043,-0.034541037,0.018030338,-0.040838715,-0.01707805,-0.018089084,0.031768974,-0.010841355,-0.031479284,-0.019231955,0.016541358,-0.033272486,0.036030326,0.027468342,-0.0064661317,-0.013615245,-0.028168866,-0.029399749,-0.029837329,0.008694001,0.014717642,-0.027777476,0.009488381,0.0095813945,-0.040181067,0.0345256,-0.01854661,0.022568125,0.019441579,-0.014385778,0.008289695,0.033580367,-0.040010903,0.038401265,0.0021463446,0.025938917,0.0062876567,-0.023229161,-0.037240677,-0.02330325,-0.014160903,-0.011958763,0.039286915
0.030955229,-0.01404432,-0.027591866,0.03440852,-0.028559994,0.037016477,0.030775588,0.032931764,0.040101808,-0.042454388,0.03728075,-0.03063497,0.0069210716,-0.006528642,-0.009082831,-0.014941653,0.023514744,0.026345845,-0.04070478,0.025299411,0.01416041,0.018764395,-0.01298449,-0.037401777,-0.030399274,-0.038722765,0.02081677,0.04258767,0.008606117,0.023261022,-0.014510127,0.00070495903,0.0101865195,-0.019150874,0.025377546,0.01566011,0.031215947,-0.010035023,-0.029659469,-0.007162068,-0.022877688,-0.0044848733,-0.008181911,0.004116621,0.021478157,-0.03681203,-0.041054502,-0.01804354,-0.0038725734,-0.04411539,-0.032514185,-0.00795367,-0.013859075,0.043387037,-0.0044100285,0.04017886,-0.00027133152,0.010160863,-0.026968092,-0.03688983,-0.021072201,-0.0033412278,-0.03622758,-0.007874824,-0.025221584,0.022850584,0.025640797,0.040418986,-0.015779916,-0.017969694,0.042348903,-0.0027170293,-0.03027613,-0.016687648,0.042678755,0.024030376,-0.026896965,-0.04306695,0.032193806,0.006706007,-0.02395748,0.041937668,0.02694131,-0.0070127137,-0.009605035,0.031592134,0.0029981174,-0.015724977,-0.026913766,-0.04356151,-0.04078409,-0.03702466,0.041672032,-0.014882078,0.027633939,0.02689417,-0.027587714,-0.012843128,0.013031699,-0.027684346,0.0046432987,0.007164791,0.015316077,0.014501356,0.039725367,-0.029383503,-0.028036205,-0.008336142,0.02225085,0.004394088,-0.015609123,-0.013309801,0.028137643,0.034786988,0.036435824,-0.015568903,-0.017082106,-0.0167758,0.0054196194,0.03569175,0.028317247,-0.03374971,0.010692261,-0.032187887,0.035480384,-0.011343952,-0.0139070265,-0.03574385,0.0021554232,0.037491646,-0.04305818,-0.021811932,-0.037939876,-0.013191637,-0.0020275041,0.003893178,0.0337633,0.015340548,-0.023549736,-0.010130554,0.03599081,-0.024276875,0.02531572,-0.02441512,-0.02860024,0.016259894,0.01060598,0.0016153269,-0.020642472,0.0030084327,-0.007375773,0.04208571,-0.03006225,-0.03741824,0.006481562,-0.043145474,-0.043503646,0.036119055,0.03686152,-0.029175319,0.02164961,-0.04396734,0.0034667403,-0.020692047,0.021228965,-0.021741278,0.027042773,-0.010214735,-0.021162396,0.005808864,-0.028607536,0.025196817,-0.033606865,-0.015994038,-0.021166796,-0.013944386,-0.0381213,-0.029186193,0.043102678,0.03177088,-0.016812503,-0.0215554,0.03924397,0.03332139,-0.0428361,-0.014023321,0.024724025,-0.041882083,-0.024372142,-0.008075733,-0.011045687,0.025085133,-0.008494116,-0.026829636,-0.009682443,0.042202283,0.020194579,0.016271949,0.014922317,-0.036568128,0.022183333,-0.041496634,0.039605293,-0.01095406,-0.034264863,-0.038203273,0.026742194,-0.03968109,-0.016903168,-0.015590109,-0.014750795,0.0118971765,0.009831458,-0.021339376,-0.008161947,-0.022628821,-0.018824268,0.010061037,-0.037580457,0.022669721,-0.0283995,0.0073098503,-0.034597926,-0.0019080453,-0.027148113,0.017117754,0.029389191,0.043709192,0.0045805834,0.020709943,0.018692102,-0.020696616,-0.02366359,0.0137235075,-0.014642773,0.0034566,-0.038238406,0.02137975,0.014667328,-0.03948566,-0.00444106,0.018184248,-0.025909875,0.021659385,0.00038345903,0.01721228,0.026293274,-0.016481288,-0.012136236,0.01897597,-0.037810896,-0.009059228,-0.032197084,0.016444959,-0.013242302,-0.02263153,0.01470609,0.03704186,0.036674913,-0.00501382,-0.010642517,-0.019336784,0.0035062023,0.004846271,0.01758992,0.03473973,0.03195669,-0.027815713,0.03554904,-0.0069543943,-0.037735246,-0.0054361634,0.0127277,-0.03866956,0.008034237,0.031668264,0.040746268,0.031015735,-0.015887586,0.017370407,0.012638696,-0.013755757,-0.015746104,-0.025633402,0.03685006,-0.0270559,0.027408343,-0.041639406,-0.009678122,0.006246716,0.017355923,0.03611098,0.012386333,0.028567549,-0.010210432,0.020785537,0.012811292,0.0051185824,0.003930416,0.005012516,-0.02505697,0.021315213,-0.020657966,-0.0260148,-0.03468003,-0.04312751,-0.030286135,-0.0438552,-0.0398526,-0.010471132,-0.014119051,0.02854218,-0.025494086,-0.028319973,0.020306144,-0.0010606982,-0.019662859,0.02402823,-0.043693822,-0.021467717,-0.032554403,0.02063873,0.031812612,0.01130062,0.009115372,-0.036161356,-0.0023565479,-0.041716572,-0.04130535,0.013193164,0.014690489,0.029593918,0.021363791,-0.023131507,0.015259255,-0.017122667,-0.04021082,-0.042180967,-0.025489159,0.020190302,-0.0078116804,0.035822812,0.032103915,0.020061854,-0.007847391,0.017731525,-0.013869569,0.023410771,-0.034504008,0.036940325,0.015013456,-0.002516713,-0.016262177,0.022157382,-0.03217638,0.014610164,-0.02683817,-0.03998339,0.0021937117,-0.03897366,0.0155802,0.028114874,-0.028592136,-0.0069749467,-0.03241422,-0.040208925,-0.041961897,0.01831558,-0.034949765,0.012737695,-0.018398568,0.026926901,0.0065927505,-0.027896134,0.0035072975,-0.018947288,0.0035966113,-0.036034532,-0.0026536807,-0.017880678,-0.035615303,-0.013536999,-0.013134133,0.00477235,-0.00080852583,0.002033539,0.02260859,0.042468097,0.03763685,0.016045425,-0.030656748,-0.013971923,0.020565402,-0.006097421,-0.0057939477,-0.0108266175,-0.024373475,0.0016271733,-0.01733345,-0.013275361,-0.037392374,-0.025643945,0.04387557,-0.040812925,0.026109938,0.037519697,-0.015674118,0.0066758543,0.01867095,-0.022249242,0.027765159,-0.041085385,-0.019014372,-0.0004953258,0.040272627,-0.00044241175,0.041566055,-0.029324755,-0.012986571,0.025657948,0.014961593,0.02986307,-0.0071841404,-0.0017575808,0.021785613,-0.007567972,0.0011676587,-0.02546747,-0.040383656,0.044066798,-0.035786193,-0.03443165,-0.03115939,0.03174034,0.004742522,0.0098881945,0.032731023,0.026927862,-0.041995615,0.011509683,-0.027588652,-0.041673444,-0.009900875,-0.0064513795,-0.032136545,0.0075197257,0.016640093,-0.023145763,-0.023793587,0.036160324,-0.021138847,0.011942435,-0.034787666,-0.041971345,0.014024384,0.009932648,0.00041454658,-0.0153710395,-0.019636512,0.003071215,-0.03692395,0.0016738214,0.016086318,-0.012634408,-0.009998411,0.0005764067,0.017455753,0.034342308,0.023988534,-0.020843012,0.03605851,-0.010159772,0.00093218684,0.0014239699,-0.00039270148,-0.013925867,-0.018931717,-0.009715702,0.024812195,-0.03371799,0.037715588,0.029791813,-0.037040118,-0.026984867,-0.015316965,-0.028795853,0.043686908,0.03154232,-0.027692491,-0.016097762,0.0020591542,0.000740204,0.028048452,-0.019155195,0.04092561,0.010529857,0.027516682,-0.0038998947,-0.015975289,0.035429273,-0.017190551,-0.017962566,0.011453591,-0.0265207,0.012213994,0.02186193,-0.029429464,0.043092,0.035013225,0.03781281,-0.024806501,-0.022813035
