0
0.04291859
-0.0158411
-0.016990071
0.036192257
-0.024385013
0.009321772
-0.03900109
0.023250464
0.0097217485
0.00045774132
0.03914797
0.014828265
0.012344338
0.038993243
-0.040246073
-0.0012096167
-0.027187187
-0.03486114
0.027641702
0.004555475
-0.001992505
-0.015782623
-0.014978038
-0.044663344
0.02443735
-0.015666738
0.013682567
-0.028462235
0.036868263
0.023563284
0.011428922
0.011516254
0.026936825
0.0064323545
-0.02573757
-0.014431696
0.00083003193
-0.030491557
0.004318565
-0.0022548698
-0.03213087
-0.02443816
-0.010091521
-0.019646091
-0.03770172
0.040567126
0.043225925
-0.025315851
-0.029231668
0.026408542
-0.04255876
0.04049224
-0.02312452
-0.022075595
0.042645063
-0.03041039
0.035412926
-0.00073845685
-0.041315533
-0.012369353
0.005430661
-0.02894335
0.041283857
-0.037023433
0.022491533
-0.030296627
0.044070337
0.018783133
0.035992976
-0.02461402
0.033786792
-0.011708006
0.020214837
-0.009537641
0.003953412
-0.036681104
0.010900702
-0.026257709
-0.015801063
0.01782718
-0.034527205
0.028175872
0.020573031
0.03999571
-0.029532086
0.022322219
-0.013402056
-0.043951847
0.021298815
-0.03751604
-0.008399971
-0.026487857
0.022764605
0.009278577
-0.03957149
-0.004279174
0.018524844
0.01028965
-0.010074381
-0.025315536
0.04235911
0.013514329
-0.019486966
0.01708579
-0.025341185
0.00038779154
0.029961262
-0.01871158
0.017060976
-0.034872446
0.035349462
0.041470174
0.025134739
-0.018869122
0.026922215
0.025501769
0.017436605
-0.04325106
0.03108817
0.03693754
-0.00929204
-0.006369412
-0.03949485
0.0006733164
0.01663844
-0.028596908
0.0005713701
-0.032410152
-0.0196068
-0.030810684
0.003127873
0.017079972
0.0019490644
-0.024371028
-0.03463083
-0.030162275
0.037304383
0.02769785
-0.029097423
0.027586807
0.019266006
0.03515997
0.043132093
0.009705484
-0.033284493
0.025808115
0.042662848
0.0053936243
0.030569945
-0.032826852
0.017493155
-0.011049479
0.03806265
0.021314178
-0.0035825558
0.027030397
-0.004006557
-0.0018181577
-0.023190977
0.0051671304
0.03917909
0.014989592
0.025044624
-0.032122277
0.030937526
-0.017865263
0.01751006
-0.030486017
-0.028647276
-0.03202209
-0.033439048
-0.035878327
0.021962266
-0.038738884
-0.040597416
0.0071588457
0.020890433
0.009720784
0.007389687
-0.015754815
0.016790904
-0.04045407
0.031809118
0.040666554
0.0021449924
-0.016464978
0.0066190064
0.00698141
-0.0057526603
-0.0421589
-0.03960817
-0.021316165
-0.0416963
0.011262611
0.030121166
0.01105452
-0.00053363666
0.042214748
0.027819451
0.036696326
-0.0034681074
-0.0031590946
0.03938509
0.040099163
0.019089174
-0.023736216
-0.0019680038
0.015087478
0.031345006
0.0074308626
-0.012526806
0.0048263706
0.030957427
0.0400046
-0.034140024
0.013836537
0.021858077
-0.0067481026
0.036432203
0.0036532767
-0.026390184
-0.016164359
-0.004479386
0.034617905
0.0033309571
0.04463206
0.014539182
0.024906907
-0.020920824
-0.008194905
-0.0022361875
-0.026006205
-0.010870479
0.029540341
-0.037818722
0.022242542
0.033581343
-0.03179328
0.03469033
-0.0055974536
-0.021055074
0.014615666
0.022537854
0.0077122003
0.00015132129
0.017453484
-0.0031845123
-0.014725195
-0.007083904
-0.0007732548
-0.020727942
0.0050793774
-0.03689857
0.0114633255
-0.002133295
-0.019512065
-0.028665217
0.036994997
0.007145144
-0.016025065
0.029667173
-0.009093352
-0.030711155
0.0267368
0.003139805
-0.012134157
-0.017778412
-0.029032705
0.026522044
-0.018481517
0.0063252
0.0047877505
-0.039360747
0.02105182
-0.001053799
0.00047135353
0.009279948
0.003380686
0.012947895
0.024776157
-0.032195825
-0.004474461
0.0400359
-0.03226885
0.0084117465
0.03741536
0.02673382
-0.036335938
0.0051802434
0.03649975
0.0150138065
-0.011140697
-0.012125663
0.041024182
-0.00911738
0.010422919
0.026419688
0.029674891
0.036432136
-0.02725731
0.024059515
-0.037234396
-0.02311415
0.0023158155
-8.114055e-05
-0.0220748
0.009498123
-0.033749152
-0.02556073
0.04297327
-0.010284271
0.027228381
0.020739872
-0.038514286
-0.0048145764
0.03511812
0.033849593
-0.0064603463
0.022083428
-0.013166323
0.00016354397
0.04369614
-0.038667142
0.039254908
0.030686233
0.023177136
-0.02771832
-0.014331229
0.02579097
-0.0075082555
0.035780508
0.018480454
-0.020133598
-0.03880225
0.011073917
-0.033911716
0.042291407
0.0032607652
0.032025103
5.71087e-05
0.028834354
0.030356798
0.012946174
-0.028579768
0.0053943507
-0.016753498
0.012633912
-0.034618143
-0.020429447
-0.04421513
0.0051953793
0.011770442
0.029605929
-0.013361149
0.007278014
-0.0064604133
0.02915861
-0.013256367
-0.03546563
0.012563083
-0.008781765
-0.010849725
0.01377077
-0.04346984
0.0061030537
-0.043301146
-0.013212334
0.010329992
0.041972313
0.032686476
-0.025273873
0.025661413
-0.041330073
0.035526644
0.03635372
-0.027914017
-0.035491403
-0.033541597
-0.025461664
-0.02213483
0.025090244
0.0048667938
-0.041108135
0.043588717
-0.0067857765
-0.031859174
-0.003506396
0.031646986
0.0022125393
0.013723627
-0.021358341
0.016078535
-0.038844086
0.023397688
0.014324855
-0.023101823
-0.023028424
-0.0048189536
0.022204053
-0.0011202991
-0.020977292
-0.009261042
-0.00059871003
0.011788465
-0.030470254
-0.025715323
-0.041657217
0.022116859
0.034362506
-0.029429864
0.042898905
0.027563695
-0.010463428
0.027080726
-0.022237662
-0.018443707
-0.03385819
0.03854819
-0.043726437
-0.040435314
0.026268516
-0.041063182
0.011340361
0.025526885
0.020959105
0.0015808567
-0.015377568
0.034882832
0.04134391
0.03747608
-0.013932023
0.024987403
-0.028856387
0.024991427
-0.014384676
-0.031512823
-0.0012339801
0.022979219
0.0012413561
0.018118132
-0.036073342
-0.00053087994
-0.015426414
0.042409975
-0.021600856
0.03802594
0.043828573
-0.020693833
0.0245342
-0.017280605
0.04123148
-0.02689102
0.025363047
0.017328788
0.0060904175
-0.013549628
0.031440053
-0.018451663
-0.020341167
-0.024197264
-0.028669316
0.0069259442
-0.039963365
-0.031522132
-0.024140034
0.015684523
-0.03284896
-0.03174037
-0.034167964
0.023480032
-0.020965239
-0.012151163
-0.034091238
0.024979848
0.009814698
-0.030488387
0.00992386
-0.016309233
-0.015159005
-0.0015040934
0.010408949
0.026331175
0.033296887
0.03753082
0.008374799
0.02547409
-0.017450586
0.016493596
-0.037877038
0.03850803
0.0039446615
0.043835733
-0.038693253
-0.026465781
0.0032550246
-0.025960617
-0.026318459
-0.012325343
-0.0373172
0.022609036
0.000628341
-0.01172794
0.040327433
0.04164548
-0.04062026
-0.022460604
-0.04061518
-0.015435876
-0.027800959
-0.021813177
0.0021569394
-0.040713936
