0,1,2,3,4,5,6,7,8,9,10,11,12,13,14,15,16,17,18,19,20,21,22,23,24,25,26,27,28,29,30,31,32,33,34,35,36,37,38,39,40,41,42,43,44,45,46,47,48,49,50,51,52,53,54,55,56,57,58,59,60,61,62,63,64,65,66,67,68,69,70,71,72,73,74,75,76,77,78,79,80,81,82,83,84,85,86,87,88,89,90,91,92,93,94,95,96,97,98,99,100,101,102,103,104,105,106,107,108,109,110,111,112,113,114,115,116,117,118,119,120,121,122,123,124,125,126,127,128,129,130,131,132,133,134,135,136,137,138,139,140,141,142,143,144,145,146,147,148,149,150,151,152,153,154,155,156,157,158,159,160,161,162,163,164,165,166,167,168,169,170,171,172,173,174,175,176,177,178,179,180,181,182,183,184,185,186,187,188,189,190,191,192,193,194,195,196,197,198,199,200,201,202,203,204,205,206,207,208,209,210,211,212,213,214,215,216,217,218,219,220,221,222,223,224,225,226,227,228,229,230,231,232,233,234,235,236,237,238,239,240,241,242,243,244,245,246,247,248,249,250,251,252,253,254,255,256,257,258,259,260,261,262,263,264,265,266,267,268,269,270,271,272,273,274,275,276,277,278,279,280,281,282,283,284,285,286,287,288,289,290,291,292,293,294,295,296,297,298,299,300,301,302,303,304,305,306,307,308,309,310,311,312,313,314,315,316,317,318,319,320,321,322,323,324,325,326,327,328,329,330,331,332,333,334,335,336,337,338,339,340,341,342,343,344,345,346,347,348,349,350,351,352,353,354,355,356,357,358,359,360,361,362,363,364,365,366,367,368,369,370,371,372,373,374,375,376,377,378,379,380,381,382,383,384,385,386,387,388,389,390,391,392,393,394,395,396,397,398,399,400,401,402,403,404,405,406,407,408,409,410,411,412,413,414,415,416,417,418,419,420,421,422,423,424,425,426,427,428,429,430,431,432,433,434,435,436,437,438,439,440,441,442,443,444,445,446,447,448,449,450,451,452,453,454,455,456,457,458,459,460,461,462,463,464,465,466,467,468,469,470,471,472,473,474,475,476,477,478,479,480,481,482,483,484,485,486,487,488,489,490,491,492,493,494,495,496,497,498,499,500,501,502,503,504,505,506,507,508,509,510,511
0.1730509,0.4430606,-0.034596168,-0.0060800547,0.03666947,-0.002872314,-0.03954118,0.01558869,-0.042389605,0.046665777,0.30440977,-0.32331848,-0.16523978,-0.0025322482,-0.02867029,0.16658515,-0.09844271,0.23584574,-0.026873967,-0.03378548,0.119233355,-0.026699398,-0.06726074,0.033128884,0.03801754,0.026552606,0.1649461,-0.042714734,0.0587642,0.014038191,0.16694273,0.124495454,0.16634794,0.21449524,0.021534601,-0.106940806,0.18843168,0.19331245,-0.019018985,-0.0006426791,0.14142095,-0.029031523,-0.050772414,0.012141322,-0.10162095,0.10838802,-0.01009598,0.18592189,0.27495405,-0.08539585,0.14501649,0.20585953,0.00053039874,-0.051100474,0.0043208734,0.02631784,-0.017489458,-0.056106415,-0.09333035,0.10332729,0.02458515,-0.14738947,-0.14547922,0.096788295,-0.0203345,-0.023513705,0.14277974,0.06948357,0.2411149,0.22178933,0.06468579,0.030421393,-0.055067465,-0.0010603607,0.02749015,0.13437995,-0.03561588,0.23810938,-0.19737497,0.057847958,0.046739258,-0.08990123,-0.07993084,0.024931053,-0.20905876,0.024364226,0.11137148,-0.075860634,0.29253766,-0.094257824,0.14463241,-0.24671699,0.067587055,-0.2726485,0.09217335,0.06400902,-0.018752381,0.075457156,0.12074331,0.04053156,0.026962828,-0.023064416,0.040473893,-0.3157771,-0.23193277,0.2627116,-0.08857472,0.007883715,0.12590675,-0.062748834,-0.077678785,0.30606943,0.06565145,0.089532405,-0.1956397,0.030643012,0.04855895,0.13463993,0.048703793,-0.0071379277,-0.1912939,-0.04529781,-0.2907907,-0.12135328,0.22231184,0.0689882,-0.038819708,-0.027000682,0.15229979,0.0656148,-0.08280696,0.016971681,0.07560523,0.094293624,-0.25307804,-0.04370167,0.06931369,-0.1785928,-0.052868165,0.13975467,-0.050582677,0.13856886,-0.1161707,0.11140659,-0.029127833,0.13027982,-0.039961193,-0.1863544,0.09791152,0.031550087,-0.11658343,-0.08571301,0.07339467,-0.058320906,0.064809635,-0.25045335,0.036264528,0.2072025,-0.15862021,-0.06457709,0.13826787,0.065477,0.094718456,0.063896924,0.03759807,-0.005944822,-0.005875915,-0.10399291,-0.021235084,-0.0025899478,-0.08580907,-0.24562766,0.12128217,0.26551864,0.08625314,0.07730526,0.003756737,0.11895012,-0.058508262,-0.11578855,0.15565921,-0.14453079,-0.16473165,0.0926097,0.1775089,0.09551835,0.051170528,0.042719807,-0.14142156,0.014598463,-0.04907852,-0.024373759,-0.025987647,-0.1765514,0.2356395,0.03466305,0.14883135,0.011002391,0.29241145,-0.0048921816,-0.07129971,0.01001332,0.027974473,-0.038816366,-0.012067811,0.09980737,-0.012507651,0.10176438,0.053977717,-0.013347143,-0.060829993,0.3075483,-0.13353096,0.0372665,-0.03630341,-0.114960365,0.07904406,0.07986991,0.18650207,-0.20452797,-0.100339465,-0.080827385,-0.2386463,-0.022045946,-0.24684183,0.08612912,0.15739854,-0.3565231,0.01614956,0.21474074,0.15797172,0.2693848,0.027840788,-0.054777935,0.05099523,-0.06197506,0.050466992,0.14796568,-0.20142707,-0.11569451,0.05616114,-0.22511725,0.13266334,-0.28688437,0.18955605,0.1423502,0.0028608115,-0.015454947,0.047732104,0.053530496,-0.1711471,-0.024627518,0.157391,0.31185737,-0.117131695,0.028538164,0.16963299,0.035799034,0.5121703,-0.10497579,0.12828317,-0.10985173,0.19620396,0.11079921,0.059973225,-0.031637438,-0.064372264,-0.012311924,-0.104682185,0.010066444,0.12109289,-0.15506208,-0.4170793,0.00021416973,0.041621447,0.1425688,-0.15445602,-0.06772972,0.047906414,0.042427637,0.03591838,0.050661456,-0.22742875,0.0067681368,0.2885429,-0.059128605,-0.031084731,-0.05514598,-0.22194383,-0.023565352,0.105145864,0.120808706,-0.11896012,-0.058135383,0.036633305,0.058137134,0.0788174,0.03702412,-0.037513036,0.042188056,0.027120588,0.08145462,0.08388314,-0.15198234,0.05716479,0.222148,-0.007550729,0.02038438,-0.22221762,0.017700462,0.06235006,-0.016400516,-0.03363975,-0.24582121,0.09976124,0.08803698,0.2938702,-0.14062615,-0.052234158,-0.08951361,0.018212803,-0.04665306,0.09165773,0.10622558,0.028678264,5.0668394e-05,0.12256676,0.13832268,0.23298773,0.04969564,-0.065618075,-0.041953254,0.045906134,0.12274411,-0.1306728,-0.14425254,0.16585411,-0.08097725,-0.073727764,0.087841645,-0.30578896,0.032104947,-0.049387883,-0.025436986,0.09877186,0.10395194,0.054878976,-0.013609496,0.066422075,-0.009831266,0.05390218,0.10116782,-0.11746981,0.013510591,0.21193655,-0.052572433,-0.1808263,-0.050227053,-0.0637693,-0.13422626,0.07515416,0.26807427,0.01965292,-0.04200366,0.11231492,0.008975131,-0.035370573,0.14029121,0.17462178,-0.26572755,-0.083499454,0.037672285,0.10657854,-0.11623389,-0.029870093,0.083062254,-0.18793085,-0.22701457,-0.05919827,-0.063206345,0.034685463,0.17794958,0.019129308,-0.2978131,-0.1179851,0.025093604,0.02990507,0.14084542,0.11522827,0.10578666,0.2769405,0.009996115,0.13010807,0.042422745,-0.05823732,-0.015339599,-0.073153466,0.2914934,-0.26022372,0.174293,0.0306511,0.09358534,0.08344728,0.022786073,0.12656008,0.10285248,0.19969897,-0.0022256924,0.22864892,-0.20351674,0.12045994,0.13102807,0.08202316,0.030609887,0.081738174,0.06675743,-0.17763264,0.17874354,0.13889825,0.13236211,-0.26939574,0.1497478,0.18787229,-0.0029089656,-0.36610588,0.047556013,0.010976126,0.13324837,0.03672646,-0.006483214,0.029633127,-0.25317454,0.06133933,0.048895508,0.13045835,0.13726494,0.0591375,-0.16931985,0.042259965,-0.23001464,0.054627877,0.043068606,-0.07606354,0.06403101,-0.07798889,0.011671552,-0.06913128,0.13627389,-0.12620588,-0.17955782,-0.011421659,-0.049997777,-0.118557766,0.007056421,0.04326013,-0.02746003,0.028549174,-0.1873988,-0.07819737,0.041056983,-0.25060612,0.03917618,0.077340655,-0.08398514,-0.043399148,-0.19409223,0.004081156,-0.28818792,0.13903518,0.05677185,-0.2114646,-0.08906934,-0.009545068,-0.18033296,0.085042454,0.16636445,-0.200721,-0.17218687,0.27338904,-0.19815207,-0.042248793,-0.26594907,0.13859268,-0.062039014,0.06817398,0.16131088,0.05244571,0.047201827,-0.31626093,0.15625782,-0.09599364,0.036873866,0.08146805,-0.0135742985,0.19166288,0.078438565,0.10350213,0.19859755,0.06266561,0.076606624,0.22584093,-0.09255918,-0.10662937,0.09357513,-0.011935888,-0.030340165,-0.08010945,-0.07704216,-0.028658772,-0.061945345,0.27733338,0.017520752
0.15506381,-0.16117528,-0.015677866,-0.104225695,0.062351014,0.10740936,0.09501845,-0.08265944,-0.074296705,-0.024036672,-0.5572238,-0.37722015,0.06739644,0.030371286,-0.026136726,-0.55268776,-0.07978506,0.09276735,0.15723005,-0.025284775,0.06092479,0.056682277,-0.08357469,0.128382,-0.008929909,0.07034241,0.038698282,0.04086211,0.23922005,-0.0017310411,0.13463347,-0.08289837,0.081240036,-0.0984468,0.06610957,0.018596549,0.12104156,0.13783781,0.05926601,-0.06765361,-0.17289773,0.040536866,-0.00076982693,-0.059960276,0.019394225,-0.17709936,-0.113319956,-0.13147327,-0.13344996,-0.11420057,-0.1517898,-0.042536292,0.15824749,0.054988448,0.033020005,0.067247674,-0.004073054,0.115559325,-0.1504416,0.07331816,0.08779177,0.007973497,0.017312104,0.060364928,0.094824366,0.0992008,-0.04093752,0.0123669375,0.15675688,-0.13083579,0.083576515,-0.09794323,0.08814615,0.0845711,0.037870176,-0.006844638,-0.022760618,0.034686793,-0.019513784,0.030565603,-0.0143555915,-0.312825,0.2762722,0.10933056,0.18491863,-0.0832586,-0.034406222,0.26500338,-0.066300064,-0.0652037,-0.16383633,0.16936663,0.12926756,-0.03254356,-0.15075494,-0.018725088,-0.026656028,-0.21515101,-0.0182198,-0.2538167,-0.10947587,0.029662993,-0.3049741,0.31373602,0.18541135,-0.044691358,0.12887074,0.03737644,0.1371005,0.13245508,0.09479509,-0.2315604,0.06472232,0.10390902,0.28621614,0.0041951756,-0.069116466,-0.092827685,0.029030547,0.11116267,-0.15115044,0.08313299,-0.00062556204,0.01597166,-0.002047402,0.08561071,0.02401728,-0.12704703,0.23968315,-0.13181731,0.05368969,-0.0133170495,0.12863436,0.004770676,0.059440974,0.03745864,-0.0353289,-0.04564714,0.071492,0.21428105,-0.026120394,0.08131833,0.0033760332,0.15685828,-0.0022076191,-0.08327855,-0.033307485,0.21743216,0.0516259,0.060071092,-0.02652827,0.023102548,0.26284492,-0.15056145,0.120171525,-0.04242432,0.093844,-0.12232506,0.2818765,0.06871585,-0.22317873,0.18429515,0.14932409,-0.16976899,0.22851944,0.10673313,-0.21583016,0.05470305,-0.4121527,0.27952677,0.018236768,0.05976746,0.118636794,0.032960135,0.018687302,0.042083576,0.2447834,-0.13179728,-0.1294254,0.10613407,-0.076859675,0.32903266,0.15353228,0.093637764,-0.028751649,-0.046491697,0.04616023,0.08341156,0.062019713,0.027918389,0.024266511,0.029842544,-0.09869698,0.3124112,0.0143249165,-0.10349795,-0.113707125,0.16777846,-0.17566337,-0.021418368,0.013397777,-0.05769911,-0.040346775,-0.05514422,-0.010634981,0.10578244,-0.030437097,-0.0044326736,0.041731223,-0.0057047075,0.08913726,-0.13268691,0.07877585,0.040868722,0.18575542,0.019438028,0.08232437,0.17090774,0.6494853,0.109574534,0.116704494,0.14455102,0.014458163,0.034976184,-0.12544787,0.097296834,0.015420946,-0.12316216,0.02747375,0.088612,0.0034130753,0.37505838,-0.11375627,0.21500127,0.12474101,-0.11676012,-0.037388295,0.014616417,-0.12968227,0.11169487,0.04380717,0.238882,0.12620889,-0.0066989767,-0.06418101,0.03111594,0.06991482,-0.21436682,0.002912287,-0.08458364,-0.09524302,0.018588798,0.043537002,-0.088483065,-0.051839117,0.067683406,-0.029211752,0.06445155,-0.35783163,0.0062074936,0.1046628,0.12619013,-0.21692497,0.035023194,0.08284381,-0.035313502,-0.10192699,-0.07741113,-0.012031538,0.04690109,0.069026686,-0.08006647,0.041080646,0.017903822,0.12519449,0.06810207,0.005491132,0.1352514,-0.015115679,-0.055416025,0.113428816,0.021944618,-0.049452078,0.056935284,-0.30720016,0.067445196,0.021051783,0.17187749,-0.12936023,-0.09213453,-0.13772285,-0.020083755,-0.21734627,0.011053083,-0.014730329,-0.0009608487,-0.106457315,-0.06703581,0.026818516,0.01444921,0.2062013,0.11077367,0.015592656,-0.07410523,0.0825204,-0.045827366,-0.1092196,0.09731297,-0.051293995,-0.03387341,0.14019065,-0.30622348,0.020752681,-0.23502831,0.17895566,-0.016190255,0.027631946,0.2637281,-0.100003965,-0.10382329,0.079468586,0.12107889,0.13745745,0.18175966,0.21370688,0.21615376,0.0026381572,0.22541834,-0.011170722,-0.098065056,-0.1258133,0.0919781,0.022718396,0.08244857,0.03629757,0.09136976,-0.031830966,0.060671315,-0.08287848,0.15695068,-0.2729664,-0.043067176,0.02164935,-0.056744684,0.025691396,-0.035327066,-0.28852156,0.008699412,0.037646383,0.01632581,0.06696543,0.008520873,-0.006422133,0.16713731,0.24978152,0.06493587,0.29370144,0.077162415,-0.11712581,0.33895746,0.028516056,-0.0021260467,0.16751938,0.14048854,0.24502696,-0.0413492,0.04746411,-0.11967764,0.15549259,-0.22047813,-0.20195965,-0.1619856,-0.027751436,0.07092635,0.1744913,0.08618547,-0.07853934,-0.10741838,0.078458905,0.10709901,0.045893554,0.0107741635,-0.107618384,0.05611676,-0.07074182,-0.014829668,-0.0028485383,0.031141533,0.117877714,0.13091755,-0.03028308,0.07728812,-0.2118326,0.086672604,0.064611875,0.057561643,-0.061199028,-0.0075817467,0.07465841,-0.029224645,-0.010259671,0.052132193,0.04945033,0.04739707,-0.032810584,0.011502891,-0.06032533,-0.04265635,0.1325557,0.107203886,-0.08245101,-0.12831059,0.027933398,0.065604694,0.2213868,-0.09307474,-0.13123463,-0.04252365,-0.09849715,0.18699153,-0.31576136,0.063433565,-0.17912756,0.040657494,0.12683228,0.109182574,0.047068916,-0.037170224,0.21222003,0.12883115,0.026511557,0.08404917,0.014438172,0.118588686,-0.05665265,-0.073803596,0.040288076,0.15106687,-0.04844783,0.049264442,-0.044547994,-0.012117926,0.024669634,-0.053366315,0.14717092,-0.11532212,-0.026131116,0.13023579,-0.024802871,-0.0340136,0.055529512,-0.016072208,0.17231853,0.019795168,-0.10982667,-0.22988532,0.028282922,0.17900579,0.13260031,-0.21775228,-0.21548598,-0.092146486,0.077313304,0.21856636,0.13629706,0.042882517,-0.10168865,0.2501701,0.14119922,-0.09703635,0.088848114,0.069292635,0.11964967,-0.18974476,-0.056917064,0.11601787,0.13130806,-0.20957154,-0.0401447,-0.029581277,-0.05078581,0.022621417,0.10123257,0.0032427942,-0.15441635,0.16326605,-0.14883307,-0.04217847,-0.18492463,0.09664884,0.087861255,0.18914334,0.063229516,-0.03564178,-0.10740017,-0.07866585,0.075390875,-0.010585015,-0.010959542,-0.142761,-0.4292945,0.14940134,0.24020565,-0.08220281,0.09210295,0.14406978,-0.07903054,-0.0059784385,0.023111293,0.12901317,0.073676184,-0.079349354
-0.02835626,-0.052661534,-0.053650185,-0.06684234,0.0065458366,-0.062026292,-0.064669624,-0.02955441,-0.030208861,-0.020031584,0.014532498,0.013680215,-0.03494572,0.017905137,-0.043849383,-0.063962586,-0.051587783,-0.08421033,-0.0031600033,-0.045739137,-0.009133635,-0.029256513,0.0064541027,-0.03781773,-0.042231817,0.023080451,-0.0644434,-0.019814415,-0.002743111,-0.026954217,-0.02055447,-0.047537543,-0.019077621,-0.04864802,-0.036145106,-0.055573817,0.0037012228,-0.0029187514,-0.010566231,-0.011566477,-0.052969243,-0.01731628,-0.059853155,-0.008129119,-0.040591825,0.0003923938,0.0003218761,-0.053038333,-0.021824418,0.016975163,0.022009967,0.02020022,-0.04897143,-0.01837079,-0.04706947,-0.0589406,-0.059504297,-0.050694834,0.028986333,0.004387499,-0.008595522,-0.06384162,0.015900172,0.008504255,0.018375013,-0.033785112,-0.009222072,0.015949024,0.03783415,-0.020770615,-0.011999082,0.013809418,0.006651796,-0.0061979177,-0.044658523,-0.012372629,-0.025511906,0.0038004245,-0.045307025,-0.003447212,-0.047242984,-0.032030288,-0.019883642,0.010725377,0.017620511,0.007949065,0.02247221,-0.055225406,-0.03434199,0.012749912,-0.005526262,-0.052662097,-0.053161204,-0.032603625,-0.047593266,-0.075582474,-0.013586173,-0.036466032,-0.024448903,-0.01195178,-0.03109481,-0.046883337,0.0054288995,-0.028390909,0.023220517,-0.026120165,-0.028825311,0.015858768,0.00032389245,-0.0020542007,-0.055734087,-0.060423076,-0.025357503,0.010820694,-0.012687396,0.0034186996,-0.0074314396,0.022199277,0.012557642,-0.005010164,-0.026678858,0.008793489,0.00095103105,0.008775101,0.0046665147,0.024059234,-0.06694398,-0.024453348,-0.044598855,-0.014823196,0.022443406,-0.04403717,-0.061394926,-0.038764413,0.0294489,0.017264588,0.031014528,-0.043527503,-0.03878572,-0.06020829,-0.06020553,-0.014469882,-0.020767778,0.013550152,0.0055578174,-0.041157722,-0.033124004,-0.032124832,-0.026169084,0.008741469,0.027325986,-0.044220906,-0.00721122,0.003274518,0.0045150924,0.09529829,-0.07125908,0.015641304,-0.03710148,-0.07021814,-0.015025014,0.010730517,-0.030362826,-0.043803483,-0.0077690505,-0.031144861,-0.0375749,-0.05234283,-0.014110574,-0.0402082,-0.030289011,-0.031918503,-0.04271423,0.021451062,-0.04765441,-0.003953895,-0.05743108,0.016569309,-0.024256602,-0.060234047,-0.029883413,-0.03560482,0.008215727,0.009121219,-0.04046174,0.023032386,0.026853422,-0.049057182,-0.04309522,0.012347487,-0.015125293,-0.034399457,-0.029020764,-0.024673283,-0.01241348,-0.04077879,-0.026999705,0.020376386,-0.052287456,-0.044452872,-0.06143236,-0.037499625,0.0034103834,-0.02574668,-0.02841887,-0.05223566,0.012027966,0.026110861,-0.041963883,-0.053694624,-0.0069805677,-0.01899187,-0.008291503,0.013990903,-0.032350115,0.024918506,0.0073221982,0.036825642,-0.06630197,-0.012818803,-0.01656681,-0.05679623,-0.016970037,-0.032001995,-0.03125675,-0.04024884,0.010111677,-0.013590602,-0.027104788,0.0025935771,-0.060591638,-0.0006957235,-0.059759315,-0.07553048,0.008157299,0.0047904956,-0.03235578,-0.01908134,0.06791405,-0.07885201,-0.050238524,-0.017313456,-0.032817837,-0.034540962,-0.0329875,-0.04371223,-0.054301262,-0.01664788,-0.0043033664,-0.03655404,0.010166429,-0.02307588,0.023090923,-0.051155835,-0.037524916,-0.013447528,-0.025176538,0.024100712,-0.03426814,0.0201068,-0.019266779,0.009939403,0.028723812,0.007989536,-0.045748144,0.010487021,-0.06346314,-0.030345479,-0.022929119,-0.032334782,-0.054682326,-0.031696223,-0.10932641,-0.021895466,-0.039272893,0.004096977,-0.00038270705,-0.06683284,-0.020860206,-0.05009172,-0.047681503,0.011240653,0.0069259936,-0.05202729,-0.008536769,-0.020685945,-0.038286444,-0.0090151485,0.034629975,0.017381577,-0.05751016,-0.027624082,-0.03163361,-0.017358351,-0.060823195,-0.020795459,-0.044050977,-0.02378432,0.004072904,-0.038513474,0.00696672,-0.011327831,-0.008543315,0.0029802448,0.022499729,0.013529655,-0.013655602,-0.06496463,-0.027333124,-0.032379735,-0.019893942,-0.009120565,-0.03926552,-0.008478899,-0.010454974,-0.0023691163,0.0006741697,0.023203611,0.0013658106,-0.04798049,-0.05341133,0.020911777,-0.020349044,-0.009175281,0.0044862186,-0.06865476,0.0013842803,-0.053964123,-0.04201461,0.0048745032,-0.045250077,-0.0010812259,-0.021317234,-0.044502635,-0.03541234,0.009069441,-0.016148381,0.004703853,-0.018743066,-0.038676314,0.029674599,-0.023028713,-0.029028477,-0.057672124,-0.04964185,-0.0022017811,-0.03281622,0.025855193,-0.029156692,-0.058946054,-0.051639207,-0.0195225,-0.04735165,-0.042654563,-0.055696838,-0.057000652,0.031479564,-5.2892905e-05,0.020274352,-0.019615442,-0.04385769,-0.017077908,-0.024020536,-0.05420412,-0.07085298,-0.028092626,-0.011882937,-0.045446794,-0.0063375356,-0.017320847,-0.0042719254,-0.0086975545,-0.055864,-0.047983967,-0.056274135,0.0022159778,-0.006898097,-0.03782839,0.0073973997,0.016789269,-0.0014183633,-0.058452293,0.019221326,-0.033105455,-0.0029090082,-0.028344098,-0.066616155,-0.06567826,-0.03840859,-0.05908916,-0.035222374,-1.4682955e-05,-0.036687434,-0.054924034,-0.01914085,0.027904896,-0.02197012,-0.05450104,0.0071432646,0.015136737,-0.046725776,-4.360661e-05,-0.014920195,0.01441903,-0.052054837,-0.019245513,-0.038931962,0.01765122,-0.050861802,-0.031581197,0.0033873993,-0.067678705,-0.0007477592,-0.014921932,0.007949195,0.00418178,-0.02797221,0.007700244,-0.03724155,-0.00066863763,-0.049051896,-0.09373412,-0.020875083,-0.0034297155,0.01069918,-0.025425611,0.022617038,-0.04780169,0.02630342,0.01113725,-0.008012485,0.01938953,-0.033928126,-0.044420987,0.0008668256,0.006505852,-0.024960073,0.01807561,-0.027302405,0.025831917,-0.047090087,-0.029613735,0.002925706,-0.018993476,0.019496076,-0.03321634,0.00067037664,-0.014347579,0.003573135,0.031376373,-0.0076011973,-0.014467819,-0.051540896,-0.054278083,0.0013525999,-0.011320138,0.0058780406,-0.018465512,0.021291854,-0.072369576,-0.0031821944,-0.061213404,-0.02210528,-0.0025801002,0.0006909993,-0.057969432,-0.008621302,0.0032067397,-0.059952643,-0.0034722763,0.016090522,0.017240198,-0.03490993,-0.043777227,0.0071176644,-0.057006933,0.018515361,-0.07990343,-0.015454426,0.017754653,0.01854776,-0.007634316,-0.053883,-0.0045916163,-0.016696898,-0.01834883,-0.010237709,0.00057150587,-0.022141129,-0.042272728,-0.048206586,0.02319971,0.009998977,0.025956372,0.028658146,0.008341552,0.008350632,-0.007736646,0.0044441936,-0.020370444,-0.012793529,-0.0007816248,-0.05502569,-0.046166677,0.025297679,-0.0425467,-0.003671933,-0.0016340332,-0.041686133,0.016206296,-0.04900061,-0.006429031
-0.035582002,0.032941043,0.06962979,-0.047557153,-0.048505343,0.087497756,0.05260901,0.124834605,0.08368892,0.058329765,0.49868405,0.44098762,0.14704958,-0.014127486,0.13945849,-0.18869421,-0.10122022,-0.06269377,-0.16585211,-0.0013163495,-0.19213974,0.035632618,0.05600649,-0.1448095,0.09109382,-0.15779114,-0.15943606,0.10606364,-0.09139748,0.078649454,-0.17606747,0.04392024,0.16688985,-0.10501263,-0.040142037,-0.06008909,-0.07287733,-0.15798636,-0.059440125,0.16858052,0.09884023,-0.015845146,0.012653018,0.4777931,0.034992285,-0.038950518,-0.013312804,0.0336922,-0.31242537,-0.09830015,0.09618751,0.008327038,-0.15226611,0.1592638,-0.09255198,0.012178895,-0.052594252,-0.16092983,-0.019690886,-0.091722466,-0.041117262,0.035285927,-0.048347145,0.20693427,0.008863494,-0.11189926,-0.19572458,0.050011452,0.083281524,0.06874539,-0.08254688,0.009330056,-0.09258655,-0.017714418,0.030678054,0.025534222,-0.1362469,-0.1293387,0.2709024,-0.094607316,-0.029366473,-0.043680094,-0.05120537,-0.009981812,0.1351992,0.0033425773,-0.024379468,0.12771983,0.027975552,0.083166435,0.106004655,0.0048164413,-0.02486915,-0.06394223,-0.064129084,0.11162241,0.13408072,0.013741071,0.031723447,0.19281177,0.16915022,-0.083616085,0.26046577,0.40217227,-0.27831647,-0.17888568,0.022810442,0.0011596087,-0.121766135,0.03324595,-0.107565306,-0.26452187,0.13451353,-0.06293074,-0.13114609,-0.017464928,0.14940977,0.13385732,-0.046522766,-0.013747552,-0.05612587,-0.01645847,-0.079918414,-0.022463828,-0.027510822,-0.06587934,0.006706694,-0.078626804,-0.08372345,0.11831486,-0.082402304,-0.0043120445,-0.15900265,0.08434741,-0.123674,-0.07121692,-0.07741892,-0.18376602,-0.016246825,-0.15219954,0.05829563,-0.06250005,-0.013223221,-0.14308542,-0.05971813,-0.1752064,0.03730788,0.22782174,-0.10895089,0.03874043,-0.02596399,-0.04577279,-0.18689075,-0.324992,-0.092439,-0.45931694,0.055676207,-0.5624742,-0.109199196,0.09532746,0.001626973,-0.22767612,-0.025693746,0.23037365,-0.029057555,0.17906743,0.08982595,-0.06469907,0.093715504,-0.13191639,-0.010652851,0.21600515,-0.063676596,-0.18093431,-0.081876315,-0.12020268,0.0674576,0.06126509,-0.06819677,0.102933496,0.08833018,-0.09705729,0.19407555,0.0636809,0.14856139,-0.06682762,-0.07251858,0.14339022,0.21739894,-0.04356936,-0.03679677,-0.010873416,0.053495027,0.2883986,0.16879922,-0.114909984,-0.008397433,-0.18179043,0.059831247,-0.02079385,-0.13014524,0.20573461,0.033973005,-0.09570528,-0.18570867,-0.32296044,0.2260126,-0.12357314,-0.018970795,-0.0698558,-0.14991231,-0.21857858,0.19564259,0.093954876,0.011471314,-0.10173373,-0.21577853,-0.07584991,-0.18638214,0.19015542,-0.1701214,-0.08182186,0.034215458,0.13835749,0.08372703,-0.061327025,0.03384037,-0.11790644,-0.19405484,-0.065055996,-0.1794216,-0.1211146,0.05453681,-0.062456448,-0.047537096,0.02877725,0.08197339,-0.051390056,0.21852832,0.25026438,0.041107032,-0.32516178,-0.018488765,-0.009068064,0.19881728,-0.108091734,-0.15849634,-0.008591637,0.12562968,-0.110208124,0.13485502,-0.055098135,-0.13121359,-0.15785526,0.0046763555,0.109791785,0.09907825,-0.096007526,-0.16144286,-0.097314075,-0.15023646,0.08569123,-0.12100097,0.0657063,0.09191013,-0.016678901,-0.27476484,0.082200624,0.21751079,0.048822585,0.1830301,0.41226274,0.093644015,-0.13336092,-0.14650808,-0.18765841,-0.13428578,0.017683007,-0.025747685,0.035220385,-0.16515051,0.09099786,-0.3789972,-0.15087739,0.2415684,-0.10949829,-0.15194055,0.058893036,-0.11256676,-0.03755151,-0.1471711,-0.036908556,0.035901994,0.06638329,0.166624,0.092140995,0.24355017,0.021199282,0.0058569997,-0.09007484,0.2171716,0.083676375,0.18079026,0.18648885,-0.07399238,-0.11919278,0.07285558,-0.0039118165,0.1810945,0.03910503,0.1004515,0.06262337,-0.017501298,0.10356386,-0.10677986,-0.04844726,-0.2676466,-0.26729605,0.294753,0.28888533,-0.19757928,-0.102995545,0.27125648,-0.106388405,-0.02573253,-0.16142964,-0.063619845,0.07581201,-0.021469029,-0.129749,-0.14957468,-0.077901065,-0.06730313,0.1539798,-0.10625354,-0.018585525,0.1327594,0.050735544,0.043392256,0.12182163,-0.088983595,-0.00395022,0.06230864,0.102798864,-0.17857394,-0.09766647,-0.09468869,-0.029330812,-0.10938389,-0.06662375,0.047961835,-0.116421044,-0.069190316,-0.050519798,-0.07432125,-0.0036779633,-0.02584287,-0.2258501,-0.0317617,-0.3602726,0.054324854,-0.34148672,-0.1608376,-0.051997997,-0.13844663,0.051323783,-0.08500679,-0.022540933,-0.1628132,0.38426256,0.036824528,0.05886409,0.04568977,0.03038672,0.01794693,-0.010876143,-0.096213244,0.39581433,-0.021730559,-0.11477112,-0.014567955,0.024907464,-0.02662106,0.24871689,-0.1230929,-0.0029175777,0.10937368,-0.08252655,0.020674892,-0.088204816,0.28557494,-0.030949576,0.009892544,0.044790722,0.07172013,-0.016594162,0.33765998,-0.07943855,-0.22188365,0.08417349,-0.04946049,-0.027105482,0.04831662,-0.17685089,0.0014819603,-0.07329026,-0.059235316,0.2372426,-0.17863233,-0.19606742,-0.003796506,-0.043846145,-0.051819324,0.070016734,-0.058337416,-0.03546891,-0.117822275,-0.11707234,0.07829808,-0.09359872,0.38023284,-0.020008609,-0.089015365,0.05597479,0.57539266,-0.1206918,0.009407275,-0.06631839,0.07181115,0.08448071,0.18988974,0.21344003,-0.024730211,-0.009576039,0.09243803,-0.3141567,0.012857359,0.13174371,-0.01103404,0.036533926,0.12092003,-0.07072578,-0.038768597,-0.20075156,-0.070963696,-0.07085004,-0.026625264,-0.046841267,-0.10522655,-0.08439441,0.15995318,0.19867812,0.021321274,-0.035049893,0.14287645,0.035154235,0.017739814,0.30356824,-0.10164375,-0.038460325,0.25406265,0.17144816,-0.0073703495,-0.051483143,-0.047819603,0.12623121,0.060204238,-0.060334694,-0.13293214,-0.048960898,-0.106739655,-0.1571451,0.05885177,0.021368837,-0.0327268,-0.21955612,-0.17512645,-0.21236633,-0.24328393,0.32986024,0.13215597,-0.14991508,-0.035905812,0.0012800852,0.13314575,-0.13886595,-0.122421555,-0.1545419,0.030217268,-0.11131938,0.40522775,-0.16547953,-0.048131038,0.037789334,-0.18494104,0.06303081,0.021750193,-0.15419637,0.099460065,-0.19485258,0.04188408,0.057582263,-0.081759565,0.019162638,0.055911336,-0.036603075,0.26087937,0.096893124,-0.046816066,0.02907541,0.095587954,-0.024816083
-0.14668968,-0.08653896,0.005397243,0.010397269,0.25055483,-0.04334887,0.016974028,0.10787427,-0.22786714,-0.04930447,-0.19134991,0.06327156,-0.1681555,0.10057875,0.0072714845,0.09523117,0.22301835,-0.13312188,-0.006045732,0.05754824,-0.022978885,0.008462845,-0.016036537,-0.12471367,-0.041617986,-0.074263684,-0.08689771,-0.14270134,0.114906885,0.06440917,0.23442388,-0.11603729,-0.09867254,0.17526108,0.046055976,0.030552568,-0.11870305,0.011828313,0.046965346,-0.12227097,-0.13148725,0.060955085,0.03274036,-0.17654683,0.1446255,-0.10105466,0.18149191,0.09389027,0.28529847,0.11177546,-0.19425757,-0.021110464,0.092844605,0.17471805,0.15153606,-0.0056339526,-0.05803315,0.022929298,0.13515468,0.052763857,-0.0028942348,-0.025524503,0.23265225,-0.31386635,0.04538521,0.04155726,-0.21900891,-0.110075474,-0.28840062,0.025606796,0.0018027952,-0.08746017,-0.064909704,0.01591189,0.055593845,-0.13530885,0.10330715,-0.021988323,-0.10562894,-0.037122473,0.015743285,0.009222799,-0.15557478,0.037519682,0.028189698,-0.05708922,-0.0414695,0.00694733,-0.19069633,0.0651623,-0.06655208,0.2306851,-0.04167613,0.5953048,-0.051749263,0.054171678,0.19426517,0.16165335,-0.065834455,-0.05897435,0.036895115,0.1264479,0.047972452,0.09370432,0.19457999,0.089505404,-0.11024423,0.077420734,-0.017208634,-0.18943532,0.036360808,0.4431746,-0.10893947,-0.011872197,0.033079628,0.04474253,-0.12332076,0.054253295,-0.0973644,0.027090797,0.06610112,-0.071503446,0.19427396,0.12453141,-0.037136476,-0.07895395,0.2038769,0.03941095,0.11479583,0.20204775,0.050712846,-0.23184665,0.031724494,-0.14149046,0.0964434,0.031215692,0.12880032,0.22630858,-0.08711703,0.09443724,-0.17872111,-0.17863731,-0.017878259,0.008106803,0.15818179,0.222428,0.031191593,0.032219194,0.04723884,-0.18031831,-0.0926032,-0.17483427,-0.094240665,0.3067705,0.12846641,-0.30340752,-0.103623174,0.43839738,-0.06999352,0.23467132,-0.29582012,-0.3424117,0.02948493,0.16650918,-0.10161094,-0.1230604,0.25585148,-0.009963369,0.43986362,0.14959192,0.005613865,0.0028352106,0.049044594,-0.07758175,-0.029312596,0.12758316,-0.12997031,0.04141862,-0.006221655,0.053333417,0.037475105,0.060826927,-0.07637407,0.0013927977,0.0021960065,-0.016709495,0.089211546,-0.10857913,0.055572353,-0.07767868,0.08815453,0.049537525,0.11256468,0.11499317,-0.03529545,0.22890952,-0.07510997,0.036336664,-0.0072838166,-0.017718151,0.06875355,-0.08156889,0.11486048,-0.09694238,-0.003907608,0.007373427,-0.10921581,0.02361697,0.030929431,0.11804039,-0.1945198,-0.018239804,0.2876393,-0.13215905,0.21388409,0.110515654,0.22097605,-0.1354372,-0.022264015,0.082786664,0.051778585,-0.071690105,0.3643404,-0.21214563,0.027064763,-0.1041436,-0.1450666,0.13831127,0.2743446,0.11360771,0.078110754,-0.20417844,-0.09349688,0.048541185,-0.06202971,-0.03835685,-0.08870988,0.25323543,-0.42802677,0.2893562,0.026773963,-0.072812356,-0.033362076,-0.15947089,-0.45575458,-0.093940295,0.025952378,-0.14187054,0.014851708,-0.05389769,0.11979492,-0.090957046,-0.07857017,0.006482818,0.1779883,-0.2790334,-0.06499398,-0.096042,0.345291,0.2844787,0.017100872,0.29496828,-0.06364556,-0.09727317,-0.07553892,-0.06045633,0.15803175,0.057443336,-0.035958007,-0.06896116,0.27670363,-0.05963474,0.48502907,0.052551933,-0.04207419,-0.113342576,0.22210594,0.04873315,-0.052298952,-0.1442694,-0.06821417,-0.15772082,0.11136408,0.15144801,-0.2830217,0.03679385,0.049670286,-0.2632347,0.06978464,0.29239127,0.23041657,0.14338969,-0.017548531,-0.05701217,0.021938246,-0.22370616,0.17482635,-0.2514461,-0.025171855,0.06792746,-0.059630893,-0.14280567,-0.2332752,-0.14847887,-0.06669814,0.06516644,-0.06345873,0.0029381847,0.030566283,0.10318575,-0.21904907,0.056385532,0.022142662,0.041527346,-0.07069876,-0.10560051,-0.37755337,0.17696269,-0.06260677,0.2397964,0.19383831,-0.0027483166,-0.12577511,0.007973497,-0.030108703,0.06876283,0.083376355,-0.021802891,0.19866508,0.12236843,0.24260911,-0.061207842,0.090387516,-0.1341796,0.0034450185,0.30919752,-0.10917701,0.10393635,-0.01188581,-0.19142143,0.25792706,-0.054725073,0.056608595,0.22589685,0.18751821,0.058243543,0.04107158,-0.029506754,0.14695118,-0.063769415,0.036959577,0.023357553,-0.12828289,-0.023858812,-0.08204691,0.10514404,-0.3304987,-0.026162466,-0.030535456,0.28948402,0.094500266,-0.054667328,0.11013537,-0.1058902,-0.033518076,-0.0052819527,0.10213445,0.020399285,-0.025849545,-0.13002293,0.2650856,-0.05389389,0.09261706,0.1610666,0.042433545,-0.17464882,0.17188747,-0.011056203,0.06703715,-0.26080522,-0.19438921,0.18318753,-0.110002674,0.16465819,0.077788286,0.011695839,0.08745175,-0.033827405,-0.16055244,-0.030394627,-0.18425481,0.06918375,0.19212511,0.1589719,-0.037878115,-0.039714336,-0.05954869,0.06623756,-0.013579589,-0.18246824,0.01907127,-0.0035292306,-0.103962,0.057575002,-0.19806282,-0.03493228,0.038182605,-0.18254934,-0.11763713,0.10821003,-0.0655895,-0.25112924,0.037452497,-0.055933364,-0.13493003,0.007668049,-0.03873618,-0.15491036,-0.18501483,-0.042967096,-0.12802345,0.03395817,0.079965144,0.011278509,-0.24678876,0.06339939,-0.067832366,-0.022650136,-0.070832126,-0.03764146,-0.14941037,-0.26997927,-0.13089676,-0.12581433,0.042439245,0.10870131,0.018196996,0.086576626,0.12176394,0.09525391,-0.014469766,0.013177066,0.053074922,-0.26569328,-0.20879136,-0.039034024,0.09407457,0.055434998,0.20135929,-0.1434102,-0.13831939,-0.15573981,0.06425354,0.021247739,-0.10452061,0.08953712,-0.029611219,-0.16942436,0.0033456013,0.30886918,-0.0035582357,-0.22138725,-0.10848625,-0.024424706,-0.07125431,-0.048731197,0.05287485,-0.17800248,-0.21714704,0.11217061,-0.056734897,-0.048017774,0.11007051,0.096919574,-0.10683456,0.045367595,0.12799844,0.27120474,0.2233044,-0.38220382,-0.0115887895,0.1367164,-0.17405295,0.12227917,0.15193893,0.16742091,0.06893221,-0.04174319,0.16049443,0.025155965,-0.19998808,-0.16555488,-0.02549418,-0.0996627,-0.014021912,0.1276998,0.0576438,0.059551775,-0.11428135,-0.017945625,-0.20521843,-0.04805682,0.08701877,-0.11762078,0.02280105,0.027171697,0.0796542,0.07660253,0.04799771,-0.0011103716,0.062632084,-0.008118051
-0.04104187,-0.3073243,-0.07729867,-0.061162814,0.05947973,-0.06495342,0.10086192,0.041368082,0.021891583,-0.04766064,-0.13195518,0.093361184,0.1808074,0.067873925,0.085503705,-0.2802788,0.09147076,-0.15455589,0.18378133,-0.04994044,0.015948607,0.07633385,0.14503567,0.15253459,0.0048558884,0.07666652,0.006060409,-0.08703337,-0.019365298,-0.08529619,-0.073290914,0.010222265,0.022047147,0.0730436,0.00077481533,0.06007588,-0.08721448,-0.06382125,0.09711005,-0.034664683,0.10610575,0.07374654,-0.02443066,-0.0039224518,-0.11462507,-0.007204395,0.11150934,-0.10713494,0.14828977,0.10705049,0.0016687085,-0.08213727,0.06319855,-0.056748834,-0.07316311,-0.028809788,0.094176576,0.24160288,0.20603107,0.053201232,-0.016243199,-0.036659807,-0.016465137,-0.043623853,0.12020482,0.13491364,0.038226694,0.011763676,0.124285705,0.13148199,-0.008821071,0.16419889,0.23602217,-0.10968151,0.025636215,0.079962514,0.021462873,-0.038172055,-0.22485247,0.06531347,0.094530985,0.050170712,-0.2895854,0.0009294168,-0.0010556895,0.13643074,0.01533015,-0.08403259,-0.18030876,0.06889869,-0.064959206,-0.0065906243,0.00284053,-0.051985063,0.09591588,-0.089162834,-0.0046165315,0.11027867,0.054085847,0.1966121,-0.2088741,0.05665865,-0.26862064,-0.23967837,-0.100365065,-0.15880415,0.048273217,0.031078212,0.090344585,0.16881807,-0.06709468,0.028294358,0.06734644,-0.030263701,-0.031543214,-0.021286862,0.058802593,0.10045224,0.058894806,-0.0530485,0.08559498,0.13554235,-0.17248484,-0.03777313,-0.0119181955,0.013777392,-0.10212216,0.046100076,-0.052793887,-0.21228261,0.17382614,0.14473875,0.086870745,0.07219058,0.19232225,0.09388423,0.14448845,-0.10156556,0.039082367,-0.072217144,0.11135639,-0.09169539,0.09129019,0.12880418,0.10058645,-0.059938285,0.14180012,-0.13838093,-0.11348275,-0.026732676,0.15120283,0.20972227,-0.044709362,0.043902155,-0.10574456,0.40881512,-0.021573015,-0.035336085,-0.13895443,-0.106998354,0.113038726,0.05678528,0.051974367,-0.09328539,-0.043615814,-0.059739955,-0.16064967,0.15330273,-0.11385877,-0.16644904,0.093739375,-0.05359628,0.09619687,0.09342715,0.14876229,0.04650617,0.020725982,0.12084118,0.24596637,-0.1719396,0.14735906,0.14706881,-0.08274109,0.027803319,-0.0628673,0.025619136,0.07976436,-0.05234057,-0.00019317132,0.024558423,0.019609032,0.07515655,0.093531154,-0.086690895,-0.11655389,0.16670038,0.033038612,0.08431176,-0.20750265,0.00012794176,-0.054824285,-0.038347457,0.101102106,0.16629785,-0.07444957,0.03529369,-0.0693094,0.07154618,-0.004762174,0.054473605,0.15321396,0.18271558,-0.015142595,-0.059157602,0.13502334,0.09381102,0.05707727,0.114902064,0.045566346,-0.094759405,0.19838133,-0.035471357,-0.031034522,0.037744023,-0.06658459,-0.019836573,-0.100851655,0.015121129,-0.052514926,0.06277903,0.0280627,-0.21930921,0.08107553,-0.06493141,0.15123345,0.22177023,-0.03879389,-0.22628158,0.17550409,-0.31429258,0.07576011,0.18186808,0.0010290402,-0.14942355,0.027459962,0.13859741,0.12822406,-0.29612342,0.11387196,0.17050682,0.17705856,0.1473641,0.11825002,-0.051487353,-0.11909942,0.055511452,-0.04621969,0.022386374,-0.24945045,0.10741204,-0.0210202,0.049820624,0.19291456,-0.1321727,-0.025729062,0.067660995,-0.009786093,0.06964926,-0.061471496,0.039832033,-0.1701389,-0.26573515,-0.35289702,-0.16193627,0.083341196,0.0035829085,0.04218087,0.051868837,0.20482537,0.14915478,0.1414095,0.1773457,0.30225438,0.23240955,0.028054073,0.19665141,-0.070025645,0.04009684,0.23360363,0.045561854,-0.14746562,0.03857201,-0.2372662,0.059333615,-0.0907868,0.17794666,-0.25635934,-0.11049793,0.039805423,0.07155531,-0.19945902,-0.13130677,0.04217237,0.20664182,-0.018180935,0.18204516,0.27798504,-0.008533475,0.074192554,0.048540674,-0.10855908,-0.2235867,-0.10171871,0.14029843,-0.04621293,0.054049067,0.2009662,0.0049584424,-0.029273458,-0.17998299,0.029335432,0.016782442,-0.13545595,-0.046857044,0.2942645,-0.12788571,0.0012994028,-0.1087043,-0.080388226,0.07016848,0.1075006,0.08214916,-0.1410121,-0.06268634,0.14148909,0.025459332,0.02753925,0.07447293,0.02984627,0.14156137,0.23946631,0.120892026,0.03976536,-0.13111897,-0.016753545,0.09125285,0.06283679,0.18574077,-0.09444687,0.060957953,-0.0073310975,0.020218816,0.15081106,0.010680449,-0.2696654,0.073780924,0.15695943,0.02264266,0.11465751,-0.16570066,0.012096051,0.008843222,-0.054577507,0.15103427,-0.393316,0.090322085,0.03189364,-0.10787613,0.08445996,-0.22004394,-0.020030832,-0.012003207,-0.051418122,0.011218863,-0.03974346,0.11102247,0.07711803,0.049140688,0.02377144,0.055252116,0.15540591,0.10190231,0.19841042,-0.061763223,0.067657754,-0.0565146,-0.0025420578,-0.038253974,0.0023981165,0.041195907,0.30163988,0.12710212,0.07248827,0.049417283,-0.032427005,0.17850584,-0.05724198,-0.09219703,-0.0047779167,0.14969924,0.045197133,-0.08986524,-0.01848094,0.1904799,0.011488692,0.115501136,0.0011127371,0.01586771,-0.045453195,-0.004015707,0.0979491,-0.10366587,0.07703307,0.026236342,-0.047183365,0.10895974,0.16693808,0.13127953,0.038079094,-0.03950129,-0.062139083,-0.33441466,0.21367791,-0.014200992,0.10383597,0.23734821,-0.04016058,0.12256701,0.04405265,0.04069342,0.12871689,0.29709843,0.19805108,0.1718979,-0.0038257178,0.089550205,0.13069026,-0.013222886,0.037290048,0.16563138,-0.00078226434,0.12345657,-0.060182378,0.04422544,0.037869655,0.023643466,-0.027022853,0.11938871,-0.059925556,0.12762235,-0.22909784,0.021042984,0.028099746,-0.11859497,-0.011961941,-0.060370505,0.030709421,0.055113528,0.04313073,-0.0047110207,0.17018923,-0.11268663,-0.054504365,-0.034024656,-0.045692213,-0.0419339,0.08287183,0.09252478,-0.116097786,0.19351155,0.059391875,-0.014115902,0.110584006,-0.0020229816,0.07596388,0.15698037,0.09373408,-0.21530783,-0.009120921,0.035719447,-0.020210924,0.14345872,0.11196399,-0.27891687,-0.16269435,-0.11271826,0.23126079,-0.1276781,0.11990224,-0.2372274,-0.1761307,0.15620434,0.07550316,0.13810366,0.11141909,-0.032888286,-0.037125163,0.07732917,0.09675353,0.0062005883,0.22604838,-0.0052928017,-0.01183281,-0.015577687,0.062115405,0.23727982,-0.07510456,0.107501216,-0.13917287,-0.04433659,-0.1919516,0.22871692
-0.09148268,0.010263755,0.10689499,0.20400906,-0.17546695,-0.05351902,-0.012089176,-0.09200195,-0.03694766,0.10591139,-0.4677057,-0.3109908,-0.05446788,0.0012133055,-0.0146404235,0.22673504,0.05335192,0.19420347,-0.18968599,-0.076100394,-0.101792425,-0.047262114,0.0005273743,0.122018844,0.011402724,0.11603803,0.20254497,0.023208112,0.053121004,-0.028278846,-0.14691561,0.029709715,0.11417428,0.042821754,-0.09453107,0.07810896,-0.03430402,-0.016537875,-0.15045041,0.15874518,0.09260999,-0.01681009,-0.05498585,-0.21996945,0.06697363,0.2141735,-0.20721845,0.1875072,-0.1512641,-0.044827957,0.15409455,0.02212098,0.11002251,-0.07674243,-0.008796986,-0.0975275,-0.008165148,-0.0034615938,-0.031113869,-0.04132326,-0.028734915,-0.06451604,-0.02330302,0.017852152,-0.098843455,-0.16248727,0.09474715,-0.20612624,-0.30745184,-0.06597627,0.08298304,0.19100447,0.0028010535,0.08863521,0.06575524,-0.10648543,-0.10844962,0.09734428,-0.21949714,-0.06729304,0.0051848674,-0.26545557,0.019834062,0.035015542,-0.0395701,0.06676109,-0.060423855,-0.13429947,0.40318978,-0.18087856,0.053279474,0.027616018,0.012825554,-0.16630466,0.04655511,0.05564714,-0.046229314,0.07219409,-0.0073623685,0.08590315,0.035989754,0.028176067,0.023903111,-0.21316558,0.07091822,-0.054082345,0.14081326,0.0069598113,-0.0129567655,-0.27212527,0.019771673,-0.18291964,-0.027165275,-0.1281234,0.17952196,0.11340586,0.11877948,-0.15555646,0.1190179,0.012945664,0.38478795,-0.00032149025,0.04581639,0.0028839337,-0.3213332,-0.012936396,-0.120153025,0.005345647,-0.23645914,0.034682635,0.063309625,-0.013218555,-0.07405805,0.011229092,0.08257433,-0.03485987,-0.23241442,0.29606816,-0.008449513,-0.37837654,0.08712325,0.114525184,0.043737724,-0.007361969,-0.06374236,0.022067906,-0.040990546,-0.032390554,0.0987903,0.12726964,0.030481163,0.017395727,-0.10254419,-0.10030507,0.0014278698,-0.06622006,0.092718415,-0.17257363,0.38472128,-0.12841234,0.31224608,0.018676752,0.009629559,0.047786947,0.13834445,-0.10096617,-0.23725988,0.18298158,0.21921237,-0.2079816,-0.040012375,0.1990817,-0.199346,-0.062272646,0.040957335,-0.17431718,-0.1298816,-0.073268436,-0.070429124,0.32744431,-0.09384068,-0.33170202,0.11059905,-0.016958218,-0.050574657,0.020782726,-0.017128438,0.03379637,-0.055849854,0.015775353,-0.09832855,-0.12509537,-0.057180658,-0.1792723,0.12904064,-0.009843522,0.0033634559,0.12532023,0.17023079,-0.03845871,0.14864162,-0.16119607,-0.09894364,0.16835241,0.44050846,0.09035466,0.14872582,-0.030933777,-0.038948704,-0.029533667,-0.13497822,0.11171818,-0.15342686,-0.05706555,-0.2566798,-0.10753879,-0.035704784,-0.16265264,-0.31678048,0.051804826,0.09705932,0.1069899,0.08567303,-0.044090986,0.21241304,-0.045684844,-0.14439693,0.43038034,0.1256681,-0.12735187,0.06580039,0.024640532,-0.011634335,0.0029431807,-0.00976529,0.031116541,-0.05188117,0.026668387,-0.030088453,-0.024169669,-0.077622995,0.44388554,-0.08777356,0.2393874,0.2797959,-0.05984816,0.1258449,0.2633872,-0.053794403,0.033674456,0.20186058,0.10610087,0.0025582532,0.035046566,-0.1014603,0.14154474,-0.12314288,-0.02545463,-0.14608108,-0.028792713,-0.15166649,-0.50620675,0.12613787,-0.06653343,-0.055319864,-0.020373141,0.02085024,-0.04271271,-0.08791338,0.086383216,-0.21646969,0.12722579,0.27098256,0.24474944,0.12738766,-0.10604068,0.0009737498,0.00855821,0.025029913,0.06394298,-0.014115223,-0.12287126,0.2964623,-0.09813457,0.113680996,-0.053459097,-0.03713845,0.23248973,0.01661782,0.08521961,0.215728,0.056745697,-0.18385695,0.09489402,0.11784019,0.02555421,0.07000217,0.20644143,-0.03274625,0.0021972943,0.008644914,-0.1062958,-0.06834556,0.003655989,-0.042994168,-0.25508255,0.03324339,0.1043541,0.06444461,-0.019501917,0.15751556,0.34858546,0.033091124,-0.038984377,-0.23887311,0.16062453,0.03289803,-0.2526354,-0.09179483,-0.12990682,-0.14878394,-0.13224345,-0.38262102,-0.019084167,-0.37761614,0.009806384,-0.09394625,-0.047544815,0.052586224,-0.048566468,-0.13656224,0.011316152,0.15758966,-0.11150334,-0.073978744,-0.182709,-0.17275043,0.09686369,-0.15893432,-0.27132007,0.23529007,0.044582672,0.055594247,0.124680124,-0.2565969,-0.03895078,0.083954,0.16323188,0.12214213,0.16182253,-0.0828458,-0.19139911,0.069280416,-0.107472345,0.086502865,-0.06492942,0.38470608,0.08684235,-0.022276929,-0.08100073,-0.08419794,0.20849599,-0.09390034,-0.06946263,0.063858226,-0.08814574,0.08591319,-0.048289858,0.025721854,0.10189504,-0.1268566,-0.053811245,0.027071834,-0.07353685,-0.074537836,-0.0045678047,0.011797667,-0.2081723,0.037081633,0.12368919,0.02683424,0.018896779,0.35913506,-0.06998237,0.011196272,0.08967249,0.0049277716,0.07436281,-0.13233778,0.06648527,-0.24225618,-0.07692133,-0.24055192,0.05826489,-0.024181182,-0.06356956,-0.17864086,0.06645045,0.24544147,0.13743573,-0.070503965,-0.03889106,-0.025379436,-0.063621186,0.13136725,0.048513442,-0.07158325,-0.3250295,0.32548335,0.017263405,-0.043590367,0.16741307,-0.044995494,0.087590754,-0.32959133,0.03623139,-0.028922437,0.07281242,-0.034792814,0.08077943,0.36474922,-0.06348268,-0.14595035,-0.03710094,-0.045638043,0.004228846,0.03074945,0.0043801125,-0.1280089,0.04103976,0.04476865,-0.35929707,-0.023622427,-0.04700508,-0.27198645,0.22807354,-0.1329055,-0.025347257,-0.047182657,0.2482313,-0.17357413,-0.015176673,-0.06870588,0.46119833,0.05571702,0.2669179,0.050836824,-0.13578358,-0.069894664,0.18009917,-0.022235751,-0.27057523,-0.06090163,0.07710308,-0.06612288,-0.39194998,-0.04316461,-0.07511039,-0.020632923,-0.017658297,-0.0436512,0.336179,0.21545298,-0.123587325,-0.0028225735,0.120576695,-0.12945181,0.07449711,0.28505522,0.11272216,0.45026547,0.12980501,-0.10735051,0.08483007,-0.052325632,0.15712187,0.089582555,0.39619473,-0.076709576,-0.019797573,0.16060546,-0.26709786,0.121844806,0.022145793,-0.075159945,0.027777256,-0.013565944,0.14973956,0.27807382,0.26123798,0.00039160898,0.020484766,-0.14953543,0.0465743,0.17200796,-0.08277164,-0.024008812,0.032743473,-0.10925699,0.07267703,-0.2347656,0.016402427,-0.02561652,0.122427985,-0.039356023,0.038929336,-0.1673257,-0.08469135,-0.014904954,-0.028633665,-0.3372205,-0.1244782
-0.045214914,0.22075246,0.036847573,-0.06999015,0.09696865,0.05269444,-0.1313036,-0.05182009,0.03974393,-0.030440785,0.19756122,0.19095339,0.13301079,-0.027524387,-0.09686951,-0.0034637433,-0.1646708,0.0892888,3.3587065e-05,-0.057993066,0.16008416,0.048253316,0.05465166,-0.2000659,0.009270288,-0.103285715,-0.015836937,0.11634753,-0.18230942,-0.08685435,-0.19117995,-0.046600584,-0.23889983,0.14755683,-0.114901595,-0.05584705,0.01509273,-0.14464071,-0.052135333,-0.1164283,0.066822685,0.0052223373,-0.0007872402,-0.080850676,-0.0034527853,0.02967297,0.19342104,-0.08552587,0.14107098,-0.12330093,0.090009846,-0.06509567,-0.1111129,-0.18010347,-0.003720602,0.056862168,-0.01221839,-0.12086965,-0.18368194,-0.08093232,0.010329157,0.13524096,-0.0476829,-0.0670227,0.0346845,0.0060970713,0.0103054,0.035563186,0.008229361,-0.07601234,-0.16400965,0.08845572,-0.0850631,-0.1485973,-0.079068884,-0.06067926,0.13951346,-0.12502612,0.38054174,0.12494642,-0.07804228,0.34657806,0.38199767,-0.013826775,-0.10186718,-0.05370515,-0.039865635,-0.14564814,-0.22450057,0.029358244,-0.03447955,-0.21812688,-0.1185392,-0.24061808,-0.087540634,-0.10856455,-0.16198167,0.07176645,-0.014550956,0.04443899,0.036028236,-0.1304456,0.17775074,-0.051029656,0.19550616,-0.1462411,-0.07276186,-0.10980786,-0.03142485,0.16208395,-0.005288059,0.070994005,-0.091155574,-0.14775734,-0.18716736,-0.08396713,0.06875429,-0.16909918,-0.13240969,0.028847724,0.032563582,-0.04922036,0.42448363,-0.0943567,0.14883827,-0.02918406,0.15593557,0.15688905,-0.254622,-0.07494689,0.038025852,-0.10033693,-0.05854049,-0.071675226,-0.0023125184,-0.1297746,-0.060459867,-0.09280327,-0.034393176,0.36721024,-0.013482255,0.017036445,4.852137e-05,-0.14459004,-0.052541334,-0.118521765,-0.08495163,-0.10431939,0.05018948,0.14866059,-0.07006208,-0.08019663,-0.10031476,0.20258605,-0.05836018,0.31021976,-0.0011362903,-0.13902342,0.003731347,-0.14328834,0.18755546,0.23338057,-0.07217622,-0.2813818,-0.0640425,0.09352138,0.034790456,-0.103442006,-0.04725232,-0.014685143,-0.06781187,0.015198968,-0.10724373,-0.15057419,-5.9657643e-05,0.020287031,0.15011415,-0.025266334,-0.16367382,-0.18326873,0.010668147,0.0802294,-0.060932487,-0.07242309,0.04401034,-0.07750577,-0.11622051,0.0052349973,-0.23488589,0.04411766,-0.026721882,-0.068573155,-0.11047427,0.021822687,-0.15757307,-0.09480049,0.027139891,-0.17573212,0.10504657,-0.094342776,-0.05912273,-0.06454329,-0.062184136,-0.070624374,0.020350661,-0.25503764,0.007881062,-0.052289758,-0.027270816,0.033508718,0.22602609,-0.05753261,-0.058039557,-0.04349737,-0.09498462,0.0448147,-0.20745014,-0.112074465,0.071409546,-0.06357918,-0.12474161,0.00017699767,-0.19843563,-0.0711001,-0.09801681,0.02286631,0.1815161,0.022280319,-0.0442169,-0.15907624,-0.051637147,-0.09449015,-0.008485115,0.042873595,-0.12025131,-0.046258364,-0.0414263,-0.108150974,0.21538678,-0.09968734,-0.03260123,0.051199377,-0.1506061,0.21394244,-0.15465316,0.07846846,-0.09123944,0.33378917,-0.14224851,-0.073952146,-0.23893878,-0.027102843,-0.12133309,0.19355598,0.0482533,-0.15754554,0.0091691725,-0.049649842,0.10598806,-0.071360774,0.092883706,-0.008267209,-0.14749305,-0.026595788,-0.056452144,-0.028895369,-0.044133034,0.09558887,0.005532725,-0.07510478,0.060825292,0.17354894,-0.10216174,0.15856205,-0.07623815,0.053913347,-0.03582166,-0.032901533,-0.048412286,0.009779779,0.015500178,-0.023834404,-0.2122774,-0.12965201,0.109864645,-0.051997256,-0.053625587,-0.09514502,0.012590832,-0.22424965,-0.020742988,-0.19309582,0.52519023,-0.08231344,-0.11389662,-0.021936256,0.08281692,0.15914242,-0.012624278,-0.054471042,-0.16286898,0.06081869,0.18502675,0.023792485,-0.024029594,-0.039551187,0.016004948,-0.10660501,-0.065006085,-0.0060291355,0.15737371,-0.0405848,0.07177141,0.14269206,-0.04539982,-0.02011075,0.24107136,-0.08668998,-0.07753557,-0.03427238,-0.036731195,0.09054404,0.13860373,-0.12466733,0.11090409,-0.029696574,-0.13919392,0.06861174,-0.1602682,-0.13762577,0.017169237,-0.080431744,-0.004802971,0.05098627,-0.05964104,-0.075777896,-0.09411647,-0.020234691,-0.041303743,0.06320967,0.006738051,-0.10075718,-0.047620866,-0.1645205,-0.007323501,-0.08632902,-0.09793883,-0.17418146,0.0076882765,0.03680644,-0.04137884,0.14094466,0.013166635,-0.00017397944,0.16085236,0.03689258,-0.050174534,-0.0133107295,-0.18321571,-0.0038451832,-0.12318801,-0.03318522,-0.00824709,-0.014203886,0.25717452,-0.004320153,-0.061337743,0.20783383,-0.112201944,0.35456008,-0.008112844,0.0746436,-0.046102155,-0.07973733,0.09511287,0.10052842,-0.018142624,0.1858842,-0.11469817,-0.021626731,0.05820764,-0.07391323,-0.18236762,-0.18283242,-0.10957229,-0.087677576,-0.16310985,0.029668529,0.045815542,-0.053105436,-0.19250041,-0.02012805,0.009783766,-0.27420315,-0.013529081,-0.04913144,-0.07702891,-0.13368776,0.045777213,-0.13898207,0.0065333135,-0.08902672,0.027190251,-0.13251103,-0.07069049,-0.031635676,0.15004762,-0.021633757,-0.23755476,-0.024173452,-0.017523644,0.27037853,0.06893849,-0.14392966,0.20617798,0.014333781,0.02193039,-0.0823501,0.25799394,-0.093877494,-0.08327342,0.26792166,0.0033064939,-0.030973848,-0.0139898015,-0.13522008,-0.09668308,0.026244087,-0.09402104,-0.03232295,0.016073382,0.20818166,-0.08780876,0.04780518,0.18670815,-0.2591824,0.012499064,-0.15608974,-0.15093997,-0.21892998,0.006015496,-0.10020156,-0.086068645,-0.07586518,0.10091772,-0.05266584,-0.03336546,-0.1263625,0.049582794,0.056522146,0.45557252,0.25269127,-0.0674638,-0.011692294,0.06686287,0.25828466,0.009007489,-0.09400694,-0.12057087,0.13281031,-0.08641688,-0.14166169,-0.11774216,0.024125228,0.015196184,-0.020708458,-0.02659719,0.0055553173,0.040728293,-0.20142275,-0.16468517,-0.044713404,-0.06590762,0.11657613,-0.039834533,-0.234741,-0.03171234,-0.055692937,-0.09308416,0.05080809,-0.09455172,0.32074156,-0.041712396,0.20255323,0.097737245,-0.09140312,-0.1391803,-0.20084013,-0.18236448,-0.08396425,-0.11855838,0.018134993,-0.0073608314,0.05967397,-0.18851027,-0.12579197,-0.076383665,-0.14272031,-0.029024674,-0.060440138,-0.06273701,0.022094246,0.050114926,-0.12862968,-0.043075986,0.025682848,0.014777883,-0.06041527,0.0757907,-0.07395978,0.09056096,0.06346785
-0.010090959,-0.033852685,0.014401852,-0.06048329,0.11247702,-0.027380867,0.039451838,0.008387997,-0.04553222,0.0059748804,0.26243734,0.2469295,-0.02888173,-0.06451847,-0.01677203,0.0061128465,0.11296634,0.07044054,0.074398704,-0.06992181,-0.048039462,-0.016142728,-0.022130901,-0.11053191,-0.08392915,-0.098025896,-0.09544699,-0.015305377,-0.022351807,-0.07405423,-0.018415907,-0.0744037,-0.11209347,-0.0061263987,0.03816483,-0.0012386813,-0.051233597,-0.009304543,-0.055712186,0.02268496,-0.08646913,-0.030927284,-0.029269088,0.032488503,0.0064849467,0.0039014595,0.05674596,-0.053567406,0.18478814,-0.052723818,-0.026196076,0.01122801,-0.10665606,0.109928034,0.049952246,-0.01120802,-0.058648176,-0.0030258915,0.10059447,-0.11704603,-0.027713668,0.0013670783,-0.058269054,0.06676182,-0.07914457,-0.043802116,-0.06906833,-0.025656601,0.0013120787,0.06506431,-0.0031576434,-0.07501989,-0.038811628,-0.032390986,-0.02443173,-0.08284576,-0.08818839,0.040195465,0.14641507,-0.026025698,-0.0003271442,0.009653637,-0.20516956,0.010200478,0.034887798,-0.012073462,-0.11481043,0.06501715,-0.08196618,0.009682005,-0.006362999,0.017046198,-0.057071567,0.023032125,0.051684745,0.054141827,0.06787659,0.05407627,0.003956818,-0.017616773,-0.06976745,-0.07028329,-0.041913778,0.03451736,-0.07966377,0.026085582,-0.0546676,0.044157106,-0.14033297,-0.08357979,-0.04797219,-0.01659795,-0.032155786,0.044521723,-0.019481767,-0.030292124,0.055077355,-0.08371885,0.015477101,-0.09847726,0.038999975,-0.04956248,-0.033741735,-0.05058054,-0.12474843,-0.07154143,-0.016496576,-0.0106387,0.039272625,-0.0713247,0.06627012,-0.091962494,-0.0040313774,-0.016020803,0.14377502,-0.019097973,0.027093751,-0.022608358,-0.039545298,-0.042555425,-0.019913247,-0.018015519,-0.03695615,-0.03890748,0.095305845,0.06481679,-0.14493492,0.025965868,-0.0368369,-0.0707245,-0.03989494,0.012366344,-0.1295912,-0.12078717,0.016273575,-0.110671096,-0.115047514,-0.023020163,-0.18843514,0.043499507,0.028839016,-0.12452457,-0.025675263,0.013458815,-0.11743445,0.08702798,0.10998446,-0.080658615,0.19612134,-0.11263844,-0.106030755,0.027527323,0.010939688,-0.120102525,0.0054647345,0.060358837,-0.011918511,-0.03391215,-0.042607773,0.07192581,-0.057876825,0.009714739,0.06313031,-0.00031207866,0.11928039,-0.00039064945,-0.1045084,0.008864457,0.055545464,0.0048155747,0.014197408,0.014369121,0.030009901,0.13284588,-0.0935176,0.05381245,-0.009863938,-0.00065771554,-0.13682452,0.015794605,0.04453044,-0.036836974,0.003788124,-0.026139881,0.023158483,0.0118470155,-0.0194359,0.00860427,0.00060038915,0.029596101,-0.03859085,0.040690064,0.094500095,-0.12730287,-0.059365314,-0.029860446,-0.11673581,-0.05820992,-0.08101376,-0.043461613,0.0078103803,-0.039018493,0.116384886,-0.083769925,0.10364098,0.0024466605,-0.016269688,0.1512812,0.03459475,-0.029163193,0.048519045,-0.08860554,-0.09158578,-0.08891497,-0.16287969,0.025313066,-0.0037241583,0.010351608,-0.08616221,0.016073568,0.004086593,-0.09091598,0.010133785,-0.019663058,-0.067481,0.018345583,-0.047337487,-0.03296108,-0.05679826,0.0127125075,0.02902559,0.021041365,-0.09203466,-0.16081797,0.0008399693,-0.10889169,0.06382372,0.02341617,0.1815992,0.18872844,-0.012774141,0.13844517,-0.06262305,-0.0645066,-0.053956192,0.008883866,0.10765336,0.083630845,0.03660877,0.012466256,-0.08018724,0.0078754,0.1927925,-0.0035374295,-0.048126142,-0.12131429,-0.017919814,-0.029245943,-0.023166854,-0.16255066,-0.07083472,-0.059796706,0.004894408,0.11738217,0.10349449,-0.06808934,-0.021647612,-0.098880544,0.11279481,-0.08690277,-0.005227703,-0.04936722,0.05863903,-0.074712895,-0.028757775,-0.034282092,0.14528222,-0.06917936,-0.015943216,-0.098603174,0.12933652,-0.0828866,-0.0703225,-0.044200566,-0.013990597,0.10698428,-0.015255331,-0.053222433,0.08027235,-0.044284645,0.115041085,0.08977526,-0.041409917,0.19547379,-0.119834386,-0.110622145,-0.04445239,-0.04662532,0.08247525,0.012418702,-0.034591842,-0.06594865,-0.09566548,-0.04875051,-0.008795462,-0.0379574,-0.011226143,-0.03773322,0.07902918,0.06064267,0.057333235,-0.040338397,-0.06480374,-0.060676135,0.0010746801,0.04596261,0.060272284,0.014949817,-0.01769042,-0.10370104,0.006999462,0.0053290087,-0.060478292,0.08475291,0.09835224,-0.031004284,-0.032445766,-0.0091939345,-0.05984584,-0.024349319,-0.021909337,-0.071925394,-0.02853814,-0.13953203,-0.09190864,0.003932716,0.026187839,0.019563532,0.10251365,-0.045279667,-0.023257917,-0.042130135,-0.11497042,-0.074741416,-0.112353906,-0.078321785,-0.033811636,-0.007764448,-0.06927153,0.09058182,0.0068727713,0.021796871,-0.032871958,-0.036044665,-0.13666986,-0.025284925,0.095089994,0.17436466,-0.10034927,0.037908796,-0.020384258,0.014106693,0.12871383,0.124493614,-0.019332001,-0.0025563983,-0.09009994,-0.060641013,-0.08454767,-0.023856023,0.043909907,0.06253798,0.070906535,-0.102923624,-0.0789751,-0.06081768,0.02130467,0.045795795,-0.041485257,-0.08243703,0.0056570834,0.009120824,-0.043617316,-0.031735267,-0.0064607738,0.014408052,-0.1346252,0.18528834,-0.17370336,0.020194624,-0.09235352,0.09459653,-0.07193251,-0.03701166,-0.022386048,-0.038734745,0.06003769,-0.065592416,-0.07807573,-0.17885435,0.11993245,-0.15815121,0.017278096,-0.06807471,-0.045680463,-0.01195037,-0.0032519274,-9.38747e-05,0.019763084,0.010721638,-0.019396912,0.046228882,-0.02041277,0.0075278464,-0.07180636,0.0017954799,-0.06737655,0.0010505158,0.053631656,0.038200483,0.067919746,-0.0402938,0.061522067,-0.22594823,-0.08864985,-0.0077219517,0.03491229,-0.028412187,-0.0052005723,-0.06596125,-0.0007930326,0.026784584,0.002722824,-0.1460492,-0.04232735,0.26789528,0.013712542,-0.005381998,-0.038810324,0.10334529,0.13723285,-0.09790723,-0.0507559,-0.010346236,0.021863325,0.11585948,0.01608308,0.17193228,-0.0206601,0.0009138169,-0.00065978296,-0.10455906,0.0057426435,-0.01509362,-0.013978507,-0.037458494,-0.06490995,0.2526392,0.04416419,-0.0525152,-0.07321657,0.24192135,-0.06884912,0.040736333,0.040779263,0.027858099,0.00864565,-0.07902519,0.027681516,-0.11179357,0.14941955,-0.14638741,-0.055391576,-0.035916492,-0.14044468,-0.00383958,-0.0022501322,0.028725775,-0.042180203,0.025395775,0.0055299625,0.014535389,-0.09363778,0.07682743,-0.042713147,-0.043841884,0.04457415,0.045276236,0.0069604926,-0.014334131,-0.018804604,0.06517371
0.09681009,-0.18430254,0.031716023,0.16945766,-0.2848983,0.06326256,-0.032915816,-0.059182562,0.26646692,0.107495114,0.09980155,0.009573638,-0.03636473,-0.06357737,-0.042373393,0.600711,-0.13831353,-0.21272945,-0.09294854,0.24380995,-0.021367775,-0.057067707,-0.17880134,0.13092214,0.08508253,0.2321345,0.01139388,-0.034378134,-0.045691784,0.05681875,0.07862734,0.16750582,-0.11152024,-0.3755011,-0.104396194,0.015631273,0.1411449,0.00021041288,0.044867486,0.06956156,-0.09133375,-0.055484522,0.05881015,0.013431802,0.024614211,-0.01673146,-0.13366845,-0.17835681,-0.40295395,0.123646475,-0.06489959,0.014510998,-0.00046301284,0.04073504,0.05866926,0.020218683,0.07563454,-0.044763427,0.13822865,0.044865534,0.036448725,0.10968038,0.12670349,0.0419887,-0.052811157,0.08321769,0.20963384,0.070911735,0.06161169,-0.11626563,-0.004546317,-0.06361599,0.009910518,0.21622618,0.07776949,0.14439836,0.118621364,-0.051213823,-0.09663953,0.0016102347,-0.049887408,0.21345831,0.08540256,-0.015110754,0.0050326716,-0.066065185,0.16405623,0.09269489,-0.0040042177,0.02475374,0.041298,0.05548712,-0.037942577,0.15120974,-0.0063391943,0.013317567,-0.0869335,-0.13671118,-0.010874861,-0.243923,0.07226796,0.0833215,0.0976955,0.089072265,0.033853486,0.14648984,0.06262167,0.06443651,0.09065375,0.13455807,0.23494078,-0.12763476,0.03102097,-0.039560713,0.05036875,0.0014069523,-0.27409968,0.06833679,0.022280075,-0.10240641,0.010592881,0.08497623,-0.046808615,0.028893547,0.09863636,-0.03785723,-0.18736257,0.05051947,0.13918316,0.18544185,-0.11702884,0.088236764,-0.06928569,-0.03808687,-0.1002135,0.13492224,-0.04569916,0.20065765,0.051359687,-0.114422806,0.020951523,0.027898662,0.09433547,-0.013263211,-0.09294231,-0.007161787,0.14143589,-0.06036651,0.023261419,-0.012348991,0.12371846,0.051656693,0.22673655,0.16042192,-0.05796732,0.429743,-0.09399643,0.4004635,0.04591675,0.06087255,-0.21128924,-0.031041121,-0.063159145,0.033383798,0.03210162,-0.17695259,0.19847547,-0.08707907,-0.20094167,0.15129375,0.019967163,-0.1729854,0.04057295,0.08338787,-0.0798179,-0.102007486,-0.12757403,-0.10898415,0.30827427,-0.21464448,-0.14708577,0.0947727,-0.11131231,-0.025140643,-0.32406792,0.1184753,0.017794805,-0.14444675,0.058383256,0.080095135,0.067673236,0.11557157,0.03903725,-0.38276643,-0.11028073,-0.20157786,0.064074695,-0.11786534,-0.12414875,0.13127325,-0.021004803,0.20482817,-0.07560065,0.07402113,-0.124043204,0.23428693,0.10630265,0.076602295,-0.023493443,-0.056197878,0.17959686,-0.13291071,-0.2835411,0.21715517,-0.104984,0.12805557,0.19808154,0.17858352,-0.43033388,0.010809722,0.026279408,0.09670693,0.057186898,0.25508526,0.13640392,0.039140623,0.029327078,-0.14294992,-0.21032056,0.052278377,-0.018929493,0.12758742,0.07653727,-0.020952128,0.17738032,0.06530778,0.066352054,0.0022392727,0.22442588,-0.16895266,0.025017587,-0.28070238,0.08478052,0.1348232,0.046169844,-0.052214958,-0.036404528,0.21255015,-0.059335556,-0.0017731994,-0.20906532,-0.09279308,0.122659914,0.01663086,0.07088978,0.09627787,-0.0034219264,0.097675115,-0.19742805,-0.21930826,-0.059863534,-0.026463686,0.17695327,0.14226428,0.013256766,0.010904134,0.20352393,-0.15312588,0.15720768,-0.039291073,-0.19488768,-0.11370197,-0.08875803,-0.052055288,0.15086319,0.2337225,0.093627,-0.03505222,-0.07714653,0.094733514,-0.07549316,0.042053275,0.07217445,-0.1380871,-0.28901136,-0.016958538,0.273734,0.17984249,-0.03320989,0.04212403,-0.13149284,-0.028222557,0.20101711,0.025119035,-0.08142548,0.0548015,-0.2610731,-0.024171248,0.051896203,0.007629103,-0.034753345,0.23331848,-0.14257774,0.15621737,0.06768143,-0.051235583,-0.17183211,-0.050922796,-0.21635082,-0.07530843,-0.34894642,0.010532435,0.067036584,-0.06578049,0.33151957,-0.028056761,-0.07247491,0.35621867,-0.01513319,-0.08033373,0.07408825,0.056426093,0.20861046,-0.052816387,-0.14625663,0.039121617,0.10982684,-0.17658755,-0.325435,0.068318784,0.08698575,-0.0067793634,0.13955292,0.009486331,0.18152425,-0.06016143,0.032762133,-0.21619762,0.24223183,0.12159743,-0.023780929,0.121314116,-0.063552074,-0.14457455,0.14066188,-0.019457657,0.2357326,-0.11798817,-0.07843021,-0.103885785,-0.0011977404,-0.0408814,0.08164878,0.08378633,-0.00225334,-0.12023316,-0.28977343,0.04735838,0.19166933,0.14841722,-0.009938269,0.14101313,0.10820752,0.0836105,0.11842398,0.13036728,-0.022618756,0.013427768,-0.062529504,-0.09200622,0.16026078,0.16092864,-0.10021415,0.009368614,0.08670485,0.020765726,0.048397798,-0.23309585,0.09026026,0.18288465,-0.045454185,-0.35906345,-0.24928278,0.09669289,0.28285947,0.0070796036,-0.030976243,0.005113429,0.08005,-0.033682287,-0.29865393,-0.016090974,0.0017525897,-0.041143537,0.2017227,0.024625458,0.079304546,-0.1375981,0.06587365,0.028084856,0.06684722,-0.03522151,0.03557774,0.030409368,0.117487974,-0.13588715,0.07302573,0.07268802,0.022310248,0.23047125,0.07443253,-0.040931884,-0.10485123,-0.055255935,0.07793453,0.035226338,0.1426981,-0.013055003,-0.15550071,0.023498535,0.038882844,-0.007191649,-0.13290915,0.09387064,-0.1424977,-0.16205297,0.013202298,-0.06122136,-0.10210293,-0.18252093,-0.17787033,-0.048877534,0.029712604,-0.031487465,0.07920885,0.15457542,-0.07414004,0.06889411,0.0684808,-0.011347894,0.013609069,0.07590524,0.016300518,0.22990419,0.0567448,-0.018002016,-0.02606951,-0.11991822,0.12470625,0.15488203,-0.2891842,-0.08297159,-0.07941784,0.18263108,0.00348556,-0.007722658,0.023131557,-0.16337715,0.14765643,-0.30054635,0.18042934,0.115821615,-0.028420815,0.013611157,-0.072162926,-0.13643321,-0.022212638,-0.092260726,-0.08439003,-0.08087663,-0.12403994,0.18372765,-0.06636705,-0.0597933,0.093160495,-0.11761523,0.116677016,-0.031554613,-0.113117024,0.28780064,0.08911163,-0.12784348,-0.0076746363,0.011985519,-0.019453429,-0.1392688,0.08976812,0.38222653,0.05775012,0.064884536,-0.05149345,0.0040474064,0.16634701,-0.04539577,0.2159017,0.0400718,-0.035556037,-0.06711556,0.08935356,0.16400866,0.39615968,-0.0035381434,-0.05422915,-0.0068257004,-0.050418157,-0.14382805,0.0008200737,0.0057573603,0.18242167,0.00960909,0.08957924,-0.097977936
