0
0.022761084
-0.03059561
-0.0354208
0.017371215
-0.030499715
-0.011374997
-0.058276325
-0.00083945016
-0.0035872234
-0.019641586
0.015532526
0.0021615438
0.0082914205
0.021503467
-0.05857363
-0.014434204
-0.04535081
-0.05032858
0.0060035787
-0.017214265
-0.023259126
-0.03598527
-0.034569368
-0.06322619
0.0055113835
-0.029258808
-0.00866456
-0.035909023
0.012516976
0.0030904943
-0.011038035
-0.0034625963
0.009708073
-0.015063817
-0.04535256
-0.02293654
-0.02190869
-0.057440124
-0.0019702814
-0.02621032
-0.04187852
-0.04530856
-0.031507354
-0.03140679
-0.053319898
0.028022107
0.020369919
-0.04464657
-0.0444186
0.006325472
-0.056727078
0.0199796
-0.030126015
-0.036255214
0.015804617
-0.052469566
0.017893143
-0.021572135
-0.052612603
-0.031701494
-0.015395279
-0.042992014
0.021732092
-0.05292162
0.0021682743
-0.043118984
0.025249058
0.0033552612
0.020991296
-0.0406234
0.01619777
-0.024556173
0.0008903923
-0.033011194
-0.020512432
-0.050733846
-0.0068040797
-0.035628114
-0.037599258
-0.0014401699
-0.05252081
0.009497426
-0.0031201018
0.02931055
-0.042180352
0.010541426
-0.03481118
-0.060486913
0.005491187
-0.046960935
-0.019430608
-0.043779455
0.006129653
-0.004868237
-0.061371908
-0.022252273
-0.0030364997
-0.004645075
-0.030281115
-0.040650662
0.022208203
-0.0121843135
-0.03467931
-0.0038897907
-0.040715583
-0.015089884
0.006574012
-0.032313716
-0.00531639
-0.048696168
0.012525142
0.014002392
-0.0021570362
-0.038871057
0.0017156284
0.010053992
0.0019221038
-0.059382815
0.010477768
0.010642491
-0.02179101
-0.023093361
-0.052841548
-0.019244624
-0.0071703894
-0.039894383
-0.020187495
-0.04181621
-0.03193763
-0.047316417
-0.016109189
0.00227853
-0.015435341
-0.04404373
-0.04698696
-0.047084365
0.014443707
0.016845644
-0.048653282
0.0118187275
-0.0023041044
0.023042317
0.015723635
-0.009740149
-0.051973958
0.006109349
0.018795362
-0.0059112012
0.010529069
-0.053437546
-0.00083117967
-0.028344154
0.01784882
-0.0015063589
-0.020200418
0.007001329
-0.018461913
-0.010343462
-0.02944316
-0.01952574
0.026696375
-0.0070206975
0.0059171375
-0.037416082
0.016365638
-0.043065365
-0.007167651
-0.03237995
-0.04170149
-0.047139797
-0.053426087
-0.052156933
-0.0040765735
-0.05670749
-0.06043675
-0.0108207315
-0.005123148
-0.008361806
-0.01252514
-0.028736796
-0.0037041625
-0.04496404
0.013971008
0.02067389
-0.010095865
-0.035870865
-0.011292127
-0.010062859
-0.022708843
-0.05630506
-0.061366897
-0.041328054
-0.058129597
-0.0063096886
0.015717398
-0.00851633
-0.019118017
0.029781265
0.0107425945
0.01362896
-0.02036286
-0.023103302
0.020364527
0.012231217
-0.0019173829
-0.04101405
-0.024098929
-0.009705027
0.003835569
-0.013952721
-0.029305367
-0.017725267
0.000943287
0.020305187
-0.050033975
-0.013433416
0.013688505
-0.02267394
0.021660035
-0.01368585
-0.04177114
-0.038416073
-0.019590434
0.008703589
-0.009725684
0.027363725
-0.0019724718
0.008432111
-0.031813774
-0.025133237
-0.01957459
-0.04693833
-0.022192182
0.01067211
-0.053705852
0.0002464493
0.014803614
-0.04410548
0.011532757
-0.01565289
-0.03906414
-0.0017354513
0.002591322
-0.012215875
-0.014510208
0.0044629714
-0.020029888
-0.03030261
-0.01700554
-0.018781342
-0.03269297
-0.010642227
-0.041474722
-0.017482484
-0.016424282
-0.036472354
-0.04267828
0.021038515
-0.0017088642
-0.025149047
0.004537192
-0.023357453
-0.042206742
0.011339818
-0.011872263
-0.022172088
-0.03692948
-0.044402517
0.0031160174
-0.037077535
-0.019354133
-0.013098865
-0.050392643
0.0014323727
-0.021833403
-0.019844934
-0.007988046
-0.01138425
-0.0030851953
0.00040337234
-0.05383987
-0.021718945
0.014713801
-0.04712831
-0.013862094
0.019994987
0.0023659172
-0.05102311
-0.011312506
0.014419681
-0.0010731299
-0.032875556
-0.03608204
0.024086922
-0.030148314
-0.009842999
0.0061110286
0.011168649
0.016383348
-0.041994512
0.008305335
-0.0534551
-0.040224485
-0.0229782
-0.014631143
-0.04318369
-0.012453614
-0.045114
-0.04377939
0.02315267
-0.028525354
0.0014117965
-0.0010134361
-0.057014413
-0.02081496
0.010887909
0.014956289
-0.03500027
-0.004072344
-0.023787258
-0.013090233
0.023728937
-0.059855986
0.020968255
0.0026846796
-0.0032448184
-0.04943017
-0.029169898
0.0022766956
-0.02575592
0.017006177
-0.0023577083
-0.027509341
-0.057374734
-0.005673873
-0.051441144
0.02657653
-0.019533828
0.009363726
-0.010204352
0.011220631
0.006896082
-0.010375063
-0.04352706
-0.008994556
-0.0316583
-0.004427587
-0.044307046
-0.03390474
-0.062075816
-0.0151136005
0.0016245148
0.01750414
-0.03644558
-0.010702391
-0.021221047
0.0066034654
-0.03108044
-0.050877996
0.0068162647
-0.021740181
-0.024426142
-0.00072645274
-0.056412797
-0.008618394
-0.06073334
-0.031617273
-0.007188422
0.02194277
0.012402453
-0.053770438
0.008623738
-0.05792651
0.016138176
0.021651825
-0.049988132
-0.055001564
-0.044004317
-0.040060293
-0.038860798
0.012816797
-0.017906567
-0.045488864
0.018974971
-0.0250917
-0.052243438
-0.024526265
0.012717122
-0.012091261
-0.0039427537
-0.041458156
-0.0036834092
-0.058169648
0.0036932959
0.003293972
-0.034139663
-0.040943854
-0.026196996
0.003113296
-0.020298185
-0.040354125
-0.029697843
-0.017904857
-0.0094087515
-0.0455058
-0.039926413
-0.056940354
0.0005531175
0.014263021
-0.043775484
0.026485045
0.006110434
-0.031609263
0.010065433
-0.04049394
-0.0359032
-0.051227733
0.020328818
-0.055714935
-0.056684818
-0.0033419493
-0.054791827
-0.011795409
0.0074069663
-0.0014323634
-0.015165307
-0.025922984
0.013920738
0.01738973
0.014595293
-0.03277967
0.0056681465
-0.04109414
0.014901882
-0.028001256
-0.04915402
-0.022547513
0.006926445
-0.02230398
-0.001257687
-0.05587966
-0.030450152
-0.036049258
0.023732435
-0.035575505
0.009909758
0.027491175
-0.026058402
0.008628151
-0.03231815
0.022551026
-0.046429195
0.011601996
0.00018572032
-0.012099684
-0.034057744
0.010701657
-0.034195926
-0.030364439
-0.04619702
-0.04890876
-0.009775915
-0.06386707
-0.030181572
-0.037537567
-0.0066561117
-0.047775272
-0.040389832
-0.06196607
0.008670367
-0.03275237
-0.035604715
-0.057255402
-0.00080562476
-0.014489116
-0.049735267
-0.010224409
-0.034451693
-0.03087316
-0.017688837
-0.0071661165
0.008318602
0.01473583
0.01453477
-0.0011648239
0.004321759
-0.026544802
0.002793837
-0.04955318
0.018964544
-0.013741831
0.027391516
-0.055658713
-0.04436623
-0.012876392
-0.04608932
-0.044378713
-0.028051544
-0.057107646
0.008639502
-0.022224449
-0.03330505
0.015156406
0.020685732
-0.060158197
-0.039026335
-0.0587201
-0.031737547
-0.041677363
-0.043875717
-0.013165672
-0.056017622
