0,1,2,3,4,5,6,7,8,9,10,11,12,13,14,15,16,17,18,19,20,21,22,23,24,25,26,27,28,29,30,31,32,33,34,35,36,37,38,39,40,41,42,43,44,45,46,47,48,49,50,51,52,53,54,55,56,57,58,59,60,61,62,63,64,65,66,67,68,69,70,71,72,73,74,75,76,77,78,79,80,81,82,83,84,85,86,87,88,89,90,91,92,93,94,95,96,97,98,99,100,101,102,103,104,105,106,107,108,109,110,111,112,113,114,115,116,117,118,119,120,121,122,123,124,125,126,127,128,129,130,131,132,133,134,135,136,137,138,139,140,141,142,143,144,145,146,147,148,149,150,151,152,153,154,155,156,157,158,159,160,161,162,163,164,165,166,167,168,169,170,171,172,173,174,175,176,177,178,179,180,181,182,183,184,185,186,187,188,189,190,191,192,193,194,195,196,197,198,199,200,201,202,203,204,205,206,207,208,209,210,211,212,213,214,215,216,217,218,219,220,221,222,223,224,225,226,227,228,229,230,231,232,233,234,235,236,237,238,239,240,241,242,243,244,245,246,247,248,249,250,251,252,253,254,255,256,257,258,259,260,261,262,263,264,265,266,267,268,269,270,271,272,273,274,275,276,277,278,279,280,281,282,283,284,285,286,287,288,289,290,291,292,293,294,295,296,297,298,299,300,301,302,303,304,305,306,307,308,309,310,311,312,313,314,315,316,317,318,319,320,321,322,323,324,325,326,327,328,329,330,331,332,333,334,335,336,337,338,339,340,341,342,343,344,345,346,347,348,349,350,351,352,353,354,355,356,357,358,359,360,361,362,363,364,365,366,367,368,369,370,371,372,373,374,375,376,377,378,379,380,381,382,383,384,385,386,387,388,389,390,391,392,393,394,395,396,397,398,399,400,401,402,403,404,405,406,407,408,409,410,411,412,413,414,415,416,417,418,419,420,421,422,423,424,425,426,427,428,429,430,431,432,433,434,435,436,437,438,439,440,441,442,443,444,445,446,447,448,449,450,451,452,453,454,455,456,457,458,459,460,461,462,463,464,465,466,467,468,469,470,471,472,473,474,475,476,477,478,479,480,481,482,483,484,485,486,487,488,489,490,491,492,493,494,495,496,497,498,499
-0.044203334,-0.026661275,-0.014209177,-0.03380236,0.009048812,0.004993845,-0.0039534867,0.03328521,0.0006042905,0.0014177971,-0.0039380677,-0.014497308,-0.025232673,0.039678115,0.006092541,-0.025823237,0.018411446,0.025204446,0.0053124838,-0.0029961318,-0.038288467,-0.030363213,0.01318622,-0.043918815,-0.023641113,0.023891676,-0.0038853697,-0.01194863,-0.029374378,-0.01698983,-0.011501737,0.0024911277,-0.036973312,-0.023700725,0.0013598688,-0.0038338602,0.0025906563,-0.020251667,-0.00825021,-0.019131439,0.028135855,0.02588943,0.008296721,-0.039440982,0.013747089,0.019079048,0.038356144,0.02886286,-0.028539607,0.0032943934,-0.021067293,-0.009391844,0.005101647,0.006569486,0.015955102,0.02630623,0.014288273,0.034647252,-0.0096155405,-0.02875596,-0.00442677,-0.0071448646,0.03830735,0.0068018623,-0.029694095,-0.005828522,-0.042533763,-0.0011421032,0.0019296184,0.02197792,-0.013716618,0.04013328,0.02057219,-0.04239783,-0.01341347,0.017471343,-0.002563998,-0.014122978,-0.028831048,0.020122137,0.03045683,-0.0044596717,0.040131945,0.0201183,-0.03805603,-0.029975533,-0.035779037,-0.03372073,0.030827004,-0.03878599,0.032635394,0.035275396,0.019809138,-0.035322152,0.012049008,-0.023912242,-0.0284949,0.01790328,0.042880993,0.032212194,-0.019757017,0.007956836,-0.0024256073,-0.0015433878,-0.0065481924,0.03714746,-0.0016558245,0.014240898,-0.020437881,0.01663443,-0.028080223,0.026839089,0.0010889955,-0.03650611,0.04155427,0.0050322264,-0.02645482,0.024334427,-0.038988546,-0.00068932027,-0.0003165081,-0.034023516,-0.004811719,0.011485063,-0.03378108,0.015260931,0.024506647,-0.0059590377,-0.0029274225,0.021149252,0.026492562,-0.03870922,0.027348828,0.025919575,0.011759106,0.023998622,-0.00763065,-0.002803743,-0.00060325116,-0.030046817,0.010637615,0.038258497,0.036761742,0.012440592,-0.014469003,0.03162581,-0.004637312,-0.0028091185,-0.026080212,0.018512141,0.026906934,0.002657827,-0.035192173,0.026447315,-0.002314888,-0.0123420395,-0.032843646,0.0123830065,0.0035852976,0.0052210577,0.011430096,0.0025110394,-0.010519054,0.034831878,-0.029935263,-0.020789117,0.014833402,-0.04383778,-0.020390397,0.027422901,0.024259385,0.008033674,-0.009731084,0.031777415,0.023018707,0.017701827,0.00936722,-0.011765491,0.025333803,0.004607111,0.03981963,-0.016551366,0.00674339,0.03442361,-0.034623127,0.043098275,-0.008251581,-0.034080092,0.01994976,-0.020338017,0.027765635,-0.020927306,0.008842971,0.03718512,0.014533684,0.018679786,-0.04301576,0.017916251,-0.008702554,0.038865726,0.042491574,0.018561464,-0.025709543,0.006691389,0.021609943,-0.03465216,0.017567039,-0.013048787,0.02486195,-0.010969762,-0.017487647,-0.007848676,-0.0074043497,0.02553505,0.02146734,0.020612571,-0.022380555,0.0047632046,0.041022766,0.028379839,-0.020462986,0.042900752,0.0205996,0.023596946,-0.0032734126,0.00867654,0.016499061,0.014231063,-0.012783971,0.029217329,-0.015951734,0.040031675,0.009563748,0.03642259,-0.040000763,-0.028667375,-0.03133519,-0.011276513,0.0031859428,-0.037592873,0.016401052,-0.025986793,0.022172716,0.03411908,-0.04194265,0.015292313,0.012449913,-0.033479482,-0.034153752,0.025885481,0.039237093,-0.005275335,-0.022623578,-0.024070961,0.008369677,-0.01528848,0.03776205,0.029434483,-0.012858298,0.04033513,-0.013127904,0.003068868,0.028365295,-0.0004227683,0.037144955,0.035524804,0.020075794,0.041962754,0.033693757,-0.019347923,0.031069767,-0.017886022,0.0070091933,-0.014741082,0.0056831203,-0.0116891,0.013022352,-0.017956452,0.0035583153,0.0035114586,-0.0011604279,-0.039421704,0.0040642694,-0.013376024,0.015318684,-0.0062305965,0.009346064,0.038126294,-0.036077008,-0.034653164,0.005430378,0.040750537,-0.01800558,0.040112134,0.033520978,0.030952122,0.0107448995,0.03960212,0.013771053,-0.015110711,-0.0032131374,-0.040760346,0.025774661,0.0045224093,-0.0048877522,0.009496953,-0.0022499226,0.0139273815,-0.018777026,0.020243604,0.0016606599,-0.038309515,-0.014262468,0.03687549,0.015586279,-0.012410644,-0.036272526,-0.0015223734,-0.011076484,0.035643842,0.02502862,-0.030066304,0.038573336,-0.026434802,0.012387048,-0.007406734,-0.04267329,0.0074319765,-0.018024083,0.008280512,-0.028865231,-0.041106418,-0.0034599863,0.020040799,0.0037874728,0.0005213171,-0.015774034,-0.008503314,0.041882414,0.042801622,-0.025154784,-0.01017582,-0.0028642528,-0.01331627,0.042124067,-0.0125480555,0.0049865805,-0.030767608,7.7173114e-05,-0.028414916,0.035663556,0.01594105,0.038116116,0.020964425,0.025807183,-0.013232529,-0.015764503,0.030586828,-0.012155529,0.032406222,-0.0136904195,-0.04006349,-0.015847461,0.017135918,-0.002448488,-0.035114937,0.025579136,0.008089017,-0.041833848,0.003009569,0.0070265085,0.018792313,-0.0164963,-0.043690585,-0.019042108,-0.0076913834,-0.016037295,0.03589743,0.005991988,-0.028372342,0.0058222897,0.018020172,0.0018713325,0.0135069415,-0.015353983,0.036594328,-0.023834102,-0.02849112,0.017220091,-0.029173471,-0.0059355833,-0.004966259,0.039955225,0.03972329,0.0011686645,-0.0067782067,-0.020247046,-0.006921474,0.032033596,0.01786692,-0.04444104,0.024128888,0.026921336,-0.00021174923,0.0229212,-0.013589207,0.015928112,0.004546415,0.015282895,0.04373121,-0.012752272,-0.035812538,-0.041382376,0.034318548,-0.03511438,0.008861303,-0.024653278,0.009417295,-0.0041477606,-0.036245123,0.0041449815,-0.004313685,0.021599915,0.0348872,0.043998618,-0.012645226,0.02140918,0.0028008707,-0.022680264,-0.019871553,0.015673585,-0.021428829,-0.041821636,0.027331885,0.030124914,-0.024409974,0.032593105,-0.039069418,0.01927897,-0.020490037,0.037951294,-0.013052333,0.034278993,0.0273428,0.014991179,0.011745378,0.0075777397,0.034844194,-0.022621514,0.040958207,0.02612364,0.020758871,0.027180549,0.027742993,-0.03990288,0.0024298057,-0.026293498,-0.01811546,0.038591918,-0.021744741,0.03522234,-0.03885531,-0.0341328,0.04100914,-0.009721339,-0.033342466,-0.024255123,-0.023976462,-0.0058082417,-0.022888677,-0.011764586,-0.043537036,0.017569963,0.025326524,0.02361172,-0.034497812,0.01854783,-0.029632408,-0.042102713,-0.043031204,-0.030022416,-0.009323243,-0.018074086,0.012447514,0.004774593,0.0022037365,0.0325648,0.015250716,-0.015473243,0.023847278,-0.0033454448,0.018852908,0.0011889078,-0.04419973,0.027559485,0.030457307,0.038639855,-0.040407673,0.0068631433,-0.018333176
-0.008013036,-0.021402467,0.03143617,-0.020952081,-0.0059162043,-0.00455999,-0.043015994,-0.030521167,0.02305961,-0.005726654,0.028208654,0.02607594,0.02472056,-0.011127181,-0.042733386,0.019568373,0.01530781,0.018771265,0.031659942,-0.012608726,-0.021188386,0.016569145,0.03939062,-0.03349819,-0.011691939,0.008962773,0.029636804,-0.0136781465,-0.018430881,0.03645466,0.011766691,-0.011538785,0.044274356,-0.034206595,0.0012815259,-0.044358663,-0.0120374635,-0.018151376,-0.03973077,0.010842774,-0.013078943,-0.00055662915,0.03100549,-0.00527405,-0.023244238,0.019106228,-0.035566807,0.03413905,-0.011601154,-0.033466585,0.03422795,0.03740797,-0.006964449,-0.018008031,-0.024100818,-0.030316256,-0.009830959,0.023702692,-0.01734257,0.02593268,-0.011621799,0.027732287,0.021379467,-0.0027788617,-0.011705134,-0.03711613,0.006276209,0.0079930425,0.003241945,0.018001784,0.034136374,-0.017428711,0.01986285,-0.037230536,0.027766433,0.012875773,-0.011496428,0.017530821,-0.019918414,0.01380939,-0.041175958,0.02190945,-0.02234032,0.020875309,0.039391976,-0.036288366,0.01948781,-0.011714265,0.0042451285,-0.019665247,-0.03052452,-0.026225518,-0.02535014,0.024169307,0.030616518,0.04456875,-0.0021850877,-0.02577095,0.0017690621,-0.031904697,0.03219748,0.04424193,0.011432495,0.005838651,-0.037515886,0.027423907,0.012997039,-0.010824282,0.025325377,0.011174347,0.019842919,-0.01901495,0.010115501,0.002525378,0.031337168,0.026858348,0.017430946,0.0035044476,-0.012699969,-0.04242601,0.010254405,0.021032158,-0.020168731,-0.0058138557,-0.01948816,0.01073432,0.015925698,0.028333303,-0.016078152,-0.015232069,-0.00067384914,-0.0082565695,0.03501026,-0.04053416,0.01266909,-0.013261769,0.039968032,0.009750545,-0.02165283,-0.042724036,0.018708538,0.01637074,0.012687571,-0.018591115,0.036127787,-0.03688836,-0.012345236,0.0057008453,0.0054754317,-0.0002546087,0.017453432,0.04280943,-0.025638448,-0.030701127,0.030129854,-0.039981972,-0.029875724,0.036954004,0.038227003,0.008855991,-0.031525888,0.04189581,0.033656407,0.043605383,-0.03163169,-0.0056716725,0.030534279,0.033069406,-0.026920175,-0.0036560148,-0.0030802302,-0.0046607554,0.033189293,0.038747486,-0.016863924,0.021905158,-0.0021093637,0.016107414,0.0392952,0.016847152,-0.040399164,0.0065252148,0.013663385,-0.035718657,0.024478327,0.040641,-0.016966235,0.029739562,0.0026052147,0.04169519,0.02376346,-0.040396664,-0.041818555,-0.02451167,-0.043933585,0.023079652,0.013273668,-0.025940375,-0.04143229,0.016956516,-0.025645586,-0.026841998,-0.03099276,-0.029371701,-0.040900756,0.031527545,0.027698193,-0.027698183,-0.03538167,0.0064736567,0.01073315,0.028717842,0.026416112,0.003618937,-0.01506073,0.01297212,0.014654625,0.007607013,-0.037129585,-0.038076982,0.011611085,-0.0038749315,0.02249882,0.021727573,0.01786406,-0.0070441924,-0.006723132,0.04319412,0.026774537,-0.037918396,0.024690907,0.025582742,0.0017961934,-0.0033305138,0.012676403,-0.033808317,-0.012789894,-0.027208257,0.032865446,0.008232869,0.0053028874,-0.025857853,-0.0045228973,0.015444487,0.03716399,-0.043588817,-0.014884407,0.04136705,-0.031032035,-0.03082947,0.0059101656,-0.0026636906,0.026522625,0.013162188,-0.03636512,-0.007946227,0.001980681,0.01021605,-0.023687052,-0.043914996,0.020588335,-0.021905748,-0.017392049,0.010034181,0.023367453,-0.018142266,-0.008769151,0.028993685,-0.039945368,-0.008254647,-0.010451768,0.008554738,-0.04092966,0.04156172,-0.020641688,-0.04306195,-0.00875609,0.0134276375,0.030333195,0.003067255,-0.00591594,0.01815014,0.019239265,0.0069105923,-0.026009249,-0.0130871795,-0.02974787,-0.0066599995,-0.033033274,-0.0031600818,0.0190815,-0.014918083,-0.00041693822,-0.027195916,0.03712756,0.007132493,0.0021373816,-0.036894742,0.005936142,-0.022834966,0.041684967,0.039047096,-0.02170594,-0.0098172575,-0.021186579,0.029876385,-0.015583444,0.025383595,0.03468552,0.02937549,0.034638282,-0.037438437,0.0059772357,0.02943201,-0.022326358,-0.029519578,-0.042564042,-0.004101895,0.041099172,-0.02621603,0.022214461,0.019446429,-0.029679392,-0.039719164,-0.040004283,-0.025101094,0.02660985,0.040011797,-0.011354603,0.042941604,0.0036367215,0.021028508,0.013112176,0.0055804104,-0.03780137,-0.02819285,0.013661519,0.01443617,0.015962597,0.032948066,0.0418364,0.004491046,0.03656241,0.0052165315,0.031551722,0.030720558,0.034933385,0.027833637,-0.004726745,0.013957955,-0.027155867,-0.011208765,0.03218018,0.033865076,0.009710591,-0.00024367496,0.021899361,0.03390372,-0.020869896,0.004720807,-0.016278168,-0.019248031,-0.03915573,-0.030946314,0.012472384,0.0057362765,-0.0020270683,0.0068898164,-1.9203871e-05,-0.0074651875,-0.03906097,0.027433041,-0.041317783,-0.025028387,0.02379791,0.0034843758,0.042698834,0.007136233,-0.0028948635,-0.040120967,0.028672624,0.00045244768,-0.018832183,0.007473264,0.010559481,0.041582163,-0.044515327,0.009556297,-0.028774116,-0.014943289,-0.032127514,0.044252772,0.028924208,-0.03652375,0.029921826,0.040714923,0.001825776,0.030738663,0.021993015,-0.018995263,-0.021968368,-0.04156413,-0.008606687,-0.036473982,-0.034947984,0.012633286,-0.006412562,-0.014001282,0.037811633,-0.033080153,-0.020545892,-0.028141798,-0.012518834,-0.042173088,0.007278044,0.026487563,-0.04301535,0.044392627,-0.036382195,-0.011020672,0.0149270445,0.029472757,-0.021397514,0.019395519,-0.024402594,-0.009216346,0.03396781,-0.031437464,-0.0144918915,-0.032524846,-0.0128666945,-0.011401642,-0.014144648,0.04005931,0.036930222,-0.005288072,0.02329472,0.020893086,-0.021292446,0.042512435,-0.0053979754,-0.018430913,-0.013546392,0.014407348,0.011428181,0.007208839,0.0001933612,-0.012608755,-0.0043607056,0.016199466,0.035151612,0.03697249,-0.03463426,-0.035853617,-0.027624197,0.033982854,-0.042255525,-0.037820905,0.02518766,-0.007880662,0.003204234,-0.014038568,-0.03177034,0.019696165,-0.018985199,-0.032338228,0.027901124,-0.024227304,0.008672196,0.01791418,-0.014253527,-0.03586005,0.03554519,0.04222141,-0.028672637,-0.038186327,-0.039597362,0.005952224,0.012165673,0.019302655,0.009580985,-0.0267737,0.028380375,-0.012693293,0.044434335,-0.036590405,0.026854996,-0.021870881,-0.030284105,-0.04252244,-0.019654285,0.0031159855,0.024986248,-0.043601025,0.033445258,0.036146384,-0.016701935,0.0024031252,0.040117998,0.020835552
0.032791223,0.030517224,0.0125009045,-0.036627635,0.027150568,0.026969317,0.026346195,-0.011257678,0.0039367303,0.016571071,-0.04156407,-0.02367358,0.037920665,0.03395084,0.02222113,0.033848662,-0.020814158,0.035732266,-0.021341285,-0.018746952,0.0383629,-0.016620325,-0.033306602,0.008148983,-0.014472326,-0.03638197,0.02788062,0.042751435,-0.04229594,-0.022625674,0.00036859885,0.03512718,-0.0133610405,-0.033457033,0.0074663013,-0.012784041,0.020976309,0.0011211671,-0.0159033,-0.044657722,0.028586876,0.038905423,0.0016634166,-0.005240459,-0.014620533,0.037229758,-0.0022010133,-0.0030504353,-0.02140365,-0.015798308,0.020454776,0.015211806,0.0398035,-0.018386958,0.025096025,0.003723584,0.033397365,0.03924271,-0.009364251,0.03434496,-0.0016472228,0.035009127,-0.0017528944,0.020670187,-0.012752023,-0.013535133,0.024000656,0.018572774,-0.023912651,-0.008650828,-0.024172021,-0.01566356,0.034645367,-0.0006411746,0.040498223,-0.04197723,-0.011082746,-0.042128503,-0.008078542,-0.033552684,-0.024279343,-0.006392885,0.013739854,0.0068176053,-0.01791632,-0.039581954,-0.0057260618,0.028130818,0.0251146,0.007078089,-0.0019677095,0.021472897,-0.018340666,0.02428915,0.04236691,-0.040727917,-0.044548698,-0.014029287,-0.0037525892,-0.021948537,-0.029160362,0.027409386,-0.0018596873,0.03265756,0.006784249,0.02380858,0.01705132,0.017982174,0.022176947,0.009554021,-0.028580183,-0.0049713887,-0.035964895,0.038543243,-0.04331108,-0.021706808,-0.019896716,-0.03643889,-0.023515072,-0.034594126,0.03013933,-0.014414977,0.039353203,-0.042492326,-0.007959537,0.025232207,0.0005758703,-0.041895334,0.0008551888,0.027328577,-0.00083458424,-0.036923286,0.015887327,0.017360542,0.014965519,-0.017372921,-0.015068715,-0.033768892,0.0055381656,0.012683179,-0.04381752,-0.028494053,0.041974384,0.007766083,-0.013159554,-0.030035863,-0.04108923,0.023892734,0.030184586,0.022930529,0.0025680438,0.044501264,-0.028841008,-0.034069166,-0.019043814,0.03322198,0.009373475,0.034369845,0.027976882,0.013978038,0.0044134147,0.025896538,-0.009953313,-0.017553706,-0.028245324,0.007253196,-0.02066845,-0.008865036,-0.010063693,0.021050055,0.017278373,-0.02265611,-0.00038608164,0.011947792,-0.024873927,-0.022650484,-0.009841114,0.024608534,-0.022488495,0.042494025,0.023376431,0.030663047,-0.041088983,-0.015762178,0.038452346,-0.005218394,-0.014819711,0.01774187,-0.03023912,-0.008413643,0.0052699298,-0.0015145428,-0.012932815,0.009410106,0.005724404,-0.017263742,-0.017005121,0.04086512,0.025169682,-0.018211354,0.02716345,-0.028013008,0.03443664,-0.00023086369,-0.039415706,-0.021138236,-0.042884577,0.04027002,0.002683673,0.018076729,-0.040377226,0.042956967,-0.032834243,0.0063202046,-0.010009725,0.018444505,-0.019535111,0.014696304,-0.002415903,-0.032449324,0.025828097,-0.024664443,0.027196977,0.028915104,-0.0013755523,0.0305666,-0.013486581,-0.032733843,-0.035402104,0.021044027,-0.030527458,0.017294347,0.030332971,0.01108351,-0.021594182,-0.017112555,-0.04019185,-0.023196053,0.037709597,0.013051763,0.021736976,0.036862817,-0.02347406,0.0029778704,-0.034450576,-0.04139385,-0.0036228597,0.019362543,-0.038286127,-0.001687225,0.0005207211,-0.019736988,0.000110361725,-0.017566843,-4.284829e-05,0.032653246,0.0041803084,0.03580411,0.009607919,-0.011222642,-0.0005395599,0.04363654,0.04276553,0.040740106,-0.023570022,0.038790498,0.031614434,0.017287146,0.010755088,0.0073723383,0.0076922514,-0.040159672,-0.012572337,0.03835771,-0.012317255,0.03635327,0.0125248805,-0.042510644,-0.044656288,-0.018281031,0.02191544,-0.0028786995,-0.01852727,-0.01546363,0.01402371,-0.027847286,-0.022464357,0.0023466349,-0.039119203,-0.012581214,-0.032559797,0.02599645,0.0057065077,-0.028626597,-0.0127356425,0.02176861,0.0008541867,-0.03068194,-0.008519895,0.015671898,-0.008408818,0.010462407,0.030304063,0.018706497,0.0007716976,0.018945899,0.0019856654,-0.03279697,0.043815512,0.018221844,0.018511858,0.010982994,0.0011424236,-0.021888128,-0.04197144,0.04374626,-0.019632028,0.014518935,-0.019091668,-0.032573,0.011962827,0.0433206,-0.030773748,-0.021072231,-0.007318184,0.013171986,-0.03148127,0.012540784,0.013997901,-0.033012807,-0.040549856,-0.0020499527,-0.039155416,0.038585823,0.044698756,0.008609999,-0.0037260093,-0.033071812,-0.044143826,-0.041865107,0.013528917,-0.0070518516,-0.03920768,0.01651365,-0.031015147,0.020292353,-0.026000809,0.034062687,-0.013893122,0.0027385429,-0.009614877,-0.002616182,-0.03886792,-0.014137942,0.032486107,0.031101797,0.015142217,0.011737719,-0.043402717,0.025896411,-0.031817306,0.04397365,-0.034441143,0.029077303,0.037382703,-0.009499643,-0.015162855,-0.021611353,-0.036577247,0.0049709156,0.022099283,-0.029641893,0.032269705,-0.024466734,-0.018952416,-0.0072252937,0.00043108687,0.0109950155,-0.0039553083,0.013605505,-0.022299515,0.028201174,0.017129,-0.04314765,-0.032169446,-0.017383013,-0.027450789,-0.023353158,0.0059558228,-0.025687207,0.023164164,0.027208906,0.0065231025,0.0088388175,-0.03936285,-0.030315336,0.014709309,0.015018448,-0.023391133,-0.012536321,-0.0010808632,-0.012442756,-0.04391511,0.022717949,0.020713005,-0.004911661,0.02850641,-4.8860908e-05,-0.03658452,-0.006192185,0.038372535,-0.015552459,0.028450396,0.0067226514,-0.037748713,-0.0011774227,-0.036825243,0.015363339,0.0035954192,-0.008859158,0.02926452,0.02466302,0.013969075,0.011291981,0.00032312423,0.022989709,0.041352067,0.042730894,-0.03542628,0.035661492,-0.0265976,0.019519795,-0.0064191036,0.012838375,0.0144177675,0.04235361,-0.0064008906,-0.0073367506,-0.0067666806,-0.006553091,0.025519554,-0.023368033,0.00074140355,-0.021696642,0.043559972,0.010290135,-0.035343617,0.027307365,0.0057885908,0.039517302,-0.008065682,-0.027757663,-0.029566076,-0.022554737,0.02949762,-0.017691892,0.009093195,0.019619178,-0.025214622,-0.005635176,0.008168712,0.029606614,0.030429434,0.0039786696,-0.025691066,-0.014773341,0.030066315,-0.036883358,-0.044525754,-0.009689279,0.030155066,-0.039174017,0.009947885,0.005862072,0.043598603,-0.033401363,0.0010492057,0.015516736,0.008494999,0.005116921,-0.04232887,0.02032682,0.023037728,0.04144669,-0.014914906,-0.021508025,0.005405102,0.026567128,-0.009499006,0.015740838,-0.023405926,-0.030921694,0.024953324,-0.006958835,0.020894993,0.0125053935,0.028950598,-0.005405113,0.0332145,0.03720024
0.029831003,-0.010760475,0.042736422,-0.030057747,0.04207704,-0.022851577,-0.025526999,-0.0020055324,0.014624476,-0.03562261,-0.02327407,0.034629073,-0.038921643,0.04045132,-0.029678825,-0.013899377,0.020677831,0.032504316,-0.03571181,0.009817809,0.024583917,-0.029176569,0.025006723,-0.023746345,-0.03814476,0.02602427,-0.002854921,-0.022583114,-0.009882167,0.0030874535,-0.019512087,-0.03949656,-0.021529749,-0.031758007,-0.023252329,-0.023305476,-0.042041503,0.017325163,0.0006243214,0.011132222,-0.04329767,-0.018355008,-0.040551934,0.04330204,-0.022996651,0.011191163,-0.033708334,0.029620554,0.043394353,0.009721372,0.0015646107,-0.011279501,0.014263567,0.0053648427,0.042231526,0.044329356,-0.01787303,-0.038105406,-0.043504287,-0.033271804,-0.021092724,-0.027040916,0.016107224,0.018342156,0.0078198165,0.029855896,0.02690987,0.022585314,0.040643703,-0.03465986,-0.008503299,-0.034345634,0.037155535,0.008321848,-0.02572011,0.020059865,-0.03740201,-0.00889666,-0.04420542,-0.023526864,0.037976418,-0.03483517,-0.04105851,0.036327627,-0.036229502,0.0271166,0.01778606,0.02542654,0.009420909,-0.03325063,0.0070908293,0.007462833,0.0051148944,0.02104925,-0.030182652,-0.021903744,0.027895201,-0.032233324,-0.04452913,-0.011013303,0.033424135,-0.036697317,0.027585384,-0.03555638,0.017205112,-0.040901903,0.03146309,-0.0011048317,-0.016310418,-0.03839662,-0.008496329,-0.012569945,-0.030096378,-0.027226297,0.0023179762,0.0032575391,-0.006294593,0.03146283,0.016969305,0.031012516,-0.04352476,-0.0020650588,-0.04431591,-0.025674172,-0.0274157,-0.0053590834,-0.01760013,0.01291379,0.02604385,0.0358168,0.010117602,0.0072934404,0.0050883293,-0.039771676,-0.037869547,-0.028254287,0.030169297,-0.029268004,-0.019303247,0.030453335,-0.03169481,-0.04116332,0.012096267,4.338473e-05,-0.010802943,-0.013166651,0.0049768463,0.0148268975,0.028957773,-0.011706151,-0.0042335615,-0.039385244,0.025241282,-0.023844482,-0.043660123,-0.042389516,-0.04043708,-0.033476457,0.010035623,-0.026444327,0.017570384,0.04450414,-0.0072097853,0.025579412,0.014466815,-0.018794304,-0.016649716,-0.031153005,0.02449606,-0.009693202,0.004050579,-0.025148915,0.0029760376,0.01748037,-0.028598512,0.033541273,-0.008885749,0.023962509,0.037887756,0.029015142,0.02044655,0.03693253,0.042415645,-0.024577308,0.027514722,-0.022292553,-0.011417381,0.025213037,-0.039094172,0.02279104,-0.040027175,-0.0017428882,-0.015919555,-0.019151986,0.014104754,0.026635762,0.010760348,-0.024522206,-0.0042426325,-0.019463332,0.03375635,-0.023910627,0.032150615,-0.04377199,-0.03413801,-0.015792657,-0.016268669,-0.024882829,0.030343395,-0.011697419,0.0368346,0.023132969,-0.033325054,-0.028422102,-0.02294957,-0.021798762,0.04101826,-0.023715947,-0.044050444,0.019255396,-0.014200786,0.012140837,0.00013458729,0.030830603,0.0005262755,-0.04367337,0.040918086,0.030647803,0.0014239363,0.016388118,-0.025856243,0.03799426,0.033809472,-0.012586158,-0.020012612,0.0067207254,0.012644939,-0.037090547,-0.04333897,-0.01926613,-0.010978267,-0.018870912,0.002525013,0.032614093,0.0019315481,-0.016059643,-0.014101481,-0.003539972,0.029222194,0.04241238,0.03806409,0.03684662,-0.010359872,0.0016942769,-0.038510345,-0.0024832562,0.010280963,-0.0084318705,-0.026662657,0.021735888,-0.006241277,-0.03702184,-0.029457454,-0.004450366,0.035644498,-0.027040878,-0.03848101,0.042242665,0.012675285,0.038880717,0.029075045,-0.015526058,-0.0038703308,0.034470763,0.019610051,0.016133778,0.034663428,-0.016983503,-0.011047691,0.015525062,-0.025984745,0.0385581,-0.03263181,0.01729735,0.026035797,0.0058056638,0.023952242,0.007972803,0.0026074909,0.0050884336,-0.03420765,0.0400624,-0.021767382,-0.021710573,0.004050087,0.0039855205,-0.03294305,0.035338346,-0.01005286,-0.010001436,0.041624356,-0.007237073,0.036360953,0.044159513,0.011614002,0.010814544,-0.015047658,0.020175334,0.0015276596,-0.030684479,0.02858435,-0.022631826,-0.043243494,-0.0023698434,0.04071373,-0.01786805,-0.027205432,-0.030310921,0.011173762,0.029619094,0.016441245,-0.0007401481,0.024492715,0.009674765,-0.019187303,0.024917614,0.01726095,0.019577745,0.010499515,-0.022771621,-0.037151765,-0.022479182,0.005777832,0.023899812,-0.019007988,-0.029856596,0.033689614,0.018964361,0.031272274,-0.030303776,-0.011614375,0.041914303,-0.0118614435,0.033285256,0.019644674,0.017499138,-0.034319647,0.044429775,0.0037706345,0.0021664314,-0.020656876,-0.032068763,0.025594544,0.017957669,-0.02405016,-0.01637904,-0.006057434,-0.028512055,0.02767625,-0.025926279,0.035009813,0.011158217,-0.021680035,-0.01320871,-0.00017080456,0.04224654,-0.03089602,0.021115076,0.019032557,0.04076289,-0.015065609,0.035998646,0.04177769,0.012862798,-0.012007557,0.010387249,-0.03902912,-0.00020555407,-0.009979062,-0.00060595945,0.021478008,0.010272272,-0.006813165,-0.003454551,0.04354525,0.04194739,-0.012330819,-0.024627535,0.015541822,-0.0014682487,0.013300937,0.01977973,0.039156433,0.023863528,-0.030741783,-0.034024347,-0.03586775,-0.03350626,0.009355549,-0.039628148,0.033246156,-0.014886795,-0.024356484,0.042530674,-0.009330932,-0.040365662,-0.023021227,0.021189827,-0.042241845,0.018703233,0.003098499,0.03996602,-0.0014449209,0.029133502,-0.043751296,0.006259959,0.04080541,0.04112481,0.009854872,0.01281428,-0.026576089,-0.040680166,-0.00922652,0.02181271,0.034726713,0.006492123,0.042907167,0.038930114,0.030708749,-0.042781256,-0.028207697,0.021916274,0.024582822,-0.027176253,0.03887483,0.030237708,0.0059126653,-0.012111548,0.017752293,0.03032666,-0.029740311,-0.009577759,-0.0018455982,-0.0017074235,-0.039894305,0.03887755,0.0073242933,0.020966973,-0.02565548,-0.016862884,0.00010974333,-0.025764711,-0.041838743,0.025833573,-0.039684672,-0.020178476,0.034017187,-0.04303123,0.04014757,-0.040647835,0.041066375,0.0021351352,0.005226657,0.0076030195,0.0267076,0.02349915,0.0114649795,0.0015216619,-0.0446476,-0.011451181,-0.009193741,0.010323487,-0.016721308,0.018260319,-0.018146446,0.012706585,0.029563319,0.031946477,-0.027090758,-0.0011280887,0.009401195,-0.035719626,0.018621754,-0.0007505864,0.03668378,-0.0055998936,-0.024358341,-0.028387902,0.007845808,-0.024618194,-0.026470935,-0.017765563,-0.00083523244,0.0032968745,0.025627311,0.022294935,-0.03710168,-0.023674417,0.007956322,0.006063409
-0.040308118,0.030419018,0.031461973,0.036689643,-0.0047937296,-0.04373235,-0.043660667,-0.02880018,-0.0075617507,-0.01883664,0.031667616,-0.013525797,0.03306589,-0.025065035,0.019956555,-0.040818475,-0.0257738,-0.030106533,0.038484726,-0.036148075,-0.0015497319,0.044657554,0.043697666,-0.017038196,-0.0013250336,-0.008426931,-0.009450179,-0.0027418248,-0.042707555,0.0077991635,0.029805947,-0.033913847,-0.010060091,-0.04312804,-0.03155424,0.010266449,0.022674944,-0.04067335,-0.012528542,-0.00630733,-0.022659734,0.0069914237,0.030412842,-0.032322288,-0.0106973015,-0.02155255,0.006441895,-0.033794515,-0.016719593,0.004385121,0.026116174,0.017407056,-0.0005941354,-0.032532454,-0.0024319664,0.024728145,0.014626559,0.020837758,0.01838449,0.03765453,-0.025116848,-0.042313594,0.030953895,0.031383548,0.016575534,0.00552715,-0.024732549,-0.011935234,-0.017698262,0.03611469,-0.04336869,-0.027540646,0.038296092,-0.011236701,0.022585507,0.0409255,-0.009565845,-0.012879886,0.036458585,0.029662985,-0.020258982,0.010535382,-0.014655005,0.028309401,-0.010614689,-0.025956022,-0.0034459867,0.016502168,-0.009773314,-0.036331024,-0.02200695,0.0034091398,-0.030598752,0.006555032,-0.03026166,-0.013294797,-0.012507606,-0.03884075,-0.020399215,0.0009663068,-0.0019451492,-0.00093365833,-0.006390158,-0.0004243143,-0.03585342,-0.03264444,-0.012691747,0.007415872,0.0008248985,0.018535312,0.02379546,-0.012354381,0.017962415,-0.016382132,-0.040600266,-0.032311566,-0.04052914,0.027476158,-0.031899795,0.043827113,0.03816953,0.009306978,0.024981592,0.0071307756,-0.041072574,0.038649227,0.018604506,-0.03248838,-0.033302177,0.027654868,0.014263924,0.0056744404,-0.027165134,-0.023532895,0.017735511,0.035657596,-0.04204385,0.018534552,-0.042210862,0.024326157,0.027343918,0.0014118552,0.038291987,0.005035665,0.0438228,-0.03858962,-0.014375014,-0.014204379,-0.011106398,-0.01912967,-0.014619391,-0.010183439,0.0037148409,-0.041944727,-0.006355442,-0.025136055,0.011609554,0.032056827,0.029472087,-0.031305958,-0.025504459,0.025846396,-0.025385173,0.02148002,-0.03087591,-0.008174397,0.011797592,-0.011943694,0.04105944,0.009638909,0.029281508,-0.016775612,0.010696135,0.0004006885,0.0445435,0.01150018,-0.031965204,-0.029604077,0.042184856,0.014727715,-0.012901481,0.0015848018,0.0071362928,-0.011041973,-0.032541905,0.030849498,-0.017907448,0.03788917,0.008397084,0.02741627,-0.032402538,0.028502751,0.03120682,0.038791623,-0.028042963,-0.043136604,0.044721287,0.019364249,0.0036551245,0.013393242,0.0067049973,-0.037451107,-0.019628754,0.03468157,0.030219842,-0.02914938,0.04420427,0.039332423,-0.035080362,0.0155786835,0.0067728497,0.0013429336,0.0051423423,-0.030904667,-0.0080382675,0.034708854,-0.04295619,0.0060461946,-0.034421336,-0.03712894,-0.010229766,0.0036867484,-0.04005132,0.02689847,0.024030615,-0.040367704,0.039595317,0.041521955,0.02923097,0.029251207,-0.04061979,-0.04174197,-0.008896988,-0.039802708,-0.008708417,-0.036065515,0.031846028,-0.00063948333,-0.015445579,-0.024040867,-0.021881998,0.0335743,0.016484652,0.0032052696,0.017797653,0.026677806,-0.02482312,0.036006097,-0.029127367,0.016622264,-0.042918418,0.0029504895,0.028053295,0.023227897,-0.0052311085,0.02815393,-0.015204102,0.022848558,-0.041415986,0.002635613,0.006826669,0.018058438,0.014044274,0.01868805,0.007515453,-0.027136723,0.041947592,-0.019303966,0.0057056583,0.027616527,-0.0155428145,0.0009318143,0.034782585,-0.0017205812,-0.04361093,-0.0020416789,-0.015574802,-0.032885008,-0.036167037,-0.030906975,-0.020206124,-0.0006317161,0.004971564,-0.021293294,0.023875128,-0.017769188,-0.003849022,0.014126543,0.0020574853,-0.028003449,0.025985423,0.04180031,-0.0093037635,0.043564428,0.018257912,-0.024458578,0.022111204,0.02210464,0.009944268,0.02426314,-0.017058363,0.002465725,-0.016711121,-0.016002338,0.0070772655,0.0055075213,-0.031693153,-0.007875208,-0.00016700476,0.0018471442,-0.03409407,-0.015877726,-0.0118466355,0.016487557,0.0017565936,-0.035486147,-0.023685766,-0.024874726,-0.0061631203,-0.02542899,0.02281886,0.014909741,-0.0030190311,0.039568316,-0.015081048,-0.042139113,-0.015103439,-0.026835179,0.03202347,0.027038906,-0.031916637,-0.007087145,-0.020506984,0.024099085,-0.025387231,0.028163139,0.031653974,-0.02151358,-0.03699869,-0.032839566,0.030865576,-0.021123298,-0.04139012,0.003736142,0.012830555,-0.016203707,0.015429687,0.020478185,-0.02736942,0.013971891,0.035899337,-0.042952612,0.024377216,-0.040292438,0.015345357,-0.025496408,-0.023042014,-0.01980647,-0.010155551,0.017618299,-0.0076734014,0.030721288,0.0066077225,-0.041808285,0.03155825,0.03230313,-0.028818328,-0.010445263,-0.02616952,-0.039516654,0.029617202,0.018068347,-0.03801774,-0.044161543,-0.041531716,-0.031049568,0.021603879,0.018425662,-0.020433212,-0.0046746656,0.0071054213,-0.019891983,-0.036689937,-0.010058545,-0.010215223,-0.00732971,-0.01744316,-0.002807159,-0.0022204928,-0.01103821,-0.008512933,-0.034469973,0.034548115,0.008507285,0.02362993,-0.024623387,-0.0015563257,0.004697416,0.036329996,-0.020064425,-0.0060305,0.0074764825,0.01924399,-0.04155556,0.038943615,-0.009188712,-0.023240212,0.025849555,-0.010014273,0.041834,0.039881747,-0.0075650774,0.010460451,-0.04057578,-0.022999454,-0.03947126,-0.0015810318,-0.005657334,0.044114333,-0.017048879,-0.039310094,0.04098009,0.0035039447,0.03071222,-0.026737085,0.005272068,0.0044397973,-0.011850003,0.03196018,-0.0001520738,0.041975286,-0.008738607,-0.011503592,-0.030743856,-0.036777534,0.025224399,-0.01469155,0.028957982,0.023212504,-0.011313438,0.019023668,-0.040130198,-0.03557852,0.044657443,-0.03224691,0.044280726,-0.033337418,0.032409225,-0.0053047948,-0.034527287,-0.024930416,-0.02296323,-0.03192233,-0.036754217,0.014342003,-0.03934907,0.041634794,0.02333029,-0.03562803,-0.039392788,0.031545226,-0.009519435,-0.032676503,-0.019316921,-0.018432533,-0.01870313,0.018755693,-0.014084959,0.008337572,-0.01950554,0.032792155,-0.034631453,0.010210551,0.03835063,-0.033629913,-0.029256046,0.04238509,-0.005622957,0.04451636,0.010064065,-0.024609722,-0.009733815,0.00014249235,-0.040996157,-0.036355246,0.014598418,-0.000104460865,-0.008089501,0.02619366,-0.03481749,-0.028944112,0.01727897,0.0038983412,0.031477835,-0.025116459,-0.017949825,0.039335024,0.02879424,0.019003887,-0.037295695
-0.020226547,-0.017031964,-0.039186023,0.043001432,-0.032573365,0.026279036,0.002615489,-0.02318931,-0.01909502,0.011797689,-0.0066634156,-0.007734582,0.0042913146,0.03910161,0.022910248,0.011049546,0.035741407,0.026725817,0.0144313015,0.020113882,0.02883352,-0.01175556,-0.023650484,-0.006240431,0.040226813,-0.021182261,0.014223982,0.013562296,-0.01050083,-0.0043621883,-0.015579388,0.030232165,-0.0348373,0.011432353,-0.038622465,-0.026904298,-0.0018041804,-0.04453142,-0.030004483,-0.016540347,-0.012064863,-0.014370723,-0.032649904,0.04390559,0.011399254,-0.021283079,0.043196533,0.036317516,-0.018609839,-0.025291285,-0.036084004,-0.03834278,-0.009255562,-0.00562416,-0.036053788,-0.021383546,0.0050384477,-0.022601774,0.02211662,0.014256556,-0.043543193,0.011197031,-0.0032006279,0.036087018,0.032394703,-0.0044933483,-0.023959795,0.03103121,0.0016857684,0.00086927786,-0.036996204,0.042811338,0.0005410649,-0.0042406246,-0.03037706,0.008553747,-0.03289508,-0.023481576,-0.015580805,-0.041201286,-0.0144680925,0.010209657,0.042090293,0.027799,0.04114109,-0.033163346,0.03067543,0.036718298,-0.026737181,0.014592726,0.0015638657,-0.0011688173,-0.038383048,0.018131968,0.026213113,0.013549376,-0.03486602,-0.04062255,0.03945816,-0.027990637,-0.019600568,0.004337162,0.013658442,-0.033318236,0.03130913,-0.01707054,-0.024067566,0.03589498,-0.03123027,0.02970599,0.01862308,-0.035484888,0.04147536,0.0059727803,-0.043820355,-0.0035451688,-0.024007814,-0.044403564,0.0011640526,-0.024985546,-0.008569811,-0.017130932,-0.008233152,-0.012850698,-0.027547594,-0.04309561,0.009649251,0.023976166,0.035063487,0.01366467,-0.029647868,0.013083205,0.0237219,-0.03720925,-0.0049561635,0.032186802,0.030365933,0.022098165,0.0018629134,0.0103928,0.032663923,0.023439188,-0.0255262,-0.025538184,-0.008133128,-0.0016940795,-0.03220205,-0.009786855,-0.03913427,0.033155892,-0.009237841,0.018577438,0.026308704,0.039600324,0.0329359,0.016536124,-0.04331991,0.010471221,-0.018441437,-0.044667054,-0.039901726,-0.03861531,-0.018871238,-0.040777758,0.021523241,-0.036625296,-0.015644373,-0.01799353,0.006360911,-0.035075672,0.03682528,-0.021512236,0.019374926,-0.026795382,-0.03334835,0.04452352,0.023446139,0.033862974,-0.010415759,-0.038467612,0.037120666,-0.032569043,-0.0054808855,0.0016952194,0.027504284,0.01235947,-0.022689654,-0.0271423,0.015775163,-0.0013760105,-0.03592892,0.014753792,0.0024050772,-0.017281223,-0.01882354,-0.025096014,0.0064162873,0.012809657,-0.032122254,-0.0033416785,0.01569657,-0.0064733103,0.023486856,0.01968595,0.0030068345,0.030943539,0.010509323,-0.0028168112,-0.00044156238,0.035589222,0.027772184,-0.0048600137,0.025444064,0.0035272315,0.02896585,0.019744802,0.033631984,-0.027470142,0.043897096,-0.02334722,0.04288784,-0.020490699,0.043109465,-0.0018529221,0.0030948035,0.010644194,-0.020780966,0.0053494126,-0.014800284,-0.044221923,0.010043975,-0.028476406,-0.030383408,-0.011674505,-0.023425642,0.023220796,-0.006339874,0.025693256,-0.030434487,-0.015589574,-0.041788023,-0.02213217,0.014879867,0.04149897,0.026155915,0.0044564083,-0.031207912,0.02069657,-0.010340851,0.013867971,0.030744258,-0.010076527,0.027046937,-0.006780725,0.00090356916,0.03871679,0.043752205,-0.0002467446,0.021584492,-0.010519955,0.018392686,-0.011551831,0.0077241175,-0.034117125,0.04119048,0.028400045,0.03824054,-0.018117076,-0.007899087,-0.0043184757,-0.034077834,0.030615773,-0.023910824,0.037069928,0.0010952652,0.021614593,0.039975952,-0.043572467,0.044271853,-0.0054318644,0.021467712,0.022248242,-0.0396703,0.036856983,-0.0398695,0.02150939,-0.021175122,0.008943811,-0.022245793,0.019379962,-0.0112421885,-0.00031163916,-0.03786905,0.0052795894,-0.006094575,0.029968072,0.010343999,-0.009107728,0.030385356,0.0021513216,0.01530965,0.03047325,-0.0008264892,-0.0103519,-0.0077463053,0.026153963,-0.02108196,0.03688257,0.0021374747,0.024497349,0.038196627,-0.040102415,-0.0023771934,-0.025463205,0.043029446,-0.0067924485,-0.0238179,-0.030072834,0.039301675,0.028465468,0.022552688,0.0077442266,0.035212237,0.0018678345,-0.016214589,0.027581338,-0.027307598,0.027733091,-0.029198252,-0.004769787,-0.03756852,-0.009544801,-0.0260603,-0.00081923604,-0.03427604,-0.017828418,-0.043745987,0.002932895,0.037875433,-0.038713668,0.021331932,0.01517453,-0.021845292,-0.04345132,0.033814456,-0.04142656,-0.017172232,-0.01466758,0.01046861,0.03492785,0.025018368,0.011496268,-0.041134816,0.041242477,-0.008705534,-0.0029062368,-0.000588879,0.024458144,0.037508715,-0.030637749,0.036875818,0.02295934,0.043481167,-0.016497303,-0.024079232,0.016220052,-0.029995052,0.026317079,-0.006524436,-0.018490853,0.013739899,0.040991645,0.037387427,0.024692249,0.02056555,0.043630812,0.006584514,-0.040101796,-0.020080809,-0.04185258,-0.035747882,0.04253244,0.014847226,0.038078878,-0.040417086,0.0067519993,0.021666992,0.020452078,-6.393343e-05,-0.03984768,0.017028444,-0.026650917,0.01225137,0.029123064,0.008733001,0.017734833,0.021491151,-0.0046176165,0.0035430863,-0.03675045,0.018643823,0.039946493,0.026805285,0.04294959,0.03533836,-0.015933752,0.04086705,-0.032112073,0.030618597,-0.012512438,-0.016290227,-0.03939282,0.01456115,-0.009268053,0.023584258,-0.010005627,0.03139505,-0.04368203,-0.042932317,0.015777431,-0.0060362034,-0.021248646,0.009654012,-0.031917777,-0.0012356304,0.0083212815,-0.03490532,-0.030489014,0.033108618,0.01287343,-0.0116373375,0.019583788,-0.010125872,0.0066892765,-0.0021309033,-0.025260637,0.035894196,0.020500567,-0.0009755045,-0.016947117,0.043186914,0.001941517,-0.0051508956,-0.015287669,0.022844639,0.041569028,0.021323036,-0.022007104,-0.009192847,-0.0101192035,-0.015306056,-0.03768874,-0.00838371,0.009638403,-0.0035887472,0.008117203,0.038936455,0.035306487,0.03637248,-0.030218653,-0.027034998,-0.028675446,-0.025701713,0.007958066,-0.039383005,0.03636243,0.008086927,-0.024377475,0.011734035,0.031484734,0.0017834306,-0.027970437,0.022619974,-0.0104625,0.0067586936,-0.00324272,-0.02658495,0.0290653,0.041272145,-0.013149813,-0.03675584,-0.033665452,0.014964402,0.03523324,7.848069e-05,-0.034958072,-0.04093339,-0.036001816,0.0153912045,0.021327559,0.039384287,-0.013566628,0.004836753,-0.014873076,0.008630924,-0.018731251,-0.011439174,-0.043617543,0.0171195,0.04192576
-0.025532922,0.021645743,-0.013727007,0.035070863,-0.005297035,0.005047556,0.041657757,0.020384204,-0.025709849,0.024614733,-0.04081515,-0.022932133,-0.023291765,0.005322341,-0.016671574,0.02492873,0.037204865,-0.042688638,0.020428296,-0.0060937405,0.029037472,-0.0026888885,0.026170332,0.038569946,0.004244797,0.039872777,-0.020603314,-0.0116077475,-0.016485825,0.029082429,-0.01236365,0.022688348,0.042616595,-0.032200553,-0.037155412,0.033318248,-0.019802254,0.035008702,-0.03310196,-0.0010059215,0.020086084,0.026984412,0.0046913177,-0.040517308,0.007164549,-0.015423417,0.004017856,0.028544653,0.0036713593,0.02127267,0.03275751,0.0003371574,0.043935936,0.01214489,0.0385861,0.011037331,-0.012056075,-0.017795738,-0.037941214,-0.039312426,0.020282138,-0.018313669,0.041138675,0.027335446,0.0116182305,-0.02456797,0.0265087,-0.007757351,0.0027931482,-0.039942157,0.019103434,0.037757795,-0.009389084,0.03740072,-0.03898559,-0.01322927,-0.0029943772,0.03442121,0.00045886636,0.044588286,0.03543226,-0.008611649,-0.005024556,0.013090335,0.03860565,-0.041358374,-0.0038091168,-0.0037030056,0.020020772,-0.014518322,-0.034038316,0.038279418,0.026402954,-0.0014783777,0.032498214,-0.014530633,0.0075380206,-0.024644913,0.029163409,0.0071476437,0.044234592,0.025019642,-0.030316263,0.04430465,0.022253927,-0.043520845,0.0059239417,0.031641442,-0.035866506,-0.028712248,-0.022968529,0.042985473,0.011661589,-0.014361357,-0.03712192,-0.03162981,-0.0017252155,-0.02077854,0.018589307,-0.04119273,-0.0020206682,-0.012726497,0.011255611,0.04397517,0.044703867,0.012628678,-0.043259375,-0.024188008,-0.038520757,-0.038834207,0.024644997,-0.03191241,0.03929465,0.03476474,0.0003508292,-0.037293863,-0.043211058,0.021859784,0.032196824,-0.02068278,0.01461684,0.018091168,0.040501725,-0.0046577603,0.009821087,-0.017442407,-0.028488647,-0.038967192,-0.040958233,0.035330337,-0.039194338,0.0024527423,0.040775236,-0.036590997,0.041987356,-0.014144041,0.018835846,0.027687792,-0.0041734725,0.000105861574,0.0028241128,0.033440236,0.019037548,-0.0034515,-0.04343422,-0.036661666,-0.03628923,-0.00024328008,0.034187954,-0.012335341,-0.03225803,-0.031909566,0.029055346,-0.012462288,0.008547243,0.04016645,0.006765716,-0.034103356,0.029227283,0.00014273822,0.037490908,0.039038,-0.03423612,0.020082746,0.04148912,0.0028145164,-0.004473023,0.027101625,-0.039616976,0.003487315,0.041531842,-0.010093048,0.024300281,-0.009166826,0.037376378,-0.042811923,-0.005023986,-0.0033588558,-0.031446684,-0.033424653,0.009176459,-0.012188274,0.02686375,0.0011533946,0.044017006,0.027410317,0.042283457,0.0028520338,-0.0023695044,-0.037540082,-0.018089956,-0.0014465377,0.03490265,-0.03832212,0.0060628913,-0.038855765,-0.0262978,-0.0049774013,-0.033775046,0.007801857,0.02330717,-0.04414977,-0.034940552,0.031036977,-0.006269578,0.014653992,0.026925366,-0.0010372661,-0.03780056,0.03400236,-0.03598131,0.0024317056,-0.014272202,-0.003612738,0.0036248378,-0.028511176,0.0077463165,-0.0003508851,0.038842592,-0.026869545,0.036694992,-0.001262296,-0.034767397,0.020747494,-0.030328194,0.009690717,0.03354359,-0.0044690594,-0.03255912,0.010196447,0.0034289695,-0.022258744,0.036077652,0.022757333,0.036899786,-0.008665569,0.025198516,0.03153265,0.0012193248,-0.026381308,-0.017459638,-0.016708668,0.033646498,0.003332097,0.000446897,0.00989585,-0.007036004,0.043463517,0.00491824,0.013349216,0.041639026,-0.030127292,0.019765276,-0.03239976,-0.008626528,0.027142797,-0.043356,-0.044397853,0.036607597,-0.008595075,-0.022075215,-0.023874924,-2.758205e-05,0.028519463,-0.02736033,0.022694144,-0.0121825375,0.015066989,0.022110563,-0.023946213,0.015393391,-0.021067522,-0.04167147,0.03902624,-0.035846345,-0.03879216,0.015722636,-0.038352005,0.041419666,-0.024402622,0.023627218,0.021944407,0.0022805072,-0.008765329,0.022081751,0.030621413,0.016594604,-0.02925054,-0.014582137,0.011889551,-0.023443587,0.010031175,0.017398644,-0.010795794,0.010516748,-0.022022758,0.042146478,0.012100361,-0.031662755,0.032635037,0.024379496,-0.010533389,-0.004788924,-0.02900184,-0.009821866,-0.019081501,-0.002630692,-0.044157993,-0.018442258,0.030649003,-0.00020156801,-0.04099028,0.003669072,-0.00058529153,0.013284847,0.01806971,-0.03370568,0.0333621,-0.023323592,-0.044056796,-0.0044384077,-0.043713402,0.014541082,0.030861389,-0.039858773,0.009913545,-0.031061608,0.038049076,0.030665714,-0.011135634,-0.0041793324,0.041584615,-0.014164172,0.02446222,-0.042020746,-0.005340915,-0.042916212,0.019437324,-0.0026243739,0.04402833,0.032969,-0.0035240315,0.03132649,-0.02119664,-0.0099338405,-0.042802576,-0.023245996,-0.009464152,0.044290144,0.0226123,0.00930462,-0.021473479,0.016259734,-0.0043349266,-0.037186522,-0.04320398,-0.012226317,0.018740933,0.012361493,-0.022614691,-0.019319085,-0.031829394,0.031163622,0.037352208,0.041293714,-0.0020005181,-0.014523266,0.0029789247,-0.027243262,-0.022844568,-0.022327414,-0.0031378642,-0.018963164,0.009737793,0.0133413635,-0.025668893,0.018438999,0.02840225,-0.023756692,-0.036705695,0.029484618,0.042706627,-0.042815387,-0.021052452,-0.01672994,-0.034831908,0.004705731,0.01877806,0.020496394,-0.03455349,-0.015680829,-0.028631449,0.030043934,0.037250128,0.0029701255,0.025700916,-0.0037839785,-0.008314583,-0.043882016,0.009841058,-0.028414948,0.0020096377,0.0101983845,0.019569602,0.02355272,0.018340971,0.038950663,-0.031673968,-0.00462484,0.040993664,0.030567903,-0.032407634,0.040969636,0.00011601299,0.010527588,-0.0038684867,-0.02554466,-0.036367886,0.039051156,0.029308561,0.031656753,0.0041586533,-0.022875557,0.026736747,0.025333393,-0.02721547,0.0209486,0.03638955,0.008647032,-0.018102283,-0.032582305,0.04116896,0.026657548,-0.034757916,0.016271312,0.005296942,-0.041911747,0.04174372,0.0053317994,0.03599656,0.0035801753,0.041915882,-0.03960061,0.0057433024,0.005881451,-0.02290601,0.013201445,0.0011025555,0.04062785,0.0089280605,0.0023656823,0.00802023,-0.030981489,-0.026942423,-0.04066397,0.022198137,-0.017785912,-0.035842784,0.0029116198,-0.039657876,-0.0011261702,0.03411531,-0.0363606,-0.018740768,-0.02319165,0.030642454,0.030572493,-0.022044988,-0.013388097,0.029461961,-0.03559032,-0.027885841,0.021005291,-0.023550265,-0.003115479,-0.023017682,0.023491379,0.017503008,0.012333278,0.012360003
-0.02642538,-0.044518605,0.018018883,-0.018930186,0.0028967895,-0.009215392,-0.010448277,0.030777175,0.019158226,0.0057588182,-0.044019613,-0.01353623,-0.02547029,-0.012800999,0.028103549,-0.03465963,-0.04032501,0.0020934194,-0.011013016,0.023306724,-0.032682553,0.024381746,-0.003451489,0.0058650114,0.009630665,0.031179804,0.007906448,0.009459265,0.026331436,0.037215713,0.009497508,0.013164427,0.0069261417,-0.0438371,0.03881531,-0.03374839,-0.02632951,0.043068472,-0.009264424,-0.0059047714,0.041834895,-0.03213419,-0.035607375,0.027714778,0.034768198,-0.0013912246,-0.017044343,-0.01156462,-0.024061568,-0.029967766,0.028269652,-0.012937147,-0.039930455,0.03303424,-0.02726166,0.029076826,-0.024290187,0.009541422,0.016002152,0.043726344,-0.006249208,-0.012060419,0.024493549,0.0100852065,-0.036137294,0.011959251,0.006048519,0.024536978,0.03288534,-0.033060316,0.017780129,0.0035969578,0.03969994,0.039651047,-0.008212268,0.03842855,0.0065399967,0.03074425,0.009009708,-0.004553061,0.014766917,0.03179678,0.0026316456,-0.01892695,0.029257271,-0.029256126,0.024718855,-0.014402246,-0.004881222,0.018362645,0.015401579,0.037330624,0.02233762,0.017818142,0.037166316,0.013839599,0.034211505,0.02097508,-0.036740195,-0.03987901,-0.009455405,-0.029668607,0.032727797,-0.009185158,0.0375722,-0.0061340183,0.009473342,0.009357471,0.033762988,0.0014981814,0.011867054,0.026113328,-0.0032950714,-0.010262754,-0.017942848,-0.007740341,0.04200344,-0.013629302,0.035857704,-0.023353292,0.0027951188,0.019608755,0.041183922,-0.0063071735,-0.039881248,0.042616766,-0.0050836317,-0.006056089,0.0038353428,0.04136041,-0.026806936,-0.021848748,0.023804639,-0.00628319,0.014605548,-0.022162322,0.042887677,-0.026279114,0.020603511,0.04193614,-0.014005253,-0.023655714,0.026656639,0.029802013,0.011377316,0.030322108,0.0049363263,-0.01795562,-0.03681799,-0.010193225,-0.0093561,0.02805141,-0.01308728,0.019522872,0.012558769,-0.030002138,0.0103293955,0.009247977,-0.0058811195,0.034621622,0.0317198,0.0034735724,-0.017241277,-0.009798445,-0.022592247,-0.022439135,-0.003050819,0.039052416,-0.023318805,-0.030415172,0.029459272,-0.022818845,0.009649396,-0.042794194,0.044664133,-0.021157242,0.016676906,0.036315408,-0.024547022,-0.003052488,-0.0130909905,-0.007023774,0.032785315,-0.0058719553,-0.019588135,-0.030942168,-0.03870934,-0.019143205,-0.026444573,0.015650347,-0.02288274,0.04035527,0.02211145,0.020543437,0.012065362,-0.025666533,-0.018408816,0.031147119,0.035312217,-0.0085546,0.03475817,-0.018686524,-0.013936881,-0.024710216,0.04418349,0.034696188,-0.034506164,0.025678094,-0.0371322,0.014710784,0.032742906,0.037085544,-0.03306245,-0.0356946,0.039488357,0.034564164,0.0147964135,-0.035332143,-0.03711105,0.043235425,-0.02243109,0.03740141,0.012580741,-0.032095075,-0.03898611,-0.0150118265,-0.00035749376,-0.032611717,-0.0067985877,-0.038589124,-0.033799954,0.030416604,-0.0263996,-0.017153766,0.021581117,0.020689297,0.013808239,-0.030678278,-0.0062696747,-0.014002679,-0.040019363,0.010503203,-0.02313389,0.0383881,-0.0054842643,0.024028774,0.04238842,-0.01807136,0.0006946996,0.034289706,-0.03852277,-0.00167365,-0.04326002,0.025785457,0.043966133,-0.04286968,-0.014987228,-0.028273944,-0.031218238,-0.016300911,-0.032195468,-0.02955407,-0.038963396,-0.037762042,0.02570377,0.038625475,-0.014983976,-0.038566478,0.03241716,0.021940026,0.0077789873,0.019526321,0.038461547,-0.007992879,0.016535208,-0.04358226,-0.03064396,0.03977452,0.03239048,-0.042208206,0.031081486,0.021885317,0.0003021285,0.012928702,-0.019908573,-0.011871543,-0.00440472,0.0043656193,0.031727206,-0.024170645,0.015562337,0.02418423,-0.023760574,-0.02956115,0.040022444,0.017044272,0.01616954,-0.029277904,-0.0031295642,0.04407258,-0.02913544,0.031916227,-0.018627005,0.019640405,-0.02912582,-0.004039403,-0.0097853355,0.039867837,-0.008429181,-0.030044286,0.002435036,0.036349397,0.005434029,0.039071586,0.042640667,-0.043979865,-0.026052501,-0.03190295,0.021099519,0.026545528,0.03956758,-0.01891013,0.007334795,0.004025027,0.026686389,0.042475697,-0.0135441795,0.03319269,-0.040562853,0.0060578883,-0.033612393,-0.034485042,0.03368901,0.030997645,0.00055490434,0.004384663,-0.027857054,0.0030116811,0.009283878,0.010245509,0.033589322,0.036748152,-0.031390425,-0.016521687,-0.01259274,-0.005660858,-0.034871005,0.03881922,-0.00021621212,-0.010466881,-0.00017096475,0.012300111,-0.0070169047,-0.0006913282,-0.007375039,-0.039310176,-0.016560894,0.00075256824,-0.033642393,-0.0024070367,0.02262311,-0.013995914,-0.022382336,-0.025424149,-0.020893715,-0.025129324,0.021670494,0.03412045,-0.029738817,0.036184575,0.03234985,0.0017455779,0.009623233,0.0036414675,0.042381536,-0.007980127,0.037720878,-0.017889706,0.032571543,0.017854158,-0.03482485,-0.041929208,0.0439404,-0.021320766,-0.043547615,-0.042426333,0.0040386617,-0.008953061,0.043190446,0.039060663,0.022370365,0.04207794,-0.034018457,0.023379747,0.035188336,-0.010759138,0.013095651,-0.023413854,0.008671876,-0.009172555,0.025039788,-0.004494842,0.00042642653,0.03976428,-0.0069460236,0.006005112,-0.029705312,0.01596656,-0.022637254,0.009305358,-0.028520122,-0.0022625476,-0.04052585,-0.0055660345,0.03149585,-0.023701297,-0.0072980523,-0.0394743,0.00095064566,-0.034039658,-0.04127645,-0.021645783,0.018710967,-0.018347826,0.02245653,-0.017833851,-0.0117949955,-0.022298813,-0.0012992248,0.029810283,-0.03749033,-0.022114582,-0.0016175732,0.006295178,0.026857983,0.010705154,-0.0039511174,-0.035393428,-0.025047345,0.008940361,0.03086574,0.042390656,0.02243289,-0.04417986,0.013343662,-0.010124501,-0.04434438,-0.036460184,-0.031169953,0.025983114,-0.01637145,0.019178193,0.03150433,-0.0053828247,-0.013446927,0.009903785,0.01207,0.023904111,0.017406698,0.021979798,0.019390862,-0.04224054,0.009155005,-0.008773696,0.022318844,-0.039887413,0.027722504,0.031755704,-0.030862924,0.015693214,0.016551696,-0.041674297,-0.04451118,0.01169977,-0.036528137,0.002045285,-0.030029327,-0.02314384,0.012697265,-0.04244637,-0.008837052,0.0034423023,0.019709129,-0.025969148,0.007836778,-0.022620518,-0.01569557,0.017150488,-0.038852155,0.02920891,0.038459655,0.021007184,0.042078357,0.01722702,0.017692327,-0.037476473,0.0037485398,-0.016064169,0.035282884,0.001223933
-0.0018435568,0.017057613,-0.04389313,-0.03333858,0.0034773685,0.008039575,-0.014670758,0.037971716,0.039466705,-0.014521357,-0.03854381,-0.03554662,0.030125383,-0.0058008283,-0.016063241,-0.036475353,0.0409323,0.0008350909,-0.02462594,0.012510091,-0.027363144,-0.008194488,0.02284224,0.031048145,0.024236407,0.030694585,0.00587143,0.04393803,0.023391102,0.04426479,-0.023938604,0.038149368,-0.010942098,-0.006916087,0.0184546,0.03640857,-0.021827683,-0.02765258,0.025515031,0.0023969673,0.0028009564,0.031109791,0.0051281005,0.0097351,-0.031204531,0.043358307,-0.015845334,0.018804554,-0.008030523,-0.0003684759,-0.023155926,-0.020220662,-0.03485428,-0.0032279938,-0.029861864,-0.04224311,-0.010671999,0.009210881,0.014685873,0.03957515,0.016462464,0.04137266,-0.00060803816,0.0417294,0.03125174,-0.026619004,-0.024272045,0.012833897,0.013633493,0.016323026,0.037381653,0.011079986,-0.04055775,0.025248628,-0.001601126,-0.008169871,0.016596608,-0.035835385,-0.017513296,-0.03804725,-0.017555472,-0.020653374,0.013168443,-0.036661945,0.0024186,0.032903533,-0.028827338,-0.029754125,0.039319385,-0.0015221015,-0.004335478,-0.044320107,-0.02734055,-0.030796118,-0.018913303,0.013568144,0.031804044,-0.035924695,0.025642421,-0.008028347,-0.02698135,-0.038893376,0.029622484,0.0362324,-0.0036587566,0.018364716,-0.0185861,0.02181394,0.038421873,-0.005142119,-0.013744691,-0.010074418,-0.02905965,0.01889794,-0.038915444,0.007890489,-0.024961023,0.006190654,0.044587117,-0.033310298,0.042068068,0.034957092,-0.016363276,-0.04362859,-0.036158588,-0.025716485,-0.012836613,-0.008663379,0.0122112185,-0.02482168,0.010218807,-0.012685876,-0.03565989,0.03444876,-0.028856713,0.03346272,0.035967205,0.0017468147,0.0067426637,-0.043501604,-0.031687025,-0.025076097,0.007649604,-0.028819192,0.030322473,0.037553612,-0.013194095,-0.03665093,0.020511944,-0.009968296,0.026711132,-0.034564212,-0.01032326,-0.039911177,-0.034800906,0.04227652,-0.018999096,0.015404683,-0.011379678,-0.043320514,0.044025894,0.0015139431,0.027959142,0.031522524,0.03413919,0.026231837,-0.006092146,-0.0048910454,0.02038863,-0.03233984,-0.032580465,-0.013883185,-0.031693082,-0.037395153,-0.025009062,0.0009237863,-0.00042854995,0.01356326,-0.0024040006,-0.024440857,0.039435398,-0.038828455,0.016200222,-0.009575799,0.024641562,-0.0017117746,-0.024652686,-0.015703306,0.025047164,-0.026862305,0.0279104,0.032233696,0.009988695,0.040928837,0.0075124316,-0.03756711,-0.018386306,-0.0074234568,-0.0035820603,0.03560091,-0.015108727,0.021750588,0.004178323,-0.035829328,-0.026341047,-0.028896324,-0.039119773,-0.03377024,0.015542638,-0.036370408,0.043345947,0.01925103,0.043057088,-0.0307661,0.037626777,-0.019689865,0.004009459,-0.034197893,0.021669958,-0.016606469,0.002116464,0.025449406,0.03417435,0.024668802,0.018790398,-0.033751037,0.028563347,0.04125185,-0.0025199093,-0.007964574,0.03809114,0.0056168325,-0.014699103,-0.0032897554,-0.025496077,0.0035622455,-0.007102199,-0.035804648,0.0046237074,0.022128414,-0.04351391,0.0017258078,-0.03231167,0.015958622,0.012997106,-0.011254635,0.025873732,-0.015341999,-0.03270715,-0.044590015,-0.029541548,-0.03332064,0.04055815,-0.0075698383,0.00534188,-0.017142612,-0.011468824,-0.018999523,-0.042580504,-0.0406304,0.022688117,0.03156318,-0.022656765,0.029358227,-0.019911308,-0.028580839,0.040851954,0.036523093,-0.03351882,-0.004286863,0.006597154,0.037491176,-0.0280826,-0.02324455,0.0013758764,-0.00046020374,0.03923994,-0.03678141,0.026516404,0.0069154687,-0.018563665,0.023307074,0.0077559613,0.034525555,-0.012799606,0.024877284,-0.00951612,0.028301861,0.007726826,0.000834804,-0.018465918,0.003017135,-0.028525965,0.0018416494,0.04041547,-0.025737805,0.021510724,-0.0015329346,0.032415126,-0.008956559,-0.012996055,-0.028330246,0.00092156604,0.011019241,0.039262842,0.038516987,0.023307186,-0.0010327883,-0.016343305,0.013940372,0.0037158914,-0.03672208,-0.013072256,0.0037363768,0.0026138313,-0.040509302,-0.023892794,-0.035204113,-0.03749731,0.007372614,0.003173221,0.0030952692,0.043068398,0.04449651,0.030423533,-0.008651331,0.0341265,-0.023879599,-0.006599307,0.026086297,0.031251978,-0.019644657,-0.019267965,-0.023905259,0.0017773248,-0.0093643665,-0.0050723813,-0.011688389,-0.03661433,0.00735623,-0.033240706,0.006482262,-0.03738877,0.039809626,-0.0350015,0.00052972883,-0.016703274,0.0026974492,0.04151592,0.034401555,-0.008507658,0.004523009,-0.021279396,0.041491453,-0.019417569,0.0006036237,-0.023328848,0.02923594,0.0016022325,-0.014003452,-0.010995999,0.015622083,-0.00042488426,0.014635406,0.029618796,0.03980108,0.035365496,0.0134270415,-0.010763824,0.03672911,0.02864277,-0.02814232,0.027988967,-0.019872395,-0.018961746,-0.011160515,0.0061540045,0.0007609539,-0.033393554,-0.025897607,0.025654469,-0.029041806,-0.009877443,0.033713404,-0.019847013,0.016846005,-0.005263593,-0.015704852,-0.03900081,0.040792916,0.0074170977,-0.0073591545,0.031044874,0.025072392,0.0031999089,-0.010654021,-0.018062452,0.027863998,-0.035038922,0.039447,-0.0038939416,-0.003670197,-0.044570845,0.038929414,0.040705103,-0.031116731,0.02932636,-0.027581314,-0.018121645,0.015649028,0.022657972,-0.022995915,-0.042394426,0.014187675,-0.043143444,-0.014121778,0.03222503,-0.04343409,-0.02032591,-0.03980633,-0.011284597,0.020347167,0.017392896,-0.039368637,0.00028122216,-0.03732441,-0.019197034,-0.024283497,0.005520154,0.0018209256,-0.012075152,-0.023292143,0.024830665,0.033856984,-0.04177712,0.00015224144,0.007312704,0.01594932,0.034544777,-0.035258446,-0.03612943,0.008550245,0.031736445,0.01251613,0.042034987,0.024690602,0.02024867,0.035004098,0.003690768,-0.009062562,0.0025217533,0.029935334,0.030100975,0.0007863082,-0.033199273,0.024348859,-0.038610104,-0.022074582,0.016302582,-0.03606788,-0.0055237263,0.022508752,0.020289522,-0.037537567,-0.010087326,-0.017660975,-0.034777552,0.040817726,-0.0057095774,-0.017936578,0.04339582,0.02772529,0.0074792393,-0.0066524334,0.0050224513,-0.0050928593,-0.01205961,-0.032283507,-0.031177048,-0.024555659,0.030279662,0.030705985,-0.028738594,-0.033108026,-0.00756352,0.020536784,-0.015801564,0.007071905,0.009275783,-0.0012025237,-0.020862132,0.026774447,0.023062628,0.0017764457,-0.019848187,-0.0015651882,-0.021927424,0.036016908,-0.027226105,-0.02494804
-0.03793993,-0.0022744723,-0.042463463,0.023445737,-0.0044049583,-0.031875,-0.009003557,-0.008403163,0.0056220703,0.014809176,-0.03265235,0.0053727105,-0.043818977,0.017822836,-0.015901834,-0.0066532716,0.018241826,-0.011490703,-0.008018598,0.026749019,-0.037618253,-0.02689258,0.038149793,0.030287977,-0.021931263,-0.0113454275,-0.042569812,-0.027314477,-0.0036756992,-0.040687192,-0.0035806522,-0.005245235,0.030272637,0.0342844,-0.006520316,-0.041962154,-0.014511121,-0.043122575,0.010731235,0.0013362542,-0.019140732,-0.0129450485,-0.011537313,0.016443916,-0.029905386,0.029446375,-0.03832441,-0.037939295,0.04221334,0.02282359,0.03689115,-0.014599752,-0.010525718,0.026921082,0.026409555,0.01134466,0.036832597,-0.009923495,-0.043882784,-0.0165342,0.016538922,-0.0021859668,0.024388853,0.03915556,0.0092928,0.031107064,0.014393397,-0.013923548,-0.029701889,0.019540425,-0.040457174,-0.039511055,-0.020377522,0.01231657,0.023475934,0.024239067,0.022955548,-0.023962503,-0.0058653355,0.03449123,0.01738175,-0.028132357,0.01846731,0.038464036,-0.015855014,0.025437389,-0.041699395,0.042047825,0.039093684,0.04420909,-0.006676793,-0.010958195,0.012345087,-0.021129344,-0.007621385,0.029169928,-0.041132163,-0.002915021,0.03820323,-0.0151844025,0.0437609,-0.042034052,0.010742094,0.04335284,0.025490899,-0.0029928423,0.029869635,0.042467672,-0.022089776,0.044508938,0.042588767,0.025671262,0.030669276,0.031205092,0.019841392,0.042756032,0.038296048,-0.024529686,-0.018825134,-0.009417616,-0.019752678,0.015752971,-0.013229914,0.032808784,0.015537877,-0.03349992,-0.006325368,0.01875836,0.038808826,-0.04100738,-0.032230534,0.02679215,0.019591752,0.0138012245,0.024658207,0.021827813,0.020201009,0.022152323,0.022080522,-0.025484083,-0.03207943,-0.026550611,-0.037428774,-0.0443974,0.00097288936,-0.024856653,0.034118403,0.012809914,-0.019977089,0.039158363,0.038645025,0.03715091,0.038969334,-0.033236194,-0.01507692,-0.030887548,0.0038511492,0.013466395,0.015160173,-0.010514617,-0.012189746,-0.023168294,-0.023971012,0.017330233,-0.009200204,0.0059549697,-0.035175342,-0.019465907,-0.038408734,0.029934358,-0.0008596815,0.028241005,0.036721867,-0.002836939,-0.03828817,-0.016727071,0.028473217,-0.028455656,0.0028179996,-0.0010500811,0.036262568,0.033986855,0.023194555,0.03863543,-0.010855895,0.008139003,0.0010873042,-0.010660235,-0.007607218,0.04375728,0.017403059,-0.012030441,-0.025500465,-0.0036375038,-0.009845391,0.005884342,-0.022832753,-0.02662383,-0.02463304,0.011255387,-0.007328436,-0.00050742924,0.028814737,0.013395291,-0.030065164,-0.04356219,0.0072000474,0.020082224,0.015164517,-0.020689344,0.0095049925,0.018208157,0.02616689,0.02901258,0.021150079,0.019570503,0.0051338673,-0.008077532,0.015735697,-0.03539835,-0.02964186,-0.014164368,0.024703678,-0.03688795,0.024566453,0.030673642,-0.024957359,0.01881979,-0.039771017,-0.018406512,0.04129063,-0.0057659037,0.0414352,0.0023976117,0.014597245,-0.019497383,0.023971159,0.0072437823,0.016363144,0.032071788,0.026027296,-0.028893717,0.0029619187,-0.03231263,-0.03982607,0.007207848,-0.012903929,0.0066123046,-0.018728288,-0.03871936,0.009850815,0.026930291,0.03613386,-0.025025172,0.010497641,0.017146189,0.021733489,0.02558915,-0.000781361,-0.006295264,0.044650707,0.04134127,-0.03513433,-0.025433239,-0.013441686,0.017912213,-0.013048723,-0.043090004,0.038547423,0.023757722,0.0342001,-0.013685988,0.03513561,-0.040740058,-0.031151656,-0.03443365,0.02490392,0.013426643,0.030813713,-0.02363205,0.035011534,-0.029857043,-0.027512306,0.023061205,0.037644755,-0.024103956,-0.004115522,0.017300293,0.039457243,0.039444637,0.01187592,0.008473121,0.0064125136,-0.028617486,0.04320253,-0.011053532,0.019434657,0.015282504,-0.027648237,0.025427718,-0.011033732,0.03971966,-0.008192491,0.0075781904,-0.010608122,-0.012366854,0.023167308,0.035107154,0.010423906,-0.012492806,-0.0055760704,0.020127807,0.025765274,0.020931829,-0.036595747,0.044718277,0.003900826,-0.022837663,-0.041669194,0.043864068,-0.024805708,-0.037293654,-0.034811713,-0.03546761,-0.027116043,-0.01818251,0.033357468,-0.03328925,0.041241918,0.0437298,-0.0434859,-0.036048613,0.021469023,0.0032086112,0.037439894,0.028609898,-0.024935428,0.03412259,-0.038228463,-0.044000983,0.029056106,0.04397176,-0.031217689,-0.033497028,-0.021387368,-0.03354817,0.037636194,0.0087681,-0.029102374,-0.041153826,0.03802282,-0.022111649,-0.0075701885,-0.0071976595,-0.015189698,-0.0081523545,0.019538883,-7.098913e-05,0.0415403,0.033950407,0.038432162,-0.018567627,-0.041523386,0.0106444955,-0.024526354,0.032405708,0.037966322,0.038330395,-0.012214966,0.018307533,-0.035084195,0.010034639,0.01480842,-0.02444676,0.04161207,0.036624994,-0.043801427,-0.030419715,-0.010162327,0.010138404,-0.018465348,0.011021044,-0.043887027,0.005403403,-0.016927797,-0.041421197,-0.042513855,-0.017221142,-0.03207323,-0.015581824,0.028567534,-0.010664888,0.0009752847,-0.001307793,-0.041541554,0.014306787,-0.034330785,-0.04330382,0.0033236258,-0.004695207,0.030090895,-0.016407428,-0.04298913,-0.042640094,0.0383919,0.028107937,-0.012470093,-0.005843755,-0.034991194,-0.034472372,-0.024907386,-0.0033493452,0.031788703,-0.013022888,0.018482137,0.04357366,-0.0043880306,-0.02697377,-0.0028340332,0.023461472,-0.04133089,-0.023367537,0.03232981,0.0360212,0.017908875,0.01863369,-0.00704892,0.040705573,-0.036514178,-0.03495564,-0.025017342,0.020605508,0.039517347,0.0026425272,0.0053117312,0.027912278,0.014727119,0.024012823,-0.0030899793,0.041745465,0.03313451,-0.005459029,-0.033260822,0.00342438,0.0037334263,0.026424062,-0.0002495572,0.016263325,-0.03259832,0.0065815076,-0.0127740875,-0.0062192455,-0.0030401088,-0.043021213,-0.003408242,0.04433107,0.006057594,0.022514675,0.020000655,-0.010341216,-0.03207583,-0.031499617,-0.040957645,-0.009174705,-0.023105456,0.026478957,0.013141349,0.02839667,-0.0032598712,-0.03138757,0.0109050535,0.02971292,-0.0260537,-0.003034968,0.02884056,-0.036851835,0.0021414012,-0.025640229,-0.032707147,-0.041767683,-0.026149433,-0.028740983,-0.019888874,0.033004913,-0.0114296265,-0.0060801283,0.044028755,-0.036119916,-0.0039235465,0.010619849,0.023167614,0.028428193,0.017167691,0.04080787,0.04336742,0.029876616,0.03304423,-0.01711401,-0.023198292,-0.033880867
0.027401868,0.0054304115,0.007454641,-0.008221529,-0.020085579,0.020691756,-0.03463536,0.04016256,-0.009119324,0.023765568,-0.034539085,-0.008682173,-0.03828238,0.024903659,0.008305591,0.001454249,0.0108602755,-0.011964746,-0.03550347,-0.006430175,-0.039453655,0.029908765,0.040486988,-0.014334088,-0.015416753,-0.034586124,0.0063660294,-0.016311074,0.04149485,0.033629622,-0.038807508,-0.034911986,-0.039667666,-0.03235171,-0.010659471,-0.012116734,-0.01518918,0.017584693,0.0034779683,-0.00819635,0.015852604,-0.025849596,-0.035173286,0.038695555,0.033279758,0.031805824,-0.03877992,4.9844384e-06,0.028835375,-0.014078898,-0.0068881363,-0.009035613,-0.033864558,-0.029216254,-0.015020341,0.02052198,-0.00110678,-0.041193467,0.043428566,0.029490951,-0.025619777,0.0063679144,-0.0029006377,-0.03025882,0.041121412,0.028858405,-0.02096373,-0.0063838214,0.035450373,0.007971581,0.027606886,-0.00478106,0.024716157,-0.0098846555,-0.0053304546,0.02305751,0.02877352,0.003661923,-0.031640753,-0.04215163,0.03880732,0.03932145,0.02031194,-0.01739318,-0.01159684,-0.035764374,-0.017830268,0.015871815,0.039076034,0.0028050318,-0.0060382783,-0.037167434,0.034585673,-0.03062962,-0.028730981,0.03625476,-0.026679877,-0.0026759654,0.02905349,0.015700582,0.042120796,-0.029047016,0.015945885,-0.028966637,0.011896353,0.040172722,0.0355257,-0.038448516,-0.00767212,0.037546154,0.033688363,0.023678984,-0.01787385,0.03363097,-0.0016781352,-0.017354378,-0.038574487,0.038340528,-0.01889123,-0.03309217,0.042365182,-0.038679104,-0.0029726364,0.043563563,0.01493841,-0.023733044,0.005395528,0.023597982,-0.002467271,-0.019137276,0.016666815,-0.036711834,0.0069715343,0.031439785,-0.0400645,-0.03670386,-0.043044545,-0.0022174641,0.019244831,0.036511566,-0.034112833,0.031972926,-0.038367208,0.024798807,0.013161767,0.02049214,0.026230622,-0.044048943,2.2917986e-05,0.02927209,-0.0011325665,0.039510343,0.023661155,0.016482256,-0.018439796,0.037892606,0.02489769,0.029160645,0.030211393,0.022450294,0.02050225,-0.019666916,-0.030872935,0.020800967,0.0030950382,-0.029662417,0.0011820607,0.040701818,-0.0031391345,0.020248625,0.022557426,-0.017821163,-0.0013329834,-0.001541011,0.015263848,-0.0030858666,-0.025837211,0.044184584,0.032587346,-0.041887432,0.007218424,-0.0071867816,-0.033778924,-0.041734662,-0.0086543,-0.031433143,-0.0051559955,-0.04053865,0.028080586,-0.040511936,-0.021851076,-0.019585993,-0.01592101,0.019310076,-0.008921184,0.004672602,-0.011933088,-0.031750754,-0.0029463992,0.001734864,0.034380864,-0.021192428,0.03126629,-0.012943443,-0.03238689,-0.0057106987,-0.0023167282,-0.044668242,0.029389743,-0.030147072,-0.031306986,-0.0075411163,0.008334685,-0.02723543,-0.037180882,-0.02658255,-0.04189313,-0.008617625,-0.036023974,-0.017124694,0.00091143325,0.015806768,-0.024817228,-0.010213863,-0.016317945,0.020452734,0.0025477484,0.0003072694,0.03177728,0.029516887,0.024382588,0.0026861094,0.027955662,0.035307895,0.012153838,0.01619031,0.004460275,0.0024766587,0.010069098,-0.044678316,-0.042018667,-0.0008702874,0.027468193,-0.029300246,-0.031449035,-0.028171014,0.016018316,-0.022937255,0.013636138,-0.01472657,0.034971897,0.023955245,-0.04106546,0.026221644,-0.003229972,-0.043219987,0.0016659349,-0.041446835,-0.0010935776,0.013459515,0.009285662,0.043283615,-0.013286918,0.016715616,0.041741658,-0.008582313,0.021533366,0.012053367,-0.037969053,-0.02748855,-0.015057243,-0.03108837,-0.023013502,-0.0016354993,0.016048163,0.028305795,0.003328465,-0.036819592,-0.0073701963,0.022613775,-0.027413748,0.02503581,0.00053438544,0.018110473,0.042761374,-0.016875088,-0.0009904206,0.0035353974,0.0006935559,-0.017839586,-0.023971627,0.012565076,-0.037543662,-0.04068615,0.04156961,0.0015733726,0.016997412,0.005153071,-0.020318463,0.02583037,0.028633546,-0.03315101,-0.0029174201,0.042942625,0.025955986,0.013022613,-0.04326584,0.0009946786,0.016202472,0.009339515,-0.04263994,0.0053534284,-0.020952998,0.02750219,0.018117215,-0.03298625,-0.0029848926,-0.031214505,-0.043142714,-0.010168664,0.0194983,-0.04207603,-0.04226612,0.037760716,0.03779811,0.02160133,-0.0044353046,0.019450698,-0.04082307,0.032955375,-0.001817219,0.00035563484,0.041366775,-0.029828094,0.012204431,0.002183035,-0.0090690665,-0.02402362,-0.022082722,0.023912612,0.009691268,0.0010596365,-0.028152477,-0.01109992,-0.022463743,-0.04357905,-0.037964493,-0.023409167,0.038407687,0.01104546,-0.01781088,-0.0076954365,0.016260065,0.03241678,-0.024218054,-0.016692078,0.00950788,-0.0040247105,0.0046896227,-0.018470354,0.011421189,0.020015787,0.0029248,-0.03944786,-0.011744145,-0.021740032,-0.028781606,0.021485183,0.0014251918,0.0051188543,-0.021597605,0.007981226,0.006746549,-0.026256649,0.0018441118,0.012788877,0.018521484,-0.04133544,0.0069568492,-0.03204096,0.015184607,8.1110746e-05,0.040409807,-0.029303066,-0.033401966,0.028558094,-0.0066770725,0.029345658,0.02543978,-0.031564683,-0.0035626553,0.024524454,-0.026224015,-0.031497948,0.030266132,0.012326848,-0.020910157,0.042780925,-0.04342593,-0.036348987,0.028575134,0.01424294,-0.0013125166,-0.0062360354,-0.0063116476,0.034845207,0.043804172,0.035612654,0.01718324,0.03265364,0.0008456819,-0.0044195764,-0.041511077,-0.034101512,0.0122741945,-0.0035036243,0.042671714,0.011849869,0.009767614,0.027279276,-0.005750198,-0.04032917,0.015522562,0.03891511,-0.031323064,-0.0010026507,0.01808964,-0.025854686,-0.03269351,-0.019859057,-0.007644709,-0.04239084,0.03771429,0.037484404,0.008977599,0.04290049,-0.011748258,0.04023781,0.02515715,-0.025706356,0.020210106,-0.0380605,-0.03131929,0.012055468,-0.0047694147,-0.025690868,-0.033580404,0.021828096,-0.016346483,-0.01973653,0.0011207424,0.04249369,-0.024241619,0.04125009,0.018418457,0.03207254,-0.04209918,-0.032027137,-0.018421754,-0.017152533,0.0006329641,0.010076702,-0.043967485,-0.031089824,-0.026267577,0.028127734,-0.024110386,-0.04101195,0.026206452,-0.016389841,-0.039377585,0.018334713,-0.0019167811,0.02724209,0.006969113,-0.044340793,0.035102103,-0.0040170066,-0.01407434,-0.015481245,-0.024009557,-0.040872265,-0.0299976,-0.035494577,0.020230386,0.021426756,0.01703627,-0.03217482,0.030072246,-0.0051039904,0.027935434,-0.0032621622,0.03366873,0.008005444,-0.020949965,-0.027100135,0.038094018,-0.01995231,-0.029228201,-0.043191075
0.04419473,-0.007437825,0.019718733,-0.027931899,0.004757341,0.024046201,-0.029302955,-0.011352729,0.020162549,-0.043667447,0.02409577,-0.020980902,0.036598947,-0.0060218014,-0.011317171,-0.026832802,0.03917096,-0.016307661,-0.014746599,0.04248574,0.042949047,-0.008756541,-0.041734397,0.0051591583,0.0072270297,0.016153555,-0.027660828,-0.036222745,0.011290301,0.03330325,0.03736878,0.0030067824,-0.04120265,0.0069159344,0.029682908,-0.03453291,-0.0220084,-0.04144658,0.002925247,0.01842628,-0.00208579,0.03149699,0.0280823,0.009673398,0.0010969639,0.034716245,-0.014233258,-0.0172059,-0.027620727,-0.031536106,-0.019364107,0.016046543,0.026500698,0.010914687,-0.043062713,-0.007510897,-0.032180548,-0.0075551867,-0.044682328,-0.041160278,0.03637928,-0.043783545,-0.003375791,-0.0074947886,0.03522714,-0.023605032,-0.0011057556,0.010677561,-0.02666491,-0.003984589,-0.014219867,-0.010213632,0.0014663003,0.04148745,0.04328828,-0.018560668,0.005041681,0.002469007,0.014200088,-0.0007524453,0.039950494,-0.015308162,-0.023079854,0.008651331,0.027980614,-0.02375865,0.02003951,0.014199849,0.03772403,-0.011243269,0.03334147,-0.026586398,0.02314322,-0.013535963,0.024718065,-0.020895645,-0.033258196,0.038154494,0.041228067,0.04188333,0.027950708,0.032349993,-0.0035360493,0.010390881,0.018997367,-0.029419385,-0.014881741,-0.020349495,0.030339565,0.03546134,-0.008853752,0.015856754,-0.040453564,0.0068817437,-0.009632964,-0.028719578,0.021118265,-0.04161281,0.00404064,0.04124863,-0.008318812,0.005557645,-0.015742734,-0.012173496,0.037591677,0.030680861,-0.032645833,-0.007972222,0.038786527,-0.03678729,0.04419681,-0.026279332,-0.01471618,0.016051918,0.004970748,0.0037447587,-0.0077406056,-0.011441734,-0.03639812,-0.022676885,0.041058455,0.0103371665,0.021690939,0.034871403,-0.011968575,-0.037357435,-0.01655564,-0.022781221,-0.017349586,0.036805253,0.008097969,-0.02237364,0.04032633,0.03103562,0.037508313,-0.03331992,-0.022255933,-0.042660747,0.02362122,-0.023526406,0.017647222,-0.02587454,0.043847222,-0.007950358,-0.043387227,0.013935808,0.015220657,0.014945962,-0.025937123,0.0027365647,-0.034112714,0.03923401,-0.0125541575,0.0024934448,0.0025615022,-0.0426222,-0.01882175,0.0067201704,-0.042795256,-0.019832838,0.0038202256,-0.030634493,-0.04348836,0.043944743,0.032451,-0.021653993,-0.01760261,-0.01698321,-0.025645958,0.012659259,0.018087115,0.008428298,-0.03576319,-0.03162321,0.007338617,-0.034539342,0.010527402,-0.038772807,-0.008495659,-0.02964362,-0.014518425,-0.0046419464,-0.0421025,-0.034213483,-0.0065521114,-0.010789014,-0.0018316731,0.0137940645,0.014454961,0.024987776,0.035971116,-0.00583075,0.03511731,-0.034787584,0.021598216,0.02318253,0.023467433,0.024653409,0.010431036,-0.024904635,0.033557963,-0.0141862575,0.018536244,-0.028880613,-0.018477006,-0.038088925,0.041436348,-0.008567449,-0.025202803,0.03580151,-0.027601369,0.0019638129,0.008327667,0.018621046,-0.043486156,0.038364444,0.030928042,-0.02573774,0.012339707,-0.0017170534,-0.0065182783,0.03281914,-0.032924786,-0.021631105,0.025363248,-0.0134514645,0.020545106,-0.017415058,-0.0036667697,0.03726097,-0.034101233,0.0021486916,0.018046025,-0.023733716,0.04330826,-0.011741247,0.02317008,-0.003762737,-0.0046957023,0.016061537,0.007738661,-0.039934807,0.0128331445,0.026634488,-0.03416622,-0.03713933,-0.03369457,0.033125114,-0.014888421,-0.00015569851,0.018651891,0.015052564,-0.02453038,0.033287574,0.044603135,-0.00032827258,0.042747956,-0.0427523,-0.032881957,-0.020609679,0.00032490492,-0.00081631914,0.021239083,-0.029557649,-0.027970064,0.02597018,0.011093877,0.03849976,0.028206464,-0.04090591,-0.003331896,-0.010474179,0.0076470636,-0.04448782,0.042690832,0.0014128424,0.011704482,-0.003354013,0.0411199,-0.008463822,-0.0269102,-0.028558325,0.030157406,-0.00062905625,0.03924122,0.008589353,-0.01774329,-0.032649435,0.02345815,-0.036470283,-0.00084346905,0.043449853,-0.03304871,-0.028449675,0.029477704,0.02364381,-0.0014257729,-0.009818751,0.04262196,0.03840935,0.03783464,-0.003545288,0.019018892,-0.02761829,0.005598683,-0.029669907,-0.014332019,0.021350127,0.014400177,-0.043375783,-0.037526578,0.025200482,-0.0068351217,0.023728635,0.02476823,-0.008523691,0.004524272,-0.016092392,0.03692845,-0.024295624,0.01634546,0.0070178024,-0.007073056,0.005944971,-0.008545086,-0.013200402,-0.03988565,-0.039798785,-0.035459086,-0.00086613,-0.043493472,-0.02887866,-0.041857958,0.017491173,0.039711256,-0.0044585466,-0.005875215,-0.024530964,0.007142078,0.024726402,0.01367056,0.042055976,-0.0052748397,0.01504891,0.018967044,0.032617737,0.021546412,-0.019465614,-0.023438346,-0.0088258535,-0.028785445,-0.0059065036,0.009315278,-0.033567585,-0.014094925,0.0013411641,-0.0036313534,-0.00298021,0.00033576041,0.005105328,-0.004964724,0.0118430145,-0.009997826,-0.02344043,-0.004674282,-0.0013970099,-0.019587805,-0.030840203,-0.02420067,0.022834066,0.027449522,0.021487962,0.012337852,-0.010622371,-0.0282862,-0.022957925,-0.0134123005,0.043055836,0.029463913,0.025505785,-0.011991717,-0.018021312,-0.038459912,-0.03020226,0.0065408126,-0.0034887232,-0.015571475,0.029773626,0.035782743,0.0024186596,0.024698142,0.023331713,-0.04150012,0.029102724,-0.009907894,-0.022568261,0.040663723,-0.033678085,0.03105886,0.038783226,0.034230415,0.0017223582,0.036303896,-0.016722525,0.01421145,-0.0034268163,0.0058046915,0.0064119436,-0.024238938,-0.023218151,-0.006717261,-0.041093215,0.0023906007,0.0037014224,0.016998328,-0.018245062,0.013585322,-0.037780464,-0.0046010204,-0.01235402,-0.02648494,-0.007827606,0.042527843,0.019714642,-0.03857118,-0.0044526346,-0.04275985,0.009846885,-0.019641554,-0.03646648,0.04324097,-0.011720084,-0.04059066,0.034850296,-0.03264669,0.006901365,0.011321906,-0.044399038,0.009448685,-0.011106059,0.0049479455,0.039949585,0.03860936,0.0073428564,0.030610185,0.03714918,0.03017113,-0.040350337,0.029162165,-0.0017991848,0.028227355,0.03912681,-0.011631329,0.02608494,0.021397118,0.025136363,-0.00421777,-0.023748158,-0.031641413,0.01794276,-0.029659256,-0.013722951,-0.035559088,-0.02738505,-0.0047833472,0.014419742,0.025824744,0.024925407,0.02904072,0.009170551,-0.040397614,0.009682063,0.013762128,0.025138106,0.023009699,-0.03596297,0.007819813,-0.02049743,0.025415871,0.010156233
0.03224391,-0.0046641156,0.0148306675,-0.019347869,-0.040269904,-0.016858486,0.023851555,-0.00095422566,0.006197579,-0.020943321,-0.042833805,-0.018289343,0.038759273,-0.018619632,-0.010362346,0.010210764,-0.03383396,0.021762539,1.7609447e-05,-0.0056797303,-0.0036444627,-0.044535253,0.0053239875,0.03726567,-0.04456613,-0.02247761,-0.030011542,-0.013686346,0.0390019,-0.041724693,-0.02216661,-0.01543786,-0.005596973,0.011521768,0.025596809,-0.03566748,0.013115898,-0.03801047,-0.0020300187,-0.029826809,0.005662605,0.03383589,-0.032091506,0.025481638,-0.044097412,-0.008097779,-0.011407584,-0.012102298,-0.025908388,-0.0064113773,0.017577909,-0.034878664,0.034570303,-0.030483194,0.007207118,-0.023544757,0.013978038,-0.032702163,0.011775222,0.018095609,0.023102138,-0.038755663,0.009763867,0.04253597,-0.04077485,-0.013399325,0.041008826,-0.026195744,-0.029699858,0.013354927,0.006140884,-0.014630556,-0.009144973,-0.027655102,-0.024417058,-0.035633657,0.014293831,-0.020042535,0.034688022,0.0445272,0.036679257,0.02147622,0.033742536,-0.036492296,-0.04089587,-0.0444946,-0.026615806,-0.03302075,-0.019918777,-0.009729594,0.028009918,-0.018183555,0.038534302,0.003038533,-0.042595655,0.036172833,0.014963698,0.00831702,-0.011853259,-0.0077051073,-0.009910326,-0.04187024,-0.020541595,0.0065482184,0.03608525,0.026457574,0.0010635331,-0.022408245,-0.016701423,-0.010624446,0.014232807,0.021938015,0.002079472,0.025611404,-0.023399556,0.010992195,-0.040449407,0.0015299842,0.022182453,0.003120847,-0.027191246,-0.011362411,-0.009775873,0.021788504,-0.014509261,0.022893313,0.013135664,0.011282459,0.004802197,-0.041977808,0.027066413,-0.0014380068,-0.018959716,-0.006703358,-0.019675115,-0.03302268,0.026202302,-0.0206995,0.015784938,0.04170767,0.01921175,-0.03430623,0.03921302,0.00863513,-0.0389699,-0.024830455,-0.012445595,-0.015198173,0.03350505,0.029672425,0.016406558,0.0010591485,0.029530633,0.005001478,-0.023426084,0.013714507,0.02822626,-0.016823454,-0.04137493,-0.016478648,-0.024300523,0.035762463,0.006377481,0.015298061,0.02411965,0.009777572,-0.037339155,0.017578982,0.027193096,0.022442449,-0.018140778,-0.010201111,-0.017351083,-0.02598224,0.043756906,-0.016315876,0.028870542,-0.008442044,-0.038938046,-0.010859467,0.01941641,-0.022009643,-0.027549805,-0.0047424547,-0.008632712,0.035392363,-0.04055871,0.024548572,0.03554565,-0.04234788,-0.017796064,0.0016054064,0.015369896,0.028572913,0.033634853,-0.022741979,-0.009909783,-0.04099497,-0.0030801296,0.02845392,-0.029315036,0.017314773,-0.037263457,0.006279528,0.0049304217,-0.00209729,-0.038746256,-0.040959463,-0.03636718,0.043721896,-0.04405337,-0.03424225,-0.017747495,0.0045274124,0.03356294,0.020933684,-0.017404022,-0.023438634,-0.02607955,-0.016327364,-0.015981019,-0.019537725,0.036483373,-0.039599333,-0.019445436,0.0027274117,0.0070786476,0.039420616,-0.03923711,-0.01634924,-0.017410846,-0.03432949,-0.031522997,0.021401647,0.016813505,0.03256109,-0.0046916753,-0.030299772,0.03985345,-0.023853876,-2.8640032e-05,0.0028149188,-0.03260929,0.0014173314,0.025712628,0.010399912,-0.03334864,-0.039008364,0.027243149,-0.0097033195,0.035628024,0.029655028,-0.04459664,-0.014357567,-0.029636385,0.03443664,0.035629053,0.03581967,-0.03296686,0.00239259,-0.006151531,0.02594791,0.026783746,-0.028681258,0.044439975,-0.011358023,0.01928297,0.02027632,-0.0144698415,-0.026980087,-0.038469136,0.039125416,-0.013837144,-0.030653508,-0.023930836,-0.0277543,0.023473423,-0.027762387,-0.0228941,-0.0016624182,0.0061187632,-0.013435572,-0.033376325,0.025942843,-0.033652592,-0.00080044195,0.03246932,-0.026639301,0.026888315,0.025395427,0.029592443,-0.028681897,-0.012215018,0.016087417,-0.027659964,0.012503512,-0.019235577,-0.037631504,-0.04388882,0.032781158,0.040681828,-0.040172167,-0.026385952,-0.016056247,-0.043677587,0.033915807,-0.03773602,0.022857781,-0.037476905,0.033918094,0.010206517,0.0104030445,-0.014870219,0.017017469,0.026509393,0.015708257,0.04139511,-0.03196669,-0.028961496,0.030551206,0.014872167,-0.018771194,0.027600523,-0.011546481,-0.0009229444,-0.010332771,0.043023173,-0.04180064,0.033731427,-0.023235371,-0.015317604,0.029101264,-0.0061604865,0.02602293,0.0315584,-0.025896765,-0.036803387,0.013248339,0.0074500516,-0.03682396,0.044107344,-0.026208188,-0.03986742,-0.024296952,-0.027329968,0.011089347,0.03218067,0.037579406,-0.034996796,-0.010039467,-0.026417485,-0.020017702,-0.022528203,0.030629974,0.008633263,0.0013942756,0.00785039,0.0035435483,-0.04092941,0.008935649,0.039820667,0.007889785,0.027702648,-0.00091929734,-0.0100988,0.024075229,0.0006807186,0.03275181,-0.041335665,0.024061184,0.009181328,0.042343836,0.004073512,0.024094481,-0.041201673,0.037170786,0.021288354,-0.0035425127,-0.019582149,0.026200425,0.008827724,-0.032222945,-0.0009396821,-0.01846722,-0.022264633,-0.018930996,0.025199879,0.03226311,0.0030541234,0.0014358424,0.036908757,0.03814819,-0.036760747,-0.007573638,0.0018686391,0.031330395,0.008082673,0.024728846,-0.035769917,-0.0401006,-0.005299177,-0.0019560196,-0.010226846,0.013457969,0.025508981,-0.041394968,-0.038594693,-0.0023659393,-0.013760824,-0.02187849,0.011874381,0.04274391,0.02306896,-0.030320378,-0.03399311,0.032433365,-0.011817493,0.03629869,-0.043267626,-0.0008732192,0.013036009,-0.041812696,-0.004884459,0.042578075,-0.0206388,-0.0063679963,0.017303199,-0.044161446,-0.03715725,0.010550804,0.035721827,0.035798054,-0.00031363592,0.0039740093,-0.030886691,-0.034745745,0.008213948,0.02276389,-0.04468438,-0.03222062,0.010770008,-0.01906957,0.01577694,0.034190904,-0.023235781,-0.004942104,0.033144597,-0.025838949,-0.034591343,-0.010386907,-0.018749468,-0.011432581,-0.02773338,0.0073262975,0.03211635,-0.030274838,0.03531674,-0.034319535,-0.040388975,0.009928599,-0.005607594,-0.035766542,0.011777014,-0.034640368,-0.011690725,-0.030624667,0.031423155,0.039651994,0.002520159,-0.03369209,0.036115807,-0.012432836,0.035015043,0.012944069,0.0047633313,-0.016988056,-0.004114095,0.02555016,0.04186822,-0.005332224,-0.0258971,-0.030158,0.039562616,0.04309156,-0.005523052,-0.027172457,0.025320854,0.04214363,-0.042997826,0.0042532794,-0.03644433,-0.036191456,-0.041069344,0.0020780526,0.0252701,-0.005078934,0.037629005,0.015181582,-0.03714051,0.024372008
0.029703986,0.026115257,0.0056859814,-0.04269065,-0.01437946,0.039115373,-0.0063330717,-0.0024679638,-0.041372653,0.041235883,0.022063259,0.03622667,-0.022160303,0.007564325,0.0037235245,0.019245278,-0.0016122423,-0.03192184,0.03053606,-0.035033822,-0.033417538,-0.0005142279,-0.021083489,-0.018306483,0.035335798,0.03558847,0.012645487,0.002496902,-0.011703476,0.001501143,-0.0015080757,-0.041834366,0.012439422,-0.0108753145,0.003307093,0.024287093,0.036563758,0.032747228,0.005439434,-0.022396816,-0.037080634,0.030499946,-0.022155078,-0.022564076,0.020996626,-0.04135105,0.030799907,0.01423458,0.0032487214,-0.0010556318,-0.042425036,0.032721605,-0.027403187,0.029145572,-0.0041062944,-0.023701787,0.03891344,0.021662477,0.03952312,0.03934623,0.019998465,0.038859334,0.021511812,-0.02654825,0.04352307,-0.004723791,-0.021228615,-0.01975246,0.0018318631,-0.0050905943,-0.027863596,0.02042972,0.007881142,0.012319155,0.04001328,0.035685416,-0.013696048,-0.013747901,-0.008368067,0.016082171,0.0324548,-0.041075207,0.01635345,-0.020428643,0.0009579919,-0.026085004,-0.007117778,-0.034501385,0.02155495,0.0062794574,0.03498799,-0.031113943,-0.018259233,-0.004580505,0.018194314,0.006509237,0.012625806,-0.0124484375,-0.031907376,0.010413934,0.007137727,-0.0029437132,-0.02462793,0.0037171207,-0.012485344,-0.04147805,-0.025377715,-0.022933524,-0.004024755,-0.0392497,-0.0077023134,-0.04016412,0.005970627,0.043875862,-0.021914497,-0.039713085,0.022085037,-0.02946312,0.035697583,0.0254968,0.009292699,-0.03270447,-0.02356501,0.03033429,0.03541143,-0.022194507,-0.0037509464,0.028018426,-0.0040598474,-0.010042258,-0.034032542,0.025717173,0.008035533,0.03121208,-0.03936391,0.03242017,-0.01218833,-0.00023582205,0.031078633,0.006943874,-0.033611152,-0.036233813,0.004587911,-0.029824842,0.026932519,-0.015620539,-0.04367593,-0.014146328,-0.028254393,-0.01628743,-0.03123913,-0.018937351,0.008758504,0.043331515,0.018796485,0.028996285,0.004050467,0.022722032,-0.017383523,0.036619943,0.026681755,-0.027325112,-0.020629784,0.010284074,0.034142602,-0.024942944,0.026041653,-0.03327399,-0.017911442,-0.032635614,0.0020980202,-0.014329823,0.040270712,0.00535243,0.030870166,-0.03489262,0.011406396,0.036750693,-0.023132574,0.03797205,0.0067345873,-0.0291209,0.0021738447,0.04143316,-0.04130611,-0.022674065,-0.02490722,-0.01599971,0.019873615,0.008143693,0.030839201,-0.017522737,-0.041000422,0.0080312565,0.0010973848,0.016618192,0.04101922,-0.0039265044,-0.0014912188,-0.017282167,0.042753275,-0.003249094,-0.0053152293,0.0018434711,-0.022590812,-0.008692227,-0.030268671,-0.042797342,0.02768391,0.02468549,0.012341358,0.03589796,0.012297254,0.020557772,-0.02236784,0.03743374,0.017488211,-0.028336244,0.018667627,0.025981512,-0.0074532814,-0.0369581,0.030583177,0.016555432,-0.03775154,-0.017357482,-0.0040819906,-0.021907544,0.010883886,0.041685168,0.016931333,-0.03748679,-0.015857238,-0.041514087,0.0036246479,-0.021960542,-0.044533975,-0.0040649734,-0.011203077,-0.044319805,0.01401712,0.001420103,0.010289207,-0.030534895,0.035616476,-0.041713353,0.028762694,-0.002740264,-0.024700848,-0.008685395,0.022392776,0.034537043,0.0071961395,-0.006904375,-0.028615987,0.012019508,0.011286795,0.031376693,0.0033849813,-0.03514536,0.036261898,0.02917919,-0.011506088,0.0075356364,0.03698599,-0.011936784,0.039139915,0.041823167,-0.025410367,0.027022708,0.023890804,-0.041161973,0.028764483,-0.0035522804,0.009258505,0.023590725,-0.009621348,-0.014329331,0.030014303,0.042771157,-0.03346373,-0.012922682,0.029739272,0.04179312,-0.038374357,0.006720502,0.03841914,0.009014875,0.033853438,0.005936671,-0.0043239295,-0.016212825,-0.023742614,0.006954536,-0.031634253,0.01969264,-0.03219512,-0.036843024,-0.019336732,0.009197805,0.018744279,-0.008570876,0.033270407,-0.031397253,-0.031134458,-0.023157172,-0.01952327,-0.02784237,-0.0016278625,-0.019134205,-0.033073038,-0.03075518,-0.017926496,-0.041636582,0.015543476,0.019531984,-0.0037761554,-0.031533152,-0.033611324,0.03513444,0.025893409,0.0070517026,0.0072884187,-0.0134010725,0.030700084,0.020163123,-0.025876304,-0.038827877,0.0071353354,-0.040722825,0.021987457,0.0058455653,-0.037004452,-0.0070545115,0.011898138,-0.016025022,0.012980148,0.014596589,0.032252442,-0.010552283,0.028875705,0.03941604,-0.002065584,-0.040959697,-0.0046224035,-0.0071461685,0.0036773235,-0.024279732,-0.0292029,0.022479963,0.011209682,0.0014085881,0.022837628,-0.04268738,-0.0031486675,-0.03676734,0.03069454,0.03283592,0.0057662316,0.03549416,-0.035614446,-0.008962892,-0.019703433,-0.04230148,0.035918545,0.030765142,-0.014538694,-0.02371584,-0.011994932,-0.0054891706,0.02634881,-0.003114961,-0.005491905,-0.0037404262,-0.027273137,-0.018664377,0.035361055,0.044109832,0.025476757,-0.023435632,0.010858316,-0.0045116805,0.026844334,0.018946033,0.011242863,0.035520647,-0.0076041482,-0.031767845,-0.027210874,0.03508397,0.029604834,0.03259467,0.033220652,0.023308862,0.009191126,0.022917721,-0.0026017614,0.0006075278,0.022853348,0.038090277,0.036710877,-0.029516261,0.04277451,0.0055205077,0.03975701,-0.03465747,-0.019852633,-0.0057412125,-0.019814814,0.00455663,0.005071897,-0.021949276,0.030363489,-0.035649415,-0.010294408,0.042344723,0.005895041,-0.04314299,0.030195449,0.01064552,-0.030149875,-0.04228577,-0.04237903,-0.033997755,-0.0048557483,0.024125252,-0.0407411,0.0080123395,0.019807499,0.014081374,0.034645196,0.03474303,-0.029310739,-0.020902187,-0.01368496,0.012030251,0.034233365,-0.015075449,-0.00782131,-0.026446871,0.007484995,-0.00063030794,0.011825204,0.043349396,-0.025700225,0.02618296,-0.036871567,0.0369508,0.024346534,-0.03919309,-0.027957642,0.02404986,-0.011206076,-0.012146819,0.003942456,0.007281825,-0.023044717,0.04237132,-0.007081762,0.017475374,0.041288268,-0.04322174,-0.032347094,-0.012305394,0.044431668,-0.011937842,0.023850251,0.040142726,0.0111945905,-0.030201295,0.0043201074,-0.03777525,-0.010513414,-0.0028926842,0.02444673,-0.01970031,-0.029180098,0.02905197,-0.010250103,-0.009342723,0.022787336,-0.031164106,0.0027898028,0.0265265,0.039550867,-0.006460041,-0.044537764,-0.026946649,0.03597981,-0.021934446,0.007862996,0.008589942,0.01993328,-0.03854329,-0.00452248,-0.03244483,-0.042993695,-0.04196716,-0.040490255,-0.04226194
0.034102965,0.023285713,-0.015196217,0.029112462,0.019021977,-0.0055862926,-0.022603996,-0.034132887,0.025934402,0.020679329,-0.004411634,0.010932624,0.02896126,-0.035553668,-0.013427559,0.044597004,0.0053168237,0.03996071,0.0037669577,-0.029631186,-0.021383466,-0.040793408,-0.044498555,-0.015355524,0.025100905,0.035199944,-0.04286457,-0.01343159,-0.024877615,0.016587358,-0.018196836,0.014219403,-0.010445241,0.010201357,0.028230596,0.004805833,0.006258473,0.016777154,-0.033896405,-5.897507e-05,-0.023102358,0.018608194,-0.023321806,-0.03867351,0.022493232,-0.014467377,0.030622024,0.004626211,-0.025435174,-0.025746142,0.008012738,0.0016677491,0.03569671,-0.019264862,-0.030643556,-0.041607454,-0.04442852,0.03151991,0.023184966,0.015781567,0.020722564,0.011834182,-0.03623054,-0.03889165,0.015849374,-0.03553529,0.025728423,-0.028516764,0.036748376,-0.0075667277,-0.027278502,-0.009112805,0.029457588,-0.008833408,0.0016148426,0.004368771,0.03015222,0.020598639,-0.041248612,-0.029345892,0.010590199,0.034097996,-0.032322466,0.016307313,0.011495277,0.028497722,-0.0028853305,-0.01678677,0.043342475,0.03517348,0.03097177,0.042502668,-0.0139167495,0.021877404,0.0089701,0.038530167,0.031348106,0.019448485,-0.013793653,-0.025391735,-0.041369885,0.014810424,0.04265676,0.026987802,-0.018545412,-0.04195208,-0.013125073,0.029001769,0.0069004,0.0021459796,0.030518595,0.0046890117,0.03994156,0.03348763,0.02977946,0.009376783,-0.007822845,0.007625133,0.011022095,-0.042120203,-0.021713084,0.03983135,0.031163756,0.020965066,-0.033865552,0.013634469,-0.043623332,0.023221862,0.022189599,-0.015881943,0.036041062,0.03577396,-0.012530271,0.0029188283,-0.032250647,0.022133585,0.0202174,0.021729726,-0.023297826,0.008212309,0.03041282,5.7816505e-05,-0.025342949,0.043144565,-0.021388456,0.043866213,0.012434315,0.020844106,-0.037582364,-0.01504777,0.029208932,-0.023038303,0.00089487806,0.0077880174,-0.01554822,-0.0057489052,-0.0023893714,0.02430759,-0.019450948,-0.00033475086,-0.009100009,-0.034138866,0.01962934,-0.0021139123,0.04263826,-0.037492838,-0.021229176,-0.027846424,0.026233193,0.004173983,0.021631043,-0.0053791404,-0.0031269938,0.005025197,-0.02569499,0.040569324,0.026013855,-0.012144074,-0.016686698,0.029047634,-0.029053695,0.033605557,-0.0007096268,-0.04013205,-0.026665136,-0.02206571,-0.04056313,0.014786713,-0.002430208,-0.010953732,0.037808064,0.019260611,0.03241009,-0.037847422,-0.00035001338,-0.014075188,-0.019133924,0.01740186,0.0058793575,0.019440282,-0.0117446035,0.00067307055,0.023844916,-0.022468286,-0.0032914989,0.01957262,0.0070714727,0.032452557,-0.007368196,-0.025051221,0.010683607,0.033944536,-0.030487234,-0.043392736,-0.022307843,0.003163375,0.032142665,-0.030534633,-0.040993482,0.04319286,0.039482396,0.004287418,-0.03602379,0.003648322,-0.031759456,0.0348936,-0.013043221,-0.011817414,0.0009922385,0.023900244,-0.023806892,0.009556126,-0.021490255,0.0032275617,-0.014210196,-0.04371633,-0.013151962,-0.011688739,-0.027153794,0.035074923,0.0238151,-0.02782229,0.03084648,-0.020288186,-0.003477037,-0.043161757,-0.03168933,0.035497468,0.033747148,0.0121172555,-0.030898936,0.0038059987,-0.021560473,-0.028237093,0.0037981346,0.030486528,0.005567778,-0.043603748,-0.037500877,0.0372889,0.005895328,0.01990148,0.042934474,0.02806012,0.04395928,-0.042776257,0.023701344,-0.017897053,0.025076631,0.0012866706,-0.02196806,-0.019777346,0.015513055,-0.005223207,-0.031372108,0.008521441,0.020887453,0.011913471,0.03611019,-0.023561625,0.020472948,-0.029329931,-0.037988752,0.04265978,0.026275996,-0.01185067,-0.022037834,0.019646343,0.034427423,0.038105126,0.012941513,0.015245616,-0.032379784,0.019310031,-0.033876646,-0.022902966,-0.037540928,0.03506344,0.026094008,0.037756216,0.017660521,-0.02154987,0.025199275,-0.03952377,-0.010985315,-0.036895074,-0.024760356,0.04449666,-0.029789615,0.022732984,-0.02018842,0.01462378,0.012893416,-0.041330468,-0.038320668,-0.0024327487,-0.007811878,0.038944963,0.04383708,-0.015938705,0.023442794,0.022947494,-0.01839707,-0.0068021864,0.022744182,0.033769336,0.03171433,0.031765472,0.00029852986,0.040945735,0.011287216,0.026786882,-0.018007793,0.023152355,0.034599822,-0.0027955025,0.020488936,0.0040479377,-0.02554794,0.036579307,0.03276315,-0.039977893,-0.026645148,-0.009130307,-0.007587917,0.012525756,0.017679993,0.02307387,0.023557026,-0.021500673,0.008932754,-0.029479861,-0.044240486,0.021476943,0.0323405,0.023816127,0.0038073137,-0.018664282,-0.017851075,0.03253008,-0.040957235,0.0014878921,-0.012497757,-0.025534803,0.025733847,-0.0049046203,0.015262861,-0.03897482,-0.038572736,0.038237732,0.03649744,-0.01629459,0.04446586,0.034591462,0.036187027,0.040851023,-0.034531895,0.0048766434,-0.035537805,0.04226915,-0.00013417006,-0.037706167,-0.013733799,-0.037529353,0.033513475,0.044296984,0.0121346675,0.0133395195,-0.040047932,0.029310402,-0.041768625,-0.023539,-0.041865777,0.009046361,0.034205128,-0.044505518,0.00086256117,0.00074599683,0.023777615,-0.008550346,-0.038481098,-0.0213786,-0.022565292,-0.03337936,-0.026945332,-0.007937055,-0.010688607,0.037539084,-0.006390091,0.027311098,6.957725e-05,0.039102096,0.044147316,0.028838601,-0.041082103,-0.03354432,0.006930843,0.020228673,0.026127677,-0.014951019,0.027776662,0.01924095,-0.038007956,-0.018717812,0.02623235,-0.010937829,-0.02867155,0.012797207,0.017098367,-0.01742007,-0.044139456,-0.017863609,-0.03363256,-0.0048721656,-0.037980862,0.03643254,0.010582153,0.02849229,-0.0010540225,-0.026113404,0.042915296,-0.04404855,-0.0014859922,-0.03468234,0.012540959,-0.010681927,-0.008095205,0.019392323,7.319078e-05,0.010350544,-0.0006702058,-0.02727284,0.004180301,0.029562633,-0.020473264,-0.005938947,-0.01287223,0.033965323,-0.0071757063,-0.0019254908,0.027207676,-0.042982675,-0.030840006,-0.0170299,0.031947035,0.025640901,0.038875755,-0.0042374358,0.019219305,0.0182028,-0.011832766,0.029259998,-0.03752931,-0.013100419,0.015495986,0.040198024,0.0053371675,0.014921553,-0.011872742,-0.02419447,-0.041349012,-0.011833917,0.01673929,-0.0030118413,-0.007845003,-0.038741335,-0.02200118,0.03684972,-0.016760306,-0.0039036907,-0.012526263,-0.0041305013,-0.03657653,0.011064339,0.0025216267,-0.0037829392,0.03038543,0.017236691,-0.021857617,-0.01910634
