0
0.06663706
-0.045673337
-0.07423558
0.035447598
0.032854155
-0.055619437
0.023513101
0.051032804
0.012372881
0.082722254
-0.030375235
0.035900913
-0.040621046
0.0633925
-0.0038069263
-0.07580252
0.05579699
0.07481835
0.020476326
0.057847507
-0.06257409
0.08081957
-0.023581699
-0.04910741
-0.07346389
0.019772582
-0.040291376
-0.014291719
0.017916016
0.036583483
0.06402051
-0.062328257
-0.067870125
0.07936532
-0.083944224
-0.027547654
0.000899896
0.06067013
-0.0015287623
-0.07538473
-0.040316936
-0.018109828
-0.0050163716
0.05197365
-0.08447459
-0.059379376
-0.019400187
-0.060699217
0.04222376
-0.023547031
-0.021174021
0.017554596
-0.010287352
-0.049516626
0.00077812374
-0.008659989
0.0014591962
0.087829314
-0.04957956
0.05822105
-0.008644395
-0.0090685785
0.06758345
0.059079446
-0.079259805
0.01881367
-0.016286239
0.077176906
-0.08626494
-0.028199319
-0.061885513
-0.069539696
0.048202567
0.019352704
-0.035874765
0.0671949
0.003141649
-0.08684179
0.061291404
-0.057619914
-0.068460725
0.08591155
0.085475184
0.081371985
0.01228898
0.06951297
-0.06183596
0.016908884
-0.020756714
0.056301765
-0.066925704
-0.019233964
0.062023766
-0.018429056
0.014909208
-0.024271771
0.05384434
0.07280763
-0.008452885
0.0037130192
-0.019193418
0.036244497
0.06586335
-0.081153914
0.03803376
-0.05578069
-0.04518982
0.054351337
-0.0031303167
-0.046928335
-0.07858588
0.03772799
0.054147102
0.048857488
0.0030626953
0.04319436
0.07049512
-0.033493984
0.046843685
0.05501855
0.036283776
0.011708945
0.027971253
0.0071885884
-0.022583641
0.0682989
-0.069075175
-0.00053313375
