0,1,2,3,4,5,6,7,8,9,10,11,12,13,14,15,16,17,18,19,20,21,22,23,24,25,26,27,28,29,30,31,32,33,34,35,36,37,38,39,40,41,42,43,44,45,46,47,48,49,50,51,52,53,54,55,56,57,58,59,60,61,62,63,64,65,66,67,68,69,70,71,72,73,74,75,76,77,78,79,80,81,82,83,84,85,86,87,88,89,90,91,92,93,94,95,96,97,98,99,100,101,102,103,104,105,106,107,108,109,110,111,112,113,114,115,116,117,118,119,120,121,122,123,124,125,126,127
-0.056484636,-0.009943843,0.009643398,0.06392973,0.07160766,0.08015562,-0.024577342,0.026205562,0.024698682,0.0022228956,0.02115468,-0.029596727,0.0039995685,-0.08394927,-0.033464313,0.012403436,0.041495882,0.02085334,-0.042717736,-0.013373613,-0.08205576,-0.07824847,-0.048646335,0.088372506,0.042661376,-0.07006667,-0.03926138,-0.05784385,0.015764639,-0.02356401,0.012030393,-0.07961635,0.043187045,0.061328568,-0.029991116,-0.062732644,0.08535197,0.041399293,0.079932235,0.06308075,0.038661726,-0.07122312,-0.062850475,-0.04665494,-0.01769673,-0.04276703,-0.07031511,-0.0004962161,0.08241985,-0.010597318,0.079833664,-0.015928924,-0.07627147,-0.05853648,-0.045906905,-0.043549336,-0.061663125,0.008841768,-0.058620952,-0.07983521,-0.017201707,0.01808893,0.08600987,-0.041068427,0.0046874806,-0.0038433522,0.02779223,0.02900739,0.012708738,-0.078854635,-0.041409384,0.031711422,-0.032656103,-0.05334985,-0.012680933,0.08235856,-0.06156922,-0.0865373,-0.038034126,-0.08804099,0.009614348,-0.032007296,0.0026232079,-0.029893022,0.018325418,0.021066628,0.035639048,0.030496992,-0.018863142,0.04254023,-0.042321693,0.06256565,-0.049102627,-0.035120156,-0.05428651,-0.06998127,0.013398051,-0.017512374,-0.048091933,0.006800249,0.011844963,0.013844758,-0.07782512,-0.08225477,-0.024649076,-0.059887458,0.07589253,0.02143807,0.0023088157,-0.010360241,-0.015880257,0.05442656,0.04310193,-0.025593586,-0.0052638277,-0.006512299,-0.03508898,-0.04479699,0.027445324,0.044077285,0.06868949,0.012524284,0.08203343,0.015860468,-0.011448212,0.015987352,0.028570972,0.0118153915
