0
0.29588357
-0.039135143
-0.07440936
0.046594344
0.21866691
-0.05272921
0.1528965
0.053173605
0.009829875
0.092871465
-0.03058891
0.19524159
-0.036434103
0.2082917
-0.0045654434
-0.046749286
0.07921754
0.12866879
0.032522213
0.07084321
0.2477092
0.30330107
-0.018537797
-0.044638693
-0.07814593
0.22997506
-0.03498176
-0.016344482
0.01780463
0.035133727
0.07329098
-0.017565293
0.011196025
0.246636
-0.084380485
0.01859879
0.046926606
0.059783373
0.055943687
-0.07677864
-0.03268426
0.15989734
0.014803891
0.06093715
-0.07688867
-0.059748437
0.014513473
-0.052732028
0.18978402
-0.012945497
0.23013458
0.027272755
0.0401278
-0.046945393
0.012373735
-0.009547924
0.024998216
0.088594526
-0.03231237
0.07932917
0.04720073
0.14406317
0.14377744
0.17845955
-0.079047814
0.062158383
-0.017154241
0.17004454
-0.078536466
0.04938554
-0.04641945
-0.06799193
0.047661707
0.018028509
-0.036155663
0.104710355
0.02912082
-0.063963465
0.06274062
0.24838454
-0.061101235
0.1576175
0.10334359
0.083246656
0.05401736
0.12328981
0.20352007
0.012066856
-0.02158499
0.056822106
-0.03240951
0.035845734
0.07251423
-0.0091644935
0.013158136
-0.018400265
0.056332253
0.091647945
0.37023786
0.006952843
-0.016000906
0.03659717
0.062856294
0.06825851
0.041358396
0.04258034
-0.04603761
0.05720861
-0.003195101
-0.04354005
-0.07833427
0.04207157
0.11978772
0.09346712
0.0051442427
0.04580463
0.095007
-0.023399008
0.046789825
0.05968591
0.34492722
0.011408049
0.17361014
0.007062193
0.06997642
0.08281583
-0.070057094
0.0015686448
