0
0.0071865506
-0.062582135
0.093407676
-0.018179389
0.08072693
0.052627265
0.010838958
0.24576397
0.134212
0.112898454
0.15670067
0.01415656
0.1160626
0.013791418
0.02057698
0.015747534
0.20022932
0.03854653
0.0015061467
-0.058149114
0.10071053
0.15361159
0.005838143
0.28586912
-0.04212696
0.04739189
0.058762275
0.08297864
0.0842905
-0.008183402
0.08421882
-0.053408857
-0.010618633
0.20373403
0.0718295
0.048011106
0.03831895
0.19698814
0.21081339
-0.017001173
0.08888131
0.2421918
-0.019744946
0.22480258
0.13808025
-0.023505336
0.10349615
-0.076782815
0.020707311
-0.035815522
0.0631608
0.3517369
0.06053131
0.11859738
-0.009867927
-0.072873555
0.08998827
0.10948836
-0.019993555
0.07552381
0.023884505
0.2029311
0.12482207
0.1201056
0.15703641
0.027278643
-0.021053908
0.20603669
0.07591772
0.14362319
0.2515164
-0.08002166
-0.049516946
0.0014542439
0.062060587
-0.011137136
0.021123642
0.096127756
0.0019425537
-0.02946726
0.022156628
0.044084392
0.056957554
-0.07158903
0.078715585
0.06215115
0.18704736
-0.05044443
0.009275034
-0.020894814
-0.051347766
0.0997047
0.014908631
0.20054275
-0.031913836
-0.054172233
-0.030230537
-0.056296486
0.1020545
-0.07893655
0.15539445
0.023015162
0.061685372
0.24834514
0.046677034
-0.0787209
-0.037600376
-0.020863576
0.255207
0.15368028
-0.056059726
0.12334445
0.04385664
0.030791871
0.03864982
0.0802279
0.08785086
0.45498243
-0.05625804
0.17543338
0.09122379
0.093272984
-0.05067519
0.012637186
-0.022954425
0.25237316
0.07209039
0.07673912
