0
0.014429361
-0.061394542
0.07838867
-0.03883186
0.078491576
0.051983632
0.014707975
0.070765994
-0.0029221699
0.035165854
0.029110156
-0.0752569
-0.03706517
0.013959773
0.02085147
-0.047848653
0.08555166
-0.0774076
0.0016162917
-0.07858735
0.021723978
0.075103305
-0.002356954
0.019636877
-0.04003844
0.04211756
0.060240664
0.079618506
0.078495316
-0.05654967
0.07785886
-0.0526973
-0.059369303
0.053739555
0.020391412
0.053855427
0.008305877
-0.015593395
0.02827824
-0.07071709
-0.05141123
0.03627426
-0.019838206
0.003324248
-0.00998228
-0.023990862
0.061325364
-0.06639497
-0.04699009
-0.042478163
0.060841583
0.08769081
0.061953776
0.08236789
-0.013828002
-0.072465606
-0.023245342
-0.028671816
-0.01846245
0.07957456
-0.018228836
0.076969706
0.009841733
0.06616791
0.0036640242
-0.023088
-0.03794271
0.042878993
0.074200355
0.052383713
0.079998724
-0.07801532
-0.05415107
0.014156438
0.02349355
-0.022786006
-0.04700148
0.03131988
0.0017791316
-0.023802072
0.023515008
0.009018078
0.06119127
-0.06956857
-0.054250706
0.039265104
-0.05373034
-0.08544391
-0.0036321506
-0.026768792
-0.044560187
0.02906233
-0.0043343157
0.044555478
-0.035344854
-0.05875118
-0.05300356
-0.057273015
-0.052533887
-0.07747008
0.025935158
-0.083764255
0.06349971
0.0028738156
0.04840582
-0.08162782
-0.036745306
-0.028350793
0.033630297
-0.017995946
-0.08755961
0.06873041
0.037322424
-0.0037257895
-0.073719494
-0.0021204501
0.051631473
0.08399514
-0.05864677
0.08628971
0.040518247
0.026010439
-0.055605844
0.01791834
-0.022837877
-0.01981277
0.030237436
0.07318828
