0,1,2,3,4,5,6,7,8,9,10,11,12,13,14,15,16,17,18,19,20,21,22,23,24,25,26,27,28,29,30,31,32,33,34,35,36,37,38,39,40,41,42,43,44,45,46,47,48,49,50,51,52,53,54,55,56,57,58,59,60,61,62,63,64,65,66,67,68,69,70,71,72,73,74,75,76,77,78,79,80,81,82,83,84,85,86,87,88,89,90,91,92,93,94,95,96,97,98,99,100,101,102,103,104,105,106,107,108,109,110,111,112,113,114,115,116,117,118,119,120,121,122,123,124,125,126,127
0.13400882,-0.017305007,0.028379157,-0.021452248,0.270924,-0.07035344,0.09244675,-0.050771337,0.10278359,0.12885211,0.047874,0.051824726,0.026720122,0.38062665,0.16035348,-0.012286585,0.033178147,0.08905566,0.11675433,0.050158866,0.37338978,0.074010335,0.16077249,-0.015071639,0.06754965,0.01519477,0.20080306,0.16410887,0.27144995,0.21684287,0.019475497,0.16089387,-0.02844248,0.041653633,0.34963942,0.3751465,-0.073876806,0.0949815,0.27664644,0.29747355,0.11939253,0.121248946,0.28459746,0.055175256,0.23897302,0.23907073,0.08695218,-0.055902958,0.042328663,0.039229967,-0.04293376,0.3261728,0.05380776,-0.02822288,-0.049566366,-0.04689076,0.029289981,0.1827813,-0.04557309,0.3249542,0.063469805,0.021719517,0.26776132,0.07400108,0.25393078,0.062246162,0.047121644,0.14963987,0.13364227,0.023707237,0.31309178,0.24860963,0.1259392,0.13863425,-0.02997411,0.010605048,0.08472846,0.11914027,0.041750975,0.06034794,0.21877392,0.28616023,0.12123182,-0.0311269,-0.0050161467,0.025032222,0.19501352,-0.014795704,0.26005694,-0.064852215,-0.050905067,-0.022711402,0.20088708,0.08602513,0.039036088,0.00924503,0.20877081,0.09183688,0.05029712,0.082062624,0.11419128,0.27559057,0.15534325,0.06074118,0.17099206,0.18640533,0.011727348,-0.04135113,0.10375109,0.08003775,0.02252578,0.006274031,0.0016836226,-0.011996983,0.122352906,0.016116971,-0.024402728,0.01287279,-0.042982526,-0.010717393,0.079470985,0.2303488,0.069030106,-0.0036255708,-0.06395938,0.16335504,0.0110424915,-0.011036259
-0.014213772,0.011837691,-0.07065282,-0.09014219,0.043920834,-0.0117643215,0.046567027,0.028060336,-0.036775712,-0.0073887776,-0.062145986,-0.025893237,0.027306054,0.035756536,0.0020698532,0.0027522312,0.052826572,0.052109465,-0.014593783,-0.03723971,-0.061111208,0.083894275,0.050274726,0.033243924,0.024374068,-0.0833914,0.012988874,0.09740553,-0.06754805,0.07959529,0.0433515,0.05388663,-0.015996661,-0.028700678,0.042567387,0.10892797,-0.061397422,0.061988533,0.08441389,-0.051025033,0.024365008,-0.03959001,0.04800885,0.028780013,-0.07013019,0.0061001205,-0.038793463,-0.05724298,0.018166047,-0.040034465,0.036937766,0.004776196,-0.060275193,-0.080121286,-0.061365236,0.052005142,0.06351967,0.09247032,0.014185328,0.028654478,0.05612844,0.024735399,-0.046544038,0.0032461784,0.00913594,0.017497296,0.013484874,-0.0029028424,0.022317674,-0.028490458,-0.010210768,0.095301956,-0.08401338,0.06919443,-0.011600554,0.014652388,-0.035111025,0.07543138,0.07083413,0.022987047,0.060095258,0.10813355,0.08315602,-0.07254281,-0.013180762,0.05417841,-0.041557148,0.03925439,0.06922281,0.011288814,-0.07860139,-0.061266873,0.06003973,0.04933117,0.058558818,-0.033318583,0.0074658133,-0.03205923,0.08270704,0.066709414,0.037328243,0.087331176,-0.044102468,-0.08439657,0.018552467,-0.06096286,0.04155945,0.014278145,0.0064700535,-0.07579875,-0.051007725,-0.08950928,0.017100472,-0.05146046,0.06841008,-0.015735233,0.057797186,-0.06405426,0.08388451,0.07426482,-0.033681676,-0.056099538,-0.014505846,-0.007350218,0.061936032,-0.036234315,-0.011691699,-0.08993301
0.08333729,-0.06538474,0.007507053,-0.07689164,-0.04012752,-0.01154067,-0.021826409,0.06575597,-0.032811325,-0.034788575,0.044479813,0.017621722,-0.02456644,-0.06918159,-0.03730896,0.023861788,0.090568334,-0.016491406,0.06791444,-0.0850414,0.04450277,-0.08843671,0.08041479,0.067996085,0.04315481,-0.038431518,-0.07696185,-0.08619213,-0.04963625,0.07636393,0.0009906295,-0.019371666,0.018014083,-0.048424285,0.06997777,-0.06745935,-0.033950698,-0.053717665,-0.047237717,0.051702168,-0.045655835,-0.0014592492,-0.003299732,-0.07614861,-0.00022632127,0.0018485492,0.083949886,0.042716436,-0.08415274,-0.045156106,0.025626663,0.03195407,-0.051515374,-0.084506236,0.06908092,-0.086989895,-0.07375113,0.032089446,0.078533806,-0.06770793,-0.03988796,-0.017248543,-0.012104675,-0.05655376,-0.023167148,-0.008160733,-0.036760256,0.058309358,0.025259636,0.08218512,-0.06595589,0.06493449,-0.019632675,0.05276119,0.0071892547,-0.07148788,-0.0024007903,-0.06534695,-0.046887763,0.047152445,-0.07641676,0.08576658,-0.052512936,-0.08289444,0.06792711,-0.04274064,0.075713396,-0.07323744,0.030044155,-0.03687309,0.04852364,0.016114844,0.07144896,-0.06848773,0.005791488,-0.002657981,-0.078498796,0.046070084,0.00875706,-0.005959207,-0.0684493,0.026060844,0.008398302,-0.06334719,0.06462129,0.03909545,-0.032931942,0.009823256,-0.036026765,-0.025169164,0.046965174,0.014474475,0.008165809,0.071800515,-0.02659658,-0.05957937,0.0804572,-0.048585065,0.03242175,-0.013876828,0.0100684455,-0.04475852,-0.07369234,-0.06966254,0.08320124,0.06228473,0.082341135,-0.055015884
-0.025296617,-0.07656347,-0.07575783,0.00751845,-0.035138093,0.046131723,0.07398294,-0.029459912,-0.014063047,-0.007685148,0.02285646,-0.062837444,-0.049189847,-0.028836261,-0.018456822,-0.030260613,0.08893068,0.112076856,-0.03784666,0.062743016,-0.053322833,-0.015511725,-0.085919075,-0.0029580586,0.033267375,-0.01019496,-0.047896348,0.037360955,-0.021924218,-0.015338122,0.07309944,-0.076259255,0.036106933,0.0596808,-0.024655169,-0.01712295,0.0033700443,0.07693627,-0.0366016,-0.061322495,-0.070298426,0.0128461365,-0.05947892,-0.060568847,-0.04481939,-0.08283252,0.06484012,0.052304503,-0.06067838,-0.042992763,-0.034309044,-0.045258034,0.11113174,-0.050082166,0.0036429337,0.10502324,0.049904704,0.051418032,0.14397383,-0.06913632,0.06271832,0.027581045,-0.07909649,0.0718526,0.047371376,-0.08683279,0.09391869,0.08566883,0.052376777,0.014941501,-0.05158626,-0.04207337,-0.017545033,0.014668421,-0.012869979,-0.07107185,-0.05976784,-0.05678907,-0.029204724,0.09114151,0.054802574,-0.08357755,-0.083723485,0.006693204,0.10611297,-0.038906522,0.08349271,-0.048804943,-0.07790372,0.08084811,-0.017370837,0.026831817,-0.05257924,-0.01195933,0.04783154,0.07743008,0.08233483,-0.0013190862,0.04911693,-0.07428398,0.0681446,0.026126435,0.016444152,-0.03700092,0.016698765,0.034498274,0.10828065,0.049608096,0.07496846,-0.0076636854,0.04545914,-0.019055909,-0.024654498,-0.03346765,0.08619813,0.05970207,0.13840537,0.08958887,-0.025668826,0.04808911,-0.0600596,0.047929145,0.10050206,-0.01184791,-0.014333019,0.0054493896,0.05413302,0.022879073
-0.06792721,0.10750932,0.11190698,0.07939481,-0.044803187,0.38297462,0.08885336,0.13210775,0.020178607,0.13287838,0.0893523,0.06494132,0.15467817,-0.009856224,0.0064906804,0.21070527,0.2297423,0.14251846,0.05987888,0.23309644,0.065680675,0.040944114,-0.06424157,0.035587978,0.48792368,0.18343368,0.06803458,-0.040312063,-0.01925481,0.008021408,0.15319146,0.059691098,0.09921671,0.18270844,-0.021243347,0.06300284,0.25989679,0.18892471,-0.05383125,-0.04983082,0.015289325,0.05795557,-0.08096363,0.055987157,0.04773125,0.059458178,-0.00049781176,0.32409075,0.07980406,-0.05289825,0.041541375,-0.07202039,0.2390208,0.15775938,0.09164834,0.11368575,0.08914213,-0.022382,0.32832968,0.006991251,0.26189324,0.21728316,0.015638668,0.018900333,0.0018126187,-0.026191568,0.14165753,0.033040866,0.05800707,-0.04092496,-0.022085309,0.077556714,-0.00701282,-0.0738334,0.17355122,0.120879404,0.03878113,0.028613137,0.11299041,0.015752802,-0.016691944,0.11869562,0.0861916,0.10059509,0.1641026,0.14590411,-0.00853756,0.090117104,0.03137763,0.14396875,0.122098096,0.21460441,0.071948566,0.10571368,-0.008669887,0.18316135,-0.061043106,-0.036669135,0.16935779,0.097527586,0.0027319463,-0.038099505,0.018608226,0.12309824,-0.05995332,0.004867241,0.035835404,0.14066525,0.030537212,0.29355058,0.08541142,0.19427776,0.1073273,0.21739715,0.118268706,-0.0048657428,0.4180161,0.024167797,0.19386801,0.1198155,0.03312846,-0.06033036,0.3498287,0.1673154,0.2438064,-0.04343017,0.07782664,0.2320589
-0.05199702,-0.06244893,-0.02590705,-0.008685854,-0.0115447305,0.007369972,0.027850572,0.059372272,-0.026861506,0.017516986,0.0022989148,0.022548307,0.07898848,-0.062741846,-0.04777572,-0.07049859,-0.031876933,-0.07653552,-0.023001289,-0.012017939,0.030222386,0.010482513,0.022539463,-0.034665383,0.001399968,0.080354914,-0.056999456,-0.033544343,-0.0031852175,0.03978313,0.055752054,0.022958614,-0.013038875,0.06804424,-0.095621414,-0.043529574,0.088932775,-0.010715374,-0.03638998,-0.013785052,-0.07043356,0.0777708,0.059048533,0.039739788,-0.026157472,-0.089696385,-0.055174485,0.004056784,0.0387104,0.02360476,-0.041321117,-0.08930306,0.019711893,0.027265724,0.0131488545,0.090194635,0.029152611,-0.06454933,0.014300166,0.066866,-0.02164809,-0.040162705,0.036379557,0.006910024,-0.005440306,0.030294683,-0.059127603,0.0137228565,0.04466832,0.071628325,-0.011742502,-0.048232563,0.026156727,-0.041964836,-0.030462412,0.070086986,-0.023886599,-0.071733005,0.058170054,-0.021754444,-0.013778986,-0.03931681,0.024177777,-0.076441,-0.01123183,-0.010927986,-0.05599842,-0.064005494,-0.078807145,0.016704911,0.046866167,-0.0010054981,0.061995536,-0.004488334,0.029750016,0.0077364324,-0.0603487,0.009652799,0.022250008,0.025852652,-0.0076316544,-0.022681005,-0.046379574,-0.06699283,0.020231474,-0.06798401,0.08523449,-0.076206736,0.062762186,-0.021341866,-0.05523708,0.062317725,-0.056640774,-0.0055986107,0.005810135,-0.011034959,-0.0032407378,-0.056958146,0.044010155,-0.033146355,0.083430514,0.032549262,-0.03562608,-0.021324117,0.04020762,-0.05587028,-0.03472021,-0.030066976
0.12475757,0.08380151,-0.05751411,-0.045793183,0.07261539,0.007483803,0.1375522,0.012901889,0.07854119,0.034793235,0.09090119,0.0094075715,-0.060154732,0.2504001,-0.018171221,0.056017734,0.00445946,-0.032113068,-0.0044447337,-0.0074793543,0.18513167,0.090124436,0.042560045,-0.031717464,0.031159457,0.048629656,0.15438403,0.17043431,0.11707858,0.027135866,-0.071972184,-0.03390172,0.052623592,-0.032403402,0.17011602,0.2093308,-0.022863353,0.074777156,0.16369398,0.10562862,-0.011355402,0.008549887,0.19631054,0.101145655,0.087327994,0.15181245,0.036112826,0.03721424,0.12030634,0.06758747,0.0842492,0.07140358,0.101127185,-0.041942567,0.040140904,0.08446197,0.050179005,0.058818217,-0.0701909,0.29665557,0.083124764,-0.053321604,0.16034117,0.12868047,0.08350069,0.09682388,0.021228718,0.08122763,0.0058151665,0.08597096,0.19907807,0.18509662,0.09748978,0.13423716,-0.03946337,0.11433728,0.12103777,-0.023794126,0.05470417,-0.017915774,0.09088043,0.13142923,0.12542133,-0.05691829,-0.0053190435,-0.04278189,0.13800411,-0.03566155,0.029160352,-0.0509803,-0.011427099,0.10445731,0.046662193,-0.028438173,-0.031569753,-0.07742256,0.08241307,0.111878596,0.05399319,0.10236566,-0.053581152,0.23574348,0.13440022,0.020481097,0.102348536,0.13897762,0.009953567,0.000756525,0.101860404,-0.06606744,0.0068147727,0.0041817385,0.110606216,0.02388309,0.09135483,-0.05326787,-0.034438577,0.004887238,0.08036124,0.104761116,0.01588023,0.1519022,-0.0466768,-0.04252171,-0.016672183,0.02298772,0.074332535,0.008227383
-0.07080438,-0.08544056,0.04659525,0.023554979,0.043296043,0.014895056,-0.027397767,0.042296477,-0.08578497,0.031847775,-0.075285435,-0.007989457,0.033344343,-0.0023102711,0.048320677,0.03823813,-0.0709453,0.06594601,0.052295573,0.00046038537,-0.09278235,0.08556088,-0.00022444352,-0.017034376,0.012851018,0.038371094,-0.07216158,0.021484602,0.08438084,-0.011807294,-0.07045083,-0.03998808,0.08307431,0.0336165,0.06423133,-0.04238048,0.015567995,-0.050192643,0.0102361515,-0.03664782,-0.04432341,-0.025441807,-0.059805166,-0.05750062,0.042569887,-0.07139988,0.08514044,-0.031181466,0.08494119,-0.06359958,0.039466336,-0.053311564,0.049085654,0.05257674,-0.055517823,0.029298631,0.018951904,0.041549105,-0.06698387,-0.053747132,-0.06859741,-0.065419294,-0.039606027,-0.08128429,0.054458942,-0.03714506,-0.05677054,-0.013921694,0.033465806,0.009101567,-0.016999276,0.017433517,0.017774625,0.05431907,0.030826228,0.05585516,-0.08415508,0.064213835,0.0053359163,-0.07011386,-0.08660174,-0.06689856,0.07127026,0.04048641,0.02763212,0.0891607,0.0025241086,0.07045749,-0.07875429,0.033325795,0.042143088,0.009855758,-0.07017784,-0.0041542044,-0.058563486,-0.074128866,-0.0709042,0.02986376,0.054352347,-0.022585388,0.061716437,0.027143952,-0.0007864459,-0.045177232,0.022038318,-0.008219211,-0.06384904,-0.026693141,0.051730752,-0.0034467485,-0.0014447423,-0.037983067,-0.08231476,0.06693136,-0.05117597,0.03241611,0.10326462,-0.057485703,0.06308809,0.03937257,-0.012365998,-0.00047834497,0.07649064,-0.0409206,-0.009695431,-0.04210505,-0.06345042,-0.029988179
-0.07083006,0.0447681,0.07192014,0.04559719,0.0041969996,0.024181744,0.02516233,0.035138123,-0.08581179,0.030549608,-0.025401253,-0.0468101,-0.036282916,0.0075190053,-0.04088905,0.07302149,-0.025921866,0.066325046,-0.08999105,-0.01557195,-0.101908706,-0.04354068,0.007470937,0.054966114,0.055143345,0.115799576,0.0017729012,-0.063241854,0.036795452,0.07671106,0.07314555,0.019287433,0.08212164,0.029060265,-0.021594938,-0.085884355,0.07417974,0.09952202,-0.07152272,-0.0037973032,0.046239767,0.02378813,0.05888771,0.03863614,-0.033212595,-0.046844877,0.047937367,0.13294004,0.0021192038,0.048977405,0.010756519,-0.05268188,0.074859805,0.03391849,0.011288498,-0.02246186,0.07679208,0.0722445,0.048211653,0.056737363,0.10032802,0.108938344,0.0031722104,-0.044886567,0.07001839,-0.006339805,0.056124516,-0.049962956,-0.029823184,0.037900995,0.0054256776,0.05180223,0.024900429,0.021048982,0.10075091,-0.083374664,0.041072313,-0.0099086175,0.0706974,0.030105455,0.017987298,0.02124712,-0.02197354,0.030547576,-0.037545867,-0.04362067,0.057402313,0.0122896535,-0.06698655,-0.048180893,-0.033411536,0.10302377,-0.029927082,-0.006828038,-0.05511815,-0.0013355499,-0.044610955,0.04002368,0.023082074,-0.021211928,-0.014222274,0.0008848375,-0.055358414,0.09107786,0.07391069,0.018890953,0.03510837,0.011277009,-0.06528451,0.088388294,0.10068334,0.09918964,-0.08028452,0.020415055,0.07684893,0.035626177,0.053216696,0.060517363,0.083811976,-0.052328687,0.009820925,0.06317204,0.07413332,-0.032910597,0.11896987,-0.01062037,-0.071713254,0.11287413
0.09529999,-0.018292593,-0.0128844185,-0.068724915,-0.048806995,-0.004824868,-0.0027809078,-0.07914279,-0.027535094,0.026935842,-0.014532133,0.023724664,0.02898085,0.12842575,-0.01130645,0.026752945,-0.028912209,0.020089688,0.08897779,-0.0068520033,0.017225597,0.08044231,0.03997826,0.029691258,-0.012326726,0.013971252,0.058012627,-0.014482881,0.06915395,0.09658261,0.0350722,0.04434083,0.008306105,0.026701933,0.040188324,0.0977047,0.040090077,-0.072399855,0.06581626,0.11225424,0.012134912,-0.023815691,0.09706624,0.0025663036,0.004624978,0.11461701,0.0745011,0.0313676,0.062980376,0.011714727,-0.02067432,-0.021894194,0.060153853,-0.07313611,-0.007440237,0.058449734,0.0049739555,-0.05526704,0.04906721,0.13905288,-0.007826674,-0.026940884,0.08025936,0.07746067,0.064512394,-0.07486979,-0.062329568,0.01963944,-0.040611975,0.04248515,-0.032306127,0.05629556,-0.017290503,0.04555608,-0.012699114,0.0072291605,-0.020051384,0.100675605,0.085118674,-0.03949353,-0.015013017,0.11894061,-0.042529617,0.019178938,-0.040061057,-0.041387223,-0.03197911,0.016992506,-0.05854368,0.017968057,-0.016143676,0.080832444,-0.05368348,0.06939806,-0.011136161,-0.06544487,-0.032090515,0.053581417,0.06049933,-0.037197713,0.06118975,0.09843801,0.04835185,-0.07247123,0.004924615,0.099477984,-0.002307874,0.07694536,-0.0644391,-0.023603698,-0.08863052,-0.0007916945,0.078712076,-0.08366558,-0.033289053,-0.037758473,-0.0724756,0.0864106,-0.06541553,0.06458354,-0.08880782,0.12121607,0.02233038,0.078407295,-0.09220467,-0.06586924,0.06778323,0.062036276
-0.050522674,0.080682844,0.044655558,-0.045023263,0.047091473,0.042892717,0.03144215,0.062484186,0.018669324,0.005882984,-0.080751255,0.05547235,0.008008742,-0.006298731,0.03199325,-0.00275923,0.07085102,0.03768479,0.054418653,0.06974621,0.065750085,-0.017500406,0.061809313,-0.059453163,-0.051068787,-0.050257873,0.024253761,0.022245675,0.0137744015,0.06255054,-0.04136273,0.0013452411,0.055076633,0.06896083,-0.046391655,0.022336407,-0.064120196,0.009474,0.08260239,0.0003536845,0.08134916,0.05566813,-0.01780128,-0.08226184,-0.064648084,-0.01452158,-0.05260579,-0.04418206,-0.06645653,0.048379537,0.04491354,-0.020799471,-0.009903573,0.079791196,-0.079524375,0.0211964,-0.04030118,0.0734431,0.062234264,0.034764178,-0.04053974,-0.0054779015,0.024725286,0.038310964,0.0017545213,0.075023636,0.042088155,-0.07081769,0.0001733554,-0.05363645,-0.026899481,0.035981447,-0.041628666,-0.02155307,-0.020860996,-0.0065440256,-0.051308457,0.044826366,-0.007311912,0.039691113,-0.041933086,-0.014729591,-0.037612233,-0.036683615,-0.030449707,0.054491755,0.01697019,-0.07945999,-0.01583502,0.051319897,0.040200192,-0.023119405,0.022697046,0.08001126,0.043563563,0.011582093,-0.031064294,0.042147506,-0.06767485,-0.049376424,-0.031235285,-0.044570956,-0.016675817,0.021054331,0.015364563,0.019873716,0.042004883,0.057396434,0.03051114,-0.057228945,0.038133483,0.021651285,-0.07873953,0.0718845,0.013040878,-0.0012368208,-0.021981757,0.047023598,-0.063581795,-0.07175664,0.020455284,-0.041208252,0.06921985,-0.05135214,0.031761248,-0.0376952,0.038222954,0.02138359
0.0443616,-0.02599982,0.031359803,0.058797184,0.19008099,-0.02117356,0.06536184,-0.05827272,0.119741134,0.117427774,0.13367645,0.046371702,0.0185065,0.27829581,0.14097783,-0.07357208,-0.0697261,-0.026616573,0.081179015,-0.03680792,0.21201882,0.10612449,0.03833674,0.09278145,0.043354444,-0.031029113,0.074751474,0.03668808,0.21936414,0.06429417,-0.031955793,0.0421912,-0.04256974,-0.029414354,0.19063045,0.23963143,-0.036803626,0.038895987,0.16299003,0.2889663,0.11462595,0.10703929,0.10167041,0.11348274,0.2080355,0.13412517,0.044266604,0.007052096,0.12043538,0.016553532,0.038019344,0.21512768,0.00789643,-0.027603077,0.049705245,-0.06878451,0.0023071184,-0.0032547668,0.015256252,0.36246124,-0.019445047,0.05110785,0.23331505,0.070027664,0.058669493,0.15307108,-0.03983814,0.043254152,0.13084921,0.033725157,0.26963124,0.16035423,0.08859629,0.02594139,0.0034224663,0.008440326,0.078794636,0.07804371,-0.011098469,0.046218384,0.20744184,0.24807198,0.07302434,0.09502691,-0.04095062,0.030000487,0.14022274,-0.013139816,0.0481765,-0.019934494,0.009457733,0.057309873,0.046553507,-0.004793125,0.004478595,0.04474267,0.18920963,0.085331626,0.048971005,0.068596326,0.034785725,0.25637484,0.2209462,0.05069298,0.072549924,0.1573995,0.024975905,0.046593875,0.02494986,0.00843992,0.013406509,-0.021306572,0.09023903,0.038557705,0.07669985,0.045440927,0.067761794,0.05123732,0.08534035,-0.017898528,-0.050518762,0.20988382,0.029666996,-0.010983134,-0.045251787,0.15220232,0.0067452537,-0.064972766
-0.014025244,-0.034298588,0.059811585,-0.025176836,-0.056939702,-0.04405553,-0.047034886,-0.071913436,-0.046666175,-0.061022136,-0.08348213,-0.038803153,-0.016723141,0.019370172,-0.040511154,0.026746782,-0.049100723,-0.039305095,0.07153499,-0.064239495,-0.021448439,-0.04248874,0.015374262,0.042712353,-0.036876746,-0.029873706,0.003620815,0.04253032,-0.044258982,-0.062027846,-0.035421584,0.067997545,0.07259418,0.035900235,0.05523574,0.05498311,0.07991013,0.04486248,-0.059581324,0.06840163,0.059067033,0.061938427,-0.021011148,0.06495312,0.057635862,0.08199517,-0.078883566,-0.022936136,-0.02893807,0.018271307,-0.020750975,0.0891684,0.03141072,0.0033851443,-0.068217956,-0.04468186,-0.0726372,-0.0126132695,-0.07257782,-0.036110483,0.07638176,0.008344412,0.008182654,0.001069306,-0.05683762,0.0051422794,0.025690643,0.0013196304,0.05923362,0.04385732,0.086811066,-0.0102647655,-0.0077577033,0.017779892,0.017788636,0.084117845,-0.022153176,-0.05562402,-0.052492715,-0.06466799,-0.017847707,0.05609121,0.087153316,0.021221215,0.081624776,0.05974447,0.007569208,0.034045007,-0.05307851,0.06690539,0.016166005,-0.04500974,0.004904309,-0.070463166,0.026053214,-0.040869452,0.084991485,-0.016410269,-0.040122367,0.045966517,0.025379652,0.09582666,-0.06202479,-0.03339741,0.076652594,-0.0764405,-0.015976703,-0.065444164,-0.0018079743,-0.032556254,-0.019084705,0.014702162,0.087381,-0.06763617,-0.0807885,0.06895294,0.010322224,-0.07897254,-0.01828803,-0.015793003,-0.06912413,0.014944647,0.03903664,0.07622785,0.07063337,-0.006073026,-0.053950593,-0.044736613
0.14530076,0.01993331,-0.06930011,-0.03748646,0.11329865,0.007327672,-0.0007176522,-0.0667933,0.029534314,0.014997606,0.05193199,0.08471146,-0.08284614,0.16914836,0.1457581,0.056334008,0.053746406,0.04221277,-0.017605785,0.08565673,0.23512928,0.04804472,0.041669752,-0.009187633,0.07122656,-0.07327238,0.21712737,0.17544217,0.119914934,0.1339687,-0.06113661,0.0032326786,0.07723282,-0.08423077,0.27855688,0.2756758,-0.078357555,0.09860957,0.21068975,0.28017908,0.11011452,0.016124602,0.18115745,0.041633066,0.09802156,0.1626558,-0.043152932,-0.039777525,0.074812934,0.016165197,0.07678815,0.1341803,-0.051963,-0.03673833,-0.0039440356,0.013990661,-0.049658712,0.089890614,-0.09323902,0.18259846,0.057218615,0.03859798,0.23398864,-0.008497047,0.13582219,0.10699565,-0.023756346,0.11004087,0.04228222,0.11277517,0.20256779,0.15456305,-0.012183927,0.12392339,0.025997236,0.10956766,0.12302492,0.029176218,-0.051597252,0.010658861,0.23217686,0.2247339,0.11846034,0.014253397,-0.06154456,0.0772602,0.050785553,0.06553654,0.12656271,-0.041743267,0.011931523,-0.06891293,-0.003919076,-0.06041617,0.065219186,-0.010872535,0.16718344,0.079572916,-0.061513074,0.0965396,-0.036368027,0.33527225,0.20390666,-0.053773165,0.09435615,0.11372846,-0.006997155,-0.0804482,0.13388059,-0.0425548,0.05976452,0.015702112,-0.04892491,0.0002895463,0.012090156,0.06596474,0.0996465,0.01857564,0.0068863425,0.0914619,-0.023778234,0.12614177,0.030956488,0.037286565,0.07510572,0.06242277,-0.056597423,0.061642163
-0.06738106,0.054227054,-0.031493384,-0.07998014,-0.02665489,-0.08275412,0.044214156,-0.0115256645,0.034982122,-0.055909514,-0.032834254,0.04731252,0.06486597,0.028445661,-0.07643309,0.042434826,0.032965075,0.040557243,0.043595135,-0.025234668,-0.015960272,-0.05325007,-0.017001832,-0.001914116,-0.038636994,-0.01500133,0.02000293,-0.08528332,-0.024008112,-0.0634765,-0.08539899,-0.0682049,-0.030438615,0.06737981,-0.007310073,-0.06994517,0.0047528036,0.049892675,0.014843955,0.020794393,0.0684017,-0.06328764,0.089601666,0.01641609,-0.027212508,-0.041436214,0.069159225,0.0640881,0.047833994,-0.037959713,0.023282345,-0.06453336,-0.033696756,0.01766348,0.07153446,0.04459977,-0.026659332,-0.048178665,0.025878293,0.08230675,-0.03995968,-0.05066288,-0.020144988,0.029201714,-0.05329993,-0.05595318,0.04193087,0.0025207507,-0.01597551,-0.0043096608,0.061558932,-0.077016056,0.0876135,-0.02003987,-0.04841528,0.046531215,0.07007089,0.012431775,-0.080895364,0.06307696,-0.020307172,-0.0030883641,-0.080994956,-0.014092924,-0.009627782,0.02430999,0.06134748,0.02734726,-0.07078848,0.038275134,-0.01851059,-0.07956357,0.04569911,0.07013336,0.0393611,0.06090076,-0.035458826,-0.03373985,-0.010380569,-0.00026610063,0.0207821,-0.07832172,-0.053883485,0.021491563,-0.007318524,0.052303154,-0.06040854,-0.06917451,0.0762417,0.0017573999,-0.0059699835,-0.07836775,0.0067472206,-0.08033007,-0.077457115,0.032579392,-0.026177509,0.05829183,-0.06908835,-0.07318358,-0.086041085,-0.069923595,-0.043722488,0.028416388,-0.05714464,-0.0020933074,-0.036462445,-0.059203893
-0.016963301,0.04928333,-0.045460615,0.106305785,-0.03990445,0.20423613,0.06395911,0.05046332,-0.0869054,0.06294149,2.1694359e-05,0.08368674,0.11801278,-0.045386437,-0.0064119403,-0.0057767206,0.076271854,0.13082433,0.021289589,0.13846435,0.048786238,-0.03543603,-0.010797184,-0.012171535,0.1896159,0.09350005,0.08710136,-0.026823692,0.010617762,-0.052075863,0.07457273,0.04582952,0.057680625,0.022549238,-0.05454975,0.07906462,0.09445628,0.17806976,0.01636443,-0.060306884,-0.09242912,-0.031032251,-0.036036152,-0.05614784,0.08165328,-0.07750797,-0.065247186,0.09448662,-0.020905266,0.021223081,-0.019977724,0.07613794,0.07675777,0.02824083,0.07897924,0.06597329,-0.06211231,0.08750258,0.17857617,-0.029899562,0.18327554,0.08733381,-0.035700735,0.020387702,-0.06668403,0.08124169,0.07289247,-0.04129088,0.018233843,-0.044609196,-0.043735474,-0.058521822,0.004698282,-0.0440877,-0.015396173,-0.07328257,-0.06590291,0.015574467,0.047145266,-0.032222115,0.023032755,0.054601032,-0.076490566,0.029247804,0.17644893,-0.050507896,-0.018124912,-0.06467028,-0.018382823,-0.005320459,0.10222788,0.12553535,-0.017818691,-0.041678183,0.05204822,0.043950167,0.032747313,-0.030602641,0.09349448,0.059329256,0.01585879,0.032915667,0.081429616,0.0037433396,0.0050387536,0.012122013,0.11432091,0.016659608,0.0056974078,0.14374335,-0.0056913276,-0.028762434,0.0035912648,0.13183588,0.04702745,0.058205545,0.17707503,0.041201405,0.02000405,0.033190094,0.0008716658,0.012814257,0.16509321,0.064065024,0.04690139,0.015176412,0.050624326,-0.015223879
0.011783777,0.049256906,-0.026985085,0.09557078,-0.021315426,0.09630636,0.07671242,0.062656544,0.0022794604,0.083552286,-0.057776295,-0.05452353,0.06898997,0.006715042,0.033761602,0.03981865,0.06769054,-0.030453714,0.08838734,0.093453646,-0.04449907,0.06245589,-0.06545172,0.049487256,0.15952595,0.009360044,-0.018086046,0.014460504,-0.028343137,-0.041737236,0.09634551,-0.029962929,0.02883105,-0.0050568203,-0.008041422,0.004671652,0.16203472,0.13294001,0.022070756,-0.014304201,-0.020859005,0.034403086,0.07939634,0.060216837,-0.06757648,-0.0660791,0.055230618,0.08448606,0.019748816,-0.006795725,0.09771133,0.07366999,-0.006792592,0.09334958,0.0589353,0.07494032,0.09390796,0.06784787,0.021919549,0.014346647,0.022836385,0.045339875,-0.06351847,-0.0075132167,-0.00469028,0.01199934,0.060989887,-0.0022655542,0.05434373,-0.04292062,0.010910039,-0.06990995,0.03821907,-0.0662297,-0.014283237,0.0025739803,0.021341844,-0.036591016,-0.06781812,-0.0042228666,-0.033303916,-0.04553239,0.070333116,0.0038208156,0.109692946,-0.031908683,-0.008842014,0.012908086,-0.03913724,-0.052037057,0.11441363,-0.0028171015,-0.07369325,0.12232868,0.079120524,0.09368776,0.056517888,0.043830078,0.12312626,0.09278843,0.05357983,-0.012361252,0.08561051,0.07788724,-0.034940384,0.014755324,0.025931312,0.04442547,-0.060045175,0.106314614,0.041780144,0.091773115,0.046676178,-0.009920188,-0.026478924,-0.014687169,0.15785857,0.0004288679,0.04812367,-0.02034352,-0.03359624,-0.009387934,0.084520005,0.024759106,0.13326737,-0.06188288,-0.07346858,0.08045267
0.040889516,0.012004721,0.09616825,0.13973385,-0.0091940295,0.08242659,0.021607382,0.036823735,0.042228837,-0.018322865,0.009834278,-0.034963887,0.059463635,0.026103659,-0.0766826,0.06515572,0.07405405,0.09695769,-0.016158976,0.1493999,-0.005391814,0.06029798,-0.05111756,0.024865823,0.28188288,0.02564211,-0.055397924,0.052360702,-0.057214607,-0.04683684,0.041305054,-0.07817938,0.1264547,0.10938545,-0.011756848,-0.017878478,0.09984195,0.17785454,-0.028466407,-0.04420124,0.07171578,0.08604402,0.0673929,-0.025624122,0.069659464,-0.02926065,-0.021445842,0.11934974,0.07653408,-0.067994975,-0.038753685,-0.035598245,0.0836593,0.1026943,0.14078513,0.12167948,0.03565776,-0.012721195,0.1583121,-0.065423526,0.17306732,-0.02641273,0.0632893,0.015350816,-0.037031755,0.0870134,-0.021172259,-0.020040244,0.031694308,0.027267845,0.06891337,0.06656659,0.043119393,-0.071734525,-0.0139838755,-0.03450521,0.023058446,-0.05001885,0.04087237,0.044445097,-0.014307904,0.056345433,0.068327636,0.059716795,0.056449506,0.038579404,0.022083724,0.096987225,-0.051731754,0.0685216,0.038076818,0.060142696,-0.05737993,0.108359374,0.11099836,0.10218083,0.003706134,-0.07851683,0.10202751,-0.048190784,-0.005143264,0.092893936,-0.042444393,0.040403914,-0.014467804,0.08820485,0.115601435,0.050878275,-0.011572535,0.14496887,0.10078315,0.123533316,-0.009429475,0.1673061,0.047457535,-0.039249007,0.1593209,-0.056111664,0.083417766,0.11564763,0.100173905,-0.032137204,0.16316725,0.051019154,0.17472523,-0.065240234,0.032185458,0.11272768
-0.056975607,-0.01840564,-0.083366506,-0.08154065,0.025089765,-0.0064128893,-0.024966348,-0.05679917,-0.000462875,0.010726718,0.003341091,0.038578384,-0.0015909708,0.13348329,-0.042311884,0.050904814,-0.07478492,0.046128392,0.021311438,-0.0779703,-0.010291089,0.096327744,-0.05956026,-0.025249705,-0.09511207,-0.0180243,0.11461576,-0.010670679,-0.0094319405,0.023211375,0.005454054,0.033437587,0.0046029966,-0.005513919,0.010406334,0.025386501,-0.036518555,0.06544022,0.05819657,0.009464427,-0.04098252,-0.024295228,0.07885803,0.024728261,0.11552985,0.03052332,0.034189936,0.01777416,-0.016232932,-0.06290524,-0.0020173008,0.032337796,0.02098103,0.07758269,-0.028240688,0.019811375,-0.04542578,-0.011668359,-0.045038942,0.11858149,0.007122187,-0.07325282,0.0073139677,-0.06657368,-0.04173957,-0.04543034,0.049509846,0.0826494,-0.013683218,-0.066986054,0.045773003,0.056719013,0.09018978,0.044712655,-0.04802142,0.07769046,-0.0448541,0.06460956,0.01429628,-0.009167889,0.046312895,0.027217168,-0.029160807,-0.0008414286,-0.0011875664,0.062183317,-0.03524349,-0.04941803,0.07334413,-0.048493434,-0.0075096334,-0.0004193662,-0.009816111,0.036641605,-0.07153336,-0.012521955,0.0687711,0.03287179,0.024117202,-0.05303539,-0.008341044,0.048439752,-0.014001421,-0.04323342,-0.050740406,0.06971974,-0.048911348,-0.08970796,-0.041492004,0.005267343,0.08256649,-0.018106194,0.070869565,0.04086605,0.06675174,0.0031412856,-0.03266016,0.039257947,0.069490425,-0.045929827,-0.07644404,0.04757948,0.04146553,0.08114649,-0.013086818,-0.05581043,0.043467216,0.036695905
0.023661682,0.0015898476,-0.010673568,0.06294537,0.03539772,-0.07767372,0.027814196,-0.07335244,0.07649881,0.0768839,-0.037208628,-0.048696276,-0.019083984,0.028185552,-0.05257147,-0.09130473,-0.054579742,-0.0130290855,0.0738853,-0.011586599,0.04183443,0.071293235,-0.041165374,-0.08094754,0.006922909,0.019056551,0.0966649,0.047550682,-0.009450098,-0.024404656,0.0074077947,0.030289758,0.057921026,0.0020169,-0.004161604,-0.011514221,0.020791093,-0.074522965,0.027297942,0.07474019,-0.029061176,-0.037979234,-0.035487663,0.0037227273,0.011613396,0.04745066,-0.03666959,0.075703725,-0.060455974,0.093506984,0.04695482,0.1155514,0.03234183,-0.061006438,0.009809995,0.01512619,0.0047114026,0.093784556,0.06944276,0.1471152,-0.077307574,0.012798133,0.067797475,0.031841844,0.0043806364,-0.061748877,0.0460144,0.09655366,0.06520834,0.06644014,0.07641002,-0.016931267,0.045457195,0.04314255,-0.05280094,0.06681851,0.025034128,0.0011195521,-0.047010373,-0.018706637,0.05707013,-0.037479714,0.040498156,-0.059776604,-0.07883902,-0.014810066,0.0289295,0.087333135,0.05419083,0.0048985807,0.061370566,0.00517594,0.009368591,0.059576765,0.010884661,-0.030956022,0.029317258,0.005533154,0.06151381,0.052811477,-0.014160902,0.10245574,0.038392592,-0.06035131,-0.02714423,0.0070205447,-0.061097305,0.04949476,0.023387218,-0.0070414,-0.06516832,-0.013935681,0.0058853077,-0.04236485,0.0010387169,-0.05219148,0.0442521,-0.02352261,-0.079576336,-0.075118475,0.039387908,-0.051659685,-0.011562707,-0.02268524,-0.086219154,0.021551285,0.08954782,-0.021236889
0.13534068,0.033761114,0.021405805,-0.03440504,0.3757292,0.006409627,0.20691073,-0.0035105704,0.20228748,0.16368008,0.16180947,0.12136955,-0.06644313,0.32826054,0.044022895,0.04710236,-0.075263806,0.020758264,0.015313987,-0.07940153,0.40981916,0.21603969,0.20049067,0.09893395,0.08341434,-0.070479535,0.24462363,0.26771283,0.3462975,0.10631327,-0.014806954,0.073959306,0.0954618,0.017486319,0.3410593,0.42219162,-0.08612647,0.029371584,0.25728714,0.37304196,0.24130718,0.26264006,0.34795383,0.19639358,0.32828483,0.31601608,0.014374349,-0.015124863,0.17754495,0.21084161,-0.0005576499,0.31783208,0.082079165,0.035405893,0.06729987,0.044484083,0.11609719,0.22123717,-0.031632945,0.5409461,-0.09388048,-0.03102819,0.31170192,0.15898184,0.17433043,0.18900631,-0.018867202,0.1863766,0.16881604,0.06656755,0.3824867,0.3210664,0.08253951,0.17783256,-0.04013419,0.12995374,0.06309854,0.20791379,0.08669915,0.11437312,0.36075526,0.3837751,0.12265341,0.072944134,0.020518502,0.14651069,0.14122224,0.07555937,0.27969313,-0.01681882,-0.03563131,0.04024782,0.1693639,-0.05532316,0.038949538,-0.014289045,0.22590585,0.21021368,-0.06283394,0.058464997,0.058825187,0.5324596,0.31480193,-0.0057443674,0.25661182,0.20586056,0.068123184,0.027810512,0.17789248,-0.019385511,0.094579056,0.063730404,0.14582019,0.065855235,0.15918979,0.09126594,0.0025334526,0.059885364,0.06840252,0.03454524,0.055405386,0.3643051,0.078447804,0.052403897,0.002174281,0.18717667,0.081186906,-0.07316691
0.10934962,0.040460292,0.05126787,-0.030591916,0.25581565,0.0076777823,0.007727126,0.025702108,0.0755372,0.11982058,0.12009196,0.13278438,-0.08001748,0.36248523,0.11665623,0.079169825,-0.07259051,0.015205749,0.01551291,-8.410517e-06,0.31848985,0.03339959,0.030269168,0.003455464,0.038024098,-0.07338561,0.2436269,0.082987964,0.24879886,0.16582434,0.047341004,0.058108665,0.04304433,-0.022911374,0.29491746,0.38934597,0.030963406,-0.061514653,0.1840343,0.35032594,0.16302256,0.19604246,0.23084801,0.16707702,0.17592336,0.27374864,0.13485913,-0.008333823,0.13489573,0.14207967,0.01045312,0.26494172,0.028566204,0.08760391,0.010561831,0.09888902,0.075384915,0.12895592,-0.07485723,0.34324613,-0.019161189,-0.0038766863,0.14406757,0.047425114,0.12180417,0.15946022,0.050900552,0.03170896,0.063219324,0.03677731,0.35068613,0.25958666,-0.0357271,0.1821574,-0.063566186,0.018106302,0.014698308,0.19066833,0.02932994,0.06791034,0.22274199,0.31532276,0.18164209,-0.06511846,0.019109301,-0.019680236,0.11655404,-0.03223524,0.1042757,0.10191772,0.035218507,-0.0053411624,0.1545573,-0.06675466,-0.022876818,0.043911334,0.24940917,0.15866403,0.0435525,0.003052221,0.09303593,0.27317077,0.25759134,-0.045762695,0.10535216,0.18574232,-0.053493045,0.09408093,0.0976876,0.05736591,0.04936405,-0.028680522,-0.010817389,0.09282928,0.077402405,0.09031989,-0.005431823,0.07141837,0.023876563,-0.021912688,-0.027752964,0.1839604,0.0010694829,-0.075975955,0.08844834,0.11747542,-0.025567353,0.014285844
0.048421852,-0.015616241,0.05722841,0.00055151555,-0.06426685,-0.09576103,0.027930513,0.06017136,0.00061059336,0.045861617,0.040866744,0.036523446,-0.06812997,-0.02047791,-0.059852444,0.062087532,0.010077928,0.04121355,0.036140766,0.068617314,-0.02408543,0.050596382,0.06609829,-0.01699239,-0.01856076,-0.087992564,-0.03497374,-0.03547634,0.05945345,0.02266249,0.024524767,0.049961686,-0.08863293,-0.039341412,0.0689444,-0.052336305,-0.016744718,-0.07061998,0.004548317,0.011321095,-0.016861206,0.06315232,-0.06785016,-0.021351915,0.024916962,-0.0077438024,-0.046268042,-0.012625,-0.06649445,-0.015193182,-0.059020083,0.05717578,-0.024051137,-0.068824865,-0.04443719,-0.049304053,-0.05528416,0.09108681,-0.0015682612,-0.00502861,0.012145971,-0.06927142,-0.04726845,-0.042093497,0.09845169,-0.016576376,0.036054634,0.061382134,0.08468665,0.0010475155,0.078346595,0.059423402,-0.081728235,0.06876731,-0.0003932294,0.08797353,0.0031986844,0.08958624,0.03925594,-0.06684459,-0.061218377,0.05438053,-0.027363818,0.07442002,-0.023791317,0.037410397,-0.0150107145,0.059070174,-0.028961705,-0.03635305,-0.033099305,-0.054733038,0.010354264,-0.054695554,-0.025120463,0.07966301,0.05144021,0.009231818,0.06575882,-0.03580319,0.06883007,0.022592489,0.028619856,0.07238097,-0.06070492,0.063453086,-0.069467604,0.04135359,0.008716457,0.07531635,-0.031461287,0.07435383,-0.014991741,0.020408168,-0.020182943,0.0370453,0.033505205,-0.0038458486,0.07763406,-0.0035938988,0.078235015,-0.012930352,-0.06525246,-0.038013946,0.0016793387,0.011248458,0.022937868,0.02784365
0.044182766,0.03814694,0.010213346,0.012343921,0.029453536,0.027385557,0.039639276,0.018568425,-0.08503063,-0.06355298,-0.020387178,-0.01925995,-0.04752382,-0.030410968,0.013307173,0.08937259,0.098776944,-0.027250707,0.017052548,0.13470162,-0.04661524,-0.02446366,0.04991033,-0.0010035897,0.17922826,0.0057724756,0.05934537,0.06387649,0.026478667,0.06406182,-0.054425746,-0.03897035,0.10075855,0.036861997,-0.0054905736,-0.046802122,0.082385235,0.041425582,-0.039210446,0.08183804,-0.025086379,0.03131353,0.0118659185,0.039173227,-0.08681599,-0.0042374698,-0.027553447,0.13099445,0.016461037,0.081415996,0.04117222,-0.095495604,0.0026171117,-0.03278394,-0.055145595,-0.04371347,0.037177145,-0.049334317,0.08541593,-0.09909091,-0.0206627,0.024686264,0.071945,-0.0829583,-0.07513204,-0.010988749,0.015756302,0.08039758,-0.029918486,0.064238645,-0.07077504,0.010332269,0.06253444,0.03927238,-0.058827262,0.02107913,-0.040988397,-0.04695864,-0.041135464,0.03756665,0.01922764,0.0479116,-0.08044752,-0.0549876,0.011388685,0.082232654,0.024099091,0.05959001,-0.066074915,0.100059204,0.0496465,-0.0024561384,0.023618376,0.036978066,-0.029770777,-0.030944109,-0.053019516,0.044335883,0.099796824,0.0030373177,-0.073572576,-0.03020946,0.020107148,0.08526748,0.0383758,-0.007892053,0.051948823,-0.063438475,-0.07184148,0.10055937,-0.05578977,-0.02959728,0.054889392,0.091922425,-0.045548968,0.011360946,0.16468103,-0.03345223,-0.02161851,-0.02255531,0.072784275,-0.023556482,-0.0018440842,-0.01976572,0.010751678,0.043571793,0.08181988,-0.008936773
-0.036531035,0.055649564,0.04006539,0.11014437,0.04111099,0.057972435,-0.08958356,0.06764299,0.063093275,-0.06223685,-0.012077776,-0.07981611,-0.056975916,-0.08694535,0.049180526,0.09958519,0.02765885,0.100277334,-0.045849185,0.10630618,0.01723886,0.0060149613,0.073196314,-0.06582079,0.16268459,0.07028445,-0.028335001,-0.043556713,0.06888518,-0.03863381,0.024511915,0.030603617,-0.002110258,0.0034183504,-0.028863356,0.051981308,0.116045035,-0.014583344,0.03689581,0.015078001,0.055180077,-0.058322538,0.064519435,-0.036966193,0.03434879,-0.01806144,0.06037571,0.029035062,0.0011311466,0.015179341,-0.04577283,0.07154137,-0.033365183,-0.023428256,-0.029757084,-0.0014609091,0.08816658,0.07724316,0.14008768,-0.095660724,0.026023792,0.10049836,-0.070985846,-0.066862375,-0.030472053,-0.014960983,-0.03952793,-0.060012385,0.06318725,0.012382655,0.043373924,8.159587e-05,0.053068835,-0.041408543,-0.012726428,0.055435255,-0.08574211,0.06824936,0.065631345,0.007928089,0.02256377,0.046845183,-0.0392677,-0.015659044,0.025799751,-0.04876364,-0.070229836,-0.0045251087,0.060367774,-0.06862109,0.037116002,0.050900523,-0.09364991,-0.0019170506,0.0644323,-0.019783854,-0.031215597,0.048788257,-0.055185053,-0.010893879,-0.0005793227,-0.042583723,-0.06290666,-0.06374963,-0.035307616,-0.035309784,0.07566356,-0.056735206,-0.07878713,0.028181234,0.025252068,0.06314187,-0.06893057,-0.052651357,-0.042033,0.0485944,0.1576727,0.025597055,0.09173114,-0.0053181397,-0.02507087,-0.010494154,0.109674074,0.078289144,0.045149215,-0.062072817,0.05697498,0.06103162
0.081368744,-0.06496815,0.087752186,0.023963792,0.15864044,-0.04624587,0.064899355,0.02423216,0.17180502,0.06371549,0.06740393,0.012431431,0.050968044,0.3118211,0.039234735,0.019514918,-0.014536249,-0.00035459513,0.14573815,0.081978254,0.34530988,0.16758436,0.15148616,0.004079866,0.025840385,0.03686994,0.22174105,0.14938149,0.23934472,0.189261,-0.07127421,0.02980591,0.0054489505,-0.029236058,0.33537576,0.40098122,-0.026635779,-0.028303364,0.22450781,0.28353617,0.16920319,0.09216062,0.19313258,0.15350583,0.18172927,0.23444131,-0.019366644,-0.058877718,0.09495283,0.08661604,0.08355457,0.26390263,-0.004739575,0.03154438,-0.011649534,0.068880476,-0.023226984,0.07420785,-0.017789898,0.3090979,0.042094126,0.07423078,0.2677383,0.019747434,0.20184174,0.05019999,-0.05008434,0.11849415,0.14406796,0.038179107,0.27691963,0.16661637,0.04996603,0.03751674,-0.020081028,0.088583745,0.10392403,0.18011168,0.025100425,-0.016229596,0.19421835,0.29818672,0.05077452,-0.018783364,-0.07300701,0.07936791,0.18494032,0.10326831,0.12001695,0.025981605,0.0046285517,-0.016347928,0.025002798,0.04314787,0.04218171,-0.060628816,0.122865885,0.13717401,0.060667284,0.105463855,0.07616274,0.2961386,0.16405566,-0.013399286,0.0892546,0.13135058,0.02481287,0.0062357043,0.04057857,-0.05262478,0.0016861042,-0.02593465,0.015577789,-0.0053737033,0.14185339,0.07273324,0.084558345,-0.014923085,-0.038231604,0.0003668173,-0.0026771412,0.1487747,0.039327297,0.027312081,-0.022867957,0.19432488,0.013943929,0.04458234
-0.015937159,0.0013933079,0.05650173,-0.027310973,-0.0093530305,-0.051751025,0.037432432,0.033235267,0.03900692,0.034033358,-0.07981014,-0.009602765,0.016150724,-0.041126486,-0.009008791,0.06906433,-0.014512541,0.05407937,0.0846029,0.00053834333,-0.048388936,-0.0772999,0.03360897,0.005966903,-0.023995044,-0.073081575,0.051710293,-0.04445148,-0.056725476,-0.07547112,0.020540824,0.018302837,-0.03128054,0.046895366,0.07448213,0.10473894,-0.029162107,-0.09944828,-0.015258894,0.095762864,0.020661067,0.047189426,-0.06358389,0.09537149,0.006019653,-0.037290283,0.060729712,0.071040526,-0.066450335,-0.01756575,-0.08037252,0.07460759,-0.02337638,0.03817691,0.035952017,0.046449713,0.0033843303,0.0051625143,0.07014269,0.049341008,-0.011384024,4.9420636e-05,0.0843167,-0.070646085,-0.055768356,0.014855783,-0.014861084,-0.03464291,0.050861593,-0.041365974,0.069478914,0.06269976,-0.08240662,0.06491368,0.024659593,0.049207803,0.063870974,0.0914436,0.0700055,0.07199848,0.044315327,0.014426988,-0.057619702,0.03319857,-0.09597145,0.028257681,-0.0600062,-0.036710586,-0.0052079507,0.011319647,-0.06301696,-0.02783965,0.014729641,0.001678184,0.06399037,-0.06788332,-0.03307549,-0.07544388,0.078875035,-0.07724083,-0.017755212,0.08357554,-0.04824074,-0.062471822,0.08868583,-0.044169504,0.027148603,0.03264475,0.078011006,-0.031389598,0.04165976,0.03531444,-0.040286202,-0.09662514,-0.07043748,0.067850046,0.055678904,0.0551051,-0.034509428,0.013196815,-0.027252974,0.06171589,0.07567118,-0.044008438,-0.056739155,-0.064649805,-0.024224583,-0.07646681
-0.016826896,-0.07553404,0.050372276,-0.0059282198,0.019080846,0.04992498,0.051921114,0.03928027,-0.056794975,-0.007739791,-0.04678732,0.061726235,-0.06091005,0.07700911,-0.02577036,0.034375355,-0.03632139,-0.008809887,-0.064244255,-0.00056321087,-0.08337355,0.055172574,-0.046940178,-0.044077024,0.020162541,-0.0010978257,-0.015964953,0.0022156031,0.0039778384,0.012560655,-0.0892106,-0.034216974,-0.073899046,-0.0491576,-0.035812713,-0.035302002,0.066072255,-0.06633642,0.0035003321,0.044457946,0.019435195,-0.07523527,0.051416747,0.07110371,0.01914506,-0.042542864,-0.03924498,0.0024678176,0.027663682,0.057155855,0.049430855,-0.01656993,0.042116463,0.021809878,0.028637012,0.07206054,0.04207939,0.036644425,0.027087837,-0.06908633,-0.044665355,-0.008237521,0.029205518,-0.022630991,-0.06001154,0.055399332,-0.02825096,0.054705337,0.064112544,0.028017227,0.027436133,0.0062390566,0.04082189,0.024041802,0.073640294,0.071400724,0.028148822,0.060791448,0.014400488,0.06755819,0.042796936,-0.05056202,0.0025443328,0.006060118,-0.010817869,-0.056961037,0.048493475,-0.05932668,0.09093074,0.0031101261,-0.053930845,-0.0069550863,0.029984169,0.06632109,-0.043760568,0.022907043,0.024319045,-0.06769427,-0.022113375,-0.059131816,0.021507125,-0.076538496,0.00287775,-0.02100518,-0.05531876,-0.023265023,-0.070955575,0.050536554,0.05051576,0.008629192,-0.011494678,0.03163087,0.017745027,0.012845211,0.021140467,-0.062207762,0.025338963,0.06958257,-0.05209035,0.0019797836,0.07595236,-0.07466402,-0.0633132,-0.03810692,0.061971795,-0.016947972,0.06318839,-0.078145824
-0.08314296,0.046331212,-0.05886867,-0.019295752,-0.034733426,0.115001544,0.007086533,0.06851349,-0.048986997,-0.064191036,0.00044299575,-0.0013866596,-0.031213813,0.038473435,0.06781277,0.10965509,-0.021111678,0.08645569,-0.009896522,-0.028523691,0.02248661,-0.026973445,0.008122098,-0.07252109,0.12191492,0.02636513,0.042876232,-0.002633481,-0.064416364,0.041834887,0.026233852,0.014604275,0.06544722,0.10938364,0.010489581,-0.004863371,0.029273411,0.09932943,-0.011759171,0.038539026,0.066447265,0.06543396,-0.005302326,0.037557423,0.016171996,-0.033702105,0.013155815,0.12907985,0.029013349,0.002559047,0.014132979,-0.050375562,-0.052379873,0.026456866,0.091936186,0.039130677,-0.027518403,0.04421388,0.05911681,-0.054672368,0.11724953,0.0830819,-0.0791632,-0.023794465,-0.07828191,-0.031066002,-0.036088064,0.054932725,-0.062276237,-0.025456095,-0.019765368,-0.03018239,0.07354568,-0.06316381,-0.032983605,-0.052577063,-0.06504736,0.03579745,-0.072857924,0.041720886,0.04661811,-0.08144033,0.07518951,0.063064635,0.07854065,0.0069779824,-0.018079711,-0.005855463,-0.02984325,-0.048243,0.052481826,0.010387339,0.06800129,0.008975596,-0.060363483,-0.047800016,-0.08596079,-0.006261799,-0.059603166,0.021225166,-0.02478993,0.06272722,0.030163905,0.009626427,-0.058032874,-0.041747417,0.045204442,0.021346921,-0.059634745,0.041498646,0.10187952,0.06367296,-0.014234347,0.04227465,-0.08221847,-0.024341367,0.14385644,-0.020601327,-0.002532354,-0.043139566,0.008034002,0.060286418,0.12628606,-0.04771983,0.052641567,0.02723312,0.019703966,0.11795904
-0.051842973,0.02811022,0.018920498,0.07914647,-0.06934251,0.02842132,-0.016605102,-0.008651155,-0.023202436,0.022878813,-0.03639648,0.034544323,0.03585111,0.028979592,-0.07725349,-0.03407839,-0.0011682297,0.07777481,-0.036900725,0.06564938,0.07349804,0.006898468,-0.050684,-0.0044264593,0.053703256,0.004327441,-0.04474716,-0.0466114,0.07822373,0.039937664,-0.011532745,-0.058669627,0.040118445,-0.040247995,0.053931136,0.07778231,0.039440475,-0.006854934,0.025954673,-0.0008578833,-0.032004192,0.06634825,-0.039290268,0.042142063,-0.04911131,-0.086905666,-0.028051106,-0.0015321259,0.077526435,0.034934096,0.00529999,0.054516383,-0.037728548,-0.08242361,-0.07258036,-0.04197193,-0.011528576,0.009932056,0.060362123,0.08189494,0.0792269,-0.012164239,-0.050924126,0.018979523,0.07504123,-0.08898088,0.07751343,-0.023136236,0.075383686,-0.02131791,-0.057508238,-0.004710338,-0.06405296,0.07735815,0.036830593,-0.043113865,0.0040682657,-0.029218463,-0.0851243,0.068360165,0.021994954,-0.06840476,0.06313658,-0.082470566,0.0368541,-0.03952937,-0.04713368,-0.010425622,-0.011167271,-0.08426194,0.050164904,0.004932997,0.0048105167,-0.016973386,0.0014960163,-0.0406064,0.04600281,-0.0034712292,0.035390936,0.051957533,0.069677204,-0.046652623,-0.069334544,-0.0631052,0.037793625,-0.03627025,-0.034468047,-0.078208245,-0.049255863,0.08283345,0.044813626,-0.04986826,0.026203282,-0.06576348,0.06997036,-0.08633504,-0.020782636,0.062797904,0.0013090251,0.0022022212,0.06677524,0.024484765,0.08329093,0.0659461,0.022525856,-0.056946233,0.04322795,0.07709103
0.090284385,-0.05617469,0.03649148,-0.005244562,0.007072764,-0.00040020407,-0.014097569,-0.010763568,0.01562593,-0.028231874,-0.03547082,0.029670553,-0.04773652,0.06407623,-0.08163146,0.06313326,-0.022608303,0.0026442807,0.030349908,-0.08484575,-0.039824083,-0.06610516,0.05514965,-0.034024097,-0.04045378,-0.018063601,0.037844658,0.08942115,-0.034372825,0.07867598,-0.0007132884,0.04109431,-0.07147926,-0.04194421,-0.023750676,0.015087984,-0.0482259,-0.061410975,-0.063958734,-0.048785374,0.018567933,-0.07391524,-0.05090568,0.08870824,0.05131478,0.008558791,-0.060973063,-0.07049128,0.039009437,-0.040921208,-0.021741064,0.097287044,0.07966974,0.03776398,-0.07461377,-0.0016039751,0.026740162,0.029166732,0.03947431,-0.0019261083,0.04262002,0.045297835,0.06571534,-0.080901586,0.056127116,0.032008607,-0.08683607,0.04037264,-0.04841736,0.05497886,-0.022066154,0.07086118,-0.05170076,0.052351773,0.071654655,-0.006024922,-0.058900367,0.03429623,0.048522033,0.017878825,0.050685484,0.07729354,0.0575344,0.01708188,-0.008902986,-0.06401621,0.06275966,-0.04868669,0.08095583,-0.058492403,0.07287108,0.07232517,-0.038969517,-0.052571766,-0.04324252,-0.008657676,-0.046676736,0.057756428,0.012424776,0.08597226,-0.0069118342,0.07379533,0.015965344,0.07810614,0.046361797,-0.07261893,0.03635821,0.0791971,0.023761122,-0.024360383,-0.08375952,0.01759205,-0.083121665,0.08496704,0.023904769,0.023094233,-0.061619624,-0.019511925,0.03488464,-0.051672794,0.052358977,0.04883287,-0.07749623,0.08698003,-0.07574004,0.0056895516,-0.039934963,0.065553114
0.016653636,0.076208,0.057321396,0.022453118,0.07870355,0.0106808655,0.066284955,0.0016451195,-0.02638797,0.03056287,-0.057280067,0.07131803,0.019174196,0.19530903,0.11119913,0.043503363,0.06056985,0.08369731,-0.03384109,-0.012439788,0.16800854,-0.054782525,-0.055786815,0.028670104,-0.04065082,-0.058720667,0.14208004,-0.012456792,0.07352161,-0.047932006,0.030675594,-0.049131546,0.047045793,-0.028720591,0.091656245,0.038567405,0.07027107,-0.06445533,-0.016432846,0.15380359,0.0006763981,-0.010200523,0.12112918,0.057603087,0.14972238,0.113553055,-0.013703788,0.09438557,-0.062514596,0.10228534,0.045745626,0.113620795,-0.084684715,-0.036244784,-0.029979259,0.0049082814,-0.0060243295,0.057455413,-0.063303776,0.1581436,0.011194219,-0.04892192,0.061721165,0.08199147,-0.009653867,0.104117945,0.02642321,0.0055976287,0.026030954,0.098777525,0.15591165,0.103189014,-0.07578647,0.10896942,0.017981151,-0.014023167,-0.01423039,0.08605761,-0.008633858,0.067871496,0.035054766,0.07208118,-0.02200047,-0.086086266,-0.058159273,0.043155443,0.01276641,0.052707504,0.10367179,-0.0069824285,-0.023292696,-0.06628258,0.0041642343,-0.048667546,-0.013516655,-0.006003289,0.047849525,0.12181957,-0.03788399,0.05797165,0.060458682,0.057714276,0.08669299,-0.03695938,0.08610832,0.057010937,0.013376028,-0.077868335,0.060052097,0.07288946,-0.0538025,-0.034233745,0.00088707363,0.06491721,-0.0314191,0.094089784,0.09662033,0.09108016,-0.055026785,-0.03911641,-0.04798246,0.0049816007,-0.06909602,0.025468452,-0.009645665,-0.00094876817,-0.067507945,-0.06656818
-0.012483172,0.026586168,0.09071685,0.15088598,-0.038746264,0.15255365,0.086232044,0.02686171,-0.050045982,0.08312974,-0.06218756,-0.03301497,0.03802621,-0.019811464,0.043277923,0.08541155,0.041251753,0.12487626,0.013383646,0.14893712,0.077212386,0.03553702,0.024966236,0.08407148,0.2461285,0.095214844,0.059430566,0.020101817,0.04709668,0.024183273,0.13539825,0.042548895,0.0931115,0.19770734,0.005568015,0.045781597,0.25194606,0.15467812,0.013944902,-0.05565411,-0.09154814,-0.06916255,-0.056721922,0.09323655,0.03602921,0.0679819,-0.025638312,0.21717525,-0.0695735,0.08044292,0.12455535,-0.04594804,0.05543616,0.11482081,0.1643363,0.083712466,-0.015553939,-0.057165254,0.23797804,-0.058520775,0.12892655,-0.0050394586,0.06341345,0.09858829,-0.06262646,0.0712252,-0.0016966542,0.039581936,0.005610377,0.05602616,-0.077629425,0.06164193,0.0471787,0.053016618,0.090599515,-0.04128782,0.0370031,0.08531546,0.03235947,0.066997096,-0.08530071,-0.060734376,0.06637546,0.057518255,0.19743776,0.09409944,-0.018420128,0.115278855,-0.024562284,0.14158437,0.16794437,0.10746254,-0.049342245,0.15468985,0.10855507,0.14318033,0.004740709,0.024336345,0.11477417,0.07822214,0.026289687,0.042415008,0.02851426,0.0689019,-0.0040443693,0.033668723,-0.009288727,0.11047845,0.011568778,0.121501684,0.16251662,0.12037963,-0.037622385,0.10827296,0.061846487,0.07993654,0.26131457,-0.060715254,0.082745716,0.04211595,0.06377412,0.010783116,0.15051909,0.14032444,0.19677931,0.052737422,-0.05764579,0.07148708
0.063179046,0.10801154,0.030952316,0.11622668,-0.03205741,0.21930932,-0.035330594,0.094076246,0.065417774,-0.0025696638,0.035766233,-0.046842057,0.09654259,-0.052705593,0.051320996,0.0984257,0.22567344,0.13520367,-0.027044415,0.2725033,0.024253424,0.018575067,-0.04779406,0.058485243,0.4567819,0.17892605,0.06508626,-0.020493332,0.082072794,0.06271313,0.10631932,0.034794193,0.122475974,0.17894337,0.04295067,-0.024697987,0.31217676,0.33765775,-0.06955721,0.09595915,0.021642689,-0.059805684,0.007214321,0.07923857,0.010467606,0.0732639,0.0941623,0.33959854,0.08911717,-0.016060589,0.15740557,-0.016508188,0.089743435,0.08809569,0.088641286,0.057327706,0.10867094,-0.06208997,0.21270368,-0.022894815,0.29776156,0.14654803,-0.052243765,0.031932734,0.06212008,-0.00334365,0.007643102,0.0028582143,0.018068027,-0.006427737,-0.022554424,0.03974602,0.0860536,0.024962554,0.18218589,0.036292605,-0.059377752,0.007935968,0.12457989,0.11734513,0.018899595,0.0037483138,0.05899851,0.112583905,0.21959801,0.05195194,-0.039117623,0.10486649,-0.08120673,0.17501608,0.22456439,0.15639725,-0.061413687,0.07845917,-0.026580771,0.08444554,0.09320863,-0.039879654,0.21768506,0.11027905,-0.03331654,-0.081639774,0.027489278,0.10859993,-0.05956139,0.029462105,0.15705222,0.18643078,0.005589987,0.24350348,0.14191571,0.023146449,0.036664717,0.24097346,0.09593942,0.08246825,0.32483795,0.085991845,0.13110425,0.0010361783,0.03409068,0.017527103,0.3330236,0.13004956,0.21649806,-0.0049054236,0.009556743,0.23595749
0.016166894,-0.028174765,0.07141933,0.082576044,-0.029825024,0.007738251,0.012699714,0.0029608838,0.07651885,0.057612214,0.035393238,0.013187215,0.06637605,0.05382531,-0.021942163,0.036575574,0.06829888,-0.0046768226,0.04097006,0.07958709,0.08560356,0.07841856,0.06345827,-0.07214296,-0.0982162,-0.0040002326,0.088108994,0.0178851,0.021886667,0.009066501,0.011230041,-0.06132987,-0.0017192486,-0.026896708,0.04787995,-0.048970982,-0.071025506,-0.031801675,-0.058437947,-0.054587457,-0.009823388,-0.07764423,0.07165942,0.06928433,0.024210457,-0.052187294,-0.011753254,0.041023802,-0.027087754,-0.050421245,-0.07803043,0.089078575,0.041221384,0.07137364,0.003220536,0.08488085,-0.073303215,0.0043908157,0.04745146,-0.046062183,0.070131436,-0.042190634,0.060407296,0.048389845,0.036761455,0.011077704,0.0035890855,0.07942291,-0.010835692,-0.07393292,-0.015936859,-0.08428377,-0.07579918,0.047272332,-0.0756933,-0.04175011,0.016802818,0.013120339,-0.015771331,-0.03213736,-0.0647202,0.022244,-0.053757448,0.06876693,0.02602909,-0.02093511,-0.0057572974,0.06494418,-0.011972367,0.05082987,0.043201257,-0.07292375,0.058650758,0.07016453,-0.07262605,-0.020166641,0.0035365494,-0.037308954,-0.0027332634,-0.040644698,-0.07272702,-0.07419534,-0.0675378,-0.055335786,0.06210741,-0.07268701,0.082567245,0.06054386,-0.025206951,-0.04648401,0.075124815,-0.078760214,-0.055338737,-0.07256944,-0.061024327,0.027820116,0.030097442,0.009809422,-0.07078565,-0.04417878,-0.07760893,-0.0018152992,-0.024606187,0.0579113,0.004422512,-0.030239882,-0.0016748896,-0.060969394
-0.002266174,0.008909972,0.008282565,-0.06622382,0.058949757,-0.033321995,-0.0074438225,-0.030327868,0.020100972,0.046443913,-0.054576986,0.049551435,0.045151606,0.11610299,0.004549005,-0.0037096518,0.052725375,0.00607737,0.06334427,0.033290148,0.098505855,0.038262427,0.09429631,0.052088764,-0.030057965,0.029730482,0.1415689,-0.01862515,-0.001445746,0.060935993,0.04069825,0.086816296,0.0137751745,0.012484944,0.1619585,0.20277134,-0.031839427,-0.03916162,0.11575276,0.18614128,-0.023974488,0.083761,0.053365182,0.04030886,-0.006845612,0.019488154,-0.08001608,0.061781686,0.07636889,0.0670836,0.07839367,0.053924013,0.037794072,0.018605858,-0.04414308,-0.06946231,0.023897808,-0.024853326,0.029223047,0.1511518,-0.058681488,-0.085299134,0.11675161,0.07361655,-0.025599452,0.06884815,-0.00828694,0.0013155976,-0.02379453,-0.06954693,0.106006466,0.06192297,0.059534922,0.017902272,-0.026341846,0.002113497,-0.022617184,0.0027506878,-0.021097776,0.07719161,0.058514126,0.018788807,0.10521583,0.07901837,-0.029958894,0.0004705447,0.052456904,-0.009862129,0.07048763,0.013047307,0.024823137,-0.045209073,0.048161555,-0.08033903,-0.013514143,-0.04495681,0.13503054,0.052922796,0.059688188,-0.00020560311,0.05092457,0.19293134,0.045659266,-0.042535864,0.13523439,-0.03656257,-0.013389953,-0.018385448,0.0668147,0.0029987884,-0.024677081,0.0007527208,0.0733851,-0.06788058,-0.035115253,-0.016415605,0.069288716,0.08507102,-0.04917286,-0.07093799,-0.017900452,0.16611436,0.08138392,0.07787627,-0.06576926,0.021206092,0.08776399,0.02139542
-0.060166974,0.10188005,-0.017712954,0.07895457,-0.0061836303,0.1913752,-0.04599119,0.012362263,-0.08168345,0.052705113,0.087995924,-0.058853295,0.08865099,-0.018713417,0.07156472,0.06738953,0.1534541,0.06941867,-0.05648449,0.114202276,0.06646704,-0.0133086555,-0.0071080416,-0.050613075,0.19773024,0.18247472,0.015045272,-0.07256011,-0.02452919,-0.046714243,0.10977413,-0.042727247,0.006645205,0.14674114,-0.07419695,-0.0946764,0.17575203,0.16902359,0.0148557555,-0.022372128,-0.075032055,0.03601143,0.041719798,-0.00030038625,0.059815887,0.0536437,-0.06421534,0.22485618,0.049490135,-0.04088879,-0.03425616,-0.09340458,0.16213337,-0.01727397,0.11607543,-0.040994216,-0.0143229375,0.058742452,0.056697328,0.07948195,0.1759465,0.008387787,-0.015991105,-0.047705702,0.07209287,0.07799993,0.020998757,-0.031691857,-0.016103435,-0.009192283,0.06767608,-0.031093383,0.08164677,-0.031318326,0.1105951,0.03436795,-0.04933402,-0.06498739,0.0764242,0.064467184,0.060647145,0.085836306,0.08045155,0.0816111,0.14468849,-0.020734398,-0.0718948,0.0012139477,-0.08959382,0.05854435,0.1580551,0.13248354,0.05376999,0.093020156,0.030428814,0.031986684,-0.045599144,0.014622441,0.062040742,-0.029833833,0.012289719,0.062460184,0.018649865,-0.047648836,-0.08456,-0.044622086,0.008524519,0.10595277,-0.042054597,0.18357101,0.1287965,-0.013461007,-0.011908746,0.027099032,0.05889076,0.082315795,0.264052,0.037212126,0.038931858,0.06317975,0.027309159,-0.019704435,0.049526148,0.08088208,0.12526064,0.048186712,-0.073898554,0.004456952
-0.073732704,0.010334566,-0.08102135,0.044310197,0.03623508,-0.0043649194,0.07774431,0.073339954,0.03725336,-0.050579518,0.053657476,-0.08798942,-0.0035398644,0.053337313,0.013380522,0.0074719107,-0.010609842,0.08236126,0.006222449,0.013004626,-0.080680996,0.039902374,0.06348494,-0.07500237,-0.06693063,-0.056399748,-0.0447783,0.0089732725,0.034514237,-0.060946602,0.05170839,0.054292962,-0.010789937,0.070996806,-0.08545885,-0.004639243,0.037227724,0.08276732,-0.06708215,0.039737307,-0.0024189425,0.030415421,0.045057856,-0.0011435299,-0.0837176,0.049330644,-0.037610758,-0.03834097,0.0064918143,-0.012136307,0.003396071,-0.06939318,-0.076981954,0.065784805,-0.04713186,-0.03486371,0.0465846,-0.06885565,0.044993155,-0.032555494,-0.0038234815,-0.080716506,-0.014466595,-0.06346286,0.044757176,0.0211498,0.065078415,-0.07259607,0.010434306,-0.05991695,0.053115014,0.06956277,0.0031589454,-0.050015416,0.08211001,0.037959926,-0.04731017,-0.039605763,0.0060501387,-0.0616709,0.055551562,-0.049266443,0.01181183,-0.0038459508,0.054769434,-0.04161438,0.070306666,0.019394742,0.014205035,0.049560003,0.054584082,-0.05156546,-0.019405805,0.058791894,0.062088028,-0.042184856,0.035082303,-0.042737562,-0.013306859,-0.05692436,-0.021896599,-0.025464352,0.028694965,-0.0838854,0.058497824,-0.048697334,0.057867486,-0.035740405,-0.07566664,0.038706806,0.033612076,0.07491061,0.07361925,-0.035055842,-0.00379138,-0.06693964,-0.074787095,-0.016183404,-0.058156177,-0.05800656,0.040397882,-0.06980658,-0.03135416,-0.07573878,0.08129175,0.06267328,-0.036867045,-0.08379324
0.08091729,-0.026762405,-0.014721928,0.07110061,-0.025245892,0.08382043,0.035925813,0.001065703,0.04371173,-0.057471566,0.011735443,0.03004813,0.045267515,-0.012642137,0.018561402,0.0580146,0.04363496,0.14099702,0.033200957,0.120097004,-0.030092197,0.07502044,0.0004800954,0.0009947137,0.31107908,0.17341086,0.08368886,-0.07065838,0.016799884,-0.06798612,0.094339915,0.0067837816,0.0615591,0.1653958,0.0724509,-0.07026429,0.110919885,0.120887816,-0.00069339643,0.08260195,-0.022523561,-0.024135234,0.062984504,0.002525133,0.018310685,-0.060080558,0.104338534,0.12946118,0.07736763,-0.061500113,0.030613575,-0.060221482,0.14676046,-0.021334184,-0.024701918,0.12200295,0.015279234,-0.008715132,0.14577213,0.035560317,0.09018155,0.03048845,-0.0346726,0.098344184,0.040957425,-0.023630934,0.07165059,-0.03792645,-0.0011241855,0.04576617,0.05293286,0.0007535349,0.034279715,-0.07966924,0.027984692,-0.027321506,0.07905363,-0.004860344,0.021272868,-0.06274068,0.054405972,-0.056662884,-0.019095676,0.009293566,0.12940234,-0.02007781,-0.054012503,0.019233793,0.05853758,0.079429604,0.057060234,0.13931423,-0.0509061,0.024920935,0.09849607,0.09545315,-0.014178314,0.07067503,0.056301463,0.052998725,-0.0269206,-0.025311569,-0.0713536,-0.025617016,-0.084917545,0.058513686,0.06566465,0.10726618,0.024612688,0.13237622,0.09775929,-0.009518452,-0.06205151,0.17185976,0.0648352,-0.038582325,0.09348585,0.033701755,-0.0063854866,0.029656282,-0.013208944,-0.059602067,0.1821739,0.12899831,0.017875124,0.06289981,-0.05537269,0.056110334
-0.012665888,-0.059140407,-0.040410675,0.02412256,-0.019644657,-0.059713714,0.0032847298,-0.054588277,0.013643654,-0.034300704,0.0851522,0.07878013,0.010412494,0.059377402,-0.06686441,0.041512247,-0.05441657,0.07480122,0.048660092,0.0022623518,-0.038417805,-0.031963684,0.08346628,0.05708962,0.08090599,0.047256462,-0.07461545,-0.06635521,-0.06069245,-0.020827362,-0.016280582,0.0042393277,-0.015349792,0.0063242665,-0.05467485,0.014910215,-0.022998929,-0.029424319,0.055291716,-0.05955285,0.009078887,0.037941024,-0.053300653,0.036431976,0.0093820365,0.007917634,-0.07839399,0.008647584,0.05388379,-0.036837287,0.0401411,-0.090266295,0.083250016,-0.03510688,0.08778395,0.07963834,-0.077350974,-0.013445135,0.052317623,0.031266745,-7.446673e-05,0.06675304,0.00413092,0.08382094,0.07150433,-0.06009387,-0.08098289,-0.024407879,-0.08499874,-0.07131291,0.006925295,0.039307524,0.0797418,0.026171258,0.08280667,0.00403325,-0.008299325,0.06980004,-0.048229042,-0.039268363,-0.007513651,0.04899691,-0.07127608,-0.048879795,-0.010169847,-0.088172995,-0.053531475,0.00059262395,0.023215333,-0.011182131,-0.0084475055,-0.022740306,0.06667852,0.056096077,-0.04834983,-0.05665182,0.033194087,0.024488281,0.0014852284,-0.053066984,-0.041713167,0.07161471,0.007592048,-0.03982526,-0.06994519,0.034741566,-0.05652076,-0.07433156,-0.020745592,-0.028976297,-0.015917258,0.07555577,-0.064101435,0.057855573,-0.04865048,0.03159967,-0.030750008,0.016352758,-0.06976911,0.007409556,-0.08180585,-0.093295366,-0.05716166,0.08736031,0.06363357,-0.09126611,0.07732914,0.01871522
-0.0184429,0.066651374,0.015168136,-0.029467836,-0.06468852,-0.011189248,-0.0064115534,0.035229497,0.044419523,0.09066197,0.008272914,0.0101093715,0.068293706,0.06021381,-0.039574392,-0.024609625,0.04570645,0.10044511,-0.040139835,0.13475357,-0.078658134,0.07239476,0.031331476,-0.046557855,0.090982564,-0.030750541,0.025797695,0.0030417433,-0.062754326,-0.083652735,-0.016305944,-0.054761093,-0.069554344,0.09207685,-0.01235109,-0.067964636,0.13537404,0.08445567,0.0622269,0.05552969,0.051817086,0.032156564,-0.03236855,-0.052851073,0.053837154,-0.051437855,0.08079982,0.13518307,-0.036530126,-0.05313964,-0.024332726,-0.086001985,-0.005109603,0.024695769,-0.019513603,0.07792977,-0.01197652,-0.042355187,0.15002744,-0.036460657,0.1155307,0.10002153,-0.04669396,-0.07737504,0.086462334,-0.004249886,-0.038777556,0.013991361,0.0077288914,-0.08372555,0.049045917,0.057485864,-0.055037204,-0.01680296,-0.034628566,0.04638494,-0.017931053,0.009129065,0.045902513,-0.004041202,-0.053997636,-0.07323453,-0.04259289,0.07149074,-0.009750394,0.011281337,-0.08706966,-0.06937938,0.032961167,0.013315319,0.044845026,0.008692299,-0.008526619,0.08882239,0.047046483,0.03459672,0.011863587,-0.048598055,0.012498182,0.092039116,-0.020478481,-0.02707905,0.088166535,0.03676878,-0.068502136,0.07788665,0.037317883,0.032299362,-0.07786917,-0.0059256023,0.104687124,0.09146198,-0.026248192,0.036924224,0.055978168,0.08876042,0.089123935,0.038309082,0.028606832,-0.0776863,-0.061790373,0.007534621,-0.019671941,0.007700147,0.06134977,0.03420969,0.015970208,0.039307408
0.17492302,0.035796165,-0.01387232,0.025549058,0.26195064,-0.0606584,0.11909257,-0.0702673,0.10235786,0.1380203,0.11318558,0.124231115,-0.06009319,0.27634358,0.120801575,0.025175733,0.04225321,-0.043282207,0.051892556,0.044886813,0.15438901,0.11417969,0.01570325,-8.944844e-05,-0.008839257,-0.08016734,0.23605517,0.16704057,0.26052627,0.103298716,0.038334183,0.07135646,0.012554642,-0.00041110357,0.1917904,0.35303897,0.07183018,0.042288784,0.14923333,0.25569564,0.089059494,0.15720604,0.11220486,0.13418724,0.2253887,0.23627989,0.0009454598,0.055268273,0.047010697,0.0063906773,0.056447715,0.13558522,0.015908608,-0.064841956,-0.020329827,-0.014004847,0.109901436,0.085670054,-0.040380437,0.21874604,-0.037739586,0.094729304,0.20328997,0.11441914,0.21533549,0.024189414,-0.0738016,0.071638756,0.07625019,0.11258819,0.18679897,0.19045667,0.007449321,0.08988547,0.036009982,0.080944076,-0.004617986,0.010191053,0.023545403,0.020200804,0.18093352,0.2295963,0.122153856,0.014999044,-0.041805506,-0.012335147,0.08203619,-0.010588004,0.14739463,0.0037122415,0.0038274934,0.031331558,0.064616635,0.0788575,-0.03179308,-0.06686915,0.16510591,0.15678771,-0.056677528,0.050485533,0.037543703,0.29873,0.23161985,0.08045001,0.12426562,0.14779435,-0.032560978,0.02306783,0.07853019,-0.068318516,0.073299944,-0.007308433,0.068801224,-0.02458962,0.05026665,0.10730901,0.07400373,0.045680817,0.052835006,0.038430292,0.087192155,0.2282357,0.045242958,0.028872924,0.016080357,0.053384192,-0.00036538878,0.0025915743
-0.014545524,-0.024299724,-0.02109257,0.019431371,0.12102643,0.08847163,0.103766315,0.01215041,-0.06829575,0.0890616,-0.031266402,-0.063395016,-0.082566,0.123157404,-0.015334394,-0.088716045,0.013114999,0.00826284,-0.06926217,0.07068803,0.09928059,0.044268157,-0.054274876,0.018228505,0.002989985,-0.045699142,0.11516745,0.107474275,0.07187484,-0.041845508,0.030832581,0.032625645,-0.07382173,-0.008124077,0.1459919,0.009943689,-0.04445554,0.030516924,0.033764336,0.035116777,0.04416959,-0.00072218146,0.047771256,0.0005159862,0.12601015,0.11361978,-0.072773464,0.020982988,-0.07269229,-0.061293215,0.059006218,-0.0074683037,0.014704447,-0.057126995,-0.049900778,-0.06534735,-0.005898159,0.03282547,0.065801285,0.052391563,-0.0016170273,0.06343535,0.12428523,0.012359598,-0.04828211,0.03814863,0.0016158792,0.06559334,0.06542722,0.022355767,-0.01476245,0.105134904,-0.0433896,-0.04710475,-0.07889589,-0.06627034,0.050317302,-0.00036961844,0.04782506,-0.067035735,0.047220856,0.08886414,0.084238514,-0.07929914,-0.0012510682,0.01569441,0.06430776,-0.002867746,0.040237088,-0.018093564,0.0003020591,0.048251264,0.003252484,0.0748106,-0.044079166,-0.0010751312,0.028349238,-0.049691368,-0.018941028,0.007908217,0.012123676,0.1423694,0.07290891,0.088183925,0.06142914,-0.023341922,-0.054010674,-0.026453955,0.07919577,0.006477357,-0.03214335,0.04001638,-0.05183346,-0.070392914,0.08658582,-0.042140745,-0.05599912,0.07447055,0.060670517,-0.0059250225,-0.05032781,0.044704158,-0.0776999,0.0056121126,-0.05723219,-0.041722734,0.046958942,-0.09048394
0.09789549,0.024343217,-0.014412875,-0.016912188,0.06889493,0.035005406,0.03055313,0.033184163,0.042124968,0.03553883,-0.068990685,0.055801395,0.057605617,0.0761484,0.005023876,0.016291244,-0.041452006,-0.06734422,0.0011386953,0.05013554,-0.032304224,-0.029004551,-0.02931154,-0.004137133,-0.061421838,0.032420527,-0.032235965,-0.018356098,-0.06386139,-0.049941577,-0.011535633,0.086198136,-0.0013580391,-0.05145158,-0.011145216,0.0769552,-0.075166054,0.039248113,0.03525228,0.006890836,0.05487321,-0.0043748245,0.11074827,0.09670539,0.033614237,0.047291365,-0.044872038,-0.045531854,-0.053917184,0.024893442,-0.014248494,0.05961083,-0.021567723,-0.083135046,-0.033889912,-0.007968463,0.0035377669,-0.028242255,0.05991938,-0.033736333,0.057253405,-0.062223263,-0.04670664,0.06345659,-0.042183463,0.04528065,-0.057199463,0.017944437,-0.061354857,-0.05408494,-0.04311806,-0.039244406,-0.024814,0.041073237,0.020759236,-0.019682366,-0.059913695,0.03508431,-0.046750925,-0.032271296,0.10239808,0.10356263,0.07489918,0.0018950509,0.0053765564,-0.0056525306,0.009190007,0.028073896,-0.029981751,0.06098104,0.038869932,0.0040781195,0.06580071,0.034258015,0.070441335,-0.07741598,0.021214217,-0.051161718,-0.00777925,0.015111688,-0.04454739,0.085612446,-0.003968294,0.0032563896,0.003868046,-0.014399353,-0.019424366,0.070578605,0.08656613,-0.09311126,-0.05849752,-0.086530834,0.025033467,0.021232327,0.02552424,-0.016860463,0.018009337,0.02395247,0.0054277084,-0.07881049,-0.067704976,-0.026461978,-0.031415273,0.0067173773,-0.04819144,0.07744291,-0.051613312,-0.049561698
0.084647,0.03835425,-0.025117526,-0.00069375196,-0.040275376,-0.07134207,0.044972043,0.020538133,-0.0464801,-0.04341582,-0.07588418,-0.039694857,0.025170308,-0.016644806,0.016456334,-0.04672439,-0.053512406,-0.07602344,0.07864549,-0.020574642,0.10681234,0.007748865,-0.07117781,0.06952543,-0.051001456,-0.036868565,0.061200894,-0.015669854,0.072832555,0.050258517,-0.023555936,0.08009771,-0.037552547,0.0013166255,-0.059281345,0.09268694,-0.073616795,0.02244056,-0.021607647,0.08837641,-0.050456837,0.010178865,-0.06814755,0.036266666,0.02122448,0.0973199,-0.07794494,0.004216384,-0.061567992,-0.025280884,-0.051988747,0.032048885,0.002121127,-0.052173704,0.053825434,0.023371994,0.004643587,-0.072360896,0.00019502825,0.04884142,0.074924946,0.07887369,-0.010035558,-0.06686899,0.01869501,-0.055023033,0.023953177,0.024458593,-0.051301077,-0.024622517,0.008775175,-0.049992397,-0.06958547,-0.018764967,0.024645811,-0.071922734,-0.03993604,-0.050183676,-0.061558094,0.0052903164,0.0516819,0.063324854,0.07382973,0.042418636,0.016611274,0.04593284,0.055939596,0.082091875,0.004931664,-0.07183972,0.045142826,-0.036334377,0.065970436,0.0100151785,-0.0859753,0.04213259,-0.048462506,0.08634579,-0.044966478,-0.051159684,-0.008082143,0.10715587,0.024326025,0.058198847,-0.059036426,-0.0005738447,-0.027862031,0.057457425,-0.06400899,-0.013714126,0.03749308,-0.054555576,0.025031568,-0.03834363,0.029789183,-0.030837951,-0.040700752,0.048862375,-0.04329706,0.08590325,0.03912763,0.0110426005,0.009994902,0.045213252,-0.036962166,-0.0640183,0.032915797,0.07007698
-0.05410051,0.018687319,-0.013936852,-0.058700502,0.03961517,0.055532392,-0.060479622,0.012833237,-0.0397155,0.08697762,0.04378233,0.006561834,0.020305598,0.01316323,0.038691774,0.017902555,-0.049505718,-0.0034253378,0.07175312,-0.018683966,-0.06356602,-0.06181352,-0.004336541,-0.06609219,0.0022454588,-0.0047522625,0.04180906,0.046705842,0.013059168,0.08685173,0.016858203,-0.07852502,-0.0635527,-0.0011228392,0.015572424,-0.06849342,0.046276055,-0.017254699,0.0036809463,-0.056502398,0.03555035,0.029063903,0.05346175,-0.002346383,0.055124614,-0.0803308,0.009744787,-0.05678845,0.065299936,0.0065974644,0.057015486,-0.020684721,0.07346881,-0.01960897,-0.076422654,-0.0017119771,-0.051938888,-0.007401592,-0.019907685,-0.07357258,0.068849914,0.008112486,0.0649454,0.06725612,-0.0511572,-0.033157587,0.0698347,-0.042981032,0.05780783,-0.05433132,0.058971576,-0.08185764,0.028954178,-0.05498445,-0.039897498,0.031535827,-0.0028917105,-0.033547718,0.036572754,-0.0763958,0.032706924,0.09550401,0.0035480822,0.012934311,6.267356e-05,0.014695999,-0.0432549,0.0048968676,0.07569346,0.0234096,0.055214092,-0.028815208,0.083189346,0.033001553,-0.053977683,0.04550439,0.058287665,0.06683991,-0.028424496,0.01500177,-0.043270137,-0.07271467,0.048390288,0.05339895,0.091862135,0.015163753,-0.086581506,0.035793245,-0.0020087578,0.06636559,0.06699953,0.08145683,0.045323275,-0.019237528,0.04672078,-0.054476626,-0.094770774,-0.073259234,-0.0028306963,0.025896443,0.055226624,0.08813767,0.04445877,-0.07055902,-0.02755234,0.07656941,-0.024068382,0.07190611
0.047512006,0.033632852,0.032929346,0.05763261,0.056483768,-0.033320118,-0.029301386,0.07436279,0.019040652,0.015384114,0.07238784,0.09554805,-0.008511741,0.17875357,-0.006069599,-0.0136009175,0.05951547,0.050471123,0.038172368,0.037650928,0.10772314,-0.05185389,0.055543154,0.042902764,0.059679314,-0.06636835,-0.02138591,0.012492937,0.0156051945,-0.049687285,-0.03200875,-0.013983831,-0.06228098,0.069843136,0.041390814,0.062105313,-0.029791538,0.045592923,0.14833397,0.14046088,-0.035886556,-0.012782548,0.011303996,0.10872409,0.1402449,0.06188993,-0.04263087,-0.024226353,0.0181438,0.07022908,-0.07264661,0.15891124,0.047500912,0.016864903,0.04144876,0.04182804,0.08583005,0.06669621,-0.035441536,0.19983765,0.012568622,-0.09414296,0.09582369,0.040682096,0.13563125,0.102495536,0.034735814,0.0021292411,0.045003,0.08568016,0.15032925,0.13235748,0.045645595,0.016653845,-0.07086947,-0.014342694,0.08333598,0.028685145,0.046561997,-0.032112,0.075224414,0.1294478,-0.036620002,0.0020856187,0.016170813,0.05783659,0.08515549,-0.043716036,0.022474822,-0.041444756,0.03546176,0.06924868,0.010612784,-0.0067029474,-0.064493954,0.011558464,0.054548264,-0.006968483,-0.07463493,0.0129782595,-0.065658,0.18476212,0.111464866,0.016304472,-0.0019070779,-0.023824977,-0.044348896,0.0003058474,0.039483342,-0.0074492996,-0.04549095,-0.022223243,-0.010555091,0.025864055,0.03337645,-0.0050597643,-0.0748349,0.053201854,-0.051671848,0.07608189,0.057555556,0.14564888,-0.01649386,-0.06632306,0.048237674,-0.04273285,-0.0022179948,-0.055518758
0.07831437,0.07233385,0.01558409,0.04974429,0.075526536,0.023712296,0.06875165,-0.07445127,-0.071816966,-0.054519188,-0.070630796,0.04895415,-0.08271323,0.0014904413,-0.017373282,0.0071768467,0.07883737,-0.086325094,-0.082579106,-0.047399238,0.040661555,-0.07676312,0.0075790747,0.066273816,0.05149579,0.025505288,0.04098447,-0.03796278,-0.021090245,-0.011872747,-0.045527555,-0.008657164,-0.089198336,-0.032240856,0.055901214,0.11151584,-0.043572895,-0.078453906,0.053352617,0.032937214,0.0043431697,0.092658825,0.0077261236,0.024081986,-0.037850156,-0.051950894,0.054145765,-0.06392259,-0.0049413503,0.005095945,0.0694156,-0.055905864,0.015519043,-0.06874034,0.067641445,-0.08564637,0.06172876,0.02019273,-0.016155273,0.08423084,-0.06550248,-0.03331473,-0.015767053,0.07711553,0.040841702,-0.017534178,0.07478276,0.049088918,0.0013223747,-0.07909789,-0.028807571,0.07821286,0.062479895,0.06765335,0.05074134,0.07977044,0.039939694,-0.035768133,-0.08163039,0.0033688766,0.00926366,0.05575372,0.05562657,-0.06050931,0.020890122,-0.07607534,0.0903969,-0.07774344,0.06090052,0.027512154,-0.01582362,0.025302686,-0.057997003,0.028160429,-0.0036573624,-0.010506082,0.0309256,0.08607108,0.038937304,0.039333805,-0.005029487,0.05841133,-0.05065902,0.06008297,-0.05071585,-0.06195683,0.022754345,-0.03859512,0.004682917,-0.08617065,0.017996,-0.03690938,0.06889614,0.04581648,-0.029444132,-0.007512019,0.020003002,0.04687417,0.055287525,0.005102026,0.018206095,0.105803035,-0.053747583,-0.018466108,0.034608435,-0.028598564,0.07989117,0.046899807
0.04068527,0.016124416,0.085722916,0.11226769,0.026253229,0.3236252,-0.017716104,0.06997359,-0.05212465,0.124110475,0.040086962,0.089697555,0.1979419,0.021710442,0.0055829673,0.07112669,0.10960995,0.169864,0.111290894,0.1677967,0.014555691,0.097714506,0.022061834,0.0083069615,0.42542234,0.19578686,-0.038052533,-0.047008637,0.007971391,0.009875524,0.11248721,0.10591163,0.08749511,0.19933145,-0.025246482,-0.03051123,0.27658385,0.15143345,-0.07098677,0.11467352,-0.06528347,-0.049709417,-0.018214703,0.08537773,-0.0384323,0.0031027116,0.006531558,0.2363878,0.055524506,0.07244553,0.019842405,-0.03468,0.09845079,0.027989311,0.12695462,0.0018852531,-0.012809526,0.05822723,0.2777326,-0.005726566,0.23326261,0.036251754,-0.011943302,0.0049093547,0.012826124,-0.034695968,-0.018733142,-0.009732975,-0.06926154,0.038061213,-0.03422853,0.04500489,-0.029871346,-0.07792416,0.010192994,0.085747704,0.008919513,0.001379521,0.1211074,0.1121731,0.048598792,0.078449756,0.08240049,0.14544383,0.19070904,0.07599867,0.05731956,0.1173477,-0.06576128,0.021517599,0.057950385,0.17488116,-0.018203178,0.082231104,0.06551337,0.07079994,-0.049214557,0.07024446,0.058742624,0.09534263,0.059345458,-0.03445748,-0.052636273,0.11837125,-0.020500587,-0.0019523264,0.10847765,0.10910918,0.0666621,0.14366847,0.060882725,0.022907866,0.11859811,0.06591602,-0.013365992,-0.002126409,0.22738618,-0.0420966,0.09313891,0.14298287,0.11830923,0.049689986,0.116383016,0.16674227,0.10052868,0.036744785,0.08325322,0.22824894
0.01863351,0.072069876,-0.028529158,0.031753477,0.0741649,-0.023767013,0.0101204,-0.049058057,-0.055797856,0.06808971,-0.0470466,-0.058942847,-0.03878303,-0.008757122,0.036538575,0.03720898,0.041910984,-0.07545104,0.082181044,0.041933324,0.060595274,0.08503676,-0.07659828,-0.01020984,-0.079026595,-0.046763834,0.06666176,0.017116793,0.06399734,-0.048283357,0.02674953,0.009149354,-0.01467219,-0.033650268,-0.023663593,0.059884578,-0.06613287,-0.08857684,0.08376794,0.013336465,0.03770198,0.104436025,-0.059834257,0.04996903,0.004225105,0.10399963,0.016110906,0.009128922,-0.064596005,-0.0042694528,0.059975415,0.0008195335,-0.016123092,-0.003390831,0.08520922,-0.026514942,0.070182815,-0.06129744,0.042464536,0.010143965,0.03323598,0.06618248,-0.01288222,0.016620295,0.10527623,-0.052692734,-0.04126277,0.014855814,-0.04371602,0.065888226,0.080565505,0.035793614,-0.04697912,0.023070674,0.055464637,-0.009339495,-0.056617174,-0.030000305,-0.037096523,-0.00085468474,0.071582496,0.08061545,-0.069575116,-0.067158446,-0.08301482,-0.06349699,0.08378035,0.07420613,-0.034552466,0.051099066,-0.040160794,0.041336507,0.053248204,0.07532002,0.079747245,-0.08562454,-0.02941099,-0.018911595,-0.028744504,-0.08636201,-0.059668206,0.025169067,0.07650759,0.020718485,0.041357476,-0.07754323,-0.03136661,-0.0041127508,0.0019956748,0.0390174,0.00957684,-0.064909115,-0.025715023,0.051288437,0.03914906,-0.0413114,-0.013759301,-0.07172806,-0.052522458,-0.04009061,0.0841693,-0.035434406,0.03779583,-0.012202834,0.028345862,0.096680686,0.080373466,-0.06637751
0.07192208,0.1626701,0.19527449,0.18412727,-0.04041748,0.5249523,-0.041470956,0.21186788,0.0044478886,0.14635201,0.11934888,0.06765994,0.21666579,-0.02328617,0.0682335,0.16824657,0.2963883,0.2803401,0.090149045,0.36193442,0.04251563,-0.045941222,-0.042288624,0.08906443,0.72397864,0.28865752,0.037862588,0.012808672,-0.03312668,0.115378276,0.22720686,-0.035762493,0.18125097,0.36696285,0.031104464,-0.062092844,0.3511236,0.42500708,-0.022696558,-0.058455277,-0.08360992,0.06769047,0.007083443,-0.029019045,-0.054392584,0.071858436,0.026769817,0.3651328,-0.011380067,-0.0069796685,0.18516749,-0.055908654,0.2500395,0.11338602,0.25760543,0.08064259,0.029192634,0.116849214,0.33728126,0.057878926,0.3987374,0.26619473,0.06409952,0.09552596,-0.029715627,0.011686152,0.05979079,0.083733514,-0.062147263,0.102147244,0.047483854,0.018102618,0.103573,0.07374608,0.13832568,-0.019618483,-0.058771193,-0.02625358,0.15466101,0.13566911,-0.096015535,0.03397012,0.0976616,0.033793915,0.36328286,0.036930542,0.06417471,0.16701013,0.05885837,0.08432659,0.21184479,0.16972862,0.048059817,0.18816099,0.11078194,0.25126418,0.03117203,-0.029106852,0.2529532,0.032056537,-0.030211082,-0.045457214,-0.025240066,0.16783798,0.059993464,-0.044811342,0.17614186,0.13354115,-0.026001757,0.25767353,0.25870094,0.23995955,0.07171865,0.21427673,0.1053669,0.068712205,0.5525114,0.10913898,0.21101265,0.03166445,0.072852604,-0.039828938,0.379532,0.18911651,0.2921525,0.11033636,0.076336175,0.25904185
-0.008181933,-0.06515139,-0.05973411,0.018647226,0.00905352,0.06112585,0.05330544,-0.048137024,0.01416736,-0.05097795,-0.041388556,-0.017182894,-0.081411086,0.05689835,0.037766214,-0.057633843,-0.03263824,0.073109224,0.06808187,-0.0721603,0.029687185,-0.0696117,0.095017806,0.045498405,0.06874293,0.04789685,0.03951707,0.07237448,0.047264695,-0.0066117067,-0.08400476,0.025948564,-0.04564971,0.01501955,-0.007232769,0.04375634,-0.03561749,-0.02290932,0.003305501,0.13637403,-0.055114876,0.008098493,0.07262586,0.10812357,0.10617274,0.11998127,-0.07672759,0.05094922,0.065729454,0.03303178,0.08183628,0.008223829,-0.04664711,-0.0039439294,0.015262776,-0.016886352,0.026838692,0.07007234,-0.073678,0.1497389,-0.0889631,0.03937534,0.07339464,-0.070207,0.00447906,-0.06369534,-0.05099642,-0.045441713,-0.009358462,-0.05192311,0.07853834,0.07314889,0.0005292166,-0.019303164,0.072962776,-0.06413795,-0.0016595657,-0.0049414607,-0.08459173,-0.032283098,0.080556035,0.00061955035,0.0283802,0.012256223,-0.013476157,-0.066499926,0.05794936,-0.04073176,-0.054015163,0.020959537,-0.053649522,0.06571378,-0.033396017,0.06939505,-0.047861118,0.021623215,0.11951316,-0.057375636,-0.025012309,-0.06266528,-0.023121854,0.1357273,0.096488014,0.028853439,0.06404654,-0.010701065,-0.039001625,0.079378136,0.0045170262,0.0045275935,0.03347289,0.0069567226,-0.048700858,-0.025269615,-0.009870558,-0.045431003,-0.026676409,-0.08094595,-0.08553746,-0.0636066,0.029783167,0.09971661,0.0615367,0.007433185,-0.048729133,0.016053664,0.028781727,-0.063651204
-0.05275888,0.066249125,-0.045440562,0.07279946,0.02763964,-0.06878893,-0.031728633,0.06148794,0.020308746,0.05230244,-0.012902745,0.058134772,0.00068254734,0.17508778,-0.053826205,0.009356427,-0.0019690262,0.037241805,0.04315079,0.08667208,0.033930305,0.09131157,0.11328469,-0.027968246,-0.06436986,0.03652331,0.14911935,0.050473243,0.049952224,0.059374075,-0.053180948,0.09372111,0.07876904,-0.08764966,0.12625736,0.1868078,-0.014738953,-0.022009775,0.15136972,0.105597876,-0.024212936,0.07020268,0.13537197,0.036336124,0.007929749,0.11137042,-0.057878487,0.030598767,0.068421,0.08653252,-0.07952885,0.07731446,0.06855188,0.012642506,-0.07986447,0.02672173,0.04717439,0.10610534,0.02433669,0.22701597,0.060590014,0.07772284,0.051229786,0.101959825,0.13723938,-0.021745866,0.015235621,0.09057413,-0.0024674605,-0.053310852,0.12381465,0.1596438,0.0019754418,-0.045608178,-0.05638369,-0.055092227,0.0577521,0.08740893,0.023029948,-0.060958326,0.0171037,0.17754586,0.081361935,0.039798103,-0.03397471,0.0024164806,0.071798265,-0.03184249,0.08330413,0.07500327,0.05152583,-0.06004491,-0.031233845,0.026200365,-0.053598903,0.06333358,0.12604992,-0.019149447,-0.007201137,0.040397886,0.033532303,0.15488952,0.06836882,0.02178992,0.019222781,0.03151469,-0.08669244,-0.055188186,-0.011677485,0.068202205,-0.004360886,-0.058446344,-0.07792258,0.044659585,0.069864064,0.062343296,-0.02251297,-0.027117256,0.00323253,-0.025776075,-0.00470109,0.015508245,-0.033277124,-0.044634484,0.040046103,0.009160163,0.08166432,0.05553439
-0.0051370063,-0.022815706,0.08373088,0.03982277,0.027141387,0.035266697,-0.031989068,0.007812297,0.053795464,-0.040704187,0.04915794,-0.08277798,0.05498896,0.04414101,0.06908076,-0.019175736,0.056834184,-0.06626425,-0.055536337,-0.07636182,0.054170527,-0.05562733,0.09371545,0.07477895,-0.011943747,0.031227626,-0.039431907,0.06968056,-0.053750627,-0.077655464,-0.05274612,-0.07730007,0.011312942,0.0538391,0.10997714,0.03976865,-0.0647302,-0.044905175,0.031179579,0.03788008,0.055971906,-0.044290066,0.07089358,0.094786115,-0.009280869,-0.0012795544,-0.08676943,-0.0077539627,0.07570256,-0.06509171,0.0053425855,0.0799254,0.00837144,-0.04378907,-0.061560474,-0.056647625,0.083942086,0.0121895205,0.03919758,0.12724976,-0.07100497,-0.009243968,-0.051243626,0.032390665,0.07965898,0.02403736,0.03984495,-0.03255922,0.096179225,0.070605315,0.10785963,-0.009753442,-0.05051403,0.05574236,-0.083791785,0.056009363,0.09165357,-0.014750726,-0.039368425,0.032947794,0.021092035,-0.03372718,0.022835733,0.022389023,0.010191213,-0.009447956,-0.0041520763,0.02421056,-0.010774697,0.007863498,0.01857581,-0.022791427,0.004223341,0.06476915,0.06688812,0.050017025,-0.065965325,-0.027738282,0.0693058,0.08064382,-0.0037594922,0.07017045,0.036525305,0.078609675,0.0043349545,0.028725982,-0.018211791,-0.029152047,-0.03700725,0.043923255,0.032380924,-0.0553659,0.07107616,-0.029108254,-0.038983956,0.010723561,-0.0006730886,0.009856014,-0.0838517,-0.053592272,0.08445516,-0.014557489,-0.01666279,0.030161953,0.07131699,-0.03170636,0.062723055,-0.019868735
0.06658886,0.017627785,-0.071677454,0.016777558,0.083915465,0.06382349,0.028989164,-0.0183597,0.035141252,0.081014894,-0.08199324,-0.050391875,0.030302841,0.057673756,-0.040336557,-0.074977964,0.029452031,-0.049661767,0.0386492,-0.00996981,0.016610136,0.08840184,0.045348357,-0.049142677,0.018615251,0.030573634,0.015728617,0.029958049,0.004875045,0.006103867,-0.025978234,0.07294359,-0.07334972,0.059406716,-0.030851964,-0.021320269,-0.026601192,-0.05391372,0.0020420835,0.036871158,-0.028358709,-0.058541965,-0.008426752,0.030732077,-0.0347721,0.113897204,0.032398067,-0.086181216,0.01599187,-0.06697007,-0.028794108,0.013354314,-0.014493567,-0.08774211,-0.04778957,0.052857306,-0.07193255,-0.05102358,-0.026498972,0.080584966,0.01669903,0.04002508,0.10331217,0.06497165,-0.049928047,0.056817885,-0.06595496,-0.0328314,-0.03679683,0.08501412,0.08391314,0.067539014,0.044674058,0.009364788,0.05275022,-0.016696204,-0.028360918,0.012960759,0.027160287,-0.004330281,0.09573458,0.09030033,-0.04071104,0.028376121,-0.08530445,0.029961491,0.07857749,-0.07963143,-0.05199595,0.036914136,0.07740969,0.029255237,-0.074183844,-0.01718438,0.043728232,0.0060654576,0.04036461,0.057338417,-0.07814082,0.03226749,-0.013159005,0.01791527,0.0026602726,-0.047326036,0.023202924,0.07156258,0.043589193,0.022192815,-0.01997142,-0.07459017,-0.067529574,0.03507812,-0.045610312,-0.0142089855,0.044270273,0.011077659,-0.049350902,-0.0036696028,-0.08444945,0.08603297,-0.03346016,0.10487847,-0.0043135923,0.005088064,0.043237407,-0.00634232,-0.04738318,-0.024354057
0.07689496,-0.08881861,-0.08318838,0.08101045,0.024148082,-0.03547319,-0.068128735,-0.055480357,0.05638495,-0.06946011,-0.028327214,-0.030480385,0.04632309,-0.044988394,-0.0802455,0.0739606,0.0052583804,-0.05837746,0.011394687,0.0086783,-0.05524948,0.002160088,0.018039213,0.04240123,-0.034755964,0.045894388,0.027556216,0.013319479,-0.03515059,-0.013323235,0.0040939753,0.0705982,0.07850414,-0.07096641,-0.054199774,-0.057810567,-0.043948688,-0.0020777425,0.055203278,0.08520292,-0.035517674,0.03114018,-0.04167688,-0.018439824,-0.032102846,0.027574845,-0.03214521,0.058647513,-0.012619037,-0.046605233,-0.052945923,-0.061491508,0.080564395,0.060123395,-0.049920563,-0.0893098,-0.059416723,0.045314945,-0.07014681,0.079124115,-0.037358806,0.034780987,0.03904221,0.056569465,0.077194035,0.017263047,0.01966762,0.070012726,-0.023325933,0.0070348675,0.0064895707,-0.0020003074,0.010647866,0.03891385,-0.08824465,-0.050014015,-0.07024512,0.04750502,0.07014364,-0.046549447,-0.026800638,-0.00941019,0.022492828,-0.06147427,0.05714954,0.021833265,-0.013260648,0.03868134,0.013723923,0.01449298,-0.06327453,0.06295325,-0.07018002,0.022731435,0.06561159,0.06307801,0.023663085,-0.020027006,-0.0007604505,-0.04707135,0.010134875,0.0056158155,-0.07385316,0.06394713,0.056630757,-0.034075126,-0.007837248,0.017027402,-0.022080341,0.029959949,-0.016103812,0.055381652,0.047658406,-0.012602586,-0.04885693,-0.03272659,0.028465208,-0.06106549,0.071399204,0.061733678,-0.0016780299,0.09362624,0.055183504,-0.024278041,-0.0105969785,0.08936519,0.04137227,-0.025423167
0.06719403,-0.045190472,0.03525617,-0.013687345,0.13119191,-0.05127596,0.07391984,-0.024919577,0.025696851,0.056729313,-0.06337616,0.044099234,0.07808892,0.13293275,0.045497578,-0.08331394,-0.031324483,-0.045421317,-0.0042868503,0.036991775,0.049965017,0.09528284,0.026579455,0.08244,-0.059094444,-0.08563061,0.10166049,-0.043594263,0.07561431,0.08212937,0.028017387,-0.058693144,0.033129107,-0.045962486,0.0473778,0.15373124,0.0010732831,-0.014810728,0.04524091,-0.0128880935,-0.015999585,0.057196885,0.03185742,0.08783369,0.036396924,0.036138095,0.050557923,-0.031151399,0.083074085,-0.0060844733,0.017548945,-0.0074635237,-0.022643194,0.010941959,-0.062241398,-0.042439967,-0.01770075,-0.05072988,0.07827257,0.19458957,-0.040631343,0.06522281,0.10600734,-0.005042898,0.09932541,-0.0357937,0.010815196,0.052412648,0.05477316,0.026365705,0.08084642,0.008063438,0.082261935,-0.05780228,-0.078589275,-0.010148642,-0.012858586,-0.0027601707,0.080293864,0.030813057,0.014431538,0.11262698,-0.052907206,0.060182318,0.061612234,0.0481883,-0.014027925,-0.05527841,-0.020869222,-0.044809453,0.043530546,0.032853015,0.045978587,-0.047215044,-0.06582061,-4.4581993e-05,-0.006309677,0.09384003,-0.050312746,0.05262661,-0.013948955,0.114572816,0.12753607,-0.065499924,-0.043209374,0.08950349,0.03693331,0.008957208,0.07828233,0.0824841,0.030837798,-0.03672429,0.08879687,0.014869417,-0.05292427,-0.015984336,0.07212226,0.07014746,0.04724934,-0.076185815,0.03519432,-0.01881292,0.0006713233,0.05212099,-0.050076097,0.041713327,0.020543545,-0.0009892321
0.08328314,0.04249089,-0.047969077,0.062054127,-0.021836894,-0.05420128,0.08138907,0.05665066,0.07770716,-0.0009833163,-0.08709235,0.07404458,-0.067658305,-0.061252568,-0.0027150463,0.0032096212,0.03742393,-0.014987788,-0.080630295,-0.013173537,-0.019757194,0.030413328,0.047419652,0.017101094,-0.057789117,-0.06928929,-0.08505615,-0.030031411,0.0310564,-0.06949182,-0.041703604,0.08834293,0.007347156,0.027070658,-0.0113397185,-0.04226525,0.020313427,0.030763559,0.079669006,-0.065349385,-0.07949106,0.011489383,0.027680863,-0.03213439,0.024620397,-0.022540892,0.0016440394,-0.034694925,-0.0022042426,-0.006884153,0.08050386,0.072655275,-0.08292054,-0.05521299,-0.035921678,0.039116513,0.014799224,0.05750252,0.06274839,0.066482626,0.00042637027,-0.04025289,0.02755821,0.05839122,0.038987227,-0.034585495,-0.040588714,-0.019894643,0.04817109,-0.01965806,0.054805346,-0.026335593,-0.038141258,-0.0029999681,0.0028752864,0.015348936,-0.025481516,0.08248087,0.058274657,-0.07402062,0.027447907,-0.05374874,0.041093178,0.07984788,0.05743202,-0.002741695,0.0061462596,0.033942655,0.07504176,0.013454699,0.076392315,0.04459691,0.088993326,-0.06731714,0.07526568,-0.03643214,-0.053627264,0.0069430135,-0.030452378,0.037922446,-0.015079216,-0.01967935,-0.044183612,-0.07517553,0.06934496,-0.04907135,-0.059891284,-0.07285127,-0.045366477,0.053489994,0.030348554,0.032621548,0.07535523,0.07150935,0.04452072,0.0033621998,-0.013431109,-0.060218576,0.059392855,-0.028342681,-0.05360784,-0.046198927,0.03222992,0.0046678926,-0.014790558,0.0027394393,-0.04662192,-0.045770105
0.06784272,-0.04459589,0.020095494,-0.0887936,0.013506118,-0.028964426,0.037790332,0.035685457,0.09251449,0.04425751,-0.027984295,0.035564605,-0.035299983,0.12369375,0.08523956,-0.08734383,-0.033353586,0.029999105,0.053838603,0.018455228,0.030751888,-0.061607126,0.0035929095,0.059406403,0.016154686,0.014119768,0.0677639,0.105014846,0.0027691596,-0.040740583,-0.05058927,-0.07125452,0.04120835,-0.0032283987,0.07293391,0.108005635,0.07073087,-0.063697554,0.012240146,0.15736446,-0.044517286,-0.0043012737,0.0099586835,0.07086504,-0.039762378,0.1274269,-0.052635927,-0.008256407,-0.03742658,0.006930616,-0.090135135,0.14846225,-0.088643216,0.07474547,-0.04506803,0.00050274195,0.06268871,-0.062452614,-0.020832855,0.08202021,0.075146504,0.056282807,0.06731298,-0.06755322,-0.037859816,0.025487654,-0.09021496,-0.040059116,-0.04519229,0.017923096,0.14726117,0.10206079,-0.023660168,-0.0033301902,0.037009418,0.07127939,-0.03561872,0.049420998,-0.05302793,0.016977396,0.110940136,0.14239874,0.0014081346,0.059654817,-0.06314124,0.05705536,-0.016186537,-0.015896428,0.02862483,-0.035928614,0.05011105,-0.0047461055,-0.04426109,0.029024797,0.016631454,0.009941898,0.034187716,0.095878325,-0.04802392,-0.030340891,0.0043308875,0.15793224,-0.021800943,-0.0885441,0.07393083,0.0257094,-0.06627638,-0.08319646,-0.061515052,0.04373563,-0.032943945,0.056617532,0.043433063,-0.060231242,-0.08003728,-0.045967296,0.040247433,0.0050407522,-0.054326773,0.022794642,0.019480592,0.02060174,0.0682819,0.011372928,-0.026133278,0.08423205,0.05573342,-0.0754574
0.04382637,0.07760499,-0.022907853,0.07946259,0.1003592,-0.07555045,0.030352615,0.062663175,-0.05638781,-0.018528832,0.089809336,0.038777936,0.0601455,-0.01625355,0.081730306,-0.04262281,-0.036061373,0.08758155,0.059331108,-0.051494848,0.036995772,0.06531411,0.038751908,0.027564833,-0.01933219,0.026173614,0.068581685,-0.013789538,0.061823007,0.008814318,-0.03689811,0.074202076,-0.051032107,0.06379833,0.12010095,0.021319004,0.04338292,-0.055517625,-0.010002513,0.14465071,0.016520461,0.10565333,0.11691933,0.001584094,0.057100654,-0.0023375049,0.08310177,-0.05098842,0.060349267,-0.037715334,0.07074572,0.061496526,0.026043966,-0.0031843276,-0.021105336,-0.07458759,0.021392655,-0.028515572,-0.07632317,0.013914855,0.03303378,0.07413299,-0.023365038,0.05003514,-0.0013596498,-0.06749073,-0.022880524,-0.0015126987,0.06562981,0.038679607,0.062804595,0.0070186993,0.080522135,-0.041030005,0.06576619,-0.05142834,0.033652302,0.062782206,0.061819617,0.042993844,0.11597217,-0.021743648,0.034370996,0.032441184,-0.056353908,-0.013710159,0.02043268,0.00019554238,0.044069465,0.054024037,-0.059637252,-0.062573895,0.057775754,-0.04773759,-0.023124078,0.074039474,0.12679283,-0.059737284,-0.06398006,-0.027916418,-0.0068389974,0.038161255,0.08442763,0.07155806,0.04124294,0.100281075,-0.012614782,0.08691092,0.08403935,-0.009521909,-0.05423728,-0.017803738,0.0040625073,0.06730925,-0.012001351,-0.054018874,-0.050263334,-0.00217693,-0.040920604,-0.049579497,-0.03674011,0.031377688,-0.038642984,-0.02342896,0.025626684,-0.0052001784,-0.03434382,-0.052379128
-0.03279748,-0.032416847,0.07206186,-0.0065049776,0.12762104,-0.03200734,-0.008108738,-0.06290384,0.013379126,-0.040632933,0.10066256,-0.027152952,0.058676716,0.20104496,-0.05343423,-0.048722576,-0.038325682,0.09959696,-0.004974289,-0.026564868,0.05550142,0.052923314,0.0029267974,-0.040050674,-0.028692195,-0.0302936,0.040490825,0.07782792,0.0927035,0.02910845,-0.029857552,0.06579645,-0.03963052,0.05303421,0.04621226,0.2098382,0.10073514,-0.007932224,0.06875336,0.11401225,0.1317096,0.058047585,0.15116383,-0.024066659,0.14896998,0.12656163,0.03332767,0.040866666,0.04356563,-0.060710054,0.08659478,0.11973891,-0.024192655,0.05941778,-0.07705147,0.00092167815,0.031290263,0.08174873,0.036655843,0.20368357,-0.063153945,-0.012074342,0.017661564,0.031220386,-0.008008559,-0.028566023,-0.005410032,0.0051644775,0.060632236,0.064540155,0.10478913,0.14391427,0.011389438,0.11133064,-0.041019976,-0.0047730072,0.110126816,0.08814402,0.07093673,-0.07660966,0.016772572,0.103511296,-0.025049817,-0.028819535,0.049039077,-0.004455011,0.026677145,0.035546385,0.053850207,-0.005334803,-0.010591319,0.007903384,0.009855195,0.07268999,0.01828453,-0.046002902,0.14222346,0.021977063,-0.05591864,0.023662979,0.036875937,0.14711256,0.10473337,-0.045443777,0.058262043,-0.025796492,0.053203736,-0.012960836,-0.052641116,0.061808273,-0.0659615,0.042395566,0.08663991,-0.030836932,-0.065452345,-0.05960644,-0.048864957,-0.06267024,-0.03860761,0.03983377,0.046975918,0.11902795,-0.0070214425,0.09250453,0.08291839,0.1201116,-0.05447504,-0.078317575
-0.06816733,-0.005431034,0.13697591,0.1737941,0.07783757,0.2806853,-0.009885744,0.11819376,0.08079121,0.06881434,0.0006086668,0.08877835,0.1581391,-0.046296533,-0.04278044,0.19409846,0.18477926,0.16470043,0.07956837,0.20792575,-0.06569414,-0.0057629603,-0.024639813,0.111764714,0.41028163,0.23901188,-0.01687009,-0.04889084,0.028797114,0.008328104,0.076167524,-0.03525739,0.063163646,0.2469644,0.09275307,-0.042493384,0.24968578,0.25120255,-0.046931427,-0.037374496,-0.06866892,-0.056173634,0.051755823,0.04388265,0.006642899,0.014620693,0.037785795,0.24148479,0.01307877,0.08064392,-0.002178683,-0.07185727,0.085557275,0.051330626,0.17145942,0.0052254447,0.13165918,-0.008780678,0.14949813,-0.028258279,0.18685536,0.026138756,0.016082102,-0.026200362,0.054868385,0.055013433,0.14146821,0.10567623,-0.011468798,-0.011861381,0.09113649,-0.0038183974,0.032720506,0.086670816,0.08724884,-0.050613772,-0.018132132,0.0027592236,0.14677982,0.012622968,-0.076210186,0.06648424,0.0905098,0.14092636,0.25632638,0.12916379,-0.06790024,-0.0004088082,-0.052912917,0.06360772,0.17186703,0.14787571,-0.0027048339,0.104831845,0.008969714,0.14577986,0.00543744,-0.05206369,0.19004032,0.007241629,0.013173744,0.018440863,0.03951998,0.09144035,-0.0041809995,0.06625671,0.03822344,0.13348477,0.104756795,0.19469753,0.13865852,0.08151619,0.10028587,0.15736729,0.056954194,0.09604614,0.2751225,0.076324776,0.07501044,0.052724108,0.110510424,0.013486017,0.2721803,0.12657827,0.0804822,0.05370514,-0.0005152039,0.19397607
0.02188403,0.097911425,0.014069073,0.037631493,0.090244904,0.15642656,0.051601786,0.13637777,-0.011447655,-0.04124816,0.07861989,-0.03271664,0.012179293,-0.01240437,-0.061730623,0.13310465,0.081300735,0.023910813,-0.00085719826,0.18425648,0.008634005,-0.036387034,-0.077408105,0.033788264,0.21860555,0.043877345,-0.06552799,-0.026640425,-0.017257301,0.018318681,0.11162645,0.08255116,0.11239877,0.11558925,0.06373547,0.100986056,0.17905042,0.19303937,0.0015811237,-0.02855035,0.029059503,0.018616328,-0.036596313,0.027876085,0.024545027,0.09766065,-0.01552095,0.20873326,0.0027629496,-0.06633056,0.005061561,-0.049592257,0.09296364,0.078378744,0.12685467,0.0026756856,-0.02780226,-0.021854434,0.22122958,-0.039315015,0.11073918,0.14021318,-0.021462388,0.050287973,0.018993745,0.06054307,0.05827123,0.025207419,-0.06842169,0.04104267,-0.036567166,-0.032987814,0.07362244,0.06774953,0.12629026,-0.06894648,-0.043562416,0.02146533,0.040377907,-0.06035379,-0.03567931,0.03810897,0.0053328574,0.04892156,0.13665386,-0.050432537,0.0792574,0.12272561,-0.044888034,0.054704487,0.17015891,0.12917511,0.0042074444,0.053227756,0.11374196,-0.001026941,-0.056066528,0.044077404,-0.006250218,0.0678225,0.016081162,-0.054889347,0.0009215013,0.042403076,0.08115125,-0.053423062,-0.013792471,0.009442114,-0.040779658,0.07857057,0.05359704,0.024742452,-0.061992314,0.05281954,0.0023769059,0.01675515,0.26855487,-0.06505166,0.09934515,-0.007993394,-0.04051951,0.037139,0.21309377,0.051709853,0.043278825,-0.0058827205,0.0728055,0.009323507
-0.03983637,-0.03868652,0.08993845,0.11072287,-0.055796646,0.25890073,0.03854675,0.10601825,0.0465126,-0.048316717,-0.019834695,0.07852219,0.17840238,-0.010048277,-0.053787664,0.18048768,0.1518817,0.072245,0.0779296,0.20199567,-0.0217805,0.00016396152,0.027108068,0.08149754,0.41908824,0.22167657,0.042586215,-0.0346837,-0.007901282,0.1025361,0.08840152,0.08004596,0.06540306,0.13809435,-0.030770585,0.0026877974,0.19790158,0.25388974,0.005728178,0.01856053,0.008970622,0.06646309,-0.009564596,0.06873173,0.085393295,0.0029782534,0.055712458,0.29035744,0.05331136,-0.011934634,0.0042689587,-0.057551913,0.09789497,0.020050693,0.18569967,0.11879125,-0.012029552,0.0837326,0.2574157,0.063366376,0.2553676,0.009794466,-0.035501298,0.11599208,0.043553542,0.074260294,0.1150315,-0.041524097,0.041088853,-0.059374344,0.011873935,-0.02261387,-0.043581158,-0.03137409,0.15757479,0.11005825,0.0120619405,-0.018287484,0.10106576,0.060306277,-0.030598426,0.031182615,0.08980583,0.117286526,0.2429346,0.05473727,0.05048905,0.11947528,0.06190002,0.108160235,0.1959341,0.018716393,-0.0660812,0.15492602,0.07576251,0.17929518,0.020273322,0.08362041,0.1876573,0.05621649,0.061599344,-0.049131393,-0.046453554,0.13213366,0.02506054,-0.06667166,0.16296232,0.021386148,0.008159164,0.12747149,0.18419668,0.061651565,0.038520645,0.11294443,-0.026724357,0.008640434,0.33456856,0.0780753,0.17921276,0.037060134,-0.020472093,-0.0560704,0.28317136,0.0662601,0.17426264,0.07987341,-0.05832571,0.08287389
-0.01614234,0.082140684,0.033262346,-0.014328459,0.06242885,0.08003615,0.024543546,-0.048021045,-0.027871273,-0.0099225985,-0.056557376,0.08389487,-0.021032577,0.03929275,-0.047090564,-0.049331475,-0.05230658,-0.074286476,-0.040384986,-0.029478962,0.04691613,0.0462749,-0.0629347,-0.07315599,0.054427933,0.055317726,-0.06184808,0.029104875,-0.043027792,-0.086304545,-0.006262788,0.00036597587,-0.062284317,0.0020858888,-0.050712246,-0.055501398,-0.012936306,0.03329067,0.039126832,0.07374604,-0.08452468,0.06255156,-0.04922527,-0.06803216,-0.005939062,0.013455008,0.0714831,-0.022984868,-0.007384378,0.010700684,0.027921967,0.01859146,-0.021462167,-0.08460964,-0.027550716,0.08534764,0.03269727,0.05517513,0.03987133,0.07592335,0.055890433,-0.05008568,-0.056537483,0.0004255746,0.0603884,0.02904996,0.026206547,-0.057163853,0.061229225,-0.07878167,0.047994778,-0.064370036,0.06506857,0.071496904,-0.035560686,0.0123291565,-0.08608072,0.07225858,-0.048773807,0.010811764,0.06677478,-0.02722683,-0.07383863,-0.0752844,-0.04652496,-0.052355956,0.065489456,0.087856926,-0.06891989,0.030129192,-0.028152816,-0.042158946,0.028242009,0.05622976,-0.058794897,0.024924316,-0.07385949,0.036413528,0.0129739875,0.055917513,-0.021501929,-0.05650645,0.087559104,-0.064181864,-0.043702684,-0.0663636,-0.02870568,-0.068251364,-0.06507474,0.033350006,0.05105216,0.08748114,-0.07969567,-0.077415586,0.074015796,0.0516095,-0.025129873,-0.083740674,0.023029719,-0.007978173,-0.00037383876,-0.060467374,-0.030423021,0.018872598,-0.058576502,0.05936648,-0.06925683,-0.025594497
