0
-0.0315174
0.004214488
-0.035887696
0.017875731
0.023424923
0.07735064
-0.08626302
0.040718533
0.048076846
0.09274604
0.01833032
-0.07907866
-0.01921451
-0.08391887
-0.08713632
0.0038448796
-0.029311165
0.06348545
0.08326953
0.0281725
-0.005217612
0.008929834
-0.06832278
-0.061234917
0.08272032
-0.07135542
-0.042593148
0.022978522
0.0337917
0.085717775
0.013169691
0.029401012
-0.021309257
-0.026101843
0.097979076
-0.035217904
0.008419514
0.06893953
-0.08073714
0.022213504
-0.09030618
0.02910348
0.025556304
-0.015589759
0.014406763
0.06115564
-0.021627128
0.06845791
0.0041463003
-0.09769682
-0.03130269
-0.010037385
0.0549381
-0.05366974
-0.012304798
0.0730964
0.045708604
-0.02796898
-0.013963781
0.08985806
0.089565806
0.035524584
-0.03905903
0.05141563
0.08796636
-0.072233975
-0.005369678
0.09949108
-0.06391464
0.010689035
0.014917716
0.047764026
0.017064728
-0.0353719
-0.007423237
-0.071678415
-0.05580311
0.024771646
-0.047333132
-0.06017817
-0.09402799
0.096522994
0.01902268
-0.059585463
-0.09249192
0.030073442
-0.046375643
0.02714891
0.024932936
-0.025869347
0.05858513
0.029486574
0.09314353
0.05065859
0.028847672
-0.047086146
-0.005890213
-0.09811979
-0.03564181
-0.09439565
-0.014952734
-0.054024126
-0.06593844
-0.0049660206
0.09545662
-0.06947241
0.0010472164
-0.011689521
0.059037097
-0.012351833
0.094865404
0.0073385388
-0.09358334
0.05096241
0.04989714
0.012258969
0.0977379
-0.07135211
0.057630815
0.0829078
-0.039305117
0.019708611
0.06547577
0.021264933
0.036473297
0.034835882
-0.096640125
0.012556292
