0,1,2,3,4,5,6,7,8,9,10,11,12,13,14,15,16,17,18,19,20,21,22,23,24,25,26,27,28,29,30,31,32,33,34,35,36,37,38,39,40,41,42,43,44,45,46,47,48,49,50,51,52,53,54,55,56,57,58,59,60,61,62,63,64,65,66,67,68,69,70,71,72,73,74,75,76,77,78,79,80,81,82,83,84,85,86,87,88,89,90,91,92,93,94,95,96,97,98,99
-0.08818547,-0.10867637,-0.019193172,-0.1541856,-0.037027426,0.049224157,-0.1045834,0.027590226,-0.06641329,0.21679941,-0.08580038,0.0003368729,-0.006262517,0.39482477,0.09635619,-0.06300625,0.027964057,0.014416098,0.0634903,0.07619405,0.00076961203,0.015954241,0.10895658,0.05227913,-0.041608285,-0.018782897,0.06647749,-0.057680663,-0.08547743,-0.11553049,-0.012576688,-0.059998892,-0.019044353,-0.0515219,0.09138798,0.058147997,0.41230634,0.046588875,-0.05320813,0.023877282,-0.06542653,0.026627582,-0.007094087,-0.031218968,0.3790531,0.36879605,-0.025066547,0.07430216,0.02686706,0.069841065,0.040196944,-0.07533244,-0.07664964,0.05584443,0.058443185,-0.014287773,-0.056815483,-0.11084963,-0.06953291,0.02339849,0.034725737,0.42423496,-0.035220675,0.12767157,0.13981444,0.08516447,0.034330666,0.07039301,-0.01210238,-0.09630463,-0.07323185,0.027248578,0.12530217,0.04708419,-0.07547338,0.11195881,0.0151330205,-0.016478088,-0.0399228,-0.050947696,0.05274623,0.14191847,-0.07527098,-0.07141983,-0.05597057,-0.031828806,-0.032310717,0.06218627,-0.020240257,0.034410458,0.021981977,-0.048529934,-0.06250721,0.47317183,0.051396094,-0.0540452,0.40636516,0.114894345,0.07048067,0.10706472
0.1096851,0.08043349,-0.06477436,-0.085064545,-0.068277285,0.06638295,0.0018388917,0.023173483,-0.047769077,0.022711786,-0.033004977,0.008595063,0.049575962,0.13799104,-0.011721443,0.10207696,0.012848961,-0.060740687,-0.026890239,-0.10068011,0.03758433,0.00854965,0.066638306,0.084017366,-0.022786055,0.008456574,0.09386954,0.02499377,-0.003690119,-0.038872235,0.024751374,-0.103653386,-0.06211958,-0.045646984,-0.07645528,-0.083752885,0.012214924,0.013656439,-0.04910306,0.103214696,-0.08522531,0.032732587,-0.0854142,-0.016151004,0.14020124,0.05039408,-0.080086455,0.05303058,0.015372701,0.03226327,0.07012082,0.065180264,0.00058782083,0.051953487,-0.07522813,-0.046378452,0.021523178,0.0609181,0.024735587,-0.032323517,0.090268396,0.08470263,-0.04745445,0.03414708,-0.08114455,0.09230792,0.0044594,-0.009481786,-0.05145094,0.00083794765,0.09738495,0.103643075,0.108383425,0.04264425,0.023889264,-0.06509027,-0.110366814,-0.118986286,-0.059688564,0.032820757,0.11590668,-0.04517892,-0.013908436,0.04198521,-0.02644155,0.06967812,-0.052879933,0.021032367,0.098270476,-0.046549413,0.08420332,-0.04322264,-0.04475292,0.096163854,0.04088473,-0.040307958,0.1642907,-0.10662315,-0.080814146,-0.03504301
-0.058309726,-0.03333793,0.0059706415,0.01495776,-0.013582032,-0.054748055,0.020062208,0.048653025,-0.058684867,-0.010648571,0.0011395514,-0.060375094,0.040064808,-0.17439738,0.11458625,0.02586553,-0.1028002,-0.022418583,0.01273166,-0.033398237,0.06406398,0.03413521,-0.04075525,-0.09054044,-0.04825203,-0.061573144,0.0459309,0.08109318,-0.0585288,-0.12104546,-0.008335997,-0.03669955,-0.1170511,-0.062415488,-0.081925154,0.10005208,-0.043835208,-0.018059932,-0.07748687,0.09570758,-0.014307564,0.08529275,0.0055522146,-0.1276379,-0.012061258,-0.22502963,-0.058725554,0.029608754,0.12316012,-0.11023105,0.031316996,0.06792438,0.040718563,0.053560533,-0.008855691,-0.0013587107,0.093565755,0.06856731,-0.11252162,0.0782831,0.12105763,-0.045496423,-0.061535753,0.08722156,0.039929625,-0.017023016,0.068535395,-0.09549715,0.046438757,0.10375633,-0.080338314,-0.09784774,-0.03663501,0.0914159,-0.023985866,0.05391956,-0.04203785,-0.06749923,0.0041709756,0.043635547,-0.0012357114,-0.009332011,0.0064390167,-0.002084778,-0.12758665,-0.108217895,0.06579517,0.033807185,0.0365787,-0.0170848,0.017283792,-0.03725342,0.01613053,0.013666253,0.044629987,-0.03258291,-0.18795364,-0.03312756,0.00078657427,0.021997085
0.01623706,0.07768669,0.063344374,-0.033909652,0.011455566,-0.028108345,0.027922124,0.021392345,0.041695796,0.00088412577,-0.0146986665,0.05361795,0.087142184,0.021291865,-0.017520469,-0.019645657,0.10125877,-0.08670098,0.08861491,-0.06484609,0.070406936,0.04125895,0.0074957227,0.072632186,0.034102198,-0.051350165,-0.05613524,0.090130344,0.01688233,-0.06269581,-0.024849704,0.023950513,0.043142155,-0.08327472,-0.09171853,-0.009616582,0.0024956958,-0.015286153,-0.095793076,-0.083946355,0.09201195,-0.001624549,-0.06618662,-0.020503268,-0.10198402,-0.15023103,0.022181949,-0.104967624,0.021956319,0.083852306,0.09593184,-0.102782,0.113868475,0.06284021,-0.022052854,0.086997665,-0.051210597,-0.082513794,0.093428396,0.009488819,-0.012620276,-0.13561761,-0.005197256,0.030056696,0.10457563,-0.0103410445,0.040994152,-0.08686188,0.087415375,0.08511099,-0.0036529042,-0.0684429,0.098408096,0.078181095,0.026841423,0.031099778,0.008024805,-0.07979957,0.02111985,0.020832885,-0.0033433617,0.061443213,-0.06727807,0.064177886,-0.014002741,-0.04509002,-0.054319125,-0.039732847,-0.052082077,0.027128985,0.08775627,0.052912183,-0.02585526,-0.13130148,0.10101317,-0.041244484,-0.027444206,-0.085463546,0.111974135,0.035869658
0.1039301,0.074684575,-0.044188313,0.07439018,-0.010962589,0.04143166,0.03524327,-0.09439005,-0.12080735,-0.022530723,-0.09720233,0.031019235,0.08315498,-0.3004202,-0.120217614,-0.06117166,0.016814496,0.018344382,0.07533802,0.1099357,0.048300993,-0.099206865,0.058222864,0.014445448,-0.008669389,-0.0039839563,0.047597706,0.07590879,-0.026621124,-0.113373905,0.06893709,-0.024910498,-0.054321505,0.120171666,0.05135342,0.063018925,-0.30110893,0.044349186,0.015016761,0.030675229,0.027366605,-0.023532681,0.00051796285,0.0686782,-0.23169404,-0.31907338,-0.059707336,-0.119038425,-0.054387923,-0.07974151,-0.040764652,-0.075658046,-0.01038779,-0.05158659,-0.13437371,-0.0082226815,0.04864043,-0.03831275,0.0453723,-0.010298128,0.02543456,-0.32167104,0.08670619,0.075572185,-0.032405023,-0.068753764,-0.073995,-0.04207647,-0.10825131,0.072612405,0.05232016,0.056878056,-0.05202402,0.026946409,0.0372772,-0.037748676,0.058652617,-0.08521563,0.010757611,0.00042509424,-0.1215696,-0.043367572,-0.04715462,0.051272545,-0.07195434,0.07568471,-0.045590296,0.00694182,-0.08999776,-0.082270704,0.10969313,-0.01710323,0.07229207,-0.26931792,0.07029297,0.1055266,-0.15160714,-0.06627657,0.051717326,-0.08578722
-0.02488293,-0.013550863,0.03140612,-0.08219076,-0.0922195,0.030098032,0.07516063,-0.096827656,0.088812076,0.35085616,0.066240035,0.049009837,-0.12020956,0.36157098,-0.008353665,-0.0858855,0.1165916,-0.050603066,-0.09106518,-0.096469544,0.015409529,0.09528377,0.09423878,-0.10904505,0.10775117,0.05785641,-0.060543325,-0.034943566,0.02759437,-0.010281803,0.112018436,-0.0077594956,0.041867577,0.0675338,0.039467283,0.081620365,0.45741105,0.09298915,-0.092319444,-0.02487607,0.011075537,0.111810885,0.10086403,-0.013807804,0.38146093,0.6103455,0.08468793,-0.06478475,-0.062321257,-0.034843363,-0.11560925,-0.15799946,-0.07922745,-0.12540719,-0.1145358,0.12582538,0.11574761,0.020857444,-0.018883474,0.043648973,-0.06708852,0.49794722,-0.15031974,0.028249148,0.014905832,-0.06663608,-0.046058446,-0.06412159,-0.008905323,0.07763962,0.020693123,-0.047689766,0.014083277,-0.016094157,0.06512648,-0.10586317,0.055786695,-0.01592413,0.077740744,0.008716902,0.280683,-0.038715545,0.07780946,0.14412583,0.0065163337,-0.06926779,-0.015349928,-0.0009852998,-0.055781838,0.051195506,-0.0653608,-0.10970696,-0.010510292,0.3526393,0.06878582,-0.047903724,0.37651125,-0.011234528,0.005230127,-0.008154895
-0.030575976,0.113738224,-0.025314229,-0.029454842,0.0029878004,-0.083289705,0.007577754,-0.0057767634,-0.033456825,0.07569942,-0.026844144,0.06345856,0.07026185,0.100905776,-0.03579408,0.10486555,-0.0005599695,0.07462644,-0.07551,0.09694917,-0.09628397,0.055175133,-0.1080405,0.0033373653,-0.028354375,0.03704483,0.044217173,-0.08752833,0.07329501,0.08765541,0.06879645,-0.039096072,-0.10619178,0.08812189,0.068132214,0.06864716,-0.09170358,0.0823916,0.0143523635,-0.08702462,0.0524129,-0.07438248,0.08863246,-0.056228217,0.022988183,-0.036595754,-0.07524192,-0.009835796,-0.012490541,0.04021191,0.049855176,0.017897643,0.046896946,0.073146336,-0.06121521,-0.062804334,-0.055715565,-0.028639723,-0.05546867,-0.015157072,0.0013313964,-0.102366656,-0.09559862,0.042917565,-0.04312576,-0.083200164,0.046688903,0.011083535,0.09571617,0.09532292,0.055596672,-0.011459073,-0.10324717,0.06874334,-0.07439742,0.005561033,0.07609916,-0.032382153,0.0259415,-0.019816935,0.015962563,0.067991376,-0.10400137,-0.042356685,-0.017345618,-0.09386415,0.021101886,-0.035591554,-0.09770663,0.09492366,0.00846498,-0.00572627,0.054644868,0.04114474,0.023346296,-0.015569799,-0.044692513,-0.056892216,0.01671602,-0.052275613
-0.0076653142,-0.010820879,-0.032969605,0.08670288,-0.040218584,0.03401375,-0.022120979,-0.056089982,0.073351935,0.0009704942,0.048500262,-0.0035073478,-0.04129485,-0.23018762,-0.10431605,0.060480863,-0.09793143,0.07167006,-0.004048027,-0.084645785,0.02154245,-0.10000555,0.03452597,-0.04463811,0.074568465,-0.10986778,-0.090220265,-0.029440027,-0.033545803,0.026312863,-0.06412191,-0.027337806,-0.07382152,0.06584221,-0.08066214,-0.074826464,-0.08831575,0.06268225,-0.06776851,0.08692721,0.042759746,-0.08402902,-0.0030170288,0.029679935,-0.19207662,-0.09484836,-0.018764446,0.04890302,-0.052884873,-0.023521278,-0.0700553,0.0804548,0.075164735,-0.014834145,-0.08873652,0.08076162,0.06524643,0.107959375,-0.041879736,0.04667695,-0.01601681,-0.05020564,-0.02066325,-0.003468818,-0.041764237,0.07761541,0.08527401,-0.09432042,0.031158276,-0.029332764,0.008818029,0.009752563,-0.024888497,0.03162139,0.060510565,0.027845114,-0.05449637,-0.011227523,0.00017379793,-0.074963585,-0.04297258,-0.007970472,0.054294437,0.06257655,0.017012294,-0.06471544,0.004596366,-0.028006548,-0.07861708,0.061190348,0.083109334,0.028896475,0.055344936,-0.17595385,-0.007083941,-0.014365151,-0.13421687,-0.029229153,-0.001383271,-0.057420667
0.024711,0.09994733,0.01701838,-0.034203134,0.06340866,-0.07799947,0.08585464,0.05950948,-0.006157059,-0.3300741,0.12164376,-0.0063418946,0.05954151,-0.3962058,0.03206876,0.04041207,0.08606089,-0.028140001,0.047279,-0.120923646,0.039055735,0.10383432,0.07028587,-0.087515496,-0.099409655,-0.099670574,0.092810825,0.0036043865,0.038912147,-0.073570766,0.043375093,-0.07926173,-0.033131596,0.0053841136,0.015304583,0.011640075,-0.47478855,0.004997821,0.100185536,0.062131874,0.054279048,-0.010167299,0.093601204,-0.03114266,-0.22441421,-0.4729206,-0.0037763761,0.0042043086,-0.06040781,-0.0016684065,-0.10306333,0.04293873,-0.09525336,-0.056894276,-0.089722924,-0.045362696,-0.059612866,-0.0069992486,0.053238638,-0.008194413,0.006347956,-0.42445806,-0.0003668514,0.06686543,0.046611812,-0.0030020121,0.1189309,-0.021844786,0.06683936,0.021987498,-0.027604626,0.1055669,0.035927426,-0.025821185,-0.028079225,0.011188369,-0.0592068,-0.073545985,-0.036584772,0.0037222365,-0.11720601,0.11573519,-0.13958243,0.061138917,-0.139307,0.060541432,0.037579853,0.06628658,0.08092935,0.000984135,-0.1191752,0.041539423,0.040198863,-0.36033916,-0.077412374,0.007208334,-0.28723523,0.060742997,-0.11022314,0.010515976
-0.12146252,0.047685962,0.14013463,-0.0035763108,-0.08556822,0.038465787,-0.08314815,0.02004497,-0.15389211,-0.37347594,0.054295,-0.056022838,0.061096128,-0.6357554,0.03272917,0.050606146,-0.061446443,0.018927537,-0.10982367,-0.116753735,0.1526639,-0.048401646,-0.08780985,-0.09781321,-0.026393957,0.01828839,-0.054416947,-0.09888216,0.13775346,0.057278667,0.08859711,0.11542187,0.06400283,-0.020812506,-0.016330326,-0.11547876,-0.49395013,0.036698416,-0.014317398,0.0070926277,0.06686941,0.08550171,0.02639794,-0.13114509,-0.47661257,-0.6211476,0.119382255,0.064690985,-0.10478928,-0.08470063,0.007423833,0.1317499,-0.036122862,-0.0027287519,0.0982649,-0.13665761,-0.10290396,0.061595354,0.026243027,0.09381303,0.027185446,-0.6640439,-0.121961445,-0.018474389,-0.1449101,0.048768386,-0.022872359,0.028407175,0.09978958,0.10338436,0.09753008,0.047363784,0.119127475,-0.04937838,-0.049306747,0.013422527,-0.07498231,0.056689985,0.061644517,-0.021566262,-0.099632256,-0.09621862,-0.030643094,0.055655643,-0.02145793,0.023636337,-0.079478875,-0.1559221,0.02306033,-0.008635722,0.083696544,-0.011991799,-0.06878322,-0.49246156,-0.079948604,-0.0069389436,-0.5617023,-0.04038176,-0.10820485,0.018723382
-0.015714241,-0.06425172,-0.09359141,0.0025228611,0.030605305,-0.08159491,-0.1113573,-0.045931056,-0.060461864,-0.09422017,-0.12573127,0.049495798,-0.03291748,-0.16286656,-0.056694545,0.05912921,-0.07908662,-0.013622802,-0.0131069375,-0.042567123,0.11232368,-0.016062966,0.0043726773,0.026165357,-0.022037758,-0.0175107,0.025468918,0.045944247,0.0734171,-0.02415354,-0.07784784,0.025067309,0.033246394,-0.056754306,0.029852048,0.05443198,-0.09159589,-0.017995974,0.0012448374,0.08477651,-0.07142657,-0.00517307,0.0074913464,-0.024948692,-0.18774006,-0.25182804,-0.03783528,0.062300615,0.01045027,-0.07603201,-0.052560475,-0.02802089,0.02639995,-0.002194935,-0.022483753,-0.01330348,-0.020586079,0.037696857,0.05869792,-0.054882985,-0.017994627,-0.20147496,0.05337017,-0.08732485,-0.0019828528,0.066952854,0.09054421,-0.026967315,0.029726831,0.013744574,-0.087518275,-0.056497302,0.00970343,0.024416758,0.0017298862,0.013888928,0.08593013,-0.10201194,-0.043889545,0.010298261,-0.041512456,-0.09953587,-0.055472087,-0.07168728,0.030995967,0.03579173,-0.007531418,0.06596853,0.016823407,0.03584742,-0.09605017,0.019580962,-0.054387547,-0.07427809,-0.076252915,0.08754222,-0.06462492,0.065008044,-0.027815005,0.029755475
0.0011423898,0.057626776,0.07380124,0.06541289,0.07920115,-0.0010935263,0.11595782,0.020496566,0.014839162,-0.026421398,0.1307718,-0.047093894,0.05431767,0.00079742714,-0.009003679,-0.032834783,-0.05762905,0.03404414,-0.11177481,0.011835703,0.054718968,-0.031060824,-0.083066255,0.018470973,-0.10463787,0.0010442148,0.071258605,-0.07433006,0.10592576,-0.0016684104,0.12293872,-0.10361692,-0.010777474,0.049458116,0.030349758,0.056640994,0.16541204,0.04148914,0.03669601,-0.0062419362,-0.092708424,0.007566517,0.019484233,-0.08765167,0.08567453,0.14628516,-0.03570589,0.054245237,-0.08973024,0.021085622,0.01451832,0.026465226,0.07970879,0.011674973,0.031223653,-0.049517047,-0.035151966,-0.015694344,-0.04436152,0.030510202,0.026293246,0.20091386,-0.08263897,-0.111991815,0.09943926,-0.073635474,0.06066453,0.0766123,0.06935027,-0.04957821,0.024159351,0.08018989,0.037448797,0.051255163,0.05950151,0.06755567,0.0030261253,0.019553244,0.04034876,0.060929406,-0.0036400603,0.09041743,-0.10555978,0.12644802,-0.04659664,-0.04086421,-0.03249092,-0.06751789,0.09849527,-0.07966207,-0.016990226,0.07210146,0.038519673,0.17800829,0.049592335,-0.10970246,0.11817214,-0.0066387877,0.004501745,-0.01014038
0.036886353,0.09921252,0.055135448,-0.09575129,-0.0751029,0.026461367,-0.0048841313,-0.051311553,-0.000995315,0.16561921,-0.0703513,0.06499562,0.120652564,0.22587825,0.027528746,-0.07615362,0.036163915,0.0016589217,0.05040199,-0.08328434,-0.08564569,-0.018536678,-0.025108006,0.021774165,-0.02947093,-0.069630906,0.069510244,-0.002258533,0.09542648,0.03478499,-0.12019925,-0.071181856,0.10503288,0.09110871,0.08649172,-0.08787404,0.2290648,0.0020194869,-0.066347234,0.032227054,-0.06947851,0.020915208,-0.05263329,0.07584976,0.096094094,0.198409,-0.014703223,0.021319514,0.047939807,-0.042785894,-0.032049198,0.06394597,0.062195074,0.07422011,-0.1082535,0.11166192,-0.0695444,-0.083517574,0.06542664,0.077470176,-0.034531463,0.118478365,-0.0033481105,-0.0036191514,0.042511806,-0.09640436,0.026063498,-0.016638957,0.03061596,0.05069632,0.07808954,-0.003161798,-0.00339134,-0.05377595,-0.07134336,0.061362945,-0.07204636,-0.07209334,0.058285866,0.05787216,-0.016945316,0.09715227,0.021609034,-0.08602252,-0.09512923,0.0079041505,-0.07299914,-0.040946495,-0.0025281971,0.032061677,-0.0265047,-0.059257526,0.083207086,0.10176411,0.07252093,-0.09213318,0.1606506,0.096046366,0.078928284,-0.015249992
-0.11598562,-0.05620311,0.03768255,0.1167748,-0.02538336,-0.012649679,-0.07014937,0.06727188,-0.0713154,0.16155636,-0.0038490593,0.04880036,0.110483,0.24733284,0.07570035,0.043784373,-0.058602214,-0.06750193,-0.03964342,0.094162606,0.049449086,-0.017343668,-0.025351573,-0.10221356,-0.0012856458,-0.10552229,0.07582507,-0.057919204,-0.042200916,0.047731142,0.025967214,-0.042959396,-0.04659191,0.08444859,0.081510454,0.10526146,0.28976485,-0.024391774,0.0018066026,-0.13066994,0.06794626,-0.088099696,0.039832074,-0.09611932,0.134509,0.24698833,-0.08552663,0.077816784,0.00033059783,0.066924684,-0.023487285,-0.04136091,0.06375105,-0.052597553,0.075781554,0.060565524,-0.04602144,0.04986021,0.11219007,-0.08169379,-0.038983777,0.259967,0.12020813,-0.0010389234,-0.07993778,0.09595742,0.07065259,0.072366916,0.012441727,-0.0061205304,0.0022674205,-0.013070154,-0.05673721,0.07559084,-0.0060997778,-0.11179611,0.04192386,0.11840202,-0.10890023,-0.0008047276,0.17398737,-0.024644228,0.08569021,0.028207328,0.053604163,-0.03535792,-0.02327214,-0.080369264,0.019938515,-0.032880157,-0.116168156,-0.08336337,-0.04591142,0.22089542,-0.06629477,-0.07394167,0.17208545,-0.039910905,-0.070577815,-0.022933593
-0.12276177,0.13832517,-0.006384092,-0.008532249,0.029970719,-0.030908857,0.025220212,0.023460247,-0.042900424,0.46373564,0.057704765,0.030823417,-0.010847245,0.6300539,0.026695121,0.08619948,-0.04609438,0.047901664,-0.07016464,-0.0016976654,-0.0056758127,-0.10728804,-0.09360083,0.03594305,0.022738598,0.11226845,-0.053576384,-0.055224217,-0.03617059,0.032397475,-0.08720593,0.11155029,-0.008786173,0.053985443,-0.07730323,0.056488704,0.7069198,0.032805715,-0.0058928477,0.04493917,0.13804686,-0.121571,0.04873236,-0.001554849,0.48276332,0.61201173,0.13416071,-0.10258476,-0.090411015,0.058773965,-0.07086014,0.01622027,0.02747639,0.056727283,0.12065958,-0.036118563,0.076034375,0.051016696,-0.049904056,-0.06263855,-0.06088015,0.7757004,0.1310616,-0.010088203,0.069042355,-0.009317966,-0.09433053,0.04839592,-0.06477002,-0.012144519,0.06891314,0.07062109,-0.076985404,-0.1114937,-0.02280338,0.05097699,-0.05637383,0.0038481934,0.11627436,-0.029400215,0.26752162,0.005297737,-0.03845201,0.050174747,-0.0250168,-0.029837376,-0.07202443,-0.054693095,0.07087324,-0.017723069,0.107823566,-0.041151103,0.113933615,0.527187,-0.02757968,-0.049825605,0.6761263,-0.03013453,0.029196333,0.045218233
-0.07227233,-0.06947699,-0.099038474,0.03785522,-0.009233402,-0.01103111,0.008705996,0.04631512,-0.027437799,0.1250861,-0.03392156,-0.11784119,0.048767406,0.19059233,0.024465317,0.08725036,0.057084233,0.030942429,0.007925009,0.045475427,0.075997464,-0.13533196,0.0750887,0.09908744,0.11188053,0.059904564,0.014400837,0.0034629204,0.06071099,0.006174563,-0.007578792,-0.07465822,0.009483356,0.05359239,0.096572846,0.05273465,0.1629035,-0.072367795,0.0034145827,0.027073078,-0.07657113,0.10548165,0.09339785,-0.06872096,0.13975194,0.028311692,0.05087284,-0.054912522,0.08615446,-0.13302207,-0.09443881,-0.037606902,0.030809768,-0.09366632,-0.08251608,-0.08879033,-0.04641489,0.06182101,0.10107202,0.07110654,0.043914266,0.1302627,-0.0003411929,-0.07617464,-0.0631787,0.023221718,-0.09365927,-0.04838249,0.08191505,0.027445508,-0.09868599,-0.07638168,0.06291358,-0.0020877912,0.094823554,0.07373262,0.086438015,0.07361644,-0.049634848,0.04663413,-0.030400952,0.048584368,0.057232365,0.029127069,0.004901289,-0.04319212,-0.07874236,-0.024689171,-0.11117465,-0.10421498,-0.11483783,0.0029089588,0.07655496,0.22417152,0.08297138,-0.06382339,0.009826734,-0.115817,0.07459995,-0.08206038
0.08940315,-0.10328993,0.079774,0.029399239,-0.00913855,-0.10050979,0.019411156,0.08824279,-0.029947251,0.12456416,0.0082290815,-0.078749955,-0.09226735,0.10025177,0.06710371,0.06780183,-0.09838367,0.08223009,0.09615706,-0.05139011,-0.1239223,0.090560384,0.05411864,0.029499056,-0.104957014,0.0951653,0.06200268,0.0595835,-0.05561252,-0.051324178,-0.06393259,-0.09898005,0.112376235,-0.088843785,0.037545327,-0.05748605,0.022333663,0.0611918,0.04994198,-0.098589756,-0.078274414,-0.0621709,-0.003889261,-0.09662642,-0.009588467,0.084983245,-0.037042607,-0.015801514,0.06097721,0.012762377,0.034814134,-0.10450999,0.05203034,0.06917102,0.065011084,-0.029895702,-0.020052636,-0.0766836,0.0557931,0.08202512,0.045122027,0.1848025,-0.026813412,0.06734287,-0.03413644,-0.07430164,-0.059243474,0.033974856,-0.072444536,-0.00037677222,0.0400471,-0.016109217,0.025670985,-0.031367283,-0.10731766,-0.05166521,0.09844305,0.043995336,0.011867454,0.036505867,-0.00770263,0.09442419,0.09482809,-0.008968442,0.090453215,-0.023960667,-0.080089375,-0.10400195,-0.107363515,0.09127051,-0.10863822,-0.023234129,0.0029129446,0.037405733,0.060761858,-0.014140521,0.1648935,-0.062364146,0.005909732,-0.06409663
-0.0035317102,-0.12932068,0.03601931,0.036714282,-0.0025472075,0.028893892,-0.043710455,0.008482582,0.043141846,0.14146915,-0.051828515,0.01878067,0.016551832,0.13988131,-0.0879978,-0.08972116,-0.008791017,-0.040486358,0.07493957,0.027866261,-0.0019833816,-0.010699785,0.0135877235,-0.11639014,0.08583291,0.031083925,-0.017258398,0.007863117,0.012520298,0.022365568,0.0022267583,0.07838577,-0.041447725,-0.033505786,0.010287424,0.022881743,0.32960114,0.004676008,0.04815397,-0.010899271,-0.074355125,0.047630295,0.0834756,0.066639654,0.29170203,0.13131078,-0.050153002,-0.0709911,-0.010943156,0.06000848,0.08000338,-0.09296995,0.05807076,0.07423742,-0.06247252,0.03303578,0.059121504,-0.074171744,0.050253715,0.039268572,0.027396083,0.14771366,0.033881664,0.013596167,-0.024629839,-0.106132835,0.00419648,-0.0027172125,-0.054069523,-0.007979919,-0.050583493,-0.010147977,-0.036097135,0.044265397,0.013130861,-0.054068573,0.060607612,-0.016969975,0.04014091,-0.011702051,0.08729052,-0.07238948,0.048895646,-0.050729703,-0.012945138,-0.03666155,-0.0218692,0.07515577,-0.033411037,-0.001712816,0.03403908,0.023876542,0.09620059,0.23311466,-0.0031717967,0.090001784,0.2463729,0.02783986,-0.07594759,0.040253595
0.036220912,-0.0070577213,0.07420567,0.0038000084,0.048670832,0.079236396,0.10714039,-0.04882273,0.08636536,-0.009387281,0.007231531,0.020033255,0.07642517,-0.06605227,-0.009985741,-0.013172719,-0.05269761,0.030857231,0.008939188,-0.008792982,-0.005141812,0.09292561,-0.08111233,-0.028062832,-0.041337907,-0.09517245,-0.010870258,0.08325915,-0.04584737,0.07755894,0.034768317,0.08163193,-0.012194092,-0.09904914,-0.056015268,0.03411536,0.015863936,-0.037434574,-0.092188016,0.018549958,-0.08896951,-0.025294155,0.079254895,0.024117012,-0.06915598,-0.029617576,-0.103319734,-0.049851034,0.07760459,0.046317127,-0.078028634,-0.094828315,0.05397858,-0.06496873,-0.066925794,-0.090324305,-0.054198965,-0.10605392,0.10402192,0.033633087,-0.092083424,0.09802048,-0.10931696,-0.03669819,0.05230718,0.08158484,-0.098164394,-0.05479533,0.041399043,0.07083599,0.01268639,-7.495049e-05,-0.032713335,-0.05461395,0.08717428,-0.09259637,-0.04501945,-0.03773222,-0.097123496,0.092980705,0.043858696,0.03346986,0.09586393,0.006765388,-0.0062534604,0.06890424,0.02997791,-0.022803525,-0.027265904,0.044386584,0.069790505,0.09306051,-0.02526085,0.07440159,0.05596226,0.06359066,0.03532477,0.06452545,-0.015099592,0.06756702
0.040978633,0.007101398,-0.043461498,0.11552223,-0.004980274,0.024255833,-0.005640823,-0.06566197,-0.016238855,0.045598496,-0.09022559,-0.06058149,-0.08246739,0.22589573,-0.07259137,-0.081776164,-0.002030721,0.06620024,-0.032790504,0.077847965,-0.0625466,0.00660693,-0.07861843,-0.010900284,0.095244944,-0.033016518,-0.010001022,0.09554882,0.056177817,-0.101373926,-0.01383765,-0.02830947,0.028730726,0.08813501,0.0053653657,0.040066645,0.18503948,-0.056620583,0.0045032664,-0.037398387,0.049970325,-0.003665774,0.07325217,0.04206431,0.1995336,0.2674612,0.04856408,0.04770515,0.018331897,-0.010674855,0.07822454,-0.004445546,0.056793354,0.06803532,0.059635285,-0.04999374,-0.06424425,-0.027304417,-0.055884376,0.09272469,0.020056624,0.27346444,-0.044030715,-0.017524607,0.038449973,0.01804648,-0.010256841,0.019577546,-0.031018004,0.053788986,0.0068688192,-0.10512213,0.03499398,0.009297335,-0.042454883,0.08589124,-0.020077918,-0.03066652,-0.034117702,0.057005495,0.033864208,0.051263034,-0.036252566,0.004326281,0.046938315,0.059029557,-0.03010609,-0.0076578753,0.09073668,-0.05394816,-0.033804953,-0.039818883,0.02475686,0.26609224,-0.060474046,-0.055642616,0.27631843,-0.06146878,-0.021115303,0.058183305
0.056675818,0.11050899,-0.05675863,0.022913374,-0.024913188,0.024172245,0.05691524,-0.029557986,-0.062258784,-0.18662456,-0.0028636334,-0.005423277,0.0130478125,-0.18291108,0.026165742,-0.003928538,0.015282456,0.05299835,0.07919398,-0.082233414,-0.07298573,0.05633744,-0.077283494,-0.0071148416,0.058545206,0.08777469,0.095007695,0.012614733,0.051846888,0.010219572,0.073347725,0.124701746,0.031117488,-0.08060722,0.09831213,-0.021465702,-0.22200023,-0.04215909,0.035302244,-0.005939236,0.028000483,0.02279972,-0.023675228,0.022716084,-0.072081424,-0.08126206,-0.047047187,0.08090026,-0.028089434,-0.0016720127,0.025102654,-0.055751022,0.12493079,-0.0675033,-0.077803746,0.042494897,0.0028376465,-0.052707225,-0.0894172,-0.0023157445,-0.09115308,-0.09134006,-0.078616835,0.09245121,0.10550644,-0.07728448,0.13503578,-0.09881048,0.041035425,0.049055703,-0.03787801,0.095257774,0.06555959,-0.008482069,0.008721073,-0.039401267,0.00060656545,-0.01250902,-0.015233493,0.050296713,0.0373844,0.08811765,-0.046777908,-0.003806451,-0.0491113,-0.0022887667,-0.019355178,-0.09104795,0.0668578,-0.043147866,0.004250927,-0.044597264,0.016770193,-0.21743429,0.06107127,-0.015604349,-0.045989417,-0.031184537,0.06996691,-0.047447402
0.07709892,-0.010421382,0.049837403,0.08266161,-0.032175142,-0.063184686,0.108353175,-0.044274986,0.0002579042,0.40362376,0.044827826,-0.036705907,-0.02002341,0.6089127,0.03953512,0.124076165,-0.06763844,0.05611724,-0.12549722,-0.020774333,0.04366734,0.086983636,-0.04955173,-0.024079876,-0.084181234,-0.07356353,-0.06899962,-0.028250232,-0.04730296,-0.003964793,0.062354013,-0.019677648,-0.034687012,-0.009842222,0.010752936,0.026334876,0.69091856,0.0973674,-0.07627563,0.052246116,0.050667863,0.098822996,-0.08256745,-0.08567408,0.28765127,0.7187198,0.19056989,0.048450265,0.063184954,-0.04621461,0.06521549,-0.017884005,-0.058377784,0.074751,-0.116406515,-0.017327843,-0.003013672,-0.011314609,-0.012936859,-0.020185927,0.08643756,0.6978196,-0.033270832,0.14437148,-0.06669702,-0.020659713,-0.010323218,0.072510384,0.089746006,-0.010733094,0.067063525,-0.0627086,-0.10654249,0.026461393,0.01704605,0.1275364,0.04319776,-0.0009469297,-0.0020395904,-0.12206966,0.08200402,-0.123703495,0.07953898,-0.10613311,-0.04381951,0.062387366,-0.02182294,-0.038016874,0.05848904,0.0009626274,0.07316025,-0.1248572,-0.019958647,0.6010545,0.096809074,0.124874346,0.54517347,-0.114964455,-0.03646918,-0.071413234
-0.042226907,0.053839926,-0.06748995,0.009800397,0.06741998,0.034414895,0.03419835,-0.08532619,0.04756857,-0.23177768,-0.07518056,-0.028214088,0.06265501,-0.14667965,-0.028428115,0.015533545,-0.07835212,-0.10046502,-0.11061924,0.060348243,-0.055665813,-0.014077143,-0.09378166,0.01602594,-0.004356029,0.078365065,-0.008184372,0.031083217,-0.059254576,-0.045504674,0.09729493,0.016933626,-0.07368298,0.013640118,-0.02354968,-0.04199238,-0.24967118,-0.0668826,-0.047105208,0.12108746,0.039474916,-0.02583514,0.03489359,-0.07597273,-0.11091572,-0.14290258,-0.018705904,-0.016634101,-0.00049274537,-0.064848684,-0.056259092,0.022594128,0.013450933,0.12106029,-0.01615071,0.10008731,0.060709175,-0.0393197,0.033808485,-0.037871156,0.101488836,-0.2322063,0.024016473,-0.09718802,0.027337829,0.01190787,0.068219036,-0.10347804,-0.056119278,-0.09163158,-0.003871387,0.048066646,-0.103993356,0.09232154,0.047612645,-0.09723595,-0.11895582,0.085296765,-0.044423413,0.007597239,-0.0979534,0.030454684,0.033077,-0.107076585,-0.0629555,0.068947114,0.10754298,0.03319077,-0.069895126,0.046262424,0.06575397,0.08960218,0.043542713,-0.2581676,-0.0072823367,-0.06995604,-0.16214617,0.09830406,-0.11482803,-0.042200904
0.04172072,-0.006855063,-0.06402671,-0.12479507,0.08533986,-0.12639073,0.05112568,0.10837792,0.09275041,0.14214139,-0.040682133,0.045833502,-0.0796675,0.24606492,0.025041714,-0.02593635,0.057599474,-0.0026876717,-0.07846468,0.06501872,-0.05394685,0.07518662,-0.07764622,-0.055561747,-0.0594828,-0.0994297,-0.025872216,-0.11294372,0.08979744,0.09228821,0.0025760164,-0.06916239,0.005828713,0.061475575,-0.060295444,0.10202139,0.17583513,0.034010064,0.083503954,-0.036988016,-0.081389375,-0.09134121,0.083389625,0.03535453,0.10273405,0.29362237,0.04893146,0.075089626,-0.016773269,-0.057134043,-0.018710285,-0.059053503,-0.090506665,0.04001092,-0.013185627,0.0058631417,-0.008883452,-0.013101511,0.08978684,-0.07826232,0.09877426,0.18231784,-0.033480234,-0.032770224,-0.11845623,0.08105598,0.052326865,0.07573871,0.004081078,-0.006000303,0.011932283,0.012880445,0.06577796,0.09721438,0.05577035,-0.053337354,-0.047312,-0.022432402,-0.04001538,0.0024022318,-0.022276852,0.08337588,-0.096531376,-0.040863793,-0.03139536,0.040307295,-0.022848608,0.069165446,-0.09723436,0.020456985,0.022035569,0.088553615,-0.008938709,0.25091174,0.04211834,0.04085209,0.20850658,0.100111544,0.011514093,0.045248102
-0.08765297,0.03902542,-0.039617714,0.067472704,0.013967768,0.012665759,0.07722738,-0.03657831,0.06943541,0.23544277,0.057663597,-0.008885446,0.011801628,0.17212303,-0.09287284,-0.010973991,0.056320976,-0.0061078053,-0.09614212,-0.02718759,-0.103408,-0.070916325,-0.0035340958,-0.076500244,-0.064279296,-0.0055837873,0.041546572,0.012124735,-0.024657905,0.00064256834,0.01632295,-0.05518232,-0.05951742,0.045398,-0.065425314,0.03193506,0.20483992,0.043319773,0.06195805,0.011535991,0.040187888,-0.027180672,-0.0021600437,-0.02964221,0.19628367,0.28459153,0.03994479,0.018532211,0.005532145,-0.054115348,-0.07600106,-0.05169773,-0.07589125,0.09152935,-0.10356902,0.045956988,-0.08374459,-0.043479763,0.13781929,-0.06249242,0.043429438,0.31668288,0.09865608,-0.1166286,0.07480894,-0.06661579,0.04315357,-0.09624594,0.022220174,0.04760303,0.12575097,0.06487113,-0.11695216,-0.074013084,-0.03916749,-0.04215915,-0.08186988,-0.02423828,-0.019997604,0.06872995,0.15611885,-0.0023274291,-0.10332613,0.041806966,-0.07490398,0.042717736,0.017231833,-0.027543077,-0.052044448,-0.035666518,-0.029721417,0.04277727,-0.04439151,0.24951571,-0.055147927,0.00082337885,0.198089,0.1013866,-0.032660868,-0.016571246
0.047035154,-0.015699852,-0.0103650745,0.012593705,-0.041592978,-0.046160903,0.071179956,-0.029106615,-0.07754746,-0.050694797,-0.02370719,-0.04706114,0.104598835,0.09381473,0.028427582,-0.09031872,0.051591113,-0.02806113,-0.0039212476,-0.058911767,-0.035858415,0.03869519,-0.06584324,-0.10974599,-0.0006185846,-0.08578968,-0.1049878,-0.047763955,0.069144785,0.07475921,-0.09315363,-0.050791517,0.025043141,-0.035032757,-0.09315907,0.07339854,0.091584496,-0.048415694,0.0693809,0.053537115,0.07000923,-0.047956746,0.016088504,-0.09342393,0.06344917,0.11683549,-0.076935165,-0.08372727,0.0012549219,-0.100782365,0.05143194,0.09539906,0.0038621176,0.08538494,-0.06157574,0.03870387,-0.023742674,0.03291015,0.082470134,-0.03939487,-0.08270003,-0.03314503,-0.0712434,9.389036e-05,0.094613135,-0.015963389,-0.07986093,0.010575914,0.08023546,-0.06765276,-0.0046783765,0.07708755,-0.028593339,-0.058563724,0.030375713,0.08576968,-0.048514754,0.10101182,0.031600043,0.100816995,0.06268226,-0.07302649,0.008112006,-0.04306007,0.0822636,-0.09917223,-0.028206447,0.014016228,-0.0142297875,0.029526113,-0.05634745,-0.073428735,0.093532234,0.09307009,0.0661136,-0.07411355,0.003163746,-0.029838897,-0.07605816,0.08537116
0.054324277,-0.060574874,-0.07335803,-0.034271277,-0.046269223,-0.06492162,0.07746601,0.056977533,0.09817469,-0.11215179,-0.073166214,0.05083741,-0.033156022,-0.1519586,0.024955872,-0.12747337,0.04044528,-0.103715666,0.03580997,0.10183147,-0.025574626,0.0714054,0.06582969,0.014717947,-0.041440047,-0.03161226,0.029829213,-0.07661273,-0.10584978,-0.10677633,-0.041135766,0.072495565,0.054675054,-0.030984018,0.080128774,-0.04913264,-0.115769416,0.07962616,-0.12297619,0.036060117,-0.09672361,0.0786871,-0.003970695,-0.03153807,-0.22410658,-0.12037885,0.06942852,-0.07507476,0.09722092,-0.02487049,0.069730856,0.03934475,-0.044045255,-0.038467094,0.013803852,-0.008054183,0.03318368,0.020875923,0.057065863,0.10356249,-0.025086243,-0.16498245,-0.08560754,0.085823216,-0.076305404,-0.032974996,-0.057046045,-0.08242306,0.08617221,-0.025718106,0.03525226,-0.029082183,-0.058063854,-0.063152574,-0.016169593,0.106112555,-0.08413583,-0.096084274,0.04278837,0.03808468,-0.15111673,0.031918712,0.07903544,-0.0676905,0.09611389,0.024288967,0.043189533,-0.047118306,0.06438307,-0.042719655,0.01613244,-0.00831568,-0.09756588,-0.2338189,0.058040947,0.0011263813,-0.344776,0.025898982,0.08153413,-0.04144343
-0.06756831,0.06321388,-0.08725661,0.07591554,0.057262845,0.029685328,-0.01475391,0.059087146,-0.02311475,-0.018600006,0.009880487,-0.07034006,-0.08419754,0.07564686,0.08262841,0.011473214,-0.10960642,-0.039565336,-0.07750683,-0.05441886,0.067421354,0.034479957,0.08137369,-0.047580004,0.05258593,0.08464447,-0.047448657,0.087855875,0.048097238,-0.038860958,-0.044775013,-0.07494429,-0.072771125,-0.069914766,-0.037407406,0.094480105,0.023434915,0.089605115,0.05431457,0.075196475,0.03555757,0.0042342786,0.0013795422,-0.005762883,-0.08149781,-0.056188904,-0.07281684,-0.00078983617,0.06555308,-0.0902039,-0.019269392,0.022060987,0.057976652,0.074318804,-0.068080656,0.014951569,-0.058125168,-0.07153768,-0.08796301,0.09009357,-0.058419053,0.011268009,-0.057604976,-0.016429435,0.010048874,-0.04781727,-0.07358763,0.033701777,-0.07700977,-0.10425373,0.034411218,-0.034435324,0.014064507,-0.05383499,-0.025329864,0.04249437,-0.07823256,-0.00039149926,-0.0773509,0.056711245,0.10358327,-0.07816895,-0.07253479,-0.09314456,0.0981436,0.002225792,0.08420365,0.06710539,-0.07068013,0.007419779,0.076272085,0.07489123,-0.101517335,0.0774249,-0.10528228,-0.057244748,0.03362581,-0.042078163,0.042211242,-0.060507722
-0.047739517,0.06607025,0.041806843,0.04552671,-0.10083999,-0.008899491,0.031094348,0.08723394,0.10580315,-0.34714013,-0.05978898,-0.100485705,-0.01788063,-0.3990815,-0.027820347,0.049699675,-0.07241115,0.03461206,-0.0027353088,0.092546865,-0.0013006859,-0.12680705,-0.015070798,0.07871788,-0.045653753,-0.020927632,0.047027722,0.14151055,-0.0861091,0.14332254,0.03182947,0.0059278253,0.029371766,-0.08107897,-0.09006956,0.07400347,-0.34061685,-0.067430206,0.100565,-0.1170236,-0.12333617,0.08485939,-0.092080176,-0.08971851,-0.23536679,-0.35755348,-0.07851557,0.104517266,-0.03229242,0.004324151,-0.08787047,-0.015227847,0.06154807,-0.009300093,-0.0054779537,0.06788489,0.073448315,-0.13461363,0.05161111,0.014086184,-0.0038510985,-0.5322146,0.13211595,-0.1241452,0.098553926,-0.097848356,0.04848482,-0.1170917,-0.09807914,0.015504094,-0.07464583,0.070810996,-0.006972608,0.012943371,0.105769955,0.03651659,0.053423245,-0.021117605,0.0009704073,0.017158974,-0.099211805,-0.08448902,0.067714185,-0.0665351,-0.04629046,0.029350415,-0.11123939,0.028987562,0.07540009,-0.040339,-0.06905864,-0.12309706,0.02422748,-0.45472226,0.017373547,-0.10304047,-0.48481065,0.052718643,0.0076270755,0.081377424
-0.01874397,-0.0652149,-0.0758644,-0.08969385,-0.07824543,-0.10547301,0.100615494,-0.028500253,0.010998769,0.07492048,0.082256936,0.09653492,0.085870035,0.09554243,0.064596616,-0.020464513,-0.08665187,0.0735554,0.07366524,-0.0785444,0.037152812,0.0052571725,-0.094559535,0.092976615,-0.0076368456,0.05050417,0.013301378,0.05966382,0.08201934,-0.037720177,-0.09554496,-0.08378308,-0.08115774,-0.060102444,0.0039970046,-0.08432063,-0.00029168685,-0.05409686,-0.054457504,0.10687306,-0.042677764,0.032197986,0.07745243,0.020881644,-0.030664105,0.121636316,-0.06941348,-0.029610638,-0.0027831,0.047380712,0.052706327,-0.033232305,0.10321791,0.03450522,0.06821486,-0.053134996,0.10051853,0.07397559,0.03360701,-0.08598773,0.038538385,0.12408546,0.009696708,0.047935106,0.09779686,-0.038225316,-0.07143161,0.032643702,0.023516737,-0.011971144,-0.0344317,-0.076607525,-0.09634192,-0.051136483,0.024449434,-0.03212755,-0.032343734,0.083161466,-0.029576987,0.04417778,-0.017194439,0.07143312,-0.041815706,-0.023126043,-0.10978758,-0.055845533,0.02373937,0.09412121,-0.020517997,0.017338257,-0.035340875,0.015788611,-0.08749055,0.1377288,0.041799765,0.0064357384,0.02489404,-0.075895905,0.016763307,0.03341421
0.04188441,0.09461861,-0.0051893387,0.0363912,-0.11423474,0.022087604,0.008409132,-0.06602344,0.02796506,-0.1821576,0.050742224,-0.09052687,-0.085576184,-0.2980565,0.042212736,-0.08394036,-0.027577015,0.0622737,0.069031425,-0.02183674,-0.08272027,-0.051055763,0.016857488,-0.06862574,-0.014217475,0.047933042,0.096237205,0.0271025,-0.027874518,0.04425433,0.11918012,-0.05373791,-0.005435443,0.010206582,0.108812645,0.06649524,-0.2288216,0.008861781,-0.018056354,0.049696676,-0.046874236,0.010913101,0.004624802,-0.035434343,-0.26317176,-0.2358985,0.033718754,-0.089744195,0.07842826,-0.042650573,0.03850621,0.06940444,0.06641128,-0.038224075,-0.11765176,0.073735364,0.015133297,0.060448185,-0.07088427,-0.044940166,0.10580295,-0.29633054,-0.03823802,-0.015512434,0.05399862,0.02155929,-0.026624283,0.065416425,0.09013513,0.08508417,0.06755471,-0.060043152,-0.083294496,-0.0023885923,-0.019696828,0.07853834,0.008717565,-0.06463548,0.010511388,0.07646209,-0.055610243,0.019923214,-0.020408666,-0.09151163,0.020867467,0.10944987,0.07718594,0.08750693,-0.091104664,0.057483304,-0.12998033,-0.116481796,0.048837308,-0.30073318,0.076145895,0.107095316,-0.3318656,-0.005593565,0.047481697,-0.0711453
0.07352426,0.0492036,-0.05476332,-0.107853234,0.04307685,-0.028017554,-0.03358189,0.08032596,0.05262151,0.07290555,-0.04210941,0.0022285809,-0.018282313,-0.010875692,0.07011115,-0.06372631,0.028960902,0.09737995,-0.04240134,-0.0726377,0.080798924,0.052203774,-0.09149136,-0.049995568,-0.017108412,0.028087325,-0.07472411,0.030466504,0.008532157,-0.010127534,0.030875556,0.10488187,0.025400786,-0.064624086,-0.07029396,0.0023726884,0.04529969,-0.0722506,-0.099189594,-0.026304252,-0.10218463,-0.02576611,-0.07935298,0.110373676,-0.07049358,0.12230189,0.08914712,0.041039977,-0.074973874,0.10514185,0.021608729,0.10499601,0.07804572,-0.07859006,-0.007847329,0.11489262,0.06890264,-0.05418985,0.10594883,-0.013922301,0.0633494,0.090365894,-0.1098146,-0.013530236,0.008772159,0.086461574,0.046637617,0.09627068,0.100928225,-0.0412277,0.048833933,-0.09612734,0.013675743,-0.08283434,0.10220679,-0.06851807,4.714173e-05,-0.09673821,0.01970538,-0.051324513,-0.08528871,-0.023181716,0.019079713,0.020575147,-0.100676864,-0.07510125,0.10589068,0.039423957,0.06433212,-0.10164159,-0.077556185,0.071013466,-0.0011931397,-0.06530719,-0.09105806,0.055162873,0.13244098,-0.11116777,0.0651523,-0.053477407
0.04484101,-0.0012280521,-0.042375438,-0.061676424,0.03146332,0.063041426,-0.076049216,0.083131164,0.10882193,-0.16146128,0.06351169,-0.04700117,-0.074053265,-0.30757767,0.07108457,0.006382492,-0.048992183,0.043770175,-0.07554259,0.023456072,0.038297504,0.051633153,0.026245063,0.07090835,-0.017431345,0.04094212,-0.06469429,0.003723528,-0.10836989,0.03665109,0.016831947,-0.07948434,-0.06337629,0.12027721,-0.048037026,-0.014414851,-0.38128746,0.0029488457,0.07430239,0.019785313,0.12524946,0.04941321,0.15093178,-0.055734396,-0.19752032,-0.40235838,-0.033384763,-0.094598174,0.0240802,0.05387232,0.079635985,-0.0409623,0.10325529,0.03494357,0.080109395,-0.034054033,-0.04789962,0.0003843113,0.03691604,-0.10880334,0.03360723,-0.45083416,-0.055697385,0.08715305,-0.11246074,0.13484117,-0.10458687,0.039024062,0.06638203,-0.06735128,0.017828116,0.04812682,0.14392602,-0.040004358,0.10118506,0.11457559,0.01721006,-0.04136279,-0.037148904,0.06376079,-0.05681419,0.068758205,0.08768388,0.09206307,0.106833346,-0.070706815,0.020925675,-0.019914966,0.06185841,0.041013546,0.11883274,-0.072078206,-0.1257681,-0.3499043,-0.019522255,-0.11443114,-0.35525993,0.08168135,0.03251874,0.006906198
-0.0108102495,-0.049716685,-0.02544381,-0.10602559,0.012368901,0.05819924,0.08090605,0.05473705,0.05518318,-0.21039365,0.00072537194,0.14030595,0.050636366,-0.2765551,-0.013049808,0.035698686,-0.012411585,0.02001707,-0.010953518,-0.0840931,0.053665373,0.11223754,-0.116461664,0.15470274,-0.06882001,0.049290936,-0.0073121097,-0.07891544,-0.0045322226,0.00086636783,0.010524131,-0.03865839,-0.041991863,0.09019679,-0.014621103,-0.03642062,-0.35582316,-0.06459574,-0.06803723,-0.07540284,-0.041544434,0.10262389,-0.08381924,-0.01691155,-0.23554194,-0.32005727,0.014321608,0.07677282,0.042150877,-0.10750173,0.051696558,-0.097391814,-0.061162017,9.105105e-05,-0.07709393,-0.07025928,-0.02317633,-0.034395564,0.04774687,0.013531594,-0.10035895,-0.26836887,0.06372267,0.08261692,0.022473782,-0.035419885,-0.026971633,0.0035909377,-0.052807942,0.06488605,0.048865404,-0.11544738,-0.06778852,-0.048230678,-0.067321226,0.086539,-0.07472707,0.09593489,0.07292339,0.09353507,-0.0137617355,-0.011206454,0.07110563,-0.05306861,-0.05088336,-0.021054732,-0.07062386,-0.057353366,-0.03913649,0.05447627,0.04092249,-0.04982398,-0.09912713,-0.2709392,-0.0070112734,-0.08652954,-0.14984044,-0.0494124,-0.04321847,0.09342992
-0.056657314,0.094716094,-0.090629265,0.06296319,0.047280155,0.08927716,0.03164183,0.084882446,0.022551559,-0.024338912,0.04082638,0.0130040515,0.03769682,-0.100790136,-0.040779766,-0.072973125,-0.011282243,-0.0061517237,-0.050705068,0.09983496,-0.08589769,-0.023777377,-0.07374864,-0.06788469,-0.08694872,0.016792081,-0.051835183,0.027708933,-0.056042094,0.008737775,0.0056390306,-0.01709294,0.053118438,-0.05636831,0.03694117,0.087937355,0.048339255,0.08941692,0.05733852,-0.018976925,0.0690422,-0.08057069,-0.019829798,-0.04018763,0.029092334,-0.005739545,0.060658395,0.05321955,0.0073335283,0.041779745,0.091681,0.041318275,-0.026395902,0.07678937,0.0679172,0.00073236384,-0.04813421,0.059602585,0.088309824,0.053259477,0.08713463,0.07682726,0.061801776,-0.08575337,-0.0055598128,0.079144485,0.03882333,-0.0880199,0.03732706,-0.08542933,0.04428002,-0.041028097,0.052127503,0.0705815,0.0968153,0.00077486545,-0.017230792,0.102747425,-0.065522105,-0.040210117,0.09717431,-0.011487952,0.08670753,0.01755496,0.08389882,-0.09341045,0.034874678,-0.055813767,0.045217566,0.08545232,0.08481842,0.06443605,0.028231591,0.054884158,0.097648256,-0.06926739,-0.093539394,-0.0792669,0.04328426,0.08333834
-0.06567529,0.08960276,-0.023526505,-0.10924856,-0.093993835,0.062462296,-0.10424842,0.07518308,-0.0432338,-0.04658781,0.00231711,-0.044521544,-0.07994221,-0.05650954,-0.03865299,0.062137872,-0.034425084,-0.07161755,0.04770588,-0.11148787,0.016424306,-0.07082367,0.032805987,-0.052247252,0.022503302,0.10166707,0.04853887,-0.079641104,-0.010075232,-0.027707215,-0.1003098,-0.06572288,-0.07078182,-0.0070237415,0.02222205,-0.09124142,-0.06206748,-0.01598516,-0.08623855,0.062343467,0.067228235,0.013115852,-0.01835287,0.025737746,-0.032091495,-0.050566103,-0.005879551,0.07517683,0.06821972,-0.100045875,-0.057434738,0.031176677,-0.08982994,0.05809325,0.060612522,-0.0034465976,0.085858196,0.09722914,-0.025375862,0.015743895,-0.062231153,-0.04425832,0.012517718,-0.042950127,0.09513482,0.093095034,0.008042139,0.0007989974,-0.014847446,-0.051913224,0.08327953,0.05464595,0.043440804,-0.029583365,0.082313776,0.08705112,-0.06445064,0.007935115,0.07243299,0.003951877,-0.11157087,0.07665243,0.042606093,-0.0351748,-0.034241922,-0.10453017,-0.10195746,-0.042124923,0.037191726,-0.07221588,-0.0387516,0.042355523,-0.053912457,-0.105706505,-0.070668556,-0.017963251,-0.12266181,-0.011363669,0.013961185,-0.10090262
-0.022914065,0.05178937,0.03852547,0.08399416,0.04530442,-0.12274947,-0.00023880691,0.0258494,-0.022413487,-0.114683166,-0.035392407,-0.08682208,-0.11996717,-0.06032931,-0.03280119,0.11954132,-0.08162028,-0.12734759,0.101629734,0.03975042,-0.09839087,0.12111429,-0.119687796,-0.04048148,0.04360716,0.0095213335,-0.096274294,0.06822499,-0.04147633,0.08735302,0.09949436,-0.03984653,0.055185568,-0.05069827,-0.03724191,0.0661941,-0.03630321,-0.04274506,-0.0062965476,0.10760458,-0.05662775,0.057342254,0.1037561,0.083241366,-0.11940751,0.011886017,-0.030002616,-0.11655435,-0.089536496,0.028990822,0.10538842,0.07004371,-0.03895522,-0.010724312,-0.10506624,0.07383505,-0.12075476,-0.08764417,-0.06446916,-0.07004455,-0.018388366,-0.042488385,0.026224807,0.00023594241,0.02020834,-0.10986505,0.084382325,-0.07725555,0.10724839,-0.07727366,0.096177615,-0.11051131,-0.0065079485,0.078054436,0.028230397,0.11215711,-0.02326694,-0.107601374,0.036916442,-0.052917577,0.05242148,-0.0372684,0.0405042,-0.055722095,0.117432274,0.032579176,0.00187476,0.037403144,-0.0074400418,-0.044649176,0.09686839,-0.047095463,-0.058354568,-0.14082138,0.06061596,-0.0020402893,-0.13918811,0.083715476,0.03649628,0.057196032
-0.08101033,-0.062688865,-0.016041791,-0.07926048,-0.08636639,-0.0049806256,-0.0023765615,0.050228175,0.04940423,0.06217975,0.08613327,-0.03576056,0.052269466,0.024373371,0.047271486,-0.032728717,-0.059757095,0.08355502,0.03320674,0.061316814,0.026403286,-0.015831782,-0.01022555,-0.036108535,0.0011249747,-0.028325379,-0.06864278,0.06626638,-0.056081492,-0.082146116,-0.062259134,0.011647662,0.10182587,0.112801604,0.007977213,-0.10591289,0.016069228,-0.0028620493,-0.08002596,-0.09891052,-0.10779141,-0.009310613,-0.081508465,0.0026840775,0.06295451,0.17243265,0.08162337,0.05710089,0.06552486,0.04082155,-0.051260572,-0.0567237,-0.036932677,-0.056879673,-0.057673953,0.004567039,-0.028221462,0.0032724417,0.058368187,0.096327975,-0.07468082,0.19865064,0.072321124,0.056103285,-0.0020676896,-0.107102446,-0.049824182,0.09663405,-0.095608406,-0.0006632756,0.021192348,0.107161514,0.028651446,-0.07071601,-0.08845527,0.057512876,-0.028301867,-0.048068967,0.06404279,0.085074864,-0.005162399,-0.09538278,0.094120525,0.12446587,0.023652736,-0.022219883,-0.09190888,-0.08307762,0.03400055,0.009975623,0.022912782,0.053349692,-0.050685674,0.05394438,0.09159335,0.007358156,-0.011007847,0.021154432,0.0053635766,0.044626404
-0.028560556,0.08026112,0.089208364,0.027781803,0.10584989,0.06493254,0.06029035,0.047744736,0.10206146,-0.20429775,-0.035003148,-0.054652754,-0.033912614,-0.28908578,0.08317067,-0.094482616,0.033082668,-0.0371761,0.06439437,0.002506051,-0.106479235,-0.1220534,-0.108288996,-0.02280189,0.074108504,0.03739715,-0.030159377,-0.032111406,-0.025321405,0.034794923,-0.094471246,-0.044169933,0.009101406,0.002727341,0.10119918,0.022538885,-0.29440865,-0.06648906,0.0930743,-0.0026139666,-0.070961244,-0.10978425,-0.010059637,0.057914853,-0.28043112,-0.30391484,-0.058109995,0.057075787,0.029859921,0.05946447,-0.043863963,-0.081847616,0.06190353,-0.04596028,-0.016150532,-0.030376043,0.089888,0.10754944,0.033893194,-0.091117114,0.000103137565,-0.20813078,-0.036229648,0.048347723,0.09827561,-0.007547468,0.011420833,-0.087592974,0.053182956,-0.03797248,-0.06585777,-0.026116587,0.09428639,0.06652454,0.037043404,0.11398437,0.05088846,-0.06724319,0.042431273,0.0058978978,-0.032968648,0.0238522,-0.06897922,0.04076208,-0.07222905,0.09570176,-0.051073246,0.07461772,0.095112465,-0.09325955,-0.08709111,-0.022612946,0.005838002,-0.26954195,-0.0965472,-0.04074737,-0.14897805,-0.082386166,0.03195108,-0.03116275
-0.05558076,0.07781095,-0.05439501,-0.00455885,-0.0812246,0.041013278,-0.046389215,-0.035437647,0.04047808,0.042005487,0.08207354,-0.00037146054,0.0064009675,0.20448221,0.05611618,0.033957835,0.06158747,-0.045775063,-0.03107027,-0.021692446,0.025141485,0.08212884,-0.015777718,0.08784975,0.0645042,0.027241798,-0.03271575,0.06575341,-0.06365782,-0.11348206,-0.04602469,-0.104340464,-0.08022363,0.06711651,-0.047374506,-0.052113447,0.25354117,-0.015405192,0.018336968,0.02688744,0.05069468,-0.07116614,-0.0055040116,0.05644364,0.2021338,0.34485584,-0.02304782,-0.012376109,0.069197,0.0763537,-0.0752493,-0.06552696,0.028922305,0.0016449725,-0.02023439,-0.061994787,0.049363706,-0.056084767,0.073642105,-0.01862785,0.03611265,0.2629085,-0.05125897,-0.009004982,0.07809435,-0.10824833,0.0695453,-0.03226415,0.06779336,-0.07632606,0.0716315,0.057940897,0.10355425,0.0889586,0.084823,-0.061337795,0.0044004684,0.0638137,-0.084747456,-0.044701956,0.11650076,0.036542214,0.05180934,0.08295149,0.002089102,0.011174825,0.036209296,-0.03933195,0.029314663,-0.07923418,0.0883481,0.07972306,0.04879319,0.12455713,0.005228103,0.039725415,0.28636307,-0.074713916,-0.014487139,0.10773906
0.07595108,-0.009856702,0.085637406,-0.08781065,-0.09763293,-0.08898266,0.0788742,0.058460925,0.008141802,-0.18918936,0.0063210307,0.12878206,0.090813756,-0.3071147,0.011181137,0.04160377,0.0006393556,-0.09041353,-0.0061855596,0.028363397,-0.10852586,-0.09847104,-0.0378075,0.0038262664,0.014283143,0.0012112763,0.09214716,0.1217852,0.024608618,-0.009626935,0.021925038,0.038509056,0.018880067,-0.069635905,-0.016426861,0.025260357,-0.23251772,0.05527397,-0.08064894,-0.09912826,-0.07456183,0.05949475,-0.018567484,-0.021395467,-0.25415906,-0.28972483,0.08502107,-0.024457967,0.13124329,0.048377972,0.042343944,0.11579692,-0.0041364036,0.027128335,0.10082382,0.0104876235,0.008942271,0.066084884,0.08815662,0.024006978,0.031156022,-0.22424088,-0.01224911,-0.025123602,-0.0027031004,0.095286995,0.07772821,-0.07721356,-0.013553633,-0.08465757,0.05071952,0.059992578,-0.06686683,0.0077341637,0.0438506,-0.08658527,0.00023915498,0.14058995,-0.017736383,-0.017468357,0.01240418,0.11592687,0.07478828,0.058934867,0.004524242,-0.03614243,-0.08286695,0.037754294,0.0626778,-0.068885274,-0.057670742,0.05771973,0.011836749,-0.32562435,0.09142083,-0.07630357,-0.22077388,0.06487473,0.043812655,-0.12026822
0.09586193,0.03202441,0.0251339,-0.08347518,0.078489974,-0.0867281,-0.057862654,0.098365486,0.10275391,-0.029080896,-0.047942966,-0.058828384,-0.07525534,0.0060122474,0.05841719,0.10499097,-0.084513955,0.047895163,0.1006663,-0.03217659,0.030414708,-0.091999,-0.08044268,-0.0708472,-0.060184762,0.08064861,-0.044337675,0.03887578,0.08389101,0.084142216,0.0807532,0.10987545,0.0034403724,0.04682677,-0.08867981,-0.08521322,0.07444951,0.10029586,-0.06421857,-0.06374616,-0.024112858,0.025516665,0.059177697,0.08749106,-0.07930308,-0.02277429,-0.08896062,-0.08967051,-0.0924418,0.109721124,0.07523973,0.02400832,-0.00839177,-0.0156003265,-0.070426,-0.031338274,0.07967836,-0.11656384,0.11352743,0.020232394,-0.046685193,-0.114947505,-0.10606345,0.08985456,-0.115580104,-0.010936947,-0.004785269,0.007570087,-0.015781853,0.08581781,-0.037302736,-0.04524114,0.062044412,0.03606825,0.039435733,-0.09434878,-0.06276588,0.07598916,-0.0451097,-0.05083726,0.025866903,-0.04629091,-0.021125732,-0.093790434,-0.033500988,-0.038158026,0.029086169,0.083697416,-0.07319984,-0.059415016,0.029584788,0.102569066,0.11088012,-0.015824035,0.049422637,4.2497417e-05,-0.015664067,0.104737945,0.07163744,0.08281057
-0.07958564,-0.0051357127,0.040674232,0.034731966,-0.008806701,-0.0056911483,-0.00294393,0.07789642,0.07186916,-0.10645367,-0.11857144,0.0105473315,0.09620943,-0.27238822,0.031382717,-0.05880884,-0.054001354,-0.037024748,0.103854455,-0.008398092,-0.07909889,0.11018966,0.07540668,0.09177476,-0.015355104,-0.029538972,-0.044437982,0.01793434,-0.048161466,0.032050494,-0.08199721,0.012850197,-0.065679595,-0.103258185,0.04018562,0.08420015,-0.28398797,-0.06821601,0.010231051,-0.09043618,-0.0046695126,-0.021347923,0.06439608,-0.00808992,-0.06668677,-0.20999266,0.078384176,-0.07237663,0.0515619,0.102971315,0.0759125,-0.06266054,-0.12046829,-0.07129286,0.0010424699,0.10371073,0.03521879,-0.08277721,-0.0263208,0.12752163,-0.05124721,-0.17846599,-0.0947594,-0.08169325,0.012892291,-0.0856838,-0.11381315,-0.082625076,0.03272278,0.03113719,0.056571446,0.026362736,-0.053623322,-0.059126664,0.030944694,-0.06813543,-0.067609355,0.10420892,0.018366843,-0.0675179,-0.011591819,0.040690307,-0.10686524,0.018850565,-0.087650225,-0.039464984,-0.07077585,0.02552975,-0.044117272,0.10542906,-0.023770405,-0.002340404,0.0020157178,-0.3154287,0.02006654,0.11044822,-0.31583476,0.08281626,0.07229549,-0.084805414
0.01882939,0.026025193,-0.10004412,0.059861775,0.05555968,-0.03661558,0.0031557423,0.082373954,-0.0004421741,0.27490354,-0.026940893,0.055610273,0.08711034,0.23154227,-0.063762024,-0.13455603,0.027245758,-0.123422734,-0.08668403,-0.034188483,0.024140274,0.11437968,-0.008247556,-0.03631066,0.05964603,-0.06802036,0.07184098,0.0094034,-0.055139765,9.516608e-05,-0.059879247,0.04768535,-0.10424477,-0.054846,-0.08119023,-0.034943763,0.38631392,-0.028906504,-0.09118451,0.0034588822,-0.038536783,0.12163675,-0.016941482,-0.050980624,0.26353565,0.38193512,-0.050489783,0.04724849,-0.052930593,0.019775398,0.048619874,0.10609695,-0.018768104,0.045696322,-0.029724533,0.027119549,-0.075772464,0.05702974,-0.00039406813,0.064007565,-0.039708395,0.2931272,-0.0015488511,-0.11178317,0.0709311,0.013475222,-0.0734991,-0.068672396,0.04383852,-0.04329355,0.009234352,-0.082391895,0.013677638,-0.053628508,-0.017171878,0.025881087,-0.006021848,-0.02750001,-0.088838,0.11153122,0.11610404,-0.097230144,-0.04146003,-0.039147492,0.04496989,-0.07591819,-0.054556284,0.072353356,0.07380184,0.11659872,0.055120472,0.0037268037,0.035687897,0.27016252,0.04571522,-0.0013282249,0.3050306,0.029414184,0.05595684,-0.0336324
0.09088953,0.08245305,0.043789037,0.035412457,0.050958026,0.048040323,-0.047182523,0.011774578,0.10499935,0.24463783,0.05002298,0.09266265,-0.06101733,0.3664936,-0.09159335,0.07221328,0.07400502,-0.044056617,0.07062454,0.038654637,0.004369108,0.08033522,0.08412563,-0.08015336,-0.09833561,-0.07967409,0.05523384,-0.13192843,-0.070888095,-0.10666841,-0.06060263,0.06260096,-0.06992332,-0.020650815,0.089181274,0.093146294,0.2972199,-0.05934975,-0.025473535,-0.076617666,-0.036266547,0.10554509,0.014283074,0.039985836,0.28465638,0.24912441,-0.09173624,0.1006123,-0.061044727,-0.039413568,-0.06413182,0.03512914,-0.007785952,-0.053897146,-0.032615457,0.073787324,-0.034271576,-0.023128789,0.05127329,-0.07086097,-0.0015828223,0.36570174,0.09441355,0.083488554,-0.02164713,-0.047648817,-0.087391995,0.069431454,0.046727873,0.09450004,0.032910466,-0.03435947,-0.10000222,-0.0030841616,-0.012558961,-0.07216027,-0.002901869,-0.05632882,0.033360384,-0.048044696,0.13825573,0.0006899551,-0.045498308,-0.0045476775,-0.042048547,0.032383915,-0.05768185,-0.028079696,-0.09238225,-0.077863485,0.048794355,0.02673103,0.041896887,0.39592254,0.030770116,-0.04489702,0.2643026,0.13279714,0.0041563897,0.0075365426
0.076065734,-0.058274526,0.08486255,0.016192384,0.059344962,-0.015806772,-0.024765566,0.08336319,0.07138965,-0.087494366,-0.023054644,-0.115177736,-0.115857445,-0.19876654,0.05937173,-0.08240488,0.09200317,-0.06824515,0.033527583,-0.0076707844,-0.035060193,-0.098621316,0.066823944,-0.049830705,-0.09357417,-0.019829541,-0.07321013,-0.05594569,0.1118935,-0.005693495,-0.06607281,-0.10408562,0.015103375,-0.06564656,-0.0019735065,-0.0045668515,-0.07288844,-0.046649802,-0.04558308,0.03751985,-0.004633502,-0.0892463,-0.0052867653,0.038588427,0.019542953,-0.14985356,-0.00858752,-0.07633157,0.09233115,-0.089405335,0.08496738,-0.08804654,-0.03730236,-0.033959016,0.08711905,0.02163858,-0.11564191,-0.06202623,-0.0060042697,-0.021489343,0.012012107,-0.16843706,0.0361459,-0.09759851,-0.015106129,-0.031989336,0.017977035,-0.0089048585,0.036090795,0.07210054,-0.119734935,-0.090596534,0.018604498,-0.017285084,-0.039576173,0.0047275373,0.0881197,0.07894849,-0.049923,-0.095269375,0.0582935,-0.07752701,0.035950124,0.01961049,0.020287624,0.08454646,-0.024543311,0.023144795,-0.043153703,-0.08563686,0.072605975,0.035511356,0.075059906,-0.22100277,-0.0024596702,0.056145146,-0.07242372,0.034828544,-0.09184124,-0.09570814
-0.0743281,0.0066432436,-0.049581725,-0.06209302,-0.0005056287,-0.10914007,-0.0060547865,0.09200597,0.03460909,0.19532414,-0.027960245,0.0146857165,-0.048707496,0.1991257,-0.050574657,0.014009504,0.050009236,0.014709185,0.0168872,-0.040975206,0.058734793,-0.07612807,0.07301214,-0.07176809,0.034665197,0.09078234,0.08325974,0.06428307,0.07153932,-0.012789054,0.01279086,-0.07817278,0.021434024,0.050261095,0.02634219,-0.12683243,0.32348984,0.049959503,0.06235416,0.0072072493,-0.06465201,0.07312798,-0.03060498,-0.034429926,0.1878197,0.16734996,-0.07014976,-0.104821265,-0.09604404,-0.078500405,0.10904033,-0.020183006,-0.057679765,-0.041268114,-0.0077072983,0.03506322,0.13121729,-0.038435407,0.10454558,-0.0685384,-0.057851586,0.20787619,0.05309083,-0.06589595,0.02940287,0.020285165,0.042745393,0.011358597,0.052330375,-0.113571554,-0.056878652,-0.10351342,-0.079041906,-0.048140187,0.023967363,0.053484313,-0.06868525,0.008255134,-0.038994703,-0.09831031,0.06022038,-0.03591873,0.028070394,0.0697213,-0.13199359,0.042139426,0.008998337,0.022013756,0.013461068,0.062536724,-0.10380199,-0.023911806,0.072707854,0.301827,0.04296414,-0.033386428,0.23631784,0.0790332,0.036945503,0.1057765
0.040225215,-0.10384834,-0.055606287,0.060521822,0.057880472,-0.07073105,-0.030382693,-0.013222349,-0.051112644,-0.558762,-0.14138016,-0.016114276,0.06940437,-0.9113198,-0.037738875,0.022837864,-0.044951394,-0.08122835,0.040274967,0.020220974,0.006324635,0.0886456,0.024801815,-0.10866364,-0.1082405,-0.06686511,-0.021205705,0.07861916,0.03847824,-0.07671053,0.022954464,-0.07689877,0.09220907,-0.13283283,0.081761755,0.057095654,-1.1438781,-0.01627681,-0.05044403,-0.022537569,0.076878496,0.027840486,-0.026891466,0.097634636,-0.8348712,-0.98171604,-0.15360962,0.15811196,0.041140813,0.015712488,0.12673943,-0.088643864,0.055942312,0.0031891405,-0.043580584,0.03277833,0.0038221488,0.02297612,-0.03350224,0.0586181,3.0590352e-05,-1.1551611,0.003622956,0.079878196,-0.08959054,0.07152455,0.059334174,0.092668615,0.07251632,0.008537959,-0.17139888,-0.12351689,0.03962469,0.019694982,-0.02410329,-0.07428186,0.07646234,0.04167268,-0.120309785,-0.051374022,-0.46559235,0.057124022,0.10362334,-0.03051887,0.14868434,0.04048685,0.08269877,-0.01267808,-0.07081149,-0.012811646,-0.094143555,-0.059961274,-0.016143408,-0.87961483,0.005251002,-0.054271698,-1.0098872,0.044600602,-0.03371825,-0.06605546
-0.081734456,0.038460057,-0.03672174,0.053950746,0.07499254,0.09505333,0.059413996,0.055560503,0.049776413,-0.11295916,0.005934388,-0.06071656,-0.056192607,-0.0038863157,0.040873602,-0.014305018,-0.03565022,0.021925375,-0.06721952,-0.08361032,0.056729503,0.08152057,0.035396766,0.048378795,0.056738485,-0.0231151,-0.09849475,0.1059056,-0.02972219,0.011894309,0.053382896,-0.072124824,0.058297604,-0.09423339,-0.05538158,-0.0461623,-0.116528206,-0.0121427905,-0.010765754,-0.062317755,-0.039778396,0.046476725,0.06282413,-0.086596236,-0.07543944,-0.1723033,-0.06574334,-0.08260306,-0.06933943,-0.0777988,0.07390609,-0.08506997,0.07587176,-0.03130737,0.09565029,0.07977596,-0.010813096,-0.040978674,0.08168645,-0.06583135,-0.09509535,-0.120396964,-0.014366022,0.07223097,-0.062038623,0.027915671,-0.084318124,0.051449813,-0.09949174,-0.11417847,0.00665735,0.0009820841,0.03860817,0.04852602,-0.05889853,0.10372576,0.08353026,-0.07406086,-0.07551686,-0.012990805,-0.0055650547,-0.06458231,0.078450605,0.06582666,-0.048847146,-0.08492906,-0.08067655,-0.07668348,-0.04546368,-0.012800962,0.0012573336,-0.025670685,0.09022729,-0.096299805,0.0817458,0.0017878028,-0.15131041,-0.0034843243,-0.03424921,-0.0823756
0.08267209,-0.06216812,-0.050210256,0.07681788,0.0731751,-0.009215669,0.01888148,-0.10115799,0.008940444,0.18878002,-0.0640743,-0.12816764,-0.07816042,0.35654375,-0.08936911,0.09350738,0.11242947,0.02436947,-0.04281072,0.008065749,0.083681196,0.08235387,0.08208298,-0.06756746,0.07823078,-0.009951898,0.07781363,-0.008613196,0.06351827,0.10408575,0.050965156,-0.07622526,0.05261925,-0.024148058,0.052161515,-0.017151099,0.23215723,-0.04833276,0.007375741,0.057536785,0.031105628,-0.021925734,-0.07377584,0.07920939,0.19471166,0.23994933,-0.021350957,0.018646957,0.047572944,-0.040687274,-0.03239446,0.015630573,0.06762646,-0.008064206,-0.04345365,0.047937073,0.029775832,0.03697243,-0.017498503,-0.09930282,-0.083261006,0.27181464,0.053623185,0.02350938,0.11235809,-0.13510352,0.14100873,0.05673626,0.016085906,-0.08914545,-0.08691627,0.015355735,0.0150966,0.072507,0.048292797,0.09163669,0.04409017,-0.022943942,-0.020431785,0.03746519,-0.025959682,-0.0021803686,0.08633669,-0.06865785,0.08586519,0.08372251,0.024649382,-0.0833065,0.0023924496,-0.026196556,-0.06674174,0.084391326,-0.059625078,0.21289654,-0.047208406,0.011759196,0.23719338,0.090329975,-0.08697296,-0.004165392
-0.056089286,-0.07486864,-0.03118812,-0.05967429,0.12274299,-0.07508989,0.051943786,-0.026301071,-0.04216288,0.08472039,-0.04405525,0.100670174,0.10032656,0.15756084,0.065071,0.043061923,-0.017511902,-0.016915025,-0.0013483794,0.04087368,0.023663927,0.10160277,0.014073215,-0.09310304,-0.062495865,0.035891056,0.04319449,0.0850023,-0.008257493,0.01953592,-0.09146872,-0.07751476,-0.0033382783,0.03469021,0.02122118,-0.08685432,0.24339706,0.04257732,-0.090400904,-0.015093572,-0.066655256,-0.07079342,0.025465878,-0.062299203,0.23960747,0.23823752,0.08969989,-0.023200953,-0.047148924,0.08448685,-0.05685455,0.037059642,-0.041917533,0.06882843,0.07393368,0.0943277,-0.0029052359,0.05767846,-0.09490503,-0.080651104,-0.0176193,0.27983648,0.02991055,0.004761588,-0.0041084005,0.07439212,0.08078042,0.07973727,0.0623483,0.021628266,0.05647797,0.09736664,0.084882416,0.014380022,-0.058403824,-0.03051574,-0.038031917,0.080692545,0.011666432,0.081692144,0.07791618,-0.06879983,0.06403876,0.03736253,0.092292465,-0.07030155,0.0028301585,-0.09491872,0.002528124,-0.035107017,0.06092783,0.060388602,-0.04404847,0.15219109,0.050523244,0.028859088,0.29323617,0.015395597,0.03503172,0.007852614
0.024446296,0.06536336,-0.044855177,0.05458346,0.018346412,-0.01606636,-0.023884548,-0.078874275,-0.03801387,0.07827465,-0.018502932,0.056975465,0.07617558,0.1051051,-0.08586147,0.06613624,0.036019564,0.05295049,-0.08069854,0.06703327,0.0642843,0.12572314,-0.1005896,0.06226153,0.060513534,-0.022829587,0.10816071,0.02539507,0.020198222,-0.028411858,-0.030368065,-0.089644335,0.11742658,-0.06971108,-0.072273284,-0.034048095,0.24437371,0.012640031,-0.014914292,0.044147905,-0.095422395,0.11108323,0.02909118,0.03435426,0.027351342,0.28569353,-0.10348179,-0.035419106,-0.03457478,-0.07592247,-0.042122878,-0.055332344,-0.0629754,0.0637564,-0.034518052,0.091719784,-0.079388626,0.0166891,0.008290764,0.022595434,-0.028630512,0.14943504,-0.008359307,-0.048895314,0.04292944,0.03529591,0.07814073,0.13245852,-0.051357944,-0.06937054,-0.013649855,-0.08414239,0.028117875,0.08508632,0.05883024,-0.08388874,-0.033069827,-0.0069657597,0.059377644,-0.040780548,0.12994716,0.03956404,0.03672132,0.02878242,-0.019927915,-0.059303705,0.12378441,-0.111281104,0.010162167,-0.08504748,-0.06847799,0.06676591,0.04571942,0.259065,0.033119176,0.031990666,0.24281925,0.08915628,0.018362029,-0.06608642
0.062414143,0.089051336,-0.051710896,0.1263262,-0.07131019,0.0052160006,-0.011637921,-0.076530464,0.019801522,0.049242616,0.004377801,-9.9383615e-05,0.09796686,0.016963974,-0.10198371,-0.072434686,-0.047308635,-0.08465996,-0.08096889,-0.03406365,0.016521532,0.07130727,-0.011280246,-0.07592525,-0.08074162,-0.0415513,0.06152227,0.01850932,-0.017553626,0.027121019,-0.0047761523,0.095695615,0.078835815,0.042326134,0.027837893,0.062561214,0.07984662,-0.06432975,0.048322428,0.05444312,-0.0460082,0.11129956,0.055330683,-0.070723705,0.15913793,0.19851542,0.10446702,-0.060295664,0.061958384,0.07597636,-0.012151392,0.08630509,0.006853619,-0.015910888,0.025098387,-0.045091156,0.03470751,-0.05344868,0.0209655,0.09695824,0.12355916,0.15009871,0.059382223,-0.064642645,0.010990226,0.0071668904,-0.04219146,0.094758,-0.09591335,0.07991533,0.039118472,-0.10099879,0.044106003,-0.06365683,0.039138895,-0.09884582,-0.031698827,0.05042735,-0.10397099,0.021057718,0.026339537,0.067472674,0.03523532,-0.0031222461,-0.030700268,0.045281965,0.08467464,0.0689037,-0.039480362,-0.0062436387,-0.083737604,0.03373939,0.028680442,0.17653467,0.039709542,0.054574743,0.04703184,-0.044864103,-0.09947321,-0.00053252775
-0.11191121,0.02019883,0.014713865,-0.08822494,0.003256883,0.07221932,0.07737052,0.051117215,0.01826101,-0.1304283,0.027915034,0.025469096,-0.0013942145,-0.08867863,0.016822455,-0.036566112,-0.037947886,-0.039955575,-0.021694839,-0.04136314,0.06425721,-0.050798945,-0.0061628693,0.046741854,0.058682878,-0.010295379,0.06747956,0.022819148,-0.042096145,0.03668065,0.037693795,0.05710114,0.07411272,-0.08609343,0.0034140926,0.050307784,-0.2832511,-0.047444295,0.06426819,0.07735049,0.0946432,-0.09553462,0.039496936,0.045006085,-0.13963956,-0.29112232,0.06452516,-0.06447587,0.041056186,0.053614575,-0.10057517,-0.025946984,-0.038952354,-0.045010544,0.022064757,-0.0838262,-0.025760332,-0.043421663,0.06603805,0.033074275,0.0014833703,-0.12536342,0.07632768,-0.026050834,0.02530852,-0.042526074,0.050831664,0.078482114,0.07448545,-0.06697033,-0.07105935,0.017774599,-0.06746551,-0.06920855,0.05479523,0.018597564,-0.09859134,-0.016040262,0.029851321,0.060877327,-0.15575983,0.02651467,0.06011343,-0.10615358,0.06597552,0.0006045876,-0.062485732,0.037039272,-0.12193752,-0.03984763,-0.045516916,-0.039186273,-0.041312087,-0.2574459,0.003008787,0.07690918,-0.1915875,-0.09857917,-0.017548563,-0.08201117
-0.1095078,-0.07806663,0.033545874,-0.048696212,-0.026919061,-0.0019330076,0.018526742,0.04590359,0.07392469,-0.21969979,-0.078655094,-0.07153025,0.08442151,-0.3407629,0.070408046,-0.033039086,0.0885303,-0.073754705,-0.118030295,0.0666804,0.0082902005,-0.0043998263,0.035557877,0.12698841,0.066429615,-0.057633564,-0.015366586,-0.11433599,0.013546442,0.06263754,0.04149385,0.037006322,-0.025482394,-0.06388962,0.005061971,0.034260202,-0.18627882,-0.029909566,0.007387161,-0.061255228,-0.08354403,-0.034238353,0.034531645,0.10127058,-0.15520474,-0.33467442,-0.038215764,0.059800554,0.052250393,0.10895415,0.030972648,-0.11112556,0.03590862,-0.012310691,0.033480838,-0.10371355,0.047622666,-0.014228863,-0.02831343,-0.07500313,0.05865224,-0.3341234,0.08723722,0.11028587,-0.08200146,0.061345227,0.06464008,0.11488798,-0.13951863,0.10113774,0.10742453,-0.066155486,-0.011045665,-0.09208771,0.040572274,0.0003920642,-0.029923983,-0.02432625,0.055293936,-0.060633954,-0.033850156,0.055047322,-0.10582611,-0.042299055,-0.111095056,-0.08950374,-0.067725055,0.013612802,-0.09543846,-0.094254605,-0.019326784,-0.10749901,-0.092119366,-0.24272531,-0.06537554,0.007964224,-0.21317199,-0.049403906,-0.099597044,0.0065530105
0.04547742,0.035108674,0.10030184,-0.030762503,-0.054478105,-0.06296793,0.08436962,0.00036833747,-0.06819292,0.037958242,0.016807728,0.008169691,-0.056238573,-0.025348384,-0.060966946,-0.038218386,-0.095422,-0.029085504,-0.075982384,-0.06461204,-0.061408937,0.0039369534,-0.043982156,0.053195126,0.059827335,-0.0037096022,0.057607073,0.023362711,0.06411171,0.0066284263,-0.09010168,-0.05313401,-0.08249693,0.028724574,0.0465009,0.054145034,-0.124171324,-0.08480382,0.059909362,-0.040970508,0.041045666,0.08349606,-0.022859445,-0.041704908,-0.12493218,-0.05572334,-0.01203377,0.043285403,-0.077840805,-0.016587788,0.0053690383,0.09083305,0.09240644,0.044801537,0.03447637,-0.0016313704,-0.08623225,-0.055059876,-0.017401509,-0.083174296,-0.040628906,-0.004538727,-0.10517838,0.009761656,0.06937107,0.00029968724,-0.043785986,-0.051368926,0.07856373,-0.08491367,-0.056900546,0.07547363,-0.08197702,0.07105829,-0.054604594,-0.02264994,0.07031434,0.012537532,0.023394255,-0.014556431,-0.077439345,0.046526767,-0.04582617,0.066671096,-0.041610908,-0.07845922,0.029828487,-0.049061906,-0.0758101,-1.594976e-05,-0.045317397,0.055149537,-0.075454235,-0.10290937,0.0711544,-0.0073387525,-0.076009296,-0.029380675,-0.10324826,-0.062865235
-0.10701189,0.06600219,-0.031093033,-0.06418491,0.06664546,0.0010696261,-0.10191046,0.1014745,-0.089368895,0.14922085,-0.07539108,0.0711758,-0.002023456,0.15765166,-0.0019672133,-0.034342747,0.07049691,-0.0217509,-0.08862235,0.094022796,0.084922224,-0.024539758,0.09944266,0.057874657,0.02550922,-0.08012575,-0.061590075,-0.023577351,-0.04861546,0.07498389,-0.08970402,0.13264383,-0.018978225,-0.013024183,0.040338315,0.077123694,0.12686312,0.08539864,-0.038025793,-0.037611946,-0.06409656,-0.023939583,-0.098539725,0.041543465,0.08730794,0.22147709,0.069219925,-0.027177319,0.096890576,-0.09439909,-0.099209696,0.009361465,0.045218762,-0.06399547,0.057268433,0.047509167,-0.065345004,-0.07725305,0.06279155,-0.015508982,0.0010982525,0.06949992,0.058513694,-0.053452402,0.058324683,-0.0565416,0.0081253685,-0.0522162,0.1094061,0.033627186,-0.064570524,-0.014200511,-0.050253235,0.0023633987,-0.055471133,-0.086108916,-0.08557123,-0.06210566,-0.006810893,-0.020165192,0.021474905,0.054859743,-0.025255084,-0.052007224,-0.015336675,0.06873235,-0.06655608,-0.117338076,-0.10104443,0.118276894,-0.045907144,0.021364221,0.04376233,0.18402943,-0.010002372,-0.06572643,0.1472135,-0.026831323,-0.08240408,-0.0024781907
-0.07497134,0.06433005,0.031483617,0.10854974,-0.021512695,-0.073590934,-0.022546304,-0.05098469,0.048635587,-0.21435468,0.008103923,0.054334912,-0.07927031,-0.17023376,0.04964685,0.0820235,-0.079041936,-0.024115494,-0.070882715,-0.06935342,-0.08059173,0.0073366663,0.056572784,-0.07895858,0.09360898,-0.07318935,-0.030342033,0.05390482,0.018942742,0.063358046,0.08260595,0.10791857,-0.079750344,0.046963517,0.022332698,-0.11411685,-0.086003855,0.046010267,0.0048227976,0.06413065,0.063889585,-0.09997816,-0.019240638,0.04325383,-0.1916382,-0.30999425,0.039296415,0.014487881,0.04009095,0.078973114,0.06384434,0.09108473,0.07851175,0.076160535,0.07764925,-0.06888819,0.01906537,-0.040529873,-0.012630351,-0.017203983,-0.08345763,-0.17169894,0.10021473,-0.08122159,-0.024462411,-0.05365706,-0.030136736,0.034421444,-0.059645813,-0.029694509,0.04268672,0.06068828,0.015194167,-0.055525023,-0.027949648,-0.05719502,-0.012103486,-0.004015258,0.0041463696,-0.012052536,-0.02096101,-0.05615892,0.01678645,-0.05544112,-0.028931458,-0.024859965,0.06916134,0.08054929,0.0011044417,-0.09724761,-0.04727594,0.0832937,-0.09638167,-0.2501562,0.09202416,0.07285886,-0.07228902,-0.04987463,0.05453594,0.12985724
0.030037034,-0.023616733,-0.014005828,0.084855266,-0.09277468,0.06480795,-0.042002957,-0.0003177662,0.08022168,0.15478227,-0.029160358,0.081422806,-0.025126738,0.13897467,-0.05763364,-0.07777655,0.0052361754,0.09510113,0.044704344,-0.044696476,-0.06010174,0.0027176468,0.037258588,0.057343498,-0.08001434,0.06705236,-0.0016601422,0.072705686,-0.021063305,-0.07401019,0.07614103,0.052324124,-0.070012085,0.0014790609,0.06731073,0.067583784,-0.011177551,0.037976593,-0.11232218,0.00479797,0.05808388,0.025338238,0.08943712,-0.021072501,0.027844,0.071486905,0.087605394,-0.04961391,-0.08738357,0.03143111,-0.02285006,0.07402946,0.02826256,0.057499345,-0.018736105,-0.08426929,-0.061548896,-0.007163833,0.088568315,-0.07027604,-0.085556075,0.046984993,0.10039665,-0.023154305,0.053638108,0.041204154,-0.046106443,0.09015506,-0.046156105,-0.013444924,0.017140305,-0.08094814,0.0061913435,-0.048258018,0.07350201,0.06162295,0.08046185,0.0924142,0.05145146,-0.057290792,0.030043127,-0.09699747,-0.013823652,0.060724307,0.016799273,-0.06958153,-0.026445262,-0.09719964,-0.08475716,-0.0306501,0.0028205893,-0.05111595,0.10092716,-0.012691569,-0.06982187,0.057334553,-0.055742245,-0.0726362,-0.025420245,-0.014714952
0.013103164,-0.04169544,-0.055902608,-0.07953118,0.014378905,0.09722794,-0.02942719,-0.066798784,-0.10954541,0.029426176,-0.06554705,-0.10575724,0.0796731,-0.01179862,0.04352732,-0.07188162,-0.051517606,-0.023100013,-0.07584199,0.044086497,-0.044212047,-0.051892653,-0.049389757,0.013086597,-0.07307485,0.042130075,-0.022359062,0.04332179,0.023320518,0.053528465,0.10318009,-0.040040076,-0.065458834,-0.045518737,0.033625618,-0.0708795,0.14629418,0.10026493,0.053042654,-0.048842426,-0.09813731,0.051040027,0.11026451,-0.10035469,0.06997691,0.05426719,0.06941126,-0.08136486,-0.043961227,0.012223638,0.10333691,0.048451755,-0.10612071,-0.05247685,0.038592964,0.0731247,-0.008114911,0.0684278,0.006124974,0.0048724995,-0.07783931,0.03033811,0.021652084,0.09648235,0.008231607,-0.1128137,-0.08027072,0.046470974,-0.08627608,0.02725917,0.11016537,0.055336714,-0.048472695,-0.04078599,0.057411373,-0.004947085,-0.0062080836,0.021708589,-0.033706203,-0.044462603,0.04841934,-0.027521927,0.08829956,-0.06509847,-0.07467367,-0.034349952,-0.008622963,0.03495799,0.08141211,-0.103324,-0.063869156,-0.07617695,-0.06274651,-0.0080275005,0.054602675,0.029586133,0.111688316,-0.027948428,-0.052908357,-0.045021642
0.018895116,0.098011084,-0.013189547,-0.0523461,-0.09692714,0.025737053,0.07520477,-0.008101827,-0.056214947,-0.034803018,0.09761482,-0.013961303,0.060004044,0.10603306,0.008776567,-0.020123838,0.062241968,0.051442083,-0.06933545,0.051215395,0.0072226725,-0.10510627,-0.07081304,0.09422877,0.052978534,-0.004719978,0.034238275,-0.08176911,-0.03953613,-0.0013353415,-0.046834618,0.073919885,-0.02063527,-0.034252755,-0.017530737,-0.04459133,-0.0410427,-0.0900719,0.05481243,0.010617737,0.053931892,0.003542226,-0.053271193,0.02469743,0.09845305,0.01803699,-0.024881184,-0.022062378,-0.059532054,-0.06457004,0.06470695,-0.04101667,0.0718019,-0.033767123,0.08042201,0.07930487,-0.06324933,-0.077727884,-0.05534135,-0.100683935,0.08496534,-0.0608501,-0.03121446,-0.029755624,0.013200346,-0.068753324,0.06284154,-0.034043487,-0.05780718,-0.07276508,-0.07287934,-0.057216145,0.01866692,0.07023525,-0.08190651,0.078949906,-0.08335916,0.09576478,-0.035630763,0.09551895,0.035613887,-0.07720904,-0.0486955,-0.08515067,-0.020708634,0.04818813,0.092711106,0.061362907,0.06408558,0.0012947317,0.011118616,0.08476978,0.021731535,0.019225594,-0.07356502,0.07007665,0.051944192,0.054255396,0.11084772,-0.0885282
-0.025323322,0.07508272,-0.016906228,0.012693928,0.12533425,0.06526825,-0.1397238,0.083815046,0.07423237,0.36548716,0.070621066,-0.06942614,-0.029535474,0.48021075,-0.0074244775,-0.082630314,-0.048060786,0.032418635,0.1296003,0.037720904,-0.0021945166,-0.05328338,0.031058723,0.06526025,0.029185569,0.004358684,0.11347735,0.04757298,0.030482978,-0.0022164602,0.042122547,-0.054084416,0.054962613,-0.003613691,-0.045714345,-0.0691038,0.6528103,-0.0284495,0.092121944,0.0008270216,-0.015650734,-0.009845325,0.036800202,0.0018595569,0.45095605,0.656012,0.028260108,0.066476315,0.027644837,0.08200945,0.013130181,0.028946377,-0.042686943,0.013351244,0.052430302,-0.035052527,0.03007108,0.048920758,-0.0058984077,-0.034328476,0.014800512,0.48710212,0.07304356,-0.04045932,-0.0653991,0.0033696543,0.01794208,0.0016690375,0.015484309,-0.07107072,0.019148994,0.030045133,0.027889593,0.065875135,0.09401675,0.094975516,0.059654802,-0.08697242,0.034118615,-0.06999424,0.2093129,0.045462288,-0.06588972,-0.06254482,0.045783974,0.0272552,0.06865559,0.08210158,-0.010528351,-0.08087808,-0.004780654,0.11652177,-0.12590164,0.4907529,-0.11582977,-0.043428436,0.5864527,-0.07396004,0.045753572,-0.043465443
-0.07292562,-0.06206546,0.07739792,-0.072126,-0.026935225,0.022524582,0.08935982,-0.08126046,-0.10372339,-0.09215895,-0.05669399,-0.045947034,-0.057085145,-0.28866056,0.06747428,0.070353605,0.041153137,0.07617726,-0.051527444,-0.081613064,0.04961575,-0.07763816,-0.030645546,0.093590766,-0.117100894,0.059765,0.007838381,0.0069201,0.06380964,0.013091219,-0.09257249,0.06937543,-0.13209105,0.06807693,0.019384174,-0.001153866,-0.22432053,0.069658816,0.14929608,-0.08719924,0.0840161,-0.08643457,0.0895431,-0.029023003,-0.17525649,-0.33834878,0.061954923,0.064070664,0.018849498,0.004720748,0.0022932698,-0.08450598,0.06123718,0.08147851,-0.07621359,0.06405633,-0.07251365,-0.078162126,0.05084682,0.032618698,-0.03845035,-0.32978716,-0.06379112,0.081948616,0.04033109,-0.00014925603,0.014718276,0.0041952315,-0.08181759,0.020194158,0.036719065,-0.0032237999,0.05498003,0.00077470666,-0.07004162,5.5630906e-05,-0.053686243,0.1073854,-0.058926336,0.12844431,-0.15122437,-0.0074240714,0.043465354,0.010369026,0.05844444,-0.094821416,-0.03988035,0.06934888,0.046344332,-0.08367083,-0.050982688,-0.020475881,0.05420907,-0.26616508,0.024370402,0.11055078,-0.25426212,0.034219157,0.03695895,0.002954097
0.03024167,-0.085400514,0.07400137,0.019366791,-0.009776505,0.035693794,0.015514987,0.024900805,-0.004149945,0.1514174,-0.06621554,0.116625905,-0.11462414,0.13984606,0.0822063,-0.028999278,0.08711623,-0.0132240085,0.08008529,0.024469974,-0.04427362,-0.00045283386,-0.03772878,-0.035760894,0.07179709,-0.07701426,-0.08628162,-0.10003896,-0.0122249955,-0.036462493,0.01702068,-0.07008747,-0.044845182,0.023067676,0.07363498,-0.079804905,0.109624825,0.09689519,0.0059840158,0.06579595,0.045021497,-0.045772914,0.07384012,0.0532962,0.20414513,0.24551256,0.10691492,0.053585958,-0.060711175,0.13673832,0.11210278,0.09765287,0.091547854,-0.0504172,0.010783497,-0.017150184,0.047485102,-0.0064907554,0.013159732,-0.088375874,-0.04188472,0.23017053,-0.049276166,-0.04631019,-0.008226723,0.024833707,-0.009735915,-0.021250118,-0.020398485,0.08088538,0.040935896,0.081731774,0.040487096,-0.070508435,0.07095711,-0.022503823,-0.10109575,-0.013882349,0.02793113,-0.08003606,0.01647196,0.062194157,-0.114282794,-0.0026131305,-0.010367197,0.0019662597,-0.023615183,-0.08796986,-0.019350862,0.0736347,0.098955,0.070961066,-0.049771473,0.05032961,-0.06682681,-0.056964736,0.1560424,0.037484903,0.065770775,-0.03448913
0.05715618,-0.08002035,-0.09761913,0.09209523,-0.060178053,-0.0033166804,0.057782967,-0.006871256,-0.010781944,-0.2385514,0.027429072,-0.022792151,-0.054630928,-0.17680772,0.009664389,0.043399736,-0.045323,0.051265426,0.027957661,0.080345035,-0.011369933,0.03495941,-0.021099316,-0.08768791,0.02826817,-0.047976453,-0.022522533,0.03424477,-0.025598923,-0.012418076,0.06646943,-0.01550509,-0.042168923,-0.114072844,0.036817573,-0.035904698,-0.3216623,0.01115244,0.05205357,-0.055687927,-0.012966689,-0.025075464,-0.018900309,-0.06191235,-0.18536274,-0.3363503,-0.026133483,0.031313907,-0.072442174,0.04432537,-0.08166873,-0.10264084,0.0021712284,0.073942155,0.051224936,-0.044629537,-0.079617195,0.04562382,-0.017827464,0.08425858,0.077444315,-0.34839,-0.08568112,0.06730035,-0.060826637,-0.062427357,0.042965427,-0.08028811,0.07470713,0.013907455,0.05296208,-0.019819671,0.025042757,-0.056903727,-0.066996984,0.09432687,-0.09172361,0.04952751,0.023408055,-0.03305978,-0.0077384776,-0.045030728,0.017968422,-0.007141418,-0.042104114,0.0370657,0.070973046,-0.07510154,-0.028922101,0.062236004,-0.03649227,0.004735773,-0.121420614,-0.19405212,0.11501204,0.08272141,-0.3081365,-0.070668176,-0.057354067,-0.05353853
-0.008659689,-0.08621099,-0.06090942,0.03700973,0.056838628,0.05504645,-0.09356117,0.087308064,-0.07121338,-0.17590953,-0.09609139,0.06780001,0.090494,-0.1673614,0.02439708,-0.009521785,-0.088435784,-0.07480821,-0.029821433,0.047575954,-0.1116245,0.061957836,-0.042730175,0.054006387,-0.06119518,-0.036907073,0.03519366,-0.04406081,-0.025298102,-0.084246054,-0.0393578,0.07924758,0.07261839,-0.027876338,-0.064438246,-0.097703904,-0.18176693,0.069692895,-0.049519032,0.07306922,-0.042966407,-0.10598536,-0.007257128,0.018489528,-0.07094357,-0.21932317,-0.01404874,0.024761893,0.072237134,0.027215572,-0.073368594,-0.09335463,-0.004409854,0.032099016,-0.047697067,-0.020579731,0.0020120558,0.07603088,-0.07604066,-0.057683665,-0.034099475,-0.25770447,0.104196094,-0.0035452265,-0.0223232,-0.0023824954,0.027178215,-0.034160763,0.05894231,0.0078459205,0.0007782205,0.092837386,0.010705973,-0.106779404,-0.07601819,0.040149115,0.06562831,-0.047247745,0.090981215,-0.08250764,-0.09255111,-0.09621904,-0.048901618,0.051024012,0.088715285,-0.11796678,0.035920065,-0.094962195,0.043610863,-0.101629205,0.10801366,-0.046804257,-0.022622464,-0.17924915,0.03288082,0.05983924,-0.17442133,0.0075065233,0.06060189,-0.053714477
-0.016125062,-0.08102895,-0.008922796,0.09630299,0.04687271,0.04684099,0.09725688,-0.093097135,0.05052921,-0.12942974,0.088575594,0.04068156,-0.027281143,-0.13180524,-0.113559335,-0.05152235,-0.022223322,0.051418345,-0.091047205,-0.08671508,-0.019972019,-0.030905526,0.028989874,0.056534953,0.07900355,-0.06280164,-0.05861944,0.06386613,-0.06039612,0.100075364,0.003622953,-0.051635485,0.08566687,0.08661683,-0.103189796,0.019206857,0.0028341732,0.09509268,-0.022693926,0.03718472,0.046450272,-0.076070935,0.0828245,0.096951954,-0.1323256,-0.035140555,-0.09165124,0.008737238,0.011250298,-0.024093792,-0.08764873,0.016350027,0.09711491,-0.023535825,-0.04701753,-0.01742725,0.009272377,0.032452423,0.06606904,0.08580394,0.053915437,-0.12686583,-0.08729834,-0.08577601,-0.0020170952,0.041644067,-0.09886794,-0.07499561,0.04717537,-0.04076164,0.087875195,-0.05167119,-0.04191456,-0.006099707,0.04447032,0.038514085,0.08314932,-0.07521259,0.09429762,-0.034966905,0.030191131,-0.004780764,-0.10568987,-0.020292912,-0.052326556,0.06473773,-0.07825947,0.09843749,0.089806594,-0.07910323,-0.066909276,0.083353855,0.08426925,-6.441091e-05,0.08260636,0.043408126,0.01697457,0.0581958,-0.013721404,-0.044507723
0.04897053,-0.03931065,0.026741704,0.038787525,-0.056536935,0.0707833,-0.054706395,0.01472963,-0.11997639,0.2100543,0.11093756,-0.018031038,-0.0022871993,0.23729435,-0.05245634,-0.05582764,-0.02646966,-0.041409627,0.024063269,-0.039694883,0.059044078,0.020625398,0.09962501,-0.063157864,-0.061734922,-0.07257393,0.07530274,0.08655357,0.016937522,0.015326925,0.042100508,-0.09478125,-0.017523669,0.011507862,-0.07690093,-0.08521421,0.17815122,-0.005892724,0.03261629,0.0057283747,-0.08803605,-0.0052298824,-0.029112527,-0.08602158,0.11252412,0.23452227,0.028043097,-0.11558027,-0.042110793,0.0049210633,0.03539033,-0.039917026,0.08260758,0.03744388,-0.009524675,-0.066614196,-0.07406297,0.0045909695,-0.08796755,-0.042627018,0.0961336,0.12804534,-0.09572802,-0.058895495,-0.020599386,-0.034368932,-0.06585175,0.049345113,0.03938904,0.08045528,0.06353516,0.03160256,0.07015536,0.073956475,-0.055191603,0.038328256,0.05981201,0.023283212,0.04504923,-0.0146703925,0.012708109,0.07005058,0.094725095,0.10270261,0.12415697,-0.032376572,-0.05910671,-0.056317765,-0.031637285,0.10989557,0.06444946,-0.03556866,0.062090125,0.27748376,0.012642767,0.028726602,0.2081134,0.07414819,0.083207406,0.07066493
-0.07714993,0.029129624,0.0030080408,-0.14082783,0.05646312,-0.08575735,0.039557192,0.021787325,-0.084950656,0.110195935,-0.0580688,0.01853852,-0.057541903,0.14925116,-0.0033168313,-0.074347675,-0.030652016,-0.030410452,0.020478906,-0.08403934,0.0050708535,-0.013984256,-0.07855298,0.0045540747,0.020187609,-0.07447809,0.026299678,0.08978624,-0.0050318614,0.05994877,-0.03122111,-0.052039556,-0.064940624,0.106603555,0.07009713,-0.03718524,0.27895254,-0.0020181003,-0.048083536,-0.08375579,-0.029383307,-0.111527495,-0.064519204,0.015659623,0.033272397,0.106308326,0.0030380422,-0.12580918,-0.0130171925,-0.10027905,-0.1124647,-0.088251054,-0.022331048,0.010991421,-0.07469407,-0.10440189,-0.0102372095,0.012945897,-0.057627153,0.09122519,0.046026215,0.2952835,0.061223295,0.110250585,0.10502786,-0.04499605,-0.018444823,-0.050111465,0.11242113,0.103385344,-0.053296905,-0.022225989,-0.054552697,0.015236199,-0.059849683,-0.10009272,-0.04095937,-0.06463931,0.037355594,-0.11189983,0.058182724,0.08934472,-0.016910175,-0.014854459,0.08085172,0.06284467,-0.05737813,0.049298543,-0.0069327666,0.05888424,-0.09716492,0.060002115,-0.012599731,0.28356045,0.07728389,0.11285902,0.32146248,0.028500756,-0.031753734,0.081125304
0.0746329,0.029262722,-0.033849902,0.043141294,-0.081276156,-0.066148825,0.010328147,-0.045121223,-0.06282843,-0.13849056,0.10816084,-0.041916274,-0.042512983,-0.18838163,0.011570164,-0.046611328,0.07054099,0.12558521,0.02744386,-0.047217753,0.019453112,-0.059101164,-0.13777128,0.09146383,0.06207329,0.097426355,-0.01430855,-0.13708879,0.10199768,0.01677118,-0.034624785,-0.019159205,0.0029011448,0.05678375,-0.023436986,-0.07365395,-0.34142497,-0.013235569,-0.12660998,0.111263305,-0.012701955,0.030361995,0.041912924,0.062354214,-0.2099816,-0.39951062,-0.057112634,0.05845432,-0.08176718,0.14788508,-0.06830494,0.1136126,-0.07832784,-0.046386033,0.021319155,0.0415827,-0.00524552,0.099404074,-0.008556598,-0.081338085,0.02224403,-0.4210386,-0.06398681,-0.0061407387,-0.032591913,-0.08281012,0.055326257,-0.021981401,-0.05033125,-0.026127031,-0.09261741,-0.10931456,0.03554082,0.0572958,-0.044496473,-0.11549144,0.09514464,-0.087353006,0.1015762,0.051855072,-0.080526754,0.058180712,-0.05119358,-0.08773753,0.0971626,0.056132026,0.01734339,0.07546661,-0.10988585,-0.08174538,0.13771158,-0.057894614,-0.06874852,-0.37069756,0.005602418,0.054376174,-0.39733592,0.14510785,0.074861355,-0.014144521
-0.0009904266,-0.07154165,0.06670417,0.023979202,-0.043633018,0.11306736,0.06329005,0.09120055,-0.013733413,-0.102463536,-0.015376675,-0.0044740643,-0.055625234,-0.103851445,-0.08214802,0.12205828,0.060532525,-0.05721214,-0.055827226,-0.049107138,0.03641318,-0.016812688,0.049930863,0.015536226,0.014881844,0.06101033,0.011752867,-0.04160119,-0.07207433,-0.016339527,0.059211873,-0.06431727,0.007170124,0.02161144,0.099517755,0.008705269,-0.2434084,0.06865211,-0.068300016,-0.05370121,0.0074551664,-0.031912223,-0.064739406,-0.015937688,-0.15858833,-0.23834002,0.007974443,0.027708566,-0.04085663,0.0609993,-0.0043546543,0.042801015,0.057546653,0.007401692,-0.07175995,-0.033288438,0.08246818,-0.045889396,-0.053023532,-0.052495275,0.042995587,-0.20375614,0.04942045,-0.089493185,0.017261557,0.02164628,-0.035775363,0.01420335,0.030439947,-0.101984106,-0.058510404,-0.0016501974,-0.07160104,0.018015957,0.103730604,-0.10437777,-0.040139545,0.066788234,-0.03541898,0.005775538,-0.13274089,-0.037418474,-0.057572342,-0.00031189786,0.012470306,-0.004927442,0.075120926,-0.09688119,-0.04827954,0.08564983,-0.0058301147,-0.11418447,-0.06141854,-0.06623796,0.008827968,-0.08259122,-0.052781615,-0.060682923,0.09339921,-0.083067104
-0.08439164,-0.024499469,0.026271157,-0.085298635,0.050089244,0.059502587,0.060598254,-0.043521684,0.0686402,0.050145645,-0.08274661,-0.040705018,-0.06975267,-0.009756311,0.10203172,-0.061171994,0.03460981,0.024176462,0.0030525147,-0.08231107,0.008491307,-0.07050647,-0.028616423,-0.07139478,0.073885046,0.066625394,-0.029159859,0.027431723,0.045548048,-0.022863856,0.028174372,-0.07749339,0.045036208,0.09878838,-0.053787533,0.020079887,-0.1595219,-0.03147219,0.047815125,0.051070787,0.035588574,0.06909139,0.08700371,-0.044761553,-0.09710626,-0.14328118,0.0553681,0.06188836,0.005388151,0.050748516,-0.046130683,-0.09444505,-0.010305339,0.0028696212,-0.03694236,-0.066643134,0.04243393,0.0009521573,-0.013220157,0.006839778,-0.080763794,-0.09909872,-0.015932016,-0.08210335,-0.008654247,0.061719373,0.00047813682,-0.008071686,-0.016476454,0.09422124,-0.012811618,0.04843574,0.059407525,-0.044266365,0.053737327,-0.015094001,0.028326655,-0.060208492,-0.002157721,0.04462408,0.036985092,-0.028125223,-0.005802411,-0.012636291,0.044392876,-0.0089313425,-0.0792188,-0.034243308,0.009010652,0.010305284,0.08962581,0.006415264,0.115209416,-0.13773225,0.030156726,-0.030958168,-0.04818646,0.031708542,-0.010544156,-0.017239809
-0.0020681208,-0.096043415,-0.005598819,-0.10903213,-0.092326984,-0.0784899,0.0680749,0.055483177,-0.08185042,0.036084376,-0.07944641,0.09212049,-0.05949309,0.08536692,0.022340935,-0.009534368,-0.03349146,-0.023472324,-0.027506148,-0.07647057,-0.11076443,0.06536825,0.05751656,-0.02616191,0.067082204,-0.030441163,-0.057254545,0.062400788,0.029297784,-0.052985225,-0.079008944,0.005679097,-0.045620304,-0.042403013,0.040196832,-0.026237242,0.18144354,0.07299388,0.0018147478,0.07572068,-0.028543368,0.044754405,0.062731795,0.07791908,0.18673481,0.19159053,-0.013153371,-0.09216789,0.08418647,0.029741468,-0.00051857077,0.0014873666,0.026957706,-0.0758272,0.05610006,-0.032126274,0.04196899,0.069791116,0.04756227,0.07224331,-0.0019209838,0.2708932,-0.002366945,-0.014996941,0.05030876,-0.077316314,-0.074492514,0.09892219,0.077398784,0.021535885,-0.10741974,-0.027010458,-0.007979349,-0.11543414,-0.0017185599,-0.031025799,-0.024001135,-0.07490426,0.00999561,0.057344932,-0.0052356245,0.023047622,-0.0750714,0.038009766,0.063173726,-0.0291648,-0.00906419,0.03974635,-0.05881808,-0.006188743,-0.024061186,-0.019360445,0.016984606,0.06712599,-0.04653489,-0.05287449,0.21899997,-0.031368427,-0.00987099,0.0005091176
-0.10833703,-0.040298257,0.020041449,-0.045942016,-0.10249711,0.038470242,-0.023172194,-0.0248446,-0.078283906,-0.001620395,-0.0670458,-0.04005825,-0.09653425,-0.07007964,-0.11613686,0.09644262,0.015600167,0.031456467,-0.06701233,0.066556826,0.07129142,-0.0340043,-0.052139837,0.07241755,-0.01781786,-0.0019943358,0.04446499,0.056669556,-0.00814139,0.09138232,0.020545984,0.06607509,0.08234855,0.021932673,0.069394745,-0.044537533,-0.053258117,-0.05883038,0.042858686,0.09594433,0.054927323,0.03422646,0.020278953,-0.071949735,-0.037477896,-0.20906548,-0.0009385013,-0.041894138,0.0025838378,-0.10253278,0.0043133153,0.027269468,0.048240516,-0.051752668,0.06709525,0.04042565,-0.08546973,0.08482309,0.08334503,-0.0791641,0.045852892,-0.12251505,0.051155765,0.024373604,-0.0076985806,0.028129557,-0.048087493,0.023509419,0.057097353,-0.009284079,-0.07981254,0.029541502,-0.08647621,-0.09401662,-0.057800148,-0.09987571,-0.058951166,0.064039685,0.14333221,0.010463394,-0.093720645,0.04633829,-0.045397073,-0.10425708,0.012664433,0.09025266,0.04012885,-0.05061845,0.025363367,-0.101630256,-0.047413975,0.023789896,0.00071205915,-0.17841028,-0.029444475,-0.034299184,-0.14164211,-0.12702979,0.07684563,-0.056049924
0.07943419,-0.062244836,0.0202435,0.04513195,0.090489835,0.07485521,-0.069900565,0.090643935,0.042760253,0.0024634483,0.113884546,-0.057616077,0.13795319,-0.13285163,-0.029913265,-0.06739034,-0.049439263,-0.048045855,-0.05928683,0.029056726,-0.008397367,-0.013298929,-0.031034002,-0.065643564,0.03761874,-0.00058640295,0.103590325,0.009562529,-0.048607305,-0.015435635,-0.073918834,-0.052791078,0.025326649,0.014957474,-0.04637204,-0.019030958,-0.22232741,0.015006502,0.10400261,-0.00041720844,-0.07797399,0.0374751,0.0651662,-0.06533939,-0.1545016,-0.09475511,0.0010374858,-0.121586636,-0.036865044,-0.016589707,-0.07707927,-0.11544555,-0.09743124,-0.10013712,-0.07031133,-0.012809693,0.06489663,-0.071678,-0.046593674,-0.05760353,0.111664854,-0.14535743,0.024595132,-0.06911218,-0.05532572,0.017215753,-0.00653394,-0.041359287,-0.012259535,0.026268642,-0.040572707,0.026795093,-0.06681719,-0.07478989,0.11481024,0.018169278,-0.011088446,0.08880047,0.043739337,0.06281417,-0.1485396,0.06941053,-0.06451244,-0.01128043,-0.009066897,0.01601102,0.004367535,-0.017658962,-0.0029558209,-0.00742312,-0.10593737,0.044535093,-0.061856702,-0.24194264,-0.051068854,0.0013531822,-0.19178908,0.085276484,-0.045181666,0.07831241
0.047112674,-0.08158657,0.07405267,-0.054325692,-0.055982616,0.11040869,0.03926791,0.022966688,0.075036004,0.08439229,0.052449983,0.0538501,0.068586186,0.185326,-0.0055700103,-0.051902633,0.011887721,-0.08186011,0.06451262,0.06880908,-0.09129639,0.07451959,0.080958106,0.071995094,0.079739265,0.04156132,0.07156653,-0.080127515,-0.047170106,-0.07232588,0.050001163,0.04703125,0.018325286,0.03384413,-0.054517843,-0.06768763,0.18568477,0.02880279,-0.029820412,-0.025303993,0.0041381596,-0.01730794,0.0357077,0.014296955,0.12451143,0.19140194,0.101529196,-0.058901805,-0.015806597,0.021851268,0.038447775,-0.07127938,0.04686222,-0.01751313,-0.035233065,0.044384513,-0.046876196,0.06586849,-0.044704255,0.018427722,0.030355942,0.299784,-0.04582325,-0.038410056,0.062181618,0.03299208,0.09696192,0.04845346,-0.027341276,0.03271719,0.038636945,0.05943834,0.023631055,-0.07230199,0.044609338,-0.08692261,0.043715507,-0.02978638,0.045651346,-0.01498352,0.13518307,0.055838846,0.05845687,0.035641745,0.027750948,0.042813692,0.040330566,-0.09657962,-0.017495321,0.04980989,-0.081289515,0.06524236,-0.025597293,0.21881895,0.08727578,-0.07745898,0.18649429,-0.06555666,0.010240324,0.018073574
0.06841857,-0.041019667,0.094415404,0.008440997,0.0561603,-0.06499283,-0.047462124,0.10427428,-0.0068944693,-0.072196476,0.08007534,-0.009439368,-0.08897544,-0.25524396,0.08782068,-0.09547336,-0.052339315,0.121850625,0.004908416,0.027891755,0.017819853,0.095596164,-0.026968556,0.0018264819,0.046208806,-0.01871834,0.075021185,0.029133704,-0.039745837,0.056697745,0.08680757,-0.048815887,0.094636366,-0.10312087,-0.081395686,-0.010830474,-0.16190714,0.05345749,0.028363828,-0.0682362,-0.029755384,-0.08118707,0.059174236,0.012381636,-0.17840767,-0.2764078,0.08349776,0.08719966,-0.026470298,-0.09328113,0.049530987,0.04744021,-0.07216012,0.08592567,-0.060348198,0.051837765,0.052504033,-0.035865273,-0.025643341,0.026642533,0.02189485,-0.113381915,0.09946268,-0.03495171,0.08434362,-0.07667406,0.070631586,0.06984539,0.000993599,0.062440798,0.036012914,-0.06160053,0.01521235,0.04819375,-0.04230743,0.057709154,0.062177088,-0.056840222,-0.038244143,-0.019465208,-0.093509726,0.022929614,-0.031871084,0.06414977,0.052988425,0.05437903,0.072813146,0.053557426,-0.03699104,-0.05258017,-0.05798286,0.06102388,-0.024444032,-0.10963454,-0.057791904,0.027363919,-0.06141627,-0.082386404,-0.057206772,-0.083353125
-0.009078295,-0.10234519,-0.080559045,-0.006745715,0.051004358,0.045863934,-0.021477228,-0.03843036,-0.03525024,0.03930305,0.09286132,0.039114855,0.027874565,0.19382332,-0.072421856,-0.0915835,0.08247366,-0.064882986,-0.08500587,0.10764485,-0.06607118,-0.026079416,0.077733345,0.015994161,0.0945814,0.083094366,0.106621526,0.042049266,-0.052082554,-0.049779013,-0.018115275,0.04664134,0.01870275,0.06312896,-0.08195588,-0.06322754,0.16833752,0.034346357,0.1155297,0.073185295,-0.11198038,0.046777546,0.011296285,-0.04677957,0.009850969,0.17661114,0.01484552,0.036885258,0.09370562,-0.050389938,0.01703845,-0.060322873,-0.04534257,0.06362243,0.06923849,-0.051465318,0.056597345,0.09326869,-0.011900252,0.075654946,0.10600474,0.031157104,0.053162474,0.1486267,-0.107242115,-0.078932874,-0.018147202,0.025646899,0.039080568,-0.020440247,-0.05980632,-0.064168416,-0.019242803,-0.10546289,0.0012007387,0.0028863607,0.016178742,0.023559127,0.04289786,-0.069221556,-0.039869074,-0.07965071,-0.028566854,0.008362125,0.10711976,0.09143762,-0.05595278,0.10486977,-0.09532189,0.06331323,-0.069329225,0.038479287,-0.09591162,0.18431373,0.08845178,0.007699183,0.20028152,-0.07921956,0.108398505,0.030073956
-0.08583069,-0.04167744,0.0071173324,0.08156002,0.05966775,-0.07247175,0.058381543,0.11083177,0.04172922,-0.102910385,-0.10492327,-0.08268518,-0.028931484,-0.007105247,-0.033037312,0.07987591,0.0046254206,-0.10294676,-0.09839815,0.034034677,0.05005842,-0.07690415,-0.04895124,0.07295311,0.078554414,-0.062162444,-0.023749506,0.05368867,0.049182493,0.060355306,-0.09062344,-0.048726942,0.050871164,-0.041111603,-0.103022896,0.04935749,0.06484724,0.07765568,-0.011422183,-0.017545583,-0.0625895,-0.04584208,-0.065285556,-0.07947724,0.023899112,0.021171067,-0.064726986,0.07801663,0.0016704635,-0.07535688,-0.088584095,0.084399335,0.04539126,0.02140062,-0.07700988,-0.00030669395,-0.016030459,0.01387056,-0.043070506,0.10902612,-0.086882606,-0.07968891,0.0020734186,-0.00030832077,-0.037740145,0.033803612,0.031023555,0.008943772,0.056923315,-0.095342524,-0.025058974,-0.1102918,0.08812823,0.08409461,-0.055995233,-0.106130764,-0.001592796,0.01312325,-0.10327014,0.03294827,0.077737026,0.0077075353,0.07844356,-0.07836749,-0.0025917466,0.0020853959,0.03231182,-0.038726795,0.017394198,-0.04755279,-0.05973153,-0.057156473,-0.09298499,-0.02735094,0.09780912,-0.03027101,-0.11619386,0.06852753,0.075172395,0.080769494
0.019777507,-0.07464939,-0.10977199,-0.09096618,-0.037647188,-0.017947854,-0.10477628,0.097360015,-0.098166466,-0.08713535,-0.016918983,0.09636327,-0.08454896,0.08282045,-0.023825282,0.007865212,0.018687427,0.07883334,-0.0636845,0.042278696,0.083261736,-0.10293217,0.08795963,0.04452321,0.05602981,-0.075510986,0.106192574,-0.009082049,0.093959026,0.0621903,-0.10876072,0.08062471,0.05238297,0.08019371,-0.019240104,0.0025189302,-0.008667094,-0.06538047,0.052067157,-0.058219973,0.028425526,-0.027356109,-0.026067423,0.00045165027,-0.018461691,-0.11177668,-0.017936874,0.069784924,0.0843495,-0.072274804,0.09995667,-0.092997395,-0.101708576,0.012684304,-0.005269852,-0.022151401,-0.051682588,-0.05795758,-0.07265541,0.0374302,0.06449272,-0.10879179,0.05942863,-0.06996516,0.02966577,-0.099291235,-0.06263122,0.0032758615,0.04047948,0.0927264,0.10104193,0.07673414,-0.09797079,0.09578134,0.089409985,0.017422589,0.034042798,0.075029984,-0.076267526,0.06778879,0.076918215,0.04171834,0.050439544,-0.08841593,0.01666238,0.08953269,-0.07011139,-0.08201289,-0.02586047,-0.10075428,-0.07706191,0.07785128,0.045729697,0.0072540515,-0.0898595,-0.046907656,0.097129166,-0.06365663,0.0052888105,0.07887425
-0.097462006,0.043055017,0.13612454,-0.13245468,0.05007832,-0.053368088,-0.035433073,-0.021549098,0.005588486,0.33982745,0.078675956,-0.056180034,0.10209151,0.53522074,0.037868068,0.08333063,0.0687945,0.071874514,-0.023351248,-0.01644758,-0.015707264,-0.040257894,-0.09970005,0.027780417,-0.10999009,0.07406203,-0.09089105,0.05376985,-0.07903495,0.0079505015,0.057826035,0.08899609,0.07071199,-0.04361558,-0.003847385,-0.048990212,0.54890025,-0.05827426,-0.040981784,-0.07583301,0.031109529,0.117873885,-0.021361278,0.052930553,0.47302252,0.67223775,-0.038624853,-0.052945513,0.1367909,-0.020033985,0.01718166,0.055082586,0.083992906,-0.054716974,-0.018930743,0.027712958,-0.0861986,-0.0036790653,-0.098599516,0.06478382,0.0484353,0.6334736,-0.013624377,-0.009008663,-0.06100089,0.08492523,0.04853084,-0.019078135,-0.017529313,0.07443555,0.034068488,0.08166136,-0.022216192,0.037524946,0.016635606,0.021109711,-0.05778423,0.13588884,-0.091143735,0.121316,0.13896538,0.093019895,0.057669424,-0.08864313,-0.016248655,-0.08825361,0.021053458,0.087642215,0.0810317,-0.031668734,-0.016905982,-0.0759486,-0.046372857,0.42879134,-0.01720406,0.010095228,0.5718388,-0.041506317,-0.0917992,-0.057117186
0.03823307,-0.06480042,-0.06574339,-0.1015471,-0.06579034,0.007059256,0.04313581,0.07239119,0.07417378,-0.030651944,0.075941175,0.053379647,-0.069617845,0.065115444,-0.018778816,0.018874802,-0.055221934,-0.050683502,-0.040708248,-0.06962092,0.02069594,-0.014217246,-0.01844391,0.058329698,0.03868636,-0.046492547,0.058786884,-0.047029678,-0.0054820436,0.0039691897,0.03014503,0.10083563,8.145498e-05,-0.065508895,0.11926898,0.045454375,0.09661699,0.10565251,-0.06665969,-0.02587169,0.09860492,-0.036983136,0.03927406,0.0028286302,0.018922688,0.17583156,-0.044635408,0.055932663,0.029315088,0.021502277,-0.071880475,-0.027075224,0.07907578,0.09344594,0.05621238,-0.07034191,-0.034539346,0.058944274,-0.054770514,0.018810239,0.103096925,0.17682649,0.05734263,-0.07615649,0.023859294,-0.034377683,-0.0056636734,-0.070877835,-0.08604837,0.071449384,-0.06477255,-0.0639833,-0.118436046,-0.06897067,-0.07931694,0.08725772,-0.043206204,-0.06421948,0.06628101,0.02983184,0.11721288,0.01627201,-0.08184239,-0.06103406,0.008852201,-0.034510672,-0.004524413,-0.029524606,-0.10075075,-0.05411651,-0.0033921245,0.024587685,0.044175807,0.0957983,0.09709534,0.070292175,0.21417879,-0.11694434,-0.0008568251,0.03361884
0.11272626,-0.006492307,-0.0029974335,-0.09200136,0.101383865,0.078461096,-0.001983972,-0.07945861,-0.004198446,0.16850382,-0.02160806,0.09388163,-0.005940196,0.22126335,-0.025984868,0.058390614,-0.03779907,-0.047685023,0.09157579,0.07793482,0.077956066,0.11346351,0.07802954,-0.01808238,-0.057498455,-0.0147917075,-0.038214177,0.117008485,-0.08696146,0.07667862,-0.04762139,-0.036598366,0.019903038,-0.070935495,0.03126468,-0.020838026,0.22722545,0.023279255,0.026617242,0.023623625,-0.0089489035,0.08691287,0.04199302,-0.103905104,0.13586257,0.25350612,-0.10582285,0.101541154,0.0434153,-0.00404964,0.03586339,-0.04500795,-0.030525707,-0.014746367,0.06314138,-0.05965418,0.04789592,0.101890765,0.011012223,-0.02057852,-0.113324404,0.11375062,-0.0014867206,0.08284005,-0.10733277,0.03939769,0.030696379,-0.001003838,-0.06518968,0.061472103,0.05394302,-0.016271034,-0.03190476,0.056615666,0.10586542,0.049819548,0.07423965,0.065938644,-0.11167209,0.040704634,-0.021980993,0.039323397,0.043433063,0.045064162,0.03792478,0.070781305,0.14004011,-0.04725579,0.06394511,0.069457054,-0.037544485,0.035382804,0.0038586755,0.10936896,-0.019788511,0.07159725,0.18339312,0.014302387,-0.01362182,0.05725449
