0
0.032870658
0.011214539
0.08368511
-0.094603635
0.055284746
0.098891325
0.05911856
-0.0009627715
-0.07250637
0.09113913
-0.07024251
-0.0999874
-0.08677466
0.09083227
-0.0142198205
0.05155947
-0.0983104
-0.090815775
0.079581566
-0.02751778
0.09587536
0.0962665
-0.05107949
0.052290685
0.013197899
-0.014895812
-0.032010913
0.050787278
0.080016606
-0.028046764
-0.018132567
0.07167011
0.030022629
0.012683928
-0.09344124
-0.07777989
0.03784784
-0.03777021
0.08504165
-0.087669395
0.082326554
-0.07766505
0.024776325
-0.019124642
-0.08124302
0.046695866
0.039234303
0.006930791
-0.08825451
0.009784043
0.04728044
0.03193099
-0.0030594617
-0.011550464
0.08235753
-0.08664723
0.05832853
0.027511023
-0.029634818
-0.017248847
-0.015647888
0.046920173
0.02601529
-0.09229406
-0.085390806
0.02940195
-0.08851258
-0.001864031
0.06441658
0.08982345
-0.071842
0.044110946
-0.09126569
-0.09077068
0.07732125
-0.059683062
0.055971228
-0.08703875
0.048571177
-0.0972054
-0.04363315
-0.021587513
0.08206541
-0.03975885
0.09488662
0.093590505
-0.096944176
-0.005363956
0.039414532
0.027976342
-0.026047602
-0.0568411
-0.086936474
0.024170637
0.06821396
0.028321452
-0.039385747
0.024928108
0.062135287
-0.06400487
0.0042539984
0.06639422
-0.062202394
-0.020521723
0.06869624
-0.0028473735
-0.04983008
0.094844185
0.0068902746
0.09066314
0.090824015
0.03281624
0.08381852
0.067772724
0.020558193
0.03604632
-0.04954356
-0.07716872
-0.04594592
-0.037941255
-0.07216747
0.085493125
-0.030250512
-0.03713882
-0.08289826
-0.047314074
-0.01155518
0.07184052
