0,1,2,3,4,5,6,7,8,9,10,11,12,13,14,15,16,17,18,19,20,21,22,23,24,25,26,27,28,29,30,31,32,33,34,35,36,37,38,39,40,41,42,43,44,45,46,47,48,49,50,51,52,53,54,55,56,57,58,59,60,61,62,63,64,65,66,67,68,69,70,71,72,73,74,75,76,77,78,79,80,81,82,83,84,85,86,87,88,89,90,91,92,93,94,95,96,97,98,99,100,101,102,103,104,105,106,107,108,109,110,111,112,113,114,115,116,117,118,119,120,121,122,123,124,125,126,127,128,129,130,131,132,133,134,135,136,137,138,139,140,141,142,143,144,145,146,147,148,149,150,151,152,153,154,155,156,157,158,159,160,161,162,163,164,165,166,167,168,169,170,171,172,173,174,175,176,177,178,179,180,181,182,183,184,185,186,187,188,189,190,191,192,193,194,195,196,197,198,199,200,201,202,203,204,205,206,207,208,209,210,211,212,213,214,215,216,217,218,219,220,221,222,223,224,225,226,227,228,229,230,231,232,233,234,235,236,237,238,239,240,241,242,243,244,245,246,247,248,249,250,251,252,253,254,255,256,257,258,259,260,261,262,263,264,265,266,267,268,269,270,271,272,273,274,275,276,277,278,279,280,281,282,283,284,285,286,287,288,289,290,291,292,293,294,295,296,297,298,299,300,301,302,303,304,305,306,307,308,309,310,311,312,313,314,315,316,317,318,319,320,321,322,323,324,325,326,327,328,329,330,331,332,333,334,335,336,337,338,339,340,341,342,343,344,345,346,347,348,349,350,351,352,353,354,355,356,357,358,359,360,361,362,363,364,365,366,367,368,369,370,371,372,373,374,375,376,377,378,379,380,381,382,383,384,385,386,387,388,389,390,391,392,393,394,395,396,397,398,399,400,401,402,403,404,405,406,407,408,409,410,411,412,413,414,415,416,417,418,419,420,421,422,423,424,425,426,427,428,429,430,431,432,433,434,435,436,437,438,439,440,441,442,443,444,445,446,447,448,449,450,451,452,453,454,455,456,457,458,459,460,461,462,463,464,465,466,467,468,469,470,471,472,473,474,475,476,477,478,479,480,481,482,483,484,485,486,487,488,489,490,491,492,493,494,495,496,497,498,499,500,501,502,503,504,505,506,507,508,509,510,511
-0.0025054403,0.06640352,-0.025378332,0.04460212,-0.07545828,0.0015927214,-0.03158186,-0.06221924,0.027278697,0.0060560284,0.08287248,0.00083177246,0.01562741,0.026076205,-0.024436696,-0.034716427,-6.562597e-05,-0.026515432,-0.031511035,0.01256971,0.0913083,-0.0016716085,0.021397408,0.09517857,0.10904026,0.034284662,-0.10194925,-0.031927943,-0.062185597,-0.060260013,-0.0449294,-0.03229359,-0.0025412193,0.0147554455,-0.062711634,0.08593644,0.0075528757,0.040237986,0.0241584,-0.034390226,0.013235346,0.021484956,0.027587673,-0.044795882,0.040894087,-0.017304339,0.017544502,-0.0040558088,-0.0035495618,-0.03857702,0.026935237,-0.073708616,0.10356254,-0.06620848,0.036832973,-0.037207283,0.0040230583,-0.038649593,-0.0101939365,-0.023806129,0.015652794,0.0132206585,-0.047767546,0.0070072906,-0.043231986,-0.017083995,-0.0070998743,0.024633339,0.042959012,-0.0772377,-0.032618396,0.07357599,-0.094816,-0.05798274,-0.06953214,0.029796438,-0.027238214,0.09095489,0.016344111,-0.022819707,-0.053228952,0.006814892,-0.027718075,0.04188965,0.06265068,0.081307255,-0.053445403,0.013738496,0.025679184,-0.035694096,0.05466477,0.12263396,0.008602436,0.04142496,-0.0017941168,0.026136577,0.040946636,-0.010741358,-0.08082452,0.015575364,-0.048664402,-0.10389297,-0.040934518,0.029164635,0.035706766,0.038963787,-0.028182667,-0.03686762,-0.070028484,0.018981745,0.05708323,0.031454004,0.006837973,0.0020491215,-0.029870292,-0.031873874,-0.103984624,-0.028671073,0.04388383,-0.019788878,0.04163642,-0.09742145,0.12123384,0.042523682,-0.011976717,-0.024495209,0.025554236,0.10964493,0.0057140775,-0.045186404,-0.025951978,-0.08858419,-0.06390568,-0.023010876,0.09405409,-0.0039128484,-0.02451162,-0.09920521,0.023874467,0.032703225,0.04059875,-0.044063203,0.009289126,0.036517493,0.022900213,0.048295897,-0.014390302,0.06395245,-0.036599398,-0.07997734,0.01576867,0.066501744,0.069149576,-0.008239756,-0.08950049,0.041238956,-0.032769814,0.026208062,0.026085328,-0.02299874,-0.027123204,0.08807777,-0.04884412,0.006403043,0.033698156,0.021047259,-0.088717,0.02939675,-0.035874616,-0.006639162,0.036894683,0.015919326,-0.10725477,0.05624097,-0.03683243,0.015995985,0.034087975,0.043787386,0.0405583,0.004261426,0.041642405,-0.020040086,0.009604973,-0.08312878,0.11962577,0.01967205,0.04136431,0.08576365,-0.05006142,0.12379834,0.009774712,-0.04568174,-0.054138213,0.030448748,-0.0028366358,0.10346593,0.027918857,-0.017303566,-0.020568546,-0.10300816,0.002366319,0.020363558,-0.039489847,0.03600887,0.023710568,0.042458367,0.019584589,-0.020005543,0.02670462,0.04589023,0.02384756,0.09390941,0.024248969,-0.0074102096,0.0006738745,-0.037346188,0.023470724,-0.014116668,0.086288184,-0.05772144,-0.037008654,-0.052847933,-0.0027591323,0.04391989,0.017048644,-0.011890391,-0.018229127,0.0030284442,-0.028504351,0.081081145,0.0241798,-0.09545505,0.0554107,-0.079050206,-0.06127251,0.031732522,0.036792044,-0.023047218,0.0042235414,-0.11999021,0.049285606,0.014843194,0.108802654,0.00895707,0.006148094,-0.034998484,-0.022242572,0.050713066,0.0031363799,-0.0644115,-0.04399992,0.033309877,0.05971009,-0.037026707,0.06662856,0.03278655,0.04743509,-0.07069359,0.090576075,0.003964232,0.016624754,0.09571517,0.13803995,0.083366185,-0.03578969,-0.004210894,0.033465736,0.034812927,-0.04191671,-0.013856055,0.0029485289,-0.009622198,-0.06868854,0.0135866,-0.047618296,-0.07445323,-0.033666793,-0.045828618,0.004571812,-0.02871874,-0.024897859,-0.04359792,-0.06891871,0.008191322,-0.024225587,0.03874995,0.031349856,0.0024281242,0.03848161,0.040872563,-0.043930918,-0.031394333,0.09016185,-0.008927602,-0.10134721,-0.0022811769,0.041374154,-0.026067412,0.09277179,0.050112046,-0.030507231,-0.026180156,0.03753523,0.012705181,0.019435812,-0.035444632,0.11555258,0.029368814,-0.0025722166,0.04178339,0.045471426,-0.008065185,-0.024656817,-0.044327654,-0.014308546,0.023753949,0.06974674,-0.0800139,-0.02897628,-0.048871543,-0.00059787766,-0.05062743,0.021386977,0.06078357,0.010843871,-0.0064547956,0.032201424,-0.03361197,-0.011445642,-0.09486724,0.0074009257,-0.0053422307,0.02164696,-0.024525063,0.055445198,0.060593266,-0.040800877,-0.052290164,-0.023378275,0.052785028,0.06509075,0.033670507,0.039848406,0.07939114,-0.007970453,0.08929348,-0.016009813,0.08027905,0.036290955,0.02238423,-0.030109722,0.033463232,-0.045257162,-0.01240969,0.02628595,0.09006423,0.0018150886,-0.0029838807,-0.050431006,-0.05178248,0.012270338,0.025025835,-0.029450962,-0.03088333,-0.004884694,0.03828394,0.0010113661,-0.023343349,0.022690471,-0.0147663625,-0.043411534,-0.10640186,0.00096593826,0.008980435,0.012330824,-0.04241544,-0.0046456456,-0.032725666,0.052887525,0.016176457,0.020126745,0.023252625,0.021712799,0.04194551,0.013031365,0.012819864,-0.018642193,-0.008987111,0.08048926,-0.0070752497,0.04003466,0.14582202,0.03226165,-0.0643425,0.0025254043,-0.07950023,0.07604479,-0.022863993,0.07390669,0.07916281,-0.027960489,0.0778213,0.03859583,0.024240132,-0.04271213,-0.08038862,0.013734751,0.027277175,0.10073682,-0.006987114,0.027856162,-0.039111093,-0.00966982,-0.040433355,0.032291923,0.035407633,0.031471845,0.02834828,0.08679873,0.046165925,0.028096117,0.012240307,0.032532517,-0.027720703,0.024231208,-0.03987392,-0.078057304,-0.022592328,-0.08588372,0.118049115,0.06814944,-0.036288735,0.04356371,-0.0038735725,-0.035516538,0.018924894,0.0143893175,-0.06401525,-0.01368963,-0.008272428,-0.12644507,-0.07495664,0.018642781,0.07336081,0.10212192,0.013423477,-0.01989381,0.013820558,-0.0033342429,0.041514643,0.015387951,0.048847396,0.014171447,0.044186637,-0.041963883,0.14310607,-0.05259158,-0.0030015814,-0.0014703164,-0.0069350684,0.002084901,0.006199422,-0.024102706,-0.020817598,0.08631182,-0.025453556,-0.043709163,-0.056633294,-0.041498452,0.030289521,0.08952122,0.09481455,0.08107654,0.03480928,-0.06040622,-0.027090037,0.0016734556,0.06013933,0.015969034,-0.047027532,-0.051377114,-0.007984892,-0.035334237,-0.045206364,0.09836218,0.025729544,0.065074265,0.012003767,-0.0733904,-0.039721996,-0.07535315,0.047013894,0.10610718,-0.059899073,-0.11467249,-0.06863586,-0.031974338,0.07925177,0.0061261603,-0.021851335,0.029122934,-0.0016798694,-0.035667308,0.040478036,0.01549215,-0.018404044,0.029966708,0.09637372,-0.035443682,0.027189504,0.04119896,-0.04849354
-0.005523067,-0.05750691,0.0063508525,0.060938332,0.04847465,0.06789598,-0.039610196,-0.003717607,-0.029846178,0.023314578,0.06087989,0.030526638,0.04047934,0.08482931,-0.007171493,0.019332556,-0.052173696,0.04793819,-0.005340089,0.039651472,0.07548869,-0.02141202,-0.018521216,-0.17124605,0.010926519,0.0015670189,0.017218105,-0.032427333,0.03849083,-0.07331034,0.030021377,0.025369473,-0.044115223,-0.14696468,0.06443141,-0.09211478,0.046600603,0.036081135,-0.01843718,-0.031412326,0.0207416,0.026172755,-0.03490751,-0.036651146,0.011625508,0.042104505,0.050660823,0.035559397,-0.03945757,-0.048860103,0.03021986,-0.035110462,0.009360281,0.047188055,-0.004777398,0.034722835,0.123125605,0.00837369,0.03203875,-0.058807008,-0.0007407202,0.02931311,-0.012512442,-0.06641551,-0.014524714,-0.042290963,-0.043803193,-0.05342763,-0.013496761,-0.081903815,-0.0013530183,0.010409678,0.084569514,-0.10359145,0.11334293,0.020074638,-0.05622517,-0.0059305322,0.023904543,0.0040699937,-0.05613045,-0.013361502,-0.101294465,-0.00037491322,0.014520846,-0.023394376,0.09199788,0.035980947,0.02537677,0.0007422268,-0.12180819,-0.0121123735,-0.07054324,0.015943833,0.007091445,0.028558854,-0.0007845999,0.01669315,-0.09132823,-0.026165614,0.049744137,-0.09018751,-0.023504183,-0.021021351,0.0351212,-0.16439022,-0.022585895,0.008079425,0.03890657,-0.010491132,-0.05583279,0.03507115,0.043301377,-0.1132014,0.11779597,0.034663375,0.06613864,-0.003964521,0.07717424,-0.023425076,0.13325484,-0.14015332,0.020968331,-0.011006232,0.009353638,-0.011031354,-0.03934345,-0.0635727,-0.010615259,0.015378725,-0.04505943,0.08297417,0.07052284,0.012347601,-0.008694641,-0.0174114,0.013154884,0.08620123,0.07941195,-0.03951448,0.009757614,0.01300376,-0.04209762,0.0065049175,-0.088459134,-0.07388014,0.033600044,-0.026937239,-0.012406863,-0.07537222,0.030920208,-0.06854586,0.00951439,0.1589819,0.08578182,0.09492413,0.042305443,-0.033754226,0.035009697,0.035408735,-0.08090393,-0.0007755614,0.041285418,-0.06598795,-0.09810749,0.087721586,-0.111377575,-0.042456776,-0.014844242,-0.021655547,0.01629966,0.0027881889,-0.1094534,-0.07224778,0.021461535,-0.028877461,0.049611483,3.167545e-05,-0.08186781,0.023012625,0.03945965,-0.0060088746,-0.004173855,0.005797807,-0.035662763,0.0944479,-0.011122923,-0.07132515,0.07515217,-0.12351731,-0.047465287,-0.0025510667,0.13922393,0.037648953,-0.010463514,-0.050640397,0.007274918,0.0153383305,-0.1203751,0.017561188,0.026376786,-0.074384935,0.0133936,0.04127917,-0.086764544,0.013096737,0.039311934,-0.028077086,0.0919032,0.08963506,-0.013384634,-0.00587198,-0.008720086,-0.02264144,-0.0012445294,0.041960485,-0.16174057,-0.051283274,0.029379167,0.12422578,0.010066587,0.073010586,-0.033145584,-0.01943196,0.016081626,-0.08040611,0.072770074,0.030754587,-0.015551913,-0.06375591,0.004555698,-0.0024589759,0.09733982,0.013998921,-0.019016497,-0.040188566,-0.034135174,-0.012966172,-0.057543382,0.028211875,0.077813126,0.10485819,0.07614589,-0.011498962,-0.057260487,-0.03775969,0.01202189,-0.07710149,0.009914373,0.064918265,0.10991742,0.15213843,-0.040567413,0.038578793,-0.029068926,0.015340443,0.0046072584,-0.06560308,-0.050240133,0.021659235,-0.010942558,-0.01550614,0.024351422,0.01578463,-0.023708561,-0.011742004,-0.01335247,0.01937957,0.032024138,-0.023418594,0.09156433,0.012872538,0.1088079,-0.040798575,0.049846627,-0.057098668,0.049039777,-0.07391406,-0.044238597,-0.017727654,0.088906616,-0.010699977,-0.076962985,-0.080460995,0.03497656,0.057219714,-0.008932201,0.031621754,-0.01577836,0.042900536,-0.009753068,-0.03314654,-0.022339944,0.044263728,0.020817494,-0.0022505247,0.18763071,-0.035770923,0.052206118,0.047210168,-0.050222933,0.0012911101,0.03256888,0.015342321,-0.012945118,0.002851587,-0.08471455,-0.00048184578,0.041917045,0.035701852,0.011047529,0.05654875,0.00940665,-0.034669973,-0.01250271,0.13441055,-0.09172243,-0.041105065,0.030793319,-0.002008489,0.016249232,-0.13246745,-0.06727242,0.051817585,0.025932442,-0.032640718,-0.054946754,0.10716169,-0.07695287,0.11312317,-0.013015547,0.04962284,0.088442154,0.08009357,-0.04640724,-0.0129557075,0.19031852,-0.020767158,-0.0010989129,0.04879692,-0.09545673,-0.07396003,0.03787755,-0.019806346,0.050169867,0.04608626,-0.040522207,0.14930506,0.060756598,-0.00080816075,-0.063059166,0.004197161,0.090070255,-0.0270108,-0.013641779,0.042946164,-0.01249379,-0.034547344,-0.12865639,0.06377444,-0.0337063,0.07245795,-0.05333757,-0.042644083,0.042227473,0.029219856,0.057846013,-0.16066885,0.00619079,0.0031442351,0.040225074,-0.046845708,0.0054414724,-0.008227607,-0.013786963,0.049303234,-0.06593286,0.018718,0.018676061,-0.030911759,-0.044263016,0.08808445,0.026726197,-0.011106098,-0.022018876,0.012755408,-0.0041378504,0.03618006,0.13075517,-0.04385618,-0.03373905,-0.029853143,-0.018736126,-0.13516656,0.10248376,-0.008131675,-0.010879969,-0.08254303,0.11815406,-0.07790913,-0.046219256,0.036389235,-0.047388464,0.032116532,-0.15043321,0.033280596,-0.029571183,-0.043631878,-0.036197837,0.048388936,0.07210745,-0.056958895,0.023360947,-0.115205795,0.014354741,-0.08822256,-0.04006791,-0.00064473803,0.05570459,-0.06580646,0.0085903155,0.013851136,0.031174244,0.025585104,0.014274436,0.12730643,-0.072144054,-0.025869878,0.08207292,0.114721365,-0.10576758,-0.008356485,0.036370363,0.039737754,-0.03818418,0.040857177,0.031983938,0.01952872,0.023071205,-0.011173798,-0.008468836,-0.10006479,0.006950002,-0.03926252,0.05514997,0.09239334,-0.004125593,-0.035637863,0.07739454,0.10883702,-0.039145276,0.015266022,-0.03753547,0.12223885,-0.02889759,0.052948415,0.00078442885,0.06468214,-0.08764169,-0.02977378,-0.041024923,0.003473409,-0.0004933476,0.061979577,0.06874127,-0.026971893,-0.02362904,0.03896715,-0.0656509,0.02052557,0.05211114,-0.07922099,-0.105250806,0.10545735,0.07638652,0.010594986,-0.03683841,-0.011392598,-0.06734007,-0.0066799466,0.010451316,0.098164886,-0.064448945,0.020449996,-0.09971874,0.015156683,-0.040742435,0.019609025,-0.11575735,-0.08887159,-0.0932688,-0.11076063,-0.05973594,-0.1447637,-0.1002621,-0.031554982,-0.025327345,-0.13288593,-0.013498838,0.0487023,0.006061346,0.008885368,-0.054766905,0.01276295,-0.068998985,-0.004848342,0.017173588,-0.094794445,-0.006252064,-0.021996137,-0.03168827,-0.028570473
-0.0041508116,0.02705596,0.03731488,0.022407593,-0.011685063,-0.016303057,-0.027235094,0.022590889,-0.0012030526,0.009009089,0.019098891,0.05776835,0.018747162,-0.049346108,-0.003502272,-0.027814038,-0.082444355,0.047223214,-0.008804337,0.01792984,0.12028337,-0.023654133,0.002087278,-0.000700815,0.0040776217,0.021806572,-0.061949987,0.034335308,-0.05887993,-0.002131702,0.078383125,0.0023159098,-0.09101469,-0.00073556765,-0.051747177,0.051143665,0.088031985,0.0044840635,0.10982485,0.07614226,0.03796039,0.03373119,-0.042854268,0.078065425,-0.041902047,0.08229494,0.049318418,0.040272336,-0.018898172,-0.04122372,-0.080322996,0.08278473,0.0075816507,-0.075152196,-0.07586653,-0.004498185,0.059862826,0.035352577,-0.007316683,0.11403869,-0.021625686,0.006498992,-0.088783324,-0.07648364,0.016247673,0.02810735,0.006438925,0.046871625,-0.034085203,-0.03161904,0.029822567,0.022794945,-0.043184318,-0.033032887,-0.012351824,-0.007579429,0.032950886,-0.009265372,0.03734221,0.038409628,0.039559238,-0.056172423,-0.086660884,-0.010937735,-0.07816685,-0.052846067,0.03137055,-0.029701144,0.031098304,0.0031876203,-0.01648569,0.09425267,0.0026657244,-0.022544464,-0.0154837,-0.029428678,0.04312614,0.039218783,-0.05215856,0.044302493,0.018233918,-0.12151947,-0.022730557,-0.036096636,-0.006652091,0.09114098,0.033925474,-0.0013674143,-0.008357942,-0.018409057,-0.0832139,0.029560776,0.0685506,0.01970189,-0.002079396,0.009294814,0.06787694,0.043514468,0.050857037,0.033578157,0.03832194,-0.093750134,-0.028522637,0.038990494,0.04055805,0.0036679413,-0.021813875,-0.10638466,-0.035495374,0.10773695,-0.005676826,0.00043881306,-0.0128138745,0.016598156,-0.00825607,-0.03372851,-0.023964882,0.042318113,0.013484161,-0.13604127,-0.038690776,-0.010505521,-0.10185007,-0.0010571436,-0.040145256,-0.104320034,0.015233501,-0.039611984,0.012315136,0.014862957,-0.027370531,0.12114054,0.061855674,0.023309827,-0.004263662,0.10341571,0.0050168596,-0.008483674,0.037510764,-0.0075178165,-0.034836303,0.014368008,-0.09442173,-0.04369688,-0.1204494,-0.052789226,-0.07471716,0.0019068908,0.016169256,-0.025186677,0.0053672763,-0.041757785,0.0056187147,-0.14236261,-0.024735684,0.0005950656,-0.0139589505,0.039312903,-0.039610866,0.01676312,-0.034975566,-0.043994557,-0.018590357,0.040569607,0.019090557,0.03972553,-0.01307351,0.15583521,-0.04128043,0.11647114,0.028537871,0.010826086,0.023758715,-0.001396351,-0.009106903,-0.04705307,-0.028832065,-0.02462577,0.06284245,0.043977987,-0.038298845,0.0045537697,0.020194337,-0.041076835,0.07649915,0.037557516,0.0030265283,-0.030217964,0.030239832,0.111613356,-0.05393212,-0.020177955,0.01450406,0.032840222,-0.08440781,0.047794957,-0.02995723,0.057542752,-0.06915084,-0.08835662,0.017844547,0.0048249736,-0.021453777,-0.008036911,-0.014893883,0.024771601,-0.0095604295,0.0009003741,-0.018266844,-0.00070928014,0.028634932,0.091698274,0.04500492,0.0007575505,0.024403663,0.025704939,-0.03193874,-0.0061887912,0.009119375,0.019744476,-0.05035606,-0.039807104,-0.031241095,-0.008501917,0.055200797,-0.08851724,0.021625951,0.007130203,0.0093852915,0.00978279,-0.04688121,-0.049024187,0.07515993,0.0041509015,-0.037072547,0.017327692,-0.013271664,-0.0028820543,0.043269735,0.030832242,0.018620634,-0.03969932,0.044442546,0.0009543348,-0.04292313,-0.011616823,-0.049964007,-0.004760538,-0.07384963,-0.0225164,0.06376732,-0.005050937,-0.009459555,0.013079113,0.03921325,-0.007402479,-0.011636808,-0.032946583,0.042713754,0.010351476,-0.046994634,0.017506523,0.018568832,-0.098425396,-0.03020144,0.06570267,-0.043945473,-0.0077502783,-0.064622834,0.02385006,0.0009460496,0.02544452,0.009125783,0.046911042,0.0855139,-0.011438463,0.059588674,0.027972998,-0.006497499,0.047288366,0.01220913,-0.00024541625,-0.03733737,0.020519802,0.0026239823,0.038170353,-0.025884371,-0.04849865,0.014997538,-0.03391824,0.004684324,-0.041740127,-0.08905287,0.001050947,0.0357843,-0.009463827,-0.084825054,-0.0074149147,-0.07025112,-0.0137283,0.019727778,-0.12086767,-0.06475616,-0.03037742,0.019002905,0.008929275,-0.09691734,0.014910287,0.05905844,-0.02214767,0.018975466,-0.0013794525,0.019859942,-0.07110092,0.024557676,-0.059754018,0.00079525635,-0.013377686,0.035436016,0.03252709,-0.001853464,0.06560805,0.02648386,0.04805739,-0.016085487,-0.055586077,-0.07696179,0.025896885,-0.030139077,0.040037807,0.016221574,-0.12840909,0.10729346,-0.013401023,-0.0270406,-0.04093614,-0.03400326,-0.057464577,0.012836548,0.028230058,-0.035343576,0.011554151,-0.03161688,0.02438907,-0.00043265894,-0.06703978,-0.000121471785,-0.11394009,0.062437344,0.019309169,-0.09579177,-0.037821736,0.003412463,0.007054588,-0.024961907,0.06542501,-0.07387802,0.037532,0.037165076,-0.11529475,-0.010301246,-0.037706487,-0.012291858,0.036691256,0.018125506,-0.023056425,0.036216035,0.07503227,-0.009538783,-0.031000402,-0.12283881,-0.02042364,0.033045754,0.096620396,0.0122660175,0.022172183,0.032864228,-0.099399365,1.8117633e-05,0.0069823554,-0.0058287075,-0.071744554,-0.070562065,-0.040740974,0.03445574,-0.14128347,-0.11903765,0.017556584,0.07864907,-0.091034554,0.03746777,-0.01414898,0.025251044,-0.07412711,0.035555232,0.013033196,0.028103653,-0.04238139,0.021193903,0.06857449,0.03078209,-0.037237685,0.032894857,0.013882391,0.104613535,0.034452435,0.021715295,-0.029020775,-0.08727667,0.021045016,0.049695216,0.06292515,0.034834467,0.06080417,-0.032970265,0.027626695,-0.02803718,-0.07439335,0.048994042,-0.013513631,0.061766446,0.010064264,-0.01901759,-0.021427395,0.121190466,0.07112438,-0.014679295,-0.053587113,0.09160281,-0.0018479554,0.06685116,-0.026531756,-0.06757604,0.060958467,-0.03509364,-0.078102194,0.07804241,-0.06301186,-0.09765887,0.02440573,0.028006492,0.026161944,0.057479087,-0.015551165,0.046411473,0.008974334,0.015527329,0.01127952,0.0030935756,0.039535046,-0.00574722,0.028843438,0.02726455,0.11347331,0.051736906,0.033395957,-0.01633667,0.045928925,-0.04655328,0.08149698,-0.13264915,-0.009425338,0.03512108,-0.030530551,0.029138248,0.0013892619,-0.051915813,0.014122923,0.124409415,0.03704652,0.011749503,-0.07253002,-0.051830743,0.030236546,-0.09827458,-0.055639617,-0.0072872415,0.008837458,0.01199271,-0.0171332,0.02770541,0.021452283,0.022925684,-0.02217695,-0.036528766,-0.033035412,0.041980162,-0.00610627,0.037991233,0.011177976,0.019158607,0.0020981114
0.012308981,0.083968356,-0.041712686,0.08994644,-0.07374572,-0.00912077,0.029490529,-0.015996683,0.023005111,-0.009819623,0.027415078,-0.035607357,-0.019258223,-0.053904228,-0.01361273,-0.000906752,-0.07421137,-0.046438374,0.039809406,-0.039479837,0.035575446,-0.030325342,0.033539105,0.053321857,-0.041484,-0.040151987,0.01467717,0.06713618,-0.059213705,0.04895999,0.10002831,-0.025590928,0.017939875,-0.041000657,0.026700513,-0.015440667,0.011080935,0.040346835,0.10891697,0.06096049,0.007951708,-0.019032843,0.033646807,-0.0061374363,0.03512268,-0.06678312,-0.06432736,-0.010441775,-0.02440617,-0.06568412,0.0017785998,-0.051550806,-0.04793871,0.08441229,-0.05160651,0.036498155,0.05302369,-0.043292634,-0.05037838,0.037436694,0.032018155,0.010372338,0.035086263,0.04018946,-0.020473117,-0.025784448,0.048857007,0.05831487,0.009047954,0.030967616,-0.043439638,-0.049539525,0.08791441,-0.004088893,-0.009843529,0.04409304,-0.05043481,-0.029863408,0.017862651,-0.01572578,-0.107920915,-0.009346734,0.0049587092,-0.025401462,0.12644425,-0.06591044,-0.018521162,-0.022204757,-0.068835154,0.0024964206,-0.0091464175,0.097823896,-0.07414909,-0.031724222,-0.029791944,-0.038763076,-0.01598115,0.021868648,0.07415992,-0.03514919,-0.011991549,-0.061612535,0.054671887,-0.042141523,-0.05414122,0.029781947,-0.0134359775,-0.04324252,0.025161466,-0.037921783,0.052923158,-0.03966857,0.04164817,0.04772021,-0.06786522,0.028671056,0.04842394,-0.07088223,0.02053244,0.019312691,-0.061351,-0.07543232,-0.019857388,0.021214744,-0.045275934,-0.0136909885,-0.011693332,0.06321553,0.01304881,0.06654569,-0.032605343,0.10953428,-0.010189914,-0.00096965616,-0.031474367,-0.012651183,-0.021396374,0.110830285,0.07985575,-0.08532637,-0.028055785,-0.017240297,-0.04683139,-0.028750349,0.111925945,-0.092925824,0.036923077,0.0416067,-0.009877834,-0.06250532,-0.043171592,-0.021244977,-0.060908865,-0.06495393,0.09872616,0.08922485,0.034806162,-0.04401087,0.060882468,-0.02421732,0.019512292,-0.018218331,0.09455666,0.026581708,0.07622875,-0.050506614,-0.03600869,0.021474222,0.03889697,0.032780483,-0.02591366,-0.022496112,-0.02311636,-0.05036349,-0.04437546,-0.028287299,0.07449584,0.0055652014,0.071782775,-0.0046741557,-0.008520857,-0.03140797,0.0025638875,-0.038956188,0.02081818,0.007441816,-0.0042782314,-0.034919906,0.018429816,-0.04644351,0.018897489,0.016045284,0.04350203,0.00069910503,-0.005970425,0.0028183577,0.094804086,0.014948412,-0.05675,-0.029204126,-0.023387661,0.021637315,0.017725343,0.018204635,-0.06757162,-0.00085464766,0.020064037,0.024284277,0.096732184,-0.016524853,0.016767725,0.036666937,0.016990041,0.041904837,0.050015643,0.04493658,0.011883303,0.0022216726,0.050254732,0.098806545,0.03758585,-0.032313325,0.021361815,-0.017550534,-0.060984217,-0.102790505,-0.0044338387,-0.02585227,-0.003417047,0.03546917,-0.007332361,-0.08640548,0.10955248,-0.0051058265,-0.0085298335,0.021105014,-0.016615395,-0.005896982,0.019023301,0.053693105,0.06692813,0.023921382,0.064822055,0.024315786,-0.060183614,0.00781595,0.029387167,-0.041412257,0.0017848758,0.05021375,-0.0035080477,0.060483113,0.037680116,-0.006397209,-0.027181005,0.030966641,0.0864091,-0.08614061,0.060658943,0.015207958,-0.04606766,-0.009382695,-0.058397185,-0.0004553638,0.036060132,-0.043051846,-0.015128467,0.04482955,0.0046726204,-0.009984841,0.018690001,0.0017641387,-0.06464065,0.02464791,-0.008610894,0.01067422,0.06440606,0.014780384,-0.028765857,-0.09197137,-0.034164857,0.07774313,0.071529284,0.016640095,-0.015013181,-0.0137004545,-0.05159201,-0.027635977,-0.0314445,-0.007562864,0.029833183,-0.038386352,0.08486021,-0.0074763084,-0.098433316,-0.00385983,0.066082366,0.025519133,0.03357139,-0.073147394,0.02206307,0.043458674,0.03877682,-0.032862663,-0.013903714,0.026205683,0.058374453,0.006705886,0.010906597,-0.06900783,0.1170084,-0.04951475,-0.06526069,-0.006103254,-0.021223413,0.08478063,0.05175573,0.04775537,0.023792084,0.06143907,0.04211214,-0.00020436733,0.0041768053,0.09246632,0.024691306,-0.028229564,0.054662757,-0.0121899415,-0.036221918,0.025468925,0.025208352,-0.02779143,0.027507309,0.05385753,0.12222524,-0.08689069,0.080477804,-0.03872122,-0.031559322,0.017803615,-0.019115368,-0.04958384,0.033834737,0.0034605446,0.07677977,0.002159389,-0.04420148,0.09816404,-0.052409556,0.03322107,0.044645466,0.12007924,0.017920725,-0.08065298,-0.009402509,-0.056204684,0.03528737,-0.025187457,0.071188286,-0.0061008814,-0.024196766,0.059033975,0.01450135,-0.0014285212,0.020672116,-0.011643937,-0.016264066,-0.0001642145,0.019257909,-0.07378449,0.06873172,0.02036537,0.035691228,0.027791077,0.0024737695,0.045136042,0.02613481,-0.024134913,0.002624278,-0.0625058,0.026604787,-0.024530733,-0.037892736,0.0025596614,-0.041337453,-0.046699267,0.056036104,-0.03274831,0.09196326,0.0007792072,-0.052407164,-0.031204445,0.009686107,-0.07080255,0.07936543,-0.045740113,0.028607143,-0.050402284,-0.04501296,-0.10444706,-0.07032654,0.057334036,0.06176979,0.033587374,0.006486325,0.030081395,-0.039264508,0.020762865,-0.041370764,0.023668287,-0.027610412,0.018367242,0.032490764,-0.030433325,-0.008832214,0.039553408,-0.035084516,0.039945874,0.07046663,-0.018770354,0.022379287,0.017998181,0.031597324,-0.03460829,0.019389085,0.0062308563,-0.051281147,-0.035580188,0.07245264,0.05485068,-0.0010274954,-0.011478041,0.0012131154,-0.016918855,0.079035744,-0.019768488,0.040301647,0.02920407,0.020632895,0.04019558,0.06829878,-0.024968814,0.017554075,0.016954772,-0.07176263,-0.013720546,0.01802717,0.022113767,-0.022273265,-0.012619159,0.0016499693,-0.03102728,-0.080291,0.02510764,0.01246622,0.13431774,-0.06861038,0.017181965,-0.032844763,-0.030932501,0.035175797,0.008188027,-0.09834251,-0.0038203143,0.031120423,-0.03785964,-0.0252792,0.030843066,-0.14920144,0.0069368267,-0.022553954,0.07880104,-0.042290382,0.002511643,-0.06514482,0.015198817,0.021986041,-0.04049826,-0.0110590225,-0.01373796,-0.07695329,0.040875103,0.061349083,-0.0069571463,0.07004489,0.021817125,0.029883197,0.032474764,0.0070070154,0.017656479,-0.020362793,0.119659364,-0.05603213,-0.06094254,0.03553876,-0.022237642,-0.01471869,0.06833497,-0.013697247,-0.037260793,-0.018332036,-0.003755051,0.0149402805,0.021540044,0.05075603,-0.030892374,-0.026004963,0.016346455,-0.018675102,-0.02228195,0.019168962,-0.00042254414
0.0040934347,-0.09309506,-0.011850311,-0.038826387,-0.023088949,0.04911478,-0.009693484,0.044148292,-0.008690447,0.034373324,-0.02944278,-0.053196333,0.036504745,-0.0269735,0.03735924,-0.04996394,-0.048312955,0.08730505,0.019233093,0.00926972,0.022549009,0.025594342,0.00064590166,-0.14218806,0.052718878,0.029575024,0.11450913,0.00653621,-0.03197707,-0.022038652,0.058867704,-0.010899116,-0.056879368,-0.059127938,-0.014510095,-0.09050316,-0.03139062,-0.01975098,0.041346148,-0.05954998,-0.031187003,0.01528918,-0.014151546,-0.031692713,0.028942699,0.08007162,0.02040413,0.0651449,0.0062489123,0.049537517,0.0021450797,0.077059895,-0.034992952,-0.014823024,-0.017486462,0.010105079,0.12557201,0.0050114472,-0.02011518,0.0076469197,0.020792447,0.025550246,-0.04565151,0.0060289633,0.014067067,-0.038846016,0.031256642,-0.06626189,-0.027317276,-0.03979681,-0.011294591,-0.039616615,0.008072785,-0.028455002,0.03891131,-0.03789995,0.07802875,0.03699593,-0.010753747,0.03106419,-0.043288127,0.018654564,0.04639185,0.024163332,-0.02518145,0.013128638,0.096357144,-0.030326912,-0.0014346633,-0.032423455,-0.05416411,-0.029988121,0.07745447,-0.01289801,-0.044560686,-0.035915054,0.0039817295,0.025595838,-0.031533748,0.030682845,0.05377671,0.056284882,-0.015292391,-0.017758094,0.012043937,-0.15709916,0.016203238,0.032146174,0.048433084,0.0022192542,0.029526342,0.036983516,-0.04754122,-0.08844914,0.030946674,-0.017522546,-0.050463565,0.08260348,-0.050244905,0.04554065,-0.017757231,-0.039300397,-0.068032645,-0.018473854,-0.002954635,0.005453488,-0.019536091,0.00915298,-0.034555268,-0.017953204,0.013588779,0.037885312,0.14470325,0.01742309,-0.008877847,0.03474492,-0.0072866715,-0.031729974,0.012966682,-0.005595448,0.00885282,0.05346605,-0.08770651,0.017954895,0.0020617838,0.05694372,-0.04128414,0.029447945,-0.0947118,0.12025953,-0.03730385,0.043029368,-0.0036466052,-0.0072386055,-0.023186548,0.04921237,0.039322294,0.026066538,0.050085533,0.0370549,-0.0099326335,-0.0010765428,-0.03297299,0.037949484,-0.055889968,-0.05971997,-0.05411914,0.03715454,0.015354214,-0.015062017,-0.017533235,0.0025811717,-0.044112906,-0.080491185,-0.0971219,-0.010157228,-0.014670975,0.034158845,0.0054072896,-0.040188625,-0.07316786,0.0014528821,-0.048905417,-0.02614859,-0.090563625,-0.026429858,0.035967845,0.03140223,-0.019791529,0.030192265,-0.0568816,0.024109222,0.008881289,0.07367955,-0.030743212,-0.01879307,0.04738701,0.030406322,0.0004272072,-0.017100656,-0.0072028027,0.10388715,-0.005339717,0.0029546234,-0.027952623,-0.042419683,-0.019022627,-0.02891402,-0.04036901,-0.00075354514,0.0054656165,-0.069440775,0.041483633,-0.017335605,0.0023108392,0.035111245,0.028870752,0.059120476,-0.06667545,0.0046006045,-0.0021584951,0.105977625,-0.02557392,-0.010141495,-0.022925131,0.09822854,0.030450242,0.01022103,-0.010360905,-0.029410984,-0.021162406,0.054284647,0.03052654,0.049727287,-0.0039862324,-0.017821541,-0.042318597,0.02557798,-0.057236042,0.02213121,-0.0021710095,-0.052348472,-0.017896539,0.039221767,-0.06882504,-0.04352461,-0.038067456,0.05873655,-0.0253195,0.11301934,-0.055060793,0.12594973,0.01988609,0.02153379,0.0069976505,-0.074087314,-0.050746042,0.07121693,-0.06267324,-0.036102165,0.033387505,-0.0062133493,0.022618232,-0.012422888,0.025912018,-0.026482457,0.03761794,0.043834414,0.041380882,0.02230889,0.026416749,0.029598797,0.06308271,0.0011375418,0.022758862,0.03009071,-0.0069966842,0.055329476,0.02366932,0.06498905,0.0050236885,0.033788715,-0.049591586,-0.051262658,-0.027432676,0.080335796,-0.035808787,-0.037175,-0.12215194,-0.009771669,0.06344081,-0.0278946,-0.06641,0.027519446,0.14566852,0.0026593427,0.09908809,0.013181128,0.02190657,0.0120344125,0.07488033,-0.08893113,0.038503367,-0.038225416,0.00708488,-0.010072359,-0.0253321,-0.0034886266,0.022108842,-0.04861499,-0.05113742,-0.022671968,-0.096270144,-0.012676671,0.025052099,0.084833495,-0.06701187,0.0033119647,-0.01744557,0.06822355,0.021969387,-0.06392609,0.012669044,-0.108241946,-0.0096665565,0.0021143295,-0.10541561,-0.042662445,0.0639666,-0.013256305,0.037257858,0.054920435,-0.043976784,-0.032576792,-0.045437273,-0.107984476,0.12757175,0.028449826,-0.03343756,-0.0734372,0.101167805,0.060499325,-0.013006648,-0.090254925,0.06720233,0.0022434632,0.050612383,0.035298914,-0.06274963,-0.003591165,-0.019965904,-0.008959602,0.025226336,0.060510945,-0.031176979,0.068786934,-0.0345904,-0.08419365,-0.05475937,-0.0051837987,-0.01676826,-0.030298894,-0.017574389,-0.022566374,-0.024062041,-0.08859266,0.016708871,-0.02672934,0.034324903,-0.020252548,-0.059572693,0.043597177,-0.015715567,-0.03262701,0.060129788,0.08135918,0.053047083,-0.046212032,-0.058813248,-0.0913708,-0.023451364,-0.042314835,-0.0034147752,-0.036781,0.008967795,-0.028074685,-0.009809872,0.09535799,0.002319361,-0.06023193,-0.12324621,-0.09858089,-0.047218826,0.08893125,0.027680961,0.002838826,-0.019712957,0.024373053,0.045729883,-0.027392644,-0.11417229,-0.03936966,-0.08922142,-0.027231334,0.06698409,0.04188203,-0.08265761,0.033951536,-0.0077099283,0.05381797,0.026284922,0.019756561,0.029321192,0.016969714,-0.018147236,0.021846477,-0.0002855882,0.027836848,0.03126927,-0.012357646,-0.036685336,0.00084002275,-0.043206766,-0.0015145876,-0.0059599215,0.081035666,0.0111609455,-0.04301922,0.0542573,-0.011617316,-0.0027529467,0.015843187,-0.011752623,0.07651629,-0.026672626,0.031578638,-0.022933064,0.065577224,0.04774738,-0.027276905,0.0008544625,0.013804827,0.030762177,0.054513566,0.007949414,0.09047885,-0.07445135,-0.008553288,0.095455036,-0.03209763,0.035445977,-0.041953437,0.07346859,0.06528062,0.037441123,-0.11845017,0.017433736,0.048814416,-0.008240647,-0.009450867,-0.005941009,0.009986379,0.060008835,-0.007952958,-0.07090153,0.034875393,0.017910255,0.006778953,0.033016156,-0.051330477,0.023446463,-0.020563692,-0.08660006,0.11616672,0.004134636,0.04694376,0.023454301,-0.030703409,0.079182215,0.07501138,-0.07684009,0.04364408,-0.025221406,0.008563634,0.04183102,-0.0086876815,-0.05946227,-0.017333578,-0.036402702,0.014609657,0.06163604,-0.14857718,-0.07752984,0.0631722,0.066333205,-0.007814569,-0.027180705,-0.037712626,-0.047172576,0.1916918,-0.045187138,-0.052952968,0.040742073,-0.035176303,0.0031834715,0.029539898,0.009278882,-0.0718965,0.01426091,0.022221485,-0.009554498,-0.0017873117
0.009096123,0.027813371,-0.025124915,-0.035874873,0.030751659,-0.008827263,0.018457653,0.06833977,0.025381118,0.059128337,0.012579191,0.08786893,-0.032215085,0.02923109,-0.027954744,0.043805778,-0.08537809,0.020537868,-0.0070250956,-0.058517583,-0.1590673,-0.038134314,-0.009352685,0.116309926,0.043011583,-0.009581259,-0.081591524,-0.08407529,0.09062471,0.06826164,-0.06653347,0.032266468,0.02006591,0.0106508415,-0.07562264,0.07580847,-0.07663495,0.003962676,-0.081457414,-0.043290272,0.04146889,0.020264488,0.008927097,-0.039813247,-0.02076871,-0.062328335,0.087152615,-0.09955292,0.02546836,0.1169442,0.05626992,-0.048839424,0.028936047,0.010244089,-0.04835675,0.014297463,0.018332627,-0.095741786,0.10951126,0.021188147,0.043526266,-0.050186012,0.017015021,0.036334824,-0.044070363,-0.042930976,0.0020508678,-0.0019233987,-0.013293185,0.04641678,-0.008414269,0.090290695,0.008799567,0.08523729,-0.124053694,-0.028768394,-0.08417568,-0.05460297,0.038157362,0.013476185,0.22012472,0.0014679476,-0.018212065,0.0023593493,-0.06729846,0.002852266,0.02991395,0.035768982,-0.008588,0.033509824,0.05671888,-0.09016069,0.0054732217,-0.023868337,-0.038391784,-0.0385613,0.03156469,-0.049389098,0.08483819,-0.051832426,0.059610803,0.08222833,0.1198828,0.0057900962,-0.008312761,0.14842816,-0.007988128,0.014099565,0.006181638,0.036304995,0.016592618,0.010778286,-0.05367082,0.043248747,0.0467464,-0.021117335,-0.061409686,-0.025379993,-0.078081526,-0.11645596,-0.08943256,0.24810582,-0.024402665,-0.014821963,0.00943952,-0.047538027,-0.01451136,0.048641562,0.019173052,-0.011492071,0.0901721,0.072058424,-0.07818592,-0.029226694,-0.024491359,-0.037780594,0.053706646,0.041642066,-0.091852225,0.08221317,0.00857575,-0.0232449,0.16402687,-0.038371775,-0.06547126,-0.030572388,0.03660466,-0.014064709,0.07687186,-0.0008784319,0.03526774,0.015722731,0.017467005,-0.016873337,-0.016997969,-0.07944496,0.020162413,0.043764595,-0.06867847,-0.02458348,-0.04692739,-0.01372645,-0.0542429,-0.047561646,-0.013991482,0.030995661,0.18382193,0.035238072,0.032529317,0.032567162,0.036462013,-0.088719144,0.031583663,0.086983345,0.10800359,0.043404005,-0.021149518,-0.022917341,-0.12742329,0.04080469,0.09880655,0.010361508,-0.030424546,0.10898067,0.03343148,-0.037001073,-0.0030420944,-0.07492156,0.07660356,0.0077411872,-0.04091212,-0.026344957,-0.029529974,-0.09336263,-0.0024653778,-0.07104163,-0.021840872,0.08015013,0.12096847,0.02405372,-0.052650753,-0.055167798,-0.019175686,0.03163742,-0.03773562,0.003340912,-0.031225763,-0.03411543,-0.09260733,-0.14124584,0.0024542988,-0.087568894,-0.002646598,0.018752564,-0.011719164,0.07942336,-0.041737802,-0.046502084,-0.04031733,-0.016394172,0.039535213,0.014518237,-0.018224074,-0.017315583,0.00067458814,-0.001387513,0.0014050794,0.010589421,0.03175606,-0.046979323,-0.02073266,-0.01254293,0.00038882872,0.05854429,0.0352918,-0.042198185,0.016850885,0.0036128154,-0.032812618,-0.07222685,-0.07812161,0.06565508,-0.052674398,-0.013861743,0.04587268,0.0114321085,0.004385169,0.07714023,0.10857277,0.009746245,0.010529236,-0.1130067,-0.052035093,0.019531209,0.058866683,0.013581396,0.03255429,0.023801789,-0.057563584,0.039993092,0.029918242,0.017700715,-0.14917205,-0.006610212,-0.030519867,-0.017932124,0.04346163,-0.01696358,-0.07591302,-0.041224454,-0.039268315,-0.0713279,0.035024334,-0.10121504,0.022152008,0.07442467,-0.053206213,0.08071493,-0.013978367,0.061936766,0.005329017,0.037080385,0.117370866,0.08782018,-0.028294312,-0.083386384,-0.02778633,0.023570638,0.14166209,0.008960387,0.034330063,-0.041050263,-0.06669537,0.03443155,-0.12935999,0.03925743,-0.052193314,0.025099924,-0.055355206,-0.037619658,-0.002065621,0.0145215625,-0.00272257,-0.0433699,-0.059384055,0.02353221,-0.027162384,0.103273764,0.038178906,0.020387318,-0.0071484433,0.10332071,0.054131076,-0.055403613,-0.04245887,-0.07796769,-0.0053182878,-0.035586476,0.04538034,-0.028466774,-0.013610436,0.03920831,0.012015316,-0.058335166,0.03346466,-0.008451235,0.016945954,-0.014150945,0.019317837,-0.028815726,-0.0120851025,0.06488944,-0.03709176,0.024045438,-0.02593832,-0.068418,-0.0635015,-0.018344078,0.021791765,0.04103038,0.0009104812,-0.0075794416,-0.03610757,0.04959443,-0.07478722,-0.08432792,0.13036847,-0.13848595,0.040294193,-0.010317255,0.07530465,0.072755896,0.0025038647,-0.060238145,-0.038113184,-0.018223641,-0.054775707,-0.003914611,0.024142317,0.025618432,-0.044005923,-0.056683585,-0.051684633,0.13820435,-0.0066992305,0.10634389,-0.010949185,-0.024424987,-0.030339144,0.038076818,0.037905667,0.0024212368,0.04824547,0.020385474,0.062022794,-0.0022727652,-0.0207324,0.028373417,0.015806967,0.051274717,0.06392702,-0.04274664,0.0060328753,0.043062516,6.362761e-05,0.027151594,-0.044351917,-0.102857076,-0.10291185,-0.015763756,0.06966934,0.10842579,0.09729128,0.07597862,-0.014376773,0.05360188,-0.06393846,0.15174758,-0.00047036778,0.07117543,0.034219027,-0.008894513,0.013044844,-0.027406203,0.11269046,-0.039433632,0.119600385,-0.004780272,-0.03414953,-0.069207326,0.049952857,0.12231441,0.016930342,0.09840646,-0.00470735,-0.043219365,0.0074925944,-0.027048944,-0.14136359,0.106881246,-0.032079782,0.01877998,0.2098465,-0.008567579,-0.07369809,-0.05081164,0.121390566,-0.020102998,-0.041559443,-0.07024984,0.03269551,0.17062749,-0.0072454847,0.029226074,0.14338695,0.0133246165,-0.03367456,0.05919405,-0.09517041,0.013914339,-0.04116885,0.1429728,-0.022845108,0.03178471,-0.0113382675,-0.12468065,0.03138159,0.10861136,-0.09655196,0.0113886045,-0.08530386,-0.019961677,-0.12828055,-0.09536012,-0.09911568,-0.014604921,-0.03556468,-0.0460642,0.064763665,-0.013048185,0.004330295,-0.012028339,-0.014694271,0.028272545,-0.0087285675,-0.010829791,0.00023353858,-0.02005339,0.009427503,0.04445914,-0.06268503,-0.07263685,0.021991007,-0.1132584,-0.032459293,-0.004617581,-0.06766521,-0.0047325096,0.031940732,-0.11370922,0.11223604,-0.0238435,0.1611367,-0.02109623,-0.0766761,-0.032017678,0.032281432,-0.06978455,0.06647017,-0.055385713,0.14774731,0.021627888,-0.039606977,0.11413456,-0.034665745,0.14385766,0.018811546,-0.09059071,0.06613106,-0.12161757,0.0329849,-0.023004176,-0.063946925,0.013210766,0.039265778,-0.0037033963,0.008893531,-0.06805439,0.14514005,0.009811397,-0.039529674,0.16276701
-0.03322989,0.014141441,-0.03623344,0.022764742,-0.06685487,0.020996002,0.00021174534,0.03868489,0.006109043,0.022400042,-0.03677991,-0.02458651,-0.010951577,-0.020893497,-0.042391993,-0.06793816,-0.057335153,0.040027924,-0.043238465,-0.04648358,0.034101788,-0.014791794,0.024550064,0.08682445,0.0757621,0.041315224,-0.019736143,-0.0111249415,0.056446426,0.017284175,0.05693569,0.035810597,0.046681445,0.008470792,-0.0020461923,0.01079341,0.035280943,-0.002486045,0.008059409,0.041291084,-0.025198208,-0.04269418,0.009086704,0.032750472,0.031033998,0.047645148,-0.07542379,0.06789206,-0.0049387356,0.0045023314,-0.0693068,0.0037945912,0.05519428,-0.03422329,0.04129719,0.031901862,0.09511915,0.03121829,0.036533117,0.06752435,-0.036610205,-0.008476017,-0.03946514,-0.06986837,-0.003922087,-0.011104325,0.005907144,0.060251903,-0.015709948,-0.040750485,0.01845121,0.039544895,-0.15080835,0.025437325,-0.1294804,-0.020861194,0.031168746,0.08238414,-0.018637873,-0.03897394,0.008154178,-0.014876039,-0.016662395,-0.02837644,0.07209112,-0.010921753,-0.027186528,0.018894698,-0.028334498,-0.010159684,0.15127595,-0.014899428,-0.06244056,0.032591864,0.0070283753,0.02317394,0.028127255,-0.030374711,-0.061929874,-0.0015235378,-0.07178886,-0.019547172,0.078820005,0.008880853,-0.06494228,0.0070946757,0.020425588,-0.03364285,0.026257629,0.028171387,0.010956699,0.041630644,-0.08924603,-0.06512852,-0.073046386,0.019980947,-0.0676828,-0.0018781563,-0.023139592,-0.05948862,-0.06226852,0.023949753,0.046850633,-0.032980785,0.04210093,-0.013245591,0.035617527,0.05621558,-0.021163184,-0.011109978,0.06682286,-0.08472998,-0.023584682,0.018817212,0.05727363,0.012673136,0.02769979,-0.021465078,0.034238882,-0.038158506,0.03460618,-0.042738743,-0.033806436,0.03422108,-0.014598415,-0.07851793,0.01278926,-0.004010895,-0.0011156243,0.009427412,-0.03442423,0.016250547,-0.017778082,-0.076798394,-0.07522602,0.0066940794,0.005129737,0.0131814,0.04814619,0.047470376,0.06159053,0.025770836,-0.04690875,0.0834427,0.056024794,-0.026066603,0.008910016,-0.013925094,-0.040631812,0.016080197,-0.009871934,0.011400744,-0.09062959,0.008821435,-0.0455886,0.04683606,0.06451762,-0.0035363932,0.13354759,-0.046720605,0.031618215,0.029978678,-0.058097523,0.017492808,-0.020713728,-0.046220332,0.0043069087,0.07534475,0.015686471,0.17455173,0.06303077,0.0152633665,-0.047546025,-0.04646775,-0.011268975,-0.05291792,0.038450297,-0.0035366996,0.07785086,-0.04011424,0.0351563,0.08900965,0.01380892,-0.029957721,-0.011670811,0.023400655,-0.036665816,-0.023099322,0.021890543,0.0480325,0.092380345,-0.014931778,0.013099084,-0.0012526828,-0.02929968,-0.0356648,0.090164214,0.03086396,0.078031965,-0.13403168,-0.035543606,-0.023494683,0.0003273038,-0.0005797793,0.054320376,0.07161288,-0.08111899,-0.025912538,0.03623349,0.026065161,0.04149695,-0.024073325,0.059295043,-0.036139973,-0.031532433,-0.00504275,0.013980608,-0.011746488,0.0031056325,-0.058778994,0.02378443,-0.029358579,-0.004647163,-0.0194778,-0.023713479,0.048662882,-0.031305708,0.12441807,0.022897022,0.02961664,0.0038264901,0.08420697,0.065872,0.037991937,0.05688206,-0.061686594,-0.014247213,-0.05847236,0.042476032,0.01981816,-0.030462248,0.08159842,0.12752752,0.023769632,-0.03759659,-0.039274164,-0.03734138,-0.0064314166,-0.06979784,0.041498292,-0.026622243,-0.018790824,-0.011509001,-0.033880748,-0.003891198,0.04792459,-0.0029021702,0.0058139814,-0.042191073,0.02779309,-0.0073492792,-0.030704066,0.021087559,0.0292932,0.020292077,0.0415422,-0.08519907,0.027133286,0.02447769,-0.08068455,-0.022505015,-0.022629594,-0.025139278,0.0069832173,-0.07194439,-0.039169487,-0.029714128,0.011248335,0.058249973,0.019975074,0.030801527,-0.06570495,-0.008954817,-0.0049354094,0.00095221505,-0.023476817,0.106693946,0.012481832,0.036242954,0.0039443597,0.0833126,0.023508053,0.002207973,-0.01717484,0.033596005,-0.045730803,0.0740874,-0.045465704,0.07223997,0.03692047,-0.033285353,0.042631727,0.040294003,-0.07554371,-0.03832143,-0.020333547,0.01855224,-0.04300226,0.05945124,-0.039712954,-0.028247429,-0.042152308,0.0058819307,-0.0005197964,-0.00079727586,-0.12180131,0.029055782,0.079820976,-5.8672587e-05,-0.053560883,0.034934483,0.13155933,-0.016983356,-0.023431432,-0.0012447967,0.04731476,0.049317695,0.017818805,0.027357481,0.01918478,-0.009718721,-0.00032440817,0.035550755,-0.07152944,0.018083708,0.034327254,-0.0035328306,-0.07741892,-0.043102384,-0.076719545,0.003802127,-0.025010372,-0.0005558343,0.039033834,-0.022869427,-0.02353547,-0.029957073,0.044622023,-0.059059035,-0.021896655,0.0066809533,-0.010316314,-0.0047310465,-0.046484042,-0.009576754,0.065623045,-0.03826482,-0.03168218,-0.003952596,0.002467688,0.025057958,0.004098407,-0.019422362,-0.041258156,-0.031186575,-0.03786622,-0.012127736,0.08491534,-0.019070586,0.021357188,-0.10300565,0.07736937,-0.043745723,0.03911252,0.039972164,-0.01492508,0.07879822,0.090211414,0.05175503,-0.015446615,0.025014034,0.021644622,0.0014561136,0.011851224,0.043929175,-0.11858845,0.017804287,0.034453824,0.0041861394,-0.01653443,-0.061359257,0.034505796,-0.019161332,0.03375532,-0.026443826,0.015227002,-0.027149009,0.010086869,0.061712492,0.051976983,-0.033132948,-0.02448581,-0.0050504026,-0.015597053,0.08245681,-0.05422362,0.025730914,0.0419552,-0.01268145,-0.06415351,-0.033585515,-0.024056857,-0.025574729,0.0530427,0.06368673,0.004699994,0.0036354773,-0.04238126,-0.020080654,-0.038297657,-0.039398193,-0.09365704,0.015490401,0.042722255,0.008169896,0.04229643,-0.06388426,0.015299334,0.006855946,0.018627433,0.074069366,0.04414445,0.04761572,0.07607061,-0.023177452,0.057718705,0.006986652,-0.030996252,-0.007243078,-0.0059497943,0.016255641,-0.041633204,0.03974918,-0.067757174,-0.02275595,0.025081174,-0.049136505,-0.060776297,0.0012023874,-0.07697872,0.044594813,0.05128267,0.005294259,0.05516145,-0.07124036,0.0056503867,-0.03711771,0.023302035,0.041436702,0.019351775,-0.015588129,0.06841532,0.020543538,-0.035681788,0.055578087,0.02012563,0.021591302,0.029298369,-0.040668737,-0.016765578,0.03425514,0.04300405,0.04564103,0.017769128,-0.0028678547,-0.0048131444,-0.024344144,-0.018358342,0.05982126,0.09732824,0.0027251567,-0.054102466,0.02713675,0.039794195,0.015394631,-0.0412624,0.03653308,0.0020288124,-0.027930127,0.030855667,-0.0045716143,0.023770226
-0.042556364,-0.069860026,0.035926662,-0.022230739,0.15998067,-0.035248026,0.03688436,0.0060662124,0.042656414,0.043737754,-0.12626524,-0.11464155,0.024518535,-0.034571037,-0.031185796,0.062053684,0.081304155,-0.02079815,-0.03427347,0.047828004,-0.089831285,-0.027314145,-0.028338216,-0.08241552,-0.04143361,-0.015528011,0.049981616,-0.004276461,0.0068513365,-0.047836293,-0.117981434,-0.035747025,0.06637676,-0.018940045,0.07079992,-0.11764229,-0.044895235,-0.028911486,-0.20552737,-0.15060672,0.040603977,-0.013588794,0.030938454,-0.062159345,0.018409649,-0.045984056,0.04320613,-0.10017794,-0.030709224,0.018674096,0.061034594,-0.12892391,-0.034608237,0.10757046,-0.01073446,0.04163166,-0.22312908,0.07584909,0.0553234,-0.10611582,0.018119931,0.01384508,0.15075488,0.060945217,-0.025903894,0.042372786,0.010272636,0.041376468,-0.031334087,0.015115961,-0.026859405,-0.0011102763,0.16219175,-0.023114165,0.09119343,0.0020770323,-0.025631202,-0.012659501,-0.008346412,-0.025488196,-0.045623124,0.009273372,0.11034277,-0.032325283,-0.025361525,-0.031910833,0.047701027,0.007751246,0.054682996,-0.01501604,-0.18785354,-0.035191845,0.10929414,0.03009104,-0.010552123,-0.03344126,-0.013219515,-0.0135021815,0.1241439,-0.020601284,-0.06537193,0.111939445,-0.073307805,-0.03187383,0.022962105,-0.025581133,0.08552828,0.035851713,0.035390157,0.03231512,-0.05157052,0.030253619,-0.05672162,0.08994375,0.0046156757,-0.0761959,-0.0012242106,0.008492917,-0.036430944,-0.008138206,-0.05708229,0.043667305,0.058437355,0.03257498,0.017428197,0.025533281,0.006740976,0.04170272,0.01671978,-0.11095785,-0.047196586,-0.055379678,-0.13293648,0.03923091,-0.08416662,0.01300564,0.043001357,-0.08339427,-0.027184855,0.15714376,-0.01884365,-0.020330567,0.086140305,-0.0102816345,0.0020107853,0.15965763,0.040766448,0.037083153,-0.07597177,-0.027239375,-0.021028016,-0.13583139,-0.029072393,0.037064087,-0.052871805,-0.19289811,-0.028917024,-0.03277567,-0.12582514,-0.081459336,-0.06942213,0.0005693979,0.0856742,-0.033343855,0.032549184,0.011873525,0.123472005,-0.036524825,0.017835028,-0.0074214227,0.037815396,0.054784212,0.13061905,0.1841893,-0.04697248,0.030937811,0.007978796,0.004838411,-0.11394902,0.06959632,-0.072647125,-0.008042735,-0.046136186,0.06638027,-0.034338273,0.011774355,0.02245837,-0.08695649,-0.07333969,-0.17634751,-0.01129283,-0.0014959206,-0.055520937,-0.018938653,0.023677235,-0.017831204,-0.04223938,-0.04031824,-0.07731515,0.021002214,0.026489414,-0.07633503,-0.0026336717,-0.041156605,0.012876995,-0.008355183,-0.0110567855,0.01568801,-0.08775505,-0.06866393,-0.12453908,-0.021772737,0.033671547,-0.009977017,0.040012393,0.0347607,-0.053557027,-0.0043760687,0.007682014,0.15484086,0.039405007,-0.032443196,-0.016228016,0.01937676,0.03160444,-0.00080290507,0.051275928,-0.00999969,-0.005937063,-0.16969684,-0.008832656,0.0025779186,-0.21640696,-0.05729653,-0.038359426,-0.023100836,-0.036114343,-0.013936419,0.0034816652,0.024860036,0.05417251,-0.028433269,-0.0006447485,-0.03806801,0.06306395,-0.018152932,0.04148366,-0.10084304,0.063384935,-0.0010623932,0.025287552,-0.05322946,-0.10326864,0.008820016,0.015291718,-0.008711152,0.006650049,0.0518331,-0.03292542,0.031116717,0.044048477,-0.072743215,-0.02200188,-0.075321555,0.041167058,-0.017855074,0.016389366,-0.0023458907,0.09364422,-0.0007193355,-0.0197749,0.056364186,-0.049284786,0.065141216,0.016901819,0.0006067776,0.09809166,-0.07162745,0.030260533,-0.013497304,-0.033482116,-0.01780682,-0.0791847,0.10308299,-0.013661511,-0.10757682,0.096827835,0.08577082,0.04640855,0.07658579,-0.041364435,-0.038183175,0.007544614,0.008341079,0.036155295,-0.036171332,-0.108907886,-0.031988505,-0.061867718,0.02346834,0.05816979,-0.08629734,-0.031302296,-0.032859903,0.11469444,-0.026956337,-0.048270192,0.1251149,0.04255971,-0.021291183,-0.034900945,-0.038920194,0.08861668,0.034971304,-0.019796997,0.013391794,-0.051144335,-0.0362909,-0.013321843,-0.033839952,-0.02888389,0.13079251,0.0024859284,-0.03883099,-0.039792627,-0.025592519,0.06782599,-0.036040094,0.02383116,-0.06826869,0.020874722,-0.017185608,0.03451989,-0.013774852,0.019029226,0.11573241,-0.0936509,-0.09482275,-0.0077736564,-0.04061357,-0.042692672,-0.17074607,0.008140467,-0.111837655,0.04856805,-0.0050858627,-0.070897184,-0.18489364,-0.0019116059,0.014590386,-0.06248607,0.03666894,0.007428824,0.1355158,-0.016344745,-0.04153349,0.006427183,0.09104124,-0.0012422024,-0.009578791,-0.03513015,-0.09227389,0.05556006,0.028359361,-0.024640748,0.04412858,-0.040545985,0.16332285,-0.034780994,0.0054272492,0.027086757,0.027785268,0.00034047742,0.08421109,0.0038022895,-0.12453587,0.11917602,0.027248653,0.026929341,0.061700277,0.026533222,-0.042788263,-0.005837131,0.0023907032,0.029214865,0.034044493,-0.0045447284,-0.061305687,-0.022991778,0.038168237,0.17786844,0.017479498,0.016251355,-0.09035965,0.030405909,-0.022703499,0.021093521,0.09088306,-0.034808736,-0.029280942,0.088288985,0.0181559,0.0441975,-0.041237205,0.009069177,0.15819313,0.03381581,0.022636987,-0.029171815,0.024541637,-0.048820548,-0.10037759,-0.017679004,0.12265402,-0.004662726,0.03343067,0.0015335009,-0.03267419,-0.0740533,-0.08274677,-0.038939223,0.011078245,-0.11980264,0.0024270006,-0.14278093,-0.013683346,-0.05234007,-0.0006794371,0.10093521,-0.07532661,-0.01594894,-0.021214325,0.06295802,0.035648596,-0.076313734,-0.030941362,0.0064281933,-0.026667716,-0.03699131,0.02287204,-0.055722754,0.13518745,-0.03927663,-0.035571523,-0.01595166,-0.08404783,0.1348873,0.108918406,-0.13061929,-0.021225555,-0.053496767,-0.024632754,0.033601426,-0.0071309023,0.1127841,-0.03326242,-0.04687808,0.020180065,0.024607463,0.037256803,-0.0426321,0.043194834,-0.025207276,0.065224916,0.038351167,0.041310664,0.03527356,-0.028925776,-0.028344335,-0.039205663,-0.004967079,-0.08096929,-0.023274012,-0.15809204,0.003166277,-0.040978376,-0.03855086,0.03585967,0.01985427,-0.06772717,0.21831794,-0.0059260204,-0.081128635,0.06845698,-0.18248095,-0.019974208,0.08275303,0.050452176,-0.083537914,0.008399662,0.029267922,0.07037856,-0.008857749,0.05774499,0.088435255,0.034420382,0.04046814,0.0018999183,-0.05020351,-0.10458248,0.020855067,-0.044872165,-0.032863215,-0.021918263,-0.09963724,0.02804684,-0.038942758,0.01269325,-0.055104505,-0.0061612884,-0.041855946,0.06573375
0.032237593,0.052662503,0.0027495485,0.010028838,-0.014261615,-0.070670985,-0.02756754,0.034896404,-0.043465275,-0.072013125,0.06345231,-0.06441704,-0.022057265,-0.048684534,-0.025884867,-0.029291078,0.034975182,0.0010417427,-0.035095274,-0.074914984,-0.088159725,-0.013746399,0.028327042,0.051699128,0.0028349028,-0.042964827,0.05557662,0.032436494,0.018477852,0.010775612,0.0016987942,0.03710812,-0.051931027,0.05796781,-0.02375498,0.05839116,-0.0035990793,-0.004777929,0.013930146,0.035114486,0.040649667,-0.027489277,0.043893643,-0.037179846,0.038183376,0.04307916,-0.008750787,0.018237945,0.015335,-0.005061444,-0.023497812,0.07861084,-0.025103295,-0.12759788,0.095679455,-0.029277867,0.011888393,-0.025630478,-0.05504882,0.057823222,0.077473804,0.022883428,0.037321262,0.0142735345,0.039397623,0.03715205,0.009618156,0.026913134,0.031637646,-0.022872126,-0.044126492,0.056143038,-0.10121683,-0.012565684,-0.010979031,-0.028937725,0.07748809,-0.011363806,0.002981063,-0.017403906,-0.06499845,0.08163144,0.01691122,-0.026015768,-0.05579451,-0.030377027,-0.0037947034,-0.030847508,0.0018352901,0.016273707,0.10527823,-0.06679778,0.036001857,-0.039436832,-0.11055038,0.02138008,0.00012325624,0.031538196,0.0025471477,0.1477201,-0.012111192,0.042385798,-0.090255275,-0.013938427,-0.036467005,-0.016076876,-0.02058708,0.037475877,-0.004135507,0.01713955,-0.026917435,0.038752146,0.06869075,0.05390804,-0.06164481,0.042418238,-0.07908842,-0.07200096,0.0025135519,0.06149021,-0.05303434,0.011203739,-0.062100213,0.027781468,0.009875838,-0.069791526,-0.025407063,0.0071352785,-0.009465851,-0.0716439,0.039790187,-0.09970885,0.023794007,-0.011613675,0.07524101,-0.011003161,-0.05093947,-0.10875506,-0.14127141,-0.028895617,-0.038082007,0.04113796,-0.013220554,-0.013659099,0.05607952,0.04111352,-0.059017856,-0.027137408,0.083950505,0.12939484,0.029202044,0.04920828,-0.03660362,0.027452774,-0.011168815,0.03940691,-0.02652265,0.03195249,-0.01225834,0.06543273,0.08682676,0.07325223,-0.04168938,0.023555467,0.009148925,0.013913456,0.006205306,-0.020317687,-0.035657912,-0.031477347,-0.008875323,-0.04944726,0.06346628,0.05162909,-0.061904535,0.03514111,-0.06484636,0.037491,0.03246063,-0.06242282,-0.092240036,-0.039623935,0.06662344,0.051776264,0.03679562,-0.08535263,0.042340863,0.05704662,-0.0073229712,0.12188029,-0.022413623,0.028702093,-0.102983706,-0.0025649648,0.033169534,0.12646888,-0.10106767,0.009789307,0.081621066,0.04226434,0.011894583,0.124287784,-0.041675217,-0.018921187,0.0066434373,-0.040015094,-0.039753623,-0.034056373,-0.028631492,0.004759925,0.0041518323,0.069025785,-0.013960358,-0.033556536,0.028984398,0.040373065,-0.022072326,0.08572276,-0.02308552,-0.05342407,-0.017160749,0.0041550035,-0.04264062,-0.01769341,-0.002741533,0.08549266,0.026027655,0.0014070577,0.015743427,-0.02244638,0.023747902,0.01742246,-0.020446375,-0.018077679,-0.0136333555,-0.034893207,-0.03583853,0.042847242,-0.045504764,0.069567926,0.06150141,-0.061938915,-0.061444707,-0.017802332,0.05048821,0.09709092,0.033212658,0.032572594,-0.022510897,-0.076144725,0.007834783,-0.08808085,0.065145016,0.031979673,0.045378853,0.029798543,0.011049372,0.113467425,-0.010498636,-0.022174576,-0.061380107,-0.019734072,0.010011101,0.020921335,0.007869356,0.01902923,0.005554955,-0.044089302,0.03548543,0.0388114,-0.09381759,-0.07063849,0.006600542,-0.00593696,-0.0055366163,0.02313009,-0.013793437,0.11839952,0.027017185,0.025260095,0.033939738,0.014820167,0.0057503907,0.03359154,0.011042617,0.073312566,0.055353455,-0.05691446,0.028471416,-0.03042776,-0.042873614,0.006500275,0.0021636891,0.08588624,0.0745444,0.0064777425,-0.18318035,0.032352094,-0.11949696,-0.005182941,-0.012550072,-0.05989093,0.0072362456,0.0036511873,0.026410481,0.01709082,0.055370577,-0.09557527,0.020446083,-0.039570298,-0.07811214,0.04835357,0.091856696,-0.019108055,-0.010270294,-0.11260145,0.027470248,0.05703777,-0.03947881,-0.020098552,-0.0079076635,0.02865568,-0.03010899,-0.04129733,0.008956443,0.020394672,0.043364536,0.024153937,0.027532816,-0.110119574,-0.027003933,-0.019606898,0.006849123,0.011812417,-0.02054256,0.086863115,-0.17372145,0.0031794885,0.01225638,0.07715229,0.07835621,0.07596938,-0.0064195357,-0.06780958,0.07923489,-0.03240634,0.024073018,0.0077676466,-0.03367496,0.0060893036,-0.0027109797,-0.010604002,-0.10927718,-0.010054085,-0.017727919,-0.12228035,-0.0171194,0.027398018,-0.0032402982,-0.052218504,0.03183322,0.08878823,0.07185958,-0.036075234,-0.040184017,0.027620928,0.043677416,0.082915254,-0.0066775354,0.025988422,-0.014619721,-0.04409907,-0.039820973,-0.0033561897,0.08748229,-0.05577128,0.026851824,-0.0049753226,0.033654243,0.02241288,-0.06511301,0.03126115,0.011130181,0.0041028885,-0.021380622,0.007273102,-0.049853623,-0.028063957,-0.1357529,-0.03751673,0.03314078,0.046711937,-0.034560848,0.094636984,-0.072513126,-0.063394144,-0.043641143,-0.008822331,-0.09101378,0.026055142,-0.003995093,0.0007730075,0.0047894074,-0.025900677,0.051303573,0.029105933,0.07828067,-0.019957213,0.020144422,0.07566137,-0.010142905,0.045610547,-0.014015037,-0.048908524,-0.008306327,0.07089939,0.04113817,0.01690117,-0.06158626,0.04598498,0.010321695,-0.03949167,-0.07835221,0.03265037,-0.0038132828,0.010391381,0.028107926,-0.031233475,-0.05244262,-0.014088438,0.095467225,-0.08856903,0.03933377,-0.07444885,0.027715873,-0.03840222,0.00041321665,0.062500134,-0.044777554,-0.0017669088,-0.005835901,0.043255802,-0.016565694,0.061943747,-0.08107882,-0.08506202,0.0012993203,-0.10672384,0.061455823,0.012147017,0.005684422,-0.017559607,0.07722086,-0.10202891,-0.05572377,-0.046653356,-0.037909,-0.041229375,0.041035976,-0.012234005,0.024984509,-0.03423177,0.104865104,-0.0046646,-0.037759706,0.0287178,-0.08656254,-0.019961357,0.09270267,0.030761294,-0.05842865,0.10686698,0.03186865,0.04117718,-0.05469121,-0.037573803,0.034869354,-0.02957881,0.06784353,0.023860987,-0.029594569,-0.11077732,-0.0013465426,-0.11468895,0.13346598,0.02522888,0.043928996,-0.024111003,0.072357,0.09521756,0.013087926,0.030316664,-0.045559492,0.0843722,0.08408795,0.06491212,-0.043751433,0.04926574,-0.06425515,0.07725162,-0.032346927,-0.0010155449,0.056293022,0.0026171864,0.07715844,-0.028374348,-0.005228393,0.057203457,0.037463576,0.006243622,-0.024441272,0.016256029
0.034035828,-0.034250747,-0.0395331,-0.03304616,0.10658081,-0.0218228,0.01420042,-0.11211703,0.020011779,-0.039996378,-0.1232285,0.040472627,-0.009326512,0.029394588,0.007832572,0.1195523,0.11063277,0.012688325,0.023547519,0.11521131,-0.099336095,-0.008118831,-0.026559804,0.014438382,-0.14296915,-0.00012526051,0.061930656,0.04313815,0.006753525,0.049007352,-0.15281476,0.030327508,0.019514414,0.10786047,-0.0073572374,-0.055390574,-0.0026068457,0.038703054,-0.031389296,-0.0038007011,-0.040552657,0.03986932,0.0020371785,0.040496033,-0.027201874,-0.02376204,-0.011868065,-0.011458749,0.0032591245,-0.12420837,0.055377256,-0.008256195,0.015593224,0.010287246,-0.038492557,0.024096405,-0.1353276,0.08742512,-0.094128,-0.12931557,-0.06066963,0.05762897,0.10120058,0.07045579,-0.021491962,-0.0062252874,-0.115766086,-0.015484048,-0.04252499,0.011159805,0.027907323,-0.08699305,0.017379977,0.10333339,0.10628153,0.020380303,0.011059798,0.014046217,-0.0059045516,0.018911948,-0.03281288,-0.0871785,0.07117756,0.01713971,-0.060543776,0.0011303469,-0.12500755,0.0250585,0.047423404,0.0066779065,-0.12636246,-0.04285584,-0.076103136,-0.021718968,0.197794,0.02054795,0.008272525,0.03187424,0.04692265,-0.09069925,-0.052322417,0.10176954,0.07818676,-0.023509957,0.018764418,0.070324324,-0.019332593,0.004296892,-0.024078386,-0.04112157,0.069274075,-0.021648603,0.017634077,-0.022580523,0.035920907,0.04699157,0.11137037,0.015289482,-0.053358436,0.102129996,-0.05845338,0.017173212,-0.00074863696,-0.013465405,0.0036217836,0.10203529,-0.020935766,-0.08657355,-0.024113996,-0.043110814,-0.026986547,0.02955119,-0.04814115,0.041451205,-0.029664498,0.031621344,-0.012241131,0.05808518,-0.054002386,0.06825195,-0.03928507,0.03603494,-0.011460969,0.03188815,-0.00548185,0.11615014,0.04775107,-0.030679882,0.08286106,-0.09342048,0.038019933,0.025643408,-0.01783202,0.0084967455,0.08666928,-0.14790654,0.0051322216,0.0054746494,-0.030676946,0.0011105152,-0.0010899467,-0.037069965,0.087552816,-0.070755325,-0.008037511,-0.01974766,-0.06802141,0.037203044,0.0073058032,-0.031459056,-0.039786596,0.11099532,0.15696947,-0.013786272,0.13808513,-0.043855935,-0.044634286,0.02746522,-0.0004978711,0.009656925,0.12359704,0.022386206,0.019944135,-0.072623804,0.020348348,-0.018907698,-0.024581876,-0.08208864,-0.0363511,-0.1282136,0.003932768,0.0073814914,-0.07531326,0.027530435,-0.033783488,-0.013198372,-0.05666235,-0.00961098,-0.06830582,-0.0070695407,0.051687308,-0.15286295,-0.02202669,-0.014823439,0.0629911,0.009402401,-0.03148894,-0.042220403,-0.07683293,-0.08991942,-0.100333385,-0.0639918,-0.005742772,-0.0005763301,-0.00047311222,-0.04946896,0.1337614,-0.061705735,-0.030393379,0.087531544,-0.018143669,-0.120018534,0.032597147,0.025625523,-0.069396384,0.0048320056,-0.055485632,0.036964472,0.0061590686,0.080615096,0.053938862,0.08752828,-0.08505675,0.063223176,0.03058204,-0.03902723,-0.0076550357,0.020575069,0.09071687,-0.020937666,-0.10624867,-0.08930963,0.001073165,-0.011555166,-0.013838532,0.017318364,0.040188048,-0.07627998,-0.12000816,-0.026033921,-0.021645362,-0.08174021,0.007343532,-0.018349856,-0.10055365,0.05723639,-0.009749462,0.08738984,-0.05894699,0.034619026,-0.011707106,-0.086863294,-0.10132172,-0.11197125,-0.03296434,0.010940528,0.039506305,0.01070662,0.0060166363,0.0055727996,-0.06262792,0.063022286,0.030324373,0.054941867,-0.035494935,0.10138339,0.10816479,-0.07581165,-0.0377545,-0.013734295,0.0097543085,-0.016226977,0.09038936,-0.035237756,-0.018438604,-0.1357831,0.13049468,-0.07397418,0.08551775,0.045557216,-0.042747006,0.01254647,-0.10340238,-0.12886576,0.023432782,0.035275202,-0.078002505,0.01810971,-0.030894231,-0.06922788,0.0120636495,0.10589971,0.017026844,-0.0066491473,0.03463352,-0.029354127,0.003917343,-0.029475298,0.02801083,0.04436671,-0.070554584,-0.11998027,0.025848992,0.032407794,0.035061922,-0.018040804,0.034760382,0.04829322,0.03441861,0.06721324,-0.037026837,0.058834597,-0.025733547,0.082554676,0.03185968,-0.012396496,0.067625724,0.0089190975,-0.03077376,0.12050994,-0.036153853,-0.0007903712,0.02399569,-0.028995948,-0.045574237,0.14681102,-0.05820141,0.06621263,-0.00989114,-0.049548928,-0.062213913,-0.0851129,0.020009909,0.06318797,-0.038502596,-0.029044913,-0.10859944,-0.16828735,-0.027734887,0.04307132,0.055980105,-0.088348754,-0.03364441,0.026701199,-0.037649173,0.0053917817,0.028057737,0.008481989,0.105110034,-0.0016398131,0.021954363,-0.08289996,-0.059452955,-0.107483044,0.008383177,0.09648805,0.027877713,0.064935245,0.015574527,0.11114764,0.074735194,0.10305967,0.0035566287,-0.036649734,-0.0886098,-0.06761277,0.06723493,-0.04054567,0.025934123,0.10857697,0.025023937,-0.041671243,0.007373112,0.025316952,0.012348036,0.012955386,0.05742501,-0.013954401,-0.09234058,0.099650964,0.021937951,-0.08709481,0.04850956,-0.03745118,-0.014831619,0.026675891,-0.046445504,-0.07038323,-0.08518623,0.046154726,0.0878019,-0.05500092,-0.058446474,-0.0009164864,-0.09177589,0.073350586,-0.057822526,0.0048034075,-0.06958919,0.071173914,-0.028103452,-0.013484267,0.01969292,0.0232739,0.012255294,0.025824018,-0.0358446,-0.04309102,-0.015855884,-0.074354425,-0.0059816265,-0.011111991,-0.088202685,0.0015862919,-0.159243,-0.11374461,-0.07301514,-0.02104047,0.048962943,-0.021327997,-0.02135876,0.01675948,0.0639566,0.033040375,-0.06808666,0.023024164,0.01719834,-0.09619964,-0.025731724,0.04405228,0.14205353,0.0080859875,0.03508043,-0.14154214,-0.053633817,-0.073925585,0.057374753,-0.034135126,-0.031263456,0.029519984,0.008872139,-0.0055948324,-0.050616268,-0.08416308,0.006594407,-0.032462817,0.003888498,-0.01172945,0.099598736,-0.0020397415,-0.010890214,-0.02230605,0.031299315,0.026006827,-0.006004512,-0.038805,-0.022786887,0.059737023,0.11252785,0.037465237,-0.062684596,0.035937976,-0.0044586705,-0.13671033,0.0077432254,-0.0013327433,0.039390452,0.012030426,0.009271292,0.11386017,0.053162396,-0.030240217,-0.016769046,0.15218954,-0.05490463,-0.0029028724,-0.15323703,0.017831793,0.067801215,0.05830495,-0.09359472,0.06110406,0.02835991,-0.015525974,0.067747734,0.0077013453,0.036019668,0.15422969,-0.058788884,-0.08458015,-0.02844149,0.08973524,-0.00042133298,0.005192065,-0.04910639,-0.023144223,-0.020552179,0.044647895,-0.06649724,-0.0063867304,0.011183459,-0.14400344
