0,1,2,3,4,5,6,7,8,9,10,11,12,13,14,15,16,17,18,19,20,21,22,23,24,25,26,27,28,29,30,31,32,33,34,35,36,37,38,39,40,41,42,43,44,45,46,47,48,49,50,51,52,53,54,55,56,57,58,59,60,61,62,63,64,65,66,67,68,69,70,71,72,73,74,75,76,77,78,79,80,81,82,83,84,85,86,87,88,89,90,91,92,93,94,95,96,97,98,99,100,101,102,103,104,105,106,107,108,109,110,111,112,113,114,115,116,117,118,119,120,121,122,123,124,125,126,127,128,129,130,131,132,133,134,135,136,137,138,139,140,141,142,143,144,145,146,147,148,149,150,151,152,153,154,155,156,157,158,159,160,161,162,163,164,165,166,167,168,169,170,171,172,173,174,175,176,177,178,179,180,181,182,183,184,185,186,187,188,189,190,191,192,193,194,195,196,197,198,199,200,201,202,203,204,205,206,207,208,209,210,211,212,213,214,215,216,217,218,219,220,221,222,223,224,225,226,227,228,229,230,231,232,233,234,235,236,237,238,239,240,241,242,243,244,245,246,247,248,249,250,251,252,253,254,255,256,257,258,259,260,261,262,263,264,265,266,267,268,269,270,271,272,273,274,275,276,277,278,279,280,281,282,283,284,285,286,287,288,289,290,291,292,293,294,295,296,297,298,299,300,301,302,303,304,305,306,307,308,309,310,311,312,313,314,315,316,317,318,319,320,321,322,323,324,325,326,327,328,329,330,331,332,333,334,335,336,337,338,339,340,341,342,343,344,345,346,347,348,349,350,351,352,353,354,355,356,357,358,359,360,361,362,363,364,365,366,367,368,369,370,371,372,373,374,375,376,377,378,379,380,381,382,383,384,385,386,387,388,389,390,391,392,393,394,395,396,397,398,399,400,401,402,403,404,405,406,407,408,409,410,411,412,413,414,415,416,417,418,419,420,421,422,423,424,425,426,427,428,429,430,431,432,433,434,435,436,437,438,439,440,441,442,443,444,445,446,447,448,449,450,451,452,453,454,455,456,457,458,459,460,461,462,463,464,465,466,467,468,469,470,471,472,473,474,475,476,477,478,479,480,481,482,483,484,485,486,487,488,489,490,491,492,493,494,495,496,497,498,499,500,501,502,503,504,505,506,507,508,509,510,511
-0.0025054403,0.0030006394,-0.025423964,0.03245656,-0.02975491,0.0073938593,-0.031463735,-0.029638806,0.027392942,0.0073521957,0.026738863,0.006251283,0.015724905,-0.013099609,-0.024436696,-0.021535221,-0.025205322,0.013980884,-0.03150973,0.018724266,-0.005043518,-0.0016716085,0.02152336,0.033835914,0.0399842,0.034420516,-0.03542363,-0.013191827,-0.034552358,-0.04370711,-0.04396288,-0.026515257,-0.0058733523,0.009636488,-0.03892582,0.0216409,-0.019043058,0.040305626,-0.01321329,-0.031225404,0.013403777,0.021486472,0.027623463,-0.038415223,0.041302387,-0.015683895,0.023392674,-0.018747572,-0.0031785667,-0.03813245,0.042861756,-0.038154155,0.043665733,-0.020215066,0.037798133,-0.03720438,0.008951843,-0.035305478,0.005592387,-0.019932814,0.002441056,0.014237069,-0.040386286,0.008329209,-0.04319609,-0.016948054,-0.005196739,0.0126365945,0.042951327,-0.04202467,-0.032617368,0.039447647,-0.023366902,-0.008071136,-0.016201375,0.029798847,0.000587441,0.043967176,0.016344111,-0.02281315,-0.03644681,0.0010002069,-0.0053878985,0.04188965,0.008667577,0.040881332,-0.02757446,0.013745151,0.021261308,-0.036015365,-0.011835318,0.039245646,0.022111464,0.04248262,0.012673426,0.026140425,0.040949542,-0.010692082,-0.023258923,0.0020842776,-0.015364971,-0.031789526,-0.021860005,0.029164832,0.026631538,0.02106351,-0.02673569,-0.036897406,-0.032964613,0.01941077,0.026087653,0.031454753,0.012873348,0.017979696,-0.017895604,-0.017114034,-0.036078125,-0.019216865,-0.0040059946,-0.009698696,0.0071952567,-0.044170186,0.03157172,0.042523827,-0.015866075,-0.022076087,0.025554236,0.036618706,0.005713295,-0.03502145,-0.0071931705,-0.031326603,-0.030128736,-0.022915568,0.022916477,-0.006173622,-0.018454798,-0.019661237,-0.007841706,0.0135380775,0.040702734,-0.042703867,0.009168357,0.03668956,0.030350473,0.034253377,-0.009910405,0.033934396,-0.04150553,-0.042634703,0.015822638,0.04140641,0.037650492,-0.0045027845,-0.042746373,-0.007475946,-0.032650147,0.026208062,0.016126823,-0.026268788,-0.034282237,0.019299466,-0.032422535,-0.034653045,0.0021338463,0.0068359673,-0.035819314,0.02942257,-0.03585233,-0.004721254,0.039168146,0.016116675,-0.035508383,0.040048275,-0.03266325,0.015651494,0.016940571,0.043905195,0.01130015,0.0065964498,0.04339095,-0.02002341,0.006152723,-0.020738566,0.041184317,-0.0035824254,0.04136431,0.029424455,-0.040462565,0.0419108,-0.008967705,-0.043948278,-0.037477624,0.028660197,-0.0022357963,0.043669503,-0.00029325113,-0.021577774,-0.020677228,-0.04297301,0.002461139,-0.006030813,-0.037609622,0.036062952,0.030577231,0.04332755,0.019621957,-0.02000528,-0.0074254535,-0.00538639,-0.010728143,0.022588585,0.024258796,-0.0077106617,0.0002703406,-0.022890368,0.037459042,-3.5550445e-05,0.040332925,-0.005045399,-0.03689316,-0.013338234,-0.0008958839,0.043938007,-0.019577732,0.0067307614,-0.01171764,0.0030303411,-0.028497923,0.009879623,0.024293762,-0.03273474,0.002576664,-0.029073913,-0.026798515,0.03173888,0.036792044,-0.023045555,-0.00438438,-0.04087935,0.043560933,0.022889275,0.041855756,0.008995686,0.017951343,-0.017311249,-0.023272788,0.0119096935,0.0022600368,-0.026571754,-0.037293185,0.0053031854,0.02667069,-0.03573552,0.030405682,0.03201736,0.019873802,-0.008487299,0.020337623,0.003764566,0.017628405,0.0173257,0.03100318,0.031698015,-0.03618592,-0.0038516335,0.010532439,0.015213709,-0.024943389,-0.013854206,-0.0066473708,-0.0032969676,-0.022443417,0.01465264,-0.026020795,-0.006634634,-0.008139182,-0.04307938,0.0015425906,-0.008431461,-0.010051742,-0.028216086,-0.039464254,-0.0138290655,-0.024225587,0.01171292,0.02207316,0.006876178,0.034515385,0.037722576,-0.023185581,-0.031394724,0.036604885,-0.024222478,-0.04125681,-0.0025620945,0.011688802,-0.02610024,0.026199315,0.035314012,-0.004171815,-0.019062188,0.037547458,0.012727141,0.02120388,-0.03175531,0.033422913,0.03924674,-0.00257219,0.016337741,0.0086912215,-0.007831801,-0.016118092,-0.042682447,-0.014251314,0.030907575,0.02930921,-0.04034067,-0.028424656,-0.019382883,-0.0028053187,-0.035674315,-0.00025243685,0.011862498,0.011570759,-0.0064547956,0.00089130923,-0.027519753,-0.010203831,-0.038718656,0.007536873,0.008064114,0.001482252,-0.018256381,0.016967345,0.028223742,-0.03652347,-0.028981227,-0.023366228,0.036985386,0.026211526,0.0035230443,0.039848406,0.040043388,0.00041291863,0.022157881,-0.028024925,0.009680882,0.028275412,0.02238423,0.002761349,0.014237493,-0.02200951,-0.0037506074,0.026441086,0.032367844,0.0018694662,-0.013400933,-0.018443508,-0.038802832,0.012274731,0.021356996,-0.038497005,-0.010043304,-0.004884694,0.022240158,0.0063848197,-0.021912089,0.02850752,0.014942996,0.006300386,-0.03772406,0.0020049736,0.012123808,0.024432395,-0.026369382,0.034766536,-0.028649114,0.030786712,0.0038378388,0.022626858,0.03362767,0.021957446,0.041948866,0.013032433,-0.0071833283,0.00028863177,-0.0027969107,0.025435213,0.001173906,0.020623278,0.041808616,0.035039414,-0.029274557,0.0014377832,-0.033726376,0.009810511,-0.0064299144,0.009691283,0.012582403,-0.025620174,0.040581133,-0.00562929,0.024625424,-0.026440004,-0.022813315,0.014524903,0.027230073,0.025148246,0.020236213,0.008645266,-0.02875888,-0.009634886,-0.02799272,0.03229307,0.01165178,0.031471845,0.028539237,0.042649496,0.034336645,0.02900726,0.01223189,0.031342667,-0.027720703,-0.02239221,-0.021047793,-0.032087415,-0.022592328,-0.021733249,0.03491867,0.034470905,0.002805952,0.037192915,0.023535382,-0.009565774,0.01892763,0.0143893175,-0.03623473,-0.036598045,-0.008268699,-0.04348999,-0.011563074,0.01981419,0.03727888,0.03861663,-0.007316489,-0.008289121,0.020657059,-0.012415625,0.03853825,-0.008035585,0.041290727,-0.024569659,-0.012721796,-0.03724638,0.043867726,-0.028546123,0.012529373,0.029747758,-0.006823711,0.0020941012,0.0059966855,-0.0050795525,-0.007153388,0.04199178,-0.023366544,-0.039533474,-0.043822337,-0.033944834,0.022054639,0.027233694,0.037173074,0.030760754,-0.00871199,-0.024040788,-0.022280969,0.008807436,0.043208834,0.01603451,-0.021593869,-0.035600245,0.012004908,-0.006154362,-0.03438766,0.03462253,0.025729652,0.01980595,0.01312248,-0.026951512,-0.014323354,-0.025998805,0.036825094,0.038368043,-0.0037723705,-0.036410697,-0.028231286,-0.03245042,0.044139232,0.014749862,-0.009681743,0.029946212,-0.0043834075,-0.02438222,0.04047751,0.01585146,-0.018333469,0.030870717,0.043855052,-0.010152813,0.02722073,0.04129238,-0.005460378
-0.005523067,-0.015284492,0.005787,0.031522837,0.03820442,0.034640823,-0.039487254,0.0010140575,-0.031449724,0.023831654,0.01410703,0.037683766,0.04052761,0.008180629,-0.007171493,0.029866938,-0.032286093,0.034436073,-0.005334299,0.03798871,-0.009253398,-0.02141202,-0.018370831,-0.042690944,0.021349136,0.0010293946,0.028301727,-0.036687866,0.03543948,-0.02139786,-0.035865933,1.02669e-05,-0.0112478025,-0.028639253,0.015000876,-0.033558823,0.018172741,0.036096897,-0.026608633,0.0022294484,0.020903382,0.026157472,-0.034879018,-0.04238016,0.012028825,0.01966035,0.020792212,0.009689104,-0.039098673,-0.03684722,0.02138171,-0.019228382,0.018798467,-0.029130146,0.001631543,0.03472754,0.03934669,0.006196499,0.037794854,-0.008230019,0.00041108578,0.030217592,0.029058848,-0.03353004,-0.01453737,-0.042148244,-0.020262836,-0.031993557,-0.013337785,-0.03936985,-0.0013513006,0.011296399,0.02851608,-0.018644828,0.028312411,0.020077374,-0.024147673,0.0051067583,0.023904543,0.004076179,-0.019253591,-0.009842489,-0.028050102,-0.00037491322,-0.014159223,-0.031938728,0.040628497,0.035982843,0.0025167502,0.00013650209,-0.03944993,-0.025495008,-0.029602528,0.011742543,0.01142247,0.028562795,-0.0008018315,0.016356617,-0.026629923,-0.0009579025,0.013308521,-0.000493519,0.009579521,-0.021021187,0.008840755,-0.03977991,-0.02285505,0.008199673,0.019736167,-0.012115046,-0.00011394918,0.035072055,0.012593698,-0.04043527,0.043030273,0.03124829,0.023781884,-0.02044437,0.035491947,0.0014210381,0.021983292,-0.03715367,0.009000085,-0.011006091,0.00047094002,-0.014253536,-0.03934345,-0.028182507,-0.010615185,-0.031649128,-0.009963077,0.023586284,0.016832802,0.012440007,0.0033794753,-0.017396443,0.018556733,0.02409919,0.016651325,-0.011908796,0.009830236,-0.004093703,-0.026315054,0.0066853873,-0.03967922,-0.02359231,0.03453369,-0.022398679,0.007416904,-0.038069025,0.030974444,-0.02084515,-0.019775001,0.03623965,0.04200745,0.018082906,0.042472254,-0.033754226,0.002737049,0.03354161,-0.031047681,0.000249099,0.041840564,-0.04176769,-0.038708776,0.011968102,-0.03803982,-0.04274012,-0.014843803,-0.019620558,0.016251586,0.0029097497,-0.02075796,-0.037143797,0.032503348,-0.0285179,0.000362169,0.00015072897,-0.03286979,0.02477109,0.044038836,-0.0059929863,0.0001948066,0.025567498,-0.014686707,0.028753463,-0.011122923,-0.041587524,0.035146747,-0.03471017,-0.03277233,-0.00079943985,0.020394381,0.010412056,-0.009685114,-0.006297186,-0.019351246,0.015101109,-0.04347974,0.018342998,0.02632339,-0.013275608,0.012351833,0.041389156,-0.012228243,0.013874173,0.039346967,-0.028076839,0.04113527,0.036149893,-0.02274647,0.0018881485,-0.008708965,-0.022587065,-0.0023920238,0.017757379,-0.039432608,-0.016675442,0.0141489245,0.04160625,0.010183342,0.0121364705,-0.033038504,-0.019433659,0.011513196,-0.008463699,0.042119835,0.030756388,-0.01556777,-0.032259446,0.0046401583,0.023068126,0.03448027,0.00426358,-0.027168112,-0.0401736,-0.034135174,-0.012961851,-0.033787765,0.03348283,0.013154205,0.032294948,0.01093372,-0.011302229,-0.020004159,-0.008207798,0.010739818,-0.03242146,0.0062849745,-0.00962802,0.041567106,0.038758915,-0.011908803,0.039769527,0.023710694,0.021054607,0.0060522333,0.0035203844,-0.038553163,0.02167559,-0.010429669,-0.016155755,0.032333564,-0.010163184,-0.023282334,-0.012667436,-0.009575035,0.0070736855,0.0006569363,-0.02341683,0.032155287,0.015721738,0.026189875,-0.040092885,0.020929847,0.0016150214,0.028948281,-0.0136883855,-0.04303611,0.0018210486,0.026043888,-0.005373545,-0.03463407,-0.023452112,0.03497656,0.019497957,0.009467013,0.0345894,-0.00014128163,0.022986438,-0.02193135,-0.03314423,-0.021823917,0.019542258,0.006586872,-0.002206482,0.02778991,-0.035668284,0.008615226,0.026322898,-0.0018487833,-0.009885717,0.03257889,0.015358444,-0.014611417,-0.0050590746,-0.019315453,0.006654538,0.041917045,0.025873337,-0.012774099,0.030879859,0.028709892,-0.037329342,-0.012455095,0.034064043,-0.043336105,-0.02355119,0.03286792,-0.0034309588,0.016421296,-0.03822917,-0.035638884,0.012604922,0.02711368,-0.032640718,0.01825801,0.038940635,-0.027396025,0.019407365,-0.012891568,0.016429264,0.030964334,0.003933292,-0.030891433,0.0033075474,0.041657146,0.0010424405,-0.0010861829,0.04255901,-0.035400197,-0.029291896,0.03787755,-0.012653843,0.028141763,0.014838435,-0.023545016,0.030507233,0.02700888,-0.00080816075,-0.014216874,-0.008108217,0.0116911195,-0.005695168,-0.013454696,-0.020468695,-0.0132398475,-0.027796494,-0.033403832,0.0011791587,-0.033702083,0.041457523,-0.031680338,-0.01649095,0.042227473,0.03687029,0.041158807,-0.0435121,-0.0065338537,0.028063226,0.02271955,-0.01888182,0.0062560476,-0.00889704,0.0008057356,-0.009065859,-0.036107413,-0.012052506,0.024982769,-0.01452685,-0.04226443,0.03212354,0.026981246,-0.011102691,-0.022018863,-0.0068071596,-0.0048443526,-0.0021617226,-0.0003391765,-0.0032241344,-0.014193878,0.010945447,-0.013851246,-0.033721276,0.027597468,0.009329841,-0.0022079349,-0.021455284,0.03404847,-0.028129613,-0.010030575,-0.007444177,-0.02981152,0.03231581,-0.037736528,0.033883747,-0.013602257,-0.043771334,-0.032867767,0.039358336,0.027379204,-0.021525955,0.0235341,-0.04131355,0.014355075,-0.037361983,-0.04006791,-0.0004937574,0.00023864582,-0.036117267,0.009442009,0.0140788555,0.032675322,0.025585104,-0.04281754,0.04270656,-0.037460987,-0.025869878,0.030260306,0.028939497,-0.038915403,0.0005942881,0.035555933,0.018010274,0.0054301433,0.040830273,0.031983938,0.013915673,-0.014927855,-0.01117029,0.00093177333,-0.043246713,0.007265486,-0.029229272,0.040367227,0.008303363,0.004305687,-0.030407745,0.023705829,0.041428555,0.011707868,0.015968934,-0.025260676,0.028236043,-0.024888678,0.016464245,-0.012319077,0.003910549,-0.012356143,-0.031454977,-0.041012704,0.0037016459,0.02497511,0.035137,0.03744187,-0.028995987,-0.027777454,0.025341991,-0.0024761371,0.019993823,0.01621896,-0.016448582,-0.030387308,0.042238694,-0.0047293715,0.0014619529,-0.035635132,-0.012198042,-0.042973053,0.01362643,0.04244413,0.01794679,-0.033048317,0.029452194,-0.034520227,0.015156776,0.0033290796,0.019599963,-0.021220764,-0.021932187,-0.035802145,-0.019709595,-0.030457184,-0.022156682,-0.022978524,0.018730674,-0.025642954,-0.014118314,-0.011598993,0.021760684,0.0066219904,0.021831911,-0.03434684,0.012784056,-0.018713111,-0.004774496,0.009064507,-0.0389526,-0.009154789,-0.02202108,-0.03161591,-0.023766339
-0.0041508116,0.021814208,0.03768534,0.030988466,0.040394466,-0.020913782,-0.027210305,-0.0014755093,-0.0012436435,0.011725642,0.00852197,0.0042136274,0.01882032,-0.026280625,-0.003502272,0.0030554943,-0.04382494,0.024671081,-0.008798253,0.022223819,0.026138324,-0.023654133,0.0022286028,-0.010595705,-0.016231699,0.021290768,-0.026280446,0.04253268,-0.012042999,-0.012406729,0.03256635,0.0040150285,-0.040272057,-0.010627579,-0.025305094,0.013310745,0.04131366,0.004479885,0.037099484,0.012052819,0.038160164,0.0337313,-0.042834044,0.008783255,-0.041463852,0.040666368,0.018910002,-0.01577419,-0.019604469,-0.016388638,-0.036378574,0.029710937,-0.0050375797,-0.032623615,-0.021665191,-0.0045044757,-0.00023078546,0.04012585,-0.0063482225,0.042856056,-0.030508827,0.007923432,-0.03351951,-0.040958285,0.016256645,0.028233517,0.0014884435,0.03610838,-0.033841502,-0.009836886,0.02982251,-0.00067510456,-0.015169926,-0.0096951835,-0.013802214,-0.0075764656,0.011712916,-0.006100867,0.03734221,0.038416345,0.03591853,-0.028340114,-0.039196104,-0.010937735,-0.037908603,-0.041351628,0.032481845,-0.02969865,0.022805389,0.003490314,-0.013413334,0.03859477,0.03866997,-0.021417521,0.006175231,-0.02942456,0.04312971,0.03926989,-0.0072414353,0.041706827,0.010412145,-0.030643262,-0.015943721,-0.036096327,-0.01151878,0.044014882,0.03644153,-0.0012385212,-0.006719757,-0.018401455,-0.040159572,0.02956431,0.03871124,0.013549238,-0.02573929,0.0010471158,0.03907847,0.02810214,0.018842507,0.0099148825,-0.002500683,-0.02506699,-0.016719976,0.038990643,0.041245956,0.007206917,-0.021813875,-0.033789054,-0.035495844,0.040507797,-0.025505712,0.0013877973,-0.033705942,0.01666294,0.008977126,-0.033115864,-0.013222167,0.034625683,-0.043075744,-0.039869674,-0.038480014,-0.0026863925,-0.01651498,-0.000866998,-0.000578288,-0.015405774,0.019196857,-0.01063114,0.030242395,0.013444059,-0.027311336,0.037791464,0.0055921003,0.01321033,0.00096400455,0.016131505,0.0051563606,-0.008483674,0.0012444817,-0.018934803,-0.033958342,0.020994063,-0.01881842,-0.035730824,-0.03985693,-0.02996508,0.000115156174,0.0019482523,0.016162898,-0.023188148,0.0050652176,-0.038708556,0.030046005,-0.026101949,-0.025265766,0.0018326454,-0.010783423,0.03942753,-0.029997893,0.02196655,-0.017136296,-0.04397696,-0.009143643,0.03385559,0.020358268,0.014110975,-0.01307351,0.041924644,-0.03987968,0.027708057,0.032916773,0.012680184,-0.016018273,-0.02589281,-0.008945089,-0.028587433,-0.036218993,-0.025146084,0.011359792,0.020901058,-0.038268674,-0.0123654045,0.020929564,-0.04102561,0.03222378,0.038347986,0.003069751,-0.030217709,-0.0013727434,0.034789864,-0.03054585,-0.0047902614,0.014515191,0.033319984,-0.019728139,0.024001684,-0.035577007,0.022519965,-0.01171099,-0.013317414,0.017972305,0.00091545656,-0.020398041,-0.008018643,-0.004190281,0.011598542,0.00061747804,0.0009022914,-0.018262219,-0.024286168,0.028861549,0.0415279,-0.0076341256,0.020254824,0.00059623644,0.025716018,-0.03193874,-0.0061821826,0.0034589283,0.011572029,-0.012629028,-0.023586018,-0.005678255,-0.008632008,0.02200972,-0.039898,0.02157991,0.016395904,0.04365516,0.005521655,-0.03004152,-0.040926155,0.016672406,0.0058239624,-0.015959335,-0.008918446,0.008231342,0.011650126,0.0113061555,0.030910429,0.02062999,-0.016751222,0.016107772,-0.00047063455,-0.04297197,-0.011574946,-0.040774666,0.0030273348,-0.0277344,-0.022515694,0.012383729,0.0004354678,-0.015891664,0.014738128,0.034361612,0.010492045,0.013060201,-0.004252374,0.043801997,0.023424055,-0.041873932,0.021172646,0.010745719,-0.02363945,-0.03020144,0.012132507,0.0002685748,-0.0018379837,0.0022464804,0.024036642,-0.006563861,0.02544437,0.017077245,0.022223044,0.03935818,-0.011389881,0.013566874,0.027799431,-0.029499259,0.017395668,0.03108399,-0.0036856309,-0.037314013,0.02054878,0.0040709674,0.030618522,-0.0019369647,-0.03505866,0.014997538,-0.036415156,-0.0015503727,-0.0356697,-0.0268355,0.0024471655,0.035843816,-0.0074616186,-0.0417839,-0.024839075,-0.043245923,-0.0012618676,0.02029707,-0.025578717,-0.037245505,-0.013017081,0.019118961,0.008929275,-0.022504952,0.038807686,0.03639971,-0.03053371,0.019059394,0.004064679,0.032390345,-0.025796158,0.022197012,-0.022353213,-0.0041260086,-0.027084924,0.035450708,0.014555514,0.0028501377,0.011053227,0.02648386,0.03624576,0.024675202,-0.03698024,-0.030594107,-0.02704645,-0.02402815,0.040037807,0.013012048,-0.040083453,0.043188017,-0.0071714856,-0.026869353,-0.038620096,-0.034054257,-0.037065122,0.015408225,0.02177133,-0.03533914,-0.018577682,-0.007977601,0.00350333,-0.00043265894,-0.022982644,0.0018785149,-0.023411514,0.036701504,0.017330442,-0.036112804,0.002635058,0.00459994,0.008066218,-0.008726411,0.007831465,0.0034452043,0.040241506,0.02477217,-0.039428424,-0.0045180097,-0.02340325,-0.012017962,0.036694866,0.01812562,-0.010598619,0.039881017,0.016338743,-0.012151204,-0.024317957,-0.040913366,0.003661707,0.028975982,0.038742427,0.01158011,0.02175,0.005091604,-0.018325081,-0.013401976,-0.018315408,0.0032157265,-0.007954631,-0.0219185,-0.040251013,0.026880134,-0.042501904,-0.034707688,0.017547775,0.029125456,-0.02262891,0.024007443,-0.033221483,0.025405284,-0.016540736,0.0355558,0.028963279,0.028103653,-0.04217199,0.0033061616,0.030144747,0.031632524,-0.03724495,0.015391249,0.013882391,0.03416829,0.0013554431,0.01824852,-0.029020775,-0.027997918,-0.00035725906,0.015486244,0.0328519,0.030772012,0.034156997,-0.017492801,0.027630907,-0.02803718,-0.04358996,0.014564149,-0.013509713,0.026252653,0.031374667,-0.0049261823,-0.0038458034,0.037167605,0.019582387,0.011446625,-0.041775543,0.022794802,0.018859562,0.031816777,-0.0182061,-0.039777663,0.004472129,-0.030152418,-0.043591283,0.014166363,-0.040222414,-0.040889326,0.024588514,0.028012116,0.026317734,0.033332292,-0.0056437775,0.02295601,0.010968734,0.019397262,-0.01588079,-0.007948495,0.033871498,-0.021077532,0.0070743337,0.026271094,0.024585787,0.026077721,-0.023079166,-0.01148323,0.042653915,-0.011025991,0.028134014,-0.008465607,-0.0042569786,0.036934,-0.008101579,-0.004915446,0.0013893656,-0.03748454,0.014701854,0.04400752,0.038968224,0.006733775,-0.027330402,-0.040622145,0.024644922,-0.026181733,0.0069292784,-0.0074697286,0.008859616,0.0067384206,-0.033861306,0.029384825,-0.005501438,0.0325629,-0.022177013,-0.014166804,-0.032963082,0.042383056,0.00022561848,0.02528407,0.011184752,0.019225184,0.040388335
0.012308981,0.03874032,-0.040457208,0.03952765,-0.04113792,0.021398347,0.02961566,-0.0074770935,0.023370612,-0.0064116307,-0.0048327483,-0.03292416,-0.019025914,-0.029508267,-0.01361273,0.018738534,-0.018075608,0.008313838,0.039814804,-0.037971035,0.018727068,-0.030325342,0.033690874,0.025678951,-0.022753576,-0.039610397,0.00071593747,0.036993798,-0.039104667,0.0116931535,0.030673157,-0.014334243,-0.016850883,-0.03789073,-0.0077063367,-0.030943884,-0.027633538,0.040388558,0.032751624,0.011508454,0.008109234,-0.019020094,0.033657152,0.0142138675,0.03552181,-0.036177058,-0.03474904,-0.007273473,-0.024198666,-0.040697556,0.0055684745,-0.03271055,-0.034656983,0.028232042,-0.041486338,0.03650524,0.023980241,-0.03729326,-0.03335446,0.04361539,0.03576606,0.0115675405,0.025392193,0.0015120283,-0.020487303,-0.025668848,0.02518453,0.030607138,0.008991834,-0.012830496,-0.043439332,-0.02760503,0.035633434,-0.011359207,-0.014228903,0.044094477,-0.019513432,-0.0016313829,0.017862651,-0.015720274,-0.042423796,-0.006830007,0.004767664,-0.025401462,0.031694222,-0.040377483,-0.005545236,-0.022200542,-0.037888214,0.0019336194,-0.044061378,0.01751839,-0.040009037,-0.03133087,-0.019565072,-0.038760465,-0.015989797,0.022168543,0.010853082,-0.021681497,-0.024727555,-0.02020963,0.020512264,-0.04214135,-0.03425796,0.00505504,-0.01170776,-0.043327276,0.01648935,-0.03793335,0.0021918416,-0.03966936,0.018111758,0.023151796,-0.043419704,0.028470706,0.0026681162,-0.035987407,0.0074795075,0.0034657232,-0.042839706,-0.042851344,-0.004881289,0.021214884,-0.041723862,-0.009794913,-0.011693332,0.02470434,0.013048895,0.030827198,-0.012015309,0.035229657,-0.008200586,-0.00087977946,-0.031593766,-0.013703041,-0.014021123,0.029568035,0.043749515,-0.04260483,-0.027652405,-0.0077268407,-0.020438034,-0.028570991,0.03861181,-0.042584486,0.038549263,0.040191,0.0051142313,-0.03617405,-0.043124802,-0.009490669,-0.044103496,-0.021299647,0.04354384,0.04413038,0.034937527,-0.04401087,0.040747676,0.0070253536,-0.0024013482,-0.0050783046,0.022775006,0.031396646,0.016371526,-0.03275845,-0.042369626,0.021455396,0.038898345,0.035717603,-0.025970582,-0.020409111,-0.02598783,-0.017295785,-0.025881378,-0.024523923,0.038002495,0.0056683086,0.005767338,-0.0007150471,0.007235635,-0.031392273,0.009782951,-0.02710861,-0.004600238,-0.008480303,-0.0042782314,-0.0008737296,-0.0027621873,0.008368835,0.006690949,0.017587755,0.030804265,0.0023555234,-0.0052297227,-0.0032735392,0.036221568,0.016466822,-0.022702996,-0.038552627,-0.023267394,0.029646348,0.015780408,0.018292703,-0.038158003,-5.665049e-05,0.020099264,0.024282414,0.02214228,-0.0059454553,-0.013080595,-0.00027726218,0.016998824,0.042235296,0.0010885745,0.027728628,-0.008704692,0.0011547245,0.028585259,0.03062651,0.037697632,-0.019819988,0.02210154,-0.017561337,-0.03403544,-0.03851658,0.0021700263,-0.025867527,-0.0034486614,-0.007336814,-0.00713012,-0.02689126,0.029310975,-0.018668998,-0.02801267,0.021112401,-0.016615395,-0.005890589,0.013850175,0.004204944,0.036953527,-0.0029461235,0.032689545,0.02448475,-0.03771332,0.0010225773,0.028867353,-0.03182469,-0.0073051825,0.027186606,0.004653923,0.027964827,0.042082477,-0.0052345134,-0.03139587,0.019602139,0.043630634,-0.037758827,0.04156099,0.015262764,-0.04302875,0.0047870874,-0.038672272,-0.023191499,0.036115896,-0.043798413,-0.0097121075,0.034024287,-0.0047520995,-0.009983059,-0.008452717,0.009928223,-0.039427906,0.026039582,-0.0067981295,0.00924078,0.03656773,0.016511455,-0.02896041,-0.033443425,-0.010223929,0.038368713,0.027222704,0.0113473125,-0.015013181,0.0038518943,-0.0037671812,-0.022152066,-0.0063566044,0.017566353,0.036656987,-0.038384046,0.035404872,0.0113354735,-0.044163976,-0.0038615726,0.0308089,0.025816064,0.027979996,-0.040384762,0.013939537,-0.009051975,0.03878765,-0.032842953,-0.012404896,0.026263293,0.04234313,0.019656423,0.010906626,-0.039771173,0.041173305,-0.027408479,-0.04089994,-0.00569012,-0.02118292,0.040292952,0.008395836,0.008673709,0.027678806,0.031907324,0.042575452,-0.024239052,-0.02325879,0.027040724,0.025750626,-0.028229564,0.007852122,-0.0269015,-0.004852414,-0.033448886,0.025323283,-0.013030499,0.033541422,0.028103944,0.043311764,-0.02857557,0.02977534,-0.020001018,-0.03161582,0.019377079,0.00078263134,-0.016519558,0.033834737,-0.028504271,0.04202796,-0.013638798,-0.011181347,0.03800072,-0.020904616,0.03322107,-0.000414107,0.043121655,0.023407716,-0.038421072,-0.009263165,-0.04234806,0.036106262,-0.0031807385,0.026426595,-0.003440585,-0.024192587,0.009469796,-0.0013673864,0.011115052,0.020672116,0.0012453347,-0.015496459,-0.0040001944,0.014630221,-0.017072456,0.023110952,0.0097917095,0.037035514,0.032049384,0.011961982,0.026759174,0.01707577,-0.0054856427,0.0018448979,-0.035548165,0.031457957,-0.012372088,-0.03769799,0.0025630482,-0.041335758,-0.02224586,0.026926111,-0.018992903,0.013374828,-0.006293293,-0.029104538,-0.0146482475,0.004575003,-0.036716517,0.038853277,-0.04082915,0.02267285,-0.0363057,-0.030190425,-0.038526997,-0.04316294,0.0391613,0.014691073,0.033198033,-0.001862444,-0.008169983,-0.01954432,0.021049041,-0.011057477,0.006183274,-0.0040622465,0.019521374,0.032625657,-0.008907236,-0.008830339,0.042733643,-0.035084516,0.04008649,0.012779336,-0.0126533285,0.023237046,0.017852135,0.006533146,-0.03460829,0.0051146187,0.0039205626,-0.023228657,-0.035580188,0.018906187,-0.0014329441,0.006316494,-0.005449351,0.010065522,0.0016103461,0.04004613,-0.0197482,0.040301647,-0.01331234,0.008260895,0.040199127,0.012215506,-0.010955155,0.018818747,0.011112485,-0.0040370375,-0.00895904,0.013684139,0.033124138,-0.036634073,0.008451503,-0.031214077,-0.02809621,-0.020773027,0.02207892,0.017301034,0.030046862,-0.042296205,0.011001024,-0.039681993,-0.03054547,0.03518725,0.008284733,-0.023846755,0.0137455985,0.035597723,-0.037791215,-0.020663587,0.033508334,-0.039855666,0.016308744,-0.04397579,0.035801183,-0.04213619,-0.017004171,-0.029493269,0.008257594,0.024855476,-0.030718029,0.0025973246,0.009638663,-0.01646787,0.013230953,0.0185485,0.0069651455,0.027886126,0.021817233,0.016388785,0.03339943,0.010501947,-0.010775022,0.018352102,0.03768615,-0.03180627,-0.034479998,-0.005472854,-0.012347352,-0.015202463,0.017872348,-0.007318478,-0.022088667,-0.016772881,-0.0071651414,-0.004623741,0.021515843,0.015036967,-0.030827047,-0.021376882,0.002302494,-0.010843467,-0.022272455,0.019246038,0.023313541
0.0040934347,-0.036997505,-0.01139991,-0.041653335,-0.0054298006,-0.00017193332,-0.009607781,0.01585086,-0.008423813,0.039568935,-0.007594418,-0.037331566,0.036748987,0.0049979687,0.03735924,-0.00889042,-0.011905182,0.0171182,0.019239228,0.014047671,0.0030014515,0.025594342,0.0008250624,-0.038406443,0.031366322,0.029949415,0.042959873,-0.00085831434,-0.040467802,0.005199667,0.0011394285,-0.007446483,-0.024239458,-0.002617672,-0.039937858,-0.03317392,-0.019944627,-0.01988159,0.026976872,-0.03216348,-0.030988017,0.0152895525,-0.014108194,-0.034027606,0.029390302,0.003992852,0.0036400296,0.026887689,0.005674593,0.021687765,0.0050050654,0.009377953,0.011744626,-0.010741893,-0.0352601,0.0101006515,0.024691183,0.010515623,-0.016809927,-0.015864627,0.03428941,0.027375948,0.0010492466,0.04158436,0.014104992,-0.038718585,0.014929574,-0.030677862,-0.027081447,-0.016348673,-0.011292759,0.0048300587,-0.015416052,-0.039482027,0.015503366,-0.037900675,0.0083258785,0.039965156,-0.010753747,0.031070989,-0.023574213,0.026841413,0.036465365,0.024163332,-0.010345645,0.03155743,0.021295514,-0.030324627,-0.009018213,-0.032291815,-0.026648277,0.03252026,0.04266687,-0.011596724,-0.022085596,-0.03591387,0.0039832145,0.025768507,-0.011849545,-0.0027818494,0.02542309,0.01418459,0.012210775,-0.017757822,0.006069105,-0.037766732,0.02007166,0.03229412,0.012004767,0.0024260692,0.037841212,0.036978114,-0.036269605,-0.041491844,0.013853796,0.0052295774,-0.042612966,0.036360357,-0.016783949,0.03215841,-0.0362921,-0.0076709725,-0.012417462,-0.018473702,-0.004656922,0.010394361,-0.019536091,0.038874622,-0.03455518,-0.026124965,0.007372085,0.024846468,0.04168554,0.01751212,0.007493403,0.03514189,0.0058556832,-0.033563975,-0.00028191134,0.029491406,0.009097207,0.042614836,-0.031084307,0.01814977,-0.0008271411,0.04179528,-0.03531077,0.032662686,-0.030084155,0.03148352,-0.03724386,0.0316629,0.0021897554,0.0035227016,-0.036403846,-0.0004283376,0.039486345,0.026066538,0.03400417,-0.007293284,-0.018796409,0.002856873,-0.010641791,0.012970183,-0.030453831,-0.03908941,-0.029800361,0.037195284,0.0153655335,-0.011465814,-0.01671868,0.0060523488,-0.0071833134,-0.03761696,-0.025456239,-0.009461086,-0.010949414,0.034286354,-0.0058247484,-0.033496805,-0.03899676,0.0014704578,-0.04359592,-0.014780516,-0.011822574,0.00948859,0.035967845,0.024052214,-0.0162581,0.015173383,-0.020510584,0.025817174,-0.029902905,0.040941995,-0.029982794,-0.0060100965,0.04089054,0.032678675,-0.022423847,-0.039374355,-0.0070484914,0.04215445,-0.0043907315,0.003047213,-0.015215481,-0.041677512,-0.018980306,-0.028913759,-0.026989624,-0.02950509,-0.018802378,-0.03153425,0.041495997,-0.016874054,0.005969394,0.036619555,0.009334642,0.021708746,-0.031734154,0.007095337,-0.00207787,0.044100467,-0.024246344,-0.010122836,-0.020831184,0.020583075,0.010292925,0.010222971,-0.0103539415,0.0044544637,-0.020910421,0.0025203563,0.018299341,0.016122688,-9.0453774e-05,-0.01780769,-0.042318597,0.025584836,-0.0319111,-0.026207885,-0.028553978,-0.037294608,-0.003360264,0.039384257,-0.03203432,-0.019487955,-0.03690453,0.026030485,-0.024029352,0.043113615,-0.040911227,0.029888239,0.016751058,0.023122031,0.008277118,-0.035934627,-0.021109622,0.042782012,-0.018203419,-0.036094688,0.037550744,0.008672304,9.461865e-05,-0.010631274,0.025653224,-0.025129115,0.042706724,0.035127904,0.003996961,0.022306401,-0.0003957413,0.038307566,0.023399789,0.0030922778,-0.004617721,0.019488383,0.0044630617,0.03282411,0.024952184,0.02514616,0.008542772,0.039070126,-0.005529899,-0.016306853,-0.027432676,0.004005514,0.010227375,-0.027971325,-0.043242645,-0.0013215095,0.024754826,-0.027898595,-0.03683145,0.02995557,0.02966253,0.0027090348,0.041363437,0.013252683,0.015360102,0.00021065399,0.036664996,-0.041951034,0.03852642,-0.038198143,0.009545371,-0.0038921088,0.029059168,0.015606977,0.022108842,-0.0057090484,-0.017881285,-0.02635365,-0.029477732,-0.010469977,0.025113266,0.022372235,-0.03054028,0.004167754,-0.008468743,0.042280894,0.022097405,-0.015335837,0.031697262,-0.03139998,-0.00902779,0.0021143295,-0.035021465,-0.01534305,0.034396257,-0.013447531,0.037356924,0.032939587,-0.021838842,-0.008021399,-0.008846935,-0.033267662,0.03896823,0.031357344,-0.033429716,-0.04368702,0.042841386,0.0024073683,-0.013006648,-0.036208943,0.039597426,0.011997085,0.021527346,-0.023539916,-0.040876593,-0.003591165,0.0058285333,0.00946321,0.0047866404,0.035095748,-0.030975394,0.037329745,-0.03419555,-0.028367804,-0.026236212,-0.023363646,-0.016763782,-0.031168923,-0.019608669,-0.030398482,-0.024062041,-0.023972454,0.020708133,-0.024014184,0.03586587,0.015045006,-0.040530518,-0.0011201724,-0.0129626,-0.024346616,0.037327673,0.0307641,0.030254882,-0.042035006,-0.03448503,-0.033145808,-0.015797656,-0.04109189,-0.0031211264,-0.036778234,0.008967955,-0.019148814,-0.011513565,0.04267906,0.017288867,-0.015959978,-0.036791876,-0.0058338232,-0.01795874,0.023952726,0.032865185,-0.021893132,0.021018613,0.018202081,0.024797905,0.012156822,-0.04367955,-0.031832986,-0.04022036,-0.026695725,0.03994633,0.022664752,-0.03603693,0.03418376,0.013956755,0.013180088,0.027918112,0.015275631,0.029505853,0.02270243,-0.018146774,0.024821114,-0.0002855882,0.028043192,0.0076167956,-0.018821819,-0.035807453,0.00084707886,0.00022387505,-0.0015145876,-0.036882218,0.018098503,-0.029505765,-0.04301922,0.0036092028,0.014583442,-0.0020421185,0.021664571,-0.0019341782,0.038912702,-0.022263546,0.03160804,-0.022933064,0.038282346,0.02982686,-0.027273,-0.016812904,0.011520568,0.0178044,0.018362183,-0.002535753,0.03535172,-0.038919263,0.008559447,0.031897563,-0.02358666,0.040404294,-0.04110855,0.010524541,0.041232433,0.043632206,-0.022881856,-0.012538269,0.018792812,0.017693758,-0.009198274,-0.0059302934,0.010109231,0.012288224,0.00964145,-0.02345471,0.037334207,0.024934191,0.015341166,0.004665155,-0.031794656,0.018932048,0.024401713,-0.035174932,0.04174711,-0.040437765,0.03840742,0.002013903,-0.016143776,0.035264287,0.032068465,-0.016051063,-0.0026831888,-0.025022753,0.032334622,0.021574501,-0.008687571,-0.019903,-0.016398543,-0.04119795,-0.003790222,0.01217543,-0.037725814,-0.027386248,0.04358082,0.026296679,0.0047961436,-0.026921635,0.042695608,-0.038018145,0.039510977,-0.04192696,-0.016896313,0.032596055,-0.035173185,-0.009264104,0.02962033,0.010785662,-0.03956378,0.005350601,0.022275161,-0.009467162,-0.027145093
0.009096123,0.024207529,-0.025930833,-0.015769517,-0.01462505,0.0027857497,0.018151123,-0.005355295,0.025565159,0.018068586,0.007928234,0.019548636,-0.015845008,0.03412695,-0.027954744,0.0350303,-0.04293762,-0.0041779317,-0.007070981,0.002931513,-0.021188106,-0.038134314,-0.0096297525,0.021784145,0.03805465,-0.009530045,-0.023204021,-0.04218038,0.019698795,0.034441847,-0.020984562,0.032343093,-0.010383181,-0.037117627,-0.011534546,0.03305983,-0.020300815,0.0039997324,-0.024291003,-0.033801403,0.041679244,0.020264503,0.008958582,-0.020326609,-0.02235256,0.01544572,0.040862102,-0.027310567,0.024927292,0.039868686,0.021149222,-0.03155015,0.03532267,-0.00042061508,-0.036417216,0.014271453,0.004354354,-0.036453873,0.035186853,-0.038437974,0.01936138,-0.03177164,0.010083672,0.021711703,-0.04406871,-0.043699138,0.0010793395,0.0017696247,-0.014120132,0.0065077245,-0.008425213,0.03849073,0.005163152,0.027845722,-0.041801192,-0.028772704,-0.02803161,-0.036076274,0.038157362,0.013465237,0.039207283,-0.038812336,-0.008489862,0.0023593493,-0.025771938,0.006175589,0.037273657,0.035751786,0.034414794,0.033845354,-0.020056983,-0.030294027,-0.012772977,-0.025303155,-0.032554366,-0.03857459,0.03156841,-0.023780506,0.03727496,-0.013037564,0.026290867,0.027782414,0.038512666,0.0057876855,-0.011350345,0.0164679,-0.015716238,0.013399273,0.0063810684,0.036538463,0.04383659,0.010775648,-0.014541864,-0.0014538132,0.038970638,-0.030723603,-0.0118312985,-0.013743967,-0.028798856,-0.03987261,-0.03460525,0.04296306,-0.017303498,-0.0148222875,0.013011955,-0.002845388,-0.01451136,0.040887523,0.019173127,-0.005276449,-0.00010321289,0.043870028,-0.041821774,-0.029604774,-0.017107785,-0.037119545,0.010025196,0.025591161,-0.034455754,0.023401741,-0.009040378,-0.02542222,0.04300439,-0.039043717,-0.002203416,-0.008785278,0.020933527,-0.005685635,0.029112805,0.012992658,0.034869622,0.036063973,0.040097315,-0.012800731,0.0026758313,-0.037534866,0.019349616,0.043764595,-0.040312953,-0.029347278,-0.03790538,0.010971013,-0.04302495,-0.02295576,-0.013993274,0.03312325,0.030945074,0.035259385,0.032524,0.0040744133,0.037038293,-0.024701746,-0.0019913502,0.028079052,0.026835237,0.043043356,0.006042648,-0.023816898,-0.03838513,0.038143147,0.024612729,0.010394376,-0.0061382614,0.0057419017,0.02443428,-0.03187742,-0.0030420944,-0.036444638,0.040325295,-0.026358655,-0.042750616,-0.029612422,-0.012214005,-0.044149004,-0.0044142716,-0.032782707,0.014804434,0.04221909,0.03567898,-0.007745683,-0.018117534,-0.04028213,-0.016991064,0.031066407,-0.033761233,0.0013023466,-0.031620152,-0.03411555,-0.028722703,-0.039294764,-0.017086301,-0.033934914,-0.0026894286,0.02034146,-0.002985388,0.023676906,-0.0009729266,-0.005707182,-0.032864183,0.024462696,0.03944063,0.0013129786,-0.0042907707,-0.017345646,-0.007829919,-0.012694582,-0.008860178,0.010591019,0.03176303,-0.019432958,-0.0044978447,-0.014588499,0.03200152,0.021256123,0.014411639,-0.04228953,0.016850885,0.0033434555,0.0027873293,-0.03274133,-0.023507437,0.0045241527,-0.01846495,-0.014605252,0.005123809,-0.015419761,0.004409373,0.044141535,0.037280787,0.030157667,0.012484286,-0.012221485,-0.027062727,0.019968998,0.01438304,0.008427616,0.03568844,0.0063170493,-0.02681344,0.039972316,0.028865974,-0.011618875,-0.035908878,-0.008279089,-0.030468024,-0.019022863,0.04363786,-0.0056996644,-0.036713336,-0.041225255,-7.740408e-05,-0.034826983,0.03320596,-0.033273473,0.012702972,0.022208493,0.0024120957,0.021657903,-0.018331666,0.013247285,0.0060547963,0.036425147,0.042730693,0.026180487,-0.028294312,-0.03572818,-0.0075044185,-0.024332235,0.04386988,0.0069438294,0.00561741,-0.04104952,-0.030267902,0.00037347898,-0.035012398,0.039294723,0.0188387,0.02533352,-0.013138168,-0.03521628,0.0184617,-0.015009003,-0.0022574589,-0.04402105,-0.0034424476,0.023583647,-0.009043671,0.010288335,0.0381768,-0.030250441,0.021645498,0.030923117,-0.0067385025,-0.021749929,-0.04261182,-0.040878158,0.01338128,-0.038635157,0.010681234,0.006788414,-0.014044119,-0.006589208,0.015429683,-0.012225866,0.031720985,-0.008451235,0.0066089034,-0.017676815,-0.0008423142,-0.001660563,-0.012554035,0.043850552,-0.03179878,0.018923875,-0.0059603713,-0.03212072,0.0033974722,-0.04288777,0.021775652,0.026278209,0.041306134,-0.011177894,-0.03610757,0.016287263,-0.01964226,-0.038993757,0.035990987,-0.029968295,0.007988751,-0.010317255,0.021141108,0.03707927,0.026023779,-0.016278002,-0.03880296,0.012666915,-0.043579705,-0.038541645,-0.0046271607,0.028804775,-0.044020575,-0.038457006,-0.024901733,0.023648638,-0.0066992305,0.043579962,-0.010525834,-0.008047983,-0.018433973,-0.0005159974,0.009523075,0.0075248703,0.03706577,0.032727335,0.017078161,-0.0032630786,-0.01637071,0.028301183,0.016529642,-0.008270506,0.039006222,-0.04008448,0.0042740367,0.04305854,-0.00029991195,0.027318124,-0.0104257725,-0.036539506,-0.04151179,0.004752014,0.013722222,0.032885697,0.041114267,0.018322412,0.003087677,0.006972689,-0.0325079,0.022801604,0.043541346,0.025697347,-0.022834882,0.0041380413,0.010103084,-0.028322103,0.016709313,-0.01708502,0.013807993,-0.0049684457,-0.012279984,-0.01745222,0.039850537,0.030088838,0.016167745,0.026396696,-0.0035746433,0.0025139004,0.0074925944,-0.027322778,-0.04374345,0.035127293,-0.033588115,0.018780243,0.033297952,-0.008567579,-0.034100763,-0.011748448,0.024168003,-0.020102998,0.0053556412,0.010959301,0.0048447363,0.03957856,0.034014087,0.035689425,0.040868994,0.013322987,-0.03367456,0.032475468,-0.035576817,0.013887618,-0.02521355,0.03874759,-0.027621163,0.021876212,0.027478997,-0.038173806,0.018163495,0.037083108,-0.041466482,0.01659445,-0.019063067,-0.019918099,-0.03133418,-0.016881157,-0.035905074,0.016011816,-0.024747359,-0.010132831,0.00971185,-0.012871731,0.0042697974,-0.012616083,-0.02217814,0.015006553,-0.0042698383,-0.016137792,-0.017108038,-0.006684363,0.0014614724,0.0036529712,-0.012455683,-0.018355511,-0.004496321,-0.025575956,-0.026321428,-0.009596944,-0.04247211,-0.004058134,0.032527376,-0.02003255,-0.00084692985,-0.0017719604,0.042365614,-0.022556836,-0.023495967,-0.032017834,0.002239436,-0.02277966,0.04089422,-0.017787809,0.022756156,-0.006692309,-0.033828065,0.001419317,-0.022731312,0.039012115,0.019113746,-0.023905376,0.005883362,-0.028679743,0.007106155,-0.023799703,-0.0035490692,0.01321036,0.024159256,-0.0040112436,0.008888219,-0.02975275,0.04034012,0.009811785,-0.039577138,0.03963468
-0.03322989,-0.0059260353,-0.036020424,0.02884065,0.002240926,-0.00048260763,0.00026230514,0.026590098,0.006213177,0.027735684,-0.03377787,-0.020146193,-0.010809377,-0.0077572837,-0.042391993,-0.013854085,0.0027179345,0.025328975,-0.04323353,-0.040315356,-0.013319047,-0.014791794,0.024636593,0.024822447,0.017521303,0.04166094,-0.01054934,-0.007971965,0.041417595,-0.004259009,0.027968656,0.038718108,0.013290182,-0.003093414,0.04052447,-0.02313216,0.029920924,-0.002478402,-0.033383496,0.01845457,-0.025016867,-0.042693775,0.009124551,0.03681924,0.031446155,0.0066612363,-0.029756438,0.02679013,-0.005063664,-0.0175219,-0.03489987,-0.018794728,0.0273928,0.028827634,0.01594733,0.031905416,0.039821435,0.035768684,0.00854462,0.008736394,-0.010012843,-0.0067738555,0.012001321,-0.035114773,-0.0038945638,-0.010968413,-0.032179177,0.041463073,-0.01564119,-0.020437354,0.018452931,0.040461157,-0.04274358,0.008538667,-0.043248165,-0.020858632,0.011055719,0.026348535,-0.018637873,-0.03896739,-0.024545124,-0.01885702,-0.019198664,-0.02837644,0.021135774,-0.032247897,-0.0138043575,0.018901568,-0.015576284,-0.010085799,0.037526157,-0.032315508,-0.035866853,0.033582907,0.028137464,0.02317835,0.028129812,-0.030216254,-0.0027998574,-0.012407962,-0.038690463,-0.006448377,0.042154875,0.008881129,-0.043135602,-0.016043587,0.024000589,-0.033546757,0.024413254,0.028442461,-0.035157826,0.041632418,-0.030979149,-0.035432585,-0.020974584,0.023772668,-0.003579937,-0.031993534,-0.018341485,-0.025629573,-0.04023127,0.0142286755,0.02940813,-0.03298064,0.04000731,-0.008977767,0.035617527,0.015942797,-0.021162497,-0.016751328,0.029705416,-0.033633552,-0.039339356,0.018890414,0.022967305,0.012323659,0.039716285,-0.0045556016,0.0075220913,-0.008856807,0.035040487,-0.036005408,-0.014912171,0.03441027,-0.027945668,-0.04163526,0.019355368,-0.02480039,0.013700012,-0.0073647387,-0.034370244,-0.021063192,-0.0123157315,-0.016243422,-0.0085084215,-0.018993292,0.005250439,0.0131814,0.0026183426,0.040110227,0.03376179,0.0013237596,0.009295881,0.040880974,0.021991711,-0.0048737302,-0.0005529709,-0.01388284,-0.040625382,0.019616943,-0.010239825,0.014237784,-0.018193994,0.029897865,-0.010609541,0.040526386,0.038933154,-0.0034524947,0.037908886,-0.03993409,0.019571755,0.029996123,-0.029037755,0.037148576,-0.03259944,-0.027805993,0.0043069087,0.008889239,0.034603413,0.04313344,0.038763728,0.016831882,-0.027942691,-0.032815915,-0.010841735,-0.042649306,0.00080259144,0.0033810325,0.039587963,0.0017623864,0.035216022,0.006759923,0.014703713,-0.029887356,-0.016647331,0.024155479,-0.036623605,-0.02309907,0.0133617,0.03408863,0.030855749,-0.025164844,0.013111148,-0.0009377152,-0.02329549,0.0019805543,0.026938979,-0.0016605444,0.021280807,-0.01970913,-0.035452716,-0.010604061,0.0030617826,-0.00056272745,0.03132854,0.027396645,-0.0362311,-0.025910696,0.036238436,-0.017405873,0.04176597,0.01745117,0.015383214,-0.030992601,-0.009840708,-0.005033497,0.013980608,-0.011739932,0.01411923,-0.03418367,0.030810151,-0.009791609,-0.008607786,-0.019506188,-0.004923437,0.035178933,-0.032036737,0.039901603,0.008984353,0.032591518,0.016034625,0.03985391,0.026040275,0.039592046,0.021141965,-0.040485837,-0.0117284395,-0.037702467,-0.01860551,0.01989742,-0.026347648,0.008297451,0.043114576,-0.023795072,-0.037881494,-0.039732557,-0.03900344,-0.029403344,-0.028079115,0.041495774,-0.0207832,-0.011625249,0.014895137,-0.03209974,0.014688276,0.039700817,0.028377544,-0.020974025,-0.041784037,0.008444775,0.004132066,-0.02389003,0.02994987,0.020941723,0.020292077,0.01579542,-0.031829294,0.036108684,0.040653113,-0.04385105,-0.031325974,-0.022633959,-0.039708316,0.040167484,-0.03245779,-0.039170463,-0.028736226,0.011315376,0.009692658,0.013970051,0.019081023,-0.032418814,-0.008930936,-0.0048994347,0.0031791143,-0.016687164,0.03963623,0.02981541,0.036242973,0.0024295375,0.043643963,0.029867765,0.018196147,-0.015008651,0.033653457,-0.014509942,0.0335495,0.00855298,0.033804465,0.019011151,-0.03237611,0.025958579,0.0043886714,-0.043336317,-0.038025625,-0.020333547,0.031405564,-0.025933936,0.008785047,0.002332665,-0.028160727,-0.031116813,0.021000791,0.017211828,0.008227117,-0.018986803,0.0120838545,0.03203473,-4.820153e-05,-0.031870365,-0.029160745,0.029770698,-0.016983356,-0.038436282,0.026393559,0.0032534935,0.006251227,-0.009404633,0.037113536,0.01918478,0.0013831928,-0.018409722,0.03523818,-0.033982694,0.018207423,0.007684808,-0.0034847446,-0.022635754,-0.030427843,-0.03231048,0.0038064867,-0.0024325252,-0.004386734,0.007237278,-0.022869427,0.007190965,-0.027375363,0.027292412,-0.026475053,-0.007902622,0.037394065,-0.0022676364,-0.0025195442,-0.040174235,-0.013395974,0.0358026,-0.0049104653,-0.030210733,0.0020787679,0.022402141,0.032890018,0.012929615,-0.01917093,-0.0412552,-0.031185534,-0.043071333,-0.0014898963,0.036645476,-0.020346295,0.0357312,-0.03738316,0.033563662,-0.02430398,-0.008357614,0.043570187,-0.021891057,0.04223953,0.040683884,0.0373314,-0.021785859,0.03319535,-0.009915188,-0.01548451,0.012270771,-0.0023073815,-0.04359878,0.0057388134,0.034574036,-0.0113631,0.0055527315,-0.04320945,0.010632858,-0.01906842,0.021547247,-0.026442321,-0.010840602,-0.027149009,0.010284875,0.025643405,0.012875281,-0.032388635,-0.02449401,-0.013177538,-0.015597053,0.03657761,-0.027693534,-0.0017314628,0.0419552,0.02232616,-0.026013007,-0.02663235,-0.0375673,-0.006622106,0.03728446,0.025586579,0.004709456,0.0036354773,-0.037471946,-0.03721017,-0.03829439,0.006615732,-0.03752781,0.010611828,-0.00073948875,-0.02630284,0.019429792,-0.019773941,0.03183675,-0.0032846816,0.029732872,0.024444763,0.039580908,0.008820582,0.02550472,-0.017361803,0.03437495,0.00469682,-0.01945793,0.0048267245,-0.00576441,0.016261023,-0.04146968,0.011006448,-0.02048519,0.0075645857,0.026551131,-0.042455252,-0.04338068,-0.011486918,-0.04248775,0.0049343593,0.014174629,-0.023953054,0.030508067,-0.024032691,0.0069577284,-0.022552762,0.020539489,0.021038312,0.0111156665,0.0058573596,0.0389363,0.006426219,-0.014127312,-0.01499648,0.020124797,-0.0040655658,0.030158859,-0.037014805,-0.01798132,0.017638199,0.019173797,-0.032331448,-0.0022519939,0.024079692,-0.0049607195,-0.02426648,-0.03215073,0.022948872,0.028351571,0.0063051432,-0.036384087,0.00046920404,0.039794397,-0.02202382,-0.04118944,0.036873702,0.011275742,-0.032226093,0.030906428,-0.0044875555,-0.00012316182
-0.042556364,-0.035541415,0.035714608,0.0061209127,0.033845503,-0.03083291,0.03700166,0.037380304,0.042872433,0.027057726,-0.042636715,-0.028886227,0.014321953,-0.028471176,-0.031185796,-0.0034644008,-0.020964136,-0.003777489,-0.034267347,0.013559744,-0.007998358,-0.027314145,-0.028530624,-0.024361279,0.022799168,-0.015812749,0.0010954924,-0.022407046,-0.017521473,-0.003971033,-0.0055641755,-0.035704065,0.027757954,-0.009888437,0.01555207,-0.022204708,0.013571691,-0.028849253,-0.031391256,-0.042055,0.040796172,-0.013588786,0.030966457,-0.010669142,0.016508214,0.017548725,0.040973794,-0.020085786,-0.030660052,0.014130019,0.012771115,-0.036834806,-0.030105684,0.025707025,-0.002281651,0.041638676,-0.042795703,0.010139558,0.0347217,-0.02111801,0.037511025,0.0090851635,0.038984668,0.0061065443,-0.025902431,0.04234759,0.018944811,0.04248849,-0.031611405,0.002186656,-0.026857605,0.010097973,0.03449771,-0.01734073,0.02181499,0.0020800196,0.01323932,-0.0030088164,-0.008346412,-0.025496062,-0.018501455,0.013933994,0.031928036,-0.032325283,0.015836261,-0.03082121,0.03184377,0.007751379,0.020692494,-0.014637843,-0.0416158,0.014594611,0.03120057,0.030257609,-0.04242928,-0.03343792,-0.013215629,-0.026280155,0.025246646,-0.0008488111,-0.038909215,0.014139082,-0.030527093,-0.031873286,0.022690285,-0.0038839653,0.033009637,0.03592581,0.027877834,0.032714676,-0.0132754985,0.030254122,-0.029154897,0.027877767,0.013528328,-0.037932225,-0.012148362,0.009604059,-0.006211944,-0.00090775266,-0.021253876,-0.016911244,0.039548364,0.032574978,0.021020096,0.0009866878,0.006740976,0.02576198,0.01671986,-0.018264541,0.014212765,-0.040077627,-0.03825985,0.039085764,-0.029959343,0.013695996,0.0021174885,-0.036113128,0.017173298,0.026630033,-0.01000423,-0.019099534,-0.014451621,-0.011037726,-0.016341913,0.04338276,0.012731418,0.040136736,-0.037647404,-0.0038246587,-0.021049816,-0.02304734,-0.011386283,0.04082917,-0.034425236,-0.020642562,-0.028848536,-0.03277567,-0.043665756,-0.03283038,-0.019948551,0.040116902,0.008432664,-0.008117329,0.024212841,0.013774954,0.039427463,-0.036481243,0.017835028,-0.018617775,0.03886352,0.021575164,0.012051947,0.03843346,-0.042354263,0.031038988,0.032494973,0.004856713,-0.031189173,0.04281878,-0.038721252,-0.008207239,-0.032303005,0.029523294,-0.020022012,0.020629581,0.02245837,0.003135018,-0.04130432,0.0029721484,-0.012866106,-0.0036429353,-0.011558168,-0.0047818013,0.022234503,-0.011445019,-0.010520585,-0.016617296,0.02308764,0.016845305,0.004671894,0.009427976,-0.0021421202,-0.041050818,0.007246677,-0.010205112,-0.010797195,0.01568824,-0.035027683,-0.0077929273,-0.035311565,-0.0012783259,0.033669513,-0.015563782,0.017477266,0.036521364,-0.007556159,0.027349811,0.0136786215,0.024742436,0.039611187,-0.027749784,-0.021403423,0.019391824,0.02757043,0.03750583,-0.0017142743,-0.009997763,-0.005929861,-0.031471103,-0.014376648,0.0021849982,-0.03902828,-0.02231408,-0.021607555,-0.023100298,-0.036114343,-0.01385056,-0.020649385,0.003908932,0.033402424,-0.0066961683,0.024063487,-0.037994858,0.0049722493,-0.024964236,0.042456936,-0.025669796,0.032164153,0.01980367,0.027696606,0.012576651,-0.023791295,-0.0020805672,0.035268117,0.02511714,0.015261024,0.018361967,0.0065334514,0.031120393,0.0035557412,-0.022030063,0.038740274,-0.0019479804,0.04163127,-0.019153487,0.016670886,0.006586302,0.034578796,-0.0007176809,0.0130076185,0.001859691,-0.043011505,0.0071021356,0.009528007,-0.014978031,0.019793686,-0.037225768,0.030768942,-0.009755798,-0.032405376,-0.01601902,-0.027418638,0.042709496,-0.013661511,-0.002693873,0.0025655515,0.021295514,0.013219692,0.033379693,-0.008266721,-0.038180664,0.0022740401,0.011163503,0.014031149,-0.036124475,-0.043334972,-0.031704303,-0.02650228,0.03040107,0.04148848,-0.0344019,-0.032325737,-0.032654285,0.033584487,-0.026434371,-0.010947075,0.039240215,0.042560827,-0.022993244,0.012746617,-0.04244663,0.0024540909,-0.00477596,-0.020061636,0.041591633,-0.03531226,-0.03377655,0.017165273,-0.01744956,-0.028757215,0.005871497,0.0060333535,-0.03643329,-0.04270564,-0.025592519,-0.0146608185,-0.03288962,0.040739533,-0.040293097,0.021109398,-0.011983346,0.039319444,-0.0065016933,0.039386954,0.010992028,-0.030685022,-0.039080333,-0.007782653,-0.023907399,0.022766817,-0.036703076,0.008140467,-0.03397816,0.011298902,0.017552491,-0.04116759,-0.03548929,-0.0062059164,0.014590386,-0.0144961085,0.017767094,0.024047945,0.039062444,-0.016887452,-0.02028375,-0.0005743988,-0.003950618,-0.019641522,-0.0062664635,-0.035150588,-0.038317237,0.024935674,0.02971704,-0.024640748,0.025660489,-0.039999366,0.032666396,-0.03524608,-0.029287513,-0.018932074,0.002316542,-0.0127525665,0.026026066,0.009672202,-0.01976537,0.03324083,0.027373295,0.027379315,0.015176278,0.0045162924,-0.041455235,-0.005866982,0.0023881197,0.02928504,0.034124743,-0.017082734,0.016123466,0.01643999,-0.021013038,0.028890308,0.018817123,-0.005970396,0.003256645,0.043960404,-0.010199543,0.03897516,0.03907613,3.2253563e-05,0.0074785054,0.03682444,0.028147,0.02590948,-0.04277257,0.033105295,0.021834273,-0.011329826,0.022637296,0.01239682,0.006168809,-0.026968705,-0.027960166,-0.017969888,0.043758396,-0.003880471,0.01189227,0.0015335009,-0.033810347,-0.010642294,0.009438213,-0.04051746,0.011078559,-0.03861997,0.0024270006,-0.022352522,0.0039720386,-0.014396552,-0.0006794371,0.031384002,-0.010955051,0.020846587,0.015991341,0.03525145,0.04029547,-0.028337348,-0.03093328,0.0064281933,-0.019345008,0.008851569,0.02286816,-0.035935003,0.041729603,-0.03597939,0.0041226745,0.011206906,-0.03010729,0.041131597,0.038063195,0.00031727552,-0.018371822,0.011317015,-0.024629427,0.020803597,0.0428884,0.031629536,-0.0027893893,-0.01525129,0.01879036,-0.006346505,0.037448492,-0.042632427,0.04317001,0.026728,-0.005403962,0.040093835,0.013685171,-0.019049032,-0.021658437,-0.015368622,-0.028725062,0.029294651,-0.00601393,-0.019376412,-0.025773134,0.0043020397,0.010562941,-0.040334597,0.035872165,0.040126573,-0.016868902,0.04134805,0.014074512,-0.013689106,0.005517017,-0.025992135,-0.01997405,0.03202502,0.016360119,-0.027527418,0.019543063,0.04110382,0.026265848,-0.0041306764,0.03841183,0.0028201044,0.0024778806,0.040911403,0.010526042,-0.019472392,-0.015860023,0.003425628,-0.019353095,-0.034034073,-0.021918215,-0.04193552,0.027834725,-0.03855139,0.01236904,-0.0058214106,-0.006160967,-0.042163227,0.037030075
0.032237593,0.024646264,0.002932787,0.014911875,0.037702825,-0.018346844,-0.028042784,0.0223785,-0.04328918,-0.033727698,0.025345188,-0.030076444,-0.019875906,-0.04256892,-0.025884867,-0.025587093,-0.0024193935,0.013492271,-0.035091102,-0.03978013,-0.026522411,-0.013746399,0.027805459,0.02342179,-0.016535204,-0.043174624,0.030357543,0.03493226,0.032288115,0.012698904,-0.002462808,0.037150737,-0.019162554,0.009737551,-0.022906227,0.024316829,-0.011148222,-0.004963994,-0.025248464,-0.002645094,0.04085057,-0.027489254,0.04362342,-0.03604827,0.03868116,0.033887852,0.007397495,0.014305044,0.015628975,-0.01770548,-0.010233693,0.017680228,-0.011186417,-0.028173387,0.04063869,-0.029271297,0.017796002,0.005413443,-0.031210225,0.024433773,0.040843125,0.034615535,0.033673164,0.020490948,0.039308872,0.037122834,-0.0138517935,0.032203596,0.031895515,-0.03097886,-0.044125717,0.030333806,-0.043295424,-0.015271906,0.016884163,-0.028950749,0.01961286,0.0056444183,0.002981063,-0.017430851,-0.031705745,0.037250567,0.012315545,-0.026015768,-0.005807288,-0.0213783,-0.013156049,-0.03085735,0.004576031,0.016635034,0.036561254,-0.02286604,-0.021556258,-0.03840621,-0.024986653,0.021365527,0.00012723729,0.032635476,-0.0013202727,0.043318737,-0.005436454,0.0148053095,-0.022881493,-0.013938831,-0.030639503,0.0093252435,-0.0033588037,0.03757776,-0.012123484,0.017443068,-0.01527632,0.03875294,0.031469222,0.02774923,-0.0392517,0.021031547,-0.038107954,-0.032659765,-0.01462964,0.028276455,-0.009452447,-0.0010086745,-0.041423433,0.027780768,0.011631466,-0.0272643,-0.025407063,-0.0040622763,-0.009465754,-0.029379072,0.030345764,-0.038558934,0.016880844,-0.0116686225,0.040066037,-0.0103692,-0.016836196,-0.038096584,-0.043307476,-0.011306584,-0.03265952,0.044030685,0.0071370527,-0.01345898,1.9691885e-05,0.025855672,-0.019401742,-0.028728813,0.034813974,0.03779536,0.02925196,0.031942677,-0.010319725,0.030210335,0.016408648,0.03806657,-0.026430963,0.03195249,-0.0030265376,0.03305852,0.025600057,0.035111856,-0.021592226,-0.017097132,0.0029328465,0.015405238,-0.012192581,-0.020272817,-0.035688113,-0.013467493,-0.013349123,-0.023723055,0.04237933,0.027896125,-0.0012401119,0.035956327,-0.01343172,0.037611295,-0.0038527176,-0.025160177,-0.022928728,-0.039603516,0.014740843,0.042470228,0.031935353,-0.03293386,0.042340863,0.02067661,5.111471e-05,0.0401651,-0.023028553,0.030364122,-0.02742017,0.011191305,0.033673394,0.043761518,-0.031960912,0.014137186,0.035511,0.025998954,0.01371783,0.029422697,-0.042226452,-0.01877995,-0.02631408,-0.040405758,-0.039657418,-0.034056127,-0.0070163123,-0.0074069127,-0.0062687844,0.028607037,-0.013991494,-0.03288559,0.015242841,0.03791691,-0.03792219,0.029685866,-0.003700614,0.0033214912,-0.018150313,-0.006364327,-0.038266767,-0.017682483,-0.00958455,0.02184211,0.038150635,0.0014075451,0.01574681,-0.032622963,0.028665911,-0.006552279,-0.010809656,0.0028423667,0.00367748,-0.034880184,-0.03583853,0.042891774,-0.016691633,0.038135093,0.03614683,-0.028285751,-0.01749777,-0.017745493,0.029183846,0.043623406,0.033568118,0.012111515,-0.019305322,-0.007410869,0.011373073,-0.016039873,0.028954085,0.035633553,-0.0047366433,0.022933695,0.013516348,0.0365791,-0.001284793,-0.022189705,-0.025893796,0.0074407943,-0.009314422,0.013805021,0.007424645,0.0194689,0.005957041,-0.0061142445,0.029031593,0.03880762,-0.021853836,-0.036911637,0.030123789,0.012532186,-0.0060984865,0.038926784,0.029424723,0.04413772,0.028696302,0.0073781535,0.034974348,0.013392612,0.006199248,0.018869605,0.011042617,0.024800796,0.03644416,-0.019502785,0.026433196,-0.0015581362,-0.02313207,0.006498892,-0.012950731,0.03400192,0.025209423,0.0064993985,-0.043888893,0.03194021,-0.03339468,0.009209909,-0.03287619,-0.016513905,0.007392969,0.0037911572,0.04280607,0.01697117,0.02128448,-0.033162635,0.020446438,-0.009550016,-0.03671984,0.040169094,0.037851896,-0.017453263,-0.010211445,-0.034871373,-0.011044893,0.02731121,-0.023778414,-3.2827258e-05,-0.007840805,0.014224093,-0.030257553,-0.01676462,0.009545878,0.020394672,0.035713125,0.040439103,0.0039643124,-0.025326958,-0.02680077,-0.006367732,0.013057478,0.02024011,-0.022697905,0.02955838,-0.04267953,0.011935528,0.0122706555,0.042475943,0.012872811,0.01682096,-0.0064195357,-0.030548846,0.03893594,0.0021284148,-0.008816924,-0.0016078167,-0.027801426,0.0060893036,-0.01621501,0.012607764,-0.033699676,-0.022166671,-0.01765001,-0.035743482,-0.01641693,0.0102415085,-0.0058818385,-0.033539824,0.031837765,0.042561654,0.038945917,-0.006236464,-0.040184017,0.017855592,0.044081274,0.03121468,-0.015795479,0.008671075,0.024407912,-0.043540116,-0.0301915,0.008894529,0.042519215,-0.0041072145,0.009832703,-0.005241383,0.03029069,0.012583014,-0.01527673,0.03425059,0.011412956,0.0040990114,-0.02136627,0.0058698617,-0.039522555,-0.004693579,-0.034252055,-0.04319144,0.019878548,0.011734661,0.0048482716,0.01498292,-0.016202807,-0.024064533,-0.025980081,-0.0056768693,-0.033201754,-0.0065103434,0.011073943,0.019237135,0.00038764626,-0.025541179,0.0070171654,0.026417334,0.04280098,-0.02016056,-0.009763714,0.034941796,-0.016434152,0.032759186,-0.013885373,-0.03728213,-0.0082730055,0.022171523,0.04113817,0.017252412,-0.03569243,0.026170645,0.01107746,-0.039557762,-0.02219512,0.03265037,-0.02150193,0.01711497,0.012847364,-0.031233475,-0.009311192,-0.007709194,0.037964683,-0.010527339,0.033664424,-0.03530843,0.01707679,-0.038399905,0.00041321665,0.03599933,-0.023821693,-0.0017614067,0.027969059,0.017463483,-0.015050445,0.019913185,-0.03623108,-0.038266502,0.017682858,-0.027065916,0.028852519,0.011713661,-0.03318935,-0.018297723,0.00090509653,-0.00043706968,-0.02802504,-0.00813273,-0.03741189,-0.021026636,0.018412601,-0.012106549,0.024979044,-0.034285307,0.029627401,-0.002994448,-0.029350596,0.04184689,-0.04123964,0.0008029118,0.029263388,0.037593346,-0.0019261427,0.03066175,-0.004597459,0.0020456165,-0.031488955,-0.02953031,0.018531542,-0.030885542,0.030199576,0.0043776818,-0.01395764,-0.016637705,0.010496788,-0.04068212,0.038605873,0.025229085,2.9943883e-05,-0.024225565,0.03319035,0.029193897,0.00082838535,0.011507474,-0.03134515,0.042934213,0.03809497,0.038310263,-0.04375888,-0.0015077703,-0.04166103,0.02540714,-0.021086764,-5.4042786e-05,0.0235424,0.00261724,0.027978648,-0.028309396,-0.005342949,-0.0018329546,0.038050596,0.006115433,-0.024379991,0.0020300783
0.034035828,-0.0013270043,-0.040379114,-0.0062362254,0.01925337,-0.017863873,0.014337476,-0.038591288,0.020228889,-0.039010942,-0.043218147,0.006687049,-0.01852019,0.035537932,0.007832572,0.02075341,0.021890756,0.033624653,0.023553472,0.03165489,-0.02162982,-0.008118831,-0.026403867,0.0077332184,-0.04306988,-2.714619e-05,0.040692683,0.028589237,0.02023403,0.010420401,-0.03983076,0.030428212,0.011078104,0.043437693,-0.00057955086,-0.038333084,0.024511855,0.03879166,0.026732784,-0.011896316,-0.04222429,0.039869335,0.00207185,0.014933076,-0.0267237,-0.0069686025,0.016453639,0.0129396655,0.0039252266,-0.0423497,0.033407677,0.01636469,0.0216471,-0.01976469,-0.03241603,0.024101261,0.016575474,0.040808577,-0.03789213,-0.028444497,-0.04216447,0.02417351,0.030860912,0.032335322,-0.021490494,-0.006186541,-0.042403743,-0.0133412685,-0.042322047,-0.027387211,0.027909141,-0.031177536,0.015083581,0.03465816,0.040255513,0.020383287,-0.0058502518,0.026480619,-0.0059045516,0.018919375,-0.0148397945,-0.039437238,0.0140799545,0.01713971,-0.019980509,0.0025585517,-0.034057856,0.02506097,0.035119843,0.0065843873,-0.024888609,-0.008798081,-0.03858566,-0.022152008,0.044001553,0.020552348,0.008276314,0.017551053,0.014562193,-0.02308501,-0.033190727,0.016521305,0.03377864,-0.02350908,0.020753603,0.024133604,0.010820329,0.0044425987,0.018635798,-0.041337237,0.012847681,-0.021648033,-0.003330063,-0.024282321,0.039417725,0.0102804415,0.008786958,0.027102944,-0.019336442,0.03562702,-0.02816943,0.015683547,0.02704328,-0.013465254,0.0070292316,0.0235213,-0.020935766,-0.037578505,-0.024113923,-0.03066064,4.1514635e-05,0.018716116,-0.014680533,0.04152477,0.0038042553,0.032273468,-0.01651449,0.012633454,-0.026612546,0.028265897,-0.037400834,0.03661159,-0.013110494,0.032009583,-0.0005839914,0.028660972,0.028298635,-0.025032066,0.014151879,-0.033097092,0.03806187,0.0074527375,0.004516136,0.01203537,0.014445964,-0.02746944,0.0049427673,0.0054746494,0.009807941,0.026639137,0.016672008,0.005326651,0.03414477,-0.008339059,-0.033455566,-0.017699532,-0.022265142,0.037245225,0.0073058046,-0.025801374,-0.039250407,0.042699527,0.03883553,-0.017583128,0.014151588,-0.04381443,-0.026179967,0.027560178,0.0075513646,-0.024900647,0.032505322,0.022396263,-0.018244496,-0.04153962,0.03464998,-0.009152409,-0.024581876,0.005984936,-0.011734888,-0.01825085,0.007732518,0.0009758249,-0.038331,0.021354932,-0.03436513,0.0048922673,-0.02918078,-0.0054056756,-0.035546336,-0.0028419718,0.03674153,-0.040469494,-0.025624504,-0.014966283,0.023302626,0.008949399,-0.03168641,-0.042220168,-0.02880979,-0.02687331,-0.02340718,-0.040257648,-0.005732082,0.0014086068,0.0032055527,0.018567685,0.035518426,-0.020852702,-0.016002968,0.02629472,-0.01790927,-0.039220672,0.011637177,0.025570031,-0.025574507,0.021677736,-0.0217267,0.03696632,0.0061660297,0.040713202,0.03718153,0.026590023,0.0010289662,0.02689096,0.008779753,-0.039012376,-0.0076550357,0.02068146,0.00978234,-0.011017092,-0.032749396,-0.04302656,0.02636205,-0.011350021,0.0123866275,0.0048312657,0.041281123,-0.0055004917,-0.028752115,-0.0051192045,-0.019264033,-0.01415113,0.040517654,-0.020048812,-0.024925677,0.008739386,-0.0087252185,0.028655369,-0.01214515,0.034614567,-0.020491244,-0.03509579,-0.041400343,-0.029009217,-0.032529064,0.013265885,0.039768588,0.019136596,0.005705092,0.0055746324,-0.03806069,0.0086000115,0.033216987,0.018011238,0.0010449886,0.02922028,0.042591874,-0.021001643,-0.036345888,-0.0031496957,0.010870598,-0.013027301,0.04023703,-0.02958852,-0.018438604,-0.03695869,0.022817295,-0.03599819,0.019823994,0.014375057,-0.027247926,0.012548871,-0.03990915,-0.035473306,0.023090523,0.03531069,-0.026329841,0.017672013,-0.0007186346,-0.042313013,-0.006981194,0.019901376,0.017324105,-0.006494507,0.035671297,-0.031062331,0.0040426664,0.0071386024,0.028011378,0.033829663,-0.03930424,-0.041290745,0.02968527,0.031678308,0.035097178,0.0058587343,0.03518003,0.022958297,0.018870767,0.028353017,-0.036821827,0.031621713,-0.02573909,0.036664415,0.03190889,-0.012396496,0.015357174,0.0015645213,0.016773622,0.04360279,-0.036767904,0.012334682,0.0295158,-0.031521533,-0.02513327,0.015418202,-0.01352467,0.021005098,-0.009881597,-0.029831639,-0.025942791,0.01044203,0.020009909,0.018305156,-0.008476939,-0.0016687922,-0.023260009,-0.028270034,-0.024490237,0.04307132,0.0053173155,-0.03715615,-0.014858918,0.00073904917,-0.037473008,0.0297531,0.02264117,0.005908776,0.028672982,0.00036774576,0.021958847,-0.01619924,-0.037214365,-0.023145985,0.008383177,0.04358535,0.028467748,0.040249664,0.016398322,0.04311921,0.0140892975,0.033010114,0.008849915,-0.025391147,-0.030368462,-0.024347818,0.017763749,-0.040646095,0.02673192,0.03944653,-0.008495331,-0.039587274,0.007365331,0.025307905,0.012622707,0.013044886,0.023992162,-0.0030323826,-0.041016996,0.036854234,-0.017312502,-0.0042831264,0.040315557,0.005969718,0.0062290877,-0.014554808,-0.026322065,-0.009769935,-0.039576605,0.030406889,0.027840298,-0.037009437,-0.03979189,-0.00046510994,-0.015314251,0.015568387,-0.026768886,0.004750356,-0.017767668,0.0279488,0.00050642714,0.019662265,0.019841958,0.0035831407,0.010300644,0.027234975,-0.0358446,-0.043128934,0.032132152,-0.014952648,-0.008744065,-0.011111684,-0.042040717,0.0015862919,-0.0363442,-0.039598465,-0.03558522,-0.02104047,0.026038002,0.008968838,0.013226077,0.016248904,0.029697094,0.038587946,-0.015268192,0.022975419,0.01719834,-0.038371503,-0.009364508,0.04405551,0.043400314,0.022181068,0.03603698,-0.035375092,-0.024914082,-0.031564638,0.026504438,-0.039948463,0.034954716,0.030883912,0.0018265434,-0.005588319,-0.017559646,-0.02921179,-0.03366962,0.0011851899,0.019828398,-0.01935887,0.013787802,-0.0019739382,-0.010878518,-0.022204403,0.043708634,0.029070187,-0.0037846193,-0.025055379,-0.018663863,0.017688263,0.04296596,0.011990145,-0.024570985,0.03468703,0.008711379,-0.0033636615,0.009390172,0.019031588,0.02313396,0.012083445,0.016756553,0.024234172,0.012905553,-0.007941619,0.01704488,0.041085128,-0.0041293576,-0.0029027686,-0.0422105,0.00062466785,0.013606571,0.029374812,-0.042621974,0.021236371,0.034495037,-0.002032116,0.013884094,-0.004521109,0.03640196,0.029861558,-0.035796545,0.023089532,-0.0078561045,0.030395966,-0.013862399,0.005192112,-0.029943934,-0.023124738,-0.020497771,0.028516028,-0.015873872,-0.0063863844,0.010996107,-0.03855377
