0
-0.005310379
-0.027919265
0.020590693
0.03260761
0.009278502
0.02953304
-0.017010042
-0.004617177
-0.02984773
-0.007222371
-0.0069848634
-0.03376925
0.0049698763
0.020388514
0.015280955
-0.01578386
-0.029331703
-0.0024945699
-0.008608298
-0.03184133
-0.0031849258
0.020886563
-0.033587694
-0.020993834
0.034821
0.028181639
-0.029052647
-0.026047712
0.01892418
0.026762407
-0.015066994
0.020565797
0.030651953
0.008425947
0.018083882
0.012960687
-0.023415614
-0.019159637
-0.034529842
0.023507226
-0.005013164
-0.029816624
-0.035360392
0.02140667
0.027774725
-0.0100119505
0.02999964
0.030135576
0.0034976974
0.0033857003
-0.030359466
0.0060516633
-0.023483878
0.0041497014
-0.01748634
-0.02595745
-0.0209
0.0033291765
0.0049417205
-0.0079276785
0.022476729
-0.0018794201
0.007320516
0.013014045
0.03429499
-0.015874319
0.02164479
-0.021736704
0.015812892
0.028925095
-0.0021979772
0.026392907
0.032541674
-0.0016652085
-0.034115568
-0.0055213273
0.024325188
-0.029872095
0.011756852
0.019833717
0.003307905
0.0153836645
-0.017080912
0.017030045
0.0004961714
0.009306807
-0.011071827
-0.021168211
0.031285938
0.0036979057
0.015198354
0.029561337
0.030509893
-0.014195694
-0.03552655
0.017220665
-0.00163408
-0.013228988
-0.031554207
0.0077313334
0.02024915
-0.023081146
0.015709229
0.01116034
-0.016154861
-0.034127653
-0.019467108
0.034454595
0.00078679994
0.010927204
0.027238157
0.029539738
0.012756988
-0.008121632
0.03158826
0.026512012
-0.021391746
0.009698693
-0.028733166
0.030956034
0.011960983
0.013568107
0.0053276643
0.031444605
0.019661568
0.015863556
-0.0042211153
-0.012906462
0.013226584
0.028555837
0.0049148276
0.031725418
0.0037187338
0.013502169
0.021161333
0.02717324
0.0072726235
0.01636922
0.034405436
-0.027572237
0.013056561
-0.010981841
0.022587974
-0.023253897
-0.013213478
0.034254063
-0.0024801232
-0.002879165
0.010258704
0.0078040436
-0.016984528
-0.014754351
0.012175646
0.0046706907
0.014051285
0.012416609
-0.0034520589
0.011983361
0.023163084
0.033193965
-0.0009068921
-0.013375215
0.011005901
-0.009123275
-0.011019571
-0.032416195
-0.031018415
0.0042045154
0.03007159
-0.027455267
-0.022860933
0.00902731
-0.029903911
0.027525943
-0.028181363
-0.014466183
0.031625215
-0.0063680205
0.034283277
-0.031814657
-0.03284797
-0.0046783388
0.023346603
0.023507815
-0.002686847
-0.0244129
-0.03366332
0.013357993
-0.027401933
0.02092402
-0.009736603
0.020101339
-0.009699725
-0.03426599
-0.01218597
-0.001405891
0.022930555
-0.033020336
-0.0033181943
-0.008224441
-0.013783528
-0.024484921
0.028337281
0.0029545836
-0.026549762
0.035549972
-0.026351428
0.009993967
-0.027210996
0.032611195
-0.022884643
0.008409519
-0.0271094
-0.0040167235
-0.03334
0.0015549399
-0.034379102
-0.021457225
-0.020991802
-0.032776605
-0.013164014
-0.029634273
-0.009654211
-0.0009333752
-0.024507098
0.015647925
0.0016872026
0.0059905387
-0.00045875087
-0.014592512
0.024902467
0.01563105
0.027264375
0.005783584
0.009434197
0.0063123778
-0.030509222
0.032256637
0.0342864
-0.024349818
-0.02374458
-0.01975733
-0.0049647316
-0.015263468
-0.00853825
-0.013260761
0.031000044
0.027449165
0.010331728
0.015787687
-0.0042330585
0.016533483
-0.01865869
-0.021851834
0.03546689
0.0017540194
0.008104701
0.018807512
-0.025424868
-0.018749468
0.009243853
0.009811338
-0.033143803
-0.035525613
-0.021325573
0.0064687654
-0.0015393309
-0.019214682
-0.023327956
-0.023290835
-0.016871449
0.031832833
-0.010228014
0.017035805
0.0038916431
0.03407557
-0.0010611005
-0.019936346
-0.011030482
0.0032181926
0.000985913
-0.022111412
0.030591082
-0.019745713
0.010160778
-0.020845896
-0.034811057
0.016254298
0.0061915293
0.034524303
-0.022701073
0.0037123188
0.034108747
0.011976466
-0.026345905
-0.013350099
0.030534979
-0.0121461805
-0.0143361855
0.013565991
0.008496691
-0.004284356
0.028829623
0.012464374
-0.019463565
0.002340693
-0.03422227
0.027605068
-0.0063923765
0.024781886
0.020424869
0.0018546954
0.009116739
-0.0074093807
-0.0015012808
-0.028278615
-0.035493862
0.028277274
0.009598542
0.00491789
0.0014089234
0.033464406
0.00808657
0.025594115
-0.016788423
0.022738475
0.019984126
0.03295141
0.03060973
-0.027694363
-0.015856415
0.033095036
-0.0077025425
0.02418746
-0.012512382
-0.010973297
-0.014379187
-0.035455834
-0.02340433
0.024517462
-0.016685158
-0.014411608
-0.00754703
0.017052043
-0.031632237
-0.02028519
-0.020252194
-0.000823237
0.0007999353
-0.02983672
0.0014120974
0.024011623
0.028631393
0.027818818
0.03471716
0.01806369
0.032328468
-0.027391791
-0.0045751203
0.016829226
0.010831833
-0.017840935
0.022952303
0.012956876
-0.013273643
-0.014289392
-0.018932862
0.034414005
-0.03332977
-0.022461198
-0.017891658
0.009577386
0.0012229457
-0.03275596
-0.013966948
-0.0034240559
0.01989213
-0.018315315
0.010774091
-0.013839599
-0.0020705462
0.03057399
0.01615785
0.021246474
-0.026521731
0.010184843
0.0032919869
0.022227313
0.018517338
0.01666915
-0.024955848
-0.031044211
0.013685584
0.022128757
0.019431416
-0.03198445
0.028679345
0.023097742
0.02443074
0.023838114
0.024654042
0.0014099292
-0.024554685
-0.020593699
-0.009466767
0.0072443783
-0.021255124
-0.010104023
-0.011748254
-0.01822402
0.027147647
0.0061063357
0.017349117
-0.014255805
-0.030228343
0.012881625
-0.008315355
0.023913976
-0.0042609014
0.03394303
0.022220299
0.03541043
-0.011712842
0.02254923
0.012389082
0.006601736
-0.005890893
-0.03202922
-0.030989222
-0.0032094307
0.009254433
-0.011672514
-0.023190802
0.0062542893
-0.019769529
0.035026845
0.0035676844
0.016385462
-0.027934676
-0.02766236
0.006550655
0.015060611
-0.005164657
-0.0013434887
-0.025462296
-0.0046060607
0.0059606805
0.03292085
0.0075539723
-0.017872393
0.007714156
-0.006262716
0.035309885
-0.009856693
0.031620976
0.010333329
0.0032973886
0.007444877
-0.034923807
0.023830708
-0.009143388
0.018034577
-0.008955641
-0.01906931
0.017598122
0.03320202
0.013326466
-0.011199905
0.025998827
0.031356003
-0.015033063
0.005828414
0.0046959706
-0.0019645505
0.016714204
0.00970038
-0.00580124
0.031431694
-0.009145772
0.03317978
-0.009005802
0.03390557
0.0022239909
-0.015799953
0.025780752
-0.0014546216
-0.01725405
-0.026306778
0.007527061
-0.032624103
-0.01884438
0.028065566
0.02298835
0.03158367
0.011998199
-0.029273976
-0.01854021
0.010828428
-0.008278452
-0.018481327
-0.029418176
-0.031310547
-0.0016587153
0.02207825
0.010822859
-0.0035634078
-0.032634407
-0.0038592778
-0.015303969
-0.026536822
-0.03373601
0.002834458
