0
0.03733385
-0.04302371
-0.037498087
-0.040823985
-0.0427086
0.008188423
-0.0040603057
-0.04340627
-0.028923344
-0.018199809
0.009366095
0.0110408515
-0.03584373
0.0105602145
-0.028668638
0.016902309
0.02874041
-0.01996865
-0.018728852
-0.03280187
-0.0013813823
-0.038786616
0.008853979
-0.029733263
-0.0377459
0.041591484
-0.00999748
0.03939868
-0.022988688
-0.019686103
-0.04390829
0.03741641
0.01915015
-0.009908494
0.003172692
0.030413348
0.0019181669
0.03810322
0.017233681
0.012908053
0.0350297
0.017994486
-0.0024873167
-0.039387163
0.010124616
-0.0051918067
0.04059687
0.03149574
0.0029164478
0.037109744
-0.012574565
-0.011620287
-0.028536683
-0.04186555
-0.008295886
0.028714534
-0.027538218
-0.03250571
0.006249346
-0.037442982
0.040571306
0.011184715
-0.025368605
-0.0052858107
0.00056932867
0.0026438609
0.040107127
-0.026233742
0.04116502
-0.015421227
0.024639886
-0.016086156
0.021495286
-0.03672634
-0.029514026
-0.038271718
0.032818954
-0.030779228
-0.0036812685
-0.0041071326
-0.040179797
0.02341709
0.010209437
0.029632088
0.04123162
-0.0045078546
0.006584339
0.023767296
-0.04412769
0.025741685
0.0064841546
-0.033425517
0.0061776526
-0.03409976
-0.010234926
0.034984995
0.03280193
-0.028550064
0.0016964041
-0.0010734759
0.013356153
0.040793996
-0.015199259
0.04400954
-0.03840227
0.040065642
-0.0012548752
0.0034165122
0.043985654
0.02963293
0.0013049096
-0.042156443
0.018726606
0.021473732
-0.022577561
0.018304862
0.017039396
-0.02828665
-4.928559e-05
-0.009385332
0.02372675
-0.03640427
-0.0042717718
0.030867387
-0.0032854192
7.0195645e-05
-0.027358651
0.0036969855
0.029723514
0.039680306
0.0051097535
-0.038918383
0.016066477
0.014146004
0.0032385737
0.010700021
-0.010839596
0.004313361
-0.04390465
-0.020212675
-0.033774618
-0.010708481
-0.0036262423
0.02043688
0.041693706
-0.03574581
-0.005568754
0.0060411394
0.034915958
-0.0027536638
0.006819878
-0.025297318
-0.028843364
-0.021179792
0.03872909
0.0024997778
0.022156041
-0.039621305
-0.031918257
0.020482812
0.008274976
0.030715551
0.016253106
0.0004756227
-0.013068242
0.026216242
0.0060368106
0.039588142
-0.0067077167
0.006834645
-0.005653877
-0.0007426478
-0.009674478
-0.04397917
-0.02647333
0.013127189
0.010475129
0.029726204
-0.03384349
-0.023640588
-0.03042829
-0.036842883
0.001937408
-0.028821142
0.013446484
-0.021221023
-0.014724944
0.028693471
-0.039083324
-0.024387952
0.043230828
-0.017765285
-0.002516836
0.016729027
-0.020533534
-0.026033914
0.021026623
-0.02762347
0.041484896
-0.033048566
-0.03737542
-0.027978979
0.0133515
0.03948923
0.025044795
-0.026132658
0.0084045045
0.017449096
0.021836411
-0.015660372
0.041996974
-0.037059993
0.03364635
-0.0054379962
0.0024903193
0.03553498
0.008907795
-0.022061883
0.032220047
-0.029479107
0.013399426
0.03251322
0.0135106
0.041841205
-0.023534894
0.036187913
8.9962035e-05
0.029783022
-0.041034564
-0.036039427
-0.009937622
0.042714637
-0.040999543
-0.035920717
0.017378889
-0.031512503
-0.026773063
0.02400725
0.023892019
-0.026904251
-0.028092112
0.008147407
0.026956614
-0.028806802
0.017522484
0.02422868
-0.043329857
-0.018895118
0.0046588443
-0.015110161
0.007841293
-0.012019958
-0.0069603883
0.0103531405
-0.030788373
0.013152547
0.013993029
-0.022195362
0.03362513
-0.031246547
0.015222739
-0.027030706
0.002578564
-0.023536107
-0.039330743
0.009302374
-0.024100432
0.004929036
0.018247858
0.012312315
0.03940433
0.0059716515
0.02879678
0.0130045265
0.028400246
0.010326784
0.022243652
0.041199062
-0.019296702
-0.00040702894
0.024363253
0.03033739
-0.019413538
-0.029595107
0.04168291
0.009637766
-0.035865866
0.020538535
0.0321784
0.03147758
0.0025119744
-0.029014073
0.0067309923
0.018981647
-0.012193594
-0.040906146
0.026035924
-0.011382595
0.017226376
0.014120195
0.03439377
-0.018927522
-0.018793305
-0.0034005903
0.012466375
0.00770941
-0.025391774
-0.039190687
-0.009609655
0.04360911
-0.043837994
0.012947429
-0.0015188307
-0.009553004
-0.016721956
0.030595344
-0.009662174
0.014380645
0.032164063
0.039346654
-0.020646783
0.03465097
-0.028979287
0.044162463
0.040883165
-0.018423999
-0.036602877
0.012031097
-0.040823035
-0.035105858
-0.034466676
0.036204737
0.0007944219
-0.004249934
0.0052774437
0.016406618
-0.00014649704
0.021550547
-0.0063124932
0.026773166
0.0049775466
-0.030057345
0.012479376
-0.0431269
-0.030113712
-0.01796069
0.010229189
-0.040231247
0.01570351
-0.029137447
0.043560114
0.00020942837
0.0005228892
0.041662145
0.020789426
-0.011968151
0.03278785
0.020101357
-0.019273143
0.009598598
-0.020754589
0.022752095
-0.0047239624
0.006784305
-0.021540226
-0.002214823
0.02453756
0.03159227
-0.033233397
-0.002570521
-0.007175911
0.039452534
0.0050464757
-0.021617781
0.033274386
0.024171215
-0.03276889
0.035528373
0.0011048578
0.024663266
-0.03213551
0.042289335
-0.020033645
-0.043839045
0.008817304
-0.03230027
0.021241788
-0.001229275
0.032761227
-0.027225584
0.028621841
-0.0024115853
0.008632015
-0.019337231
-0.017586537
0.027634408
-0.027017005
0.0371957
-0.0057028905
0.042900253
0.011993691
-0.019745119
0.025293421
-0.016109785
0.01950856
0.03194194
-0.008081749
0.0038390756
-0.0311852
0.014388159
0.019150425
0.03726512
0.015837986
0.03614438
-0.030796323
0.015102811
-0.027793575
0.025423843
0.03573722
0.040429685
0.011256352
-0.034764644
0.012420729
0.022522133
-0.029794324
0.013996556
0.0050991215
-0.039598983
-0.023294525
0.0065901354
-0.023493353
-0.039545085
-0.03908771
-0.03167594
-0.043041345
0.008138657
-0.036936477
-0.04253505
0.024592701
0.036019605
-0.0020901524
0.005595036
0.037392434
0.018484015
-0.018372364
0.007339269
0.009052943
-0.034906626
-0.026052522
0.021012608
0.01645638
-0.011594508
-0.03691696
-0.032393172
0.017608441
0.04331674
0.031075869
-0.001684092
0.020029206
0.0052632354
0.023582797
-0.03638382
-0.010922283
0.02462424
0.0075494237
-0.010181207
-0.014670927
-0.0015152283
-0.0402547
-0.009712324
0.012910355
0.020943683
-0.0086519085
-0.005064819
-0.038521197
0.0053634867
0.040099766
0.02891491
-0.017022016
0.03563213
0.0032182224
0.03820068
0.011419557
0.027011868
-0.0014931895
-0.007979989
-0.03061448
-0.009327881
0.00488
-0.019686123
-0.007602986
-0.022037027
0.035220664
0.034499492
0.010724802
0.04268403
-0.031163933
0.014769018
-0.03942815
-0.010629728
-0.039451305
-0.033026334
0.009599086
0.012082536
-0.0004366748
0.032598477
-0.0047067404
0.0036575235
-0.034632217
0.01269117
0.016026773
-0.02450883
