0
0.016559318
0.025982697
-0.018488305
0.007148426
0.017979104
-0.0023735352
0.032837484
0.018184364
-0.02240392
-0.0010914095
0.028079335
0.006649025
-0.006115623
-0.022271728
-0.030454632
-0.024666242
0.008424386
-0.036515877
-0.03235328
0.0046829246
0.0062174983
-0.028982164
0.014747515
0.01856703
-0.021580197
-0.011441622
-0.031073596
-0.038419116
-0.017042415
0.034923103
0.035103623
0.011424858
0.038216878
-0.019733554
-0.01699049
0.013037652
-0.019208452
-0.040065825
0.03589483
-0.03296302
-0.0075453706
0.035974998
0.033651803
0.02900182
-0.038863096
0.00493519
0.0369359
-0.038147848
0.017774891
-0.010493606
-0.029195331
-0.036913857
0.0074117295
0.01026931
-0.0245175
-0.030694447
-0.0083173625
-0.02572879
-0.026693178
-0.0020412467
-0.031600848
-0.0064983256
-0.0053506754
-0.02337461
0.034868393
0.0046458878
-0.012404501
0.019404385
-0.027339729
0.034093548
0.008895192
0.00025761873
-0.026590152
-0.010439694
-0.01283776
0.024314795
-0.03834505
0.036153805
-0.03160796
0.034508925
-0.030634757
0.04330952
0.009468332
-0.023572674
0.01750173
-0.0026861876
0.002335567
-0.006044138
0.019220393
-0.03387729
-0.0003568083
0.044010554
0.010175128
-0.041263808
-0.003020592
-0.008899353
-0.022192765
-0.029487357
-0.015285624
0.03130546
-0.005012177
-0.02189345
-0.014938692
-0.013582818
0.033521425
0.023264918
0.037126947
-0.040764384
0.013393372
0.026939068
-0.04291058
-0.013678532
0.023565274
0.040437873
-0.03696446
-0.012691908
0.0074368604
0.008733679
0.02569862
0.02387629
0.019576099
0.0037610382
-0.029236346
-0.011905342
0.035653096
0.011673044
-0.027546668
0.014868438
-0.023350934
0.0076134503
-0.0008174181
0.033097137
0.026638385
-0.002316691
0.0039743856
-0.022768343
-0.022423161
-0.015282584
-0.012536928
0.022482682
-0.006497834
-0.013220413
-0.043817047
0.0069813766
-0.037147917
-0.008277092
-0.03267948
-0.011845641
0.026730832
0.01164677
-0.02515159
-0.024332667
-0.03465763
-0.025204068
0.03012808
-0.009875648
-0.01143679
-0.0029086396
-0.019937556
-0.00074501336
-0.015752358
0.04384133
0.015095595
-0.0009711571
0.015457161
-0.042188767
-0.008261129
-0.014979174
-0.034490753
0.034298357
0.01645543
-0.02884636
0.04232609
-0.0020821318
0.027479205
0.0327573
-0.010465689
-0.0034586117
0.037590157
-0.033509277
-0.002006337
0.034871515
0.024491567
0.028564122
0.033645127
0.032816287
0.013314985
-0.037304156
0.035296302
0.02675059
-0.028592702
-0.041946866
0.026652616
-0.04002934
0.02133872
0.038331743
-0.017013386
0.028949905
0.027174499
0.027248789
0.022733
0.005335249
0.02474701
0.0073091127
0.026204113
-0.03295128
0.01378322
0.022670355
0.025996637
0.009028602
-0.0062439963
0.0063365325
-0.038288444
-0.0062976964
-0.03902697
0.006619308
-0.0064104088
0.0019172281
-0.007562097
-0.018844945
-0.025051339
-0.032514133
-0.037201963
-0.03330666
-0.020647893
0.023879733
-0.035129223
0.034899477
-0.027314402
-0.0019563027
-0.043355998
0.033969168
0.02320138
-0.03735388
-0.025277214
-0.021615263
-0.02805517
0.041473906
0.0055659562
0.039341334
-0.036423158
0.004971504
0.016276687
-0.018769793
-0.0029180944
-0.012395371
-0.01339793
0.03421456
-0.019837642
0.02243128
-0.023378845
-0.03095126
0.031335514
0.024909902
-0.035725813
-0.003797751
-0.038164813
-0.002725616
0.023711298
-0.022730507
-0.006334085
-0.023849169
0.035197694
-0.000713028
-0.04075563
0.033640068
0.021663185
0.0051513463
-0.0046540014
0.02083243
-0.0245648
-0.013315648
0.039952125
0.027616639
0.038469244
-0.036289304
0.0072475597
-0.027068501
0.043838028
-0.03609811
-0.018573135
-0.028437996
0.031975117
-0.026286578
0.029415544
-0.0024029464
-0.03808582
0.041919824
0.0023725107
0.041164298
-0.008358933
-0.0010300167
0.041549336
-0.013036994
-0.0014987774
-0.01867854
-0.014294835
-0.027868496
-0.042535447
0.018954936
0.0411694
0.0059639066
0.033401284
0.038936626
0.011703942
-0.031051263
-0.004191026
0.030977849
0.00025569275
0.034242634
0.015250951
0.011775091
-0.04215619
-0.032291014
0.04152063
0.043245774
-0.00964018
0.027683098
0.005743347
-0.010112215
-0.0028071217
-0.017789826
0.04324157
0.03323796
-0.018142732
0.001337152
0.037042577
-0.001995664
0.008290686
0.011349872
0.012947384
-0.017448911
-0.0074191354
0.0075238757
-0.033932343
-0.021078762
-0.015610443
0.038742665
-0.007491287
-0.009312306
0.0320735
-0.028430477
0.01014588
0.022367623
0.038589288
0.04379398
0.020170327
0.020179626
0.02822918
-0.0048434436
0.0023797378
0.016671903
-0.008212108
-0.039079633
-0.031235494
0.010250468
0.023485113
0.014363937
0.034434702
0.0030889697
0.007849604
0.03139111
0.004137963
-0.016646203
0.0031520575
0.012115639
0.007406246
-9.994209e-05
-0.027383218
-0.03431572
-0.01326571
-0.043392308
-0.021451034
-0.017001506
-0.0077719055
-0.01600625
0.018485937
0.00985679
0.0185715
-0.0072354637
0.029535916
0.040887114
0.0066473857
0.022178601
-0.0011620373
-0.033939824
0.027755257
0.04010017
0.026281413
-0.0092658885
-0.03832625
0.020396534
-0.013973741
0.019241098
0.00877282
-0.026598053
0.014712047
-0.017092444
-0.024547493
0.009395007
-0.03509438
-0.031662107
-0.017377872
0.019623224
-0.006767098
0.042747688
-0.016967315
-0.0430055
0.022225637
-0.017366188
0.044100087
0.040664222
0.030130062
-0.0086651705
0.011963174
0.029977057
0.021450628
0.011842299
0.0043261983
0.013609946
-0.024698827
-0.018041633
0.038747463
-0.022952752
0.043415252
-0.018245844
-0.031755507
0.03154232
0.031226713
-0.025960783
0.008384518
-0.018852316
0.0341299
0.023675982
0.035578933
-0.0329726
-0.016906887
-0.042028062
0.037001047
0.035766613
0.02136926
0.000185024
-0.022631451
0.04077295
-0.028905503
-0.022744283
-0.0065061785
-0.021012528
0.03932314
0.0035677105
0.034563284
-0.027235283
0.0036040023
-0.018516475
0.029058594
0.012718633
-0.004980225
0.016919214
0.021563273
0.027427923
-0.03776276
0.026422631
-0.03294586
0.03322221
0.027291808
0.0016335733
-0.007988583
0.03556714
0.035453293
-0.039658435
0.040278595
0.038036395
0.036719967
0.031929497
0.038354743
0.02761462
0.012323085
0.013864659
-0.040593572
0.037002508
-0.014940552
-0.035630804
0.020580936
0.01388558
-0.016997287
0.011778068
-0.033209085
0.033027392
0.01937699
0.036853787
-0.010495655
-0.0033102445
0.010197666
-0.009362012
0.009435035
-0.02342683
-0.014315467
-0.0060036033
-0.010060716
-0.0012841783
0.043629263
-0.015496526
-0.00977955
-0.03878958
-0.009102814
-0.03128645
-0.010911044
-0.02154728
-0.020389702
0.040005255
0.00923549
0.037467156
