0
0.01721979
0.010952406
0.008601181
-0.0006243028
-0.029882424
0.0005001612
-0.03243362
-0.034431234
0.028526012
0.000556618
0.016251795
0.030090097
0.03407746
-0.0074184276
0.021484036
0.0038634427
0.027942058
0.028492998
0.02367495
-0.026738862
0.0040640756
-0.023374563
0.02035148
0.023981739
-0.0042066164
0.0036836788
0.02376819
0.026958626
-0.009145094
-0.0059291087
-0.010362055
0.029801708
-0.0058473647
0.029057596
-0.0045733284
-0.005528966
-0.031040385
-0.018233372
0.013892993
-0.0048069097
-0.016968584
0.014808103
-0.006379187
0.0016395114
-0.013830351
-0.023418223
0.019269787
-0.005224595
0.03155886
-0.013686961
0.023070112
-0.004927287
0.003400959
0.027766291
-0.02683965
-0.026443511
0.027114052
-0.02709058
0.027000781
-0.0145179555
0.026931938
0.020593278
-0.030627362
-0.016908268
-0.024736172
-0.03157515
0.021637887
0.004486937
-0.003030479
0.0111208
0.025764331
-0.03428021
-0.028932765
-0.008274598
0.026733752
0.03212359
-0.030250436
-0.025265098
-0.009944882
0.03378168
-0.02855367
-0.018624758
0.0037423111
-0.018823838
-0.03004589
-0.0112279225
0.031809356
-0.015107965
-0.029437276
0.0008769855
-0.030884113
-0.01537106
-0.021335423
-0.03173221
-0.016140748
-0.0006770678
-0.0051442944
-0.027651004
0.003556788
0.020147372
0.01124024
-0.009182112
-0.011278354
-0.028376397
-0.035568953
0.030744534
-0.020256571
0.02472271
-0.009953657
0.034137156
0.020761993
-0.031744283
0.00944756
-0.03444618
0.021196797
-0.02425534
-0.015818221
-0.0016159825
-0.030170664
-0.030373171
0.011287048
-0.022747725
-0.033654608
0.0041722544
-0.0055868123
-0.003697116
-0.015368011
0.018749885
0.02348888
0.02176046
0.017533459
0.033026937
-0.0013211742
-0.010639455
0.024332244
0.013838388
-0.0058486853
0.022483185
0.0011722445
0.023163602
-0.023999372
-0.020987367
0.0019006208
-0.03134324
0.01673545
-0.031557173
0.021371018
0.010195855
-0.020400971
0.027695004
0.0043727234
-0.02869902
-0.025723357
0.0044944175
-0.014317704
0.02018049
-0.0017294511
-0.03372082
-0.009326931
0.0052196383
0.00020693615
-0.030014431
0.0080476925
-0.021477232
0.01252009
-0.018485367
-0.01910752
-0.022192381
-0.034778386
0.026189387
0.018508464
-0.011404494
-0.035191942
-0.010493295
0.006671697
0.012522407
-0.007641822
0.00384596
-0.0146081075
-0.01899203
0.012296278
0.031780582
0.014745526
-0.03220796
0.009155259
-0.011948552
-0.0065815747
0.0066814423
0.006789673
0.017035492
0.033052843
0.028190318
-0.025486534
0.0064105876
0.0019057766
-0.015569909
-0.013032114
0.011454098
-0.032307994
0.030894283
0.035650376
-0.005373895
0.0054304264
0.011428881
-0.00625203
0.008150667
0.027029041
0.009268753
0.027067434
-0.02903723
-0.035688616
0.0058709383
0.0031841956
0.033822823
0.01039122
-0.034651127
0.025566608
0.0014002882
-0.009411199
0.0067672394
-0.0095652435
-0.03357867
-0.0020022579
-0.005726896
0.0024104752
0.006323725
0.01988393
-0.03501568
0.017876644
4.1522086e-05
-0.020176187
-0.034760524
-0.007864565
-0.02701031
-0.029051939
-0.02424705
0.024994526
-0.020134032
-0.0132983625
0.01257962
-0.025647812
0.02144083
-0.02484646
0.0035618842
0.030032884
-0.016023248
0.020351786
0.014725812
0.019348767
0.015258357
-0.0154857095
0.016081765
-0.0024324656
-0.03397976
-0.0011463426
0.030102614
0.031557206
0.015676875
0.027153734
0.023824703
0.007923394
0.0053587183
-0.02673193
0.023515895
-0.006477045
-0.0143840145
0.019708928
0.019309513
-0.017674617
0.020762105
0.030671496
0.005212128
-0.014109885
-0.033296186
0.029912401
-0.011296328
-0.0076145455
0.03198835
0.030509036
-0.035695337
0.02133524
-0.0074670184
-0.022416025
0.026907813
0.019939076
-0.01532788
-0.014181793
-0.027460542
-0.013677299
0.035614047
-0.010844052
0.0092319995
0.011791915
0.033817973
0.0025954545
0.009311188
0.032632206
-0.015871197
0.00046599656
-0.007931739
-0.0109718405
-0.021172533
0.03323775
-0.03371274
0.012196153
-0.025692135
-0.015347175
0.024258789
0.0060107782
-0.007746663
0.027367476
-0.021346787
-0.030554714
0.030043814
0.018055879
0.009506382
-0.014837509
-0.007680446
0.018595431
-0.0061734617
0.028468657
0.00443282
0.020042885
-0.026204102
0.025617514
-0.029367883
0.0075646006
0.025342051
0.0037432574
0.0059237815
0.005654875
0.03529491
0.01370972
-0.019470314
-0.023790527
0.0036617517
-0.009324014
-0.029515991
0.004273329
-0.0010527596
-0.0038516484
0.019544456
-0.012671666
-0.010588633
-0.023823718
0.014513433
0.023122285
-0.020372804
0.006030865
0.0059298053
0.025774356
0.0020384118
-0.010896241
-0.0040469766
0.019071773
-0.020092722
-0.034197107
-0.018789032
0.03529
0.014775474
-0.02898701
-0.01779544
-0.009708086
-0.024660483
0.029243004
-0.017686466
0.003578961
0.031599525
0.0312918
0.028465848
0.006012179
0.033970874
0.017184407
-0.010728296
-0.0045887753
0.020842906
-0.013856752
0.02392169
-0.01811028
0.014747538
-0.005135009
0.00469663
-0.013342159
0.015179511
0.015730117
-0.008736573
-0.004267074
-0.009511139
0.019319098
-0.010232041
0.010455914
-0.009976208
0.014318466
-0.014719194
0.02247044
-0.03188651
0.02170312
0.0033418722
-0.024398277
-0.0264168
-0.0012872107
0.025382474
-0.026405737
-0.022402395
0.016045209
-0.0045395065
-0.008227464
-0.028649833
-0.006041907
-0.0149615165
0.0021539815
-0.01719426
-0.007862121
0.033674423
-0.0223906
0.004572898
0.03470971
-0.010253072
-0.0058686603
0.008908559
-0.010517389
-0.0027068555
0.0007520877
-0.020341683
-0.009040935
0.02340949
-0.015713198
-0.03205459
-0.0070712194
0.0034382157
0.013323493
0.022878263
0.017931461
0.027055357
0.020111773
0.01307993
-0.005926745
-0.0076557267
0.021660227
-0.020610282
0.007088091
0.0240664
-0.0072776973
0.02797823
-0.022177195
0.01776801
-0.0015815198
-0.02568524
-0.014794955
-0.008564327
-0.007245468
-0.017695798
0.011132993
-0.0060028527
0.02305187
0.0070453472
0.01889196
0.0054635294
-0.0059900284
0.029405136
-0.024468407
-0.028429868
0.007962946
0.01693182
0.03003383
-0.002634205
0.032971654
-0.02669023
-0.029373303
0.009803779
-0.0115794
-0.027861975
0.0014243424
0.021600995
-0.029167866
-0.028291443
-0.03140691
-0.02488763
0.024639953
-0.011482662
0.022518795
0.03160097
-0.01789759
-0.00563398
0.009468395
-0.0096055325
-0.031963583
-0.014096217
0.020004973
-0.032235228
0.029364739
-0.019507784
0.031703796
-0.026309181
-0.03225971
0.022241864
0.010874547
-0.030408945
0.016824294
-0.030540135
0.0013080612
0.023146205
0.0029721148
-0.0009821989
-0.017851455
0.03387851
0.02437386
0.025355957
0.030089948
0.011753432
-0.0050135218
0.026800241
