0,1,2,3,4,5,6,7,8,9,10,11,12,13,14,15,16,17,18,19,20,21,22,23,24,25,26,27,28,29,30,31,32,33,34,35,36,37,38,39,40,41,42,43,44,45,46,47,48,49,50,51,52,53,54,55,56,57,58,59,60,61,62,63,64,65,66,67,68,69,70,71,72,73,74,75,76,77,78,79,80,81,82,83,84,85,86,87,88,89,90,91,92,93,94,95,96,97,98,99,100,101,102,103,104,105,106,107,108,109,110,111,112,113,114,115,116,117,118,119,120,121,122,123,124,125,126,127,128,129,130,131,132,133,134,135,136,137,138,139,140,141,142,143,144,145,146,147,148,149,150,151,152,153,154,155,156,157,158,159,160,161,162,163,164,165,166,167,168,169,170,171,172,173,174,175,176,177,178,179,180,181,182,183,184,185,186,187,188,189,190,191,192,193,194,195,196,197,198,199,200,201,202,203,204,205,206,207,208,209,210,211,212,213,214,215,216,217,218,219,220,221,222,223,224,225,226,227,228,229,230,231,232,233,234,235,236,237,238,239,240,241,242,243,244,245,246,247,248,249,250,251,252,253,254,255,256,257,258,259,260,261,262,263,264,265,266,267,268,269,270,271,272,273,274,275,276,277,278,279,280,281,282,283,284,285,286,287,288,289,290,291,292,293,294,295,296,297,298,299,300,301,302,303,304,305,306,307,308,309,310,311,312,313,314,315,316,317,318,319,320,321,322,323,324,325,326,327,328,329,330,331,332,333,334,335,336,337,338,339,340,341,342,343,344,345,346,347,348,349,350,351,352,353,354,355,356,357,358,359,360,361,362,363,364,365,366,367,368,369,370,371,372,373,374,375,376,377,378,379,380,381,382,383,384,385,386,387,388,389,390,391,392,393,394,395,396,397,398,399,400,401,402,403,404,405,406,407,408,409,410,411,412,413,414,415,416,417,418,419,420,421,422,423,424,425,426,427,428,429,430,431,432,433,434,435,436,437,438,439,440,441,442,443,444,445,446,447,448,449,450,451,452,453,454,455,456,457,458,459,460,461,462,463,464,465,466,467,468,469,470,471,472,473,474,475,476,477,478,479,480,481,482,483,484,485,486,487,488,489,490,491,492,493,494,495,496,497,498,499,500,501,502,503,504,505,506,507,508,509,510,511
0.007302388,-0.022485299,0.11464085,-0.045600664,0.033202298,-0.0020717198,-0.0810485,-0.0010266571,0.072262414,0.015441459,-0.019940343,-0.07819064,0.05178631,-0.051709156,-0.0045959274,0.008911144,-0.0040422496,0.013471026,0.00028440755,0.081070125,0.005617558,4.1696552e-05,-0.060155947,-0.0024301037,-0.083499596,0.005867674,-0.01090245,-0.02755014,0.012152738,0.017160814,-0.04397465,0.0075576575,0.014536925,-0.058299888,0.093381934,0.046656776,0.011846028,0.0041865935,0.02970662,0.013753974,-0.002104031,0.06051011,0.050508246,0.07497309,-0.064568676,-0.04077411,-0.005993111,-0.104860716,0.06769115,-0.003060403,-0.06298676,-0.05476276,-0.016432704,-0.006657631,-0.08448603,-0.015873251,-0.10698871,-0.012467554,0.021794029,0.026891032,-0.033763193,-0.06555319,-0.0062368396,0.07369532,0.04402295,0.0025088666,-0.020876506,-0.01995311,0.094354115,-0.00904053,0.03436738,0.05973931,0.019442165,0.04510456,-0.031456262,0.10138521,-0.039617844,-0.0155521585,-0.0086752605,-0.076618426,0.044138946,0.00068300456,0.017632486,-0.040183492,-0.069004804,0.075205006,-0.07485509,0.104293354,-0.09694887,0.11591381,-0.018530918,-0.06948737,0.012997243,-0.013673903,-0.01911324,-0.015486973,0.041198947,-0.045906268,-0.024863984,0.029449401,0.03759064,-0.020922137,0.0047046444,0.13153891,0.077160485,-0.034626726,-0.051928665,0.0049805655,0.057287622,0.08064887,-0.011406016,0.011183702,-0.052446213,-0.0018449953,0.017890641,-0.018483985,-0.011947843,-0.023732955,-0.007842201,-0.046100408,0.031271357,0.009867144,0.048695583,0.05666205,-0.03423265,0.02804147,0.07054463,0.011578002,-0.051357526,0.06978404,-0.02823349,0.030842261,-0.014069513,0.04798504,0.01741141,0.03230798,0.0003780226,-0.08042597,0.01886131,0.08804659,0.112623885,-0.08289797,-0.027599458,0.0011790862,0.01776232,0.077889584,0.06251881,0.08100193,-0.00551901,-0.037905555,-0.006039795,-0.11903189,0.043223675,-0.0062178713,0.001549346,0.086581305,-0.031840015,-0.060044345,-0.022491999,-0.018335301,0.0029470013,0.0079431385,0.018590534,0.046115946,-0.01874188,-0.020169979,-0.018745983,0.06154911,-0.06802595,-0.0037716532,-0.043404806,-0.018129706,0.03242481,-0.016703254,-0.017229792,0.00019722006,-0.0029424026,0.04188699,-0.004980081,-0.0062832,0.0011781192,-0.0072159227,-0.12775683,0.04915907,-0.038549203,-0.044244498,0.003231867,0.009163478,0.039096195,-0.021399142,-0.10820565,-0.06989727,-0.02132104,0.046990782,-0.015874831,-0.07007653,0.009548308,0.018411757,-0.011746395,-0.0053791846,0.06347782,0.11946016,0.019449167,-0.009264981,-0.011488552,-0.05509161,0.03885348,0.026134642,0.028593812,0.0012713174,-0.069475524,-0.005575543,0.0056296205,-0.013990406,0.057105176,-0.09996655,-0.040554125,-0.007917952,-0.06773076,-0.016921058,-0.055498533,-0.028442165,0.033123482,0.10277483,0.0049167164,0.023927942,-0.040816262,-0.05999022,0.027648326,0.0057883183,0.051230833,-0.015537323,0.061437424,0.007786208,0.04429277,-0.047196273,0.009374936,0.015510438,0.0009802157,-0.016344659,-0.017930873,0.02446872,0.06924916,-0.06622492,0.01003752,-0.034082614,0.100369,-0.016576549,-0.045923393,0.072203904,-0.016318029,-0.046730697,-0.105350554,0.03997713,0.05613724,0.022031631,-0.046955775,0.07474152,-0.06601049,-0.0021726885,0.05787196,-0.019310953,0.007705812,0.030064622,-0.02714401,-0.0018814375,0.0044340217,-0.025436774,-0.019260243,0.04481845,0.024653886,0.03744734,-0.072742954,0.057542782,-0.022807464,-0.0060330206,0.02715387,-0.014451514,-0.03390587,-0.018422414,-0.006601127,-0.06303609,-0.019076426,0.004943236,-0.047968477,-0.002467999,0.055584624,0.0131795835,-0.02722086,-0.026996382,-0.012202997,-0.01202674,0.013491514,0.008125471,-0.009916205,-0.034964286,0.05008401,0.00028141306,0.04240037,0.01869832,-0.0069698156,0.046867054,-0.051736943,0.08065816,0.033070464,0.0472221,0.012109266,-0.08457892,0.03607952,-0.050479416,-0.008517076,0.0011190166,0.026130263,0.044258352,-0.021192597,-0.11625053,0.01104865,0.018369889,0.060383376,-0.010954601,0.08408833,0.023870314,0.013565078,0.034541644,0.0043396517,0.032327883,0.04968635,0.0936651,-0.020622244,-0.03666705,0.11072102,-0.025006857,-0.0006062819,0.0029267035,-0.005735121,-0.03038792,-0.016563756,0.012477218,0.005450611,0.06514076,0.0015931536,0.009320274,0.006164484,0.05517295,-0.005416071,0.008854185,-0.046200357,-0.0012930352,-0.028425654,-0.044487927,0.0012090539,-0.07277101,-0.0057919635,-0.035174903,-0.05242679,-0.042963468,0.0049781767,-0.06665131,-0.0019062641,-0.105847,0.016328381,0.057161964,-0.03426871,0.0043613743,-0.0203443,-0.032249168,-0.066131026,0.0011075924,0.026367106,-0.039564047,-0.008919911,-0.09087176,0.020211976,-0.02437164,-0.016643513,-0.016293013,0.005239933,-0.0036913897,0.103841506,0.03823042,-0.0058207014,-0.03211455,0.0008786664,-0.0143866,0.016066313,0.060124375,0.08326936,0.08754711,-0.09208241,-0.0038016888,0.0743268,0.0068544783,-0.005047987,0.014328451,-0.04395226,0.046607815,0.056250084,-0.032414448,0.03608256,-0.062398612,-0.06267766,0.040072888,-0.039181292,-0.021135561,0.060528267,0.017555596,-0.0940293,0.014531731,-0.087605596,0.020398112,0.043206573,0.018615572,-0.03603849,-0.10879587,-0.024743685,0.0017549862,0.012666978,0.10693557,-0.03452504,-0.08708893,0.01775344,-0.043170955,-0.0018716733,0.017306259,-0.045258205,0.029306808,-0.07354187,-0.046607904,0.0903144,0.01658525,0.118572384,0.14951359,0.04820724,-0.09428739,0.08087629,0.017693382,0.013810553,0.037697554,0.005590173,-0.06494278,-0.013096935,0.0029069465,0.0984582,-0.02065791,-0.0037774593,0.0742097,-0.02018897,-0.011105833,-0.09336631,0.00991394,-0.024808444,-0.009778736,0.06988163,-0.042066965,-0.044383742,0.055438302,-0.034515467,0.009890932,-0.00021502991,-0.030000871,0.035664573,0.0022115454,-0.0014890172,0.013284124,0.09575821,0.007912394,-0.018817103,-0.07031962,-0.025811108,0.0013661099,-0.012210858,-0.059040386,0.058037538,-0.0067103268,0.03312225,0.043787386,0.06936044,-0.070358105,0.009137404,-0.005376695,0.023144124,-0.014521258,0.07681665,0.016649665,-0.08574514,-0.05102201,-0.01604216,0.070189305,0.040900677,-0.0006510162,-0.0024438046,0.01383648,-0.06063932,0.045679346,-0.03984719,0.1346076,0.080837294,-0.021610532,-0.024893671,0.030282084,0.041908044,-0.07835357,-0.01949589,0.021700656,0.0023362914,-0.14847308,0.07258098,0.035061963,0.00452963,0.013116585,-0.10336116,0.07670016
0.093467526,0.0032696964,-0.021186678,-0.13456744,-0.03135737,-0.045542795,-0.12906145,0.015466273,-0.04292214,-0.013182431,-0.006143465,-0.03932612,0.037786838,0.054746095,-0.0104342215,-0.01130887,0.011459307,-0.0027211728,0.0042569246,-0.09578285,-0.0178888,0.08003905,-0.067272596,0.011991714,0.097389266,-0.0064902743,-0.11360425,0.020761747,0.06488179,-0.0132316565,-0.082961686,-0.023488674,0.0017253654,-0.00044836063,0.0723399,-0.06840675,-0.013505975,0.08251154,0.047187652,0.037365913,0.018585606,0.05711461,-0.01257822,-0.07240281,-0.098118685,-0.0337217,0.094066516,-0.050100002,-0.0447065,0.10914496,-0.030332215,0.0066323,-0.02005588,0.0003586212,0.051733248,0.018441424,-0.07671558,0.00090299046,0.08313714,-0.021809908,-0.07146182,-0.03979561,-0.0070744664,0.040183946,-0.0036115476,-0.007885225,-0.022575404,-0.03668061,-0.062040936,0.007556191,-0.021834575,0.019912213,0.037630986,-0.044476923,-0.1120576,0.127997,0.010682418,0.13931195,-0.0029305269,0.00030051218,0.006950448,-0.048484422,-0.09545354,-0.080959186,-0.14029811,0.04491546,0.14053607,-0.0052169547,0.018228935,0.05850257,0.064781375,0.028700521,0.019471627,-0.012976677,0.011784775,-0.0101372665,-0.03498263,-0.03832932,-0.095287874,0.18532044,0.019469285,-0.017154701,-0.06885398,0.045726433,-0.0361066,0.029623233,0.047397904,0.007872799,0.039761305,-0.11123233,0.013341111,-0.023899926,0.1330773,-0.022719363,-0.05301878,-0.003269137,-0.017882258,-0.19128577,-0.017139407,-0.07330177,-0.0008844751,0.014406089,0.012276608,0.07919559,0.03210125,-0.02444111,-0.15721658,-0.035141036,0.004167887,0.021848734,-0.031406637,0.08761695,0.084251896,0.047928836,0.038990397,-0.1331183,-0.013865415,-0.11251858,-0.014098813,0.057275012,0.033330634,-0.06686384,0.11743538,-0.0011308645,0.013838961,-0.0026193021,0.13302022,0.012564292,0.010623131,-0.08936359,-0.00613652,0.033254545,0.07223358,0.013133053,0.006059048,0.017135195,0.028977243,-0.13609523,-0.07309977,-0.008041362,0.002776272,-0.02816422,-0.013975242,0.14519271,0.0075354963,-0.07538314,-0.011167244,0.02842742,0.11381664,-0.036257233,0.020779766,-0.0067647337,0.1508486,0.04431693,0.038178187,0.004869203,-0.017862879,0.033005103,0.026915908,0.017696688,0.05493688,-0.044963535,-0.09307965,0.09908821,-0.05646525,-0.026356896,0.039462082,0.038595233,-0.066232584,-0.008034963,-0.08594096,-0.07781185,0.014487826,-0.020278845,-0.062225748,-0.042664826,-0.01183154,-0.0026174157,0.035285365,0.07116663,0.016011367,-0.0019160911,-0.019077381,-0.11720267,0.0050291987,0.11796983,-0.09339551,-0.008854815,-0.057949167,0.09073789,0.05161662,0.014730946,0.0074930084,0.011441081,-0.006400122,0.0020853796,0.03727743,-0.040514685,-0.09933598,0.08826164,0.044354234,0.021241982,0.04746177,-0.08150452,-0.026064066,0.00246655,-0.0052887257,0.009073556,-0.05190501,0.12655035,0.06605735,-0.022085749,-0.11254703,0.006886112,-0.008633313,-0.020663433,-0.0047696372,-0.009299289,0.002679775,-0.009158356,0.05146787,0.035945278,0.045428675,-0.018866768,-0.05282829,-0.10220376,-0.05969787,0.01462955,0.044937477,-0.008359075,-0.06885929,-0.0005738256,-0.07834978,0.06141225,0.046028674,0.04913581,-0.0013378919,0.009358054,-0.06841825,-0.0154775325,0.03146199,-0.012359742,0.017790727,-0.05634219,-0.020425726,-0.037671868,0.048424058,0.08623683,0.017793525,0.0031718086,-0.030492585,-0.077948764,-0.10172956,0.10152027,0.058183134,-0.14194609,-0.13228014,0.01579177,-0.03279713,-0.01799556,-0.10068684,-0.13334307,-0.025149457,0.008607881,0.08097481,-0.014841555,-0.049503356,-0.019981101,0.06737743,-0.03760633,0.013494804,-0.0064688823,-0.019309128,0.008048481,-0.0007250905,-0.018106539,0.1310117,-0.005817846,-0.056227818,-0.13421613,-0.017169986,0.095037095,-0.05958818,0.05048522,-0.0007298063,0.07465499,-0.019203106,0.025209272,-0.12704858,-0.02316375,-0.007616577,0.01626457,-0.014622791,-0.017219834,0.061235107,0.15254895,0.015907254,0.0102158915,-0.06596377,-0.008605171,-0.045741506,0.0068136193,0.1871684,0.13051677,-0.016172228,0.0077160583,0.029301066,-0.061298702,-0.0077869496,0.09133804,-0.0011956638,-0.014900824,-0.013931086,0.010853429,0.0306413,-0.11807677,-0.03624097,0.012055924,-0.023606166,-0.032641757,-0.06936152,0.059551988,0.009404007,-0.022477623,0.01064833,0.018065913,0.10814483,-0.026276719,-0.021540565,-0.10782787,-0.020437807,0.00743109,-0.02983575,0.104486965,-0.10260493,0.041814618,0.08072066,-0.017445337,0.07003559,-0.12385747,-0.010357725,-0.0358228,0.11123167,0.02275132,-0.0024856657,0.088208534,-0.06273388,-0.0073882733,-0.0067105615,0.071142346,-0.0090550035,-0.07952847,0.009824122,-0.048805844,0.039758697,-0.0038415187,-0.0041020024,0.15463541,-0.14192514,0.0072406097,0.004521297,-0.06964473,-0.01822417,-0.12173281,0.019373607,0.06461641,-0.15367916,-0.0393605,-0.082004875,-0.07957602,0.121324904,-0.022306096,0.0059859436,-0.013264017,0.03748848,-0.01422185,0.08594371,-0.0032481146,-0.026556311,-0.07686589,0.08251533,0.11861869,0.17695406,-0.033289533,-0.002039211,-0.0026549743,-0.027010333,0.009404616,0.066326894,-0.11399335,-0.023840273,0.018619308,-0.0092282975,-0.017800948,0.014524099,-0.008010364,-0.0014898597,-0.010538658,-0.040049512,-0.09757314,0.007717917,-0.06077805,0.0935654,0.007868676,-0.14717902,0.06995107,-0.023619778,-0.109736264,0.07488427,-0.08260005,0.04861475,0.027200352,-0.07531226,0.1344533,0.041166402,-0.06339874,-0.022545438,-0.008343528,0.04516248,-0.111240864,0.0065981387,0.016295666,0.0069319243,0.14271837,0.008324,0.038034987,-0.1351228,-0.010779896,0.08865667,0.12305563,0.08972299,0.017548965,0.04956282,-0.05247863,-0.068102725,-0.04065683,-0.08500744,-0.03311632,-0.004724438,0.06499883,-0.09655217,-0.016633805,0.013849942,0.017191472,-0.04754903,-0.023565054,0.021377048,-0.008842801,0.065424114,0.009077239,-0.012743632,0.027188139,0.038808163,-0.018952899,0.0016117744,0.039072,0.0939428,-0.00980136,0.004675079,0.07790732,-0.012679056,0.016361034,0.07804775,-0.049859792,0.043714315,0.021756817,0.0059434148,-0.011246945,-0.0133229345,0.055035044,0.049161658,-0.010298702,-0.037145875,-0.04645013,0.051120326,-0.06084814,-0.0022472716,-0.046637155,-0.046084985,-0.008019515,-0.00036395583,-0.11888772,-0.008069345,-0.014911238,-0.00072788505,-0.110032625,0.006499408,0.07396264,0.011970632,-0.016528226,0.1100828,-0.017749399
-0.02707882,-0.007320332,-0.011851834,0.05216505,-0.03643732,-0.033542268,-0.022269651,-0.019803273,-0.0028711292,0.017652025,-0.004159137,0.056859788,-0.034727905,0.064427845,-0.010047362,-0.0034836468,-0.015596293,0.0070774676,-0.0034855464,0.03349137,-0.033591617,0.030825408,0.012196287,-0.018864458,-0.048068255,-0.0062953113,-0.07850859,-0.023030663,-0.030027978,-0.01797799,-0.13490756,-3.0678428e-05,-0.0057326728,-0.100275144,-0.025994308,0.08622127,-0.014373043,-0.016494583,-0.058107983,0.07647304,0.0018936365,0.0512499,-0.019978812,-0.0015809351,0.028455097,-0.033165988,0.06366282,-0.043141317,0.081059806,-0.029444009,0.0015540676,0.050101355,-0.04253319,-0.011927299,-0.0771845,-0.015417712,-0.06759328,-0.00035605975,0.0025627126,-0.10058238,-0.050361935,0.019078458,0.035766236,0.016824994,0.017094018,-0.017609954,0.012890706,0.118907414,-0.003544389,0.008399025,0.08417284,0.014578849,0.019048307,0.020718874,-0.067286775,-0.00949832,0.0049164523,-0.08428908,0.010476426,-0.06496685,0.05472379,-0.0077640098,-0.032599166,-0.0664811,-0.1348568,-0.015469756,0.054236244,0.071275376,-0.03442431,-0.06255994,-0.031410594,0.0560316,-0.02537237,-0.009168433,-0.014892779,-0.015767708,-0.008648788,-0.031861875,-0.06848969,-0.029948832,0.056982078,-0.08619066,0.008989318,0.10674968,-0.022038523,0.046733174,-0.0017382986,0.0033672377,-0.040658567,0.12006977,0.013673425,-0.055431567,0.048447832,0.01668138,0.083889164,-0.0070629655,-0.02094042,-0.021348411,-0.0020049417,-0.10232645,-0.027995376,0.039740805,0.047880083,-0.05682712,-0.017550025,-0.080088325,-0.068727136,-0.0160576,-0.011890962,0.009565497,-0.029520636,0.04041463,0.08706227,-0.004037729,0.14498782,-0.053080287,0.005212232,-0.08117026,0.024696982,0.013354773,0.09997956,-0.09711538,0.10625023,-0.007601589,-0.048919756,0.036079302,-0.031004671,0.0663789,-0.057690956,0.098940484,-0.017957276,-0.006924601,0.118179984,0.0019224067,-0.0057117143,0.017169021,-0.04147064,-0.039008327,-0.013311748,-0.00016211957,0.010092525,0.0072892285,-0.014680561,-0.11884761,0.014508824,-0.006310445,-0.0029453244,-0.055132158,0.023322841,0.050576203,-0.0076493127,-0.019452399,-0.114325754,0.040350705,0.01066724,0.000513788,0.016020024,-0.08498424,-0.0128640225,-0.01884942,0.03187185,0.045532946,0.039719444,0.02463196,-0.035968523,-0.059470963,0.04613809,0.005702191,-0.019300656,-0.031746197,-0.06950678,-0.06744085,-0.022675755,-0.010540282,-0.032278262,-0.067466974,0.014888024,-0.014778348,0.026378244,-0.064633355,-0.011774747,0.03443273,-0.004902046,0.08133502,-0.005372601,-0.05026017,-0.06963318,-0.006656173,-0.0155280605,-0.07537179,0.02111577,-0.0059129074,0.019798301,-0.034222826,0.011258738,-0.122514375,0.032529388,0.04414248,-0.035414863,-0.015288086,-0.010055217,0.026992306,-0.031519167,0.09126731,0.07768605,0.03661491,-0.015647694,-0.022602867,-0.059837677,0.012339583,-0.039797217,0.0025465658,0.039867174,-0.018437786,0.005369709,-0.008777995,0.011313643,0.009984321,0.03662351,-0.0080843605,0.051887326,-0.015954345,-0.023130408,-0.002300505,-0.0032948367,0.019847888,0.055954125,1.31529e-06,0.007230068,0.004392639,0.028197587,0.021279683,-0.029328015,-0.031203244,-0.07047267,0.08657944,-0.013565414,0.011194489,0.018571654,-0.01807038,0.014992193,-0.0047006095,0.0009421742,0.013995169,0.027361816,-0.1313634,-0.004182741,0.01380153,-0.025993764,0.00027553368,-0.011586327,0.07425752,-0.011914973,-0.12150602,-0.027136592,0.015709765,0.010832214,0.016241593,0.09643595,0.029140832,0.027116446,-0.11454401,-0.06522594,0.043044727,-0.0026877818,-0.004678704,0.041281328,0.017593719,0.06699936,0.05738893,0.00079382624,-0.016497433,-0.0038890776,0.015371103,0.012703548,0.032470655,0.068674274,-0.018561888,-0.015355969,-0.026854489,-0.049240533,0.059108537,-0.032184042,0.07801801,-0.035390683,0.028631017,-0.0005650537,0.020691695,0.039167907,0.026155224,-0.0010165382,-0.0071300697,-0.05333456,0.017336542,-0.0432223,0.026877474,-0.010682275,0.021769753,-0.0051583373,0.016432881,-0.005206479,0.08594484,-0.0043157446,-0.02726905,-0.016546408,0.034141302,0.008233183,0.034531333,-0.029777769,0.038887225,0.16943409,0.046425056,-0.014358791,-0.002523461,0.07972919,-0.07756199,-0.036836304,-0.019631106,-0.1085696,-0.04759325,-0.024057057,0.020450404,0.013584046,-0.012701972,0.0035856443,0.012847348,-0.05883878,-0.096674174,0.04523987,-0.0835517,-0.04268804,0.038741488,-0.041347485,-0.03665907,-0.057713788,-0.039637573,-0.079664536,0.0017931322,0.06916454,0.06281182,-0.022095818,0.048996266,0.05950246,0.021166455,0.011765442,-0.07241336,0.017265845,-0.031173179,-0.051923204,0.068552524,-0.101168126,-0.036779817,-0.022735348,0.0011187111,0.007068997,0.0027858936,0.0055200225,0.004730508,0.13429768,-0.002106286,-0.017609283,0.034768555,0.004391959,-0.05804215,0.015263278,-0.07539247,-0.0302344,-0.03718551,-0.023973402,-0.03122456,0.014891603,-0.078413665,0.015615236,-0.0487388,-0.00858037,0.055624094,0.07963123,-0.032520898,-0.06828533,0.04298204,0.022639448,-0.060359262,-0.01839819,0.10891814,0.0046203854,-0.014998106,-0.12786607,-0.003288401,-0.03087192,0.025856936,-0.020071862,-0.0011465006,-0.02311428,0.0324648,0.027978318,0.005636933,-0.009335908,0.06276409,-0.0238371,-0.0068009146,0.016293757,-0.07077076,-0.031632036,-0.010707527,-0.094448864,0.05987212,-0.07208477,-0.09512141,-0.12205868,0.039870713,-0.019430721,0.04001026,0.0073164306,0.033782132,0.035124887,0.05141912,-0.10169194,-0.02113109,0.0068860273,-0.04302949,0.008160621,-0.0004120527,0.05135666,-0.09586563,-0.030293038,-0.06619756,-0.10894755,-0.01729723,-0.034828633,0.12433533,-0.033989444,0.0048350724,-0.04394877,-0.03838447,-0.027092904,-0.008477638,0.03307946,0.0041439785,-0.013774554,-0.000886817,-0.051403698,-0.026831102,-0.006112307,-0.006521616,-0.015024208,-0.039068684,0.074542455,0.009666981,0.049201366,-0.007942471,-0.0024932206,-0.015787117,-0.04996746,-0.01357311,0.05456443,0.008649616,-0.13357528,0.030773735,-0.00010236719,0.026523367,0.037253376,0.00027087037,0.015902467,0.018057836,-0.046144694,-0.016392373,0.012719503,-0.008984701,0.004584062,-0.019953791,-0.011438775,0.0063189855,-0.015475912,0.08513783,0.037087224,-0.0143982135,0.0065321624,-0.043117236,0.08804826,0.043761093,-0.0093568815,-0.071719736,0.019839589,-0.022458542,-0.032830153,-0.047753446,0.013499876,-0.016446926,0.013972593,-0.019055296,0.007896685,0.03718107
0.045604177,0.0087454785,0.023113614,-0.026209055,-0.06246696,-0.05081863,-0.06270495,0.002735162,0.056083404,0.004159656,0.018931648,-0.07164428,0.007008193,0.034254503,-0.0071115056,-0.023576636,-0.0035867894,-0.010268802,0.01589671,0.055668395,0.09133215,0.04398141,0.028983472,-0.03137791,0.0010993219,-0.008472295,0.0117142,-0.0009353785,0.027650854,0.011304997,-0.032054726,-0.03172604,-0.049818687,0.00932852,0.09942477,0.01890914,-0.03739853,0.06393485,0.009418567,0.00793094,-0.01004438,0.053305205,-0.00062631705,0.011103392,-0.06198518,0.014253996,0.017964885,-0.075113215,-0.099607565,0.038997088,0.022397406,-0.044557165,-0.0508961,-0.019279877,0.024212755,0.030940607,-0.011117484,0.0004642524,-0.010178612,-0.020055601,0.028416157,-0.046748035,0.044656225,-0.050110124,-0.037415106,0.019356737,0.0007159294,-0.042530425,-0.06101567,-0.019769305,-0.012102565,-0.010194649,0.03594863,0.006119049,0.0043485854,0.11092969,-0.003310352,0.047271833,0.001829435,-0.00039820018,0.028597878,0.00093875104,0.026023319,0.038053367,-0.001990224,0.026612123,-0.04274646,0.08054391,-0.018063642,0.011984726,0.012326965,-0.043935318,-0.01998345,0.01934846,-0.011649251,-0.006003699,-0.04208753,0.021563135,-0.02000747,0.07563802,0.045881465,0.043304,0.0062801526,0.09393748,0.012237013,-0.043054197,0.025637064,0.0137577,0.02646373,-0.06363131,0.016486935,0.016978038,-0.059224226,0.03828082,-0.03307394,-0.019336022,0.0016049258,-0.024218312,-0.011005919,0.000592625,0.0022636778,-0.014473754,-0.046453524,0.0176385,0.07706699,-0.020143451,0.040317003,-0.0044424706,-0.06236136,0.089430295,0.062115308,0.028294591,0.04928431,-0.0029696363,0.030496417,0.05077775,-0.004799925,0.0011999795,-0.026211001,0.05559631,0.055254925,-0.053618193,0.005535198,-0.011274278,0.03389156,0.069263145,0.0054162834,0.03284877,0.032321475,-0.117815025,-0.020170229,-0.03406468,0.021504013,0.008100152,-0.0047692214,0.019924784,-0.0067449184,0.014640072,0.01671987,0.0035669033,-0.011420611,0.004983689,-0.0036423334,0.044309385,0.06994853,-0.014659198,0.00015576881,-0.037719063,-0.019356769,0.019172044,0.007231509,0.01364959,0.07075814,0.008327962,-0.017209722,0.008598414,0.0034743564,0.006497238,-0.013157296,0.00991333,0.047243964,-0.069632895,0.0127060795,0.09100826,-0.0046049273,-0.026467089,-0.03410051,-0.0022643753,-0.0070355013,-0.014869133,-0.035280123,0.00841714,0.040720195,-0.0028634719,0.0724882,-0.022975393,-0.009163467,0.0015365297,0.028156402,0.056815587,0.040761303,0.014710532,0.0028418638,0.022933552,-0.00794969,0.097417235,0.08901952,-0.014202463,-0.038364552,0.049492642,0.024822894,-0.00093396235,-0.0061951317,-0.019814366,0.06818248,0.089872964,0.034797765,-0.073689,0.029373199,0.03315806,0.008737977,-0.030191425,0.0035935931,0.046465095,-0.011674823,0.0015133272,-0.07175025,-0.021496933,-0.02685088,0.114993125,0.052356713,0.012653145,-0.09265505,0.0108006755,0.047783375,-0.0010492335,-0.009189012,0.01117071,-0.019805208,0.01631035,0.06791834,-0.02715268,0.08768944,-0.080837116,0.05565514,0.012265668,0.06835616,0.009650276,0.011817365,0.070863284,0.009850181,-0.030064827,-0.045951825,-0.01629875,-0.044553034,-0.024827318,0.029785557,-0.013074827,-0.0029554209,-0.0015482464,-0.05289941,0.004229726,0.011308793,-0.0073669762,-0.06550507,-0.027015492,0.040637348,-0.017822687,0.022955585,-0.038583674,0.0036524122,-0.08012245,-0.008020137,0.08063962,-0.010092999,-0.034373075,0.012989116,-0.0006888818,-0.053957313,0.010581408,-0.014026177,0.02662429,-0.06825155,-0.012316405,-0.014928957,-0.0005165495,0.031023148,0.012317326,-0.036187608,-0.04759063,-0.008402531,0.0004951447,0.014036705,0.013018376,0.0047574597,0.05195481,0.013040808,-0.032453835,0.017864255,0.012215759,-0.05426885,0.0815808,-0.0015286137,0.054157652,-0.0008495261,0.09398806,0.0008011673,0.0063750306,0.015323321,-0.028132038,-0.016575811,0.00016919193,0.14386159,-0.007193809,-0.024819192,0.011139891,-0.023528447,-0.05633801,-0.033634115,-0.010986875,0.06867494,-0.010244632,-0.022600656,0.09859937,0.0010957493,-0.022273974,0.051613346,0.0011534123,-0.07377597,0.020037802,0.004725824,-0.035048727,-0.01499798,0.0051863976,0.004284914,0.024088562,-0.039832566,-0.023228426,-0.019462192,0.029700197,0.014967816,0.02591648,-0.016877344,0.06753726,7.49248e-05,-0.010499223,0.041596647,-0.067343116,-0.009658447,-0.0077832043,-0.058927994,-0.047786266,-0.052659225,0.019729665,0.06891419,0.0654159,0.04405442,0.013788547,-0.026566457,-0.103981495,-0.02286558,0.007766915,0.06531695,0.007846635,-0.01888461,0.076056965,0.025600214,-0.0039785923,-0.020971427,0.02531144,-0.037093297,-0.08380814,-0.016111132,-0.0004386601,-0.016245315,0.018828802,-0.026452405,0.0846347,-0.049911905,-0.033590257,0.00418621,-0.017552508,-0.019988932,-0.017823696,0.0010104085,-0.015997073,-0.02896274,0.0072890706,-0.02361299,0.048089985,0.08233332,-0.04412316,0.016946819,-0.02104776,-0.0037294347,-0.072063215,-0.009083181,-0.021342184,-0.0707422,-0.051020864,0.06263733,-0.0008417076,0.05565144,0.0005012143,0.0065400316,-0.03501009,-0.045498893,0.013392982,0.06874846,-0.050174776,0.023466254,-0.02360952,0.07033341,-0.03533963,-0.022211617,-0.0150880935,-0.028157936,-0.07671571,-0.058613718,0.02262194,-0.014594749,-0.016676296,-0.031097893,-0.015452945,-0.019708851,0.11028795,0.016624628,0.088495985,0.007914765,-0.01911511,0.049996555,0.09730861,0.0073188143,-0.02347097,0.060260713,0.01696757,-0.03375315,0.04585269,-0.0025233235,0.024462713,0.00840542,0.0037644529,0.023607766,0.059592452,-0.009096877,-0.03029793,0.06917907,0.015754357,0.03980246,-0.027720442,0.073380835,-0.0049911737,-0.022562958,0.06301241,0.063597836,0.0039366027,0.030052898,0.018679049,0.0064188302,-0.0017489152,-0.0062638824,0.0152704045,0.013302514,0.00973288,0.122230925,-0.0322036,-0.061045203,-0.044942457,-0.02261029,-0.05678971,-0.00051866355,0.010486777,-0.025855288,-0.014922395,-0.041086134,0.11630189,0.07527155,-0.010168698,-0.013170581,0.076144576,-0.02716337,0.004715874,-0.012913039,0.045876946,0.021166135,-0.012929303,0.016083105,0.037777934,-0.02556031,0.03786098,-0.010708359,0.0059225624,-0.08487011,-0.01176112,0.10496739,-0.010868886,0.060606893,0.022731634,-0.043186147,0.09898826,0.019006949,0.04620476,0.015308169,-0.019739699,-0.021398459,-0.040487356,0.08173601,0.03140263,-0.0010041932,-0.008863824,0.0075871316,0.05007999
0.052772623,0.0055511035,-0.07496467,0.02018862,-0.10762766,0.03787681,0.07283305,0.0014493272,-0.04523713,-0.020454595,0.0014777578,0.008741555,-0.010647555,0.16168782,-0.003651967,0.0035882273,0.0017844538,-0.023232566,0.0023823963,-0.0096426895,-0.032636885,0.09224957,-0.049743388,-0.030080805,0.037455037,0.012639815,-0.057706937,0.050177827,-0.028255386,-0.015151199,-0.05578811,0.026511816,-0.0160227,0.014852981,-0.03592438,-0.08954683,-0.07038692,-0.045398504,-0.030894121,0.006354839,-0.00562799,0.04318897,-0.00863155,-0.04619975,0.02953359,0.026484719,0.08572869,-0.011124421,0.05614744,0.036661524,-0.016279146,0.025887419,-0.008285238,-0.01933856,0.06301401,0.017546045,0.09540699,0.005893832,0.017803583,-0.054925907,0.016330553,0.07853426,-0.022654375,-0.02999755,0.008109227,-0.005714762,-0.021201743,0.056220733,-0.013512075,0.0027656178,0.02969622,0.02079677,6.376656e-05,-0.057994794,0.035004187,-0.023629347,0.047291625,0.0003779846,-0.010590413,0.047944687,-0.025420021,0.047372375,-0.06382018,-0.02721689,-0.015245763,-0.038324025,0.06842583,-0.040818635,0.039990336,-0.00038490957,0.008510923,0.07825171,-0.00761487,-0.019259686,0.0011691138,-0.04249856,-0.06776751,0.021094358,-0.046420217,0.023649333,0.056609623,-0.03933947,-0.016425245,-0.038001664,-0.07336414,0.034549233,-0.0073489854,-0.039499655,-0.008050516,-0.041125212,0.0031013917,-0.012703777,0.08044514,0.00017202744,0.05303245,-0.0026300866,-0.04576832,-0.017439188,0.019048395,0.02112755,-0.017994778,-0.018667545,0.047431245,-0.025720997,0.022253014,-0.0327587,-0.12690276,-0.09533057,0.0638471,-0.05673997,0.027076941,0.036533877,0.044212367,-0.01489807,0.04431581,-0.09107091,-0.016109139,0.02700002,0.0537305,-0.0003382413,0.078536525,0.028087579,0.08372,0.08266626,-0.05506128,-0.06278762,-0.0049040597,0.02215448,-0.040822066,0.07291384,-0.021290982,0.106665455,-0.0062942756,-0.0058187665,-0.032623496,-0.036658365,0.066368684,0.0009843807,0.035796724,-0.01483209,-0.014860496,-0.04038907,0.0062989867,0.015894791,0.0051874267,-0.009827876,0.019434854,-0.020971406,0.12996379,0.02481405,0.05623161,-0.005520729,-0.044272326,0.052804112,-0.015751584,-0.00240413,0.01021346,-0.03715676,-0.022711132,0.017534645,0.023801629,0.013672703,0.07581867,-0.08026841,0.0141699845,0.026454385,0.04303599,-0.020943232,0.00922578,-0.007111779,0.058436852,0.009540922,0.017928502,-0.05074102,-0.00024954692,0.025800472,-0.06654617,-0.0063657747,0.05655572,0.061877646,-0.0020841265,0.007077235,0.01944437,0.01671276,-0.012749685,0.018188175,-0.07879865,-0.019800488,0.025785346,-0.014432119,0.03321693,-0.016862439,0.011110644,-0.0067967097,-0.09255796,0.022829328,0.07458226,0.05682146,0.030991122,0.08445623,-0.00495366,0.04498094,0.075000316,-0.023756415,0.028990138,0.016133744,0.012451229,0.08473416,-0.034110986,0.1253327,0.05019927,0.0024538497,-0.06823674,0.012375533,0.08109183,-0.005998715,-0.009144964,0.018409053,-0.000663568,-0.013963593,0.08200053,-0.029650688,-0.077219844,0.044019252,-0.063345924,-0.017149648,-0.062501214,-0.02397948,-0.0009020475,-0.039983965,-0.017683428,0.024937425,-0.0102381455,0.009207772,-0.020056348,0.011387918,0.01276099,-0.0049977545,0.083056465,0.0067437356,0.017774839,-0.011601095,-0.006865032,-0.09889696,0.07149389,-0.03281866,-0.03380044,0.002022387,0.020234719,-0.01634973,-0.024506984,0.013554149,0.017081074,-0.03145709,0.066111274,-0.034547105,0.009744878,0.006914234,0.011475497,-0.040943976,-0.064867295,-0.045809243,-0.027882794,-0.064934775,0.10275745,-0.013358243,0.05332272,-0.022690663,0.035027094,0.0070979465,-0.008103567,0.017933514,0.009182984,-0.03105444,-0.01771434,0.035582796,0.06161904,-0.07630944,-0.098315984,-0.04560355,-0.089024834,-0.013430448,0.012860875,-0.026056897,-0.05790959,-0.030904116,-0.0022733551,0.10410747,-0.07234402,0.08397659,0.0020141508,0.017900718,-0.04871654,-0.050795764,0.016466385,0.08483057,-0.057388876,-0.021034723,-0.08175407,0.011365603,-0.07520857,0.09020372,-0.013697187,0.005325123,-0.0016645975,-0.034824688,0.06133216,-0.030342994,0.019065408,0.10836991,-0.0130971335,0.01279614,0.014085189,-0.0036047902,0.054650955,-0.008210437,-0.05295055,0.0031053722,0.00933699,-0.027085548,0.03159944,0.023791293,-0.0040819705,-0.066889286,-0.011879867,-0.013979571,0.02794994,-0.032432366,0.027229542,-0.024828393,0.0013136971,0.07900999,-0.02829197,-0.018485896,-0.057006832,0.100969985,0.0373782,0.04328295,0.096157074,0.11113869,-0.05198747,0.014662786,0.09656916,-0.044931673,0.0115636485,0.027685953,-0.01794732,0.035884142,0.013436917,0.06458531,-0.05321306,0.047502905,-0.07387545,0.03236124,-0.012582871,0.011429598,-0.008457339,0.06345456,-0.006362884,-0.024378933,0.0038351405,0.00038120875,0.013084871,-0.043031327,0.0062714294,-0.004699005,-0.017904907,-0.039034564,-0.014979888,0.012687827,-0.012960782,-0.09527734,0.0016847597,-0.04119786,0.013931263,-0.03914626,0.111588866,0.06959046,-0.023972955,0.07281939,-0.0082830805,-0.02235181,0.14867245,-0.0030020894,-0.060035564,0.01292128,0.07250553,-0.021758342,0.029825523,-0.010601061,-0.044379618,-0.0072372616,0.002222885,0.100173086,0.112535715,-0.004882383,0.013857066,-0.051709786,0.09292093,0.10296347,-0.0035598443,-0.044903938,0.004368269,-0.01974942,-0.06266621,0.022064826,0.054078214,-0.06761597,-0.063230135,0.016156908,-0.11568646,-0.033682235,0.014931134,0.041180655,0.015775008,-0.018845953,-0.10384058,-0.0067480793,0.03862031,-0.024816042,-0.024419414,0.00051023014,-0.036895093,0.03206017,0.013723598,-0.04596023,-0.06787457,0.015621481,0.07892449,0.028545145,0.025642248,-0.0006487668,-0.056482214,0.027691359,-0.013194786,-0.08123969,-0.05254292,0.00585393,-0.011514064,-0.013296839,-0.017524863,0.0027432078,-0.01527205,0.0024379245,-0.015481642,-0.03809568,0.1027853,0.103445105,0.048632443,0.016100336,0.0021425227,0.025950527,-0.016851906,-0.039871756,0.0147924535,-0.020139309,-0.03679863,0.063441224,-0.016619284,-0.003687904,-0.044290934,0.019588567,0.0067256177,-0.036120374,0.020606246,0.04487118,-0.018425973,0.029698037,-0.049927115,-0.026804363,0.04596914,0.009892708,0.050900053,0.0003612208,0.0036579852,0.022790434,0.004670556,-0.05213989,0.024732072,-0.03578136,-0.03713495,-0.025657436,0.014032889,-0.06643307,-0.005960835,0.030749522,0.06997674,-0.067083664,0.013776712,-0.013053781,0.11065365,-0.11459982
-0.0017085117,0.05877633,0.020361733,0.13153611,0.042920414,0.0024896334,0.07168264,0.00029695113,-0.05824635,-0.0126298545,-9.28768e-05,0.081015825,-0.011428796,-0.071555756,-0.016757622,0.026911272,0.0168936,0.055313583,-0.0160297,-0.07096743,0.007828068,-0.066405125,0.05677613,0.020345477,0.07552943,-0.0023953877,0.011879691,0.0071866005,0.0057521197,0.024566218,0.026898997,0.05065328,0.031081595,0.040584113,-0.10537635,0.09193636,0.026387077,-0.0026108553,0.0023581488,-0.055395287,-0.0060157734,-0.045079,0.013041083,0.03470684,-0.018821415,0.015040603,-0.04340748,0.013804561,-0.042548385,-0.059915893,-0.017006198,0.029961508,0.054775905,-0.0034615393,0.009152095,0.058454636,0.033805713,-0.01687508,-0.027783375,0.029556032,0.07384308,0.044137992,0.014102749,-0.032103937,0.0006039629,-0.004599697,0.0015508701,0.010879204,-0.062371287,-0.019847432,0.09542004,-0.040477354,0.007164914,0.022908805,0.06424164,-0.09252734,-0.0048012547,-0.06478471,0.005922434,-0.010308986,-0.030418642,0.015990792,0.03353128,0.024172524,0.06311073,-0.023329264,-0.005094232,-0.09072242,0.058560576,-0.10136389,-0.013189327,0.04393163,-0.0447011,-0.01586087,0.09010815,0.024664328,0.0060138353,0.012894574,0.13971728,-0.05254044,-0.06979887,-0.006440683,0.013525206,-0.11224092,-0.009452066,-0.011032902,0.0019664806,-0.051081568,-0.015214364,-0.00064748153,0.004228325,0.032661323,-0.006364396,0.015752487,-0.036003023,-0.06055983,0.09381878,0.070064284,0.01257678,0.049006887,-0.02812106,0.02452772,-0.05566448,-0.0061497414,-0.0597881,0.07406657,-0.044200685,-0.059146374,0.07442283,-0.036179334,-0.026275154,-0.03381979,-0.06899662,-0.06619684,-0.03947825,0.060630858,-0.016707866,0.011132145,-0.024613872,-0.061574984,-0.14608325,0.0477196,-0.10022228,-0.07733137,0.011279796,-0.046233572,-0.033269342,-0.07415934,-0.0348448,0.1532182,0.048624597,-0.016515719,-0.09633621,0.008163165,0.011249035,-0.025355345,-0.035517927,0.009283749,0.018288963,0.008534219,0.052841663,0.018363908,0.018828347,-0.045607954,-0.058590483,0.0771289,-0.010342011,0.015232572,-0.015504651,0.026999155,0.0029751302,-0.000804903,-0.027086956,-0.03456245,-0.001429236,0.018143406,0.012559734,-0.023033733,0.0025492501,0.005114825,-0.025045447,0.0625875,0.04565304,-0.042360827,0.08740522,0.03897481,-0.017639536,0.016816886,0.06747015,0.05919527,0.14959364,0.13471852,-0.08164637,0.009825406,-0.026877962,0.078902185,-0.020333195,0.016778849,0.011057047,-0.1108083,-0.0277677,-0.07643911,-0.0028066665,0.0017559129,0.016246753,-0.014647918,0.011618342,0.015711116,-0.024480334,0.010905811,-0.021693705,0.11991142,0.0054628,-0.003084062,-0.012748696,-0.06968644,-0.020180576,0.0017969985,0.04399911,-0.0254806,-0.08475676,-0.04464407,-0.08018092,-0.05444323,0.045976855,0.055561747,0.10627756,0.0794457,0.0797537,-0.18720654,-0.06956143,-0.08190468,0.11387188,0.059692174,-0.10308063,0.046724718,0.0067922203,-0.010649017,-0.057705477,-0.00027139726,-0.04879254,-0.10215711,-0.041648313,0.045404915,-0.002910184,0.03652046,-0.023834575,0.024154814,-0.03273647,-0.01685834,0.012934658,0.023941329,0.15256636,0.007807056,0.005638574,-0.06331432,-0.016655589,0.008646216,0.050842952,0.008059549,-0.055639643,0.030951312,-0.010707736,0.0023498635,0.085932076,-0.006048216,-0.009493923,-0.0072349035,0.0107307,-0.03432244,0.010596195,0.0343029,0.07529076,-0.034960248,0.014290103,0.07714503,0.09428948,-0.006136448,0.13768296,-0.011318288,0.0686243,-0.019122459,0.053108066,0.07654732,-0.002421924,0.010381535,-0.06082755,0.006050062,0.000989877,0.099719346,0.045002207,0.00015195095,0.0029966026,0.01923785,-0.016789874,-0.051436007,-0.11775794,0.07172748,0.0631807,0.07298768,0.028380655,-0.084665984,0.07003233,-0.11465102,0.05526696,-0.05265265,0.0124490345,-0.06696558,0.09344116,0.013095772,0.0058381213,0.038977433,-0.033233356,-0.0044146534,0.03689603,-3.336864e-05,0.0744755,0.026898928,0.005018458,0.026589688,-0.0113823665,-0.06575855,-0.013153915,-0.011676324,0.009283712,0.022323823,-0.06662346,-0.017717427,0.028979573,-0.07556265,-0.077937044,-0.0027718944,-0.008224418,0.0074185324,-0.016449155,0.1041601,0.06341877,-0.055864446,0.06417388,0.005280427,0.029252162,-0.013253656,-0.007403248,-0.044111263,0.01956193,0.0033713803,-0.048492055,-0.018613147,-0.013117801,0.051347937,-0.034577884,-0.010207461,-0.0016448807,-0.014443403,0.101867296,-0.11050867,0.009320444,0.03420349,-0.07194842,0.09457744,0.016564839,-0.047391426,-0.06674672,0.08676368,0.015209698,-0.034347236,0.06786707,0.030262724,-0.03958785,0.008433802,0.12286464,0.12571593,0.04284352,0.01790644,0.0065897508,0.005006023,0.075314455,-0.05328353,0.036392886,0.0040984745,-0.0074557597,0.042362034,0.015936246,0.08002424,-0.011681787,0.0034881232,-0.010850488,0.040583096,0.07535862,0.06327054,-0.07633403,0.07665604,-0.0043441993,0.08777611,-0.004442073,0.053216897,-0.14371686,-0.019485481,0.06423516,0.004120939,-0.05592495,-0.05333654,-0.12892386,0.016080141,0.01661863,-0.031502232,0.097349815,-0.030278182,0.041497793,0.05428572,-0.0038186803,0.009431287,-0.020058615,0.117256925,-0.030061662,0.009494418,-0.040831357,-0.02682973,0.04900375,-0.030804921,-0.0005521145,0.018576989,0.03256892,-0.0023996755,0.06754942,-0.10953432,0.116193585,0.117191255,-0.027141515,0.02358652,-0.0073043453,-0.1571212,-0.027147619,-0.013038223,-0.082113564,-0.041453067,0.0899128,-0.05136507,-0.073085755,0.11273119,0.025865154,0.038161483,-0.038546775,0.0029829019,-0.033594977,-0.00828689,0.024530184,-0.0010017079,-0.011487833,-0.030501565,-0.02663102,0.025009327,0.015886137,-0.016034646,0.056458067,-0.006293159,0.048690643,-0.01094485,-0.010783562,-0.019227624,0.04738929,-0.049616516,0.0004999571,0.0070578447,-0.07273053,-0.015432773,-0.030167172,0.006747102,-0.030057995,0.061724655,0.013954424,0.0673175,-0.007770175,0.008339076,0.05105326,-0.06446929,-0.03531895,-0.028017595,-0.01590621,-0.011680909,-0.017997775,-0.0044489936,-0.020859314,-0.071912415,0.051523365,0.015841631,-0.019712694,-0.061663434,-0.048729952,-0.030932475,-0.010930895,0.004454022,0.15657996,0.021302912,-0.010122238,-0.081289716,-0.034572966,-0.017242368,0.13171871,-0.0015275301,0.028577747,0.050707407,0.034546334,0.06858939,0.08953537,0.17148584,-0.123233974,-0.0055798567,-0.00117155,0.024703586,-0.009850751,0.007146125
-0.029247599,-0.010880449,0.052176327,0.035131834,-0.1005314,0.0046146624,-0.011735685,0.020513503,0.031368475,-0.010901698,0.016547253,-0.0059906202,0.021322295,0.063299105,-0.00778014,-0.00036364055,0.017429598,-0.017792176,0.002277228,0.07883119,0.008679176,0.019852081,-0.0057307323,-0.012949645,-0.038198754,0.002387781,-0.0124473395,0.034960683,0.0021452014,-0.013934163,-0.09480563,-0.017069187,-0.020404857,-0.044426937,-0.0148853725,0.027139613,-0.057997666,-0.0037517603,0.01772952,-0.02294716,0.006733599,0.07917552,-0.009011352,0.033283513,-0.0074959625,-0.022990035,0.0069261543,-0.078406885,0.058026876,-0.05796229,-0.046521466,-0.012507555,0.037304927,0.018659737,-0.013237892,0.009734879,-0.04215881,-0.004903224,-0.03659189,-0.02112318,0.0005160343,0.030270364,-0.020729661,-0.0050808424,0.05955665,0.0066558756,0.016470466,0.06504227,0.06755822,0.010193661,0.06941571,0.009721877,0.03145758,0.03354357,0.0032625208,0.074493155,-0.002961106,-0.024534538,-0.011217959,0.0022818572,0.020474669,0.015022283,-0.0019735447,-0.068925045,-0.027163187,0.029073687,-0.052604202,0.05128256,-0.023197949,0.028560791,-0.042810388,-0.020223109,-0.0090417545,-0.0028457989,0.00088576163,-0.022287697,-0.0011550486,0.023523908,-0.0054818443,0.026545359,0.022261405,-0.094027795,-0.017236523,0.03981223,-0.0066097486,-0.02443154,-0.018870575,-0.003031987,0.052635558,0.066557,0.01363114,-0.013206725,-0.013638463,0.0046030954,0.056895755,-0.01720582,0.030881131,0.043648742,-0.014555768,-0.033724297,0.023909176,-0.044084247,0.030484818,0.0104482975,0.017274339,-0.040478118,-0.025808454,-0.029796913,0.013228703,0.012405161,-0.013679141,0.037095744,0.015638249,0.06717,0.034219425,0.027092313,0.001281764,-0.016244106,0.043502662,0.018209469,0.09550929,-0.044291385,0.02168982,0.062704116,0.00825264,0.0078003393,-0.02235658,0.0566265,-0.013089843,0.086555175,0.02007559,-0.039459944,-0.006026942,0.0038754668,-0.00149382,0.015762389,-0.0121023115,-0.031268913,0.016546307,0.005440401,0.012681739,0.029443406,-0.0064603323,-0.016061205,0.025602698,-0.0088000335,-0.0070757135,0.041477907,0.023739966,-0.020314904,0.029412493,-0.017656587,-0.022556728,0.007718288,-9.8518925e-05,-0.026228974,0.007244919,0.032276876,0.011527068,-0.0057942076,0.03430606,-0.012813433,-0.023990478,-0.027023062,-0.0026205985,-0.029766005,-0.033171885,-0.033238783,0.025213769,-0.028312027,-0.055308357,-0.04009783,-0.0009869161,0.005364521,-0.0033560267,-0.031490322,-0.0030614194,0.000775591,0.038554024,-0.0018761614,0.047719773,0.04705604,-0.015768452,0.09189266,0.014256525,-0.08963384,0.031002851,0.0069274,0.068071365,-0.06559991,-0.017990168,-0.019810082,0.016663648,0.009995743,0.018666904,-0.089922644,0.009511095,0.033141073,-0.021367462,-0.010845038,-0.048393644,-0.023490446,0.009254297,0.114429295,-0.004522429,0.03353914,-0.0017893864,0.05664672,0.009195445,0.055773202,0.048916295,-0.0012312415,0.015061833,0.028519822,0.08678669,-0.02482615,-0.003696894,-0.0013319075,0.020244788,-0.016162915,0.013270949,-0.03597964,0.016922034,-0.015615791,0.0036070615,-0.0084057385,0.072674684,0.0084917005,-0.06996409,0.012800561,-0.005786912,-0.034763265,-0.026936702,-0.009500461,0.02684478,0.033187352,-0.017979132,0.046201296,0.009563359,0.015431057,-0.01047196,0.017144259,-0.0009322972,0.045962486,0.04946095,-0.099620625,-0.014168294,-0.0426378,0.006964848,0.036457203,0.0001442647,0.016903635,0.022405304,0.0082326,-0.02174149,0.055111144,0.06818417,0.0023461496,0.025931418,0.013192838,0.012696764,-0.021223791,-0.016377077,-0.023468466,-0.035902523,0.002345249,0.052330367,-0.021257015,-0.037249196,0.041285474,-0.004004395,-0.01838214,-0.003732356,-0.0033136907,-0.0045062066,0.007817516,-0.0062480294,-0.06749361,0.0071271616,0.031269763,-0.025469635,0.0026211804,-0.02052094,0.019075036,-0.04147805,-0.040445358,-0.0026823904,-0.01692276,0.021763278,0.056015573,0.017708544,-0.0108280545,0.01802656,-0.014702661,-0.05697965,-0.07367165,-0.021517932,0.010606807,-0.047221668,0.0053434437,0.064792335,0.09250038,-0.09826322,-0.030802831,-0.0015329246,-0.015052679,0.0670245,0.053701315,-0.04299165,0.0425756,0.059984844,-0.028549729,0.019233398,0.0013189224,0.04855339,-0.0120920455,-0.013573563,-0.0040513775,-0.043227464,0.06517545,0.0076014404,-0.02813892,-0.0119392965,-0.0025403071,-0.01988262,-0.0046848813,-0.06854053,-0.05643613,-0.01425284,-0.027312785,-0.016850337,0.016419435,-0.06465551,-0.0072094295,-0.031446114,-0.01016707,-0.045083992,-0.007627896,0.03052412,-0.0010967279,-0.033633556,0.031664476,0.007973101,0.016140474,0.009069953,-0.06017171,-0.01582664,0.01345237,-0.029773545,0.015595308,-0.029656993,-0.038833436,-0.033739388,0.0020514112,0.01790813,0.0012276891,0.0058246227,-0.055573404,0.119369105,0.03302593,-0.013327888,0.052241713,0.009009886,0.020720797,0.0077049253,0.013273647,0.0829507,0.023473304,-0.053198844,0.018638052,0.007040537,-0.056565266,0.002078387,-0.02318943,-0.0029338382,0.050255183,0.06064593,0.003437178,-0.0029064813,0.020441659,-0.04257597,-0.039004147,0.020847179,0.02486703,0.0084455665,0.0062954584,-0.02440481,0.0065329825,-0.023359295,0.06526848,0.011819373,-0.015850417,-0.02114299,0.006083666,0.080545016,-0.00508735,-0.01655993,0.054432295,0.02579266,0.008139258,0.012211139,-0.08604914,-0.018295294,-0.036086544,-0.05797415,0.031924758,-0.036496837,-0.055448122,0.05746843,0.057751376,-0.028587481,0.08067688,0.02899475,-0.0738414,0.009519938,0.0158545,-0.058586475,0.040306233,-0.019793868,-0.016735392,0.013327014,0.026705023,0.049582265,-0.019585324,-0.022484059,0.043664463,0.014263112,-0.009814471,-0.04281447,0.013831636,-0.0334122,-0.0104575325,0.017378246,0.02484214,-0.028503587,0.03402237,-0.004659737,0.040737323,0.0125307515,-0.03905134,0.058162875,-0.022549631,0.015104112,0.00027081076,0.04410631,0.008393119,0.012401871,0.030907,-0.020317657,0.026705703,-0.0032834795,-0.059427608,0.0082338,-0.023392444,0.027230965,0.05018167,-0.0010591171,-0.0068788105,0.010228167,-0.020181246,0.0110396445,-0.015214494,0.020668738,-0.019557428,-0.066549204,0.017072473,-0.007793133,0.04932345,-0.015396381,0.013820895,0.030417755,-0.018112332,-0.026569875,0.0036395742,0.009808024,0.13740215,0.08643197,-0.0062912977,0.06372795,-0.009041593,0.03793005,-0.07365336,-0.014375194,-0.06497849,-0.0012365403,-0.061658252,0.0554299,0.027872607,0.006031066,0.02081326,-0.05563916,0.019949118
-0.02906124,-0.018728051,-0.08518201,-0.05805661,0.12155271,-0.0061282124,0.012278081,-0.017935487,-0.025053846,0.00017352526,-0.004907615,0.021243244,-0.0022578323,-0.13791758,0.014847224,0.11696117,-0.00027333226,0.015040712,0.020158852,-0.08569028,-0.029720318,-0.043384828,0.054095797,0.08002997,0.0902282,0.016456949,0.10268592,0.019800637,-0.003962484,-0.02023629,0.2009036,0.0066405823,-0.02710355,0.11302926,-0.042764615,-0.11278006,0.09990939,-0.021983841,-0.010558397,-0.028508607,0.009535524,-0.13980804,-0.0074637644,-0.0738318,0.05002141,0.0986988,-0.05447532,0.167254,-0.10966817,-0.011700886,0.04421587,0.0002634561,-0.038686927,-0.020046383,0.09151675,-0.030099675,0.096252315,-0.0011586372,-0.02326248,0.061299372,-0.0065199817,-0.023998829,0.006621143,-0.03325675,-0.07502564,-0.010278276,0.017895434,-0.08503122,-0.049251217,-0.014940969,-0.13699883,-0.0016261697,-0.038320247,-0.0930171,0.049400255,-0.08376062,0.0015741112,0.07468233,0.016477041,0.07425034,-0.006065196,0.0162009,0.03711221,0.074330494,0.15158243,-0.014076939,-0.03469931,-0.12862438,0.12816283,-0.07958509,0.06067875,-0.05620588,0.0714654,0.01218121,0.040513545,0.061875436,0.049772657,-0.011139777,0.054499146,-0.055947017,-0.05416438,0.1851919,-0.031251647,-0.09820257,-0.040925477,-0.020416532,-0.013163099,0.037478674,-0.0017422877,-0.15993832,-0.008989912,0.023986407,-0.003488056,0.0048989127,-0.084547326,0.02074207,-0.024850378,-0.006959703,-0.009216684,0.051775113,0.026158012,0.012660778,-0.108876094,-0.047721382,0.0041609397,0.089578636,0.04803007,0.03291576,-0.08468232,-0.008039526,0.076215096,-0.0817287,-0.054565888,-0.037184212,-0.15178564,0.05076207,0.011352911,0.120842904,-0.039943963,-0.050610434,-0.24812788,0.068722576,-0.090116754,-0.04081632,0.08486034,-0.029803142,-0.024053138,-0.10152677,0.08501647,-0.17375092,-0.015660612,0.039626174,-0.06414456,0.017660249,-0.027396942,-0.008601378,0.008999142,0.08369154,-0.07212953,0.09703547,-0.0007294377,-0.036682382,-0.013114744,-0.0015579581,-0.041376308,0.074635684,-0.016241943,-0.0019830915,-0.035953514,-0.057518553,-0.030672861,-0.010535499,-0.03246479,-0.035364587,-0.008384261,-0.016027784,-0.011948609,-0.015393109,0.003268929,0.012294856,-0.038699746,-0.03186395,0.052303594,-0.009866881,0.032873385,0.05428479,-0.012217198,0.0016006161,-0.020804176,0.025044203,0.12872542,0.059293505,0.07591708,-0.013859002,0.030396044,0.06233061,0.02802257,-3.494766e-05,-0.1269056,0.0223687,-0.055190165,-0.12714382,0.010592644,-0.13100952,0.0066161095,-0.0021084188,0.004285062,-0.036187578,-0.081006385,0.13618828,-0.008959815,0.008184941,0.009248803,0.0061520333,-0.011405695,0.16752644,-0.027065303,-0.09024197,0.06914338,-0.0288304,0.059769325,-0.005453699,-0.06403236,-0.13754983,-0.060307227,-0.09143366,0.062571056,-0.04611586,0.01328889,-0.1576248,-0.043221824,0.052465297,-0.054427303,-0.022480432,-0.09809662,0.06216603,-0.016191434,-0.0058031045,-0.022872996,0.016750718,-0.108239666,0.10573665,-0.0057608536,-0.020899534,0.049930297,-0.007995521,-0.14163281,0.08321372,0.07098557,-0.034484565,-0.057498194,0.041049108,0.0830941,-0.019457519,-0.023449872,-0.09168018,-0.007321003,-0.09083649,-0.07884903,-0.012422727,-0.033536773,-0.025729503,-0.017220998,-0.038224682,-0.058669746,0.1975889,-0.017546142,-0.004274182,0.012102112,-0.024781724,-0.008801455,-0.05858281,-0.02277165,-0.019878758,0.0052518053,-0.016939595,-0.13479452,0.0038919717,-0.10497054,-0.008264762,0.025898809,0.15391059,0.070681214,-0.058941294,-0.037600894,0.0025596507,-0.058122266,0.04460816,-0.028123995,-0.06126343,0.04465374,-0.0040785475,0.015286089,-0.04175896,0.015691087,-0.07536562,-0.10054259,0.014631457,-0.042248044,0.033537667,0.026140641,-0.073408864,0.107441776,-0.090474814,0.03818843,-0.018163674,-0.006454447,0.022610692,-0.07204447,-0.056221932,0.017740797,-0.0017898733,-0.048361618,0.01629163,0.07301389,0.009410698,0.03978818,-0.07287468,0.038895927,-0.02445903,-0.03497292,-0.079766184,-0.0056532635,-0.03633546,0.01660415,-0.039671782,-0.10503301,-0.13961798,0.055423725,-0.11531334,-0.17914629,-0.020649211,-0.011861944,-0.016705362,-0.028578945,0.015410293,0.044525497,0.034110494,0.119844176,0.0019695105,-0.03501643,-0.0052212453,0.019535907,-0.028961517,0.044891015,-0.005236472,0.09592204,0.11748955,-0.0148930745,0.10422516,0.045781117,0.0002417618,-0.016766038,0.006246956,0.09331254,-0.04385954,-0.0024845393,0.0503008,-0.12982506,-0.0901511,0.01140379,-0.08345314,-0.05720451,-0.031466123,0.075268865,-0.017080216,0.0107665025,-0.019947875,0.053684164,-0.053647045,0.103050664,0.10722287,0.08467542,0.027229348,0.003729803,-0.014725416,0.09589107,-0.030103624,-0.23713657,-0.04770405,0.011642072,-0.02583849,0.0009484356,0.024369515,0.010972073,-0.015556728,-0.105609804,-0.062001135,0.12876603,-0.009789389,-0.06350493,0.11179536,0.0067673796,0.09817046,-0.0052990383,-0.09701119,-0.19430704,0.0431437,-0.0312677,-0.06928216,0.06592947,0.07031394,-0.11456442,-0.074986055,-0.023053851,-0.0019932424,0.10069064,0.05984247,0.103038795,-0.0758196,-0.009112586,0.04234659,0.0053704088,0.008633723,-0.07079436,0.0072500287,0.020860536,-0.01920972,-0.055127066,0.0011330848,0.023952281,0.15877993,0.06192936,0.054261364,0.11844684,-0.09012613,0.11872491,0.13447519,-0.029754475,-0.0667967,-0.030063398,-0.15436469,-0.064173736,0.072255395,-0.0754368,-0.11059771,0.13922781,-0.03919542,-0.04155235,0.105454445,-0.026775181,-0.0043031345,-0.05134999,-0.031390198,0.037977707,-0.010614639,0.061165676,-0.0024818545,0.024440981,-0.05415601,-0.03131962,-0.03094782,0.00082938495,-0.018242415,0.038289055,-0.01207164,-0.012521422,-0.060304757,0.0109487735,-0.0072118775,-0.034470875,0.063234456,-0.0028324556,-0.009795884,-0.07448342,0.08520953,-0.058742452,-0.068179056,0.0070314747,0.033206884,0.012554965,0.12778991,-0.00043144214,0.0034257972,-0.062522374,-0.08713542,-0.014279554,0.055308457,0.009388921,-0.018283196,0.012322557,0.012904798,-0.033366702,0.046894167,0.11578512,-0.021882443,-0.0034152798,-0.069404416,0.00019221527,-0.014603491,-0.03218084,-0.0098586865,0.03574686,-0.08843915,-0.046277214,-0.20209137,-0.14237908,0.034276564,-0.09650945,-0.049794443,-0.041443564,0.08933751,-0.026464147,0.048990972,-0.022216652,0.1533906,-0.13783365,0.004186775,-0.0038704204,-0.021254651,0.050054807,-0.03181999
-0.058035817,0.013333228,0.01215128,0.08506098,0.01647854,0.013441886,0.09380635,0.013687626,-0.0116629945,-0.0058927215,-0.018041056,-0.059745856,0.0005399804,0.050946083,-0.006907001,-0.060124725,0.016767336,-0.045447167,-0.014557938,0.038710766,-0.01677949,-0.056793056,0.013207621,-0.029889533,-0.07180216,0.018298306,-0.022565307,0.02853758,-0.032082114,-0.019291328,0.055061102,0.039996322,0.099504896,0.0056869346,0.07625263,0.045263775,-0.056353085,-0.025498953,-0.025067246,-0.048659652,-0.017224463,-0.030149246,-0.001138005,0.015283042,0.027540052,0.0050490005,-0.12650098,0.0889574,0.0331721,-0.008745859,0.016794654,-0.014622502,-0.012007049,-0.016331466,0.029786075,-0.054133665,0.031778205,0.014204062,-0.04765591,0.001656167,0.08811568,0.022688312,0.00958368,-0.05458835,-0.015635215,0.012205342,-0.028476784,0.07352694,0.081552275,0.0020506936,0.07665528,-0.0031156014,0.0028367757,-0.011902638,0.083908156,-0.17445345,-0.054778017,-0.054238897,0.0015666656,0.051404692,-0.024565678,0.043807484,0.036679592,0.019667942,0.00060218835,-0.033321608,-0.09286089,0.013685074,-0.044039447,0.07977908,-0.028735042,-0.04378487,-0.05519392,-0.0029134464,-0.058569685,-0.07242224,0.0026440704,-0.0048198085,-0.04881524,-0.16809861,0.017019205,0.012356043,0.059976637,-0.040125642,-0.025883242,-0.04626397,0.0023341046,-0.026717408,-0.06161546,0.020281117,-0.009803799,0.014639509,-0.08418966,-0.013237012,0.12949413,-0.027444258,-0.024621146,0.09441393,0.0059362175,0.048408594,0.036362145,-0.013533849,0.05964206,-0.0102876555,-0.010564099,-0.014595835,0.08129529,0.014447846,0.067423545,-0.05502377,0.029075665,-0.025540397,-0.1258625,-0.021347823,-0.041284237,0.069844395,0.0056147333,-0.0054135113,-0.028073108,-0.12261044,0.08487084,0.05484079,-0.070957705,0.044181205,-0.02540583,-0.067794845,-0.08053026,0.06721813,-0.042141665,0.08399302,-0.023558447,0.08581027,-0.0820627,-0.00092922227,-0.028160416,-0.08476474,-0.009115199,0.05456092,0.0975718,-0.06000832,0.011481792,-0.022503948,-0.010529922,-0.008203211,-0.028368587,0.06134492,0.016339604,-0.018884966,-0.09844914,-0.0011871958,0.0030797245,-0.0127840405,-0.035533484,-0.10338839,0.01042138,-0.02224346,-0.0069230427,-0.029269144,0.0078043365,-0.009964275,-0.10458536,0.0024519418,0.052468933,-0.097667985,0.08395292,0.029740823,-0.03830543,0.015461788,0.061443437,-0.008680311,-0.011515203,0.034407955,-0.03404702,0.022108313,0.028207002,0.027802788,-0.041143008,-0.014718585,0.011236859,0.0021392067,0.0013181602,0.105761014,0.0039667566,0.13772708,0.009098698,-0.01558075,0.046062056,-0.026336757,0.038335532,-0.060524713,-0.060299184,-0.034164116,-0.013253841,0.009180607,-0.039513975,0.04959231,-0.080518104,0.09974579,0.07890214,-0.08687994,-0.09024431,0.068500355,0.042479947,0.055323087,0.032803174,0.067782566,0.044420518,0.023358403,0.05455624,-0.03629756,-0.05772955,-0.037617426,0.024994165,-0.01593769,0.04520336,-0.07560781,0.019238092,0.014847656,-0.00043549907,-0.00875081,-0.008229523,0.0126576545,-0.06934256,-0.0029082454,0.0159146,0.054727938,-0.0005743799,-0.029815095,0.03411117,0.027379107,0.055064388,-0.03204477,-0.06334267,0.0052358853,-0.018275043,0.011995849,-0.02950815,0.02031812,-0.005014922,0.013515278,0.023672089,-0.0034832559,0.005030207,-0.07023077,0.0071540205,0.04606297,-0.045341283,0.009704068,0.0066202055,-0.04076604,-0.021884931,0.06307883,0.0866776,-0.04733763,-0.024727594,0.01030968,0.09138392,-0.00519638,-0.03425963,-0.029005837,0.017140996,0.0021878623,0.07360246,-0.076135695,-0.02633778,0.008347342,0.026090158,-0.011865177,0.0010365708,-0.02171839,-0.06884096,0.0081603145,-0.0013894365,0.039725162,-0.012099963,-0.008604239,-0.048284985,0.014272057,0.043798067,0.06320298,-0.039943714,-0.06937987,0.06664896,0.0145513415,0.010738077,-0.057548597,0.005454586,0.048392452,0.09535752,-0.021733487,0.011538784,-0.005608773,-0.0002922606,0.0057269116,-0.021571955,-0.041993547,-0.003856596,-0.03364034,-0.008057575,0.0033578533,0.020768445,0.0014732246,-0.026816174,-0.09877212,0.00057728635,0.031600475,0.03705278,0.097095795,-0.04314043,-0.030277722,0.035871007,0.0025487312,-0.005564683,-0.012459285,-0.08562805,0.057609923,0.04214136,-0.03040479,0.046822093,-0.026919428,0.08147642,-0.042828437,-0.011710395,-0.010710159,-0.047212616,-0.0101216715,-0.056035705,-0.022285787,0.026499879,0.047401864,0.059291214,0.055033445,-0.002963893,0.010823075,0.060024295,0.050661642,-0.024581723,0.015265958,0.057310622,0.06505745,-0.018726924,0.07484102,-0.07918346,0.017502617,-0.06230772,-0.014936371,0.03478672,0.00063020654,0.014550266,-0.017849311,0.030654317,-0.037313763,0.031690933,0.019939436,-0.002016644,0.0035903666,-0.059034847,-0.09642769,0.10491027,0.053148694,-0.0077801147,0.00094175746,-0.015517444,0.05574457,-0.00329409,-0.005698949,0.09557792,0.024652714,-0.033289127,0.09079415,-0.12347642,0.03597459,-0.009272333,0.043842945,-0.0019113034,0.048096552,0.040465612,-0.009894593,0.083206944,0.031044442,-0.04388187,0.0061763953,-0.026085969,-0.017823353,-0.003289936,0.03121964,0.048695628,0.008506284,-0.05242967,0.046621557,-0.01377755,0.0069577075,0.0016343569,0.070092544,0.05907338,-0.01554171,-0.04731207,-0.0380865,0.11666574,0.08515536,-0.00453392,0.018527623,-0.04512215,0.024921421,0.09146634,-0.02940187,-0.00842905,0.043478776,-0.012606084,0.111187674,-0.036963742,0.039407846,0.049081646,-0.056951005,0.026590917,0.041034527,0.037165966,0.0010215712,-0.021521103,-0.032314904,0.024782168,0.0066792173,-0.08770395,-0.03070488,-0.032773197,0.009692211,0.07040519,-0.007741462,-0.026050432,-0.12349721,-0.04286263,-0.01316403,0.014206452,-0.053668227,0.0028666465,0.012121935,0.014834011,0.07676346,0.014420282,-0.011124122,0.101804286,-0.035827547,0.01373788,-0.008064674,0.03170322,-0.008726434,0.06762143,0.06378036,-0.04988321,0.045080528,-0.01819604,-0.010858711,0.0146010835,-0.022899503,-0.02090038,0.029291475,-0.044534665,-0.008156933,-0.007054383,-0.08524611,0.0011974326,0.001439063,-0.08371147,0.050800372,-0.027720282,0.027965888,-0.012662396,-0.0016308205,0.0054525626,-0.01054494,0.065673456,-0.002784928,0.046664376,0.06239894,-0.015319339,0.122366786,0.0075848387,0.0481236,0.038120456,0.017137924,0.022195885,0.013665867,0.009647842,0.012103291,-0.014710103,0.013776925,0.034832314,-0.040795457,-0.011517933,-0.01874066,-0.023683121,0.050157994
-0.03569764,-0.033236302,-0.05900386,-0.053621806,0.120431036,0.06191175,0.009096489,0.01271849,0.054929025,-0.000979799,0.016250148,0.07388638,0.008172397,-0.1798418,-0.017541854,-0.0056160907,-0.015081857,-0.012967379,-0.0143144,0.02480031,-0.002487794,-0.060014993,0.06844548,-0.05667668,-0.085415766,0.006672118,0.15904404,-0.083920784,-0.013323177,0.014148711,0.1724305,-0.02655956,-0.0075708204,0.044391103,-0.100563936,-0.05564774,0.09198998,0.013246162,-0.008543824,-0.03724848,-0.008177879,-0.12770775,-0.012418764,0.07382387,0.0638546,0.037896037,-0.060672395,0.064315446,-0.020780293,-0.024306843,0.10006185,0.06753738,0.11223686,0.014149641,-0.10515277,-0.023663737,0.02173439,0.005450373,-0.0033084995,0.1551411,-0.045036145,-0.08961147,0.00733523,-0.0040793405,-0.027053466,0.001995186,0.010260626,-0.14249434,0.032615256,0.019325849,-0.1600835,-0.026126051,-0.08552756,-0.0026469429,0.008599891,-0.045809723,-0.00901574,-0.0050162207,-0.0054408973,-0.04111069,-0.033347778,-0.07053806,0.010616988,0.14554563,0.13091527,0.009145774,-0.038068067,-0.07714622,0.0184631,-0.077226855,0.0059123277,-0.04294619,0.076994725,-0.009938374,-0.036478996,0.07090178,0.07888668,0.03779516,0.08493438,-0.057942603,-0.112906985,0.029798439,0.021896152,-0.10367556,0.108309396,0.011072958,0.0006063277,0.070799276,-0.022565603,0.07664972,0.009338201,0.026380265,-0.026024112,-0.007362428,-0.12821883,0.045152254,0.008042056,0.059010223,-0.01861419,0.054796547,-0.008882487,-0.0005018189,-0.01349867,-0.021308098,-0.029156396,0.052599303,0.18587834,0.18457407,0.002622689,-0.009164944,-0.06881245,-0.08839848,-0.023687223,-0.05190952,-0.10354858,0.01865302,-0.0023377463,0.04432546,-0.07274304,-0.055117134,-0.110629514,0.08968187,-0.039707072,-0.04592262,0.035039842,-0.02281162,-0.025893506,-0.11449633,0.09307498,-0.047587276,-0.009236552,-0.0470113,-0.0702569,0.015375612,0.0600066,-0.040253658,0.029862585,0.10051616,-0.011014086,0.026019264,-0.03504721,0.030440308,0.0055345884,-0.024052572,0.021397974,-0.022225315,-0.0059675807,-0.0062038116,-0.02044144,-0.0097918045,0.026752742,-0.015386436,-0.00597147,-0.033636384,0.0056896424,0.049689922,0.0062899827,-0.023164133,-0.0042237365,-0.0083557265,-0.011700856,0.029328782,-0.060457535,-0.014762998,-0.083793685,-0.04862895,-0.02148247,-0.0054534674,-0.083440565,0.10080631,-0.0030926513,-0.012656736,0.03534163,0.035598274,-0.010659331,-0.011668822,0.132262,-0.0011010842,-0.021527035,0.006371982,-0.06378261,-0.1312176,-4.161101e-05,-0.07687575,0.014728147,-0.026291857,0.063413225,0.071484074,0.03423331,-0.026170854,-0.02546558,-0.08140761,0.017075628,-0.012637957,-0.022724157,0.06427358,-0.033765566,-0.024849793,-0.028951501,-0.009810679,0.16757657,-0.02581475,-0.019916736,-0.082633846,-0.08709997,-0.11510839,-0.058412343,-0.06759288,0.017538084,-0.1055983,-0.05297105,0.0638349,0.037017122,-0.0009462164,-0.11668605,0.104191214,-0.0051357597,-0.014580212,0.03257865,0.0012408496,-0.09298036,0.05267348,-0.028488668,0.08002955,0.05009166,0.015164134,-0.024377713,-0.048870206,-0.04546538,0.013963951,-0.010116186,0.017236002,0.07898362,0.009101775,-0.0017561185,-0.054692093,-0.0014348715,-0.08894806,0.08003546,0.01697946,0.0755031,0.0028638116,0.00195032,0.12538241,-0.07952109,0.10505765,-0.01843453,0.008498566,-0.016766189,0.08510978,0.028871158,0.0045067794,0.02183049,-0.008216755,-0.018700147,0.12104272,-0.032865223,-0.014798559,-0.0020073445,0.070295885,-0.0052958988,0.17474727,0.023319032,0.1408528,-0.06903449,0.0040101097,-0.08444739,-0.028287554,-0.06386217,-0.06417148,0.045124672,-0.007251398,0.005733136,-0.06426845,0.01036081,0.037402637,-0.08228121,0.11694486,-0.025784433,0.015075061,0.18130413,-0.030865673,-0.067315586,-0.043140613,0.04394714,-0.016445417,0.009131408,-0.009682552,0.045685545,0.03078143,0.013797596,-0.0007766447,-0.06601267,0.016819049,-0.038299415,-0.01818156,-0.055791255,0.12522425,0.2046546,-0.020059792,-0.06158541,-0.12014423,-0.0012818462,-0.020604806,0.007772964,-0.017225847,-0.14229412,-0.081189744,0.09411761,-0.08448328,-0.16305989,-0.045057997,0.0058552907,0.008528379,-0.007887287,-0.0063683703,0.046068493,0.030022077,-0.041838437,0.005799442,-0.022869399,-0.010527391,0.0012103666,0.086894974,0.017527523,-0.0112980455,0.011147805,0.16417786,-0.044986952,0.09704411,0.088196136,-0.044116132,0.21804658,-0.0052041635,-0.044994216,-0.02957329,-0.007885701,-0.05501208,-0.11603725,0.05698461,0.05392175,-0.09504049,-0.07978489,-0.020369807,0.02685903,-0.017113175,0.0065875887,-0.014778838,0.039362494,-0.09238448,0.06864189,0.087476686,0.022420576,0.0060428586,0.017599525,0.0078037754,-0.046768736,-0.04191747,-0.03842608,-0.035635844,0.0029167007,0.010384364,0.00024381717,0.06249387,0.017922815,-0.0098334225,0.09350593,-0.019270834,0.06813673,-0.04717096,-0.06356272,0.06501342,-0.012801471,-0.06129849,0.017784724,-0.011240881,-0.12045133,-0.06067047,0.048034344,0.060683593,-0.02327465,-0.07917097,-0.10456089,0.013568897,0.004894593,0.007207913,0.02790405,-0.028471313,-0.0566195,0.017022707,-0.0060746674,-0.012666938,0.0046593193,-0.14137898,-0.12171775,-0.00026226742,0.027965838,-0.008164968,-0.07403061,-0.0030678385,-0.018836614,0.14102373,-0.066996075,-0.027945941,0.10758145,-0.068200216,-0.058886047,-0.05709556,-0.0061633163,-0.06711534,-0.029323727,-0.08957576,0.052270684,-0.019847836,-0.07630372,0.074809656,0.064253405,0.038695846,0.052745506,0.015519539,-0.014549606,-0.016961258,-0.035636652,-0.0056472984,0.0610356,0.0013138119,0.12421448,0.0062243096,-0.0107525755,-0.054100428,-0.00096721353,0.025804153,-0.022832854,0.060789473,-0.01609835,0.01926658,0.07448796,-0.055616546,-0.012543575,-0.00452492,-0.049330093,0.039975435,0.006784972,0.013233173,-0.06539892,0.031624082,-0.08381153,-0.01161674,0.014555089,-0.06426299,0.010774546,-0.017180933,0.0014695042,0.05153203,-0.053169508,-0.11131259,-0.026081126,0.038104836,-0.0006158372,-0.037998103,-0.022434654,-0.001682396,-0.046371665,0.0006581363,-0.040803988,-0.043285817,0.008158803,-0.027717689,0.023059446,-0.035947166,-0.08571128,0.018086143,-0.022371842,-0.027250826,-0.01593605,-0.0712321,-0.078345016,0.10977342,-0.15015486,-0.116690196,-0.057561945,0.13931565,0.007906388,0.068134926,-0.05948365,0.06999931,-0.072000705,-0.0026592468,0.006422403,0.0038727354,-0.03464157,-0.052231394
