0
0.011617091
-0.010813018
0.00349708
-0.02850617
0.0059079947
0.01563843
-0.011985866
0.018181166
0.0117764035
0.007556899
-0.013173928
-0.006025549
0.010882093
-0.022016082
0.019675106
-0.01163354
-0.006154064
-0.0020623833
-0.0153399035
-0.0059802346
0.016966438
0.0012670144
-0.0073826094
0.013424473
0.01974082
-0.01376126
0.0047603343
0.00018777675
-0.011306357
-0.00047556256
0.0013892961
-0.03499048
-0.017117396
-0.0010968277
0.017310644
0.00083078875
0.012761845
0.015654022
0.0070774453
0.00958753
-0.011772281
0.0036916744
0.02672472
0.0055788243
0.0055512534
-0.0093677975
0.018342718
0.01998682
0.018379524
0.04881891
-0.0057573044
-0.01623405
0.0047497177
0.011109651
-0.0058984864
-0.017895957
-0.0053010127
-0.007823305
0.020869648
0.018877596
-0.0206819
0.06264455
-0.01849418
-0.030343516
0.024254732
0.013662153
0.014128698
0.006307285
-0.0057682768
0.0037642869
0.024598787
0.016851792
0.023605779
0.012400728
0.0430309
-0.009035934
0.019758062
0.009507517
0.0054248474
-0.009344589
0.03911702
-0.0026769435
0.015397765
-0.009641342
0.017133135
-0.019869424
-0.018336259
0.036972344
0.009716772
0.005596693
0.025452737
0.0006015722
0.041159187
0.008358029
-0.020930732
0.024671143
0.007091251
-0.017218467
0.013827811
-0.0013416634
0.021856815
0.0051478497
-0.017768148
0.012666269
-0.017485205
-0.031771988
-0.0026605632
0.0012858383
-0.030030621
0.010844078
-0.0064860256
0.008225223
-0.023769697
0.015153309
0.026007066
0.037593465
-0.00032470652
0.004140337
0.0020088581
0.026812637
0.026585361
-0.0075514517
0.0076505737
-0.013586444
0.026416311
0.021640306
0.016194873
0.03076029
-0.0033029374
0.047051568
-0.0055635655
0.001128605
-0.009797388
-0.012813944
0.018010803
-0.0005117281
0.02473737
-0.0028874127
-0.0031102428
0.004150468
0.015723165
0.0058930605
0.04522919
0.029977407
-0.0021417728
-0.0044515724
-0.011495279
-0.0053482857
0.0044936696
0.014485725
-0.007124424
0.037499297
0.033398543
-0.0067027677
-0.012828125
-0.010988405
0.011215051
-0.013881693
0.034380004
0.03127319
-0.0023271667
0.012980806
0.009405544
0.038731392
-0.0020435685
0.0052814265
-0.0131228985
0.000978638
0.013200614
0.020863306
-0.020994011
-0.0020539232
0.009772517
0.005820081
-0.01871478
0.017335309
0.011785268
-0.0021308681
-0.013875577
-0.009189335
-0.0071655493
0.031950623
0.02810578
0.020921765
-0.005850717
-0.011822566
-0.018543815
0.009015483
-0.0077456795
-0.02669977
0.020629657
0.02977129
0.022437265
0.020408904
0.040520553
0.013732783
0.027824735
-0.020996997
0.007895236
0.016321033
0.016893746
0.011945694
-0.020222876
0.010629665
-0.022632737
-0.0007930615
-0.0031715536
0.037874576
0.006193583
0.021896068
0.00981874
-0.036417447
0.0044773114
0.0024920306
0.04097271
-0.00043413168
-0.00039528494
0.0030138467
-0.010167142
0.0020834173
0.015834749
-0.007491573
0.031609267
-0.025948148
-0.009940502
0.008353575
-0.0050163465
-0.019630043
-0.00059077505
-0.0017197718
-0.011598459
-0.023178976
0.014730315
0.010507356
-0.016435217
0.006655342
0.0360505
-0.018149149
0.017872855
0.01714397
-0.007920292
-0.010257263
0.008017123
-0.013718842
-0.004595677
0.04166955
0.02615611
-0.009383828
-0.024279693
-0.002550409
-0.0054118196
-0.0063877995
-0.005362284
-0.008731606
-0.0037437947
-0.008261605
0.022640109
-0.008560949
0.022644553
0.038951423
0.02711968
0.02820777
0.04046892
-0.016532237
0.026697794
0.006949289
-0.008956855
0.013520277
0.017215151
0.017258765
0.023667468
-0.0112279905
0.034669038
-0.022683343
0.007580793
0.028388673
-0.022813512
-0.02095157
0.005947004
-0.011617727
0.009584769
0.009958706
-0.0010928934
0.004620526
-0.007372386
0.029788822
0.015559483
-0.004890691
0.0051547373
0.0024749713
-0.022032095
-0.014050763
-0.037743345
0.032606054
5.22636e-06
0.007276141
-0.004009236
0.010543422
0.012494286
-0.0007981894
-0.0058606365
0.039028794
0.0012741828
0.0094118565
-0.004098047
0.003845242
0.005555589
0.0025865464
-0.015630001
-0.0057030413
0.045366537
0.026611796
0.015848028
0.010758545
-0.008148998
-0.008770123
-0.008798149
-0.0015263713
-0.008876984
0.012856022
0.07643902
0.006009277
-0.023790011
-0.014396776
0.050252613
-0.016779678
0.0063193482
-0.012246669
0.006464822
0.009944452
0.0021439076
0.022964986
0.056603186
0.021098746
0.0309303
-0.003923266
0.010187
-0.0039689676
-0.03091499
0.029690862
0.029793601
0.00014123684
-0.021524291
-0.005104473
0.02489707
-0.0044238213
0.0015970685
-0.002198215
-0.017647693
-0.0016782887
0.020972509
0.0034376434
0.012064127
0.036291327
0.0008535605
0.017261071
0.03816584
0.0050764433
0.012020619
0.010518506
0.022510432
0.014243736
-0.023705687
0.010680077
-0.004735972
-0.0071265474
-0.013676805
0.005155578
-0.014889884
-0.014983652
-0.022008963
0.0041339076
0.014847981
-0.005702756
0.039484184
2.1631935e-05
0.0076019634
0.015355043
0.0058873533
-0.0056632203
0.017109046
0.010121938
0.015056231
-0.031230142
0.001238135
0.0138223935
0.02429635
0.012130393
0.014584036
0.020405008
-0.011023234
0.008045693
0.05653924
0.022077197
0.0027479306
-0.011487408
0.029216
-0.019136144
0.005620862
-0.016664086
0.011334967
0.012448559
0.027736459
-0.016127145
-0.019940294
0.020851234
-0.006807607
0.042570677
-0.0011696593
-0.026005447
-0.013434877
0.0035157397
0.021449521
0.040860564
0.03486946
0.011946873
0.00080881966
0.0015309687
-0.0003076996
-0.0069553447
-0.012689038
0.021458501
-0.013566063
0.004969685
0.007029093
-0.014820889
-0.016860684
-0.027765043
-0.0043367413
-0.021477068
-0.021680683
0.033976797
0.017996525
0.037969664
0.005551901
0.011292354
0.013688105
0.008469955
0.023124943
0.013359954
0.0058188364
0.0049666087
0.007532182
0.046308476
-0.010930122
0.021885933
0.009669797
0.023730183
-0.016143808
0.0037179939
0.0010677663
0.033987574
0.018200569
0.015613941
-0.0061586485
0.017726779
-0.00096408714
0.0272087
0.0071322457
0.019855194
0.050424226
0.016487584
-0.018560175
0.034234658
0.015053883
-0.007435855
-0.009520061
-0.0020744628
0.00912811
0.027459083
0.011850851
0.005742915
0.020355176
-0.017608462
0.024817739
-0.0027303847
0.015774405
0.03659486
0.041377477
0.014619116
0.025039675
0.01821192
0.038477052
0.0046699
0.0071244566
0.010760018
0.03325838
-0.009473914
0.024708102
-0.009180483
0.03010349
0.016240658
-0.0015218308
0.061217636
-0.0045701186
-0.0008520665
0.017191889
0.008546565
0.068060994
0.009091979
0.0035583915
0.0026833056
-0.00446061
0.025603037
0.008514652
-0.004679596
0.013954159
0.009406357
0.029202746
0.013742386
-0.006750952
0.010235548
