0,1,2,3,4,5,6,7,8,9,10,11,12,13,14,15,16,17,18,19,20,21,22,23,24,25,26,27,28,29,30,31,32,33,34,35,36,37,38,39,40,41,42,43,44,45,46,47,48,49,50,51,52,53,54,55,56,57,58,59,60,61,62,63,64,65,66,67,68,69,70,71,72,73,74,75,76,77,78,79,80,81,82,83,84,85,86,87,88,89,90,91,92,93,94,95,96,97,98,99,100,101,102,103,104,105,106,107,108,109,110,111,112,113,114,115,116,117,118,119,120,121,122,123,124,125,126,127,128,129,130,131,132,133,134,135,136,137,138,139,140,141,142,143,144,145,146,147,148,149,150,151,152,153,154,155,156,157,158,159,160,161,162,163,164,165,166,167,168,169,170,171,172,173,174,175,176,177,178,179,180,181,182,183,184,185,186,187,188,189,190,191,192,193,194,195,196,197,198,199,200,201,202,203,204,205,206,207,208,209,210,211,212,213,214,215,216,217,218,219,220,221,222,223,224,225,226,227,228,229,230,231,232,233,234,235,236,237,238,239,240,241,242,243,244,245,246,247,248,249,250,251,252,253,254,255,256,257,258,259,260,261,262,263,264,265,266,267,268,269,270,271,272,273,274,275,276,277,278,279,280,281,282,283,284,285,286,287,288,289,290,291,292,293,294,295,296,297,298,299,300,301,302,303,304,305,306,307,308,309,310,311,312,313,314,315,316,317,318,319,320,321,322,323,324,325,326,327,328,329,330,331,332,333,334,335,336,337,338,339,340,341,342,343,344,345,346,347,348,349,350,351,352,353,354,355,356,357,358,359,360,361,362,363,364,365,366,367,368,369,370,371,372,373,374,375,376,377,378,379,380,381,382,383,384,385,386,387,388,389,390,391,392,393,394,395,396,397,398,399,400,401,402,403,404,405,406,407,408,409,410,411,412,413,414,415,416,417,418,419,420,421,422,423,424,425,426,427,428,429,430,431,432,433,434,435,436,437,438,439,440,441,442,443,444,445,446,447,448,449,450,451,452,453,454,455,456,457,458,459,460,461,462,463,464,465,466,467,468,469,470,471,472,473,474,475,476,477,478,479,480,481,482,483,484,485,486,487,488,489,490,491,492,493,494,495,496,497,498,499,500,501,502,503,504,505,506,507,508,509,510,511
0.0059099803,-0.012407045,0.019530334,-0.012641879,0.013033268,0.014990215,-0.015538161,-0.00058708416,0.007475538,0.015459883,-0.019608611,-0.013581214,0.018982388,-0.015459883,-0.0036399218,0.014755381,-0.0038747555,0.01444227,0.0009784736,0.019295499,0.0030919765,0.008180039,-0.00739726,0.004187867,-0.007632094,0.005675147,0.0037181997,-0.007005871,-0.0025440312,0.017181996,-0.012876713,0.003483366,0.0087279845,-0.006692759,0.014207437,-0.005518591,0.012563601,-0.0016829745,-0.0002739726,-0.0087279845,-0.002074364,0.012720156,0.01405088,0.012407045,-0.013033268,-0.0030136986,0.0016829745,-0.019921722,0.017103719,0.010528375,-0.015851272,-0.018434443,-0.009119374,-0.0066144816,-0.011624266,0.0032485323,-0.01882583,-0.012563601,0.007945205,0.010215264,-0.01851272,-0.01483366,-0.00066536205,0.0010567515,0.004892368,0.0025440312,-0.019530334,-0.010998043,0.0067710374,-0.009041096,-0.014207437,0.019765167,0.0015264188,-0.0019960862,-0.0009784736,0.013111546,-0.009667319,-0.008571428,-0.011154599,-0.019843444,0.02,0.005127202,0.009354208,0.0077103716,-0.008962818,0.009667319,-0.015381604,0.01882583,-0.008258317,0.01741683,0.010450098,-0.019217221,0.018747553,-0.013268102,-0.015616438,-0.0063796476,0.011937378,-0.013659491,0.008649707,0.0023874755,0.015616438,-0.0012915852,-0.006849315,0.017338552,0.019608611,-0.012093933,-0.016790606,0.0045009786,0.013268102,0.0031702544,-0.011311155,0.0033268102,-0.010684932,0.008023484,-0.0019178082,-0.017573386,-0.0059882584,0.00050880626,-0.007866927,-0.008101761,0.01632094,0.0042661447,0.0037964776,0.0040313113,-0.018356165,0.017573386,0.015538161,-0.0012133073,-0.0072407047,0.014285714,-0.0042661447,0.008806262,-0.0059099803,-0.0022309197,0.009119374,0.010841487,0.00043052837,-0.012720156,0.0073189824,0.015772995,0.016477495,-0.019138943,-0.013424657,0.0011350294,0.017651664,0.0149119375,0.011545988,0.015851272,0.006849315,-0.010606654,-0.001369863,-0.019765167,0.012328767,-0.006144814,0.0016046966,0.017729942,0.0044227005,-0.009432485,0.00011741683,-0.010136986,0.0022309197,-0.0032485323,0.018590998,0.018434443,-0.015303327,0.0052054795,-0.018747553,0.007632094,-0.017181996,0.01663405,-0.0138160465,-0.01812133,0.002700587,-0.014285714,-0.0057534245,0.0019178082,-0.0029354207,-0.005283757,-0.0113894325,-0.00630137,-0.01295499,0.009902152,-0.012172211,0.0077886498,-0.002700587,-0.014129158,0.0019960862,0.01890411,0.018669276,-0.0037181997,-0.01334638,-0.010528375,-0.0008219178,0.01592955,-0.010841487,-0.01890411,0.011232877,0.01851272,0.00066536205,0.0046575344,0.007553816,0.015225049,0.019452054,-0.0046575344,-0.01146771,-0.0037964776,0.00481409,0.016399218,0.005518591,0.018199608,-0.016477495,0.00739726,0.0055968687,-0.016399218,-0.0009001957,-0.014755381,-0.019686889,-0.0026223091,-0.010215264,0.011780822,-0.016868884,-0.004109589,0.012485323,0.011859099,0.008336595,0.013659491,-0.00927593,-0.008806262,0.015381604,-0.013189824,0.0100587085,-0.007084149,0.015146771,0.010998043,0.0002739726,-0.006223092,0.009589041,0.015303327,-0.0052054795,-0.01663405,-0.0017612524,0.010136986,0.008258317,-0.019452054,0.0036399218,-0.011545988,0.006144814,-0.013502936,-0.009354208,0.017495107,-0.0053620352,-0.0011350294,-0.016555773,0.016164383,-0.00050880626,0.0026223091,-0.017338552,0.003953033,-0.008023484,-0.0021526418,0.019686889,-0.018199608,0.006457926,-0.0065362034,-0.0040313113,-0.0071624266,-0.004970646,-0.002778865,-0.016947163,0.008101761,0.012798434,0.004970646,-0.01741683,0.007005871,0.013972603,0.007866927,0.0003522505,-0.014677104,0.0012915852,-0.019373776,-0.0045792563,-0.011780822,-0.0058317026,-0.0055968687,-0.0044227005,-0.0023874755,-0.005440313,0.01334638,-0.003953033,-0.004735812,-0.008414873,-0.012015656,0.013502936,-0.006066536,-0.009745597,-0.016086105,0.0065362034,-0.0033268102,-0.00888454,0.01295499,-0.0003522505,-0.00481409,-0.005127202,0.016947163,0.017964775,0.016790606,0.01225049,-0.01702544,0.0008219178,-0.01037182,-0.008336595,0.00058708416,-0.004892368,0.009432485,0.008962818,-0.014363992,0.001448141,0.0012133073,0.011702544,-0.010763209,0.014520548,0.008493151,0.006223092,0.018277887,0.004344423,0.0050489237,-0.0024657534,0.008571428,0.009510763,-0.018669276,0.018356165,-0.015772995,-0.00043052837,0.0029354207,0.009823875,-0.008649707,-0.017729942,0.012876713,0.0023091976,0.014598826,0.017260274,0.019373776,0.00630137,-0.003561644,0.0021526418,0.00888454,0.0045792563,-0.003483366,-0.006457926,-0.009980431,0.0057534245,-0.019060666,-0.012798434,-0.0100587085,-0.009902152,-0.015146771,0.003405088,-0.016712328,-0.0015264188,-0.018590998,0.0053620352,0.016712328,0.0017612524,0.010293542,-0.01780822,-0.01225049,-0.01632094,0.0071624266,0.015694717,-0.008180039,-0.007945205,-0.004187867,0.014129158,0.013581214,-0.016164383,-0.017260274,0.01146771,0.003561644,0.007084149,0.0072407047,-0.005675147,-0.013972603,0.0009001957,0.001369863,0.01624266,0.019843444,0.016868884,0.013424657,-0.018277887,0.006692759,0.019921722,3.9138944e-05,-0.0050489237,0.005283757,-0.017103719,0.0030136986,-0.010293542,-0.011937378,-0.0023091976,-0.018982388,-0.012328767,0.013894325,-0.0149119375,-0.009197651,0.010684932,0.013189824,-0.015068493,0.014363992,-0.01624266,0.0024657534,0.005440313,0.015068493,-0.019295499,-0.01592955,-0.01444227,0.0018395303,0.011154599,0.009980431,-0.009510763,-0.014990215,0.018043052,-0.011232877,0.0063796476,0.00927593,-0.0030919765,-0.0045009786,-0.017886497,-0.007475538,0.014677104,-0.0031702544,0.0113894325,0.019138943,0.009041096,-0.015225049,0.019060666,-0.0077886498,-0.006927593,0.01037182,-0.003405088,-0.011859099,-0.013737769,0.0028571428,0.010763209,-0.018043052,0.00019569472,0.012093933,-0.007553816,-0.010919766,-0.008493151,-0.0010567515,-0.0073189824,-0.009823875,0.011076321,-0.017495107,0.002074364,0.004109589,0.00074363995,-0.0016046966,-0.00019569472,-0.010450098,-0.0018395303,0.0059882584,-0.001448141,0.013737769,0.01812133,0.011311155,-0.0028571428,-0.02,-0.009589041,0.016555773,-0.012485323,-0.00074363995,0.012641879,-0.0077103716,0.0058317026,0.006066536,0.01780822,-0.011076321,0.009197651,0.010919766,-3.9138944e-05,-0.014598826,0.012172211,0.01483366,-0.013894325,-0.017651664,-0.016007828,0.016086105,0.0066144816,-0.01405088,0.002778865,0.006927593,0.011624266,0.009745597,-0.015694717,0.012015656,0.0138160465,-0.011702544,-0.004344423,0.010606654,-0.00011741683,-0.014520548,-0.017964775,0.008414873,0.0038747555,-0.0067710374,0.017886497,0.019217221,0.004735812,0.016007828,-0.013111546,0.01702544
0.010293542,-0.0037181997,-0.0057534245,-0.018747553,-0.006223092,-0.004187867,-0.013424657,0.015146771,-0.006927593,-0.013659491,-0.005440313,-0.01037182,0.00043052837,-0.00739726,-0.010998043,-0.007553816,0.011624266,-0.0022309197,0.0046575344,-0.017729942,-0.0100587085,0.012485323,-0.0008219178,-0.00019569472,0.005440313,-0.006849315,-0.010919766,0.016007828,0.015303327,-0.013033268,0.0077886498,-0.0019960862,0.014755381,0.011545988,0.018434443,-0.017964775,-0.0059099803,0.017260274,0.013033268,0.00019569472,0.018590998,-0.0033268102,0.0025440312,-0.009667319,-0.012720156,0.005675147,-0.002074364,0.012407045,-0.015538161,0.010450098,0.0011350294,0.010684932,0.010841487,-0.0009001957,0.012015656,-0.0045009786,-0.015303327,0.00058708416,0.014990215,0.008180039,-0.010763209,-0.011624266,-0.0015264188,0.0018395303,0.009510763,-0.007945205,-0.018356165,-0.006144814,0.004187867,0.007553816,0.009823875,-0.0071624266,0.0009784736,-0.0031702544,-0.015225049,0.0019960862,-0.016399218,0.014207437,-0.0029354207,0.006692759,-0.0012133073,-0.006066536,-0.008101761,-0.0026223091,-0.017260274,0.010215264,0.01483366,-0.0077886498,0.012798434,0.011937378,0.017886497,-0.010450098,0.019217221,-0.012563601,0.017495107,-0.003405088,0.004344423,-0.009980431,-0.01741683,0.012328767,-0.0021526418,0.0113894325,-0.015694717,-0.005675147,0.0040313113,-0.0023874755,0.0009001957,0.011154599,0.007632094,-0.014129158,0.013502936,-0.009354208,0.019530334,-0.0077103716,-0.011702544,-0.0038747555,-0.010528375,-0.016712328,-0.018982388,-0.0032485323,0.006144814,0.0077103716,-0.00011741683,0.014677104,0.007005871,-0.0073189824,0.0002739726,0.0023874755,0.015381604,0.0063796476,-0.015851272,0.014285714,0.008806262,0.0016829745,-0.0023091976,-0.016086105,-0.01405088,-0.019843444,-0.010684932,-0.005518591,0.0042661447,-0.0028571428,0.016868884,0.0022309197,0.010528375,-0.015146771,0.01146771,0.001448141,0.0029354207,-0.009589041,-0.006692759,0.016947163,0.0021526418,0.013111546,0.012093933,-0.016477495,3.9138944e-05,-0.014207437,-0.012407045,-0.00481409,0.0028571428,-0.019608611,-0.013972603,0.016790606,-0.009823875,-0.01225049,-0.011154599,0.015068493,0.014598826,-0.019765167,0.0044227005,-0.0067710374,0.015616438,-0.01812133,0.00888454,0.009667319,-0.017886497,0.0037181997,0.0100587085,0.017729942,0.0038747555,-0.01702544,-0.014363992,-0.0019178082,-0.016555773,-0.011937378,-0.009510763,0.013189824,-0.016790606,0.01780822,-0.01592955,-0.012485323,0.0016046966,0.003561644,-0.019921722,-0.0030919765,0.004109589,-0.0024657534,0.018199608,0.00074363995,-0.0016829745,0.0030136986,-0.019060666,-0.018043052,0.0050489237,0.0045792563,-0.01851272,-0.004892368,-0.013581214,0.019373776,0.005518591,0.008649707,0.00739726,-0.004344423,-0.01624266,0.008336595,-0.0012915852,-0.0044227005,-0.015381604,0.0071624266,0.019295499,0.014363992,0.002778865,-0.01663405,-0.007632094,0.00927593,0.002700587,0.0138160465,0.00011741683,-0.009197651,0.01592955,-0.017573386,-0.016868884,0.0087279845,-0.01632094,0.0024657534,-0.0055968687,-0.009432485,0.0052054795,-0.00888454,0.0031702544,0.01334638,-0.0046575344,-0.007475538,-0.0011350294,-0.0072407047,-0.017338552,0.01741683,0.009354208,0.0017612524,-0.010136986,-0.001369863,-0.01483366,0.015538161,0.003405088,0.011702544,0.003483366,-0.004109589,-0.008962818,-0.015459883,0.015459883,-0.012328767,0.018277887,-0.014520548,-0.017103719,0.012641879,0.0010567515,0.01405088,0.017651664,0.009432485,-0.019452054,-0.00066536205,-0.008806262,0.008101761,-0.007084149,-0.013894325,-0.009902152,0.015851272,-0.005283757,-0.005127202,-0.01890411,-0.014285714,0.011780822,0.017573386,0.007866927,-0.014677104,-0.019373776,-0.019530334,0.014520548,-0.019217221,0.017103719,-0.006457926,-0.019295499,-0.0010567515,-0.00050880626,-0.0040313113,0.019765167,0.012720156,-0.003953033,-0.011545988,0.006066536,0.018669276,-0.0063796476,0.01702544,0.0037964776,-0.0009784736,-0.019138943,0.013972603,-0.0017612524,-0.0059882584,-0.008180039,0.016164383,-0.016007828,-0.013111546,0.018747553,0.02,0.017964775,0.01890411,0.0045009786,-0.008414873,-0.00927593,0.0012915852,0.019921722,0.013659491,-0.016164383,0.01225049,0.005127202,-0.008571428,0.008023484,0.014129158,-0.011232877,-0.01882583,-0.015068493,0.010998043,0.0067710374,-0.018434443,-0.0052054795,0.010919766,0.0066144816,-0.014990215,-0.0087279845,0.017181996,0.009589041,0.0032485323,-0.008336595,0.01812133,0.01624266,0.008571428,-0.015616438,-0.013737769,0.011076321,-0.007005871,-0.00043052837,0.015225049,-0.018669276,0.008493151,0.006927593,-0.0042661447,-0.0037964776,-0.013502936,-0.004970646,-0.0058317026,0.0058317026,0.019138943,-0.0016046966,0.010606654,-0.010293542,-0.008023484,0.00066536205,0.012563601,0.019608611,-0.010606654,0.015694717,0.0065362034,0.006457926,-0.0036399218,0.001369863,0.018982388,-0.014755381,0.016555773,0.00481409,-0.002778865,-0.018277887,-0.01334638,0.019686889,0.013737769,-0.018590998,-0.0045792563,-0.01780822,-0.011311155,0.003953033,0.0073189824,0.0059882584,-0.0018395303,-0.003483366,0.008414873,0.007945205,-0.009041096,0.0057534245,-0.013189824,0.016477495,0.013581214,0.012876713,-0.009745597,0.010763209,-0.0066144816,0.018356165,0.009197651,0.0072407047,-0.011780822,-0.019686889,-0.00074363995,-0.008493151,-0.0053620352,0.004970646,-0.007866927,-0.002700587,0.0026223091,-0.001448141,-0.017181996,0.007475538,0.0059099803,0.019843444,0.009902152,-0.013268102,0.009041096,-0.0025440312,-0.017651664,0.009980431,-0.011076321,0.0036399218,0.0015264188,-0.01146771,0.01882583,0.007084149,-0.011859099,0.010136986,0.009745597,0.0019178082,-0.018199608,0.008258317,0.01632094,-0.0002739726,0.019452054,0.01295499,0.006223092,-0.012798434,-0.010841487,0.013268102,0.0055968687,0.0030919765,0.018043052,0.0149119375,-0.012172211,-0.015772995,-0.014598826,-0.012015656,0.0008219178,-0.004735812,0.00050880626,-0.003561644,-0.017495107,0.013894325,0.017338552,-0.01295499,-0.00630137,0.011232877,0.011859099,0.01663405,0.011311155,-0.012641879,0.016086105,0.013424657,-0.012876713,0.008962818,0.0053620352,-0.0003522505,0.01037182,0.004735812,0.009119374,-0.0065362034,0.016399218,0.0023091976,-0.02,0.0012133073,0.019060666,0.00630137,-0.0050489237,-0.008649707,0.004892368,0.016712328,-0.0113894325,0.005283757,0.002074364,0.015772995,-0.010215264,-0.0030136986,0.006849315,-0.0138160465,-0.012093933,0.0003522505,-0.016947163,-0.008258317,-3.9138944e-05,-0.00058708416,-0.01444227,-0.009119374,0.01851272,0.012172211,-0.0149119375,0.01444227,0.0033268102
-0.004109589,-0.0042661447,-0.009823875,0.013894325,-0.00074363995,-0.009667319,-0.0138160465,-0.015851272,0.004187867,0.017651664,-0.003483366,0.017573386,0.002074364,0.01483366,-0.010136986,0.008258317,-0.015381604,0.010606654,-0.0029354207,-0.00066536205,-0.0055968687,0.0017612524,0.01851272,-0.012720156,-0.008806262,-0.006144814,-0.011780822,-0.0059882584,-0.006927593,-0.018199608,-0.014285714,0.018199608,0.0077103716,-0.012876713,-0.005283757,0.017886497,0.0042661447,0.013737769,-0.009432485,0.012641879,0.0019178082,0.0024657534,-0.012485323,0.0038747555,0.014755381,0.018590998,-0.00050880626,-0.005675147,-0.003561644,-0.012798434,0.015225049,0.012563601,-0.018747553,-0.011937378,-0.0149119375,-0.012015656,-0.009902152,-0.0002739726,-0.0033268102,-0.019217221,-0.0077886498,-0.01037182,0.019530334,-0.0026223091,-0.013894325,-0.017573386,0.01444227,0.015068493,0.00058708416,0.008414873,0.015303327,0.0037964776,0.011937378,-0.006457926,-0.008258317,-0.01851272,-0.017651664,-0.00927593,0.010763209,-0.016712328,0.014520548,0.006223092,-0.007945205,-0.0037181997,-0.016790606,0.004344423,0.012093933,0.008962818,0.009745597,-0.01702544,-0.010293542,0.0026223091,-0.013659491,-0.00888454,-0.009510763,0.0016046966,-0.00739726,-0.016086105,-0.010919766,-0.014129158,0.007553816,0.0009001957,0.018669276,0.01890411,-0.017729942,-0.0045009786,0.01037182,-0.004187867,-0.01405088,0.010919766,0.0138160465,-0.019060666,-0.0017612524,0.0059882584,0.019843444,-0.005127202,0.0002739726,0.0028571428,-0.0016829745,-0.018669276,-0.008962818,0.008571428,0.01741683,-0.012172211,-0.006692759,-0.017338552,-0.004970646,0.0030919765,-0.0012915852,-0.0009784736,0.00074363995,0.018043052,0.0100587085,-0.01483366,0.016790606,0.0071624266,0.005127202,-0.01295499,-0.016947163,-0.01334638,0.015459883,-0.0024657534,0.01882583,-0.01663405,-0.007084149,-0.006223092,-0.018356165,0.001448141,-0.011311155,0.01632094,-0.014520548,0.003953033,0.016947163,0.0016829745,-0.015225049,-0.013581214,-0.00043052837,0.0149119375,0.0019960862,0.01334638,0.011232877,0.0032485323,-0.014677104,-0.014755381,0.013659491,0.019921722,-0.0028571428,-0.015538161,-0.004735812,0.008336595,-0.0003522505,-0.019452054,-0.008180039,0.0067710374,0.013424657,0.009119374,0.016007828,-0.019765167,-0.006849315,-0.01882583,0.0052054795,0.014990215,0.014598826,0.019060666,3.9138944e-05,-0.013424657,-0.001448141,-0.009745597,-0.012093933,0.008806262,-0.0036399218,0.00481409,0.005440313,0.0050489237,-0.002074364,-0.013111546,0.004735812,-0.015459883,-0.001369863,-0.010763209,-0.008023484,0.015538161,-0.004892368,0.01592955,-0.0053620352,-0.0071624266,-0.012328767,-0.004344423,-0.0032485323,-0.011702544,0.0030136986,0.0009784736,0.019765167,-0.019843444,-0.0019960862,-0.018982388,0.006849315,0.0011350294,0.009902152,-0.01225049,0.0015264188,0.003405088,-0.008649707,0.011702544,0.01780822,0.0073189824,0.0072407047,-0.011232877,-0.012563601,-0.018277887,-0.013033268,0.002700587,0.0018395303,-0.0065362034,-0.012641879,0.003561644,0.011545988,0.009980431,0.013268102,-0.0077103716,0.0065362034,0.004970646,-0.010606654,-0.011545988,0.008493151,0.010684932,0.0113894325,0.006457926,0.0063796476,0.018747553,-0.0009001957,0.0087279845,0.007084149,-0.0011350294,-0.015772995,0.015772995,-0.014990215,-0.01444227,-0.011624266,-0.018043052,0.010215264,-0.00058708416,0.0010567515,-0.015146771,0.007475538,-0.013502936,0.017729942,0.01146771,-0.019921722,-0.00630137,-0.0050489237,0.013111546,0.0029354207,-0.01812133,-0.013268102,0.014285714,-0.0023091976,0.016399218,0.013972603,0.016868884,0.015694717,-0.019608611,-0.003405088,0.010998043,-0.017103719,-0.0045792563,0.009197651,0.019295499,0.0023874755,0.012328767,0.011311155,-0.016477495,-0.0038747555,0.00050880626,0.012876713,0.0053620352,0.0008219178,0.013033268,-0.0067710374,0.00019569472,-0.009589041,0.0077886498,0.019373776,0.017260274,-0.0021526418,0.017181996,-0.0010567515,0.010293542,0.018982388,-0.005440313,-0.0012133073,-0.008571428,-0.011076321,0.0059099803,-0.0072407047,0.019452054,0.0022309197,0.0036399218,0.014363992,0.016477495,-0.0022309197,0.012172211,0.011624266,-0.010998043,-0.016555773,0.011859099,0.0046575344,0.007005871,-0.0008219178,0.0057534245,0.014677104,0.01812133,-0.014207437,-0.0023874755,0.011780822,-0.015694717,0.0012133073,-0.017964775,-0.017886497,-0.015068493,-0.008414873,0.006066536,0.013581214,0.005518591,0.010450098,0.012798434,-0.01146771,-0.016007828,0.0045792563,-0.00011741683,-0.009119374,0.016555773,-0.01632094,-0.007005871,0.003483366,-0.01592955,-0.019686889,0.009510763,0.009432485,0.013189824,-0.0057534245,-0.0058317026,0.018434443,0.0058317026,0.017495107,-0.015616438,0.008649707,-0.010528375,-0.01780822,0.019608611,-0.014363992,-0.0037964776,0.0066144816,0.005675147,0.009041096,0.0031702544,0.017338552,0.008101761,0.015146771,0.0033268102,-0.017495107,0.00927593,0.0044227005,-0.016868884,0.015381604,-0.010841487,-0.012407045,-0.011859099,0.005283757,0.0012915852,-0.007632094,-0.005518591,0.015616438,0.004109589,0.00043052837,0.00630137,0.0040313113,-0.016164383,-0.019530334,0.006692759,0.018277887,-0.013189824,-0.009041096,0.016164383,-0.010684932,0.00011741683,-0.02,-0.0019178082,0.007945205,-0.00019569472,-0.0015264188,0.002778865,-0.0046575344,0.011076321,0.00739726,0.0055968687,-0.008493151,0.001369863,-0.010450098,-0.0059099803,0.016712328,0.006144814,-0.011154599,-0.0025440312,-0.0016046966,0.012015656,-0.007475538,-0.018590998,-0.019138943,0.014207437,0.0037181997,0.0025440312,0.0045009786,0.01624266,0.01702544,0.012407045,-0.00481409,-0.0063796476,-0.008101761,0.010136986,0.012720156,0.008180039,-0.0031702544,-0.019295499,-0.0113894325,-0.010215264,-0.013972603,-0.01741683,-0.003953033,0.019138943,-0.017260274,0.007632094,-0.018434443,-0.016399218,-0.0030919765,-0.0052054795,0.019217221,0.006927593,-0.013737769,-0.002778865,-0.017181996,-0.019373776,-0.006066536,-0.0073189824,-0.0044227005,-0.0040313113,0.009823875,-0.0066144816,0.013502936,0.012485323,-0.0018395303,0.01295499,-0.009197651,-0.0030136986,0.007866927,0.0023091976,-0.015303327,0.016086105,-3.9138944e-05,0.017964775,0.010528375,0.0003522505,-0.009354208,0.00888454,-0.007553816,-0.002700587,0.01225049,-0.0087279845,-0.009980431,-0.007866927,0.00066536205,0.009354208,0.015851272,0.01663405,0.02,-0.01624266,-0.008336595,0.0021526418,0.019686889,0.01405088,0.010841487,0.004892368,0.017103719,0.008023484,-0.01890411,0.011154599,-0.0100587085,0.009589041,0.014129158,-0.014598826,0.018356165,0.009667319
0.017729942,0.015146771,-0.0058317026,-0.013659491,-0.013424657,-0.016868884,-0.015538161,0.0030136986,0.0042661447,0.003405088,0.019530334,-0.017651664,0.01037182,-0.00050880626,-0.006144814,-0.015146771,-0.003405088,-0.007632094,0.015772995,0.019843444,0.018747553,0.018356165,0.017260274,-0.018277887,-0.012641879,-0.008414873,0.0012133073,-0.011154599,0.00927593,0.011859099,0.012563601,-0.01632094,-0.016164383,0.011154599,0.009432485,0.0050489237,-0.0077886498,0.008414873,-0.0045792563,-0.004109589,-0.0100587085,0.02,-0.008806262,-0.007084149,-0.012328767,0.010998043,0.0058317026,-0.01483366,-0.01890411,0.005127202,0.015616438,0.0002739726,-0.0030919765,-0.019530334,-0.003953033,0.010919766,0.0071624266,0.0003522505,-0.00927593,0.008258317,0.011545988,-0.009589041,0.018669276,-0.019295499,-0.016477495,0.019373776,-0.007553816,-0.0037181997,-0.016790606,-0.019765167,0.015851272,-0.005283757,-0.0016829745,-0.012876713,-0.001369863,0.018277887,0.008023484,0.0055968687,0.0019178082,0.0023091976,0.0059099803,-0.004970646,0.0087279845,0.010606654,-0.016007828,0.00043052837,-0.017338552,0.019686889,-0.011780822,-0.014598826,0.008336595,-0.012093933,-0.011859099,0.019765167,-0.008180039,0.0025440312,-0.007005871,-0.015459883,-0.01812133,0.0038747555,0.014990215,0.017886497,-0.0071624266,0.0057534245,-0.0059099803,-0.01741683,0.002700587,0.019217221,0.00066536205,-0.010215264,0.01663405,0.011937378,-0.010293542,0.012328767,-0.0038747555,-0.017729942,-0.0021526418,-0.01882583,-0.010998043,-0.0002739726,0.0059882584,-0.009197651,-0.0055968687,-0.004892368,0.017964775,0.010763209,0.013189824,0.012798434,-0.010606654,0.016007828,0.017338552,-0.0023091976,0.010136986,-0.009980431,-0.00058708416,-0.0009784736,-0.004344423,-0.00019569472,-0.018434443,0.015068493,0.0077103716,-0.014677104,-0.008336595,-0.0023874755,0.0011350294,0.0040313113,-0.015381604,0.015694717,0.010450098,-0.009902152,-0.01334638,-0.0045009786,-0.004187867,0.008180039,-0.006849315,-0.00043052837,-0.01295499,0.0037964776,0.014129158,0.010684932,-0.009745597,0.0023874755,-0.0036399218,0.0030919765,0.009510763,-0.0087279845,0.00019569472,-0.01444227,0.00630137,0.0149119375,0.011311155,0.013659491,0.01225049,0.004892368,-0.010528375,0.011780822,0.003483366,-0.018590998,0.0036399218,0.009980431,0.012485323,-0.012015656,0.012876713,0.0037181997,0.0045792563,-0.015694717,-0.0040313113,0.0009784736,-0.0019960862,-0.0019178082,-0.016555773,0.002778865,0.013894325,-0.018199608,0.016712328,-0.018669276,-0.0050489237,0.0016829745,0.011232877,0.015459883,0.009823875,-0.014129158,0.0028571428,0.010841487,-0.007945205,0.01702544,0.017573386,-0.0026223091,-0.019373776,-0.008023484,0.0033268102,0.00011741683,-0.006066536,-0.013894325,0.009589041,0.018199608,0.012015656,-0.012798434,0.0138160465,0.019452054,0.00074363995,-0.0113894325,0.0031702544,0.009041096,-0.0032485323,0.0066144816,-0.018356165,-0.008962818,-0.013033268,0.014677104,0.007475538,0.007632094,-0.013581214,0.014285714,0.004735812,-0.0031702544,-0.009119374,0.0113894325,-0.002700587,0.01624266,0.010215264,-0.005675147,0.011076321,-0.019138943,0.017651664,0.008493151,0.007945205,0.015538161,0.008571428,0.01780822,-0.005440313,-0.011545988,-0.018747553,0.005440313,-0.01851272,-0.018982388,-0.00066536205,-0.008493151,0.007866927,-0.0015264188,-0.012172211,0.005518591,0.011702544,-0.014285714,-0.01780822,0.0067710374,-0.0012915852,-0.014207437,0.01851272,-0.011311155,0.001448141,-0.013189824,-0.0053620352,0.010528375,0.0017612524,-0.0012133073,0.0021526418,-0.0011350294,-0.011076321,0.003561644,-0.016947163,0.0045009786,-0.012407045,0.009667319,0.002074364,-0.0003522505,0.00888454,0.014363992,-0.012563601,-0.00739726,-0.002074364,0.00050880626,0.01405088,-0.00011741683,0.004970646,0.01632094,0.0024657534,3.9138944e-05,-0.012485323,-0.00481409,-0.014990215,0.004187867,0.007005871,0.008962818,0.015303327,0.017103719,0.0009001957,0.013111546,0.0077886498,0.0063796476,-0.016399218,0.00058708416,0.018434443,-0.0028571428,-0.01146771,0.017495107,-0.015225049,-0.017886497,-0.005127202,-0.010684932,0.016790606,0.0052054795,-0.018043052,0.009354208,0.0010567515,-0.008101761,0.0008219178,-0.0057534245,-0.017964775,-0.010841487,-0.017103719,-0.009667319,-0.0149119375,0.0053620352,0.009119374,-0.009041096,-0.008649707,-0.019686889,0.003953033,0.016477495,-0.0022309197,-3.9138944e-05,-0.016712328,0.019060666,-0.0025440312,-0.010450098,0.006223092,-0.013502936,-0.008258317,-0.0063796476,-0.009510763,-0.009354208,-0.0072407047,0.016164383,0.008806262,0.019138943,0.01295499,0.0026223091,-0.0077103716,-0.02,-0.01037182,-0.0029354207,0.01741683,0.0032485323,-0.014520548,0.001369863,0.014207437,0.0015264188,-0.006223092,0.006144814,0.014520548,-0.01624266,0.0022309197,-0.0046575344,0.004109589,0.018982388,-0.01663405,0.01592955,-0.007475538,-0.017495107,0.004344423,0.010293542,-0.019921722,-0.0138160465,0.0012915852,-0.0065362034,-0.0018395303,-0.007866927,-0.009432485,0.0016046966,0.012407045,-0.002778865,0.016947163,-0.00074363995,0.0029354207,-0.010763209,-0.019843444,-0.006927593,-0.011624266,-0.012720156,0.007084149,-0.015772995,-0.0066144816,0.008101761,-0.0044227005,-0.019452054,-0.005518591,0.016868884,0.019608611,-0.017181996,-0.006457926,-0.001448141,0.016555773,-0.0037964776,-0.010136986,-0.015068493,-0.017573386,-0.017260274,-0.00888454,0.013581214,-0.013737769,0.0019960862,-0.019060666,-0.003561644,-0.019217221,0.017181996,0.014755381,0.00739726,-0.011937378,-0.0033268102,0.005283757,0.013502936,-0.0024657534,-0.0010567515,0.006692759,0.0065362034,0.011624266,0.013737769,-0.0017612524,-0.00630137,0.006927593,0.0046575344,-0.011702544,0.012641879,0.006066536,-0.019608611,0.01890411,0.015381604,0.008649707,-0.009823875,0.014598826,-0.003483366,-0.0073189824,0.019295499,0.01444227,-0.0052054795,0.0100587085,-0.006692759,0.006457926,-0.010919766,-0.0009001957,0.01812133,0.01334638,0.009902152,0.013972603,-0.015616438,-0.015851272,-0.0042661447,0.016086105,-0.016086105,-0.0030136986,0.013268102,-0.008571428,-0.014755381,-0.0067710374,0.012093933,0.0072407047,0.005675147,-0.013111546,0.015225049,-0.014363992,0.00481409,-0.013972603,0.012172211,0.009197651,-0.0059882584,0.016399218,0.012720156,-0.013268102,0.006849315,-0.01225049,0.007553816,-0.01702544,0.0018395303,0.019921722,-0.01405088,0.013033268,0.018043052,-0.01592955,0.018590998,0.01483366,0.0073189824,0.013424657,-0.0016046966,-0.015303327,-0.011232877,0.01882583,0.009745597,-0.0008219178,-0.004735812,0.01146771,0.0044227005
0.011702544,0.00074363995,-0.010763209,-0.0025440312,-0.019373776,0.007005871,0.009119374,-0.00050880626,0.01405088,-0.019452054,0.0021526418,0.0002739726,0.0055968687,0.010841487,-0.003405088,0.019217221,0.0019960862,-0.017338552,0.0031702544,0.013189824,-0.01812133,0.019295499,-0.019138943,-0.018199608,0.00043052837,0.012798434,-0.003953033,0.0045009786,-0.013189824,-0.014285714,-0.019843444,0.01334638,0.0009784736,-0.001369863,0.0036399218,-0.018277887,-0.01851272,-0.01882583,-0.010136986,0.00066536205,-0.0055968687,-0.0030136986,0.015381604,0.018590998,-0.016947163,0.017260274,0.018043052,-0.016399218,0.01624266,0.0038747555,-0.012328767,0.008023484,0.012641879,-0.018982388,-0.0019960862,0.010998043,0.013737769,0.0059882584,0.015694717,-0.004109589,0.007475538,0.006927593,-0.010528375,-0.0036399218,0.008649707,-0.005675147,-0.01780822,0.0050489237,0.005283757,0.002778865,0.016086105,0.013502936,-0.0066144816,-0.0100587085,0.009510763,-0.0028571428,0.00888454,-0.012485323,-0.010215264,-0.015851272,-0.0033268102,0.015303327,-0.012015656,-0.007866927,0.010136986,0.002074364,-0.0077886498,-0.013581214,0.0025440312,0.014520548,-0.0113894325,0.018982388,0.0065362034,-0.019217221,0.010293542,-0.013894325,-0.0016046966,0.011624266,-0.00019569472,0.006066536,0.00481409,-0.009980431,-0.00043052837,-0.004892368,-0.0021526418,-0.0052054795,-0.0044227005,-0.019765167,0.01444227,-0.0009001957,0.0032485323,-0.00066536205,0.003405088,-0.0012133073,0.0019178082,0.00011741683,-0.017964775,-0.011076321,0.019373776,0.010919766,-0.0057534245,-0.006144814,0.0077886498,-0.01702544,0.006223092,0.0024657534,-0.017886497,-0.018669276,0.015616438,0.003483366,0.01037182,0.009902152,0.004892368,-0.00739726,0.00739726,-0.02,-0.01592955,-0.00058708416,0.017181996,0.0017612524,0.0073189824,0.0072407047,0.014285714,0.013659491,-0.008493151,0.0023874755,0.013424657,0.009041096,-0.007084149,0.003561644,-0.013424657,-0.0026223091,-0.014363992,-0.0059882584,-0.002700587,0.004344423,0.011311155,0.005127202,-0.0030919765,0.0022309197,-0.009510763,-0.012876713,0.00630137,0.005440313,-0.008180039,-0.009823875,0.019530334,0.006692759,0.015146771,0.019608611,0.0149119375,-0.005518591,-0.016007828,0.016164383,-0.01334638,0.007632094,0.010215264,-0.008649707,-0.017729942,0.017573386,0.009823875,0.005675147,0.0045792563,-0.01632094,-0.016086105,-0.0045009786,0.02,-0.01037182,0.002700587,0.016477495,0.01702544,0.0009001957,0.005518591,-0.0038747555,-0.0003522505,0.0012915852,-0.015694717,-0.006457926,0.00927593,0.016868884,0.008571428,0.008962818,0.019452054,-0.0138160465,-0.012720156,0.00050880626,-0.011311155,0.0037964776,-0.0010567515,-0.009119374,-0.008336595,-0.0002739726,0.011232877,-0.007632094,-0.014755381,-0.00011741683,0.018747553,0.010528375,0.010606654,0.015851272,-0.009041096,0.0012133073,0.014677104,-0.0008219178,-0.0072407047,-0.0011350294,0.0003522505,0.004970646,3.9138944e-05,0.019843444,0.015068493,0.0011350294,-0.012798434,0.017103719,0.010450098,0.015459883,-0.00888454,0.018669276,-0.0067710374,-0.01405088,0.0030136986,-0.011702544,-0.016164383,-0.0032485323,-0.01444227,-0.016790606,-0.004735812,-0.013659491,-0.012407045,0.004187867,-0.011937378,0.010763209,-0.007005871,0.017729942,0.008336595,-0.015146771,-0.00481409,-0.003561644,0.019060666,0.0067710374,0.015538161,-0.009902152,-0.0065362034,-0.012641879,0.016712328,-0.0046575344,-0.013033268,-0.007553816,0.016555773,0.009354208,-0.01225049,0.016007828,-0.014520548,0.0030919765,0.007553816,-0.005283757,0.014129158,0.007084149,0.001448141,-0.00630137,-0.017103719,-0.008258317,-0.0019178082,-0.0023091976,0.014990215,-0.013268102,0.012720156,-0.01663405,-0.007475538,-0.01890411,0.0042661447,0.017964775,0.009197651,-0.011154599,-0.017573386,0.009980431,0.006457926,-0.010450098,-0.019608611,-0.009432485,-0.017260274,-0.0017612524,-0.011545988,-0.008571428,-0.014598826,-0.015303327,-0.0023874755,0.018434443,-0.0022309197,0.00058708416,0.0018395303,0.019138943,-0.01295499,-0.018356165,-0.008806262,-0.0063796476,-0.018590998,0.0071624266,0.013894325,0.011780822,-0.015538161,0.012328767,-0.0059099803,0.01592955,-0.0016829745,-0.002074364,0.018277887,-0.014207437,0.0052054795,0.004735812,-0.0053620352,-0.012093933,0.014207437,-0.003483366,0.0138160465,0.01295499,-0.014990215,0.0053620352,0.013581214,0.0046575344,0.011859099,-0.0037181997,-0.004344423,-0.011624266,-0.0015264188,-0.013972603,-0.0058317026,0.001369863,0.006144814,-0.013737769,0.0040313113,0.0044227005,0.015225049,-0.013111546,-0.016868884,0.017495107,0.018356165,0.0033268102,0.0037181997,0.0113894325,-0.014129158,-0.0042661447,0.008258317,-0.019060666,0.019765167,0.00019569472,-0.01483366,0.012485323,0.013033268,0.009432485,-0.0029354207,0.010684932,-0.017651664,0.011154599,-0.009197651,0.011937378,0.008101761,0.019921722,0.008493151,-0.010919766,0.003953033,-0.010841487,0.013111546,-0.007945205,0.0063796476,0.007945205,0.012876713,0.0010567515,-0.002778865,0.01890411,-0.017181996,-0.015772995,0.0016829745,-0.006927593,-0.0073189824,-0.006223092,0.01851272,0.018199608,0.0057534245,0.009667319,-0.019686889,-0.01741683,0.0059099803,-0.0071624266,-0.00074363995,-0.0045792563,0.017651664,-0.016477495,0.011545988,0.0028571428,-0.0031702544,-0.008101761,-0.0009784736,0.009745597,0.014755381,-0.0050489237,0.012093933,-0.013502936,0.012563601,0.01146771,-0.0024657534,-0.006692759,-0.0077103716,-0.005127202,-0.015068493,0.0087279845,0.017338552,-0.00927593,-0.014677104,0.006849315,-0.019921722,-0.006066536,0.016790606,-0.019530334,0.008180039,-0.004970646,-0.012563601,0.0066144816,0.01663405,-0.0087279845,-0.01624266,0.0008219178,0.012172211,0.01483366,0.013268102,-0.005440313,-0.0149119375,0.015772995,0.004109589,0.0058317026,0.0029354207,0.0016046966,-0.011780822,0.017886497,-0.008414873,-0.017495107,-0.015381604,-0.009667319,-0.01146771,-0.015616438,-0.0018395303,0.012015656,-0.015225049,0.0015264188,0.014363992,-0.009745597,0.012407045,0.01632094,0.008414873,-0.0040313113,0.0026223091,0.009589041,0.008806262,-0.015459883,0.0100587085,-0.011859099,-0.008023484,0.01812133,-0.016555773,-0.019295499,-0.018747553,0.019686889,0.01225049,-0.010998043,-0.001448141,-0.008962818,-0.018434443,0.01882583,-0.010606654,-0.004187867,-0.006849315,0.011076321,0.016947163,0.01741683,-0.0012915852,0.014598826,0.0023091976,-0.009589041,-0.0037964776,-0.012172211,-0.010684932,-0.011232877,0.01780822,-0.009354208,-3.9138944e-05,0.007866927,0.016399218,-0.016712328,0.013972603,-0.010293542,0.0077103716,-0.018043052
0.012641879,0.011076321,0.009354208,0.014285714,0.0002739726,0.0018395303,-0.008962818,0.0003522505,-0.009902152,-0.015146771,-3.9138944e-05,0.010136986,-0.006144814,-0.012641879,-0.019060666,0.016555773,0.012172211,0.01225049,-0.0003522505,0.0008219178,0.01632094,0.002700587,0.01037182,0.003405088,0.017651664,-0.0023874755,-0.011076321,-0.01632094,0.011624266,0.011937378,-0.009980431,0.01146771,0.0033268102,0.0067710374,-0.011780822,0.01780822,-0.009589041,0.0037181997,0.0072407047,-0.010919766,-0.006223092,0.008023484,0.013737769,0.017495107,-0.018747553,-0.001448141,0.008258317,-0.018277887,-0.019373776,-0.012876713,-0.005127202,-0.002700587,0.0100587085,-0.003483366,-0.0038747555,0.01334638,-0.009745597,-0.017103719,-0.019686889,0.013894325,0.017886497,-0.01890411,0.0149119375,-0.016947163,-0.00739726,-0.004892368,0.013189824,-0.019138943,-0.013502936,-0.02,0.01483366,-0.0100587085,0.011859099,-0.012015656,0.015146771,-0.017651664,0.0025440312,-0.00066536205,0.00630137,-0.009823875,-0.0040313113,0.0021526418,-0.015303327,-0.00074363995,-0.007553816,-0.008180039,-0.0042661447,-0.011624266,0.0087279845,-0.017964775,0.006692759,0.004187867,-0.004735812,-0.015851272,0.019295499,0.0045009786,-0.0011350294,0.010763209,0.01812133,-0.0058317026,-0.006849315,-0.009510763,0.007475538,0.012093933,-0.0019960862,-0.0012133073,0.0016829745,-0.0073189824,-0.005440313,0.002778865,0.0042661447,0.009745597,0.011545988,0.019921722,-0.012093933,-0.019530334,0.015303327,-0.013972603,0.012798434,0.0063796476,-0.003405088,0.009041096,-0.0026223091,0.018356165,-0.017495107,0.011311155,-0.015694717,-0.006692759,0.012485323,-0.008806262,-0.012407045,0.010684932,-0.01882583,-0.014677104,-0.008493151,0.01702544,-0.017338552,-0.01592955,-0.008336595,-0.012328767,0.0059882584,-0.013659491,-0.00481409,-0.017573386,0.016712328,-0.017729942,-0.011702544,-0.014207437,-0.009432485,0.013268102,0.018199608,0.0012133073,-0.017181996,0.008180039,0.010841487,-0.002074364,-0.0022309197,-0.009354208,-0.0055968687,-0.0032485323,0.015538161,-0.0023091976,0.01882583,-0.018199608,0.009510763,0.019452054,-0.0113894325,0.018590998,0.016086105,0.001369863,0.0023091976,-0.0008219178,-0.010215264,-0.0077886498,-0.0009001957,0.00043052837,0.012563601,-0.014363992,0.0015264188,0.004109589,0.004344423,-0.016007828,-0.007632094,-0.018434443,0.011702544,0.0044227005,-0.004109589,0.016947163,0.009119374,0.013972603,0.015225049,0.010450098,-0.013581214,0.015068493,-0.00888454,0.013111546,0.009589041,0.016868884,0.008101761,-0.012798434,0.00074363995,-0.007475538,-0.0028571428,-0.01444227,0.016164383,-0.004970646,0.019843444,0.013581214,-0.0053620352,0.017181996,-0.016477495,0.02,0.0052054795,-0.0018395303,-0.0017612524,-0.01037182,0.0066144816,-0.010606654,-0.013189824,-0.0021526418,0.003483366,-0.015459883,-0.013268102,-0.014598826,0.016790606,0.005283757,0.019686889,0.007632094,0.018434443,-0.01483366,-0.008571428,-0.01624266,0.006066536,0.01851272,-0.012485323,0.01890411,0.006144814,-0.010684932,-0.019295499,-0.00019569472,0.0053620352,-0.0138160465,-0.019921722,0.010528375,0.008649707,0.0012915852,3.9138944e-05,0.0036399218,-0.016086105,0.012876713,-0.01851272,0.004735812,0.010215264,0.00888454,0.009432485,-0.010528375,-0.013033268,0.019765167,0.01741683,0.007005871,-0.0063796476,0.007945205,-0.01146771,-0.015772995,0.012328767,-0.01741683,-0.0036399218,0.00050880626,0.005675147,-0.011311155,-0.0050489237,-0.0031702544,0.0046575344,-0.01663405,0.019530334,0.0029354207,0.006223092,-0.006457926,0.018043052,-0.0057534245,-0.0025440312,-0.019608611,-0.01812133,0.019060666,-0.00043052837,0.009902152,0.006927593,-0.003561644,-0.0045009786,0.005127202,0.017260274,-0.00058708416,0.0028571428,-0.016790606,-0.017260274,-0.015538161,-0.009119374,0.009667319,0.0032485323,0.006457926,-0.014755381,-0.0071624266,-0.0037964776,-0.016868884,0.014363992,-0.018356165,0.012407045,-0.015616438,0.017729942,0.011780822,0.0059099803,0.019217221,0.00058708416,-0.0030919765,0.008806262,0.009823875,0.01444227,0.019608611,0.014755381,0.014129158,-0.00927593,-0.010998043,-0.00011741683,0.018277887,0.00927593,0.0038747555,-0.016164383,-0.017886497,-0.0033268102,-0.0072407047,-0.018669276,-0.016555773,-0.008101761,0.0071624266,0.015851272,0.010998043,0.015772995,-0.01225049,0.0030919765,0.008493151,0.003561644,0.0019960862,-0.0077103716,0.0138160465,0.013659491,0.0031702544,0.003953033,-0.019217221,-0.010763209,0.01295499,-0.014285714,-0.019452054,-0.002778865,-0.011545988,0.012015656,-0.008258317,0.019138943,0.017964775,-0.006927593,-0.0029354207,-0.0067710374,-0.00630137,-0.005283757,0.01624266,0.014598826,-0.01702544,0.014677104,0.006849315,-0.011937378,0.008336595,0.016477495,0.011154599,0.004892368,-0.0059882584,0.007866927,0.0037964776,0.0055968687,-0.013737769,0.0009001957,-0.008414873,-0.008023484,-0.009041096,0.01592955,0.004970646,-0.012172211,0.008414873,-0.011859099,0.010293542,-0.0019178082,0.0077103716,-0.0149119375,0.002074364,-0.004344423,0.015616438,-0.0015264188,-0.007005871,-0.01295499,-0.014129158,0.015694717,0.0024657534,-0.018982388,-0.0066144816,-0.012720156,0.0045792563,0.014520548,-0.0044227005,0.010606654,-0.007866927,0.015381604,-0.013111546,0.00066536205,0.008571428,-0.012563601,0.0073189824,-0.003953033,0.009197651,-0.018590998,-0.008649707,0.014990215,-0.0065362034,-0.00050880626,-0.0030136986,0.018982388,-0.0024657534,0.0010567515,-0.0087279845,0.019373776,0.018747553,-0.014990215,0.0009784736,0.0050489237,-0.015381604,0.013033268,0.007084149,-0.013894325,-0.011232877,-0.005518591,-0.010450098,0.0016046966,0.010919766,0.0022309197,0.01663405,0.0030136986,0.017103719,-0.010136986,-0.0037181997,0.0113894325,-0.0010567515,0.0065362034,0.013502936,-0.0052054795,0.0057534245,0.017573386,0.013424657,-0.0016829745,0.0040313113,0.005518591,-0.01334638,-0.010841487,-0.01405088,0.0058317026,-0.009667319,-0.0002739726,0.00739726,0.0017612524,-0.013424657,-0.015225049,-0.0016046966,-0.019765167,0.0026223091,0.014207437,0.017338552,-0.005675147,-0.006066536,0.016399218,-0.004187867,-0.01780822,0.0023874755,-0.016399218,0.008962818,-0.010293542,-0.0046575344,0.01405088,-0.018043052,0.001448141,-0.011154599,-0.019843444,0.005440313,-0.016712328,-0.014520548,0.0019178082,0.00481409,0.009980431,0.0011350294,0.0077886498,-0.015068493,-0.007945205,-0.007084149,0.012720156,-0.0045792563,-0.0012915852,-0.0009784736,0.018669276,0.016007828,0.007553816,0.011232877,-0.0059099803,-0.009197651,-0.001369863,0.00011741683,0.015459883,0.00019569472
-0.010684932,-0.008649707,0.011232877,0.012093933,-0.019686889,0.00066536205,-0.02,0.01741683,0.009432485,-0.010841487,0.017103719,0.007084149,0.007866927,0.007553816,-0.007084149,0.011311155,0.017651664,-0.013502936,0.0030919765,0.010919766,-0.014520548,0.0037181997,0.019530334,-0.004187867,-0.0009001957,0.0026223091,0.003483366,0.017338552,0.014755381,-0.013581214,-0.0044227005,-0.009745597,-0.015459883,-0.018747553,-0.018277887,0.012485323,-0.011624266,0.015303327,0.0012133073,-0.019217221,0.0067710374,0.0045009786,-0.01741683,0.0021526418,0.0010567515,-0.0018395303,-0.011232877,-0.007866927,-0.0026223091,-0.019530334,-0.010293542,0.0100587085,0.009745597,0.01851272,0.00888454,0.00739726,-0.014129158,-0.00481409,-0.008336595,0.010763209,0.0042661447,0.0003522505,-0.007475538,-0.0138160465,0.013972603,0.006692759,0.019686889,0.016947163,0.016007828,0.010215264,0.013502936,0.0033268102,0.010998043,0.0011350294,0.00058708416,0.015381604,-0.0100587085,0.01225049,-0.010998043,0.005440313,-0.014755381,-0.0037964776,-0.0040313113,-0.017338552,0.00927593,0.018982388,-0.012641879,0.005283757,0.01592955,-0.0003522505,-0.009823875,-0.016399218,0.0016829745,-0.0025440312,0.0055968687,-0.0012915852,0.0113894325,0.016790606,0.0009784736,0.015772995,-0.01702544,-0.017495107,-0.013972603,-0.015146771,-0.010450098,-0.003953033,-0.0017612524,0.0045792563,0.018747553,0.006849315,0.013737769,-0.013894325,0.011154599,-0.0028571428,0.00481409,-0.014677104,0.01812133,0.012407045,-0.014285714,-0.01632094,0.013581214,-0.018043052,-0.01483366,0.0063796476,0.013894325,0.004344423,-0.01444227,0.005127202,0.0032485323,-0.009041096,-0.0073189824,0.013189824,-0.004892368,0.016712328,-0.0032485323,0.019608611,0.001369863,0.00011741683,-0.0065362034,-0.018669276,0.0040313113,-0.008493151,0.014129158,0.008571428,0.018043052,-0.006927593,0.0030136986,0.013268102,0.015068493,0.019295499,0.008101761,0.00074363995,-0.017181996,0.003953033,-0.00074363995,-0.00888454,-0.013189824,-0.015303327,-0.004970646,0.019138943,0.014598826,0.02,-0.006457926,-0.009902152,0.017181996,0.0071624266,-0.007005871,0.010136986,0.012015656,-0.019452054,0.017495107,-0.017651664,-0.012172211,-0.01624266,0.003561644,-0.016790606,0.0072407047,0.0029354207,0.008806262,-0.0057534245,0.014207437,-0.010763209,-0.019373776,-0.012720156,-0.0023874755,-0.009119374,-0.012563601,-0.016164383,0.0023091976,-0.004735812,-0.015068493,-0.01851272,0.0002739726,0.0038747555,-0.011076321,-0.0052054795,0.019452054,0.0008219178,0.0046575344,0.0036399218,0.006066536,-0.01663405,-0.015772995,0.016477495,0.014285714,-0.018199608,0.010841487,0.004109589,0.015694717,-0.008806262,-0.006223092,-0.014990215,0.01702544,0.0044227005,0.012172211,-0.0053620352,-0.005440313,0.011937378,-0.0045792563,-0.01405088,-0.007945205,0.0019178082,-0.01295499,0.019060666,-0.01037182,0.0087279845,0.013659491,0.013111546,0.008023484,0.010450098,0.004187867,0.0073189824,-0.0023091976,0.0138160465,0.00050880626,0.016555773,-0.003483366,-0.001369863,0.013424657,-0.01592955,-0.006066536,-0.0045009786,0.018199608,0.006457926,0.00630137,-0.009432485,-0.0002739726,0.015616438,-0.013737769,3.9138944e-05,-0.011154599,-0.010528375,0.0058317026,-0.010919766,-0.0030136986,0.017573386,-0.019843444,0.01444227,-0.0077886498,0.015459883,-0.011702544,0.007945205,-0.0010567515,0.018356165,0.009980431,-0.016712328,-0.015851272,-0.014207437,0.0077103716,0.014677104,0.002700587,-0.005675147,0.011859099,-0.007553816,-0.002074364,0.018669276,0.0066144816,0.0023874755,0.008180039,0.01146771,0.006927593,0.0018395303,-0.00043052837,-0.00011741683,-0.018982388,0.0024657534,-0.0059099803,-0.018434443,-0.012876713,0.014520548,0.0059882584,-0.018356165,-0.0037181997,0.0031702544,-0.004344423,-0.006692759,-0.019295499,-0.014598826,-0.0067710374,0.01037182,0.013033268,-0.011780822,0.0037964776,-0.010215264,-0.0063796476,-0.019765167,-0.002700587,-0.0077103716,0.004970646,0.01882583,0.017729942,-0.00927593,-0.010606654,-0.012485323,-0.019060666,-0.011545988,-0.0071624266,-0.0009784736,-0.015538161,0.0057534245,0.016868884,0.007475538,-0.015616438,-0.016477495,-0.0015264188,-0.009980431,-0.0011350294,0.0015264188,-0.016947163,0.010684932,-0.0031702544,-0.01146771,0.019373776,0.001448141,0.016399218,-0.013268102,0.010606654,-0.0016829745,-0.0055968687,0.019217221,-0.005518591,-0.015381604,-0.011859099,0.0016046966,-0.009589041,-0.0046575344,-0.015694717,-0.019138943,0.00043052837,0.0053620352,0.003405088,0.019921722,-0.01812133,0.009823875,-0.009510763,-0.01890411,-0.017729942,0.0017612524,-0.008023484,-0.016086105,-0.00630137,-0.0016046966,-0.0030919765,0.0149119375,0.014990215,-0.017886497,-0.0008219178,0.006144814,-0.005283757,0.009589041,0.017964775,-0.0066144816,0.015851272,-0.001448141,0.019843444,0.0012915852,0.01780822,-0.017964775,0.01624266,0.008962818,-0.013111546,0.016086105,0.009041096,0.018590998,0.0077886498,-0.006849315,0.0050489237,-0.008180039,-0.0042661447,0.008258317,-0.017103719,-0.0058317026,0.002074364,-0.0024657534,0.008336595,0.01483366,-0.004109589,-0.008962818,-0.0021526418,0.005518591,0.011702544,-0.0038747555,0.0065362034,0.011545988,0.005675147,0.008414873,-0.0012133073,0.009667319,0.014363992,0.016164383,-0.009197651,-0.0022309197,-0.0050489237,0.0059099803,0.012641879,-0.005127202,-0.012407045,0.012720156,-0.01225049,-0.003405088,0.012876713,-0.013659491,0.008493151,-0.013033268,-0.012798434,-0.0019960862,-0.007632094,-0.00739726,0.01295499,0.011076321,-0.018590998,0.0028571428,0.002778865,0.0025440312,-0.017260274,-0.009354208,0.0009001957,0.018277887,-0.016868884,0.004892368,0.011624266,0.017886497,0.0022309197,0.015538161,-0.0149119375,0.008649707,0.01405088,-0.009667319,-0.006144814,0.009119374,-0.002778865,-0.008258317,0.004735812,-0.011937378,-0.011311155,0.011780822,-0.00066536205,0.009354208,0.012563601,-0.0059882584,0.010528375,-0.016007828,0.015146771,0.00019569472,-0.0087279845,0.01663405,-0.0033268102,0.007005871,-0.008414873,0.019765167,-0.0029354207,-0.0072407047,-0.012093933,-3.9138944e-05,-0.0019178082,0.015225049,-0.019608611,0.009197651,0.010293542,-0.01882583,0.0019960862,-0.015225049,-0.003561644,-0.00019569472,-0.010136986,-0.00050880626,-0.008101761,-0.00058708416,-0.016555773,0.009510763,0.018434443,-0.01780822,-0.017573386,-0.019921722,0.017260274,0.007632094,0.012798434,0.009902152,0.012328767,-0.013424657,0.0052054795,-0.014363992,-0.008571428,-0.0113894325,-0.012015656,-0.0036399218,-0.012328767,0.01890411,0.006223092,0.01632094,-0.01334638,0.01334638
-0.010136986,0.007475538,-0.016164383,0.012172211,0.01851272,-0.004344423,0.01702544,-0.017886497,-0.007475538,0.00066536205,-0.009197651,0.001369863,0.0030919765,0.0011350294,0.0149119375,0.013659491,0.0012133073,0.0046575344,-0.0036399218,-3.9138944e-05,-0.017181996,0.001448141,-0.00888454,0.010450098,0.0058317026,0.016477495,0.017338552,0.017103719,0.0018395303,-0.012876713,0.013737769,0.0100587085,-0.0058317026,0.0003522505,-0.0011350294,-0.017964775,0.013033268,-0.006849315,-0.0055968687,0.004735812,0.009589041,-0.01405088,-0.0040313113,-0.018590998,0.012015656,0.016790606,-0.00927593,0.019765167,0.008180039,-0.01037182,-0.00074363995,0.018434443,-0.015303327,-0.019530334,0.004892368,-0.0073189824,0.016086105,-0.0009784736,-0.014755381,0.019060666,-0.005518591,0.007084149,0.0072407047,-0.019686889,-0.010684932,-0.010215264,-0.00043052837,0.014129158,0.018982388,-0.0149119375,-0.009354208,0.017260274,0.0077103716,-0.019765167,0.019608611,-0.013737769,0.0057534245,0.010919766,0.016868884,0.01295499,0.014598826,0.015146771,0.00019569472,-0.00011741683,0.0053620352,0.0026223091,-0.01663405,-0.012798434,0.01444227,-0.01483366,0.0040313113,-0.013972603,0.00050880626,0.012641879,0.008414873,0.015459883,-0.0038747555,-0.004187867,-0.0016829745,-0.011232877,0.017651664,0.018669276,-0.005440313,0.0071624266,-0.01624266,-0.013502936,-0.015225049,0.01405088,0.007632094,-0.015616438,-0.008962818,0.019921722,0.014755381,0.007866927,0.013424657,-0.00019569472,-0.013424657,0.006849315,-0.009041096,-0.014520548,0.0044227005,0.018356165,-0.0059882584,-0.01741683,0.0009001957,0.002074364,-0.008023484,-0.0100587085,-0.019843444,0.010998043,0.018590998,-0.017260274,-0.007945205,0.006223092,-0.016712328,0.01225049,0.011702544,-0.0002739726,0.005440313,-0.0063796476,-0.01851272,-0.01890411,-0.0087279845,0.008493151,0.01780822,-0.00481409,0.0008219178,0.0021526418,0.0055968687,-0.0015264188,-0.01632094,-0.0012133073,-0.010450098,0.017729942,-0.018043052,0.0138160465,0.0019178082,0.006927593,-0.019452054,0.019530334,0.012720156,-0.012407045,-0.013111546,0.015225049,-0.018356165,0.01624266,-0.016007828,-0.0030919765,-0.0053620352,-0.01444227,0.002700587,-0.010528375,-0.015851272,-0.010606654,-0.007866927,-0.014285714,-0.011937378,-0.008806262,0.0037964776,0.012563601,-0.012328767,-0.0008219178,0.01483366,0.015538161,0.013189824,-0.0023091976,0.0036399218,0.0019960862,0.00630137,-0.002074364,0.016555773,-0.0003522505,0.017495107,-0.004735812,0.01632094,0.0017612524,-0.004109589,0.00011741683,-0.018434443,0.011937378,0.0029354207,-0.01812133,0.010606654,0.005518591,0.0065362034,0.0028571428,-0.0072407047,-0.02,-0.015146771,0.015068493,3.9138944e-05,-0.010919766,0.009197651,0.007945205,0.003561644,0.014363992,-0.0067710374,-0.016399218,0.009119374,-0.008258317,-0.005675147,0.003483366,-0.009745597,0.003405088,0.0042661447,-0.016086105,0.012093933,0.0023874755,-0.0009001957,-0.019921722,-0.00058708416,0.011154599,-0.008180039,-0.015459883,0.0063796476,-0.0113894325,-0.01592955,-0.0059099803,-0.0037181997,0.016947163,-0.014990215,0.014285714,0.013894325,-0.0044227005,0.018199608,-0.006692759,-0.012563601,0.016007828,0.01146771,-0.0010567515,-0.012720156,-0.003561644,-0.006223092,-0.01780822,-0.01882583,-0.007553816,-0.009510763,-0.014129158,-0.010841487,-0.01225049,0.003953033,-0.015772995,-0.016790606,0.00074363995,0.00043052837,0.02,-0.0066144816,0.00481409,0.009041096,-0.0023874755,-0.00050880626,0.0050489237,-0.0042661447,-0.0018395303,0.008806262,0.002778865,-0.0138160465,0.004187867,-0.003483366,-0.009902152,0.016712328,0.019843444,0.015772995,-0.012093933,-0.015068493,0.0022309197,0.014990215,0.019373776,0.004344423,-0.0024657534,0.010841487,-0.003953033,0.015303327,-0.0045792563,0.015381604,-0.016477495,-0.017338552,-0.011624266,-0.012641879,0.015851272,-0.019373776,-0.006144814,0.0066144816,-0.007084149,0.005127202,0.015694717,-0.00630137,0.004970646,-0.008493151,0.013581214,0.017964775,0.0045792563,-0.015694717,0.017886497,0.01037182,-0.0017612524,0.0010567515,-0.017495107,0.011076321,-0.019138943,0.0032485323,0.015616438,0.006457926,-0.002700587,0.01663405,-0.012015656,0.008101761,-0.015538161,-0.0065362034,-0.019295499,-0.013659491,-0.006457926,-0.011780822,-0.017103719,0.0031702544,-0.0046575344,0.006066536,0.0030136986,0.009432485,0.008962818,-0.0016046966,0.008571428,0.019686889,-0.018199608,0.012485323,-0.0052054795,0.014520548,0.011232877,0.0002739726,0.00927593,0.006144814,0.019217221,-0.01295499,0.009354208,0.018043052,-0.016868884,0.0073189824,0.011780822,-0.009823875,-0.013033268,-0.011545988,-0.007632094,0.0012915852,0.00058708416,0.018747553,-0.008336595,-0.0012915852,-0.010763209,0.007553816,0.0059099803,0.01334638,0.014207437,0.008258317,0.01890411,0.0052054795,-0.014363992,0.019452054,0.0077886498,-0.01334638,-0.01146771,0.011859099,0.0016829745,0.0009784736,-0.0032485323,0.009902152,-0.010998043,-0.0057534245,-0.017573386,0.011624266,0.012798434,-0.0030136986,0.011311155,0.0067710374,0.014677104,-0.008571428,-0.014598826,-0.019217221,0.018277887,-0.018669276,-0.014207437,0.010684932,0.012328767,-0.011076321,-0.0033268102,-0.019608611,-0.011702544,0.0045009786,0.01592955,0.010528375,-0.005283757,-0.0028571428,0.016164383,0.0024657534,0.019138943,0.016399218,0.00739726,-0.009667319,0.0087279845,0.0033268102,0.010136986,0.009745597,0.0037181997,0.01741683,0.005283757,-0.005127202,-0.008414873,0.01812133,-0.0021526418,-0.015381604,-0.00739726,-0.013189824,-0.014677104,-0.009119374,0.013972603,-0.002778865,-0.01702544,0.013502936,-0.009589041,-0.0045009786,0.010293542,-0.018747553,0.005675147,-0.004970646,-0.018982388,-0.0037964776,-0.006066536,0.0015264188,-0.0022309197,-0.001448141,-0.009980431,-0.011311155,-0.017651664,0.00888454,-0.013268102,-0.0077886498,-0.0025440312,-0.012485323,0.0059882584,0.010763209,-0.0019960862,-0.0071624266,0.009980431,-0.0026223091,-0.009432485,-0.012172211,0.013111546,0.007005871,-0.016555773,0.012407045,0.019295499,0.013268102,0.01882583,0.0016046966,-0.011154599,-0.013894325,-0.006927593,0.004109589,0.009823875,0.009510763,0.0023091976,0.017181996,0.012876713,0.0025440312,0.010215264,0.008649707,0.008336595,-0.0031702544,-0.013581214,-0.003405088,-0.0019178082,-0.00066536205,-0.008649707,0.006692759,0.0038747555,-0.010293542,-0.017729942,-0.018277887,-0.0050489237,0.009667319,-0.0077103716,-0.008101761,0.008023484,-0.019060666,-0.007005871,-0.001369863,0.017573386,-0.011859099,0.011545988,-0.004892368,-0.016947163,0.0113894325,-0.0029354207
0.0023874755,-0.00011741683,-0.00481409,0.009197651,0.0066144816,-0.0067710374,0.01146771,0.014363992,-0.0037181997,-0.005283757,-0.017495107,-0.019686889,0.010841487,0.008493151,-0.0065362034,-0.00888454,0.018043052,-0.017573386,-0.009667319,-0.011859099,-0.002074364,-0.008414873,0.008101761,-0.01780822,-0.015225049,0.018199608,-0.015772995,0.019138943,-0.01483366,-0.01851272,0.018277887,0.0113894325,0.0149119375,0.01812133,0.019530334,0.011076321,-0.014990215,0.002700587,-0.015303327,-0.012172211,-0.017181996,-0.014363992,-0.00074363995,0.013424657,-0.0138160465,-0.004892368,-0.016164383,0.013189824,-0.0037964776,0.017181996,0.0077886498,0.0003522505,0.009510763,-0.01624266,0.013268102,-0.016947163,0.004109589,0.014285714,-0.008649707,-0.009902152,0.010763209,-0.0028571428,0.013111546,-0.016712328,-0.014285714,0.01225049,-0.013737769,0.0046575344,0.0026223091,0.002074364,0.015225049,0.0030919765,0.012015656,-0.0023874755,0.007945205,-0.017729942,-0.017964775,-0.0077103716,0.0019178082,0.014990215,0.011780822,-0.004187867,-0.0022309197,0.016947163,-0.015538161,0.0025440312,-0.013581214,-0.012407045,-0.0050489237,0.013737769,0.0016046966,-0.017338552,-0.013659491,-0.0032485323,-0.018277887,-0.0149119375,0.007866927,-0.006066536,-0.014520548,-0.02,-0.0019960862,-0.00019569472,0.010136986,0.0015264188,-0.003953033,-0.016007828,0.007553816,-0.008336595,-0.01702544,-0.012720156,-0.010763209,0.0028571428,-0.010841487,-0.0042661447,0.013502936,-0.002778865,-0.010215264,0.0017612524,0.006144814,0.003483366,0.009589041,-0.006457926,0.016790606,0.009354208,0.008180039,-0.0021526418,0.015303327,-0.0016829745,0.016477495,-0.0055968687,0.00011741683,-0.0046575344,-0.017260274,0.0008219178,-0.019843444,0.008414873,0.0055968687,-0.018199608,-0.019452054,-0.01592955,0.01663405,0.013894325,-0.016477495,0.01334638,-0.0053620352,-0.013502936,-0.0073189824,0.017103719,-0.0029354207,0.015381604,-0.013111546,0.018434443,-0.019608611,-0.0009001957,0.00074363995,-0.016399218,0.010215264,0.006066536,0.01890411,-0.011076321,0.0067710374,-0.0072407047,-0.010528375,0.019452054,-0.009354208,0.014677104,0.016399218,-0.016790606,-0.009197651,-0.012485323,0.01882583,-0.012798434,-0.008258317,-0.017886497,0.011154599,-0.0019178082,-0.006927593,-0.018669276,0.007005871,-0.009823875,-0.019921722,-3.9138944e-05,-0.0030919765,-0.012093933,0.012172211,-0.004109589,0.0009001957,0.016086105,0.005127202,0.0012133073,-0.017651664,0.009745597,-0.012641879,0.005283757,0.001448141,0.0036399218,-0.009041096,-0.014755381,0.01295499,0.009041096,-0.003483366,0.012876713,0.003953033,0.019373776,0.009119374,0.0016829745,0.018982388,-0.007945205,0.011311155,0.0009784736,-0.019373776,-0.015851272,-0.013424657,0.009902152,-0.0040313113,0.019295499,-0.019138943,0.018669276,0.009667319,-0.01037182,-0.013268102,0.013581214,0.009823875,-0.0003522505,3.9138944e-05,0.006457926,0.00630137,0.012720156,0.017338552,-0.0059099803,-0.008806262,-0.006144814,-0.0044227005,-0.00630137,0.0100587085,-0.014598826,0.019217221,0.01483366,0.0033268102,-0.009745597,0.0022309197,0.011232877,-0.016086105,0.0077103716,0.004735812,-0.0009784736,-0.008962818,-0.010919766,0.0023091976,0.018590998,0.007084149,-0.016868884,-0.013033268,0.010606654,-0.011311155,-0.011154599,-0.011232877,-0.004970646,0.006692759,0.013659491,0.02,0.0042661447,0.0052054795,-0.009510763,-0.014677104,0.019843444,-0.011780822,0.014129158,0.006927593,-0.013972603,-0.01632094,0.0010567515,0.017886497,-0.008493151,0.003561644,0.0011350294,0.015146771,-0.005127202,-0.007866927,0.002778865,-0.005675147,-0.011545988,0.017729942,-0.01295499,-0.0030136986,0.008336595,0.0044227005,-0.0036399218,0.01037182,-0.018747553,-0.009119374,0.008258317,-0.001369863,0.015616438,-0.012563601,-0.0057534245,-0.004344423,0.0037181997,0.012407045,0.012798434,-0.008571428,0.004970646,0.015694717,0.00066536205,-0.00043052837,0.005675147,0.005518591,0.01624266,0.017573386,-0.015146771,0.011545988,0.00050880626,-0.013894325,0.0037964776,-0.01225049,0.0032485323,-0.008101761,-0.0026223091,-0.0002739726,0.0063796476,0.004344423,-0.006692759,-0.0012133073,-0.0066144816,0.00058708416,0.0053620352,-0.0071624266,0.008571428,-0.010450098,-0.014207437,-0.001448141,-0.01890411,-0.005440313,-0.012328767,-0.015616438,0.007632094,0.0087279845,-0.01812133,0.006849315,-0.01882583,0.01851272,0.0058317026,-0.012015656,-0.0045792563,-0.0100587085,-0.010136986,-0.010998043,-0.0058317026,-0.00058708416,0.0050489237,0.012563601,0.019060666,0.011624266,0.017495107,0.0021526418,0.018747553,-0.01405088,-0.004735812,0.008806262,0.010684932,-0.0113894325,-0.0010567515,-0.003405088,0.018356165,-0.019530334,-0.0011350294,0.007475538,-0.0015264188,0.0012915852,0.0045009786,0.016007828,-0.007553816,0.0072407047,-0.007632094,-0.0008219178,0.0038747555,-0.016555773,-0.00066536205,0.0018395303,0.016555773,-0.0087279845,-0.007005871,-0.015694717,0.017964775,-0.0031702544,0.004187867,0.012328767,0.012641879,-0.019765167,0.01702544,0.00043052837,-0.006849315,-0.00927593,0.017651664,0.005440313,0.010293542,0.00019569472,-0.019217221,0.019686889,-0.0023091976,-0.0052054795,0.011937378,0.014520548,-0.010293542,-0.0033268102,0.016712328,0.015068493,0.00739726,-0.0059882584,-0.008023484,-0.009980431,0.009432485,-0.006223092,0.01592955,0.013972603,-0.015459883,-0.018434443,-0.00739726,0.019765167,0.014207437,0.0030136986,0.011702544,-0.017103719,0.010450098,0.013033268,-0.0017612524,-0.0024657534,0.0073189824,0.010919766,0.015459883,-0.015381604,0.0065362034,0.006223092,-0.012876713,0.014755381,0.01405088,0.0071624266,-0.002700587,-0.010684932,-0.019295499,0.01741683,0.008962818,-0.018590998,-0.0018395303,-0.013189824,0.017260274,0.019608611,-0.0077886498,0.00888454,-0.007475538,-0.0016046966,0.0057534245,0.01780822,-0.019060666,-0.0025440312,-0.003561644,0.003405088,0.019921722,0.01444227,-0.0012915852,0.012093933,-0.01741683,0.0138160465,-0.008180039,0.0059099803,-0.01444227,0.015851272,0.012485323,-0.011702544,0.014598826,-0.018043052,0.00481409,0.015538161,-0.018356165,-0.005518591,0.0059882584,-0.015068493,-0.011937378,-0.007084149,-0.009432485,-0.0063796476,0.001369863,-0.00050880626,0.0029354207,0.0045792563,0.010528375,-0.01334638,-0.014129158,0.0002739726,0.0024657534,0.010998043,-0.0038747555,0.0031702544,0.016164383,0.011859099,0.016868884,-0.009589041,0.00927593,-0.01146771,-0.0045009786,0.0040313113,0.0019960862,0.01632094,0.009980431,-0.010606654,0.008023484,0.008649707,-0.018982388,-0.011624266,-0.01663405,0.015772995,0.004892368
-0.01741683,-0.008258317,-0.016712328,-0.008023484,0.017181996,-0.00043052837,0.0025440312,0.012641879,0.017260274,0.00058708416,0.016399218,0.011702544,0.01444227,-0.01851272,-0.017886497,-0.0002739726,-0.014285714,-0.0052054795,-0.014207437,0.016712328,0.009745597,-0.019138943,0.013268102,-0.016555773,-0.009432485,0.006692759,0.017338552,-0.007632094,-0.01037182,0.016868884,0.019843444,-0.00739726,0.0072407047,0.016164383,-0.012876713,-0.01483366,0.018669276,0.014363992,-0.0029354207,-0.013972603,-0.008180039,-0.011154599,-0.010528375,0.016555773,0.008180039,0.008649707,-0.017260274,0.009197651,0.0010567515,-0.0019178082,0.016477495,0.014677104,0.00888454,0.01483366,-0.01334638,-0.009197651,0.0012133073,0.005675147,0.0019178082,0.01890411,-0.00927593,-0.017181996,0.008101761,0.011311155,-0.0036399218,0.002074364,-0.0032485323,-0.017964775,0.00019569472,0.019373776,-0.018356165,0.004970646,-0.018982388,-0.01405088,0.010998043,0.006849315,-0.003483366,0.008962818,-0.0050489237,0.0026223091,-0.008414873,-0.011702544,-0.0009001957,0.015146771,0.014990215,0.017729942,-0.01702544,-0.016007828,0.007632094,-0.019217221,3.9138944e-05,-0.0059882584,0.01624266,-0.011937378,-0.0057534245,-0.0113894325,0.009354208,0.011076321,0.004892368,-0.013111546,-0.013659491,-0.0037964776,-0.005127202,-0.011545988,0.01812133,0.018434443,-0.00011741683,0.0040313113,0.00043052837,0.017495107,0.009432485,0.015772995,-0.010215264,-0.0028571428,-0.017573386,-0.0087279845,0.0149119375,0.018356165,-0.018277887,0.010606654,-0.0018395303,0.0018395303,0.005283757,-0.0053620352,-0.0100587085,0.0100587085,0.019921722,0.01851272,-0.008806262,0.011154599,-0.010763209,-0.019373776,0.014207437,-0.011780822,-0.0077886498,-0.005440313,-0.0025440312,-0.010684932,-0.01444227,-0.018199608,-0.004109589,0.0033268102,-0.00630137,-0.004187867,0.014598826,0.0019960862,-0.008571428,-0.013189824,0.016790606,-0.007005871,0.0011350294,-0.010841487,-0.018434443,0.015459883,-0.0030136986,-0.017103719,-0.0016829745,0.0087279845,0.0032485323,0.003561644,-0.01592955,0.002778865,0.005518591,0.0016046966,0.008258317,0.0038747555,-0.005518591,-0.0024657534,0.005440313,-0.0019960862,0.006927593,-0.015381604,0.011937378,-0.013033268,0.006223092,0.007553816,0.00630137,-0.011859099,-0.004735812,-0.007945205,0.008571428,0.013189824,-0.016868884,0.0073189824,-0.007553816,-0.014677104,-0.019921722,-0.0063796476,-0.0077103716,0.019060666,0.0012915852,-0.008336595,0.0065362034,-0.0003522505,-0.0017612524,-0.012328767,0.01741683,-0.0009784736,0.0017612524,-0.00074363995,-0.0138160465,-0.007475538,-3.9138944e-05,0.0008219178,0.014755381,-0.012563601,0.019765167,0.010136986,0.0029354207,0.01334638,-0.01812133,-0.016947163,0.017103719,-0.012093933,-0.015772995,0.003483366,-0.005283757,0.0030136986,-0.010136986,0.0046575344,0.014285714,-0.0033268102,0.016947163,0.0077103716,-0.018043052,-0.009119374,-0.0023874755,0.009823875,-0.003561644,-0.009589041,-0.01624266,-0.0073189824,-0.00050880626,0.013111546,-0.006927593,0.00739726,-0.004892368,-0.014520548,-0.0059099803,0.0015264188,-0.017338552,0.0023091976,-0.010293542,0.0023874755,0.010763209,0.0009001957,0.0030919765,-0.015694717,-0.012407045,0.01146771,-0.0011350294,0.0050489237,0.008414873,0.011780822,0.0028571428,-0.0045009786,-0.0042661447,-0.015851272,0.01702544,0.017573386,0.014129158,0.009119374,0.0021526418,0.016007828,-0.0031702544,0.012485323,-0.011076321,0.01663405,-0.009823875,0.018747553,0.012328767,0.009902152,0.019138943,0.008493151,-0.014129158,0.018199608,-0.003953033,-0.014598826,-0.0055968687,0.009041096,-0.013581214,0.019295499,-0.0044227005,0.013972603,-0.019060666,0.004109589,-0.019686889,-0.0149119375,-0.01146771,-0.014363992,0.0003522505,-0.006849315,0.0057534245,-0.016399218,0.010528375,0.009667319,-0.01663405,0.018043052,-0.008101761,0.007475538,0.019530334,0.009510763,-0.0015264188,0.0045009786,0.011859099,0.010293542,0.00927593,0.012563601,0.02,0.016086105,0.01405088,0.0053620352,-0.010450098,0.018982388,-0.0065362034,-0.0012915852,-0.019608611,0.017651664,0.01780822,-0.017495107,-0.015225049,-0.02,0.011624266,0.00481409,0.0077886498,-0.0071624266,-0.019765167,-0.013737769,0.012798434,-0.006144814,-0.016086105,-0.018590998,0.0059882584,0.008336595,0.0024657534,-0.013268102,0.004344423,-0.0038747555,-0.013424657,0.015303327,-0.009510763,-0.0008219178,0.001369863,0.01592955,0.0052054795,-0.011232877,0.005127202,0.01632094,-0.017651664,0.015538161,0.01225049,-0.0023091976,0.017886497,-0.0022309197,-0.011624266,-0.0066144816,0.00011741683,-0.009354208,-0.0072407047,0.014520548,0.0044227005,-0.007866927,-0.01780822,0.010215264,0.013581214,0.0037181997,-0.0012133073,0.00074363995,0.001448141,-0.017729942,0.013424657,0.013737769,0.007945205,-0.0030919765,0.01882583,0.008023484,-0.004970646,-0.015459883,0.010919766,-0.012015656,0.0031702544,0.0022309197,0.0002739726,0.00066536205,0.018277887,-0.0045792563,0.0113894325,-0.00066536205,0.006457926,-0.0010567515,-0.016790606,0.015616438,-0.012798434,-0.009980431,0.019217221,0.015851272,0.002700587,-0.013502936,0.015225049,0.009589041,-0.010919766,-0.014755381,-0.015068493,0.013033268,0.01037182,-0.0026223091,0.003953033,-0.018747553,-0.0058317026,0.01295499,0.004187867,-0.0040313113,0.012876713,-0.012641879,-0.016477495,-0.00019569472,-0.0037181997,0.0042661447,-0.009902152,-0.006692759,-0.015303327,0.019686889,-0.018669276,-0.016164383,0.013894325,0.0045792563,0.0009784736,-0.01890411,-0.002778865,0.0059099803,-0.012172211,-0.010606654,0.012172211,-0.009745597,-0.003405088,0.012720156,0.010450098,0.0071624266,0.015694717,-0.0067710374,-0.0021526418,-0.008649707,-0.009667319,0.012093933,0.009980431,0.0063796476,0.015381604,0.006144814,-0.00888454,-0.015146771,0.019608611,0.0036399218,-0.015538161,-0.00481409,-0.002074364,0.004735812,0.013502936,-0.015616438,-0.012485323,0.00050880626,-0.008493151,0.0058317026,0.007005871,0.013659491,-0.012720156,-0.001448141,0.007084149,0.012015656,0.018590998,-0.01225049,0.010841487,0.011545988,0.0037964776,0.012407045,-0.01632094,-0.019843444,-0.006066536,0.0055968687,-0.00058708416,-0.01882583,-0.01295499,-0.0016046966,-0.014990215,0.0016829745,-0.006223092,-0.008962818,0.008806262,-0.0046575344,-0.006457926,-0.013894325,0.006066536,0.019452054,0.007866927,-0.004344423,0.0138160465,-0.001369863,-0.005675147,0.015068493,-0.019530334,-0.019452054,-0.011311155,0.0067710374,0.003405088,0.017964775,-0.019295499,0.011232877,-0.010998043,-0.002700587,0.0066144816,0.010684932,-0.009041096,-0.007084149
