0
-0.10235512
-0.102518745
-0.102446645
-0.10208601
-0.10172527
-0.1013495
-0.10098442
-0.10056957
-0.10025404
-0.09988353
-0.099526614
-0.09918227
-0.09883794
-0.098413296
-0.098093785
-0.09781922
-0.09740117
-0.09698727
-0.096687175
-0.09625481
-0.095900044
-0.095532894
-0.095116846
-0.09466451
-0.09433642
-0.093925186
-0.09358593
-0.09319776
-0.092929095
-0.092582315
-0.09229515
-0.091948874
-0.091600336
-0.09113446
-0.09059941
-0.090135075
-0.08970932
-0.08942024
-0.08919956
-0.08883012
-0.08837004
-0.087834366
-0.08736138
-0.08680783
-0.08638061
-0.08587918
-0.08529734
-0.084789716
-0.084299035
-0.08376118
-0.083396316
-0.0831572
-0.08257243
-0.08175321
-0.081608206
-0.080663025
-0.07999939
-0.07949547
-0.07894297
-0.07860423
-0.077862225
-0.07745103
-0.076977514
-0.076069504
-0.075467475
-0.07526617
-0.07452127
-0.0746216
-0.074057594
-0.07346455
-0.07205131
-0.07123382
-0.07032534
-0.06979776
-0.068747014
-0.06839253
-0.06668516
-0.065103695
-0.06339788
-0.06188522
-0.060365528
-0.05873346
-0.058977243
-0.05847498
-0.057045255
-0.060870487
-0.060109243
-0.058559015
-0.056573067
-0.055225413
-0.053122178
-0.05232656
-0.050042972
-0.048559073
-0.050114848
-0.04810901
-0.047306716
-0.04863706
-0.046740357
-0.04593793
-0.04557904
-0.044505227
-0.0430742
-0.041443873
-0.042251363
-0.04322256
-0.042777933
-0.041812617
-0.042687956
-0.04078427
-0.038910616
-0.036417913
-0.036887456
-0.036912955
-0.035871398
-0.036458224
-0.032503102
-0.03243593
-0.031106822
-0.03026223
-0.030417625
-0.029634448
-0.0291878
-0.026823323
-0.027260985
-0.024963968
-0.02466928
-0.02236989
-0.021289935
-0.020286879
-0.019398708
-0.019530114
-0.018555457
-0.01818329
-0.019236362
-0.022167066
-0.02062005
-0.018529609
-0.017167898
-0.015291608
-0.014837813
-0.014500573
-0.0154652195
-0.0144608645
-0.013027131
-0.012905001
-0.012096046
-0.012906892
-0.01159961
-0.011024882
-0.010603657
-0.010191066
-0.009800212
-0.010219053
-0.008884657
-0.0082398765
-0.0075069186
-0.0075392714
-0.006574761
-0.0057901745
-0.0048926654
-0.004323714
-0.003909827
-0.0019658636
-0.0008645245
-1.306879e-05
0.00043650597
-0.0009139534
0.00082982564
0.0020600387
0.002403348
0.0027219977
0.003290019
0.003681709
0.004240621
0.0046867304
0.004941428
0.005381544
0.005967911
0.006506742
0.0072554112
0.0076583535
0.008064316
0.008388127
0.00927207
0.010295968
0.010095433
0.011212076
0.011672654
0.012606457
0.012426541
0.012616825
0.013388288
0.013680048
0.013939431
0.0143567445
0.01493917
0.015145788
0.015500899
0.01602845
0.016531745
0.017260116
0.01767024
0.017400553
0.017933007
0.018282982
0.018633975
0.019178852
0.019871715
0.02020601
0.020735528
0.021183433
0.0148703875
0.016072387
0.016301855
0.021789424
0.022098348
0.022805572
0.023982732
0.024719898
0.025387513
0.026152229
0.026915383
0.027356626
0.02793966
0.028861674
0.02927828
0.029849978
0.03025708
0.03110579
0.031713482
0.03273926
0.033661973
0.034144726
0.0350847
0.035178397
0.035919808
0.035801783
0.036409553
0.034073487
0.026203671
0.03269628
0.025946982
0.024134537
0.021025864
0.010536951
-0.0023759168
-0.04540357
-0.032608178
0.008876134
-0.0055720704
0.0032726582
0.0341131
0.042909693
0.10596383
0.049406826
0.12834479
0.05891453
0.0922621
0.039730005
0.002899878
-0.0046523204
-0.0031907
0.03772578
-0.039403494
-0.009437626
0.014729714
0.02527629
0.03286049
0.038831837
0.039146602
0.03956369
0.038927983
0.03600644
0.03598135
0.03603138
0.035579745
0.035370827
0.03495622
0.03477577
0.03500783
0.03483083
0.034356583
0.034275014
0.03315183
0.030920401
0.032305982
0.034788392
0.034573585
0.03448585
0.034434717
0.03429441
0.034432586
0.03441349
0.034707
0.03466658
0.034786496
0.03484894
0.03482076
0.034702033
0.03457251
0.034661286
0.03465876
0.034626774
0.034521714
0.034380633
0.03446391
0.03435931
0.03406569
0.034134597
0.033861693
0.033863008
0.0333285
0.03335772
0.033216875
0.033001088
0.03290931
0.032593243
0.031911336
0.031361498
0.03131729
0.030710207
0.030344905
0.029111795
0.028108105
0.026694557
0.022320405
0.022776315
0.020793675
0.020773223
0.019445755
0.018203845
0.015865393
0.015192823
0.014318968
0.014911916
0.014374552
0.013396331
0.01300432
0.012121344
0.011724072
0.0112147685
0.010328383
0.010120195
0.009632449
0.008908862
0.00881012
0.008447472
0.007988525
0.0071926652
0.006759846
0.0076165223
0.0067363423
0.0061956053
0.006174595
0.00617527
0.004722639
0.004318595
0.004342215
0.0037798411
0.0038596261
0.0040453565
0.0040601147
0.0042749345
0.0044569666
0.00366854
0.0038463427
0.004028062
0.0042824047
0.0043307794
0.004522625
0.0047808457
0.0050897268
0.005377248
0.0056175264
0.005795068
0.006136931
0.00637202
0.0061198296
0.0063611404
0.0065241726
0.006781885
0.0070355944
0.00727891
0.007459152
0.0076191267
0.0079106325
0.008170291
0.008411536
0.008691966
0.00904411
0.009316807
0.009624151
0.00976899
0.010051376
0.010299802
0.010654532
0.01073686
0.011024693
0.011374763
0.011538028
0.0118349735
0.012087587
0.012317564
0.012568632
0.012819681
0.013085894
0.013305184
0.013584784
0.013638465
0.013911418
0.014170743
0.014425547
0.014709752
0.015027659
0.015290603
0.0155759575
0.015847357
0.016125165
0.016404593
0.016731964
0.017049095
0.01715118
0.01745311
0.017820034
0.01813518
0.0184599
0.018816076
0.01902988
0.01925357
0.019628042
0.019922625
0.0201771
0.020489655
0.020618085
0.020825937
0.021130161
0.02144286
0.02160602
0.021939773
0.022308752
0.02259387
0.02290684
0.023216495
0.023520146
0.023865243
0.024037331
0.024373446
0.024691997
0.024973756
0.02534582
0.025597675
0.025936231
0.026276534
0.02639377
0.026738781
0.027078202
0.027419811
0.027770989
0.028031182
0.028300112
0.02840718
0.02873045
0.029076772
0.029407086
0.029649168
0.029947279
0.030348113
0.0306397
0.03100204
0.03135177
0.031696185
0.03205009
0.032396525
0.03274646
0.03306766
0.033400852
0.03373731
0.034045577
0.034373056
0.03474858
0.03506527
0.035345983
0.035690688
0.03603623
0.036318254
0.03665963
0.037053104
0.037303973
0.037516702
0.0378855
0.038240157
0.038539056
0.038917366
0.039270397
0.039590284
0.03998621
0.040393285
0.04070495
0.041036572
0.04141274
0.041788794
0.042102195
0.04246904
0.0427962
0.043175504
0.043558657
0.04394764
0.04426477
0.044631805
0.044916503
0.045196343
