0
0.0008219178
-0.004735812
-0.0057534245
-0.016477495
-0.008414873
0.013268102
0.010684932
-0.015694717
-0.010919766
0.012093933
-0.013581214
-0.01037182
0.00050880626
-0.009980431
-0.0024657534
-0.013189824
-0.017886497
-0.00630137
-0.00739726
-0.011859099
-0.0008219178
-0.016086105
0.001448141
-0.006223092
0.019373776
-0.015459883
0.019138943
0.01780822
-0.0045009786
0.00011741683
0.007866927
-0.010684932
-0.007866927
0.011076321
0.0029354207
-0.0010567515
0.004109589
-0.009745597
0.0011350294
0.0002739726
-0.009119374
0.0072407047
-0.0050489237
0.0024657534
-0.009823875
-0.0012133073
-0.006066536
-0.009432485
-0.012015656
0.0037181997
-0.0017612524
0.0031702544
0.018590998
0.010606654
0.007005871
0.01444227
0.013659491
-0.004344423
0.002700587
0.0073189824
-0.017573386
0.01225049
-0.017495107
0.014677104
0.012798434
-0.011937378
-0.01812133
0.0018395303
0.006927593
-0.0077886498
0.017651664
0.009354208
0.016164383
0.0042661447
-0.0087279845
0.015068493
-0.0045792563
-0.0023091976
-0.006849315
-0.0077103716
0.008571428
0.0032485323
0.017964775
0.00058708416
0.014598826
-0.008649707
0.008414873
-0.00043052837
0.005283757
0.019452054
-0.0019960862
0.007945205
-0.019765167
-0.009902152
0.011311155
-0.006457926
0.0113894325
-0.0032485323
0.01890411
0.018277887
0.01592955
0.016399218
-0.019530334
0.01405088
0.0028571428
-0.0058317026
0.0044227005
-0.009510763
0.01632094
0.005127202
-0.013033268
0.002778865
0.0058317026
-0.008180039
-0.016712328
-0.0138160465
0.016007828
0.0019178082
-0.0030136986
0.0036399218
-0.01334638
-0.013111546
-0.0021526418
-0.0022309197
0.019843444
0.019921722
0.012563601
-0.012485323
0.0045009786
0.0053620352
0.019295499
0.009589041
0.012172211
0.015851272
0.005518591
-0.001448141
0.013502936
0.003561644
0.018434443
0.00739726
-0.0149119375
0.011859099
-0.012172211
-0.0033268102
-0.009197651
-0.01405088
0.0026223091
-0.017260274
0.016477495
0.0045792563
-0.014598826
-0.018043052
0.007632094
-0.0052054795
-0.017729942
0.0052054795
0.015381604
-0.0073189824
0.003405088
-0.0059882584
-0.012093933
0.0040313113
-0.019608611
0.009510763
-0.0038747555
-0.012563601
-0.0023874755
-0.015772995
0.011937378
-0.006144814
0.01812133
-0.014129158
-0.0016829745
0.015538161
-0.011780822
0.0046575344
-0.014990215
0.015303327
-0.017181996
-0.01146771
-0.003561644
0.010841487
0.0066144816
0.017495107
-0.010606654
-0.005283757
0.010450098
-0.01741683
0.009823875
0.012485323
0.006144814
0.014990215
3.9138944e-05
-0.014363992
0.008101761
-0.007475538
-0.012328767
-0.013894325
0.01663405
0.0015264188
0.013737769
-0.010841487
-0.007005871
0.0059099803
-0.018590998
0.01483366
-0.0037181997
-0.0113894325
-0.018434443
0.019530334
0.014755381
0.015616438
-0.005675147
-0.008023484
-0.015381604
-0.001369863
-0.0028571428
-0.019138943
0.012328767
0.0022309197
-0.015146771
-0.017651664
0.019608611
-0.0016046966
-0.018747553
0.008180039
-0.015068493
0.017886497
-0.008493151
0.0009001957
0.007084149
-0.013502936
0.015225049
0.018356165
-0.00481409
0.00074363995
0.009667319
-0.016399218
-0.01295499
-0.009041096
-0.00050880626
-0.010528375
-0.015303327
-0.018982388
0.008649707
0.013111546
0.009745597
-0.002700587
0.0009784736
0.008336595
0.016555773
0.001369863
0.014520548
0.012876713
-0.0044227005
-0.015225049
-0.011311155
-0.010136986
-0.011076321
-0.014755381
-0.0040313113
-0.019373776
0.009432485
0.018747553
0.012407045
0.017260274
0.002074364
0.00043052837
-0.01225049
0.0025440312
0.008493151
0.010998043
-0.0031702544
-0.012641879
-0.016790606
0.007553816
0.0149119375
-0.0030919765
0.01295499
-0.0026223091
0.0037964776
0.004344423
0.019217221
-0.0011350294
0.0010567515
-0.0053620352
-0.019686889
-0.011702544
-0.0067710374
0.010528375
-0.008806262
-0.011154599
-0.016868884
0.015146771
-0.010293542
0.012641879
-0.019921722
0.006457926
0.0087279845
0.011232877
0.010136986
0.010293542
0.015694717
0.0063796476
-0.014677104
-0.017103719
-0.01483366
-0.0002739726
0.017103719
-0.0072407047
0.0017612524
-0.013268102
0.015459883
0.0019960862
0.019060666
-0.004187867
-0.0059099803
-0.011232877
-0.007945205
-0.018356165
0.013424657
-0.016164383
-0.0036399218
0.008258317
-0.016947163
-0.0025440312
0.013033268
-0.007084149
0.010763209
0.00019569472
0.0055968687
-0.003405088
-0.019295499
-0.00888454
-0.010215264
0.011702544
-0.0003522505
-0.01632094
0.013581214
0.0016046966
0.013894325
-0.01663405
-0.003953033
-0.01624266
-0.004109589
0.0016829745
-0.009589041
-0.008258317
-0.018199608
-0.019452054
-0.0071624266
0.0023874755
-0.0042661447
-0.0018395303
0.003953033
-0.01780822
-0.010450098
-0.019060666
-0.008336595
0.004187867
0.00927593
-0.016555773
0.013972603
0.01146771
-0.01444227
0.003483366
0.0050489237
-0.002778865
-0.017964775
0.016712328
0.01037182
0.012015656
0.0065362034
0.016868884
-0.00011741683
0.011154599
0.011624266
-0.017338552
0.009119374
0.004892368
0.004970646
0.006849315
-0.015538161
0.0071624266
-0.004970646
-0.015851272
0.009902152
0.019686889
0.010919766
0.0030136986
0.016790606
0.014285714
-0.014520548
-0.0063796476
-0.010763209
0.017729942
-0.013659491
0.017181996
0.009041096
-0.018669276
0.011545988
0.0033268102
0.006692759
-0.01702544
0.004735812
-0.01851272
0.015772995
-0.012798434
0.010215264
0.018199608
0.016947163
-0.006692759
-0.0019178082
0.0023091976
0.0077103716
-0.008962818
-0.01592955
0.007475538
-0.009667319
-0.012407045
-0.005518591
0.00481409
-0.004892368
-0.005127202
-0.0037964776
-0.013972603
0.0021526418
0.016086105
0.01334638
-0.008101761
-0.007632094
-0.010998043
-0.01890411
-0.014285714
0.0012133073
0.008023484
0.009980431
-0.02
0.005440313
0.01851272
0.017338552
-0.01882583
0.013189824
0.008806262
-0.0012915852
-0.0046575344
0.006223092
-0.00074363995
0.006066536
0.00888454
-0.005440313
-0.012720156
0.0057534245
-0.002074364
0.014363992
-0.019217221
0.017573386
0.0059882584
-0.009354208
-0.0065362034
0.0067710374
-0.013424657
-0.013737769
-0.011624266
-0.00066536205
0.0012915852
-0.0066144816
-0.012876713
-0.011545988
0.014207437
-0.00927593
0.0100587085
-0.0100587085
-0.0009784736
-0.007553816
0.01882583
0.019765167
-0.019843444
-0.014207437
-0.0009001957
-0.003483366
-0.0055968687
0.018043052
0.0038747555
0.01624266
0.005675147
0.008962818
-0.015616438
-0.018277887
0.01702544
0.018669276
0.00066536205
0.018982388
-0.00058708416
-3.9138944e-05
0.00630137
0.0138160465
-0.00019569472
0.011780822
0.01741683
0.0003522505
-0.0015264188
0.0077886498
0.0030919765
0.009197651
0.02
-0.0029354207
0.012720156
-0.008571428
0.014129158
-0.016007828
-0.006927593
