0,1,2,3,4,5,6,7,8,9,10,11,12,13,14,15,16,17,18,19,20,21,22,23,24,25,26,27,28,29,30,31,32,33,34,35,36,37,38,39,40,41,42,43,44,45,46,47,48,49,50,51,52,53,54,55,56,57,58,59,60,61,62,63,64,65,66,67,68,69,70,71,72,73,74,75,76,77,78,79,80,81,82,83,84,85,86,87,88,89,90,91,92,93,94,95,96,97,98,99,100,101,102,103,104,105,106,107,108,109,110,111,112,113,114,115,116,117,118,119,120,121,122,123,124,125,126,127,128,129,130,131,132,133,134,135,136,137,138,139,140,141,142,143,144,145,146,147,148,149,150,151,152,153,154,155,156,157,158,159,160,161,162,163,164,165,166,167,168,169,170,171,172,173,174,175,176,177,178,179,180,181,182,183,184,185,186,187,188,189,190,191,192,193,194,195,196,197,198,199,200,201,202,203,204,205,206,207,208,209,210,211,212,213,214,215,216,217,218,219,220,221,222,223,224,225,226,227,228,229,230,231,232,233,234,235,236,237,238,239,240,241,242,243,244,245,246,247,248,249,250,251,252,253,254,255,256,257,258,259,260,261,262,263,264,265,266,267,268,269,270,271,272,273,274,275,276,277,278,279,280,281,282,283,284,285,286,287,288,289,290,291,292,293,294,295,296,297,298,299,300,301,302,303,304,305,306,307,308,309,310,311,312,313,314,315,316,317,318,319,320,321,322,323,324,325,326,327,328,329,330,331,332,333,334,335,336,337,338,339,340,341,342,343,344,345,346,347,348,349,350,351,352,353,354,355,356,357,358,359,360,361,362,363,364,365,366,367,368,369,370,371,372,373,374,375,376,377,378,379,380,381,382,383,384,385,386,387,388,389,390,391,392,393,394,395,396,397,398,399,400,401,402,403,404,405,406,407,408,409,410,411,412,413,414,415,416,417,418,419,420,421,422,423,424,425,426,427,428,429,430,431,432,433,434,435,436,437,438,439,440,441,442,443,444,445,446,447,448,449,450,451,452,453,454,455,456,457,458,459,460,461,462,463,464,465,466,467,468,469,470,471,472,473,474,475,476,477,478,479,480,481,482,483,484,485,486,487,488,489,490,491,492,493,494,495,496,497,498,499,500,501,502,503,504,505,506,507,508,509,510,511
-0.019132778,0.018476691,0.0411891,-0.021519305,-0.04416572,0.022899676,-0.020206232,-0.029169027,0.03180294,0.031266283,0.041013364,0.026429351,-0.03762012,0.0076242313,0.0064861067,0.0036479048,-0.011684146,-6.189942e-05,-0.02569138,0.004567869,0.0020736977,-0.020729532,0.0047309883,-0.022979837,0.01827186,-0.0019918866,0.043162245,-0.042555157,-0.028488887,-0.025402522,0.038005445,0.020016525,0.038561303,-0.040161148,-0.035112984,0.017790068,-0.04368834,-0.022087457,0.008425344,-0.013297852,-0.036532234,0.028436352,-0.0064417496,0.022496272,-0.012841906,-0.032512654,-0.034066044,0.021123234,-0.02600657,0.014384944,-0.04187004,-0.0046095103,0.03367125,-0.03154565,-0.025166694,-0.025915543,-0.043467272,-0.042381864,-0.041393034,-0.0066920593,-0.008905511,0.030558493,-0.029907815,-0.033557452,0.01582633,0.025810044,0.026246663,0.010737658,-0.004863087,0.038187508,0.012634195,0.028043944,0.013302784,0.017447364,0.014659122,-0.02628671,0.03031421,0.026657742,-0.039884217,0.004205629,0.0007161014,-0.006912656,0.031199422,0.025237624,0.021571282,0.032461975,0.0018728785,-0.037247624,-0.014073839,0.040015098,-0.0063157007,-0.039646324,-0.037490692,0.024934147,-0.02771789,-0.027181514,0.032918897,-0.043904755,-0.015677037,-0.04359764,-0.03799337,-0.008572858,0.0017390251,0.04264793,-0.0034515262,0.007865697,0.0313551,-0.025162006,-0.012945557,-0.025228903,-0.03873987,-0.0071675926,-0.01962511,0.031174283,0.03776506,-0.03801486,-0.01050644,-0.02911646,0.016758677,-0.021202372,0.011573087,0.035119716,0.016039927,0.029854324,0.034345377,0.040863533,-0.0024376735,0.03095251,-0.04204136,-0.0074541904,0.028604258,0.04379702,-0.016585533,-0.03647778,0.013997339,-0.02623841,0.02615856,0.003936369,0.03474913,0.021638867,-0.033282876,0.040262092,-0.01175414,0.036430705,0.024217341,0.034029696,-0.0123237595,-0.011750806,0.0012095422,-0.03236208,-0.00018789992,0.015766539,0.037009064,0.029230442,-0.00759181,0.035127964,0.009106025,-0.0029264838,0.007706031,-0.0072122626,0.03470364,0.04088677,0.021308672,-0.0058309287,-0.00056843087,0.011762191,0.035512444,0.02786621,-0.021376023,0.0035294667,-0.030134581,-0.0011246055,-0.017720442,-0.0045083947,0.03252482,-0.027863171,-0.01752517,-0.027640497,-0.03421703,-0.025065795,0.02404062,0.0067766495,0.042646606,-0.03749662,-0.022472456,-0.0033036135,-0.039758787,0.0007777922,-0.015427716,-0.011032149,0.003829658,0.040520567,-0.0031473525,-0.033736832,0.03240634,0.008088782,-0.030770086,-0.03212587,-0.012820423,-0.014846416,-0.0037028603,-0.034289885,-0.032048706,-0.011471752,0.0036317147,0.010537349,-0.03666295,-0.039088614,-0.016920706,0.028405908,0.027382504,0.0013862774,0.010842167,0.037307475,0.036624815,0.038355958,-0.006747484,-0.019543234,0.03450354,0.016029231,0.01985943,0.015250452,-0.012959966,0.0008067228,0.025264371,-0.009363279,0.011509594,0.019467372,0.03571241,-0.04065991,0.032890823,-0.038430646,-0.039194915,-0.01564363,0.0030910745,-0.021883076,-0.03660754,-0.025720894,-0.00932144,-0.041524533,-0.0030492991,-0.013366772,-0.005334802,-0.0034682788,-0.0010644719,-0.036335703,-0.019919606,0.008864753,0.02413031,0.030271139,0.017957538,-0.041979793,0.010914847,3.696233e-05,-0.025492758,-0.030574862,0.012754869,0.03431872,0.0033540875,-0.02652368,0.020362314,-0.04255469,-0.028475037,0.01240693,-0.02284475,-0.03146846,-0.009864494,-0.03382473,0.033329424,-0.01070739,0.019213576,-0.005016759,-0.012153469,-0.027566884,-0.023468276,0.038752746,0.017420769,-0.015458247,0.038700808,-0.035209432,0.033058424,0.012611695,-0.019337779,-0.010483105,-0.0036733225,-0.032703735,-0.008721858,-0.014032302,0.024066012,-0.014615573,0.019443478,0.033739034,0.033760782,0.009344988,0.033113506,-0.03306698,0.015960444,0.040811438,-0.03386154,-0.0133399945,0.036060516,0.0030249916,-0.016232142,-0.039688498,0.01592188,-0.035025552,0.018011399,-0.0019917265,-0.0019076765,-0.036057446,-0.021894392,0.013654862,-0.020480696,0.0027397126,-0.0013661571,0.043166246,-0.018097434,-0.018926684,0.008199897,0.02549621,-0.028235342,-0.011987891,0.02762461,-0.003203351,-0.0061866827,-0.005077604,0.041367386,0.043666314,-0.038401153,-0.012763899,-0.004843883,0.038498607,-0.03585854,0.022677828,-0.041749213,-0.010985576,0.03208718,-0.0043064393,-0.030282062,-0.039311633,-0.006266646,0.0417802,0.0073257685,-0.04187676,0.044107806,-0.0069652833,-0.004371129,-0.008447066,0.03495614,0.032277044,-0.0051422007,0.0004918203,0.015141793,0.043200653,-0.019763753,-0.032273352,-0.006972991,-0.004485525,0.035088997,0.012729559,-0.0108697675,0.0381325,0.039794613,-0.008112155,0.008742709,-0.019626206,-0.010132492,-0.033247594,0.025919016,0.038797233,0.012799628,-0.010993693,-0.014679309,-0.029144984,-0.0005506687,0.03899586,0.023193274,-0.010584053,0.01389591,-0.0059281476,0.04318184,-0.0066965185,-0.02813603,0.008340936,-0.038647454,-0.002785042,-0.04254169,-0.039693866,-0.0023652911,-0.036664892,-0.0045237094,0.020045687,0.008869097,-0.004505668,0.01748706,-0.020797193,0.022254575,0.025566008,0.043449763,-0.01136601,0.007632088,-0.0012224428,0.00026153773,-0.017185872,0.0037765838,0.0391558,0.0056438595,0.009534843,0.015183903,-0.032740276,0.014578346,0.0109539665,-0.017248882,-0.039784122,0.043569054,-0.006159365,-0.024992611,-0.0049049556,0.014959354,-0.0037431978,0.01637787,-0.030473962,0.029922325,0.04354127,-0.013069896,-0.02620307,0.0021525025,-0.017403608,-0.04236319,-0.04311413,-0.030381877,0.027310219,-0.022757417,-0.01867855,0.040178355,0.015438832,0.02484734,0.0060393177,-0.0027257688,0.004280206,0.018299133,0.013292294,-0.025444958,0.006239366,0.029165428,0.03580952,-0.031997565,0.022312727,0.003985379,-0.030787308,-0.036833342,0.028402459,0.03898375,-0.021697419,-0.013637777,0.015319973,-0.042569406,0.03576931,-0.014392737,0.010024395,-0.014746465,0.0014445297,-0.020281669,-0.020743567,0.0046269186,-0.030194417,0.009259399,-0.0024306104,0.04212868,-0.043736104,-0.015989434,-0.021453014,-0.012650009,0.0022214912,0.010947969,0.041179586,0.027774986,0.028026838,0.021837998,0.024623502,0.024576705,0.0133560635,-0.03230867,-0.029638086,-0.031123865,0.016462002,0.03983325,0.03314558,-0.004686162,0.010466926,-0.037284017,-0.027796505,-0.030184872,-0.020643763,0.006542675,-0.038179453,0.030555148,0.032194648,-0.021113843,0.03460708,0.02334511,0.029295545,0.044000756,0.031096417,0.019540418,0.009233393,0.02550907,-0.039503444,0.0027116276,-0.007964011,0.004862841,-0.037163578
-0.011788212,0.0048088096,-0.00011095777,0.012283783,-0.028393805,0.025973383,-0.022219544,0.017264318,0.027731698,-0.011618648,-0.029974133,-0.011752434,-0.0353661,0.02452175,-0.016063329,-0.014901545,0.03127494,-0.028188702,-0.034647964,0.020510416,-0.0040645264,-0.0110095255,-0.010403216,0.0063454695,0.011078715,0.030786883,-0.02493898,-0.012521002,-0.037590347,0.02514704,0.011247359,0.032611158,0.042350862,-0.027732084,0.037823256,-0.0020346232,0.04213732,-0.020002825,0.04143444,-0.03433617,-0.0354025,0.04208194,0.0040425844,-0.010077491,-0.023682361,0.022800278,0.013155345,0.001394961,0.020792302,0.03305764,-0.015699564,-0.004510388,0.021577697,-0.022695873,-0.04261884,-0.0069640987,-0.037210703,0.016425654,-0.014127333,0.01859286,0.00022175163,0.035861593,-0.04196042,0.016447622,0.03289528,0.006301347,-0.020879628,0.019234966,0.005340643,-0.040345043,0.037649702,-0.020632261,0.035704885,-0.006604947,-0.0020936243,-0.0440888,0.040818255,0.00424286,0.018217292,0.016604912,-0.031711146,-0.038532298,-0.011525139,0.0032902844,-0.038716353,0.0002220869,-0.005375862,-0.0100101195,-0.01100665,0.019920263,-0.04169217,-0.032936707,0.036256935,0.0026092492,-0.011484727,0.008420762,0.033934776,-0.03166289,-0.011663444,0.019639049,0.006086979,0.0057880282,0.020871755,-0.02486114,-0.026003147,-0.016602729,-0.03877125,-0.010392375,0.023338597,0.008488022,-0.021800062,0.0342795,0.034656044,0.0038439445,0.0018286295,-0.027652457,0.0069889016,0.021695148,-0.024700925,-0.026422128,-0.00079159066,0.013070874,-0.02190093,-0.018811556,-0.03863256,-0.0035724863,-0.0045961402,-0.002908919,-0.03391327,-0.032862492,-0.028395569,-0.041387487,-0.03115919,-0.043647267,-0.013447804,-0.02118105,-0.03658863,-0.022100026,-0.029832583,-0.041509997,0.0436034,0.024765927,0.004190296,-0.005219102,0.0054842047,0.017803304,-0.0137724895,-0.0056635775,-0.012253363,0.028449688,-0.005686328,-0.010792777,0.02243359,-0.018855477,0.0022842847,-0.010955758,-0.0029634908,-0.030649371,0.023797136,0.0030119866,-0.034327853,0.032919873,-0.016058624,-0.011537071,0.001026623,-0.0044440515,-0.011552371,0.016157378,0.011487503,0.043152038,0.0022321232,0.029203307,-0.0004290007,-0.0065820105,0.022056904,0.03621788,0.031203326,0.007211432,-0.02293947,0.0075020604,0.013463248,-0.014270665,-0.033035763,0.035425816,-0.0010325015,0.04200351,0.028189559,0.013964478,0.016547117,0.040441494,0.030033533,-0.03918955,0.023684192,-0.005971551,0.018066663,0.028419312,-0.0030353777,0.043922972,0.032286514,0.016124696,0.0028681047,-0.024110716,0.03662658,0.035911534,-0.023940437,-0.0073607042,-0.023789909,-0.00753738,-0.02248695,-0.00838894,-0.018309833,0.015439685,-0.010196671,0.013803747,0.026505876,-0.018699909,0.016849581,0.03898037,-0.0009810328,-0.027159255,0.034373518,0.03829814,-0.0113088,0.014148071,-0.03606925,0.00853895,0.043744806,0.018375676,-0.02633943,-0.014521107,-0.024778863,-0.019928062,0.033815708,0.022998262,-0.00095553696,-0.014289247,-0.011608887,-0.037349995,-0.03624543,0.025576528,-0.035710424,0.03380345,-0.024103435,-0.0045383982,0.01212392,-0.008747753,0.009486001,-0.040966853,-0.019835634,0.009398948,-0.022723569,0.04203653,0.034593526,0.02805752,-0.007068053,-0.030536044,0.025063742,0.033527177,0.039859746,-0.018313691,-0.0048999153,0.032563265,0.011740204,-0.017415036,0.0030020624,-0.009885784,0.042050418,0.042150315,0.03742249,0.0238561,0.027765881,-0.036409903,-0.0022816136,-0.035679206,0.04335114,0.025539387,-0.0016814582,-0.021278627,-0.032761075,-0.02101103,0.0195796,-0.03538979,0.005249832,-0.033565376,-0.0026317537,-0.041001793,-0.010071386,0.0128588565,0.025227826,-0.025806045,0.038522687,0.040085185,-0.011068098,-0.01640349,-0.039766546,-0.033997312,-0.0345252,-0.0340065,0.029905874,0.008897547,0.036176343,0.03225493,0.01971941,-0.0019141994,-0.034275204,0.03544013,-0.015386365,0.021981422,0.042356048,0.03613348,-0.04234634,0.0396727,0.016763229,-0.04349933,0.026142683,-0.021097869,0.0067943707,0.014834836,-0.04073856,0.023660783,-0.012147974,-0.032513876,0.03011166,0.003750112,-0.0028954372,0.026756134,0.034940142,-0.040146776,-0.029983616,0.040998753,-0.03867451,0.013392746,-0.025116218,-0.00395938,-0.0020822212,0.020111058,0.021395754,0.0125484355,0.026763726,0.039652776,0.04008757,0.037225362,0.04058854,0.0073093213,0.039827514,-0.036165077,-0.01051202,-0.041239895,-0.023689948,-0.03950737,0.014632195,0.01806711,0.022776615,-0.010870688,0.025312867,0.015286665,-0.039521795,-0.02942341,0.00983825,-0.027194817,0.031998385,-0.0045004413,-0.0016513467,0.031163786,0.044151213,-0.0061517283,-0.02993765,-0.0077417605,-0.019234424,0.00649336,-0.005643647,0.031475093,0.024733845,-0.030796792,-0.0017304197,0.011140782,-0.0032375045,-0.03517426,0.041631963,0.033023875,-0.032044854,0.024225105,-0.007818665,0.026460502,0.008524869,-0.005471289,0.03482637,0.02385677,-0.032113396,-0.012469396,-0.032926977,0.024593126,0.027171377,0.012978885,-0.0057984255,-0.03951411,-0.005754415,0.04257459,0.04039615,0.041139197,-0.0068747625,-0.038253173,-0.010994159,-0.021113843,-0.029319402,0.039359417,-0.04195643,-0.037059017,-0.0016346239,-0.03641429,-0.007462863,-0.027351344,0.029952329,0.041731108,-0.029877732,-0.027643396,0.028919827,-0.038257238,-0.016570034,0.040269975,-0.016369693,-0.0055875927,0.014619019,0.008602507,-0.040354263,-0.0137865655,-0.008229975,0.04345904,-0.026903823,-0.0032019801,0.029022079,0.0020408668,0.0028714612,-0.01989209,-0.012711726,-0.031819984,-0.034835234,-0.024745606,-0.0076613314,0.040740047,0.03712951,-0.03766627,0.0064139403,-0.02946328,1.513958e-05,-0.012597699,0.01068148,-0.016500613,-0.019995123,0.01881307,0.013383962,0.0354043,0.030469287,-0.009336118,-0.01596685,-0.0124376565,0.03286093,-0.042630084,-0.017156744,0.020299952,0.026240129,-0.036200628,0.024231631,-0.035547,-0.034433853,-0.026357105,-0.016974447,-0.03989106,0.021549601,-0.019413391,-0.004880119,0.0316899,-0.03796165,-0.015532289,-0.03832488,-0.0095336735,-0.027460637,-0.01443705,-0.017786765,0.0063340217,0.015315238,0.029378612,-0.006876312,0.010699458,0.0027203038,0.015027132,-0.003120225,-0.021179544,0.015301317,-0.004679911,0.04099935,-0.016488696,-0.03532183,0.0089994,0.018765654,-0.017912742,0.027300347,-0.03499632,0.006028112,0.027450178,-0.040282097,0.010534305,0.012577843,0.017079141,0.02830309,-0.03246647,-0.00019064546,0.03946719,0.011587676,-0.0046774037,-0.014888832,-0.004851483
0.041612033,-0.0057234876,0.01389914,0.017908186,-0.021437783,-0.02096791,0.038921732,0.01828238,0.033791665,-0.041440066,0.005138427,0.0189513,0.007517785,-0.0087120235,0.019794364,0.026149128,0.007916965,-0.029369745,-0.0355751,0.015204191,-0.0013600737,-0.032798525,-0.012700014,-0.0029944666,-0.016559044,0.043716308,-0.033847023,0.011679471,0.037761923,0.042723674,-0.028406238,0.02650899,-0.0014566705,-0.035407335,-0.0026201867,0.0017821565,-0.033174045,0.029222172,0.018779237,-0.042659063,0.010030333,-0.009031098,-0.034723677,-0.005023755,-0.036368493,0.021580923,0.013637535,0.041084994,0.021081302,-0.034627102,-0.043317873,-0.011117484,0.02484962,-0.007251274,0.0009292625,-0.00081891194,0.029183496,-0.038978774,-0.023517588,0.022455383,-0.026096106,0.029111061,0.038323488,0.037598867,-0.014547717,-0.0065033697,0.022582356,0.005342625,0.011768907,0.035832044,0.0021846183,0.002860237,0.0012211986,-0.017219653,0.026268464,-0.033828363,0.011681531,0.018829595,0.03733239,0.039867703,0.0068951435,-0.038146816,0.015593406,-0.014376264,-0.008310836,-0.016256988,-0.034711942,-0.01081676,-0.020317584,0.0027938671,0.010275226,0.015109103,0.038540643,-0.013383973,-0.0084797405,0.026512597,0.031582247,-0.017878808,0.029248986,0.013429988,0.009039842,0.016057596,-0.032069594,-0.029778425,0.0043704025,-0.03135432,0.026062112,0.018062726,0.002601318,0.023974199,0.024190735,-0.008033361,-0.021011284,-0.015881838,-0.032754976,-0.03184367,0.028111871,0.0033946112,0.019821268,-0.016500881,0.03809012,0.014395997,0.025292438,0.03991853,0.000107143074,0.0063159727,0.012169,-0.013554996,0.022351313,0.017507367,0.044130635,0.004043322,0.029099632,0.020276655,-0.0066596717,0.03877409,0.031171259,-0.03952519,0.04115023,0.016410023,0.018821735,0.02765638,-0.025861364,-0.023142066,-0.01184956,-0.0024006143,0.0007586628,0.01879922,-0.007452339,-0.019388193,-0.013709875,0.014209952,-0.04090522,-0.021226717,-0.032292224,0.033126872,-0.041460138,0.027644832,0.033769276,0.026086625,0.0050875917,0.039877247,0.039220374,0.038210187,-0.03156763,-0.005160939,0.043533187,0.0028720386,0.0022641532,-0.033184707,-0.0072392263,0.030085173,-0.01578754,-0.035464533,-0.035309955,-0.0039007105,-0.027819017,0.038690124,-0.03751468,0.018529441,-0.019808618,-0.022910247,-0.009714816,-0.022232778,-0.02061867,-0.02797171,0.037211243,0.042815726,-0.01796258,-0.0328325,0.0021101944,-0.004279282,0.00064761937,0.0012464076,0.009316444,0.0024395697,-0.0057732426,-0.028785013,0.025857944,-0.022890849,0.018197265,-0.027493568,0.029352147,-0.03239544,-0.036127456,-0.006099656,0.020188134,-0.037156772,0.041352298,0.032024812,0.010803748,0.00094999373,-0.008435391,0.011214033,0.035885993,-0.032867894,-0.029257026,0.018477682,0.007918108,0.043959547,0.004923247,0.0058193095,0.030064356,0.030338708,0.043233555,0.015732668,0.00267338,0.001707457,0.0058674626,0.007549137,0.01115194,0.02698088,-0.02216143,0.043229695,-0.03507346,0.03763188,0.008977704,0.030082304,-0.013662433,-0.012900598,-0.026879057,-0.008077316,-0.038781527,-0.021252217,-0.005422186,0.0074627623,-0.007999878,-0.025475979,0.018668685,0.023554128,0.02122211,0.022723686,0.036939953,-0.019867476,0.005513698,-0.025842866,-0.012946105,-0.010153364,-0.0027402192,0.031682495,-0.030094165,0.019320887,-0.025696939,-0.015351037,0.022737775,0.017014679,-0.04253129,-0.034185484,-0.005872272,-0.022990078,0.033482466,-0.04318321,0.012700785,-0.029429678,-0.02013248,-0.044042453,0.034448642,0.01998325,0.033504117,0.017020687,-0.027409365,-0.017576532,-0.0015549064,0.027150143,0.030421566,-0.042292804,0.028488409,0.040936757,-0.043493602,-0.03206057,0.010624036,0.019192804,-0.014138967,0.012293056,0.032388356,-0.038591944,0.03881066,0.02940609,-0.02705923,-0.008311976,-0.016836032,-0.035544217,-0.0048789196,-0.007224202,-0.013623774,0.024120416,0.037145663,-0.012420852,-0.015401121,-0.027220262,0.023473952,-0.042133514,0.00064923614,-0.042935457,-0.04397571,-0.028262923,0.015322633,-0.0025407597,-0.02292149,-0.01197293,0.018370297,0.0039059967,0.008245014,-0.017121177,0.016757835,0.0043494403,0.019200694,0.012376048,0.016702734,0.04139192,0.02011745,-0.0020495057,0.040738802,0.012450844,-0.02470013,-0.029167468,0.033234563,0.04215629,-0.0381198,-0.04259886,0.022247907,-0.020406019,0.0033065267,-0.041180078,0.010318045,0.01758818,0.0067894347,-0.035296783,-0.01853102,-0.03376978,0.043082636,0.0022930577,0.0125454515,0.0018353797,-0.023825618,0.00023686886,0.035530973,-0.026752353,0.007973183,-0.018602112,0.044021424,0.022941526,-0.009875298,-0.030727655,-0.0012084097,0.03568643,-0.032902274,0.021336336,-0.0018993318,-0.0054495074,0.037194517,-0.036956258,0.032462705,-0.028924454,0.03265344,0.029511567,0.013912674,-0.0061419494,0.030178335,-0.027557068,-0.013794726,-0.014746254,0.028232899,0.028164532,0.04404715,0.0016385838,-0.005799189,0.014078505,-0.02775146,-0.0016664006,-0.02995631,-0.010082617,0.028320659,0.036799747,0.0058676116,0.039039318,0.014181286,-0.01004618,0.01274338,-0.0006512441,0.019742887,0.001527518,-0.02101496,-0.006340187,0.027001943,0.0037781447,-0.012132298,0.017080206,0.04387637,-0.009184163,0.030315157,0.0032970197,0.039476063,-0.031342447,-0.036972288,0.011350863,0.027153578,-0.018940013,0.006338101,0.00602524,0.040610705,-0.021120217,0.02254619,0.036777753,0.040186103,-0.010690626,0.014725659,0.03508121,0.024081599,-0.005083997,0.029121842,0.014544629,0.00044693425,0.0053398274,0.027156223,-0.04308349,-0.011019394,-0.0031066127,-0.04335396,-0.013154764,0.025997598,0.013634842,-0.03749156,-0.0026190467,0.016036574,0.029487807,0.0024695992,0.043711897,0.018957745,-0.028310865,-0.0033205561,0.03942005,0.0056916364,-0.025091326,0.04329936,0.0028156154,-0.009072252,0.038726192,-0.012804154,0.0076681823,-0.019131418,0.027560141,-0.028595045,0.009627193,0.019961413,0.025024693,-0.001656808,0.03732417,-0.02789281,0.024918351,0.003332097,-0.03451912,-0.03921832,0.039335813,0.016804963,-0.011068389,-0.037424847,8.541718e-05,0.021557774,0.010756776,0.0040803403,0.04310484,0.02512512,-0.020269679,0.007364124,-0.04287428,0.005197864,0.0022828802,0.026577804,0.006046675,0.035034563,0.025920954,0.02594604,-0.030069944,-0.021990566,-0.03215013,0.014649969,-0.008582208,-0.024817254,0.024318602,-0.018596848,0.02189153,0.014495254,0.024757046,0.0038020983,0.043117877,-0.033531226,0.028900754,-0.023197656,0.03687528,0.026673961,0.016211811
-0.03089926,0.00020036474,0.031619083,-0.026190657,0.020665113,-0.034665246,-0.015784701,0.011179429,-0.005857151,-0.017119316,-0.029768877,0.010213345,0.029815283,0.036096845,0.013800241,0.030935492,0.009381007,0.043233436,-0.0021527447,-0.026333308,0.0057227053,0.022983242,0.027162384,-0.006094381,-0.001957573,-0.041556697,0.038996954,-0.031389765,0.011876259,-0.037192043,0.017185476,-0.013449864,0.03300697,0.00045882538,-0.0037995912,0.04027306,-0.040266722,0.0008301027,-0.022292696,-0.019867856,0.028375473,-0.03143573,0.035200518,0.020770777,-0.016410233,-0.008668985,0.024570111,0.005718399,0.03961459,-0.0033007786,-0.012564678,0.024278846,0.040616404,0.01126118,-0.020578599,0.035608333,0.032613818,-0.02849072,-0.02097752,0.013158042,0.03164978,-0.03552563,-0.03210887,0.044129897,-0.0012017451,0.011249479,-0.008790977,-0.023585433,-0.0019644685,-0.043476574,0.009374209,0.0023768023,-0.034594316,0.019378293,0.04382688,0.015357535,0.00834731,-0.03264524,0.042059753,0.03763054,0.019946035,-0.031709824,-0.0021706931,-0.031457555,0.0034337714,-0.024519904,0.022066217,-0.038899206,-0.02091275,0.031026442,0.016834568,-0.040854026,-0.03351037,0.01780463,-6.86571e-05,0.025208864,0.019423027,-0.014344489,-0.012941923,-0.027492395,0.024911325,0.012014482,0.00041942298,-0.015149342,0.027735826,0.029503752,0.03795222,0.02489448,0.018924367,0.01323133,0.04241899,0.030610893,0.034315612,-0.00016093254,0.033770565,0.0041532777,-0.039769925,-0.035765074,0.00089593604,-0.014828874,-0.029635657,-0.031708587,0.020991046,0.033318292,0.036333624,0.013698261,-0.027462406,-0.006939519,0.00047577545,0.024224479,-0.015571764,-0.023504859,-0.010532513,0.003764931,0.015614081,0.00072070956,0.0022059567,0.025045376,-0.00511666,0.013716735,-0.018526549,0.03136685,0.0013807043,-0.009435706,0.008238435,0.008491237,0.031764764,0.019749094,-0.029299341,-0.0014328249,0.029109355,-0.041414548,-0.0054792687,-0.04117223,0.03832354,0.024911303,-0.009394981,-0.024047432,-0.019670451,0.002792798,-0.011315353,0.007911857,-0.017202679,-0.0032353438,-0.016389603,0.025767412,-0.03877066,-0.005868204,0.032300573,-0.006850876,0.024512228,-0.001043383,-0.0270922,-0.027959455,0.018706415,-0.0042507313,0.043945465,0.0064096823,-0.030400874,-0.024723778,-0.018771363,0.0032092668,0.038442288,0.021518309,-0.019261437,-0.019915523,0.027617838,0.026203793,-0.028487138,0.006858904,0.042949576,-0.000918854,-0.03321545,0.0059420243,-0.029685047,0.03372765,0.036794316,0.04233795,0.008612022,-0.03213634,0.022598546,0.03599349,-0.025844773,-0.0045430176,0.016471047,-0.040863335,0.0026453584,0.0027941242,-0.038872544,0.0115513615,-0.0024077073,0.04009713,-0.012008607,-0.02248677,0.036889907,-0.016933223,0.016959801,0.039424893,0.014340259,0.002443742,-0.008407578,-0.0027751662,-0.011556182,-0.017582953,0.025521558,0.018298838,-0.024416722,0.03348271,-0.027172962,-0.018910473,-0.0067873597,0.03511964,-0.040609453,0.008188337,0.011841893,0.0022778884,0.03713588,-0.017620333,-0.012476578,0.01465356,-0.015969282,-0.0298563,0.044037897,0.0118132755,-0.028556228,-0.012941107,0.028779928,0.027604531,-0.044157475,0.036282707,-0.0052007623,0.012308527,-0.03852981,-0.015031537,-0.030934127,-0.014897168,0.03364495,-0.017971506,-0.016584964,-0.027651757,0.04058036,0.03898121,-0.041338455,0.03289808,-0.015878683,0.037381757,-0.026213795,0.017864909,-0.035635043,-0.029181972,-0.03926528,-0.012087993,-0.01593241,0.026398111,0.0002719052,-0.0152045805,0.033460412,0.037293155,-0.016301822,0.013089087,-0.024518475,-0.043654524,0.030168738,-0.03561256,-0.03962093,-0.036956497,0.018609833,-0.002642516,-0.0363864,-0.034043927,-0.03175044,-0.00030572712,0.03243659,-0.038716022,0.0297543,0.020255823,-0.029957458,0.0032448135,0.026986908,0.033537325,0.0060350634,-0.036134172,0.02999482,0.020839166,-0.0018218085,0.009707186,-0.039361496,0.0038016997,0.043957304,-0.039652035,-0.035241887,-0.013774706,0.0076570027,0.03636862,-0.005595483,0.028670829,0.0009349175,-0.039628103,-0.0036285743,-0.019162934,-0.019240873,-0.036429975,-0.039422106,0.008250568,-0.029987793,0.03642529,-0.01336094,-0.0014966018,-0.018235007,0.040589835,0.031501736,0.014549255,0.023431163,-0.041894104,-0.021708576,-0.011109397,0.036418367,-0.036800295,0.019040223,-0.006448008,-0.030415293,-0.012458172,0.006331172,0.014583699,-0.008847017,0.0113765,-0.039877657,-0.031236313,0.002108086,0.013774034,-0.040473703,0.016944397,-0.011015717,-0.019069288,0.013872456,-0.027493749,0.02806579,-0.0011096261,0.0060403794,-0.016015882,-0.01448868,0.02496187,-0.0030288398,0.025233615,-0.0056551658,-0.012680829,0.017536987,-0.015709916,-0.008501139,0.03291354,-0.032210935,-0.043950494,-0.042907096,-0.038473852,0.015514825,-0.038779072,0.030131552,-0.011413235,0.013740074,-0.034985278,0.009194713,-0.03900204,-0.021497427,0.0017555319,-0.03025561,0.015270393,0.02510668,0.00451779,0.027581517,-0.04268398,-0.030496437,0.0003292337,0.030252162,-0.034214117,0.040988844,0.0031009875,0.039756153,0.005240418,0.020774368,-0.034349967,-0.002808161,0.034009684,-0.00023367256,0.0154745355,0.02805392,-0.033472635,-0.035833582,0.015307903,0.041517418,0.021743786,0.037981104,0.030880053,0.023002807,0.03866153,-0.025892958,0.023287032,0.02199519,0.028149929,0.023774054,0.036371943,0.009550523,-0.038776964,-0.032674372,-0.02684434,0.028727945,-0.008688595,0.020991977,0.025502842,9.082258e-05,0.017351951,-0.03716466,-0.015362974,0.03275371,-0.03737033,0.005999867,0.0009719655,-0.014766023,-0.04182472,-0.035126053,0.0017194822,0.03864083,-0.00034263358,-0.003835246,0.029223483,-0.010167941,0.0021558478,-0.016888225,0.01657644,-0.021274654,0.030709911,-0.022613138,-0.012545083,-0.0072076283,-0.036952585,0.014032308,-0.015925676,0.011916865,-0.043928675,0.018935528,-0.01052697,0.022238415,-0.030204264,0.014454123,-0.023830956,-0.011873946,-0.019575972,-0.013706613,-0.023279848,0.0070909895,-0.008591615,0.008867893,-0.011090353,0.007413186,0.029208597,0.00819733,0.024093512,-0.00042782724,-0.0003784746,-0.037898645,0.01989035,-0.03120482,0.04200199,-0.039534938,0.042163823,-0.040176302,0.04360905,0.02749541,0.037321452,0.016351301,0.013328031,0.017889593,0.0049043596,0.027536113,0.011949543,-0.017644051,0.0045922473,0.038896095,0.024050537,-0.019331284,0.009834245,0.017506182,0.034827713,-0.011359576,-0.025949597,-0.044181712,-0.005439874,-0.003485471,-0.0021397993,0.008871827,0.006740093,0.01633304,-0.028080296
-0.042786997,-0.035352807,0.0183875,-0.039007302,0.028204788,-0.042635523,0.0022441186,0.043390978,-0.0085056275,0.018610965,-0.038788,-0.018522555,-0.009135414,0.036615197,0.017664883,-0.04220757,-0.011324391,-0.0016488433,0.0067727417,0.013172727,0.025584694,0.0041749813,-0.014326483,0.026296366,0.011604186,0.02805667,-0.0062334463,0.009747844,0.00093815103,-0.005796347,0.027637955,-0.037872706,0.044189427,-0.004230775,0.020329218,0.028805543,0.028438095,0.030065726,-0.0038040206,0.024209026,0.010736529,0.044114288,-0.023693377,-0.025078608,0.022154968,0.0098651275,-0.013071882,0.04402454,0.008818664,0.027487066,0.027759831,-0.029693713,-0.024867479,0.01069,-0.033967495,-0.029031254,-0.042072434,-0.041596696,0.03281794,-0.039922915,0.020589504,-0.043839127,-0.009851746,-0.0011002272,0.012460273,0.023796123,-0.003065478,-0.015057493,-0.01882528,0.038384195,-0.02557946,-0.018174991,0.040824782,0.022182379,-0.030884821,-0.036034323,0.01957411,-0.020473916,0.011071533,-0.019720241,-0.025947,0.02552877,0.030651879,-0.019753017,0.029640835,-0.030484067,0.005745847,-0.039357927,-0.037286617,0.016173925,0.04061218,-0.022277722,0.0145633705,0.028376501,0.037110645,-0.036272716,0.0069122985,-0.0096764155,0.026803631,-0.016497925,0.024987835,-0.014859909,-0.024688285,0.005326513,-0.019769369,0.039525744,0.037070613,0.038303833,0.022358742,-0.019031683,0.012067039,-0.016363561,0.023700234,-0.013424456,0.0051731765,0.03824215,-0.01962677,0.019100163,-0.0027095191,0.04284093,0.013233479,-0.024191495,0.018142927,-0.008158401,0.00019050762,-0.007534232,0.040518884,-0.0028331652,0.034440268,-0.0282232,0.022725794,-0.007106226,0.030813035,0.04275753,-0.0035392605,-0.0065306313,0.029650178,-0.040329814,0.00499516,0.043946814,0.02255975,-0.030084725,-0.020987798,-0.029264627,-0.025966873,-0.0062231943,0.0102424435,-0.020173315,0.02750576,0.018347185,-0.04066113,-0.041453294,0.0072537735,0.009248421,-0.017355887,-0.00067121536,-0.02460898,0.023731176,0.0076902546,-0.01130271,0.042397875,-0.017235974,0.023571905,-0.012801457,0.007308241,0.018754069,0.015458219,-0.03872148,-0.021978127,0.016683683,-0.023142412,0.0031432323,0.007552542,-0.007592585,-0.017450307,0.024319064,-0.008431576,-0.021697914,0.034258816,0.02329569,0.03671315,-0.033923768,0.0027615577,0.036824357,-0.0379454,0.01083193,0.043974686,-0.022222979,-0.014794428,-0.04114787,0.028598431,0.041766148,0.015963979,-0.038960926,-0.0042399243,0.0049296804,0.037297558,0.01765212,-0.0012949109,0.03377189,-0.0040450655,-0.02274048,0.03082959,0.0404667,0.005131617,0.035040397,0.027059805,-0.03644959,-0.030919153,-0.044032365,0.028769333,-0.030065322,-0.019114718,-0.022256512,-0.025776174,-0.032874227,-0.015247945,-0.025836507,-0.033154693,0.00492141,0.012824848,-0.016546067,-0.031563364,0.033491295,-0.018601147,0.023205336,-0.0398212,-0.022876577,-0.0184888,-0.0044943094,-0.0067635104,0.017973423,-0.036415663,-0.024084711,-0.027355695,-0.036673043,-0.023986962,-0.010081191,-0.0235075,0.004978258,-0.017383467,-0.037896737,-0.022350589,-0.018856715,0.020287123,-0.02707475,-0.0046445765,-0.01253248,-0.0036494732,-0.031327914,-0.03733522,-0.021440612,0.04278287,-0.00541332,-0.03998428,0.005993407,-0.036928862,-0.033185773,-0.02902734,-0.004217252,-0.024386508,0.042293448,0.009406723,-0.04147984,-0.0051571056,-0.0068774,-0.032752283,0.040352833,0.003292568,-0.012356553,0.018798638,0.0033714361,-0.037528314,0.012443442,-0.04264291,0.01842003,0.014991917,0.030537602,0.032199178,0.0017826445,-0.03474352,0.023191188,-0.013621172,-0.023361323,0.035345014,0.0209223,-0.004022453,0.005752042,0.003979873,0.03389127,0.018996011,-0.0044571497,-0.040360484,0.039903898,-0.0053112507,0.023691941,0.04213169,-0.039652772,-0.0043759756,0.017729942,-0.015466671,0.008845452,0.0023727976,-0.0003559403,0.031154994,0.0008328967,-0.020116674,-0.016387742,-0.031108689,-0.031579096,0.030912567,0.041578617,-0.035262816,-0.003234703,-0.0060387775,0.03726731,0.021934945,-0.013196042,0.004579928,-0.014618171,0.0149809085,-0.005278062,0.022250284,0.022107255,0.009839129,0.004194021,0.027590182,-0.0065197945,-0.005254399,0.012665253,-9.6067786e-05,-0.0058901235,-0.04081091,0.014417842,-0.015608201,-0.039548915,0.008469809,0.023727413,-0.01644247,-0.041525193,0.03882994,-0.028558372,0.020943161,-0.02770865,0.03244822,-0.042015404,-0.024164004,-0.042928502,0.030528855,0.03332388,-0.0055393726,-0.00552069,0.013034925,0.038785506,0.020168584,0.022136603,-0.0021208934,-0.018010898,-0.02617719,-0.043654904,0.031435978,0.0020246543,-0.027387807,0.0021590553,0.029708762,0.042511437,0.0019806474,0.010380525,0.0027503036,0.027735021,-0.032531574,0.02847508,-0.019749058,0.014328815,0.02676231,-0.04074435,0.031645212,-0.03863647,0.03065383,-0.027376732,0.03887446,-0.015130835,-0.004596919,-0.028464258,-0.010891922,-0.03121259,0.037015703,-0.0007808246,-0.0039042532,-0.038685046,-0.023368267,-0.024351927,0.015512191,0.03763101,-0.02666817,0.025811877,-0.016081747,0.03235222,0.040091228,0.016330492,0.014728937,-0.008802317,-0.026662238,0.008576479,0.02571677,-0.0065711364,0.041775625,-0.009343624,-0.014928967,-0.0020857677,-0.023855058,0.02018768,0.014603641,0.009191889,0.029863123,-0.0110619925,0.034458604,0.02722923,-0.023028031,-0.009511743,-0.04364273,-0.028428344,-0.020869074,-0.013697483,-0.043792766,-0.0048761107,-0.021885246,-0.01822513,-0.014118509,-0.043239873,-0.019123431,-0.02174635,0.015286431,0.043570932,-0.011161722,0.036448855,0.0070857108,0.038719114,-0.039642125,-0.018578473,-0.011477586,0.01096154,0.03692985,-0.026950339,0.034142043,0.005248189,-0.014202075,-0.0140117295,-0.035122227,0.042289067,0.028079491,0.02949829,0.031087626,-0.005983066,0.020241503,-0.016551394,0.031350713,-0.043471,-0.027704762,0.03193829,0.031513255,0.038025122,0.015316229,-0.017125545,0.024505172,-0.0016319826,0.035152588,-0.0011129491,0.0066648163,0.024979223,-0.013471307,-0.005101066,0.011510067,-0.012327764,0.038376402,0.027427685,-0.015709432,-0.01205077,0.025992934,-0.0021461807,-0.023109032,0.017580234,-0.038653642,-0.014617959,0.0022243373,-0.027152712,-0.016822072,-0.029862769,-0.04076999,0.004191257,0.035443198,0.023746323,0.0023225546,-0.0025659464,-0.006478019,0.0032859743,0.038122807,0.037901487,-0.031123381,-0.030303141,-0.028000742,-0.0063730367,-0.01658997,-0.00083125755,-0.04207711,-0.030420562,0.03646442,-0.011057779,0.041014623,-0.01884523,0.00994467,-0.018382885
-0.0179442,0.02616674,0.008438189,0.010944426,-0.0099182315,0.027559008,-0.0017673485,0.04193699,0.017305829,0.038026597,0.023354586,-0.026380524,-0.00046094507,0.025123764,0.0059973747,-0.037389364,-0.031721223,0.028934214,0.0070176385,0.037614305,-0.036776938,-0.027295448,0.03405602,0.031693075,0.020216707,-0.018726582,0.013972949,0.016973946,-0.0058680363,-0.025454083,0.008532293,6.598979e-05,-0.02935256,-0.036977172,0.04097536,0.020404298,-0.008309297,-0.01849036,-0.022093467,-0.014422014,0.026302006,-0.036714878,-0.026805542,-0.0011598803,0.021781977,-0.018111212,-0.030956648,0.0019077733,0.022735257,0.028959524,-0.035083428,0.00977705,-0.017227182,0.028735522,0.040084776,-0.016309708,0.03483813,-0.019043062,-0.027911544,0.031038765,0.032099362,-0.019987632,0.016423661,0.010529231,0.00029918924,0.0115343,0.0092518665,0.0027599074,0.03335234,0.018950362,0.012849178,-0.024492124,0.023624007,-0.0042065084,-0.03408581,0.0051488765,0.030450005,-0.019786801,0.038495388,-0.029632222,-0.01140048,-0.017961442,0.027175922,0.006979972,-0.020046385,-0.036160387,-0.042586476,-0.023259211,-0.0329254,0.010278009,-0.0365729,0.023654427,-0.005689077,0.029889058,-0.009104453,0.04173943,0.0041664653,0.007124983,0.04276802,-0.033536546,-0.007557787,0.031025361,-0.020909335,0.02351604,-0.025575977,0.030686248,0.006803602,-0.042388894,-0.0220095,0.0043309256,-0.04265585,0.04089928,-0.010495741,0.025601555,0.04157282,0.002711106,-0.03200552,0.0131711215,0.028263737,0.034159224,-0.009426523,-0.03077813,-0.0014513917,-0.019339724,-0.031786356,0.035382394,-0.020916253,0.024468426,0.041126464,-0.01395458,-0.023630114,-0.0057331286,0.03486869,-0.010201532,0.036399912,0.040109176,-0.027696243,0.026763182,0.009013895,0.040812317,-0.023752572,0.02920327,0.0012757853,-0.039317958,-0.007556852,0.026977774,0.0011660308,-0.035302013,0.017877333,0.02564961,0.014955409,-0.026794506,-0.0021762848,0.029488686,-0.03325759,-0.0024950616,0.017198104,0.014070023,0.019559506,-0.0014318004,-0.014642721,-0.030047504,0.0035314672,-0.031390294,0.03248593,-0.02720589,-0.033443823,0.027765844,-0.03616322,-0.036612514,0.03675553,-0.024900384,-0.04051011,0.039014596,0.026319105,0.019959819,0.029570837,0.033255983,-0.02655017,-0.016750816,-0.042391747,-0.04213593,0.022668619,-0.012895845,-0.020460319,0.0041266195,-0.031014007,0.0386788,0.00073551387,0.006042879,-0.028895553,-0.03088314,0.032546367,-0.032859627,0.014634915,-0.032049257,-0.012968775,-0.033577114,0.0019834898,-0.025381321,0.03549024,-0.028392183,-0.009926904,-0.00059825927,-0.031422608,0.0017666221,0.03476445,-0.016493706,-0.041439783,-0.015237808,0.040651064,-0.009990245,-0.027392616,-0.04343848,-0.011919815,0.032948855,0.01022552,-0.033845514,0.040802475,-0.0138352085,0.041711826,-0.019545691,0.017127998,-0.012865558,0.035814982,0.03284769,-0.01178056,-0.010371681,-0.0043991506,0.003933817,0.027185176,0.0102272965,-0.016915673,-0.0041956864,0.009978261,0.03235932,0.004816558,0.019446012,-0.015816728,0.03627423,-0.015773974,-0.011040874,0.04101957,0.000940118,-0.033626713,-0.03776536,0.0038511045,-0.0009892657,-0.003772702,0.04365876,-0.009260826,-0.010068502,0.041812662,0.01905666,0.0033090971,-0.022913076,-0.021028342,0.014165591,0.015794106,-0.021008844,0.005571544,-0.029662667,0.011884812,-0.033067867,-0.025438556,0.032267254,-0.007504247,0.043807294,0.018520739,0.0077582337,0.007964358,0.006543305,0.01257411,-0.025651267,-0.024898645,-0.036899123,0.041640636,0.014861848,-0.04290216,0.03340206,0.00086575374,0.021893073,0.03026871,0.027452383,-0.029535457,-0.005513396,-0.0039871037,-0.013263002,-0.0051132515,-0.0054666884,0.017048173,0.015110429,0.03229216,0.0058291294,0.018790152,-0.037210926,-0.037065666,0.035045404,-0.0046611466,-7.0568174e-05,-0.0006593354,-0.015073461,0.035367403,-0.031419493,-0.027410708,0.03439833,0.02857707,0.023027565,-0.019719878,-0.005425632,0.025988888,0.042695273,-0.009518191,0.041650552,-0.03525302,-0.02573996,0.01067619,0.036214653,0.015471149,0.036485013,-0.0101326555,-0.03306534,0.018164665,0.009799093,0.01182314,-0.023021905,0.013219412,0.03444914,0.010895997,-0.044151247,-0.012633428,-0.004199993,-0.019635437,-0.021772608,0.039601084,0.0116279945,-0.001846537,-0.008506004,-0.008861866,-0.0037185885,0.04390503,-0.032338202,0.043671828,-0.008638121,0.03197697,0.018177334,-0.021423243,0.03585727,-0.034639113,0.043353993,0.038888548,0.031371165,-0.014769973,-0.005523525,0.040921014,0.01721057,0.028995704,-0.03233107,-0.017213853,-0.009595204,0.040550392,0.021240082,-0.02559098,-0.024117386,0.043586228,-0.024879474,0.0013902225,-0.0049164556,0.0065542497,0.0052182265,-0.024407445,0.03500547,-0.024053149,-0.008122742,0.034710724,-0.037480485,0.04119138,0.029519845,0.009396292,0.0025214404,0.027077254,0.040818144,0.025759224,0.019522507,0.039679956,-0.028017385,0.015720565,0.013627034,-0.012257226,-0.0031691566,-0.013055708,0.011078667,-0.03900768,0.0067755654,0.011979837,-0.022334537,0.029265124,-0.021875242,-0.03351508,-0.018787831,-0.03343128,-0.023116814,0.0015779994,-0.020161377,-0.031013764,-0.019357553,-0.029676743,-0.009158779,0.018061493,0.031253997,0.0057130456,0.03395232,0.038029935,0.01485404,0.025081221,-0.037956268,-0.043545842,0.028567258,0.011823662,0.028380197,0.020714078,-0.02627791,-0.006008312,0.014779344,-0.022933643,0.04068869,0.028396752,-0.04261413,-0.044178132,-0.020649279,-0.0013343059,0.018538233,-0.003956899,-0.0026330575,-0.0070114546,0.026089411,-0.023236379,-0.042843718,-0.033586897,0.00499928,-0.0014425218,0.008800656,-0.041788314,0.021013241,0.044085782,-0.014417199,-0.023224251,0.0305896,-0.03069762,0.020168897,0.005629137,0.0065548606,-0.018852212,-0.03966237,-0.014042877,0.018723872,0.028486062,0.0044353455,-0.028444529,-0.023864867,0.038781118,-0.03454349,-0.0073222034,0.023292605,-0.027643021,0.0027251989,-0.034588423,-0.028093887,-0.017303057,-0.018515738,0.016025458,0.039039794,0.032514725,-0.015832838,0.008134246,0.021070402,0.031774927,-0.03538445,0.010066628,0.029306646,-0.03704547,0.022537429,-0.037097044,0.043000367,-0.03912822,-0.01597505,-0.038268093,0.03622864,-0.009976648,-0.03690496,0.0039393194,-0.013102444,0.004710473,-0.029342946,-0.021648413,-0.034406736,-0.018232089,0.00688741,0.008349266,-0.024921173,-0.01823222,0.017662685,0.0036720298,-0.021905255,-0.04085815,-0.0038760155,-0.02953374,0.034349952,0.016376022,0.0072347894,-0.013995208,0.013404693
0.00043611974,-0.00800569,0.010144863,0.038390834,0.01895715,0.032431457,0.034142505,0.0019418225,-0.03180823,0.016490556,0.033103365,0.024860289,0.031836364,-0.0077307858,0.029147152,0.026364002,0.030561563,0.023226116,-0.031568106,0.04321744,0.021184798,0.029024284,-0.014011003,-0.019901024,-0.0010232553,-0.030745395,0.04417977,0.018360544,-0.024873726,-0.0004092604,0.027290594,-0.041537393,0.04081286,0.031496625,0.03490639,0.021600153,0.03951585,0.031427052,-0.0067535266,-0.035082024,-0.016137248,-0.033067003,0.025662664,-0.016038835,-0.034290317,-0.015092712,-0.034519434,0.005732745,0.018233132,0.026148599,-0.0043005794,0.02833036,-0.0019115433,-0.04128447,-0.03873889,0.0015519038,0.03614336,-0.029122371,-0.037011888,-0.029789876,0.008779731,0.03552757,0.0035913996,0.026147839,0.00015344471,0.027659815,0.002945792,-0.002917461,0.0021578707,0.0047371164,-0.015322212,0.030644987,-0.0020406991,-0.02475228,-0.023760865,-0.0010751225,0.029449444,-0.02831802,0.027174275,-0.024901116,0.02516057,0.043574195,-0.007487815,-0.031949475,-0.016265685,-0.014264753,-0.033901017,0.038229633,0.040023934,0.023445461,0.0055378675,-0.0053716563,0.04381242,-0.043692924,-0.0052131116,0.003818605,0.010620259,-0.008457009,0.042954247,0.008110601,0.003671702,0.03813753,0.02655365,0.036000352,-0.020014884,-0.007461503,0.0039849207,-0.038272426,-0.03835813,0.042572934,-0.042882167,-0.019185962,-0.035331197,0.026210036,-0.02146916,0.038286943,0.016701754,-0.02911212,0.00019747019,-0.030031964,-0.01649233,-0.01640595,0.00998757,0.018479627,-0.007606715,0.031433944,-0.025715077,0.020639595,-0.00390853,-0.023868993,0.028193776,0.00044566765,-0.023896467,-0.026620418,-0.03327855,-0.04402831,-0.02086279,0.02878933,0.029526982,-0.0060369186,0.042871337,-0.01884121,-0.029631864,0.039235044,0.038630914,-0.02328752,-0.009835888,-0.03326466,0.03332154,0.001050964,-0.01316826,0.033568118,-0.031782907,0.00074772537,-0.00025197119,0.035775717,0.034336153,-0.024805527,0.0128951855,0.010199353,-0.03970874,0.0007338412,0.019633714,-0.0055100955,0.0018919259,0.027126942,-0.030195788,0.011918396,-0.006843604,0.044062432,0.029087972,-0.030735858,0.015800286,0.021266308,0.009691309,0.043950472,0.00050109625,0.027304184,-0.041942347,0.034088183,-0.00427524,-0.022634659,-0.00017272308,0.016802903,0.038422663,0.005754005,-0.01993692,-0.021023512,0.024378497,0.022157159,-0.0046679303,0.04167242,-0.0031503253,0.02768847,0.029504482,-0.04138653,-0.009051058,-0.0253539,-0.0043439977,0.04382539,-0.026633088,0.010484654,0.043291915,-0.0013808608,0.01942448,-0.032872643,-0.043115065,-0.007924423,0.012422282,0.01389249,0.01492276,0.0002996698,-0.011855904,-0.019216796,0.01549961,-0.032540426,0.03735782,0.04292674,-0.0063792095,-0.03930938,-0.00045101717,-0.03733989,-0.039393447,-0.029022768,0.0020116642,0.013162103,-0.025878701,-0.0063115284,-0.03020931,-0.0068564527,-0.03664368,0.015684139,-0.000110052526,0.012802128,-0.019535543,-0.0045445412,-0.02412329,0.029656786,-0.0027380213,-0.012315832,0.012271889,0.016661417,-0.035506226,0.041665163,0.027826209,-0.04212049,-0.038703013,0.0060204975,-0.020728225,-0.038705267,-0.044030774,0.014425997,-0.02420846,0.0138724595,-0.042333875,-0.040662587,0.022668023,0.026866037,-0.025712501,-0.01988874,-0.0046707094,0.033801865,0.031359587,-0.012431931,-0.0011675134,-0.022802325,-0.042171955,0.0037515946,-0.0096530765,0.036826234,0.040254045,0.020776097,0.04236975,-0.03326155,-0.027472164,-0.02261573,-0.021703234,0.028904822,0.005809527,0.028099637,-0.014220325,0.009563513,-0.020324174,-0.03930721,-0.019964503,0.005712036,-0.027757308,-0.022421427,-0.005102787,-0.03951636,0.01619846,-0.021097854,0.040380087,0.024622548,-0.014972493,0.043171745,0.0065274984,-0.008518025,-0.026978819,-0.010150857,-0.025137814,-0.035801303,-0.013110915,0.041982297,0.037603278,0.0012117475,0.002118025,0.011889335,-0.0034162924,-0.0018226095,0.024492722,-0.04374768,0.009821858,0.010698538,-0.015366809,0.01238393,0.040779185,0.029834893,0.03008138,0.016857777,-0.04361507,0.0023351237,-0.013033044,-0.009773146,-0.0030444823,-0.019628014,0.026224818,0.004253242,0.017328002,0.011211067,-0.0030395798,0.032298427,-0.03292139,0.043122735,0.0359602,-0.019465858,-0.020064492,0.014836345,-0.020588651,-0.0120863095,0.023348566,-0.025024127,0.02828822,0.03100666,0.027541097,0.026500065,-0.02482729,0.017679993,-0.011404388,0.041810352,0.0304139,0.0010375306,0.0272456,0.035029728,-0.026168413,0.017942186,0.015921973,0.032240186,-0.01400758,-0.017403666,0.013162915,0.040990736,0.0052184537,-0.030573409,-0.026264599,-0.011144202,0.022343207,0.022352982,0.020913672,0.023582537,-0.04283041,0.013878763,0.019832198,0.031015169,0.009020474,0.02051143,0.0087022595,-0.022555482,-0.003615845,0.026567537,0.015812535,-0.0064394847,-0.043526594,0.013695404,0.0032630786,0.01827987,0.009947732,0.026825149,-0.03829434,-0.02395905,0.017992478,0.008868601,0.030109402,0.041215498,0.022753093,0.005112864,0.036978256,-0.034415524,0.04069599,0.01374485,-0.007868737,0.04177339,0.024087,0.02174342,0.031052355,0.0055458285,-0.008621786,0.04302809,0.025357302,-0.021876095,0.034832004,-0.017604776,0.017589133,-0.02300659,0.0046259947,0.038024444,-0.0039824024,0.036353525,-0.03587674,0.024737526,-0.028598811,0.02784114,-0.010796957,-0.011180598,-0.042532697,0.030966368,0.034847718,0.023811411,-0.017197372,-0.036974635,-0.007935628,0.022884872,0.0037168562,0.030322898,-0.03431086,0.033935238,-0.03036005,-0.031909395,-0.024942052,-0.019290922,0.041231405,0.037258696,-0.037362326,0.02593441,0.0030672215,0.025194515,-0.028695144,0.015508503,0.022992473,0.041787375,0.011563815,0.016617928,0.009731032,0.008408066,0.037014123,-0.0070881136,-0.013207674,-0.024378363,0.03423888,-0.019495867,0.010318745,0.03211802,0.034203786,0.022755418,-0.038073156,-0.041439936,-0.006417107,-0.012473438,-0.03721075,0.011572417,-0.03935786,-0.02979624,0.03240386,0.025814746,-0.02518221,-0.013420584,-0.027667224,-0.035777174,-0.0105028525,-0.041741565,-0.029363602,-0.01822621,0.04077905,0.041506585,0.03103805,-0.022108287,-0.036024254,0.00026878715,0.0100636855,0.0037467033,-0.02689657,0.009563278,0.02327009,-0.03621646,0.009593628,0.000795722,-0.023941275,0.042741124,0.014119308,-0.025628708,-0.0031766817,0.0071463734,0.008659013,0.029595036,-0.016649533,0.013240263,-0.03467111,-0.04277362,0.012779236,-0.01836249,-0.035541557,-0.024739567
-0.041703045,-0.006724354,0.039120246,-0.025269859,0.027334776,0.013495937,0.03221873,0.035147358,0.03355774,-0.031612106,0.0054554194,0.031955447,0.0012041144,0.03383888,0.022977632,0.014704768,-0.016726768,0.031806994,-0.025267178,-0.03903418,-0.0009464435,-0.039025415,-0.038248032,0.04126026,0.011469305,-0.0057411715,-0.04300929,-0.03014487,0.003622476,0.007846151,0.028026689,-0.031950377,0.0048271082,-0.011953775,0.018259406,-0.021391395,-0.031716462,-8.193776e-05,-0.04268266,0.029343937,0.020202313,0.013794616,0.01890349,-0.0064597614,0.034444716,0.043397132,0.042423565,-0.017861243,-0.03035793,0.015006989,-0.011209603,-0.0033995323,0.03453781,-0.03397184,0.03201479,0.018817548,-0.031529047,-0.030099824,-0.023745233,0.041558135,-0.042561892,0.009842578,-3.6157668e-05,-0.023848008,0.005406104,0.014465373,0.03214005,-0.0025739186,-0.022634953,0.0071478263,0.012541123,-0.013445418,0.04310775,0.03983589,0.007541582,0.008709867,0.018520612,-0.04346822,0.026258793,-0.030820109,-0.0097064935,-0.012631524,0.024942022,0.043301012,-0.03426824,-0.028763723,-0.027542017,0.038272325,-0.014658485,-0.043216903,-0.013401112,-0.008955047,0.033086,-0.0063716657,-0.013793556,0.033866417,-0.040542442,-0.016801594,-0.03424407,0.041144606,-0.041016605,0.014790013,0.024385411,0.0027808137,-0.023129052,0.008216765,0.025351148,-0.02289871,-0.006499693,0.009751495,-0.03245516,0.0154855475,-0.0065348856,-0.034999948,0.0022468008,0.012761492,-0.018453434,0.0041382425,-0.02588327,-0.036797453,-0.009062812,0.033949215,0.0077752545,0.03894594,0.017247327,-0.00031586364,-0.02523967,-0.0072671287,0.038990375,0.03490157,0.023714337,0.041866053,0.00038450956,0.010032631,0.031357665,0.04225486,-0.028215533,-0.038046587,0.037804794,-0.0071891844,0.0017573237,-0.00018531084,0.018350508,0.0062336363,0.022494208,-0.015017059,0.04234383,-0.0013376251,-0.008564211,0.04393689,-0.02540022,-0.034912605,0.010173034,0.03171086,-0.015463563,0.003914263,0.00834566,0.013429318,-0.0076177157,-0.017570699,0.041465316,0.0062117167,-0.037512925,-0.031004012,0.030050073,-0.01289307,-0.02967922,0.028531816,0.022650804,0.03654379,-0.028720565,-0.024660148,-0.024938026,-0.007874355,0.035408843,0.021616738,0.043451924,0.03644083,0.03668115,0.012976088,-0.035349466,0.02789585,0.013603471,0.009760182,-0.03203444,-0.032958224,0.036956664,0.010426041,0.009370852,0.023445155,0.033079047,-0.021750966,0.0013641044,-0.005618375,0.0028770901,0.015102576,-0.03636544,0.028867092,-0.03311169,-0.022810007,-0.037843317,0.040027875,0.013694819,-0.01816181,-0.018820085,0.035077717,0.039444033,-0.025367992,0.026631478,-0.007646203,0.0013485253,0.030731019,0.031598616,-0.010938797,0.037545662,0.034306567,-0.0063054003,-0.0330148,0.004350245,0.0016469024,-0.029620199,-0.0063040107,-0.019205976,-0.008480616,0.04326756,0.0037817582,-0.043437146,-0.03595838,0.025997233,0.041079205,0.023169648,-0.014929172,0.011715621,-0.03771943,-0.030353,-0.005950492,0.0013518482,-0.041095648,0.021154743,-0.040040173,0.034832973,0.015028201,-0.011610825,-0.015507048,0.017515812,0.002173867,-0.004646916,-0.001355663,0.022843327,-0.044028558,0.00010625273,0.008795526,-0.00017667562,0.034079563,0.019922804,0.024469461,-0.0212784,0.035424214,0.013624802,-0.022972265,-0.017919397,0.0038891695,-0.00391116,0.02647416,0.00878346,-0.02138029,-0.040485624,-0.011554241,-0.0071184225,0.040943976,-0.015741369,0.043917727,-0.03160707,-0.016166044,-0.032691266,-0.023551306,0.021984313,-0.03345651,-0.022229834,0.024650302,0.03158131,-0.024561176,-0.022362027,0.01750512,0.015185889,-0.043990713,0.007636782,-0.03724929,-0.04064067,-0.0015956312,-0.0045238473,0.022323977,-0.03784336,0.031582948,-0.017380897,-0.006713085,-0.028587928,0.028092127,0.0086414665,-0.030273939,0.024545435,0.019220825,-0.04161919,-0.040540196,0.005814351,-0.03651672,-0.024122216,0.042815965,0.041128214,-0.033751905,0.043825116,-0.019697145,0.038088974,0.019673873,0.037523735,-0.025123635,-0.042388592,0.039500196,-0.030293167,0.006215006,0.034458507,-0.036334865,0.0014808625,0.03915677,0.030794669,0.0095103085,-0.030979924,0.041417193,0.026256371,-0.0056209452,-0.04028553,-0.037975032,0.0116625875,0.037616175,0.00069591403,0.029867765,-0.013792267,0.032598566,-0.010384627,-0.020035136,-0.026794385,-0.020477042,-0.012796484,0.03640956,-0.0012866519,-0.034437526,-0.036619674,-0.038044132,-0.018179812,0.041429203,-0.025322374,0.003196597,0.035840232,-0.0112512745,-0.025566082,0.030351777,0.00328191,-0.0029930435,0.04006278,-0.0046593137,-0.029131647,-0.03182119,0.013610903,-0.03803199,-0.005083699,0.043189775,0.036566954,-0.044027425,0.0009901524,0.007631745,-0.03464602,-0.012881748,0.006067682,-0.028756298,-0.03694574,-0.014989421,0.003144838,0.032713432,-0.041065443,0.02137908,0.031316888,0.026773442,0.014108319,-0.009485375,0.038182195,-0.035855915,-0.0009193979,0.015769258,-0.017440645,-0.0054398775,0.04362384,0.041347247,0.019983556,-0.03479563,0.04114094,0.009527095,0.018860284,0.008105423,0.024637531,0.0360555,-0.026445245,0.0073226206,-0.0042014383,-0.0005315766,-0.026627062,-0.0032577738,-0.0039961226,0.02763224,-0.01237493,0.0363199,-0.02576374,-0.024006402,-0.0068342537,-0.032192722,0.029454801,0.03853189,0.009178549,-0.04143582,-0.02279055,0.01320662,0.03899509,-0.034902267,-0.005654268,0.01950137,0.031281594,0.032194708,-0.0012369938,0.02555203,-0.029512476,-0.03255361,-0.033312727,0.03994846,-0.035804614,-0.033396117,0.028326575,0.007955711,-0.021656953,0.02589902,-0.028338512,-0.035166986,0.01024976,0.010925557,0.018478092,0.02527674,0.0014220178,-0.028795537,-0.036202714,-0.023383256,-0.017306007,0.024006147,0.03448577,-0.010735989,-0.0040330887,0.008846328,-0.02455843,-0.038582653,-0.013242582,0.0017378107,0.019096445,0.028195564,0.017704938,-0.031145282,0.0074218065,-0.043542936,-0.0007104315,0.03994925,0.03166413,-0.032845862,0.020196717,-0.036154874,0.030804802,0.0044197775,0.022458676,0.032197658,-0.015313631,0.00045508146,-0.03196409,-0.0098620765,-0.013119245,0.022462744,-0.040668838,0.033178654,0.0015688427,-0.030839207,-0.021357303,0.041556332,-0.002465289,0.0016686358,-0.035909604,-0.03473022,0.024719875,0.019221578,0.0045380034,-0.0021333843,0.03920715,-0.014281828,-0.03135177,-0.007030554,0.02370407,0.040428955,0.0023139939,-0.040411588,0.0037627183,-0.027659344,0.0035225712,0.01851673,0.0003013201,0.03271169,0.020912636,-0.008586083,-0.021903073,-0.028452357
-0.0412808,-0.042984057,0.033640746,-0.00740508,0.0084984265,0.035128806,-0.03222574,0.02884626,-0.02443385,0.030882213,0.0028918646,0.018777106,0.011046223,0.0060727485,0.008124679,-0.032480784,0.027277622,-0.017285582,0.036547597,-0.03928058,0.042961497,0.026134465,0.026409354,-0.0030210055,-0.023218889,-0.043672416,0.0012018532,0.028540488,0.042989295,-0.01695713,-0.027076915,-0.011154432,-0.009197123,-0.016796831,0.019438352,-0.013785206,-0.02481715,0.023386788,-0.026770718,0.026631515,0.04178783,0.039137695,0.04105704,-0.021918315,0.017097548,5.35734e-05,-0.032099713,-0.03903669,0.020178247,-0.017791592,-0.020685177,0.023955438,0.036535654,0.023544703,-0.01388365,-0.035104875,0.0051133037,0.014317572,-0.02191271,0.010498367,0.031043496,0.011726212,-0.000979282,0.0029202513,0.043864194,0.029827561,-0.0061966367,-0.011096321,0.039786194,0.04236282,-0.03239802,-0.0027769282,-0.03877683,-0.019162655,0.0048949234,-0.03907311,0.039899904,-0.014529215,-0.036689404,-0.022448849,0.013202857,-0.00027414784,0.022221584,-0.0080447905,-0.04107863,0.0010465235,-0.018309338,0.03409334,-0.0022070035,-0.016407525,-0.041749004,0.006546423,0.0039027296,-0.017457878,0.018005166,-0.009818591,-0.019040218,0.038045403,-0.029646542,-0.024537172,0.0043114424,0.026320007,0.03152823,-0.020750506,0.008059774,-0.0309554,0.018133018,-0.030592337,-0.003566265,-0.01718573,-0.01675617,-0.017105604,0.041823503,-0.041209713,-0.016459323,-0.010839973,0.003202729,-0.034073804,-0.03829373,0.010834321,0.0098941885,0.018566642,0.032646123,-0.03980141,0.02639151,0.0075874403,0.013148889,0.022704642,-0.012090135,-0.017943388,-0.009739663,-0.0044418946,0.0076330304,-0.032940134,0.010065794,0.02981669,0.013878442,0.0015130825,0.011954825,0.0031756386,-0.015393931,-0.028202057,0.00551698,-0.006574992,-0.019879745,0.03985032,0.042010684,-0.01727436,-0.041739073,0.04205427,0.021141563,-0.0026496872,-0.009072345,-0.043223843,-0.016885376,-0.022301657,0.027437385,-0.035540044,-0.026675308,0.04238702,-0.021661073,-0.0155508425,-0.0010870881,-0.006007336,-0.017695101,0.037760977,0.036733914,-0.012345344,-0.018363113,-0.014630441,0.04209881,0.003290221,-0.03063678,-0.0014494509,-0.027996777,-0.0011005811,-0.035099857,-0.043834813,0.011710908,-0.021345994,0.023842674,0.032932047,-0.043994192,0.03716365,0.012025297,0.039469082,0.030674156,0.008264508,0.0143945515,0.022887137,-0.037039965,0.03343321,0.03093135,-0.011532515,0.011328697,0.008552261,0.0143185705,-0.038335323,0.03678565,0.035537492,0.008584075,0.010221053,-0.023742942,-0.038982496,0.0027838834,0.03338733,0.0022363067,-0.014372069,-0.000338912,-0.0020109639,-0.0054208636,0.0025745928,0.0067083985,0.008340839,-0.008608773,-0.0037509948,-0.015627393,0.031342205,-0.02746858,0.038085636,0.014454521,0.010838248,-0.022935104,0.03403769,0.02516741,0.023968663,0.010475863,0.002938047,-0.022060718,-0.042163543,-0.03720622,0.018860463,-0.003818851,-0.0058283657,0.017408077,-0.022812925,0.0024269,-0.009010568,-0.0037025213,0.00012133643,0.0023385026,0.017003223,-0.039866287,-0.022616282,-0.025793755,0.017531581,-0.016961267,0.023016881,-0.008239418,-0.04057431,0.032665733,0.01854593,0.019122798,-0.003493309,0.022899028,0.026174743,0.019018266,-0.03334226,-0.020757923,0.030984838,-0.020342866,0.009065561,-0.0039350986,-0.029061384,-0.024725448,0.040838096,-0.010184992,0.016252495,-0.028521089,0.028579261,-0.028637176,-0.025486453,-0.037562467,0.019490901,-0.011007536,-0.009990968,0.03476231,-0.03069507,0.0064726435,0.03653354,0.017151844,0.0023279078,-0.027237574,-0.022037802,0.035610896,0.026175898,0.018723335,0.032996926,-0.01161848,0.01834425,0.037494052,0.016625188,0.04225828,0.009150915,-0.016403615,0.029752765,0.028355379,0.038213912,0.040733088,0.010051217,-0.03854985,0.02379867,-0.0131191015,0.001089938,-0.010953125,-0.03982813,-0.0066654906,-0.04019056,-0.026983054,-0.039508265,0.03645801,0.021595705,-0.013790438,0.017558362,0.0143829845,0.0038662888,-0.00016168505,0.02700727,-0.029758818,-0.04053492,-0.001638364,-0.023087779,-0.012732778,0.005195994,0.015575815,0.033659924,0.037795965,0.032623876,0.037321996,-0.037685115,-0.0034863986,-0.040834203,-0.004006084,-0.018939123,0.010769255,0.03418837,-0.019806538,-0.0045253225,-0.0064625815,-0.0051919967,-0.013855845,0.03660955,-0.015916362,-0.006674137,-0.03021358,0.038535487,-0.0413727,-0.033051826,-0.029863711,0.022853468,0.023001868,0.03412692,0.008495782,0.022209946,-0.016151303,-0.043852888,0.031531002,-0.012243021,0.038404766,-0.024831442,-0.024319079,0.034042623,0.035480376,-0.0018065572,0.025785234,-0.013018835,0.020831902,-0.016307015,-0.0025014356,-0.040486835,-0.030064512,0.03310669,0.02833714,0.0414997,0.0059366487,-0.0018564016,0.029471654,0.028974157,-0.038159635,-0.01716706,0.03089754,0.013634406,0.024367202,-0.042917266,0.022375207,-0.041004438,-0.009774037,0.0035945587,0.040969115,0.042887744,-0.022292037,-0.0131492745,-0.027310373,0.031147908,-0.015914282,0.042309824,-0.04280974,0.012208451,-0.014882974,-0.025627486,-0.04307909,-0.043600567,-0.0066396818,-0.02610642,0.0019888505,-0.016308064,0.0004474111,0.012727257,-0.0153003335,0.0301763,0.03468937,-0.040585555,0.013564482,-0.008964878,-0.030104587,0.02760506,-0.013474885,-0.018475972,-0.037091635,0.04300726,-0.026492134,0.00079746544,-0.018785214,0.011513893,0.035821762,0.010015551,0.019340668,-0.001912728,-0.0042564906,0.028825823,-0.0373715,0.029713329,-0.028788421,-0.04308697,0.020397488,0.008852664,-0.012938488,0.01397318,0.0133305155,-0.022797784,0.0008007437,-0.040702887,-0.029596698,0.005389672,0.030372512,0.03528178,-0.023065563,0.0088163875,-0.023040418,0.007504724,-0.008166652,-0.043974824,0.030673545,0.021296408,0.041852366,-0.03472033,0.011821281,-0.018918972,-0.013416754,-0.04336411,0.023091417,0.017206091,0.024512995,0.023390714,0.035260964,0.041460533,-0.018062279,-0.03822684,0.042154353,0.0014461167,-0.036210865,0.02648839,0.03826795,-0.02744362,-0.028627694,0.011135824,0.0067860074,0.0033446737,-0.0029027648,0.02035993,-0.03444399,-0.016693898,-0.0076253563,-0.028827332,-0.029098295,-0.02454496,-0.013078341,-0.023598177,-0.019499887,0.014382664,-0.006740302,-0.00328096,-0.022182124,-0.002524756,0.016454931,-0.017111704,-0.020025274,-0.02502141,-0.016152969,-0.025528593,0.023697738,-0.022401813,-0.030417413,0.024486896,-0.008184675,0.009537902,0.019131515,0.016803958,0.010094132,-0.016080761,0.019282822,-0.016693471
0.0004433021,0.028818604,0.002534207,-0.0412614,0.029325683,-0.023048779,0.03818703,0.028713275,-0.036248427,0.015387341,-0.028628442,-0.030675888,0.009001482,-0.010997415,-0.013334805,-0.03628318,-0.032690074,-0.0383739,-0.027373567,-0.03593826,-0.014078554,-0.03607061,-0.024159921,-0.010725729,-0.0052869096,0.026510473,-0.03813773,-0.015526498,-0.041242354,0.007874206,0.0018329099,0.0402747,-0.006893795,0.002923984,-0.025903627,-0.032854907,0.039999228,-0.011039503,-0.00045864657,0.021398861,-0.01788589,-0.027507424,0.012822773,0.02168854,0.011778515,0.018730622,0.03926933,-0.019903217,-0.021425297,-0.040064424,-0.041430105,0.023989487,-0.002550386,-0.001718536,0.024096917,0.011810269,-0.019092854,-0.023692582,0.027005505,-0.04389718,-0.038455207,0.024101619,0.005426027,0.015574716,-0.024206495,0.03864127,-0.0048530027,-0.0033309497,-0.014833983,0.031249534,0.0030387416,-0.009598825,-0.041436158,-0.018721161,0.042868774,0.04368153,0.00753092,-0.0051721856,-0.02093436,0.013729177,-0.028047843,7.2062016e-05,0.04305918,-0.018244175,0.016032282,-0.010882005,0.017835487,0.005296953,0.0100170635,-0.038715873,-0.03990226,-0.04217086,0.0021835864,-0.017467534,0.00467781,0.02760474,0.035460863,-0.016255302,-0.040100444,-0.024024483,-0.036411103,0.0016712286,-0.023940811,0.028000977,-0.01445766,-0.032946702,-0.006829012,-0.041282326,0.006702319,-0.023461543,-0.013078382,-0.027598925,-0.021930126,-0.005002998,-0.026941903,-0.029217154,0.015919719,0.0141831,-0.022247966,-0.01431182,-0.033254795,0.0043827593,0.020986687,0.041118313,0.005535882,-0.003446553,-0.03663897,-0.0038012601,-0.033269167,-0.035839777,0.0415682,-0.02743492,0.04289266,0.025097374,-0.04260282,0.025977302,-0.03399042,0.02734271,-0.038629103,-0.03984744,-0.009288974,-0.019047761,-0.042191662,-0.032985777,0.028163645,0.028054703,0.03572188,0.0063059516,-0.022530826,-0.015950238,-0.0037058033,0.008990224,-0.003289219,0.02749208,-0.034963086,-0.0138488,0.04272322,-0.028293116,-0.036114834,0.028575603,0.009345643,0.026952151,0.012859948,-0.02439104,-0.011869494,0.027618464,-0.041543443,-0.014595153,0.031840358,-0.0007356219,-0.010582853,0.0031244569,0.0259947,-0.02394148,0.018194452,-0.04330144,0.043749455,0.009746563,-0.018438898,0.03722481,-0.033172607,0.015450977,0.0025978275,0.0041046813,-0.013274003,0.024563592,-0.012573142,-0.01284891,-0.041579083,-0.014115375,-0.038869783,-0.009105373,0.009308647,-0.019627444,0.018100627,-0.009306863,0.030431312,-0.0070896223,-0.032945372,0.0006346144,0.031531904,0.040384654,-0.0034213439,0.0041678958,-0.005366944,0.03463835,0.03277312,0.04150827,-0.036383018,-0.030047622,-0.027110139,-0.025807727,-0.012549728,0.021914873,0.024609517,0.035471756,-0.027255429,0.010779489,0.0151502155,-0.037035804,-0.0061690025,-0.013008924,-0.024355678,0.0050315,-0.033548884,-0.0015276372,0.023040283,-0.008799676,0.014653817,-0.015519423,-0.013395796,-0.0075660795,0.009708278,0.04059731,0.018437427,-0.04170157,-0.041501623,0.033311207,0.011164159,-0.01712516,-0.030315943,-0.035028297,-0.024142351,-0.020087851,-0.02123502,-0.01576548,-0.0043273866,0.002099231,-0.028409436,-0.019572537,-0.013047943,-0.025239687,0.016407687,0.019507427,0.008520756,0.043125782,0.00062419474,0.023273695,0.03544068,0.03716409,-0.03762753,-0.038605146,0.0346842,0.0073734596,-0.019957844,0.019108642,-0.024611177,-0.0006231293,0.011434983,-0.03855753,0.010518167,-0.03270733,0.023892555,0.0023951046,0.017369147,0.004884109,0.02852657,0.016592171,0.028440107,0.04339389,-0.0324016,-0.03734972,0.016446192,0.009235896,-0.011222895,-0.03304104,0.033114363,0.0008540489,0.014266729,0.030285444,0.027998235,0.009663273,-0.03620017,-0.028572306,0.0149227865,-0.043366447,-0.021951474,0.02545685,-0.011466671,0.04254141,-0.02712983,0.015152939,0.036256444,-0.003960591,0.0015921667,-0.038930163,-0.011068352,0.010025699,0.029420104,-0.013078863,-0.040245745,0.015143324,-0.01011144,0.04275577,-0.03350533,0.005905565,-0.016970027,-0.02559412,0.010434333,-0.042099196,0.039373588,0.015050061,0.025551971,0.022245962,0.030710656,0.042225223,0.042638425,-0.03867716,0.021152426,-0.012946442,-0.028419672,0.033321816,-0.0048201606,-0.014798712,0.031029467,0.029227447,-0.0004015714,0.010503184,-0.019071348,0.00394449,0.0144245885,-0.03691215,0.027400833,-0.015215997,0.015039746,-0.04301833,-0.037323497,0.033082906,-0.025530763,-0.02152006,0.033057857,0.041384403,-0.030229822,-0.023912914,0.027431253,0.041807916,-0.028391076,0.030070145,0.036128845,-0.016168116,-0.039977208,-0.02968097,-0.021730566,-0.037617516,7.585436e-05,0.012222212,-0.011701029,0.024192851,-0.03918417,0.02710836,0.038203087,-0.007648915,0.02470081,-0.0043994524,-0.02127585,0.027786966,-0.018338716,-0.021287419,-0.0018007942,-0.025412869,-0.0059588477,-0.014587998,0.042981695,0.039308656,0.012602583,0.014234923,0.04359095,0.021672275,-0.029063033,-0.006845802,0.022801045,-0.0047410503,0.034293782,0.026706543,0.03915583,-0.008824408,-0.040872,-0.008729346,0.041935038,0.03822157,-0.0100884065,-0.03366001,-0.016097499,0.019887421,0.027319904,0.038859542,-0.042743124,0.005030133,0.027169388,-0.027605353,-0.007342901,-0.02572898,0.024898369,-0.011270467,-0.03883578,-0.029694825,0.02519222,-0.027728522,0.016423594,0.029672626,-0.041225005,0.04172874,-0.03653008,-0.00593818,-0.0344368,0.023185637,-0.020245,0.035463456,-0.025963701,-0.01481675,0.040727418,0.039157774,0.02281269,0.043677766,0.03814437,-0.030740157,-0.042125784,0.008063804,0.0105233565,-0.030894687,0.0006280951,-0.027778566,-0.028788825,-0.006045047,0.036873642,0.006113775,-0.022215689,-0.03449209,0.043313507,0.043592032,0.03428824,0.03786422,0.028024118,-0.04307804,0.008291308,0.04099558,-0.035112843,-0.018585559,-0.021033473,-0.006152749,-0.005126495,0.0076978356,-0.018466499,0.03860077,0.03019606,-0.033136033,-0.01628707,0.012996424,-0.021333313,0.030993905,-0.041922834,-0.014687359,-0.04414465,0.009333126,0.025737453,0.01470466,-0.0062642843,-0.015352227,0.012730554,-0.011200082,-0.031545714,0.017735925,-0.0159799,-0.006816305,0.011849277,0.032114636,-0.033078372,-0.039054666,-0.0300101,-0.03957883,0.04172166,-0.0011971407,-0.015735831,0.028242517,0.03421088,-0.030318387,-0.011904262,0.0010404997,-0.036286477,0.043838423,-0.0218166,-0.009802371,-0.032701556,-0.006606359,0.009115264,0.012170728,-0.024549838,0.030196402,0.042563546,-0.035532095,-0.018689487,0.037080932
