0
-0.03918938
0.009155546
0.029215503
0.0026751335
0.018386671
0.011270657
-0.009255515
-0.0053667366
-0.0011027461
0.028615637
-0.016595343
-0.01864019
-0.020721491
0.027024968
0.019036967
0.063865684
0.038694356
-0.0015598204
-0.0040645907
-0.030346919
-0.00491084
0.0071309577
0.020989928
0.01607844
-0.046028115
-0.015683083
0.045968104
-0.029503027
-0.0014621401
0.030699603
-0.015650503
-0.002843624
0.059105627
-0.02508892
0.03286134
0.004172281
-0.013083965
-0.019713582
-0.0026497748
-0.005694308
0.019506617
-0.008041017
-0.008824888
0.008321896
0.017194308
-0.027015185
0.008298577
-0.0018803208
-0.0016838784
0.009359525
0.030432846
0.031308465
-0.012433653
0.007669302
-0.0011018077
0.07990736
0.01272493
-0.004657573
-0.050388586
0.051625967
-0.011105401
-0.015828043
-0.026072573
-0.025339816
0.005237551
0.003908221
0.0016462307
-0.023938287
0.013326176
0.011380215
-0.02171316
-0.039915707
-0.0016259023
0.035815336
0.0027531597
0.03216348
-0.020513136
0.043674346
-0.022002012
-0.043688457
0.022554638
-0.0023992092
-0.041949958
0.023342274
0.052123137
0.021514727
-0.0030558745
-0.0143783465
0.03173667
0.03372121
0.010252692
0.02840588
0.032647226
0.005861862
0.0068826624
0.031802285
0.045381907
0.0038649414
-0.01759074
-0.021714313
0.0038915244
-0.057545383
0.035975948
0.020759532
-0.010913498
0.0097959265
-0.025255114
0.015890287
0.008345888
-0.011500708
0.015564086
0.049301688
-0.057329502
0.0015030765
0.072864875
0.04308145
-0.019720785
-0.0070740413
-0.018968057
0.014827865
-0.020712895
0.040382426
0.0058468143
0.0023422765
-0.016855026
0.04415529
-0.009955496
-0.021130443
-0.008348639
-0.021059355
0.04191537
-0.016508473
-0.013787186
0.017269932
0.050667636
-0.047318146
0.00082126353
0.057298314
0.026043411
-0.012304679
0.0011467129
0.020828411
0.0023057146
-0.013277257
0.025271952
-0.0008327269
0.008576258
0.017030492
-0.013585862
0.020309083
-0.019603891
-0.008017041
0.0071646445
0.030951958
0.021264626
0.038934443
-0.018930541
0.04487494
-0.017855424
-0.006510008
0.021310633
-0.025656484
-0.003903182
0.0022437326
-0.0039612823
0.012831526
0.015856626
-0.011405245
-0.008006293
-0.007942525
0.014172935
-0.016819509
-0.008745275
-0.016816191
0.027970565
0.02703345
0.02256554
-0.024299638
0.0040874
0.025302332
-0.030555503
0.014275506
-0.0044181026
-0.0014031004
0.01964621
-0.016406845
0.009448722
0.01974456
-0.02542874
0.0317963
-0.028108887
0.04580929
-0.02067115
-0.0021600246
0.032520387
0.010741018
0.024131551
0.015815556
0.025881987
0.0105622085
0.0031697
0.024626603
-0.009094715
0.0029847375
0.0047743246
0.013959237
0.007762193
-0.05353485
-0.018006323
0.0037882251
0.010266573
-0.017782299
0.0062095057
0.014518849
0.04918638
0.029204551
0.028979212
0.02984756
-0.03487825
-0.021412658
0.022028701
0.0484285
-0.027415033
0.004197955
-0.013737226
0.003678983
0.005672168
-0.011717313
-0.04089406
-0.021425042
0.029676683
0.021080976
0.0009808099
-0.0133888405
-0.050868962
0.030193506
0.003910407
0.018869616
-0.058366165
0.019984672
0.014397219
0.059553068
0.023853695
0.014614712
0.011357849
0.012254073
-0.035201076
0.008696222
0.002526726
-0.008943069
0.008341636
0.039337467
-0.022935594
0.0036452834
0.012720211
-0.038343586
-0.04488426
-0.025766987
0.020292487
0.026083963
-0.015774256
0.0029778148
0.023848562
-0.048229206
0.0021336614
-0.048676606
-0.0021668547
-0.0035427269
0.024175156
-0.00273067
0.016265476
-0.04186557
-0.01581064
0.009064327
-0.033376995
-0.008927939
0.040087957
-0.011119747
0.011819062
-0.0073629576
-0.018011473
0.005577809
0.0013133957
-0.027472954
-0.029650189
0.04903535
0.01758747
0.002239613
0.010369535
0.041012708
-0.058341354
0.0034004955
0.06415334
0.00024947873
0.03815091
-0.03325012
0.036651254
-0.031776525
-0.04405897
-0.032167416
0.010559836
0.036132246
0.025357768
-0.012091622
0.00051792676
0.015141595
0.0064322
0.035700645
0.05725129
0.035921283
0.049055144
0.029972197
0.01433762
0.032337185
-0.018858822
0.005042898
0.036345907
0.03086198
-0.006956868
0.02640855
0.016935794
0.022569237
0.023681449
0.044133745
0.02916149
0.011410882
0.008437348
-0.0070280638
0.021159224
0.030829534
0.004424015
-0.0082391575
0.011418812
-0.03050339
0.01949272
0.004204635
0.019601269
-0.021617373
-0.051928576
0.06925673
0.030847745
0.030619025
0.000278783
0.0024195367
0.00782564
-0.036593843
0.020785341
0.016152473
-0.026766304
-0.014733131
0.0047163274
-0.032609735
0.00960552
0.0049734605
-0.006645624
0.009669861
-0.025926294
0.036190804
0.019752577
-0.016704751
-0.054129057
0.03853065
0.01705539
0.05416815
0.020215897
-0.023139656
0.01723926
8.9882924e-05
-0.021003073
0.041370284
0.022447485
0.0035538964
0.005420088
0.0029914288
-0.0025020079
0.008564662
-0.036342114
0.01815333
0.056918282
-0.0363876
-0.04665343
0.03726845
-0.019548949
-0.014059118
-0.024678867
-0.027161704
-0.029376213
0.019364962
-0.020129802
-0.02807275
-0.032296
-0.018281326
-0.009585063
-0.037157226
-0.038630836
-0.00564267
0.019811234
-0.011625583
-0.022737727
0.027757742
0.03538125
0.04991397
-0.022689542
0.07424866
0.01639083
-0.03852009
-0.0047677993
-0.030822018
0.015570903
0.011906861
-0.0012279201
-0.012014879
0.023223123
0.018177325
-0.0007971141
-0.03288096
-0.0058684633
-0.009612465
-0.011388409
-0.0020230468
0.015215247
0.0326013
0.019345198
0.041885417
-0.006905565
0.015204017
0.03820793
-0.02785384
0.02194681
-0.024551814
0.020881051
-0.016051088
-0.025265558
-0.008903942
0.015492334
0.000678456
-0.019489754
0.0011372956
-0.018526632
-0.000121937956
-0.011610363
-0.034402147
0.008929192
-0.0120811565
0.005877228
0.024765503
0.031632084
0.014885678
0.008668931
0.0016522247
0.02744429
0.0060325135
0.03392532
0.009126732
0.02576261
0.014009756
0.0167143
-0.015917348
-0.0624107
0.02900126
-0.03360695
0.024082705
-0.019731482
0.040109593
0.048088204
-0.006778952
0.026705993
0.0040711677
-0.009544927
0.02224712
0.008471743
-0.034774322
0.048924383
0.0058346014
0.0060869292
0.011635497
0.030910136
0.00024174068
0.023637166
-0.0012294211
-0.014382002
-0.016470803
-0.012122953
0.057954613
-0.01247215
0.022282114
0.008150918
-0.021514721
0.0027949463
0.0004875835
0.015649408
0.02670089
0.0138443
0.018088425
0.052892208
-0.0068884236
0.039264113
-0.0016013042
0.035410568
0.00077914563
0.03913871
-0.026486496
0.0023761364
-0.0028233435
0.04087305
0.0031918355
-0.029039098
-0.023979545
0.023932468
-0.049876988
-0.00524618
-0.012755633
