0,1,2,3,4,5,6,7,8,9,10,11,12,13,14,15,16,17,18,19,20,21,22,23,24,25,26,27,28,29,30,31,32,33,34,35,36,37,38,39,40,41,42,43,44,45,46,47,48,49,50,51,52,53,54,55,56,57,58,59,60,61,62,63,64,65,66,67,68,69,70,71,72,73,74,75,76,77,78,79,80,81,82,83,84,85,86,87,88,89,90,91,92,93,94,95,96,97,98,99,100,101,102,103,104,105,106,107,108,109,110,111,112,113,114,115,116,117,118,119,120,121,122,123,124,125,126,127,128,129,130,131,132,133,134,135,136,137,138,139,140,141,142,143,144,145,146,147,148,149,150,151,152,153,154,155,156,157,158,159,160,161,162,163,164,165,166,167,168,169,170,171,172,173,174,175,176,177,178,179,180,181,182,183,184,185,186,187,188,189,190,191,192,193,194,195,196,197,198,199,200,201,202,203,204,205,206,207,208,209,210,211,212,213,214,215,216,217,218,219,220,221,222,223,224,225,226,227,228,229,230,231,232,233,234,235,236,237,238,239,240,241,242,243,244,245,246,247,248,249,250,251,252,253,254,255,256,257,258,259,260,261,262,263,264,265,266,267,268,269,270,271,272,273,274,275,276,277,278,279,280,281,282,283,284,285,286,287,288,289,290,291,292,293,294,295,296,297,298,299,300,301,302,303,304,305,306,307,308,309,310,311,312,313,314,315,316,317,318,319,320,321,322,323,324,325,326,327,328,329,330,331,332,333,334,335,336,337,338,339,340,341,342,343,344,345,346,347,348,349,350,351,352,353,354,355,356,357,358,359,360,361,362,363,364,365,366,367,368,369,370,371,372,373,374,375,376,377,378,379,380,381,382,383,384,385,386,387,388,389,390,391,392,393,394,395,396,397,398,399,400,401,402,403,404,405,406,407,408,409,410,411,412,413,414,415,416,417,418,419,420,421,422,423,424,425,426,427,428,429,430,431,432,433,434,435,436,437,438,439,440,441,442,443,444,445,446,447,448,449,450,451,452,453,454,455,456,457,458,459,460,461,462,463,464,465,466,467,468,469,470,471,472,473,474,475,476,477,478,479,480,481,482,483,484,485,486,487,488,489,490,491,492,493,494,495,496,497,498,499,500,501,502,503,504,505,506,507,508,509,510,511
0.022940297,0.0010287985,0.009884302,-0.027400319,-0.0011992566,0.0110671185,0.02404226,-0.03150347,-0.033864487,-0.025447765,0.022649724,-0.027405502,-0.02470232,0.018449616,0.015286595,-0.009921689,0.027622331,-0.020407524,-0.011082087,0.03676329,0.027064938,-0.0076579563,-0.012397863,0.0076656267,-0.0016559027,-0.005984284,-0.022053838,0.021597061,0.024508756,0.032400656,-0.04131981,-0.01883665,0.031116989,0.026443321,0.025097955,0.006113138,-0.02988622,-0.013276167,-0.02299699,-0.028547445,0.0022803508,0.026904736,-0.033636138,0.030852523,0.03873149,0.0019941553,-0.037710957,0.041278113,-0.024984146,0.024942223,0.013229441,0.042177606,-0.02492613,-0.02118426,0.027282503,-0.021816362,0.0383686,-0.021602241,0.023594614,0.0073592775,-0.00071926415,-0.0141629,-0.005361352,0.012193751,-0.02748153,0.036817107,-0.024260042,-0.0011231191,-0.025301754,-0.023168059,-0.01564522,0.011364117,-0.013889162,0.043625806,-0.007260062,0.014016341,0.038115215,0.021418292,-0.017328218,0.014270447,-0.005064741,0.019692305,-0.028108455,-0.040304825,0.007525429,-0.013508733,-0.032264374,0.0008616857,0.010954443,-0.04061941,-0.011379369,0.0017202497,0.001984764,-0.025835844,0.019249927,-0.021672873,-0.015837163,-0.004928384,-0.011709802,-0.043482397,0.009940423,0.027789641,0.043331552,0.027948614,-0.011143494,-0.012059838,0.026542377,-0.0381262,-0.0043099,-0.0013968274,0.04330876,-0.010914288,-0.033108614,0.039293636,-0.007969111,0.01480769,0.030537065,0.012370754,0.030557152,0.027773414,0.006976988,-0.036839407,0.039153937,0.03206105,-0.005038861,-0.021557443,-0.017429318,-0.04303433,0.042841647,0.03978535,0.005983431,0.006662447,0.013468858,-0.0044535585,-0.040888216,0.01817409,-0.030098218,0.01130506,0.023960803,0.00852976,-0.008979786,-0.015980968,-0.029394634,0.0025235116,-0.022460993,-0.018315319,-0.01066548,-0.005287055,-0.03456337,0.008522298,0.040845018,-0.005376138,0.0055848323,0.034269173,-0.03855732,0.026860926,-0.039221905,-0.03354451,-0.010858223,0.03702714,0.030328613,-0.031441227,0.01786787,0.03843012,-0.044006012,0.039265882,-0.037104614,0.020398367,-0.021486163,0.033561487,0.012671545,-0.028167708,-0.017253192,-0.006999947,-0.012666367,0.0030186214,0.040875953,0.012622274,-0.009025112,0.022868905,-0.031520247,0.0113385655,0.035717096,0.03495763,-0.010042857,0.016204678,-0.031598624,0.037190307,0.029417332,-0.00077050924,0.031053755,0.023390528,0.035205107,-0.038958058,-0.013736147,0.0012066327,-0.014541427,0.039142955,0.017663445,0.04047543,0.0063595288,0.04286615,-0.026572596,-0.008751228,0.0097491,-0.038754523,-0.043483872,0.0056048445,-0.021995928,0.005153995,-0.03667032,0.009205651,0.027768414,-0.0056608766,-0.015427526,0.03347024,0.0019385554,-0.0013556071,-0.010661989,-0.00062547997,-0.037105653,0.004803166,0.03474093,-0.03263806,-0.018174542,-0.0042825565,-0.02786985,0.00070985407,0.03014018,-0.022795012,0.008357126,0.02862237,-0.037242766,-0.019715236,0.04028799,-0.009866804,-0.027106293,-0.009304892,-0.04330205,-0.010905009,-0.0025327057,0.03819007,-0.016867358,-0.040400777,0.028943066,-0.016242974,-0.015319284,-0.012158442,-0.026309758,-0.021365797,-0.02545306,-0.020336691,0.012800004,0.019371245,-0.019400379,-0.021082738,-0.030550037,-0.037654817,-0.039361298,-0.033967283,0.025073927,-0.009633493,-0.03190815,0.019480344,0.022303354,0.042897146,-0.002197098,-0.035500698,-0.01154843,-0.010888342,0.025301825,0.023747634,-0.04219964,0.012987379,0.035616297,-0.020544875,-0.041103385,0.014958229,-0.011817079,0.01713584,0.040261466,0.01389328,0.03456528,-0.03246262,-0.030880963,-0.02332966,0.027235117,0.039031226,-0.016232679,-0.027554661,0.02200671,-0.009479605,-0.021603346,0.019340884,0.002200134,0.009547025,0.042345148,-0.014245577,-0.022503877,0.0010313652,-0.020718142,-0.012556769,0.041755605,-0.021208003,-0.032385353,0.029483806,0.037291195,0.035680164,-0.041877087,0.0022660792,-0.04147155,0.023271505,0.032679085,0.035372194,0.02261712,-0.03127788,0.023641836,-0.030413434,0.015508022,-0.0010857433,0.037828367,-0.040963907,-0.031455144,0.028023552,0.026536312,-0.030878788,-0.009603813,0.033997413,-0.01563773,0.029234458,-0.034568176,0.011613384,0.0153468475,0.041492295,-0.04380906,0.010958459,0.0036504008,-0.02368036,-0.010921698,0.011982944,-0.038154565,0.03110839,0.0031006895,0.010993011,-0.03664588,0.03510445,-0.018880812,-0.011920165,0.028859597,0.019457426,-0.006808996,0.043510918,-0.029647704,0.014158528,0.00055155903,0.035125766,0.031113464,-0.016916042,-0.010710694,-0.020413298,0.03500023,-0.0370617,-0.013382368,-0.01480066,-0.0044569485,0.016536191,-0.014100127,-0.0077354014,0.017420303,-0.028972518,-0.021777608,0.0029415116,-0.037480775,0.0087610595,-0.014794828,0.0021859556,0.013682973,0.024839278,0.008300241,0.018346537,0.03937285,-0.0014189407,0.037316035,0.010239776,0.017477307,0.023094606,0.017440908,0.039957967,0.03624184,-0.011951499,-0.042390916,-0.02406096,0.0072940663,0.025822636,-0.012886047,0.025831547,-0.0005135685,0.03541557,0.0044795834,0.011826981,-0.03662875,0.010030255,-0.03979144,0.037489098,-0.027754711,-0.037489586,-0.0011307485,0.018115912,0.011306688,-0.042190686,-0.039501548,0.018992577,0.035539057,0.0161503,0.019360166,-0.009707246,0.02930678,0.0017840117,-0.020675505,0.025080848,-0.0002092123,-0.036802344,0.034962814,0.00866095,-0.017272336,-0.028226718,0.018476594,-0.03549423,0.03243864,-0.03423355,-0.04380798,-0.035314716,-0.0022635534,0.010898713,-0.012638271,0.02688643,-0.001628723,-0.015929265,0.0022364073,0.022667427,-0.03002012,0.007739119,-0.0063716285,0.01891752,-0.016327737,0.001798775,-0.02657678,-0.0022315718,0.036619212,-0.029979527,-0.03166392,0.034499157,-0.008700728,0.024719734,-0.027141158,-0.025832599,0.029284995,0.0065560304,0.010567337,-0.011376452,0.020156976,0.004271362,-0.03095392,-0.026327234,0.005702425,0.008443352,0.011130676,0.009971313,0.0057147853,0.027828392,-0.023342289,-0.0338208,0.0023348667,0.034737322,0.028353605,0.007518664,0.007833596,-0.025353083,-0.01272909,0.0413819,-0.022685647,0.042151485,-0.012818415,-0.022199078,0.03296173,-0.028709691,0.011985119,-0.013288453,0.020639058,-0.026549922,0.011090778,0.028200958,-0.015555942,-0.025480572,0.0402317,-0.007787712,-0.03422793,0.0041577183,0.028425861,-0.037664484,-0.005116336,-0.03617973,0.007586144,0.00752965,0.030993808,0.020923864,-0.04375968,-0.033171482,-0.0009213351,0.032088805,0.027258646,0.008242924
0.031954158,-0.016226057,-0.03823465,-0.035684656,-0.02136912,-0.029051412,-0.009991158,-0.04103727,-0.020246709,0.009602629,-0.033132184,-0.035770334,-0.03445045,0.028456796,0.041556332,0.005079698,-0.04122655,0.010917325,0.040372226,0.03173514,0.0113204755,-0.015369017,0.005129665,0.040692385,-0.03649329,0.04115234,-0.016619788,-0.01239305,0.002629362,0.0013366081,-0.039196417,-0.0071156584,0.012818601,0.024562504,0.0011658594,0.008563485,0.029738013,-0.021947717,0.021226283,-0.021775527,-0.018459223,-0.0027923398,0.016561534,0.0042480975,-0.017576821,-0.03247913,-0.0018803701,0.04072045,0.039318386,-0.003749583,-0.010477178,-0.034026187,0.037647594,-0.0022365898,-0.0012430102,0.029292013,0.032108847,-0.018415518,0.019744497,0.026323784,0.020740118,0.02063648,0.018965658,0.040669452,0.026090462,-0.0063002706,0.010190401,0.0042116083,-0.017059421,-0.030369107,-0.012191944,-0.04211204,0.0012792796,0.00027903914,0.03566907,-0.036635466,-0.015120909,0.037634652,0.03103001,-0.0021021254,0.012254089,-0.041901156,-0.0055649206,-0.028440334,0.03224833,-0.011900134,-0.03953838,0.014102384,-0.0023649596,-0.014579818,-0.0104178935,-0.038453557,-0.00782394,0.014913242,-0.04310485,-0.02193618,-0.023808317,-0.04214211,-0.028869797,0.00956735,-0.0074133463,0.037288535,0.025540885,-0.0018777102,-0.017274475,0.03141391,-0.034858663,-0.0073851496,0.024767581,0.029058482,-0.020394454,-0.025292797,-0.0071664117,0.0009907633,-0.04154975,0.013086807,-0.035385974,-0.033060513,-0.04020315,-0.0026384443,0.039879676,0.011219434,-0.03991856,-0.037704535,-0.0062925965,-0.0007724725,-0.0025441796,0.019234534,-0.024796491,0.024658937,0.038749438,-0.01049605,0.032618005,0.02382378,0.016118832,0.018048845,0.034872223,0.029389594,0.0031051226,0.004307434,0.036709342,-0.043152392,-0.0019291788,-0.042081583,-0.019764759,-0.013337845,-0.030099593,0.0046493337,0.033081833,-0.012178518,-0.03284143,-0.003265068,0.04307242,-0.032659765,0.009120647,-0.027042044,0.0319154,0.032043178,-0.02794011,-0.0026378296,0.033440795,0.004669983,0.0010106936,0.033751655,0.044096705,0.022061344,-0.014930759,-0.023729803,0.02323563,-0.018928455,0.012028832,0.023808878,-0.022371015,0.0037282668,0.022708569,-0.04148223,0.0027450137,0.040419277,-0.027316684,-0.0112404525,-0.017990204,-0.03777498,0.04197857,-0.016237715,-0.0007266328,-0.0034606531,-0.023002364,0.006138727,-0.017280819,-0.002232276,-0.010210022,0.013632465,-0.0014879256,-0.012677114,0.04188395,0.02810705,-0.034338918,0.026098568,0.0062508844,-0.03508378,0.0045721643,-0.016833767,0.00039165094,0.038046774,0.0025166608,-0.03674387,-0.014125194,0.02337483,0.030391384,-0.039908983,-0.013105568,-0.029090218,0.010280579,0.02350786,-0.006688632,0.0026677959,-0.02138365,-0.023063362,-0.028226955,-0.026377294,0.03325695,0.0052860416,-0.003382627,0.0051147267,-0.0223981,-0.02089528,0.00070404634,0.008548986,0.018602733,-0.019472191,0.0218901,0.011425309,0.040186714,-0.03245027,-0.015598407,-0.006498877,-0.01119848,0.025971193,0.0035657436,-0.02734673,-0.006258607,0.041550275,0.0297453,-0.030386798,-0.00879303,0.0005520992,0.03522146,-0.013880506,-0.0045855977,-0.0025100484,0.019977111,-0.023618203,0.03593752,0.03205194,-0.015883766,-0.043972656,-0.02743972,0.03456666,-0.028203486,0.0010208301,-0.04036347,-0.0037960187,-0.01191384,0.028264258,-0.017072551,0.0028334707,-0.00036176294,0.043855723,-0.0031709224,0.016201086,0.043220017,-0.010124657,-0.041807327,0.034671206,-0.022555681,0.0152402,-0.02429055,-0.022926569,-0.0027893893,-0.01860317,-0.013710771,0.0319216,-0.0236036,0.016408227,-0.01199501,0.032018628,-0.016953453,0.02429263,0.0036112852,-0.04402716,0.017878518,-0.025094865,-0.013801791,0.0302465,0.02816211,0.03218082,0.028572757,-0.009355642,-0.011639673,-0.023557164,0.026097726,0.038914558,-0.019405842,0.03416941,-0.02315994,0.024550837,0.028372165,-0.00017184392,-0.0105963275,-0.006811641,-0.0061206184,-0.017827949,0.024311733,-0.035725035,-0.014410524,0.026755664,-0.013813961,-0.010870278,-0.023740439,0.036861,-0.038261555,-0.021690996,0.028809492,-0.0048582368,0.012252912,-0.0076926686,0.014231037,-0.014415719,-0.03884755,-0.0035379343,-0.03046422,-0.043299016,-0.016918646,-0.028435899,0.01842225,0.005255226,-0.0070727095,-0.03361553,-0.023352452,0.02059539,0.032481443,-0.009736236,-0.0071972385,-0.034146547,0.006458357,-0.015196489,0.038403425,-0.027976803,0.03727973,-0.026036184,-0.030400775,0.0067364797,-0.027912498,-0.02614125,-0.033447914,0.028250676,-0.021578064,0.022350509,0.03925514,0.00697501,0.025547873,-0.008524958,0.008462127,-0.039515287,0.028474342,-0.0421749,-0.0333474,-0.021168882,0.0103012845,-0.039332107,-0.018656807,-0.0037791133,0.017618526,-0.04302362,0.039708275,-0.02777335,-0.008842763,-0.040491868,0.025882993,-0.009318605,-0.023041429,-0.042051196,0.005984638,-0.042412177,-0.004602246,-0.0416134,-0.00029932708,-0.0019958913,-0.0021751523,0.016161282,-0.04165237,-0.008712038,0.024406504,0.030022811,-0.04177057,0.012184154,-0.016536178,0.037524108,-0.026527485,0.026184667,-0.024439434,0.024949793,0.0029561818,-0.007610377,-0.029968236,-0.013600055,-0.021307845,-0.009730678,-0.009387657,0.030397717,-0.0050310045,0.030031148,0.0134005025,-0.015883466,-0.008968089,0.018800553,0.019641835,-0.002013266,0.016536716,0.023472298,-0.018771905,0.03585777,0.0004777722,0.004088659,0.028332185,0.026084874,-0.016951384,-0.019907253,0.037814226,0.020263646,0.007901348,-0.013658486,0.039003264,0.0025441945,-0.023678789,0.027818378,-0.0134687945,-0.0051532798,0.015792012,0.026769314,-0.012675926,-0.003673751,0.0014973842,0.039353076,-0.008069303,-0.017063536,0.008301958,0.0249344,0.010228824,0.029941145,-0.012600064,0.010718107,-0.027389862,0.04111312,-0.013683254,-0.038663417,-0.03273422,0.036462124,-0.04372493,-0.0315474,0.008752916,0.035343196,-0.04210543,0.037459884,0.016659033,-0.0008056797,0.008085292,-0.036135584,0.03717288,-0.017364938,-0.04037147,0.033743296,0.02188776,0.028908927,0.030922163,0.020907905,0.039821956,-0.021769954,-0.015866812,-0.03791931,0.017171111,0.03233218,-0.031564075,-0.0043265857,0.008561343,-0.02940259,-0.03167039,-0.018911242,0.027652625,0.011759315,0.044145342,0.005438693,-0.038491916,0.009344447,-0.03794799,-0.033133835,-0.012157451,-0.004860744,0.039902378,-0.028184308,-0.030218158,-0.023374995,0.031212475,0.034377772,-0.04280123,-0.020598618,0.019428048,0.025825296,-0.02862972,0.005551219,-0.0007609986,-0.011014577
-0.017839875,0.026323367,0.03819603,0.03936259,0.041967105,-0.032679066,0.004982099,-0.0015604869,0.01120878,0.032284763,0.021009188,-0.0017690472,-0.016577424,-0.041682664,-0.015164282,-0.013356289,0.0050483644,-0.027018322,-0.032051332,0.029084634,-0.04014899,-0.037146572,0.023094747,-0.018885765,0.024898369,0.01868483,-0.0031618476,-0.018237658,0.018689517,0.027279448,-0.02872035,0.007261187,-0.0042895004,0.0033373833,0.0036929287,0.025495868,-0.040293414,0.039311852,-0.027366754,0.023224924,0.041794833,-0.015762864,-0.0003748648,-0.011381265,0.027496118,0.02386031,0.036671627,0.02956305,0.010927733,0.03238192,0.02689762,0.039440695,-0.024666326,0.0023716576,-0.032982547,-0.014233533,0.009688381,-0.0047895834,-0.02453174,-0.008906931,-0.028825825,0.004496347,-0.03521899,0.009491697,0.04185157,-0.042517915,0.01884732,0.002188407,0.0032412335,0.03572717,0.00599828,0.02650598,-0.02173054,-0.01825732,-0.019233271,0.028291743,-0.035495147,-0.028844181,0.019041557,-0.033559173,0.020678569,-0.012237195,0.014361776,0.01995295,-0.012730923,0.032588277,-0.026131567,-0.026184667,-0.034958977,-0.037659872,0.040658955,-0.034173075,0.019923765,-0.036017872,-0.0020369664,0.021696147,-0.019244172,-0.012829386,-0.03208883,0.011151407,-0.017127536,-0.025237933,-0.010846555,0.037629444,-0.004754871,0.013030782,-0.034112662,0.026894238,-0.033919204,0.017296404,0.015307695,0.03380328,-0.041225996,-0.028092613,-0.041472647,0.012350913,-0.0114186,0.012900006,-0.041553978,0.0015522838,-0.04281044,0.039302003,-0.0075682662,0.01512792,0.014540084,-0.01931543,-0.028120035,0.031199489,0.024929274,0.0361694,0.02123196,-0.0029570796,-0.0018300004,0.036900964,0.017027836,0.023776505,-0.015981104,0.03255691,-0.0008559674,0.030586775,-0.038775396,-0.023698224,0.026550505,0.043952648,-0.025620589,0.0070627593,0.03205737,-0.0019815043,-0.03364103,-0.011593498,-0.00079252943,0.008155141,0.012515653,-0.011163503,0.02032717,-0.016438004,-0.04103526,0.015201177,-0.026748255,0.03704412,-0.040418174,0.0054390654,-0.007612776,-0.031283222,0.03900032,-0.02954927,0.014119331,0.042416666,0.011002749,0.04156063,0.011828672,0.03156418,-0.033773612,0.028619055,0.030949134,-0.04119376,0.033653844,-0.0074552186,-0.015250457,-0.0062130727,0.022779185,0.029616822,0.029412102,-0.0134432,-0.036985245,-0.011847027,-0.011724491,0.0381965,0.037593152,-0.0058208257,0.013782397,-0.03853355,0.008886479,0.018942323,0.03670531,-0.035233438,-0.025287524,-0.011646438,0.030647304,0.02892058,-0.03748159,0.009413525,-0.0083248615,0.022741202,0.0055570677,-0.04323587,-0.01129486,-0.04154848,0.036598127,-0.03987191,0.023233179,-0.0025132783,-0.03907273,-0.013069285,-0.026278092,0.023871366,0.022726852,-0.037250984,-0.019371793,0.03839377,0.014682509,-0.033359148,-0.029054098,-0.01366945,-0.032242827,0.04061855,0.014752813,0.03527974,0.023723911,-0.0022522062,0.038003694,-0.0062679574,0.04358579,0.026492741,-0.032337174,0.004341293,0.02367377,0.0125441775,-0.03760983,-0.008527234,0.01179814,0.021078002,0.006706476,-0.011432368,-0.012494806,0.00258521,0.0009955615,-0.01491471,-0.0034844428,-0.036031708,-0.006764449,0.033746067,0.03472658,-0.016290216,0.027259748,-0.04386026,0.039206613,0.03219289,-0.010078203,0.009298049,-0.0015523322,-0.04287293,0.03719833,0.01982594,-0.023569386,0.0019991025,0.031252358,-0.04246573,-0.0040999465,-0.034768924,0.035369765,0.03384758,0.022478987,0.02869669,0.034463968,-0.011499397,-0.007813331,-0.02948939,0.04098436,-0.03924493,0.01567126,-0.03382338,-0.04373561,-0.0067750216,-0.01824732,0.011616461,0.03228602,0.0015165061,-0.03386277,-0.0069584697,-0.008772925,0.022596229,0.02648395,0.035551775,-0.018815955,-0.008991182,-0.008410003,0.016605098,0.044117313,-0.033478476,0.039425526,-0.03984371,-0.036095213,0.036821347,0.03178676,-0.00030331686,-0.031630393,-0.022354282,-0.011678532,-0.010470137,0.01791595,-0.032635875,0.01704742,-0.0035684109,0.042513933,-0.033726655,-0.04160748,-0.0137671195,-0.03691482,-0.04250908,0.01751618,-0.0114285275,-0.011423688,0.0003122501,0.030362997,0.02129447,-0.009259436,0.011989027,-0.015856087,0.024237115,-0.04211108,-0.012585722,0.008487064,-0.015776455,-0.038572147,-0.0147821475,0.038350422,0.028285231,0.032929767,0.033470895,0.028946575,-0.037463058,-0.036135264,-0.00811024,0.0010656416,0.024724443,0.038166266,0.04021592,0.0040010735,-0.035214543,0.0168068,0.0040266477,0.017060943,-0.04002064,-0.011249773,0.033932213,-0.017959777,-0.04404456,0.009007204,0.024227802,0.0014500208,0.03199281,-0.024972934,-0.008393452,0.04141592,-0.022500563,0.02017093,0.010978896,0.024591204,0.012470599,0.027416546,0.0375768,-0.034059484,-0.038048677,0.041911047,0.040050466,-0.01695821,-0.026043385,-0.015201293,0.031524565,-0.02118199,0.011568155,0.035239603,0.008531377,0.0051534623,0.025080886,0.04007614,-0.002138216,0.015925951,-0.03608118,-0.017612051,0.018241059,-0.042376623,0.034763355,0.0074622855,0.030782748,-0.0066115037,-0.02555511,0.03347135,-0.004549589,-0.01464643,-0.015188228,-0.042233482,0.029377174,-0.044126797,0.01949342,-0.03516232,-0.04035843,-0.032667942,-0.033903893,0.029564377,-0.0073929615,-0.015918907,-0.021960957,0.041834477,-0.03791542,-0.029919278,0.030275885,0.008114763,0.01510426,-0.012788661,-0.0013882183,0.022698704,-0.03620692,-0.026947014,0.003329575,-0.016101314,-0.02422839,-0.04016526,0.036076825,-0.03988381,-0.02459895,0.016442224,0.027759213,0.027942281,-0.033470713,0.00015926734,0.037004914,0.04067794,0.03752775,0.024109151,-0.035479188,-0.00079898164,0.010205634,0.010363031,-0.009234786,-0.0042855404,-0.039486106,0.011713102,0.029100683,-0.02491201,0.019637194,-0.0059810206,-0.04397934,0.0077926554,-0.03106197,-0.013561448,0.037098546,-0.024037927,-0.01581608,-0.034934893,-0.028344177,-0.0064387955,0.039816227,-0.004169844,0.0046221465,5.641207e-05,-0.037242908,0.009070713,0.01464453,0.018599179,-0.039595235,0.00092240423,-0.011776783,-0.021720493,-0.01929506,-0.019693378,0.0178921,0.035035398,-0.00915784,0.0034558252,0.019179452,-0.043498408,0.014697906,0.012187462,-0.03462746,-0.038037702,0.028937835,-0.0003081821,0.022221114,-0.036341555,0.041372765,-0.04412707,-0.0014311261,-0.037626863,0.02371895,-0.012332521,-0.026681762,0.033035625,0.0015643798,0.018872987,0.011755072,-0.031047266,-0.043687675,-0.025799703,-0.035790995,0.032354977,0.025667157,-0.016526222,0.03767365,-0.039531216,0.0017150082
-0.039241448,-0.0021507815,-0.0399025,0.043399114,-0.019103918,-0.00553713,0.016059555,-0.016161863,0.030821767,-0.013310965,-0.04294063,0.038082775,0.022968564,0.02252261,-0.015205445,-0.03221446,0.026004743,0.0029064529,-0.034019165,0.0029837713,-0.0014184043,0.0041645654,-0.015949884,-0.027152332,0.02380744,-0.038028732,-0.012451213,-0.014823826,-0.02934442,-0.009680547,-0.0010635965,-0.012113869,-0.031918872,-0.007877588,0.038275946,-0.03144253,0.014740527,0.006178722,-0.035086777,0.035967473,-0.03770558,-0.008214891,-0.04229652,0.007667754,0.03172229,0.0038465783,0.0022743344,0.04225486,-0.03842112,0.015724905,0.01549875,0.036774825,-0.0031009242,-0.021929838,-0.02789083,0.0060165785,-0.03725358,0.011405949,0.022727702,-0.022233905,0.00890483,0.013584878,0.022021566,0.040018093,0.03447443,0.008128766,-0.04091369,0.029836778,-0.020157741,0.0055441298,-0.03513597,0.012042198,0.028476093,0.034051653,0.003608033,0.020403292,-0.042827412,-0.036701232,-0.0055498667,0.01708265,-0.024016438,-0.018838482,0.010566883,0.0042317696,-0.0019317605,0.0031078681,-0.03715666,0.020924095,0.0285209,-0.026940424,-0.011325885,0.023515802,0.01358236,0.03609946,0.0070189983,0.028892059,-0.016527412,0.035473827,0.031672318,-0.044115674,-0.028572433,0.00020124018,0.008671049,0.023923036,-0.036061797,0.0052364543,0.005017493,-0.017427422,-0.0015269741,-0.0061925426,0.020812165,-0.041888863,-0.025447318,-0.029517308,0.014125321,-0.04065552,-0.0029418431,0.014127612,-0.04090592,-0.034863196,-0.037584692,0.025690835,0.026217636,0.027507517,0.020313587,-0.010891542,-0.02722639,0.0016142912,0.034591567,0.0047564507,-0.008233029,-0.034970134,-0.034160264,0.037620645,0.030271698,-0.036578197,0.039093163,-0.02747523,0.035034996,0.035817932,-0.043256707,0.03259171,-0.011637107,-0.0013629347,-0.01854575,-0.03780797,0.0059405863,0.034873653,0.039963115,0.0031033568,0.01090971,0.034784544,0.018366266,-0.018939018,-0.04241869,0.037708584,-0.025466042,-0.03530239,0.010662314,0.019984629,-0.04264836,-0.028676879,-0.04355566,0.01732416,0.03265233,0.022816408,0.0025742128,-0.01242337,0.011635829,0.041284855,-0.029921006,-0.025145125,-0.0258432,-0.031742647,-0.030784832,0.01289263,0.028654967,0.03200837,-0.0049198493,0.012705162,-0.007115584,0.03351457,0.025313374,-0.008370433,-0.005858328,-0.015498923,-0.037256666,-0.011527792,0.0010871887,0.04374973,-0.024202479,-0.026211925,0.020315018,0.03350993,0.04373504,0.011788748,-0.021196088,-0.029039463,-0.014957322,0.033057448,-0.029470984,-0.037275657,0.035112213,0.031080443,-0.015746616,0.008153755,0.02218071,-0.039121017,-0.0022531115,0.03639332,-0.02479713,-0.0010605194,0.01387335,-0.02180641,-0.04348261,-0.0031620637,-0.030302256,-0.0066589117,0.035403196,-0.031799816,-0.026773153,-0.007541202,-0.021461023,0.01748975,-0.0073715486,0.0037232228,-0.024219122,0.0182155,-0.022016238,0.023117278,-0.015967406,-0.043678913,0.020451557,0.03727864,0.022164825,0.0075598806,0.0010112599,0.024378609,0.007322479,0.03761321,0.022755984,0.033334006,-0.027123034,-0.009366684,-0.04248283,-0.019735346,-0.028929312,0.008262068,0.037073094,0.02397583,0.01524099,0.007827334,-8.416176e-05,-0.0381298,0.009148207,0.02375808,-0.0265758,0.00965118,0.044192974,0.018960219,-0.036918852,-0.028580911,-0.004610032,-0.020553917,0.021749917,-0.018315129,-0.0047100633,0.02501845,-0.032774404,0.041564297,0.028670717,-0.039964087,-0.0053016134,0.03237771,0.040812705,-0.030053604,-0.025836866,0.04381256,-0.04351611,0.028599095,-0.016889496,0.020335834,-0.033369675,0.043356646,0.005360443,0.0105316825,-0.016753983,0.027104806,-0.031831723,-0.03347084,0.016875561,-0.010307476,-0.016110785,-0.02546529,-0.036499944,-0.0017695725,-0.037549976,-0.0033567809,-0.00034920126,-0.033064798,0.040856313,0.03809056,-0.03737711,0.0025544353,0.0034810305,-0.01207228,0.025507476,-0.020447606,0.017536249,0.022651557,-0.005118236,-0.00558953,0.008006714,-0.026547194,0.03124753,-0.03938022,0.022387538,-0.0025793016,-0.030344818,0.010985941,-0.033882547,-0.021719893,-0.04359745,-0.011397138,-0.012426462,0.038997475,-0.010260761,0.022876631,-0.024135504,-0.0074779056,0.009371426,-0.040027834,0.04067607,0.032115,-0.017245647,0.021831375,0.037630346,-0.030330915,0.030384373,0.039314624,-0.040063657,-0.0068540312,-0.03878687,0.024629299,0.040196706,-0.0012320429,0.02025139,0.019048635,0.04197027,-0.034405,0.03659747,0.017231386,0.04092936,0.03955329,0.03206821,-0.03142744,-0.013011243,0.030785393,-0.03516682,0.0032171942,-0.02492553,-0.019134447,0.018949416,-0.04413981,-0.034894954,0.017789453,0.038414683,-0.025290027,-0.038926993,-0.037452415,0.004641328,0.0014690645,-0.038415466,0.03924137,0.03367542,-0.013448069,-0.039623696,0.04076412,0.035174828,-0.013263524,0.025299106,-0.020866772,0.030606162,-0.005227141,0.035545263,-0.015309289,0.016226538,-0.022036143,0.035761002,0.040895153,-0.015936455,0.012985077,0.024953317,0.0146263465,0.016016643,-0.03360852,0.03031421,0.043327782,-0.017889166,0.0014217384,-0.036532186,0.0002520904,0.01492263,-0.030564766,0.019076753,0.021780256,-0.031744022,-0.0040215626,0.009605203,-0.02359331,0.023605619,0.04193448,-0.03735416,-0.033852726,-0.018475788,0.010105781,0.022807624,-0.020129567,-0.008976329,0.02542555,0.028507385,-0.027004423,-0.0019511245,-0.011148315,0.04397909,-0.015618863,0.022944462,0.025940347,0.02815957,0.03876404,0.03977515,-0.015629131,-0.026881855,-0.030998673,0.037881326,0.030858357,-0.02961258,0.026546936,-0.026671026,0.018430155,0.007419005,0.013753835,-0.034628186,0.03729034,-0.04221835,-0.03732086,-0.0054051057,0.036269415,-0.027344733,-0.037704054,-0.019437067,0.028057892,0.02608439,-0.012906875,0.0012114123,0.00051892176,0.019701812,-0.009035483,-0.02236718,-0.015237866,-0.020316724,0.0033959039,-0.037751086,0.024026517,-0.03230349,-0.00036905333,0.0063278712,-0.026812233,-0.026979974,-0.03628326,-0.029234834,0.03204267,0.030608568,0.017440781,0.02691998,-0.034847315,0.04273207,-0.00026563555,-0.042456,0.031537365,-0.003052611,-0.040402878,0.0086872205,-0.04311193,0.0072959773,-0.026362116,-0.007590659,-0.041064337,-0.01698686,-0.018391004,-0.029558431,-0.035256397,-0.026007097,0.036718685,0.016785204,-0.024168689,0.012448762,-0.012498826,-0.0140482765,0.04222807,-0.012337167,-0.024379196,-0.039628025,0.031075355,-0.037093993,-0.028269572,-0.0024143048,0.027623165,0.0011184923,-0.0022821464,0.00924046,-0.041192565
-0.024344858,0.027978595,-0.032458436,-0.03269867,-0.041589294,-0.025523916,-0.041339073,-0.027281022,0.03368521,-0.019938672,0.02409001,0.017501805,0.014284331,-0.0097344555,0.024827909,-0.017738497,-0.01586784,0.02272236,0.04232957,-0.020034999,-0.0089069605,0.02657729,-0.00633806,0.040836502,0.017617457,-0.017487997,0.014020719,0.00032551214,-0.0045667216,0.017441072,0.004412852,-0.009513464,0.02786595,-0.02594678,-0.043511547,0.0063955523,0.044129264,0.016104653,-0.036622807,0.023780797,-0.026306745,0.03427208,-0.009380411,0.011007514,0.0045699663,-0.019588733,-0.03485863,-0.00279738,-0.011608079,-0.0014233552,-0.0067890882,0.035012033,-0.01928774,0.021260645,0.03542806,0.0064244457,0.022230778,0.043016795,-0.0429323,0.04172865,0.0015664101,0.025373619,0.009098761,0.00633109,-0.041548505,-0.036411136,0.01318609,-0.040157653,0.0110174455,-0.024029009,-0.019461127,-0.0367254,0.038490985,-0.0065556876,0.025406215,-0.01935587,-0.029146794,0.0071003065,-0.0012319013,-0.021771418,-0.018008094,-0.01052694,0.025376763,0.0235929,0.021880593,0.04362366,-0.0026542544,0.0008784756,0.041647624,-0.0038348995,0.036379132,0.016887441,0.033570763,0.009129498,-0.01946892,0.018307928,0.0068872906,-0.03195265,-0.010798454,0.022982474,-0.037813846,-0.042717796,0.026341591,-0.011339273,-0.039209407,-0.011514489,0.011016063,-0.0123530105,-0.01763472,-0.015629664,-0.0278234,0.012231227,0.023192313,0.015554458,0.01851761,0.043314066,0.0014474764,0.004689906,0.022025343,0.039941717,-0.0027961172,0.022690821,-0.019901626,-0.0011799373,0.033407915,-0.005155228,-0.0059188306,0.039295305,-0.032501765,-0.042895455,0.00053767115,-0.031449582,-0.034858055,0.026140515,-0.030322008,0.03946172,-0.021661779,0.013094638,-0.01538136,0.015333571,-0.023444774,-0.04227557,0.021765325,-0.04040534,0.032323617,0.002275277,-0.03798002,-0.035515927,0.013521358,-0.0036037713,0.03793155,-0.033072837,-0.021234963,-0.0044858456,-0.014407568,-0.041524135,-0.02972427,-0.01983625,-0.029185891,-0.017160522,-0.040983964,0.02985425,-0.03881678,-0.018397072,-0.021026777,-0.015141925,-0.018749299,-0.03688892,0.016582504,0.012621485,-0.03655089,-0.03551569,0.012614209,0.018807445,-0.023934927,0.02954043,-0.037448343,-0.0010400489,0.03935698,0.0108745545,0.0068527833,-0.0069125853,0.02435657,-0.035672586,0.010149483,0.024931874,-0.0131075755,0.027508218,-0.0062287785,0.03884724,0.029103797,-0.00906666,0.00023949519,0.031934228,-0.0383456,-0.035463642,-0.031114426,0.0117965825,0.040416833,0.025747824,-0.019414276,-0.032992046,-0.042411465,0.024770569,-0.038371168,-0.035816718,-0.035702847,0.028857615,-0.039628454,-0.020765956,0.0046130084,0.015372962,-0.00039493665,-0.03362064,0.0014906116,0.014987376,0.017601304,-0.021896405,-0.02442709,0.030553613,0.0046607926,-0.02424803,-0.0016341545,-0.04018024,-0.029983547,-0.02102329,-0.0053688698,3.8143247e-05,-0.04335816,0.035507474,-0.011118196,0.031346012,-0.019755872,-0.024367748,-0.00135177,-0.036812242,0.04216325,-0.042160377,-0.0033659302,0.026479099,0.015497416,0.008009177,-0.021357488,0.037413295,-0.030075185,0.03941783,0.022182789,-0.039144576,-0.012494434,-0.04106768,0.012809958,-0.020208612,-0.021468129,-0.028105062,0.0028124116,-0.03728147,-0.04156942,0.00883637,-0.032231063,0.012616064,0.0074017458,0.010592293,-0.026802793,0.001827877,0.031098966,-0.025953285,-0.039528865,0.033876162,0.011690918,0.024514433,0.016866468,-0.018030727,0.0065623745,-0.013627572,-0.0064568333,-0.010624319,-0.028527278,0.022915352,0.0014081746,0.043133255,-0.031747,-0.017415404,-0.026035015,0.028529476,0.040305372,-0.023443874,0.0425941,-0.012814406,-0.041931536,-0.012602292,-0.031574484,0.025296312,0.03986184,-0.03527971,-0.021382608,-0.009005249,0.040779088,-0.02309659,-0.0047574714,-0.007381879,-0.017737912,0.031121109,0.033641774,-0.023715563,-0.008032963,-0.0440297,0.020489525,-0.011109378,0.023639102,0.03581367,0.009566613,0.021143664,-0.015299328,0.028089117,0.040494625,0.021419365,0.01286716,-0.026590746,0.023232508,-0.013579024,0.017188538,-0.00094165653,0.029374007,-0.031746592,-0.012505185,0.041587714,0.030128274,0.037586007,0.001694072,0.023668628,0.0399757,0.009616926,-0.022124445,-0.03650499,-0.0010469891,0.009240903,0.0014694817,0.020373557,-0.0289242,0.009456355,0.027162883,-0.020053528,0.019229282,0.023980912,-0.042152975,-0.04129321,0.0012687109,-0.003495697,0.02292448,-0.008980095,0.0093624,-0.020869406,-0.026373716,0.044026773,-0.02803416,0.025431473,0.00442075,0.010142349,-0.012117114,-0.018372675,0.021896806,0.043531742,0.03332371,-0.042133104,-0.021717142,-0.009049095,-0.018224386,0.006875936,-0.0133286975,-0.037708316,-0.042007178,-0.033019274,-0.017420145,-0.021179881,0.011403367,-0.0005882792,-0.00072079897,-0.030547146,-0.018924288,0.0192911,0.025529873,-0.0021749847,0.015041746,-0.017247522,0.011104524,0.01961724,-0.03260039,-0.0112152435,0.039004114,0.008085109,0.041089464,0.031434517,-0.0129035,-0.03332875,0.02813236,0.023281459,0.004088402,-0.017080864,0.010995459,-0.030422226,0.002662167,0.030392643,-0.015013086,0.032333385,0.022614028,-0.01012519,0.03760155,0.020935137,-0.0067543946,0.015300781,0.031603407,-0.018246086,0.0018379875,-0.021471037,0.017983142,0.01603965,-0.012892641,0.0027496144,0.023875434,-0.009463739,0.025706824,0.031721774,-0.011795394,-0.039378546,0.04369167,-0.0021197908,0.010537781,-0.015778147,-0.017607288,-0.011158295,-0.0012739189,0.02560221,0.004745528,0.042899165,-0.031793803,-0.0308599,-0.020416487,-0.015259476,0.04291,0.028719392,-0.0022253282,0.026894275,0.010486677,0.0406303,-0.04269924,-0.011051405,-0.0033430457,-0.0019234233,0.028591815,-0.028718289,0.030955676,-0.0072863996,-0.018933175,0.026464786,-0.03695778,-0.037420783,0.023124848,-0.0070073307,-0.018448297,0.019769404,-0.009350136,-0.028798092,0.029602926,-0.023596788,-0.036422983,-0.010382343,0.010487586,0.013214864,-0.042763907,-0.023615021,-0.009244621,-0.012060359,0.041479666,0.008659311,0.042167235,-0.02231949,-0.014902435,-0.02967076,0.038803216,0.0012154318,0.04181232,-0.0014527105,0.01974522,0.027448896,-0.009128407,0.04403008,-0.018488973,0.017503075,-0.01589985,-0.039505452,-0.00029107556,-0.010749143,0.01279914,0.019113671,-0.03523448,-0.0046536922,-0.008989312,-0.032317176,0.024194632,0.0075245574,0.0074432977,-0.011172794,-0.013666932,-0.04264184,0.027379137,-0.04249841,-0.0017635599,0.041775253,-0.018874612,0.037339386,0.007981475,0.03660563
0.0070655197,-0.04001571,0.027348395,-0.02231645,0.03958634,0.04240125,0.03113341,0.030086424,0.011118397,-0.0070756376,0.006838143,-0.0063964017,-0.018824464,-0.02806593,-0.010294937,0.00230477,0.03526433,-0.002259329,-0.04283219,0.032933276,-0.0107095465,-0.015098607,-0.013182327,-0.024965823,0.033247236,-0.02876485,0.029348802,-0.02210166,-0.027432065,0.040311214,-0.021526223,0.025466975,-0.021020357,-0.025801204,0.0022000857,0.025051069,0.007437121,0.03833236,-0.030423513,-0.043294992,0.030485768,0.016014706,0.03091729,-0.03628604,-0.006206449,-0.024575995,-0.030408213,0.022364315,0.025529366,-0.018211205,-0.039693918,-0.0379717,0.034277823,0.033362057,-0.037246455,0.020447772,0.03768501,0.03453215,-0.037724305,-0.008138552,-0.034196187,0.041973773,-0.015143858,0.0370267,0.005275242,-0.015149232,0.015578687,0.022556733,0.0030957125,-0.035736725,0.031222899,0.040625844,-0.035371657,-0.02988644,0.025108505,0.0421842,0.031499352,0.0015602447,0.023060348,0.024883348,0.0314922,-0.036701158,0.022500936,-0.028220633,-0.042591386,-0.03315725,0.019690748,0.003131926,0.0052305087,0.007186584,0.027107026,-0.022839999,-0.017773584,-0.019876342,-0.017809678,0.022879187,-0.017361462,-0.037853908,-0.005601831,-0.022462742,-0.023868492,-0.009377252,-0.009274308,-0.027227128,-0.011809122,0.041493516,-0.007219311,-0.024536489,0.024816152,0.0046195798,-0.01052247,0.025416318,0.01415728,-0.0032905266,-0.0013343208,0.022966038,-0.01387668,-0.018685842,-0.005284358,0.03806061,0.0073865876,0.044046473,-0.038559925,-0.00036261976,-0.018988762,-0.026296366,0.027415056,-0.0345522,0.0075174496,0.03307012,-0.0066338405,-0.030425066,0.043232497,-0.022347076,-0.043126814,-0.0077033527,-0.0164137,0.037558537,-0.040216617,0.016167425,-0.0018961877,0.04008754,-0.005686432,-0.015127279,0.03553616,0.015442219,-0.03546202,-0.031318333,0.039016295,0.006428402,-0.012376204,0.018536989,-0.011422779,-0.01507853,-0.005830791,0.026410814,0.040554937,0.013579808,0.0070045814,-0.012594618,0.0068306886,-0.00841596,-0.008518714,-0.042348858,0.01955377,-0.027819112,0.014265891,0.014832482,0.01330889,-0.0029321983,-0.02267719,-0.043596048,-0.03598769,0.017460503,0.03499246,0.031644356,0.042216282,0.011188876,0.0009076707,0.0040590353,0.009689286,-0.017416984,-0.020028181,-0.0009884536,-0.000403177,0.0062084533,-0.020068511,0.009190496,-0.026521994,-0.013605693,-0.02741497,0.02420279,-0.013127262,0.024789866,0.028607879,-0.03728572,-0.03976473,0.044003088,-0.0100181885,0.040446367,0.03481609,-0.0010240413,-0.0076635033,0.03298187,0.009490348,-0.04397798,0.036388133,0.021794554,-0.018143412,-0.015408266,-0.011567667,-0.033742283,-0.009123035,-0.015499683,0.034314368,-0.039161477,0.03696167,-0.028099062,0.026334714,0.004042074,-0.00484113,0.02658521,-0.028702978,0.021824088,0.015930701,0.0140504725,-0.008368958,-0.003866408,0.03985228,-0.026683912,0.017036688,-0.033429436,0.04132961,-0.027595237,-0.042107783,0.04154363,-0.0076935925,0.02410521,0.013829768,0.0025329217,0.00047278404,-0.03573464,0.041926112,0.020535085,-0.0012116581,-0.03688764,-0.041191958,0.008928746,-0.001226373,0.031279128,0.021573264,-0.04325447,-0.015645806,-0.042946704,0.041769613,-0.03864186,0.021708433,-0.0067055263,-0.029134046,0.022462886,-0.0111321695,0.017341547,-0.017077534,0.039788384,0.010315441,-0.015677847,0.032624822,-0.023732359,-0.017388703,0.011820409,-0.043277457,-0.009861331,-0.028151244,-0.020617431,0.021799099,-0.02256784,-0.01731705,0.041670036,-0.042446245,0.036338646,0.003426142,-0.011386313,0.04282319,0.033148024,0.01786276,-0.03618328,-0.024976432,0.03046358,-0.005939275,0.015714336,-0.043324657,0.030550484,0.004789129,-0.026505657,-0.02899042,-0.009182051,-0.01001871,0.04019684,0.030842062,0.0350728,-0.028033039,0.021247435,-0.040523186,-0.01830467,0.0024069585,-0.0031923614,-0.026554616,0.041098136,-0.04305087,0.024864484,-0.03521563,0.041332144,-0.03328477,-0.034992162,0.03387362,0.04038002,0.00067746267,0.020119775,-0.0106060505,-0.018188156,0.03110968,-0.040712263,0.03481498,0.015421867,-0.0128952935,-0.040122896,-0.029481515,-0.008988418,-0.009755988,-0.0328912,0.024014514,0.03783341,-0.023804551,0.0007967651,-0.042018775,0.025223132,0.015079811,0.036774468,0.0033885427,0.036154974,0.030584779,0.027430568,-0.038459253,0.027960625,-0.022641756,-0.042169537,-0.024603618,-0.037757084,0.024463583,-0.038532265,-0.005797226,-0.015253076,-0.027868,-0.0048271716,-0.034457546,-0.02204997,-0.019571874,-0.04005497,0.03188694,-0.035317395,-0.018785793,-0.022714006,-0.014225757,0.037767243,-0.021288441,0.035523083,0.022295084,-0.025245482,0.014723375,-0.00402721,-0.0031510293,0.0059700124,-0.008330509,-6.7260116e-05,0.0035923198,0.030942444,-0.036159176,0.030307066,0.0389007,-0.011717562,-0.019308941,-0.0027970374,0.029902022,0.0085232295,0.025843818,0.032357376,0.021787856,0.042643454,0.021340493,0.0023321323,0.004202321,-0.020885412,-0.033111397,-0.039661784,0.031632487,0.029133972,-0.008064393,-0.014404265,-0.010294966,0.0055091456,-0.03332068,0.0039980114,-0.003317088,0.0063045956,-0.0038926154,-0.032441154,0.04328317,0.014816605,0.022231486,0.025114689,0.0364453,-0.0050965548,-0.0309727,0.028834205,0.032444578,-0.040915027,-0.024342055,0.0055609383,0.01571206,0.022394199,0.011934981,0.009462535,-0.032632165,0.005179722,-0.011472829,0.005651459,-0.0023381822,0.0024379827,-0.029741254,-0.017077671,-0.010566592,0.029373337,0.0074451976,-0.020386288,0.04314317,-0.0126403235,0.041065525,-0.026969457,-0.0038962588,0.0073993057,-0.0044579394,-0.026405996,-0.03914584,-0.0018351376,0.031181332,-0.030238766,-0.0009186752,0.03501154,-0.01193022,0.027296256,-0.007909268,0.019802038,0.015471548,-0.008881278,0.04301564,0.0264606,0.018483434,-0.019746957,-0.02872883,0.0038515255,0.0023397133,0.008846648,-0.0023428686,-0.023952065,0.022412386,-0.01724558,0.0038122311,0.02584244,0.01063909,-0.022275005,-0.021069752,0.031335857,-0.005537953,0.037017975,0.017544884,-0.027524453,0.043534447,-0.03908725,-0.024268093,0.04204477,-0.03322162,0.011952493,0.015984908,-0.039042618,0.028400403,-0.039881714,0.019583162,-0.009195469,-0.028251005,-0.023683263,-0.029995106,-0.010870524,-0.04046801,0.023535337,-0.016301047,-0.02200107,-0.0039925985,0.0022452138,0.041682694,-0.025696706,0.026937392,0.028295595,0.011677057,0.027471762,-0.0139824115,0.009188596,-0.02447664,-0.018210331,-0.010129198,0.030950379,0.026378054,0.03665312
-0.039200608,0.0154573135,-0.02888855,0.036601286,-0.0238288,0.002692379,0.029900406,-0.035970718,-0.029333526,-0.019817749,0.000995256,0.00075627863,-0.00588236,-0.008829247,0.021465156,0.0020668171,0.012622822,-0.017344993,0.032279763,-0.009244889,-0.027331546,0.0055066235,0.02567957,0.040287387,0.019157242,-0.003981039,-0.035474602,0.031197015,0.039487552,-0.02181984,-0.002258256,0.0015550181,0.0030298121,0.021667596,-0.017765222,-0.036264043,-0.043829627,-0.012530409,0.041790944,0.0062689595,0.036060978,0.036015313,-0.025287293,0.03281865,-0.008981299,0.03526256,-0.011363622,-0.0033682883,-0.011355374,0.004827749,0.036235694,0.0074678995,-0.019419292,0.03790799,-0.026773816,0.040723678,0.0023845248,-0.029698513,0.03346215,0.032435533,-0.015070928,0.013010133,0.009730447,0.031657662,-0.037276257,0.021078061,0.02928489,-0.001587376,0.007546488,-0.0041216575,-0.03259085,0.03795409,0.03471631,-0.032028474,-0.01976126,0.02051786,-0.04086264,0.010273531,0.007422097,-0.03089542,0.021417413,-0.03971956,0.010709304,-0.012978615,-0.04082844,-0.040704623,0.012384698,0.039895315,0.024528895,-0.03743118,0.009153385,-0.00862455,-0.0076023526,-0.008387793,-0.02857425,-0.010500103,0.017074373,-0.027173143,0.013206515,-0.011666663,-0.032947198,-0.015398594,0.04370768,-0.0134677775,-0.02421416,0.021074127,-0.028708588,-0.04303613,-0.022121247,-0.036421034,0.020806853,-0.03501433,0.0017048195,-0.014963122,0.019558702,-0.0121525265,-0.0346141,-0.032920383,-0.0076287016,-0.020407924,-0.030515123,0.010573737,-0.03259459,0.01134352,-0.012021899,0.035063494,-0.011843596,-0.014630193,-0.020392321,0.013836496,0.005788848,0.02527837,0.037329134,-0.014021514,0.01963928,-0.03717511,-0.028945658,-0.037698455,-0.020378912,0.015089747,0.03387219,-0.014224766,0.03892162,0.004821036,-0.01696017,-0.02604849,-0.026837954,-0.025402796,-0.033600964,0.022266652,0.03686953,-0.0037508644,-0.037790224,0.0328505,-0.004257422,0.025532138,-0.006725695,-0.038138174,0.026485499,0.0029363856,-0.016093295,-0.029274553,-0.0319285,0.0077871606,-0.03889512,-0.0067094527,0.042739566,-0.016180117,0.02488887,0.006049406,-0.041907005,-0.036460053,0.02917106,-0.01244035,-0.017449258,-0.011955202,-0.001948718,0.018236663,0.003751766,0.02825756,0.030157927,0.01221833,0.038580727,0.035417665,0.0067753494,-0.0026671514,0.019833911,-0.004723098,0.039010745,-0.04399583,-0.011862148,0.00014817342,-0.026794115,-0.01536477,0.023141008,-0.032683723,-0.023332285,0.02733219,-0.02048626,0.023402352,0.032915663,-0.028656747,0.03409702,-0.041178677,0.01703582,0.041554186,0.019846167,-0.011079747,0.007395353,-0.004069224,-0.0104088895,0.0025606416,-0.034317777,0.032877732,0.034877013,-0.041991204,-0.041305598,-0.021119269,-0.0025008582,0.004996326,-0.019758975,0.043130647,0.026822988,-0.015405515,-0.009662386,0.021209482,0.034950484,0.018963281,-0.0116688125,0.040255543,0.034546714,0.008074593,-0.038841285,-0.027769668,0.008454356,-0.03891537,-0.008601841,0.020542052,0.011628646,0.03271086,-0.029240461,-0.024619207,-0.036815092,0.032976795,0.015854564,-0.024045436,0.039171036,-0.014409307,0.019905817,0.02260064,-0.019006506,-0.0038173087,-0.018028682,-0.015296688,-0.015988875,-0.03757328,0.0005200021,0.007902045,-0.03977249,0.0173834,0.0069713555,-0.042065095,0.043105263,-0.013782082,-0.036228366,-0.013409715,0.040914778,-0.007473506,0.031100359,0.028528158,-0.044130374,0.039936032,-0.010300484,0.04240634,0.03571642,0.007396739,0.033929568,0.027946841,0.03579175,0.036890548,-0.0071315058,-0.017148867,0.034005355,0.015485562,-0.022316003,-0.025678035,0.0027813427,0.03210814,0.043784056,-0.035834268,-0.0137368385,-0.030409526,-0.03847269,0.028325919,-0.0038096905,0.039259095,-0.016521327,-0.031468924,0.010646321,-0.018789386,-0.016369404,-0.043048684,-0.0049744025,0.023610216,0.006104242,0.0208201,-0.011562288,0.023079816,-0.002008967,0.029455911,0.018152662,-0.026138501,-0.011170104,-0.03220191,0.026087891,0.013288416,-0.04396376,0.02762444,-0.03140538,-0.031863205,-0.043671273,0.039118055,-0.037683222,-0.017771946,0.041880917,0.037913512,-0.033199012,0.013811566,-0.010076106,0.014173716,-0.0012879819,0.015639514,-0.0047372207,-0.042917192,0.03287438,-0.0171647,-0.022711087,-0.006852504,-0.017098987,-0.03354715,0.0003260374,0.03955255,-0.013285445,-0.04088696,-0.0011926033,-0.027764136,0.032844353,0.031700637,-0.040286496,0.035471823,-0.015718604,-0.032018553,-0.013666663,0.03631537,0.036104526,0.020230297,-0.02292435,0.009473637,-0.019398034,0.039717432,0.018923167,0.006812729,0.0064285435,-0.014796536,0.012918662,-0.0011156909,0.037698504,0.029205147,0.035963405,0.010851849,0.036197234,0.027182978,-0.02389289,0.0027404837,0.00058686733,0.0017267205,-0.018232938,-0.007206917,-0.02941468,0.020533573,-0.019675197,0.038702626,-0.004558135,-0.04105284,-0.037426036,-0.023689242,-0.0151653625,-0.004650835,0.035586167,0.02443203,0.027451139,0.017045692,-0.0072722174,-0.040960763,-0.007676862,0.0050763525,-0.039701466,-0.042151116,-0.044013415,0.032171886,-0.043760967,0.025267977,0.03516643,0.03660584,-0.0010537915,0.016514119,-0.015139084,0.020837393,0.029113438,0.0033906735,-0.044169664,0.016105939,0.020433467,-0.036322698,-0.039116815,0.03900485,0.030005071,-0.015413793,-0.024070302,-0.034821704,-0.028377756,0.0011884421,-0.039110936,-0.038545135,0.0039592497,0.042315494,0.030651424,-0.015483234,0.04313233,-0.039090868,-0.005665358,0.025002006,-0.015214976,-0.02757781,-0.0013958141,0.028825354,-0.007669162,-0.00081592426,0.0354289,-0.02154401,-0.043509435,-0.038556557,-0.005450532,0.0015425012,-0.02577345,-0.03753319,-0.01685838,-0.017006395,0.016819373,0.026941445,0.0115228,0.014572445,-0.009442199,-0.008452576,-0.00181517,0.023671705,0.028579738,0.0109883845,0.013417006,-0.028304607,-0.04347844,-0.025341477,0.025848191,-0.041204862,-0.008287102,-0.035173275,-0.02914367,-0.037325848,-0.014151858,0.011429939,-0.022422355,0.027065966,0.028737847,-0.00077712536,0.04319853,0.044003498,0.023910765,-0.019406458,0.002419889,0.031302836,0.028021362,0.016171686,-0.027698603,0.011983044,0.034644205,0.026122097,0.018574122,-0.006897684,-0.005386062,0.015155353,-0.0411062,0.04235297,0.00857906,-0.0018797442,0.032672238,-0.017000232,0.035891768,0.01748138,-0.024216782,-0.00042489916,0.014050182,-0.01449064,0.029010814,-0.024014084,0.020111833,0.013317309,0.019369777,0.016019665,-0.030261941,-0.03586951,0.020998415,-0.0066676214
-0.023443108,-0.0052644573,-0.012788676,0.026692647,0.026267458,-0.017928304,0.00996067,0.013915315,0.019346502,0.0064705685,0.009541288,0.027141508,0.001703471,-0.022251992,-0.005439434,-0.043456122,0.024172474,0.020343099,-0.02325544,-0.021780785,0.020873059,-0.03908164,0.030049477,-0.03937345,0.023976896,0.034835536,0.03883801,0.008023839,-0.011360835,0.036313605,0.0013376884,0.03918172,0.0074340515,-0.016725386,0.033841584,-0.043858916,0.018180732,0.0040448345,-0.033473365,0.01652018,-0.02297029,-0.0007001646,0.04121655,-0.02695756,0.004252143,-0.024271574,0.007916428,-0.0024816394,0.029034492,-0.011078231,0.0075268224,-0.0036539473,0.009066518,0.019679714,-0.0018775202,-0.015740424,0.027172703,0.018386696,-0.028009905,0.028330486,-0.029221911,0.040068652,0.041192394,-0.0057326704,-0.03756794,-0.0089169,-0.02005159,-0.012362778,-0.025081536,0.040089708,0.02864289,0.0130350925,0.029472899,-0.021076027,-0.042699788,-0.020887772,0.008394092,-0.008841701,-0.0046577863,-0.012400802,-0.0328412,-0.015312629,0.035021458,-0.035253152,0.001547046,0.02469026,-0.018761175,-0.0023832358,0.037869867,-0.018158507,-0.014351603,0.012412995,-0.0014543869,-0.0240521,0.0065936223,-0.029633654,0.036840733,-0.031132031,-0.014805235,-0.0075656734,-0.022598028,0.021295097,0.026324417,0.008814316,0.019893106,-0.01466479,-0.026519876,-0.034182988,0.024503242,-0.0073332563,0.040351156,-0.01576485,-0.042852607,-0.041581128,0.019756738,0.00583278,0.039960343,-0.03232394,-0.02375379,-0.034263715,-0.0005341843,-0.03278371,-0.032392602,-0.0090204775,-0.016134014,0.0032505505,-0.0023434795,0.0051157065,-0.03627494,-0.043229416,0.04314601,0.02206644,0.012137175,-0.026473068,-0.03733762,0.04141314,0.021692622,0.028339181,-0.030939262,-0.0025258623,-0.001757972,-0.0064863674,-0.014750997,-0.017689116,-0.03255167,-0.01585399,-0.028612241,0.017680738,0.021064881,-0.018440232,-0.019194592,-0.014606796,-0.025775675,0.01750552,0.0026910827,0.012284599,0.0113971345,-0.0139845405,-0.037456114,0.027488265,-0.01825804,-0.020755969,-0.022947883,0.024785336,-0.00064154714,-0.010603942,0.028329235,-0.031427838,0.034753393,0.042272273,-0.02211453,-0.016393306,-0.039929237,-0.04333847,0.009792097,0.02786139,0.019101966,0.03916191,-0.0028488934,0.028880004,-0.0114807,0.0128938,-0.037549876,0.024173554,0.028829042,0.001940351,-0.030870965,0.037474345,-0.019663364,0.03952993,-0.03333805,-0.027748473,0.03937124,0.019360345,-0.02712972,0.027537514,0.035765868,-0.03853895,-0.022587681,-8.981675e-06,0.024290774,0.03114758,-0.0068037882,-0.020469697,0.01154891,-0.008125611,0.03063019,-0.03826078,0.03739829,0.033258367,0.008538872,-0.016467853,0.043637503,-0.032567322,0.03955921,-0.021092953,-0.01204906,0.03763492,0.034639213,-0.042957902,0.04419208,-0.040937882,-0.01242644,-0.012119401,-0.029814411,-0.01082322,-0.0005855188,-0.030891279,0.0052010417,0.0007671267,0.03345881,-0.038227804,-0.016789628,-0.0082642175,0.014800556,0.03690062,0.017802317,0.040619154,-0.043610986,0.03494675,0.018998835,-0.03394397,0.009198129,-0.04297076,0.0024368241,-0.017532315,0.0020506755,0.016324624,0.0038688742,0.021086212,0.035724815,-0.00034439936,0.024437267,-0.019674618,-0.028799089,0.03376549,-0.042403866,-0.034800902,0.001416117,0.036121253,0.033286605,-0.042438608,0.026951697,0.03451133,-0.031239416,-0.039527662,-0.03351485,0.009442337,-0.015227677,-0.010650266,0.03924911,-0.0125255585,-0.030452102,0.030011978,0.008241188,-0.002166111,-0.017568482,-0.04101052,0.00030717254,0.011228822,-0.0013290755,0.029194478,-0.014571156,-0.04350384,-0.033848908,0.040748764,0.018811744,-0.011582971,-0.0064982437,-0.0065770373,-0.022040315,-0.022069221,0.006044533,0.020821173,-0.02541536,-0.030189535,0.021513868,0.032292467,-0.025385262,0.015050981,0.038307864,0.03509074,-0.035424057,0.009295873,0.013756264,0.038071472,0.030953865,0.024794076,-0.015965885,-0.02849709,-0.0036625862,-0.04008794,-0.006314315,-0.012723576,-0.011489589,-0.0333955,0.017258171,-0.04355029,-0.020617638,-0.020809421,-0.016161405,0.02257378,0.0172919,-0.040645033,0.010270406,0.041069735,-0.027584095,-0.013471929,0.041173164,0.034777638,-0.03307889,-0.010866586,0.043866705,0.035373446,-0.0386393,0.006784573,-0.02938896,-0.03377205,-0.03359521,-0.008332558,0.009613838,0.016474228,0.0021338984,-0.03690243,-0.0019358844,0.028557364,0.01173,-0.023160378,-0.016442865,-0.029612511,0.02377567,0.035424527,0.017013256,-0.024665553,-0.031114314,-0.0104216,-0.026438717,-0.021073893,0.010819085,-0.0054006726,0.036172155,-0.022990284,-0.036842987,-0.02739631,0.037698377,0.034252767,0.042908017,-0.021728797,0.037740085,-0.012067221,-0.002307944,0.020401608,0.018120173,-0.007847328,-0.0017272606,0.038759712,-0.038670324,0.014633089,0.0362052,-0.017962059,-0.028584719,0.028727341,0.0312542,-0.016361423,0.018058758,0.0234369,0.022834051,0.021450352,-0.036500283,0.004041426,-0.0080698095,0.024402801,0.03785337,0.043778073,0.035480577,0.03431583,-0.034398872,0.030745868,0.021585625,-0.018068943,-0.025009692,-0.01759298,-0.042401325,0.02009273,-0.0068024844,0.03567062,0.02050605,0.036779713,0.0020568594,0.004077185,0.03756511,-0.03586088,0.004442014,-0.041984268,0.036830116,-0.0056195036,0.035321627,0.035931576,0.0014310107,0.017098706,-0.019128537,-0.027519025,-0.0058461986,0.025706235,0.02313101,0.010041814,-0.041356567,0.01697668,-0.023880709,-0.008608352,-0.0062218346,-0.036339566,0.017286591,-0.01863574,0.016663738,-0.035317358,0.025548864,0.009816371,0.04078986,-0.01737861,-0.03720789,-0.03773429,0.03925113,0.0410986,0.005187623,0.028068464,0.025529932,0.034771893,0.02560867,0.038655702,-0.0024997443,-0.040983777,0.03572197,0.017188817,0.0039147325,0.033518363,-0.03021644,0.008100435,0.04345492,0.022848789,-0.026100041,0.021567192,0.025651682,0.03220391,0.030875113,-0.015190104,-0.0041772537,-0.039362717,0.028382119,-0.017644646,0.008768197,0.021513622,-0.027844938,-0.042005435,-0.038456496,-0.011415273,-0.01205058,0.026894983,0.029193576,-0.008759685,0.02826741,-0.03750876,-0.024984915,-0.0289694,0.018854406,-0.038208563,-0.03240395,0.009015489,-0.005407572,-0.042071454,0.0059972294,0.012414791,0.014083389,-0.03911095,-0.0063191913,0.03325395,0.010090467,0.032823402,0.0333192,0.035553236,0.02361874,-0.000523638,-0.0010179877,-0.013926683,-0.030808061,0.013181489,-0.00069662556,0.009604797,0.007914439,0.0050622635,0.031091679,0.010336082
0.015689824,-0.0028458014,-0.0269223,0.001312878,-0.032833584,-0.009780824,0.022010725,-0.033271745,0.017576084,-0.022426242,-0.034934662,-0.029366408,-0.0005600266,-0.024356136,-0.034928452,0.031247433,0.030983094,-0.04023003,-0.021180272,-0.034776922,-0.03349368,-0.015306413,0.016951822,0.009012919,-0.018408874,-0.015260594,0.0010275729,0.024649981,-0.001122266,-0.043510903,-0.015874732,0.026946332,0.034032498,0.014841158,0.0083839,-0.034460403,0.030970473,-0.016181739,0.011721622,-0.025654338,0.0102868825,-0.02819524,-0.012241282,-0.022076191,-0.03592573,-0.003729768,-0.030185135,-0.027450252,-0.01476814,-0.02055479,-0.038373314,-0.03355748,0.023357902,0.021616768,0.03255822,-0.0076638944,-0.02216615,0.04214527,0.01552682,0.021327894,0.015895627,-0.012585718,-0.019730493,-0.002425626,-5.569309e-05,-0.0027320422,-0.03135149,-0.038748883,-0.030369438,0.026153456,-0.01584808,0.04387323,-0.024126794,-0.011771858,-0.041365433,-0.00880472,0.029868219,0.042857345,-0.012483984,0.027480002,0.035426203,-0.017397655,-0.027251098,0.021003481,-0.03736677,-0.023105424,-0.021292398,-0.0113032535,-0.0075344183,0.0010132268,-0.0037625171,0.015853394,-0.013709385,0.039584596,0.033030774,-0.030208364,0.007877834,0.043332156,-0.03049954,0.016840804,-0.042315014,-0.024484005,0.0028066486,-0.0038813464,-0.012206487,-0.033804033,-0.013362052,-0.03246275,0.04380924,0.0022318698,0.036285784,0.02550425,0.023069981,0.04412319,-0.026850555,-0.03637115,-0.015846977,-0.037626065,0.011476446,0.043272804,-0.005779125,0.011669092,-0.034350034,-0.011530947,-0.012475103,0.016258385,-0.0009772629,-0.037719965,-0.007950973,-0.01935183,0.012777343,-0.0100998245,0.031127457,-0.04349158,-0.025256872,-0.036865484,-0.0023412555,-0.041938215,0.018926967,-0.0041665807,-0.038767837,0.021021683,-0.02147256,0.03794587,-0.023275154,-0.028293617,-0.0399654,0.005732067,0.023572203,-0.014197335,0.007452406,-0.008076396,0.037706185,-0.013397504,-0.013574036,0.030784253,-0.028406907,0.00367596,0.041450184,0.01553598,-0.029281776,0.0031909011,0.00051517785,0.018800478,0.023074161,-0.004844766,-0.020581555,-0.04246937,-0.004726436,0.026234139,0.028614882,0.004757285,-0.019060563,0.011307877,0.022218656,0.036079254,0.008222461,0.035119463,0.025129143,0.020686556,-0.028568966,-0.04028264,-0.011554483,-0.035707906,-0.033277486,-0.024849528,-0.017485647,0.004273083,-0.005434539,-0.014447149,-0.030061923,0.043765876,-0.040749174,-0.026411602,-0.018111892,-0.03509329,-0.0196688,0.009614296,0.04008935,0.003546115,-0.020314943,-0.0030512437,0.017570157,0.03132381,0.017978776,0.031013992,0.0432115,0.0049915835,-0.012110997,0.023910832,-0.022875028,-0.023969844,0.02676649,-0.0057151914,-0.00543255,-0.008306902,-0.02924476,-0.02632243,-0.022520537,0.01633123,0.04028826,0.043050367,0.03160164,-0.013741074,0.0054524653,-0.006534811,0.013213985,-0.04125723,0.011731453,-0.019787144,-0.011735104,0.02909306,0.025760483,-0.020561177,0.021906782,-0.0060088336,-0.009537596,0.009382527,0.006046001,0.0077157244,-0.011691768,0.03089812,-0.03503719,0.017698873,0.01721058,0.041111056,-0.010787033,0.03639025,0.012923125,-0.032674838,0.030588511,0.040466245,-0.0027117282,0.0199566,-0.02372209,0.03889509,0.043577794,-0.021376427,0.033384006,0.007325191,0.039617043,-0.028143283,0.025343772,0.008468438,0.022178356,-0.0068291165,-0.030380486,0.01854166,-0.005492404,-0.0026977994,0.044086445,-0.03229903,0.023004245,-0.017781444,-0.04175964,-0.021736199,-0.0365293,-0.0014624633,0.029186357,0.029420752,0.020376194,-0.023276856,-0.009212643,-0.03723181,-0.026069196,0.025115851,-0.009408031,-0.005137462,-0.03067832,-0.0121613145,-0.016634513,0.038020473,-0.026318515,0.038023066,-0.023758173,0.011343133,-0.016660223,-0.01628777,0.040003065,0.0333197,-0.023989296,-0.015134316,0.017169118,-0.008610215,-0.011574224,0.009977773,-0.0154623035,-0.019705454,0.027890604,0.019424226,-0.031505197,0.038580645,-0.03566499,-0.028791033,-0.041783694,0.011967465,0.023814332,-0.029065715,-0.03033632,-0.010243222,0.039252717,0.039148677,-0.02154697,-0.03975758,-0.025113573,0.0013455972,-0.034729693,0.029946323,0.017076623,0.032887343,-0.0088500045,-0.039434556,0.04075442,-0.015087865,-0.022302136,0.022774879,0.0022365712,-0.025494633,0.024570327,-0.04417787,0.030732352,-0.0071803704,0.0020908825,0.03358597,0.04207394,0.033302885,-0.009547152,-0.019007923,-0.0040937066,0.018065166,0.0052988715,-0.023689147,0.034332376,-0.020387005,0.03503671,-0.033205543,-0.009893104,-0.008481279,0.020531844,0.038084943,0.015583511,0.008512452,-0.014160624,0.02975965,-0.016465092,0.04285102,0.0016282946,0.037136618,0.039961126,0.006676547,-0.035801694,0.017871063,-0.022205831,-0.018952725,0.013443533,0.0034075081,-0.010289073,-0.005998999,0.015804335,0.026446965,0.0100119,0.022069614,-0.043049302,-0.039269812,0.039115343,0.014175538,-0.0021859407,0.008919641,-0.018521238,-0.016219629,-0.03440466,-0.030589782,0.032335322,0.03295279,-0.002619937,-0.03193893,0.025556955,0.017643556,0.01555356,0.0033095926,0.042692926,0.030433904,0.042781536,0.043635126,0.017383814,-0.031879134,-0.018090645,-0.008084599,0.032929715,-0.039965,-0.025058672,-0.032904517,0.020622913,0.03717312,0.016030692,-0.008102093,-0.03138818,-0.0054382086,-0.014777217,-0.0006105937,0.02084538,0.0020587929,0.007982813,0.020547058,-0.027207697,-0.03832231,0.02981979,-0.022536105,-0.008330137,-0.013563747,0.00813669,-0.008917563,-0.00044205785,-0.0072851107,-0.030493371,-0.003546346,0.03252021,0.012213867,0.01597111,0.032439563,-0.043255694,-0.018357992,0.019889768,0.03869592,-0.032886975,0.004927762,-0.01360506,0.04162476,-0.041194916,-0.026847964,0.031236533,0.034978125,0.017980866,-0.0038764924,0.014879309,-0.0069687925,0.025118511,-0.028394036,0.02337544,-0.04006744,-0.013772251,0.022312898,-0.007506579,0.00052806735,-0.0025909655,0.0032267906,-0.012112763,0.03757854,-0.034093466,0.028727543,0.009239364,-0.04367296,-0.026838928,-0.022358092,0.033323977,0.0054752566,-0.013713684,0.0022508316,0.010915287,0.035895202,0.0067948923,-0.0245321,-0.01594214,-0.028204544,-0.0015269704,0.016202148,0.015676048,-0.032747522,0.0043997318,0.034723263,0.036097404,0.031844396,-0.0113592595,-0.021876616,0.010914773,0.042487834,-0.03300398,0.004094243,-0.00013316795,-0.0034364127,-0.012277193,-0.02105854,0.04300664,0.012595981,0.0055281036,-0.018066188,-0.017257722,0.012794003,-0.020575654,0.013700843,-0.0199496,-0.019488612
0.0015349761,0.04126494,0.043441255,-0.030184055,0.032699455,0.038475465,-0.022976344,-0.03622429,0.032253068,-0.032154005,-0.02966782,-0.03960574,-0.010050576,0.02517208,-0.035830803,-0.0029113777,-0.012321893,-0.00413841,0.0019739121,-0.030725505,0.007431533,-0.009627968,0.03210708,-0.031268746,0.032788556,0.033900287,0.031164307,-0.030283,0.027972247,-0.023480447,-0.016440753,0.015105683,-0.034697976,0.011498138,-0.008325864,-0.034393795,-0.023055268,0.03465761,-0.03377614,-0.027861854,0.043007765,-0.01711075,-0.038159978,-0.024762932,-0.019610032,-0.01931639,0.041169744,-0.03105965,0.03723931,-0.0120133385,0.0035416,0.018258005,-0.0086081885,-0.00042383373,-0.0013030842,0.008153535,-0.027970372,-0.03306604,0.022838045,0.041292164,0.01924846,0.0032680444,0.008775752,0.0075819716,0.002562996,0.014405325,-0.02921179,0.038280744,-0.041077815,0.018196627,0.023558643,-0.014843566,0.0146197155,0.043626364,-0.003821835,-0.0003656596,-0.028096685,0.030248705,-0.023637433,-0.026509408,0.008343015,0.025876414,0.016826756,-0.013716027,-0.037526883,-0.030520966,-0.03019683,-0.0020739473,-0.024441589,-0.01164991,-0.03661432,-0.014236247,-0.013677184,-0.022503255,-0.023736104,0.018166978,-0.041455366,0.021720108,0.012199104,-0.036740333,-0.038062565,0.019040588,-0.03862867,0.028145347,0.020245183,0.022978265,0.022270251,0.0009057261,0.031642023,-0.027432013,-0.02075798,-0.0028310306,0.03968807,-0.020964427,0.0227102,-0.043118626,0.030605648,0.0028292723,-0.008252617,-0.022075802,0.021745738,0.030297492,0.019179177,0.010408863,0.03958181,0.018119361,0.036262218,0.009159051,0.009874158,0.03239164,-0.027620852,0.027904231,-0.038881727,0.00833996,-0.010556415,0.02607527,-0.042907216,-0.030591652,-0.009898815,-0.004331205,0.0015583485,-0.021548167,0.040459286,0.02722102,0.0209301,-0.029406667,-0.023731673,0.04183763,0.011123437,-0.040813357,-0.011416633,0.009622145,0.0005065799,-0.027946359,-0.038300775,0.040949997,-0.035569362,0.009632599,-0.041967478,0.033310976,0.029670399,-0.0013791993,-0.012164772,-0.03241392,-0.010562021,0.009171851,0.007655248,-0.02302173,0.034662876,-0.030811623,0.019651268,-0.005067233,0.040405367,-0.010745533,0.007304769,0.013760209,0.0047918446,0.021474231,-0.01940688,-0.036114104,-0.013011163,0.030424643,-0.032573707,0.0438564,0.029226158,-0.0335332,-0.0057016984,-0.03664618,0.0294982,0.024477717,-0.027479377,0.036264677,-0.02333946,-0.02984256,-0.019945132,0.040093098,-0.010209721,-0.022038033,0.03508364,0.010631364,0.004693061,-0.00024072081,0.016852949,-0.041965652,-0.028348265,0.003734868,0.037416738,-0.04372051,-0.03006861,-0.037543338,-0.028655741,0.016930569,0.029204477,-0.0077154487,-0.0011952892,-0.03350299,0.038188253,-0.021871537,-0.010851089,-0.005861804,0.010204531,0.029321495,-0.010254253,-0.02430093,0.044110212,-0.021182964,0.028026517,0.0038571171,-0.011011761,0.0042957105,-0.04040474,0.032905255,0.019634496,0.041721452,-0.043795176,-0.026414193,0.0035018027,-0.030058332,-0.0026825108,0.03299581,0.035113785,0.029526379,0.016042419,-0.028126283,-0.009999491,0.010273911,0.008158397,-0.01034151,0.037593763,0.010572206,-0.00956412,0.041850675,-0.025173306,-0.043358993,-0.0057532825,0.018329445,0.0256234,-0.0118783675,0.0022686794,-0.0051855966,0.0060233995,-0.040069774,-0.032036904,-0.015310505,-0.020721082,0.0047425106,0.0109439045,0.01058311,0.00080551207,-0.027844252,-0.026427865,-0.03285057,0.04180901,-0.014448224,-0.026002366,-0.035284214,-0.0424721,-0.014644349,0.0013232268,-0.032974925,0.038164575,0.03274655,-0.022284513,0.007973079,0.028448362,0.035299014,-0.043779533,0.011095259,0.0090830475,0.032705467,0.0011353903,-0.0080946125,-0.0406271,-0.029815137,-0.022821708,0.022997063,0.022899348,-0.038727053,0.03303734,-0.02940671,0.001731392,-0.0032900497,-0.003636025,0.023395937,-0.042997196,0.031663846,-0.028178196,0.038966533,-0.02772252,0.025084723,0.035019245,-0.038512535,-0.04402673,0.03672317,0.008280981,0.022287186,-0.01085775,-0.025140457,-0.0088175945,-0.040012896,0.035387155,-0.008561041,0.014375567,0.010097705,-0.019729286,-0.003413152,-0.011497997,-0.029636558,-0.023497257,-0.017956506,0.026386317,-0.009515084,-0.02971533,-0.015626486,0.03753,0.015146565,-0.022745859,0.01578487,-0.035428524,-0.029077731,0.02399848,0.030436281,0.016557101,-0.02434756,0.031326342,0.009079099,0.011385422,-0.03455115,-0.013482645,0.009874299,-0.0016229078,-0.039508656,-0.000568673,0.029565785,0.03156474,-0.015595835,-0.0059084073,-0.02027195,-0.022353824,0.022081051,0.0397914,0.008209921,-0.03535656,0.030165646,-0.03184004,0.02219477,0.013952538,0.015057847,-0.025396053,0.036515933,0.0151518695,0.010773756,-0.016180228,-0.037762955,-0.017370312,-0.023330862,0.04114611,-0.012170598,0.018144,0.015230596,-0.0032137148,-0.023329481,-0.03284253,0.005252771,-0.044022303,0.017920997,-0.009830188,-0.013836373,0.041386332,0.01228755,-0.014991671,0.029638689,0.037969578,0.005680699,0.0040072016,-0.011075232,0.015415877,-0.0006000772,-0.014645182,0.021295626,0.030570086,-0.0031890422,-0.021908874,0.012946311,0.025518503,-0.034210075,-0.020777574,0.01938695,-0.017688822,-0.040363155,-0.025038557,0.032261465,0.014858987,-0.009484101,0.009115327,-0.0010657422,-0.041399665,-0.025002358,0.0069372877,-0.029322952,0.028537143,0.019632678,-0.040869676,0.027346868,-0.026486691,0.0011194311,-0.028494198,-0.031828288,-0.013394225,-0.023076374,0.017197426,-0.04139791,0.009059001,0.007995214,0.034113023,0.014636982,-0.03263852,-0.012180038,-0.028687531,0.01796446,0.020764265,0.018172108,0.0062152147,-0.002292484,0.01766054,0.023768608,0.0017662123,-0.006445974,0.0076027997,-0.02802376,-0.007900316,0.017895948,-0.04210134,0.01763647,0.006524015,-0.015748402,0.031728778,0.034383055,-0.004434224,0.039963786,0.031847004,-0.022526516,0.0011815131,0.023234878,0.0230637,-0.015880395,-0.025547264,-0.004591193,-0.033154845,-0.04185118,-0.007912517,0.018686939,-0.003954213,-0.02544274,-0.016431607,0.012196325,-0.03623797,0.03333443,-0.009762816,-0.023413107,-0.0054212175,-0.0058725215,0.023650412,-0.011725258,0.03464107,0.016963027,-0.01362331,-0.036378972,0.0025190786,-0.027930932,-0.0253752,0.042539965,0.030008245,-0.020532122,-0.0137915965,-0.02877792,-0.0009534098,-0.017745677,0.00976336,0.0029893331,0.0032346062,0.03636081,-0.030826785,-0.030837726,-0.013263719,0.02069163,0.03422739,-0.030143004,0.014361855,-0.030111425,-0.0015010126,-0.004215136
