0,1,2,3,4,5,6,7,8,9,10,11,12,13,14,15,16,17,18,19,20,21,22,23,24,25,26,27,28,29,30,31,32,33,34,35,36,37,38,39,40,41,42,43,44,45,46,47,48,49,50,51,52,53,54,55,56,57,58,59,60,61,62,63,64,65,66,67,68,69,70,71,72,73,74,75,76,77,78,79,80,81,82,83,84,85,86,87,88,89,90,91,92,93,94,95,96,97,98,99,100,101,102,103,104,105,106,107,108,109,110,111,112,113,114,115,116,117,118,119,120,121,122,123,124,125,126,127,128,129,130,131,132,133,134,135,136,137,138,139,140,141,142,143,144,145,146,147,148,149,150,151,152,153,154,155,156,157,158,159,160,161,162,163,164,165,166,167,168,169,170,171,172,173,174,175,176,177,178,179,180,181,182,183,184,185,186,187,188,189,190,191,192,193,194,195,196,197,198,199,200,201,202,203,204,205,206,207,208,209,210,211,212,213,214,215,216,217,218,219,220,221,222,223,224,225,226,227,228,229,230,231,232,233,234,235,236,237,238,239,240,241,242,243,244,245,246,247,248,249,250,251,252,253,254,255,256,257,258,259,260,261,262,263,264,265,266,267,268,269,270,271,272,273,274,275,276,277,278,279,280,281,282,283,284,285,286,287,288,289,290,291,292,293,294,295,296,297,298,299,300,301,302,303,304,305,306,307,308,309,310,311,312,313,314,315,316,317,318,319,320,321,322,323,324,325,326,327,328,329,330,331,332,333,334,335,336,337,338,339,340,341,342,343,344,345,346,347,348,349,350,351,352,353,354,355,356,357,358,359,360,361,362,363,364,365,366,367,368,369,370,371,372,373,374,375,376,377,378,379,380,381,382,383,384,385,386,387,388,389,390,391,392,393,394,395,396,397,398,399,400,401,402,403,404,405,406,407,408,409,410,411,412,413,414,415,416,417,418,419,420,421,422,423,424,425,426,427,428,429,430,431,432,433,434,435,436,437,438,439,440,441,442,443,444,445,446,447,448,449,450,451,452,453,454,455,456,457,458,459,460,461,462,463,464,465,466,467,468,469,470,471,472,473,474,475,476,477,478,479,480,481,482,483,484,485,486,487,488,489,490,491,492,493,494,495,496,497,498,499,500,501,502,503,504,505,506,507,508,509,510,511
0.009860093,0.00095737807,0.02366196,0.027559947,0.0039309645,0.011065384,0.02311829,-0.047253035,-0.033955153,0.016643962,0.065754905,-0.014226714,-0.025155226,0.044561423,0.06270601,0.011318544,0.054406635,-0.07731576,-0.011086115,0.057762068,0.09832434,-0.0047536856,-0.0056219203,0.12157923,0.0074884933,-0.0070986743,-0.07145775,0.021602897,0.07516894,0.02254943,-0.08809773,-0.03611703,0.074985616,0.15552592,0.040714767,0.024574794,-0.029916894,-0.08105169,0.022842396,-0.04337715,0.006803467,0.12607323,-0.028969454,0.11174847,0.14646322,0.003417084,-0.07074403,0.040909175,-0.023997232,0.03819464,0.078195505,0.042215206,-0.021042073,-0.04119421,0.028511187,-0.07747167,0.03820862,-0.02184283,0.021959824,0.007960233,0.015946088,-0.06634816,-0.036728922,0.01236649,-0.037448823,0.11990844,-0.043659873,0.033264328,-0.066634685,-0.025283469,-0.042617403,-0.014137039,-0.014062576,0.043328874,-0.0015285094,-0.014028435,0.03492593,0.06614931,-0.017130772,0.03830494,-0.0321715,0.06676336,-0.07411733,-0.043151766,0.06817211,-0.07314454,-0.032261662,0.025160642,0.010674673,-0.025043081,-0.013071469,0.0016228452,-0.03225993,-0.025097309,0.018845242,-0.08740336,-0.016607009,0.024331745,-0.03094277,-0.05394337,0.07730211,0.028629059,0.08503811,0.033163328,0.025524033,-0.018967118,-0.004049925,-0.08137429,-0.0043079136,0.0024859477,0.043291513,-0.04761619,-0.044965643,0.03926281,-0.042882074,0.0630254,0.031849135,-0.0005175565,0.03894598,0.07122989,-0.0026233874,-0.036312487,0.039159887,0.07653819,-0.005901074,-0.06780673,-0.017034959,-0.116287895,0.04283704,0.08371008,-0.008768169,-0.00475679,0.027805522,0.017861383,-0.077012934,0.04038237,-0.07212587,0.0069886935,0.058770724,0.017486779,0.06520917,-0.016826924,-0.033635527,-0.017211825,-0.039930586,-0.018428579,-0.0037118632,-0.0053694136,-0.05464998,0.00809155,0.07443373,-0.0053763823,0.06779349,0.116107956,-0.038819954,0.026859576,-0.10198851,-0.058883168,-0.007256186,0.04012595,0.08344469,-0.06736127,0.058471635,0.051509857,-0.09944985,0.039265104,-0.03531609,-0.022785302,-0.026196394,0.027365273,0.012623047,-0.09865061,-0.0026356014,-0.039428335,-0.0146271,0.003010069,0.050562065,0.01263454,-0.06552523,0.08694765,-0.07242378,-0.0075082425,0.03528847,0.113277264,-0.029631112,0.016200805,-0.057072394,0.037190307,0.03421766,0.026707465,0.031039204,0.085292496,0.09448691,-0.12980688,0.03256099,0.0011956078,0.0029178984,0.032244876,0.03679319,0.06316675,-0.019042155,0.037364274,-0.028075574,-0.045217015,0.084144935,-0.07097502,-0.10066882,0.026610255,-0.06503118,0.008753636,-0.110144116,0.001242731,0.027768414,-0.003333438,-0.08705734,0.09127956,-0.025439458,6.975387e-05,0.010791917,0.0049968627,-0.05149421,-0.006290135,0.16051097,-0.032636624,-0.031548366,-0.0051143076,-0.054248404,0.0060656164,0.04334178,-0.022717915,0.0005716666,0.027074158,-0.060797453,-0.04028039,0.062298037,-0.009866904,-0.020001678,-0.010703661,-0.043503117,-0.046518985,-0.038096905,0.068365276,-0.051566917,-0.061871912,0.02893861,-0.027807087,-0.052276783,-0.011945826,-0.030037288,-0.025933377,-0.08407179,-0.02246957,-0.0049541024,0.075095385,-0.019408686,-0.03538698,-0.059499197,-0.113086306,-0.07850753,-0.066060506,-0.015280034,0.04626005,-0.043424502,0.024364289,0.021871554,0.14412718,0.037302285,-0.13271812,-0.030261263,-0.026335979,0.065270446,0.067354105,-0.108857416,0.030511433,0.020395782,-0.05613801,-0.042183667,-0.0021075713,-0.010204065,0.018075533,0.053754337,0.0047970787,0.14449452,-0.03321827,-0.117549926,-0.089294955,0.02640139,0.09028315,0.0040093553,-0.058924824,0.118684255,-0.095901534,-0.021722632,0.052065566,0.001519355,-0.042275462,0.11418352,-0.0523463,-0.063707866,0.0005809005,-0.022009647,-0.0780351,0.041722976,-0.031023124,-0.082583725,0.029173773,0.0884239,0.03546456,-0.041903682,0.0013192584,-0.041445144,0.022505201,0.07697501,0.04444273,0.08213443,-0.031473752,0.012021997,-0.048074387,-0.03255269,-0.0007297964,0.03806094,-0.091389515,-0.10875904,0.048503827,0.026505375,-0.08957979,-0.014529157,0.06208543,-0.016580455,0.052366104,-0.0669756,0.01157391,0.01555683,0.06087533,-0.043810613,0.016956383,0.0036017024,-0.033143636,0.022603903,0.014440503,-0.13737567,0.029562742,0.017992236,-0.027318262,-0.09149759,0.09409381,-0.012454191,0.026999926,0.02533649,0.027637377,-0.0068090367,0.0410591,-0.032979183,0.0128600905,0.00054704293,0.06526406,0.10549042,0.04499516,0.007871472,-0.020410962,0.08321882,-0.03695635,-0.013419021,-0.01480066,-0.004595808,0.0069836434,-0.09609857,-0.033654384,0.071335495,-0.0145450095,-0.008667687,0.0057792296,-0.047589716,0.046702515,-0.02877363,-0.047467615,0.028936036,0.036316786,0.027478164,0.018308012,0.08917125,-0.0019313124,0.063591436,0.008643814,0.020033415,0.00023263438,0.059836097,0.030552026,0.03618878,-0.07407231,-0.04238548,-0.06832383,0.04246603,0.03417633,-0.045272853,0.059920665,0.002897064,0.03461432,0.0050078137,0.011798291,-0.030547936,0.041820798,-0.058026742,0.029152501,-0.016573278,-0.064334415,0.0044919015,0.048736576,-0.0048660743,-0.10025214,-0.13532884,0.04356158,0.07487925,0.013735516,0.036474764,-0.030904591,0.029015671,0.0045043775,-0.055342153,0.025069484,-0.0004729283,-0.03699623,0.034264952,0.0043193,-0.021764454,-0.04153113,0.058432702,-0.04182971,0.16084777,-0.03423832,-0.087424226,-0.05864224,-0.0070368918,0.029267285,-0.0649245,0.025808161,-0.0016591212,0.0075304694,0.0019432361,0.04436338,-0.07889467,0.023098655,-0.006364901,0.026338886,-0.058981374,0.0047373264,-0.0270362,-0.0017578985,0.04296151,-0.034973342,-0.10048714,0.1081735,-0.013719831,0.048087984,-0.03483178,-0.025850924,0.02455105,-0.02782628,0.01042742,-0.0077488567,0.019998962,0.00030715912,-0.11423657,-0.07395947,-0.008454985,-0.008829636,0.05601788,0.009754299,0.04641109,0.09314579,-0.04176458,-0.03740395,-0.06318152,0.035985246,0.08074541,-0.029711796,0.007723004,-0.055791367,0.006216733,0.102010824,-0.07427135,0.11284403,-0.0137857525,-0.022260549,0.08890254,-0.03172703,0.036678758,-0.056317586,0.01910264,-0.042357598,0.02868847,0.06281217,-0.01345166,-0.09130832,0.04006331,-0.006892965,-0.038811162,0.036764577,-0.0056815795,-0.040381067,-0.022555724,-0.097503,0.029773386,0.039511833,0.07146204,0.018796738,-0.04832304,-0.13538584,-0.027744371,0.08536909,0.078865975,0.015276991
0.06246485,-0.016324887,-0.105134055,-0.077211164,0.004468156,-0.029053079,-0.026256936,-0.09577195,-0.020286752,0.021602223,-0.030223051,-0.148619,-0.03464123,0.035687175,0.06301243,0.003725901,-0.11961503,0.016097836,0.040368956,0.036681425,0.10538024,-0.012533647,0.005475679,0.028372899,-0.070182964,0.12272138,0.0058580856,-0.012329989,0.027642906,0.054050494,-0.075630166,-0.016869571,0.017688047,0.03021779,0.048602283,0.14035134,0.029683802,-0.11580051,0.09550978,-0.041127253,-0.06474861,0.024445267,0.039529998,0.045805857,-0.087033585,-0.11946436,0.045124017,0.040315088,0.092837416,-0.0042173904,0.046564247,-0.032630328,0.01873972,-0.016006215,-0.034040604,0.10360646,0.032004558,-0.01862416,0.019633217,0.024934005,0.095245905,0.10338941,0.052405316,0.040615257,0.026292423,-0.0829052,0.009135031,0.023894724,0.029466083,-0.029986262,-0.034332413,-0.07799492,0.0016318895,1.17088675e-05,0.094666965,-0.1260428,-0.011449137,0.08557476,0.029786034,-0.0011150476,-0.048713222,-0.12509085,-0.018759374,-0.030627947,0.14455608,-0.04151441,-0.039541397,0.023821961,-0.0007452469,0.00047684432,-0.00479566,-0.038197167,0.08016251,0.056808073,-0.042651318,-0.005773436,-0.017999835,-0.0658923,-0.07863649,0.03332596,0.07209408,0.041490357,0.10962659,-0.016007405,-0.033566155,0.07771914,-0.016053945,-0.010552613,0.024764417,0.023698123,-0.020410428,-0.028378274,-0.00022175607,0.00096706615,-0.16941075,-0.00042208197,-0.11593697,-0.03221541,-0.0921458,-0.059639424,0.029907925,0.011199695,-0.039919734,-0.14681369,-0.0070874617,-0.04443406,-0.03127254,0.13847676,-0.0248013,-0.004089883,0.16112418,-0.015547196,0.07233116,0.02658715,0.024107413,0.038173508,0.101079196,0.025298461,0.002892904,0.007498934,0.07441817,-0.057301078,-0.00505754,-0.025958436,-0.027643891,-0.013480211,-0.07823021,0.004603408,0.016931333,-0.012663645,-0.062208775,-0.0032628558,0.04748037,-0.12378078,0.077511586,-0.027043343,0.12859988,0.06971632,-0.07418924,-0.046857458,0.11348806,-0.0021198578,0.010323726,0.034546945,0.110821195,0.022060396,-0.0151831675,-0.026768642,0.04056601,-0.09052099,0.011961797,0.03419929,-0.055903528,-0.012553728,0.014793381,-0.041467417,0.0035590224,0.040414676,-0.15961422,0.009635687,0.03105616,-0.0537685,0.04152551,-0.028100975,-0.009835707,-0.0034684567,-0.031743854,0.006138727,-0.02216805,0.009773765,-0.0101774065,0.04804304,-0.00085476623,-0.027553998,0.15183118,0.02807313,-0.04594597,0.038449895,0.004174611,-0.051985323,0.012914158,-0.06686713,5.0973038e-05,0.13279687,0.013558099,-0.1274195,-0.056014635,0.05973016,0.087976895,-0.14285076,-0.060003266,-0.097068556,0.010280579,0.05119409,-0.053886004,0.046606112,-0.026357371,0.019962389,-0.11464274,-0.025056401,0.07019718,-0.062830664,0.0027729203,0.005113996,-0.05040537,-0.021827837,0.00579149,0.10092288,0.052731093,-0.019558476,0.062987275,0.009942979,0.10905619,-0.12766863,-0.08085225,-0.0064989724,-0.0012841607,0.024159333,0.0035051014,-0.11635623,-0.026765732,0.07108487,0.08037809,-0.0123216985,-0.008797619,-0.027856527,0.011051036,-0.013946051,-0.0066743586,0.049908068,0.00267857,-0.010605859,0.0667676,0.09128511,-0.015891314,-0.08265063,-0.026095198,0.14804998,-0.09457938,-0.015979951,-0.13112073,0.023427578,-0.044232138,0.07392033,-0.016534144,0.014380662,-0.017750295,0.10280066,0.021515151,0.08347089,0.11969942,-0.010859343,-0.15576766,0.06361943,-0.03131612,0.087773494,-0.02445977,-0.03836576,0.03713197,0.0030569378,-0.019447528,0.02856693,-0.029998813,0.015708216,0.0030207506,0.06314718,-0.018101424,0.063749865,-0.0028425984,-0.08998626,0.07446371,-0.091128886,-0.0134857055,0.012444627,0.027373705,0.13398236,-0.004545628,-0.02232338,-0.02109112,-0.01965396,0.02455998,0.1689618,-0.019449348,0.046918545,0.014839194,0.024452237,0.14303891,-0.015537471,-0.010680058,-0.007836196,-0.0061288215,-0.01861487,0.10281483,-0.10309182,-0.029935613,0.026577014,-0.03585673,0.039637927,-0.07541598,0.03669792,-0.041222792,-0.010667425,0.08590321,-0.015017344,0.012226499,-0.025856052,0.06293481,-0.03956495,-0.03435029,-0.038862687,-0.05141979,-0.043400344,-0.017251477,-0.027848732,0.018421931,0.011190273,-0.0071149594,-0.07219464,-0.041945912,-0.011492038,-0.007935838,-0.05168091,-0.0156036485,-0.08548903,-0.03453774,-0.032745034,0.1348325,-0.05473207,0.03400808,-0.055724084,-0.030400816,0.008895645,-0.11614095,-0.027528834,-0.033452038,0.038139123,0.025462952,0.0072264504,0.16327426,0.0069548218,-0.01847742,-0.0095713725,0.008349236,-0.039515287,0.028458944,-0.052787066,-0.088380426,-0.07136959,0.05256517,-0.09294871,-0.028880604,-0.043258425,0.043364823,-0.061985306,0.06388098,-0.079929724,-0.03174978,-0.104075536,0.12442988,-0.009359058,-0.010346443,-0.0381855,0.02314799,-0.045153327,-0.004993903,-0.142692,-0.0034924066,0.005657509,-0.0022163102,0.07245978,-0.04181171,-0.070974216,0.089654714,0.031056877,-0.043900672,0.012496878,-0.027814684,0.03729052,-0.026337381,0.026158402,-0.011419144,0.09321008,-0.026565945,-0.08468293,-0.09615258,-0.009589903,-0.04883423,-0.039901827,0.022007266,0.12995027,0.021232417,0.08402647,0.057794236,0.014027827,-0.04891885,0.08562359,0.01930792,0.031920332,0.059724085,0.021115694,-0.018900383,0.044561915,3.417199e-05,-0.014876086,0.024143925,0.06024053,-0.035671387,-0.031838823,0.13916938,0.020259889,0.0068213153,-0.090109244,0.06327382,0.043095715,-0.08063129,0.009666355,-0.013495275,0.007806639,0.015512899,0.003749899,-0.007152656,0.069096215,0.0015005748,0.03601831,-0.023205059,-0.015557375,0.007947407,0.0093239285,0.05256691,0.02655699,-0.030609572,0.034558773,-0.036022272,0.1385625,-0.014258185,-0.038653105,-0.033378936,0.04232035,-0.043604728,0.028266232,0.009870066,0.027373072,-0.034035392,0.11764282,-0.005625995,-0.030606579,0.080021285,-0.03527978,0.091033906,-0.0904308,-0.111030415,0.029891593,0.08260225,0.03016241,0.07583525,-0.0021303415,0.039692562,-0.08007979,-0.015813017,-0.097006276,0.108822934,0.060294338,-0.118546195,-0.0043850043,-0.0027295877,-0.093094476,-0.04283896,-0.04283002,0.02647352,0.062651,0.12620889,-0.030769773,-0.0391601,0.076067984,-0.037428353,-0.032212384,-0.017186418,0.0047403164,0.09369323,0.0065723443,-0.12573671,-0.04011576,0.07430838,0.07351177,-0.07636622,-0.017466953,0.015548296,0.09646561,-0.0654154,-0.014894136,-0.09334729,-0.042707875
-0.058408245,0.026247082,0.06289076,0.045649793,0.10874532,-0.032680824,-0.02057419,-0.032593966,0.011102044,0.10956845,0.023643075,-0.006644719,-0.017654676,-0.03461662,-0.059687953,-0.033296894,0.018504707,-0.116982974,-0.0320565,0.08428024,-0.13897143,-0.0867181,0.041299496,-0.064645596,0.011775189,0.003422919,0.033634905,-0.018763456,0.030095818,0.01089242,-0.08543933,-0.050293133,-0.016779726,0.038616035,0.0653731,0.09994294,-0.040372983,0.022944713,-0.046974525,0.020018661,0.09594835,-0.010391623,-0.004701032,-0.024991082,0.013039962,0.07354623,0.038427565,0.02890007,-0.014385744,0.11070345,0.08090055,0.03833582,-0.077585146,-0.068301834,-0.06699434,0.0059566014,0.009698277,-0.0050375042,-0.023122374,-0.0057538534,-0.0540939,-0.03410435,-0.1108423,0.00952061,0.0686801,-0.082634434,0.083400294,0.018590705,0.043575488,0.037652064,-0.052917093,0.050690055,-0.02182261,-0.018224837,-0.032722168,-0.002744037,-0.031305794,-0.06612499,0.016129179,-0.079011895,0.04674803,0.049211834,0.014924233,0.015798666,0.023527816,0.03401171,-0.026135532,-0.02849599,-0.035135124,-0.06910421,0.03902878,-0.03438266,0.04114083,-0.06298646,-0.002286353,0.08922748,-0.030513976,-0.004177995,-0.049367562,0.016475083,0.023628926,-0.002432959,-0.05931059,0.009055333,-0.060508814,0.009858791,-0.09673421,0.05608132,-0.033922188,0.013717665,0.015288527,0.0452045,-0.12574367,-0.0281245,-0.04640838,0.050077148,-0.06482949,0.0488573,-0.010351036,-0.016697343,-0.09061952,0.039049964,-0.007561853,0.062025197,0.0136227645,-0.08530977,-0.09058462,0.10289864,0.024926621,0.0026040724,0.07232898,-0.05301774,-0.023993466,0.053264152,0.09794445,0.058806546,-0.016494896,0.02299897,0.07899177,0.043066926,-0.05914389,-0.023715943,0.015118181,0.08287483,-0.047690652,0.006970811,0.104129754,-0.0020426516,-0.084833756,-0.01223472,-0.005683921,0.008154894,0.005124696,0.0049261563,0.06516085,-0.016439449,-0.039696712,0.027887609,-0.057237454,0.111732155,-0.021113355,0.03568677,0.09312326,-0.05845522,0.04174067,-0.029549126,0.013808516,0.11786086,0.007620424,0.079791345,0.0119043235,0.11180068,-0.024527486,0.07983532,0.017494695,-0.041202594,0.063945144,-0.0074604405,-0.06433503,-0.05027873,0.028103415,0.048588105,0.028857755,-0.049309954,-0.07195945,-0.011853894,0.012406681,0.0381965,0.044002537,-0.06365337,0.013773995,-0.07054865,-0.027958598,0.03349773,0.019227527,-0.035277147,-0.026430683,-0.031413123,0.025959985,0.008963437,-0.06752148,-0.028842798,-0.010370462,-0.035741046,0.013283326,-0.02524779,-0.07120967,-0.08071158,0.055584088,-0.11125675,0.06981836,0.009356907,-0.03907273,0.025117014,-0.080108,0.11053606,0.074696705,-0.040181503,-0.084926955,0.044055674,0.089249335,-0.0725652,-0.039985478,-0.013670147,-0.07338214,0.03872925,0.025416996,0.07010541,0.026852988,-0.00235794,0.035520256,-0.007971361,0.047888786,0.07172041,-0.08414231,0.0043411925,0.11666429,0.015965063,-0.03769083,-0.054418165,0.025625043,0.0072668744,0.031872585,0.03414293,-0.012498306,0.004344207,-0.01369891,-0.015009725,-0.016285717,-0.07233874,-0.03409966,0.03217886,0.05915621,0.033516087,0.027250888,-0.08019533,0.03761648,0.04280167,-0.05250566,0.022766398,0.0071420106,-0.04876838,0.065915726,0.022307068,-0.034272518,0.021946218,0.05893055,-0.08982426,0.005005227,-0.04615832,0.10518536,-0.0056135235,0.034128968,0.075009346,0.014410125,-0.022816166,-0.009509916,-0.031866707,0.10071939,-0.042700283,-0.00074022805,-0.05862233,-0.074530445,-0.010932239,-0.018905755,0.0068532536,0.029853882,-0.010375503,-0.046608053,-0.09364211,0.010246919,0.058761936,0.026357362,0.07056268,-0.040223744,-0.048072293,-0.015987001,0.015806952,0.069273464,-0.03459236,0.037939973,-0.08827154,-0.03613514,0.061705984,0.055716746,-0.0005106244,-0.0059470157,-0.06361492,-0.0117779635,-0.01125034,0.017883785,-0.033683255,0.10676348,0.012385378,0.1006436,-0.03396791,-0.09292945,-0.056943636,-0.03731106,-0.043462485,0.014503955,-0.033791803,-0.020982044,-0.022952326,0.030317144,-0.004845085,0.026550315,0.014527101,-0.01450414,-0.0047384775,-0.119463615,-0.01261744,0.009398133,0.000163444,-0.038572256,-0.013882786,0.03831473,0.04272401,0.12688316,0.056480102,-0.01630219,-0.055689987,-0.07402918,0.015220571,-0.014225459,0.028935565,0.038368188,0.119298615,-0.0012026406,-0.06373865,0.016806759,-0.002381217,0.057776503,-0.044105243,-0.011254323,0.06272309,-0.02340097,-0.13795844,0.014573928,0.024216708,0.0045120576,0.030227121,-0.02504168,-0.008393452,0.041141745,-0.067018144,0.035505723,0.028828856,0.038773723,0.0181348,0.0706047,0.078603424,-0.011153255,-0.064148426,0.05354063,0.043095663,-0.019549284,-0.014488582,0.017089086,0.03150023,0.029392509,0.010965137,0.08023498,0.0066935453,0.0034630452,0.063473314,0.05481666,-0.00852866,0.015864182,-0.07670635,-0.01773865,0.07132406,-0.12781595,0.04780312,0.039570805,0.06958905,-0.018389978,-0.026190953,0.033415895,-0.004582569,-0.030068,-0.037036307,-0.07932335,-0.05731161,-0.1310034,0.046073597,-0.08985546,-0.08296099,-0.05823168,-0.07281325,0.07421573,-0.0019130061,-0.032404438,-0.03034292,0.075756945,-0.0282987,-0.029436465,0.051297653,0.0012732717,0.010520161,-0.012539298,-0.003235113,0.021924092,-0.08309426,-0.031153401,0.018096602,-0.004551132,-0.02194167,-0.046300862,0.036076713,-0.08738956,-0.028645296,0.010821139,0.042277668,0.022176556,-0.06000981,0.00010796323,0.058059208,0.04061987,0.020140143,0.017042965,-0.04912898,-0.00080256525,0.0021027394,0.021990987,-0.0060480945,-0.0030440327,-0.109438434,0.10346868,0.015263336,-0.06953022,0.07723577,-0.03904604,-0.060836148,-0.021148002,-0.031062793,-0.038532555,0.020744268,-0.024129085,-0.023516871,-0.031793777,-0.062828496,0.020259771,0.07354154,-0.054336015,0.060686562,-0.035954546,-0.037257146,0.06420152,0.062065028,-0.0069155316,-0.047903817,-0.029374389,-0.0122418655,-0.07740551,-0.029853133,-0.019383514,0.004592015,0.08186489,-0.07001292,-0.03144161,0.11903755,-0.108586125,0.014612472,0.0022069258,-0.046479765,-0.05052165,0.14030726,0.00094179896,0.015501584,-0.049818,0.05087377,-0.044571124,0.008022912,-0.03748141,0.0396744,-0.022862209,-0.017220289,0.02228394,-0.004133262,0.028077152,0.046468068,-0.08973045,-0.12032692,-0.07785648,-0.04116768,0.023137074,0.03860957,-0.05429958,0.117350616,-0.099543855,-0.043628417
-0.06488862,-0.002242959,-0.061561108,0.13442633,-0.01601326,-0.0055389144,0.011154691,-0.035262585,0.030760825,-0.04872469,-0.043135848,0.12647903,0.022339873,0.033269595,0.008683514,-0.048511084,0.0398843,-0.0022037155,-0.034022864,0.011238511,0.0051244018,0.026763901,-0.015926704,-0.027029108,0.019112706,-0.08804272,-0.01724559,-0.014767086,-0.07286239,-0.069007725,0.015140379,-0.06229451,0.027312694,-0.016337799,0.086231224,-0.027615549,0.01471973,0.0064325305,-0.09359147,0.068813235,-0.112024345,0.014607168,-0.055464003,0.06951356,0.065459035,0.010513204,-0.023528606,0.041775446,-0.08134902,0.08529454,0.075919285,0.033805158,-0.02462223,-0.0370537,-0.033796526,0.0005259278,-0.036323074,0.01116392,0.021583296,-0.023065174,-0.013859653,0.003792844,-0.015251337,0.03991508,0.059792936,-0.04258384,-0.045798615,0.09395195,-0.0075794947,0.0063749417,-0.06731099,-0.026978957,0.028553301,0.03376635,-0.021079956,0.09325623,-0.044970497,-0.090675615,-0.0074307183,0.050234687,0.00167786,0.033494588,0.01475768,0.0016195925,0.041377038,0.015290668,-0.03715988,0.036075745,0.028084405,0.010444083,-0.015238497,0.02341902,0.032202482,0.09564018,0.008657732,0.07875301,-0.04103665,0.12873065,0.095759735,-0.0634307,-0.034302134,0.0011599492,0.018192913,-0.007085218,-0.046941236,0.053857345,0.022021648,-0.03492022,-0.0015267499,-0.002836265,0.020795058,-0.06379129,-0.05683842,-0.02954813,0.050940283,-0.0715842,-0.045220755,0.07417072,-0.076457866,-0.06416407,-0.05556538,0.025542855,0.026216267,0.009393588,0.019341948,-0.03887597,-0.07004205,0.010108834,0.03459216,-0.04910362,-0.049383994,-0.08552422,-0.042255666,0.07565471,0.003304746,-0.061312485,0.05625698,-0.032210164,0.12762186,0.0708716,-0.088924184,0.06659858,-0.018364279,0.004079792,-0.024755,-0.037376426,0.06906396,0.03481625,0.041383997,0.0028020556,-0.03615873,0.034784295,0.042285636,0.031563617,-0.049813475,0.037707236,-0.023675939,-0.114644684,0.048738156,-0.015026643,-0.09777209,-0.023362305,-0.05422078,-0.0013871946,0.08354545,0.02281543,0.002394243,0.01952534,0.010703281,0.09439131,-0.029982835,-0.039659377,-0.014675764,-0.0873633,-0.033883635,0.012885452,0.06751455,0.032000717,0.029379865,0.0041106464,-0.004119479,0.11935338,0.024824524,0.038097266,-0.02640423,-0.015495621,-0.039370485,-0.011527792,0.0058317976,0.09904293,-0.02421226,-0.076819986,0.019455494,0.0525099,0.108752996,0.011752525,-0.04636404,-0.033833925,-0.0184263,0.060132276,-0.033414856,-0.10762294,0.033527415,0.11037683,-0.046777237,0.030956056,-0.052583512,-0.060681947,-0.0063862884,0.1030725,-0.094583414,-0.013969251,0.01387335,-0.018070161,-0.06599222,-0.017023053,-0.060407825,-0.034608804,0.09514713,-0.03231342,-0.02513029,-0.04294292,-0.06754797,0.017489009,-0.06250474,0.0021133602,-0.017791726,0.015248727,-0.060496457,0.023027947,-0.038349386,-0.045265663,0.042636715,0.073075876,0.058166135,0.0075597805,0.036350917,0.021869946,0.0071404777,0.07626376,0.085747905,0.058118843,0.0033239394,-0.05138958,-0.04248244,0.0072822715,-0.080977514,0.008200699,0.02421397,0.116709925,0.054976344,0.0058072694,0.03443256,0.020131964,0.009140163,0.031675134,-0.04753418,0.08487685,0.105762966,0.010428605,-0.0507278,-0.062421244,-0.03617603,-0.055003706,0.020847075,0.020907024,0.039629623,0.006667367,-0.0460403,0.059100773,0.009894013,-0.051719777,-0.016629556,0.060360026,0.04209053,-0.029988656,-0.027114807,0.12927057,-0.13063255,0.033179566,-0.049456205,0.002191211,-0.06357954,0.04088777,0.04472859,-0.016474899,-0.018467808,0.056835033,-0.042223915,-0.07718374,0.07066275,0.008199818,-0.016100485,-0.116741955,-0.041734554,0.055413533,-0.09118767,0.027630573,-0.01176622,-0.02992521,0.03925147,0.03386645,-0.037331093,0.02434368,-0.027004514,-0.012476649,0.056215294,-0.04638484,0.017453851,0.021091208,-0.0051491954,-0.006813047,0.014808096,-0.042278014,0.07661746,-0.03955207,0.06685513,-0.017985778,-0.10243327,0.010647906,-0.031766832,-0.07490828,-0.14125162,0.023242516,-0.012466095,0.07094747,0.0435366,0.042918086,-0.023963125,-0.00060634036,0.04685108,-0.040014032,0.04058076,0.07939773,-0.017246287,0.015188537,0.037588354,-0.0760801,0.16926189,0.17495957,-0.12546901,-0.015308198,-0.07125418,0.08519198,0.08258279,-0.018172305,0.05544708,0.07400958,0.036636505,-0.1066331,0.03659743,0.00848771,0.0898609,0.037102412,0.032063723,-0.12649515,-0.016157785,0.11987208,-0.10143721,0.0032165581,-0.10694217,-0.019433524,0.018856227,-0.04413981,-0.03507942,-0.0027304247,0.044914108,-0.07965024,-0.096054256,-0.03290026,0.0075509883,-0.049731325,-0.0604754,0.13958539,0.07225972,-0.026115764,-0.14970529,0.08087185,0.059377763,-0.013307104,0.0960592,-0.021872774,0.0245719,-0.009795853,0.033126507,0.023790065,0.026522474,-0.03496301,0.035706867,0.09014138,-0.016337503,0.047672465,0.105151735,0.012404002,0.037250128,-0.045026716,0.03564406,0.042221315,-0.01867938,0.0013929195,-0.055697188,-0.061928798,0.00058167876,-0.090185985,0.018318165,0.043373786,-0.016521411,-0.0046620723,0.036176722,-0.051260054,0.011053014,0.101374134,-0.08922673,-0.053849306,-0.0816908,-0.026631622,0.02251955,-0.02792796,-0.021786865,0.022561042,0.028145093,-0.025969991,-0.0026835706,-0.0537369,0.0384184,-0.048295643,0.06675506,0.035169035,0.11026466,0.038762223,0.12421704,0.006587822,-0.022655101,-0.080355555,0.028391989,0.024647811,-0.029413389,0.092254765,-0.026323669,0.042433012,-0.014764641,0.08384518,-0.03461981,0.03735099,-0.0665115,-0.04667422,-0.00595705,0.010527134,-0.061092433,-0.048716333,-0.027882827,0.0453817,0.017155726,-0.06719188,-0.019240208,0.0006162678,0.011045873,-0.08309949,-0.021440288,-0.030049948,-0.022796491,-0.008743395,-0.062375017,0.04766165,-0.06356424,-0.019220455,0.088895135,-0.026469821,-0.01325754,-0.07621721,-0.054378923,0.025768526,0.06255435,0.016952813,0.056734867,-0.081121415,0.04261025,-0.043503083,-0.063258335,0.0930978,-0.024459362,-0.12087638,0.019856328,-0.043168142,-0.010833636,-0.051584467,-0.021939393,-0.10625491,-0.018316317,-0.02439404,-0.084585525,-0.11594027,-0.024489995,0.07666069,0.016944733,-0.0202301,0.0051184464,-0.023943996,-0.033876766,0.040192164,-0.029662782,-0.017307386,-0.017253187,0.081368305,-0.14446989,-0.029720405,-0.008153866,0.012263673,-0.005749654,0.022445695,-0.033638757,-0.06916724
-0.02935695,0.027893145,-0.057193115,-0.09000253,-0.11621371,-0.02552561,-0.08105674,-0.0720804,0.033685215,-0.063719615,0.09035107,0.048842575,0.012962474,0.0053018513,0.0840994,-0.054348845,-0.07102215,0.016008256,0.042324446,-0.025563736,-0.015626766,0.12941344,-0.048869196,0.12095539,0.034467313,-0.0065347846,0.013530397,0.00010157994,-0.01891765,-0.020188756,-0.011402072,-0.042699832,0.07838103,-0.09707705,-0.13954587,0.03683366,0.043933976,-0.009665286,-0.05609798,0.018022332,-0.027323991,0.010972068,-0.016239794,0.05547955,-0.06277402,0.04746688,-0.073260576,-0.003997569,-0.0544782,-0.021773998,-0.019718342,0.033172514,-0.07844517,-0.039830055,0.11430486,0.085155286,0.022100938,0.042744756,-0.040827226,0.04275357,0.08051941,0.001565432,0.02450754,0.0062032985,-0.07061597,-0.08446072,0.0027362523,-0.10271999,0.053740475,-0.026316145,-0.04702013,-0.084075235,0.038359866,-0.0062856097,0.022253493,-0.025414417,-0.01796406,0.0065354584,-0.0047064256,-0.04032443,0.0310101,-0.05789628,0.0706993,0.019635307,0.0047369464,0.09259357,-0.0026580577,0.002294434,0.04139933,-0.05162034,0.033639148,0.016616669,0.10218849,0.073332526,-0.01983525,0.053214636,0.018708989,-0.027815113,-0.048438024,0.041263428,-0.07303921,-0.048030823,0.023460213,-0.045659907,-0.093763806,-0.05762776,-0.0022926203,-0.002505566,-0.0176376,-0.016610235,-0.027840631,0.066420615,0.08260733,0.0155227585,0.0023518275,0.05996929,-0.025377294,0.0059197824,0.034577023,0.053438284,-0.025122901,0.022360304,-0.019903312,-0.1005108,0.032718003,0.021281628,-0.052159723,0.14616351,-0.032502495,-0.08839669,0.059457388,-0.116309315,-0.077832066,0.04261814,0.057803158,0.079724774,-0.019365536,0.0022544398,0.022545846,0.11466225,-0.052772745,-0.07302732,0.009952234,-0.058524966,0.08494448,0.0021573864,-0.0714292,-0.03557389,0.011003053,-0.003973688,0.084633686,-0.033073083,-0.058243055,-0.0810248,-0.044289213,-0.04152552,0.020551736,-0.04281526,-0.007028491,-0.082109295,-0.090029,0.104022965,-0.016352944,-0.026119439,-0.011174588,-0.015143008,-0.01899129,-0.009748091,0.011832053,0.015718136,-0.036556516,-0.0042826193,-0.0058098757,0.09027229,-0.078548335,0.029531589,-0.15040672,-0.0010480849,0.087182865,0.04112402,0.041143775,-0.012398999,0.023871612,-0.13431112,-0.03038385,0.024925508,0.002451197,0.027508218,-0.023372065,0.04346373,0.029095246,-0.03542527,-0.00087045744,0.05858256,-0.08001389,-0.035508443,-0.047797814,0.011429058,0.03808298,-0.018317476,-0.06541581,-0.12679873,-0.044295616,0.038963642,-0.1522895,0.06916679,-0.07505966,0.06549134,-0.009858593,-0.07927145,0.039573085,0.021871641,-0.00039493665,-0.021599006,0.017234227,0.013898597,0.0001960916,-0.010672679,-0.10985635,0.022878602,-0.020929575,-0.006243136,0.0057441164,-0.04018093,-0.1275131,-0.022877451,0.012190293,-0.027050743,-0.052418087,0.035401724,-0.015390537,0.029697882,0.0037498875,0.022553395,-0.015729243,-0.036812343,0.047384646,-0.044770584,-0.003425151,0.028015647,0.05307465,0.0047496553,-0.006568505,0.11719977,-0.030074054,0.12571524,0.08133651,-0.03924284,-0.038509913,-0.04587118,0.043628156,-0.022096394,-0.045290615,-0.0434723,0.002814489,-0.059129294,-0.009092806,0.048664406,-0.072130024,0.032744355,0.0026789713,0.015139849,-0.031874582,-0.0048544714,0.04380998,-0.080372825,-0.096763104,0.12226242,0.056240704,0.014013215,0.09487382,0.014430305,-0.015201927,-0.009793924,-0.028393207,0.058128785,-0.030002465,0.07537291,0.09344368,0.118496284,-0.048316974,-0.04833997,-0.103071466,0.02626254,0.15533961,-0.005283456,0.039635263,-0.07838627,-0.07018382,-0.039685696,-0.1097421,0.09062991,0.039717358,-0.06786184,-0.028104221,0.043788962,0.047364745,-0.07769234,0.0025157135,-0.008553683,-0.019350182,0.08394929,0.033590596,-0.028642338,0.031157365,-0.044286013,0.027978687,-0.07957569,0.023543574,0.0341465,0.009542932,0.019689925,-0.019266667,0.0836196,0.08970622,0.02123019,-0.0044680326,-0.021048123,0.14357708,-0.01466041,0.009026859,0.050666522,0.055868767,-0.058784712,-0.012547567,0.052208334,0.06099464,0.027273702,0.0027579924,0.0509028,0.07375263,0.009543871,-0.022627875,-0.064653374,-0.0010484086,0.011712746,0.0014377148,0.069204554,-0.027500851,0.0019416709,0.06480143,-0.08477887,0.021450043,-0.0019658278,-0.10709964,-0.061523486,-0.0056451117,0.013985565,0.01673567,0.014041855,0.0093623595,-0.039424248,-0.02289379,0.03934386,-0.0280387,0.15394107,-0.03607816,0.016475625,0.0047007385,-0.018384324,0.035705358,0.04172438,0.033237223,-0.042133104,-0.022037612,-0.042191874,0.019091234,0.08318157,-0.040240955,-0.10857288,-0.10913593,-0.034499478,-0.04461244,-0.06341736,0.034099046,-0.023870392,-0.03007076,-0.10493004,-0.04785776,0.019245783,0.028063528,-0.002606205,0.0019202698,-0.020146498,0.008521261,0.05851348,-0.13193834,-0.013424298,0.038939774,0.06849455,0.0408671,0.027745506,-0.022863897,-0.043635655,0.033771697,0.005413641,-0.016409647,-0.017868595,0.011961333,-0.03045302,0.020043533,0.068794765,0.023625486,0.040053476,0.0038364152,-0.025946135,0.024387967,0.041455094,0.023079218,0.028181551,0.071567476,-0.018993482,-0.016953334,-0.0016012958,-0.0018391233,0.07304025,-0.012818848,-0.0073372526,0.03646796,-0.014125595,0.025200035,0.028546875,-0.012543571,-0.13155729,0.037821725,0.0472083,0.025091799,-0.021636512,-0.031268325,-0.011159936,-0.003840108,0.083164304,-0.0038478984,0.03341719,-0.15708354,-0.06982074,-0.020409707,0.06356925,0.042967428,0.027150739,0.046267465,0.061456133,0.010484186,0.035378657,-0.094448365,-0.017050946,-0.0028856487,-0.038853817,0.11589118,-0.051249206,0.09718987,-0.049429215,-0.033187155,0.124761105,-0.06656243,-0.037446313,0.010217268,0.012758668,-0.017592166,0.007232439,-0.010434999,-0.05587679,0.08943636,0.0009022461,-0.12554385,0.055425536,0.000881419,0.0130763855,-0.08083449,-0.014624007,-0.012236217,-0.021911813,0.08896618,0.0071046115,0.07374036,-0.0054100286,-0.014789203,-0.05871415,0.09884665,-0.08594277,0.15476911,0.06141982,-0.03156748,0.027362566,-0.06294292,0.091842815,-0.027720027,0.101113915,-0.013985029,-0.05130938,0.0010404936,-0.090051666,0.012776591,0.08453319,-0.035383508,-0.02896752,-0.019516649,-0.0762784,0.011121581,0.0023585127,0.0084106885,0.016832367,-0.005846344,-0.03356555,0.036050204,-0.047313407,-0.010923867,0.15211096,-0.08342807,0.043315046,0.0038254792,0.010366731
-0.00019447837,-0.039511982,0.061545182,-0.05231261,0.14832504,0.0424169,0.069250405,0.14304659,0.011303455,0.03605358,-0.031107582,-0.059485443,-0.005060349,-0.057609253,-0.05540548,0.0489336,0.106442094,0.028306963,-0.042711727,0.015538789,-0.028591346,-0.053865276,-0.016000478,-0.10086349,0.045972846,-0.030116241,0.031508923,-0.021526655,-0.040633686,0.08579624,0.013849306,0.1337355,-0.12175197,-0.06642618,-0.011083584,-0.029227812,0.009607793,0.0970983,-0.03787396,-0.044553667,0.12683117,0.016188486,0.030503495,-0.1278575,-0.005552139,-0.1294463,-0.11994333,0.03781765,0.10680132,-0.057600815,-0.1178347,-0.106366254,0.17319778,0.1716154,-0.11904603,-0.016735636,0.037753124,0.044054873,-0.036263894,-0.006735798,-0.16029061,0.12209058,-0.03712715,0.037664652,0.06840302,0.00791165,0.027179915,0.039391555,0.022844661,-0.030918842,0.10473562,0.07725591,-0.035307065,-0.02936858,0.081836015,0.15897027,0.031851333,-0.0025923827,0.042680867,-0.026394939,-0.03432535,-0.062118296,0.027716978,-0.024986623,-0.077872515,-0.017634341,0.019714035,-0.025689168,0.0052002952,0.10209982,0.056873426,-0.022210725,-0.05081834,-0.07130266,-0.017960567,0.023039097,-0.02362237,-0.19300236,-0.019522786,-0.042401712,-0.051059812,-0.010422602,-0.077647515,-0.116835974,-0.0054378943,0.040655527,0.0086464,-0.029176144,0.024831213,0.02423383,-0.0104809925,0.07619286,0.042469185,-0.0030187976,0.030942101,0.02618649,-0.0071037,-0.050134696,0.033078305,0.14733769,0.071163215,0.044985306,-0.038560864,0.035509787,-0.014224859,-0.04898288,0.03643038,-0.102383256,0.0075131846,0.11478065,-0.04058132,-0.053785227,0.15588795,-0.047659498,-0.022972394,-0.032183576,-0.099891335,0.12577088,-0.1177218,-0.026717518,-0.0032022123,0.12321714,-0.010592597,0.013579461,0.044371013,0.015460351,-0.07792525,-0.030438952,0.10616704,0.0111419195,-0.0075923516,0.018536737,-0.019695664,-0.03675234,-0.0041588657,0.02641744,0.07296172,0.003739567,-0.006047678,-0.0014270933,0.004835152,0.030397657,-0.047403745,-0.07560886,0.025691058,-0.027811198,0.014102398,0.053555608,0.01277043,0.021750951,-0.022300236,-0.062119335,-0.013096894,0.16683751,0.12886184,0.031695955,0.05827787,0.011243588,0.09720454,-0.052159786,0.037542585,-0.038839143,-0.016468447,0.008456831,0.0075650015,0.006245254,-0.016442902,0.009190496,-0.0037757833,-0.018563356,-0.027616788,0.020452552,-0.02701926,0.05588781,-0.003059119,-0.0369404,-0.13713352,0.10956122,-0.010420759,0.05895571,0.1306308,0.12311642,0.012085146,0.02094097,0.062469017,-0.116950184,0.17676148,0.07854165,-0.0146249905,-0.001749505,-0.07111217,-0.071426556,-0.009123035,-0.014038176,0.14344907,-0.089910746,0.095563844,-0.033075158,0.08749958,0.04702886,-0.009799295,0.03929666,-0.09014544,0.021828184,0.036221698,0.061715737,0.0032928784,0.03921537,0.05858056,-0.025218146,0.016766235,-0.029574588,0.12540892,-0.11877983,-0.11368647,0.041544512,-0.102711044,0.08014953,0.014129896,0.022539794,-0.011225195,-0.09303252,0.03488939,0.052753855,-0.0011968525,-0.1027859,-0.09825447,0.009661627,0.029796682,0.01967925,0.0059590237,-0.04424648,-0.010985484,-0.109798886,0.04183887,-0.19616777,0.06624903,-0.033438567,-0.022807334,0.04555778,-0.014594109,0.043657236,-0.017733103,0.036359407,0.014198911,-0.024915323,0.107582,-0.10612404,-0.0016893183,0.062921174,-0.1699086,-0.03949364,-0.015084506,-0.07529575,0.12115704,-0.050102122,-0.012672173,0.029746946,-0.029028794,0.005181808,0.06365675,-0.068874724,0.22399075,0.044709004,0.055659343,-0.12297145,-0.05049927,0.07620807,0.0021344784,0.1351641,-0.0632358,0.049827386,0.005273856,-0.036298335,-0.031642362,-0.04332918,-0.05302495,0.098302744,0.0010517492,0.03444879,-0.022310875,0.016717356,-0.040190175,-0.03465274,0.046645656,0.0006657449,-0.08942273,0.15577804,-0.04248126,0.060963705,-0.03507975,0.08130876,-0.09110069,-0.061717905,-0.03007279,0.043365277,0.0042689573,0.0968295,0.033448134,-0.007189639,0.031537637,-0.05649979,0.18272409,0.09744601,-0.011873194,-0.08512258,-0.05942134,0.019611716,-0.010435279,-0.07612129,0.055542722,0.03838449,-0.023080748,-0.014868039,-0.042005368,-0.018555043,0.015345881,0.17802526,-0.061713114,0.012511645,0.123595946,0.015497135,-0.03844129,0.026056513,0.028511677,-0.106935725,-0.067056686,-0.07323447,0.1542329,-0.07883151,-0.0057968567,-0.0015826783,-0.12902011,-0.016971143,-0.034419194,-0.026429709,-0.045612566,-0.054816037,0.028851433,-0.035256192,-0.065910816,-0.013208109,-0.014088314,0.037767243,-0.021082208,0.09069005,0.033851065,-0.10093416,0.00070333015,0.0011758826,-0.009204055,-0.032799035,-0.031115634,-0.033904295,-0.008967097,0.08584015,-0.028483883,0.12296356,0.07362642,-0.01124517,-0.06830108,6.0610568e-05,0.03265335,0.07092743,0.038293775,0.0428868,0.06645963,0.1264485,0.021633435,-0.018542236,0.008293451,-0.019455658,-0.04567082,-0.039976265,0.067887425,0.024778163,0.013277803,-0.05306287,-0.010220192,0.00589656,-0.08578577,0.00260063,0.051250987,0.073001,-0.05525865,-0.046718214,0.11521714,0.007038228,-0.025329111,0.15443434,0.1313404,-0.07470971,-0.030552695,0.031507418,0.051366355,-0.16708212,-0.023470193,0.00384799,-0.0033794078,0.0529457,0.022239083,0.008605015,-0.030770542,0.08784278,-0.007896389,-0.012738287,-0.03297197,0.045991726,-0.088576145,-0.017063113,-0.067175575,0.13048238,0.006942173,0.0070480253,0.13708577,-0.035567194,0.04106635,-0.14505473,-0.004138561,0.0033064105,0.07403341,-0.16810434,-0.03914664,0.005552413,0.07709812,-0.09225712,-0.001056087,0.11766092,-0.08010385,0.133605,-0.0037444008,-0.010289041,0.11440514,-0.049597148,0.12057504,0.026544048,0.024129378,-0.087063745,-0.028966472,-0.00015549517,0.031030172,0.10392026,0.048833832,-0.08379395,0.20822266,-0.05923863,-0.03597959,0.025909044,0.005194301,-0.03861542,-0.009213635,0.10798744,-0.015149003,0.042324644,-0.0034472623,-0.054465923,0.043594126,-0.017114243,-0.0761816,0.11253381,-0.11962784,-0.026153577,0.13462521,-0.038240563,0.05682935,-0.05261529,0.033414923,0.04986526,-0.027370106,-0.023703966,-0.03359639,0.0047290595,-0.040238746,-0.0013856946,-0.015881779,-0.049057033,0.021562451,-0.001394205,0.05749978,-0.027111422,0.15258062,0.06386964,-0.0058151376,0.009381215,0.005606478,-0.001353351,-0.06134174,-0.008308414,-0.005456426,0.015719939,0.059718467,0.075215146
-0.12314081,0.015388191,-0.011605943,0.11599659,-0.068868384,0.0026905725,0.0035649443,-0.036667462,-0.029503137,-0.02792402,0.118702404,0.14730944,-0.006692384,0.01825576,0.033337228,0.0205004,0.024111582,-0.04274239,0.032274663,-0.015558194,-0.019406741,0.0054808212,0.057840396,0.14020494,0.086086795,-0.023919359,-0.043267023,0.030552007,0.07311001,-0.060537316,-0.011098037,-0.05368215,0.03837499,0.056285165,-0.09220958,-0.052504316,-0.043875046,-0.051824674,0.06490133,0.016458627,0.138959,0.10785925,-0.028181756,0.090957865,0.058308307,0.14364876,-0.059872184,-0.0040828297,-0.06336967,-0.009281103,0.082133494,0.008100957,-0.09456577,-0.017553631,-0.021855846,0.044549596,0.0021918318,-0.029895771,0.032784376,0.0346084,-0.028810693,-0.03611949,-0.00013806015,0.031591665,-0.072081365,0.09280332,0.02410186,0.003926012,-0.0057651377,-0.008629554,-0.076769225,0.06420919,0.03459843,-0.03225975,-0.028883807,0.08894309,-0.047735773,0.044088874,0.0054210033,-0.02048068,0.07676662,-0.02484654,0.032708418,-0.01689821,-0.09610834,-0.023330428,0.012382231,0.1401921,0.024317319,-0.0662753,0.0072737685,-0.008711437,-0.05311915,-0.027613815,-0.028902495,0.025105676,0.056928083,-0.019886026,0.022725167,-0.036122177,-0.032102544,-0.036265504,0.03500788,-0.032876536,-0.03980938,0.023953581,-0.035534278,-0.09937777,-0.022122893,-0.07096744,0.020789528,-0.04052463,-0.020374613,-0.014995787,0.053873874,0.017781898,-0.066632986,0.017318446,0.049239606,0.04395912,-0.054320477,0.010647466,-0.03259744,0.04825599,-0.0125092305,-0.009800946,-0.052211843,-0.010751674,-0.02038908,0.0055093667,-0.06511456,-0.008701865,0.018677088,0.029953867,0.048541084,-0.045980264,-0.102912284,-0.046675615,-0.008288452,0.1038529,0.043097187,-0.0040220255,0.029030342,-0.0076082433,0.023788247,-0.026169874,0.04529006,-0.025473146,-0.0015913203,0.021671694,0.1048459,-0.0037511268,-0.036947913,0.122935735,-0.027559211,0.025530666,-0.068608254,-0.12271552,0.031209532,-0.02991057,-0.05149371,-0.06694846,-0.021552708,0.039470263,-0.09624763,-0.006710566,0.042686664,-0.041113548,0.023823364,0.03415727,-0.041957207,-0.073504075,0.10627148,0.004634165,-0.04176719,-0.011964179,-0.04807742,0.0182409,0.025115835,0.060132496,0.044771902,0.05577053,0.038033605,0.11584541,-0.025104398,-0.002674081,0.04256892,-0.004723098,0.028756227,-0.046409152,-0.011874053,0.025246773,0.013989819,-0.050925095,0.017299898,-0.03272635,-0.03986156,0.047590017,-0.02568361,0.08724834,0.0071304953,-0.09362625,0.03215329,-0.074879274,0.008494074,0.17085347,-0.017393816,-0.0025335648,-0.043753985,-0.029276013,-0.025822641,0.0791859,-0.034317777,0.04543443,0.05144493,-0.04014842,-0.07921803,-0.030484553,-0.013921978,-0.00600692,-0.07436778,0.1135672,0.05029882,-0.015406235,-0.07431024,0.019140976,0.034329284,0.01927698,-0.0011551618,0.04013741,0.03162675,0.006463272,-0.1487924,-0.020360641,0.028914763,-0.03891547,-0.022290932,0.021711694,0.011601823,0.09151125,-0.03373959,-0.050723,-0.09856857,0.09928767,0.015859243,-0.045216683,0.11249151,-0.014444365,0.01122894,-0.0009779277,-0.053450596,-0.005623298,-0.05890077,-0.043718714,-0.015998088,-0.12604748,-0.0051014903,-0.05372753,-0.064208165,0.03415839,-0.0019020147,-0.078291185,0.13153146,-0.02483269,-0.03580641,0.0022240728,0.1043014,-0.09799815,0.071084194,0.017840594,-0.13060236,0.07436135,-0.0031546182,0.08401724,0.01575232,-0.005566757,0.03232757,0.05471761,0.05444335,0.0862132,-0.022376286,-0.03735347,0.03916948,0.018623175,-0.011185923,-0.09010035,0.00120343,0.01271803,0.06449016,-0.11612378,-0.03222945,-0.03427395,-0.038580153,0.0026262908,0.02144014,0.010160534,0.035380945,-0.067592934,-0.008800609,-0.01964959,-0.017770333,-0.15370642,-0.0050261477,0.02746083,0.010863573,0.020448646,-0.0771293,-0.0011858332,-0.0021068088,0.029054351,0.018169306,-0.027276078,-0.009558166,0.007297743,0.13334718,0.013162422,-0.10678521,0.079639554,-0.021391695,-0.03273586,-0.053265486,0.026512405,-0.12505741,-0.028650017,0.041836854,0.050665796,-0.047169574,0.06954114,-0.0100548975,0.08383363,-0.012545258,0.015579149,-0.0049022897,-0.09512523,0.032872044,-0.037847172,-0.022763979,0.01929755,0.022605242,-0.05549478,-0.040450606,0.03632292,0.0028640383,-0.062103998,-0.07800969,-0.012219527,0.018832691,0.11321921,-0.04135695,0.032848336,-0.015718646,-0.040433466,0.02820665,0.032081157,0.03609971,0.09052362,0.030492736,0.034262877,-0.1132927,0.03970126,0.05895031,0.0061713974,0.0063575404,-0.014796536,0.012695676,0.05059785,0.049350075,0.081233926,0.011457585,0.04256183,0.04622945,0.00870764,-0.07165806,0.052549437,-0.044703834,-0.010600126,0.003665681,0.005144471,-0.12579374,0.020483458,-0.023560112,0.037951328,0.010751603,-0.041311156,-0.037289865,-0.03670718,-0.0757145,-0.0016993942,0.035520125,-0.0026787827,0.027218608,-0.0066747973,-0.04076481,-0.04849318,0.011219768,-0.014598031,-0.088442594,-0.04288361,-0.04499527,0.03213873,-0.072389,-0.021598622,0.07498715,0.013864962,-0.015574262,0.04425594,0.01367689,0.0853132,0.002374044,-0.057073668,-0.11998841,0.016802782,0.03239037,-0.050034747,-0.04196581,0.03688863,0.029821832,-0.052764814,-0.068203375,-0.03674829,-0.028609846,6.2599574e-06,-0.039896403,-0.11596788,-0.0016199562,0.074323,0.06947211,-0.014569998,0.13627493,-0.039095156,0.010653786,0.08525227,-0.019985124,-0.06905375,-0.05914388,0.06745593,-0.007661435,0.07134792,0.035540912,-0.022727868,-0.04909184,-0.105702475,-0.0054537156,-0.020797072,-0.059611283,-0.05440774,-0.01651635,-0.052764773,0.08954348,0.026608627,0.035486978,0.017347854,0.0033476392,-0.043828133,-0.03357639,0.023631757,0.034815043,0.014199396,0.013446342,-0.03854383,-0.048808046,-0.03275635,0.0035430123,-0.0910415,-0.054217175,-0.050700273,-0.051386517,-0.037468746,-0.024577377,0.083330505,0.0054240343,0.018735835,0.04110334,-0.0015493389,0.049693845,0.07345558,0.024131835,-0.040344447,-0.014967769,0.096884206,-0.010033396,0.11634151,-0.00056579284,0.011910913,0.057168644,0.121440396,0.048203576,0.03219601,-0.0050550834,0.007912501,-0.063148305,0.047482893,0.008692456,-0.027313475,0.032140765,-0.030265834,0.025969367,0.033354897,-0.045768574,-0.006138438,0.0942332,-0.036364783,0.046500858,-0.020555837,0.057949074,0.0092499005,0.011367963,-0.01128485,-0.073753506,-0.008437296,0.06993104,-0.004616417
0.010836446,-0.0050494326,-0.035431337,-0.0062873685,0.0154624395,-0.017930036,0.09686514,0.10196595,0.01926361,-0.028413137,-0.075971134,-0.040402796,0.004229199,-0.08405043,-0.042466592,-0.054423835,0.011852562,0.11908842,-0.023274887,-0.031675037,0.004657855,-0.07147031,0.025806436,-0.14446877,-0.027754677,0.033037268,0.06709801,0.0078854775,-0.04000113,0.16424489,0.04938237,0.10090588,-0.04847196,-0.08340261,0.09286698,-0.09473294,0.017654909,0.07536492,-0.041370526,0.012694619,-0.15658039,-0.08482771,0.040879916,-0.13720337,-0.010101599,-0.15283206,0.12665966,-0.008864022,0.0852876,-0.050890528,-0.04571205,0.044908084,0.02556024,0.09217843,-0.0001606657,-0.037255514,0.027003847,0.014232999,-0.029069047,0.026108418,-0.068168856,0.10435042,0.17251739,-0.0059601683,-0.05868344,-0.0021472417,-0.041193765,-0.0459841,-0.07492318,0.053485278,0.12477041,0.050611347,0.029416911,-0.021075947,-0.0853605,-0.13151415,0.006013686,-0.018915981,-0.004135186,0.017438145,-0.10852242,-0.08624367,0.011571157,-0.043206304,-0.034348596,0.044380434,-0.018757753,-0.047824234,0.03779508,-0.015988614,-0.022908354,0.012458522,-0.029514203,-0.047733784,0.0063816863,-0.09003287,0.0066695507,-0.07698785,-0.007964473,0.02180921,-0.048787694,0.021116115,0.04619065,0.08946548,0.10335473,-0.026789805,-0.017015124,-0.005713458,0.024500685,-0.016434176,0.040331,-0.05944503,-0.008215289,-0.041611325,0.056312647,-0.025312979,0.14278205,-0.06444028,-0.11811188,-0.14386818,0.027353745,-0.03287164,-0.032393917,-0.026326014,-0.015150403,0.11965571,0.09182899,-0.04377076,-0.03627933,-0.08509395,0.020721536,0.20004508,-0.018116139,-0.052098885,-0.118961245,0.019598462,0.11923605,0.010362259,-0.15071647,-0.105354026,-0.007408852,-0.0527051,0.0051780883,-0.03538136,-0.060639225,-0.015893595,-0.048429303,0.017555324,0.004131142,-0.018191317,-0.06628391,-0.014607034,-0.03541869,-0.013415205,0.00070340664,0.012283189,0.03536604,0.017645143,-0.08119721,0.081307456,-0.022016207,-0.07132881,-0.09974872,0.040684845,-0.008291623,-0.010604911,0.028078469,-0.08414992,0.0341702,0.053792726,-0.022193836,0.015716437,-0.087927826,-0.19437721,-0.0056004478,0.027855594,0.08522164,0.03914732,-0.041327447,0.013658753,-0.043692008,-0.0041248077,-0.03859459,0.018632948,0.1399125,0.001947126,-0.054816008,0.037474345,-0.03805946,0.02721613,-0.03297771,-0.031368844,0.030811964,0.09113875,-0.0668819,0.027526123,0.12756026,-0.07397333,-0.023193764,-0.038997367,0.10430718,0.11792938,-0.010214973,-0.031837758,0.071268775,-0.13123053,0.053639866,-0.106488064,0.08476635,0.11966639,0.09906604,-0.048547886,0.043637503,-0.08427121,0.050125152,-0.054280356,-0.036659274,0.03339946,0.110287115,-0.07005932,0.0415766,-0.12034613,-0.06762731,-0.012120049,0.052824955,-0.023547243,-0.02644901,-0.08331872,-0.010591052,0.00023429113,0.032993436,-0.035890475,-0.110629484,-0.0547797,0.05289044,0.036900524,-0.00395108,0.014131336,-0.04368173,0.062280834,0.0074685276,-0.039843857,-0.0013361494,-0.14247462,0.0024367396,-0.07459013,-0.038246494,0.016160332,-0.017204275,0.006671441,0.097230315,-0.0011382442,0.017990002,-0.0723911,-0.028808186,0.23342492,-0.08564239,-0.07055333,0.07878146,0.071265265,0.057242796,-0.07335441,-0.014326178,0.036724243,-0.032621212,-0.13075583,-0.14000854,0.11399854,-0.09071126,-0.010314597,0.01762482,-0.011757878,-0.03329893,-0.024656918,0.08764172,-0.002993742,-0.017310198,-0.14319047,-0.07968491,-0.057723626,-0.027763082,0.115111135,-0.10355572,-0.043455593,-0.124035835,0.14948481,0.060102116,-0.025934314,0.009003419,0.10900228,-0.052203845,-0.08648231,0.0059668114,0.028320009,-0.02354008,-0.069943964,-0.012416969,0.11454289,-0.023197416,0.014143836,0.04141146,0.15546854,-0.03548168,-0.0045388956,-0.004052828,0.03677069,0.018579464,0.07180433,-0.015999252,-0.04021045,-0.0036820625,-0.054182243,-0.05108903,-0.08741007,-0.11845281,-0.033380456,0.07007609,-0.06026304,-0.04681945,-0.024355762,-0.017556189,0.057576288,0.11845561,-0.059869025,0.009877688,0.12461095,-0.061877698,-0.06921033,0.039874665,0.02448495,-0.07146075,-0.010965337,0.043478645,0.022967994,-0.0386397,0.017721783,-0.029436357,-0.16770862,-0.16159685,-0.03643835,0.094757095,0.057551738,-0.004536852,-0.07089094,0.008590633,0.020499555,0.03847966,-0.14427903,-0.051140625,-0.059035793,0.02377563,0.07998944,0.04208962,-0.023947895,-0.031114282,-0.14202444,-0.06333962,-0.04494833,0.02599035,-0.0054093827,0.012529426,-0.02409407,-0.036303256,-0.02739631,0.037451718,0.06406145,0.08158312,-0.039046634,0.06693567,-0.04258827,-0.019687204,0.0703317,0.09916775,-0.033889562,-0.009417208,0.16462219,-0.06981366,0.008340386,-0.0014691305,-0.018052734,-0.14540763,0.026937947,-0.0022286994,-0.04201279,0.016491743,-0.033891797,0.08433652,0.002491038,-0.03631128,0.009149837,-0.009364255,0.040876694,0.020198954,0.04355503,0.0009796594,0.02975995,-0.0428256,0.060802523,0.021520924,-0.018143037,-0.006385025,-0.017412575,-0.12131193,0.103895724,0.095300995,0.05086404,0.011647439,0.028016848,0.01226264,0.029282378,0.10010009,-0.09782588,0.0004486537,-0.04836593,0.041390147,0.026534805,0.035279457,0.032885794,0.061051294,0.024704631,-0.0246297,-0.028671276,-0.00526586,0.10926618,0.074384466,-0.006143928,-0.14366241,0.0150154345,-0.16007917,-0.008611066,0.04351618,-0.14880814,0.015866669,-0.026661705,0.09710917,-0.03815623,0.02550914,-0.07135748,0.04029149,-0.021913897,-0.09735118,-0.03915635,0.03924769,0.053845454,0.06507439,0.047966417,0.025147926,0.1256842,-0.021554157,0.046067894,0.0026319998,-0.15317662,0.030600445,0.0032918986,-0.030179424,0.033482015,-0.04694655,0.05463327,0.04287641,0.017637549,-0.037506282,0.04096733,0.009132191,0.08435646,0.07230484,-0.06801755,-0.032656614,-0.03963076,-0.0035523805,-0.13779896,0.06329674,0.056688268,-0.012121479,-0.045092482,-0.07473424,-0.0053087096,-0.012167456,0.089088306,0.005129026,-0.048832953,0.07805951,-0.19633521,-0.042331286,-0.029122518,-0.005331331,-0.12225779,-0.04548958,-0.06855235,-0.0066471705,-0.042841826,0.0052406685,0.04613754,0.011911747,-0.0538844,-0.0063981605,0.07849753,0.06140407,0.030771075,0.054198753,0.030195396,0.0026733377,-0.020158626,-0.012751117,-0.024360891,-0.04109272,0.061980117,0.061061177,0.013632194,0.10174505,-0.05436659,0.069303006,0.05965149
0.052787542,-0.0029411851,-0.034044452,-0.011330639,-0.062244438,-0.009782511,0.059779342,-0.058594905,0.018147292,0.014085745,-0.038930483,-0.0073223556,-0.0015250172,-0.061125044,-0.032812957,0.070567556,0.09567432,-0.057711843,-0.021194812,-0.07497567,-0.057660226,-0.0043093436,0.017084965,0.062482275,-0.0702865,-0.0152183315,-0.008217263,0.025526633,-0.022522748,-0.09157695,-0.06617128,0.05089984,0.12872216,0.011033306,-0.002621314,-0.1277801,0.03095509,-0.030608311,-0.009037777,-0.019889798,0.052941617,-0.0354867,-0.011534085,0.015026092,-0.046680063,0.06824291,-0.071566075,-0.029373307,-0.078850165,-0.04972596,-0.13727082,-0.03584155,0.099299155,0.03811981,0.05846086,-0.046574652,-0.022281487,0.041131467,0.014573322,0.019829726,-0.024913156,-0.08162793,-0.067137904,-0.0025431772,-0.007216236,-0.046101697,-0.01861025,-0.08145589,-0.056181114,0.023402695,-0.042600427,0.10159531,-0.02407229,-0.011056532,-0.06769185,0.027951548,0.027368056,0.035170212,-0.009603068,0.09253699,0.07934764,0.038331673,-0.053954776,0.008585664,-0.12360409,0.004966859,-0.021298716,-0.04462099,-0.0075946674,-0.023123484,-0.010645946,0.01570578,-0.06126449,0.048520945,0.03287087,-0.09079186,0.061216865,0.11936702,-0.023386328,0.007359446,-0.109243125,-0.025380308,0.02140672,-0.0012683094,-0.013346951,-0.04941705,-0.029379671,-0.028708039,0.043807454,0.048092164,0.036391377,0.014168767,0.057034425,0.044088632,-0.08281316,-0.04729351,0.041911777,-0.09210899,0.10427531,0.09374448,-0.018317807,0.011389657,-0.03435156,0.0006142074,-0.013242907,0.043948125,0.02502475,-0.13176328,-0.007928214,-0.022643844,0.04275851,-0.027170794,0.035398595,-0.10933823,-0.02721324,-0.07085349,0.016024027,-0.035602428,0.061951388,-0.031907696,-0.045727402,0.008603784,-0.09546549,0.02646916,-0.04402305,-0.028000029,-0.059304263,0.005637532,0.027531164,-0.015428684,0.03716817,-0.00807663,0.02035348,0.06265774,-0.01568876,0.030788915,-0.078284726,0.05944974,0.10685515,0.024186255,-0.032801118,0.0392194,0.039631702,0.0603375,0.010262507,-0.004845809,-0.020671414,-0.052901734,-0.0054767462,0.06621608,0.028551042,0.032875337,-0.024697458,0.05620809,0.019572662,0.03607049,-0.014383203,0.03511536,0.14773433,0.034550603,-0.07581815,-0.09713177,-0.012107465,-0.065384574,-0.10919486,-0.024856538,-0.024303472,0.004273083,-0.008685066,-0.027614819,-0.030101327,0.043337088,-0.070374705,-0.02229562,-0.07741231,-0.035147905,-0.005874565,-0.0038416155,0.04042133,-0.00990836,-0.05336654,-0.009960922,0.013895179,0.009549368,0.035723545,0.13317846,0.13162601,0.07801031,-0.028691346,0.12580006,0.03453883,-0.015842382,0.02676649,-0.0032645992,0.015298635,-0.081431784,-0.04997674,-0.029297454,-0.048460875,0.01787536,0.031759076,0.14830047,0.06069204,-0.01374172,0.08165141,-0.015124006,0.0015752944,-0.13569406,0.013165524,-0.020019015,-0.011853036,0.033797573,0.036559623,0.0010728992,0.09395153,-0.0060089272,0.008760599,-0.001734141,0.0064947866,0.0055925753,-0.02949248,0.004101984,-0.04785966,0.03404393,0.017206367,0.12567015,0.021986062,0.03627309,0.037351787,-0.06762631,0.070900686,0.039286815,-0.012578746,0.0428745,-0.023729675,0.11926246,0.08259926,-0.0788349,0.04916594,0.01366586,0.13590406,-0.0052718506,0.044787202,0.011050501,0.019793298,-0.041616455,-0.024611536,0.013011186,0.0024161302,-0.026820213,0.08839596,-0.038996115,0.111095734,-0.07568146,-0.1054609,-0.055611473,-0.035069916,0.019915674,0.070593216,0.045387104,0.054353956,-0.05417148,-0.0024952556,-0.038957797,-0.031293433,0.06469026,-0.011815981,-0.03444553,-0.02433586,0.03933448,-0.06677709,0.08841713,-0.02646346,0.12751676,-0.03730657,-0.010713476,-0.06813059,-0.027443048,0.06227241,0.03236614,-0.021806404,-0.0482827,0.017122464,-0.009928413,0.013210294,0.0101538375,-0.066541016,-0.009101019,0.027829792,0.015104463,-0.03153685,0.029991524,-0.11322763,-0.026305046,-0.08680815,0.011378602,0.08204797,-0.08391967,0.018564422,-0.008684209,0.038499348,0.11902956,-0.046506062,-0.10387396,-0.025289424,0.010074658,-0.10847703,0.025777007,0.015114434,0.08729084,0.03194698,-0.03944326,0.04055599,0.023617264,-0.022306146,0.052327637,0.0023358737,-0.028459378,0.06346903,-0.076215364,0.05896959,0.05701157,0.03573787,0.054722406,0.084286295,0.11867437,-0.04979777,0.0023695976,-0.028164703,0.05589526,0.005298832,-0.06280215,0.14548919,-0.037711244,0.03503045,0.0036100047,-0.05330097,-0.022225326,0.05399587,0.038099427,0.076490186,0.0084934365,-0.014147454,0.02975965,-0.01503417,0.032246992,0.056589097,0.10848143,0.08207173,0.00014850294,-0.052398022,0.067716435,-0.025693892,-0.028639026,-0.0006718584,0.032468487,-0.020714672,0.0256196,-0.011227244,0.026371533,0.06523717,0.020058626,-0.100883015,-0.06516419,0.04112911,0.11675816,0.023366759,-0.004680128,-0.01858268,-0.05695452,-0.03468086,-0.016171532,0.02128876,0.031585276,-0.035336006,-0.04115948,0.07156163,0.012538331,0.015834672,0.0032599466,0.0975993,0.027517129,0.123773865,0.14925094,0.07679179,-0.072800346,0.008242418,-0.029007973,0.07345209,-0.13878526,-0.039192148,-0.10431583,0.017402448,0.03616256,0.081400596,0.028533448,-0.031340133,0.0011047297,-0.071460016,-0.0010522372,0.019257518,0.0016479006,0.007916906,0.062731944,-0.053715598,-0.07384328,0.1051567,-0.027111845,-0.07968023,-0.013557226,-0.023017513,-0.0062172795,-0.0015365521,-0.045633543,-0.04932816,-0.028881077,0.03249793,0.06701947,0.017360523,0.04440213,-0.09384825,-0.04808185,0.019888425,0.07620622,-0.04330833,0.08893539,-0.013289225,0.062110893,-0.15734495,-0.061429475,0.056857225,0.09012766,0.046490904,-0.028389368,-0.033471648,-0.0069989767,-0.012658625,-0.015013317,0.0230768,-0.043634403,-0.018780345,0.017867649,0.01754228,-0.058265746,-0.026634723,0.06256417,-0.061477743,0.037352152,-0.08919404,0.10972389,0.04950357,-0.07684942,-0.08760288,-0.023844415,0.024504144,0.03107992,-0.01380231,0.032681525,0.034610935,0.11372933,0.0093335835,-0.005897882,-0.0622449,-0.028288452,0.011079916,0.035337552,0.0148489615,0.016204298,0.0059081707,0.033425048,0.03289846,0.08328797,-0.009737755,-0.060913865,0.010778572,0.056876626,-0.05825595,0.00012840496,-0.059875388,-0.008623221,0.005061767,-0.03940877,0.06140484,-0.0047768233,0.053927973,-0.023986226,-0.0486832,-0.01900185,-0.04451151,-0.00875164,0.01586903,-0.043917146
0.07515476,0.04113494,0.09654693,-0.08740413,-0.016995827,0.038473677,-0.07206268,-0.045797843,0.032047927,-0.12098585,-0.13463563,-0.10276105,-0.020893747,0.06000601,-0.07519321,-0.04336516,-0.06793717,0.06294576,0.0019138306,-0.040791467,-0.008549934,-0.031047627,0.024055334,-0.13973863,0.08225577,0.030813407,0.013195312,-0.030327026,0.028381314,-0.039632045,0.098816626,0.04435211,-0.15408921,-0.002436081,-0.045272715,-0.07864249,-0.024257077,0.16180377,-0.043314755,-0.02843156,-0.0023311807,-0.12900849,-0.03850355,-0.1333488,-0.052657228,-0.0040895906,0.1503292,-0.03437552,0.07241658,-0.029856738,-0.03558091,0.044222202,-0.016195098,0.008449646,0.04056837,-0.010152745,-0.028107645,-0.03601176,0.02344449,0.038879417,0.11674663,0.018674666,0.052125428,0.0074391128,-0.010798279,0.08861125,-0.05599218,0.020235287,-0.072689734,0.008505865,0.09261162,-0.049456272,0.014642877,0.043171585,-0.0058396137,-0.030013662,-0.030406274,0.017496418,-0.035345946,-0.0747102,0.0378633,0.02132773,0.048893534,0.023099655,-0.06021112,-0.08450672,-0.030203445,-0.043065786,-0.024543546,-0.04454024,-0.044708107,-0.0142583465,-0.0216974,-0.07651465,-0.023956768,0.0006528536,-0.079297476,0.027845679,0.062477782,-0.029826703,-0.06526927,0.018536309,-0.08399048,0.15671688,0.04796036,0.00994132,0.09045688,0.05453627,0.03163977,-0.046578854,-0.020780854,0.003017415,0.026259819,-0.020989804,0.122586325,-0.092367105,0.097023964,-0.01454842,-0.066572905,-0.08898911,0.074113764,0.029876217,0.019177686,0.07796358,0.039325528,0.09902814,0.12729545,-0.017009597,0.009869009,0.121915594,-0.10681599,0.12628219,-0.08771946,-0.014804173,-0.08997114,0.02227155,-0.044497225,-0.06464496,-0.11269102,-0.07865138,-0.010283834,-0.044486772,0.14666243,0.01747944,0.021189524,-0.02952344,-0.074810274,0.041553456,0.013464756,-0.041720606,-0.065767184,0.009621905,-0.011204259,-0.12226338,-0.088254,0.04094842,-0.06750731,0.09394779,-0.042400196,0.05891384,0.026044397,-0.054996073,-0.1084234,-0.04854283,-0.013651241,0.009170705,0.007409046,-0.06196804,0.034045875,-0.1517498,0.019575022,-0.046590887,0.010974797,-0.089409135,0.036834344,0.013750735,0.024652647,0.021447243,-0.065438494,-0.07295728,-0.02677215,0.017678956,-0.031577725,0.010781629,0.1427225,-0.033541236,-0.004660302,-0.03664618,0.04472939,0.01576917,-0.027577125,0.031634558,-0.03314712,-0.055752356,-0.045501135,0.040026125,0.035241883,-0.039488345,0.034394983,0.011876373,-0.015256337,0.118661776,0.013492977,-0.056373052,-0.098464444,-0.05452903,0.0959697,-0.14707622,-0.07239894,-0.0517394,0.0069736973,0.072423086,0.029204477,-0.056438483,0.02122818,-0.05174702,0.09073283,-0.025113922,0.04590003,-0.016704349,0.0077449055,0.05614456,-0.02846328,-0.024301589,0.16481207,-0.038348746,0.04112849,0.0048263455,-0.028814279,0.004023169,-0.04080477,0.031588964,0.03323869,0.13821635,-0.02938631,-0.026414292,-0.034907285,-0.044759255,-0.0027497783,0.05930512,0.022317316,0.078200005,0.021854123,-0.1234302,-0.010003644,-0.005259024,0.06814132,-0.010650199,0.069384396,-0.004357697,-0.028624166,0.04121974,-0.020847276,-0.12594475,-0.0057659703,0.08755056,0.008597641,0.0059805852,0.053508542,-0.06251098,0.039063625,-0.070044056,-0.04621808,-0.017515056,-0.022471309,0.00683403,-0.0635699,0.100069165,-0.03366493,-0.09193901,-0.0815043,-0.055830333,0.13841262,-0.013412891,-0.05640223,-0.05452484,-0.041532524,-0.051723562,-0.098349094,-0.097243115,0.04342697,0.14173649,-0.09184208,0.005301132,-0.007158693,0.08664501,-0.046474792,-0.014574853,-0.003939453,0.061279047,-0.028056467,0.022958592,-0.040717676,-0.017390097,0.0010865347,0.027178047,0.11531378,-0.056329098,0.08746029,-0.030368146,-0.00034431423,-0.040077377,-0.003691751,0.006364986,-0.11940584,0.030579258,-0.065970026,0.04218293,-0.027712414,0.011399296,0.034986414,-0.049390048,-0.080834635,0.09869247,-0.07974777,0.020979552,-0.004826969,-0.062105596,-0.033708084,-0.045970943,0.058488548,-0.03170583,-0.021436673,0.027633844,-0.019952977,-0.0030029577,-0.023798738,-0.06926459,-0.025720738,-0.08143456,0.06315937,-0.0096662985,-0.029876646,-0.029097851,0.03752738,0.030456027,-0.0228105,0.015806658,-0.17011549,-0.04485346,0.091037594,0.07522664,0.035068426,0.043332487,0.13795,-0.02749506,-0.049988266,-0.14454104,-0.059891567,0.14362778,-0.0016229496,-0.016216993,-0.07909035,0.07645485,0.031559642,-0.08898099,-0.025307586,-0.04097517,-0.07277454,0.022071486,0.07057769,0.0052820225,-0.035577234,0.030165646,-0.032074157,0.014454276,-0.0250093,0.021014595,-0.084498554,0.13648874,0.06329299,0.016538136,-0.012480767,-0.06899306,-0.020818312,-0.08611087,0.20281748,-0.06767819,-0.0007812859,0.015166794,-0.075100966,-0.022948368,-0.028865362,0.008295358,-0.052527416,-0.017292093,-0.045908824,-0.044754587,0.041306354,0.03269167,-0.016374461,0.043480698,0.027503798,0.005220155,-0.008391829,-0.017190462,0.040051512,0.017404713,-0.014791874,0.021212788,0.03623659,-0.006612777,-0.057829257,0.0035709818,0.09130868,-0.031465217,-0.064414345,0.014649389,-0.040180616,-0.023399215,-0.095015295,0.091817774,0.013111721,-0.010040822,-0.004936962,-0.017077958,-0.041737627,-0.02922615,0.06576303,-0.050633326,0.0265664,0.018712917,-0.03906353,0.101322815,-0.024912214,-0.013061368,-0.1008624,-0.057148352,-0.1322253,-0.023078326,0.049229477,-0.0689433,0.007337138,0.053811286,0.18609183,0.11804755,-0.03268287,-0.14190106,-0.02922231,0.012090782,0.08269946,0.07902951,0.006211765,-0.028390285,0.07832014,0.006477113,0.0012949061,-0.016973412,-0.027622744,-0.051071752,0.006880663,-0.02803961,-0.10731405,-0.015834672,0.13043335,-0.015788265,0.12626812,0.13775155,-0.0050209984,0.034596983,0.024365133,-0.03950309,-0.022915429,0.02514414,0.07278757,-0.02081711,-0.03944137,-0.0048490693,-0.055589873,-0.066982046,0.00032420154,-0.019763617,-0.0060017756,-0.025397398,-0.059845377,0.07816618,-0.036374513,0.1140047,-0.0451627,-0.11233334,-0.030009659,-0.108656354,0.13470775,-0.011870198,0.032541126,0.05526326,-0.02063324,-0.1687589,0.001918614,-0.029156124,-0.028265601,0.08872663,0.027729131,-0.03207753,-0.013971314,-0.045485046,-0.004648067,-0.02022446,0.078330606,0.0015217405,-0.078872874,0.06891995,-0.074285,-0.042244922,0.035053402,0.003060528,0.08132261,-0.0613164,0.15608945,-0.103648104,-0.009776861,0.05450096
