0
0.0801921
0.05460597
0.034778543
0.08968841
0.027670868
0.027928658
-0.0061804205
0.04769086
-0.0022240505
-0.0960359
-0.03265597
-0.04437685
-0.035845146
-0.042306747
0.030420296
-0.008626178
0.024102807
0.09662942
-0.0011028275
0.06997103
-0.07682805
0.069066174
0.08469211
-0.08765723
0.031058542
-0.04345703
0.004326202
-0.0113502
0.09674608
0.05085606
-0.019793533
0.003049709
0.09774322
0.0008665472
-0.01215519
0.0843535
-0.07928938
-0.059978165
0.033682488
0.038988955
-0.045637894
-0.004825987
-0.004491821
0.054710917
-0.018829547
-0.097047426
-0.05695498
-0.038739648
0.08853126
-0.07689689
0.0883084
-0.021850958
-0.073303975
-0.03691338
0.06372727
0.021766707
-0.08432245
-0.049969304
-0.06094698
0.024569213
0.04989911
-0.05375259
-0.03541764
-0.048414506
-0.009572886
0.05860562
0.010788485
0.031428136
-0.0070381016
-0.091040336
0.037804313
-0.09197851
-0.08994049
-0.02549126
0.07850339
0.006139636
0.067559965
-0.0628154
-0.007810198
-0.09050836
0.08637894
0.011891678
-0.032756865
-0.012696043
-0.0014678612
0.022126578
0.097245894
-0.014772952
0.06203238
-0.012757719
-0.026631877
-0.014322117
-0.032468356
0.0031815395
-0.07123178
0.036429815
-0.016922235
-0.06063794
-0.05573715
0.098005496
0.082562976
0.09579512
-0.07548748
-0.03176429
0.09291727
0.07029436
-0.07951858
-0.07542129
0.09597736
-0.09288186
0.016329788
-0.05418689
-0.08473247
-0.03542193
-0.06762183
-0.06870109
-0.093800955
-0.041616786
-0.025232054
-0.06316483
0.017781422
0.066598006
-0.020671055
0.011711538
-0.047636677
-0.0031228662
0.006820217
-0.026816308
