0,1,2,3,4,5,6,7,8,9,10,11,12,13,14,15,16,17,18,19,20,21,22,23,24,25,26,27,28,29,30,31,32,33,34,35,36,37,38,39,40,41,42,43,44,45,46,47,48,49,50,51,52,53,54,55,56,57,58,59,60,61,62,63,64,65,66,67,68,69,70,71,72,73,74,75,76,77,78,79,80,81,82,83,84,85,86,87,88,89,90,91,92,93,94,95,96,97,98,99,100,101,102,103,104,105,106,107,108,109,110,111,112,113,114,115,116,117,118,119,120,121,122,123,124,125,126,127
-0.6974739,0.44443914,0.13781244,-0.5570102,0.3283375,-0.21370554,0.93216145,0.12021321,-0.06216101,-0.8555789,0.5249497,-1.6768168,-1.8595012,0.48409367,-0.012089126,1.0265253,-0.62045074,-0.17878792,-0.30506566,0.019367903,0.52755904,0.5967951,-0.8034851,0.15078919,1.8229332,0.7927332,-0.59071374,-0.29354393,-1.1466416,-0.54999673,-0.5042827,-0.92665964,0.40220758,-0.649659,-0.803323,-0.42508483,-0.4324312,-0.038097393,0.21567997,2.0621984,0.18462084,1.1559788,0.13444664,-0.114216775,-1.6503087,0.3377427,0.444324,-0.09237916,-0.30850655,0.8907242,-0.030771839,-1.4334992,-0.52044415,-0.19264409,0.95494807,1.0849681,-0.061265428,0.95147717,-1.924573,-0.16170165,-0.43143657,-0.15569314,-1.1839223,0.048967995,0.7964869,0.62696457,-0.0567301,-0.649037,1.0854799,0.3794154,1.0074719,-1.3331457,-0.46851,0.5057145,0.21391712,0.43235862,0.7189426,0.68343586,0.26139972,0.18690048,1.4537836,-0.3719711,0.49849162,0.32368028,-0.71127945,0.49009654,0.06983783,0.5474979,0.4659033,-0.049420774,-0.90605855,-0.5537243,0.48975438,1.1260079,1.2234104,0.44577006,-0.039249007,1.2492889,0.8555052,-0.24748474,0.34809053,0.62984663,-1.2173057,-0.27690223,-0.138134,0.8300625,-0.64516836,-0.13584094,-0.8256931,-0.14406978,-0.6501165,-1.2316766,1.2084206,-0.5606301,-0.74839807,1.4207262,-1.3121961,-0.05784656,0.51623064,-0.2809353,-0.07427879,-0.60215193,0.10645811,0.02185511,-1.2467744,0.58483374,-0.056459166,-0.96326464
