0,1,2,3,4,5,6,7,8,9,10,11,12,13,14,15,16,17,18,19,20,21,22,23,24,25,26,27,28,29,30,31,32,33,34,35,36,37,38,39,40,41,42,43,44,45,46,47,48,49,50,51,52,53,54,55,56,57,58,59,60,61,62,63,64,65,66,67,68,69,70,71,72,73,74,75,76,77,78,79,80,81,82,83,84,85,86,87,88,89,90,91,92,93,94,95,96,97,98,99,100,101,102,103,104,105,106,107,108,109,110,111,112,113,114,115,116,117,118,119,120,121,122,123,124,125,126,127
-0.012732297,0.018669419,-0.02711492,-0.05332945,0.08416074,0.08317558,0.046574242,0.023292065,-0.01665049,-0.043204788,0.037605055,-0.06058894,-0.03441388,0.007794477,0.03611158,0.049244843,-0.033222757,0.066217266,-0.071006134,0.009198174,0.040694334,0.019291423,-0.08404134,0.0039797127,0.06529508,0.032879114,-0.0790094,-0.037350927,-0.068355136,-0.08586808,-0.08275462,-0.016766384,0.034636177,-0.04265677,-0.01005391,-0.0465802,0.024264634,-0.008966155,0.07167033,0.08556152,0.0011366084,0.034178734,-0.02015613,0.02440235,-0.08739979,0.043607064,0.04867319,0.0748092,-0.046508044,0.056498922,0.019066662,-0.08693767,-0.04610294,-0.051819477,0.085360594,0.07625037,-0.03653015,0.04454557,-0.07773802,-0.027751382,-0.05624123,-0.0051609576,-0.05672717,-0.026204813,0.088360734,0.0025596395,-0.03040244,-0.07129741,0.032559954,0.06996467,0.06531448,-0.06236115,-0.05031716,0.059389792,0.056978963,0.03632871,0.03209126,0.014756568,0.0116018355,0.030715436,0.06797663,-0.067209765,0.08390512,0.0650192,-0.018583536,-0.014603302,0.022799551,0.05436734,0.030151613,0.01771713,-0.039407272,-0.071707875,0.07172782,0.0705853,0.0148765,0.035546683,-0.057005886,0.034102835,-0.017199002,-0.02247157,0.022684954,0.08325458,-0.025326356,-0.021240301,0.0056384653,0.058874853,-0.0655591,-0.020264909,-0.052588172,-0.00070276856,-0.037406906,-0.065890305,0.05820655,0.02896507,-0.051220622,0.046202727,-0.056153774,0.04695878,0.04641337,-0.062549785,0.058237843,-0.010066837,-0.019590922,-0.021312356,-0.053990513,0.014562666,0.036314085,-0.07897762
