0
0.010063037
-0.05044413
0.047115333
-0.017516881
-0.08344216
-0.048131794
0.00036503375
0.05619634
-0.075594954
0.007944688
-0.07017999
0.060120903
0.069193654
0.028187662
0.08024425
-0.033730775
-0.039399873
0.029630594
-0.012086265
-0.018317603
0.012558609
0.0067322403
-0.04330536
-0.05132033
0.022790655
-0.028212532
-0.049582668
0.047585763
-0.08806989
-0.07367475
0.072976224
0.068639584
0.017907448
0.013534911
0.081077
-0.038092025
-0.0538493
0.07265941
0.06546054
0.049180157
-0.079535075
0.010404162
0.050042264
-0.026028406
-0.0009374544
0.016820848
0.041037105
0.04100264
-0.08739287
-0.0036465377
-0.027368814
0.07329836
0.03465821
-0.0759
-0.02801172
-0.05132409
-0.024176925
0.033229187
0.079725794
-0.06304314
-0.08355387
0.020115405
0.08698592
0.04450088
-0.074874245
0.017980553
0.014799036
-0.011406146
0.08289107
-0.0029116943
0.032035314
0.030600064
0.010507375
0.03161426
-0.022535406
0.0755536
-0.05191553
0.007960424
-0.035464495
-0.086761415
0.087478645
0.06476899
0.06769136
-0.085983425
0.046783425
-0.056421913
-0.056256454
0.07023602
-0.023192167
0.048076905
-0.0742486
0.0444906
-0.02951825
0.07414856
0.06577066
0.06797411
0.08147553
0.006971419
-0.032190815
-0.0625731
-0.048519768
0.07780991
0.04346887
0.07055379
-0.030507859
0.0077702776
-0.051817242
0.02831401
0.05078002
0.07604816
-0.059218556
0.07840369
-0.061265573
-0.005185485
-0.03507606
0.05605366
0.08368062
-0.053421486
0.029917508
0.05911327
-0.01853048
0.010152847
-0.06917458
0.03475266
-0.037213117
0.0011832863
-0.086765096
0.061115347
