0,1,2,3,4,5,6,7,8,9,10,11,12,13,14,15,16,17,18,19,20,21,22,23,24,25,26,27,28,29,30,31,32,33,34,35,36,37,38,39,40,41,42,43,44,45,46,47,48,49,50,51,52,53,54,55,56,57,58,59,60,61,62,63,64,65,66,67,68,69,70,71,72,73,74,75,76,77,78,79,80,81,82,83,84,85,86,87,88,89,90,91,92,93,94,95,96,97,98,99,100,101,102,103,104,105,106,107,108,109,110,111,112,113,114,115,116,117,118,119,120,121,122,123,124,125,126,127
0.01963877,-0.03799672,-0.021821111,0.022878729,0.07872734,-0.08609411,0.06141936,-0.002670601,0.06085021,0.06002503,-0.066870935,-0.054147363,0.04828214,0.066083856,0.022698298,-0.06047944,0.014523685,-0.03239843,0.047688656,-0.011801802,0.015395097,-0.00031603128,-0.052573398,-0.04417802,-0.008494385,-0.06867121,0.049510144,0.0724886,-0.05399301,0.07008245,-0.029368483,-0.07747755,-0.077147484,-0.033366036,0.050371923,-0.052184857,-0.06261496,-0.043644704,0.07575665,0.0085776,-0.07130554,0.0035816953,0.05625411,0.063381635,0.06831045,-0.0466736,-0.05984486,-0.063808896,0.0048120245,0.011912964,0.08501705,0.0596809,0.016324043,-0.027821705,-0.0031663775,0.01759009,-0.027462665,-0.031606194,-0.013649933,-0.08447974,-0.034334265,-0.006070867,0.030074745,-0.051835746,-0.085695036,0.05537606,0.060901172,0.027477987,0.0108517185,0.041622765,0.07868459,0.005163282,-0.063327104,-0.077148646,-0.02745765,-0.05421939,0.07942753,-0.015384011,-0.04858815,0.0514384,-0.0028840527,0.0001802221,-0.00033212453,-0.049566623,-0.032616455,0.035296887,-0.045816246,-0.06734833,0.00857982,0.04285427,0.04679408,-0.030935314,-0.02095709,-0.0056987256,-0.064952984,0.05038435,0.04283329,0.00016934425,-0.025163502,0.0772584,-0.06896134,-0.03846119,0.01834254,-0.03669631,0.08687089,0.061235942,-0.042575143,0.049481414,0.040749513,0.034081362,0.08398331,-0.009073734,-0.0389131,-0.0062749684,-0.053924393,0.07882675,0.0013559833,0.0676026,-0.009680681,0.020680837,-0.067027554,0.066635944,0.06797955,0.04623162,-0.07315796,-0.008612804,0.023988709,0.01732228
