0,1,2,3,4,5,6,7,8,9,10,11,12,13,14,15,16,17,18,19,20,21,22,23,24,25,26,27,28,29,30,31,32,33,34,35,36,37,38,39,40,41,42,43,44,45,46,47,48,49,50,51,52,53,54,55,56,57,58,59,60,61,62,63,64,65,66,67,68,69,70,71,72,73,74,75,76,77,78,79,80,81,82,83,84,85,86,87,88,89,90,91,92,93,94,95,96,97,98,99,100,101,102,103,104,105,106,107,108,109,110,111,112,113,114,115,116,117,118,119,120,121,122,123,124,125,126,127
-0.06300694,-0.030084074,-0.057135005,-0.06675536,-0.018111467,0.07248419,-0.05637261,-0.040363215,-0.080569506,0.042576633,0.0821344,-0.078323044,0.07277853,0.07915529,0.036047168,-0.0013189614,-0.01648967,0.0015503094,0.009426661,0.046743326,-0.007502012,0.039143182,-0.0314857,-0.016720444,0.08529768,0.04269474,0.0147167295,0.065349884,-0.01839105,0.081948824,-0.06264682,0.07104028,0.07420326,0.06291241,0.052718423,0.033850692,0.08641333,-0.008873336,0.050166167,-0.05998978,0.03461819,0.061665244,0.02927836,0.021542877,0.055528857,0.017811023,-0.00713519,0.050618894,-0.061883226,-0.058886744,-0.08769484,0.026446737,0.021590278,-0.07857319,-0.07552872,-0.06762813,-0.0012222156,0.03595026,-0.007052377,0.006878093,0.05546979,0.041171722,-0.060251206,-0.08183721,0.06771364,0.057936706,-0.019154549,-0.059743263,-0.04933204,0.06215907,0.012972176,0.08187876,-0.05672927,0.060894005,0.03188595,-0.021407314,-0.013034999,0.087045036,0.06829121,0.011581302,0.04961849,-0.034968458,0.020700052,-0.03629481,0.032150082,0.045941956,-0.047990825,0.08750852,0.010305628,-0.037608307,-0.070531055,0.013524607,0.049572,-0.053827815,-0.042769376,0.010920025,-0.073340006,0.055993326,-0.023712493,0.029429764,0.083716564,-0.06824562,0.031365007,0.0645112,0.022967152,0.08661079,0.023223348,-0.013912961,0.065063916,0.050364606,0.084068485,0.07861034,0.0035209581,0.015036985,-0.019478932,-0.04485861,0.051790975,-0.04021471,-0.030131191,0.05281087,-0.0175545,0.059668384,-0.0036138594,-0.085784376,-0.08387488,-0.07517257,0.070537694,0.011073828
