0,1,2,3,4,5,6,7,8,9,10,11,12,13,14,15,16,17,18,19,20,21,22,23,24,25,26,27,28,29,30,31,32,33,34,35,36,37,38,39,40,41,42,43,44,45,46,47,48,49,50,51,52,53,54,55,56,57,58,59,60,61,62,63,64,65,66,67,68,69,70,71,72,73,74,75,76,77,78,79,80,81,82,83,84,85,86,87,88,89,90,91,92,93,94,95,96,97,98,99,100,101,102,103,104,105,106,107,108,109,110,111,112,113,114,115,116,117,118,119,120,121,122,123,124,125,126,127
-9.862986,-10.519095,-8.209352,-7.2532887,-9.933203,9.752538,-10.033825,-5.2664757,-6.666456,7.2974467,6.9906397,-9.358732,7.412637,8.302205,-9.042493,-9.017669,-7.484886,-6.981288,-8.900294,7.4128914,-5.9398613,7.692431,-8.9810095,4.5492887,-7.6505365,6.1003623,-8.608184,8.453839,-9.758248,8.795831,-8.264427,9.68564,8.750618,8.894704,8.882073,8.403818,8.35026,-8.25364,-4.258705,6.5784464,7.5932894,8.758656,7.481503,9.104508,8.303063,-6.6876836,6.432315,8.296445,-10.014443,-8.639188,-8.3577795,-7.5874557,8.509225,-10.021059,5.3591304,-8.594608,-7.4699454,7.2894826,-10.365322,6.9608383,9.077684,9.309308,7.0672174,-10.114424,9.8019705,6.302386,-8.640843,-10.257181,6.7409706,7.690578,-7.8944473,8.620115,-9.994941,-8.835263,7.12844,8.468141,8.033201,8.869798,8.563941,9.192237,9.247606,6.342971,9.480601,6.723784,8.032938,9.068503,-9.119305,7.6367936,6.6885095,-8.010488,-7.4049845,5.991154,8.636916,-10.533076,7.561159,7.1216702,-10.354453,8.009575,-8.422618,8.165795,8.876189,-11.070836,8.744025,6.844142,-6.7757826,9.728931,-7.2218194,6.299511,8.760098,7.159051,8.726525,-7.632171,8.494034,-10.799853,-9.479113,-6.8063235,-8.368547,-9.877525,-9.748615,9.166757,-9.768493,9.402364,-6.215869,-9.483612,-9.446003,-7.1124086,8.584765,8.407557
