0,1,2,3,4,5,6,7,8,9,10,11,12,13,14,15,16,17,18,19,20,21,22,23,24,25,26,27,28,29,30,31,32,33,34,35,36,37,38,39,40,41,42,43,44,45,46,47,48,49,50,51,52,53,54,55,56,57,58,59,60,61,62,63,64,65,66,67,68,69,70,71,72,73,74,75,76,77,78,79,80,81,82,83,84,85,86,87,88,89,90,91,92,93,94,95,96,97,98,99,100,101,102,103,104,105,106,107,108,109,110,111,112,113,114,115,116,117,118,119,120,121,122,123,124,125,126,127
0.0019537804,-0.09011705,0.08427135,0.049591966,0.21959314,-0.16815214,0.2565201,0.0018255489,0.01001951,0.184314,-0.1346345,-0.14451636,0.08974788,0.17505565,-0.00049709686,-0.13883993,0.13559957,-0.04515111,0.2674362,-0.024925206,-0.024575068,-0.1231624,-0.12501724,-0.18562429,-0.04087723,-0.1348369,0.03819866,0.027106524,-0.24896827,0.31510738,-0.07848013,-0.032503642,-0.1766288,-0.03820238,0.33339512,-0.22707407,-0.22037522,-0.27096626,0.04897059,-0.09137933,-0.2997047,0.1338706,0.13589701,0.0074459626,0.10489656,-0.0073610595,-0.024774255,-0.08100168,-0.057131615,0.009932211,0.06983221,0.071260095,0.03613885,-0.036254466,-0.15455888,0.15058893,-0.07294095,-0.0747734,0.07397981,-0.09269412,-0.0900437,-0.06543011,0.0050423495,-0.1243193,-0.040925942,-0.024985457,0.029826568,0.046744958,0.0012714361,0.027275627,0.24223427,-0.03393378,-0.21032305,-0.027142284,-0.16789454,-0.16024564,0.10487848,0.18985498,-0.22049221,0.063018054,0.105471805,-0.002315891,0.059800208,0.010415875,-0.24131432,0.22982657,-0.04898801,-0.26623926,-0.0012003937,0.08173817,0.091778025,0.035974517,-0.1657423,0.16229561,-0.17749704,-0.030781941,0.19878018,0.06927746,0.0010695613,0.32451805,-0.12789313,-0.13085175,0.23976363,-0.004882901,0.23023039,0.2084191,0.041037697,0.18350504,-0.037323087,0.19950868,0.32216573,0.031684082,-0.15696494,-0.028976727,-0.22148632,0.063302375,-0.07723814,-0.0777765,-0.039853863,0.10115147,-0.026312795,0.043000273,0.050433863,0.08981355,-0.096751615,-0.07090342,0.04323931,0.08385576
