0
-0.0046120114
-0.019853419
0.039321013
0.02191212
-0.04938835
-0.065006144
0.0050112414
0.09469931
-0.07335708
0.02343976
-0.037447944
0.0855944
0.0028448019
-0.057476554
0.053552996
0.00027809484
0.08441766
-0.04414577
0.060829498
-0.053126365
-0.06690494
0.08175864
0.0549903
-0.0314482
0.07924599
0.01647744
0.039933845
-0.07269116
-0.055132553
-0.057241935
-0.05557693
-0.057881948
-0.017465735
0.0854207
-0.013898079
-0.030751536
-0.091274016
-0.02246973
0.048808753
0.030727683
0.07897672
0.08615854
0.077973075
-0.014940349
-0.014715923
0.060032703
-0.047567047
0.0631362
0.058348276
0.044371147
0.09520938
0.05872429
-0.018175505
-0.0001901713
0.09984196
-0.08319625
-0.098382235
0.048832193
0.06885045
-0.005724156
-0.010704576
-0.071667805
0.09782342
0.0115642585
0.006589125
0.035263326
0.06265173
-0.019473827
-0.03811038
0.05002204
-0.027321074
-0.051160567
0.043928843
0.038408983
0.09191162
0.075490974
-0.055374783
-0.081463315
-0.04522021
0.06847555
-0.08770344
-0.09224334
0.09473807
0.08978059
0.07427602
0.037747007
-0.0043596006
0.03773414
0.052037653
-0.053957716
0.09033967
0.063528575
-0.03760864
-0.0004974243
-0.06084942
-0.082324944
-0.061399046
-0.09097393
-0.009957031
-0.093227014
-0.07555927
-0.03475026
0.07916972
-0.018475404
0.020010602
0.033054885
0.089024
-0.049902756
-0.051955536
0.07693215
0.039044276
0.029569572
0.064369395
0.08337227
0.059471224
0.081077114
-0.042808242
0.0072008893
0.09645213
0.0017599643
0.08343515
0.0058964137
-0.045187697
0.075295344
0.076286346
-0.00011172634
-0.02144657
0.030826543
