0
-0.0044688135
-0.019933522
0.03929942
0.021920606
-0.055668462
-0.06423001
0.0048797727
0.094686024
-0.07318562
0.020228192
-0.0381243
0.08470572
0.004159972
-0.056474186
0.053661846
0.0012093633
0.08495892
-0.044002306
0.06039778
-0.05269133
-0.066544205
0.08073995
0.053480797
-0.03250239
0.07946537
0.014535412
0.039387234
-0.07240729
-0.053528666
-0.05815324
-0.05791668
-0.057704058
-0.018582642
0.083534025
-0.014083408
-0.031977512
-0.090802185
-0.02704712
0.049263023
0.031618662
0.08048958
0.085173436
0.078612395
-0.015856028
-0.0147871375
0.06014318
-0.04812956
0.06094221
0.058486916
0.044844367
0.096830316
0.05753746
-0.018834904
-0.00060504675
0.09770811
-0.08357817
-0.098964766
0.049353905
0.0691124
-0.0066993684
-0.011443496
-0.07107161
0.09801198
0.013466395
0.0072997436
0.03540065
0.062783234
-0.019656815
-0.03804151
0.04935626
-0.030146375
-0.05144496
0.04869307
0.039254315
0.092066936
0.07600515
-0.055526342
-0.07916354
-0.04869751
0.068733834
-0.08808018
-0.09219732
0.094572045
0.08948461
0.07996846
0.036891915
-0.0042874664
0.03807
0.052051373
-0.055010855
0.090571366
0.06359782
-0.038757708
-0.0012963414
-0.059226252
-0.08227591
-0.060900677
-0.09170592
-0.010094658
-0.092808
-0.0743071
-0.033904806
0.07869906
-0.018744186
0.017019548
0.03362667
0.08898442
-0.04747547
-0.051816236
0.078537814
0.04902514
0.029433735
0.066517524
0.08312983
0.056914352
0.08249504
-0.043150403
0.007364467
0.095150374
0.0004049316
0.08369168
0.0059091
-0.044543732
0.07500451
0.076768346
-0.0010986179
-0.020845115
0.029635124
