0
-0.0018825382
0.032293517
0.04002926
-0.03864016
-0.03709186
-0.03417906
0.017331
-0.001461409
0.009965554
-0.015689112
-0.017530013
0.023467798
-0.021168765
-0.033635724
-0.033855014
0.009290844
0.0023808442
0.00013799965
0.03979404
-0.016763672
-0.02227004
-0.029569682
-0.043037713
-0.021644255
-0.0004929863
0.0037670173
-0.03204578
-0.035344843
-0.0016280226
-0.020318331
0.023436245
-0.011358328
-0.031991348
0.041249897
-0.0042706355
0.034636673
0.0060816966
0.007657904
0.035831314
0.0144504905
-0.032846894
0.023421895
0.030672278
0.028916527
0.008423775
-0.016062312
-0.020756442
-0.025948891
-0.033856947
-0.028058369
-0.017285196
0.012013573
0.008373249
0.027954232
-0.03161596
0.04006734
-0.008143831
-0.01806271
0.023884717
0.034461435
0.007092528
0.038389582
0.031903338
-0.020251933
0.01930036
0.0012566671
0.02394155
-0.039523028
0.034685906
0.020827387
0.004017532
0.029544946
0.006052904
0.03374332
-0.022861782
-0.041794073
0.018538821
0.024779689
0.024648111
-0.007244028
-0.035547003
-0.042550292
-0.043741696
0.019191343
-0.021902563
0.040928278
0.006164577
-0.026498804
-0.033767134
0.026285995
-0.034138303
-0.043972306
0.0355901
0.0058341734
-0.0066366643
-0.0124887
-0.0038590766
0.029922169
-0.04089231
0.027884018
0.02008259
-0.03905912
-0.009431001
-0.032768283
0.04192051
-0.015528958
0.02026179
-0.015368907
-0.031294387
-0.0024473295
0.029709894
0.004635256
0.024213638
0.032279115
-0.03429303
0.039911654
7.145479e-05
-0.016154133
0.026916761
-0.042045217
-0.041252714
0.02514093
-0.02225026
0.00432273
0.023108777
-0.030057672
-0.039584205
0.030476805
-0.0053391457
0.019702274
0.005694993
0.040433932
-0.00083468854
-0.0052672513
-0.03447276
-1.6354024e-05
0.01585688
0.02021217
0.005713485
0.03587174
-0.0056064725
-0.007011082
-0.026360704
0.039650794
0.0010497048
0.04206376
-0.023631427
-0.0128046125
-0.030990966
0.0019555092
0.0010344312
0.011910953
-0.029387964
-0.0059211142
0.0013671368
0.020653907
-0.013463499
0.0076712593
0.0036370158
0.011408929
0.043380287
0.027380299
0.01945005
-0.033600673
0.012825776
-0.02594167
-0.04159976
0.010426644
-0.022207895
0.021002952
-0.008500196
-0.04033104
-0.02528175
-0.031796187
-0.027554829
-0.042267162
0.02872574
0.03371929
-0.024077551
-0.0073355585
-0.0396708
-0.009681322
0.000425376
-0.028321639
0.012412522
0.02423117
0.04079056
0.030283783
0.025790509
0.006176289
0.007877864
0.0377622
-0.038515132
0.0085804835
0.006203126
0.03618477
0.00815545
0.036363218
-0.0016624779
0.0018426925
-0.011015959
0.00718344
0.021139909
0.032064665
0.009249032
0.017230608
-0.023248276
0.012315556
0.027843822
0.034171436
0.0023213476
-0.027702454
-0.04249434
0.013428949
-0.0318259
0.010287877
0.012392547
-0.044027887
0.023373727
0.013029855
-0.00581187
0.03195027
-0.028579067
-0.012509625
-0.004646372
0.036082488
-0.037303854
0.03145976
-0.012906417
0.026547987
0.03210024
-0.03549272
0.026759785
-0.041486174
-0.03241717
0.021475215
0.03919508
-0.043883223
0.012877312
0.018989902
-0.017277753
-0.0109476
0.043052543
-0.011887085
0.0009344518
0.012051456
-0.013016479
-0.021438673
0.024704892
-0.0009081736
-0.037187982
-0.0027400292
-0.030752085
-0.04164292
0.0027336217
-0.038118854
0.040900584
0.0282288
-0.038178526
0.024668302
0.016634919
-0.012971403
0.020168107
-0.02045355
-0.020270111
-0.016061094
0.03626013
0.043249104
0.0057006814
0.010417722
-0.005838845
-0.021214642
0.030312974
0.032633077
0.03335317
0.017564766
-0.032786854
-0.011504021
-0.03659756
0.020381723
-0.038984407
0.002924528
-0.008365922
0.01858132
0.0072242953
0.019264411
-0.041833084
0.038565043
-0.02347168
-0.0059250556
-0.03063795
-0.023700615
-0.027436981
-0.034886226
0.029385548
-0.015063172
-0.016213518
-0.035184424
0.03034914
0.0416109
-0.013243498
0.016880888
0.03613681
0.01867329
-0.007813357
0.037111048
0.036087286
-0.03723118
-0.004946839
-0.00029867515
-0.013772905
0.041307125
-0.004494913
0.01260972
-0.023632497
0.03690474
0.022531483
-0.043370925
0.026988368
-0.02971837
-0.020074692
0.018695649
0.00636854
-0.00016821921
-0.011531506
0.03905576
-0.038630743
-0.021926623
0.022182543
0.037698884
0.015809376
0.004855875
0.022097442
-0.03054972
-0.0045992844
-0.031488415
-0.021715436
0.008827377
-0.004680261
-0.01868621
0.008723885
0.02718274
-0.036832303
-0.024200393
0.003535442
0.015250485
-0.01019869
0.005880881
-0.042470567
-0.0050565265
0.022094782
0.007881008
0.033125754
-0.032303456
-0.0033056624
0.039699752
-0.025100334
-0.03579826
-0.009532142
-0.02855676
-0.03813346
0.0070942827
-0.01790081
-0.028466096
0.0026814863
-0.027742742
0.043899607
-0.0061368532
0.031818975
-0.039372027
-0.0037202872
-0.020278977
-0.034132868
0.008800779
-0.043970954
-0.032542236
-0.0397816
0.035541978
-0.017330637
0.010129601
0.037414465
-0.029346913
0.005651556
-0.027587583
-0.012047276
0.013770301
-0.042961895
0.015197124
0.041079957
0.02535921
-0.020257767
-0.00481255
-0.026377467
0.031648193
0.026756119
0.023133729
0.010885969
-0.010652438
-0.030093476
0.03336067
0.0029202923
-0.006752193
0.0110262
-0.011566013
-0.029176723
-0.03358087
-0.040828466
0.033783633
-0.0056837723
0.04049025
-0.022807846
0.043728437
0.03127515
0.03617057
0.037113864
0.004389055
0.028614704
0.011907522
-0.019480279
0.027483467
-0.008001938
-0.007588286
0.031561095
-0.024539445
0.04278623
-0.03912678
0.024108369
-0.028841384
-0.0074143
0.03293575
-0.021082085
0.042854045
-0.016989995
0.010668609
-0.025240825
0.03001922
0.018525701
-0.030718967
-0.038136754
0.015977122
-0.0075775124
0.0119767785
-0.018228374
-0.03882435
0.022119116
-0.033777058
-0.021763036
0.04349726
0.023896854
0.026928466
-0.0009474233
0.0042509884
0.012889449
0.02919041
0.040827665
0.011885736
-0.03418771
-0.024829503
0.031154122
0.041480605
0.030143883
0.010558065
0.00038244948
-0.015737902
0.0032312945
0.026430454
-0.02734843
-0.0068715066
-0.0050855763
0.0022553317
0.019220132
0.03192093
0.01197597
-0.012525409
-0.033417724
0.034459498
-0.034344956
-0.0408665
-0.03530684
0.029563565
0.035880912
-0.0073446147
-0.03385679
0.019327942
0.0009913631
0.02416787
0.01183505
-0.0373706
-0.04167408
0.016216747
-0.004441645
0.02952047
0.021136563
-0.039152794
-0.03464061
-0.025912562
0.0048854426
0.026976068
0.029132862
-0.031661775
0.029779252
0.0047803484
0.007309828
0.033125777
0.026408475
-0.021605806
0.010138597
0.042320836
-0.026506774
0.022074852
-0.03759395
-0.014064835
