0,1,2,3,4,5,6,7,8,9,10,11,12,13,14,15,16,17,18,19,20,21,22,23,24,25,26,27,28,29,30,31,32,33,34,35,36,37,38,39,40,41,42,43,44,45,46,47,48,49,50,51,52,53,54,55,56,57,58,59,60,61,62,63,64,65,66,67,68,69,70,71,72,73,74,75,76,77,78,79,80,81,82,83,84,85,86,87,88,89,90,91,92,93,94,95,96,97,98,99,100,101,102,103,104,105,106,107,108,109,110,111,112,113,114,115,116,117,118,119,120,121,122,123,124,125,126,127,128,129,130,131,132,133,134,135,136,137,138,139,140,141,142,143,144,145,146,147,148,149,150,151,152,153,154,155,156,157,158,159,160,161,162,163,164,165,166,167,168,169,170,171,172,173,174,175,176,177,178,179,180,181,182,183,184,185,186,187,188,189,190,191,192,193,194,195,196,197,198,199,200,201,202,203,204,205,206,207,208,209,210,211,212,213,214,215,216,217,218,219,220,221,222,223,224,225,226,227,228,229,230,231,232,233,234,235,236,237,238,239,240,241,242,243,244,245,246,247,248,249,250,251,252,253,254,255,256,257,258,259,260,261,262,263,264,265,266,267,268,269,270,271,272,273,274,275,276,277,278,279,280,281,282,283,284,285,286,287,288,289,290,291,292,293,294,295,296,297,298,299,300,301,302,303,304,305,306,307,308,309,310,311,312,313,314,315,316,317,318,319,320,321,322,323,324,325,326,327,328,329,330,331,332,333,334,335,336,337,338,339,340,341,342,343,344,345,346,347,348,349,350,351,352,353,354,355,356,357,358,359,360,361,362,363,364,365,366,367,368,369,370,371,372,373,374,375,376,377,378,379,380,381,382,383,384,385,386,387,388,389,390,391,392,393,394,395,396,397,398,399,400,401,402,403,404,405,406,407,408,409,410,411,412,413,414,415,416,417,418,419,420,421,422,423,424,425,426,427,428,429,430,431,432,433,434,435,436,437,438,439,440,441,442,443,444,445,446,447,448,449,450,451,452,453,454,455,456,457,458,459,460,461,462,463,464,465,466,467,468,469,470,471,472,473,474,475,476,477,478,479,480,481,482,483,484,485,486,487,488,489,490,491,492,493,494,495,496,497,498,499,500,501,502,503,504,505,506,507,508,509,510,511
0.0030595718,0.14782034,0.025207404,0.0044828462,-0.03829444,-0.027758228,-0.10577259,0.05963529,0.18617058,-0.0016997827,0.07532954,0.055271216,0.027368601,-0.06513434,0.07080918,0.04562638,-0.10416308,-0.19852947,0.09737391,-0.081800394,-0.10684217,0.15249331,0.030411297,-0.043084145,-0.042592824,0.047026258,-0.12498856,-0.026755352,-0.10129327,0.04547882,-0.07126156,-0.10995421,-0.12525475,0.05054745,-0.17899305,0.07945284,-0.034933645,-0.031457968,-0.09330235,0.026913172,0.09792098,-0.09275155,-0.043618094,0.09362119,0.11927258,0.06349775,0.08321375,-0.09289012,0.03420987,0.0356844,-0.10438591,-0.092828535,0.005209545,-0.10203256,0.115014605,0.13109216,-0.090892576,-0.09953071,0.0367281,0.019256722,0.07066916,-0.082909524,-0.06033588,-0.031149797,-0.1148548,-0.065938614,0.06448884,0.08634111,-0.12789893,-0.03832438,0.16203167,-0.05949112,-0.10651134,0.07730238,0.08236406,-0.15635714,0.006770375,-0.05778195,-0.046029054,-0.06998619,-0.15413798,0.054759033,0.06470064,-0.04354292,-0.18353851,0.109385304,-0.051920444,0.00934146,-0.04784864,-0.004828318,-0.041222937,-0.04643014,0.13351786,0.123342745,-0.08475755,-0.08483696,-0.05407691,0.074985564,-0.09147545,-0.056725767,-0.05475151,0.10862734,0.05526171,0.010527794,0.034842953,0.0745284,-0.021841193,-0.093727484,-0.0503511,0.121908374,0.084620126,-0.24747646,0.028740145,0.006758316,-0.010706237,-0.093071595,0.05601781,0.04646536,0.06279134,0.025124652,0.18081282,0.07559581,-0.048539933,0.036164667,-0.15141419,-0.013235106,0.033646896,-0.030199453,-0.004192697,0.04259015,-0.0026246624,0.07302899,-0.0132711865,-0.00881531,0.1723926,-0.016336193,0.006858285,0.02917827,0.0024372719,-0.010964552,0.0724467,-0.19910225,-0.1403608,-0.08562373,0.12172278,-0.052326486,0.023948725,-0.13576251,0.080903165,-0.0015664393,0.16344526,-0.04671388,0.028567044,0.028403398,-0.019861525,-0.053994574,0.12898566,-0.056857906,-0.09591731,-0.051438943,0.056225643,-0.16454647,-0.041160796,-0.039094705,0.018905595,-0.10203568,0.081793025,0.011925621,-0.103468515,0.010279802,0.07011662,-0.12806913,-0.009471532,0.049965553,0.13960993,0.057223704,-0.08052949,-0.08624802,0.06913156,-0.10061997,-0.2471292,-0.13528898,0.1436494,-0.0833592,0.08601645,0.063011155,0.1230526,-0.0021936153,-0.08830823,0.1464598,-0.039786644,-0.07295697,0.20136452,-0.089061454,-0.030032372,0.14723599,-0.1177257,-0.012891383,0.1021669,0.13901027,-0.071011566,0.08249263,0.045494363,0.0554821,0.062319078,-0.020124294,0.012901638,0.057611927,0.14868502,-0.03190165,0.038439833,0.08698639,0.066950485,0.055098813,0.1153888,0.05755298,-0.01055241,0.02108411,-0.0025154436,-0.02493812,-0.06707501,-0.020416945,0.10019554,-0.08480984,-0.077927284,-0.11510514,0.029938048,-0.017073793,-0.039698984,0.08844716,-0.048072465,0.11570245,0.03890048,0.16034697,0.074874364,-0.07029806,-0.0019880072,-0.12130514,-0.014116406,-0.0051142517,-0.13920033,-0.014062616,0.084683985,0.13265818,0.074897714,0.05857988,0.08864255,0.0031473674,-0.020713508,0.11603951,0.045923583,0.16855489,-0.1295257,0.058025397,0.14384322,-0.12232548,0.10689698,0.033141475,-0.09934692,-0.14156325,0.1492624,-0.10978783,0.025393544,-0.0040556705,-0.0669164,-0.023189722,0.063764974,0.083957426,-0.110242054,-0.07191732,-0.05118006,0.24374174,-0.026730753,-0.07136934,-0.08730582,0.03146508,0.072348416,0.074869275,-0.006883038,0.021250783,0.062112015,-0.14857556,-0.124262325,-0.0026008147,-0.0037105114,-0.06151065,0.22012994,0.024199607,0.045027263,0.12239359,-0.048097804,0.12768602,0.06877459,0.052652832,0.028440053,0.08500038,0.05233906,0.039729755,-0.039415106,-0.004953291,0.20068547,6.4371125e-05,-0.15896076,-0.17450418,-0.05538813,0.116402045,0.022519179,-0.07690201,-0.05111428,-0.08487444,0.1398228,0.21524009,-0.07982184,-0.013843644,0.0020556885,0.07921811,0.05155984,0.079612866,-0.08745802,-0.10231847,0.018485919,-0.1206835,0.10403818,0.025700122,0.031465523,0.032808036,0.11205133,-0.03210457,-0.086074315,-0.10321255,0.09636929,-0.11393705,-0.033467323,0.017186277,-0.08094304,-0.0034472838,0.09529618,0.029755162,0.06189049,-0.062129784,0.10366213,0.09339838,-0.015581716,0.06852635,0.049829602,-0.081726104,-0.03351605,0.06804479,0.06822054,-0.09392576,-0.008345838,-0.09188185,-0.067912556,-0.030745553,-0.078603595,-0.07289445,0.12419654,0.12961593,0.16378228,-0.077703856,0.035003297,0.009060549,-0.024409551,-0.014910973,-0.1217167,-0.08740517,0.010912886,0.009897699,-0.0086018825,-0.11742747,0.07100853,-0.030692223,0.042420194,-0.066649064,0.0831442,-0.12107625,0.15035489,-0.003928933,0.12912644,-0.1364998,0.060323685,-0.028266488,-0.05636544,-0.036414046,-0.018945364,-0.013322634,-0.0145991715,-0.053850006,-0.043825235,0.11499527,0.025127057,-0.023809906,-0.076145016,0.15071864,-0.12073888,0.0833385,-0.08037111,-0.06269839,0.01570833,-0.015217563,0.063934326,0.013297167,0.088982515,0.10921488,0.012379301,-0.13560736,0.12694812,0.092032865,-0.10057222,0.15270418,-0.13614853,-0.10259864,0.13617682,-0.17355841,-0.00805538,0.07745982,-0.0006660649,0.05686215,-0.05035178,0.09743332,-0.10385902,-0.0516589,0.052687682,0.0488435,0.11567148,0.12600103,-0.069300346,0.027216824,0.035687465,0.12135684,0.0007329664,-0.09737331,-0.011307652,0.06663192,0.08055769,-0.009498128,0.07298556,-0.113906465,0.16653648,-0.065801784,0.08427855,0.013772897,0.1786102,0.009167739,-0.027468953,-0.022854552,0.12030694,0.11944577,-0.082255624,-0.03948716,0.10608308,0.014488269,0.05653481,-0.08446708,0.089529894,-0.013506471,-0.08801816,0.022313679,-0.048534762,0.047804914,0.16096948,-0.07700397,-0.10042649,0.060539562,-0.06017189,0.11136661,-0.215429,0.15068203,-0.15278813,-0.047098212,0.05164709,-0.07395735,0.00014216607,-0.0012837746,-0.041786224,-0.15041594,-0.17721774,-0.134701,-0.14655934,-0.14921783,0.0018321248,-0.07404636,0.07532438,-0.112433806,-0.03376185,0.04093914,0.09617926,0.13445137,-0.05798402,-0.15975711,0.038882136,-0.046616998,-0.056844346,-0.011728221,-8.909846e-05,-0.061271016,0.08770441,0.041319083,-0.009172707,-0.120433874,-0.077228695,0.13109803,0.12587123,-0.071939915,0.15782169,-0.026033198,-0.036222864,-0.017966054,0.04366724,0.010385926,-0.08097599,-0.062112395
-0.03527579,0.0347073,-0.23302034,0.10656682,-0.09027347,-0.10159395,-0.12998615,0.1255079,-0.020950466,-0.16046187,-0.034464385,0.000873546,-0.038116407,-0.10005023,0.13008207,0.06452046,0.009280489,0.13938005,-0.15666963,-0.087473124,-0.16464552,0.07704803,0.078349896,-0.14544451,0.010035145,-0.005467114,-0.07504741,0.06142743,-0.005607125,-0.07391895,-0.07434362,-0.0035562282,0.06303202,0.08202823,0.05071669,-0.11285277,0.074885145,-0.11715467,-0.113288835,-0.023672186,0.092218444,0.0665024,-0.013714276,-0.06941131,-0.02982882,0.061560817,0.013367889,-0.14049585,0.01682754,0.0068494226,0.0884631,0.029214505,-0.041325,0.11646118,-0.037562132,-0.10147085,-0.0040770355,-0.16127001,-0.089223355,-0.08980276,-0.04906163,-0.06906445,0.033085566,-0.002531678,0.07084847,-0.03897683,0.04453336,0.061511204,0.122219324,-0.10402668,0.040747475,-0.03467756,0.091036685,0.048114695,0.112606734,0.08523413,0.02341042,-0.08649073,-0.19769584,-0.048376106,-0.12169464,0.13786136,0.053413045,0.12685019,0.089767545,0.15420336,0.18381003,-0.056501534,0.24727702,-0.11211999,0.14911108,0.07063644,-0.00077687355,0.037189208,-0.025697019,0.11160926,-0.057851586,0.0809744,-0.015165073,0.07751817,-0.072646245,-0.003951356,-0.12348761,0.20258568,-0.0017189794,0.026018646,0.033532128,-0.016050115,0.14024991,0.05112859,0.053033095,-0.023223303,0.12578106,-0.13688952,0.0057667503,-0.0063209683,0.05122676,-0.17253697,0.17622945,-0.10258732,-0.092761226,0.035907734,0.10056222,0.05854273,0.08917315,0.09122588,0.2246557,0.12002571,0.045792043,-0.061304513,0.027320698,0.069853984,-0.030914133,-0.12973729,-0.032710493,-0.14627753,-0.039222497,0.17291386,0.02169373,-0.085805275,-0.036049657,-0.17533956,0.033339992,0.08495801,-0.13258696,0.024728749,0.043150723,-0.044873826,-0.0061025987,-0.07859679,-0.017504623,-0.16721186,-0.0032643327,0.017327778,-0.050238874,0.08601085,0.267089,-0.004665442,-0.042473312,0.004303555,-0.13154034,-0.087486714,0.016427893,0.15188004,-0.15388386,-0.055696808,0.12550895,0.09303163,-0.06484076,0.050009206,0.031978704,-0.024069043,0.026817957,0.069361754,0.18380198,-0.19368128,-0.0093855895,0.1205739,-0.0005512264,0.17864278,0.029731842,0.092383035,-0.16665027,-0.013303973,0.13028325,0.024723377,-0.09682901,-0.059593413,-0.008411784,-0.07334352,-0.049538795,-0.013859713,0.22732282,0.16258371,0.041883733,0.09177672,0.065548316,-0.15759352,-0.067465834,-0.016869519,0.04488417,0.06867244,-0.06325424,-0.008221647,0.031298447,0.18068744,-0.0018058538,-0.19229008,-0.06792532,-0.03755767,0.06666595,0.012319881,-0.18193923,-0.08593601,0.12282253,-0.20006728,-0.009593907,0.07798128,-0.019404056,0.09006721,-0.15889578,-0.20693444,0.016693307,-0.066970475,-0.12518209,0.07057658,0.032375943,0.066505514,0.052433066,-0.058005914,0.1461414,0.060341705,0.022715706,-0.1661352,-0.119646035,0.21018943,0.22334407,0.008967488,0.017712474,0.019722287,0.32951596,-0.14013311,0.085741825,0.11369796,-0.2062577,-0.09353177,0.048791014,-0.101023346,-0.088125184,-0.053532723,-0.09965609,0.09420003,-0.15175101,-0.12085946,-0.033037294,0.079816476,-0.26343852,-0.01768282,-0.16967604,-0.034517203,-0.016291182,0.15611492,-0.015603782,-0.020141184,0.11314993,0.030204084,0.15806396,-0.114063956,-0.046362255,0.11647566,0.10747155,0.046250723,-0.049815785,-0.07083017,0.039235204,-0.05698566,0.028575318,-0.18951204,0.12578943,0.108623065,0.03357399,-0.04023576,0.0007422407,-0.0018998157,-0.05727076,0.14538369,0.0059794006,-0.0063025053,-0.15797627,0.029378947,0.07916127,0.06453693,0.18052375,0.07869021,0.11823042,-0.03713594,0.14020377,0.004176853,-0.20465483,-0.0015492935,-0.0066663506,-0.1801348,-0.021525286,-0.04164572,0.10451997,0.038361054,-0.27798826,-0.14757419,0.1535633,-0.0770217,0.06162449,-0.043367248,-0.11383037,-0.09142026,-0.043341644,0.16357067,0.19886194,-0.20196682,0.14254098,-0.15279087,-0.114682466,0.003919162,0.07972504,-0.019153586,-0.20115045,-0.15814057,0.1730274,0.09817903,-0.1301531,0.006820047,0.012278734,-0.13467032,-0.12415683,-0.14769465,-0.1357775,-0.11240326,-0.11779703,-0.035938136,0.14279246,0.15266573,-0.10752911,-0.122894526,0.07321121,-0.04635587,0.022094566,0.03639628,0.08093244,0.10685561,0.0043159346,-0.10391646,0.006092014,-0.1320438,0.08851246,0.07369025,0.20173945,-0.117415175,0.0047496282,-0.016378755,0.089732446,-0.08439517,-0.072088815,-0.057403225,-0.03176979,-0.058956016,-0.0035283554,0.06633545,-0.0825328,-0.073614776,0.09442999,-0.22921766,0.05012626,-0.2233401,0.21578024,-0.028949045,0.13696612,-0.05651731,0.060118258,-0.09228834,0.0037413083,0.084239095,-0.120184295,0.195361,0.059862867,-0.070423044,0.07000524,0.050349224,-0.09231755,-0.036488682,0.15142629,0.033096038,-0.06852379,0.08080649,-0.049323298,0.12049121,-0.0022022927,0.1578917,-0.14522576,-0.027723448,-0.031211723,0.14148675,-0.06823253,0.00102345,0.03489257,-0.077283755,-0.12802257,-0.071803115,0.11746976,0.13467617,0.21937421,-0.08478444,-0.048993867,0.014951782,0.100621894,-0.07828182,-0.06364722,-0.1222055,-0.03050168,0.06270287,0.04618566,0.13330497,-0.03415412,0.113131136,0.01910077,0.032713193,0.013172701,0.07425912,0.21553597,-0.09293812,-0.106630296,0.0007780597,0.11375508,-0.15265623,-0.1740781,0.15565622,0.17088468,0.017234014,0.046921365,-0.09488673,0.058777947,0.030214168,-0.101491295,0.04731683,0.008120881,-0.034634624,0.07705313,-0.05468716,0.12256404,0.018521281,-0.034271512,0.07340905,-0.035676464,0.1053878,-0.024137309,0.05425767,-0.021914179,-0.10012769,0.006426711,-0.04573789,-0.032555174,0.03200835,0.09768828,0.037005108,0.08286012,0.21686763,-0.029286625,0.07616572,0.11113906,-0.09968854,-0.04481459,0.13032348,-0.04790716,-0.05825732,-0.05536838,0.12296686,-0.105386525,-0.0947136,-0.04040391,0.077198416,0.15433885,-0.021586055,-0.07611603,-0.027175413,-0.076037735,-0.052914828,-0.093290165,-0.17337291,-0.0026863716,0.1026689,0.11368082,-0.0034326767,0.12216034,-0.079438776,0.24816579,-0.022180235,-0.07588078,-0.06440342,-0.13827911,-0.25523487,0.036811195,0.030561324,-0.039243847,0.08961641,0.028039865,0.033551864,-0.068136044,-0.058338065,0.01597092,-0.017564427,0.01107091,0.033016976,0.046189,-0.12738365
-0.036000613,0.15768938,0.0037372785,0.10790424,0.033121873,-0.07324334,0.035456393,0.057436127,-0.0123689445,0.015740788,-0.030289514,-0.041278053,0.010846625,-0.017691072,0.051720783,0.030487753,0.0964293,0.11415891,-0.0035372504,-0.022749446,-0.011161317,-0.061916064,0.12365187,-0.03721749,-0.011279188,0.15494525,0.06313071,0.022066504,-0.11353192,-0.0631674,0.0041283886,0.1289183,0.051251374,-0.08630076,-0.08661584,0.06890082,-0.057785325,-0.1181462,0.018542426,-0.0024246804,0.078701966,-0.03664007,0.13230745,-0.07807326,0.16252927,-0.057762045,0.06725511,0.030579202,-0.0062654694,0.022455608,0.037032265,-0.12917024,-0.0851323,0.09297451,-0.040521577,0.043200847,-0.023232283,0.030467028,0.06636325,0.13983847,0.021412298,-0.05382149,-0.0007713764,-0.008139501,0.014436177,-0.07293434,0.024201564,-0.03414764,0.060997523,-0.06377656,-0.12219163,-0.09066269,-0.0794812,0.009500316,-0.024607403,0.027369792,-0.0950851,0.019057134,-0.011539077,-0.044863585,-0.00031705335,-0.039571002,0.045351733,-0.08542033,-0.045869865,-0.068006895,0.026838114,0.007920172,-0.056238513,-0.057470616,-0.033827342,-0.061970644,0.0893718,-0.062378537,0.025173908,-0.04440601,0.018087516,-0.0026281553,0.1291759,0.053955123,-0.09663536,-0.059717458,-0.03849229,0.110310726,0.012619655,-0.016537864,0.040011726,-0.11200551,0.05796283,0.05043051,-0.08275054,0.06509524,0.009985406,0.016203523,-0.084416956,-0.16856387,-0.08294963,-0.0706724,-0.040363822,-0.16358165,-0.079701476,-0.063485935,-0.01523718,0.12989499,-0.10123361,0.06867549,-0.09894985,-0.04256822,0.03263432,0.10020753,0.007117312,-0.06356128,0.17364164,0.049868714,0.02565382,0.020629913,-0.02793759,-0.035141308,-0.00727922,0.118854254,-0.09679274,0.046969038,0.0242263,-0.08850542,-0.11572498,-0.081972435,0.07796657,0.030644743,0.04639667,0.06574954,-0.11317704,-0.007762741,-0.16209562,0.009684693,0.045637425,-0.027716786,-0.017615946,0.054067455,0.046201658,-0.09998789,0.15788125,0.09159833,0.03825727,0.039477017,0.1550047,-0.0103893215,0.051957894,0.048365433,0.09962425,0.004256658,0.06612685,-0.12602939,-0.021014543,0.027556337,-0.06707745,-0.0040345383,-0.026129114,-0.102291286,-0.059347752,-0.053574126,-0.03748506,-0.037009973,-0.013395942,-0.008588199,-0.058741618,0.049023774,0.025540408,0.10745023,-0.061242975,-0.022904549,0.103807464,-0.112470314,0.033316057,0.03571895,-0.095998734,0.12200943,-0.026575902,-0.018432356,0.07536751,-0.029079262,0.0028110947,-0.029312594,-0.033858486,-0.029593034,-0.14062949,-0.047788642,0.023434322,0.106079854,0.030250655,0.10117954,-0.066644676,0.03672001,-0.01985574,-0.113812305,-0.016279563,0.09407192,-0.017574763,0.034380443,-0.072061054,0.04199503,0.08296665,0.050688885,0.046151314,-0.03210012,0.043768898,-0.037383303,0.06137037,0.008819756,-0.0042605107,0.002748208,-0.107925616,-0.085010156,-0.04229761,-0.0606492,0.0379385,-0.10926211,0.011765211,0.0031261123,0.0072958963,-0.005667282,-0.09913574,-0.08133691,0.04944841,0.021703979,0.11786991,0.044681408,0.0809785,-0.030396922,-0.1048539,0.11498362,0.058449276,-0.06432232,-0.018493133,0.040162086,0.030916272,-0.07025723,0.11347775,0.06817913,0.046835314,-0.14258745,-0.03004791,-0.016552385,0.053250417,0.048088647,0.07668294,-0.111946054,0.09884636,-0.022868719,-0.0314967,0.1070611,0.041894898,0.036702044,-0.0491067,-0.023450319,-0.033714775,-0.09682889,0.029589273,-0.026911639,-0.011735035,-0.14619777,0.0018132897,-0.039403345,0.11378846,0.09249019,-0.09596546,-0.21076538,-0.07871281,-0.12119715,0.050314464,0.071121834,-0.1294741,0.14571585,-0.028035685,0.030560778,-0.0052195927,0.098554954,-0.018396106,0.06252328,-0.014549139,0.067487344,-0.12969711,-0.033754773,-0.049377523,-0.0030095305,0.015121963,-0.04428458,0.103600636,0.10399018,-0.12976795,0.04866467,0.053103395,-0.08938512,-0.13258405,-0.030497998,0.11827682,0.15389489,-0.023218717,-0.060267113,0.1030463,0.019629702,0.045720134,-0.024947003,0.04557239,0.044309676,0.012646053,-0.040626347,0.014315013,-0.06203818,0.07458742,-0.0019307323,0.03827034,-0.075129405,-0.13244726,0.07274946,0.086854264,-0.041089013,0.004973178,-0.095983244,0.037352838,0.061088063,-0.028341396,0.09942532,0.14198242,-0.103881545,-0.06403325,-0.09214223,0.047342688,0.007989205,0.006503762,-0.006808498,0.09066489,0.032740016,-0.088789105,-0.1063327,0.19017397,0.016717086,0.04558432,0.024439486,0.048384756,0.09799141,0.0032294635,0.1084124,-0.08194299,-0.060161732,0.072880894,-0.021945609,0.055709895,-0.062277548,-0.024402305,-0.098580785,-0.12912077,0.052812666,-0.029500138,-0.026307248,0.007833731,-0.109391235,0.12356206,0.01179637,0.0762477,0.0060841762,-0.027911725,0.0020686823,-0.0046140333,-0.033361856,-0.05978254,0.052730598,0.119879335,0.04254896,0.06497409,-0.07456207,0.06667165,-0.08892683,0.033095498,0.06117946,0.045740377,-0.07816047,-0.15150546,0.024504898,0.047400072,-0.15862545,0.07575578,-0.098929055,-0.10243764,-0.04090367,0.14529896,0.008041154,0.03583623,-0.06227665,-0.028662616,0.038384523,0.008160743,-0.14144076,0.06385907,-0.086295106,-0.105119795,0.120357364,0.041847516,0.025352066,-0.082125895,0.052772105,-0.001602519,0.009942492,-0.10110185,0.020050876,0.009736655,-0.043146305,0.0004590708,-0.08443809,-0.05562877,-0.123919174,-0.014493412,-0.078061126,0.058912314,-0.025351187,0.036896452,0.110315576,0.086896844,-0.052964665,-0.07252446,-0.03777599,-0.043906458,0.06223542,0.14489122,0.057876527,-0.0388341,0.041127816,-0.03963706,-0.04503514,-0.07791039,-0.07728946,0.0013824665,-0.04684924,-0.066442996,-0.022944385,0.036157113,-0.010480482,-0.08531646,0.020548098,0.05893504,-0.053532343,0.10948936,-0.055174537,0.027045224,0.049725145,0.11091293,0.058506995,0.13762291,-0.091227494,0.08179412,-0.062220845,0.040946905,-0.072317444,-0.1492222,-0.01194542,-0.048288066,-0.11110798,0.1007817,-0.008811071,0.031208841,0.14607202,-0.08374116,-0.050795242,-0.08454452,0.059931006,-0.07173717,0.05077771,0.07251494,-0.041556742,0.110030934,0.06320981,-0.06780071,-0.058939308,-0.02430048,-0.017226605,-0.02815409,0.07188109,-0.1055124,-0.06093331,-0.0072775264,0.057825655,-0.05546764,0.063010745,0.14301832,-0.114239216,0.0048891385,0.095512934,0.14324524,-0.021815788,-0.108304106,-0.11890981,0.011552151,-0.102482714
-0.050954994,-0.02938458,-0.0142527195,-0.026287882,0.025280217,-0.0006801236,-0.06662199,-0.024269158,-0.004516415,-0.018795673,-0.00090004224,-0.06029085,0.081670925,-0.06628816,0.07836775,0.0006170478,-0.044568285,-0.09001588,-0.009512829,-0.121049106,-0.03810256,-0.0632307,0.10869091,-0.17558199,-0.120724276,-0.116277546,-0.0206918,-0.038923334,0.08271249,0.053268693,-0.09586144,-0.11808548,0.057925224,0.11691426,0.1281448,-0.11658996,0.14145893,0.075747855,-0.1430521,0.008689042,0.13053086,0.026944252,-0.11361172,0.1056963,-0.03337387,0.0029801126,0.025276668,0.075450644,-0.0071860375,0.07002507,0.07655925,-0.06374374,-0.0009393275,0.12568887,-0.05239535,-0.09525475,0.020240575,-0.12622026,-0.026978906,0.06493408,0.087072134,-0.106946565,-0.09445806,0.11285556,-0.0485267,-0.0121640805,0.0679237,-0.063916005,0.033864908,0.00039657092,0.10548609,-0.03504561,-0.0006649858,0.1328067,0.07166487,-0.06323154,-0.008446971,-0.058697782,-0.10778392,-0.0735273,-0.15543868,0.12683964,0.015368652,0.09697227,-0.07315087,0.070762336,-0.06398144,-0.11957565,0.10148837,0.0038630886,0.044497944,0.088659726,-0.05115783,0.03599105,-0.02942352,-0.034265738,0.11168605,-0.013446918,-0.11651319,-0.12709759,-0.120965764,-0.1107007,0.08813064,-0.11121649,0.044293918,-0.08022901,-0.07949355,0.027044665,-0.1456608,0.07002622,0.14347138,0.0009122743,-0.016956385,-0.074960664,0.004366469,0.10997352,0.063471116,0.08809332,0.1420657,0.026994318,0.1661481,0.05310531,0.02202826,0.02003772,0.0870756,0.08846191,0.028134564,-0.0058462783,0.05469199,-0.084428154,0.02976271,-0.09385856,-0.121335216,-0.09227321,0.005579214,0.06252219,0.09230458,0.024154088,0.018202893,0.016485287,0.02806867,-0.023340037,-0.04422422,-0.008513856,-0.060881715,-0.07231502,0.06587002,0.0062686144,0.0060059223,-0.0819734,0.095924385,-0.095943406,-0.020333102,0.024438368,-0.12885788,-0.046632633,-0.052493125,-0.0039148326,-0.10899495,0.04779085,0.0576662,0.07296334,-0.04377182,-0.107614115,-0.021312017,-0.13056462,-0.15437637,-0.030377299,-0.08255181,0.09262772,-0.15833302,-0.009340642,-0.00241256,-0.05820655,-0.016985316,-0.09387021,0.005581518,0.10844645,0.13404039,0.020405909,0.054180603,-0.037726328,-0.027329627,-0.043307506,0.10312162,0.05723033,-0.04852231,-0.09166911,-0.10364725,0.037741676,0.05567254,-0.013685649,-0.036592457,-0.023266668,0.041922156,0.14666995,-0.0152487485,-0.03467801,0.0023913532,-0.04460434,-0.12227473,-0.026809433,0.032578606,-0.031620137,0.07704131,-0.017765127,-0.049764466,-0.07530302,-0.009578907,-0.08188271,0.13609889,-0.036763526,0.109920554,0.02625834,0.10347924,-0.010095816,0.12390953,0.12805639,-0.037245102,-0.054958604,0.06299946,-0.04872766,-0.039650835,-0.071654916,-0.07509111,0.06315066,0.14249893,-0.050040893,-0.08033334,0.023499485,0.19073944,0.14440411,0.05443842,-0.046973877,-0.18815115,-0.051352307,0.08555745,-0.11548685,0.043970242,0.11473328,0.054974932,-0.116456695,0.067437015,0.14429209,-0.11654554,-0.010128231,0.0021564856,0.07915322,-0.005935378,0.045587737,-0.024632316,0.051639266,-0.10478435,-0.031842552,-0.109248,0.03662188,-0.040498,-0.016712584,-0.07478651,0.15873973,0.05121854,0.16117097,-0.026983876,-0.055879075,-0.1253595,0.0074946624,0.03633852,-0.049198836,0.05560277,-0.18379754,-0.04701824,-0.0096712485,-0.046863057,-0.027385043,0.017949877,-0.086028695,0.054843277,0.048164252,0.005685881,0.18710186,0.035177764,-0.14447136,-0.15188368,0.010826672,-0.048292506,0.08935088,-0.007701289,0.02572722,-0.06518437,-0.04306827,0.1373558,-0.106622815,0.009161699,-0.12108951,0.009153273,-0.11190449,0.014029349,0.08942306,-0.14347535,0.02120979,0.10977057,-0.0252822,-0.09643204,0.009264692,0.018176047,0.07531737,-0.09139128,-0.0069514737,0.101199776,0.120725766,0.1315445,0.18580191,0.005711488,0.10181334,-0.12699677,0.0147183435,0.075256534,-0.065920904,0.015808925,-0.023352593,0.05183842,-0.026384776,0.04410538,-0.073477745,-0.04643997,0.08489287,0.024801984,-0.017550446,-0.0027577735,-0.01413634,0.07525739,-0.0822741,0.013223763,-0.13795957,-0.002661674,0.024436736,-0.07992025,0.0061967694,0.082942404,0.020532286,-0.029803174,0.13981512,-0.059940193,-0.056870714,0.09813935,-0.0042218002,0.020811278,-0.07634142,0.0061310334,-0.039665088,-0.05595571,-0.11836563,0.017489944,-0.06517196,-0.056480184,-0.029076397,-0.06722921,-0.046240985,0.05238916,-0.1154423,0.087865025,-0.0008485231,-0.04069963,0.088845916,-0.029097404,0.12921001,-0.12192362,-0.01392477,-0.04237663,-0.011220596,0.07252333,0.016220436,0.1028711,0.043130882,0.11300735,0.0714888,0.086319596,0.03266737,0.052584734,-0.112641536,-0.10552376,-0.03117163,-0.03185975,0.057522085,-0.06724085,0.0014182235,-0.009462997,0.04843399,0.0842919,-0.018216074,-0.08238328,-0.028864406,-0.09140894,0.09805631,0.03360788,0.05049489,-0.019506298,-0.032105565,0.081970006,0.15397343,-0.026877765,0.0059455433,0.1012875,0.004212011,0.008099778,0.007691825,-0.004863039,0.058843587,0.035202768,-0.09458126,0.016746163,0.061794396,-0.030258333,0.055085015,0.02182919,0.015054097,-0.13245384,-0.026254835,0.13960898,-0.075603865,-0.03384844,-0.107725345,0.1153621,-0.07524833,0.05271415,-0.030829076,0.13164832,-0.118330754,0.06471875,0.042686474,0.10626479,0.1158085,-0.07367963,0.11416871,0.043080732,-0.039161634,0.21936886,0.1132868,-0.029504072,0.061275426,0.044457205,-0.041442033,-0.0063922014,0.056880016,-0.05481756,0.06739346,0.08006152,0.019081883,-0.06701207,0.11320616,0.043945868,0.022169797,0.10391978,0.07668625,0.021773485,0.0070273974,0.051934436,-0.05588943,-0.021565752,0.011265316,0.1215427,-0.11089547,-0.14441606,0.08942566,-0.016423903,0.10822601,-0.15134883,-0.05475014,-0.028608518,0.06278106,0.026744282,0.06663035,0.105474226,0.052692626,0.0039810375,0.2203994,-0.16449082,-0.1015481,-0.10239003,0.020807328,-0.06697643,-0.013987485,0.103656694,0.01015697,-0.08529384,-0.12639458,-0.06562536,0.16455303,-0.008521049,-0.11445518,0.1145417,0.0027682637,0.08297134,0.05363774,-0.1475236,-0.081962556,-0.15269114,-0.11874632,-0.0070552295,-0.069590405,-0.018776946,0.038394492,0.10106186,0.038514238,-0.04337336,0.014705215,-0.04199943,0.031072397,-0.042994607,0.047145918,-0.06537347,0.023424255
-0.101729505,-0.079524636,-0.06823449,0.11274361,-0.008668159,0.039884068,0.084647365,0.0028632493,-0.05043099,0.02004528,0.06033413,-0.08456956,-0.02540293,-0.13555214,-0.04348627,0.024661744,0.055897217,0.09310364,0.0764202,-0.12514555,-0.0028070584,-0.047618967,0.2114544,-0.07765552,0.015080381,0.050437625,0.047544528,0.02122823,-0.12922125,0.1089601,-0.07040809,0.044830665,0.08764533,0.009999762,0.014133031,-0.0022857212,-0.009426259,0.04706736,-0.035146058,-0.060529243,0.05645305,-0.014102254,0.07368893,-0.061336286,0.058799434,0.054195277,0.034189805,0.055282865,-0.07657937,0.12034811,0.03328514,-0.0013261812,-0.09968829,0.048477363,-0.030951565,-0.021119041,0.028793346,0.05334894,-0.100161344,0.10180515,-0.12168883,-0.09354793,-0.0895617,0.0028820045,-0.045705024,-0.014527901,0.11063124,-0.11520784,0.032930456,-0.13819692,-0.039430693,-0.09264615,0.036937263,-0.07893486,-0.046133563,0.06994924,-0.107830435,-0.052931916,-0.044575885,-0.008793831,0.09318905,0.038637415,0.021002037,3.6799822e-05,0.13364823,-0.010236316,-0.013907315,-0.094777755,-0.020159379,0.056577798,0.008066374,0.008659448,-0.125873,-0.11949887,0.047585867,-0.04500846,-0.00054962863,-0.07295178,0.105009794,-0.02540796,-0.10119336,-0.052799422,0.0977301,-0.057202533,-0.10936885,0.11720116,0.06619876,-0.006404815,-0.060402747,-0.02971867,-0.16437843,0.15425926,-0.002529437,-0.13273834,-0.09320026,-0.0750434,-0.057124298,-0.10766674,0.024572557,-0.14452764,-0.10827262,-0.07288243,-0.1177639,0.1190574,-0.026424658,0.06393546,-0.09445064,0.08586223,0.0012247828,-0.04362135,-0.14347525,-0.05896688,0.04765075,0.0011076333,-0.02727104,0.039118256,0.03391676,-0.017664064,0.105136976,0.081626765,-0.08865497,0.1258353,0.0814063,-0.0038004844,-0.035516843,0.017580003,-0.042670008,0.058345687,-0.078038126,0.048368476,-0.16901104,0.09616451,-0.055000328,-0.12408888,-0.043176435,-0.0012014104,0.007772366,0.030575339,-0.059050065,-0.059541818,0.06746374,-0.053731386,0.1410547,0.0047277445,-0.06592174,0.08437522,0.072567105,0.057629984,0.113605395,-0.060252525,0.10117021,0.09757097,-0.030844012,-0.08291153,-0.09323412,-0.114488736,0.03217279,0.06600818,0.015946228,-0.016888164,0.0713526,0.02738072,-0.00052271574,0.10041783,0.014462988,0.027126435,-0.031158544,-0.08569454,-0.0772793,0.0147448,0.02510904,-0.09675865,-0.03884961,0.11251912,0.032236937,0.044456672,-0.01213341,-0.09582323,0.09452277,0.02158848,-0.060034785,0.09096455,0.07749676,-0.008034412,-0.008776293,-0.053866293,0.09639351,0.06618013,-0.10702424,0.13850662,0.03875689,-0.07608987,-0.083790846,-0.085194886,-0.027453559,0.017905844,0.028409163,-0.0619358,-0.026990585,-0.040454764,0.04693225,-0.00959584,0.061075386,-0.019666784,0.030094156,0.033634413,0.098716155,0.013455252,0.07151864,-0.009443512,-0.08958308,0.086391896,0.06930308,-0.04456629,0.0030396855,-0.016225703,-0.026633166,-0.003756232,0.02054885,0.079170644,-0.079201244,-0.118836954,0.0013819162,-0.09677014,-0.037139785,-0.088168316,0.0802226,-0.07908693,-0.061623786,0.062814996,-0.033927973,-0.108119935,0.041050836,0.054415848,-0.10148615,0.004510265,0.06443904,-0.064447954,-0.06174291,-0.069567695,-0.10621855,0.09639925,0.11536538,0.06623607,0.000730543,-0.11861908,0.1678409,-0.1195622,0.020606996,0.05453784,-0.05997304,-0.035235837,-0.14325641,0.078039736,-0.013688235,-0.16731498,0.0429803,-0.13255659,-0.010526031,-0.11708183,0.032218054,-0.07579126,0.050633177,0.09559838,-0.07774974,-0.00078604254,-0.089166164,-0.14671661,-0.085244365,-0.059001736,-0.049536113,0.14615102,-0.057623517,0.06734774,0.02089889,-0.08897574,-0.12541267,0.022138024,-0.07252816,0.066108644,-0.07961394,0.07691311,0.06454882,-0.019446485,-0.021444367,-0.05737891,0.036673274,-0.043501753,-0.06059138,-0.048112262,0.039499905,-0.110406384,-0.16337363,0.014028184,0.062094156,0.027907023,-0.09953915,-0.057103064,0.047070675,-0.08197132,0.053475644,0.0281727,-0.12633012,-0.08121319,0.07257119,0.018438434,-0.067731716,-0.005983541,0.10162581,0.049050506,-0.01805486,-0.063245706,0.049429357,0.0016119691,0.044436578,-0.017072728,-0.009325082,-0.1322338,-0.03226369,0.0001990823,-0.14393972,0.14103027,0.12661293,-0.064246655,0.053583533,-0.06899917,0.051398005,-0.061338156,-0.147279,-0.014409078,0.054232053,0.10597333,-0.021868508,-0.08863758,0.13059893,0.10972897,-0.030148432,-0.1391218,-0.056270093,0.1728396,0.096098885,0.05965729,0.029336102,-0.14720942,0.13410017,0.10310925,0.0164857,-0.06425778,0.011742167,0.026772566,0.022810262,-0.12414549,0.017180817,-0.061710265,0.04126146,0.017482154,0.079990484,0.025787052,-0.039235797,-0.035394523,-0.14199361,-0.07118981,-0.04252957,0.09328145,0.06985098,0.103327215,0.07664292,0.03900639,0.05832413,-0.10890668,0.013138441,-0.10933443,0.016926967,0.08541017,0.120533995,0.08671748,-0.033086643,0.05622543,0.027847115,-0.020960536,0.11368316,-0.056411978,-0.01623369,-0.1010016,0.07188582,-0.0018077411,-0.060003582,-0.07095362,-0.08773163,-0.02427962,0.06487856,-0.008569449,-0.12935333,0.14797534,-0.09580926,0.07768871,-0.023919875,0.10201839,0.043023508,-0.11663449,-0.069191605,0.04755853,-0.00036786776,0.06720568,-0.080406785,-0.10086546,-0.058765534,-0.06237905,-0.01943621,-0.06094997,-0.04052733,-0.07511464,-0.015561595,-0.1091711,0.04230218,0.14485477,-0.046959702,0.08198358,-0.028350452,0.020929571,-0.017434148,-0.0008601316,-0.09257878,-0.09357391,-0.12395493,0.10881828,0.07907227,-0.1214796,-0.02149701,-0.062051743,-0.048095103,-0.14268088,-0.10052963,0.16902019,-0.08327182,0.015659738,0.046202008,0.09519301,0.04531057,-0.028983442,0.13545232,-0.0065182666,0.07224934,0.013176441,0.06571169,-0.08456206,0.14956634,-0.16273686,0.07590555,-0.046471197,0.025321066,0.045692578,-0.111712314,-0.07781158,-0.055873487,0.02155143,0.050137397,0.10163767,-0.010290841,0.06027585,-0.045437608,-0.059130125,-0.027406752,-0.071663305,-0.0076418715,0.056256566,0.09476735,-0.11146454,0.14025535,0.08051152,-0.0648503,-0.09742301,0.09135775,0.015251695,-0.09071737,0.1203886,-0.18680689,-0.005472322,-0.06498083,0.08622733,0.033230986,-0.043993462,0.074556485,-0.06513334,0.05114279,0.13681193,0.06606323,-0.07866022,0.01542931,-0.16563039,-0.03168809,-0.10434569
0.07744266,0.015280658,0.004590249,-0.070826046,-0.039621554,0.051092796,0.017856501,0.0052358476,-0.012419109,0.031158062,-0.11923484,0.14442737,-0.047314197,0.07607172,-0.05992647,0.016227966,0.0686461,0.038134564,-0.06499819,0.12101517,0.02469888,0.09649179,-0.08622933,0.07607534,0.13588078,-0.04450582,0.12118236,-0.09545916,0.09250351,-0.14076726,0.14443132,0.01732367,-0.13041726,-0.036240354,0.017363613,0.067116916,-0.043243457,0.069241926,0.16053687,0.13511746,-0.20849164,0.11980214,-0.054104958,-0.059676252,-0.081473336,-0.023943048,-0.112484574,-0.011953669,0.17045864,-0.19625889,0.03315443,0.0070306472,0.12019102,-0.074013405,0.12553556,0.0569584,0.01122049,0.101428226,0.10283351,0.0037952717,0.130882,0.1734039,-0.013037561,0.10830879,-0.050862994,0.14639191,-0.16041642,0.03363189,0.0026789105,0.18131489,-0.007433018,0.18870711,-0.0245137,-0.01037144,-0.100218035,0.07326832,0.15370873,0.15133771,0.13113835,0.05844477,0.16170771,-0.016870974,0.03590809,-0.062906064,0.082417436,-0.11898798,0.1560127,0.10678792,0.06132376,0.026606862,0.06786278,-0.10643261,0.08289651,0.10705112,-0.00662071,0.084132664,-0.015032004,0.061669007,0.038500827,0.1365927,0.1359147,0.12857828,-0.18291488,0.045756098,0.06983972,-0.07565097,-0.05813575,0.20171745,-0.034788832,-0.08599067,-0.014947769,0.07148704,-0.022926774,0.14052176,0.07666117,0.079026386,0.020100586,0.010048468,-0.027914803,0.10287923,0.05331773,0.06053819,-0.027771447,0.013670219,0.054644108,-0.025351297,0.07526623,-0.026117388,-0.07752365,0.045106,0.07784334,0.01288356,-0.032310173,0.065408655,0.011087311,-0.13595049,-0.119384594,-0.003496996,0.0019901013,-0.10707306,0.114535324,0.06611239,0.07813037,0.040368803,0.020476384,0.11073943,-0.004615981,-0.038411453,0.01604454,-0.051147867,0.10308223,-0.010633974,-0.051834423,0.032627814,0.08708224,0.07605866,0.008191122,0.12967171,0.11947338,0.15460257,-0.017025517,0.030115636,0.013058243,0.049807556,0.08165863,0.105651066,0.017116023,-0.056582067,0.040669046,-0.020820394,-0.039554853,-0.0045852526,0.10418237,0.05549661,0.0708435,0.106132776,-0.06251425,0.031561863,-0.042723417,0.0154031785,-0.08236154,0.05153932,-0.0053194403,-0.013115655,-0.011876994,-0.015933074,0.040677007,0.12129695,0.21893215,0.032828733,-0.113967404,0.034355767,-0.049963478,-0.025465135,-0.08606982,-0.17473048,0.14187014,0.021252362,-0.018203285,0.06136677,0.18812682,-0.12396354,-0.14016859,-0.03969174,-0.018353261,0.027857635,-0.072957784,0.03658929,0.07391501,-0.06395967,-0.1494511,0.093406655,-0.07206331,-0.00604067,0.0642888,-0.078280084,0.041071393,0.07967666,0.06970123,0.052062854,-0.0083503565,-0.020468574,-0.016749833,0.1605097,0.031406377,0.041669067,-0.0479179,-0.03032731,0.06686881,8.580705e-06,-0.0521195,-0.13207556,-0.110262506,0.09282378,-0.026609834,-0.09155377,-0.0012452842,0.04139037,-0.031224372,-0.016352367,-0.03540064,0.022573536,-0.02332779,0.006166544,-0.07333015,0.0754189,-0.12885866,-0.008760913,0.14009915,-0.027347174,-0.0058345743,0.017091606,0.13225901,-0.06301597,0.015241576,0.08919721,-0.063850164,0.011842943,0.054211337,-0.043734055,0.0027461923,-0.024734255,-0.08403347,-0.075696416,0.011262634,0.04787082,-0.0812992,-0.030869704,0.02265083,-0.017379362,0.0732444,-0.08989303,0.17414685,-0.10878653,0.053211417,0.05594145,-0.072389945,0.110887036,0.082331814,0.08672527,-0.08009663,0.034416854,0.085294634,-0.1215803,-0.03086275,-0.07202346,-0.03231865,-0.009332866,0.04990042,0.01453666,0.034721985,0.0081212,-0.021235472,-0.040073574,-0.026152411,-0.0063812365,0.099602446,-0.14390862,0.072354525,-0.06531564,-0.017594531,-0.105499595,0.077993855,-0.03466684,0.047764797,0.06587332,0.09199862,-0.02986218,-0.053311367,-0.0489506,-0.06615757,-0.10389028,0.18168776,-0.07934494,0.028913826,-0.13835673,0.0779621,-0.0020555833,-0.028619826,0.06733149,-0.056631666,0.09208842,0.06945879,0.056778185,-0.030480048,-0.1063529,-0.08494236,0.07834585,0.054342628,0.028213315,-0.1193302,0.11009933,-0.04258265,0.119384214,-0.061807815,-0.104507156,-0.017839668,0.17211363,-0.04034986,0.06503799,0.03752367,-0.1577651,-0.13780697,0.12922099,-0.029519487,0.15497665,-0.14181432,0.12544362,0.09683372,0.08551064,-0.043430816,-0.028695216,0.0664848,0.1362639,-0.107192986,-0.11488697,0.052387245,0.0593834,-0.095661916,-0.018177686,-0.10472757,0.019923413,0.042137936,0.102537476,-0.08643785,-0.03313364,-0.039514504,0.07889119,0.045229837,0.012161227,0.051321693,0.038776904,0.016296979,0.056899425,-0.07080539,0.09586051,-0.12268342,-0.009329703,-0.114070825,0.12932868,0.06745831,-0.011733563,0.07932643,-0.09098564,-0.069170944,-0.14504679,0.064734824,-0.005813972,0.012524384,-0.019363597,0.03840507,0.16396315,0.051330242,-0.116966665,-0.04683527,-0.038470525,0.034976546,-0.038618952,-0.12191649,-0.03723845,-0.08794334,0.11476897,-0.0452089,-0.01695747,-0.016598197,0.10474564,0.076613404,0.1061034,0.118669555,-0.03318275,-0.0307635,-0.010768128,0.09122948,-0.029986903,0.16875474,-0.06704484,0.110587195,-0.07176794,-0.012152084,0.016554303,0.16384563,0.030351821,-0.04275741,-0.09259794,0.0060082837,0.08398673,-0.029277775,0.058616538,0.07295979,0.0071888412,0.0069158184,0.039503023,0.027059378,-0.09826233,-0.12906381,-0.13289845,-0.07463852,0.09319656,-0.015200693,0.056383245,0.06810435,-0.063764386,0.0770876,0.059541374,0.119932264,-0.15544194,-0.08700182,-0.043495324,0.11344276,0.050834145,-0.037240047,0.007217416,0.12787919,-0.04114783,-0.12581685,-0.009648023,0.047630012,-0.080526404,-0.020099085,0.008372369,-0.11420384,0.0026095805,0.04234251,-0.06477108,-0.08884265,-0.0542147,-0.032778326,0.060917564,-0.06054149,0.058495063,-0.041610435,-0.036654226,0.107744955,0.029963614,0.11698534,0.04048446,0.018786078,-0.032679304,0.06125239,-0.043000784,0.10116897,0.16583903,0.041665107,0.061706834,0.08847178,0.06020622,-0.14988734,-0.015507322,-0.1631878,0.0853476,0.0016668118,0.044788156,-0.023596609,-0.0029007376,0.13714862,-0.0693284,0.116635576,0.006915535,0.0771432,-0.065207824,0.10326133,0.04761542,-0.1042974,0.17823519,0.036791097,-0.037226558,-0.07066584,-0.008250446,0.04477733,0.101915404,0.12243913,0.0070779435
-0.04572858,0.07612368,0.016643278,0.10287849,0.074551746,-0.11393584,0.05254412,0.05130163,0.03256126,0.0657104,0.03373059,-0.019498328,-0.02900745,-0.00873797,-0.0127797425,0.0077645257,-0.057039794,-0.061731208,0.054848544,-0.09698444,-0.0156542,-0.009263511,0.07121647,-0.016057115,0.05196362,0.035964213,0.025585331,-0.07388089,-0.03539522,-0.002423499,0.025734479,-0.032213267,-0.03717204,-0.062073488,-0.11793812,0.08509818,-0.044457037,0.045957264,-0.025889618,0.03728566,0.012445625,-0.037786186,0.0529478,-0.015364899,0.15057409,-0.042149745,0.036967374,0.00352012,-0.037977763,0.023867559,-0.07625274,-0.036191065,0.017429354,0.011967246,0.062428314,0.006581193,-0.050776046,0.04071221,-0.012281999,0.09165994,0.07463623,-0.08326999,-0.07514838,-0.05305755,-0.06839276,-0.0628609,0.015956705,-0.09568977,0.059387933,-0.0001737736,0.0353622,0.0027989065,-0.102661215,0.056530252,0.019571185,0.008486499,-0.051473208,-0.00061549945,0.0105054425,-0.014055622,0.03563897,-0.006645504,0.07804735,-0.014117286,-0.03326731,0.06530138,-0.06191852,-0.058965873,-0.050141674,0.041978244,0.0061227,-0.01566663,0.039726086,0.010555601,-0.076964915,0.005568726,-0.0050497223,-0.0415618,-0.035924673,-0.07450615,-0.07960907,0.047466405,0.09226197,0.015034152,-0.017454814,-0.0055950684,-0.020624569,-0.066689655,-0.05446149,0.012201989,0.038570926,-0.030500961,-0.018556664,-0.055468284,0.013893655,-0.058784142,-0.04134095,-0.05111766,-0.028626503,-0.064668626,-0.02264258,-0.035011105,-0.08723555,0.086840935,-0.14262895,-0.04201611,-0.07892729,0.0022830863,-0.06609281,-0.00095966837,-0.026293,0.024903893,0.06230986,0.012879891,0.10137704,0.05418491,0.040219977,-0.07669159,0.034563538,0.059450194,-0.06562855,-0.011402585,0.057300698,-0.055429798,0.041970223,0.011665186,-0.039622728,-0.032777105,0.032451753,-0.017838413,-0.022978827,0.04505952,-0.118427105,-0.016510705,-0.016059663,0.00885333,0.021639539,0.0101908585,0.0066568493,-0.10034012,0.04034875,0.019821348,-0.0037074669,-0.019240659,-0.013648688,-0.044551574,0.059672534,-0.023690777,-0.028716998,-0.04976175,0.0853783,-0.023410166,-0.0018113552,-0.033839617,-0.023376998,0.013180491,0.04055588,0.013379157,-0.02206903,-0.0048273024,-0.033614285,-0.06864065,0.055915076,-0.033700168,-0.030151922,0.04235852,0.062684275,0.010755741,-0.028315553,0.095230885,0.06564329,-0.03724614,0.068329416,-0.03958109,-0.10246042,0.0869358,-0.03303323,0.056606412,0.1577858,0.11011561,-0.0047776913,0.048008364,0.020306205,0.043283988,-0.0049221986,-0.029037347,0.06673269,0.102144346,0.039165143,0.10528927,-0.06802056,-0.055030752,0.056185044,0.021577187,-0.010520943,0.103237405,0.033821654,0.029457852,-0.042985935,0.0075778835,0.0005051255,0.059056856,0.09138751,-0.04596834,-0.051573385,-0.06183705,0.05866423,-0.013827925,0.003048108,0.041507557,-0.12974271,0.089679,0.08814638,0.11545974,0.0123595055,-0.11937596,0.046295978,0.007983226,0.004266932,-0.015422779,-0.15820695,0.026534332,0.06101766,0.0116660185,0.06896152,0.03333151,0.04887695,0.028156202,0.015945854,0.112546615,0.074675635,0.027706312,0.024465686,0.059870873,-0.0345607,-0.08656005,0.13544561,0.0648165,-0.035002183,-0.055820946,0.007380028,-0.07628835,0.049526766,0.04232038,0.058207892,-0.031076545,0.09652945,-0.022632744,0.054251034,0.03174593,-0.04578021,0.11215607,-0.11206509,-0.016190799,-0.114704065,-0.1293301,-0.0031576098,0.026113594,-0.034302272,-0.07384285,0.050599013,-0.09977564,-0.009480283,0.069070175,-0.008362824,-0.16126609,0.0103471,-0.09276476,-0.008683119,0.043622226,-0.018722348,0.08092505,-0.04182135,0.10098475,0.06509209,0.049281348,-0.0367473,0.027848572,-0.075542115,0.08895401,0.06673244,0.069410875,-0.10449939,-0.10900423,0.0019321803,0.040139996,0.08666846,-0.04454672,-0.07313783,-0.029766615,0.012360485,0.07884454,-0.0897571,0.035156988,0.11907361,0.04144715,-0.028418856,0.09960123,0.057307,0.04154446,0.028253878,-0.04349403,0.016412236,0.03397835,0.045999624,-0.004315455,0.07274504,-0.045797907,-0.0088623185,-0.034917973,0.076768845,-0.023251375,-0.030080765,0.023424003,0.00093719026,-0.016917892,0.03953138,-0.014673035,-0.089517236,-0.025019785,-0.041600533,0.14790273,0.08464936,-0.071530335,-0.051323373,-0.044965968,-0.06079608,-0.05581801,-0.0739414,-0.004816939,0.05311105,0.045188997,-0.018743072,-0.06615617,0.08340262,0.023920687,-0.02794755,-0.029250665,0.052799597,0.043205813,0.041979406,0.062689066,-0.012943145,-0.050418302,0.031947568,0.0051578064,0.021655124,-0.02204637,-0.04197365,0.011778851,-0.058672927,0.06928646,-0.045897122,-0.03570288,0.060576707,0.018631583,0.09206688,0.088805325,0.03774258,-0.016260503,-0.06858642,0.012092214,-0.04694619,-0.003727163,0.010201681,0.05471941,0.06332569,0.003744548,-0.06748494,-0.018337347,0.06662521,-0.033900224,0.009260187,0.058389492,-0.024309535,0.030511118,-0.0653615,-0.052763592,0.056809843,-0.10037011,0.07169257,-0.07057026,-0.07985406,-0.008240715,0.082712516,-0.06852931,0.10036322,-0.029515559,-0.053905327,0.12896894,-0.03666816,-0.015953118,0.031996015,-0.039026793,-0.078605965,0.11826499,-0.0038736516,0.055257704,-0.025954459,0.057753973,-0.038655248,0.011022165,0.027222617,0.06383909,0.0113119595,0.02062781,-0.1065915,-0.03246125,-0.0402706,-0.07880033,0.069037564,-0.051726937,0.0018968284,-0.032834362,0.04456998,0.09503319,0.025261773,0.002132628,0.10013975,-0.0231892,-0.042170495,0.024582399,0.08280831,-0.018719558,-0.061236586,0.040420894,0.05727011,0.01772387,0.028262366,-0.09294711,-0.001268748,-0.10280269,0.038770385,0.0023173722,0.00012814293,-0.039912492,-0.024034966,0.11720776,-0.02434406,0.014839002,0.10962752,-0.059863348,-0.01997345,-0.02699596,0.06681458,0.019489579,-0.067768455,-0.021885358,0.051606614,-0.034694605,0.09033146,-0.06249115,-0.041429047,-0.050651427,-0.05979582,-0.06390321,-0.056390956,0.031554684,-0.10877856,0.06694849,-0.08009483,-0.07687137,-0.013079343,-0.09522528,-0.05701791,0.07114124,0.03341269,0.029829524,-0.00044529312,0.0066937623,-0.07882919,9.2395676e-05,0.016930515,0.048511744,-0.05380677,-0.0017234504,-0.05574869,0.10358832,-0.09137665,-0.025986798,0.016268384,0.026346255,0.11318263,-0.076093994,0.1117659,-0.0027521795,0.07114503,-0.01475414,0.0583981,-0.09734513,-0.06993714,-0.081827804
0.07647373,-0.08173223,0.05582265,-0.13035965,-0.024870306,0.12566629,0.0991427,-0.03761262,-0.0018573983,-0.004400519,-0.14353298,0.08244579,0.0033868146,-0.0016397963,-0.12407212,-0.1728251,0.03797922,-0.034824077,-0.0523638,0.09207431,-0.00691659,-0.0424016,-0.1470357,0.16126224,-0.026675954,-0.13181543,-0.060357645,0.010928578,0.081764884,0.060916238,0.038118936,0.025714403,0.001985642,0.03494402,0.15465239,0.16247053,-0.07678005,0.011315156,0.035767376,-0.0470058,0.005627089,0.11398578,-0.05281425,0.034420718,-0.20052394,-0.07095735,0.00018861164,0.021750553,-0.02935827,-0.063563295,-0.018293144,0.17755453,0.107062645,0.013199574,-0.0366361,-0.09701982,0.054143637,-0.024341026,-0.06996809,-0.16441071,-0.04894731,0.09700724,0.07722629,0.06198378,0.11638628,0.14355564,-0.09910037,0.028396234,0.009286106,0.16650742,0.035188403,0.14316408,0.16010694,-0.11220176,-0.097908616,0.118663095,0.13703589,0.0024819032,0.06891423,0.08662052,0.18145344,-0.09714673,-0.14864044,0.003548838,0.049921192,-0.113449045,0.012528934,0.097766146,-0.007599993,0.055884246,-0.04444152,-0.031026173,-0.030329391,0.020940978,0.14933427,0.055570442,0.08113947,-0.023560982,-0.09744111,0.042590592,0.047096178,-0.0248454,0.018363954,-0.033895288,0.027373884,-0.09833273,-0.03938122,0.1305461,0.052217327,-0.13643721,-0.15508069,0.121890254,-0.03944549,0.008358426,0.114479,0.022814808,-0.015901122,-0.094092876,-0.09250495,0.16307655,-0.114746556,0.03878468,0.13939199,-0.14137812,0.199125,-0.084046856,0.0786862,-0.10951468,-0.0013410917,-0.09275901,0.04931961,-0.012034169,-0.05706738,-0.0263988,-0.066467434,0.085293666,-0.103441685,0.0716227,-0.13588835,-0.1487394,0.14386776,0.017023833,0.02131842,0.17702344,-0.062785685,0.1138137,-0.12648681,-0.040646628,-0.07745065,0.033112615,-0.083453245,0.042049184,0.08146158,0.092373,-0.0007588585,0.028159244,-0.04537989,0.022693885,0.10819768,0.13649838,-0.07622121,-0.033130173,0.010776273,0.02171901,-0.07531063,0.022244925,-0.037180692,0.03183651,-0.14984968,0.10237837,-0.11027168,0.13343944,0.0913065,-0.0054321736,-0.0010721027,-0.01783879,0.032644715,0.037370566,-0.09384379,0.02780129,0.091574855,0.006072357,0.005047219,0.000173908,-0.034955554,-0.022683559,-0.077888265,-0.07347575,0.13552432,-0.17468333,-0.08867907,0.23638947,-0.116163686,-0.033846162,0.0028515283,-0.18189457,0.034286134,-0.0473487,-0.029094968,-0.12410007,0.10549611,-0.033815507,-0.08288999,-0.042029794,0.01907899,0.037229445,-0.018316876,-0.18942325,-0.0043587442,-0.19186217,0.06406555,-0.008937321,-0.026409343,0.01693642,-0.112175405,-0.050525982,0.018264262,0.01241895,0.044759907,0.09735474,0.0036886502,-0.059857678,-0.02113063,0.13845305,0.029817158,0.1248179,-0.18424831,0.055682708,-0.01733551,-0.070054516,-0.01790919,-0.06094543,-0.051964853,0.006363961,0.059361365,0.21548314,-0.06512664,0.0016492419,-0.047715068,-0.041072994,0.19906607,0.18407252,-0.09381822,-0.062025044,0.0040598256,-0.13603047,-0.1358545,-0.035445094,0.09682696,-0.08259373,0.08909525,-0.10782113,0.010329491,-0.03316009,0.05534508,0.11034438,-0.13149521,-0.08362246,0.05751966,0.08132458,-0.14958039,-0.027514838,-0.063915305,0.01497469,-0.020398628,0.08634849,-0.24303654,0.08039224,-0.087826766,0.068762325,-0.043618407,-0.12590083,0.20159027,0.028791629,0.04367316,0.1877942,-0.049176626,-0.07771157,-0.08404048,0.07861238,-0.115378805,0.22836383,-0.022537865,-0.06492359,0.004421308,0.09279095,-0.15935956,0.17926092,0.076457046,-0.060090594,0.033677936,-0.23861478,-0.042876877,0.040579185,-0.076901264,-0.032604463,-0.03480995,-0.003501134,0.18228799,-0.046412017,-0.033777416,0.038559128,0.105369784,0.18216583,0.012216172,-0.011521322,-0.086488165,-0.1029804,0.23051913,0.0466122,-0.13078217,-0.09887614,0.21174566,-0.11684989,-0.16202532,-0.14100218,-0.10376529,0.07085783,-0.05862742,-0.0045489715,0.07306304,0.09694205,0.008606823,-0.050981816,-0.065403186,0.022385012,-0.016409509,-0.023924246,-0.121940464,-0.0059881983,-0.15999296,0.103352614,0.10791514,-0.11475278,-0.15494199,0.023478884,-0.046225883,0.13157578,0.021080652,0.021895172,0.04244841,-0.13718086,-0.009250925,0.026963716,-0.027184144,0.021200413,-0.025012381,-0.027307728,0.15858902,0.067960806,0.043513615,0.06203613,0.24696805,0.13220198,-0.061018307,-0.038000338,-0.14085874,0.032449715,-0.13048719,-0.02895456,-0.18514735,-0.059774972,0.00012078287,0.08938481,-0.08772204,-0.03609926,0.03444006,0.062103365,-0.010637146,0.09663305,-0.049754437,0.10957951,0.01713694,0.21091497,-0.08483343,0.02724133,-0.23925625,-0.06361525,-0.045148276,0.05028888,0.09989331,0.010468125,0.087846786,-0.11775449,0.03238772,-0.092867434,-0.024116935,-0.16664805,0.044595417,0.011068545,-0.004068817,0.025267737,0.032643687,-0.2574953,0.05003257,-0.104046814,0.16728845,0.012706347,0.11327002,0.0651562,-0.045507204,-0.106133565,-0.031025885,0.06451591,-0.12477408,0.12475083,-0.16138649,0.077212706,0.059539866,0.025750572,0.13083321,0.03284535,0.023138875,0.094417006,0.15595531,-0.034741946,-0.034829736,-0.087474264,-0.021382188,0.06989466,0.115863174,-0.06422704,-0.08444019,-0.11375074,0.0006193476,-0.07616173,0.006712755,0.17032716,0.21483678,0.117341965,0.06714303,0.060390383,-0.08122558,-0.020794565,-0.20717466,-0.10048865,-0.17648356,-0.10263143,-0.057291504,-0.08406604,0.049453083,-0.081546694,-0.115097016,0.06363585,0.1304572,0.026846351,-0.16811107,-0.0008775015,-0.050058324,0.08598816,-0.06412765,0.15157238,0.043337498,-5.845728e-05,0.034967545,0.018928709,0.10851314,-0.13958514,-0.07420015,0.057566877,-0.10435398,0.1230323,-0.031191012,-0.026331684,0.012177596,-0.023292143,0.09124394,0.101305366,-0.06812927,-0.023015551,-0.09136272,-0.013176976,0.17121123,0.052909203,0.2238527,0.13019554,0.1448225,0.05866144,0.11821414,-0.05720173,0.020212876,-0.019440092,0.07944734,0.1969108,0.1389201,-0.048255805,-0.18424892,-0.07154845,-0.09610056,0.15447646,0.0015979053,0.010369465,-0.10670885,-0.09760808,-0.012413306,0.04241187,0.13550308,0.05596565,0.11116019,-0.08317694,0.028137742,-0.13211603,-0.22476852,0.075279474,-0.060426768,-0.11451403,-0.10196577,0.041348,-0.05623264,0.018210376,0.19152966,0.14678156
-0.042490624,-0.09331045,0.17482458,-0.17895785,0.16608913,0.14385024,-0.034627054,-0.12017114,0.10170677,0.081814475,0.09314579,-0.10594483,-0.06710159,0.036440562,0.023388304,-0.04587015,-0.050230887,-0.044904877,0.05500813,0.1486667,0.11569554,-0.11915655,-0.19632225,0.10622942,0.06580083,-0.009780349,0.08780977,0.120797,0.01891166,0.056036156,0.078423046,-0.013341164,-0.08651569,-0.038959067,-0.078525014,-0.0868425,-0.00021482706,0.15099405,-0.035193287,0.033950713,-0.02371784,-0.06809858,0.044239096,-0.027522458,-0.023526842,0.0019433907,0.010809505,0.043732196,-0.052331537,0.06071358,-0.18992798,0.071961775,-0.07809263,-0.010922622,-0.08931004,-0.0846748,-0.04394505,0.1864481,0.0029898414,0.14292148,-0.058999382,-0.03876843,0.08626546,-0.0684475,0.051914886,0.05751188,-0.1385721,-0.10694738,-0.11510579,-0.14634642,-0.13248038,-0.05162907,-0.001383613,-0.041968767,0.07399159,-0.042502932,-0.059771158,-0.018669145,0.13062826,-0.049239095,-0.025270049,-0.123038106,-0.07624523,-0.036123723,0.043355387,-0.11073342,-0.13643692,0.016876947,-0.16301905,0.012291578,-0.097121775,-0.024999643,-0.04663014,-0.1081548,-0.0820276,-0.0045620264,-0.039428253,-0.18357007,-0.0856133,0.0039330204,0.1362466,-0.13070887,0.16644658,-0.16680005,-0.0654714,0.064723134,0.043344967,0.020446286,0.035904165,-0.051161043,-0.013182153,0.07295846,-0.15212874,0.13782357,-0.10143946,0.08160761,-0.10752343,0.088330604,-0.1117358,0.03428179,-0.14821714,-0.04242766,0.036601856,-0.07770183,0.099607654,-0.06558565,-0.1534397,-0.10523545,-0.014991512,0.016680742,0.017761795,-0.0370711,0.092467844,0.06901788,0.0056291823,0.08712935,0.02716756,-0.1257597,-0.006591576,0.121318094,-0.035253204,0.046607826,-0.07224037,-0.061729517,0.2428261,0.030591093,-0.12116915,0.1420431,0.026708933,-0.001605141,0.0777808,0.04381359,0.040573742,-0.06287841,0.080979526,-0.027722005,-0.11168658,-0.16130552,0.011861737,-0.029861525,0.014558089,-0.048681177,-0.016265854,-0.20585373,0.006274081,0.031940054,-0.058414023,-0.1719453,0.11350833,-0.023322994,-0.007913,0.19326706,0.026686218,0.101333946,-0.113465026,0.090155154,-0.035666797,0.08578992,-0.08135963,-0.017083267,-0.01016097,-0.012272367,0.12725411,-0.07468922,0.047212858,0.014005002,-0.028679427,0.03149619,0.07825133,0.1230817,0.08695458,-0.090153635,-0.14879844,0.02359127,0.11232463,-0.18718088,-0.16079837,0.0642526,-0.064377666,-0.032039564,-0.01391083,0.051087864,0.123949155,0.051460437,0.059813555,-0.074303314,0.031117618,0.097916424,0.049281627,0.048401784,0.09331346,-0.013962053,0.08732041,0.07141334,-0.046522755,0.07594874,-0.038305998,-0.14421132,-0.048092775,-0.13921702,0.13077162,0.09846792,0.0090398835,0.12205662,0.011556111,-0.027600873,-0.11576688,-0.13692032,0.06808532,0.025482139,0.052817132,-0.11591934,0.07222023,0.16001122,0.03916118,-0.037399046,-0.1958965,-0.063410215,-0.0548142,-0.008943314,-0.17466749,0.18202694,-0.13512592,-0.19650978,0.03522371,0.08509727,-0.059925664,0.16414899,-0.0778054,-0.039663542,0.056343496,-0.09255349,0.049622294,-7.588591e-06,0.06709251,-0.055506743,0.16172822,-0.057342287,0.09488862,0.04233746,0.054281898,-0.023432137,0.06915737,0.036425527,-0.13224949,0.0255929,0.012038242,0.14729087,0.079088286,0.052245867,-0.048993193,-0.11408425,-0.041801326,0.042966895,0.006754237,0.0012814798,0.0313548,0.13360788,0.052098952,-0.12415679,-0.042982705,0.17798093,-0.03931031,0.11447169,0.13275284,-0.005565243,-0.094312005,-0.13109784,0.14066084,-0.103902966,-0.1597719,-0.018641746,-0.070463926,-0.047707547,-0.12075421,-0.075084664,-0.050046142,-0.051780794,0.028714148,0.03486869,-0.08683801,0.14915201,0.12934409,-0.06177021,-0.105479136,-0.018763687,0.11953309,0.13540244,-0.038448922,0.053883325,-0.13141909,-0.0009382756,-0.034429118,-0.016361702,-0.04361119,-0.10741134,-0.076949514,0.112087734,-0.05403297,0.10298729,-0.015281264,-0.08437549,-0.06589582,-0.0957382,0.05427225,0.0016914695,-0.10050572,-0.1434582,0.1862511,0.0016078262,-0.0023585006,0.1377496,0.13253707,-0.07070823,0.10412303,0.08698949,0.071512416,-0.020829013,-0.054905407,-0.07851861,0.07036386,-0.022756726,0.015146293,0.0663862,0.062931135,-0.086063154,0.030344186,-0.17383617,-0.16167249,0.0034755014,-0.006888787,0.09347718,-0.1150115,-0.011102575,-0.019771349,0.02005438,-0.06587025,0.05618604,0.00837685,0.0355296,0.10337722,-0.01791345,0.054694053,0.0072937184,0.05218826,0.052212212,0.09686435,0.049191274,-0.01210633,0.11343359,-0.12798147,0.0393955,-0.054811433,-0.04739953,-0.13070916,0.12274148,0.04806949,0.05079787,-0.03336768,-0.12102399,0.013428091,-0.075626746,-0.1278281,0.052579287,0.11615663,0.02535539,-0.10536291,0.10216633,-0.2017146,0.034341063,0.04434042,-0.06456813,-0.05906381,-0.09974647,-0.0061899177,-0.06135198,0.14131725,-0.041100048,0.0642168,0.054484233,0.10499735,-0.051721126,-0.105384745,-0.06440215,-0.0601984,0.12921464,-0.11992063,-0.15290625,-0.12506549,0.069718614,-0.04360877,0.09283748,-0.092286065,-0.025369542,0.017075697,-0.09814884,-0.030366428,0.029711945,-0.030290073,-0.123874776,-0.1057231,0.022405546,0.022263262,0.096148804,0.046326343,0.0038127454,-0.049058568,0.1458771,0.054314535,0.052848008,-0.05969883,-0.005840653,0.13164075,-0.10797178,-0.09519156,0.010447934,-0.13604224,-0.020422837,0.043253094,0.07097019,-0.035873856,0.0018356391,-0.06453765,-0.027888276,0.042170547,0.13337567,-0.091797225,0.17562938,0.024043791,-0.06575616,0.003744619,-0.10537687,-0.039812192,-0.10252278,-0.004666912,0.13959517,0.02213061,0.1302582,-0.040061686,-0.08615144,-0.20313478,-0.09504248,0.023197548,-0.15384476,-0.060595572,-0.10186164,0.019861052,0.10221205,0.05023547,-0.006214064,-0.08314588,0.06646762,0.053498913,0.00097362924,0.057737976,0.05633174,-0.10192488,0.13657525,0.037509747,0.06322394,0.16296665,-0.09258601,0.089756764,-0.06521247,0.07267043,0.057220727,0.030393848,-0.07106112,-0.0011624839,-0.05681312,0.023108827,0.18597184,-0.021355879,0.05284903,0.12363278,-0.0412999,0.106697045,0.0351336,0.015182038,0.09564308,0.08009184,-0.08427064,-0.035032026,-0.052422114,-0.041148107,-0.04330117,-0.035369977,-0.019987898,0.029038997,-0.086289525,-0.084380135,0.041246686
-0.029787173,-0.11541829,0.09266834,0.015563647,-0.08334287,0.048865747,0.012721905,-0.15051769,-0.036009673,0.079151616,0.0046740295,0.012258244,0.1648545,0.1278058,-0.11617202,0.052041378,-0.061455168,0.12699443,-0.05022712,0.18403392,0.075056575,-0.059664343,-0.17511475,0.12767208,-0.110774405,-0.019397475,-0.07424797,0.011126115,0.1306825,-0.031121617,0.008308387,0.014435636,0.06572558,-0.031141264,0.060137466,-0.045303047,5.719842e-05,0.11129982,0.1749896,-0.07267787,-0.07025422,0.09581039,-0.124863945,-0.017930651,-0.08884078,-0.027242914,-0.16516766,-0.058980126,-0.07015794,0.06529404,0.0704518,-0.017233059,-0.018712616,-0.19795245,-0.04775698,0.037726503,0.068927206,0.050292797,0.094621696,-0.28770837,-0.093535975,0.05133059,0.16691649,0.007636676,0.089536235,-0.042178866,0.03898935,0.18158615,-0.07708695,0.18268122,-0.06905929,0.014768818,0.122638404,-0.07830945,-0.11281776,-0.1326553,0.026463944,0.012818308,0.098185144,0.06475736,0.043991353,-0.06758098,-0.05309114,0.057592932,0.022505095,-0.029535007,-0.081229545,0.025296122,-0.02377145,-0.012847528,-0.016854258,0.11231485,-0.041102797,-0.030159552,0.1386186,-0.058438506,-0.116299585,-0.014614728,0.12878332,0.013844105,0.06581905,0.08119511,-0.13563709,-0.025267899,-0.022191888,0.0022571054,-0.0795326,-0.036490116,0.008873674,0.1372194,-0.091407716,-0.06397319,0.0833464,0.007815191,0.021440376,0.10246007,0.03343137,0.11726469,-0.13635878,0.11148316,0.1340798,-0.061195806,-0.037680514,-0.11768068,-0.06399949,-0.10296448,-0.020871002,0.072653815,0.049551062,0.06537924,0.03768015,0.02762996,-0.05083494,0.08716181,-0.08880904,-0.008494248,0.046938818,-0.12801774,-0.09818434,-0.018003982,0.01767984,0.1547704,-0.048275348,0.06462391,-0.03250019,-0.08175555,0.020028979,0.06130483,-0.14923313,0.11105331,0.0059904717,-0.007533677,0.14482085,0.073008224,0.08521085,-0.004339698,-0.05592899,0.00057566544,-0.0872438,-0.018452719,-0.014158251,0.09250739,-0.14923082,0.055814356,0.13506514,0.03485803,-0.13532166,0.028620927,0.07505982,-0.045839474,-0.134455,-0.14128295,0.013445377,-0.10515674,0.015073503,0.19446103,0.07699048,-0.18969457,0.062994614,-0.081453376,0.05171459,0.013203536,-0.033163205,0.11682102,-0.114637196,-0.10662522,0.08641332,-0.028431006,-0.05278817,-0.17663509,-0.11855707,0.16143519,-0.19254076,-0.063429065,-0.0010794479,-0.12559721,0.07953577,0.06504624,-0.21479255,-0.085980736,-0.058455124,0.010664149,-0.057370212,-0.041358706,-0.15828632,-0.09421536,0.0039841817,0.10015547,-0.09482355,-0.051486332,-0.06956894,-0.07431643,0.023437025,-0.073300965,-0.083295316,0.047912665,-0.11291272,-0.052147143,-0.0071575167,-0.0094139995,-0.048013065,0.117840864,-0.07834308,0.049068112,0.12892829,0.08709456,-0.15605992,0.055304524,-0.04147131,-0.023607029,0.038432732,-0.05415837,-0.1733665,-0.121165946,0.11814231,-0.09161275,-0.13077913,0.06861726,-0.09197614,0.06176323,-0.08257509,0.020769676,-0.003869292,0.06280565,0.112414904,0.10813601,0.035943776,-0.13096286,0.10879578,-0.11837653,-0.056429453,-0.0832462,0.14199044,0.06079828,-0.14299196,-0.09025531,0.00067668746,-0.03942591,0.0760934,0.120570555,0.044311747,-0.17351387,-0.16292901,-0.14385043,0.028871752,0.091528304,-0.21007323,0.14657654,0.05857479,-0.035161566,0.096415736,-0.18211146,0.09708363,0.09264041,-0.025451586,0.2140931,-0.09966799,0.09119731,-0.15378316,-0.015360852,-0.07035483,0.06502984,0.0086095715,-0.09248921,0.1409357,0.12697026,0.09528291,0.12719259,-0.016954245,-0.075623654,0.11792641,-0.16963199,-0.1045406,-0.15019374,-0.026537186,0.095237836,-0.089332946,0.05095335,0.18217176,-0.22526568,-0.09032405,0.06516457,0.049198475,0.0995411,-0.012982135,-0.10673836,0.059837423,0.10846814,-0.09802197,0.098999314,-0.08817133,-0.08289716,0.173273,0.06974352,-0.08523182,-0.2175321,-0.039714593,0.039683502,-0.2263256,0.08222757,-0.08743438,0.12113974,0.028031284,-0.037341647,0.10556498,0.055450544,-0.16052148,0.05270299,-0.102379285,0.038431536,-0.050489165,0.11235197,-0.030170029,0.06692613,0.1144521,0.104957454,-0.08724538,0.095580496,-0.020921327,-0.13402267,0.118870676,-0.17822069,-0.15702032,0.03194329,-0.06352169,0.076674566,0.0076623997,0.17361856,0.047530077,-0.10570332,-0.08927459,-0.050900366,0.007877818,-0.0738332,-0.171823,0.09051038,0.1300502,0.028032659,-0.18750687,0.05577714,0.032687895,-0.10431053,-0.0069399807,0.18644099,-0.03700485,-0.11975007,0.13887835,0.11676974,-0.12228823,0.18976173,-0.004389645,0.05461637,-0.13523993,0.13076517,-0.11236233,-0.12623398,-0.19098322,-0.044020586,0.06675294,0.09325672,0.2001221,0.03272427,-0.025212146,0.103155665,0.014718507,-0.16169138,-0.0983857,0.04483815,0.09303143,0.018084297,0.0105069205,-0.01682764,0.041939378,-0.12951589,-0.062030803,-0.17706817,0.16006702,0.007853863,-0.06971274,-0.05508054,-0.19317353,0.1818681,0.03286795,-0.018105261,-0.07314173,-0.07147108,-0.07255792,-0.105835214,0.0067538833,-0.10297265,0.004766369,-0.044201773,-0.116097055,0.05960285,-0.014428686,-0.0020037189,0.013230403,-0.22794001,-0.02476278,-0.15766066,0.15312003,-0.09691992,-0.048924837,-0.070667244,-0.14883792,-0.06474305,-0.016219812,-0.0020774144,-0.11729894,0.0011061036,-0.17356881,0.1581715,0.13431287,0.085028954,-0.07959912,-0.12075357,-0.034847897,0.07502582,-0.08531636,-0.12815982,-0.024650397,0.040619545,-0.20468958,-0.016311193,0.036481414,-0.14480713,-0.108922206,0.030568391,0.074007146,-0.03384767,-0.055550303,0.058610126,-0.090010546,-0.047715038,0.032868654,0.077197984,-0.056857552,-0.12162989,0.054114792,0.07126435,-0.22041567,0.19408673,0.056996286,-0.13811465,0.0628158,-0.005628102,0.015698446,-0.040441975,0.04073664,-0.026711086,0.020026203,0.20025301,-0.07821407,-0.13224627,-0.021182898,-0.069900446,0.19115436,-0.09041848,0.036892425,-0.027250225,-0.0794323,0.030285785,-0.07262014,0.035539996,0.11623358,0.057944853,0.020337328,-0.06603366,-0.101537734,0.07227227,-0.093154974,-0.0647139,-0.21946973,0.0319734,0.122389875,0.032997586,0.17579916,0.14392078,0.018289821,0.10558296,0.077733524,-0.14143282,-0.16849092,0.106522895,-0.15934321,-0.04253455,-0.09645461,0.034122385,0.04273394,0.05741632,-0.04803376,0.08723584
